0.100,0.100,0.100,0.100,0.100,0.100,0.100,0.100,0.100,0.100
-0.070,-0.127,0.139,0.077,-0.179,-0.068,-0.249,0.364,0.027,0.122
0.089,-0.014,0.232,0.271,0.009,0.081,-0.178,0.513,0.047,0.105
0.130,0.026,0.361,0.368,-0.115,0.121,-0.062,0.563,0.160,0.173
-0.180,-0.159,0.120,-0.020,-0.311,-0.136,-0.310,0.265,-0.201,-0.181
-0.029,0.040,0.254,0.166,-0.286,-0.130,-0.136,0.442,0.133,-0.090
-0.256,-0.268,0.112,0.011,-0.421,-0.305,-0.390,0.165,-0.326,-0.324
-0.404,-0.509,-0.116,-0.190,-0.478,-0.376,-0.554,0.058,-0.447,-0.318
-0.444,-0.475,-0.186,-0.280,-0.589,-0.566,-0.625,-0.037,-0.493,-0.583
-0.577,-0.617,-0.249,-0.294,-0.696,-0.726,-0.680,-0.082,-0.468,-0.541
-0.467,-0.336,-0.125,-0.202,-0.515,-0.457,-0.656,0.047,-0.578,-0.525
-0.178,-0.057,0.046,0.098,-0.281,-0.080,-0.351,0.328,-0.159,-0.114
-0.016,-0.033,0.278,0.339,-0.141,-0.011,-0.150,0.385,-0.033,-0.041
0.118,0.092,0.367,0.443,-0.050,0.110,-0.116,0.560,0.120,-0.040
0.055,0.140,0.390,0.339,0.042,0.057,-0.196,0.575,0.013,0.113
0.274,0.254,0.445,0.557,0.093,0.270,0.039,0.822,0.293,0.334
0.038,0.092,0.332,0.389,0.013,0.061,-0.193,0.575,0.164,-0.082
0.598,0.483,0.779,0.871,0.324,0.512,0.207,0.940,0.633,0.361
0.457,0.345,0.637,0.771,0.362,0.311,0.188,0.948,0.403,0.412
0.027,0.076,0.378,0.450,0.112,0.030,-0.183,0.600,0.156,0.275
0.028,-0.058,0.226,0.262,-0.079,-0.102,-0.193,0.467,0.085,-0.061
0.007,-0.069,0.299,0.394,-0.011,-0.111,-0.185,0.521,-0.012,-0.075
-0.205,-0.276,0.125,0.126,-0.166,-0.279,-0.425,0.342,-0.073,-0.153
-0.401,-0.510,-0.198,-0.078,-0.611,-0.501,-0.608,0.096,-0.387,-0.450
-0.381,-0.518,-0.106,0.008,-0.538,-0.260,-0.678,0.091,-0.328,-0.300
-0.083,-0.193,0.133,0.145,-0.217,-0.039,-0.411,0.366,-0.102,-0.193
-0.042,-0.077,0.269,0.275,-0.139,0.044,-0.242,0.419,-0.053,-0.040
-0.090,-0.077,0.112,0.242,-0.241,-0.104,-0.129,0.378,-0.066,-0.107
-0.008,0.006,0.203,0.403,-0.279,-0.075,-0.224,0.535,0.106,0.106
-0.204,-0.284,-0.009,0.141,-0.341,-0.134,-0.604,0.294,-0.191,-0.229
-0.272,-0.408,-0.110,0.079,-0.520,-0.331,-0.633,0.168,-0.364,-0.295
-0.375,-0.337,-0.062,0.155,-0.415,-0.174,-0.522,0.167,-0.328,-0.228
-0.043,-0.029,0.270,0.401,-0.244,0.025,-0.125,0.457,0.086,0.016
-0.066,-0.086,0.217,0.357,-0.212,0.031,-0.302,0.483,-0.149,-0.044
-0.272,-0.066,0.234,0.344,-0.348,-0.073,-0.323,0.499,-0.101,-0.085
-0.323,-0.328,0.146,0.125,-0.542,-0.146,-0.536,0.359,-0.122,-0.272
-0.259,-0.439,-0.004,0.027,-0.521,-0.217,-0.555,0.180,-0.215,-0.379
-0.296,-0.313,-0.056,0.112,-0.330,-0.124,-0.423,0.245,-0.229,-0.307
0.136,0.047,0.495,0.476,-0.068,0.185,-0.026,0.581,0.077,0.025
-0.177,-0.247,0.187,0.332,-0.119,0.105,-0.468,0.600,0.055,-0.150
0.093,0.130,0.326,0.457,-0.165,0.164,-0.145,0.619,0.077,0.062
0.189,0.356,0.568,0.607,0.049,0.426,0.020,0.826,0.295,0.298
0.306,0.309,0.526,0.730,0.072,0.335,0.070,0.829,0.322,0.212
0.024,0.197,0.364,0.577,-0.044,0.327,-0.122,0.760,0.254,0.056
0.018,0.143,0.395,0.500,0.065,0.101,-0.102,0.656,0.172,0.058
-0.192,-0.057,0.122,0.142,-0.361,-0.076,-0.472,0.391,-0.056,-0.221
-0.319,-0.378,-0.235,-0.084,-0.501,-0.384,-0.594,0.177,-0.425,-0.454
-0.296,-0.266,-0.107,-0.065,-0.418,-0.201,-0.473,0.253,-0.332,-0.302
-0.523,-0.442,-0.219,-0.196,-0.521,-0.413,-0.698,0.134,-0.371,-0.496
-0.504,-0.330,-0.165,-0.056,-0.513,-0.319,-0.536,0.168,-0.407,-0.482
-0.366,-0.138,-0.068,-0.034,-0.560,-0.372,-0.650,0.186,-0.338,-0.360
-0.183,-0.207,0.144,0.155,-0.422,-0.223,-0.394,0.355,-0.217,-0.329
-0.060,-0.149,0.187,0.177,-0.229,-0.084,-0.158,0.417,0.032,-0.153
-0.183,-0.169,0.023,-0.033,-0.482,-0.152,-0.433,0.324,-0.046,-0.128
-0.178,-0.140,0.137,0.148,-0.315,-0.174,-0.369,0.432,-0.128,-0.161
0.026,0.055,0.427,0.276,-0.150,0.018,-0.154,0.590,0.146,-0.052
0.115,0.099,0.508,0.495,0.143,0.166,-0.051,0.619,0.110,0.073
0.050,-0.171,0.392,0.410,-0.093,0.171,0.022,0.613,0.105,0.031
0.216,0.200,0.470,0.670,0.211,0.438,0.161,0.877,0.471,0.402
0.359,0.135,0.576,0.691,0.261,0.453,0.106,0.859,0.339,0.341
0.200,0.184,0.357,0.406,0.140,0.184,0.006,0.753,0.192,0.191
0.179,0.159,0.324,0.450,0.129,0.202,-0.081,0.866,0.311,0.177
0.024,0.023,0.290,0.355,0.061,0.170,-0.220,0.692,0.197,0.107
-0.093,0.003,0.229,0.302,-0.022,0.195,-0.266,0.584,0.086,-0.001
-0.070,0.139,0.257,0.299,-0.056,0.195,-0.261,0.576,0.079,0.075
-0.054,0.084,0.354,0.287,-0.115,0.051,-0.295,0.582,0.048,-0.109
0.045,0.098,0.357,0.286,-0.035,0.050,-0.196,0.534,0.036,0.054
0.050,-0.017,0.260,0.269,-0.019,0.053,-0.216,0.614,0.137,0.138
-0.062,-0.166,0.013,0.184,-0.201,-0.055,-0.348,0.372,-0.007,-0.156
-0.247,-0.294,0.044,0.098,-0.303,-0.147,-0.445,0.265,-0.121,-0.163
-0.238,-0.204,0.075,0.106,-0.270,-0.119,-0.271,0.182,-0.272,-0.148
-0.200,-0.057,0.151,0.078,-0.288,-0.266,-0.332,0.254,-0.160,-0.113
-0.213,-0.148,0.106,-0.007,-0.344,-0.291,-0.413,0.240,-0.212,-0.268
-0.302,-0.350,-0.107,-0.045,-0.592,-0.305,-0.515,-0.018,-0.427,-0.442
-0.481,-0.503,-0.088,-0.151,-0.565,-0.297,-0.614,-0.056,-0.485,-0.391
-0.319,-0.352,-0.064,-0.108,-0.510,-0.257,-0.520,0.226,-0.263,-0.336
-0.606,-0.428,-0.356,-0.235,-0.633,-0.415,-0.745,-0.091,-0.451,-0.478
-0.744,-0.583,-0.442,-0.350,-0.713,-0.607,-0.886,-0.144,-0.683,-0.583
-0.673,-0.584,-0.432,-0.344,-0.644,-0.409,-0.671,-0.097,-0.605,-0.641
-0.691,-0.526,-0.474,-0.422,-0.705,-0.450,-0.765,-0.084,-0.697,-0.635
-0.614,-0.580,-0.322,-0.347,-0.777,-0.672,-0.819,-0.098,-0.675,-0.695
-0.689,-0.670,-0.483,-0.326,-0.838,-0.728,-0.758,-0.058,-0.578,-0.588
-0.669,-0.570,-0.311,-0.339,-0.610,-0.688,-0.882,-0.113,-0.516,-0.557
-0.729,-0.636,-0.318,-0.265,-0.674,-0.657,-0.941,-0.084,-0.580,-0.516
-0.554,-0.442,-0.079,-0.210,-0.467,-0.561,-0.599,0.076,-0.386,-0.446
-0.347,-0.333,-0.035,-0.118,-0.469,-0.313,-0.625,0.175,-0.385,-0.434
-0.502,-0.493,-0.026,-0.215,-0.688,-0.506,-0.620,0.063,-0.416,-0.474
-0.731,-0.630,-0.394,-0.480,-0.907,-0.641,-0.824,-0.203,-0.717,-0.612
-0.658,-0.656,-0.253,-0.487,-0.823,-0.712,-0.933,-0.103,-0.650,-0.689
-0.536,-0.611,-0.240,-0.141,-0.620,-0.485,-0.755,0.079,-0.386,-0.472
-0.670,-0.676,-0.346,-0.313,-0.722,-0.555,-0.809,-0.102,-0.651,-0.573
-0.717,-0.529,-0.440,-0.360,-0.708,-0.590,-0.872,-0.144,-0.640,-0.611
-0.831,-0.848,-0.427,-0.529,-0.916,-0.847,-0.982,-0.453,-0.850,-0.800
-0.804,-0.825,-0.650,-0.460,-0.867,-0.783,-0.981,-0.421,-0.839,-0.781
-0.859,-0.621,-0.431,-0.345,-0.743,-0.677,-0.675,-0.260,-0.561,-0.585
-0.819,-0.843,-0.439,-0.418,-0.785,-0.662,-0.886,-0.329,-0.783,-0.664
-0.527,-0.844,-0.349,-0.302,-0.762,-0.641,-0.898,-0.266,-0.662,-0.639
-0.501,-0.523,-0.215,-0.151,-0.508,-0.554,-0.624,-0.177,-0.482,-0.572
-0.384,-0.369,0.003,-0.001,-0.310,-0.246,-0.399,0.138,-0.255,-0.270
-0.444,-0.576,-0.082,-0.142,-0.495,-0.495,-0.691,-0.065,-0.317,-0.378
-0.291,-0.316,-0.002,0.093,-0.358,-0.221,-0.421,0.107,-0.241,-0.209
-0.021,-0.075,0.324,0.286,-0.077,-0.001,-0.264,0.441,0.101,-0.064
0.032,0.032,0.445,0.468,0.103,0.142,-0.015,0.580,0.165,0.123
0.142,0.123,0.499,0.550,0.122,0.253,0.053,0.691,0.219,0.338
0.272,0.182,0.708,0.678,0.277,0.400,0.068,0.880,0.273,0.379
0.120,0.090,0.476,0.385,-0.097,0.145,-0.115,0.620,0.192,0.019
-0.006,-0.031,0.290,0.390,-0.125,0.116,-0.276,0.448,0.019,0.121
-0.022,0.040,0.205,0.217,-0.205,0.003,-0.252,0.436,0.011,0.077
-0.106,-0.026,0.184,0.258,-0.132,-0.148,-0.148,0.442,0.037,0.130
0.153,-0.050,0.210,0.248,0.065,0.060,-0.063,0.541,0.002,0.161
-0.128,-0.276,0.019,-0.064,-0.290,-0.248,-0.281,0.246,-0.192,-0.208
-0.181,-0.184,-0.075,0.019,-0.477,-0.298,-0.418,0.177,-0.176,-0.188
0.035,-0.141,0.204,0.106,-0.341,-0.150,-0.144,0.293,0.007,-0.144
-0.193,-0.222,0.024,0.047,-0.382,-0.180,-0.304,0.272,-0.185,-0.252
-0.118,-0.177,0.124,0.057,-0.201,0.039,-0.320,0.354,-0.078,-0.092
0.053,0.037,0.268,0.310,-0.164,0.041,-0.271,0.476,-0.002,0.043
-0.151,-0.127,0.177,0.253,-0.244,-0.034,-0.395,0.346,-0.027,-0.100
-0.223,-0.237,-0.149,0.182,-0.286,-0.014,-0.400,0.209,-0.172,-0.163
-0.179,-0.284,0.050,0.248,-0.185,-0.004,-0.349,0.192,-0.157,-0.262
-0.300,-0.261,-0.323,0.166,-0.168,-0.111,-0.326,0.219,-0.144,0.007
-0.333,-0.466,-0.345,-0.093,-0.532,-0.421,-0.646,0.004,-0.343,-0.303
-0.312,-0.333,-0.214,-0.029,-0.433,-0.261,-0.527,0.107,-0.317,-0.373
-0.244,-0.151,-0.056,0.176,-0.284,-0.035,-0.418,0.360,-0.157,-0.051
-0.262,-0.270,-0.130,0.067,-0.394,-0.140,-0.351,0.121,-0.178,-0.272
-0.292,-0.100,-0.035,0.178,-0.224,-0.077,-0.256,0.129,-0.174,-0.262
-0.235,-0.292,-0.124,-0.006,-0.499,-0.157,-0.425,0.010,-0.376,-0.325
0.061,0.020,0.295,0.410,0.175,0.297,-0.012,0.442,0.126,0.119
0.264,0.347,0.572,0.678,0.312,0.491,0.180,0.755,0.503,0.418
0.351,0.343,0.677,0.713,0.376,0.463,0.306,0.659,0.434,0.286
0.383,0.332,0.730,0.791,0.335,0.573,0.260,0.722,0.388,0.503
0.246,0.245,0.519,0.583,0.331,0.470,0.215,0.720,0.374,0.420
0.296,0.398,0.459,0.579,0.158,0.325,0.147,0.615,0.281,0.242
0.226,0.439,0.488,0.592,0.193,0.586,0.211,0.784,0.386,0.423
0.127,0.248,0.457,0.476,0.157,0.402,0.096,0.609,0.172,0.187
0.074,0.070,0.280,0.394,-0.037,0.161,-0.097,0.499,0.024,0.070
0.070,-0.055,0.408,0.545,-0.041,0.253,-0.082,0.571,0.242,0.107
0.104,0.034,0.378,0.372,-0.038,0.142,0.054,0.510,0.121,0.087
0.205,0.146,0.526,0.469,-0.043,0.261,0.203,0.596,0.197,0.183
0.247,0.252,0.521,0.558,0.165,0.279,0.232,0.860,0.365,0.368
0.122,0.173,0.404,0.412,-0.118,0.206,-0.030,0.689,0.272,0.294
0.142,0.252,0.612,0.611,0.228,0.263,0.180,0.747,0.344,0.369
0.269,0.225,0.525,0.684,0.174,0.433,0.081,0.724,0.225,0.354
-0.047,-0.122,0.322,0.354,-0.125,0.073,-0.146,0.476,0.093,0.179
0.137,-0.203,0.275,0.312,-0.198,-0.010,-0.123,0.377,-0.043,0.088
-0.143,-0.157,0.115,0.202,-0.224,-0.100,-0.423,0.225,-0.095,-0.126
-0.004,-0.040,0.247,0.315,-0.162,-0.085,-0.189,0.325,0.019,-0.069
-0.105,-0.013,0.210,0.294,-0.261,-0.152,-0.314,0.401,0.015,-0.036
0.211,0.285,0.435,0.566,0.116,0.227,-0.050,0.664,0.208,0.305
0.434,0.441,0.531,0.696,0.356,0.390,0.163,0.871,0.387,0.434
0.255,0.246,0.426,0.608,0.259,0.389,0.024,0.819,0.280,0.317
0.278,0.356,0.328,0.496,-0.049,0.180,0.060,0.781,0.099,0.207
0.109,0.030,0.270,0.339,-0.071,-0.063,-0.278,0.558,-0.012,0.081
0.201,0.147,0.402,0.380,0.073,0.132,-0.117,0.639,0.133,0.222
0.091,-0.117,0.162,0.303,-0.087,-0.135,-0.333,0.445,-0.112,0.036
-0.183,-0.302,-0.053,0.061,-0.380,-0.362,-0.457,0.258,-0.370,-0.126
-0.071,-0.221,-0.102,0.164,-0.379,-0.169,-0.557,0.290,-0.174,-0.220
-0.065,-0.216,0.063,0.125,-0.349,-0.132,-0.546,0.297,-0.106,-0.231
-0.215,-0.435,-0.117,-0.041,-0.550,-0.370,-0.719,0.108,-0.345,-0.473
-0.131,-0.235,-0.057,-0.040,-0.378,-0.269,-0.489,0.123,-0.327,-0.258
-0.017,-0.093,0.155,0.229,-0.295,-0.085,-0.388,0.301,-0.090,0.025
-0.033,-0.167,0.131,0.212,-0.228,-0.089,-0.326,0.283,-0.172,-0.078
0.054,0.083,0.309,0.495,-0.100,0.186,-0.028,0.614,0.102,0.155
0.075,0.145,0.263,0.445,-0.056,0.102,-0.041,0.510,0.075,0.105
0.305,0.053,0.407,0.547,0.078,0.120,-0.091,0.657,0.210,0.236
0.071,-0.190,0.190,0.268,-0.194,-0.048,-0.354,0.422,0.003,-0.078
-0.032,-0.036,0.339,0.330,-0.158,-0.005,-0.305,0.408,0.090,-0.033
-0.018,-0.097,0.249,0.379,-0.280,-0.127,-0.257,0.340,-0.026,-0.089
0.209,-0.206,0.159,0.385,0.083,0.021,-0.206,0.436,0.152,0.045
0.127,-0.126,0.241,0.344,0.175,-0.009,-0.211,0.382,0.186,0.025
-0.087,-0.147,0.091,0.183,-0.154,-0.210,-0.305,0.238,-0.073,-0.140
0.021,-0.030,0.288,0.295,0.101,-0.011,-0.191,0.433,0.056,0.107
-0.035,-0.210,0.213,0.244,-0.120,0.092,-0.247,0.479,0.136,0.072
0.192,0.001,0.344,0.386,0.145,0.303,-0.175,0.551,0.104,0.135
0.242,0.068,0.367,0.520,0.013,0.297,-0.092,0.652,0.162,0.209
0.286,0.089,0.342,0.612,0.168,0.290,-0.011,0.700,0.225,0.311
0.470,0.332,0.575,0.700,0.257,0.412,0.167,0.830,0.411,0.362
0.121,0.199,0.309,0.527,0.210,0.250,-0.088,0.674,0.263,0.188
0.525,0.399,0.654,0.888,0.537,0.573,0.328,0.992,0.579,0.551
0.280,0.241,0.416,0.553,0.255,0.410,0.091,0.734,0.363,0.326
0.106,0.189,0.431,0.459,0.087,0.252,0.049,0.701,0.290,0.230
-0.213,-0.183,0.063,0.016,-0.265,-0.191,-0.537,0.226,-0.216,-0.206
-0.461,-0.372,-0.092,-0.115,-0.435,-0.417,-0.770,0.004,-0.425,-0.402
-0.676,-0.511,-0.437,-0.348,-0.741,-0.534,-0.755,-0.178,-0.515,-0.598
-0.384,-0.369,-0.140,-0.103,-0.551,-0.303,-0.689,-0.020,-0.390,-0.483
-0.310,-0.465,-0.166,-0.124,-0.405,-0.379,-0.622,0.046,-0.371,-0.452
-0.165,-0.125,0.038,0.092,-0.291,-0.034,-0.396,0.274,-0.154,-0.245
-0.347,-0.426,-0.016,-0.154,-0.389,-0.285,-0.601,0.061,-0.326,-0.429
-0.352,-0.457,0.029,-0.102,-0.452,-0.383,-0.672,0.094,-0.342,-0.482
-0.370,-0.353,-0.141,-0.114,-0.599,-0.550,-0.721,-0.039,-0.441,-0.537
-0.597,-0.458,-0.330,-0.370,-0.875,-0.536,-0.824,-0.190,-0.585,-0.737
-0.722,-0.840,-0.508,-0.561,-0.959,-0.853,-1.001,-0.400,-0.651,-0.824
-0.862,-0.834,-0.669,-0.448,-0.957,-0.845,-1.085,-0.377,-0.654,-0.745
-0.810,-0.644,-0.505,-0.332,-1.046,-0.754,-1.005,-0.275,-0.700,-0.675
-1.106,-0.830,-0.764,-0.559,-1.115,-0.958,-1.184,-0.504,-0.998,-0.928
-0.938,-0.867,-0.537,-0.463,-0.944,-0.855,-1.153,-0.464,-0.892,-0.886
-0.897,-0.881,-0.522,-0.560,-0.963,-0.834,-1.282,-0.518,-0.916,-0.946
-0.746,-0.741,-0.545,-0.369,-0.963,-0.691,-0.992,-0.288,-0.618,-0.735
-0.871,-0.736,-0.558,-0.510,-0.825,-0.833,-1.238,-0.347,-0.864,-0.878
-0.620,-0.614,-0.194,-0.333,-0.675,-0.533,-0.873,-0.142,-0.655,-0.618
-0.634,-0.544,-0.337,-0.183,-0.645,-0.441,-0.822,-0.027,-0.559,-0.553
-0.494,-0.497,-0.292,-0.196,-0.551,-0.388,-0.697,0.103,-0.443,-0.426
-0.549,-0.544,-0.193,-0.184,-0.515,-0.421,-0.634,0.039,-0.376,-0.511
-0.392,-0.475,-0.273,-0.095,-0.533,-0.353,-0.540,0.016,-0.324,-0.367
-0.401,-0.433,-0.184,-0.117,-0.566,-0.289,-0.577,0.032,-0.291,-0.409
-0.232,-0.063,0.132,0.103,-0.272,-0.021,-0.271,0.364,-0.094,-0.120
-0.341,-0.163,-0.053,-0.044,-0.461,-0.154,-0.561,0.171,-0.351,-0.334
-0.109,-0.075,0.047,0.119,-0.159,-0.005,-0.200,0.268,-0.158,-0.085
-0.150,-0.312,-0.001,0.022,-0.488,-0.105,-0.411,0.160,-0.297,-0.211
-0.096,-0.087,0.328,0.412,-0.038,0.109,-0.156,0.518,0.159,0.073
-0.225,-0.254,0.118,0.188,-0.261,-0.057,-0.516,0.194,-0.126,-0.260
-0.001,-0.187,0.088,0.131,-0.339,-0.061,-0.355,0.283,-0.172,-0.196
-0.431,-0.376,-0.067,-0.072,-0.556,-0.184,-0.484,0.066,-0.285,-0.414
-0.187,-0.275,0.059,0.065,-0.347,-0.145,-0.341,0.275,-0.007,-0.182
-0.474,-0.572,-0.301,-0.149,-0.683,-0.395,-0.687,0.095,-0.321,-0.359
-0.633,-0.597,-0.462,-0.218,-0.735,-0.531,-0.909,-0.142,-0.642,-0.486
-0.264,-0.268,-0.079,0.164,-0.380,-0.063,-0.448,0.335,-0.151,-0.125
-0.181,-0.238,-0.026,0.142,-0.407,-0.053,-0.376,0.331,-0.013,-0.120
0.337,0.176,0.430,0.515,-0.104,0.307,-0.002,0.749,0.327,0.244
0.282,0.195,0.621,0.673,0.167,0.280,0.004,0.728,0.345,0.370
0.198,0.118,0.493,0.599,-0.037,0.278,-0.056,0.725,0.221,0.249
-0.291,-0.494,-0.083,0.015,-0.572,-0.181,-0.470,0.159,-0.239,-0.254
-0.499,-0.691,-0.200,-0.201,-0.675,-0.499,-0.688,-0.112,-0.541,-0.456
-0.565,-0.799,-0.279,-0.155,-0.624,-0.338,-0.621,-0.086,-0.480,-0.598
-0.487,-0.562,-0.279,-0.106,-0.707,-0.358,-0.750,-0.076,-0.491,-0.541
-0.633,-0.599,-0.389,-0.151,-0.613,-0.468,-0.860,-0.029,-0.529,-0.467
-0.355,-0.430,0.023,-0.014,-0.505,-0.203,-0.584,0.253,-0.371,-0.362
-0.516,-0.524,-0.048,-0.057,-0.636,-0.311,-0.618,0.150,-0.369,-0.348
-0.391,-0.487,-0.034,0.013,-0.444,-0.135,-0.565,0.183,-0.382,-0.337
-0.205,-0.235,0.075,0.190,-0.256,0.036,-0.369,0.460,-0.087,-0.171
-0.326,-0.348,-0.013,0.146,-0.485,-0.151,-0.527,0.281,-0.184,-0.147
-0.182,-0.203,0.166,0.183,-0.225,-0.084,-0.513,0.456,-0.051,-0.052
-0.366,-0.429,-0.290,-0.150,-0.515,-0.373,-0.701,0.109,-0.371,-0.462
-0.506,-0.408,-0.275,-0.259,-0.393,-0.431,-0.500,-0.065,-0.483,-0.488
-0.487,-0.453,-0.193,-0.266,-0.599,-0.400,-0.761,-0.018,-0.438,-0.521
-0.436,-0.454,-0.090,-0.155,-0.442,-0.255,-0.689,0.185,-0.308,-0.433
-0.599,-0.557,-0.161,-0.214,-0.422,-0.357,-0.715,0.133,-0.505,-0.591
-0.765,-0.688,-0.384,-0.417,-0.606,-0.510,-0.912,-0.078,-0.653,-0.635
-0.456,-0.457,-0.127,-0.193,-0.433,-0.319,-0.769,0.075,-0.380,-0.517
-0.170,-0.275,0.113,-0.097,-0.297,-0.168,-0.426,0.236,-0.187,-0.315
0.118,0.249,0.486,0.384,0.159,0.304,-0.017,0.691,0.317,0.191
0.087,0.218,0.365,0.484,0.146,-0.011,-0.075,0.581,0.229,0.136
0.208,0.309,0.489,0.509,0.268,0.288,-0.042,0.627,0.275,0.251
0.020,0.265,0.307,0.394,-0.011,0.097,-0.248,0.476,-0.050,-0.035
-0.032,0.029,0.409,0.370,-0.051,0.052,-0.269,0.499,0.129,0.086
-0.070,0.111,0.347,0.460,0.015,0.099,-0.175,0.563,0.098,-0.084
0.270,0.221,0.573,0.527,0.177,0.059,-0.189,0.692,0.126,0.214
0.236,0.273,0.442,0.396,0.199,0.174,-0.060,0.718,0.179,0.183
-0.028,-0.004,0.266,0.211,0.029,0.021,-0.229,0.569,-0.021,0.030
-0.014,0.011,0.190,0.228,0.066,0.066,-0.224,0.530,-0.079,-0.050
0.121,0.229,0.429,0.360,0.105,0.283,-0.005,0.720,0.128,0.141
0.158,0.138,0.446,0.440,0.117,0.281,0.076,0.867,0.143,0.323
0.351,0.291,0.675,0.749,0.337,0.440,0.280,1.059,0.369,0.476
0.470,0.452,0.813,0.887,0.437,0.522,0.267,1.138,0.537,0.478
0.246,0.203,0.609,0.584,0.216,0.284,0.093,0.872,0.228,0.245
0.104,0.222,0.332,0.504,0.075,0.171,-0.042,0.722,0.197,0.177
-0.293,-0.111,0.246,0.169,-0.168,-0.027,-0.233,0.439,-0.081,-0.067
0.032,0.247,0.461,0.397,-0.033,0.146,-0.157,0.636,0.138,0.063
-0.255,-0.049,0.157,0.212,-0.295,-0.100,-0.301,0.396,-0.142,-0.112
0.145,0.269,0.435,0.495,0.127,0.186,-0.044,0.668,0.196,0.077
-0.144,-0.007,0.310,0.200,-0.009,0.027,-0.163,0.497,0.033,-0.124
-0.387,-0.409,-0.084,-0.061,-0.440,-0.155,-0.478,0.155,-0.320,-0.313
-0.329,-0.178,-0.030,0.153,-0.301,-0.102,-0.411,0.284,-0.204,-0.237
-0.381,-0.353,-0.210,-0.088,-0.329,-0.141,-0.639,0.275,-0.201,-0.226
-0.493,-0.324,-0.265,-0.183,-0.531,-0.255,-0.707,0.237,-0.237,-0.251
-0.122,-0.098,0.065,0.263,-0.143,0.001,-0.265,0.598,0.091,0.009
-0.075,-0.032,0.184,0.266,-0.155,0.039,-0.288,0.599,0.043,-0.033
0.032,0.074,0.163,0.261,-0.148,0.129,-0.188,0.614,0.120,-0.065
-0.022,-0.013,0.327,0.342,0.014,0.138,-0.145,0.596,0.147,0.017
0.167,0.162,0.273,0.456,0.037,0.113,0.002,0.668,0.158,0.001
0.228,0.152,0.368,0.520,-0.083,0.283,-0.029,0.757,0.213,0.188
0.160,0.203,0.379,0.405,0.032,0.295,0.010,0.822,0.220,0.306
0.345,0.332,0.537,0.604,0.065,0.379,0.115,0.821,0.295,0.317
0.031,0.053,0.330,0.393,0.026,0.130,-0.242,0.545,0.032,0.017
-0.158,-0.061,0.162,0.203,-0.362,-0.089,-0.439,0.499,-0.072,-0.109
-0.121,-0.104,0.168,0.207,-0.098,-0.161,-0.300,0.480,-0.015,-0.132
-0.079,-0.188,0.131,0.144,-0.079,-0.097,-0.233,0.419,0.005,-0.092
-0.004,-0.100,0.153,0.240,-0.216,-0.137,-0.298,0.450,-0.088,-0.161
-0.286,-0.221,-0.028,-0.027,-0.533,-0.341,-0.418,0.264,-0.273,-0.299
-0.188,-0.249,0.013,0.085,-0.447,-0.253,-0.443,0.359,-0.096,-0.239
-0.389,-0.322,-0.134,-0.095,-0.504,-0.488,-0.546,0.220,-0.262,-0.367
0.120,-0.018,0.370,0.272,-0.044,0.074,-0.208,0.600,0.129,0.071
0.022,-0.086,0.120,0.146,-0.194,0.065,-0.323,0.557,0.094,-0.127
-0.107,-0.118,0.055,0.153,-0.277,0.058,-0.427,0.497,-0.164,-0.055
-0.018,-0.017,0.244,0.272,-0.202,0.008,-0.068,0.574,0.037,-0.007
0.080,0.105,0.305,0.338,-0.124,0.153,-0.001,0.570,0.129,0.081
0.257,0.261,0.442,0.455,0.017,0.202,-0.062,0.651,0.139,0.151
0.240,0.124,0.471,0.381,0.033,0.256,0.012,0.732,0.059,0.185
0.158,0.173,0.325,0.537,-0.140,0.209,-0.055,0.740,0.013,0.211
0.296,0.345,0.495,0.644,0.081,0.295,0.076,0.836,0.253,0.271
-0.108,-0.176,0.078,0.303,-0.197,0.048,-0.231,0.484,-0.032,0.025
-0.122,0.027,0.279,0.348,-0.146,0.040,-0.283,0.402,0.029,-0.030
-0.112,-0.263,0.165,0.375,-0.176,-0.015,-0.396,0.416,-0.136,-0.148
-0.340,-0.194,0.030,0.213,-0.419,-0.160,-0.340,0.414,-0.094,-0.210
0.022,0.235,0.479,0.446,0.094,0.155,-0.001,0.753,0.355,0.123
0.166,0.200,0.395,0.405,-0.013,0.153,-0.187,0.708,0.274,0.097
0.424,0.228,0.395,0.563,0.176,0.258,-0.117,0.749,0.193,0.266
0.008,0.181,0.440,0.485,0.083,0.093,-0.219,0.679,0.054,0.205
0.236,0.236,0.460,0.468,0.084,0.134,-0.228,0.641,0.084,0.171
0.034,0.028,0.311,0.175,-0.231,-0.103,-0.327,0.510,-0.132,-0.168
-0.110,-0.245,0.035,0.134,-0.223,-0.214,-0.360,0.303,-0.322,-0.239
0.040,-0.036,0.005,0.199,-0.204,-0.150,-0.270,0.293,-0.184,-0.222
0.018,0.041,0.128,0.262,-0.065,-0.053,-0.125,0.481,0.065,-0.139
0.172,0.248,0.269,0.327,-0.032,0.091,-0.131,0.615,0.149,-0.025
0.169,0.121,0.330,0.379,-0.018,0.286,-0.095,0.614,0.156,-0.007
0.030,0.128,0.321,0.330,-0.024,0.169,-0.213,0.546,0.029,-0.040
-0.113,-0.215,-0.001,0.127,-0.243,0.018,-0.443,0.322,-0.112,-0.253
-0.313,-0.210,-0.042,0.147,-0.259,-0.033,-0.398,0.253,-0.167,-0.142
0.023,-0.096,0.275,0.180,-0.129,0.086,-0.164,0.409,0.068,-0.045
-0.080,0.022,0.268,0.225,-0.233,0.148,-0.152,0.445,0.108,0.051
0.100,0.172,0.369,0.413,-0.062,0.279,-0.193,0.563,0.178,0.178
0.195,0.376,0.561,0.534,0.103,0.391,-0.028,0.721,0.327,0.261
0.138,0.149,0.414,0.367,-0.007,0.389,0.022,0.583,0.218,0.155
0.013,0.098,0.357,0.305,-0.110,0.150,-0.179,0.418,-0.008,0.105
0.062,0.127,0.219,0.180,-0.219,0.118,-0.215,0.474,0.083,-0.019
0.045,0.089,0.237,0.342,-0.059,0.116,-0.117,0.475,0.157,0.082
-0.079,0.005,0.077,0.225,-0.175,-0.061,-0.460,0.403,-0.092,-0.008
0.095,0.217,0.320,0.479,0.092,0.171,0.170,0.758,0.252,0.087
0.358,0.426,0.563,0.646,0.205,0.424,0.279,0.915,0.393,0.308
0.494,0.500,0.758,0.777,0.303,0.579,0.219,0.910,0.392,0.437
0.399,0.322,0.503,0.528,0.120,0.420,0.031,0.755,0.265,0.247
0.183,0.151,0.404,0.518,-0.113,0.254,-0.241,0.675,0.188,0.031
-0.334,-0.136,0.064,0.102,-0.232,-0.099,-0.344,0.350,-0.094,-0.234
-0.123,-0.107,0.009,0.145,-0.259,0.037,-0.390,0.363,-0.054,-0.129
-0.322,-0.398,-0.183,-0.221,-0.662,-0.394,-0.660,0.062,-0.409,-0.389
-0.610,-0.797,-0.482,-0.452,-0.893,-0.656,-0.842,-0.159,-0.742,-0.623
-0.437,-0.367,-0.262,-0.220,-0.514,-0.338,-0.641,0.132,-0.493,-0.394
-0.532,-0.491,-0.391,-0.299,-0.765,-0.615,-0.729,-0.022,-0.538,-0.513
-0.532,-0.651,-0.373,-0.397,-0.733,-0.669,-0.745,-0.098,-0.583,-0.629
-0.438,-0.441,-0.155,-0.180,-0.609,-0.296,-0.542,0.136,-0.335,-0.390
-0.266,-0.176,-0.023,0.001,-0.360,-0.070,-0.447,0.438,-0.198,-0.218
-0.299,-0.360,-0.103,-0.161,-0.413,-0.131,-0.416,0.392,-0.155,-0.165
-0.190,-0.412,-0.022,-0.049,-0.376,-0.140,-0.409,0.332,-0.176,-0.147
-0.029,-0.204,0.136,0.308,-0.195,0.067,-0.282,0.474,-0.004,0.008
-0.097,-0.219,-0.011,0.049,-0.422,-0.047,-0.451,0.410,-0.173,-0.194
-0.371,-0.432,-0.200,-0.250,-0.553,-0.285,-0.647,0.181,-0.399,-0.374
-0.486,-0.598,-0.122,-0.308,-0.624,-0.285,-0.692,-0.022,-0.497,-0.512
-0.421,-0.545,-0.028,-0.167,-0.529,-0.274,-0.606,0.138,-0.315,-0.413
-0.207,-0.301,0.057,-0.063,-0.306,0.026,-0.420,0.342,-0.162,-0.317
-0.141,-0.301,0.082,0.033,-0.202,0.067,-0.458,0.393,-0.151,-0.268
-0.243,-0.388,0.026,-0.014,-0.299,-0.044,-0.411,0.376,-0.248,-0.348
-0.011,-0.123,0.295,0.141,-0.055,0.050,-0.227,0.559,-0.027,-0.017
-0.058,-0.360,0.213,0.155,-0.229,0.002,-0.399,0.497,-0.033,-0.159
-0.123,-0.408,0.126,0.010,-0.303,0.003,-0.418,0.462,-0.080,-0.181
-0.464,-0.639,-0.106,-0.294,-0.462,-0.257,-0.678,0.223,-0.335,-0.333
-0.472,-0.549,-0.181,-0.424,-0.743,-0.503,-0.733,0.058,-0.582,-0.525
-0.561,-0.787,-0.283,-0.357,-0.774,-0.472,-0.905,0.035,-0.635,-0.644
-0.363,-0.579,-0.094,-0.166,-0.475,-0.278,-0.530,0.311,-0.388,-0.446
-0.145,-0.288,0.151,0.141,-0.248,-0.149,-0.349,0.509,-0.199,-0.223
-0.118,-0.260,0.186,0.101,-0.235,-0.030,-0.337,0.509,-0.162,-0.162
-0.212,-0.227,0.208,0.159,-0.175,-0.054,-0.276,0.521,-0.076,-0.092
-0.179,-0.254,0.080,0.086,-0.204,-0.057,-0.365,0.513,-0.020,-0.231
-0.285,-0.232,-0.058,0.030,-0.286,-0.335,-0.396,0.363,-0.161,-0.292
-0.327,-0.301,0.047,-0.032,-0.305,-0.264,-0.455,0.303,-0.118,-0.180
-0.268,-0.352,0.070,-0.014,-0.261,-0.039,-0.358,0.300,-0.246,-0.262
-0.026,-0.192,0.222,0.332,-0.048,0.101,-0.104,0.669,0.124,0.018
0.244,0.050,0.386,0.472,0.103,0.340,0.112,0.721,0.208,0.156
0.290,0.095,0.527,0.511,0.240,0.333,0.066,0.760,0.238,0.202
0.207,0.040,0.489,0.476,0.109,0.239,0.088,0.843,0.281,0.257
0.064,-0.092,0.376,0.383,-0.078,0.099,-0.028,0.742,0.084,0.090
0.122,-0.018,0.305,0.437,0.030,0.227,-0.014,0.701,0.136,0.166
-0.009,-0.138,0.472,0.299,0.011,0.050,-0.187,0.610,0.013,0.108
0.306,0.249,0.645,0.541,0.177,0.385,0.034,0.881,0.212,0.426
0.446,0.416,0.892,0.640,0.404,0.370,0.212,1.008,0.327,0.431
0.396,0.279,0.694,0.636,0.404,0.272,0.156,0.987,0.415,0.464
0.541,0.223,0.781,0.696,0.387,0.509,0.231,1.068,0.430,0.438
0.535,0.310,0.691,0.756,0.402,0.535,0.132,1.039,0.405,0.561
0.703,0.613,0.973,0.844,0.591,0.510,0.408,1.182,0.647,0.525
0.257,0.128,0.698,0.656,0.283,0.418,0.245,0.871,0.327,0.346
0.296,0.401,0.734,0.829,0.413,0.480,0.259,1.064,0.500,0.563
0.260,0.323,0.662,0.577,0.310,0.334,0.129,1.009,0.452,0.361
0.265,0.197,0.619,0.547,0.286,0.252,0.047,0.893,0.362,0.322
0.447,0.316,0.799,0.625,0.476,0.365,0.210,1.086,0.488,0.550
0.440,0.356,0.705,0.768,0.344,0.408,0.106,1.027,0.551,0.508
0.184,0.092,0.666,0.495,0.039,0.114,0.042,0.847,0.317,0.198
0.189,0.010,0.424,0.429,0.103,0.118,0.104,0.758,0.242,0.206
0.277,0.207,0.595,0.672,0.224,0.281,0.137,0.863,0.403,0.228
0.227,0.173,0.597,0.563,0.206,0.263,0.170,0.740,0.220,0.216
0.012,-0.266,0.295,0.269,-0.094,-0.066,-0.348,0.487,-0.032,-0.098
0.080,-0.058,0.272,0.296,-0.051,0.054,-0.214,0.403,-0.003,-0.007
0.341,0.201,0.555,0.436,0.264,0.273,0.052,0.867,0.368,0.363
0.392,0.490,0.747,0.701,0.265,0.467,0.289,1.035,0.421,0.486
0.581,0.489,0.978,1.009,0.551,0.780,0.397,1.152,0.595,0.664
0.228,0.167,0.505,0.546,0.145,0.388,0.070,0.700,0.292,0.109
0.077,0.282,0.433,0.550,0.070,0.278,-0.138,0.720,0.146,0.124
-0.176,-0.155,0.177,0.173,-0.178,0.039,-0.405,0.372,-0.044,-0.087
-0.202,-0.043,0.039,0.249,-0.181,0.119,-0.228,0.577,0.020,0.038
-0.070,0.052,0.131,0.245,-0.226,0.112,-0.181,0.549,0.014,-0.043
-0.010,0.156,0.251,0.488,0.186,0.219,0.006,0.684,0.214,0.032
0.120,0.156,0.453,0.499,0.063,0.355,-0.029,0.649,0.270,0.219
0.008,0.016,0.189,0.338,-0.189,0.120,-0.288,0.530,0.054,-0.064
0.109,0.106,0.471,0.523,0.008,0.242,-0.159,0.637,0.309,0.145
0.122,0.121,0.399,0.390,0.013,0.217,-0.150,0.613,0.181,0.172
0.097,0.124,0.334,0.221,-0.160,-0.006,-0.204,0.436,-0.017,-0.115
-0.161,-0.044,0.079,0.079,-0.231,0.053,-0.349,0.394,-0.039,-0.128
-0.041,0.032,0.313,0.233,-0.052,0.011,-0.284,0.578,-0.042,-0.035
0.054,0.164,0.372,0.326,-0.058,0.074,-0.114,0.558,0.061,-0.051
-0.020,0.026,0.238,0.240,-0.149,0.120,-0.205,0.567,0.037,-0.012
-0.120,-0.142,0.103,0.065,-0.163,0.084,-0.289,0.445,0.009,-0.185
-0.008,-0.065,0.134,0.175,-0.168,0.130,-0.280,0.561,0.061,-0.102
-0.035,-0.206,0.132,0.144,-0.164,0.068,-0.362,0.384,-0.119,-0.118
0.065,-0.043,0.228,0.355,-0.012,0.123,-0.200,0.550,0.079,-0.038
-0.211,-0.097,0.143,0.137,-0.247,0.192,-0.302,0.351,0.006,-0.101
-0.103,-0.144,0.069,0.110,-0.155,0.121,-0.314,0.424,0.034,-0.119
-0.188,-0.139,-0.001,0.170,-0.121,-0.002,-0.414,0.370,-0.107,-0.141
0.021,-0.080,0.234,0.330,0.067,0.192,-0.195,0.608,0.065,-0.125
-0.111,-0.070,0.150,0.227,-0.000,0.089,-0.075,0.546,0.048,0.023
-0.136,-0.163,0.178,0.054,-0.125,-0.081,-0.241,0.447,-0.010,-0.096
-0.060,-0.118,0.208,0.150,-0.163,0.048,-0.172,0.493,-0.098,-0.111
-0.177,-0.113,0.219,0.198,-0.090,-0.015,-0.181,0.435,-0.055,-0.106
-0.528,-0.413,-0.012,-0.211,-0.537,-0.300,-0.485,0.120,-0.364,-0.309
-0.541,-0.392,-0.288,-0.253,-0.550,-0.475,-0.542,-0.005,-0.460,-0.557
-0.510,-0.514,-0.432,-0.217,-0.654,-0.467,-0.752,-0.011,-0.542,-0.527
-0.666,-0.598,-0.346,-0.386,-0.715,-0.609,-0.805,-0.116,-0.603,-0.729
-0.441,-0.516,-0.128,-0.148,-0.476,-0.367,-0.653,0.079,-0.377,-0.506
-0.168,-0.139,0.269,0.121,-0.179,-0.077,-0.275,0.377,-0.171,-0.230
-0.321,-0.314,0.063,0.100,-0.171,-0.138,-0.371,0.355,-0.265,-0.360
-0.087,-0.071,0.369,0.230,-0.157,0.052,-0.222,0.490,-0.034,-0.253
-0.039,-0.243,0.264,0.099,-0.140,-0.114,-0.244,0.458,0.068,-0.280
-0.368,-0.243,0.126,-0.042,-0.340,-0.472,-0.556,0.277,-0.092,-0.309
-0.287,-0.190,0.038,0.165,-0.200,-0.224,-0.407,0.363,-0.066,-0.159
-0.007,-0.009,0.270,0.274,-0.185,0.014,-0.224,0.513,0.023,0.003
0.022,0.094,0.382,0.390,-0.104,0.173,-0.091,0.674,0.183,0.173
0.022,0.136,0.362,0.306,-0.038,0.080,-0.096,0.618,0.186,0.081
0.272,0.168,0.549,0.481,0.084,0.437,0.024,0.836,0.305,0.305
-0.170,-0.148,0.180,0.099,-0.162,-0.043,-0.258,0.560,0.130,0.019
-0.376,-0.194,-0.054,0.100,-0.350,-0.211,-0.301,0.421,-0.075,-0.139
-0.293,-0.148,0.057,0.086,-0.332,-0.139,-0.379,0.405,-0.124,-0.202
-0.402,-0.383,-0.089,-0.133,-0.559,-0.312,-0.491,0.161,-0.374,-0.473
-0.431,-0.355,-0.029,-0.044,-0.439,-0.303,-0.488,0.140,-0.434,-0.329
-0.535,-0.486,-0.090,-0.090,-0.638,-0.375,-0.689,0.197,-0.422,-0.310
-0.460,-0.285,0.087,-0.000,-0.469,-0.319,-0.669,0.153,-0.431,-0.233
-0.417,-0.360,-0.100,-0.131,-0.472,-0.473,-0.592,0.102,-0.461,-0.439
-0.094,-0.176,0.222,0.198,-0.164,-0.249,-0.410,0.276,-0.213,-0.223
-0.315,-0.189,-0.135,-0.037,-0.411,-0.229,-0.499,0.212,-0.269,-0.302
-0.161,0.078,0.199,0.203,-0.106,-0.004,-0.332,0.317,-0.026,-0.041
0.061,0.242,0.441,0.391,0.167,0.179,-0.092,0.671,0.172,0.171
0.167,0.148,0.540,0.347,0.112,0.286,0.028,0.667,0.231,0.090
0.147,0.130,0.372,0.441,0.073,0.177,-0.099,0.582,0.227,0.144
0.007,-0.124,0.210,0.266,-0.134,-0.034,-0.132,0.443,-0.057,-0.084
0.110,0.044,0.349,0.416,0.177,0.104,-0.111,0.618,0.113,-0.048
0.174,0.004,0.405,0.298,0.017,0.065,-0.255,0.600,0.029,0.069
-0.216,-0.159,-0.020,0.150,-0.284,-0.043,-0.224,0.385,-0.020,-0.108
-0.183,-0.151,0.168,0.243,-0.139,-0.020,-0.436,0.364,-0.073,0.013
-0.329,-0.364,-0.086,-0.029,-0.411,-0.271,-0.662,0.088,-0.326,-0.400
-0.191,-0.224,0.012,0.048,-0.225,-0.083,-0.547,0.382,-0.005,-0.149
-0.530,-0.386,-0.137,-0.180,-0.460,-0.263,-0.705,0.019,-0.411,-0.496
-0.649,-0.709,-0.522,-0.356,-0.512,-0.496,-0.766,-0.143,-0.535,-0.573
-0.484,-0.361,-0.244,-0.040,-0.358,-0.228,-0.624,0.032,-0.269,-0.416
-0.506,-0.347,-0.351,-0.157,-0.516,-0.130,-0.558,0.137,-0.366,-0.299
-0.294,-0.262,-0.087,0.092,-0.419,-0.159,-0.627,0.183,-0.198,-0.266
-0.216,-0.128,0.046,0.113,-0.362,-0.311,-0.525,0.119,-0.220,-0.232
-0.415,-0.462,-0.242,-0.244,-0.677,-0.553,-0.761,-0.049,-0.451,-0.436
-0.344,-0.371,-0.240,-0.190,-0.502,-0.349,-0.658,0.114,-0.335,-0.369
-0.531,-0.558,-0.254,-0.257,-0.552,-0.451,-0.823,-0.249,-0.588,-0.620
-0.637,-0.653,-0.536,-0.410,-0.807,-0.559,-0.916,-0.190,-0.591,-0.586
-0.428,-0.412,-0.135,-0.247,-0.558,-0.314,-0.541,0.025,-0.381,-0.429
-0.276,-0.235,-0.079,0.031,-0.400,-0.206,-0.461,0.253,-0.120,-0.222
-0.265,-0.453,-0.242,-0.114,-0.335,-0.425,-0.536,0.099,-0.340,-0.423
-0.285,-0.296,-0.139,-0.028,-0.360,-0.372,-0.499,0.167,-0.272,-0.424
-0.464,-0.446,-0.126,-0.071,-0.521,-0.423,-0.546,0.065,-0.376,-0.376
-0.573,-0.812,-0.399,-0.366,-0.989,-0.556,-0.748,-0.049,-0.668,-0.690
-0.617,-0.796,-0.217,-0.368,-0.712,-0.624,-0.753,-0.088,-0.513,-0.552
-0.140,-0.221,0.156,0.169,-0.201,-0.087,-0.275,0.278,-0.250,-0.228
-0.324,-0.182,0.173,0.129,-0.265,-0.195,-0.494,0.231,-0.155,-0.288
-0.425,-0.408,0.074,-0.084,-0.532,-0.320,-0.447,0.116,-0.348,-0.401
-0.284,-0.050,0.235,0.200,-0.319,-0.090,-0.281,0.276,-0.016,-0.196
-0.275,0.007,0.227,0.367,-0.246,-0.089,-0.341,0.441,0.053,-0.084
-0.116,0.080,0.300,0.426,-0.243,-0.038,-0.218,0.513,0.032,-0.201
0.374,0.175,0.602,0.620,-0.005,0.340,-0.011,0.724,0.377,0.340
0.286,0.342,0.531,0.573,0.162,0.334,0.171,0.776,0.325,0.364
0.086,0.102,0.309,0.291,0.043,0.244,-0.044,0.580,0.235,0.172
0.355,0.453,0.718,0.749,0.333,0.601,0.096,0.893,0.533,0.459
0.280,0.191,0.670,0.582,0.285,0.330,-0.061,0.687,0.332,0.210
0.226,0.160,0.542,0.413,-0.013,0.227,-0.073,0.600,0.283,0.092
0.034,0.003,0.455,0.461,0.037,0.179,-0.357,0.390,0.119,0.072
0.126,0.122,0.460,0.485,0.054,0.136,-0.253,0.624,0.154,0.079
0.137,0.021,0.254,0.207,-0.047,0.142,-0.200,0.451,0.177,0.024
0.176,0.048,0.425,0.384,-0.010,0.182,-0.055,0.479,0.109,-0.020
-0.171,-0.357,0.084,-0.031,-0.382,-0.187,-0.510,0.141,-0.193,-0.380
-0.368,-0.361,0.072,0.013,-0.278,-0.156,-0.499,0.167,-0.138,-0.246
-0.004,-0.258,0.158,0.182,-0.313,0.045,-0.310,0.416,-0.154,-0.192
-0.137,-0.116,0.219,0.307,-0.098,-0.035,-0.234,0.426,-0.155,-0.154
-0.014,-0.129,0.243,0.325,-0.161,0.002,-0.308,0.399,-0.086,-0.127
-0.130,-0.139,0.069,0.256,-0.228,0.029,-0.279,0.356,0.081,-0.099
-0.215,-0.200,0.053,0.121,-0.283,-0.155,-0.301,0.283,-0.091,-0.183
-0.124,-0.115,0.053,0.154,-0.246,-0.043,-0.397,0.266,-0.033,-0.167
-0.160,0.028,0.152,0.248,-0.121,0.147,-0.234,0.467,0.199,-0.039
-0.139,-0.142,0.094,0.152,-0.140,0.131,-0.304,0.378,-0.065,-0.209
-0.108,-0.008,0.180,0.198,-0.064,0.167,-0.237,0.418,0.055,-0.169
0.067,0.003,0.185,0.299,-0.094,0.178,-0.099,0.441,0.180,0.051
0.170,0.170,0.555,0.538,0.117,0.343,0.102,0.734,0.406,0.206
0.323,0.249,0.677,0.657,0.248,0.443,0.206,0.951,0.464,0.428
0.461,0.398,0.718,0.692,0.431,0.568,0.288,1.143,0.546,0.504
0.606,0.589,0.957,0.885,0.353,0.572,0.361,1.191,0.661,0.516
0.794,0.928,1.120,1.196,0.761,0.936,0.796,1.496,1.035,0.833
0.866,0.969,1.145,1.191,0.802,0.902,0.651,1.454,0.987,0.884
0.915,0.879,1.154,1.164,0.744,0.868,0.619,1.412,0.945,0.929
0.336,0.606,0.792,0.807,0.421,0.533,0.334,1.016,0.517,0.536
0.215,0.099,0.465,0.482,0.159,0.178,0.097,0.734,0.282,0.192
0.311,0.381,0.601,0.589,0.266,0.275,0.148,0.834,0.483,0.305
0.278,0.214,0.572,0.636,0.231,0.270,0.136,0.761,0.367,0.286
0.242,0.242,0.435,0.503,0.121,0.154,0.098,0.621,0.225,0.210
0.176,0.345,0.418,0.652,0.232,0.220,0.062,0.785,0.262,0.232
0.085,0.273,0.569,0.633,0.190,0.326,-0.024,0.741,0.262,0.255
0.123,0.223,0.535,0.668,0.228,0.275,-0.067,0.677,0.387,0.297
0.255,0.279,0.599,0.715,0.329,0.483,0.101,0.795,0.392,0.221
0.490,0.470,0.853,0.875,0.480,0.556,0.170,0.916,0.570,0.477
0.416,0.283,0.620,0.685,0.214,0.361,0.243,0.777,0.408,0.348
-0.023,0.038,0.280,0.353,0.033,0.069,-0.149,0.429,0.010,0.060
-0.177,-0.294,-0.007,0.199,-0.076,-0.009,-0.418,0.271,-0.117,-0.068
-0.179,-0.123,0.160,0.135,0.022,0.033,-0.225,0.393,0.009,-0.043
0.155,0.168,0.370,0.518,0.302,0.261,0.092,0.639,0.341,0.198
0.181,0.144,0.449,0.518,0.359,0.135,-0.002,0.546,0.245,0.139
0.307,0.476,0.629,0.681,0.445,0.412,0.157,0.845,0.381,0.381
0.214,0.405,0.483,0.650,0.225,0.381,0.102,0.775,0.341,0.291
0.285,0.333,0.505,0.709,0.372,0.361,0.044,0.784,0.329,0.312
0.502,0.492,0.648,0.912,0.573,0.558,0.341,0.997,0.514,0.512
0.689,0.656,0.857,1.018,0.717,0.785,0.379,1.080,0.606,0.716
0.572,0.572,0.878,0.882,0.519,0.639,0.323,0.959,0.499,0.602
0.560,0.400,0.793,0.788,0.358,0.543,0.375,0.970,0.532,0.592
0.239,0.050,0.473,0.560,0.344,0.458,0.230,0.684,0.311,0.340
0.352,0.241,0.555,0.731,0.294,0.472,0.270,0.722,0.399,0.374
0.284,0.229,0.391,0.559,0.245,0.355,0.020,0.598,0.468,0.314
0.468,0.398,0.803,0.817,0.439,0.531,0.411,0.836,0.531,0.505
0.499,0.423,0.762,0.749,0.485,0.661,0.282,0.941,0.563,0.611
0.502,0.491,0.831,0.931,0.534,0.626,0.295,1.076,0.584,0.677
0.626,0.551,1.002,1.063,0.649,0.818,0.459,1.100,0.810,0.799
0.377,0.422,0.863,0.898,0.429,0.606,0.351,0.925,0.522,0.507
0.540,0.561,0.967,1.024,0.574,0.690,0.351,1.097,0.776,0.569
0.308,0.298,0.848,0.710,0.348,0.465,0.183,0.913,0.572,0.371
0.316,0.239,0.722,0.678,0.457,0.449,0.209,0.803,0.513,0.474
0.451,0.349,0.726,0.689,0.406,0.484,0.304,0.917,0.513,0.325
0.555,0.545,0.925,0.937,0.557,0.661,0.503,1.117,0.740,0.636
0.663,0.441,0.844,0.980,0.625,0.782,0.516,1.027,0.702,0.743
0.547,0.404,0.970,0.954,0.622,0.638,0.509,1.044,0.659,0.710
0.190,-0.084,0.538,0.439,0.080,0.283,-0.101,0.539,0.147,0.159
-0.129,-0.168,0.234,0.362,-0.239,0.063,-0.211,0.448,0.015,-0.128
0.096,-0.273,0.456,0.384,0.004,0.142,-0.258,0.472,0.145,0.068
-0.177,-0.527,0.264,0.145,-0.196,-0.053,-0.477,0.275,0.016,-0.108
0.150,-0.024,0.578,0.514,0.181,0.269,-0.035,0.613,0.114,0.253
0.214,0.046,0.494,0.477,0.169,0.322,0.075,0.617,0.270,0.222
-0.030,0.017,0.252,0.303,0.041,0.138,-0.362,0.303,0.021,-0.012
0.248,0.196,0.533,0.543,0.139,0.429,-0.070,0.504,0.214,0.155
0.124,0.162,0.578,0.514,0.233,0.221,-0.097,0.566,0.274,0.267
0.005,-0.006,0.304,0.412,-0.151,0.031,-0.213,0.402,0.135,-0.064
-0.083,-0.002,0.387,0.554,0.130,0.123,-0.069,0.549,0.165,0.129
0.258,0.313,0.436,0.684,0.334,0.463,0.188,0.834,0.370,0.293
0.187,0.244,0.383,0.599,0.304,0.418,0.047,0.714,0.308,0.289
0.417,0.415,0.730,0.647,0.412,0.617,0.082,0.858,0.506,0.446
0.214,0.339,0.436,0.602,0.246,0.370,0.072,0.776,0.422,0.319
0.168,0.339,0.531,0.682,0.352,0.402,0.101,0.769,0.505,0.410
-0.229,-0.269,0.199,0.196,-0.133,-0.032,-0.420,0.230,-0.058,-0.009
-0.225,-0.224,0.111,0.125,-0.280,-0.038,-0.427,0.284,-0.092,-0.059
-0.208,-0.090,-0.034,0.111,-0.191,-0.089,-0.504,0.342,-0.074,-0.104
-0.167,-0.006,0.114,0.265,-0.216,-0.017,-0.437,0.380,0.071,-0.048
-0.318,-0.282,0.010,0.058,-0.117,-0.143,-0.559,0.125,-0.188,-0.287
-0.137,-0.048,0.043,0.176,-0.195,-0.044,-0.407,0.293,-0.144,-0.102
-0.325,-0.243,0.160,0.031,-0.298,-0.178,-0.644,0.130,-0.219,-0.208
-0.491,-0.479,-0.177,-0.186,-0.635,-0.452,-0.852,-0.103,-0.518,-0.504
-0.595,-0.357,-0.175,-0.130,-0.476,-0.349,-0.874,-0.098,-0.527,-0.422
-0.571,-0.498,-0.212,-0.161,-0.523,-0.352,-0.748,-0.111,-0.524,-0.455
-0.515,-0.510,-0.169,-0.170,-0.727,-0.463,-0.604,-0.046,-0.509,-0.515
-0.583,-0.462,-0.232,-0.173,-0.510,-0.368,-0.689,0.001,-0.369,-0.324
-0.216,-0.033,0.072,0.230,-0.198,-0.056,-0.331,0.380,-0.023,-0.109
-0.130,-0.030,0.119,0.145,-0.072,0.128,-0.321,0.399,-0.065,-0.067
-0.266,-0.246,0.102,0.110,-0.493,-0.094,-0.546,0.274,-0.187,-0.148
-0.372,-0.399,-0.072,0.118,-0.366,-0.183,-0.518,0.130,-0.201,-0.248
-0.589,-0.589,-0.195,-0.122,-0.655,-0.420,-0.836,-0.112,-0.423,-0.454
-0.662,-0.502,-0.271,-0.206,-0.669,-0.539,-0.763,-0.172,-0.516,-0.546
-0.421,-0.413,-0.147,-0.146,-0.502,-0.236,-0.733,-0.066,-0.317,-0.514
-0.322,-0.230,0.008,0.152,-0.191,-0.152,-0.507,0.141,-0.141,-0.123
-0.150,-0.209,-0.024,0.115,-0.119,-0.033,-0.286,0.202,-0.202,-0.129
-0.124,-0.104,0.194,0.398,-0.026,0.018,-0.283,0.293,-0.059,0.032
-0.133,-0.055,0.188,0.295,-0.103,0.102,-0.350,0.313,-0.056,-0.090
-0.285,-0.279,-0.022,0.061,-0.461,-0.260,-0.505,0.234,-0.213,-0.143
-0.282,-0.324,0.070,0.003,-0.395,-0.129,-0.588,0.145,-0.239,-0.238
-0.338,-0.380,-0.049,0.040,-0.373,-0.171,-0.559,0.139,-0.254,-0.250
-0.273,-0.245,0.012,-0.011,-0.261,-0.105,-0.421,0.156,-0.003,-0.080
-0.713,-0.695,-0.385,-0.395,-0.761,-0.561,-0.841,-0.323,-0.579,-0.574
-0.591,-0.745,-0.482,-0.491,-0.880,-0.481,-0.908,-0.207,-0.596,-0.640
-0.635,-0.654,-0.328,-0.386,-0.640,-0.450,-0.973,-0.172,-0.509,-0.628
-0.162,0.039,0.208,0.190,-0.108,0.054,-0.233,0.427,0.058,-0.029
-0.290,-0.007,0.245,0.245,0.053,0.061,-0.349,0.557,-0.073,-0.061
-0.154,0.041,0.288,0.305,-0.143,-0.000,-0.321,0.425,0.001,0.033
-0.014,0.058,0.239,0.385,0.004,0.100,-0.170,0.546,0.028,0.143
-0.119,-0.194,0.083,0.211,-0.251,0.089,-0.124,0.349,-0.065,-0.096
-0.352,-0.266,-0.018,0.081,-0.284,-0.019,-0.416,0.160,-0.124,-0.213
-0.284,-0.317,0.061,0.191,-0.314,-0.076,-0.432,0.248,-0.015,-0.210
-0.445,-0.333,-0.044,-0.086,-0.542,-0.304,-0.756,-0.071,-0.317,-0.353
-0.532,-0.491,-0.121,0.009,-0.354,-0.253,-0.628,0.065,-0.205,-0.250
-0.445,-0.451,-0.218,-0.114,-0.517,-0.388,-0.739,-0.043,-0.376,-0.396
-0.572,-0.544,-0.121,-0.155,-0.456,-0.402,-0.732,0.007,-0.380,-0.522
-0.280,-0.369,0.069,0.135,-0.286,-0.129,-0.542,0.143,-0.228,-0.352
-0.537,-0.533,-0.182,-0.100,-0.319,-0.223,-0.609,-0.003,-0.298,-0.299
-0.053,-0.203,0.185,0.264,-0.189,-0.012,-0.275,0.257,-0.040,-0.056
-0.094,-0.006,0.160,0.197,-0.258,0.007,-0.306,0.270,-0.002,-0.054
0.179,0.169,0.572,0.453,0.100,0.353,0.014,0.555,0.135,0.092
0.140,0.024,0.465,0.539,0.107,0.176,-0.126,0.570,0.109,0.259
0.350,0.405,0.792,0.770,0.407,0.471,0.220,0.860,0.531,0.458
0.152,0.385,0.740,0.743,0.200,0.476,0.228,0.804,0.489,0.540
0.261,0.251,0.736,0.740,0.149,0.327,0.009,0.687,0.341,0.416
0.079,-0.002,0.534,0.567,-0.006,0.111,-0.132,0.609,0.212,0.171
0.174,0.104,0.528,0.572,0.108,0.219,-0.256,0.619,0.143,0.141
0.148,0.240,0.516,0.662,0.227,0.401,0.005,0.682,0.350,0.456
0.092,0.152,0.496,0.564,0.230,0.265,-0.051,0.666,0.231,0.259
-0.272,-0.099,0.313,0.244,-0.028,-0.074,-0.289,0.394,0.023,-0.067
-0.346,-0.192,0.133,0.092,-0.342,-0.169,-0.457,0.053,-0.262,-0.163
-0.193,-0.033,0.393,0.335,0.092,0.046,-0.179,0.393,0.130,0.089
-0.002,0.060,0.586,0.433,0.065,0.183,0.009,0.468,0.025,0.125
0.109,0.141,0.554,0.698,0.092,0.292,0.033,0.588,0.250,0.344
0.303,0.244,0.548,0.676,0.256,0.453,0.067,0.648,0.363,0.403
0.077,0.236,0.437,0.618,0.085,0.326,-0.041,0.605,0.389,0.243
0.118,0.216,0.436,0.509,0.012,0.182,-0.087,0.516,0.120,0.242
0.133,0.142,0.531,0.516,0.223,0.228,0.006,0.539,0.254,0.359
0.151,0.051,0.560,0.556,0.146,0.180,-0.000,0.638,0.236,0.256
0.255,0.245,0.523,0.605,0.140,0.391,0.028,0.675,0.226,0.332
0.051,-0.056,0.371,0.402,-0.037,0.101,-0.136,0.462,0.085,0.140
-0.196,-0.031,0.137,0.363,-0.193,0.067,-0.213,0.421,0.006,0.053
-0.054,-0.072,0.286,0.319,-0.138,0.062,-0.206,0.465,0.007,0.013
-0.110,-0.054,0.228,0.207,-0.138,-0.075,-0.190,0.330,-0.020,-0.118
-0.297,-0.072,0.187,0.184,-0.228,0.099,-0.253,0.231,-0.091,-0.072
-0.326,-0.162,0.038,0.095,-0.425,-0.130,-0.406,0.217,-0.158,-0.184
-0.431,-0.338,0.033,-0.030,-0.473,-0.264,-0.536,0.008,-0.306,-0.421
-0.422,-0.355,-0.015,0.038,-0.378,-0.190,-0.346,0.162,-0.193,-0.200
-0.562,-0.647,-0.267,-0.235,-0.676,-0.450,-0.654,-0.164,-0.525,-0.449
-0.690,-0.547,-0.501,-0.324,-0.921,-0.472,-0.766,-0.193,-0.520,-0.561
-0.348,-0.246,-0.086,-0.010,-0.357,-0.107,-0.361,0.238,-0.173,-0.233
-0.358,-0.320,0.036,-0.031,-0.430,-0.160,-0.488,0.269,-0.212,-0.148
-0.531,-0.478,-0.094,-0.261,-0.524,-0.426,-0.723,-0.012,-0.390,-0.499
-0.105,-0.128,0.272,0.203,-0.171,-0.184,-0.393,0.305,-0.065,-0.121
-0.073,-0.053,0.188,0.240,-0.311,-0.048,-0.141,0.413,-0.030,-0.118
-0.067,-0.145,0.233,0.097,-0.319,0.124,-0.329,0.313,-0.168,-0.152
-0.152,-0.241,0.028,0.063,-0.250,-0.055,-0.310,0.289,-0.277,-0.165
-0.172,-0.036,-0.018,0.034,-0.300,-0.093,-0.482,0.435,-0.177,-0.141
-0.161,-0.060,0.037,0.031,-0.355,-0.117,-0.464,0.369,-0.183,-0.230
-0.395,-0.524,-0.122,-0.118,-0.437,-0.398,-0.759,0.122,-0.363,-0.404
-0.275,-0.331,-0.113,0.002,-0.391,-0.350,-0.716,0.198,-0.410,-0.361
-0.275,-0.332,-0.075,0.090,-0.281,-0.214,-0.536,0.342,-0.150,-0.232
-0.255,-0.252,0.056,0.018,-0.328,-0.268,-0.404,0.347,-0.159,-0.308
-0.056,-0.120,0.333,0.345,-0.028,0.134,-0.134,0.608,0.122,0.138
-0.054,0.029,0.298,0.311,-0.115,0.064,-0.132,0.615,0.070,0.089
-0.210,-0.223,0.083,0.059,-0.201,-0.066,-0.447,0.323,-0.149,-0.163
-0.237,-0.314,0.055,-0.098,-0.373,-0.262,-0.422,0.237,-0.102,-0.244
-0.438,-0.435,-0.089,-0.081,-0.457,-0.436,-0.492,0.129,-0.344,-0.396
-0.049,-0.183,0.207,0.196,-0.231,-0.222,-0.276,0.366,-0.100,-0.182
-0.238,-0.425,-0.006,-0.093,-0.479,-0.421,-0.496,0.119,-0.374,-0.445
-0.043,-0.167,0.143,0.175,-0.197,-0.190,-0.362,0.305,-0.099,-0.160
-0.066,-0.183,0.070,0.134,-0.251,-0.313,-0.495,0.327,-0.140,-0.408
0.095,-0.167,0.252,0.178,-0.209,-0.284,-0.468,0.304,-0.257,-0.171
0.113,-0.009,0.347,0.395,0.002,-0.039,-0.189,0.505,0.000,0.047
0.337,0.124,0.517,0.628,0.198,0.227,0.016,0.707,0.201,0.258
0.086,0.086,0.391,0.449,0.030,0.124,-0.164,0.571,0.029,0.099
0.026,0.113,0.223,0.422,0.048,0.134,-0.321,0.573,0.085,0.027
0.008,-0.075,0.201,0.267,-0.085,0.068,-0.322,0.500,0.134,-0.007
0.025,0.163,0.274,0.315,-0.132,0.094,-0.268,0.385,0.085,-0.120
-0.303,-0.125,0.124,0.156,-0.179,-0.111,-0.324,0.321,-0.186,-0.208
0.063,0.017,0.244,0.499,0.141,0.105,-0.078,0.538,0.020,0.083
0.093,0.098,0.304,0.486,-0.108,0.082,0.074,0.553,0.097,0.209
-0.103,-0.226,0.171,0.145,-0.140,-0.092,-0.209,0.413,-0.029,-0.090
0.146,0.001,0.334,0.335,0.126,0.157,-0.183,0.555,0.022,0.126
0.246,0.094,0.554,0.441,0.156,0.327,-0.123,0.680,0.136,0.180
0.233,0.215,0.542,0.685,0.270,0.473,0.163,0.777,0.300,0.229
0.029,0.268,0.427,0.517,0.271,0.301,0.114,0.713,0.327,0.194
-0.050,0.104,0.393,0.431,0.045,0.151,-0.118,0.530,0.107,0.095
-0.124,0.034,0.323,0.312,-0.049,0.089,-0.081,0.576,0.042,0.045
0.150,0.426,0.617,0.474,0.224,0.393,0.082,0.694,0.283,0.282
0.123,0.125,0.384,0.568,0.237,0.327,0.062,0.687,0.343,0.339
0.094,0.122,0.459,0.500,0.147,0.249,-0.034,0.661,0.162,0.172
-0.015,0.180,0.214,0.406,-0.120,0.215,-0.011,0.580,0.010,0.124
-0.008,0.095,0.186,0.444,-0.047,0.106,-0.317,0.473,-0.010,0.170
-0.168,-0.094,-0.007,0.225,-0.302,-0.112,-0.250,0.431,-0.026,-0.053
-0.168,-0.136,0.049,0.225,-0.366,-0.057,-0.313,0.392,-0.028,-0.036
-0.272,-0.334,-0.096,0.022,-0.344,-0.349,-0.495,0.193,-0.343,-0.248
-0.389,-0.264,-0.210,0.014,-0.419,-0.273,-0.526,0.251,-0.320,-0.189
-0.087,-0.153,0.086,0.253,-0.121,0.051,-0.280,0.557,0.117,-0.011
-0.249,-0.232,-0.019,0.091,-0.309,-0.108,-0.312,0.257,-0.247,-0.273
-0.210,-0.358,-0.092,0.171,-0.183,-0.040,-0.342,0.344,-0.120,0.022
0.105,-0.160,0.141,0.375,-0.123,0.090,-0.150,0.506,-0.052,-0.028
-0.208,-0.203,-0.045,0.227,-0.330,-0.159,-0.400,0.323,-0.106,-0.136
-0.484,-0.320,-0.132,0.034,-0.452,-0.295,-0.511,0.225,-0.232,-0.296
-0.296,-0.206,0.035,0.087,-0.518,-0.247,-0.353,0.396,-0.027,-0.126
-0.003,0.019,0.182,0.397,-0.035,0.109,-0.249,0.614,0.011,0.072
-0.192,-0.095,0.084,0.330,-0.192,-0.154,-0.273,0.494,0.040,-0.011
-0.352,-0.209,0.061,0.173,-0.304,-0.265,-0.331,0.274,-0.009,-0.141
-0.219,-0.210,0.167,0.230,-0.176,-0.095,-0.332,0.416,-0.071,-0.194
-0.266,-0.264,0.040,0.214,-0.109,-0.153,-0.386,0.377,-0.062,-0.098
-0.267,-0.083,0.110,0.314,-0.247,-0.157,-0.354,0.443,-0.011,0.007
0.107,0.127,0.265,0.598,0.089,0.084,-0.036,0.704,0.154,0.238
0.045,0.113,0.266,0.424,-0.094,0.081,-0.144,0.648,0.161,0.216
0.077,0.171,0.359,0.474,0.027,0.212,-0.022,0.803,0.252,0.232
0.442,0.384,0.498,0.765,0.198,0.469,0.192,1.044,0.402,0.503
0.528,0.430,0.641,0.871,0.225,0.593,0.308,1.105,0.406,0.376
0.192,0.361,0.542,0.752,0.232,0.432,0.205,0.947,0.335,0.395
0.308,0.536,0.699,0.836,0.306,0.520,0.314,1.041,0.479,0.554
0.252,0.119,0.480,0.682,0.180,0.290,0.069,0.736,0.170,0.279
0.205,0.279,0.542,0.657,0.189,0.190,0.024,0.862,0.443,0.475
0.560,0.470,0.739,0.935,0.428,0.499,0.309,1.130,0.593,0.623
0.302,0.415,0.570,0.786,0.274,0.482,0.174,0.908,0.435,0.409
0.407,0.383,0.669,0.636,0.344,0.409,0.087,0.864,0.360,0.393
-0.088,-0.136,0.120,0.171,-0.118,-0.153,-0.303,0.303,-0.166,-0.066
0.017,0.012,0.295,0.323,-0.134,0.052,-0.266,0.519,0.059,0.052
-0.094,-0.216,0.136,0.272,-0.234,-0.005,-0.232,0.437,0.021,-0.076
0.012,-0.052,0.354,0.418,-0.173,0.172,-0.208,0.526,0.125,0.114
-0.177,-0.296,0.220,0.282,-0.179,-0.042,-0.222,0.374,-0.145,-0.077
-0.025,-0.183,0.284,0.314,-0.128,0.028,-0.151,0.543,-0.106,0.054
0.119,0.084,0.394,0.634,0.117,0.318,-0.062,0.686,0.208,0.191
-0.017,-0.074,0.155,0.393,-0.057,0.044,-0.135,0.628,0.091,-0.023
-0.095,-0.117,0.287,0.215,-0.154,0.032,-0.140,0.573,0.150,-0.053
-0.304,-0.220,0.221,0.133,-0.330,-0.067,-0.329,0.379,-0.083,-0.209
0.029,-0.005,0.411,0.416,-0.049,0.140,-0.102,0.603,0.161,0.065
0.123,0.052,0.451,0.452,0.106,0.182,-0.005,0.669,0.240,0.130
-0.088,-0.132,0.131,0.254,-0.082,-0.081,-0.258,0.501,0.019,0.096
-0.078,-0.121,0.105,0.318,-0.266,-0.050,-0.349,0.504,-0.040,-0.166
-0.090,-0.148,0.080,0.099,-0.204,-0.098,-0.373,0.481,-0.021,-0.150
-0.248,-0.465,-0.148,-0.066,-0.319,-0.415,-0.513,0.178,-0.086,-0.275
-0.078,-0.268,0.060,0.241,-0.165,-0.116,-0.404,0.336,-0.087,-0.078
-0.104,-0.267,0.093,0.091,-0.185,-0.076,-0.386,0.308,-0.048,-0.065
-0.054,-0.153,0.049,0.085,-0.254,-0.149,-0.287,0.324,0.049,-0.131
0.027,-0.121,0.071,0.196,-0.163,-0.037,-0.314,0.417,0.071,-0.150
-0.084,-0.170,0.124,0.047,-0.276,-0.048,-0.205,0.458,-0.014,-0.173
-0.365,-0.433,-0.177,-0.094,-0.527,-0.460,-0.614,0.163,-0.280,-0.275
-0.169,-0.305,0.039,0.127,-0.256,-0.223,-0.312,0.273,-0.222,-0.209
0.117,0.030,0.381,0.339,0.083,0.129,0.061,0.640,0.081,-0.010
0.276,0.147,0.531,0.459,0.105,0.315,0.010,0.732,0.292,0.063
0.147,0.002,0.451,0.432,0.185,0.177,-0.178,0.576,0.149,0.116
0.030,-0.054,0.215,0.255,-0.260,-0.007,-0.222,0.485,0.022,-0.024
0.358,0.293,0.399,0.639,0.291,0.430,0.069,0.799,0.431,0.316
0.406,0.418,0.654,0.753,0.428,0.472,0.268,0.939,0.469,0.454
0.581,0.431,0.760,0.796,0.423,0.547,0.195,0.910,0.476,0.490
0.208,0.283,0.435,0.503,0.316,0.414,0.019,0.676,0.219,0.254
0.535,0.440,0.657,0.796,0.574,0.628,0.178,1.019,0.502,0.381
0.621,0.573,0.737,0.868,0.609,0.628,0.389,1.139,0.574,0.498
0.228,0.348,0.553,0.644,0.317,0.378,0.059,0.924,0.445,0.299
0.233,0.121,0.558,0.466,0.160,0.234,-0.057,0.693,0.240,0.266
0.301,0.230,0.556,0.547,0.298,0.416,-0.032,0.905,0.461,0.212
0.517,0.485,0.771,0.824,0.423,0.655,0.324,1.050,0.602,0.527
0.523,0.558,0.728,0.910,0.550,0.682,0.364,1.090,0.637,0.611
0.571,0.590,0.827,0.793,0.568,0.654,0.308,1.091,0.643,0.610
0.350,0.350,0.744,0.636,0.502,0.592,0.221,0.961,0.552,0.422
0.334,0.204,0.564,0.540,0.330,0.461,0.051,0.765,0.358,0.185
0.272,0.218,0.523,0.505,0.216,0.362,0.066,0.773,0.357,0.144
0.384,0.354,0.541,0.620,0.189,0.471,0.233,0.824,0.456,0.341
0.308,0.067,0.406,0.680,0.325,0.402,0.090,0.767,0.330,0.273
0.417,0.341,0.607,0.747,0.424,0.671,0.123,0.894,0.455,0.483
0.438,0.385,0.634,0.594,0.324,0.500,0.171,0.845,0.492,0.500
0.252,0.164,0.419,0.415,-0.022,0.468,-0.061,0.697,0.256,0.197
0.020,0.075,0.302,0.439,-0.086,0.252,-0.038,0.622,0.077,0.020
0.166,0.069,0.294,0.461,0.197,0.364,-0.037,0.769,0.277,0.116
0.112,-0.177,0.336,0.356,-0.030,0.232,-0.273,0.610,0.210,0.055
0.493,0.168,0.612,0.701,0.195,0.510,0.096,0.991,0.543,0.319
0.520,0.234,0.705,0.853,0.311,0.610,0.265,1.010,0.509,0.532
0.168,0.296,0.663,0.535,0.014,0.349,-0.022,0.713,0.275,0.240
-0.044,-0.119,0.268,0.232,-0.213,0.078,-0.296,0.505,-0.054,-0.039
-0.127,-0.028,0.070,0.246,-0.171,-0.080,-0.368,0.451,-0.068,-0.003
-0.017,-0.001,0.292,0.244,-0.035,0.075,-0.081,0.462,-0.081,0.026
0.393,0.329,0.521,0.616,0.303,0.529,0.273,0.941,0.298,0.417
0.268,0.170,0.476,0.469,-0.025,0.241,0.170,0.700,0.173,0.206
-0.095,-0.111,0.271,0.211,-0.083,0.112,-0.193,0.501,-0.028,-0.095
0.032,0.035,0.323,0.403,0.052,0.110,-0.180,0.638,0.136,0.067
-0.020,0.050,0.313,0.313,-0.106,0.083,-0.259,0.549,0.082,-0.013
0.246,0.154,0.374,0.444,0.113,0.225,-0.116,0.628,0.068,0.093
0.203,0.250,0.530,0.469,0.051,0.286,0.132,0.788,0.338,0.280
0.103,0.096,0.294,0.332,-0.057,0.093,-0.058,0.625,0.041,0.100
-0.076,0.027,0.205,0.218,-0.133,0.002,-0.157,0.549,-0.031,0.041
0.105,0.240,0.193,0.276,0.049,0.086,-0.181,0.545,-0.078,0.002
0.021,0.209,0.135,0.295,-0.208,-0.004,-0.337,0.471,0.025,0.114
-0.345,-0.187,-0.155,-0.009,-0.441,-0.150,-0.522,0.176,-0.282,-0.302
-0.160,-0.206,-0.008,0.140,-0.272,-0.108,-0.444,0.295,-0.245,-0.308
-0.046,-0.004,0.156,0.279,-0.157,0.040,-0.242,0.464,-0.110,-0.163
-0.032,-0.096,0.118,0.344,-0.135,0.090,-0.257,0.487,-0.033,0.095
-0.179,-0.278,0.047,0.083,-0.442,-0.237,-0.402,0.204,-0.213,-0.263
-0.084,-0.162,-0.006,0.086,-0.400,-0.137,-0.406,0.424,-0.214,-0.279
-0.143,-0.174,0.060,0.001,-0.372,-0.155,-0.484,0.309,-0.217,-0.196
-0.489,-0.298,-0.026,0.001,-0.444,-0.339,-0.713,0.156,-0.395,-0.397
-0.491,-0.299,-0.039,0.023,-0.669,-0.382,-0.670,0.242,-0.368,-0.321
-0.377,-0.125,-0.046,0.082,-0.526,-0.230,-0.475,0.385,-0.216,-0.160
-0.517,-0.424,-0.184,-0.203,-0.646,-0.407,-0.598,0.109,-0.472,-0.444
-0.550,-0.505,-0.183,-0.194,-0.606,-0.427,-0.630,-0.061,-0.420,-0.404
-0.412,-0.381,-0.169,-0.056,-0.417,-0.438,-0.622,0.089,-0.336,-0.427
-0.527,-0.588,-0.266,-0.274,-0.521,-0.375,-0.733,-0.029,-0.469,-0.457
-0.459,-0.357,-0.161,-0.088,-0.716,-0.442,-0.625,-0.009,-0.462,-0.502
-0.390,-0.396,-0.113,-0.030,-0.416,-0.445,-0.588,0.027,-0.412,-0.411
-0.128,-0.293,0.122,0.132,-0.396,-0.184,-0.328,0.311,-0.176,-0.124
-0.239,-0.227,0.190,0.136,-0.394,-0.145,-0.425,0.249,-0.243,-0.213
-0.191,-0.033,0.227,0.169,-0.142,-0.158,-0.234,0.323,-0.075,-0.134
-0.297,-0.370,-0.034,-0.017,-0.572,-0.318,-0.435,0.152,-0.364,-0.381
0.072,0.019,0.395,0.439,0.061,0.058,-0.009,0.600,0.161,-0.008
0.076,-0.089,0.360,0.419,-0.084,-0.028,-0.043,0.580,0.059,0.090
0.042,0.245,0.419,0.450,0.067,0.104,-0.013,0.690,0.185,0.231
0.172,0.166,0.335,0.504,0.175,0.037,0.006,0.770,0.331,0.319
0.170,0.168,0.380,0.448,0.058,0.066,0.128,0.661,0.162,0.146
0.338,0.130,0.462,0.559,0.161,0.188,0.071,0.754,0.284,0.204
0.054,-0.033,0.214,0.281,-0.066,-0.153,-0.238,0.588,0.066,-0.139
0.089,0.019,0.427,0.379,0.025,0.010,-0.182,0.801,0.324,0.168
-0.047,-0.109,0.360,0.385,-0.008,0.087,-0.306,0.682,0.068,-0.013
0.150,-0.106,0.330,0.415,-0.020,0.150,-0.084,0.640,0.028,0.067
0.147,0.018,0.336,0.452,0.141,0.144,-0.083,0.596,0.116,0.108
0.009,-0.189,0.188,0.218,-0.271,0.011,-0.309,0.482,-0.124,-0.130
-0.349,-0.233,-0.083,0.011,-0.403,-0.239,-0.460,0.298,-0.207,-0.406
-0.362,-0.268,-0.091,0.168,-0.438,-0.123,-0.384,0.321,-0.234,-0.248
-0.410,-0.389,-0.203,-0.074,-0.586,-0.356,-0.491,0.199,-0.330,-0.386
-0.573,-0.517,-0.364,-0.203,-0.678,-0.474,-0.628,0.114,-0.457,-0.469
-0.288,-0.333,-0.129,0.325,-0.156,-0.120,-0.301,0.397,-0.122,-0.141
-0.288,-0.304,-0.169,0.053,-0.355,-0.075,-0.415,0.228,-0.249,-0.270
-0.368,-0.314,-0.126,0.129,-0.322,-0.160,-0.487,0.239,-0.284,-0.316
-0.398,-0.483,-0.364,-0.152,-0.676,-0.385,-0.605,0.033,-0.409,-0.450
-0.242,-0.360,-0.087,0.001,-0.518,-0.336,-0.537,0.222,-0.207,-0.325
-0.086,-0.075,0.154,0.329,-0.110,-0.055,-0.277,0.435,-0.065,-0.164
-0.243,-0.142,0.064,0.163,-0.267,-0.187,-0.269,0.255,-0.085,-0.254
-0.191,-0.229,-0.035,0.096,-0.186,-0.167,-0.410,0.293,-0.077,-0.194
-0.324,-0.285,-0.079,0.057,-0.336,-0.198,-0.524,0.277,-0.211,-0.210
-0.260,-0.290,-0.053,0.042,-0.456,-0.278,-0.509,0.269,-0.250,-0.310
0.002,-0.182,0.218,0.189,-0.356,-0.132,-0.181,0.434,0.005,-0.027
0.133,-0.013,0.346,0.483,0.135,-0.052,-0.041,0.599,0.185,-0.025
-0.144,-0.247,0.179,0.091,-0.259,-0.198,-0.337,0.264,-0.116,-0.266
-0.418,-0.413,-0.114,-0.147,-0.499,-0.379,-0.453,0.170,-0.360,-0.317
-0.302,-0.415,-0.086,-0.094,-0.575,-0.356,-0.514,0.162,-0.391,-0.242
-0.480,-0.428,-0.138,0.029,-0.577,-0.428,-0.585,0.095,-0.360,-0.496
-0.427,-0.485,-0.115,-0.128,-0.555,-0.384,-0.594,0.127,-0.355,-0.525
-0.395,-0.554,-0.246,-0.088,-0.593,-0.321,-0.591,0.159,-0.391,-0.371
-0.045,-0.122,0.264,0.245,-0.233,-0.040,-0.253,0.423,-0.027,-0.055
0.254,0.304,0.613,0.721,0.104,0.243,0.048,0.773,0.300,0.274
-0.105,-0.052,0.253,0.327,-0.089,-0.071,-0.343,0.428,0.097,0.007
-0.061,-0.078,0.285,0.287,-0.026,-0.021,-0.188,0.435,0.093,0.065
0.187,0.160,0.352,0.535,0.117,0.217,-0.099,0.555,0.161,0.081
0.362,0.351,0.681,0.864,0.419,0.565,0.244,0.994,0.538,0.397
0.314,0.309,0.639,0.608,0.262,0.427,-0.025,0.699,0.245,0.139
0.031,0.055,0.394,0.470,0.086,0.114,-0.227,0.579,0.213,0.101
-0.028,0.146,0.316,0.364,0.045,0.156,-0.090,0.572,0.155,0.002
0.113,0.199,0.494,0.481,0.254,0.309,-0.029,0.749,0.318,0.249
-0.074,0.048,0.301,0.254,-0.084,0.122,-0.416,0.499,0.044,0.029
0.159,0.296,0.445,0.462,0.135,0.351,-0.074,0.723,0.260,0.182
-0.185,-0.060,0.223,0.192,-0.159,0.056,-0.178,0.465,-0.038,-0.171
-0.345,-0.348,-0.043,-0.038,-0.501,-0.258,-0.583,0.163,-0.240,-0.251
-0.361,-0.397,-0.132,-0.031,-0.474,-0.255,-0.527,0.177,-0.327,-0.323
-0.288,-0.414,-0.000,0.018,-0.347,-0.252,-0.527,0.300,-0.302,-0.220
-0.353,-0.489,-0.093,-0.058,-0.467,-0.420,-0.583,0.152,-0.390,-0.265
-0.145,-0.315,0.104,0.165,-0.335,-0.031,-0.444,0.350,-0.164,-0.134
-0.610,-0.781,-0.419,-0.462,-0.831,-0.652,-0.875,-0.177,-0.640,-0.726
-0.670,-0.776,-0.416,-0.446,-0.773,-0.661,-1.002,-0.190,-0.632,-0.700
-0.524,-0.565,-0.237,-0.424,-0.770,-0.586,-0.873,-0.076,-0.582,-0.620
-0.485,-0.565,-0.255,-0.192,-0.593,-0.467,-0.767,-0.066,-0.613,-0.597
-0.364,-0.442,-0.065,-0.024,-0.458,-0.288,-0.525,0.128,-0.343,-0.398
-0.192,-0.302,0.009,0.135,-0.253,-0.050,-0.409,0.384,-0.135,-0.144
-0.499,-0.415,-0.207,-0.073,-0.476,-0.326,-0.564,0.162,-0.316,-0.482
-0.351,-0.226,-0.101,0.002,-0.273,-0.118,-0.445,0.201,-0.333,-0.265
-0.022,-0.213,0.009,0.201,-0.375,-0.060,-0.271,0.443,-0.116,0.015
-0.436,-0.371,-0.195,-0.127,-0.533,-0.393,-0.577,0.209,-0.432,-0.420
-0.540,-0.440,-0.114,-0.264,-0.582,-0.663,-0.624,0.127,-0.280,-0.377
-0.143,-0.188,-0.028,0.147,-0.198,-0.336,-0.515,0.433,-0.161,-0.241
-0.232,-0.232,0.025,0.077,-0.395,-0.339,-0.571,0.224,-0.234,-0.387
-0.414,-0.358,-0.176,-0.091,-0.470,-0.402,-0.742,0.014,-0.384,-0.420
-0.475,-0.548,-0.163,-0.089,-0.665,-0.573,-0.641,0.059,-0.309,-0.555
-0.246,-0.349,-0.144,0.075,-0.457,-0.335,-0.686,0.134,-0.229,-0.296
-0.277,-0.230,-0.030,0.177,-0.466,-0.199,-0.468,0.244,-0.173,-0.207
-0.168,-0.350,0.075,0.057,-0.430,-0.230,-0.573,0.248,-0.215,-0.263
-0.328,-0.499,-0.184,-0.106,-0.467,-0.391,-0.575,0.040,-0.387,-0.477
-0.196,-0.238,-0.037,-0.020,-0.337,-0.258,-0.454,0.218,-0.284,-0.245
-0.286,-0.292,0.128,-0.003,-0.206,-0.252,-0.462,0.147,-0.219,-0.202
-0.127,-0.296,-0.010,0.156,-0.343,-0.192,-0.459,0.260,-0.271,-0.231
-0.259,-0.437,-0.235,-0.065,-0.537,-0.257,-0.722,0.028,-0.343,-0.373
-0.151,-0.274,0.059,0.104,-0.412,-0.169,-0.394,0.176,-0.096,-0.116
-0.333,-0.553,-0.342,-0.008,-0.476,-0.313,-0.646,0.011,-0.279,-0.339
-0.246,-0.386,-0.215,0.098,-0.450,-0.321,-0.707,0.086,-0.301,-0.411
-0.193,-0.155,-0.058,0.158,-0.328,-0.239,-0.425,0.337,-0.187,-0.154
-0.294,-0.315,-0.241,0.164,-0.297,-0.272,-0.493,0.233,-0.216,-0.366
-0.091,-0.184,-0.004,0.229,-0.190,-0.151,-0.410,0.263,-0.160,-0.170
-0.336,-0.330,-0.208,0.032,-0.442,-0.295,-0.620,0.182,-0.278,-0.303
-0.087,-0.084,0.222,0.276,-0.161,0.004,-0.284,0.485,-0.088,0.114
-0.034,0.002,0.189,0.278,-0.067,-0.022,-0.330,0.413,0.014,0.017
0.064,-0.066,0.125,0.425,-0.187,0.065,-0.255,0.514,0.101,0.148
0.016,-0.019,0.144,0.342,-0.184,0.063,-0.337,0.467,0.051,-0.043
0.381,0.477,0.608,0.862,0.253,0.372,0.250,0.994,0.556,0.532
0.334,0.292,0.624,0.760,0.319,0.427,0.236,0.889,0.492,0.576
0.029,0.031,0.253,0.367,0.007,-0.041,-0.062,0.589,0.211,0.094
0.108,-0.075,0.214,0.335,-0.160,-0.004,-0.190,0.434,-0.077,-0.074
-0.167,-0.321,0.043,0.168,-0.257,-0.199,-0.298,0.355,-0.172,-0.223
-0.288,-0.241,0.052,0.187,-0.284,-0.260,-0.214,0.483,0.015,-0.051
0.077,0.070,0.440,0.350,-0.124,0.029,-0.114,0.622,0.163,0.128
-0.013,0.074,0.289,0.283,-0.035,-0.047,-0.231,0.547,0.016,-0.061
0.118,0.180,0.436,0.481,-0.010,0.157,-0.062,0.736,0.158,0.177
0.101,-0.026,0.389,0.430,0.043,0.140,-0.034,0.689,0.172,0.107
0.364,0.360,0.559,0.635,0.318,0.276,0.046,0.730,0.296,0.284
0.622,0.709,0.877,0.939,0.570,0.517,0.383,1.034,0.499,0.632
0.528,0.481,0.764,0.804,0.485,0.377,0.187,0.956,0.397,0.433
0.677,0.506,0.837,0.722,0.436,0.327,0.268,1.130,0.614,0.536
0.258,0.383,0.702,0.556,0.243,0.336,0.165,0.981,0.266,0.345
0.177,0.148,0.349,0.472,0.140,0.245,-0.024,0.830,0.156,0.247
-0.070,0.040,0.191,0.227,-0.047,-0.015,-0.340,0.414,-0.001,-0.113
-0.031,0.223,0.323,0.335,-0.085,-0.017,-0.280,0.584,0.045,-0.009
0.149,0.359,0.532,0.527,0.096,0.167,0.002,0.820,0.413,0.229
0.100,0.189,0.460,0.429,-0.149,0.051,-0.158,0.604,0.347,0.005
0.090,0.209,0.405,0.438,0.030,0.003,-0.109,0.620,0.292,0.176
0.074,0.115,0.419,0.324,-0.089,-0.054,-0.255,0.577,0.131,0.129
0.107,0.246,0.467,0.276,-0.014,0.025,-0.078,0.586,0.105,0.052
0.067,0.140,0.293,0.407,0.075,0.029,-0.176,0.722,0.181,0.144
-0.143,0.113,0.264,0.434,0.003,-0.023,-0.040,0.735,0.250,0.175
0.014,0.093,0.224,0.347,-0.063,0.023,-0.128,0.678,0.333,0.088
-0.033,-0.104,0.065,0.216,-0.112,0.021,-0.230,0.577,0.125,-0.137
0.000,-0.094,0.120,0.202,-0.084,-0.080,-0.382,0.416,-0.132,-0.060
0.140,0.115,0.263,0.324,-0.106,0.021,-0.219,0.582,0.106,0.025
0.271,0.344,0.462,0.611,0.198,0.186,-0.030,0.859,0.338,0.279
0.174,0.092,0.549,0.463,0.121,0.039,-0.125,0.738,0.291,0.337
0.364,0.486,0.696,0.652,0.266,0.352,0.076,0.965,0.482,0.335
0.271,0.325,0.423,0.512,0.050,0.245,0.069,0.712,0.223,0.177
0.240,0.313,0.535,0.581,0.230,0.196,0.150,0.844,0.266,0.244
0.286,0.400,0.501,0.593,0.188,0.245,0.045,0.904,0.411,0.325
0.713,0.725,0.862,0.993,0.487,0.673,0.460,1.198,0.742,0.581
0.720,0.838,0.933,1.167,0.545,0.752,0.554,1.286,0.884,0.790
0.653,0.724,0.841,1.028,0.373,0.643,0.358,1.288,0.688,0.584
0.549,0.786,0.771,1.002,0.437,0.641,0.470,1.325,0.632,0.515
0.578,0.637,0.841,0.815,0.356,0.493,0.270,0.993,0.587,0.438
0.493,0.513,0.637,0.761,0.245,0.440,0.312,1.067,0.668,0.474
0.467,0.351,0.689,0.717,0.189,0.416,0.192,0.978,0.379,0.443
0.017,0.108,0.379,0.349,-0.181,-0.069,-0.096,0.565,0.177,-0.052
0.093,0.021,0.238,0.242,-0.266,-0.157,-0.205,0.500,0.014,-0.149
-0.056,-0.034,0.143,0.219,-0.138,-0.229,-0.339,0.392,-0.027,-0.091
-0.110,-0.083,0.060,0.062,-0.193,-0.216,-0.425,0.275,-0.095,-0.210
0.003,-0.036,0.152,0.208,-0.219,-0.195,-0.431,0.413,-0.005,-0.076
0.133,0.127,0.489,0.442,-0.048,0.124,-0.090,0.583,0.148,0.156
0.171,0.241,0.431,0.476,-0.042,0.090,0.085,0.624,0.268,0.256
0.311,0.211,0.495,0.579,0.041,0.196,0.105,0.682,0.315,0.205
0.244,0.180,0.377,0.398,-0.055,0.208,-0.004,0.639,0.222,0.218
0.136,0.208,0.416,0.431,0.091,0.208,0.055,0.694,0.323,0.203
0.245,0.288,0.453,0.531,0.165,0.160,-0.002,0.748,0.389,0.259
-0.144,-0.044,0.143,0.242,-0.169,-0.048,-0.117,0.449,0.028,-0.024
-0.152,-0.224,-0.013,0.126,-0.408,-0.121,-0.264,0.438,-0.091,-0.210
-0.039,0.114,0.249,0.426,-0.047,-0.038,-0.089,0.614,0.057,0.033
-0.126,0.048,0.337,0.368,-0.171,0.064,-0.058,0.616,0.174,0.063
-0.044,0.036,0.233,0.434,-0.014,0.085,-0.049,0.641,0.255,0.111
-0.038,0.087,0.288,0.373,-0.108,0.030,0.001,0.552,0.191,0.123
0.103,0.076,0.447,0.500,-0.038,0.137,0.023,0.603,0.241,0.187
-0.035,0.011,0.280,0.438,-0.044,0.171,-0.257,0.404,0.022,0.069
-0.015,0.148,0.482,0.485,0.145,0.159,-0.009,0.530,0.094,0.175
-0.117,0.139,0.209,0.345,-0.113,-0.032,-0.288,0.533,0.011,0.032
-0.004,0.230,0.377,0.550,-0.031,0.075,0.006,0.739,0.228,0.218
-0.103,0.010,0.249,0.388,-0.055,0.068,-0.155,0.664,0.132,0.115
-0.229,-0.111,0.117,0.227,-0.181,-0.132,-0.214,0.521,0.020,-0.062
-0.062,-0.145,0.377,0.314,0.045,0.048,-0.076,0.634,0.162,0.028
0.047,-0.151,0.383,0.401,-0.034,0.036,-0.252,0.633,0.030,-0.007
-0.053,0.117,0.443,0.442,-0.028,-0.042,-0.132,0.707,0.169,0.074
-0.169,-0.102,0.311,0.306,-0.161,-0.187,-0.264,0.586,-0.023,-0.053
-0.170,-0.120,0.360,0.348,-0.117,-0.055,-0.214,0.455,-0.060,-0.094
-0.052,-0.159,0.240,0.288,-0.005,-0.053,-0.147,0.490,0.012,-0.060
-0.177,-0.090,0.128,0.132,-0.262,-0.100,-0.339,0.333,-0.218,-0.174
-0.158,-0.174,0.214,0.174,-0.211,-0.083,-0.427,0.488,-0.077,0.044
-0.209,-0.088,0.348,0.171,-0.267,-0.127,-0.330,0.380,-0.158,-0.122
-0.060,-0.051,0.222,0.303,-0.096,-0.081,-0.251,0.504,-0.163,0.002
-0.047,-0.051,0.341,0.141,-0.100,-0.103,-0.226,0.502,-0.054,-0.061
-0.052,-0.039,0.196,0.277,-0.076,-0.147,-0.272,0.511,-0.116,0.033
-0.196,-0.245,0.151,0.070,-0.222,-0.208,-0.388,0.405,-0.141,-0.115
-0.182,-0.056,0.211,0.092,-0.164,-0.169,-0.257,0.296,-0.220,-0.070
-0.279,-0.027,0.180,0.241,-0.227,-0.185,-0.282,0.345,-0.104,-0.235
-0.358,-0.387,-0.045,0.071,-0.477,-0.309,-0.568,0.165,-0.257,-0.292
-0.141,-0.316,0.024,0.069,-0.277,-0.124,-0.471,0.275,-0.214,-0.266
-0.188,-0.374,0.026,-0.022,-0.464,-0.276,-0.363,0.160,-0.329,-0.332
-0.355,-0.223,-0.078,-0.096,-0.515,-0.475,-0.517,0.136,-0.391,-0.447
-0.411,-0.276,-0.022,-0.046,-0.386,-0.363,-0.492,0.187,-0.321,-0.416
-0.267,-0.233,0.215,0.162,-0.343,-0.212,-0.401,0.266,-0.121,-0.226
-0.303,-0.097,0.107,0.200,-0.296,-0.203,-0.435,0.399,-0.118,-0.054
-0.486,-0.189,0.060,0.101,-0.357,-0.162,-0.571,0.311,-0.220,-0.232
-0.746,-0.485,-0.348,-0.293,-0.664,-0.563,-0.832,-0.091,-0.433,-0.607
-0.335,-0.288,-0.025,0.061,-0.272,-0.270,-0.547,0.235,-0.252,-0.291
-0.500,-0.387,-0.300,-0.066,-0.464,-0.389,-0.675,0.104,-0.435,-0.375
-0.653,-0.468,-0.256,-0.183,-0.525,-0.409,-0.667,0.063,-0.499,-0.462
-0.287,-0.407,-0.124,-0.051,-0.494,-0.330,-0.591,0.136,-0.367,-0.296
-0.389,-0.354,-0.081,0.024,-0.342,-0.298,-0.465,0.166,-0.419,-0.322
-0.534,-0.615,-0.337,-0.139,-0.561,-0.621,-0.707,-0.016,-0.591,-0.545
-0.611,-0.623,-0.371,-0.352,-0.888,-0.615,-0.870,-0.087,-0.483,-0.639
-0.706,-0.678,-0.362,-0.358,-0.770,-0.537,-0.926,-0.036,-0.565,-0.658
-0.398,-0.550,-0.219,-0.137,-0.643,-0.432,-0.682,-0.023,-0.479,-0.659
-0.521,-0.523,-0.286,-0.209,-0.577,-0.562,-0.724,-0.036,-0.557,-0.558
-0.282,-0.214,-0.016,-0.013,-0.442,-0.300,-0.359,0.282,-0.199,-0.271
-0.249,-0.269,0.168,0.032,-0.463,-0.297,-0.430,0.226,-0.421,-0.198
-0.064,-0.139,0.323,0.016,-0.203,-0.205,-0.205,0.456,-0.086,-0.129
-0.531,-0.446,0.037,-0.267,-0.565,-0.588,-0.694,0.155,-0.313,-0.330
-0.512,-0.425,0.009,-0.128,-0.487,-0.521,-0.613,0.256,-0.237,-0.282
-0.482,-0.368,-0.157,-0.124,-0.425,-0.568,-0.582,0.279,-0.338,-0.373
-0.636,-0.577,-0.172,-0.259,-0.618,-0.667,-0.713,0.159,-0.371,-0.477
-0.510,-0.427,-0.151,-0.269,-0.684,-0.685,-0.736,0.185,-0.522,-0.604
-0.492,-0.480,-0.222,-0.193,-0.543,-0.564,-0.648,0.078,-0.356,-0.520
-0.461,-0.351,-0.165,0.003,-0.450,-0.448,-0.428,0.231,-0.253,-0.418
-0.137,-0.086,0.152,0.339,-0.266,-0.138,-0.348,0.478,-0.064,-0.158
-0.075,-0.074,0.155,0.401,-0.160,-0.081,-0.156,0.553,0.022,-0.071
-0.075,0.005,0.211,0.317,-0.139,-0.130,-0.121,0.528,0.002,-0.072
0.036,-0.006,0.375,0.323,0.008,-0.024,-0.046,0.601,0.043,0.017
0.172,0.130,0.432,0.399,-0.001,0.136,0.026,0.644,0.098,0.033
0.032,0.126,0.297,0.494,0.078,0.053,-0.058,0.682,0.145,0.126
0.213,0.063,0.556,0.420,-0.005,0.127,0.008,0.681,0.280,0.204
-0.067,-0.123,0.225,0.442,-0.168,0.111,-0.099,0.558,0.135,0.123
-0.482,-0.446,-0.266,-0.128,-0.594,-0.503,-0.660,0.097,-0.444,-0.486
-0.518,-0.312,-0.136,-0.010,-0.542,-0.586,-0.594,0.175,-0.381,-0.315
-0.402,-0.324,-0.058,0.086,-0.505,-0.241,-0.459,0.245,-0.254,-0.308
-0.246,-0.253,-0.018,0.226,-0.405,-0.124,-0.337,0.390,-0.154,-0.188
-0.138,0.074,0.158,0.300,-0.314,0.001,-0.212,0.606,0.144,0.059
-0.147,0.010,0.189,0.360,-0.029,0.151,-0.209,0.733,0.148,-0.030
0.084,0.170,0.387,0.484,0.101,0.215,-0.130,0.748,0.199,0.004
0.191,0.324,0.539,0.612,0.091,0.395,-0.017,0.915,0.401,0.247
0.317,0.302,0.628,0.677,0.225,0.353,0.181,0.950,0.432,0.343
-0.014,-0.073,0.302,0.306,-0.012,0.108,-0.199,0.635,0.170,0.134
0.066,0.147,0.332,0.425,0.040,0.232,-0.180,0.738,0.172,0.167
0.012,0.036,0.307,0.440,0.060,0.006,-0.124,0.621,0.153,0.210
-0.072,0.023,0.190,0.281,-0.133,0.091,-0.152,0.524,0.057,0.109
-0.059,-0.179,0.011,0.117,-0.356,-0.240,-0.317,0.309,-0.192,-0.137
-0.068,0.111,0.282,0.335,-0.118,0.001,-0.211,0.520,-0.028,0.090
-0.203,-0.267,-0.025,0.000,-0.280,-0.171,-0.367,0.251,-0.293,-0.174
0.023,-0.085,0.211,0.302,-0.141,-0.129,-0.289,0.451,-0.102,0.009
0.110,0.148,0.381,0.518,0.168,0.069,0.065,0.722,0.304,0.301
0.043,-0.066,0.280,0.322,-0.003,-0.001,-0.034,0.504,0.090,0.114
0.157,0.173,0.571,0.479,0.015,0.212,0.019,0.662,0.202,0.199
0.119,-0.031,0.378,0.318,0.109,0.124,-0.036,0.434,0.015,0.069
0.101,-0.034,0.415,0.361,-0.025,0.147,-0.094,0.531,0.155,0.120
-0.277,-0.129,0.116,0.108,-0.092,-0.097,-0.337,0.358,-0.193,-0.286
-0.144,-0.100,0.187,0.037,-0.333,-0.109,-0.395,0.275,-0.181,-0.109
-0.304,-0.329,0.102,-0.078,-0.399,-0.406,-0.602,0.112,-0.288,-0.398
-0.406,-0.491,-0.131,-0.213,-0.577,-0.486,-0.736,0.037,-0.499,-0.588
-0.498,-0.451,-0.288,-0.367,-0.661,-0.405,-0.697,0.027,-0.441,-0.428
-0.562,-0.478,-0.162,-0.218,-0.604,-0.511,-0.752,0.055,-0.378,-0.461
-0.560,-0.634,-0.414,-0.379,-0.641,-0.628,-0.777,0.016,-0.548,-0.547
-0.424,-0.372,-0.218,-0.117,-0.520,-0.478,-0.637,0.174,-0.350,-0.397
-0.398,-0.280,-0.152,-0.008,-0.476,-0.412,-0.618,0.182,-0.375,-0.531
-0.633,-0.468,-0.406,-0.412,-0.727,-0.501,-0.767,0.065,-0.529,-0.571
-0.573,-0.435,-0.192,-0.180,-0.533,-0.449,-0.632,0.144,-0.442,-0.441
-0.723,-0.714,-0.386,-0.351,-0.782,-0.795,-0.902,-0.052,-0.634,-0.664
-0.631,-0.748,-0.498,-0.357,-0.695,-0.705,-0.749,0.116,-0.469,-0.523
-0.459,-0.598,-0.146,-0.141,-0.622,-0.528,-0.585,0.184,-0.363,-0.440
0.010,0.005,0.313,0.275,-0.190,-0.133,-0.199,0.471,-0.033,-0.088
0.303,0.157,0.558,0.471,0.139,0.168,0.031,0.743,0.181,0.202
-0.095,0.100,0.420,0.352,-0.109,0.125,-0.188,0.516,0.175,0.114
-0.209,-0.269,-0.051,-0.019,-0.322,-0.321,-0.530,0.225,-0.304,-0.297
-0.023,-0.242,0.108,0.095,-0.220,-0.229,-0.335,0.332,-0.106,-0.184
-0.178,-0.380,0.079,0.017,-0.523,-0.316,-0.411,0.273,-0.208,-0.372
-0.348,-0.375,-0.048,-0.061,-0.514,-0.375,-0.374,0.115,-0.276,-0.431
-0.376,-0.550,-0.105,-0.125,-0.611,-0.489,-0.614,-0.013,-0.300,-0.514
0.038,-0.096,0.184,0.197,-0.160,-0.148,-0.353,0.254,-0.036,-0.215
0.100,0.113,0.371,0.280,0.036,0.078,-0.279,0.530,0.033,0.089
0.125,0.017,0.413,0.235,-0.148,0.054,-0.246,0.420,-0.099,-0.080
-0.393,-0.475,-0.060,-0.165,-0.462,-0.375,-0.572,0.146,-0.319,-0.443
-0.233,-0.279,0.010,0.020,-0.487,-0.361,-0.622,0.187,-0.329,-0.487
-0.379,-0.468,-0.117,-0.143,-0.481,-0.389,-0.729,-0.050,-0.468,-0.477
-0.342,-0.406,-0.147,-0.161,-0.460,-0.281,-0.678,0.081,-0.385,-0.424
-0.512,-0.368,-0.210,-0.138,-0.589,-0.575,-0.670,0.050,-0.406,-0.456
-0.678,-0.573,-0.409,-0.315,-0.701,-0.692,-0.983,-0.051,-0.494,-0.718
-0.605,-0.627,-0.374,-0.321,-0.888,-0.700,-0.951,-0.098,-0.508,-0.617
-0.572,-0.691,-0.415,-0.382,-0.867,-0.663,-0.837,-0.078,-0.552,-0.526
-0.360,-0.384,-0.089,-0.128,-0.542,-0.399,-0.600,0.105,-0.412,-0.531
-0.211,-0.359,-0.024,0.053,-0.497,-0.393,-0.473,0.208,-0.184,-0.335
-0.302,-0.290,-0.011,0.070,-0.298,-0.348,-0.529,0.219,-0.151,-0.303
-0.248,-0.219,-0.036,0.058,-0.401,-0.284,-0.501,0.154,-0.234,-0.354
-0.240,-0.365,-0.089,-0.015,-0.469,-0.460,-0.532,0.226,-0.271,-0.326
-0.317,-0.265,0.041,0.123,-0.405,-0.295,-0.485,0.246,-0.219,-0.274
-0.179,-0.359,-0.018,-0.011,-0.545,-0.329,-0.484,0.148,-0.331,-0.415
-0.393,-0.323,-0.122,0.029,-0.349,-0.394,-0.566,0.210,-0.330,-0.275
-0.496,-0.669,-0.235,-0.112,-0.538,-0.461,-0.664,0.100,-0.388,-0.338
-0.425,-0.674,-0.193,-0.091,-0.468,-0.496,-0.615,0.090,-0.316,-0.494
-0.535,-0.510,-0.346,-0.078,-0.604,-0.581,-0.679,0.106,-0.277,-0.427
-0.483,-0.600,-0.391,-0.135,-0.605,-0.562,-0.827,-0.076,-0.497,-0.501
-0.469,-0.483,-0.222,-0.151,-0.662,-0.640,-0.791,-0.057,-0.486,-0.566
-0.573,-0.713,-0.228,-0.285,-0.702,-0.612,-0.820,-0.069,-0.509,-0.610
-0.930,-0.818,-0.643,-0.531,-0.929,-0.811,-1.046,-0.366,-0.734,-0.821
-0.782,-0.843,-0.525,-0.351,-0.957,-0.560,-0.873,-0.228,-0.763,-0.833
-0.884,-0.880,-0.415,-0.470,-0.756,-0.637,-0.885,-0.290,-0.700,-0.691
-0.731,-0.730,-0.286,-0.329,-0.941,-0.553,-0.862,-0.121,-0.625,-0.650
-0.596,-0.496,-0.181,-0.234,-0.600,-0.440,-0.732,0.022,-0.522,-0.513
-0.612,-0.619,-0.260,-0.424,-0.617,-0.557,-0.823,-0.168,-0.591,-0.609
-0.464,-0.567,-0.209,-0.363,-0.619,-0.621,-0.794,-0.163,-0.499,-0.493
-0.514,-0.735,-0.272,-0.216,-0.685,-0.517,-0.820,-0.037,-0.507,-0.570
-0.708,-0.860,-0.426,-0.423,-0.791,-0.711,-0.961,-0.251,-0.759,-0.751
-0.359,-0.489,-0.154,-0.139,-0.601,-0.276,-0.727,-0.073,-0.513,-0.549
-0.053,-0.218,0.079,0.198,-0.211,-0.013,-0.354,0.257,-0.097,-0.180
-0.422,-0.552,-0.014,0.072,-0.362,-0.083,-0.621,0.215,-0.253,-0.300
-0.138,-0.240,0.106,0.197,-0.259,-0.033,-0.374,0.329,-0.079,-0.183
-0.298,-0.141,0.075,0.111,-0.290,-0.068,-0.435,0.327,-0.051,-0.199
-0.650,-0.455,-0.198,-0.051,-0.620,-0.396,-0.684,0.085,-0.464,-0.437
-0.321,-0.180,0.084,0.040,-0.165,-0.078,-0.387,0.212,-0.237,-0.209
-0.124,-0.234,0.228,0.253,-0.219,-0.135,-0.189,0.376,-0.021,-0.007
0.080,0.022,0.300,0.347,-0.115,0.023,-0.117,0.489,0.129,0.094
0.216,0.098,0.428,0.501,0.133,0.212,-0.026,0.735,0.236,0.223
0.054,-0.042,0.305,0.289,-0.082,0.067,-0.145,0.514,0.084,0.042
-0.009,-0.159,0.199,0.299,-0.113,0.111,0.037,0.483,0.059,0.002
-0.208,-0.089,-0.018,0.139,-0.222,-0.009,-0.298,0.362,-0.193,-0.044
-0.048,-0.078,0.083,0.290,-0.176,0.026,-0.052,0.435,-0.022,0.059
0.082,0.051,0.243,0.310,-0.199,0.123,-0.152,0.549,0.146,0.001
-0.145,-0.274,-0.095,0.147,-0.257,-0.065,-0.446,0.282,-0.261,-0.252
-0.300,-0.088,0.150,0.203,0.058,0.140,-0.284,0.497,0.057,0.087
-0.016,0.173,0.367,0.346,0.126,0.296,-0.050,0.632,0.160,0.076
-0.018,0.081,0.402,0.377,-0.045,0.282,-0.033,0.751,0.352,0.250
0.457,0.452,0.557,0.687,0.303,0.539,0.181,0.952,0.451,0.408
0.416,0.261,0.460,0.699,0.245,0.434,0.240,0.954,0.357,0.496
0.270,0.259,0.418,0.469,0.207,0.382,0.093,0.892,0.302,0.329
0.252,0.330,0.493,0.567,0.138,0.348,0.163,0.917,0.299,0.296
0.343,0.350,0.429,0.520,0.141,0.467,0.275,0.741,0.246,0.231
0.183,0.214,0.346,0.520,0.099,0.434,0.227,0.738,0.313,0.292
0.470,0.204,0.414,0.617,0.318,0.484,0.180,0.834,0.326,0.209
0.273,0.306,0.372,0.544,0.339,0.255,0.088,0.756,0.360,0.276
0.350,0.207,0.523,0.656,0.286,0.440,0.191,0.845,0.476,0.422
0.781,0.750,1.032,1.246,0.705,0.965,0.609,1.310,0.846,0.783
0.681,0.625,1.021,1.024,0.603,0.661,0.344,1.142,0.661,0.610
0.357,0.370,0.648,0.644,0.263,0.377,0.212,0.873,0.454,0.490
0.201,0.035,0.368,0.391,0.053,0.204,0.010,0.634,0.331,0.254
0.520,0.357,0.701,0.799,0.493,0.492,0.204,0.980,0.565,0.553
0.288,0.187,0.545,0.536,0.159,0.238,-0.038,0.762,0.172,0.237
0.125,0.134,0.475,0.470,0.017,0.218,0.055,0.776,0.182,0.091
0.142,0.262,0.443,0.551,0.088,0.375,0.030,0.815,0.283,0.170
0.034,0.007,0.373,0.434,0.020,0.190,-0.261,0.573,0.085,-0.009
-0.148,-0.142,0.190,0.237,-0.248,-0.033,-0.315,0.428,0.028,-0.105
-0.166,-0.342,0.224,0.097,-0.281,-0.122,-0.440,0.269,-0.170,-0.377
-0.078,-0.283,0.301,0.238,-0.024,0.024,-0.258,0.455,0.081,-0.072
-0.010,-0.251,0.223,0.197,-0.232,-0.113,-0.287,0.412,0.021,-0.089
-0.217,-0.269,0.101,0.188,-0.243,-0.265,-0.520,0.284,-0.238,-0.150
-0.275,-0.365,-0.173,-0.062,-0.399,-0.202,-0.470,0.196,-0.149,-0.316
-0.190,-0.317,-0.020,0.148,-0.208,-0.075,-0.268,0.414,-0.101,-0.070
0.159,-0.062,0.309,0.457,0.024,0.277,-0.025,0.616,0.223,0.198
-0.173,-0.275,0.212,0.180,-0.152,0.033,-0.173,0.430,-0.100,-0.056
0.194,0.098,0.444,0.445,-0.067,0.296,0.096,0.671,0.170,0.174
0.042,-0.127,0.211,0.183,-0.184,-0.009,-0.261,0.447,-0.049,0.029
0.180,0.142,0.462,0.438,-0.007,0.217,0.111,0.683,0.354,0.223
0.069,-0.047,0.151,0.166,-0.172,-0.039,-0.162,0.342,-0.021,-0.164
0.109,-0.066,0.176,0.340,-0.155,0.028,-0.135,0.566,0.148,0.052
-0.029,-0.015,0.222,0.402,-0.073,0.069,-0.254,0.619,0.031,-0.002
-0.195,-0.219,0.080,0.237,-0.223,0.037,-0.374,0.452,-0.057,-0.202
-0.352,-0.320,-0.149,0.043,-0.352,-0.208,-0.465,0.382,-0.109,-0.262
-0.366,-0.490,-0.123,-0.006,-0.290,-0.185,-0.421,0.237,-0.238,-0.376
-0.283,-0.283,-0.054,0.171,-0.463,-0.275,-0.360,0.264,-0.238,-0.225
-0.546,-0.419,-0.180,-0.087,-0.579,-0.287,-0.595,0.123,-0.356,-0.379
-0.342,-0.204,-0.009,0.077,-0.363,-0.161,-0.364,0.387,-0.267,-0.157
-0.141,-0.082,0.070,0.229,-0.250,-0.047,-0.188,0.566,0.032,-0.054
-0.225,-0.234,-0.047,0.085,-0.364,-0.296,-0.340,0.312,-0.139,-0.137
-0.232,-0.048,-0.058,0.063,-0.262,-0.119,-0.453,0.285,-0.272,-0.141
-0.007,-0.176,0.093,0.206,-0.234,-0.060,-0.378,0.393,-0.035,-0.078
-0.095,-0.031,0.129,0.304,-0.099,0.084,-0.305,0.550,-0.002,0.108
-0.037,-0.034,0.147,0.225,-0.247,0.075,-0.190,0.461,-0.090,-0.017
0.209,0.177,0.349,0.452,-0.104,0.185,0.133,0.727,0.252,0.185
0.121,0.276,0.410,0.530,-0.107,0.141,0.078,0.701,0.267,0.203
0.273,0.167,0.257,0.414,-0.134,0.154,-0.164,0.700,0.190,0.210
-0.204,-0.081,0.014,0.055,-0.340,-0.031,-0.249,0.465,-0.059,-0.125
-0.051,0.102,0.279,0.295,-0.256,0.043,-0.222,0.574,0.053,0.062
0.128,0.175,0.475,0.535,-0.091,0.174,-0.046,0.675,0.239,0.093
0.219,0.295,0.410,0.467,-0.246,0.108,-0.118,0.670,0.254,0.216
0.166,0.283,0.409,0.447,-0.127,0.114,-0.048,0.692,0.260,0.154
0.002,0.076,0.248,0.146,-0.277,0.043,-0.158,0.545,0.097,-0.003
-0.105,0.032,0.144,0.149,-0.395,-0.028,-0.299,0.494,-0.059,0.062
-0.214,-0.265,-0.114,-0.032,-0.534,-0.075,-0.429,0.297,-0.333,-0.235
-0.343,-0.316,-0.009,-0.042,-0.386,-0.055,-0.413,0.337,-0.267,-0.183
-0.147,-0.227,-0.036,-0.010,-0.431,-0.234,-0.498,0.176,-0.160,-0.270
-0.389,-0.461,-0.154,-0.072,-0.397,-0.250,-0.679,0.150,-0.390,-0.251
-0.376,-0.467,-0.182,-0.028,-0.505,-0.302,-0.433,0.207,-0.314,-0.280
-0.640,-0.622,-0.435,-0.354,-0.756,-0.651,-0.803,-0.130,-0.643,-0.813
-0.369,-0.474,-0.166,-0.139,-0.354,-0.321,-0.543,0.127,-0.404,-0.685
-0.599,-0.584,-0.232,-0.141,-0.671,-0.443,-0.657,0.069,-0.440,-0.606
