0.800,-0.640,-0.733,-0.504,1.234
0.876,-1.583,-1.279,-0.747,-0.593
0.542,-0.350,1.273,0.709,0.234
0.991,0.170,-0.514,-0.811,0.359
-0.053,-1.095,-0.854,0.363,-1.642
-0.861,0.950,-0.019,0.238,-0.102
-0.007,0.469,-0.465,-2.759,-1.532
0.989,-0.157,0.312,2.036,0.620
1.621,2.098,-1.481,0.719,-0.605
-1.029,0.204,-0.895,0.620,0.866
0.278,0.255,-1.837,1.002,1.388
0.295,0.667,-0.365,-0.886,-0.645
-1.155,0.346,0.216,-1.158,0.886
-0.842,-0.936,0.401,1.587,1.173
1.761,-0.664,-1.502,-0.007,-2.279
-0.074,-0.946,0.520,-0.382,2.293
-0.351,-1.900,-1.597,-1.547,1.898
0.198,-1.650,-0.661,-1.043,0.104
-0.448,0.511,1.765,1.287,-0.854
1.956,1.201,0.531,0.410,-0.834
1.781,2.879,-1.129,-2.558,0.044
-1.476,0.755,-0.181,0.922,0.514
-0.332,0.763,1.052,-0.877,-0.160
-2.206,0.858,-0.014,-1.167,1.156
1.671,-1.915,0.039,0.321,0.165
0.363,1.747,-0.427,-0.289,0.226
0.141,0.896,0.150,-1.080,-0.585
-0.561,-0.803,-0.845,-0.952,-0.676
-1.750,0.889,1.909,-0.709,0.678
0.220,0.596,0.261,0.717,0.087
0.863,2.472,0.268,-0.115,1.061
0.260,-0.694,-0.472,-0.955,0.903
-0.375,0.109,0.109,0.274,0.082
-0.634,-1.053,-0.641,-1.556,-0.337
0.246,-0.391,-1.311,0.390,-0.908
0.521,0.865,0.308,0.546,0.278
-1.399,-0.573,0.003,0.366,-0.630
-0.339,-0.284,0.789,0.533,1.696
1.396,-2.287,-0.537,0.993,0.484
1.079,-0.274,0.199,-2.449,-0.132
0.572,1.818,-0.164,0.587,-0.443
-0.390,-0.836,0.320,-0.108,-1.169
-1.558,-1.338,0.617,0.929,-0.970
0.784,0.241,-1.057,-2.479,1.189
-0.896,0.826,0.794,-1.718,1.060
-0.915,0.227,-1.063,0.150,0.314
0.459,0.225,0.793,-0.492,0.233
0.150,0.335,-0.688,-1.394,-1.258
-0.489,-0.118,-0.325,-0.451,0.536
-1.139,-1.012,-0.358,1.908,0.113
0.117,0.624,-1.320,-0.482,-1.144
-1.507,0.056,1.959,0.242,2.043
1.118,1.110,0.622,-0.883,1.542
0.556,-0.346,-0.691,-1.296,0.928
-0.329,-1.382,-0.478,-1.061,1.421
-0.102,-0.175,0.203,-0.543,0.540
-0.911,1.182,-0.123,0.455,-0.531
1.928,0.505,0.908,-0.296,1.556
0.800,0.249,-1.336,1.022,-0.741
-0.806,0.703,-0.634,-1.251,-0.008
0.847,1.239,1.500,0.608,0.772
-0.665,0.535,0.570,1.848,0.041
-1.560,-1.149,-0.204,-0.157,0.739
-0.600,0.221,0.488,-1.409,0.468
0.749,0.457,-1.917,1.035,-0.224
0.070,-0.914,0.620,-1.418,1.271
0.865,-0.875,-1.022,0.055,0.265
0.993,-0.223,0.230,0.823,-0.464
-0.034,0.248,0.158,1.750,-0.491
0.456,0.612,0.800,0.553,-0.480
0.483,-1.492,0.128,0.625,0.300
-0.549,0.856,1.752,1.516,-0.521
-1.048,-0.745,0.956,-0.212,1.310
-1.371,0.357,0.896,-0.052,-1.196
0.917,-1.697,0.483,2.076,-0.498
1.089,-0.950,-0.217,0.760,0.652
0.461,-0.355,-0.158,-0.776,-1.736
-0.573,-0.588,1.554,1.208,-0.660
-0.989,-0.021,0.835,1.589,0.837
-2.209,0.757,0.714,-0.432,-0.725
0.987,-1.127,0.240,-1.910,-1.160
-0.213,-1.076,0.671,-1.061,-0.696
-0.644,-0.926,-0.350,0.185,-0.183
-0.254,-0.288,0.113,0.502,-0.953
-1.917,-0.396,0.733,0.192,1.228
-1.335,1.981,0.859,-1.880,-0.158
0.817,-0.016,-0.557,-1.918,-0.353
1.621,-0.230,-0.407,0.958,1.653
-0.087,0.818,-0.494,0.975,0.067
1.088,-2.610,0.036,-0.529,0.233
1.326,0.346,1.034,-0.385,-0.927
-0.757,0.037,-0.925,0.187,0.458
0.037,-0.905,-1.371,-0.657,-0.609
-1.438,-0.563,0.611,0.225,0.583
-1.446,0.599,0.292,0.832,-0.949
0.113,0.816,-1.813,-2.237,1.604
-1.274,-0.004,0.143,0.616,0.212
1.161,0.753,1.323,2.587,0.414
-1.078,0.892,-0.344,-1.758,-1.351
-0.412,0.823,-2.034,-0.608,-1.088
-1.294,-1.525,-0.392,-0.705,-0.013
0.151,-0.908,0.226,-0.142,-0.081
-0.184,0.243,-1.606,-1.577,-0.065
0.015,-0.039,0.787,-1.815,0.121
-0.424,-0.124,-0.179,-0.593,-1.535
-1.580,0.028,-0.135,0.158,1.941
0.735,-0.663,-0.269,-1.950,-0.622
1.267,0.468,-2.438,1.265,-0.989
-1.368,0.473,0.807,-0.452,-0.898
-0.647,-0.510,0.227,0.823,0.638
0.752,-0.423,1.888,0.600,-1.303
0.777,-0.642,0.581,-0.415,0.684
1.165,-2.537,0.456,1.444,0.672
-1.347,0.960,0.092,-1.462,-0.239
-0.635,0.505,-0.618,0.075,-1.722
0.439,0.233,1.441,-0.795,-1.314
-1.264,-1.553,0.038,-0.346,1.348
0.776,0.998,-0.901,-0.485,-0.441
-1.570,0.862,-0.063,-0.575,-0.943
3.174,1.436,-0.439,-1.440,-1.536
1.060,0.260,-0.363,1.868,-0.034
1.089,1.517,-0.709,0.888,1.247
1.314,-0.817,-0.686,-1.937,-0.057
-0.690,1.337,0.753,0.987,-0.788
1.079,-0.088,-0.871,-0.439,-0.577
0.240,0.193,-2.383,0.317,0.168
-1.930,-0.433,1.581,-0.340,0.612
-0.423,-0.518,-0.308,0.360,-0.308
0.923,0.077,-0.146,0.693,1.185
-0.881,-0.608,0.044,-0.860,-0.098
2.130,0.422,-0.283,0.829,-0.665
-0.381,-1.517,-0.487,-0.476,-1.923
-0.702,0.586,-0.603,-0.543,-1.479
0.179,-0.680,1.988,-0.225,1.188
-0.697,0.162,1.051,0.274,-0.374
-0.946,-1.014,-1.544,-0.104,2.099
-0.914,0.055,0.595,0.881,1.146
-0.456,0.413,1.033,0.226,-0.015
0.061,-0.625,-0.665,1.398,-0.429
0.534,-1.049,-0.496,-0.588,-0.972
-1.036,1.037,-3.125,0.697,-1.003
-0.855,-0.752,0.701,-0.308,-0.643
-1.355,-1.014,-0.112,1.962,0.925
0.035,0.146,-0.202,1.544,1.236
-0.390,0.333,-0.365,1.379,1.283
-1.508,0.119,0.758,-0.637,-3.048
-0.249,-1.524,0.987,0.441,1.144
1.532,0.760,0.015,-0.414,1.172
-1.382,-0.169,0.818,1.446,-1.097
0.846,-1.273,0.672,-0.789,-0.102
-0.807,-0.706,-1.047,1.699,0.818
-0.578,1.148,0.886,-0.737,-0.204
-0.014,-0.959,-0.540,-0.552,-0.117
-0.304,-1.175,-1.434,0.505,2.225
2.978,0.407,-0.369,1.692,0.979
-0.986,1.449,1.483,-0.215,0.677
0.647,-0.715,0.023,-0.520,-0.551
-0.367,0.361,-1.497,-0.304,0.534
-0.723,0.376,-0.555,0.277,0.022
0.642,0.065,-0.530,-1.243,-0.904
-2.109,0.990,-0.436,-0.936,0.228
-1.641,0.126,0.544,-2.334,-0.213
0.155,-0.868,-1.406,-0.520,0.228
-0.624,-0.669,-0.951,-0.077,-0.095
-1.495,-1.048,0.999,-1.086,2.165
1.479,-0.389,1.115,-0.360,-1.029
0.950,0.368,1.031,0.849,0.515
-1.222,-0.791,1.614,0.723,0.150
0.270,1.761,-0.496,0.614,-1.403
-0.688,-0.055,0.876,0.622,1.029
-0.777,-0.040,-0.019,1.356,-1.184
-0.091,-0.345,1.003,-0.634,-0.977
0.578,-0.367,0.551,-1.217,0.383
-0.052,0.341,2.704,0.084,1.251
1.763,0.644,-2.667,-0.382,-0.116
-0.600,-0.268,0.387,0.457,-1.233
-2.845,-0.747,-0.266,0.466,0.308
0.709,0.876,-1.263,-0.687,1.268
-0.275,0.153,-0.048,-1.117,1.275
-1.255,-0.329,0.066,0.992,0.111
0.160,0.649,-0.570,1.109,0.260
-0.095,-0.242,0.136,1.369,-0.758
2.101,-1.453,-0.207,0.053,1.935
-0.097,1.599,0.094,1.239,0.456
0.370,0.989,-0.283,-0.227,1.458
-0.897,0.560,1.793,-2.856,1.419
0.735,1.380,0.205,-1.804,-0.985
-0.343,-2.195,-0.438,0.676,0.188
0.539,-1.141,0.700,-1.239,-0.633
0.102,0.477,0.275,1.271,-0.889
0.864,0.745,1.744,0.040,-0.463
0.297,1.068,-0.214,-0.395,1.035
-0.687,0.897,1.582,0.179,-0.015
1.018,-0.006,-0.852,0.211,-0.782
1.138,0.083,-0.008,-0.336,-2.118
-1.159,-1.401,0.602,1.730,-0.174
0.623,1.053,-1.224,-1.578,-0.112
-1.440,0.121,0.020,-0.441,-0.144
-0.378,-0.497,-0.967,-1.362,-0.512
1.262,0.888,1.713,-1.951,0.704
