0.010,0.010,0.010,0.010,0.010,0.010,0.010,0.010,0.010,0.010,0.010,0.010,0.010,0.010,0.010,0.010,0.010,0.010,0.010,0.010,0.010,0.010,0.010,0.010,0.010,0.010,0.010,0.010,0.010,0.010,0.010,0.010,0.010,0.010,0.010,0.010,0.010,0.010,0.010,0.010,0.010,0.010,0.010,0.010,0.010,0.010,0.010,0.010,0.010,0.010,0.010,0.010,0.010,0.010,0.010,0.010,0.010,0.010,0.010,0.010,0.010,0.010,0.010,0.010,0.010,0.010,0.010,0.010,0.010,0.010,0.010,0.010,0.010,0.010,0.010,0.010,0.010,0.010,0.010,0.010,0.010,0.010,0.010,0.010,0.010,0.010,0.010,0.010,0.010,0.010,0.010,0.010,0.010,0.010,0.010,0.010,0.010,0.010,0.010,0.010,0.010,0.010,0.010,0.010,0.010
0.371,-0.108,0.526,0.237,0.725,-0.040,0.567,0.079,0.764,0.160,0.924,-0.254,0.550,0.300,0.260,0.234,0.231,0.275,0.664,-0.255,0.459,0.334,0.548,0.133,0.705,0.316,0.417,0.438,0.288,0.380,0.069,0.160,0.715,0.348,0.095,0.715,0.358,0.118,0.434,0.629,-0.158,0.248,0.347,0.265,0.376,0.392,0.015,0.503,0.159,0.349,0.308,0.182,0.348,0.408,0.556,0.619,-0.203,0.361,0.239,0.179,0.606,0.178,0.098,0.310,0.482,0.454,-0.002,0.368,0.469,0.080,0.809,0.219,-0.330,0.611,0.117,0.627,0.314,-0.185,0.976,-0.050,0.587,0.557,0.104,0.199,0.302,0.357,0.178,0.145,0.187,0.825,0.311,0.185,0.199,0.145,-0.364,0.859,-0.243,0.546,0.345,0.240,0.017,0.252,0.418,0.687,-0.148
0.590,-0.134,0.396,0.210,0.783,0.330,0.409,0.225,0.748,0.033,0.982,-0.085,0.405,0.620,0.015,0.669,0.080,0.798,0.807,0.120,0.830,0.231,1.228,-0.050,0.926,0.369,0.226,1.150,-0.282,0.876,0.044,0.067,0.660,0.256,0.309,0.762,0.298,0.622,0.263,0.776,-0.051,0.774,0.204,0.478,0.925,0.312,0.061,0.150,0.805,0.459,-0.129,0.271,0.684,-0.153,0.928,0.677,0.361,0.467,0.135,0.210,0.445,0.527,-0.180,0.538,0.487,0.382,0.212,0.224,0.733,-0.296,1.030,0.017,-0.315,0.875,0.390,1.072,0.205,-0.184,1.391,-0.150,0.910,0.489,0.443,0.532,-0.016,-0.041,0.651,-0.064,0.566,0.556,0.570,0.298,0.418,-0.338,0.349,0.834,-0.130,0.441,0.611,0.061,0.149,0.429,0.461,0.971,-0.551
0.624,0.005,0.528,0.203,1.164,0.044,0.667,0.446,0.471,0.157,0.842,0.168,0.272,0.796,-0.137,0.933,0.206,0.845,0.738,0.095,0.747,0.457,1.133,0.034,0.658,0.789,0.153,1.030,0.148,0.558,0.476,0.076,0.372,0.897,-0.109,1.420,-0.125,1.027,0.418,0.783,-0.163,0.671,0.424,0.508,0.955,0.012,0.143,0.528,0.517,0.282,0.377,0.185,0.850,-0.269,1.148,0.559,0.539,0.624,0.170,-0.235,-0.004,1.006,-0.198,0.486,0.789,0.373,0.447,0.310,0.653,-0.203,0.416,0.248,-0.330,0.699,0.627,0.880,0.559,-0.055,1.358,0.210,0.869,0.534,0.620,0.402,0.309,0.091,0.835,-0.119,0.799,0.733,0.456,0.278,0.353,-0.413,-0.103,1.219,-0.262,1.123,0.491,0.035,0.795,-0.142,0.574,1.134,-1.004
0.317,0.304,0.246,0.010,1.126,-0.046,0.872,0.522,0.531,0.335,0.824,0.305,0.452,0.517,-0.260,0.846,0.564,0.834,0.741,-0.109,0.787,0.324,1.309,-0.291,0.958,0.461,0.383,0.625,0.690,0.296,0.921,-0.208,0.700,0.279,0.084,1.302,0.092,0.819,0.632,0.897,-0.403,0.795,0.406,0.443,0.778,-0.214,0.706,-0.172,1.027,0.000,0.408,0.557,0.651,-0.231,1.225,0.375,0.528,0.898,0.001,-0.280,-0.026,1.141,-0.209,0.558,0.906,-0.084,0.495,0.326,0.884,-0.480,0.889,0.112,-0.656,0.606,0.714,0.924,0.612,0.029,0.898,0.736,0.622,0.808,0.510,0.431,0.271,-0.197,1.006,-0.211,0.919,0.512,0.640,-0.018,0.502,-0.863,-0.065,1.104,-0.086,1.265,0.640,-0.113,0.417,-0.126,0.707,1.110,-1.366
0.126,0.285,-0.160,0.009,1.136,0.165,0.495,0.691,0.181,0.337,0.810,0.379,0.628,0.545,0.046,0.886,0.280,1.058,0.800,-0.134,0.797,0.550,1.145,0.011,0.792,0.707,0.084,0.845,0.596,0.182,1.187,-0.119,0.744,0.198,0.074,1.231,0.476,0.501,0.562,0.840,-0.136,0.736,0.251,0.406,1.142,-0.259,0.725,-0.267,1.082,0.053,0.336,0.590,0.605,-0.381,1.178,0.469,0.531,0.817,0.104,-0.362,0.167,0.966,-0.275,0.655,0.801,0.159,0.355,0.424,0.700,-0.249,0.926,0.440,-0.364,0.281,0.717,1.148,0.879,-0.107,1.069,0.740,0.891,0.558,0.825,0.211,0.639,-0.335,1.202,-0.148,1.009,0.463,0.940,0.035,0.330,-0.463,0.475,0.753,0.485,0.854,1.174,0.145,-0.050,-0.101,0.523,1.106,-1.562
0.458,0.102,0.510,-0.247,1.265,-0.219,0.832,0.474,0.797,0.274,1.145,0.247,0.548,0.616,-0.033,0.705,0.439,0.817,0.727,0.033,0.832,0.087,1.567,-0.387,0.705,0.877,0.219,0.647,1.014,-0.015,1.052,-0.094,0.692,0.204,-0.209,1.480,-0.021,1.026,0.133,1.561,-0.302,0.703,0.220,0.388,0.893,-0.373,0.612,-0.153,1.000,0.515,-0.027,0.907,0.383,-0.264,1.195,0.717,0.391,1.044,0.030,0.015,0.004,1.184,-0.330,0.981,0.780,0.419,-0.045,0.508,0.894,-0.547,0.985,0.460,-0.195,-0.019,1.262,0.748,0.618,0.221,0.727,1.062,0.507,0.706,0.589,0.002,0.847,-0.291,1.269,-0.416,1.552,0.396,0.949,0.149,-0.326,0.003,-0.088,0.999,0.573,0.642,1.525,-0.014,0.207,-0.060,0.859,0.999,-1.088
0.771,0.077,0.458,-0.406,1.196,-0.190,1.083,0.371,0.974,0.184,1.041,0.286,0.515,0.932,-0.031,0.653,0.515,0.302,1.081,-0.270,1.237,0.117,1.636,-0.355,0.929,0.723,0.207,0.988,0.588,0.360,1.001,0.011,0.793,0.272,0.013,1.116,0.387,0.750,0.259,1.353,-0.693,0.307,0.807,0.108,1.215,-1.002,0.383,-0.113,1.081,0.214,0.168,0.803,0.830,-0.764,1.604,0.303,0.445,1.102,-0.062,-0.101,0.147,0.758,0.144,0.467,1.171,-0.096,0.253,0.256,1.250,-1.315,0.937,0.802,-0.348,-0.013,1.217,0.648,0.810,-0.097,0.894,0.859,0.750,0.495,0.754,0.227,0.714,-0.430,1.268,-0.318,1.488,0.563,0.704,0.270,0.386,-0.574,0.137,0.861,0.675,0.465,1.292,-0.051,0.549,-0.503,0.868,1.222,-1.557
0.747,-0.117,0.413,-0.082,1.308,0.074,0.856,0.317,0.451,0.759,0.364,0.804,-0.037,1.607,-0.630,0.670,0.388,0.431,1.157,-0.382,1.298,-0.073,1.489,-0.062,0.633,0.853,0.379,0.715,0.828,0.066,1.123,-0.203,1.081,-0.204,-0.156,1.603,0.051,0.850,0.344,1.431,-0.545,-0.289,1.167,-0.161,0.936,-0.804,0.260,-0.211,1.027,0.396,0.028,0.950,0.857,-0.421,1.207,0.404,0.116,1.124,-0.179,-0.383,0.626,0.639,0.217,0.387,1.305,-0.196,0.298,0.608,1.066,-1.378,1.697,-0.241,0.498,-0.263,0.876,0.863,0.772,-0.365,1.295,0.404,1.018,0.470,0.969,0.313,0.657,-0.235,1.293,-0.528,1.069,0.986,0.064,0.163,0.084,-0.104,0.343,0.564,0.734,0.547,1.354,-0.484,0.593,-0.261,0.550,1.262,-0.878
0.672,-0.095,0.157,-0.508,1.321,0.135,0.505,0.673,0.166,1.064,0.032,0.861,-0.191,1.587,-0.582,0.609,0.482,0.289,1.049,-0.067,0.767,0.609,1.306,0.299,0.261,1.415,0.115,1.101,0.532,0.115,0.820,-0.114,1.186,-0.015,0.337,1.347,0.167,0.783,0.432,1.269,-0.274,-0.130,1.038,-0.212,0.992,-0.946,0.489,-0.242,1.130,-0.012,0.591,0.681,0.863,-1.221,1.594,0.310,-0.444,1.410,-0.448,-0.370,0.729,0.317,-0.157,0.608,1.285,-0.191,0.699,0.197,1.381,-1.534,1.812,-0.319,0.552,0.374,0.147,1.542,0.512,-0.120,1.048,0.482,0.975,0.538,1.027,0.247,0.482,-0.426,1.545,-0.824,1.617,0.446,0.509,0.463,-0.157,-0.199,0.900,0.279,0.911,0.714,1.327,-0.302,0.334,-0.473,0.787,1.240,-0.995
0.757,0.075,0.502,-0.472,1.321,0.238,0.405,0.845,0.232,0.789,0.045,0.910,-0.412,1.589,-0.334,0.154,0.659,0.143,1.220,-0.201,1.130,0.214,1.258,0.236,0.411,1.210,0.273,1.201,0.581,0.158,0.524,0.109,1.050,-0.096,0.273,1.403,0.266,0.754,0.706,0.899,0.191,-0.090,1.137,-0.147,0.965,-1.737,0.474,0.116,0.724,0.107,0.659,0.666,0.493,-0.897,1.293,0.156,-0.220,1.054,-0.068,-1.033,0.730,0.461,-0.207,1.000,0.911,0.053,0.772,0.365,1.081,-1.800,1.768,-0.359,0.886,0.357,0.128,1.320,0.607,-0.592,1.379,0.379,0.737,0.698,0.987,-0.023,0.217,0.006,0.835,-0.677,1.392,0.645,0.633,-0.022,0.045,-0.263,0.547,0.114,0.937,0.609,0.900,-0.108,0.191,-0.171,0.576,1.098,-1.399
0.913,-0.032,0.564,-0.558,1.161,0.517,0.327,0.900,0.284,0.735,-0.129,1.092,-0.390,1.587,-0.567,0.211,0.370,0.360,1.162,0.003,0.718,0.600,1.390,-0.057,0.747,0.726,0.854,0.847,0.927,-0.149,0.919,-0.214,1.661,-0.754,0.291,1.530,0.126,0.816,0.937,0.845,0.376,0.219,1.052,0.134,0.620,-1.414,0.911,-0.038,0.703,0.332,0.175,1.021,0.135,-0.826,1.167,0.185,-0.238,0.757,0.144,-0.961,1.213,-0.077,-0.016,1.160,0.790,0.495,0.725,0.576,0.835,-1.643,1.847,-0.666,0.637,0.556,0.450,0.991,0.931,-0.778,1.567,0.140,1.057,0.231,1.325,0.287,0.278,0.312,0.947,-0.614,1.706,0.187,1.155,-0.374,-0.472,0.714,-0.116,0.976,0.650,0.805,1.213,0.154,-0.393,-0.182,0.897,0.903,-1.416
0.615,0.235,-0.238,-0.388,0.942,0.582,0.202,0.931,0.390,0.709,-0.373,1.062,-0.895,1.636,-0.430,0.402,0.171,0.561,0.781,0.137,0.619,0.579,1.558,-0.640,0.900,0.438,1.014,0.789,1.029,-0.284,0.845,-0.106,1.616,-0.678,0.317,1.566,0.012,0.980,0.925,0.791,0.186,0.234,0.886,-0.014,0.825,-1.216,1.039,-0.503,1.235,-0.033,0.683,0.837,0.137,-1.399,1.399,-0.045,0.158,0.155,0.675,-1.293,0.759,0.209,-0.035,0.942,0.816,0.393,0.955,0.392,0.830,-1.656,1.780,-0.733,0.616,0.497,0.911,0.855,0.975,-0.720,1.689,-0.103,1.208,0.516,1.147,-0.072,0.303,0.187,1.499,-0.651,1.998,-0.414,1.106,-0.575,-0.453,0.609,-0.521,1.369,0.201,1.056,0.323,0.782,-0.227,-0.084,0.967,0.692,-1.113
0.656,0.168,-0.662,-0.221,0.970,0.694,0.449,0.558,0.574,0.937,-0.183,0.803,-0.628,1.486,-0.346,1.038,-0.473,1.291,0.455,0.499,0.403,0.550,1.585,-0.508,0.951,0.556,1.041,0.726,1.059,-0.174,0.795,0.115,1.403,-0.837,0.364,1.737,-0.408,1.110,0.692,1.043,-0.036,0.445,0.694,0.175,0.713,-0.668,0.687,-0.757,1.821,-0.184,0.731,0.738,0.267,-1.179,1.340,0.132,0.148,0.164,0.791,-1.590,0.839,0.030,-0.027,0.849,0.845,0.480,0.830,0.483,0.812,-1.379,1.376,-0.069,0.374,0.552,0.639,1.042,0.882,-0.695,1.260,0.294,1.082,0.468,1.023,0.381,0.236,0.343,1.280,-0.806,2.418,-0.408,1.374,-0.750,-0.523,0.747,-0.363,1.012,0.446,0.715,0.455,0.654,-0.408,0.047,0.661,1.258,-1.427
0.655,-0.045,-0.552,0.094,1.007,0.516,0.579,0.649,0.547,1.016,0.156,0.499,-0.301,1.424,-0.451,1.132,-0.666,1.308,0.573,0.324,0.795,0.459,1.468,-0.701,0.839,0.860,0.821,0.707,1.233,-0.417,1.160,-0.154,1.637,-0.772,0.443,1.737,-0.352,0.894,1.173,0.442,0.352,0.006,0.813,0.007,1.002,-0.612,0.491,-0.409,1.489,0.283,0.359,0.964,0.132,-1.388,1.348,0.354,0.293,0.409,0.658,-1.343,1.276,-0.224,-0.053,0.788,0.756,0.072,0.912,0.239,0.855,-1.105,0.653,0.536,0.562,0.484,0.675,0.911,1.153,-0.665,1.445,-0.040,1.155,0.370,1.141,0.513,0.390,0.143,1.109,-0.552,2.079,-0.163,1.373,-0.584,-0.617,0.687,-0.628,1.240,0.481,0.595,0.412,0.879,-1.016,0.031,0.651,0.893,-1.271
0.539,0.474,-0.794,0.210,1.057,0.642,0.648,1.038,0.304,1.376,0.105,1.057,-0.268,1.540,-0.506,0.804,-0.998,1.664,0.042,0.788,0.601,0.404,1.413,-0.758,0.899,0.738,0.729,0.902,1.004,-0.365,1.467,-0.397,1.779,-1.285,-0.098,2.184,-0.642,1.006,0.998,0.809,0.244,0.278,0.831,0.077,0.917,0.121,0.214,-0.178,1.125,0.338,-0.268,1.582,-0.393,-1.678,1.449,0.244,0.552,-0.044,0.921,-1.281,1.298,-0.550,-0.058,0.834,0.602,0.320,1.012,0.387,0.792,-0.941,-0.440,1.050,0.413,0.712,0.762,0.923,1.049,-0.345,1.395,0.228,1.076,0.579,1.053,0.715,-0.093,0.224,0.964,-0.770,2.015,-0.408,1.358,-0.748,-1.079,0.797,-0.710,1.791,0.042,1.103,0.524,0.742,-0.852,0.162,0.323,0.504,-1.542
0.610,0.392,-0.755,-0.452,1.559,0.273,0.693,0.843,0.587,1.283,0.183,0.785,-0.195,1.240,-0.796,1.102,-0.937,1.433,-0.079,0.948,0.349,0.516,1.126,-0.602,0.953,0.454,0.586,0.844,0.865,0.255,1.071,0.024,1.202,-0.978,-0.141,2.282,-0.594,1.252,0.895,0.543,0.538,-0.199,1.302,-0.294,1.379,-0.277,0.065,-0.048,1.022,0.538,-0.515,1.608,-0.419,-1.005,1.463,0.228,0.106,0.601,0.077,-1.189,0.798,-0.256,-0.110,0.813,0.582,0.471,0.934,0.307,1.054,-1.423,-0.228,0.722,0.548,0.726,0.950,0.998,0.878,-0.046,1.161,0.589,0.917,0.725,0.787,1.031,-0.722,0.020,1.103,-0.658,2.049,-0.148,1.096,-0.819,-0.686,0.745,-0.842,1.808,-0.097,1.003,0.718,0.774,-1.128,-0.259,0.162,0.483,-1.387
0.642,0.493,-0.271,-0.633,1.597,-0.033,0.694,0.914,0.508,1.301,0.237,0.926,-0.158,1.710,-1.051,0.919,-0.427,1.446,0.020,0.874,0.220,0.815,0.659,-0.358,0.758,0.554,0.385,1.110,0.754,0.407,1.023,-0.171,1.318,-0.889,0.235,1.926,-0.520,1.133,0.954,0.629,0.503,0.152,0.684,0.274,0.793,0.025,-0.201,0.337,0.807,0.681,-0.691,1.795,-0.444,-1.121,1.654,0.114,0.445,0.561,0.047,-0.734,0.840,-0.368,-0.540,1.015,0.109,0.942,0.386,0.781,1.132,-1.533,-0.234,0.349,0.930,0.444,0.940,0.842,0.532,0.524,0.756,0.813,0.701,0.978,0.673,0.996,-0.559,0.349,0.916,-0.537,2.284,-0.037,1.093,-0.877,-0.678,0.977,-0.665,1.716,-0.122,1.382,0.549,0.995,-1.132,-0.322,0.291,0.585,-0.982
0.745,0.536,-0.304,-0.105,1.229,-0.202,0.674,0.822,0.317,1.485,0.100,1.155,-0.213,1.723,-1.017,1.281,-0.835,1.654,-0.187,1.066,-0.040,0.994,0.513,-0.470,1.003,0.508,0.453,1.166,0.603,0.305,1.544,-0.574,1.597,-0.828,0.072,2.096,-0.402,1.339,0.723,1.005,0.128,0.418,0.713,0.138,0.986,-0.175,-0.419,0.483,0.597,0.711,-0.500,1.544,-0.116,-1.319,1.240,0.740,0.115,0.314,0.546,-0.752,1.263,-0.784,0.192,0.768,0.055,1.315,0.388,0.695,1.101,-1.627,-0.889,0.206,1.141,0.441,0.677,1.226,0.297,0.646,0.712,0.766,0.839,0.771,0.835,0.342,0.039,0.100,1.085,-0.249,2.065,-0.060,1.294,-0.771,-1.091,0.816,-0.443,1.565,-0.095,1.017,0.976,0.976,-1.350,-0.669,-0.210,0.596,-0.575
0.824,0.760,-0.666,-0.272,1.285,0.158,0.199,1.105,-0.006,1.686,-0.174,1.366,-0.748,2.216,-1.252,1.559,-0.615,1.336,0.010,0.919,0.032,1.071,0.513,-0.238,0.502,0.793,0.391,1.388,0.555,0.319,1.507,-0.473,1.763,-0.483,0.060,1.922,-0.155,1.127,1.016,0.760,0.259,0.542,0.506,0.389,0.699,-0.141,-0.439,0.507,0.477,0.517,-0.764,1.665,0.036,-2.379,1.045,0.771,0.231,0.167,0.508,-0.247,1.134,-0.665,-0.053,1.148,0.013,1.633,-0.359,1.525,-0.083,-2.105,-0.656,0.424,0.772,0.530,0.589,1.085,0.256,0.615,0.578,0.998,0.629,0.861,0.806,0.218,-0.164,0.255,0.665,-0.117,1.920,0.051,0.979,-0.426,-0.606,0.771,-0.595,1.609,-0.238,1.116,0.922,0.719,-1.182,-1.188,-0.434,0.649,-1.169
0.826,0.888,-1.188,-0.177,1.183,0.312,0.401,0.779,0.021,1.892,-0.260,1.691,-0.691,1.909,-1.067,1.178,-0.421,1.009,0.153,0.707,0.142,0.886,0.440,0.198,0.042,0.716,0.545,1.239,0.675,-0.078,1.583,-0.703,1.731,-0.988,0.183,1.780,0.195,1.051,0.854,0.821,0.340,0.477,0.476,0.660,0.460,0.339,-0.258,0.057,1.155,0.327,-1.646,1.831,-0.030,-2.414,1.475,0.402,0.167,-0.232,1.080,-0.529,1.207,-0.558,-0.328,1.181,0.321,1.167,-0.380,1.136,0.408,-2.080,-0.600,0.639,0.855,0.366,0.283,1.212,0.167,0.556,0.850,0.998,0.805,0.678,1.012,0.077,-0.576,0.505,0.443,0.025,1.588,0.308,0.816,-0.009,-0.353,0.777,-0.255,1.738,-0.258,1.063,0.935,0.391,-0.759,-1.673,-0.619,0.481,-1.469
0.604,0.962,-1.076,-0.312,1.293,0.018,0.784,0.550,0.213,1.751,0.007,1.462,-0.331,1.638,-0.710,1.207,-0.013,0.741,0.402,0.643,0.247,0.864,0.773,-0.002,0.677,0.523,0.434,1.420,0.188,0.199,1.314,-0.730,1.667,-0.398,-0.343,2.074,-0.021,1.195,0.925,0.478,0.492,0.484,0.319,0.720,0.705,-0.085,-0.008,-0.376,1.686,-0.162,-1.359,1.478,0.064,-2.797,1.057,0.881,0.135,-0.245,1.443,-0.795,1.631,-0.951,-0.187,0.924,0.429,0.731,-0.199,1.332,-0.268,-2.093,-0.606,0.957,0.544,0.250,0.700,1.008,0.249,0.756,0.685,1.030,0.869,0.818,0.887,0.626,-0.879,0.641,0.300,0.609,0.915,1.068,0.373,0.228,-0.808,1.017,0.119,1.438,-0.249,0.967,0.410,0.711,-0.783,-0.580,-0.259,-0.067,-1.693
0.591,0.981,-1.376,-0.238,1.523,-0.036,1.151,-0.024,0.481,1.343,0.216,1.334,-0.281,1.820,-1.001,1.387,-0.173,0.763,0.622,0.519,0.388,0.779,0.763,-0.139,0.203,1.089,0.106,1.762,-0.147,0.513,1.172,-0.389,1.585,-0.529,-0.374,1.836,0.049,1.157,1.047,0.208,0.755,0.321,0.353,0.644,0.235,0.363,-0.070,-0.517,1.631,0.049,-0.834,1.232,0.308,-3.036,0.685,1.339,-0.716,0.235,1.126,-0.445,1.132,-0.534,-0.409,1.167,0.266,0.680,-0.278,1.462,-0.507,-1.366,-0.516,0.897,0.559,0.233,0.958,0.725,0.572,0.765,0.610,1.033,0.769,0.955,0.818,0.955,-0.968,0.875,0.183,0.034,1.062,1.013,0.330,-0.068,-0.867,1.078,0.019,1.654,-0.219,1.335,-0.019,1.019,-0.802,-1.441,0.145,0.155,-2.198
0.629,0.946,-1.235,-0.060,1.017,0.333,1.082,0.145,0.638,1.482,-0.007,1.133,-0.215,1.617,-0.769,1.011,-0.159,0.874,0.419,0.524,0.206,0.906,0.773,-0.053,0.503,0.540,0.243,1.542,-0.096,0.490,1.054,-0.305,1.773,-0.736,-0.564,1.946,0.170,1.085,0.955,-0.054,0.956,0.029,0.333,0.830,-0.194,0.291,-0.103,-0.314,1.500,-0.247,-0.579,0.929,0.495,-3.334,0.938,1.268,-0.898,0.144,0.877,-0.361,1.150,-0.415,-0.873,1.545,-0.074,1.175,-0.507,1.663,-0.418,-1.168,0.144,0.620,0.380,0.520,1.061,0.660,0.115,1.116,0.472,1.020,0.557,1.176,0.496,0.944,-0.644,0.463,0.579,-0.308,1.353,0.918,0.699,-0.180,-0.297,0.805,0.510,1.530,0.022,1.240,0.046,0.795,-0.544,-0.369,0.304,0.386,-1.788
0.692,0.482,-0.525,-0.041,0.737,0.688,0.754,0.327,0.165,1.524,-0.228,1.061,0.045,0.993,-0.233,0.481,0.033,0.647,0.828,0.080,0.635,0.735,1.117,-0.487,0.977,0.335,0.682,1.233,-0.146,0.260,0.806,-0.152,1.939,-0.466,-0.428,1.872,0.212,1.031,0.943,0.360,0.746,0.035,0.390,0.774,-0.004,0.281,-0.274,-0.050,1.267,0.081,-0.373,1.413,0.297,-3.032,1.109,1.360,-0.789,0.360,0.729,-0.081,0.976,-0.108,-1.253,1.441,0.026,1.323,-0.163,1.475,-0.104,-1.551,-0.321,0.599,0.371,0.455,0.886,0.613,0.239,0.761,0.524,1.243,0.159,1.500,0.208,0.975,-0.648,0.459,0.462,-0.090,1.416,0.867,0.976,-0.268,-0.337,0.526,0.613,1.442,-0.114,1.289,-0.117,0.799,-0.782,-0.683,0.202,0.277,-1.811
0.643,0.520,-0.958,0.095,0.708,0.552,0.949,0.346,0.695,1.238,-0.030,0.797,-0.119,1.329,-0.285,0.572,-0.023,0.542,0.951,-0.020,1.161,0.507,1.269,-0.809,0.868,0.320,0.463,1.399,-0.035,0.095,0.709,-0.082,1.958,-0.499,-0.139,1.800,0.327,0.895,1.160,0.151,0.987,0.059,0.430,0.640,0.225,0.118,0.022,-0.232,1.108,0.131,0.191,1.373,0.147,-2.337,0.708,1.729,-1.274,-0.014,0.933,-0.233,0.739,-0.064,-1.071,1.601,0.080,1.377,-0.205,1.308,0.011,-0.571,-1.294,0.463,0.675,0.373,0.997,0.405,0.234,0.912,0.602,1.078,0.478,1.102,0.393,1.027,-0.570,0.097,0.384,0.037,1.212,0.993,0.800,0.010,-0.332,0.447,0.631,1.667,-0.440,1.797,-0.528,0.503,-1.020,-0.839,-0.049,0.024,-1.767
0.546,0.501,-0.747,-0.545,1.327,0.602,0.889,0.283,0.896,0.695,0.711,0.463,0.155,1.486,-0.644,0.645,0.116,0.796,0.913,-0.011,0.948,0.402,1.138,-0.886,1.157,0.353,0.762,1.329,-0.177,0.308,1.094,-0.301,1.915,-0.516,-0.250,1.757,0.510,0.760,1.153,0.342,0.609,0.101,0.389,0.754,0.228,0.366,0.270,0.052,0.882,0.386,-0.502,1.428,0.102,-2.073,0.918,1.662,-1.137,0.251,0.647,0.284,0.665,0.061,-0.786,1.162,0.279,1.153,-0.082,1.271,-0.088,-0.295,-2.131,0.340,0.536,0.797,0.990,0.828,0.395,0.738,0.605,1.061,0.429,1.141,0.389,0.846,-0.660,0.013,0.570,-0.232,1.259,1.110,0.307,0.260,-0.233,0.322,0.532,1.765,-0.487,1.739,-0.337,0.632,-1.163,-0.908,-0.175,-0.332,-1.385
0.120,0.219,-1.007,-0.619,1.293,0.600,0.836,0.355,1.115,0.406,1.018,0.172,0.652,1.447,-0.848,0.759,-0.072,1.099,0.440,0.033,1.007,0.584,0.652,-0.850,1.134,0.489,0.400,1.530,-0.370,0.197,1.188,-0.382,1.876,-0.626,0.148,1.685,0.613,0.836,0.914,0.599,0.458,0.243,0.322,0.868,0.279,0.624,-0.503,0.330,0.929,0.272,-0.350,1.196,0.293,-2.267,1.430,1.222,-0.566,0.285,0.602,0.209,0.743,0.148,-0.507,0.889,0.608,0.885,0.064,1.166,0.114,-0.192,-1.590,0.466,0.792,0.257,1.003,0.826,0.435,0.699,0.592,0.780,0.493,1.157,0.487,1.121,-0.878,0.270,0.560,-0.722,1.284,1.073,0.426,0.464,-0.391,0.621,0.309,1.794,-0.108,1.170,0.257,0.257,-1.158,-0.956,-0.487,-1.060,-0.497
0.251,0.315,-1.138,-0.056,0.916,0.989,0.424,0.657,0.769,0.812,0.743,0.202,0.411,1.658,-0.927,0.709,-0.386,0.925,0.460,-0.004,1.135,0.315,1.150,-0.743,1.389,0.400,0.326,1.320,0.007,-0.148,1.267,-0.807,2.169,-0.879,0.286,1.420,1.019,0.649,1.226,0.347,0.566,0.192,0.279,1.069,0.128,0.860,-0.845,0.221,0.865,0.083,-0.405,1.449,0.066,-2.149,1.535,1.002,-0.125,0.314,0.634,0.022,0.311,0.498,-0.801,0.737,0.561,1.037,-0.467,1.587,-0.133,0.206,-1.836,-0.014,0.387,0.509,0.919,0.562,0.514,0.872,0.594,1.049,0.481,1.138,0.716,0.863,-0.900,0.484,0.218,-0.299,1.038,1.582,0.087,0.573,-0.802,0.361,0.437,1.661,-0.102,1.544,-0.029,0.452,-1.014,-0.613,-0.783,-1.068,0.350
-0.308,0.962,-1.745,-0.049,0.845,1.079,0.096,1.264,0.444,0.989,0.497,0.532,-0.270,1.795,-1.091,0.903,-0.444,0.873,0.488,0.135,0.927,0.470,1.105,-0.409,0.734,1.045,0.217,1.399,-0.331,0.175,0.919,-0.462,1.675,-0.359,0.546,1.165,1.378,0.178,1.604,0.130,0.884,0.103,0.373,0.937,0.134,0.598,-0.625,0.192,0.825,0.118,-0.262,1.156,0.297,-2.186,1.740,0.725,0.333,-0.211,1.143,-0.099,0.581,0.111,-0.469,0.872,0.495,1.236,-0.329,1.581,-0.274,-0.487,-1.259,0.176,0.314,0.338,1.045,0.707,0.705,0.624,0.907,0.785,0.770,0.920,0.675,0.606,-0.388,0.056,0.708,-0.439,1.134,1.198,0.417,0.327,-0.466,0.408,0.176,2.097,-0.322,1.888,-0.188,0.281,-0.894,-0.012,-0.667,-0.620,0.709
-0.204,0.853,-1.605,0.013,1.024,0.867,0.384,0.965,0.618,0.975,0.382,0.755,-0.560,1.548,-0.698,0.864,-0.510,1.027,0.342,0.537,0.475,0.620,0.862,-0.137,0.940,0.866,0.401,1.101,-0.106,0.147,0.995,-1.032,2.056,-0.980,0.871,0.764,1.795,-0.313,1.836,0.113,0.972,0.426,0.243,1.193,-0.173,1.064,-1.376,0.618,0.388,0.235,-0.543,1.174,0.456,-1.649,2.025,0.501,0.670,-0.180,0.983,0.068,0.758,0.165,-0.203,0.441,0.377,1.463,-0.805,1.868,-0.120,0.046,-0.994,-0.066,0.777,0.158,0.962,0.856,0.676,0.572,0.873,0.520,1.052,0.882,0.817,0.483,0.235,-0.156,0.914,-0.424,0.826,1.517,0.014,0.537,-0.366,0.168,0.008,1.821,-0.114,1.704,-0.344,-0.042,-0.801,-0.130,-0.621,-0.259,0.861
-0.248,0.955,-2.285,-0.049,0.869,0.701,0.485,1.139,0.224,1.571,-0.098,0.836,-0.547,1.770,-0.776,0.965,-0.777,1.027,0.396,0.527,0.375,0.844,0.957,-0.398,1.257,0.769,0.753,0.926,-0.114,-0.071,0.933,-1.124,2.077,-1.181,1.027,0.577,1.803,-0.501,2.139,-0.007,1.138,0.058,0.630,1.084,0.115,0.908,-0.936,0.758,0.392,0.233,-0.058,1.124,0.359,-1.214,1.673,0.673,0.692,-0.204,1.218,-0.300,0.921,-0.056,-0.096,0.530,0.293,1.493,-0.798,1.567,0.340,0.160,-0.608,-0.386,1.034,-0.154,1.005,0.507,0.641,0.450,0.901,0.452,0.986,0.811,0.568,0.666,0.472,-0.294,1.102,-0.460,1.488,0.918,0.574,0.357,-0.402,0.049,0.555,1.387,0.271,1.028,0.567,-0.878,-0.806,-0.467,-0.600,0.024,0.290
-0.517,1.091,-2.823,-0.324,1.329,0.427,0.784,0.864,0.335,1.406,0.408,0.596,0.066,1.405,-0.217,0.419,-0.974,1.419,0.111,0.878,0.177,1.034,1.175,-0.292,1.584,0.187,0.654,1.009,-0.316,0.005,1.117,-1.280,2.307,-1.093,1.239,0.668,1.702,-0.533,2.042,-0.052,1.000,0.273,0.427,1.035,0.102,0.604,-0.679,0.654,0.271,0.592,-0.380,1.346,0.012,-1.630,1.997,0.394,0.943,-0.660,1.451,-0.487,1.235,-0.175,0.426,0.313,0.590,1.203,-0.276,0.818,0.891,-0.063,-0.157,-0.326,0.983,-0.181,0.847,0.611,0.407,0.407,1.042,0.331,1.249,0.739,0.453,0.923,-0.064,0.002,0.881,-0.478,1.590,0.651,0.735,0.063,-0.140,-0.712,0.138,1.767,-0.103,1.269,0.120,-0.056,-1.115,0.331,-1.362,0.176,0.096
-0.443,0.750,-2.456,0.068,1.043,0.609,0.723,0.686,0.628,1.161,0.665,0.345,0.089,1.140,0.007,0.231,-0.615,0.960,0.631,0.620,-0.074,0.944,1.182,-0.799,1.975,-0.307,0.804,1.117,-0.706,0.271,1.125,-0.911,1.738,-0.617,1.155,0.827,1.680,-0.403,2.224,-0.168,0.911,0.242,0.479,1.078,0.058,0.792,-1.306,0.696,0.424,0.497,-0.514,1.609,-0.055,-1.362,1.948,0.562,0.877,-0.994,1.583,-0.702,0.783,0.276,-0.174,0.513,0.238,1.565,-0.526,0.971,0.806,-0.208,0.092,0.319,0.727,0.125,1.092,0.426,0.403,0.313,1.090,0.540,0.849,0.982,0.277,1.362,-0.737,0.433,0.742,-0.021,1.175,1.318,-0.089,0.466,-0.050,-1.054,0.219,1.543,-0.144,1.268,0.533,-0.090,-1.265,0.620,-1.191,-0.543,0.002
-0.673,0.376,-2.266,0.175,1.093,0.395,1.044,0.648,0.403,1.081,0.929,0.327,0.104,1.367,-0.403,0.798,-0.779,1.128,0.327,0.778,-0.199,1.159,1.057,-0.050,1.423,0.114,0.748,1.013,-0.373,0.381,1.021,-0.530,1.420,-0.284,1.061,1.019,1.282,-0.240,2.003,0.064,0.988,0.019,0.539,0.848,0.245,0.328,-1.333,0.482,0.757,0.194,-0.622,1.861,0.006,-0.967,1.583,1.023,0.376,-0.822,1.338,-0.474,0.610,0.183,-0.050,0.412,0.189,1.559,-0.435,1.346,0.552,-0.211,0.153,-0.011,0.693,0.386,0.767,0.808,-0.134,0.577,0.767,0.823,0.554,1.126,0.243,1.233,-0.581,0.706,0.555,0.393,0.843,1.519,-0.639,0.779,-0.170,-1.156,-0.032,1.827,-0.358,1.356,0.374,0.127,-1.409,0.445,-1.494,-1.141,0.017
-1.246,0.340,-1.391,0.075,1.090,0.576,0.953,0.704,0.224,1.320,0.732,0.664,-0.570,1.394,-0.639,0.877,-0.755,1.367,0.287,0.598,-0.183,1.163,1.004,0.195,1.540,-0.073,0.840,0.851,-0.086,0.224,1.031,-0.353,1.017,0.227,0.444,1.460,0.805,-0.108,1.723,0.448,0.609,-0.128,0.759,0.940,0.413,0.184,-0.780,0.458,0.835,-0.177,-0.772,1.761,0.145,-1.287,1.532,1.091,0.198,-0.918,1.780,-0.289,0.825,0.140,-0.020,0.242,0.320,1.189,-0.364,1.428,0.682,-0.146,0.018,0.506,-0.022,0.915,0.451,1.371,-0.207,0.670,0.619,0.990,0.271,1.443,0.023,1.592,-0.143,0.755,0.451,0.161,0.798,1.640,-0.362,0.648,0.036,-0.807,0.085,1.762,-0.309,1.382,0.325,0.209,-1.655,0.393,-1.804,-0.922,0.253
-0.881,0.423,-1.464,-0.157,1.023,0.619,0.815,0.619,0.318,1.159,0.839,0.533,-0.349,1.502,-0.536,1.210,-0.425,1.212,0.423,0.748,-0.146,0.989,1.210,0.162,1.370,0.140,0.676,1.124,-0.221,0.342,0.608,-0.223,1.084,0.312,0.129,1.854,0.516,0.001,1.785,0.436,0.699,0.306,0.213,1.472,-0.058,0.038,-1.103,0.826,0.464,0.390,-0.595,1.604,0.367,-1.425,1.660,0.777,0.239,-0.226,1.109,0.052,0.957,-0.248,0.638,-0.299,0.745,0.975,-0.211,1.476,0.647,-0.238,-0.088,0.553,0.098,0.990,0.530,1.098,0.015,0.328,0.762,0.808,0.433,1.525,-0.262,1.711,-0.061,1.237,0.001,0.378,0.581,1.696,-0.168,0.442,-0.279,-0.572,0.222,1.319,0.205,1.057,-0.064,0.980,-1.970,0.804,-2.188,-1.237,0.468
-0.405,0.297,-1.700,0.581,0.311,1.048,0.486,0.852,0.322,1.386,0.585,0.381,-0.177,1.158,-0.122,0.748,-0.507,1.406,0.149,0.836,0.136,0.550,1.261,0.222,1.394,-0.002,0.773,1.129,-0.412,0.739,0.788,-0.430,1.071,0.513,0.089,1.905,0.330,0.059,1.862,0.256,0.577,0.363,-0.214,1.633,-0.486,0.345,-1.056,0.406,0.961,0.053,-0.036,1.087,0.785,-1.072,1.634,0.989,0.161,0.286,0.594,0.549,0.511,0.141,0.415,-0.614,1.104,0.612,-0.273,1.371,1.037,-0.815,0.120,0.279,0.331,0.682,0.669,0.906,-0.018,0.560,0.814,0.772,0.370,1.706,-0.235,1.334,-0.068,1.372,-0.079,0.061,0.870,1.390,0.025,0.778,-0.817,-0.390,0.194,0.796,0.120,1.328,-0.171,1.376,-1.918,1.071,-1.764,-1.375,0.172
-0.767,0.304,-1.363,0.621,0.410,1.011,0.526,0.948,0.214,1.417,0.676,0.196,0.375,0.688,0.126,0.236,0.086,1.079,0.533,0.467,0.142,0.849,1.265,0.184,1.323,0.021,1.066,0.860,-0.677,0.702,0.798,-0.055,1.007,0.733,0.198,1.745,0.513,0.043,1.880,0.429,0.409,0.128,0.213,1.157,0.023,0.141,-0.851,0.559,0.617,0.262,0.154,1.226,0.689,-0.679,1.229,1.239,0.012,-0.211,0.727,0.749,0.633,0.037,0.595,-1.015,1.682,0.116,-0.496,1.698,0.616,-0.394,-0.171,0.284,0.477,0.168,1.339,0.418,0.306,0.420,1.001,0.675,0.328,1.567,-0.018,1.076,-0.015,1.214,-0.015,0.397,0.662,1.542,0.216,0.519,-0.152,-0.369,-0.096,0.976,0.253,1.075,-0.016,1.455,-1.825,0.624,-1.132,-1.288,0.019
-0.616,0.104,-0.891,0.306,0.993,0.747,0.667,0.785,-0.325,1.912,0.465,0.571,0.330,0.573,0.281,-0.000,-0.065,1.096,0.683,-0.106,0.096,1.130,1.024,0.311,1.178,-0.125,0.985,0.971,-0.534,1.017,0.574,0.113,0.836,0.924,-0.075,1.795,0.262,0.605,1.484,0.772,0.299,-0.038,0.472,1.235,-0.072,0.281,-0.604,0.127,0.833,-0.002,0.484,0.905,0.755,-0.998,1.783,0.779,0.186,-0.768,1.164,0.516,0.675,0.022,0.437,-1.070,1.290,0.511,-0.465,1.555,0.997,-0.124,-0.715,0.397,0.480,-0.118,0.842,0.772,0.385,0.378,0.924,0.750,0.335,1.204,0.168,0.514,0.412,1.135,-0.032,0.720,0.619,1.629,-0.218,0.761,-0.661,-0.158,0.373,0.740,0.892,0.692,-0.224,1.546,-1.560,0.104,-0.749,-1.028,0.556
-0.734,0.096,-0.695,0.537,0.509,1.136,0.282,0.832,-0.269,1.736,0.455,0.842,-0.238,0.752,-0.099,0.387,-0.307,1.209,0.659,-0.285,0.241,0.886,1.257,0.119,1.200,-0.154,0.810,1.093,-0.499,1.116,0.300,0.187,0.130,1.290,-0.199,1.971,0.155,0.269,1.839,0.190,0.305,0.170,0.536,1.007,0.178,-0.215,-0.552,0.495,0.451,0.300,0.392,1.107,0.739,-1.145,1.476,1.180,0.242,-0.175,1.050,0.227,0.903,-0.322,0.845,-0.716,1.294,0.468,-0.443,1.456,1.219,-0.111,-0.284,-0.124,0.925,-0.334,0.633,0.759,0.480,0.385,0.796,0.878,0.487,1.204,0.411,0.392,0.257,1.274,-0.205,0.349,0.866,1.490,0.050,0.923,-1.198,-0.531,0.889,0.134,1.505,0.439,0.432,0.800,-1.132,0.339,-0.753,-1.954,0.649
-0.487,0.448,-1.308,0.696,0.133,1.468,-0.137,0.736,-0.141,1.611,0.624,0.520,-0.136,0.731,-0.189,0.215,-0.339,1.257,0.571,-0.169,0.040,1.112,0.980,0.058,1.101,0.115,1.125,0.814,-0.547,1.010,0.432,0.054,0.293,1.147,0.004,1.978,0.256,0.257,1.662,0.197,0.352,-0.252,0.747,0.760,0.228,-0.751,-0.515,0.452,0.560,0.410,0.080,1.575,0.540,-0.570,1.184,1.473,-0.069,-0.346,1.259,-0.051,0.510,0.214,0.545,-0.733,1.738,-0.101,-0.275,1.278,1.417,-0.168,0.367,-0.426,1.016,-0.272,0.795,0.236,0.396,0.163,0.964,0.755,0.833,1.204,0.382,0.216,0.170,1.151,-0.143,0.007,1.117,1.421,-0.112,1.192,-0.962,-0.215,0.732,0.114,1.550,0.344,0.499,0.930,-1.014,-0.176,-0.254,-2.054,0.924
-0.391,-0.007,-1.782,1.037,0.329,1.059,-0.147,0.631,-0.358,1.819,0.604,0.296,0.400,0.428,0.276,-0.148,0.100,0.787,0.774,-0.099,-0.414,1.467,0.759,0.313,1.044,0.081,1.532,0.510,-0.398,1.097,0.221,0.279,0.128,1.268,-0.012,1.966,0.250,0.451,1.553,0.322,0.233,-0.026,0.928,0.174,0.839,-1.035,-0.573,-0.233,1.245,0.446,-0.257,1.739,0.050,0.505,0.748,1.495,-0.144,0.036,0.876,0.339,0.499,-0.169,0.450,-0.865,2.207,-0.275,-0.480,1.589,1.298,0.012,-0.010,-0.730,1.495,-0.636,0.517,0.468,0.856,0.094,1.219,0.416,1.041,0.947,0.437,0.149,0.072,0.921,0.089,-0.292,1.489,1.207,0.058,1.271,-0.717,-0.083,0.778,0.080,1.231,0.296,0.583,0.734,-1.042,-0.048,-0.203,-2.217,0.506
-0.131,0.144,-1.124,0.629,0.841,0.964,-0.094,0.702,-0.499,1.748,0.712,0.405,0.446,0.073,0.699,-0.133,-0.208,1.195,0.655,-0.426,-0.194,1.552,0.593,0.657,0.844,0.190,1.799,0.375,-0.040,0.934,0.503,-0.085,0.438,1.173,0.101,2.107,0.075,0.459,1.193,0.627,0.097,0.232,0.761,0.290,0.484,-0.453,-0.803,0.457,0.696,0.931,-0.332,1.727,0.190,0.469,0.913,1.351,-0.332,0.047,1.221,0.424,0.456,0.045,0.163,-0.637,2.048,-0.366,-0.145,1.151,1.544,-0.189,0.512,-0.524,1.230,-0.087,0.953,-0.172,1.108,-0.163,1.392,0.338,1.070,0.958,0.620,0.155,0.313,0.566,0.277,-0.483,1.382,0.972,-0.034,1.293,-0.326,-0.318,0.867,0.068,1.386,0.347,0.346,1.048,-1.088,-0.317,-0.487,-1.821,0.961
-0.115,0.138,-0.881,0.095,1.253,0.541,0.426,0.341,-0.104,1.793,0.404,0.829,-0.126,0.218,0.514,-0.068,0.094,0.915,1.045,-1.026,0.044,1.432,0.653,0.591,1.003,0.213,1.574,0.551,-0.047,0.994,0.409,0.045,0.211,1.035,-0.009,2.130,-0.091,0.417,1.257,0.591,-0.384,0.449,0.564,0.400,0.416,-0.409,-0.900,0.227,1.027,0.859,-0.540,2.190,-0.156,0.670,0.920,1.314,-0.405,-0.071,1.390,0.038,0.809,-0.334,0.637,-0.473,2.055,-0.375,-0.199,1.294,1.368,-0.164,0.195,-0.438,0.888,-0.014,0.885,0.069,1.249,-0.108,1.272,0.455,1.244,0.792,0.657,0.035,0.356,0.088,0.724,-0.414,1.452,0.967,0.108,0.874,0.309,-0.348,0.456,-0.055,1.328,0.605,0.234,0.854,-1.085,-0.313,-0.713,-2.016,1.206
0.250,-0.082,-0.783,-0.682,1.452,0.428,0.439,0.103,0.007,1.559,0.648,0.418,0.283,0.170,0.715,-0.342,0.187,0.766,1.112,-1.227,0.130,1.135,0.777,0.661,1.030,0.005,1.775,0.366,0.415,0.698,0.877,-0.109,0.734,0.908,0.357,1.942,-0.059,0.850,0.879,1.132,-1.030,0.480,0.355,0.551,0.253,-0.858,-0.721,-0.098,1.360,0.799,-0.622,1.832,0.240,0.544,0.887,1.225,-0.706,0.408,1.038,0.090,0.521,0.166,0.476,0.241,1.452,0.246,-0.372,1.101,1.469,-0.379,1.005,-0.674,0.913,-0.276,0.738,0.301,1.051,0.197,1.081,0.376,1.425,0.360,1.083,-0.385,0.684,0.086,0.885,-0.205,1.237,1.240,0.088,0.790,0.480,-0.635,1.444,-0.683,1.758,0.307,0.470,0.335,-0.863,-0.721,-0.513,-1.695,1.288
0.273,0.307,-1.081,-0.941,1.782,0.068,0.589,-0.192,0.354,1.062,0.941,0.054,0.399,0.230,0.504,-0.219,-0.119,0.651,1.332,-1.364,0.356,0.902,0.815,0.590,1.009,0.127,1.468,0.603,0.481,0.669,0.728,0.306,0.189,1.358,0.067,2.099,-0.203,0.989,0.701,1.635,-1.120,0.413,0.666,0.424,0.347,-1.443,-0.898,0.360,0.884,0.913,-0.579,2.303,-0.283,0.592,0.924,1.174,-0.922,0.693,0.707,-0.057,0.767,-0.166,0.656,0.490,1.399,0.218,-0.272,1.155,1.068,0.328,0.402,-0.545,0.736,0.004,0.814,0.113,0.876,0.477,0.904,0.315,1.564,0.420,0.917,-0.234,1.002,-0.075,0.669,-0.272,1.269,1.125,0.576,0.347,0.606,-0.491,0.935,-0.177,1.356,0.544,0.579,0.476,-0.785,-0.896,-0.302,-1.764,0.929
-0.278,0.710,-1.339,-1.125,1.925,-0.269,0.757,-0.840,0.629,1.048,0.732,0.223,0.412,0.670,0.120,0.230,-0.670,1.245,0.809,-1.450,0.429,1.023,0.637,0.718,0.960,0.177,1.164,0.915,0.412,0.804,0.697,-0.083,0.558,0.935,-0.067,2.128,0.003,0.976,0.982,1.197,-0.639,0.293,0.981,0.360,0.106,-0.749,-0.185,0.117,1.096,0.714,-1.089,2.253,-0.497,0.474,1.022,0.730,-0.724,0.295,0.766,0.000,0.601,-0.027,0.631,0.147,1.654,-0.314,-0.203,1.523,0.527,0.433,0.083,-0.689,0.437,0.125,0.990,-0.008,0.975,0.393,0.647,0.773,0.990,0.818,0.605,0.340,0.572,0.578,0.483,0.536,0.513,1.724,-0.012,0.669,0.495,-0.128,0.902,-0.010,1.378,0.605,0.668,0.369,-0.733,-0.497,-0.554,-1.422,0.483
-0.460,1.128,-1.187,-0.876,1.862,-0.257,1.142,-1.158,0.557,1.048,0.637,0.379,0.554,0.674,0.287,0.191,-0.392,0.998,0.862,-1.316,0.342,0.942,0.808,0.715,0.760,0.255,1.356,0.860,0.220,0.764,0.516,-0.066,1.126,0.689,-0.128,2.277,-0.199,1.127,0.836,1.170,-0.639,-0.028,1.280,0.172,0.148,-0.914,0.106,-0.592,1.467,0.268,-0.449,1.631,-0.058,0.506,0.640,0.816,-0.515,0.026,0.732,-0.112,0.352,0.295,0.102,0.441,1.355,-0.049,-0.455,1.621,0.222,0.589,-0.052,-0.151,0.213,0.622,0.787,0.042,0.950,0.232,0.706,0.629,1.348,0.642,0.850,0.099,0.811,0.587,0.722,0.364,0.781,1.594,-0.246,0.715,0.663,-0.583,1.485,-0.327,1.197,0.639,0.670,0.518,-0.714,-0.688,-0.539,-1.254,0.686
-0.640,0.905,-0.825,-0.632,1.895,-0.347,1.072,-0.751,0.816,1.176,0.331,0.509,0.259,1.129,-0.069,0.402,-0.190,0.820,1.010,-1.056,0.426,0.809,1.031,0.451,0.746,0.504,1.336,1.075,0.022,0.979,0.285,-0.001,1.085,0.744,-0.008,2.139,-0.045,0.857,1.240,0.828,-0.496,0.027,1.123,0.247,-0.162,-0.653,0.252,-0.675,1.624,-0.093,0.078,1.289,0.159,0.288,0.358,0.890,-0.517,0.512,0.051,-0.336,0.331,0.080,-0.139,0.517,1.257,-0.198,-0.120,1.478,0.361,0.394,-0.121,-0.432,0.093,0.540,1.082,0.222,1.058,0.132,1.094,0.554,1.343,0.626,0.973,-0.023,0.957,0.891,0.593,0.108,1.021,1.453,0.019,0.658,0.243,0.058,1.155,0.022,1.077,0.860,0.638,0.658,-0.605,-0.850,0.007,-0.669,0.765
-0.795,1.499,-0.945,-0.052,1.102,0.211,0.604,-0.404,0.598,1.001,0.454,0.375,0.634,0.676,0.121,0.378,-0.042,1.084,0.820,-0.684,0.203,0.959,1.329,0.333,1.052,0.297,1.812,0.690,0.100,0.983,0.376,-0.013,1.335,0.580,0.190,1.729,0.204,0.689,1.712,0.515,-0.201,0.388,0.852,0.433,0.023,-1.308,0.570,-0.639,1.122,0.171,0.032,1.345,0.219,0.341,0.093,0.969,0.127,0.672,-0.144,-0.229,0.273,0.047,-0.413,0.654,1.256,-0.143,-0.197,1.213,0.724,0.091,-0.462,-0.566,0.662,0.109,0.940,0.598,1.100,-0.005,1.087,0.350,1.545,0.305,1.380,-0.086,0.739,0.750,0.550,0.079,1.072,1.084,0.235,0.229,0.650,0.135,0.780,0.169,0.466,1.279,0.476,0.397,-0.412,-1.259,0.077,-0.989,1.221
-0.966,1.367,-0.780,0.079,1.263,0.096,0.725,-0.057,0.278,0.941,0.709,0.233,0.892,0.153,0.689,0.069,-0.004,1.096,0.642,-0.402,0.141,0.842,1.376,0.079,1.129,0.393,1.670,0.765,0.066,0.904,0.448,0.131,1.297,0.566,0.333,1.314,0.711,0.252,1.917,0.151,-0.158,0.196,0.985,0.127,0.211,-1.345,0.072,-0.179,0.812,0.520,0.043,1.289,0.365,0.239,0.207,0.780,0.264,0.572,-0.243,0.005,0.305,0.172,-0.080,0.149,1.361,-0.037,0.307,1.016,0.988,-0.210,-0.734,-0.294,0.816,0.201,0.672,0.587,1.290,-0.074,1.259,0.271,1.640,0.192,1.608,-0.047,0.686,1.158,0.125,0.192,1.303,1.075,0.335,0.447,0.520,0.600,0.417,0.757,-0.114,1.849,0.248,0.612,-0.554,-1.009,0.268,-0.587,0.940
-0.808,1.111,-0.678,-0.810,1.852,-0.284,0.938,-0.721,0.415,0.807,0.666,0.516,0.742,-0.060,0.686,0.147,-0.077,1.191,0.776,-0.433,0.248,0.907,1.271,0.324,0.966,0.520,1.521,0.857,0.053,0.773,0.404,0.237,1.264,0.741,0.178,1.357,0.742,0.210,1.791,0.306,-0.260,0.115,0.729,0.032,0.140,-1.245,-0.123,0.079,0.909,0.645,0.190,1.129,0.716,-0.383,0.565,0.177,0.821,0.589,-0.284,-0.105,0.026,0.259,-0.292,0.338,1.590,-0.128,0.522,0.706,1.253,-0.644,0.540,-0.644,0.593,0.529,0.687,0.782,0.942,-0.292,1.276,0.078,1.924,0.044,1.653,-0.350,0.689,1.181,-0.069,0.388,0.819,1.469,-0.156,1.151,0.285,0.582,0.445,0.609,0.271,1.543,0.265,1.016,-0.992,-1.321,0.625,-0.670,0.596
-0.728,1.028,-0.427,-0.694,1.880,-0.121,0.826,-0.097,0.508,0.909,0.793,0.586,1.190,-0.694,0.205,0.622,-0.327,0.938,0.642,-0.581,0.376,0.705,1.519,-0.300,1.393,0.134,1.419,1.091,-0.114,0.776,0.583,-0.131,1.693,0.315,0.411,1.258,0.892,0.240,1.589,0.478,-0.556,0.453,0.446,0.426,0.074,-1.495,-0.484,0.111,0.886,0.922,-0.179,1.427,0.302,-0.613,0.259,0.294,0.517,1.129,-0.489,0.206,0.130,0.209,0.130,0.518,1.294,-0.013,0.352,0.888,1.047,-0.403,0.496,-1.004,0.237,0.958,0.464,0.777,0.815,-0.006,0.899,0.562,1.465,0.433,1.191,0.044,0.944,0.916,-0.083,0.070,1.293,0.593,0.504,0.752,0.415,0.488,0.372,0.727,-0.033,1.742,-0.119,1.120,-1.524,-2.071,0.922,-0.467,1.023
-0.868,0.951,-0.254,-1.047,1.877,-0.490,1.124,-0.102,0.844,0.478,1.186,0.096,1.357,-0.472,0.244,0.584,-0.207,0.711,0.960,-0.764,0.339,0.729,1.457,-0.447,1.427,0.141,1.647,0.812,0.114,0.388,0.864,-0.511,1.858,0.101,0.541,1.003,1.287,-0.014,1.622,0.613,-0.240,0.455,0.782,0.282,0.218,-0.889,-0.870,-0.226,1.267,0.833,-0.017,1.449,0.354,-1.320,0.251,0.760,0.068,1.173,-0.421,0.378,0.076,0.394,-0.018,0.679,1.171,0.062,0.256,0.798,1.148,-0.285,0.311,-0.269,0.404,0.964,0.474,0.729,1.074,-0.084,1.030,0.509,1.626,0.285,1.564,-0.145,0.910,1.042,-0.065,-0.035,1.271,0.508,0.423,0.623,0.605,0.202,0.480,0.823,-0.017,1.246,0.296,0.880,-0.989,-2.223,1.550,-0.446,1.172
-1.298,0.873,0.089,-0.789,1.701,-0.629,1.254,-0.302,0.248,0.909,0.944,0.314,1.229,-0.619,-0.006,0.693,-0.018,0.485,1.003,-0.557,0.431,0.586,1.654,-0.593,1.380,-0.001,1.291,1.140,-0.210,0.673,0.606,-0.337,1.807,0.454,0.442,1.361,1.161,-0.087,1.856,0.346,0.369,0.056,1.152,-0.392,1.110,-1.308,-1.100,-0.445,1.622,0.691,0.351,0.964,0.856,-1.222,0.705,0.313,0.219,0.976,-0.388,0.027,0.364,0.265,-0.155,0.719,1.120,0.120,-0.217,1.276,0.959,-0.256,0.299,-0.099,0.419,0.986,0.499,0.382,1.420,-0.177,1.060,0.603,1.501,0.305,1.437,-0.365,1.585,0.615,0.173,-0.269,1.468,0.283,0.322,0.865,0.143,0.455,0.567,0.817,0.296,0.753,0.565,0.140,-0.682,-1.872,1.133,-0.217,0.800
-1.356,0.762,0.035,-0.624,1.538,-0.569,0.876,0.094,0.306,0.819,1.325,0.131,1.345,-0.923,0.213,0.453,0.106,0.792,1.129,-0.463,-0.085,0.846,1.478,-0.521,1.673,-0.258,1.418,0.966,0.294,0.392,0.834,-0.908,2.293,0.180,0.515,1.276,1.149,0.031,1.658,0.591,0.352,-0.354,1.612,-0.711,1.221,-0.781,-2.180,-0.617,1.642,0.341,0.580,1.202,0.529,-0.902,0.899,0.169,0.383,0.743,0.076,-0.189,0.280,0.326,-0.334,0.516,1.553,0.012,0.017,1.134,0.996,-0.412,-0.060,-0.442,0.471,1.034,0.452,0.406,1.296,-0.097,0.976,0.569,1.508,0.401,1.212,-0.396,1.647,0.566,0.258,-0.338,1.301,0.214,0.402,0.687,-0.256,0.391,0.854,0.464,0.559,0.560,0.581,-0.242,-1.071,-1.995,1.485,-0.742,1.049
-1.665,1.002,-0.549,-0.715,1.531,-0.867,0.560,0.392,0.022,0.954,0.917,0.164,1.273,-1.028,0.006,1.065,-0.246,0.998,0.842,-0.475,-0.146,1.130,1.075,-0.012,1.337,0.027,1.604,0.757,0.286,0.456,0.793,-0.826,2.263,0.131,0.652,1.246,1.299,-0.088,1.837,0.427,0.364,-0.283,1.374,-0.364,1.292,-1.150,-1.681,-0.802,1.827,-0.080,0.679,0.760,0.675,-0.930,1.169,0.101,0.015,0.995,-0.133,-0.503,0.695,0.062,-0.115,0.499,1.832,-0.143,-0.352,1.400,0.646,-0.190,0.146,-0.130,0.436,0.957,0.559,0.412,1.217,-0.045,0.956,0.388,1.544,0.232,1.345,-0.379,1.610,0.671,0.377,-0.193,1.376,0.403,0.022,0.698,-0.924,0.828,0.510,0.445,0.697,0.526,0.708,-0.443,-0.803,-1.377,1.097,-0.875,1.172
-1.393,1.238,-0.434,-0.805,1.653,-0.869,1.024,0.294,0.064,0.942,0.764,0.535,0.849,-0.505,-0.586,0.917,-0.140,1.058,0.815,-0.106,-0.276,0.597,1.293,-0.398,1.407,-0.181,1.210,1.074,0.060,0.622,0.978,-0.634,1.831,0.545,0.582,1.167,1.376,-0.327,1.977,0.365,0.339,-0.050,1.187,0.052,0.871,-1.121,-1.612,-0.373,1.876,-0.106,0.599,0.859,0.573,-0.843,1.561,-0.060,-0.138,0.729,0.030,0.044,0.592,0.257,-0.284,-0.015,2.235,-0.674,-0.360,1.353,0.651,-0.211,0.296,0.027,0.366,1.007,0.246,0.515,1.003,0.194,0.609,0.395,1.580,0.231,1.444,-0.167,1.483,0.693,0.379,-0.427,1.275,0.752,0.275,0.908,-1.346,0.374,1.219,-0.127,1.320,-0.172,1.097,-0.699,-0.660,-1.104,0.826,-0.744,1.188
-0.877,0.966,-0.324,-0.448,1.380,-0.625,0.825,0.307,0.415,0.938,0.893,0.797,0.516,-0.089,-0.295,0.768,0.188,1.112,0.731,0.004,-0.693,0.805,1.263,-0.248,1.455,-0.232,1.063,1.074,0.132,0.394,1.258,-0.784,1.864,0.357,0.223,1.726,0.715,0.190,1.883,0.286,0.600,-0.475,1.308,0.138,0.468,-1.119,-1.596,-0.366,1.682,-0.371,0.381,0.609,0.886,-0.796,1.434,0.145,0.005,0.552,0.076,-0.038,0.881,0.313,-0.278,0.523,1.798,-0.249,-0.382,1.215,1.003,-0.287,0.708,0.140,0.525,0.875,0.095,0.772,0.703,0.297,0.504,0.571,1.462,-0.070,1.853,-0.119,1.392,0.696,0.537,-0.534,1.445,0.876,-0.492,1.410,-1.443,0.740,0.903,0.124,1.238,0.006,0.741,-0.526,-0.644,-0.923,1.087,-0.718,1.244
-0.467,0.778,-0.401,-0.507,1.380,-0.482,0.595,0.669,0.082,0.682,1.034,0.950,0.590,-0.499,0.156,0.253,0.300,1.004,0.715,0.351,-0.935,1.298,0.963,-0.087,1.078,0.049,0.544,1.590,-0.079,0.486,0.762,-0.284,1.604,0.407,0.368,1.577,1.018,-0.015,1.765,0.272,0.794,-0.395,1.122,0.311,0.520,-0.991,-1.556,-0.379,1.686,0.017,0.552,1.124,0.335,-0.647,1.378,0.566,-0.165,1.009,-0.573,-0.310,0.761,0.327,-0.308,0.572,1.523,-0.441,-0.508,1.322,0.743,-0.323,0.633,0.523,0.115,1.187,-0.047,0.594,0.778,0.107,0.593,0.738,1.048,0.437,1.336,0.297,0.700,1.052,0.278,-0.200,1.250,0.931,-0.687,1.265,-1.627,0.860,0.402,0.565,1.146,0.203,0.715,-0.838,-0.995,-0.441,0.746,-0.724,0.798
0.014,0.510,-0.386,-0.608,1.556,-0.352,0.420,0.892,-0.222,0.498,1.410,0.615,1.113,-1.302,0.745,0.102,0.468,0.565,1.426,-0.038,-0.966,1.067,1.215,-0.397,1.199,0.123,0.516,1.508,-0.150,0.591,0.714,-0.368,1.143,0.676,0.104,1.904,0.826,0.166,1.666,0.163,0.788,-0.441,1.452,-0.173,0.380,-0.687,-1.813,-0.583,1.719,0.079,0.450,1.046,0.332,-0.837,1.483,0.493,-0.561,0.821,-0.205,-0.144,1.081,0.237,-0.404,0.654,1.491,-0.318,-1.116,2.016,0.455,-0.218,0.508,0.543,-0.122,1.489,-0.178,0.761,0.650,-0.107,0.952,0.536,1.508,0.034,1.823,0.021,0.203,1.072,0.311,-0.372,1.244,0.825,-0.502,1.026,-1.426,0.117,0.600,0.617,1.517,0.048,0.691,-0.895,-0.318,-0.482,0.488,-0.750,0.438
-0.175,0.676,-0.733,-0.109,1.253,-0.217,0.416,1.153,-0.116,0.271,1.334,0.552,0.849,-0.995,0.966,-0.165,0.545,0.366,1.544,-0.317,-0.807,1.266,0.972,-0.312,1.198,0.106,0.606,1.581,-0.295,0.771,0.647,-0.209,0.978,0.890,-0.045,1.898,0.785,0.340,1.749,0.103,0.525,-0.324,1.661,-0.108,0.612,-0.490,-2.257,-0.579,1.768,0.224,0.457,0.794,0.717,-1.148,1.658,0.315,-0.400,0.721,0.121,-0.322,1.419,-0.276,-0.030,0.018,2.022,-0.748,-1.251,2.126,0.065,0.372,0.579,0.255,0.205,1.129,-0.207,0.699,0.735,-0.062,1.096,0.285,1.512,0.282,1.691,0.248,0.328,0.881,0.292,-0.395,1.180,0.977,-0.635,1.225,-0.970,0.124,0.736,0.547,1.615,-0.099,0.498,-1.307,0.151,-0.303,0.324,-0.347,0.026
-0.356,0.632,-0.558,-0.287,1.670,-0.809,0.721,0.944,-0.065,0.927,0.839,0.876,0.753,-1.086,1.249,-0.488,0.160,0.676,1.487,-0.411,-0.305,1.099,0.814,-0.132,0.940,0.392,0.459,1.765,-0.497,0.382,0.682,-0.439,0.960,0.967,0.128,1.659,1.048,0.330,1.757,0.228,0.686,-0.313,1.651,0.145,0.556,-0.327,-2.020,-0.752,1.833,0.138,0.283,0.657,0.737,-1.086,1.519,0.271,-0.482,0.662,0.172,-0.774,1.842,-0.772,0.429,0.261,1.623,-0.481,-1.456,1.748,0.161,0.107,0.939,0.020,0.051,0.949,0.169,0.097,1.119,-0.272,1.141,0.278,1.467,-0.001,1.979,-0.596,0.906,0.201,0.823,-0.161,1.110,1.189,-0.812,1.582,-1.344,-0.184,1.047,0.335,2.033,-0.601,0.972,-1.517,0.532,0.445,-0.200,-0.372,0.068
-0.671,0.852,-0.819,-0.350,1.552,-1.150,0.715,1.039,-0.215,0.742,1.004,0.602,1.004,-0.778,1.354,-0.282,-0.289,1.044,1.052,-0.058,-0.348,1.307,0.417,0.113,0.878,0.605,0.608,1.496,-0.215,0.308,0.439,-0.400,0.886,0.730,0.112,1.518,1.163,0.532,1.760,0.410,0.608,-0.177,1.244,0.506,-0.243,-0.394,-1.990,-1.064,1.762,0.025,0.383,-0.032,1.370,-0.957,1.710,0.459,-0.010,0.727,0.295,-0.931,1.848,-0.865,0.055,0.597,1.302,-0.356,-1.508,2.199,-0.326,0.273,0.788,-0.143,-0.028,0.705,0.056,-0.248,1.287,-0.336,1.072,0.398,1.511,0.108,1.799,-0.736,0.908,0.434,1.038,-0.639,1.547,1.049,-0.914,1.459,-1.773,0.035,1.194,0.490,1.652,-0.436,0.842,-1.346,1.261,-0.443,0.232,-0.255,0.423
-0.954,1.206,-1.424,0.017,1.387,-0.849,0.800,0.606,0.151,0.513,1.038,0.666,0.774,-0.242,0.806,0.048,-0.382,1.296,0.933,-0.181,0.148,1.249,0.513,0.364,0.609,0.660,0.541,1.626,-0.218,0.301,0.816,-0.674,0.852,0.872,0.152,1.549,1.041,0.621,1.491,0.457,0.614,-0.307,1.256,0.390,-0.252,-0.075,-2.101,-1.874,2.407,-0.599,0.786,0.202,0.995,-0.766,1.456,0.491,0.141,0.781,-0.228,-0.682,1.767,-0.644,0.318,0.481,1.626,-0.631,-1.405,2.055,-0.184,-0.074,1.059,-0.289,0.198,0.573,0.457,0.203,0.381,0.422,0.593,0.686,1.343,0.097,1.939,-0.683,0.781,0.394,0.803,-0.844,1.581,1.029,-0.630,0.994,-1.371,-0.399,0.695,0.898,1.367,-0.587,1.219,-1.025,1.071,-0.219,-0.181,-0.379,-0.177
-0.516,1.418,-1.810,0.156,1.113,-0.692,0.417,0.844,0.182,0.358,1.344,0.579,0.652,0.322,0.786,-0.071,-0.423,1.262,1.041,-0.590,0.579,0.825,1.049,-0.095,0.537,0.730,0.537,1.613,-0.139,0.242,0.543,-0.433,0.883,0.546,0.036,1.933,0.591,1.052,1.078,0.703,0.365,-0.196,1.332,0.210,0.014,0.194,-1.301,-1.752,1.861,-0.120,0.332,0.431,0.830,-0.826,1.100,0.952,0.062,0.756,-0.370,-0.684,1.611,-0.647,0.231,0.970,1.245,-0.589,-1.561,2.076,0.022,0.060,0.607,0.300,0.187,0.761,0.195,0.760,0.439,0.597,0.460,0.722,1.142,0.634,1.388,-0.226,0.740,0.562,0.391,-0.706,1.436,1.162,-0.896,1.383,-1.921,-0.060,0.783,1.107,1.251,-0.353,1.113,-1.033,0.796,-0.342,-0.252,-0.366,-0.757
0.018,0.798,-2.082,0.211,1.090,-0.785,0.449,1.148,-0.019,-0.001,1.579,0.420,0.970,0.102,0.498,0.629,-0.519,1.234,1.120,-0.763,0.498,1.271,0.581,0.208,0.506,0.879,0.367,1.966,-0.210,0.165,0.676,-0.568,0.678,0.616,0.178,1.853,0.604,0.908,1.553,0.203,0.533,-0.305,1.402,0.040,0.577,-0.276,-1.097,-1.939,2.291,-0.579,0.097,0.765,0.333,-0.604,1.423,0.707,0.232,0.559,-0.246,-0.612,1.149,-1.014,-0.035,1.204,1.020,-0.555,-1.041,2.175,-0.230,0.319,0.515,0.140,-0.080,1.256,0.070,1.273,0.046,0.642,0.503,0.795,1.214,0.533,1.496,-0.132,0.068,0.947,-0.145,-0.717,1.273,1.065,-0.707,1.488,-2.043,0.065,0.598,1.189,1.226,-0.187,1.046,-1.224,0.956,-0.128,0.081,-0.106,-1.248
0.292,0.758,-2.294,0.023,1.428,-0.996,0.869,0.947,0.208,-0.138,1.745,0.160,1.248,0.062,0.500,0.586,-0.471,1.398,0.755,-0.407,0.303,1.089,0.781,0.246,0.469,0.923,0.279,1.940,-0.402,0.100,0.765,-0.877,1.306,-0.272,0.734,1.402,0.750,0.790,1.800,0.323,0.544,-0.200,1.256,0.377,0.441,-0.295,-0.813,-0.944,1.863,-0.127,-0.196,0.818,0.215,-0.068,0.738,1.072,0.058,0.734,-0.566,-0.818,1.571,-1.122,-0.489,1.307,0.939,-0.091,-0.596,2.022,-0.095,0.097,0.747,-0.220,0.247,1.094,0.064,1.340,0.249,0.531,0.664,0.547,1.509,0.444,1.603,-0.313,0.338,0.788,0.024,-0.963,1.463,0.820,-0.585,1.561,-2.120,-0.101,0.752,1.148,0.971,-0.128,0.600,-1.355,0.799,0.123,0.360,0.383,-1.691
0.080,0.470,-2.809,-0.030,1.558,-0.957,0.974,0.725,0.455,-0.167,1.556,0.319,1.030,-0.330,0.728,0.424,-0.770,1.503,0.561,-0.205,0.214,1.274,0.650,0.436,0.303,0.870,0.464,1.667,-0.132,0.012,1.047,-1.534,1.445,-0.276,0.508,1.726,0.713,0.889,1.439,0.390,0.249,-0.160,0.933,0.580,0.036,-0.322,-0.734,-1.073,1.603,0.157,-0.471,1.011,0.093,-0.028,0.590,1.421,-0.107,0.792,-0.580,-0.461,1.461,-0.653,-0.716,1.597,0.658,0.160,-0.902,2.098,-0.078,0.260,0.460,-0.075,0.298,1.022,0.505,1.166,0.392,0.536,0.870,0.448,1.494,0.635,1.485,0.121,0.610,0.761,0.388,-0.855,1.387,0.953,-0.434,1.750,-2.105,-0.026,0.862,1.115,1.286,-0.441,-0.104,-0.959,0.715,0.091,0.130,0.545,-1.158
0.234,0.775,-3.314,0.498,1.256,-0.752,1.039,0.911,0.242,0.736,0.925,0.626,1.169,-0.266,0.518,0.311,-0.847,1.359,0.641,-0.322,-0.381,1.722,0.240,0.731,0.371,0.891,0.326,1.648,0.199,0.012,1.204,-1.497,1.351,-0.154,0.064,2.043,0.513,0.970,1.196,0.553,-0.041,-0.268,1.116,0.459,-0.129,-0.051,-1.007,-1.560,1.698,0.229,-0.540,1.235,-0.223,0.385,0.591,1.249,0.061,0.948,-0.753,-0.370,1.534,-0.660,-1.032,1.778,0.220,0.740,-0.991,2.262,-0.091,0.191,0.648,0.003,-0.029,1.220,0.631,0.757,0.495,0.481,0.557,0.698,1.123,0.741,1.149,0.422,0.351,0.855,0.074,-0.661,1.487,1.063,-0.209,1.619,-1.880,0.473,0.554,1.375,1.066,-0.228,-0.727,-0.794,0.758,0.135,0.145,0.013,-0.954
0.356,0.311,-3.461,-0.255,1.838,-1.237,0.847,1.093,-0.353,0.697,0.875,0.482,1.391,-0.072,0.435,0.639,-1.340,1.480,0.487,-0.196,0.182,1.337,0.484,0.447,-0.134,1.417,-0.092,1.916,0.107,0.138,1.308,-1.678,1.426,-0.071,0.365,1.804,0.497,1.153,1.073,0.661,0.030,0.015,0.775,0.588,-0.413,0.332,-1.132,-1.120,1.676,0.637,-0.677,1.513,-0.451,0.826,0.619,1.404,-0.170,0.843,-0.337,-1.025,1.649,-0.553,-0.745,1.342,0.523,0.342,-0.526,2.170,0.152,0.151,0.456,0.398,0.141,1.182,0.660,1.049,0.780,0.100,1.028,0.489,1.291,0.554,1.161,0.676,0.019,1.040,-0.178,-0.441,1.203,1.387,-0.722,1.435,-1.057,0.582,0.670,1.097,0.808,-0.119,-0.292,-1.103,0.852,0.211,-0.143,-0.231,-1.202
0.632,0.006,-2.718,-0.240,1.736,-1.689,0.890,1.006,-0.143,0.684,0.782,0.272,1.652,-0.516,0.820,0.445,-1.505,1.477,0.582,-0.357,0.613,1.263,0.573,0.343,0.252,1.268,-0.037,1.838,0.252,-0.029,1.520,-1.380,1.503,-0.228,0.494,1.643,0.712,0.976,1.173,0.620,0.303,0.041,0.638,0.497,0.093,-0.037,-0.420,-1.078,1.191,0.890,-0.648,1.066,0.241,0.505,1.123,0.835,0.359,0.846,-0.143,-1.229,1.598,-0.824,-0.239,0.834,1.157,-0.292,-0.229,1.780,0.336,0.424,0.452,0.650,-0.040,1.535,0.466,1.044,0.851,0.175,0.996,0.403,1.254,0.545,1.190,0.830,-0.506,1.464,-0.316,-0.398,1.231,1.158,-0.539,1.293,-0.882,0.513,0.638,1.248,0.759,-0.388,0.270,-1.273,1.150,-0.052,0.347,-0.172,-0.848
0.820,0.265,-2.590,0.246,1.392,-1.702,1.113,0.901,-0.104,0.376,1.193,-0.051,1.918,-0.513,0.945,0.458,-1.035,1.325,0.693,-0.149,0.404,1.145,1.138,-0.269,0.605,0.860,0.313,1.714,-0.192,0.116,1.460,-1.364,1.563,-0.354,0.404,1.657,0.719,0.816,1.105,0.729,0.166,0.300,0.522,0.790,-0.056,0.588,-0.505,-1.064,1.364,0.809,-0.905,0.919,0.404,-0.072,1.269,0.569,0.275,1.078,-0.355,-1.289,1.994,-1.316,0.025,0.693,1.589,-0.484,0.027,1.477,0.552,0.250,0.092,0.928,-0.101,1.177,0.669,0.986,0.810,-0.071,1.032,0.136,1.450,0.654,0.932,1.165,-0.220,0.980,0.333,-0.817,1.615,0.777,-0.861,1.655,-0.771,1.074,0.037,1.748,0.353,-0.015,0.060,-1.190,1.168,-0.208,0.375,0.718,-1.860
0.601,0.656,-2.478,0.651,1.099,-1.439,0.739,1.363,-0.312,0.369,1.240,-0.119,1.660,0.148,0.549,0.523,-0.997,1.335,0.559,0.061,0.111,1.377,0.965,0.101,0.458,0.985,0.506,1.543,-0.059,0.055,1.670,-1.406,1.666,-0.584,0.213,1.937,0.287,1.055,1.342,0.196,0.426,0.062,0.664,0.795,0.000,0.039,0.140,-0.999,1.310,0.831,-0.625,0.806,0.464,-0.006,1.207,0.447,0.372,0.918,-0.276,-0.825,1.310,-0.764,-0.535,1.287,1.118,-0.003,0.228,1.430,0.647,0.060,0.373,0.701,0.178,0.934,0.681,0.974,0.629,0.152,0.853,0.078,1.521,0.523,1.031,0.635,-0.218,0.416,0.874,-0.673,1.393,0.985,-1.049,2.166,-1.286,1.266,0.575,1.530,0.513,-0.119,-0.213,-1.677,1.591,-0.619,0.427,0.961,-1.726
0.762,0.486,-1.659,0.532,1.492,-1.271,0.504,1.277,0.236,0.214,1.288,0.064,1.519,0.176,0.419,0.439,-1.116,1.276,0.539,-0.195,0.441,1.287,0.790,0.302,0.547,0.925,0.475,1.729,-0.249,-0.238,1.983,-1.371,1.726,-0.732,0.326,1.825,0.338,0.673,1.646,-0.271,0.999,0.041,0.743,0.667,0.175,-0.160,0.227,-0.829,1.555,0.464,-0.427,0.685,0.763,0.246,1.240,0.432,0.167,0.651,-0.347,-1.586,1.527,-1.299,-0.502,1.201,1.132,-0.287,0.028,1.753,0.380,0.489,0.175,0.702,-0.076,0.935,0.675,0.969,0.607,0.291,0.827,-0.050,1.519,0.460,1.083,0.754,0.205,0.062,1.296,-0.328,1.060,1.409,-0.866,1.963,-0.614,0.980,0.665,1.372,0.670,-0.224,-0.526,-1.423,1.518,-0.693,0.719,0.506,-1.807
0.924,0.321,-1.630,0.645,1.489,-1.103,0.558,1.098,0.314,0.192,1.359,0.057,1.413,-0.108,0.532,0.279,-0.493,1.056,0.606,-0.128,0.448,1.315,0.891,0.343,0.380,1.227,0.579,1.473,0.260,-0.264,1.730,-1.123,1.180,-0.582,0.446,1.731,0.209,0.628,1.689,-0.199,0.754,-0.059,0.854,0.275,0.500,-0.163,0.366,-0.904,1.728,0.121,-0.027,0.666,0.953,0.018,1.320,0.432,0.262,0.013,-0.274,-1.484,1.327,-0.822,-0.688,1.621,0.829,-0.412,0.062,1.606,0.457,0.302,0.518,0.908,0.182,0.626,1.113,0.610,0.759,0.086,0.991,-0.156,1.691,0.259,1.265,0.438,0.167,0.078,1.023,-0.088,0.981,1.231,-0.697,1.944,-0.264,0.519,0.811,0.998,1.128,-0.149,-0.660,-1.173,1.636,-0.484,0.239,0.204,-2.186
0.910,0.505,-1.805,0.670,1.424,-0.991,-0.187,1.660,-0.216,-0.075,1.475,-0.167,1.390,-0.041,0.760,0.015,-0.491,0.958,0.787,0.029,0.623,1.082,0.867,0.504,0.128,1.219,0.468,1.498,0.032,-0.120,1.575,-0.804,1.099,-0.246,0.669,1.696,0.350,0.573,1.525,-0.162,1.047,-0.056,1.073,0.115,0.800,-0.022,-0.143,-0.909,1.259,0.506,-0.305,0.727,0.757,0.071,1.202,0.178,0.522,-0.317,-0.097,-2.124,1.574,-1.120,-0.505,1.235,1.105,-0.340,-0.290,1.927,0.090,0.028,0.966,0.583,0.222,1.047,0.399,1.211,0.192,0.600,0.437,0.084,1.483,0.404,1.318,0.479,0.247,0.201,0.630,0.098,0.920,1.049,-0.813,1.825,-0.454,0.432,0.524,1.402,0.360,0.224,-0.227,-1.314,1.740,-0.792,0.755,0.001,-1.847
0.991,0.594,-1.480,0.828,1.219,-0.666,-0.068,1.685,-0.312,0.167,1.174,0.178,1.122,0.309,0.643,0.210,-0.521,0.775,0.497,-0.270,0.852,0.870,1.102,-0.007,0.065,1.366,0.284,1.717,-0.063,-0.246,1.288,-0.616,0.840,-0.025,0.793,1.603,0.509,0.430,1.734,-0.247,0.748,0.156,1.077,0.172,0.767,0.132,-0.078,-1.389,1.386,0.150,0.107,0.867,0.586,0.333,1.157,0.759,0.178,-0.275,0.472,-2.167,1.482,-0.992,-0.664,1.279,0.989,-0.441,-0.220,1.742,0.124,-0.234,1.269,0.422,0.324,1.176,0.510,0.923,0.562,0.376,0.509,0.270,1.488,0.244,1.448,0.570,0.185,0.200,0.879,-0.264,1.208,0.890,-1.195,2.152,-0.635,0.501,0.584,1.569,0.364,0.258,-0.694,-1.406,1.952,-0.684,0.340,-0.085,-1.690
0.863,0.341,-1.060,0.843,1.311,-0.511,-0.114,1.631,-0.217,-0.097,1.218,-0.114,1.428,-0.111,0.915,0.205,-0.331,0.884,0.629,-0.414,0.904,0.630,1.531,-0.623,0.075,1.375,0.292,1.514,0.089,-0.213,1.437,-0.705,0.716,-0.447,1.026,1.478,0.607,0.435,1.493,-0.033,0.689,0.366,0.960,0.499,0.553,0.145,-0.050,-1.614,1.495,0.251,-0.289,0.936,0.281,0.319,0.727,0.848,0.011,-0.146,0.438,-3.112,1.662,-0.982,-0.144,1.017,1.240,-0.662,-0.122,2.092,-0.153,-0.478,1.581,0.115,0.309,1.129,0.566,1.193,0.155,0.536,0.388,0.419,1.454,0.402,1.282,0.446,0.394,0.239,0.276,-0.117,1.340,0.561,-0.390,1.548,-0.477,0.018,0.824,1.193,0.589,0.395,-1.112,-1.329,1.810,-0.431,-0.201,-0.186,-1.335
1.120,0.199,-0.731,0.819,1.174,-0.355,-0.058,1.210,0.279,-0.393,1.547,-0.466,1.477,-0.061,0.751,0.098,-0.243,0.928,0.656,-0.306,1.170,0.635,1.795,-0.741,0.281,1.266,0.724,1.063,0.369,-0.445,1.658,-0.791,0.980,-0.512,0.676,1.717,0.424,0.771,1.092,0.723,-0.025,0.777,0.512,0.890,0.331,0.302,-0.113,-1.555,0.887,0.512,-0.234,1.054,0.412,0.369,0.786,0.866,0.203,-0.060,0.435,-2.748,1.606,-0.681,0.131,0.762,1.367,-0.947,-0.123,1.882,-0.227,-0.221,1.270,-0.051,0.953,1.039,0.815,0.893,0.233,0.409,0.419,0.554,1.104,0.828,0.878,0.664,0.299,0.069,0.432,-0.460,1.606,0.223,-0.056,1.401,-0.577,-0.471,0.955,1.304,0.513,0.364,-0.688,-1.225,1.751,-0.389,0.132,0.098,-1.834
1.051,0.294,-0.410,0.728,1.519,-0.426,0.028,1.185,0.232,-0.227,1.579,-0.284,1.367,-0.108,0.635,-0.031,-0.193,1.033,0.546,-0.354,1.089,0.521,1.965,-0.786,0.011,1.365,0.733,1.097,0.289,-0.256,1.453,-0.771,0.792,-0.046,0.487,2.036,0.201,0.981,0.916,0.823,-0.092,0.831,0.500,0.751,0.380,-0.168,0.320,-1.532,1.057,0.434,-0.064,0.901,0.126,0.398,0.676,0.969,0.064,-0.427,0.796,-2.076,1.722,-0.715,0.407,0.366,1.979,-1.627,-0.133,1.913,-0.229,-0.145,1.008,-0.026,0.931,1.109,0.556,0.950,0.732,0.028,0.774,0.191,1.654,0.182,1.323,0.304,0.599,-0.103,0.548,-0.517,1.644,0.545,-0.392,1.805,-0.838,0.101,0.445,1.766,0.275,0.416,-0.460,-0.957,1.600,-0.371,0.050,-0.082,-0.822
1.011,0.210,-0.292,0.411,1.646,-0.301,0.070,0.876,0.792,-0.217,1.485,-0.149,1.240,-0.101,0.698,0.073,-0.817,1.323,0.380,-0.206,1.066,0.723,1.857,-0.747,0.584,0.713,0.935,1.016,0.322,0.273,1.185,-0.990,0.683,-0.284,0.374,2.064,0.227,0.871,0.957,0.632,-0.277,1.076,0.542,0.569,0.202,0.165,0.053,-1.598,0.875,0.256,-0.097,0.717,0.560,-0.019,0.579,1.172,-0.626,-0.128,0.326,-2.076,2.098,-0.881,0.600,0.670,1.547,-0.893,0.052,1.640,0.228,-0.183,1.479,-0.165,0.959,0.921,1.050,0.778,0.209,0.451,0.410,0.493,1.269,0.635,1.158,0.533,0.606,0.193,0.394,-0.209,1.429,0.701,-0.532,1.836,-0.746,-0.218,0.815,1.472,0.590,0.255,0.322,-1.356,1.613,-0.222,0.386,-0.416,-0.388
1.023,0.328,-0.234,0.849,1.253,-0.523,0.219,0.915,0.917,-0.356,1.444,-0.362,1.515,-0.264,0.857,-0.171,-1.149,1.577,0.395,-0.255,0.672,1.089,1.235,-0.513,0.589,0.887,0.742,1.154,0.374,0.361,0.846,-0.576,0.583,0.174,-0.225,2.492,-0.239,0.923,0.895,0.986,-0.418,1.126,0.567,0.393,0.481,-0.304,-0.036,-1.455,0.904,0.216,-0.098,1.183,0.011,0.315,0.614,1.181,-0.385,-0.019,0.744,-1.925,1.923,-0.820,0.162,0.855,1.200,-0.531,-0.309,1.906,-0.097,0.049,1.153,-0.154,1.146,0.780,1.216,0.869,-0.213,0.818,0.186,0.223,1.464,0.482,1.229,0.519,0.654,0.200,0.640,-0.399,1.589,0.637,-0.399,1.615,-0.905,0.058,0.727,1.468,0.395,0.325,0.284,-1.175,1.370,-0.109,0.326,-0.270,0.324
1.036,0.323,-0.245,0.583,1.430,-0.704,0.474,0.543,1.314,-0.002,1.419,0.042,1.075,-0.485,1.080,-0.326,-0.807,1.524,0.398,-0.039,0.214,1.226,1.282,-0.221,1.076,0.476,0.832,1.091,0.517,0.650,0.571,-0.145,0.496,0.186,-0.120,2.367,-0.169,0.705,0.874,0.709,0.007,0.537,1.141,-0.172,1.090,-0.823,0.079,-1.126,1.160,0.100,0.063,1.205,0.304,0.075,0.661,1.527,-0.806,0.110,0.930,-1.493,1.477,-0.507,0.116,0.823,1.480,-1.309,-0.019,1.532,0.060,0.307,0.638,0.108,0.565,1.182,0.942,1.096,-0.341,0.765,0.180,0.216,1.404,0.535,1.149,0.523,0.645,0.353,0.524,-0.586,2.054,0.142,-0.521,1.547,-0.812,-0.038,0.833,1.292,0.451,0.138,-0.370,-0.329,1.014,0.368,-0.298,-1.012,0.058
0.902,0.250,0.072,0.493,1.030,-0.729,0.784,0.013,1.577,-0.499,1.874,-0.402,1.357,-0.255,0.963,-0.272,-0.748,1.293,0.631,-0.063,-0.102,1.744,0.564,0.178,0.723,0.714,0.601,1.413,0.406,0.413,0.934,-0.580,0.893,-0.047,-0.371,2.371,-0.079,0.635,1.176,0.678,0.025,0.611,1.001,0.159,1.146,-0.599,0.294,-0.895,1.033,0.310,0.279,0.972,0.728,0.081,1.015,1.416,-1.017,0.495,1.134,-1.465,0.956,-0.022,-0.279,1.021,1.167,-0.799,-0.410,1.876,-0.082,-0.034,0.713,0.071,0.512,1.140,0.716,1.106,-0.088,0.796,0.260,0.062,1.290,0.568,0.985,0.737,0.446,0.265,0.921,-0.984,2.386,0.060,-0.386,1.552,-0.666,0.098,0.472,1.493,-0.273,0.704,-0.840,-0.531,0.772,0.201,-0.009,-1.966,0.705
0.933,-0.111,0.303,0.560,1.066,-0.261,0.626,-0.094,1.533,-0.078,1.590,-0.044,0.990,-0.389,0.945,-0.061,-0.873,1.035,0.759,-0.418,-0.294,2.000,0.070,0.654,0.195,1.201,0.578,1.509,0.383,0.651,0.738,-0.558,0.972,-0.123,-0.032,2.139,0.143,0.656,1.191,0.641,0.252,0.605,0.875,-0.104,1.482,-0.664,-0.199,-0.802,1.359,0.440,-0.029,1.029,0.490,-0.085,0.914,1.300,-0.977,0.661,0.997,-1.854,1.362,-0.258,-0.203,0.848,1.109,-0.426,-0.083,1.677,-0.085,0.419,0.806,0.174,0.779,0.979,0.863,1.103,0.197,0.864,0.143,0.288,1.201,0.598,1.132,0.579,0.486,0.601,0.427,-0.521,1.812,0.546,-0.009,1.115,-0.570,-0.548,1.201,0.750,0.250,0.488,-0.730,-0.671,1.204,-0.482,0.714,-1.634,0.450
0.581,0.059,0.391,0.510,0.888,-0.154,0.457,-0.065,1.438,0.059,1.487,0.179,0.755,-0.145,0.660,-0.308,-0.661,1.176,1.032,-0.681,-0.119,1.845,0.185,0.718,-0.034,1.247,0.562,1.315,0.555,0.474,0.915,-0.771,1.077,-0.318,0.161,1.994,0.365,0.531,1.484,0.222,0.640,0.480,0.900,-0.322,1.924,-0.917,-0.108,-0.719,1.137,0.243,0.694,0.686,0.666,-0.029,0.870,1.318,-1.285,0.776,0.664,-0.929,1.058,-0.164,-0.576,1.061,0.892,-0.266,0.154,1.315,0.389,0.187,0.233,-0.162,0.996,0.914,0.816,1.097,0.406,0.562,0.504,-0.085,1.434,0.566,1.081,0.808,0.604,0.149,0.759,-0.594,1.815,0.444,0.141,1.186,-0.144,-0.945,1.630,0.630,0.291,0.400,-0.806,-0.456,1.016,-0.954,1.056,-1.137,0.025
0.699,-0.368,0.765,0.529,0.845,-0.337,0.478,0.446,0.953,0.327,1.128,0.497,0.477,-0.316,0.689,-0.214,-1.150,1.619,0.755,-0.242,-0.144,1.835,0.268,0.664,-0.123,1.267,0.435,1.451,0.330,0.811,0.744,-0.575,1.152,-0.872,0.434,1.779,0.705,0.363,1.559,0.300,0.417,0.555,0.807,-0.319,1.966,-1.128,-0.064,-0.316,1.265,0.304,0.961,0.309,0.868,-0.576,1.177,0.842,-0.652,0.476,0.787,-1.220,0.960,0.102,-0.661,1.043,1.025,-0.537,0.318,1.056,0.387,0.180,-0.086,-0.363,0.794,1.154,0.439,1.332,0.226,0.674,0.269,0.019,1.622,0.255,1.249,0.540,0.710,-0.067,1.101,-1.078,2.017,0.298,-0.194,1.037,-0.415,-0.676,1.569,0.568,0.427,0.450,-0.938,-0.646,1.052,-0.555,0.863,-0.863,0.052
0.696,-0.927,0.931,0.153,0.981,-0.521,0.079,0.501,0.867,0.082,1.261,0.155,0.481,-0.526,0.646,-0.217,-1.145,1.482,0.643,-0.030,0.112,1.301,0.595,0.569,0.169,1.114,0.362,1.590,0.227,0.782,0.562,-0.371,1.304,-1.010,0.546,1.444,1.047,0.173,1.752,0.085,0.569,0.394,0.612,-0.106,1.686,-0.900,-0.074,-0.401,1.244,0.538,0.679,0.410,1.137,-0.920,1.375,0.583,0.039,0.600,0.546,-0.832,0.746,0.110,-0.634,1.438,0.485,-0.005,0.072,1.129,0.311,0.345,0.043,-0.208,0.821,0.928,0.530,1.180,-0.068,0.815,0.122,0.522,1.149,0.866,1.021,0.793,0.898,0.023,0.931,-0.863,1.973,0.334,-0.103,1.339,-0.722,-0.881,1.430,0.763,0.479,0.420,-0.377,-0.612,1.330,-0.729,0.585,-0.517,-0.345
0.612,-0.732,1.052,-0.140,1.447,-0.954,0.151,0.766,0.558,0.367,1.265,0.078,0.554,-0.712,0.988,-0.832,-0.576,1.328,0.788,0.003,0.414,1.032,0.786,0.544,-0.212,1.374,0.288,1.428,0.415,0.446,0.592,-0.183,1.062,-0.744,0.577,1.461,0.836,0.308,1.926,-0.225,0.851,-0.006,0.777,-0.174,1.622,-0.834,0.246,-0.190,1.056,0.557,0.757,0.745,0.824,-1.304,1.309,0.693,-0.517,0.916,0.113,-0.089,0.763,0.212,-0.668,1.639,0.282,0.412,0.105,0.892,0.390,0.077,0.440,-0.425,1.089,0.511,0.690,1.024,0.478,0.505,0.254,0.850,0.685,1.519,0.429,0.621,0.988,0.069,1.080,-1.111,2.171,0.105,0.152,1.247,-0.414,-0.748,1.046,1.293,0.275,0.906,-0.045,-1.280,1.353,-1.068,0.479,-0.917,-0.120
0.394,-0.572,0.530,-0.061,1.411,-0.816,0.442,0.548,0.540,0.435,0.855,0.276,0.550,-0.563,1.137,-0.685,-0.448,0.814,1.107,-0.325,0.672,1.008,0.548,0.811,-0.108,1.051,0.871,1.097,0.696,0.406,0.575,-0.061,1.131,-1.196,0.872,1.176,0.815,0.092,2.420,-0.582,0.913,0.285,0.541,-0.235,1.918,-1.512,0.498,-0.320,1.040,0.564,0.393,1.316,0.297,-0.675,1.075,1.078,-0.879,0.656,0.627,0.193,0.641,0.232,-0.618,1.286,0.493,0.395,-0.092,0.966,0.244,0.318,0.138,-0.967,0.635,0.658,0.551,0.988,0.807,0.386,0.675,0.555,0.995,1.073,0.809,0.610,1.001,0.214,1.093,-0.867,2.082,0.384,-0.318,1.034,-0.416,-1.427,1.169,1.167,0.252,1.292,0.144,-1.029,1.120,-1.572,0.728,-0.877,0.180
0.477,-0.166,0.465,-0.359,1.801,-0.967,0.633,0.481,0.524,0.271,1.064,-0.228,1.013,-0.980,1.437,-0.949,-0.713,1.059,0.825,0.199,0.403,1.213,0.342,0.947,-0.268,0.781,0.850,1.185,0.692,0.412,0.357,0.011,0.554,-0.582,0.696,1.378,0.611,0.433,2.104,-0.477,1.129,-0.034,0.610,-0.131,1.994,-1.386,-0.035,-0.251,0.935,0.716,0.305,1.305,0.076,-0.628,1.154,0.812,-1.556,0.602,0.451,0.296,0.653,0.378,-0.598,1.065,0.367,0.400,-0.311,0.949,0.142,0.541,0.179,-0.428,0.603,0.824,0.799,0.830,0.692,0.399,0.946,0.692,0.880,1.215,0.701,0.613,0.896,-0.051,1.133,-0.770,1.956,0.277,0.340,0.768,0.137,-1.259,0.630,1.311,0.035,1.013,-0.340,-0.950,1.030,-1.351,0.781,-1.937,-0.458
0.665,-0.452,0.141,0.318,1.374,-0.237,0.587,0.460,0.715,0.441,0.984,0.135,1.140,-1.107,1.258,-0.636,-0.167,0.892,0.947,-0.101,0.726,1.015,0.346,0.833,0.183,0.549,0.809,1.056,0.814,0.405,0.386,0.131,0.602,-0.494,0.419,1.546,0.482,0.631,1.968,-0.174,1.008,-0.081,0.712,-0.116,1.641,-1.267,-0.069,-0.308,0.981,0.643,0.308,1.425,-0.032,-0.610,1.425,1.094,-1.401,0.290,0.740,-0.401,0.987,-0.310,-0.191,1.064,0.663,0.199,-0.231,1.277,0.009,1.049,-0.449,-0.304,0.666,0.865,0.596,0.804,0.607,0.205,1.131,0.464,0.861,1.364,0.662,0.597,0.835,0.507,0.737,-0.518,1.739,0.105,0.518,0.664,0.346,-1.169,0.160,1.577,-0.013,0.629,0.308,-1.066,1.030,-0.986,0.438,-1.366,-0.006
0.639,-0.540,-0.194,0.172,1.161,-0.115,0.262,0.554,0.178,0.740,0.815,0.537,0.865,-1.271,1.210,-0.548,-0.106,0.814,1.083,0.100,0.630,0.651,0.604,0.498,0.559,0.210,0.895,0.851,1.164,0.393,0.294,0.129,0.678,-0.635,0.192,1.823,0.475,0.650,1.737,0.011,0.633,0.122,0.546,0.208,1.394,-1.563,-0.435,0.268,0.588,0.485,0.086,1.563,0.105,-1.301,1.659,0.791,-1.234,0.353,0.508,-0.485,0.794,-0.277,-0.255,1.005,0.678,0.203,0.348,0.914,0.027,1.131,-0.344,-0.193,0.636,0.760,0.831,0.657,0.838,-0.195,1.467,0.231,0.947,1.188,0.675,0.705,0.339,0.753,0.410,-0.226,1.755,-0.099,0.257,1.143,0.180,-1.492,0.490,1.344,-0.009,1.089,0.235,-0.844,1.194,-1.081,0.257,-1.868,1.184
0.550,-0.215,-0.874,0.268,0.905,-0.096,0.454,0.694,0.473,0.793,0.698,0.447,0.514,-1.134,1.227,-0.686,-0.137,0.928,1.074,-0.008,1.137,0.392,1.073,0.237,0.833,0.133,1.024,0.798,1.235,0.156,0.424,-0.296,1.166,-1.203,0.342,1.805,0.593,0.612,1.577,0.362,0.691,-0.155,0.699,0.328,1.068,-1.284,-0.789,0.314,0.485,0.886,-0.179,1.190,0.249,-1.299,1.547,0.726,-0.514,0.325,0.022,-0.516,0.519,0.246,-0.671,1.116,0.535,0.230,0.113,1.171,-0.186,1.235,-0.514,-0.318,0.998,0.138,0.856,0.582,0.753,-0.338,1.453,0.125,1.288,0.873,0.645,0.703,0.387,0.620,0.468,-0.186,1.441,0.630,0.062,1.095,-0.240,-2.279,0.831,0.984,0.128,1.165,-0.035,-0.322,0.752,-0.121,-0.239,-1.834,1.091
0.790,-0.224,-1.473,0.360,0.780,0.009,0.660,0.406,0.730,0.719,0.680,0.124,0.644,-1.885,1.534,-0.846,-0.207,1.034,1.047,0.357,1.028,0.396,1.383,0.045,0.917,-0.084,1.377,0.680,1.423,-0.129,0.311,-0.362,1.032,-0.910,0.292,2.007,0.463,0.664,1.710,0.338,0.845,-0.320,0.738,0.263,1.185,-1.142,-0.343,0.346,0.728,0.719,0.147,1.101,-0.007,-1.752,1.751,0.669,0.026,0.424,-0.021,-0.314,0.572,0.291,-0.244,0.663,1.148,-0.034,0.312,1.036,-0.424,1.167,-0.182,-0.299,0.898,0.273,0.838,0.588,0.626,-0.502,1.720,0.061,1.353,0.770,0.859,0.855,0.012,1.156,0.001,-0.063,1.257,1.127,-0.621,1.778,-0.887,-1.452,1.387,0.464,0.122,1.067,0.151,-0.513,0.985,-0.012,-0.758,-1.031,0.376
0.418,-0.115,-0.947,0.291,0.967,0.053,0.739,0.161,0.860,0.797,0.695,0.056,0.983,-2.426,1.883,-1.258,-0.454,1.471,0.612,0.359,0.959,0.475,1.603,-0.337,1.450,-0.226,1.245,0.686,1.019,0.412,0.227,-0.150,1.159,-0.377,0.155,2.225,0.310,0.901,1.423,0.599,0.506,-0.294,0.778,0.314,1.036,-0.592,-0.866,0.158,0.999,0.636,-0.627,1.635,-0.471,-1.662,1.593,0.660,0.138,0.195,0.340,-0.412,0.677,0.194,-0.222,0.921,0.842,-0.237,0.402,0.855,-0.323,1.065,-0.264,-0.251,0.587,0.538,0.691,0.658,0.224,-0.059,1.507,0.174,1.427,0.763,0.953,0.916,-0.190,1.076,0.100,-0.015,1.064,0.905,-0.497,1.991,-0.647,-1.433,1.714,0.257,0.353,0.990,0.299,-0.589,0.911,0.053,-1.166,-0.875,-0.164
0.195,0.259,-1.000,0.535,0.679,-0.087,0.919,-0.132,0.986,0.752,0.856,-0.643,1.736,-2.156,1.599,-0.847,-0.304,1.365,0.594,0.185,1.073,0.464,1.568,-0.448,1.588,-0.540,1.119,0.843,0.737,0.633,0.440,-0.344,1.293,-0.229,0.266,2.125,0.443,0.753,1.580,0.541,0.561,-0.189,0.842,0.212,1.319,-0.830,-0.854,0.107,0.854,1.114,-0.808,2.222,-0.660,-2.376,1.817,0.709,0.394,0.505,0.174,0.492,0.278,0.683,-0.669,0.505,1.210,-0.178,0.085,1.251,-0.182,0.603,0.118,-0.194,0.522,0.832,0.693,0.917,0.426,-0.344,1.605,0.122,1.362,0.590,1.244,0.498,-0.034,1.134,-0.082,0.351,0.890,1.213,-0.716,2.007,-0.587,-1.237,1.576,0.388,0.431,1.194,0.322,-0.971,0.966,0.017,-0.603,-0.560,0.135
0.245,0.095,-0.182,0.148,0.772,0.153,0.610,-0.076,0.577,1.129,0.542,-0.705,1.776,-2.136,1.365,-0.480,-0.900,1.720,0.463,0.370,1.053,0.313,1.732,-0.373,1.779,-0.690,1.011,0.692,0.626,0.822,0.299,0.218,0.750,0.243,-0.104,2.371,0.220,0.977,1.323,0.631,0.229,-0.009,0.755,0.670,0.628,-1.001,-0.974,0.271,0.462,1.065,-0.946,1.937,-0.113,-2.335,1.449,0.942,0.188,0.534,0.470,0.247,0.468,0.746,-0.408,0.536,1.149,-0.282,0.646,0.661,0.134,0.639,0.214,-0.982,0.176,1.054,0.449,0.815,-0.207,0.261,1.319,0.009,1.676,0.306,1.594,0.213,-0.019,1.255,0.082,0.430,1.120,0.766,-1.105,2.159,-0.631,-1.306,1.316,0.550,0.204,1.384,0.312,-0.733,0.777,0.164,-1.712,-0.713,0.115
0.083,0.271,-0.281,-0.143,1.098,0.033,0.569,0.533,0.383,1.209,0.409,-0.755,1.515,-2.070,1.383,-0.384,-1.018,1.640,0.476,0.314,1.096,0.300,1.797,-0.508,1.890,-0.551,0.919,0.809,0.241,1.446,0.012,0.144,0.654,0.356,-0.090,2.354,0.327,0.867,1.458,0.459,0.421,-0.109,0.918,0.713,0.721,-0.802,-0.527,0.058,0.734,0.645,-0.929,2.084,-0.250,-2.260,1.256,0.956,0.417,0.375,0.553,-0.325,0.301,0.727,-0.454,0.176,1.400,-0.288,0.616,0.573,0.349,0.853,-0.085,-1.180,0.704,0.654,0.996,0.308,-0.026,0.044,1.486,-0.101,1.791,0.234,1.672,0.233,0.182,1.311,0.004,0.374,0.884,0.787,-1.017,2.134,-0.848,-1.406,1.768,0.037,0.472,0.982,0.438,-0.986,0.320,-0.252,-1.634,-0.392,0.198
0.361,0.169,-0.455,-0.260,1.245,0.092,0.075,0.801,0.516,1.125,0.317,-0.374,1.315,-1.347,0.519,0.154,-1.264,2.043,0.216,0.422,0.961,0.684,1.462,-0.280,1.751,-0.369,0.527,1.086,-0.077,1.866,-0.192,0.007,0.778,0.534,-0.230,2.472,0.301,0.830,1.383,0.555,0.171,0.099,0.426,1.174,0.390,-0.327,-0.579,0.274,0.610,0.726,-0.876,1.875,-0.113,-2.191,1.770,0.623,0.048,0.458,0.410,-0.746,0.434,0.224,0.198,0.060,1.606,-0.674,0.804,0.523,0.173,0.763,-0.262,-0.846,0.936,0.168,1.415,-0.187,0.013,-0.120,1.502,-0.186,1.611,0.305,1.372,0.368,0.412,1.333,-0.104,0.095,1.032,0.843,-1.001,2.086,-1.053,-1.577,1.761,-0.129,0.137,0.918,0.425,-1.226,0.216,-0.842,-1.471,-0.377,0.053
0.495,0.146,-0.687,-0.159,1.258,-0.072,0.437,0.996,0.181,1.188,0.333,-0.315,1.365,-1.044,0.303,0.604,-1.460,2.109,0.238,0.564,0.625,0.976,1.369,-0.291,1.722,-0.383,0.098,1.343,-0.021,1.678,-0.068,0.215,0.758,0.335,0.045,2.142,0.307,0.854,1.680,0.581,0.138,0.584,0.290,1.169,0.334,-0.048,-0.290,0.288,0.473,1.202,-1.090,1.971,-0.102,-2.255,1.382,1.063,-0.298,0.755,0.428,-0.471,0.093,0.681,-0.434,0.218,1.445,-0.859,1.177,0.343,0.066,0.473,-0.391,-0.667,1.156,-0.021,1.506,-0.444,-0.302,0.224,1.424,-0.313,1.465,0.451,1.474,0.707,0.055,1.568,-0.404,0.266,0.713,1.195,-0.728,1.843,-1.190,-1.301,1.190,0.552,0.334,0.917,0.412,-1.066,0.665,-1.691,-0.979,-0.685,0.014
0.847,0.106,-0.769,0.376,0.911,0.260,0.392,0.923,0.308,0.955,0.430,-0.342,1.412,-0.795,0.528,0.564,-1.490,1.921,0.212,0.535,0.840,0.856,1.377,-0.561,1.788,-0.687,0.192,1.209,0.417,1.429,-0.017,0.484,0.606,0.512,-0.107,2.259,0.219,1.101,1.370,0.747,-0.161,0.281,0.270,1.122,0.348,-0.676,-0.182,-0.082,0.821,1.126,-1.056,2.075,-0.255,-2.115,1.450,0.670,-0.406,0.677,0.137,0.421,-0.095,0.995,-0.418,0.459,1.343,-1.076,1.141,0.310,-0.198,0.966,-0.127,-0.231,0.663,0.137,1.558,-0.351,-0.156,0.529,1.087,-0.424,1.666,0.425,1.331,0.862,-0.078,1.549,-0.063,0.076,0.714,1.525,-0.738,1.852,-0.826,-1.905,0.846,0.800,0.279,1.217,0.455,-0.641,0.459,-0.631,-0.977,-1.010,0.327
0.976,0.058,-0.896,0.449,0.831,0.136,0.178,1.021,0.260,0.644,0.315,-0.293,1.307,-0.555,0.314,0.230,-1.420,1.862,0.244,0.664,0.648,0.996,1.295,-0.469,1.747,-0.563,0.536,0.769,0.697,1.229,0.300,0.313,0.758,0.164,-0.244,2.580,0.084,0.902,1.547,0.342,0.208,0.395,0.185,1.039,0.284,-0.593,-1.232,0.512,0.451,1.355,-0.768,1.969,-0.105,-1.992,1.277,0.804,-0.555,0.846,0.133,0.405,0.346,0.661,-0.304,0.737,1.080,-0.774,1.215,0.074,-0.049,0.698,-0.238,-0.260,0.637,0.347,1.257,-0.435,0.097,0.517,0.943,-0.259,1.441,0.591,1.329,0.979,-0.345,1.388,0.084,0.037,0.843,1.596,-0.830,1.877,-0.920,-1.833,0.491,1.145,0.469,1.059,-0.134,-0.131,0.232,-0.653,-0.638,-1.011,0.304
1.408,-0.646,-0.574,0.345,1.196,-0.354,0.881,0.855,0.554,0.201,0.229,-0.065,0.974,0.228,-0.240,0.701,-1.283,1.451,0.736,0.299,0.849,1.041,1.027,0.198,1.395,-0.254,0.223,1.126,0.512,1.244,0.360,0.483,0.616,0.289,0.007,2.336,0.002,0.775,1.801,0.306,0.464,0.585,0.256,1.028,0.288,-0.320,-0.770,0.487,0.300,1.307,-0.650,2.159,-0.197,-1.506,1.068,0.927,-0.818,0.895,-0.105,0.252,0.266,0.788,-0.260,1.104,0.915,-0.368,0.820,0.217,-0.353,0.607,-0.357,0.236,0.354,0.274,0.926,-0.021,0.224,0.373,1.008,-0.036,1.339,0.599,1.054,0.904,-0.118,0.803,0.566,0.217,1.043,1.197,-0.917,1.755,-0.955,-1.541,0.970,0.722,0.731,0.808,0.145,-0.200,0.488,-1.107,-0.640,-1.088,-0.283
1.153,-0.585,-0.941,0.362,0.860,-0.448,1.001,0.816,0.879,-0.213,0.529,-0.288,1.136,0.307,0.095,0.496,-0.971,1.458,0.508,0.626,0.815,0.888,1.339,-0.109,1.304,0.024,0.602,0.924,0.744,1.120,0.477,0.160,1.259,0.075,0.301,2.263,-0.072,1.228,1.343,0.670,0.003,1.041,0.049,1.262,-0.043,-0.430,-0.349,0.064,0.329,1.552,-1.040,2.145,-0.087,-2.005,0.744,1.118,-0.635,0.724,-0.440,-0.250,0.112,1.024,-0.485,0.947,0.857,-0.406,0.671,0.224,-0.784,0.385,0.213,0.482,-0.257,0.368,1.316,-0.507,0.031,0.229,1.274,-0.071,1.589,0.414,1.267,0.907,-0.135,0.809,0.399,0.233,1.095,1.443,-0.792,1.624,-1.269,-1.375,0.912,0.815,0.869,0.725,0.127,0.035,0.108,-1.279,-0.631,-1.269,-0.513
0.886,-0.560,-0.909,0.040,1.245,-0.429,0.551,1.056,0.715,0.344,0.379,-0.184,1.085,0.367,0.199,0.608,-0.857,1.342,0.787,0.074,0.650,1.076,1.252,-0.439,1.751,-0.080,0.271,1.170,0.542,1.430,0.359,0.328,0.765,0.370,0.314,2.139,0.093,0.990,1.543,0.567,0.191,0.799,0.211,0.891,0.452,-0.927,-1.169,0.126,0.656,1.336,-0.873,1.960,0.035,-1.559,0.629,1.379,-0.761,0.636,-0.456,0.152,0.269,0.774,-0.166,0.964,1.119,-0.590,0.717,0.434,-0.186,-0.075,0.618,0.145,-0.158,0.711,1.017,-0.196,-1.009,0.472,0.914,-0.176,1.504,0.519,1.308,0.967,-0.325,0.856,0.201,0.283,0.798,1.492,-0.470,1.381,-0.500,-0.670,0.957,0.850,1.221,0.554,-0.008,-0.384,0.802,-1.340,-1.319,-1.398,-0.728
0.825,-0.098,-1.395,-0.173,1.376,-0.478,0.764,0.904,0.762,0.099,0.781,-0.335,1.267,0.261,0.328,0.500,-0.499,0.992,0.943,-0.009,0.835,0.681,1.316,-0.263,1.270,0.199,0.532,1.238,0.524,1.518,0.184,0.493,0.657,0.476,0.424,2.007,0.299,0.819,1.791,0.335,0.220,0.370,0.559,0.594,0.547,-0.781,-0.898,-0.036,0.593,1.477,-0.809,1.848,0.127,-1.883,0.546,1.511,-0.904,0.270,-0.434,0.259,0.482,0.530,0.058,0.601,1.294,-0.303,0.441,0.962,-0.437,0.055,0.156,0.288,-0.141,0.887,0.910,-0.519,-0.864,0.720,0.713,0.126,1.426,0.678,1.274,1.050,-0.011,1.062,-0.055,0.010,1.231,0.979,-0.308,1.093,-0.352,-0.922,0.996,0.821,0.982,0.527,0.156,-0.713,0.798,-1.733,-0.527,-1.599,-0.761
0.762,0.555,-1.481,-0.473,1.783,-0.595,0.819,0.892,0.529,0.469,0.576,-0.353,1.258,0.227,0.345,0.723,-0.811,1.343,0.675,0.067,0.952,0.643,1.457,-0.135,1.291,0.086,0.863,0.944,0.775,1.254,0.511,0.264,0.599,0.679,0.646,1.637,0.561,0.484,2.063,-0.020,0.293,0.940,0.156,0.869,0.275,-0.751,-1.365,0.101,0.908,1.006,-0.455,1.642,0.364,-1.895,0.465,1.518,-0.575,0.466,-0.506,-0.206,0.736,0.237,0.014,0.819,1.061,0.089,0.498,0.620,-0.783,-0.359,0.467,-0.345,-0.570,1.531,0.598,-0.347,-0.694,0.684,0.520,0.226,1.467,0.481,1.365,1.201,0.150,0.599,0.546,0.166,1.367,0.814,-0.347,0.934,-0.014,-1.118,0.937,0.727,0.751,0.509,0.157,-1.259,1.161,-0.729,-1.379,-1.677,0.006
0.579,0.502,-1.437,-0.065,1.390,-0.534,0.788,0.699,0.482,0.735,0.095,0.212,0.674,1.239,0.020,0.990,-1.006,1.708,0.354,0.234,0.327,0.615,1.223,-0.141,1.300,0.204,0.717,0.948,0.881,0.930,0.421,0.487,0.593,0.707,0.716,1.648,0.656,0.389,2.255,-0.471,0.542,0.682,0.340,0.388,0.482,-0.434,-0.600,0.219,0.869,1.089,-0.681,1.920,0.190,-2.022,0.259,1.345,-0.673,0.170,-0.051,-0.524,0.529,0.240,0.182,0.307,1.326,-0.059,0.821,0.090,-0.597,0.223,0.256,-0.128,-0.634,1.467,0.636,-0.158,-0.751,0.491,0.521,0.535,1.244,0.666,1.194,1.278,0.252,1.044,0.130,0.483,1.238,1.057,-0.892,0.684,0.294,-1.081,1.016,0.529,0.471,0.851,0.513,-1.408,1.394,-1.177,-1.208,-0.263,-0.582
0.666,0.622,-1.737,0.099,1.328,-0.223,0.683,0.763,0.346,0.525,0.176,0.146,1.093,0.869,0.376,0.653,-0.895,1.701,0.251,0.250,0.277,0.783,0.935,0.423,1.129,0.026,0.657,1.149,0.829,0.567,0.627,0.725,0.176,1.008,0.283,2.071,0.274,0.279,2.375,-0.459,0.607,0.611,0.304,0.133,0.892,-0.158,-0.627,-0.532,1.281,0.789,-0.434,2.078,0.064,-1.749,-0.080,1.699,-0.880,0.462,-0.380,-0.245,0.666,0.459,-0.084,0.450,1.431,-0.301,1.041,-0.345,-0.210,0.226,0.624,0.135,-0.584,1.241,0.695,0.300,-0.670,0.564,0.891,0.545,1.314,0.881,0.935,1.441,-0.212,0.661,0.585,-0.113,1.413,0.929,-0.501,-0.083,1.110,-0.859,0.821,0.584,0.178,0.904,0.409,-1.302,1.222,-1.566,-0.771,-0.704,0.371
0.547,0.768,-1.902,-0.193,1.673,-0.324,0.782,0.776,0.105,0.584,0.321,0.655,0.722,0.890,0.501,0.596,-0.960,1.817,-0.051,0.571,-0.178,1.306,0.469,0.444,1.140,-0.223,0.735,1.159,0.746,0.669,0.560,0.932,0.397,0.695,0.310,1.997,0.214,0.564,2.177,-0.520,0.726,0.374,0.421,0.407,0.818,-0.382,-0.194,-0.476,1.334,0.597,-0.380,2.021,-0.205,-1.843,0.409,0.890,-0.575,0.789,-0.470,0.040,0.598,0.262,-0.290,0.808,1.079,-0.014,0.801,0.045,0.108,-0.065,1.038,-0.807,-0.238,1.172,0.392,0.875,-0.758,0.458,0.872,0.352,1.329,0.942,0.881,1.503,-0.070,0.621,0.567,-0.205,1.670,0.760,-0.170,0.110,0.998,-0.816,1.098,0.090,0.298,0.713,0.246,-1.222,1.211,-1.340,-0.268,-1.347,0.750
0.516,0.890,-1.745,-0.472,1.935,-0.371,0.653,0.709,0.013,0.640,0.566,0.780,0.593,0.908,0.595,0.377,-1.328,1.984,-0.233,0.801,-0.407,1.517,0.632,-0.026,1.472,-0.126,0.555,1.324,0.599,1.001,0.687,0.773,0.501,0.416,0.591,1.487,0.541,0.338,2.182,-0.379,0.781,0.672,0.342,0.654,0.536,-0.510,-0.035,-0.347,1.226,0.757,-0.658,1.975,-0.013,-1.679,0.168,0.299,-0.404,1.017,-0.324,-0.245,0.601,0.297,-0.553,0.914,1.122,-0.024,0.813,0.207,-0.155,-0.117,1.103,-0.198,-0.305,1.275,0.523,0.891,-0.757,0.162,0.835,0.318,1.239,0.887,0.742,1.576,-0.329,0.671,0.377,-0.145,1.377,0.785,0.035,-0.537,1.770,-1.263,0.964,0.049,0.040,0.876,-0.275,-0.809,0.753,-0.603,0.075,-1.734,1.456
0.540,0.721,-2.857,-0.615,1.732,-0.654,0.614,0.683,0.537,0.181,0.920,0.450,0.629,0.838,0.546,0.599,-1.480,1.844,0.012,0.697,-0.375,1.790,0.670,0.076,1.382,-0.147,0.477,1.298,0.620,1.113,0.708,0.695,0.263,0.506,0.398,1.596,0.604,0.248,2.046,-0.429,0.964,0.458,0.539,0.460,0.520,-0.676,-0.524,0.196,0.692,1.074,-0.840,1.735,0.172,-1.919,0.925,-0.033,0.218,0.768,0.497,-0.486,0.689,0.193,-0.178,0.742,1.555,-0.355,0.852,0.433,-0.423,-0.431,1.107,-0.523,-0.274,1.181,0.471,0.704,-0.563,0.028,1.148,0.429,1.354,0.620,0.931,1.246,0.323,0.800,0.064,0.131,1.171,0.656,0.043,-0.348,1.352,-1.520,0.685,0.178,0.116,0.902,-0.021,-1.177,0.877,-0.503,-0.121,-1.139,1.303
0.440,0.781,-2.526,-0.082,1.527,-0.775,1.140,0.488,0.480,0.209,0.942,0.261,0.957,0.897,0.293,0.608,-1.417,1.755,0.247,0.564,-0.370,1.787,0.565,0.307,1.501,-0.206,0.458,1.239,0.765,0.703,0.976,0.197,0.796,0.468,0.693,1.395,0.560,0.229,2.216,-0.329,0.872,0.251,0.736,0.306,0.534,-0.381,-1.095,0.856,0.102,1.304,-0.953,1.561,0.246,-1.637,0.187,0.588,-0.310,0.972,0.334,-0.501,0.939,-0.157,0.027,0.765,1.434,-0.235,0.744,0.443,-0.568,-0.097,1.067,-1.015,0.217,0.882,0.782,0.266,-0.084,-0.004,1.197,0.351,1.521,0.504,1.242,0.988,0.342,0.829,-0.022,0.291,0.828,1.115,-0.243,-0.356,1.394,-1.723,0.748,0.464,0.143,0.367,-0.115,-0.695,0.553,-0.184,-0.452,-1.155,1.346
0.715,0.670,-2.310,-0.015,1.337,-0.387,0.774,0.405,0.713,0.170,0.669,0.602,0.842,1.043,0.115,0.277,-1.624,1.953,0.118,0.417,-0.231,1.846,0.541,0.401,1.334,0.196,0.156,1.492,0.239,1.071,0.561,0.260,0.785,0.410,0.743,0.955,0.821,-0.088,2.422,-0.411,0.792,0.333,0.693,0.250,0.651,-0.267,-0.718,0.876,0.017,1.210,-0.821,1.145,0.815,-2.306,0.757,0.723,-0.180,1.053,0.159,0.357,0.491,0.382,-0.084,0.908,1.481,-0.316,0.561,0.607,-0.275,0.471,0.487,-0.642,0.103,1.331,0.540,0.550,-0.272,0.429,0.788,0.553,1.319,0.475,1.173,0.891,0.504,0.780,-0.253,0.512,0.562,1.509,-0.541,0.538,0.713,-1.366,0.391,0.997,-0.243,1.296,-0.668,-0.186,0.329,-0.709,-0.544,-1.715,1.018
0.429,0.525,-2.402,-0.256,1.429,-0.108,0.639,0.170,0.859,0.086,0.563,0.887,0.498,1.257,0.198,0.402,-1.378,1.667,0.237,0.733,-0.144,1.630,0.654,0.563,1.297,0.112,0.371,1.651,0.350,0.703,0.851,-0.160,1.206,0.154,0.909,0.842,0.973,-0.424,2.688,-0.767,0.876,0.404,0.328,0.246,0.476,-0.641,-0.732,0.990,-0.106,1.376,-0.733,0.981,1.126,-2.431,0.238,0.819,-0.095,0.566,0.844,-0.039,0.568,0.224,-0.278,1.081,1.167,-0.062,0.623,0.558,-0.813,0.526,0.680,-0.999,-0.362,1.591,0.405,0.622,-0.322,0.399,0.693,0.639,1.079,0.886,0.708,1.219,0.306,0.872,-0.203,0.595,0.457,1.634,-0.578,0.188,1.087,-2.163,0.035,1.513,-0.375,1.273,-0.261,-0.080,0.249,0.335,-0.298,-1.422,0.578
0.315,0.808,-2.695,0.388,0.763,0.160,0.701,0.028,1.095,0.450,0.880,0.641,0.706,1.421,0.252,0.186,-1.272,1.318,0.598,0.557,-0.089,1.511,0.981,0.408,1.587,0.073,0.207,1.860,0.116,0.514,0.852,0.060,0.603,0.565,0.630,1.169,0.682,-0.258,2.661,-0.647,0.813,0.385,0.452,0.502,0.071,0.062,-1.105,0.970,-0.297,1.140,-0.298,0.663,1.611,-2.642,0.435,0.954,0.143,0.176,0.913,-0.022,0.610,0.316,-0.166,0.984,1.313,-0.114,0.347,0.587,-0.678,0.230,1.081,-1.163,-0.468,1.429,0.343,0.663,-0.343,0.195,1.083,0.458,1.299,0.458,0.809,0.983,0.361,1.052,-0.185,0.445,0.793,1.656,-0.515,0.338,1.059,-2.391,-0.298,1.911,-0.832,1.779,-0.558,0.343,-0.141,0.935,-0.683,-1.119,1.225
0.570,0.349,-2.648,0.476,0.529,0.353,0.458,-0.279,1.072,0.302,0.958,0.340,0.965,1.271,0.315,-0.305,-1.354,1.263,0.675,0.672,-0.419,1.662,0.771,0.258,1.898,-0.202,-0.215,2.402,-0.448,0.791,0.764,-0.101,0.572,0.443,0.966,0.995,0.885,-0.259,2.720,-0.587,1.094,0.460,0.452,0.763,-0.115,0.263,-0.724,0.424,0.238,0.547,0.027,1.296,0.789,-1.722,0.544,0.718,0.121,-0.085,0.847,0.045,0.523,0.588,-0.352,0.863,1.275,0.217,0.173,0.866,-0.440,0.930,0.565,-0.888,-0.612,1.687,0.252,0.690,-0.131,0.098,1.212,0.289,1.214,0.416,0.653,1.020,0.112,0.451,0.336,0.001,1.362,1.299,-0.145,0.035,1.155,-2.399,-0.142,1.738,-0.526,1.376,-0.817,0.706,-0.713,1.244,-0.335,-1.613,1.206
0.534,0.463,-2.163,0.507,0.494,0.204,0.246,-0.148,0.783,0.219,1.088,0.206,0.841,1.032,0.715,-0.265,-1.176,0.964,0.915,0.140,-0.012,1.409,0.683,0.246,2.057,-0.586,0.020,2.263,-0.253,0.553,0.775,-0.342,0.767,0.287,1.028,0.852,0.761,-0.477,2.747,-0.489,1.190,0.213,0.578,0.610,0.185,-0.603,-0.491,1.142,-0.199,0.831,0.005,1.387,0.772,-1.681,0.586,0.263,0.846,-0.566,0.859,-0.327,0.352,0.875,-0.380,0.832,1.458,0.295,0.008,1.177,-0.521,1.044,0.570,-0.556,-0.338,1.617,0.256,0.848,-0.241,0.386,0.707,0.701,0.800,0.840,0.535,1.109,0.282,0.593,0.448,0.190,1.176,1.515,-0.123,0.036,1.215,-2.155,0.149,1.793,-0.673,1.302,-0.904,0.897,-0.755,1.358,-0.367,-1.186,0.885
0.646,0.716,-1.908,1.026,0.014,0.820,-0.528,0.059,0.675,0.452,0.815,0.606,0.724,0.935,0.860,-0.249,-1.612,1.235,0.520,0.573,-0.067,1.248,0.760,0.464,1.923,-0.482,-0.038,2.268,-0.476,0.319,0.735,-0.652,0.524,0.422,0.769,1.025,0.673,-0.382,2.652,-0.445,1.134,0.074,0.750,0.591,0.137,-0.030,-0.872,0.992,0.198,0.572,0.051,0.872,1.218,-1.853,0.426,0.661,0.445,-0.974,0.707,-0.279,0.672,0.625,-0.383,0.930,1.508,0.256,0.356,0.974,-0.344,1.104,0.277,-0.410,-0.164,1.358,0.398,0.720,0.112,0.558,0.803,0.881,0.752,0.808,0.439,1.098,0.424,0.721,0.457,-0.114,1.334,1.479,-0.122,0.154,0.605,-2.475,0.103,1.697,-0.750,1.116,-0.737,0.479,-0.478,0.989,0.250,-1.301,1.316
0.250,1.458,-1.631,0.967,0.234,0.137,0.158,0.048,0.332,0.826,0.196,1.076,0.310,0.935,0.801,-0.011,-1.616,1.388,0.342,0.808,0.114,0.971,0.800,0.236,1.972,-0.420,0.208,2.076,-0.603,0.147,1.281,-1.018,0.716,0.366,0.639,1.340,0.265,-0.062,2.336,-0.369,1.185,-0.035,0.749,0.253,0.309,-0.193,-0.826,0.781,0.248,0.598,0.559,0.390,1.678,-1.681,0.685,0.675,0.356,-0.501,0.649,-0.166,0.744,0.738,-0.479,1.124,1.271,0.292,0.213,1.288,-0.595,0.974,0.319,0.169,-0.275,1.340,0.418,0.746,0.511,0.399,0.918,0.534,0.895,0.721,0.520,1.078,0.038,1.065,0.056,-0.053,1.438,1.368,0.030,-0.205,1.007,-1.793,-0.102,1.701,-1.031,1.049,-0.361,0.191,0.069,0.615,0.210,-0.719,0.957
0.399,1.338,-1.896,0.584,0.607,0.062,0.289,-0.125,0.159,0.954,0.354,0.758,0.557,0.904,0.972,-0.422,-1.912,1.727,0.233,1.101,0.089,1.076,0.826,0.257,1.625,-0.198,-0.043,1.975,-0.565,-0.113,1.379,-1.258,0.170,0.951,0.308,1.540,0.326,-0.104,2.311,-0.203,0.802,0.330,0.473,0.521,0.026,0.043,-0.645,0.415,0.257,0.651,0.309,0.716,1.198,-1.741,0.575,0.952,-0.212,-0.958,0.881,-0.232,0.766,0.585,-0.219,1.075,1.449,0.202,0.116,1.209,-0.502,1.203,-0.059,0.351,-0.499,1.344,0.611,0.662,0.896,0.510,0.998,0.376,1.207,0.443,0.841,1.080,-0.006,0.936,0.409,0.170,1.093,1.549,-0.125,0.130,0.487,-1.840,-0.014,1.738,-0.504,0.736,-0.206,0.716,-0.621,0.584,-0.125,-1.592,0.847
0.336,1.427,-2.008,1.053,0.412,0.264,0.112,0.109,0.193,0.999,0.128,0.882,0.089,0.948,0.920,-0.659,-1.355,1.577,0.145,1.366,-0.014,1.023,0.715,0.415,1.259,0.042,-0.055,1.890,-0.193,-0.076,1.374,-1.200,0.348,0.807,0.471,1.467,0.683,-0.492,2.455,-0.239,1.013,0.095,0.530,0.629,0.066,0.123,-0.288,0.168,0.367,1.247,-0.339,1.402,0.675,-1.813,0.511,0.606,0.034,-0.761,0.721,-0.125,0.614,0.514,-0.059,0.995,1.317,0.109,0.334,1.300,-0.598,0.729,0.480,0.176,-0.265,1.161,0.420,0.995,0.644,0.208,1.300,0.066,1.561,0.194,1.189,0.997,0.101,0.710,0.756,-0.317,1.209,1.594,-0.038,0.124,0.443,-1.257,0.024,1.402,-0.064,1.094,-0.334,0.856,-0.733,1.135,-0.802,-1.486,0.380
0.394,0.911,-1.965,0.677,1.195,-0.656,0.766,-0.042,0.575,0.552,0.654,0.728,0.094,0.791,0.952,-0.851,-1.124,1.516,0.091,1.223,0.301,0.854,0.712,0.334,1.359,-0.024,0.040,1.807,-0.064,-0.263,1.133,-1.257,-0.033,1.170,0.160,1.731,0.455,-0.002,1.805,0.248,0.664,0.159,0.360,1.129,-0.223,-0.060,-0.096,-0.222,0.490,1.036,0.205,1.154,0.775,-1.271,0.883,0.088,0.336,-0.519,1.263,-0.176,0.357,0.514,-0.104,0.979,1.457,0.135,0.242,1.276,-0.962,0.934,0.530,0.183,0.066,1.233,0.463,1.062,0.240,0.516,0.838,0.300,1.287,0.842,0.783,0.949,0.490,0.123,1.163,-0.276,1.075,1.544,-0.497,0.434,0.256,-1.170,0.253,1.407,-0.082,1.202,-0.449,0.724,-0.615,1.223,-1.091,-1.497,-0.360
0.753,0.477,-1.273,0.156,1.243,-0.364,0.153,0.609,-0.097,0.950,0.371,0.658,0.341,0.648,0.931,-0.544,-1.110,1.308,0.453,0.745,0.484,0.767,0.915,-0.045,1.485,0.056,0.172,1.775,-0.102,0.074,1.137,-1.455,0.322,1.034,0.022,2.033,0.212,-0.097,1.886,0.217,0.771,0.092,0.569,0.613,0.092,0.184,-0.052,-0.451,0.239,1.190,-0.164,1.486,0.498,-1.575,0.862,0.523,0.375,-0.397,1.311,-0.054,0.301,0.481,-0.111,0.684,1.446,0.036,0.093,1.259,-0.511,0.544,0.974,0.066,0.191,1.218,0.587,1.046,0.270,0.313,1.150,0.073,1.238,0.871,0.553,0.934,0.496,0.187,1.173,-0.161,1.158,1.432,-0.256,-0.110,0.899,-1.260,-0.148,1.904,0.077,0.962,0.036,0.996,-0.931,1.305,-1.000,-1.246,-0.313
0.622,0.430,-1.052,-0.062,1.395,-0.310,0.004,1.011,-0.171,0.981,0.454,0.566,0.517,0.506,0.783,-0.626,-1.043,1.082,0.753,0.295,0.611,0.871,1.038,-0.231,1.536,-0.307,0.138,1.563,0.383,-0.240,1.248,-1.335,0.238,1.241,-0.106,2.162,-0.120,0.155,1.573,0.432,0.659,0.121,0.262,0.968,0.063,0.496,-0.432,-0.369,0.807,1.025,-0.059,1.182,0.710,-1.394,0.673,0.556,0.302,-0.682,1.509,-0.365,0.821,0.172,-0.435,0.821,1.291,0.067,0.087,1.209,-0.364,0.302,1.305,-0.008,0.234,1.104,0.472,1.135,0.121,0.472,1.159,-0.227,1.497,0.382,0.846,0.616,0.476,0.175,1.081,0.187,1.036,1.547,-0.171,-0.114,0.755,-1.661,-0.618,2.240,-0.248,1.123,-0.097,0.977,-0.904,1.499,-1.447,-1.277,-0.220
0.631,0.422,-0.944,0.012,1.585,-0.459,0.125,0.761,-0.173,0.964,0.540,0.203,0.836,0.676,0.632,-0.940,-1.337,1.232,0.640,0.478,0.173,0.998,0.968,-0.261,1.626,-0.355,0.085,1.547,0.401,-0.475,1.382,-1.268,0.269,0.986,-0.085,2.373,-0.140,0.741,0.954,1.158,-0.075,1.004,-0.082,1.387,-0.174,0.638,-0.186,-0.736,1.298,0.625,0.049,1.162,0.681,-0.930,0.340,0.897,0.157,-0.402,1.186,-0.216,1.193,-0.221,-0.183,0.218,2.033,-0.473,0.404,0.769,0.419,0.078,1.119,0.279,0.017,0.992,0.664,0.801,0.232,0.363,1.018,-0.142,1.323,0.734,0.660,0.581,0.235,0.524,0.616,0.442,0.698,1.570,-0.056,0.126,0.341,-1.719,-0.975,2.624,-0.980,1.542,-0.202,0.524,-0.712,0.747,-0.481,-0.535,-0.913
0.586,0.432,-1.229,0.400,1.161,-0.903,0.659,0.508,-0.072,1.147,0.432,0.118,0.973,0.691,0.440,-0.580,-2.115,1.261,0.377,0.675,0.142,0.938,1.086,-0.401,1.483,-0.128,0.189,1.366,0.755,-1.048,1.723,-1.483,0.748,0.425,0.100,2.275,0.029,0.567,1.053,1.029,0.076,0.554,0.267,1.181,-0.177,0.671,0.040,-0.399,1.053,1.254,-0.357,0.882,1.040,-0.509,0.210,0.861,-0.195,-0.391,1.460,0.101,0.938,0.228,-0.835,0.666,1.419,-0.063,0.147,0.918,0.590,-0.047,1.291,0.193,0.320,0.490,0.809,0.863,0.436,0.198,1.212,0.009,1.603,0.286,1.246,0.246,0.576,0.315,0.657,0.354,0.688,1.739,-0.206,0.027,0.544,-1.365,-0.833,2.216,-0.538,1.803,-0.274,1.030,-0.848,1.234,-0.690,-0.516,-1.355
0.980,0.189,-1.568,0.497,1.223,-0.901,0.433,0.880,-0.038,0.976,0.557,0.140,1.024,0.503,0.164,0.023,-2.491,1.356,0.420,0.680,0.073,0.853,1.284,-0.441,1.678,-0.548,0.455,1.110,0.962,-0.956,1.805,-1.423,1.205,0.295,-0.169,2.462,-0.003,0.397,1.035,0.962,0.108,0.245,0.480,0.781,-0.067,0.552,0.261,-0.471,1.197,1.191,-0.596,1.406,0.700,-0.255,0.372,1.351,-0.511,-0.287,1.097,0.210,0.740,0.455,-0.787,0.759,1.105,0.323,-0.166,1.037,0.824,-0.073,0.986,0.518,0.197,0.402,0.938,0.963,-0.079,0.216,1.181,-0.001,1.553,0.363,0.977,0.201,0.551,0.286,0.729,0.203,0.717,1.522,-0.327,0.173,0.214,-1.254,-0.757,2.027,-0.002,1.601,-0.720,1.476,-1.209,1.358,-0.679,-0.429,-1.127
1.019,0.149,-1.646,0.017,1.457,-0.760,0.424,0.965,-0.002,1.386,0.110,0.300,0.988,0.746,0.027,0.144,-2.278,0.931,0.901,0.218,0.066,0.979,1.074,-0.532,1.363,-0.236,0.168,1.511,0.424,-0.786,1.864,-1.609,1.376,0.026,-0.149,2.500,-0.025,0.430,0.892,0.951,0.088,0.546,0.454,0.741,0.020,0.754,0.397,-0.441,1.303,0.829,-0.437,1.007,0.637,-0.353,0.526,1.217,-0.177,-0.470,0.858,0.379,0.768,0.151,-0.643,0.915,1.002,0.452,0.173,0.835,1.045,0.175,0.459,1.023,-0.163,0.296,0.559,1.033,-0.038,0.247,1.096,0.145,1.403,0.448,0.731,0.356,0.190,0.730,0.308,0.376,0.846,1.208,0.153,-0.170,0.357,-1.392,-0.508,1.560,0.295,1.527,-0.508,1.112,-1.149,1.395,-0.427,-0.137,-0.770
1.044,-0.067,-1.571,0.376,1.338,-0.718,0.415,0.800,0.213,0.981,0.293,0.139,1.269,0.749,0.139,0.248,-2.129,1.105,0.769,0.073,0.535,0.671,1.304,-0.495,1.326,-0.298,0.171,1.658,0.464,-0.331,1.029,-0.733,1.320,0.064,-0.008,2.325,0.060,0.569,1.055,0.565,0.297,0.160,0.478,0.462,0.248,0.679,0.151,-0.521,1.678,0.540,0.001,0.988,0.574,-0.456,0.594,0.993,0.088,-0.152,0.872,0.438,0.584,0.562,-0.844,0.406,1.289,0.080,0.497,0.383,1.328,0.046,0.897,0.398,-0.210,-0.025,0.937,0.858,0.333,0.479,0.847,0.160,1.347,0.316,1.143,0.409,0.223,0.622,0.476,0.593,0.905,1.427,0.147,-0.246,0.197,-1.700,-0.387,1.293,0.491,1.218,-0.326,0.863,-0.574,0.621,0.285,-1.003,-0.363
1.004,0.313,-1.396,0.422,1.396,-0.965,0.448,0.539,-0.023,1.156,0.278,0.151,1.084,0.949,-0.136,-0.085,-1.929,1.163,0.376,0.322,-0.067,0.931,1.056,-0.576,1.458,-0.254,0.198,1.700,0.539,-0.643,1.386,-1.032,1.516,-0.014,0.211,2.276,-0.012,0.418,1.285,0.444,0.414,0.201,0.077,0.893,-0.025,0.809,0.137,-0.305,1.446,0.856,-0.382,1.098,0.459,-0.584,0.830,0.697,0.121,-0.202,0.740,0.052,0.598,0.560,-0.709,0.428,1.243,0.221,0.415,0.633,1.284,-0.234,1.287,0.090,-0.129,0.283,0.493,1.245,0.159,0.783,0.526,0.534,1.011,0.511,0.688,0.550,-0.227,0.947,-0.232,0.653,0.823,1.380,-0.007,0.047,0.084,-1.123,-0.052,1.135,0.310,1.400,-0.231,0.921,-0.233,0.715,0.232,-1.225,-1.171
0.888,0.116,-1.701,0.495,1.340,-0.475,0.665,0.419,0.005,1.196,0.496,-0.283,1.520,0.516,0.443,-0.072,-1.291,1.354,0.527,0.259,0.033,1.058,1.105,-0.303,1.095,-0.009,-0.037,2.021,0.347,-0.084,1.218,-1.215,1.948,-0.564,0.599,1.599,0.652,-0.049,1.472,0.292,0.483,0.090,0.155,0.630,0.229,0.365,0.820,-0.703,1.352,0.960,0.002,1.493,-0.049,0.014,0.643,0.839,-0.082,-0.420,0.869,-0.207,0.783,0.418,-0.648,0.624,1.126,0.411,0.327,0.637,1.476,-0.193,1.000,0.165,-0.345,0.377,0.521,1.389,0.349,0.515,0.943,0.717,1.018,0.532,0.769,0.725,-0.138,0.657,-0.306,0.414,0.691,1.348,0.320,-0.209,0.360,-1.606,0.011,1.272,0.495,1.249,-0.256,0.681,-0.162,0.433,0.245,-1.036,-1.314
1.039,0.111,-1.784,0.174,1.435,-0.549,1.101,-0.045,0.249,0.853,0.771,-0.341,1.361,0.274,0.640,0.301,-1.639,1.544,0.490,0.547,0.091,1.170,1.077,-0.207,1.321,-0.378,0.132,1.516,0.325,0.218,0.509,-0.750,1.634,-0.552,0.529,1.488,0.928,-0.196,1.307,0.623,0.050,0.246,0.434,0.435,0.578,0.283,0.911,-0.509,1.429,0.808,-0.706,2.076,-0.996,0.096,0.436,0.964,-0.291,0.036,0.478,-0.089,0.467,0.709,-0.302,0.811,0.935,0.608,0.367,0.661,1.153,0.042,0.620,0.622,-0.837,0.220,0.757,1.131,0.669,0.304,1.103,0.479,1.239,0.439,0.957,0.442,-0.231,0.959,-0.368,0.716,0.425,1.870,-0.170,0.164,-0.095,-1.484,-0.306,1.739,0.185,1.585,-0.329,0.671,-0.116,0.748,-0.263,-0.523,-2.004
1.220,-0.170,-1.530,0.616,0.886,0.126,0.482,0.675,-0.163,0.897,0.730,0.308,0.822,0.654,0.608,0.107,-2.442,1.614,0.342,0.740,-0.208,1.289,1.046,-0.061,1.199,-0.511,0.435,1.169,0.567,-0.043,1.144,-1.006,1.933,-0.782,0.278,1.988,0.452,0.110,0.986,0.801,0.079,-0.038,0.748,0.276,0.588,-0.047,0.875,-1.056,1.900,0.405,-0.205,1.784,-0.629,-0.156,0.856,0.698,-0.165,0.162,0.344,-0.028,0.512,0.668,-0.068,0.920,1.012,0.343,0.193,0.701,0.675,0.071,0.424,0.551,-0.938,-0.186,1.481,0.306,1.170,-0.108,1.323,0.210,1.360,0.160,1.238,0.404,0.172,0.608,-0.262,0.731,0.632,1.943,-0.290,-0.095,-0.427,-1.047,-0.039,1.476,0.348,1.215,-0.016,0.675,-0.094,0.143,0.089,0.108,-1.042
1.015,-0.256,-1.681,0.393,0.654,-0.017,0.335,0.858,0.037,0.761,0.608,0.455,0.520,0.714,0.555,0.106,-2.784,2.248,-0.076,0.943,-0.060,0.973,1.145,-0.140,1.245,-0.533,0.631,0.859,1.046,-0.255,1.660,-1.319,1.852,-0.703,0.504,1.662,0.564,-0.171,1.297,0.756,0.131,-0.476,0.961,0.252,0.272,0.150,0.384,-1.119,1.988,0.617,0.044,1.401,0.323,-0.229,1.172,0.760,-0.152,0.483,0.526,-0.600,0.509,0.722,0.095,0.669,1.173,0.204,-0.049,0.927,0.359,0.021,0.204,0.797,-0.502,-0.466,1.372,0.332,1.032,0.064,1.133,0.221,1.243,-0.000,1.424,-0.045,0.573,-0.009,-0.487,0.659,0.525,2.064,-0.317,-0.229,-0.440,-0.954,0.386,1.378,0.112,1.448,-0.031,0.455,0.101,-0.338,0.535,-0.677,-0.396
0.952,-0.241,-1.650,0.066,0.718,0.318,0.339,0.537,0.089,0.826,0.561,0.598,0.442,0.778,0.553,0.513,-2.889,2.000,0.261,0.755,0.111,0.999,1.248,-0.219,1.373,-0.717,0.557,1.018,0.825,0.165,1.083,-0.881,1.733,-0.712,0.585,1.520,0.730,0.072,1.420,0.627,0.113,-0.378,1.060,-0.028,0.634,-0.301,0.697,-1.124,2.064,0.183,0.212,1.235,0.506,-0.114,1.201,0.518,0.057,0.637,0.153,-1.043,0.660,0.523,0.359,0.744,1.206,0.274,-0.193,1.033,0.165,-0.112,-0.125,0.866,-0.703,-1.346,2.107,-0.037,1.170,0.040,1.286,0.186,1.314,0.292,1.308,0.090,0.550,0.042,-0.376,0.152,0.970,1.551,0.041,-1.012,-0.609,-0.605,-0.071,1.494,0.523,1.147,0.074,0.210,-0.197,-1.237,1.217,-0.672,-0.064
1.443,-0.388,-2.051,-0.435,1.303,0.210,0.538,0.589,0.371,0.517,1.231,0.327,0.781,0.470,0.897,0.093,-2.567,1.900,0.542,0.654,0.242,1.062,0.964,-0.064,1.351,-0.657,0.844,0.923,0.903,0.163,1.286,-1.041,1.866,-0.873,0.412,1.620,0.532,0.565,0.979,1.125,-0.247,-0.573,1.288,-0.137,1.038,-0.444,0.940,-1.214,2.086,0.194,-0.004,1.449,0.298,0.074,1.177,0.600,-0.294,0.555,0.183,-1.433,0.911,0.319,0.321,1.140,0.598,0.620,-0.205,0.524,0.602,-0.470,0.032,0.819,-0.587,-0.982,2.077,0.031,1.044,0.139,1.153,0.433,1.199,0.342,1.290,-0.108,0.709,0.107,-0.595,0.423,0.654,1.802,-0.075,-1.879,-0.863,-0.154,-0.526,1.902,-0.003,1.290,0.340,0.256,-0.345,-0.711,1.067,-0.441,-0.190
1.003,-0.221,-2.225,-0.379,0.923,0.376,0.537,0.643,0.018,0.891,0.859,0.444,0.626,0.525,0.578,0.046,-2.488,2.019,0.530,0.597,0.554,0.911,1.265,-0.345,1.312,-0.738,0.514,1.063,0.669,0.687,1.009,-0.807,1.674,-0.599,0.434,1.535,0.342,0.627,0.833,1.259,-0.391,-0.878,1.623,-0.413,1.289,-0.447,1.192,-1.096,2.240,0.119,0.400,1.182,0.661,-0.196,1.536,0.304,-0.155,0.453,0.407,-1.018,0.630,0.460,0.312,1.018,0.901,0.475,-0.146,0.884,0.212,-0.364,0.538,0.077,-0.265,-0.754,2.146,0.169,0.677,0.530,1.047,0.367,1.076,0.422,1.464,-0.144,0.657,0.300,-0.200,0.280,0.924,1.671,0.262,-1.349,-0.635,-0.466,0.202,1.244,0.517,0.972,0.490,0.166,-0.259,-0.850,1.228,-0.638,0.322
0.912,-0.166,-2.606,-0.203,0.926,0.453,0.970,0.052,0.167,0.930,1.043,0.644,0.484,0.349,0.500,0.113,-1.791,1.310,1.183,-0.007,0.403,1.210,0.855,-0.265,1.441,-1.009,0.532,1.164,0.738,0.412,1.572,-0.992,1.918,-1.044,-0.190,2.406,-0.298,1.182,0.830,1.214,-0.700,-0.812,1.646,-0.586,1.073,-0.411,1.299,-1.074,2.020,-0.044,0.278,1.217,0.713,-0.570,1.348,0.274,0.452,0.703,-0.160,-1.179,0.999,0.463,0.147,0.785,0.881,0.288,-0.249,1.217,0.501,-0.685,0.399,0.523,-0.729,-1.198,2.025,0.221,0.461,0.439,0.993,0.734,0.983,0.802,1.176,-0.009,0.688,0.306,-0.542,0.333,0.664,1.928,-0.276,-0.214,0.002,-0.077,0.174,1.464,0.402,1.209,-0.247,0.834,-1.134,-0.732,0.969,-0.410,0.249
0.900,-0.439,-1.627,-0.007,0.761,0.276,1.319,0.063,0.208,0.531,1.468,0.358,1.038,-0.308,1.226,-0.205,-1.946,1.630,0.923,0.369,0.468,1.144,1.050,-0.609,1.698,-1.569,0.816,0.784,0.767,0.218,1.464,-0.927,1.847,-1.232,-0.435,2.404,-0.497,1.029,0.933,0.934,-0.512,-1.253,1.801,-0.774,1.079,-0.599,1.277,-1.098,1.928,-0.263,0.264,1.169,0.626,-0.692,1.816,-0.071,1.091,0.064,-0.109,-1.210,1.155,0.348,0.366,1.092,0.624,0.413,-0.656,1.596,0.070,-0.535,1.048,-0.216,-0.412,-0.987,1.754,0.364,0.631,0.353,0.859,0.886,0.778,0.904,1.108,-0.277,0.592,0.372,-0.500,0.561,0.244,2.307,-0.629,0.172,-0.809,0.332,0.289,1.203,0.721,0.421,0.278,1.053,-1.920,0.318,0.354,-0.813,-0.642
0.779,0.006,-1.509,-0.556,1.122,0.270,1.255,0.036,0.468,0.463,1.510,0.088,1.156,0.135,0.896,0.134,-1.694,1.585,0.805,0.264,0.477,0.821,1.231,-0.377,1.525,-0.963,0.684,1.079,0.486,0.535,1.188,-0.618,1.703,-1.344,-0.778,2.566,-0.655,0.916,1.028,0.852,-0.032,-0.794,1.216,0.000,0.641,0.015,1.008,-0.524,1.443,0.292,-0.008,1.646,0.056,0.051,1.090,0.018,1.216,0.048,-0.400,-0.969,1.257,0.030,0.327,1.156,0.567,0.854,-0.464,1.419,0.177,-0.545,1.249,-0.136,-0.313,-0.146,1.523,0.519,0.513,0.288,0.694,0.891,0.880,0.798,1.131,-0.176,0.264,0.412,-0.657,0.167,0.571,2.028,-0.648,0.470,-1.103,0.233,0.509,1.167,0.477,0.573,-0.256,1.051,-1.501,0.374,0.349,-0.442,-0.661
0.549,-0.087,-1.520,-0.267,0.848,0.390,0.994,0.469,0.410,0.333,1.714,0.076,0.669,0.380,0.798,0.061,-1.656,1.546,0.699,0.389,0.306,1.049,1.224,-0.422,1.412,-0.654,0.679,1.050,0.689,0.134,1.438,-1.039,2.102,-1.521,-1.099,2.616,-0.625,1.184,0.993,0.879,0.198,-0.336,0.956,0.141,0.696,0.180,0.860,-0.242,1.302,0.383,0.132,1.372,0.321,-0.007,0.951,0.282,0.948,0.300,-0.702,-0.916,1.220,0.007,0.230,1.412,0.401,0.977,-0.301,1.163,0.310,-0.587,1.395,-0.374,0.040,-0.693,1.634,0.305,0.796,0.227,1.186,0.701,0.964,0.918,1.049,-0.285,0.186,0.843,-1.019,-0.323,1.009,1.529,-0.224,0.168,-0.794,0.444,0.215,1.173,0.437,0.568,-0.512,1.125,-0.969,0.437,0.192,-0.478,0.171
0.621,0.154,-1.821,-0.569,0.599,0.616,0.848,0.596,0.834,0.106,1.829,0.110,0.701,0.742,0.644,0.414,-1.264,1.398,0.786,0.135,0.292,1.030,1.267,-0.475,1.537,-0.841,0.491,1.146,0.672,0.029,1.687,-1.283,2.536,-1.086,-0.792,2.686,-0.796,1.460,0.917,0.719,-0.050,-0.283,0.915,-0.115,0.876,0.353,0.446,-0.131,0.773,0.507,-0.089,1.326,0.348,0.219,0.510,0.649,0.728,0.266,-0.475,-0.598,0.954,0.073,0.099,1.306,0.706,0.721,-0.276,1.221,0.453,-0.208,1.274,-0.441,0.353,-0.929,1.259,0.649,0.471,0.205,1.116,0.759,0.770,0.897,0.969,-0.127,-0.364,1.334,-0.945,-0.441,1.518,1.115,0.052,0.343,-0.679,0.762,0.063,1.345,0.504,0.448,-0.546,0.726,-0.675,0.583,0.199,-0.314,0.018
0.913,-0.008,-1.486,-1.119,0.513,0.474,0.923,0.416,0.871,0.218,1.930,-0.090,1.034,0.558,0.818,0.595,-1.733,1.572,0.308,0.539,-0.310,1.424,1.092,-0.028,1.297,-0.708,0.524,1.342,0.397,0.319,1.233,-1.106,2.388,-0.704,-0.662,2.303,-0.434,1.253,0.940,0.810,-0.140,-0.176,1.022,-0.653,0.910,0.523,0.340,-0.303,1.093,0.456,-0.163,1.068,0.605,0.151,0.470,1.324,-0.205,0.795,-0.391,-0.460,0.611,0.236,0.006,1.284,0.787,0.656,-0.269,1.334,0.359,-0.279,1.120,-0.500,0.044,-0.550,1.141,0.671,0.094,0.544,0.614,1.136,0.342,0.886,0.789,-0.063,-0.395,1.522,-1.304,-0.788,1.849,0.847,0.289,-0.046,-0.892,0.539,0.061,1.320,0.623,0.088,-0.371,0.505,-0.455,0.513,-0.140,-0.106,0.082
1.041,-0.383,-1.312,-1.280,0.897,0.282,0.672,0.610,0.607,0.452,1.706,0.194,0.705,1.098,0.244,0.911,-1.826,1.629,0.321,0.446,-0.062,1.200,1.186,-0.144,1.484,-1.171,0.450,1.493,0.034,0.703,1.061,-1.113,2.149,-0.661,-0.844,2.564,-0.611,1.349,0.767,0.787,-0.149,-0.679,1.354,-0.915,1.288,-0.173,0.664,-0.206,0.891,0.604,0.264,0.866,0.580,-0.091,0.300,1.179,-0.376,0.435,-0.383,-0.571,0.535,0.353,-0.276,1.391,0.650,0.882,-0.373,1.637,0.195,-0.188,1.320,-0.380,0.058,-0.240,1.233,0.660,0.173,0.532,0.552,0.953,0.583,0.887,0.447,0.579,-0.756,1.986,-1.512,-1.175,1.998,0.761,0.235,-0.074,-1.072,1.033,-0.257,1.896,-0.087,0.345,-0.254,0.014,-0.219,0.260,-0.614,-0.617,1.337
0.526,-0.018,-1.122,-0.866,0.440,0.827,0.484,0.784,0.438,0.723,1.328,0.280,0.502,1.326,0.193,0.934,-1.851,1.721,0.233,0.657,-0.005,1.327,1.065,0.126,1.402,-0.948,0.393,1.485,-0.049,1.110,0.910,-0.875,1.914,-0.643,-0.971,2.531,-0.423,0.844,1.201,0.399,-0.004,-0.821,1.353,-0.794,1.182,-0.209,0.568,-0.169,1.092,0.434,0.842,0.670,0.894,-0.579,0.737,0.496,0.072,0.758,-0.223,-0.844,0.374,0.304,-0.570,1.301,0.746,1.077,-0.427,1.528,0.288,-0.088,1.514,-0.917,0.422,-0.392,1.429,0.358,0.317,0.402,0.641,0.857,0.616,0.557,0.874,-0.267,-0.205,1.577,-1.155,-0.762,1.700,0.796,0.122,0.113,-1.248,0.641,-0.546,2.467,-0.425,0.571,0.218,0.336,-0.291,0.271,-1.140,-0.694,1.423
0.029,0.438,-0.853,-0.483,0.266,0.954,0.578,0.637,0.452,1.014,0.960,0.484,0.426,1.299,0.077,0.908,-0.972,1.224,0.660,0.245,0.180,0.860,1.363,-0.253,1.552,-0.587,-0.058,1.876,-0.264,1.414,0.736,-0.867,1.825,-0.623,-0.970,2.641,-0.970,1.112,0.779,0.861,-0.175,-0.357,1.120,-0.535,1.167,-0.324,0.575,0.126,1.106,0.567,0.762,0.426,1.235,-0.615,0.620,0.579,0.247,0.582,-0.123,-0.191,0.408,0.383,-0.167,0.831,1.390,0.334,-0.406,1.683,0.481,-0.055,1.404,-0.979,0.719,-0.487,1.278,0.359,0.372,0.468,0.624,0.951,0.691,0.473,0.791,-0.049,-0.133,1.556,-0.918,-0.442,1.653,0.822,-0.032,0.531,-0.557,0.667,-0.270,2.275,-0.352,0.819,0.019,0.348,-0.411,0.157,-0.635,-0.147,0.993
-0.241,0.802,-1.054,0.181,-0.376,1.516,-0.024,1.082,0.301,0.998,0.980,0.342,0.644,1.254,0.149,0.800,-0.832,1.244,0.276,0.540,0.420,0.493,1.489,-0.063,1.380,-0.421,-0.270,2.066,-0.217,1.211,0.887,-0.726,1.689,-0.590,-1.011,2.600,-0.968,1.133,0.991,0.568,-0.045,-0.689,1.316,-0.387,1.288,-0.037,0.810,0.356,0.869,0.838,0.207,0.742,0.832,-0.522,0.381,0.978,0.241,0.487,-0.080,-0.449,0.355,0.360,0.119,0.672,1.433,0.172,-0.245,1.786,-0.007,0.477,0.783,-0.314,0.573,-0.529,0.877,0.704,-0.085,0.543,0.540,0.944,0.795,0.385,0.933,-0.030,0.229,0.987,-0.907,-0.326,1.767,0.817,0.062,0.292,-0.552,0.554,-0.159,1.969,-0.303,1.209,0.152,0.319,-0.017,0.280,-0.413,-0.660,1.816
