0.028,0.028,0.028,0.028,0.028,0.028,0.028,0.028,0.028,0.028,0.028,0.028,0.028,0.028,0.028,0.028,0.028,0.028,0.028,0.028,0.028,0.028,0.028,0.028,0.028,0.028,0.028,0.028,0.028,0.028,0.028,0.028,0.028,0.028,0.028,0.028
0.397,0.194,0.485,0.517,0.344,0.108,0.587,0.018,-0.016,0.343,0.550,0.394,0.130,0.601,-0.056,0.146,0.324,0.470,0.306,0.100,0.317,-0.058,0.395,0.575,0.321,0.190,0.244,0.501,0.244,0.213,0.209,0.338,0.593,-0.544,1.175,0.465
0.334,0.296,0.759,0.608,0.279,0.281,0.530,0.160,-0.008,0.510,0.494,0.532,0.072,0.710,0.078,0.421,0.382,0.530,0.156,0.268,0.284,0.107,0.588,0.533,0.018,0.538,0.335,0.385,0.474,0.446,-0.001,0.538,0.785,0.106,0.751,0.378
0.561,0.456,0.426,0.931,0.269,0.031,0.683,0.393,-0.150,0.488,0.546,0.464,-0.096,0.734,0.291,0.745,0.226,0.439,0.106,0.439,0.102,0.087,0.417,0.887,0.254,0.631,0.428,0.255,0.770,0.382,0.234,0.638,0.725,-0.210,1.093,0.462
0.554,0.685,0.300,1.130,0.213,-0.164,0.356,0.510,0.021,0.490,0.582,0.855,-0.136,0.940,0.232,0.690,0.161,0.525,0.214,0.345,-0.100,0.305,0.296,0.903,0.427,0.426,0.458,0.545,0.777,0.283,0.044,0.963,0.536,-0.637,1.503,0.544
0.522,0.875,0.360,1.272,0.217,-0.454,0.250,0.446,0.185,0.826,0.397,0.823,0.149,0.778,0.237,0.651,0.277,0.429,0.072,0.743,-0.284,0.298,0.360,0.824,0.465,0.028,0.554,0.501,0.867,0.257,0.218,0.916,0.728,-0.471,1.281,0.712
0.793,0.807,0.209,1.016,0.294,-0.002,0.209,0.490,0.204,0.758,0.416,0.993,0.217,0.632,0.202,0.605,0.516,0.313,0.088,0.710,-0.257,0.336,0.454,0.825,0.541,-0.020,0.798,0.499,0.973,0.133,0.151,0.792,0.952,-0.686,1.727,0.498
0.572,0.974,-0.020,1.039,0.128,0.008,0.344,0.460,0.050,0.683,0.508,0.920,0.253,0.409,0.382,0.604,0.512,0.311,-0.006,0.842,-0.167,0.427,0.595,0.628,0.242,0.246,0.933,0.596,0.984,0.031,0.213,0.935,0.788,-0.165,1.158,0.724
0.628,0.688,0.200,1.210,0.010,-0.214,0.285,0.535,-0.016,0.782,0.678,0.926,0.428,0.216,0.216,0.605,0.457,0.371,0.256,0.665,-0.201,0.373,0.643,0.747,0.001,0.723,0.592,0.701,0.928,0.044,0.326,0.854,0.861,0.076,0.696,1.007
0.585,0.723,0.282,1.401,-0.135,-0.185,0.344,0.526,-0.207,0.742,0.663,0.888,-0.046,0.570,0.224,0.142,0.847,0.203,0.172,0.607,-0.178,0.368,0.742,0.767,-0.012,0.571,0.677,0.457,1.046,0.171,0.164,1.213,0.497,0.556,0.462,0.776
0.642,0.848,0.226,1.379,-0.157,0.047,0.232,0.725,-0.168,0.647,0.530,1.036,0.268,0.533,0.049,0.229,0.713,0.347,0.096,0.624,-0.366,0.326,0.973,0.650,0.163,0.644,0.453,0.553,1.009,0.194,-0.015,1.371,0.420,0.403,0.458,1.040
0.705,0.849,0.225,1.663,-0.201,-0.096,0.241,0.808,-0.285,0.645,0.411,1.136,0.172,0.459,0.209,0.479,0.620,0.194,0.161,0.427,-0.551,0.348,0.983,0.686,0.312,0.416,0.502,0.712,0.880,0.303,-0.225,1.535,0.389,0.931,0.045,0.776
0.709,0.575,0.300,1.522,-0.225,0.067,0.384,0.567,-0.243,0.587,0.572,1.074,0.276,0.487,0.180,0.274,0.651,0.306,0.255,0.432,-0.357,0.216,1.032,0.687,0.295,0.702,0.141,0.838,0.699,0.392,-0.115,1.503,0.293,1.216,-0.271,0.756
0.494,0.711,0.372,1.568,-0.180,0.090,0.314,0.571,0.013,0.746,0.636,0.899,0.441,0.498,0.007,0.146,0.874,0.155,-0.011,0.683,-0.255,0.301,1.091,0.613,0.605,0.563,0.013,0.837,0.814,0.297,-0.143,1.648,0.153,1.207,-0.359,1.025
0.490,0.626,0.513,1.592,-0.109,0.036,0.241,0.462,0.117,0.626,0.834,0.950,0.505,0.326,0.084,0.231,0.815,0.149,0.069,0.640,-0.171,0.290,1.097,0.560,0.487,0.566,0.042,0.847,0.683,0.296,-0.227,1.792,-0.003,1.171,-0.575,1.418
0.402,0.402,0.665,1.774,-0.142,-0.236,0.561,0.270,-0.107,0.469,0.890,1.081,0.380,0.402,-0.009,0.321,0.885,0.172,-0.039,0.739,-0.398,0.258,0.991,0.670,0.389,0.808,-0.121,0.776,0.723,0.439,-0.129,1.801,0.089,1.186,-0.633,1.403
0.627,0.458,0.555,1.568,-0.053,-0.106,0.455,0.290,0.045,0.546,1.133,0.819,0.490,0.554,-0.289,0.155,1.015,0.356,-0.235,0.894,-0.207,0.234,0.903,0.748,0.218,0.822,-0.049,0.980,0.604,0.348,-0.112,1.789,0.095,0.804,-0.088,1.220
0.685,0.375,0.467,1.585,-0.099,-0.122,0.536,0.421,0.007,0.502,1.081,0.676,0.670,0.368,-0.189,0.183,1.045,0.253,-0.353,0.999,-0.216,0.177,1.121,0.619,0.206,0.593,0.270,1.019,0.667,0.261,0.050,1.551,0.283,0.355,0.479,1.166
0.428,0.468,0.659,1.518,0.209,-0.343,0.433,0.252,0.247,0.735,1.063,0.430,1.090,0.111,-0.200,0.138,0.946,0.224,-0.499,1.084,-0.268,0.031,1.399,0.591,0.323,0.456,0.295,0.963,0.679,0.287,0.157,1.468,0.422,0.081,0.730,1.254
0.249,0.754,0.588,1.682,0.070,-0.284,0.387,0.380,0.092,0.536,1.315,0.421,1.459,-0.287,-0.201,0.022,1.163,0.235,-0.472,0.970,-0.303,-0.081,1.572,0.618,0.579,0.295,0.111,0.750,0.783,0.210,0.139,1.443,0.470,0.366,0.414,1.504
-0.010,0.855,0.584,1.340,0.101,0.107,0.093,0.626,0.174,0.712,1.327,0.252,1.185,-0.214,-0.041,-0.212,1.194,0.355,-1.011,1.230,-0.579,-0.105,1.588,0.566,0.349,0.482,0.004,0.590,0.912,0.196,0.053,1.556,0.296,0.200,0.769,1.277
0.295,0.801,0.479,1.232,0.094,0.247,0.241,0.676,0.116,0.632,1.086,0.341,0.915,0.227,-0.013,0.012,1.018,0.405,-1.165,1.491,-0.671,-0.143,1.628,0.618,0.235,0.403,0.008,0.516,1.002,0.264,0.021,1.737,0.217,-0.019,1.150,1.164
0.242,0.515,0.849,1.352,0.048,0.199,0.322,0.385,0.270,0.526,1.159,0.297,0.832,0.180,0.153,-0.166,1.026,0.344,-1.220,1.414,-0.717,-0.284,1.554,0.799,0.171,0.598,-0.247,0.398,1.116,0.190,-0.044,1.795,0.210,-0.246,1.486,1.050
0.233,0.399,1.014,1.404,-0.012,0.185,0.389,0.248,0.397,0.510,1.217,0.397,1.114,0.028,-0.145,0.131,0.811,0.374,-1.042,1.544,-0.967,-0.230,1.552,0.698,0.405,0.408,-0.238,0.382,1.107,0.227,-0.128,1.846,0.155,0.243,0.946,1.037
0.092,0.346,1.091,1.331,-0.144,0.195,0.258,0.290,0.227,0.456,1.392,0.264,1.009,-0.012,0.067,-0.046,1.103,0.404,-1.052,1.412,-0.738,-0.137,1.497,0.764,0.338,0.836,-0.486,0.544,0.891,0.594,-0.146,1.789,0.217,0.361,0.820,1.059
0.156,0.495,0.841,1.320,-0.104,0.272,0.215,0.581,0.317,0.144,1.501,0.229,0.955,0.123,-0.082,-0.173,1.338,0.249,-1.060,1.606,-0.966,-0.113,1.556,0.718,0.119,1.070,-0.316,0.233,1.058,0.636,-0.108,1.795,0.271,0.440,0.807,1.156
0.390,0.444,0.751,1.381,-0.130,0.222,0.341,0.661,0.090,0.077,1.551,0.229,1.095,0.089,-0.262,-0.370,1.562,0.066,-0.901,1.320,-0.499,-0.270,1.625,0.561,0.079,1.175,-0.649,0.168,1.348,0.422,-0.333,1.864,0.153,0.246,0.867,1.209
0.457,0.337,0.887,1.492,-0.029,0.159,0.296,0.476,0.350,0.111,1.318,0.327,1.243,-0.165,-0.307,-0.373,1.476,0.265,-0.754,1.260,-0.551,-0.290,1.519,0.662,0.464,0.736,-0.394,0.194,1.383,0.322,-0.327,1.862,0.128,0.361,0.622,1.380
0.509,0.372,0.962,1.576,-0.091,0.090,0.345,0.444,0.293,0.057,1.390,0.441,1.114,-0.340,-0.227,-0.480,1.832,-0.060,-1.075,1.336,-0.462,-0.473,1.763,0.564,0.045,0.967,-0.276,0.096,1.350,0.516,-0.281,1.581,0.386,0.386,0.684,1.296
0.342,0.404,0.972,1.607,-0.064,-0.004,0.525,0.213,0.280,-0.031,1.656,0.350,1.203,-0.380,-0.244,-0.375,1.553,0.053,-0.770,1.310,-0.733,-0.338,1.586,0.657,0.128,1.042,-0.332,0.008,1.392,0.469,-0.448,1.823,0.266,0.005,1.015,1.357
0.366,0.304,1.000,1.740,-0.040,-0.156,0.682,0.123,0.206,0.056,1.611,0.331,1.037,-0.167,0.152,-0.484,1.615,0.122,-0.490,1.076,-0.444,-0.325,1.573,0.557,0.497,0.738,-0.169,-0.024,1.391,0.529,-0.306,1.642,0.352,0.299,0.677,1.232
0.458,0.358,0.963,1.567,-0.093,0.088,0.632,0.154,0.218,-0.071,1.697,0.296,0.745,-0.035,0.401,-0.324,1.614,-0.052,-0.272,0.969,-0.508,-0.334,1.765,0.490,0.451,0.619,-0.159,-0.087,1.442,0.495,-0.145,1.510,0.420,0.502,0.317,1.366
0.445,0.080,1.307,1.534,-0.124,-0.062,0.581,0.140,0.114,-0.047,1.669,0.423,0.717,0.027,0.264,-0.220,1.266,0.077,-0.352,0.868,-0.233,-0.082,1.684,0.447,0.511,0.518,-0.369,-0.174,1.501,0.678,-0.132,1.570,0.386,0.146,0.650,1.158
0.687,0.060,1.072,1.260,-0.177,0.385,0.533,0.347,0.061,-0.010,1.865,0.176,0.696,-0.135,0.251,-0.186,1.348,0.133,-0.696,1.304,-0.469,-0.123,1.746,0.382,-0.107,1.136,-0.482,-0.058,1.304,0.839,-0.052,1.452,0.548,0.551,0.326,1.246
0.515,0.005,1.197,1.164,-0.033,0.250,0.452,0.297,0.100,0.019,1.812,0.340,0.629,0.138,0.076,-0.076,1.318,0.140,-0.513,0.905,-0.101,-0.487,2.085,0.238,-0.383,1.339,-0.526,0.076,1.380,0.594,0.060,1.306,0.563,0.376,0.324,1.474
0.430,0.272,1.022,1.176,-0.005,0.336,0.447,0.581,-0.205,-0.151,1.848,0.206,0.424,0.161,0.367,0.111,1.198,0.113,-0.519,1.023,-0.343,-0.412,1.879,0.437,-0.728,1.689,-0.558,0.078,1.463,0.522,0.017,1.267,0.482,0.552,-0.018,1.557
0.501,0.159,1.011,1.218,-0.131,0.290,0.395,0.386,0.035,0.066,1.831,0.239,0.448,0.126,0.340,0.449,0.867,0.082,-0.269,0.962,-0.255,-0.381,1.829,0.476,-0.477,1.506,-0.424,0.051,1.420,0.551,-0.032,1.310,0.524,0.731,-0.385,1.590
0.633,0.035,1.106,1.148,-0.081,0.107,0.405,0.480,0.051,0.283,1.619,0.339,0.547,0.227,0.415,0.643,0.582,0.036,-0.152,0.697,-0.148,-0.212,1.737,0.470,-0.378,1.223,-0.210,0.204,1.233,0.549,-0.297,1.447,0.499,0.949,-0.498,1.423
0.562,0.273,0.996,0.992,0.003,0.111,0.556,0.287,0.190,0.046,1.746,0.429,0.686,0.253,0.121,0.569,0.712,0.163,-0.528,1.115,-0.470,-0.441,1.919,0.383,-0.541,1.322,-0.024,0.299,1.051,0.475,-0.174,1.273,0.643,1.040,-0.771,1.535
0.519,0.441,0.720,0.998,-0.019,0.150,0.887,0.036,-0.165,-0.147,1.857,0.232,0.366,0.316,0.387,0.490,0.766,0.176,-0.249,0.725,-0.248,-0.655,2.163,0.306,-0.364,1.033,0.184,0.321,1.059,0.568,-0.062,1.405,0.543,0.379,-0.016,1.450
0.495,0.367,0.803,1.196,-0.015,-0.041,0.695,0.332,-0.003,0.079,1.812,0.266,0.560,0.061,0.517,0.497,0.827,0.223,-0.135,0.628,-0.436,-0.778,2.250,0.274,-0.423,1.196,0.182,0.390,0.818,0.684,0.136,1.172,0.638,0.578,-0.165,1.299
0.344,0.513,0.987,1.143,-0.119,0.094,0.683,0.272,0.146,0.030,1.806,0.156,0.249,0.129,0.834,0.292,0.998,0.227,0.165,0.654,-0.590,-0.894,2.216,0.347,-0.482,1.095,0.376,0.480,0.845,0.553,0.135,1.033,0.868,0.277,0.249,1.423
0.258,0.363,1.211,1.041,-0.103,0.254,0.699,0.381,0.016,-0.110,1.645,0.139,0.286,-0.048,0.756,0.266,1.036,0.170,0.034,0.685,-0.469,-0.960,2.364,0.162,-0.387,0.923,0.406,0.426,0.677,0.828,0.211,1.029,0.874,-0.192,0.767,1.330
0.331,0.593,0.921,1.037,-0.017,0.254,0.328,0.623,0.072,0.133,1.284,0.545,0.325,-0.099,0.865,0.287,1.094,0.069,-0.022,0.869,-0.558,-0.795,2.199,0.268,-0.596,1.024,0.099,0.480,0.748,0.718,0.265,0.927,0.974,-1.184,1.854,1.218
0.426,0.468,0.871,1.129,0.061,0.223,0.193,0.537,0.378,0.247,1.213,0.471,0.340,-0.272,0.810,0.240,1.193,0.135,-0.231,1.054,-0.529,-0.935,2.383,0.120,-0.337,0.879,0.134,0.410,0.841,0.619,0.330,0.972,0.913,-0.417,1.169,1.158
0.437,0.239,0.977,1.276,-0.071,0.216,0.109,0.353,0.572,0.372,1.117,0.542,0.607,-0.224,0.653,0.297,1.154,0.184,-0.538,1.212,-0.426,-0.989,2.451,0.004,-0.334,1.043,-0.115,0.524,0.701,0.692,0.104,0.999,0.916,0.002,0.545,1.429
0.595,0.097,0.980,1.054,0.016,0.289,0.279,-0.045,0.617,0.396,1.096,0.476,0.551,0.050,0.650,0.284,1.073,0.221,-0.695,1.601,-0.837,-1.104,2.563,-0.105,-0.965,1.660,-0.419,0.434,0.640,0.724,-0.070,1.156,0.752,0.606,0.054,1.403
0.429,0.212,0.990,1.156,0.231,0.154,-0.042,-0.028,0.801,0.388,1.134,0.718,0.814,0.098,0.353,0.344,0.981,0.188,-0.594,1.467,-0.633,-1.046,2.354,0.052,-0.972,1.763,-0.609,0.250,0.915,0.689,-0.129,1.198,0.687,0.406,0.225,1.437
0.385,0.299,0.800,1.460,-0.041,-0.025,0.291,-0.338,0.506,0.394,1.257,0.732,0.676,0.069,0.352,0.238,0.887,0.325,-0.454,1.314,-0.652,-1.315,2.532,0.078,-1.086,1.836,-0.571,0.335,0.714,0.796,-0.199,1.077,0.899,0.797,-0.133,1.504
0.370,0.434,0.762,1.201,0.057,0.183,-0.136,-0.450,0.703,0.496,1.211,0.671,0.776,0.112,0.443,0.240,0.764,0.431,-0.537,1.393,-0.432,-1.224,2.514,0.171,-1.215,2.108,-0.833,0.261,0.878,0.721,-0.228,1.158,0.778,0.485,0.309,1.311
0.517,0.345,0.785,1.285,-0.003,0.193,-0.364,-0.402,0.784,0.288,1.276,0.822,0.497,0.291,0.358,0.108,0.941,0.478,-0.360,1.142,-0.236,-0.999,2.309,0.240,-1.313,2.259,-0.889,0.381,0.954,0.553,-0.148,1.165,0.718,-0.039,0.688,1.487
0.488,0.448,0.814,1.307,-0.010,0.013,-0.365,-0.506,0.917,0.510,1.274,0.853,0.677,0.223,0.352,0.282,0.759,0.377,-0.388,1.191,-0.409,-0.943,2.261,0.299,-1.016,2.039,-0.557,0.395,0.869,0.556,-0.261,1.168,0.758,-0.616,1.261,1.483
0.460,0.441,0.697,1.469,-0.043,-0.156,-0.085,-0.001,0.490,0.612,1.163,0.956,0.663,0.168,0.340,0.403,0.527,0.282,-0.480,1.242,-0.495,-0.853,2.221,0.349,-0.998,1.939,-0.474,0.413,1.067,0.434,-0.150,1.106,0.695,-0.082,0.667,1.666
0.398,0.384,0.788,1.442,-0.119,-0.137,-0.318,0.189,0.598,0.593,1.224,0.896,0.557,0.142,0.444,0.364,0.642,0.275,-0.488,1.238,-0.318,-1.017,2.243,0.348,-0.824,1.915,-0.422,0.322,1.051,0.501,0.097,0.964,0.786,0.100,0.710,1.438
0.472,0.195,0.827,1.442,-0.124,-0.174,-0.219,0.187,0.642,0.595,1.198,0.991,0.830,0.143,0.245,0.288,0.588,0.318,-0.434,1.192,-0.225,-1.078,2.336,0.318,-0.835,1.804,-0.112,0.149,1.177,0.477,0.098,0.839,0.821,0.095,0.742,1.339
0.495,0.199,0.763,1.279,0.108,-0.123,-0.107,-0.047,0.884,0.521,1.215,0.985,0.728,0.216,0.334,0.554,0.315,0.238,-0.368,1.049,-0.140,-0.888,2.124,0.523,-0.850,1.805,-0.081,0.023,1.362,0.540,0.094,1.043,0.647,0.272,0.643,1.327
0.349,0.348,0.739,1.292,0.189,-0.107,0.273,-0.119,0.641,0.439,1.166,0.949,0.568,0.171,0.615,0.829,0.164,0.305,-0.307,0.958,-0.108,-0.893,2.187,0.466,-0.605,1.678,-0.042,-0.054,1.243,0.500,0.065,1.107,0.567,1.161,-0.375,1.448
0.351,0.397,0.667,0.978,0.329,-0.024,0.283,-0.192,0.582,0.451,1.151,0.862,0.538,0.204,0.600,0.754,0.193,0.356,-0.351,1.088,-0.395,-0.667,1.946,0.556,-0.277,1.389,0.110,-0.137,1.444,0.382,-0.085,1.293,0.539,0.445,0.270,1.612
0.504,0.532,0.493,0.993,0.481,-0.089,0.274,0.012,0.472,0.313,1.255,0.909,0.591,0.152,0.527,0.700,0.255,0.445,-0.247,0.958,-0.379,-0.625,2.016,0.419,-0.312,1.504,-0.123,0.028,1.199,0.472,-0.195,1.412,0.402,0.503,0.252,1.332
0.575,0.616,0.475,1.081,0.366,0.111,0.356,0.200,0.376,0.471,1.014,0.978,0.701,0.250,0.343,0.494,0.455,0.478,-0.440,1.072,-0.437,-0.712,2.133,0.305,-0.356,1.833,-0.538,-0.028,1.389,0.198,-0.128,1.381,0.323,0.863,0.054,1.202
0.383,0.763,0.594,1.218,0.284,0.001,0.402,0.169,0.387,0.292,1.101,1.078,0.709,0.189,0.418,0.440,0.619,0.320,-0.402,1.193,-0.486,-0.534,1.837,0.376,-0.046,1.359,-0.203,0.093,1.541,0.134,-0.000,1.440,0.339,0.597,0.265,1.200
0.331,0.792,0.507,1.309,0.092,-0.037,0.273,0.099,0.515,0.487,1.150,0.971,0.641,0.316,0.417,0.402,0.714,0.211,-0.394,1.331,-0.707,-0.507,1.992,0.304,0.021,1.516,-0.430,0.142,1.419,0.218,0.059,1.322,0.416,0.562,0.405,1.176
0.208,0.823,0.482,1.423,-0.006,-0.055,0.172,0.084,0.566,0.585,0.981,1.017,0.704,-0.022,0.555,0.245,0.872,0.201,-0.333,1.124,-0.461,-0.371,1.858,0.278,0.053,1.415,-0.550,0.120,1.362,0.393,-0.213,1.413,0.391,0.597,0.561,0.930
0.155,0.959,0.390,1.707,-0.116,-0.425,0.337,-0.115,0.481,0.551,1.044,1.128,0.895,-0.109,0.577,0.395,0.590,0.397,-0.350,1.011,-0.563,-0.371,1.822,0.325,-0.032,1.397,-0.603,0.148,1.325,0.398,-0.436,1.630,0.286,0.634,0.626,0.858
0.157,0.624,0.730,1.486,0.149,-0.320,0.004,-0.422,0.862,0.383,1.122,0.927,0.979,-0.152,0.425,0.486,0.475,0.410,-0.438,0.983,-0.299,-0.354,1.541,0.509,0.130,1.229,-0.470,0.244,1.306,0.434,-0.438,1.836,0.168,0.839,0.404,1.074
0.319,0.644,0.748,1.543,0.213,-0.155,0.294,-0.324,0.693,0.498,1.120,0.761,1.048,-0.006,0.057,0.824,0.230,0.351,-0.713,1.452,-0.520,-0.397,1.631,0.373,0.079,1.202,-0.430,0.086,1.513,0.223,-0.404,1.774,0.153,1.119,0.012,1.326
0.203,0.623,0.842,1.441,0.077,-0.026,0.690,-0.123,0.245,0.303,1.376,0.399,1.058,-0.098,0.045,0.707,0.199,0.534,-0.668,1.395,-0.668,-0.245,1.522,0.400,0.211,1.173,-0.423,0.148,1.424,0.247,-0.167,1.480,0.352,0.827,0.067,1.478
0.337,0.694,0.764,1.528,0.008,-0.063,0.531,-0.314,0.367,0.429,1.259,0.602,1.009,0.037,-0.044,0.790,0.080,0.522,-1.041,1.356,-0.658,-0.334,1.565,0.493,0.233,1.143,-0.557,0.038,1.475,0.291,-0.171,1.508,0.401,1.311,-0.357,1.446
0.343,0.805,0.753,1.785,-0.253,-0.221,0.437,-0.202,0.503,0.509,1.365,0.567,0.961,0.205,-0.026,0.619,0.267,0.630,-1.123,1.378,-0.388,-0.253,1.613,0.457,0.554,0.810,-0.348,0.032,1.370,0.297,0.116,1.097,0.764,1.516,-0.585,1.597
0.288,0.940,0.688,1.518,-0.148,0.017,0.479,-0.440,0.564,0.424,1.315,0.575,0.736,0.230,0.146,0.574,0.229,0.579,-0.865,1.216,-0.229,-0.349,1.558,0.515,0.545,0.629,-0.227,0.116,1.401,0.287,0.081,1.096,0.677,1.390,-0.344,1.584
0.277,1.006,0.664,1.586,-0.119,-0.131,0.258,-0.573,0.833,0.473,1.073,0.736,0.977,0.050,0.146,0.639,0.381,0.363,-0.827,1.235,-0.342,-0.230,1.437,0.472,0.229,0.847,-0.371,-0.059,1.665,0.142,0.066,1.101,0.652,1.579,-0.551,1.548
0.182,1.034,0.699,1.577,-0.142,-0.074,0.646,-0.183,0.286,0.534,1.114,0.631,0.824,0.049,0.395,0.551,0.509,0.280,-0.583,0.935,-0.133,-0.332,1.509,0.506,0.342,0.639,-0.054,-0.094,1.588,0.221,0.045,1.168,0.713,1.427,-0.496,1.650
0.177,1.048,0.647,1.730,-0.239,-0.168,0.506,-0.395,0.421,0.358,1.313,0.578,0.530,0.284,0.515,0.496,0.504,0.304,-0.458,0.986,-0.262,-0.285,1.441,0.648,0.136,0.475,0.030,-0.060,1.482,0.282,-0.062,1.321,0.504,0.841,0.036,1.656
0.289,1.086,0.604,1.661,-0.050,-0.103,0.694,-0.476,0.336,0.279,1.372,0.661,0.499,0.313,0.504,0.267,0.738,0.250,-0.559,1.228,-0.358,-0.160,1.180,0.928,0.176,0.637,-0.203,-0.033,1.404,0.428,-0.024,1.340,0.472,0.655,0.232,1.598
0.335,0.877,0.722,1.870,-0.142,-0.389,0.527,-0.444,0.631,0.198,1.300,0.483,0.558,0.353,0.288,0.102,0.984,0.181,-0.788,1.416,-0.414,-0.217,1.068,1.100,0.199,0.607,-0.253,-0.015,1.246,0.525,0.074,1.461,0.343,-0.163,0.801,1.764
0.254,0.810,0.871,2.138,-0.459,-0.541,0.358,-0.402,0.646,0.026,1.455,0.459,0.384,0.535,0.427,0.062,1.051,0.192,-0.744,1.256,-0.641,-0.351,1.203,1.069,0.049,0.790,-0.047,0.193,1.214,0.534,-0.080,1.641,0.196,-0.199,0.746,1.948
0.062,0.511,1.217,1.887,-0.252,-0.463,0.036,-0.517,1.052,0.320,1.557,0.474,0.409,0.622,0.174,0.163,1.075,0.090,-0.902,1.360,-0.649,-0.361,1.087,1.236,0.282,0.711,-0.067,0.234,1.279,0.309,-0.054,1.670,-0.028,0.450,0.188,1.709
0.139,0.433,1.210,1.624,0.096,-0.395,0.116,-0.571,1.139,0.138,1.353,0.775,0.787,0.387,-0.017,0.095,1.135,0.165,-0.971,1.139,-0.222,-0.331,1.004,1.150,0.663,0.428,-0.226,0.143,1.311,0.474,-0.020,1.728,-0.085,0.741,-0.355,1.989
-0.028,0.540,1.331,1.381,0.217,-0.051,-0.025,-0.529,1.159,0.215,1.268,0.789,0.908,0.238,-0.155,-0.144,1.412,0.059,-1.003,0.879,0.103,-0.134,1.001,0.981,0.671,0.183,-0.108,0.159,1.313,0.477,0.135,1.515,0.168,0.365,0.071,1.961
0.095,0.687,1.126,1.703,0.058,-0.221,0.145,-0.579,1.169,0.404,1.168,0.850,0.954,0.380,-0.311,-0.151,1.283,0.213,-0.905,0.503,0.257,-0.197,1.000,1.110,0.342,0.547,-0.093,0.432,1.113,0.445,0.108,1.520,0.088,0.459,0.045,1.833
-0.013,0.870,0.973,1.537,0.191,-0.164,0.183,-0.442,0.936,0.790,0.865,0.639,0.963,0.380,-0.227,0.061,1.172,0.093,-0.842,0.556,0.170,-0.255,0.889,1.236,0.379,0.464,0.027,0.390,1.232,0.121,0.215,1.301,0.401,0.558,-0.015,1.838
-0.060,0.952,1.073,1.610,0.252,-0.176,-0.047,-0.785,1.380,0.855,0.593,0.718,1.017,0.317,-0.323,-0.020,1.154,-0.014,-1.066,0.643,0.263,-0.340,0.982,1.220,0.447,0.536,-0.184,0.532,1.081,0.220,0.118,1.314,0.353,-0.107,0.686,1.951
-0.004,0.884,0.903,1.649,0.160,-0.082,0.115,-0.452,0.936,0.755,0.588,0.854,0.838,0.501,-0.246,-0.320,1.507,-0.032,-0.918,0.875,0.053,-0.479,1.178,1.132,0.353,0.451,0.112,0.517,1.111,0.164,0.161,1.326,0.376,-0.136,0.702,1.792
0.145,0.546,1.067,1.472,0.047,0.199,0.153,-0.362,0.826,0.810,0.647,0.825,0.928,0.307,-0.048,-0.263,1.421,0.039,-0.848,1.049,-0.116,-0.494,1.385,0.900,0.366,0.400,0.408,0.568,0.972,0.180,0.217,1.433,0.333,0.186,0.362,1.746
0.064,0.578,1.010,1.301,0.146,0.410,-0.016,-0.370,1.024,0.533,0.882,1.114,1.140,-0.027,-0.133,-0.227,1.347,-0.068,-0.988,1.307,-0.269,-0.466,1.322,0.904,0.316,0.479,0.231,0.654,0.976,0.044,0.169,1.407,0.413,0.071,0.468,1.542
0.198,0.619,0.848,1.317,0.142,0.292,-0.112,-0.399,1.078,0.544,0.886,1.085,1.235,-0.028,-0.267,-0.238,1.266,-0.093,-1.044,1.671,-0.647,-0.400,1.254,0.948,0.332,0.347,0.313,0.650,0.984,-0.010,0.143,1.302,0.450,-0.131,0.654,1.644
0.158,0.770,0.806,1.271,0.159,0.350,-0.248,-0.365,1.205,0.271,0.953,1.196,0.877,0.335,-0.181,-0.169,0.956,0.085,-0.718,1.533,-0.693,-0.465,1.275,0.954,0.306,0.388,0.399,0.544,0.912,0.011,0.211,1.345,0.453,-0.236,0.580,2.030
0.077,0.790,0.838,1.237,0.064,0.413,0.058,-0.304,0.970,0.308,0.798,1.243,0.776,0.326,-0.298,0.038,1.003,0.080,-0.862,1.768,-0.749,-0.607,1.547,0.892,0.233,0.105,0.626,0.646,0.672,0.325,0.202,1.209,0.590,-0.821,1.120,2.088
0.193,0.832,0.718,1.037,0.254,0.321,0.206,-0.125,0.579,0.353,0.754,1.339,0.653,0.290,-0.185,0.116,1.006,0.186,-0.917,1.749,-0.788,-0.396,1.576,0.731,0.202,-0.017,0.896,0.799,0.698,0.350,0.192,1.078,0.652,-0.703,1.151,1.951
0.111,0.807,0.778,1.109,0.110,0.279,-0.158,-0.257,0.984,0.547,0.712,1.120,0.893,0.089,-0.398,0.330,0.918,0.168,-1.134,1.937,-0.677,-0.450,1.707,0.650,0.166,0.304,0.687,0.719,0.506,0.387,0.132,1.166,0.661,-0.512,1.055,1.851
0.180,0.571,0.884,1.026,0.347,0.254,-0.299,-0.552,1.406,0.647,0.930,0.958,0.773,0.114,-0.374,0.420,0.966,0.137,-0.710,1.517,-0.387,-0.389,1.525,0.732,0.408,0.105,0.452,0.807,0.483,0.406,0.042,1.228,0.646,-0.838,1.528,1.745
0.244,0.880,0.668,1.220,0.260,0.175,-0.093,-0.478,1.060,0.821,0.962,0.929,0.827,0.104,-0.366,0.051,1.163,-0.012,-0.860,1.713,-0.574,-0.346,1.578,0.657,0.716,-0.273,0.210,0.815,0.632,0.232,-0.037,1.167,0.676,-0.881,1.529,1.710
0.132,0.807,0.782,1.261,0.144,0.125,-0.162,-0.658,1.310,0.703,0.941,0.963,0.934,0.069,-0.381,0.269,1.019,0.048,-1.218,2.045,-0.683,-0.247,1.467,0.758,0.350,-0.171,0.272,0.879,0.807,0.114,0.188,1.079,0.700,-0.298,0.850,1.872
0.108,0.720,0.626,1.390,0.080,-0.011,-0.400,-0.625,1.437,0.636,0.911,1.060,0.603,0.195,0.023,0.429,0.903,-0.000,-1.267,1.996,-0.708,-0.400,1.462,0.739,0.413,-0.276,0.515,0.918,0.788,-0.001,0.189,1.167,0.629,-0.169,0.736,1.842
0.257,0.820,0.416,1.611,0.089,-0.069,-0.870,-0.738,1.813,0.523,0.931,1.084,0.279,0.236,0.162,0.266,1.129,-0.077,-1.177,1.838,-0.787,-0.301,1.441,0.790,0.158,-0.096,0.634,0.840,0.787,-0.012,0.216,1.098,0.708,0.086,0.581,1.626
0.182,1.019,0.378,1.677,0.164,-0.034,-0.692,-0.890,1.700,0.378,0.833,1.159,-0.021,0.234,0.317,0.300,1.153,-0.066,-1.015,1.611,-0.659,-0.261,1.300,0.966,0.227,-0.342,0.584,1.129,0.608,-0.260,0.178,1.175,0.483,-0.110,0.958,1.459
0.025,1.042,0.394,1.411,0.151,0.132,-0.793,-1.084,1.596,0.279,0.960,1.026,-0.442,0.790,0.240,0.403,0.856,0.048,-1.368,1.846,-0.902,-0.363,1.334,1.006,0.288,-0.376,0.843,1.177,0.597,-0.142,0.136,1.393,0.323,-0.044,1.016,1.311
0.068,1.040,0.493,1.518,0.164,0.075,-0.509,-0.644,1.210,0.286,1.140,0.852,-0.489,0.944,0.210,0.401,0.768,0.128,-1.624,1.859,-0.857,-0.295,1.336,1.000,0.228,-0.094,0.512,1.030,0.690,0.013,0.100,1.297,0.395,0.442,0.637,1.174
0.090,0.986,0.612,1.572,0.029,0.123,-0.431,-0.434,0.860,0.320,1.130,0.765,-0.421,1.010,0.215,0.381,0.625,0.322,-1.309,1.636,-0.804,-0.254,1.363,0.893,0.420,0.026,0.111,1.051,0.624,0.019,0.417,1.181,0.399,0.403,0.742,1.031
0.299,1.063,0.459,1.617,-0.036,0.041,-0.300,-0.152,0.557,0.398,1.362,0.825,-0.515,1.248,0.022,0.233,0.778,0.253,-1.154,1.849,-0.853,-0.155,1.329,0.877,0.601,-0.023,0.087,1.051,0.578,0.202,0.322,1.231,0.312,-0.062,1.108,1.194
0.454,0.832,0.389,1.808,-0.066,-0.083,-0.055,-0.368,0.496,0.473,1.374,0.669,-0.618,1.245,0.205,0.058,0.921,0.118,-0.994,1.586,-0.656,-0.315,1.506,0.870,0.571,-0.093,0.043,1.431,0.319,-0.023,0.443,0.965,0.517,-0.029,1.189,1.243
0.619,0.546,0.536,1.520,0.207,-0.066,0.126,-0.323,0.280,0.482,1.252,0.755,-0.818,1.367,0.057,0.056,0.862,-0.038,-0.799,1.190,-0.558,-0.356,1.522,0.833,0.571,-0.259,0.350,1.755,0.213,-0.364,0.307,0.958,0.471,-0.335,1.401,1.271
0.395,0.481,0.690,1.135,0.145,0.233,-0.039,-0.044,0.053,0.634,1.149,0.770,-0.946,1.562,-0.043,0.214,0.828,0.078,-0.865,1.320,-0.551,-0.393,1.604,0.716,0.253,-0.448,0.860,1.740,0.186,-0.302,0.131,1.059,0.548,-0.268,1.344,1.331
0.586,0.354,0.743,0.888,0.363,0.394,-0.192,-0.376,0.330,0.407,1.212,0.908,-1.332,2.154,-0.515,0.290,0.825,0.159,-0.926,1.458,-0.724,-0.570,1.784,0.644,0.679,-0.653,0.519,1.722,0.170,-0.217,-0.044,1.228,0.486,-0.744,1.625,1.486
0.395,0.321,0.834,0.901,0.446,0.414,0.159,-0.500,0.468,0.419,1.293,0.923,-1.399,1.976,-0.321,0.483,0.726,0.145,-0.661,1.385,-0.656,-0.627,1.731,0.802,0.389,-0.617,0.620,1.682,0.265,-0.195,-0.032,1.233,0.648,-0.913,1.662,1.498
0.581,0.349,0.721,0.936,0.428,0.415,0.453,-0.377,0.081,0.359,1.285,0.829,-1.004,1.668,0.140,0.638,0.400,0.343,-0.716,1.124,-0.377,-0.753,1.849,0.804,0.761,-0.584,0.160,1.633,0.167,-0.068,-0.176,1.312,0.579,-0.769,1.724,1.196
0.638,0.325,0.877,1.041,0.284,0.366,0.372,-0.222,0.156,0.561,1.189,0.971,-1.009,1.637,0.149,0.417,0.556,0.396,-0.727,1.124,-0.358,-0.774,1.953,0.755,0.225,-0.393,0.768,1.725,0.093,-0.139,0.037,0.973,0.744,-0.849,1.721,1.377
0.886,0.310,0.743,1.112,0.356,0.143,0.452,-0.253,0.013,0.553,1.094,1.051,-0.813,1.499,0.186,0.459,0.457,0.385,-0.637,1.155,-0.502,-0.839,1.861,0.765,-0.003,-0.323,0.749,1.618,0.328,-0.159,0.017,1.145,0.523,-1.019,1.707,1.312
0.745,0.295,0.702,1.146,0.164,0.279,0.148,-0.033,0.180,0.441,1.137,0.999,-0.852,1.654,-0.097,0.331,0.581,0.298,-0.528,1.106,-0.474,-0.696,1.810,0.714,0.391,-0.642,0.658,1.684,0.200,-0.182,-0.033,1.159,0.579,-1.664,2.066,1.550
0.769,0.514,0.573,1.067,0.390,0.286,0.401,0.147,-0.024,0.547,1.398,0.927,-0.466,1.372,-0.120,0.313,0.795,0.239,-0.377,0.982,-0.317,-0.671,1.900,0.585,0.779,-0.692,0.295,1.592,0.278,-0.150,0.152,1.112,0.492,-1.445,1.626,1.634
0.629,0.750,0.314,1.490,0.230,-0.060,0.601,0.280,-0.201,0.571,1.239,0.864,-0.479,1.311,-0.029,0.729,0.571,-0.037,-0.137,0.797,-0.258,-0.773,1.949,0.605,0.380,-0.299,0.358,1.621,0.247,-0.101,-0.161,1.440,0.349,-0.941,1.115,1.874
0.878,0.648,0.273,1.164,0.421,0.097,0.481,0.295,-0.191,0.447,1.169,1.101,-0.418,0.993,-0.088,0.709,0.619,-0.152,-0.320,0.755,-0.165,-0.737,2.103,0.307,0.365,0.113,0.341,1.777,0.183,-0.238,-0.047,1.292,0.445,-0.850,0.976,2.087
0.809,0.797,0.088,1.247,0.419,-0.018,0.287,0.540,-0.121,0.509,1.163,1.114,-0.595,1.191,0.065,0.430,0.858,-0.249,-0.354,0.840,-0.024,-0.579,2.036,0.277,0.437,-0.011,0.446,1.628,0.238,0.003,-0.053,1.173,0.648,-0.708,0.938,1.944
0.412,1.061,0.194,1.158,0.276,0.206,0.132,0.408,0.018,0.705,1.049,0.950,-0.391,0.966,0.280,0.622,0.672,-0.141,-0.340,0.981,-0.182,-0.397,1.870,0.348,0.430,0.039,0.291,1.659,0.276,-0.058,-0.110,1.390,0.531,-0.413,0.700,1.853
0.601,0.936,0.095,1.294,0.369,0.131,-0.093,0.330,0.342,0.597,1.128,0.935,-0.657,1.137,0.160,0.630,0.746,-0.140,-0.356,0.986,-0.351,-0.206,1.687,0.457,0.519,-0.200,0.458,1.318,0.383,0.171,-0.012,1.504,0.373,0.297,-0.236,2.000
0.836,0.809,0.159,1.321,0.387,0.105,-0.311,0.246,0.663,0.727,0.911,0.899,-0.524,1.180,0.233,0.725,0.574,-0.131,-0.268,0.968,-0.405,-0.151,1.681,0.443,0.053,-0.287,0.881,1.279,0.311,0.188,-0.167,1.531,0.352,0.057,0.220,1.958
1.029,0.641,0.097,1.247,0.286,0.196,-0.321,0.083,0.771,0.768,0.899,0.940,-0.560,1.223,0.163,0.765,0.566,-0.006,-0.213,1.038,-0.327,-0.082,1.633,0.338,-0.033,-0.131,0.868,1.162,0.405,0.274,-0.206,1.654,0.260,-0.211,0.428,2.030
0.816,0.672,0.243,1.153,0.365,0.027,0.003,-0.043,0.589,0.870,0.945,0.920,-0.329,0.764,0.584,1.070,0.399,-0.040,0.077,0.897,-0.530,-0.151,1.723,0.322,-0.030,-0.305,0.992,1.123,0.258,0.389,-0.335,1.697,0.283,-0.274,0.784,1.728
0.745,0.590,0.336,1.059,0.373,0.080,-0.022,0.072,0.446,0.803,1.181,0.811,-0.155,0.453,0.728,0.940,0.517,0.016,-0.245,1.218,-0.706,-0.201,1.808,0.187,0.155,-0.526,0.869,1.344,0.064,0.406,-0.262,1.664,0.291,-0.632,1.142,1.657
0.756,0.469,0.455,1.027,0.293,0.101,-0.065,0.023,0.560,0.874,1.128,0.917,-0.102,0.528,0.610,0.874,0.485,0.014,-0.743,1.659,-0.844,-0.314,1.777,0.247,0.061,-0.493,0.936,1.620,-0.120,0.237,-0.185,1.612,0.294,-0.259,0.724,1.572
0.582,0.417,0.636,1.325,0.324,-0.191,0.177,-0.097,0.433,0.850,1.129,0.759,-0.152,0.541,0.738,0.822,0.596,-0.049,-0.635,1.465,-0.657,-0.408,1.852,0.249,-0.033,-0.295,0.830,1.436,0.066,0.161,-0.070,1.475,0.361,-0.009,0.768,1.337
0.585,0.485,0.648,1.427,0.177,-0.124,0.277,-0.144,0.556,0.914,1.035,0.779,-0.341,0.769,0.635,0.786,0.693,0.044,-0.456,1.301,-0.600,-0.273,1.807,0.110,-0.029,-0.328,0.604,1.240,0.358,0.185,0.079,1.139,0.539,0.242,0.549,1.163
0.294,0.535,0.858,1.372,0.060,0.107,0.006,-0.073,0.647,0.815,1.111,0.759,-0.520,1.011,0.706,0.848,0.734,0.030,-0.740,1.577,-0.543,-0.299,1.834,0.112,-0.196,-0.033,0.796,1.578,0.142,-0.054,-0.066,1.166,0.604,0.314,0.626,1.094
0.153,0.635,0.802,1.565,-0.062,-0.030,-0.182,0.059,0.699,0.855,1.064,0.807,-0.304,0.987,0.539,0.855,0.601,-0.040,-0.701,1.311,-0.367,-0.404,1.897,0.216,-0.224,-0.176,0.894,1.506,0.263,-0.068,-0.017,0.939,0.768,0.077,0.502,1.352
0.231,0.539,0.756,1.558,-0.035,-0.110,-0.098,-0.043,0.684,0.796,1.163,0.801,-0.306,1.207,0.173,0.862,0.641,-0.110,-0.389,1.289,-0.531,-0.448,2.012,0.123,-0.062,-0.313,0.891,1.729,0.086,-0.193,0.218,0.868,0.833,0.159,0.399,1.310
0.306,0.459,0.783,1.642,-0.137,-0.129,-0.084,-0.019,0.474,0.818,1.101,0.770,-0.191,1.130,0.022,0.812,0.365,0.122,-0.199,1.090,-0.575,-0.369,2.068,0.108,0.105,-0.103,0.688,1.833,-0.064,-0.215,0.164,0.855,0.799,-0.164,0.792,1.322
0.533,0.378,0.683,1.748,-0.179,-0.096,0.095,0.160,0.268,0.916,0.816,0.921,-0.107,1.117,0.009,0.761,0.335,0.187,-0.233,0.967,-0.584,-0.215,1.750,0.367,0.114,-0.303,0.967,1.779,-0.021,-0.194,-0.031,1.138,0.661,0.005,0.496,1.447
0.615,0.374,0.562,1.788,-0.066,-0.111,0.400,-0.000,0.158,0.768,1.000,0.911,-0.167,1.099,0.005,0.531,0.572,0.186,-0.535,1.178,-0.715,-0.333,1.820,0.491,0.137,-0.530,1.055,1.786,-0.003,-0.167,-0.119,1.073,0.813,-0.455,1.180,1.288
0.469,0.600,0.554,1.674,-0.003,-0.052,0.215,0.233,0.180,0.799,1.136,0.587,-0.242,1.229,0.041,0.474,0.681,0.144,-0.301,0.980,-0.639,-0.299,1.771,0.442,0.080,-0.105,0.912,1.879,0.043,-0.172,-0.147,1.235,0.682,0.563,0.269,1.166
0.587,0.513,0.465,1.361,0.249,0.147,0.275,0.154,0.165,0.598,1.269,0.716,-0.153,0.941,0.223,0.364,0.458,0.455,-0.168,0.939,-0.488,-0.166,1.671,0.494,0.269,-0.135,0.671,1.995,-0.127,-0.164,-0.189,1.177,0.867,0.228,0.722,0.884
0.379,0.770,0.392,1.441,0.092,0.179,0.081,0.275,0.157,0.572,1.320,0.789,-0.255,1.204,0.262,0.416,0.450,0.422,-0.263,0.991,-0.523,-0.096,1.740,0.529,0.245,-0.213,0.733,1.724,0.104,-0.111,-0.428,1.421,0.696,0.326,0.710,0.932
0.391,0.633,0.616,1.278,0.091,0.258,0.222,-0.047,0.326,0.341,1.335,0.761,-0.187,0.995,0.325,0.717,0.191,0.244,-0.192,0.949,-0.633,-0.024,1.819,0.448,0.092,-0.288,0.667,1.586,0.087,-0.064,-0.473,1.602,0.465,0.191,0.831,0.977
0.555,0.449,0.667,1.277,0.027,0.163,0.026,0.134,0.375,0.501,1.255,0.769,-0.062,1.038,0.363,0.823,0.083,-0.055,-0.301,0.856,-0.378,-0.111,1.872,0.465,-0.132,-0.095,0.789,1.453,0.201,-0.186,-0.323,1.516,0.492,0.155,0.816,0.903
0.689,0.751,0.272,1.374,-0.078,0.244,-0.174,0.278,0.380,0.486,1.254,0.681,-0.069,1.126,0.207,0.751,0.105,0.022,-0.455,1.058,-0.193,-0.075,1.843,0.374,-0.504,0.146,0.915,1.257,0.314,0.068,-0.544,1.466,0.527,0.187,0.882,0.997
0.818,0.670,0.202,1.320,0.220,0.019,-0.210,0.095,0.406,0.330,1.139,0.873,0.077,0.853,0.232,0.914,-0.139,0.130,-0.417,1.097,-0.287,-0.140,1.729,0.507,0.102,-0.166,0.586,1.214,0.338,-0.013,-0.419,1.269,0.680,0.502,0.573,0.919
0.774,0.739,0.365,1.409,0.287,-0.132,0.177,-0.048,0.218,0.290,1.236,0.732,-0.037,1.112,0.040,1.092,-0.381,0.240,-0.477,1.067,-0.457,-0.125,1.698,0.506,-0.076,-0.059,0.748,1.250,0.288,0.042,-0.452,1.264,0.622,0.759,0.429,0.830
0.644,0.652,0.453,1.364,0.217,-0.183,0.154,-0.258,0.466,0.118,1.125,1.034,0.149,1.031,-0.022,1.138,-0.403,0.267,-0.353,0.974,-0.280,-0.140,1.677,0.613,-0.138,-0.342,0.945,1.124,0.440,0.125,-0.519,1.425,0.528,0.567,0.627,1.015
0.537,0.825,0.323,1.263,0.099,0.114,0.133,0.043,0.326,0.165,1.172,1.051,0.104,0.923,0.132,1.171,-0.591,0.491,-0.511,0.859,-0.262,-0.169,1.765,0.551,-0.216,-0.411,0.880,1.090,0.440,0.208,-0.330,1.273,0.590,0.905,0.231,1.126
0.747,0.464,0.364,1.240,0.248,0.102,0.130,-0.117,0.413,0.201,1.168,0.964,0.101,1.114,0.080,1.264,-0.695,0.485,-0.424,0.978,-0.383,-0.189,1.712,0.747,0.012,-0.481,0.771,1.241,0.269,0.228,-0.564,1.595,0.269,0.626,0.157,1.383
0.533,0.593,0.551,1.231,0.273,0.020,0.209,-0.285,0.587,0.537,1.091,1.009,0.027,1.207,-0.116,0.987,-0.299,0.521,-0.717,1.408,-0.488,-0.127,1.640,0.823,-0.096,-0.420,1.015,1.288,0.249,0.278,-0.674,1.957,-0.054,1.150,-0.609,1.548
0.459,0.818,0.291,1.351,0.087,-0.179,0.442,-0.622,0.525,0.423,1.018,1.088,-0.210,1.267,-0.056,0.809,-0.356,0.760,-0.547,1.366,-0.466,-0.113,1.647,0.752,-0.360,-0.418,1.208,1.434,0.139,0.322,-0.500,1.726,0.107,1.435,-0.860,1.582
0.307,0.853,0.514,1.350,-0.171,-0.008,0.408,-0.349,0.346,0.544,1.207,1.005,-0.366,1.350,-0.156,0.672,-0.340,0.862,-0.524,1.416,-0.413,-0.143,1.835,0.715,0.094,-0.599,1.017,1.339,0.318,0.301,-0.397,1.780,-0.020,1.139,-0.395,1.223
0.573,0.695,0.656,1.178,0.211,0.165,0.315,-0.509,0.748,0.562,1.142,0.918,-0.490,1.448,-0.402,0.835,-0.437,0.655,-0.214,1.118,-0.300,0.027,1.704,0.647,-0.107,-0.634,1.192,1.278,0.373,0.240,-0.529,1.695,0.196,0.984,-0.272,1.228
0.516,0.815,0.565,0.853,0.380,0.091,0.352,-0.595,0.589,0.437,1.029,1.101,-0.495,1.369,-0.388,0.917,-0.451,0.581,-0.363,1.241,-0.399,-0.162,1.891,0.649,-0.027,-0.509,1.082,1.303,0.422,0.279,-0.525,1.749,0.078,0.904,-0.151,1.258
0.696,0.713,0.527,0.749,0.573,0.152,-0.072,-0.569,0.797,0.517,0.974,1.206,-0.474,1.291,-0.374,1.027,-0.366,0.425,-0.316,1.304,-0.521,-0.287,1.906,0.685,-0.066,-0.518,1.277,1.124,0.565,0.252,-0.360,1.769,0.028,0.905,-0.149,1.270
0.530,0.739,0.656,0.844,0.446,0.205,-0.250,-0.455,1.033,0.592,0.978,1.088,-0.583,1.459,-0.369,0.950,-0.466,0.648,-0.061,1.061,-0.304,-0.164,1.724,0.692,-0.260,-0.405,1.373,1.059,0.568,0.294,-0.302,1.701,0.191,0.644,-0.005,1.336
0.344,0.958,0.512,0.926,0.422,0.151,-0.154,-0.612,0.899,0.662,1.186,0.957,-0.472,1.163,-0.169,0.836,-0.408,0.762,-0.018,1.123,-0.290,-0.220,1.754,0.694,-0.170,-0.670,1.372,1.161,0.467,0.258,-0.069,1.576,0.209,0.211,0.180,1.553
0.412,0.975,0.267,0.810,0.361,0.317,-0.337,-0.797,1.150,0.666,1.121,1.118,-0.360,1.124,-0.302,0.820,-0.302,0.745,-0.088,1.166,-0.310,-0.264,1.781,0.729,-0.144,-0.510,1.302,1.371,0.239,0.203,0.106,1.554,0.147,0.549,-0.241,1.515
0.542,0.868,0.294,0.820,0.367,0.355,-0.279,-0.790,0.952,0.540,1.145,0.994,-0.514,1.292,-0.244,0.881,-0.386,0.666,-0.412,1.366,-0.418,-0.094,1.762,0.534,-0.360,-0.401,1.318,1.446,0.153,0.187,0.070,1.427,0.363,-0.009,0.241,1.680
0.542,1.029,0.121,0.745,0.494,0.125,-0.492,-1.015,1.289,0.618,1.189,0.850,-0.238,1.139,-0.322,0.449,-0.121,0.817,-0.449,1.365,-0.462,-0.089,1.775,0.554,0.017,-0.365,0.980,1.348,0.160,0.293,0.021,1.376,0.502,0.107,0.142,1.864
0.530,1.204,0.037,0.647,0.475,0.081,-0.635,-0.798,1.341,0.659,1.165,0.793,-0.352,1.129,-0.027,0.471,-0.112,0.800,-0.450,1.227,-0.354,-0.140,1.706,0.671,0.322,-0.491,0.745,1.223,0.166,0.216,0.201,1.235,0.492,-0.454,0.817,1.681
0.422,1.438,0.006,0.647,0.469,0.317,-0.691,-0.696,1.182,0.655,1.133,0.832,-0.233,0.988,0.046,0.458,-0.019,0.929,-0.659,1.318,-0.573,-0.224,1.869,0.570,0.382,-0.677,0.958,0.999,0.256,0.214,0.085,1.329,0.461,-0.069,0.691,1.558
0.480,1.324,-0.016,0.415,0.740,0.376,-0.587,-0.610,1.024,0.614,1.059,0.845,-0.265,1.189,-0.005,0.520,0.022,0.868,-0.411,0.976,-0.342,-0.389,1.916,0.647,0.350,-0.717,0.912,0.736,0.426,0.504,0.064,1.432,0.197,-0.427,0.937,1.642
0.300,1.411,-0.051,0.414,1.048,0.142,-0.617,-0.312,0.994,0.556,0.981,1.012,-0.235,1.210,-0.033,0.544,-0.108,0.857,-0.394,0.958,-0.218,-0.276,1.905,0.596,0.156,-0.762,0.984,0.914,0.196,0.480,0.097,1.517,0.229,-0.316,1.013,1.246
0.334,1.495,-0.102,0.454,0.901,0.253,-0.685,-0.330,1.078,0.462,1.050,0.879,-0.096,1.219,-0.363,0.786,-0.289,0.847,-0.311,0.846,-0.115,-0.492,2.013,0.531,0.197,-0.832,1.058,1.073,0.057,0.470,0.095,1.440,0.279,-0.862,1.524,1.298
0.318,1.523,-0.083,0.514,0.713,0.170,-0.438,-0.158,0.903,0.806,0.959,0.760,0.087,1.155,-0.273,0.699,-0.157,0.889,-0.237,0.944,-0.196,-0.549,2.082,0.564,0.165,-0.178,0.887,0.995,0.071,0.625,0.230,1.570,-0.033,-1.331,1.845,1.488
0.193,1.386,-0.004,0.759,0.595,0.190,-0.453,-0.255,0.949,0.683,1.145,0.679,0.295,0.979,-0.401,0.775,-0.181,0.833,-0.090,0.854,-0.203,-0.633,2.079,0.468,0.234,-0.222,0.759,1.020,0.101,0.656,0.235,1.540,0.005,-0.880,1.149,1.509
0.089,1.651,-0.038,0.914,0.579,0.190,-0.773,-0.579,1.374,0.672,1.120,0.806,0.212,1.016,-0.424,0.522,0.163,0.751,-0.010,0.704,0.003,-0.766,2.180,0.490,0.252,-0.586,0.830,1.175,0.086,0.579,0.118,1.671,-0.044,-1.002,1.387,1.479
0.080,1.355,0.338,0.939,0.495,0.119,-0.743,-0.277,1.103,0.606,0.976,0.867,0.593,0.804,-0.557,0.605,0.175,0.789,0.011,0.625,-0.046,-0.735,2.175,0.490,0.148,-0.630,1.196,1.183,0.217,0.497,0.058,1.814,-0.146,-0.639,0.960,1.303
0.248,1.312,0.331,1.093,0.341,0.104,-0.831,-0.446,1.381,0.536,0.914,0.988,0.543,0.695,-0.206,0.693,0.228,0.758,-0.095,0.778,-0.091,-0.642,2.087,0.554,-0.045,-0.795,1.324,1.153,0.220,0.445,0.230,1.617,0.045,-1.003,1.075,1.615
0.115,1.284,0.322,1.229,0.253,-0.096,-0.654,-0.043,1.006,0.529,1.012,0.837,0.283,1.004,-0.339,0.703,0.176,0.826,-0.204,0.584,0.050,-0.876,2.372,0.435,0.014,-0.678,1.177,1.054,0.339,0.566,0.215,1.465,0.199,-0.793,0.668,1.616
0.146,1.263,0.355,1.584,0.007,-0.308,-0.465,0.182,0.813,0.479,0.951,0.952,0.167,1.032,-0.414,0.665,0.228,0.757,-0.452,0.929,-0.213,-0.819,2.319,0.501,0.158,-0.461,1.039,1.091,0.289,0.570,0.208,1.459,0.153,-0.173,0.104,1.597
0.112,1.237,0.550,1.453,-0.017,-0.175,-0.249,-0.073,0.957,0.494,0.641,1.340,0.284,0.649,-0.059,0.549,0.369,0.639,-0.183,0.561,-0.005,-0.994,2.591,0.394,0.251,-0.353,0.675,1.015,0.415,0.513,0.068,1.457,0.189,0.447,-0.357,1.477
0.012,1.206,0.634,1.235,0.313,-0.123,-0.367,-0.177,1.043,0.498,0.447,1.562,0.442,0.573,-0.300,0.575,0.286,0.608,-0.398,0.631,0.197,-1.016,2.578,0.358,0.150,-0.222,0.619,0.948,0.639,0.544,0.061,1.334,0.315,-0.139,0.355,1.658
-0.012,1.334,0.573,1.112,0.232,0.003,-0.333,-0.526,1.197,0.765,0.458,1.270,0.475,0.352,0.092,0.569,0.315,0.638,-0.231,0.527,0.107,-1.044,2.638,0.224,0.316,-0.033,0.502,0.825,0.835,0.426,0.161,1.276,0.432,-0.379,0.460,2.032
-0.078,1.543,0.448,1.187,0.083,0.040,-0.356,-0.794,1.243,0.777,0.405,1.313,0.586,0.250,-0.363,0.792,0.102,0.555,-0.442,0.992,-0.175,-0.971,2.621,0.273,0.243,-0.157,0.565,0.630,1.047,0.266,0.100,1.270,0.507,-0.093,0.044,2.183
-0.009,1.408,0.461,1.360,-0.285,0.237,0.065,-0.508,0.834,1.027,0.205,1.133,0.405,0.406,-0.220,0.613,0.129,0.804,-0.439,0.993,-0.047,-1.119,2.956,0.071,0.266,0.149,0.517,0.618,1.026,0.322,0.038,1.282,0.549,-0.473,0.077,2.621
0.152,1.324,0.461,0.898,-0.043,0.354,-0.362,-0.434,1.152,0.754,0.215,1.259,0.691,0.298,-0.274,0.576,0.034,0.748,-0.578,1.171,-0.182,-0.936,2.711,0.152,0.654,-0.057,0.266,0.423,1.094,0.535,0.213,1.110,0.628,-0.554,0.350,2.448
0.292,1.223,0.293,1.049,-0.180,0.355,-0.330,-0.577,1.143,0.798,0.370,1.159,0.429,0.449,-0.289,0.723,-0.084,0.652,-0.679,0.932,0.104,-0.978,2.662,0.178,0.810,-0.013,0.273,0.612,0.925,0.586,0.208,1.233,0.527,-0.585,0.258,2.478
0.272,1.017,0.657,1.296,-0.213,-0.033,-0.415,-0.400,1.111,0.706,0.551,1.300,0.653,0.396,-0.585,0.706,-0.105,0.660,-0.572,1.058,-0.068,-1.019,2.638,0.238,0.598,0.150,0.244,0.631,1.018,0.427,0.427,1.107,0.356,-0.228,0.247,2.082
0.332,0.596,0.985,1.440,-0.046,-0.132,-0.083,-0.566,0.890,0.714,0.716,1.284,0.805,0.305,-0.649,0.879,-0.039,0.496,-0.634,1.057,0.017,-0.882,2.494,0.283,0.423,0.149,0.440,0.825,0.875,0.410,0.239,1.319,0.326,0.316,-0.053,1.644
0.267,0.599,1.107,1.603,-0.088,-0.225,0.209,-0.605,0.493,0.884,0.750,1.083,0.861,0.436,-1.048,0.508,0.207,0.791,-0.594,1.123,-0.163,-0.851,2.503,0.331,0.454,0.260,0.127,0.802,0.955,0.461,0.381,1.218,0.347,0.894,-0.416,1.513
0.215,0.688,1.114,1.473,-0.093,0.036,0.060,-0.681,0.494,0.882,0.860,0.823,1.041,0.346,-0.738,0.595,0.326,0.702,-0.457,0.991,-0.185,-0.680,2.254,0.477,0.553,0.428,-0.177,0.755,0.923,0.458,0.320,1.119,0.441,0.762,-0.580,1.731
0.169,0.514,1.200,1.579,-0.213,-0.100,0.377,-0.608,0.340,0.833,0.642,0.910,1.123,0.194,-0.701,0.626,0.196,0.707,-0.421,0.783,-0.054,-0.534,2.108,0.547,1.030,-0.022,-0.305,0.680,0.806,0.594,0.272,1.241,0.338,0.713,-0.723,1.883
0.198,0.488,1.191,1.596,-0.343,-0.002,0.570,-0.389,0.099,0.598,0.601,1.176,1.137,0.097,-0.464,0.623,0.453,0.281,-0.293,0.731,-0.033,-0.658,2.289,0.349,0.664,0.086,0.002,0.609,0.735,0.661,0.399,1.151,0.399,1.185,-1.188,1.748
0.199,0.453,1.189,1.469,-0.299,0.239,0.625,-0.152,-0.072,0.760,0.690,1.251,1.051,0.308,-0.533,0.790,0.306,0.133,-0.237,0.480,0.120,-0.685,2.270,0.354,0.244,0.127,0.406,0.530,0.750,0.664,0.428,1.127,0.476,1.142,-1.452,1.989
0.141,0.586,1.120,1.345,-0.255,0.206,0.603,-0.285,-0.011,0.590,0.621,1.370,0.684,0.567,-0.241,1.043,0.289,0.064,-0.568,0.898,0.180,-0.638,2.107,0.366,0.283,0.070,0.448,0.542,0.723,0.573,0.530,0.952,0.543,0.831,-0.957,1.841
0.328,0.576,1.122,1.577,-0.260,-0.060,0.514,-0.435,-0.000,0.562,0.725,1.333,0.321,0.829,-0.287,0.808,0.440,0.187,-0.610,0.812,0.325,-0.507,1.854,0.517,0.204,0.267,0.469,0.694,0.863,0.432,0.375,0.995,0.617,0.730,-0.639,1.482
0.316,0.674,0.894,1.593,-0.116,0.015,0.315,-0.369,0.036,0.555,0.692,1.398,0.487,0.664,-0.293,1.015,0.494,0.058,-0.433,0.745,0.406,-0.524,1.954,0.436,0.133,0.385,0.587,0.801,0.974,0.205,0.412,0.825,0.715,0.543,-0.347,1.226
0.481,0.701,0.714,1.762,-0.545,0.259,0.554,-0.456,-0.173,0.657,0.691,1.248,0.378,0.821,-0.341,0.607,0.822,-0.009,-0.710,0.785,0.493,-0.796,2.180,0.336,0.086,0.495,0.510,1.161,0.571,0.181,0.370,0.928,0.644,0.725,-0.540,1.214
0.544,0.525,0.848,1.774,-0.676,0.269,0.191,-0.167,-0.156,0.415,0.689,1.291,0.193,0.838,-0.242,0.683,0.636,-0.012,-0.143,0.535,0.287,-0.792,2.132,0.375,0.175,0.238,0.758,1.060,0.549,0.234,0.357,0.854,0.813,0.603,-0.649,1.317
0.444,0.559,0.949,1.446,-0.379,0.338,0.217,0.109,-0.397,0.481,0.809,1.050,0.292,0.731,0.058,0.554,0.813,0.067,-0.296,0.805,0.185,-0.722,2.004,0.445,0.209,0.101,0.797,0.857,0.674,0.142,0.353,0.932,0.670,0.565,-0.487,1.414
0.303,0.623,0.919,1.164,-0.115,0.332,0.187,-0.073,-0.318,0.537,0.628,1.094,0.327,0.809,-0.155,0.423,0.803,0.066,-0.521,1.138,-0.128,-0.895,2.093,0.434,0.354,-0.107,0.813,0.874,0.855,0.115,0.547,0.870,0.592,0.708,-0.441,1.394
0.303,0.640,0.910,1.249,-0.182,0.378,-0.219,-0.039,0.133,0.522,0.787,0.986,0.568,0.639,-0.150,0.651,0.715,-0.162,-0.557,1.133,-0.341,-0.781,2.165,0.350,0.272,-0.105,0.880,0.988,0.745,0.142,0.308,1.030,0.542,1.023,-0.600,1.240
0.282,0.513,0.975,1.045,-0.201,0.502,0.036,-0.413,0.501,0.592,0.708,0.975,0.455,0.596,-0.240,0.352,0.979,-0.136,-0.416,1.159,-0.496,-0.714,2.164,0.245,0.180,-0.145,0.998,0.972,0.667,0.212,0.149,1.149,0.511,1.238,-0.769,1.524
0.215,0.615,0.875,0.875,-0.098,0.607,0.266,-0.565,0.486,0.723,0.834,0.889,0.155,0.662,-0.003,0.116,0.989,-0.030,-0.494,0.975,-0.306,-0.847,2.379,0.140,0.280,-0.095,0.899,0.847,0.793,0.132,0.253,1.101,0.615,1.412,-0.838,1.529
-0.082,0.634,1.169,1.056,-0.158,0.439,0.033,-0.162,0.461,0.772,0.702,1.007,-0.048,0.988,-0.176,-0.005,1.042,0.124,-0.407,1.051,-0.348,-0.906,2.519,-0.008,0.381,0.009,0.686,0.803,0.860,0.109,0.257,1.142,0.475,1.393,-0.967,1.720
-0.348,0.931,1.082,1.049,-0.091,0.495,0.108,-0.136,0.491,0.572,0.687,1.023,0.004,0.959,-0.222,0.180,1.016,0.083,-0.171,0.833,-0.262,-0.961,2.471,0.076,0.399,0.056,0.694,1.084,0.633,0.141,0.197,0.976,0.795,0.469,-0.107,1.883
-0.396,0.916,1.128,1.335,-0.195,0.216,-0.163,0.165,0.414,0.697,0.659,0.933,0.136,1.080,-0.440,0.323,0.945,0.112,-0.114,0.710,0.015,-1.088,2.675,0.020,0.423,0.081,0.642,1.224,0.432,0.097,0.031,1.309,0.555,0.891,-0.284,1.600
-0.413,1.072,0.936,1.385,-0.024,0.223,-0.001,0.261,0.204,0.544,0.471,1.145,0.167,1.031,-0.427,0.263,0.847,0.334,-0.305,0.680,0.156,-0.852,2.321,0.248,0.405,0.231,0.475,1.343,0.432,-0.038,0.082,1.397,0.478,0.880,-0.491,1.617
-0.198,0.929,0.881,1.381,0.120,0.238,-0.169,0.645,0.134,0.524,0.633,1.176,0.086,1.200,-0.576,0.231,0.830,0.305,-0.411,0.769,-0.035,-0.922,2.325,0.402,0.374,-0.048,0.620,0.974,0.546,0.128,-0.059,1.503,0.409,1.433,-1.065,1.760
-0.165,1.128,0.655,1.254,0.160,0.486,0.124,0.485,-0.003,0.483,0.571,1.097,0.590,0.700,-0.468,0.344,0.944,0.117,-0.452,0.463,0.246,-0.701,2.140,0.539,0.100,0.046,0.812,0.878,0.710,0.058,-0.151,1.392,0.491,0.629,0.038,1.469
-0.126,1.100,0.714,1.090,0.045,0.570,0.376,0.108,-0.161,0.544,0.671,1.097,0.825,0.625,-0.644,0.470,0.796,0.031,-0.080,0.317,0.235,-0.627,2.077,0.530,0.310,0.161,0.473,1.403,0.376,-0.107,-0.116,1.529,0.260,0.864,-0.153,1.452
-0.033,1.052,0.812,0.921,0.364,0.623,0.219,0.244,0.115,0.410,0.923,1.058,0.643,0.766,-0.696,0.569,0.590,0.184,-0.022,0.196,0.376,-0.664,2.012,0.524,0.420,0.067,0.575,1.282,0.463,0.157,-0.216,1.538,0.277,0.741,-0.024,1.453
0.006,0.952,0.754,1.208,0.177,0.449,0.058,0.453,0.032,0.450,0.911,0.962,0.600,0.718,-0.675,0.014,0.878,0.203,0.039,0.497,-0.215,-0.677,1.870,0.489,0.495,0.254,0.399,1.219,0.529,0.148,-0.157,1.350,0.447,1.219,-0.550,1.316
0.217,0.702,0.802,1.225,0.043,0.433,0.140,0.457,-0.085,0.288,1.017,0.933,0.342,1.073,-0.653,-0.096,1.032,0.108,0.195,0.620,-0.719,-0.697,1.847,0.374,0.319,0.326,0.470,1.244,0.527,0.059,-0.117,1.150,0.515,1.439,-0.741,1.384
0.251,0.311,1.131,1.595,-0.124,0.214,0.421,0.294,-0.251,0.445,0.937,0.932,0.777,0.621,-0.338,0.309,0.938,0.015,0.209,0.563,-0.693,-0.499,1.726,0.525,-0.017,0.498,0.487,1.216,0.556,-0.007,0.031,1.010,0.547,1.627,-0.928,1.245
0.350,0.275,1.122,1.711,-0.138,0.086,0.309,0.346,-0.028,0.148,1.075,0.845,0.720,0.574,-0.156,0.225,0.838,0.222,0.244,0.632,-0.647,-0.494,1.639,0.664,-0.084,0.479,0.620,1.143,0.686,0.100,-0.038,1.056,0.614,1.790,-0.957,1.152
0.152,0.496,0.977,1.327,0.018,0.312,0.555,0.264,-0.019,0.215,1.035,0.845,0.636,0.522,-0.226,0.387,0.665,0.316,0.222,0.475,-0.404,-0.523,1.719,0.536,-0.230,0.453,0.864,1.100,0.503,0.182,-0.036,1.131,0.625,1.719,-0.828,1.143
0.031,0.843,0.779,1.410,0.135,0.168,0.714,0.275,-0.177,0.238,0.654,1.095,0.688,0.529,-0.277,0.706,0.613,0.111,0.393,0.300,-0.398,-0.422,1.719,0.330,-0.052,0.315,0.847,1.071,0.551,0.149,-0.076,1.163,0.602,1.811,-0.844,1.179
0.135,0.796,0.658,1.063,0.200,0.439,0.263,0.443,0.257,0.490,0.593,1.001,0.905,0.260,-0.253,1.100,0.295,0.185,0.054,0.511,-0.393,-0.443,1.649,0.331,-0.094,0.349,0.777,1.056,0.574,0.158,-0.329,1.434,0.337,1.137,-0.091,1.139
0.368,0.689,0.525,0.880,0.197,0.499,0.055,0.272,0.400,0.475,0.753,0.939,0.911,0.313,-0.388,1.020,0.333,0.144,0.151,0.488,-0.449,-0.259,1.347,0.413,-0.056,0.561,0.645,0.939,0.536,0.287,-0.160,1.235,0.416,1.484,-0.430,1.190
0.359,0.712,0.507,1.027,0.125,0.373,-0.078,0.510,0.278,0.503,0.825,1.027,1.020,0.147,-0.350,0.778,0.524,0.260,0.318,0.443,-0.411,-0.177,1.390,0.461,0.032,0.497,0.485,0.643,0.844,0.198,-0.217,1.485,0.247,0.864,0.130,1.363
0.430,0.671,0.432,1.002,0.272,0.292,-0.011,0.535,0.241,0.498,0.955,0.834,1.270,-0.234,-0.272,0.902,0.424,0.215,-0.206,0.632,-0.338,-0.162,1.362,0.604,-0.130,0.813,0.299,0.531,1.036,0.329,-0.289,1.504,0.190,1.374,-0.508,1.427
0.545,0.601,0.387,0.876,0.387,0.244,0.108,0.413,0.348,0.452,0.861,0.611,1.068,-0.203,0.082,0.656,0.451,0.474,-0.002,0.674,-0.387,-0.137,1.432,0.549,-0.239,0.773,0.626,0.484,0.978,0.368,-0.382,1.466,0.327,1.418,-0.515,1.470
0.191,0.778,0.445,1.068,0.508,-0.050,-0.205,0.227,0.788,0.376,0.809,0.803,0.804,0.111,0.202,0.806,0.166,0.353,-0.086,0.453,-0.109,-0.115,1.523,0.385,-0.097,0.750,0.699,0.522,1.093,0.262,-0.251,1.508,0.258,1.720,-0.658,1.151
0.190,1.059,0.303,1.014,0.499,-0.029,-0.150,0.281,0.755,0.322,0.776,0.483,0.662,0.210,0.126,0.722,0.231,0.269,-0.117,0.550,-0.165,-0.191,1.655,0.408,-0.084,0.763,0.788,0.652,0.952,0.227,-0.024,1.296,0.273,2.347,-1.232,1.122
0.112,1.190,0.300,1.040,0.519,-0.077,-0.328,0.132,1.020,0.207,0.759,0.717,0.569,0.369,0.060,0.658,0.489,0.011,-0.004,0.331,-0.026,-0.228,1.510,0.489,-0.098,0.677,0.823,0.628,0.981,0.350,0.132,1.324,0.266,2.024,-0.945,0.992
0.185,1.145,0.172,1.106,0.623,-0.213,-0.274,-0.070,1.105,0.224,0.778,0.738,0.434,0.586,-0.022,0.592,0.536,-0.211,-0.224,0.508,0.102,-0.240,1.403,0.482,0.236,0.641,0.639,0.699,0.834,0.406,-0.114,1.389,0.276,1.510,-0.619,1.184
0.049,1.045,0.141,0.875,0.665,0.026,0.049,0.099,0.720,0.357,0.788,0.681,0.268,0.866,-0.229,0.805,0.412,-0.048,-0.354,0.440,0.040,-0.371,1.593,0.443,0.264,0.610,0.445,0.704,0.819,0.200,-0.076,1.367,0.227,1.378,-0.505,1.177
0.269,1.063,0.034,0.888,0.494,0.004,-0.055,0.126,0.741,0.330,0.554,0.980,0.287,0.906,-0.268,0.546,0.612,0.008,-0.169,0.384,-0.049,-0.172,1.448,0.577,0.527,0.456,0.428,0.825,0.844,0.116,-0.072,1.364,0.243,1.317,-0.190,0.959
0.165,1.160,0.192,0.913,0.624,-0.159,-0.222,-0.060,1.106,0.329,0.636,0.935,0.517,0.626,-0.471,0.208,0.895,0.070,-0.106,0.581,-0.338,-0.251,1.413,0.711,0.503,0.453,0.272,1.008,0.581,0.073,-0.018,1.298,0.251,1.328,-0.119,0.839
0.079,1.022,0.378,0.994,0.461,-0.100,-0.199,0.138,0.715,0.208,0.584,1.180,0.748,0.241,-0.274,0.091,1.063,0.326,-0.278,0.893,-0.273,-0.288,1.720,0.484,0.532,0.570,0.185,0.918,0.649,0.232,0.010,1.325,0.265,1.300,-0.186,0.930
0.109,1.061,0.439,1.205,0.361,-0.252,-0.103,0.131,0.658,0.407,0.677,1.285,0.895,0.183,-0.233,0.190,1.171,0.112,-0.332,1.155,-0.435,-0.363,1.860,0.344,0.627,0.419,0.121,0.916,0.753,0.253,0.106,1.276,0.252,1.550,-0.549,1.016
-0.037,1.151,0.537,1.164,0.403,-0.266,-0.113,-0.029,0.791,0.374,0.699,1.297,0.838,0.335,-0.083,0.407,0.877,0.064,-0.328,1.299,-0.608,-0.455,1.855,0.389,0.939,0.120,-0.000,0.768,0.751,0.227,0.184,1.198,0.317,2.094,-1.189,1.181
0.118,1.284,0.285,0.936,0.253,-0.042,-0.148,-0.008,0.736,0.426,0.528,1.284,0.678,0.378,0.151,0.295,0.922,0.190,-0.504,1.408,-0.429,-0.643,1.924,0.475,0.972,0.053,-0.033,0.720,0.887,0.187,0.371,1.117,0.346,2.001,-1.106,1.299
0.457,0.924,0.408,1.073,0.340,-0.192,-0.366,0.141,0.951,0.532,0.831,1.021,0.753,0.259,-0.020,0.358,0.866,0.211,-0.269,1.121,-0.439,-0.787,2.131,0.365,0.959,0.064,0.031,0.888,0.564,0.260,0.210,1.147,0.394,1.553,-0.858,1.546
0.341,0.916,0.542,0.774,0.404,0.008,-0.243,0.066,0.981,0.380,0.789,1.183,0.770,0.331,-0.182,0.374,0.842,0.058,-0.433,1.286,-0.653,-0.792,2.155,0.361,0.834,-0.308,0.128,1.140,0.560,-0.012,0.075,1.091,0.436,1.804,-0.963,1.319
0.160,0.864,0.483,0.980,0.088,-0.162,-0.414,-0.080,1.154,0.300,0.685,1.406,0.499,0.523,0.079,0.574,0.722,0.171,-0.499,1.234,-0.764,-0.611,1.820,0.615,0.670,-0.205,0.338,1.247,0.458,0.033,0.079,1.201,0.470,1.812,-1.075,1.497
0.330,1.048,0.341,0.749,0.197,0.291,-0.197,-0.055,0.809,0.197,0.806,1.340,0.568,0.529,-0.053,0.355,0.755,0.407,-0.328,1.227,-0.912,-0.662,2.001,0.613,0.805,-0.276,0.405,1.106,0.529,0.025,-0.055,1.074,0.634,1.847,-1.014,1.298
0.425,1.010,0.299,0.829,0.279,0.126,-0.200,-0.090,0.794,0.103,0.659,1.380,0.523,0.576,0.020,0.418,0.693,0.541,-0.236,1.298,-0.717,-0.603,1.826,0.689,0.748,-0.198,0.479,0.968,0.691,0.119,-0.088,1.219,0.349,1.464,-0.679,1.344
0.265,0.862,0.563,0.796,0.276,0.228,-0.115,-0.156,0.857,0.161,0.551,1.306,0.260,0.726,0.031,0.590,0.609,0.471,-0.059,1.143,-0.856,-0.487,1.753,0.640,0.651,-0.066,0.350,1.033,0.772,0.163,-0.020,1.181,0.340,0.883,-0.176,1.400
0.387,0.807,0.592,0.365,0.540,0.409,-0.249,-0.253,0.958,0.054,0.467,1.389,0.267,0.911,-0.001,0.555,0.508,0.598,-0.159,1.049,-0.730,-0.405,1.534,0.797,0.645,-0.010,0.240,1.068,0.751,0.235,-0.021,1.126,0.556,1.288,-0.410,1.156
0.529,0.904,0.415,0.443,0.463,0.352,-0.075,-0.337,0.714,0.256,0.343,1.357,0.145,0.881,0.169,0.472,0.609,0.659,-0.556,1.423,-0.718,-0.329,1.666,0.593,0.442,0.355,0.240,0.946,0.860,0.289,0.159,1.221,0.449,1.179,-0.349,1.238
0.437,0.865,0.522,0.549,0.491,0.224,-0.099,-0.317,0.503,0.462,0.324,1.187,0.299,0.924,0.007,0.673,0.335,0.602,-0.633,1.518,-0.823,-0.200,1.435,0.656,0.572,0.327,0.034,0.903,0.774,0.513,0.026,1.423,0.311,0.961,0.114,0.756
0.534,0.863,0.495,0.592,0.487,0.220,0.022,-0.151,0.463,0.205,0.494,1.156,0.282,0.791,0.039,0.566,0.312,0.692,-0.329,1.311,-0.649,-0.176,1.499,0.583,0.328,0.599,-0.084,0.911,0.718,0.603,0.012,1.567,0.090,0.554,0.369,0.936
0.637,0.632,0.594,0.639,0.471,0.200,0.064,0.014,0.393,-0.021,0.407,1.277,0.316,0.870,-0.245,0.519,0.384,0.749,-0.530,1.364,-0.782,-0.149,1.449,0.563,0.247,0.705,-0.104,0.837,0.889,0.415,-0.041,1.547,0.061,0.914,0.203,0.720
0.582,0.711,0.539,0.603,0.503,0.343,-0.035,-0.069,0.362,0.282,0.428,1.147,0.392,1.011,-0.475,0.460,0.593,0.624,-0.570,1.235,-0.873,-0.231,1.694,0.541,0.338,0.417,0.123,0.770,0.954,0.379,-0.144,1.703,0.003,1.014,-0.040,0.775
0.557,0.796,0.572,0.626,0.721,0.147,-0.039,0.204,0.278,0.244,0.702,1.001,0.600,0.866,-0.362,0.436,0.386,0.775,-0.639,1.227,-0.800,-0.213,1.676,0.572,0.334,0.441,0.266,0.760,0.870,0.425,-0.291,1.744,0.022,0.968,0.107,0.467
0.622,0.660,0.611,0.704,0.569,0.284,0.218,-0.124,0.342,0.377,0.746,0.944,0.482,0.980,-0.275,0.647,0.223,0.755,-0.895,1.377,-0.801,-0.219,1.747,0.438,0.388,0.438,-0.006,0.732,0.923,0.415,-0.430,1.868,-0.294,1.276,-0.204,0.412
0.453,0.547,0.749,0.783,0.488,0.374,0.355,-0.230,0.432,0.351,0.745,0.961,0.393,0.912,-0.232,0.854,0.153,0.579,-0.911,1.346,-0.619,-0.084,1.662,0.323,0.699,0.127,0.113,0.672,0.943,0.290,-0.285,1.630,-0.119,1.427,-0.418,0.454
0.493,0.672,0.647,0.752,0.374,0.432,0.252,0.155,0.300,0.453,0.881,0.701,0.534,0.838,-0.268,0.836,0.069,0.627,-1.114,1.532,-0.997,0.087,1.380,0.599,0.574,0.022,0.284,0.445,1.068,0.408,-0.364,1.849,-0.259,1.362,-0.287,0.579
0.426,0.721,0.510,0.787,0.405,0.393,0.426,-0.237,0.649,0.233,0.667,0.940,0.491,0.785,-0.048,0.808,0.080,0.575,-0.935,1.503,-0.932,-0.032,1.381,0.568,0.476,-0.208,0.841,0.561,1.061,0.310,-0.212,1.732,-0.197,0.605,0.488,0.637
0.452,0.790,0.452,0.900,0.295,0.393,0.545,-0.156,0.581,0.270,0.837,0.795,0.508,0.704,-0.176,0.946,0.090,0.510,-0.955,1.383,-0.836,-0.138,1.261,0.627,0.225,-0.336,0.969,0.610,1.086,0.249,0.084,1.615,-0.151,0.719,0.179,0.767
0.395,1.029,0.368,0.681,0.354,0.557,0.485,-0.163,0.594,0.040,0.957,0.969,0.867,0.516,-0.224,0.699,0.243,0.714,-0.710,1.193,-0.839,-0.155,1.297,0.573,0.634,-0.718,0.767,0.547,1.324,0.190,0.007,1.678,-0.259,0.346,0.504,0.920
0.200,1.036,0.461,0.697,0.129,0.606,0.183,-0.141,0.585,0.125,1.068,0.820,0.484,0.780,-0.286,0.672,0.319,0.803,-0.588,0.751,-0.808,-0.328,1.662,0.414,0.623,-0.644,0.805,0.448,1.369,0.169,-0.150,1.825,-0.265,0.736,0.052,1.246
0.183,1.089,0.368,0.884,0.259,0.444,0.087,-0.017,0.758,0.048,1.159,0.847,0.473,0.848,-0.247,0.545,0.188,0.834,-0.334,0.609,-0.750,-0.382,1.661,0.474,0.648,-0.769,0.804,0.464,1.455,0.125,-0.144,1.863,-0.210,1.067,-0.210,1.144
0.252,1.151,0.246,0.828,0.262,0.614,0.446,-0.130,0.498,0.161,1.401,0.710,0.806,0.541,-0.313,0.638,0.168,0.711,-0.046,0.371,-0.560,-0.139,1.443,0.477,0.882,-0.753,0.868,0.614,1.386,0.021,-0.517,2.008,-0.241,1.343,-0.436,1.029
0.392,0.889,0.383,0.849,0.266,0.691,0.396,-0.016,0.287,-0.048,1.317,0.672,0.651,0.548,-0.265,0.519,0.382,0.501,-0.262,0.635,-0.532,-0.273,1.509,0.560,0.543,-0.598,1.040,0.719,1.333,0.049,-0.316,1.840,-0.027,1.599,-0.763,1.146
0.008,1.035,0.481,0.778,0.188,0.884,0.419,0.020,0.309,-0.008,1.559,0.455,0.424,0.838,-0.295,0.913,0.152,0.271,-0.248,0.625,-0.401,-0.198,1.536,0.564,0.642,-0.271,0.653,0.696,1.514,-0.081,-0.245,1.878,-0.207,2.103,-1.352,1.105
-0.229,1.346,0.378,0.727,0.086,0.997,0.041,0.223,0.567,0.090,1.456,0.354,0.557,0.641,-0.348,0.641,0.451,0.252,-0.283,0.430,-0.322,-0.165,1.563,0.532,0.626,-0.145,0.563,0.779,1.305,0.153,-0.481,2.085,-0.245,1.828,-0.845,1.225
-0.020,1.083,0.654,0.927,-0.042,0.693,0.079,0.279,0.556,0.244,1.347,0.341,0.321,0.959,-0.355,0.576,0.534,0.377,-0.183,0.418,-0.169,-0.165,1.546,0.635,0.479,0.219,0.333,0.970,1.166,0.030,-0.676,2.231,-0.392,0.986,0.232,0.980
0.045,1.128,0.688,0.787,-0.216,0.894,-0.176,0.540,0.616,0.013,1.464,0.363,0.418,0.910,-0.556,0.642,0.842,0.107,-0.290,0.242,0.153,-0.178,1.647,0.431,0.451,0.329,0.219,0.898,1.124,0.149,-0.489,2.044,-0.290,0.741,0.544,0.812
0.277,1.090,0.461,0.607,-0.276,1.182,-0.200,0.774,0.356,-0.015,1.323,0.322,0.190,1.080,-0.630,0.524,0.999,-0.049,-0.215,0.180,0.278,-0.239,1.645,0.468,0.438,0.410,0.206,0.676,1.218,0.257,-0.315,1.915,-0.120,1.045,0.131,0.900
0.353,0.934,0.481,0.695,-0.306,0.966,-0.053,0.770,0.244,0.015,1.311,0.414,0.344,0.994,-0.469,0.610,0.765,0.109,-0.156,0.313,0.148,-0.301,1.738,0.393,0.407,0.252,0.428,0.605,1.409,0.151,-0.348,2.075,-0.212,0.544,0.831,0.653
0.551,0.854,0.455,0.683,-0.199,1.067,0.146,0.597,0.162,0.138,1.246,0.535,0.150,0.978,-0.332,0.572,0.853,0.041,-0.277,0.257,0.382,-0.416,1.741,0.479,0.293,0.091,0.390,0.430,1.497,0.088,-0.182,1.923,-0.063,0.508,0.712,0.888
0.505,0.787,0.417,0.890,-0.059,0.801,-0.086,0.780,0.117,0.107,1.270,0.633,0.324,0.779,-0.237,0.411,0.951,0.076,-0.112,0.290,0.338,-0.309,1.587,0.604,0.670,-0.192,0.220,0.494,1.469,-0.006,-0.136,1.955,-0.090,0.118,1.087,0.936
0.327,0.767,0.504,0.936,-0.146,0.744,-0.254,0.902,0.060,0.135,1.574,0.323,0.616,0.664,-0.314,0.328,1.026,0.176,-0.216,0.310,0.431,-0.307,1.550,0.607,1.020,-0.197,-0.040,0.650,1.097,0.174,-0.237,1.980,0.002,-0.235,1.457,0.741
0.563,0.578,0.563,0.976,-0.263,0.738,-0.392,1.014,0.131,-0.056,1.730,0.213,0.315,0.941,-0.253,0.309,0.894,0.304,0.147,0.423,0.077,-0.317,1.755,0.343,1.065,-0.361,-0.195,0.523,1.244,0.204,-0.363,1.918,0.040,-0.284,1.331,0.862
0.550,0.650,0.407,0.856,-0.400,0.915,-0.183,0.651,0.323,0.184,1.464,0.427,0.692,0.671,-0.076,0.345,0.977,0.109,0.146,0.323,0.104,-0.360,1.881,0.248,1.142,-0.613,-0.318,0.627,0.997,0.400,-0.360,1.824,0.132,-0.526,1.415,1.001
0.444,0.647,0.482,0.826,-0.281,0.799,-0.103,0.796,0.207,0.423,1.396,0.496,0.600,0.878,-0.244,0.459,1.091,-0.036,-0.036,0.516,-0.064,-0.551,2.063,0.154,1.296,-0.676,-0.431,0.458,1.024,0.394,-0.458,1.896,0.171,-0.757,1.763,1.007
0.446,0.294,0.820,0.643,-0.224,0.924,-0.161,0.705,0.205,0.422,1.334,0.604,0.588,0.815,-0.138,0.378,1.044,0.021,-0.119,0.458,0.053,-0.378,1.778,0.352,1.120,-0.919,-0.082,0.659,1.018,0.224,-0.473,1.742,0.359,-0.438,1.667,0.682
0.277,0.219,0.952,0.824,-0.334,0.555,-0.246,0.765,0.226,0.377,1.218,0.810,0.390,0.822,0.176,0.314,1.067,0.046,0.197,0.174,-0.254,-0.375,1.748,0.375,1.020,-0.946,0.304,0.652,0.963,0.378,-0.332,1.589,0.423,0.074,1.180,0.659
0.297,0.367,0.848,0.840,-0.488,0.799,-0.523,0.803,0.432,0.307,1.414,0.781,0.737,0.712,-0.029,0.448,1.067,-0.073,0.246,0.294,-0.425,-0.333,1.784,0.225,0.996,-1.147,0.506,0.742,0.875,0.442,-0.394,1.634,0.350,0.226,0.861,0.837
0.154,0.519,0.935,0.754,-0.484,1.012,-0.389,0.637,0.459,0.436,1.283,0.737,0.584,0.832,-0.236,0.568,0.966,0.111,-0.003,0.615,-0.634,-0.401,1.699,0.377,1.032,-1.266,0.477,0.676,1.025,0.386,-0.511,1.662,0.302,0.222,0.886,0.685
0.185,0.567,0.860,0.916,-0.469,0.794,-0.028,0.123,0.570,0.491,1.257,0.727,0.515,0.805,-0.218,0.813,0.827,0.029,-0.144,0.607,-0.221,-0.514,1.734,0.483,1.428,-1.279,-0.075,0.728,0.963,0.487,-0.471,1.510,0.400,0.340,0.600,1.054
0.271,0.768,0.604,0.805,-0.257,0.562,0.005,0.313,0.202,0.806,1.092,0.657,0.328,1.016,-0.197,1.011,0.641,-0.092,0.055,0.449,-0.128,-0.633,1.937,0.270,1.215,-1.167,-0.014,0.663,1.095,0.392,-0.330,1.259,0.557,0.536,0.421,1.099
0.417,0.925,0.363,1.011,-0.096,0.365,-0.188,0.405,0.510,0.737,1.157,0.573,0.203,0.973,-0.012,0.835,0.856,-0.193,0.061,0.593,-0.295,-0.394,1.718,0.436,0.709,-0.767,0.335,0.635,1.207,0.184,-0.411,1.222,0.596,1.055,-0.085,1.114
-0.069,0.991,0.591,0.776,-0.306,0.681,-0.123,0.246,0.455,0.768,1.110,0.578,0.344,1.019,-0.120,0.854,0.814,-0.197,-0.030,0.535,-0.225,-0.437,1.519,0.679,0.799,-0.696,0.430,0.743,1.096,0.230,-0.300,1.206,0.550,1.216,-0.108,0.881
0.103,1.091,0.364,1.171,-0.282,0.477,0.152,-0.014,0.809,0.652,0.972,0.816,0.227,0.881,-0.067,1.089,0.495,-0.365,-0.284,0.698,-0.254,-0.499,1.449,0.784,1.002,-1.107,0.578,0.877,0.919,0.360,-0.293,1.176,0.575,1.663,-0.532,0.855
0.271,0.974,0.324,1.255,-0.465,0.400,0.114,0.309,0.606,0.652,1.028,0.610,-0.108,0.785,0.345,0.978,0.659,-0.132,-0.137,0.664,-0.607,-0.477,1.385,0.744,1.077,-0.955,0.414,1.169,0.599,0.391,-0.338,0.904,0.841,0.985,0.139,0.949
0.442,1.053,0.137,1.034,-0.376,0.639,0.034,0.288,0.576,0.690,1.065,0.561,0.089,0.577,0.444,0.903,0.678,-0.054,-0.025,0.605,-0.452,-0.422,1.579,0.441,0.658,-0.571,0.596,0.991,0.595,0.541,-0.314,0.955,0.675,0.802,0.359,0.783
0.447,0.880,0.266,1.112,-0.417,0.576,0.099,-0.094,0.679,0.503,1.168,0.652,-0.031,0.560,0.556,1.076,0.573,-0.189,-0.183,0.618,-0.324,-0.272,1.533,0.486,0.267,-0.466,1.031,0.881,0.711,0.525,-0.097,0.928,0.724,0.703,0.661,0.742
0.569,0.719,0.388,1.130,-0.365,0.497,-0.019,0.155,0.661,0.529,1.201,0.675,-0.153,0.624,0.706,1.046,0.446,-0.120,-0.050,0.393,-0.071,-0.331,1.610,0.562,0.531,-0.396,0.627,0.791,0.658,0.598,-0.218,1.074,0.585,0.551,0.760,0.792
0.654,0.812,0.315,1.355,-0.386,0.401,0.056,-0.111,0.898,0.580,1.333,0.574,-0.140,0.658,0.665,0.699,0.827,-0.219,-0.196,0.539,-0.036,-0.362,1.624,0.548,0.392,-0.675,0.970,0.646,0.849,0.588,-0.134,0.942,0.704,0.224,1.130,0.663
0.492,0.964,0.264,1.566,-0.384,0.130,0.096,-0.014,0.832,0.529,1.248,0.692,0.041,0.669,0.584,0.881,0.556,0.009,-0.257,0.515,0.029,-0.377,1.424,0.632,0.571,-0.666,0.864,0.574,1.048,0.323,-0.040,0.910,0.740,0.350,0.962,0.780
0.418,1.149,0.022,1.300,-0.240,0.312,0.257,-0.213,0.874,0.742,1.278,0.883,0.089,0.631,0.571,0.814,0.543,-0.044,-0.319,0.548,-0.313,-0.585,1.800,0.307,0.706,-0.906,0.929,0.491,1.187,0.282,0.033,0.816,0.752,0.043,1.036,0.973
0.492,1.000,0.060,1.353,-0.100,0.262,0.016,-0.041,0.884,0.688,1.189,0.894,0.274,0.716,0.332,0.726,0.741,-0.017,-0.438,0.748,-0.171,-0.523,1.802,0.352,0.642,-0.734,0.831,0.480,1.226,0.255,0.167,0.698,0.857,0.463,0.573,1.082
0.623,0.899,0.123,1.224,-0.086,0.270,0.160,0.116,0.615,0.793,1.128,0.849,0.378,0.598,0.226,0.442,0.959,0.045,-0.357,0.608,-0.025,-0.605,1.941,0.318,0.780,-0.802,0.885,0.397,1.341,0.325,0.141,0.627,0.833,0.019,1.083,1.042
0.654,0.731,0.246,1.071,0.124,0.062,0.058,-0.008,0.705,0.732,1.026,0.995,0.333,0.763,0.088,0.607,0.810,0.279,-0.298,0.425,-0.131,-0.795,2.195,0.066,0.449,-0.716,0.969,0.589,1.253,0.316,0.285,0.738,0.826,0.118,0.929,1.089
0.651,0.756,0.260,0.925,0.301,0.107,-0.073,0.237,0.751,0.598,1.039,1.078,0.416,0.855,-0.267,0.455,0.938,0.243,-0.251,0.339,0.123,-0.763,2.052,0.225,0.531,-0.874,0.809,0.630,1.047,0.394,0.276,0.608,0.924,0.247,0.676,1.046
0.772,0.570,0.285,0.927,0.173,0.121,-0.078,0.149,0.762,0.514,1.050,1.127,0.596,0.732,-0.252,0.540,0.865,0.276,-0.319,0.304,0.191,-0.792,2.216,0.089,0.784,-0.715,0.577,0.523,1.341,0.193,0.286,0.737,0.795,0.098,0.604,1.206
0.811,0.491,0.308,0.890,0.304,-0.100,-0.021,0.008,0.748,0.488,1.136,1.164,0.696,0.631,-0.166,0.324,1.023,0.125,-0.413,0.360,0.092,-0.875,2.192,0.208,1.027,-0.954,0.343,0.461,1.414,0.205,0.152,0.920,0.659,-0.028,0.396,1.645
0.824,0.541,0.137,1.242,0.128,-0.111,-0.026,0.123,0.744,0.500,1.112,1.212,0.697,0.484,-0.130,0.174,1.001,0.461,-0.145,0.477,-0.090,-0.778,1.968,0.306,1.200,-1.032,0.301,0.398,1.723,0.088,-0.049,1.099,0.512,-0.070,0.301,1.851
0.701,0.445,0.462,1.324,0.003,-0.221,0.222,-0.131,0.688,0.554,1.158,1.253,0.413,0.606,0.039,0.200,1.007,0.345,-0.444,0.852,-0.465,-0.828,2.025,0.344,0.996,-1.272,0.428,0.551,1.439,0.117,-0.075,1.274,0.472,-0.077,0.082,2.016
0.562,0.561,0.508,1.237,0.033,-0.171,0.320,-0.083,0.594,0.737,1.318,1.059,0.408,0.557,0.099,0.100,1.142,0.230,-0.491,0.853,-0.198,-0.884,2.001,0.372,0.753,-1.215,0.759,0.630,1.383,0.210,-0.045,1.237,0.403,0.244,-0.109,1.931
0.433,0.702,0.591,1.155,-0.004,0.035,0.393,-0.124,0.620,0.797,1.256,0.946,0.290,0.375,0.213,0.226,0.892,0.451,-0.529,1.008,-0.262,-0.930,2.187,0.146,1.042,-1.155,0.531,0.682,1.262,0.332,-0.149,1.427,0.336,-0.181,0.226,2.214
0.560,0.835,0.469,1.351,0.003,0.002,0.354,0.012,0.443,0.871,1.341,0.924,0.252,0.549,-0.166,0.346,0.744,0.464,-0.285,0.696,-0.037,-0.908,2.089,0.180,0.947,-0.914,0.422,0.386,1.626,0.057,-0.228,1.419,0.401,0.054,0.135,2.064
0.375,0.837,0.594,1.569,-0.243,-0.102,0.302,0.038,0.655,0.879,1.299,1.062,0.560,0.187,0.055,0.247,0.662,0.593,-0.343,0.435,0.348,-0.554,1.788,0.397,0.528,-0.394,0.649,0.384,1.632,0.125,-0.392,1.577,0.377,0.071,0.236,1.845
0.461,0.698,0.715,1.235,-0.026,0.089,0.476,-0.249,0.600,0.897,1.265,1.058,0.889,0.053,0.117,0.347,0.651,0.511,-0.406,0.327,0.321,-0.682,1.820,0.316,0.614,-0.360,0.244,0.220,1.674,0.099,-0.435,1.825,0.126,0.204,0.155,1.947
0.615,0.788,0.666,1.252,-0.145,0.205,0.394,-0.182,0.632,0.879,1.239,0.905,0.917,-0.029,-0.034,0.368,0.767,0.490,-0.312,0.171,0.441,-0.736,1.926,0.336,0.777,-0.323,-0.021,-0.013,1.716,0.224,-0.470,1.831,0.056,0.101,0.244,1.731
0.427,0.929,0.602,1.147,0.062,0.104,0.384,-0.372,0.906,0.700,1.313,0.675,1.051,-0.127,-0.133,0.698,0.602,0.234,-0.733,0.433,0.343,-0.900,2.185,0.124,0.843,-0.382,-0.003,-0.045,1.711,0.262,-0.213,1.654,0.156,0.145,0.137,1.956
0.516,0.881,0.450,1.368,-0.003,-0.072,0.461,-0.211,0.778,0.424,1.350,0.823,1.205,-0.359,-0.152,0.820,0.683,0.314,-0.341,0.131,0.163,-0.655,1.885,0.407,0.897,-0.565,0.022,-0.102,1.805,0.296,-0.230,1.749,-0.020,0.731,-0.616,2.019
0.500,0.834,0.469,1.231,-0.214,0.114,0.479,-0.035,0.584,0.530,1.184,0.953,1.048,0.087,-0.339,0.433,0.905,0.454,-0.428,0.341,-0.024,-0.609,1.842,0.553,0.789,-0.507,0.055,-0.180,2.033,0.105,-0.346,1.735,-0.008,0.668,-0.295,1.812
0.512,1.036,0.316,1.142,0.039,-0.022,0.246,0.066,0.654,0.534,1.288,0.868,1.135,0.005,-0.405,0.446,0.842,0.431,-0.310,0.210,0.124,-0.505,1.711,0.594,0.778,-0.336,0.090,-0.194,2.030,0.088,-0.280,1.650,0.052,0.117,0.136,1.920
0.129,1.132,0.615,1.016,0.231,0.086,0.006,-0.081,0.949,0.630,1.266,0.927,1.215,-0.233,-0.513,0.556,0.885,0.280,-0.042,0.171,0.130,-0.589,1.719,0.555,0.970,-0.327,-0.256,-0.186,1.845,0.181,-0.311,1.778,-0.055,0.146,0.214,1.926
0.097,0.861,1.006,0.649,0.456,0.168,0.303,0.212,0.591,0.508,1.241,0.959,1.136,-0.135,-0.154,0.480,0.863,0.303,-0.182,0.399,-0.004,-0.591,1.739,0.493,1.357,-0.563,-0.586,-0.295,2.004,0.195,-0.331,1.830,-0.187,-0.043,0.548,1.747
0.185,0.488,1.157,0.616,0.461,0.381,0.324,-0.011,0.605,0.603,1.148,1.015,1.071,-0.182,-0.188,0.438,0.918,0.322,-0.169,0.477,-0.038,-0.709,1.808,0.560,1.752,-0.875,-0.731,-0.335,2.148,-0.036,-0.012,1.372,0.043,0.423,-0.058,1.878
0.138,0.425,1.278,0.725,0.563,0.237,0.178,0.050,0.554,0.711,1.140,0.851,1.386,-0.397,-0.282,0.423,0.858,0.212,0.124,0.503,-0.310,-0.782,1.894,0.483,1.650,-0.717,-0.698,-0.183,2.031,-0.041,0.168,1.376,0.073,0.283,-0.036,1.976
0.055,0.287,1.453,0.774,0.500,0.159,0.410,0.141,0.218,0.740,0.890,0.898,1.320,-0.574,-0.270,0.454,0.713,0.422,0.014,0.665,-0.290,-0.890,2.039,0.498,1.587,-0.800,-0.656,0.002,1.832,0.030,0.115,1.323,0.159,-0.384,0.888,1.795
-0.115,0.515,1.275,0.955,0.362,0.127,0.223,0.011,0.583,0.569,0.909,1.137,1.359,-0.568,-0.334,0.597,0.495,0.358,0.152,0.685,-0.365,-1.060,2.003,0.631,1.444,-0.740,-0.705,-0.014,1.880,0.105,-0.038,1.483,-0.009,-0.083,0.696,1.517
0.175,0.329,1.319,0.964,0.326,0.114,0.361,0.007,0.556,0.558,0.935,1.039,0.993,-0.099,-0.118,0.641,0.474,0.443,0.134,0.562,-0.333,-1.075,1.895,0.738,1.517,-0.498,-0.516,-0.184,1.946,0.005,0.299,1.038,0.188,-0.395,1.173,1.510
0.318,0.442,1.117,0.969,0.329,0.006,0.292,0.173,0.403,0.566,0.783,1.017,0.947,-0.047,-0.024,0.633,0.512,0.490,-0.371,0.839,-0.232,-1.059,1.723,0.857,1.770,-0.856,-0.623,-0.174,1.911,0.054,0.238,0.964,0.453,0.300,0.479,1.622
0.220,0.544,1.014,1.196,-0.150,-0.002,0.487,-0.006,0.382,0.607,0.710,1.241,0.976,-0.211,0.211,0.475,0.660,0.528,-0.198,0.751,-0.374,-1.054,1.563,1.103,1.954,-1.129,-0.967,-0.325,2.244,-0.217,0.289,0.947,0.602,-0.080,0.717,1.741
0.418,0.498,1.084,1.070,0.244,-0.170,0.659,0.192,0.163,0.606,0.752,1.382,0.738,-0.039,0.324,0.379,0.558,0.570,-0.332,1.097,-0.620,-1.014,1.804,0.838,1.975,-1.043,-0.979,-0.501,2.432,-0.232,0.411,1.090,0.391,0.380,0.356,1.529
0.524,0.553,0.888,1.212,0.085,-0.202,0.470,0.380,0.128,0.757,0.677,1.341,0.643,0.116,0.358,0.225,0.532,0.789,-0.278,1.043,-0.638,-0.675,1.651,0.782,1.562,-0.818,-0.555,-0.406,2.280,-0.008,0.261,1.270,0.244,0.555,0.206,1.606
0.591,0.336,1.054,1.286,-0.009,-0.108,0.516,0.349,0.286,0.771,0.605,1.454,0.696,0.392,0.118,0.200,0.550,0.606,-0.030,0.969,-0.603,-0.718,1.516,1.008,1.670,-0.738,-0.576,-0.318,2.250,-0.055,0.303,1.131,0.371,0.351,0.505,1.402
0.707,0.428,1.016,1.318,-0.007,-0.044,0.644,0.332,0.024,0.709,0.724,1.385,0.822,0.127,0.002,0.240,0.598,0.617,-0.201,1.120,-0.786,-0.784,1.644,0.854,1.084,-0.395,-0.139,-0.300,2.273,-0.148,0.400,1.073,0.439,0.092,0.453,1.676
0.760,0.432,1.085,1.171,0.167,0.054,0.679,0.418,0.052,0.661,0.692,1.318,0.763,0.150,-0.023,0.429,0.448,0.489,-0.852,1.689,-0.875,-0.832,1.595,0.846,1.186,-0.454,0.049,-0.438,2.454,-0.375,0.415,1.011,0.404,0.287,0.135,1.807
0.765,0.422,1.026,1.458,0.054,-0.270,0.736,0.417,0.043,0.773,0.501,1.349,1.116,-0.048,-0.374,0.458,0.404,0.605,-0.768,1.565,-0.729,-0.582,1.453,0.940,0.932,-0.222,0.025,-0.373,2.492,-0.363,0.499,1.089,0.192,0.655,-0.252,1.794
0.683,0.523,0.923,1.434,0.122,-0.436,0.521,0.476,0.252,0.593,0.595,1.452,0.936,0.169,-0.385,0.506,0.334,0.601,-0.541,1.355,-0.751,-0.653,1.580,0.905,1.014,-0.428,0.274,-0.415,2.611,-0.391,0.439,1.161,0.177,0.202,0.076,2.019
0.665,0.733,0.795,1.258,0.376,-0.463,0.471,0.528,0.148,0.700,0.535,1.326,1.168,-0.103,-0.118,0.424,0.118,0.789,-0.299,1.089,-0.814,-0.655,1.414,1.005,1.187,-0.830,0.295,-0.367,2.556,-0.519,0.336,1.220,0.348,0.318,-0.195,2.172
0.824,0.429,0.926,0.728,0.788,-0.193,0.293,0.758,0.169,0.848,0.489,1.202,1.038,-0.187,0.077,0.511,0.152,0.771,-0.277,0.995,-0.624,-0.619,1.375,1.024,1.101,-0.689,0.223,-0.469,2.828,-0.564,0.503,1.039,0.354,0.678,-0.627,2.084
0.744,0.430,0.998,1.051,0.465,-0.188,0.165,0.676,0.367,0.894,0.531,1.246,1.198,-0.393,-0.109,0.653,0.172,0.709,-0.146,0.772,-0.521,-0.493,1.325,0.998,1.156,-0.553,0.046,-0.467,2.808,-0.555,0.692,0.863,0.416,0.657,-0.505,1.802
0.808,0.158,1.160,1.014,0.517,-0.195,0.182,0.479,0.438,0.760,0.592,1.316,1.337,-0.411,-0.190,0.598,0.457,0.526,0.132,0.553,-0.403,-0.539,1.288,1.117,1.322,-0.635,-0.007,-0.255,2.498,-0.328,0.599,0.858,0.523,0.877,-0.838,2.127
0.689,0.220,1.149,1.109,0.335,-0.123,0.151,0.221,0.657,0.761,0.620,1.229,1.341,-0.456,-0.519,0.763,0.374,0.546,-0.080,0.679,-0.163,-0.545,1.222,1.069,1.324,-0.720,0.015,-0.414,2.619,-0.383,0.678,0.716,0.622,0.724,-0.757,2.048
0.792,0.420,0.834,1.205,0.396,-0.256,0.172,0.579,0.262,0.825,0.427,1.274,1.126,-0.497,-0.051,0.705,0.368,0.536,0.140,0.365,-0.251,-0.560,1.303,1.008,1.005,-0.750,0.474,-0.352,2.478,-0.249,0.436,0.764,0.806,0.507,-0.688,2.322
0.731,0.450,0.708,1.246,0.161,-0.055,0.091,0.789,0.301,0.985,0.508,1.203,0.954,-0.345,-0.019,0.669,0.257,0.582,0.150,0.374,-0.030,-0.507,1.176,1.160,1.145,-0.816,0.062,-0.296,2.466,-0.258,0.466,0.865,0.629,0.512,-0.610,2.305
0.668,0.630,0.476,1.481,0.078,-0.248,0.428,0.885,0.042,0.801,0.448,1.243,0.802,-0.131,0.027,0.572,0.465,0.390,0.589,-0.069,-0.065,-0.725,1.296,1.185,1.115,-0.798,0.320,-0.261,2.345,-0.132,0.428,0.935,0.583,0.638,-0.974,2.598
1.067,0.349,0.302,1.193,0.331,-0.258,0.142,1.049,0.029,0.865,0.658,1.098,0.678,0.058,0.099,0.540,0.442,0.361,0.587,-0.195,-0.039,-0.722,1.054,1.468,1.156,-0.709,0.291,-0.226,2.259,-0.024,0.373,1.074,0.453,0.667,-0.764,2.305
0.584,0.586,0.397,1.080,0.388,-0.054,0.236,0.853,0.066,1.035,0.553,1.074,0.555,0.113,0.032,0.497,0.414,0.384,0.543,-0.272,0.001,-0.780,1.102,1.468,1.060,-0.648,0.009,-0.264,2.283,-0.118,0.221,1.169,0.479,0.172,-0.221,2.284
0.630,0.695,0.401,1.177,0.624,-0.362,-0.004,0.936,0.032,0.925,0.526,1.221,0.413,0.299,0.105,0.682,0.364,0.373,0.519,0.111,-0.389,-0.579,1.039,1.403,1.109,-0.702,0.081,-0.316,2.264,-0.132,-0.032,1.415,0.375,-0.242,0.090,2.199
0.637,0.406,0.553,1.120,0.652,-0.375,0.213,0.920,-0.015,1.016,0.482,1.071,0.012,0.267,0.380,0.496,0.534,0.424,0.387,0.359,-0.501,-0.594,0.904,1.539,0.895,-0.596,0.358,-0.258,2.149,-0.063,0.054,1.393,0.358,-0.074,-0.078,2.246
0.685,0.478,0.512,1.432,0.579,-0.547,0.352,0.763,0.175,1.044,0.356,0.947,0.207,-0.118,0.614,0.509,0.494,0.354,0.502,0.501,-1.010,-0.677,0.832,1.586,1.253,-0.799,0.134,-0.259,2.232,-0.149,0.101,1.442,0.330,-0.409,0.280,2.260
0.814,0.479,0.492,1.286,0.673,-0.449,0.327,0.813,0.153,0.826,0.558,1.024,0.523,-0.058,0.271,0.440,0.302,0.655,-0.136,0.808,-1.020,-0.610,0.960,1.361,1.353,-0.724,0.010,-0.474,2.452,-0.132,-0.005,1.487,0.326,-0.051,-0.032,2.368
0.635,0.527,0.566,1.487,0.598,-0.481,0.288,0.954,-0.072,0.565,0.579,1.195,0.362,0.001,0.225,0.581,0.405,0.437,-0.188,0.978,-1.063,-0.469,0.909,1.164,1.985,-0.980,-0.654,-0.632,2.519,-0.194,0.097,1.429,0.347,-0.879,0.391,2.720
0.454,0.831,0.477,1.494,0.466,-0.370,0.278,1.077,-0.205,0.500,0.535,1.157,0.338,-0.227,0.298,0.614,0.448,0.496,-0.078,0.927,-0.677,-0.475,0.991,1.224,1.833,-0.567,-0.403,-0.913,2.628,-0.277,0.234,1.311,0.362,-0.156,-0.057,2.584
0.499,0.900,0.413,1.652,0.302,-0.528,0.510,0.836,-0.257,0.367,0.594,1.382,0.389,-0.220,0.275,0.684,0.418,0.293,-0.543,1.298,-1.019,-0.502,1.035,1.208,1.804,-0.584,-0.576,-0.880,2.656,-0.357,0.193,1.243,0.407,-0.122,-0.063,2.455
0.361,0.982,0.580,1.511,0.609,-0.664,0.249,1.034,-0.320,0.546,0.662,1.162,0.889,-0.572,0.002,0.482,0.518,0.382,-0.709,1.542,-0.952,-0.432,1.118,1.205,1.808,-0.299,-0.947,-1.086,2.739,-0.446,0.123,1.284,0.294,-0.210,0.159,2.313
0.277,0.938,0.614,1.527,0.612,-0.589,0.344,0.885,-0.445,0.612,0.524,1.126,0.687,-0.423,-0.028,0.553,0.545,0.434,-0.631,1.387,-0.793,-0.364,1.002,1.333,1.760,-0.339,-0.919,-1.131,2.706,-0.437,0.052,1.176,0.597,-0.112,0.088,2.355
0.386,0.868,0.691,1.901,0.218,-0.707,0.069,0.825,-0.347,0.647,0.636,1.261,0.579,-0.279,0.055,0.644,0.477,0.346,-0.588,1.437,-0.846,-0.236,1.039,1.288,1.476,-0.211,-0.618,-1.083,2.671,-0.338,0.037,1.300,0.478,-0.108,0.358,1.987
0.230,0.990,0.733,1.902,0.325,-0.769,-0.187,1.245,-0.412,0.578,0.566,1.408,0.653,-0.339,-0.094,0.520,0.472,0.522,-0.694,1.676,-1.094,-0.212,1.089,1.196,1.156,-0.133,-0.353,-1.139,2.663,-0.421,-0.070,1.489,0.378,-0.423,0.753,1.832
0.404,0.873,0.673,1.746,0.497,-0.963,-0.102,1.059,-0.294,0.585,0.739,1.427,0.584,-0.336,-0.153,0.555,0.353,0.629,-0.386,1.355,-0.714,-0.108,0.819,1.431,0.863,0.130,0.035,-0.829,2.265,-0.098,-0.141,1.613,0.367,0.158,0.298,1.813
0.317,0.843,0.679,1.717,0.474,-1.029,0.086,0.839,-0.075,0.670,0.687,1.379,0.536,-0.134,-0.295,0.616,0.262,0.560,-0.452,1.608,-0.940,-0.040,0.814,1.333,0.754,0.178,-0.054,-0.843,2.415,-0.281,-0.051,1.525,0.449,-0.434,0.690,1.721
0.491,0.738,0.624,1.504,0.688,-1.054,-0.070,0.811,0.071,0.576,0.727,1.475,0.388,0.217,-0.467,0.858,0.138,0.475,-0.151,1.313,-0.874,-0.017,0.786,1.231,0.607,0.158,0.232,-1.130,2.684,-0.414,-0.163,1.585,0.473,-0.101,0.514,1.603
0.247,0.959,0.540,1.643,0.444,-1.049,0.033,0.768,-0.268,0.598,0.705,1.466,0.740,-0.140,-0.582,0.689,0.160,0.466,-0.152,1.378,-0.874,0.066,0.797,1.139,0.530,0.104,0.151,-0.902,2.499,-0.323,-0.171,1.611,0.356,0.424,0.041,1.553
0.361,0.911,0.455,1.607,0.486,-1.204,-0.020,0.629,-0.247,0.562,0.791,1.390,0.515,0.023,-0.235,0.714,0.295,0.428,-0.166,1.288,-0.859,-0.021,0.884,1.109,0.569,-0.066,0.302,-0.908,2.590,-0.336,-0.301,1.522,0.456,0.739,-0.134,1.383
0.258,0.927,0.543,0.962,0.864,-0.949,-0.084,0.491,0.124,0.596,0.980,1.277,0.505,0.022,-0.381,0.562,0.583,0.346,-0.462,1.532,-0.857,0.034,0.934,0.996,0.456,0.043,0.243,-0.845,2.425,-0.063,-0.265,1.621,0.259,0.483,0.235,1.298
0.141,1.073,0.515,0.823,0.957,-0.710,-0.102,0.300,0.330,0.596,0.865,1.332,0.731,-0.067,-0.291,0.442,0.620,0.455,-0.410,1.471,-0.894,0.008,1.005,0.873,0.604,-0.008,0.229,-0.659,2.320,0.031,-0.447,1.884,0.048,0.306,0.507,1.090
0.195,1.227,0.527,0.854,0.999,-0.552,-0.133,0.002,0.430,0.645,0.709,1.215,0.781,0.051,-0.468,0.251,0.660,0.632,-0.377,1.354,-0.834,-0.141,1.187,0.820,0.701,-0.385,0.313,-0.454,2.294,-0.092,-0.441,1.768,0.308,0.092,0.729,1.080
0.229,0.995,0.656,0.686,1.067,-0.453,0.367,-0.032,0.133,0.656,0.813,1.084,0.579,-0.057,-0.186,0.149,0.728,0.740,-0.077,1.043,-0.577,-0.096,1.420,0.581,0.904,-0.586,0.324,-0.363,2.260,-0.003,-0.464,1.903,0.118,-0.573,1.261,1.191
0.274,0.882,0.752,0.984,0.917,-0.754,-0.089,0.400,0.315,0.568,0.950,1.018,0.853,-0.320,-0.463,0.043,0.700,0.838,-0.445,1.315,-0.657,-0.172,1.341,0.588,0.607,-0.371,0.484,-0.330,2.222,-0.113,-0.504,1.901,0.227,-0.531,1.326,0.932
0.334,0.928,0.673,0.935,0.769,-0.421,-0.267,0.251,0.436,0.487,0.760,1.226,0.784,-0.319,-0.486,0.035,0.779,0.839,-0.279,1.125,-0.517,-0.115,1.379,0.638,0.670,-0.479,0.592,-0.183,2.026,0.011,-0.374,1.816,0.255,-0.191,1.054,0.921
0.441,0.839,0.683,0.745,0.981,-0.542,-0.164,0.194,0.171,0.560,0.727,1.321,0.897,-0.368,-0.569,0.217,0.649,0.814,-0.458,1.451,-0.705,0.027,1.271,0.715,0.470,-0.173,0.732,-0.231,2.388,-0.267,-0.214,1.794,0.133,-0.278,1.052,0.881
0.424,0.889,0.755,0.514,1.047,-0.285,-0.244,0.164,0.534,0.451,0.822,1.411,0.885,-0.510,-0.296,0.412,0.574,0.728,-0.488,1.571,-1.013,-0.153,1.451,0.575,0.503,-0.401,0.852,-0.327,2.364,-0.161,-0.362,1.890,0.043,0.147,0.614,0.892
0.553,0.760,0.797,0.753,0.657,-0.190,-0.248,0.068,0.473,0.357,0.752,1.481,0.968,-0.624,-0.267,0.368,0.611,0.713,-0.279,1.376,-0.844,-0.192,1.448,0.653,0.340,-0.632,1.052,-0.087,2.064,-0.059,-0.470,1.911,0.183,0.036,0.933,0.927
0.485,0.753,0.794,0.673,0.636,0.020,-0.013,0.056,0.481,0.358,0.659,1.459,0.877,-0.603,-0.262,0.683,0.627,0.509,-0.057,1.161,-0.631,-0.123,1.430,0.730,0.261,-0.856,1.140,0.004,1.964,0.009,-0.340,1.797,0.271,0.853,0.187,0.774
0.648,0.796,0.617,0.579,0.805,-0.108,-0.059,0.031,0.589,0.438,0.774,1.336,0.509,-0.251,-0.113,0.754,0.516,0.551,-0.047,1.075,-0.680,-0.198,1.546,0.561,0.241,-0.772,1.111,-0.070,1.956,-0.035,-0.145,1.651,0.179,0.644,0.161,0.730
0.482,0.913,0.625,0.636,0.557,-0.053,-0.185,-0.222,0.753,0.510,0.888,1.247,0.369,-0.241,0.142,0.703,0.332,0.627,-0.213,1.270,-0.794,-0.146,1.489,0.507,0.361,-0.904,1.091,0.056,1.869,-0.020,-0.150,1.784,0.254,1.188,-0.415,0.919
0.379,0.802,0.781,0.628,0.439,0.171,0.078,-0.030,0.672,0.380,0.821,1.329,0.449,-0.214,-0.161,0.450,0.501,0.707,-0.210,1.209,-0.681,-0.364,1.635,0.526,0.142,-0.991,1.320,-0.059,2.036,-0.234,-0.201,1.665,0.267,1.312,-0.408,0.890
0.330,0.833,0.821,0.469,0.696,-0.128,0.312,0.022,0.587,0.373,0.698,1.338,0.995,-0.449,-0.147,0.551,0.479,0.643,-0.083,1.007,-0.579,-0.406,1.604,0.558,0.226,-1.113,1.289,-0.227,2.059,-0.118,-0.192,1.533,0.479,0.924,-0.218,1.128
0.189,0.909,0.959,0.464,0.679,-0.018,0.366,0.106,0.379,0.486,0.654,1.400,0.760,-0.157,-0.162,0.654,0.632,0.409,-0.103,0.852,-0.578,-0.325,1.568,0.584,-0.004,-1.016,1.404,-0.338,2.099,0.025,-0.382,1.660,0.327,0.654,-0.208,1.295
0.221,0.618,1.219,0.391,0.715,-0.032,0.252,0.271,0.299,0.425,0.573,1.550,0.931,-0.482,-0.318,0.643,0.643,0.385,-0.077,0.722,-0.548,-0.136,1.429,0.621,0.258,-1.347,1.347,-0.325,2.211,0.011,-0.462,1.477,0.496,0.373,-0.089,1.536
0.359,0.530,1.240,0.504,0.601,-0.026,0.133,0.366,0.234,0.359,0.557,1.517,0.752,-0.418,-0.124,0.711,0.516,0.343,-0.076,0.710,-0.503,-0.327,1.660,0.463,0.453,-1.156,1.198,-0.418,2.276,0.002,-0.483,1.566,0.430,0.389,0.020,1.609
0.298,0.644,1.130,0.903,0.534,-0.263,0.332,0.000,0.544,0.198,0.546,1.594,1.079,-0.642,-0.271,0.559,0.688,0.301,-0.266,1.062,-0.642,-0.358,1.632,0.636,0.271,-0.989,1.313,-0.119,1.997,0.082,-0.481,1.688,0.259,0.770,-0.211,1.483
0.134,0.704,1.126,0.704,0.475,0.004,0.584,-0.101,0.231,0.276,0.673,1.320,1.236,-0.506,-0.618,0.513,0.645,0.365,-0.391,1.089,-0.559,-0.410,1.624,0.701,0.534,-1.040,1.071,-0.032,1.809,0.096,-0.556,1.821,0.185,0.245,0.467,1.482
0.317,0.683,1.142,0.590,0.428,0.077,0.447,-0.173,0.359,0.256,0.868,1.190,1.131,-0.415,-0.618,0.242,0.887,0.331,-0.104,0.870,-0.550,-0.425,1.827,0.503,0.724,-1.093,0.764,0.036,1.800,0.019,-0.700,1.877,0.146,0.110,0.501,1.548
0.260,0.795,1.002,0.722,0.420,0.070,0.293,-0.191,0.541,0.305,0.937,1.254,0.743,-0.070,-0.335,0.239,0.811,0.350,-0.188,1.052,-0.525,-0.487,1.870,0.570,0.648,-1.118,0.978,-0.173,1.866,0.177,-0.521,1.763,0.122,-0.042,0.477,1.699
0.287,0.956,0.773,0.540,0.500,0.296,0.291,-0.104,0.524,0.290,1.069,1.137,0.819,-0.049,-0.593,0.193,0.969,0.259,-0.284,1.005,-0.606,-0.506,1.811,0.501,0.775,-0.954,0.744,0.070,1.593,0.269,-0.270,1.310,0.512,-0.324,0.953,1.559
0.157,1.080,0.708,0.739,0.384,0.129,0.215,-0.063,0.490,0.083,1.269,1.036,1.129,-0.319,-0.762,0.389,0.801,0.175,-0.044,0.714,-0.341,-0.501,1.923,0.582,1.022,-1.038,0.302,-0.013,1.688,0.266,-0.336,1.493,0.390,-0.350,0.898,1.550
0.127,1.051,0.755,0.527,0.646,0.279,0.179,-0.151,0.210,0.148,1.380,0.870,1.266,-0.477,-1.176,0.286,0.819,0.250,0.163,0.617,-0.415,-0.739,2.133,0.426,1.094,-1.276,0.339,0.107,1.607,0.238,-0.382,1.204,0.586,-0.221,0.919,1.371
0.008,1.034,0.729,0.484,0.575,0.358,0.467,-0.287,0.102,0.066,1.406,0.907,1.433,-0.565,-1.142,0.017,1.080,0.124,0.025,0.729,-0.509,-0.745,2.239,0.346,1.071,-1.278,0.351,0.031,1.623,0.308,-0.243,1.101,0.753,-0.313,1.060,1.264
0.181,0.936,0.739,0.780,0.416,0.324,0.614,-0.448,0.119,0.091,1.122,1.065,1.650,-0.616,-1.241,0.215,0.978,0.026,0.290,0.629,-0.616,-0.747,2.262,0.323,1.101,-1.387,0.285,0.060,1.754,0.248,-0.288,1.189,0.698,-0.407,1.204,1.189
0.214,0.783,0.715,0.629,0.361,0.349,0.722,-0.199,-0.080,0.199,1.036,0.962,1.756,-0.929,-1.481,0.138,1.079,0.258,0.354,0.401,-0.453,-0.880,2.473,0.252,0.847,-1.412,0.597,-0.025,1.754,0.210,-0.521,1.236,0.734,-0.013,0.956,1.149
0.493,0.595,0.906,0.257,0.657,0.385,0.578,-0.204,0.027,0.218,1.216,0.661,2.010,-1.170,-1.452,0.409,0.907,0.108,0.183,0.704,-0.548,-0.766,2.453,0.213,0.802,-1.500,0.560,0.217,1.605,0.042,-0.728,1.540,0.453,0.175,0.701,1.158
0.553,0.612,0.893,0.099,0.887,0.438,0.938,-0.281,-0.080,0.208,1.338,0.644,1.945,-1.119,-1.162,0.484,0.865,0.230,-0.203,0.951,-0.525,-0.703,2.245,0.278,0.891,-1.531,0.711,0.053,1.844,-0.170,-0.690,1.493,0.434,0.250,0.721,0.958
0.436,0.860,0.692,0.130,0.849,0.496,0.997,-0.283,-0.066,0.307,1.160,0.754,2.010,-1.035,-1.475,0.594,0.810,0.359,-0.131,0.951,-0.527,-0.613,2.121,0.416,0.726,-1.444,0.865,0.116,1.831,-0.186,-0.709,1.527,0.289,-0.131,0.774,1.413
0.520,1.079,0.313,0.106,0.868,0.483,0.826,-0.263,0.142,0.256,1.268,0.884,1.964,-0.939,-1.485,0.502,1.004,0.230,-0.104,0.855,-0.675,-0.606,2.095,0.561,0.767,-1.411,0.744,-0.038,1.948,-0.172,-0.759,1.606,0.107,0.360,0.150,1.521
0.615,0.715,0.630,0.260,0.663,0.401,1.090,-0.273,-0.219,0.477,1.221,0.825,1.894,-0.818,-1.437,0.532,0.714,0.493,0.078,0.672,-0.660,-0.754,2.120,0.637,0.955,-1.324,0.578,0.191,1.672,-0.007,-0.580,1.466,0.258,0.495,0.054,1.576
0.655,0.733,0.630,0.291,0.558,0.409,0.852,-0.226,0.038,0.521,1.192,0.850,1.530,-0.649,-1.250,0.351,0.780,0.576,0.621,0.302,-0.695,-0.777,2.148,0.625,0.637,-1.171,0.627,0.291,1.623,0.023,-0.424,1.249,0.446,1.110,-0.419,1.424
0.561,0.802,0.822,0.645,0.601,0.275,0.852,-0.403,0.249,0.340,1.113,0.880,1.581,-0.475,-1.165,0.396,0.610,0.454,0.633,0.305,-0.535,-0.852,2.245,0.485,0.685,-1.193,0.452,0.333,1.713,-0.052,-0.600,1.486,0.178,0.822,-0.181,1.454
0.475,0.835,0.843,0.450,0.520,0.515,0.686,-0.634,0.506,0.388,1.326,0.725,1.612,-0.419,-1.142,0.428,0.575,0.647,0.592,0.200,-0.475,-0.555,2.127,0.517,0.374,-0.837,0.801,0.215,1.848,-0.017,-0.610,1.687,0.155,1.026,-0.373,1.392
0.270,1.014,0.858,0.777,0.456,0.200,0.181,-0.466,0.837,0.205,1.454,0.782,1.589,-0.477,-0.869,0.232,0.635,0.662,0.479,0.311,-0.437,-0.643,2.283,0.422,0.743,-0.877,0.347,0.255,1.934,-0.193,-0.344,1.473,0.369,0.875,-0.150,1.539
0.187,0.983,0.932,0.839,0.533,0.185,0.232,-0.511,0.714,0.063,1.665,0.684,1.642,-0.497,-1.075,0.134,0.986,0.503,0.255,0.550,-0.361,-0.674,2.297,0.399,0.857,-0.766,0.338,0.161,1.951,-0.287,-0.620,1.535,0.430,1.014,-0.246,1.556
0.317,0.870,0.790,0.864,0.541,0.102,0.503,-0.459,0.679,-0.126,1.543,0.711,1.844,-0.801,-0.951,0.047,1.018,0.503,0.230,0.535,-0.367,-0.582,2.140,0.441,0.819,-0.756,0.184,0.350,1.822,-0.409,-0.834,1.670,0.289,0.959,-0.145,1.629
0.379,0.856,0.634,0.695,0.629,0.255,0.585,-0.193,0.278,-0.055,1.591,0.650,2.191,-0.936,-1.096,-0.144,1.138,0.490,0.202,0.675,-0.587,-0.578,2.078,0.324,0.746,-0.680,0.309,0.460,1.566,-0.209,-0.904,1.664,0.315,0.676,0.055,1.620
0.302,0.669,0.881,0.853,0.466,0.043,0.680,-0.364,0.354,-0.189,1.896,0.403,1.840,-0.601,-0.994,0.090,0.761,0.553,-0.073,0.678,-0.399,-0.630,2.017,0.438,0.784,-0.637,0.376,0.421,1.525,-0.169,-1.100,1.642,0.322,0.805,-0.178,1.744
0.364,0.836,0.606,1.018,0.321,0.054,0.804,-0.376,0.115,-0.110,1.580,0.509,1.939,-0.547,-0.863,0.122,0.872,0.425,-0.489,0.933,-0.195,-0.727,1.869,0.449,0.621,-0.386,0.521,0.494,1.415,0.057,-0.950,1.495,0.572,1.035,-0.540,1.789
0.303,0.645,0.857,0.765,0.275,0.356,0.953,-0.419,0.135,-0.129,1.713,0.508,1.779,-0.448,-0.729,-0.024,1.065,0.397,-0.668,1.150,-0.280,-0.720,1.906,0.447,0.446,-0.368,0.560,0.388,1.514,0.120,-0.578,1.343,0.564,0.338,0.225,1.795
0.234,0.886,0.716,0.689,0.134,0.385,0.870,-0.489,0.261,0.135,1.499,0.737,1.865,-0.743,-0.793,0.144,0.907,0.225,-0.672,1.181,-0.390,-0.459,1.809,0.331,0.112,-0.325,0.545,0.308,1.502,0.235,-0.677,1.422,0.519,0.614,0.170,1.432
0.197,0.955,0.631,0.577,0.205,0.489,0.366,-0.622,0.693,-0.097,1.738,0.648,1.812,-0.775,-0.822,0.155,0.903,0.196,-0.940,1.503,-0.544,-0.505,1.783,0.465,0.574,-0.626,0.376,0.506,1.489,0.085,-0.476,1.306,0.510,0.905,0.034,1.383
0.164,0.852,0.688,0.691,0.146,0.312,0.235,-0.518,0.673,-0.027,1.677,0.489,1.503,-0.535,-0.587,0.418,0.942,0.187,-0.972,1.502,-0.619,-0.596,1.887,0.484,0.362,-0.621,0.344,0.390,1.450,0.213,-0.459,1.333,0.443,0.896,0.120,1.389
0.457,0.437,0.951,0.756,0.058,0.307,0.312,-0.585,0.547,-0.188,1.803,0.508,1.305,-0.331,-0.144,0.353,0.828,0.348,-0.532,1.239,-0.267,-0.594,1.956,0.351,0.622,-0.596,0.372,0.459,1.460,0.235,-0.312,1.283,0.524,0.841,0.030,1.479
0.377,0.313,1.088,0.501,0.104,0.520,0.242,-0.573,0.492,-0.079,1.603,0.610,1.685,-0.553,-0.472,0.264,0.834,0.343,-0.791,1.323,-0.197,-0.604,2.037,0.316,0.691,-0.721,0.429,0.441,1.417,0.310,-0.226,1.209,0.690,0.857,0.125,1.320
0.328,0.309,1.159,0.444,0.187,0.543,0.532,-0.604,0.272,-0.272,1.537,0.778,1.476,-0.353,-0.331,0.477,0.614,0.276,-0.813,1.242,-0.221,-0.735,2.128,0.296,0.899,-1.069,0.377,0.432,1.431,0.335,-0.284,1.140,0.746,0.183,0.536,1.532
0.322,0.265,1.298,0.454,0.184,0.590,0.891,-0.974,0.044,0.009,1.646,0.731,1.296,-0.187,-0.005,0.244,0.730,0.335,-1.111,1.691,-0.435,-0.868,2.170,0.236,0.717,-0.991,0.489,0.428,1.439,0.177,-0.297,1.247,0.689,0.851,0.040,1.364
0.219,0.475,1.215,0.372,-0.056,0.851,0.397,-0.778,0.417,-0.051,1.803,0.578,1.439,-0.185,-0.157,0.430,0.559,0.510,-1.156,1.521,-0.248,-0.869,2.171,0.190,0.687,-1.188,0.661,0.317,1.709,0.028,-0.369,1.374,0.493,0.450,0.368,1.385
0.294,0.541,1.057,0.452,-0.002,0.886,0.610,-0.666,0.316,-0.039,1.923,0.652,1.147,0.038,-0.062,0.459,0.692,0.327,-1.027,1.215,-0.072,-1.090,2.409,0.059,0.959,-1.240,0.355,0.243,1.825,-0.023,-0.520,1.400,0.520,0.221,0.420,1.599
0.426,0.604,0.862,0.600,-0.117,0.788,-0.016,-0.427,0.796,0.042,1.605,0.847,1.215,0.067,0.035,0.385,0.702,0.470,-0.593,0.792,0.172,-1.027,2.302,0.194,0.864,-1.347,0.508,0.242,1.922,-0.091,-0.577,1.478,0.532,0.290,0.658,1.436
0.501,0.555,0.734,0.979,-0.238,0.584,-0.108,-0.329,0.777,-0.064,1.725,0.795,1.353,-0.116,-0.022,0.538,0.569,0.358,-0.475,0.927,-0.045,-1.015,2.206,0.291,0.470,-1.186,0.556,0.341,1.880,-0.122,-0.625,1.652,0.446,0.390,0.444,1.481
0.575,0.514,0.693,1.165,-0.241,0.523,0.073,-0.304,0.546,-0.237,1.816,0.814,1.468,-0.363,0.019,0.510,0.654,0.480,-0.525,0.912,0.084,-1.006,2.070,0.486,0.202,-0.943,0.682,0.313,1.846,-0.114,-0.485,1.603,0.554,0.187,0.641,1.396
0.528,0.588,0.659,1.024,-0.058,0.555,-0.443,-0.232,0.920,-0.277,1.751,0.927,1.816,-0.555,-0.228,0.545,0.762,0.259,-0.348,0.794,0.070,-0.986,2.109,0.397,-0.100,-0.933,0.933,0.414,1.937,-0.088,-0.401,1.699,0.397,0.609,0.424,1.188
0.272,0.712,0.766,0.701,0.000,0.838,-0.355,0.156,0.765,-0.278,1.717,0.871,1.509,-0.354,-0.130,0.847,0.519,0.081,-0.335,0.693,0.212,-0.937,2.005,0.399,0.332,-1.011,0.589,0.393,1.829,-0.030,-0.356,1.607,0.350,0.513,0.270,1.349
0.153,0.526,1.018,0.945,-0.129,0.565,-0.114,0.240,0.406,-0.340,1.661,0.939,1.574,-0.258,-0.118,0.841,0.364,0.250,-0.233,0.727,0.068,-0.868,1.904,0.490,-0.013,-1.023,0.982,0.340,1.822,-0.008,-0.342,1.463,0.474,0.101,0.342,1.483
0.202,0.664,1.035,0.636,-0.017,0.854,-0.071,-0.037,0.527,-0.154,1.498,0.904,1.495,-0.176,-0.036,0.731,0.361,0.419,-0.272,0.948,-0.073,-0.731,1.673,0.590,-0.014,-1.109,1.061,0.360,1.693,0.146,-0.383,1.518,0.394,0.158,0.267,1.599
0.335,0.697,0.983,0.782,0.104,0.682,-0.053,0.136,0.567,0.019,1.405,0.902,1.514,-0.245,0.023,0.992,0.180,0.286,-0.288,0.907,-0.057,-0.525,1.480,0.687,-0.005,-1.011,0.766,0.267,1.928,-0.087,-0.377,1.386,0.523,-0.350,0.743,1.624
0.188,0.791,0.882,0.914,0.129,0.479,-0.159,-0.387,0.897,0.115,1.490,0.714,1.407,-0.198,0.091,1.249,0.053,-0.029,-0.164,0.678,0.136,-0.535,1.690,0.427,-0.050,-1.475,0.859,0.031,2.035,-0.133,-0.466,1.637,0.308,-0.508,0.776,1.869
0.438,0.880,0.584,0.954,0.191,0.343,-0.114,-0.154,0.708,0.142,1.348,0.700,1.325,-0.127,0.149,1.001,0.364,0.057,-0.075,0.787,-0.024,-0.553,1.787,0.354,-0.530,-1.145,1.072,0.217,1.886,-0.068,-0.577,1.760,0.106,-0.390,0.963,1.465
0.403,0.882,0.732,0.829,0.210,0.441,-0.374,-0.197,1.031,-0.066,1.433,0.756,1.437,-0.156,0.036,0.750,0.425,0.151,-0.154,0.872,-0.067,-0.544,1.623,0.563,-0.237,-1.257,0.953,0.232,2.008,-0.129,-0.557,1.674,0.153,-0.290,0.649,1.603
0.381,1.009,0.535,0.716,0.268,0.584,-0.591,0.037,0.974,0.194,1.455,0.572,1.423,-0.129,-0.070,0.841,0.472,0.192,-0.236,1.034,-0.181,-0.542,1.585,0.640,-0.322,-1.320,1.290,0.251,1.903,-0.111,-0.527,1.780,0.170,-0.542,0.932,1.614
0.252,1.155,0.446,0.651,0.350,0.425,-0.700,0.027,0.775,0.212,1.357,0.632,1.498,-0.177,-0.168,0.801,0.653,0.131,-0.143,0.797,0.036,-0.618,1.501,0.814,-0.326,-1.203,1.523,0.418,1.626,0.133,-0.451,1.541,0.526,0.214,0.034,1.764
0.334,1.058,0.538,0.705,0.260,0.443,-0.572,0.123,0.600,0.279,1.423,0.637,1.402,-0.021,-0.191,0.716,0.661,0.233,-0.160,0.826,0.027,-0.658,1.569,0.785,-0.530,-1.402,1.640,0.315,1.830,-0.074,-0.474,1.309,0.769,0.686,-0.429,1.661
0.130,1.143,0.598,0.597,-0.026,0.663,-0.540,0.202,0.469,0.344,1.364,0.778,1.520,-0.085,-0.519,0.877,0.597,0.181,-0.050,0.573,0.060,-0.723,1.494,0.951,-0.126,-1.296,1.089,0.526,1.573,0.025,-0.307,1.462,0.568,1.416,-1.138,1.606
0.172,0.921,0.889,0.628,0.231,0.534,-0.536,0.025,0.478,0.364,1.368,0.702,1.413,-0.155,-0.245,0.671,0.679,0.268,-0.089,0.546,0.284,-0.744,1.503,0.965,0.171,-1.304,0.956,0.442,1.763,0.011,-0.085,1.288,0.666,1.018,-0.653,1.443
0.060,1.050,0.689,0.597,0.230,0.388,-0.396,0.185,0.448,0.394,1.106,0.730,1.456,-0.280,-0.203,0.557,0.611,0.358,-0.308,0.614,0.319,-0.588,1.348,0.997,0.231,-1.653,1.207,0.415,1.622,0.054,0.014,1.180,0.809,0.785,-0.362,1.614
0.365,0.758,0.761,0.532,0.431,0.285,-0.441,0.243,0.537,0.167,0.867,0.949,1.209,0.043,-0.222,0.539,0.731,0.449,-0.201,0.606,0.182,-0.675,1.545,0.841,0.522,-1.602,0.842,0.363,1.568,0.187,0.066,1.201,0.623,0.503,-0.450,1.909
0.345,0.819,0.750,0.260,0.484,0.318,-0.403,-0.075,0.841,0.156,1.090,0.890,0.995,0.235,-0.240,0.609,0.734,0.423,-0.196,0.678,-0.058,-0.523,1.314,0.880,1.002,-1.797,0.792,0.376,1.510,0.125,0.112,1.249,0.607,0.315,-0.299,2.114
0.247,0.918,0.771,0.195,0.512,0.092,-0.392,-0.161,0.740,0.364,1.143,0.804,0.974,0.280,-0.197,0.425,0.753,0.474,-0.190,0.633,0.095,-0.726,1.652,0.719,1.202,-1.673,0.582,0.345,1.554,0.093,0.091,1.162,0.601,0.587,-0.417,2.029
0.132,1.198,0.551,0.208,0.517,-0.138,-0.213,-0.064,0.596,0.356,1.305,0.705,0.764,0.395,-0.021,0.537,0.677,0.424,-0.126,0.531,0.037,-0.819,1.853,0.600,1.183,-1.355,0.381,0.246,1.692,0.168,0.128,1.149,0.629,0.518,-0.152,1.845
0.264,1.178,0.570,0.386,0.637,-0.083,-0.043,0.146,0.229,0.561,1.206,0.653,0.980,0.305,-0.193,0.450,0.716,0.433,-0.434,0.635,0.212,-0.889,2.007,0.540,0.944,-1.275,0.522,0.431,1.348,0.340,0.167,0.969,0.734,0.444,0.328,1.455
