0.100,0.100,0.100,0.100,0.100,0.100,0.100,0.100,0.100,0.100
-0.236,-0.236,0.113,-0.051,-0.315,-0.200,-0.321,0.514,-0.007,-0.208
-0.147,-0.102,0.083,0.089,-0.365,-0.245,-0.338,0.641,0.036,-0.136
-0.228,-0.034,0.199,0.162,-0.246,0.032,-0.044,0.720,0.210,0.077
-0.014,-0.018,0.183,0.226,-0.217,0.040,-0.151,0.770,0.175,0.068
-0.299,-0.303,0.009,-0.142,-0.459,-0.243,-0.439,0.515,-0.130,-0.219
-0.361,-0.177,-0.059,-0.088,-0.490,-0.206,-0.446,0.495,-0.127,-0.143
-0.432,-0.464,-0.093,-0.214,-0.681,-0.405,-0.668,0.352,-0.270,-0.265
-0.394,-0.528,-0.105,-0.287,-0.608,-0.386,-0.589,0.345,-0.264,-0.449
-0.375,-0.321,-0.137,-0.158,-0.554,-0.228,-0.506,0.412,-0.172,-0.280
-0.370,-0.276,-0.084,-0.111,-0.550,-0.346,-0.518,0.440,-0.226,-0.401
-0.284,-0.305,-0.074,-0.117,-0.463,-0.301,-0.535,0.409,-0.168,-0.236
-0.352,-0.354,-0.156,-0.218,-0.601,-0.423,-0.474,0.393,-0.213,-0.347
-0.325,-0.399,-0.011,-0.074,-0.594,-0.321,-0.359,0.467,-0.181,-0.212
-0.024,-0.081,0.256,0.223,-0.205,-0.026,-0.218,0.746,0.146,-0.008
-0.235,-0.264,0.150,0.000,-0.440,-0.189,-0.328,0.612,-0.047,-0.197
-0.237,-0.166,0.028,-0.004,-0.408,-0.115,-0.436,0.612,-0.075,-0.227
-0.272,-0.276,0.169,0.095,-0.383,-0.188,-0.270,0.662,-0.069,-0.110
-0.215,-0.306,0.080,0.001,-0.391,-0.193,-0.388,0.619,-0.103,-0.134
-0.104,-0.097,0.248,0.103,-0.259,-0.063,-0.220,0.774,0.076,0.033
-0.326,-0.300,-0.135,-0.198,-0.437,-0.426,-0.495,0.492,-0.198,-0.287
-0.714,-0.671,-0.405,-0.391,-0.816,-0.629,-0.796,0.213,-0.454,-0.611
-0.773,-0.680,-0.397,-0.581,-0.906,-0.535,-0.899,0.134,-0.492,-0.636
-0.665,-0.598,-0.378,-0.482,-0.893,-0.617,-0.838,0.128,-0.507,-0.636
-0.525,-0.614,-0.293,-0.387,-0.734,-0.602,-0.726,0.250,-0.419,-0.491
-0.222,-0.352,0.107,-0.104,-0.478,-0.180,-0.378,0.521,-0.104,-0.164
-0.338,-0.356,-0.053,-0.270,-0.532,-0.345,-0.566,0.452,-0.209,-0.339
-0.457,-0.332,-0.092,-0.130,-0.475,-0.305,-0.486,0.445,-0.242,-0.268
-0.328,-0.292,0.022,-0.056,-0.369,-0.245,-0.431,0.486,-0.132,-0.128
-0.399,-0.292,-0.024,-0.198,-0.563,-0.313,-0.512,0.419,-0.150,-0.228
-0.420,-0.407,-0.084,-0.194,-0.580,-0.390,-0.482,0.382,-0.234,-0.325
-0.398,-0.394,-0.063,-0.097,-0.652,-0.374,-0.503,0.483,-0.223,-0.357
-0.074,-0.006,0.282,0.238,-0.297,0.049,-0.051,0.839,0.149,0.066
-0.355,-0.243,0.050,-0.070,-0.462,-0.297,-0.386,0.494,-0.145,-0.342
-0.246,-0.215,0.102,0.080,-0.352,-0.128,-0.288,0.664,0.001,-0.067
-0.227,-0.215,0.183,0.152,-0.313,-0.142,-0.375,0.693,0.049,-0.065
0.043,0.041,0.412,0.324,-0.221,0.174,0.076,0.866,0.225,0.226
0.136,0.007,0.406,0.378,-0.168,0.209,-0.007,0.968,0.306,0.108
0.060,0.069,0.400,0.248,-0.112,0.191,-0.012,0.901,0.245,0.107
0.225,0.222,0.554,0.461,0.093,0.268,0.213,1.062,0.444,0.362
0.287,0.258,0.609,0.483,0.114,0.317,0.160,1.106,0.442,0.354
-0.007,0.003,0.387,0.275,-0.118,0.113,-0.124,0.872,0.189,0.142
-0.186,-0.248,0.066,-0.076,-0.364,-0.213,-0.254,0.584,-0.013,-0.130
-0.107,-0.204,0.194,0.074,-0.291,-0.066,-0.262,0.651,0.091,-0.051
0.046,-0.017,0.375,0.212,-0.133,0.171,-0.100,0.831,0.230,0.151
-0.313,-0.355,0.045,-0.041,-0.478,-0.223,-0.400,0.580,-0.116,-0.179
-0.308,-0.478,0.002,-0.062,-0.453,-0.249,-0.382,0.554,-0.168,-0.213
-0.454,-0.586,-0.154,-0.311,-0.742,-0.541,-0.677,0.274,-0.371,-0.425
-0.534,-0.491,-0.153,-0.373,-0.800,-0.552,-0.637,0.288,-0.413,-0.481
-0.443,-0.523,-0.145,-0.269,-0.677,-0.375,-0.622,0.338,-0.297,-0.314
-0.384,-0.467,-0.073,-0.203,-0.575,-0.402,-0.513,0.440,-0.171,-0.308
-0.369,-0.243,0.003,-0.136,-0.422,-0.259,-0.504,0.506,-0.105,-0.326
-0.404,-0.305,0.060,-0.191,-0.584,-0.316,-0.584,0.480,-0.114,-0.288
-0.275,-0.151,0.133,0.011,-0.313,-0.236,-0.326,0.630,0.038,-0.123
0.016,0.067,0.374,0.227,-0.144,0.042,-0.032,0.872,0.168,0.098
-0.128,-0.079,0.250,0.102,-0.193,-0.041,-0.090,0.816,0.111,0.025
-0.081,0.019,0.290,0.126,-0.221,-0.063,-0.218,0.713,0.159,0.006
-0.146,-0.237,0.110,-0.085,-0.472,-0.242,-0.405,0.554,-0.066,-0.182
-0.272,-0.297,0.113,-0.030,-0.448,-0.170,-0.382,0.495,-0.065,-0.234
-0.358,-0.289,0.025,-0.215,-0.520,-0.322,-0.455,0.477,-0.153,-0.223
-0.255,-0.180,0.071,-0.090,-0.413,-0.163,-0.331,0.605,-0.042,-0.052
-0.297,-0.200,0.058,-0.071,-0.510,-0.188,-0.417,0.484,-0.131,-0.186
-0.352,-0.341,-0.071,-0.232,-0.657,-0.375,-0.506,0.448,-0.215,-0.315
-0.489,-0.531,-0.123,-0.293,-0.678,-0.510,-0.553,0.367,-0.311,-0.391
-0.562,-0.634,-0.158,-0.338,-0.613,-0.522,-0.601,0.230,-0.328,-0.541
-0.642,-0.605,-0.198,-0.293,-0.775,-0.620,-0.752,0.196,-0.364,-0.503
-0.826,-0.818,-0.332,-0.585,-0.997,-0.804,-0.918,-0.018,-0.597,-0.585
-0.750,-0.696,-0.279,-0.476,-0.823,-0.606,-0.696,0.109,-0.445,-0.609
-0.823,-0.752,-0.417,-0.594,-0.969,-0.754,-0.910,0.012,-0.561,-0.729
-0.818,-0.746,-0.404,-0.604,-1.013,-0.718,-0.831,-0.000,-0.550,-0.745
-0.680,-0.795,-0.345,-0.544,-0.983,-0.683,-0.845,-0.001,-0.618,-0.737
-0.697,-0.770,-0.449,-0.688,-1.024,-0.823,-1.024,-0.042,-0.655,-0.747
-0.464,-0.627,-0.167,-0.351,-0.691,-0.498,-0.779,0.324,-0.397,-0.494
-0.408,-0.478,-0.090,-0.236,-0.606,-0.431,-0.624,0.379,-0.182,-0.336
-0.239,-0.298,0.139,-0.039,-0.446,-0.273,-0.395,0.537,-0.013,-0.235
-0.089,-0.067,0.206,0.125,-0.299,-0.134,-0.304,0.718,0.059,-0.065
0.084,0.006,0.374,0.097,-0.133,-0.067,-0.132,0.795,0.110,0.016
-0.242,-0.219,0.108,-0.173,-0.365,-0.324,-0.344,0.508,-0.105,-0.122
-0.263,-0.270,0.030,-0.113,-0.446,-0.305,-0.414,0.567,-0.069,-0.165
-0.113,-0.153,0.175,-0.007,-0.296,-0.222,-0.274,0.698,-0.002,-0.067
-0.082,-0.153,0.252,0.042,-0.310,-0.196,-0.197,0.771,0.089,-0.054
-0.036,-0.135,0.349,0.223,-0.228,-0.134,-0.031,0.835,0.128,0.053
-0.283,-0.469,0.017,-0.205,-0.626,-0.516,-0.537,0.432,-0.248,-0.355
-0.021,-0.127,0.240,0.033,-0.311,-0.176,-0.258,0.683,0.008,-0.148
0.225,0.194,0.453,0.266,0.001,0.088,0.043,0.965,0.468,0.260
0.368,0.323,0.729,0.558,0.165,0.300,0.294,1.151,0.502,0.455
0.396,0.164,0.689,0.498,0.049,0.187,0.136,1.084,0.482,0.313
-0.015,-0.051,0.358,0.118,-0.224,-0.127,-0.116,0.805,0.289,0.126
-0.088,-0.137,0.291,-0.003,-0.249,-0.107,-0.185,0.699,0.127,-0.063
-0.285,-0.212,0.064,-0.189,-0.504,-0.290,-0.308,0.570,-0.088,-0.177
-0.166,-0.075,0.231,-0.007,-0.350,-0.168,-0.250,0.725,0.043,-0.046
-0.100,-0.163,0.120,-0.093,-0.470,-0.307,-0.383,0.555,0.010,-0.118
0.001,-0.035,0.316,0.056,-0.250,-0.125,-0.188,0.748,0.155,0.003
-0.117,-0.173,0.250,-0.091,-0.367,-0.236,-0.380,0.608,-0.040,-0.130
-0.090,-0.080,0.194,-0.043,-0.347,-0.152,-0.258,0.697,-0.044,-0.070
-0.269,-0.348,0.064,-0.073,-0.380,-0.231,-0.442,0.523,-0.131,-0.119
-0.205,-0.216,0.262,0.023,-0.344,-0.175,-0.267,0.677,0.022,-0.054
-0.023,-0.134,0.282,0.062,-0.261,-0.117,-0.289,0.654,0.076,-0.079
-0.104,-0.126,0.165,0.039,-0.264,-0.144,-0.341,0.653,0.078,-0.046
-0.053,-0.213,0.232,-0.017,-0.323,-0.180,-0.238,0.701,0.065,-0.058
-0.059,-0.171,0.190,-0.060,-0.288,-0.156,-0.247,0.731,0.009,-0.131
-0.143,-0.176,0.288,-0.001,-0.367,-0.133,-0.157,0.682,0.056,0.006
-0.449,-0.452,-0.052,-0.295,-0.671,-0.460,-0.577,0.400,-0.217,-0.351
-0.529,-0.645,-0.233,-0.458,-0.767,-0.582,-0.763,0.175,-0.332,-0.569
-0.389,-0.560,-0.145,-0.311,-0.708,-0.542,-0.659,0.262,-0.309,-0.419
-0.313,-0.462,-0.051,-0.221,-0.598,-0.377,-0.607,0.345,-0.149,-0.338
-0.261,-0.362,0.059,-0.128,-0.485,-0.274,-0.529,0.453,-0.078,-0.287
-0.045,-0.107,0.311,0.114,-0.249,-0.084,-0.168,0.816,0.197,-0.022
-0.227,-0.194,0.159,-0.093,-0.384,-0.214,-0.302,0.663,-0.036,-0.116
-0.322,-0.393,0.014,-0.241,-0.615,-0.350,-0.501,0.495,-0.192,-0.303
-0.194,-0.248,0.140,-0.071,-0.498,-0.188,-0.356,0.614,-0.070,-0.122
-0.042,-0.064,0.334,0.005,-0.291,-0.098,-0.169,0.754,0.096,-0.036
-0.091,-0.229,0.230,-0.035,-0.340,-0.252,-0.230,0.604,-0.020,-0.167
-0.270,-0.362,-0.096,-0.184,-0.513,-0.370,-0.544,0.415,-0.210,-0.298
-0.033,-0.173,0.132,-0.041,-0.363,-0.156,-0.306,0.669,-0.049,-0.054
-0.033,-0.053,0.208,0.070,-0.345,-0.156,-0.238,0.735,0.166,0.023
0.041,-0.052,0.293,0.107,-0.344,-0.160,-0.150,0.772,0.132,-0.020
0.141,-0.046,0.399,0.069,-0.189,-0.177,-0.211,0.831,0.177,0.070
0.078,-0.000,0.366,0.066,-0.191,-0.082,-0.150,0.820,0.184,0.091
0.058,0.049,0.435,0.153,-0.205,-0.144,-0.132,0.764,0.143,0.059
-0.051,-0.107,0.301,-0.062,-0.387,-0.153,-0.207,0.676,0.051,-0.070
-0.073,-0.196,0.124,-0.143,-0.541,-0.261,-0.404,0.577,-0.087,-0.227
-0.110,-0.145,0.133,-0.004,-0.468,-0.227,-0.266,0.608,0.038,-0.086
-0.015,-0.048,0.301,0.100,-0.265,-0.110,-0.170,0.766,0.186,0.080
-0.126,-0.118,0.214,-0.000,-0.214,-0.167,-0.284,0.722,0.072,-0.102
0.056,-0.022,0.349,0.082,-0.261,-0.045,-0.233,0.796,0.156,0.010
0.221,0.106,0.617,0.282,-0.030,0.084,0.098,1.040,0.311,0.269
0.361,0.222,0.693,0.460,0.133,0.216,0.273,1.120,0.509,0.349
0.384,0.284,0.766,0.568,0.211,0.311,0.300,1.167,0.553,0.470
0.371,0.273,0.685,0.410,0.024,0.181,0.053,1.039,0.450,0.307
0.456,0.353,0.768,0.568,0.138,0.257,0.176,1.154,0.541,0.450
0.620,0.350,0.869,0.687,0.312,0.407,0.338,1.324,0.664,0.532
0.496,0.388,0.732,0.592,0.222,0.353,0.223,1.253,0.505,0.442
0.542,0.365,0.849,0.638,0.296,0.326,0.263,1.274,0.646,0.424
0.349,0.299,0.645,0.397,0.021,0.196,0.215,1.082,0.536,0.341
0.158,0.132,0.557,0.314,0.039,0.064,0.093,0.902,0.375,0.220
0.337,0.261,0.742,0.450,0.084,0.268,0.242,1.117,0.536,0.355
0.175,0.134,0.560,0.364,-0.097,0.071,0.079,0.990,0.300,0.161
0.213,0.075,0.685,0.369,0.068,0.221,0.000,0.978,0.265,0.231
0.439,0.328,0.817,0.492,0.317,0.387,0.187,1.179,0.546,0.412
0.143,0.009,0.541,0.261,-0.090,-0.008,-0.003,0.911,0.286,0.146
-0.079,-0.208,0.267,-0.014,-0.363,-0.166,-0.259,0.652,-0.012,-0.141
-0.156,-0.422,0.166,-0.065,-0.464,-0.299,-0.403,0.567,-0.076,-0.225
-0.202,-0.441,0.095,-0.127,-0.568,-0.291,-0.419,0.558,-0.155,-0.127
0.057,-0.032,0.375,0.132,-0.231,-0.011,-0.118,0.893,0.195,0.131
-0.026,-0.075,0.382,0.072,-0.281,-0.129,-0.171,0.729,0.097,0.087
-0.057,-0.107,0.338,0.001,-0.311,-0.202,-0.301,0.659,0.028,-0.014
-0.482,-0.607,-0.174,-0.456,-0.784,-0.561,-0.756,0.207,-0.430,-0.491
-0.561,-0.599,-0.180,-0.484,-0.733,-0.543,-0.723,0.259,-0.397,-0.482
-0.528,-0.581,-0.120,-0.458,-0.730,-0.604,-0.653,0.290,-0.315,-0.503
-0.411,-0.394,-0.028,-0.368,-0.557,-0.481,-0.561,0.400,-0.296,-0.382
-0.362,-0.421,-0.036,-0.227,-0.616,-0.447,-0.491,0.414,-0.198,-0.432
-0.272,-0.338,0.100,-0.181,-0.597,-0.401,-0.415,0.484,-0.077,-0.243
-0.287,-0.283,0.200,-0.136,-0.454,-0.368,-0.462,0.524,-0.153,-0.263
-0.245,-0.302,0.213,-0.182,-0.438,-0.293,-0.374,0.518,-0.131,-0.180
-0.290,-0.467,0.001,-0.239,-0.584,-0.358,-0.476,0.393,-0.229,-0.353
-0.138,-0.202,0.143,-0.093,-0.342,-0.204,-0.310,0.673,-0.088,-0.162
-0.105,-0.173,0.262,-0.029,-0.387,-0.115,-0.279,0.667,-0.035,-0.097
0.104,-0.052,0.315,0.180,-0.230,0.076,-0.098,0.836,0.134,0.099
0.032,-0.012,0.467,0.225,-0.103,0.017,-0.042,0.885,0.216,0.120
-0.068,-0.180,0.337,0.101,-0.227,-0.114,-0.165,0.702,0.086,0.014
-0.019,-0.230,0.256,0.057,-0.261,-0.144,-0.174,0.757,0.153,-0.036
-0.088,-0.325,0.192,-0.022,-0.272,-0.247,-0.275,0.695,0.010,-0.125
-0.172,-0.312,0.227,-0.015,-0.394,-0.217,-0.239,0.629,0.025,-0.116
0.025,-0.092,0.400,0.083,-0.255,-0.078,-0.176,0.766,0.119,-0.015
-0.236,-0.370,0.085,-0.174,-0.545,-0.423,-0.428,0.489,-0.115,-0.320
-0.378,-0.506,-0.107,-0.379,-0.667,-0.540,-0.573,0.310,-0.311,-0.465
-0.139,-0.231,0.230,-0.140,-0.365,-0.158,-0.390,0.621,0.028,-0.095
-0.282,-0.337,0.205,-0.197,-0.488,-0.377,-0.447,0.477,-0.118,-0.237
-0.067,-0.304,0.202,-0.129,-0.448,-0.271,-0.310,0.561,-0.109,-0.205
-0.220,-0.489,0.047,-0.336,-0.489,-0.525,-0.514,0.406,-0.220,-0.341
-0.014,-0.142,0.279,0.048,-0.180,-0.184,-0.302,0.637,0.088,-0.089
0.059,-0.055,0.342,0.064,-0.192,-0.240,-0.114,0.763,0.171,0.029
0.098,-0.071,0.423,0.116,-0.184,-0.144,-0.210,0.783,0.109,0.091
0.092,0.015,0.424,0.165,-0.021,-0.038,-0.224,0.800,0.114,0.181
0.003,-0.045,0.411,0.127,-0.082,-0.100,-0.199,0.786,0.129,0.091
0.136,0.070,0.535,0.190,-0.037,0.045,-0.049,0.911,0.304,0.171
0.344,0.222,0.692,0.405,0.094,0.156,0.147,1.038,0.536,0.308
0.340,0.149,0.613,0.379,-0.003,0.209,0.151,1.051,0.321,0.259
0.258,0.170,0.574,0.409,0.062,0.190,0.108,1.028,0.316,0.260
0.306,0.279,0.764,0.342,0.213,0.326,0.068,1.058,0.422,0.370
0.316,0.323,0.693,0.363,0.232,0.218,0.049,1.072,0.448,0.397
0.146,0.059,0.560,0.143,0.007,0.030,-0.100,0.902,0.269,0.124
0.034,-0.042,0.457,0.116,-0.085,-0.004,-0.099,0.774,0.162,0.093
0.061,0.003,0.455,0.187,-0.194,-0.018,-0.042,0.846,0.213,0.080
0.007,0.025,0.480,0.210,-0.130,0.019,-0.100,0.818,0.203,0.146
-0.176,-0.238,0.251,-0.086,-0.426,-0.266,-0.384,0.560,-0.057,-0.183
-0.360,-0.462,0.047,-0.242,-0.500,-0.419,-0.513,0.471,-0.208,-0.350
-0.524,-0.498,-0.106,-0.356,-0.601,-0.530,-0.689,0.324,-0.327,-0.379
-0.285,-0.376,0.066,-0.187,-0.486,-0.395,-0.455,0.478,-0.085,-0.197
-0.362,-0.382,-0.006,-0.234,-0.539,-0.463,-0.497,0.402,-0.231,-0.324
-0.185,-0.272,0.110,-0.164,-0.497,-0.343,-0.360,0.544,-0.148,-0.185
-0.304,-0.464,0.016,-0.305,-0.613,-0.532,-0.495,0.428,-0.172,-0.282
-0.383,-0.484,-0.037,-0.396,-0.647,-0.581,-0.491,0.321,-0.267,-0.359
-0.284,-0.252,0.105,-0.248,-0.561,-0.420,-0.502,0.415,-0.232,-0.235
-0.342,-0.487,-0.030,-0.283,-0.528,-0.552,-0.539,0.342,-0.299,-0.391
-0.138,-0.313,0.202,-0.148,-0.331,-0.338,-0.248,0.582,-0.115,-0.135
0.064,0.040,0.399,0.089,-0.150,-0.106,-0.125,0.820,0.083,0.090
-0.012,-0.104,0.283,0.042,-0.317,-0.143,-0.238,0.749,0.089,0.042
-0.086,-0.186,0.196,-0.049,-0.288,-0.149,-0.325,0.658,0.059,-0.066
-0.403,-0.420,-0.056,-0.318,-0.610,-0.441,-0.579,0.350,-0.296,-0.363
-0.377,-0.385,-0.030,-0.378,-0.503,-0.540,-0.631,0.359,-0.292,-0.427
-0.679,-0.733,-0.093,-0.589,-0.818,-0.700,-0.918,0.138,-0.450,-0.594
-0.537,-0.568,-0.193,-0.451,-0.707,-0.633,-0.687,0.246,-0.342,-0.527
-0.594,-0.536,-0.173,-0.427,-0.735,-0.670,-0.670,0.179,-0.426,-0.564
-0.909,-0.846,-0.476,-0.733,-0.973,-0.972,-0.951,-0.137,-0.727,-0.792
-0.924,-0.947,-0.531,-0.758,-1.107,-0.907,-1.014,-0.075,-0.808,-0.919
-0.882,-0.968,-0.536,-0.651,-1.165,-0.905,-1.105,-0.117,-0.825,-0.925
-0.657,-0.767,-0.362,-0.549,-0.897,-0.793,-0.872,0.079,-0.563,-0.729
-0.355,-0.433,-0.097,-0.288,-0.567,-0.498,-0.493,0.352,-0.301,-0.406
-0.255,-0.437,0.053,-0.239,-0.490,-0.466,-0.514,0.441,-0.179,-0.333
-0.256,-0.365,0.090,-0.217,-0.427,-0.307,-0.459,0.488,-0.156,-0.221
-0.536,-0.606,-0.160,-0.538,-0.743,-0.593,-0.744,0.222,-0.399,-0.482
-0.668,-0.743,-0.217,-0.609,-0.817,-0.744,-0.862,0.079,-0.604,-0.616
-0.375,-0.421,-0.058,-0.306,-0.538,-0.482,-0.627,0.344,-0.314,-0.418
-0.595,-0.681,-0.212,-0.475,-0.793,-0.726,-0.770,0.210,-0.448,-0.612
-0.312,-0.294,0.185,-0.246,-0.533,-0.360,-0.486,0.509,-0.138,-0.338
-0.247,-0.221,0.181,-0.187,-0.379,-0.282,-0.361,0.559,-0.036,-0.189
-0.223,-0.210,0.254,-0.091,-0.367,-0.273,-0.212,0.691,0.021,-0.061
-0.080,-0.097,0.297,0.018,-0.178,-0.196,-0.090,0.762,0.135,0.024
-0.215,-0.231,0.153,-0.195,-0.350,-0.274,-0.298,0.601,-0.014,-0.163
-0.010,-0.207,0.258,-0.040,-0.281,-0.134,-0.302,0.696,0.073,-0.053
-0.009,-0.120,0.401,0.091,-0.195,0.021,-0.091,0.841,0.122,0.090
0.192,0.107,0.573,0.249,-0.037,0.109,-0.034,0.919,0.260,0.226
0.156,0.085,0.535,0.335,-0.019,0.127,-0.058,0.910,0.309,0.140
0.276,0.207,0.553,0.342,-0.046,0.166,0.065,0.969,0.408,0.215
0.255,0.057,0.554,0.302,0.016,0.082,-0.022,0.973,0.315,0.252
0.230,0.157,0.663,0.338,0.040,0.235,0.105,1.045,0.384,0.275
-0.131,-0.197,0.285,-0.114,-0.385,-0.259,-0.352,0.673,0.074,-0.127
-0.038,-0.174,0.285,0.025,-0.331,-0.204,-0.391,0.653,0.061,0.022
-0.098,-0.211,0.262,-0.013,-0.421,-0.188,-0.426,0.596,0.016,-0.055
-0.423,-0.490,0.018,-0.284,-0.594,-0.425,-0.492,0.404,-0.149,-0.326
-0.374,-0.347,-0.020,-0.216,-0.439,-0.393,-0.580,0.477,-0.132,-0.242
-0.001,-0.143,0.331,0.016,-0.174,-0.095,-0.193,0.742,0.100,0.037
0.055,-0.065,0.441,0.072,-0.157,-0.051,-0.106,0.821,0.193,0.023
-0.052,-0.054,0.429,0.086,-0.175,-0.148,-0.205,0.793,0.154,-0.033
0.009,0.007,0.331,0.092,-0.252,-0.027,-0.216,0.771,0.124,0.066
0.058,-0.027,0.461,0.085,-0.195,0.018,-0.076,0.853,0.119,0.081
0.017,-0.018,0.382,0.029,-0.097,-0.092,-0.179,0.849,0.143,0.049
0.044,-0.062,0.401,0.064,-0.113,-0.012,-0.102,0.861,0.173,0.137
0.195,0.040,0.508,0.191,-0.043,0.084,-0.020,0.859,0.320,0.065
0.166,0.068,0.493,0.199,-0.065,0.085,-0.147,0.874,0.271,0.047
0.035,-0.133,0.329,0.031,-0.162,-0.060,-0.195,0.794,0.175,-0.030
0.267,0.208,0.632,0.202,0.167,0.253,0.087,1.068,0.373,0.278
0.192,0.039,0.470,0.185,-0.066,0.144,-0.052,0.889,0.224,0.177
0.217,0.140,0.557,0.197,0.017,0.172,0.001,0.963,0.283,0.244
0.184,0.093,0.488,0.266,-0.009,0.086,-0.009,0.943,0.325,0.194
0.571,0.292,0.768,0.495,0.235,0.368,0.232,1.153,0.640,0.442
0.312,0.170,0.662,0.332,0.025,0.163,0.092,1.026,0.413,0.287
0.208,0.187,0.611,0.265,-0.047,0.176,0.025,0.988,0.368,0.338
0.147,-0.036,0.556,0.206,-0.117,0.151,-0.057,0.927,0.205,0.175
0.441,0.309,0.700,0.417,0.201,0.381,0.202,1.210,0.515,0.481
0.393,0.342,0.718,0.350,0.109,0.345,0.206,1.204,0.489,0.393
0.554,0.566,0.886,0.593,0.317,0.556,0.410,1.383,0.721,0.604
0.463,0.496,0.899,0.609,0.345,0.424,0.255,1.264,0.644,0.499
0.446,0.368,0.789,0.477,0.181,0.353,0.150,1.126,0.509,0.373
0.494,0.325,0.869,0.450,0.259,0.298,0.347,1.211,0.556,0.498
0.499,0.351,0.952,0.630,0.377,0.393,0.357,1.316,0.692,0.668
0.558,0.491,0.966,0.603,0.340,0.477,0.416,1.336,0.736,0.617
0.102,0.035,0.472,0.187,-0.117,0.064,0.029,0.921,0.252,0.168
0.195,0.161,0.606,0.261,0.018,0.207,0.067,0.947,0.427,0.254
0.293,0.215,0.673,0.316,0.031,0.249,0.134,1.034,0.436,0.396
0.316,0.128,0.577,0.284,0.072,0.158,0.050,0.989,0.330,0.306
0.437,0.295,0.747,0.452,0.106,0.294,0.241,1.142,0.512,0.405
0.368,0.343,0.792,0.363,0.051,0.320,0.157,1.157,0.486,0.367
0.130,0.099,0.572,0.137,-0.031,0.134,-0.047,0.940,0.361,0.200
-0.175,-0.336,0.156,-0.122,-0.412,-0.320,-0.373,0.524,0.001,-0.156
-0.147,-0.169,0.271,-0.015,-0.305,-0.140,-0.159,0.672,0.108,-0.086
-0.311,-0.386,0.215,-0.102,-0.449,-0.257,-0.434,0.555,-0.106,-0.140
-0.570,-0.539,0.032,-0.355,-0.527,-0.403,-0.610,0.372,-0.259,-0.399
-0.407,-0.477,-0.039,-0.428,-0.634,-0.377,-0.606,0.324,-0.267,-0.385
-0.291,-0.354,0.112,-0.167,-0.443,-0.196,-0.348,0.551,-0.125,-0.188
-0.457,-0.474,0.028,-0.380,-0.656,-0.445,-0.499,0.397,-0.255,-0.380
-0.382,-0.346,0.025,-0.288,-0.509,-0.416,-0.432,0.485,-0.201,-0.289
-0.045,-0.001,0.418,0.062,-0.129,-0.004,-0.180,0.762,0.201,0.061
-0.220,-0.336,0.161,-0.134,-0.336,-0.259,-0.324,0.606,-0.022,-0.099
-0.108,-0.266,0.201,-0.059,-0.300,-0.250,-0.320,0.621,0.057,-0.036
-0.119,-0.204,0.208,-0.045,-0.299,-0.242,-0.345,0.620,-0.050,-0.175
0.120,-0.072,0.414,0.003,-0.221,-0.050,-0.115,0.773,0.108,0.122
0.174,0.040,0.518,0.199,-0.041,0.105,-0.069,0.926,0.289,0.246
0.384,0.325,0.718,0.455,0.185,0.271,0.228,1.219,0.525,0.417
0.126,0.095,0.458,0.172,-0.110,-0.016,0.043,0.949,0.256,0.183
0.131,-0.016,0.395,0.130,-0.070,0.085,-0.093,0.937,0.290,0.048
0.074,0.062,0.489,0.205,-0.060,0.046,-0.072,0.961,0.285,0.075
0.297,0.252,0.667,0.374,0.137,0.218,0.059,1.105,0.461,0.244
0.458,0.437,0.837,0.570,0.286,0.473,0.255,1.251,0.621,0.563
0.293,0.157,0.549,0.263,0.105,0.178,-0.018,1.039,0.406,0.284
0.223,0.053,0.578,0.169,0.021,0.083,0.027,0.960,0.227,0.227
0.093,-0.004,0.479,0.192,-0.028,0.029,-0.012,0.907,0.302,0.179
0.192,0.150,0.546,0.220,0.017,0.139,0.030,1.019,0.335,0.267
0.413,0.230,0.715,0.418,0.169,0.384,0.204,1.180,0.568,0.475
0.301,0.214,0.581,0.329,0.059,0.191,0.145,1.065,0.381,0.283
0.347,0.203,0.629,0.412,0.117,0.254,0.152,1.091,0.432,0.286
0.075,-0.022,0.327,0.098,-0.292,-0.094,-0.121,0.733,0.126,0.077
0.288,0.175,0.626,0.368,-0.032,0.169,0.179,1.050,0.367,0.306
0.356,0.174,0.660,0.323,-0.070,0.064,0.124,0.997,0.378,0.232
0.147,0.073,0.548,0.313,-0.098,0.004,-0.045,0.945,0.298,0.208
0.197,0.083,0.570,0.338,-0.028,0.111,0.010,1.000,0.404,0.350
0.449,0.324,0.824,0.547,0.194,0.437,0.235,1.259,0.579,0.481
0.336,0.333,0.685,0.424,0.126,0.370,0.181,1.201,0.478,0.375
0.351,0.327,0.745,0.453,0.137,0.270,0.166,1.184,0.499,0.436
0.368,0.348,0.830,0.455,0.187,0.281,0.209,1.206,0.556,0.435
0.423,0.318,0.800,0.537,0.339,0.417,0.268,1.256,0.601,0.427
0.262,0.182,0.608,0.260,0.027,0.267,0.150,1.080,0.450,0.292
0.565,0.449,0.880,0.528,0.384,0.502,0.380,1.287,0.703,0.538
0.498,0.386,0.824,0.560,0.263,0.447,0.189,1.261,0.640,0.555
0.474,0.389,0.811,0.578,0.265,0.464,0.236,1.254,0.563,0.528
0.478,0.470,0.888,0.496,0.317,0.535,0.351,1.301,0.622,0.512
0.554,0.445,0.865,0.493,0.277,0.542,0.318,1.292,0.632,0.530
0.572,0.518,0.822,0.528,0.368,0.519,0.346,1.354,0.674,0.493
0.635,0.499,0.852,0.722,0.478,0.609,0.486,1.379,0.735,0.575
0.451,0.410,0.726,0.504,0.288,0.369,0.330,1.195,0.577,0.412
0.467,0.384,0.857,0.452,0.223,0.357,0.318,1.263,0.549,0.404
0.362,0.378,0.793,0.484,0.165,0.378,0.254,1.197,0.536,0.386
0.402,0.425,0.827,0.469,0.381,0.334,0.296,1.242,0.612,0.500
0.405,0.372,0.782,0.435,0.220,0.305,0.223,1.165,0.520,0.448
0.495,0.361,0.823,0.529,0.316,0.508,0.344,1.243,0.650,0.497
0.530,0.370,0.890,0.669,0.349,0.474,0.469,1.314,0.630,0.629
0.266,0.171,0.662,0.333,0.147,0.185,0.165,1.068,0.430,0.334
-0.378,-0.405,-0.005,-0.278,-0.543,-0.378,-0.466,0.440,-0.275,-0.314
-0.398,-0.469,-0.052,-0.245,-0.595,-0.394,-0.518,0.452,-0.278,-0.286
-0.202,-0.378,0.127,-0.142,-0.391,-0.264,-0.354,0.552,-0.071,-0.082
0.091,-0.161,0.391,0.198,-0.144,0.072,-0.058,0.859,0.177,0.180
-0.129,-0.282,0.179,-0.017,-0.381,-0.230,-0.296,0.640,0.024,-0.082
-0.367,-0.407,0.024,-0.270,-0.571,-0.509,-0.496,0.365,-0.098,-0.333
-0.705,-0.698,-0.291,-0.559,-0.831,-0.770,-0.845,0.112,-0.506,-0.570
-0.650,-0.616,-0.305,-0.569,-0.792,-0.672,-0.784,0.130,-0.428,-0.575
-0.650,-0.644,-0.269,-0.519,-0.720,-0.755,-0.797,0.165,-0.442,-0.573
-0.587,-0.690,-0.211,-0.449,-0.691,-0.632,-0.763,0.216,-0.411,-0.426
-0.567,-0.708,-0.138,-0.478,-0.629,-0.623,-0.773,0.275,-0.456,-0.523
-0.495,-0.747,-0.209,-0.473,-0.711,-0.619,-0.724,0.223,-0.444,-0.506
-0.843,-0.850,-0.422,-0.676,-0.917,-0.750,-0.956,0.005,-0.541,-0.656
-0.979,-0.856,-0.602,-0.773,-0.984,-0.892,-0.996,-0.076,-0.726,-0.771
-1.155,-1.193,-0.781,-1.101,-1.365,-1.241,-1.196,-0.321,-0.917,-1.047
-0.865,-0.953,-0.563,-0.811,-0.978,-0.958,-0.954,-0.108,-0.677,-0.794
-0.741,-0.881,-0.499,-0.736,-0.989,-0.892,-0.927,-0.050,-0.672,-0.845
-0.611,-0.677,-0.272,-0.487,-0.742,-0.637,-0.714,0.204,-0.416,-0.603
-0.359,-0.442,-0.088,-0.252,-0.508,-0.378,-0.530,0.401,-0.224,-0.368
-0.429,-0.471,-0.117,-0.276,-0.543,-0.435,-0.617,0.303,-0.246,-0.313
-0.381,-0.502,-0.018,-0.241,-0.412,-0.333,-0.502,0.452,-0.189,-0.261
-0.740,-0.903,-0.404,-0.635,-0.841,-0.773,-0.884,0.022,-0.501,-0.704
-0.641,-0.720,-0.279,-0.642,-0.674,-0.541,-0.693,0.186,-0.510,-0.635
-0.656,-0.799,-0.362,-0.665,-0.857,-0.641,-0.806,0.128,-0.547,-0.632
-0.513,-0.614,-0.262,-0.498,-0.705,-0.584,-0.681,0.226,-0.401,-0.516
-0.418,-0.641,-0.157,-0.283,-0.639,-0.479,-0.642,0.309,-0.283,-0.390
-0.391,-0.486,-0.123,-0.349,-0.490,-0.373,-0.539,0.387,-0.213,-0.382
-0.209,-0.166,0.184,-0.099,-0.331,-0.230,-0.398,0.634,0.042,-0.100
-0.431,-0.383,0.031,-0.246,-0.509,-0.359,-0.521,0.534,-0.135,-0.199
-0.333,-0.420,0.006,-0.279,-0.509,-0.304,-0.529,0.511,-0.062,-0.189
-0.129,-0.315,0.174,-0.098,-0.261,-0.140,-0.340,0.606,0.036,-0.037
-0.117,-0.238,0.115,-0.141,-0.294,-0.139,-0.261,0.669,0.023,-0.086
-0.208,-0.136,0.220,-0.106,-0.288,-0.140,-0.317,0.683,-0.017,-0.086
-0.171,-0.220,0.180,-0.083,-0.239,-0.255,-0.356,0.644,-0.009,-0.132
-0.318,-0.355,0.087,-0.197,-0.375,-0.341,-0.432,0.521,-0.098,-0.186
-0.134,-0.243,0.171,-0.078,-0.243,-0.252,-0.319,0.585,-0.034,-0.058
-0.292,-0.353,-0.028,-0.240,-0.432,-0.427,-0.421,0.461,-0.177,-0.276
-0.210,-0.237,0.118,-0.217,-0.281,-0.217,-0.332,0.553,-0.066,-0.202
-0.153,-0.321,0.178,-0.170,-0.435,-0.184,-0.293,0.568,-0.079,-0.108
-0.108,-0.229,0.227,-0.066,-0.273,-0.197,-0.174,0.648,0.029,-0.070
-0.024,-0.157,0.237,-0.012,-0.338,-0.116,-0.177,0.738,0.089,0.002
-0.180,-0.300,0.140,-0.134,-0.410,-0.278,-0.359,0.619,0.013,-0.178
-0.210,-0.350,0.038,-0.092,-0.392,-0.326,-0.324,0.571,-0.008,-0.166
-0.277,-0.419,0.045,-0.202,-0.439,-0.392,-0.437,0.491,-0.237,-0.277
-0.482,-0.528,-0.176,-0.465,-0.613,-0.530,-0.579,0.276,-0.341,-0.482
-0.460,-0.661,-0.243,-0.576,-0.714,-0.689,-0.753,0.143,-0.383,-0.569
-0.485,-0.670,-0.246,-0.444,-0.642,-0.627,-0.752,0.197,-0.389,-0.460
-0.403,-0.547,-0.185,-0.311,-0.548,-0.539,-0.597,0.326,-0.326,-0.363
-0.310,-0.427,-0.055,-0.321,-0.502,-0.483,-0.524,0.432,-0.237,-0.311
-0.458,-0.598,-0.161,-0.483,-0.676,-0.602,-0.590,0.294,-0.375,-0.493
-0.535,-0.750,-0.300,-0.501,-0.768,-0.648,-0.824,0.207,-0.461,-0.602
-0.415,-0.672,-0.244,-0.445,-0.660,-0.557,-0.623,0.248,-0.385,-0.412
-0.238,-0.482,0.034,-0.187,-0.407,-0.380,-0.468,0.489,-0.165,-0.290
-0.358,-0.560,-0.006,-0.270,-0.533,-0.564,-0.414,0.361,-0.270,-0.324
-0.480,-0.678,-0.211,-0.427,-0.690,-0.637,-0.641,0.257,-0.351,-0.553
-0.266,-0.456,0.054,-0.164,-0.515,-0.425,-0.424,0.459,-0.204,-0.426
-0.345,-0.493,-0.031,-0.256,-0.525,-0.457,-0.456,0.467,-0.191,-0.383
-0.465,-0.541,-0.210,-0.433,-0.820,-0.618,-0.703,0.256,-0.343,-0.511
-0.751,-0.976,-0.563,-0.737,-1.015,-0.935,-0.992,-0.101,-0.736,-0.711
-0.804,-1.011,-0.680,-0.705,-1.127,-1.076,-1.091,-0.095,-0.836,-0.846
-0.827,-0.948,-0.579,-0.794,-1.032,-1.026,-1.041,-0.045,-0.770,-0.811
-0.546,-0.702,-0.328,-0.461,-0.790,-0.738,-0.804,0.165,-0.426,-0.609
-0.427,-0.584,-0.151,-0.308,-0.579,-0.587,-0.579,0.350,-0.243,-0.371
-0.613,-0.736,-0.372,-0.526,-0.760,-0.803,-0.815,0.125,-0.515,-0.641
-0.437,-0.564,-0.213,-0.361,-0.624,-0.556,-0.614,0.310,-0.327,-0.453
-0.587,-0.712,-0.194,-0.397,-0.680,-0.614,-0.696,0.215,-0.346,-0.563
-0.316,-0.352,-0.060,-0.181,-0.522,-0.477,-0.467,0.447,-0.130,-0.285
-0.075,-0.143,0.226,0.018,-0.240,-0.184,-0.363,0.708,0.112,-0.060
-0.002,-0.050,0.393,0.138,-0.196,-0.105,-0.140,0.796,0.162,0.087
-0.143,-0.227,0.233,0.024,-0.348,-0.191,-0.226,0.694,0.055,-0.052
0.223,0.147,0.507,0.336,0.058,0.082,0.100,1.037,0.388,0.252
0.118,-0.108,0.370,0.095,-0.189,-0.108,-0.033,0.794,0.247,0.134
-0.096,-0.180,0.235,-0.034,-0.334,-0.250,-0.262,0.616,0.112,-0.008
-0.030,-0.156,0.232,0.068,-0.302,-0.055,-0.144,0.808,0.054,0.001
0.243,0.085,0.528,0.322,0.051,0.113,0.143,0.988,0.293,0.183
-0.013,-0.125,0.231,0.039,-0.257,-0.142,-0.114,0.707,0.092,-0.101
-0.020,-0.123,0.297,0.143,-0.213,-0.133,-0.139,0.745,0.171,-0.004
-0.242,-0.360,-0.067,-0.166,-0.535,-0.392,-0.426,0.474,-0.180,-0.233
-0.154,-0.246,0.131,-0.022,-0.261,-0.151,-0.206,0.587,0.016,-0.127
-0.209,-0.301,0.109,-0.236,-0.450,-0.332,-0.339,0.487,-0.109,-0.229
-0.488,-0.558,-0.104,-0.393,-0.605,-0.531,-0.579,0.322,-0.234,-0.425
-0.558,-0.684,-0.205,-0.484,-0.802,-0.680,-0.729,0.269,-0.444,-0.479
-0.649,-0.747,-0.365,-0.586,-0.878,-0.694,-0.815,0.124,-0.427,-0.513
-0.799,-0.900,-0.523,-0.747,-1.019,-0.879,-0.947,-0.054,-0.656,-0.714
-0.733,-0.695,-0.327,-0.492,-0.799,-0.727,-0.775,0.125,-0.457,-0.572
-0.584,-0.688,-0.321,-0.436,-0.882,-0.710,-0.698,0.117,-0.448,-0.626
-0.426,-0.605,-0.182,-0.299,-0.754,-0.585,-0.553,0.314,-0.308,-0.453
-0.544,-0.723,-0.290,-0.481,-0.777,-0.749,-0.708,0.123,-0.419,-0.630
-0.377,-0.504,-0.108,-0.356,-0.660,-0.614,-0.590,0.287,-0.223,-0.446
-0.126,-0.202,0.153,-0.068,-0.328,-0.371,-0.322,0.575,-0.023,-0.175
0.126,0.061,0.538,0.272,-0.051,0.079,-0.096,0.936,0.337,0.140
0.111,0.092,0.463,0.186,-0.025,0.073,-0.008,0.904,0.309,0.169
-0.099,-0.220,0.213,0.031,-0.338,-0.171,-0.243,0.696,0.064,0.028
-0.124,-0.241,0.321,-0.008,-0.381,-0.180,-0.308,0.696,0.054,-0.045
0.103,-0.087,0.420,0.185,-0.134,-0.005,-0.036,0.869,0.222,0.181
0.188,0.089,0.514,0.243,-0.020,0.183,-0.016,0.892,0.361,0.235
0.111,-0.015,0.343,0.208,-0.137,-0.009,-0.036,0.853,0.230,0.080
0.138,-0.061,0.377,0.241,-0.069,0.083,0.002,0.842,0.244,0.114
0.126,0.047,0.469,0.175,-0.056,0.065,-0.093,0.870,0.251,0.054
-0.185,-0.262,0.132,-0.161,-0.358,-0.262,-0.387,0.563,-0.046,-0.286
-0.018,-0.064,0.282,0.078,-0.152,-0.046,-0.188,0.738,0.234,-0.074
-0.107,-0.083,0.267,0.019,-0.287,-0.208,-0.168,0.735,0.162,-0.084
-0.319,-0.272,0.048,-0.109,-0.449,-0.313,-0.367,0.596,-0.025,-0.283
-0.131,-0.195,0.242,0.014,-0.325,-0.185,-0.218,0.655,0.063,-0.112
-0.198,-0.261,0.214,-0.038,-0.439,-0.318,-0.283,0.575,-0.022,-0.141
-0.038,-0.131,0.193,-0.016,-0.375,-0.254,-0.247,0.700,0.070,-0.130
-0.342,-0.331,0.078,-0.194,-0.365,-0.329,-0.393,0.513,-0.153,-0.174
-0.155,-0.315,0.196,-0.083,-0.285,-0.342,-0.305,0.596,0.050,-0.134
0.148,-0.002,0.492,0.309,-0.152,-0.030,-0.008,0.916,0.294,0.042
0.260,0.161,0.558,0.413,-0.057,0.109,0.141,0.999,0.356,0.199
0.256,0.206,0.626,0.392,-0.048,0.018,0.119,1.036,0.417,0.215
0.177,0.074,0.497,0.246,0.046,0.006,0.076,0.936,0.254,0.111
0.127,-0.060,0.382,0.169,0.017,0.006,-0.050,0.880,0.287,0.155
0.078,0.013,0.521,0.155,-0.109,0.038,0.002,0.876,0.365,0.226
0.213,0.178,0.597,0.318,-0.065,0.053,0.057,0.935,0.404,0.229
0.168,0.160,0.576,0.340,-0.055,0.006,0.085,0.969,0.409,0.208
0.238,0.084,0.495,0.319,-0.078,0.042,0.004,0.956,0.349,0.215
0.289,0.204,0.562,0.409,0.025,0.141,-0.001,1.034,0.341,0.232
0.357,0.283,0.691,0.436,0.138,0.184,0.112,1.131,0.445,0.353
0.390,0.233,0.710,0.436,0.134,0.254,0.211,1.116,0.495,0.388
0.659,0.569,1.025,0.746,0.378,0.599,0.480,1.457,0.800,0.673
0.733,0.681,1.054,0.816,0.433,0.563,0.498,1.478,0.801,0.648
0.588,0.546,0.920,0.750,0.333,0.525,0.451,1.410,0.744,0.511
0.670,0.632,1.008,0.852,0.545,0.645,0.567,1.502,0.793,0.597
0.776,0.761,1.158,0.893,0.610,0.836,0.646,1.604,0.965,0.821
0.873,0.700,1.150,0.836,0.706,0.761,0.686,1.581,0.869,0.793
0.880,0.742,1.190,0.953,0.610,0.783,0.640,1.593,0.942,0.861
0.463,0.471,0.883,0.628,0.360,0.504,0.364,1.246,0.707,0.558
0.399,0.401,0.820,0.587,0.255,0.391,0.381,1.257,0.622,0.429
0.333,0.286,0.695,0.468,0.145,0.292,0.127,1.153,0.469,0.377
0.305,0.280,0.668,0.414,0.166,0.231,0.160,1.145,0.452,0.388
0.380,0.409,0.744,0.452,0.166,0.244,0.114,1.194,0.539,0.422
0.194,0.167,0.541,0.428,0.041,0.045,0.115,0.984,0.421,0.225
0.470,0.267,0.739,0.595,0.136,0.281,0.277,1.183,0.580,0.422
0.300,0.250,0.672,0.431,0.091,0.222,0.213,1.063,0.544,0.354
0.186,0.099,0.578,0.329,-0.008,0.115,0.134,1.020,0.450,0.274
-0.084,-0.140,0.297,0.057,-0.241,-0.136,-0.253,0.746,0.114,-0.059
0.023,-0.026,0.413,0.164,-0.168,-0.021,-0.098,0.886,0.182,0.056
0.005,-0.107,0.334,0.057,-0.109,-0.113,-0.137,0.783,0.211,-0.088
-0.033,-0.084,0.245,0.021,-0.193,-0.071,-0.274,0.703,0.119,-0.043
-0.262,-0.392,0.082,-0.166,-0.420,-0.269,-0.397,0.515,-0.053,-0.252
0.107,-0.005,0.359,0.244,-0.053,-0.037,-0.103,0.833,0.252,0.081
0.031,-0.070,0.345,0.152,-0.135,-0.042,-0.102,0.830,0.142,-0.021
-0.060,-0.077,0.336,0.066,-0.221,-0.114,-0.284,0.736,0.117,-0.037
0.138,0.083,0.414,0.266,-0.097,0.022,-0.086,0.837,0.246,0.041
0.093,0.056,0.467,0.200,-0.101,0.061,-0.094,0.892,0.221,0.130
0.488,0.342,0.883,0.520,0.146,0.326,0.279,1.214,0.557,0.456
0.424,0.342,0.857,0.534,0.149,0.321,0.112,1.177,0.479,0.374
0.628,0.499,0.922,0.675,0.404,0.567,0.368,1.384,0.682,0.594
0.616,0.442,1.045,0.710,0.371,0.635,0.437,1.474,0.774,0.602
0.212,0.215,0.683,0.378,0.054,0.241,0.059,1.031,0.407,0.328
0.088,0.149,0.438,0.191,-0.048,0.069,-0.048,0.932,0.278,0.130
0.022,-0.066,0.311,0.109,-0.136,-0.050,-0.148,0.796,0.070,-0.024
0.013,-0.131,0.347,0.137,-0.281,-0.054,-0.189,0.748,0.182,-0.001
-0.299,-0.379,0.129,-0.129,-0.527,-0.333,-0.387,0.448,-0.148,-0.187
-0.059,-0.197,0.299,0.104,-0.273,-0.101,-0.246,0.712,0.078,-0.067
0.182,0.147,0.546,0.391,0.015,0.215,0.109,0.984,0.403,0.270
0.144,0.150,0.530,0.363,-0.024,0.130,0.047,1.008,0.370,0.191
0.094,0.103,0.545,0.418,-0.147,0.147,-0.026,1.027,0.345,0.152
0.044,-0.030,0.395,0.169,-0.268,-0.043,-0.189,0.830,0.154,0.027
0.023,-0.057,0.377,0.177,-0.241,-0.084,-0.210,0.827,0.159,-0.067
-0.133,-0.248,0.214,0.034,-0.426,-0.283,-0.371,0.619,0.027,-0.100
-0.017,-0.136,0.450,0.092,-0.301,-0.090,-0.208,0.768,0.150,0.006
0.042,-0.036,0.430,0.200,-0.222,-0.016,-0.114,0.848,0.224,0.018
-0.035,-0.055,0.404,0.220,-0.169,-0.021,-0.136,0.855,0.181,0.079
-0.202,-0.316,0.192,-0.020,-0.399,-0.239,-0.413,0.595,-0.078,-0.253
-0.053,-0.190,0.334,0.145,-0.325,-0.124,-0.151,0.759,0.111,-0.100
0.035,-0.065,0.534,0.258,-0.208,-0.021,-0.050,0.849,0.219,0.078
0.102,0.037,0.512,0.243,-0.206,0.005,-0.120,0.861,0.239,0.130
0.149,0.086,0.574,0.333,-0.044,0.040,-0.093,0.855,0.317,0.170
0.332,0.165,0.731,0.475,0.054,0.240,0.122,1.027,0.434,0.358
0.282,0.256,0.727,0.389,0.067,0.263,0.128,1.051,0.408,0.350
0.393,0.311,0.802,0.526,0.226,0.297,0.204,1.186,0.579,0.420
0.351,0.294,0.840,0.529,0.166,0.316,0.216,1.242,0.611,0.385
0.482,0.488,0.895,0.648,0.327,0.461,0.312,1.379,0.626,0.548
0.164,0.103,0.552,0.290,0.040,0.058,-0.092,0.982,0.388,0.277
0.060,0.187,0.538,0.359,0.042,0.182,0.120,1.027,0.453,0.320
0.024,-0.076,0.440,0.176,-0.237,0.048,-0.021,0.861,0.223,0.038
-0.077,-0.174,0.349,0.010,-0.255,-0.157,-0.162,0.710,0.030,-0.010
-0.086,-0.102,0.331,0.024,-0.228,-0.162,-0.220,0.685,0.029,-0.063
-0.249,-0.288,0.145,-0.049,-0.482,-0.293,-0.310,0.531,-0.069,-0.201
-0.082,-0.190,0.230,-0.024,-0.406,-0.284,-0.211,0.570,-0.024,-0.173
-0.350,-0.511,-0.056,-0.333,-0.745,-0.578,-0.577,0.319,-0.328,-0.387
-0.492,-0.451,-0.130,-0.308,-0.645,-0.550,-0.576,0.360,-0.273,-0.390
-0.380,-0.469,0.073,-0.187,-0.446,-0.446,-0.543,0.427,-0.178,-0.327
-0.475,-0.561,-0.147,-0.371,-0.689,-0.497,-0.690,0.328,-0.379,-0.439
-0.374,-0.551,-0.037,-0.237,-0.590,-0.514,-0.580,0.418,-0.232,-0.379
-0.288,-0.509,0.079,-0.183,-0.540,-0.425,-0.498,0.422,-0.204,-0.283
-0.222,-0.391,0.202,-0.047,-0.340,-0.329,-0.293,0.562,-0.054,-0.152
-0.168,-0.233,0.226,0.000,-0.289,-0.350,-0.321,0.565,-0.044,-0.142
-0.112,-0.259,0.235,0.011,-0.256,-0.344,-0.396,0.597,-0.033,-0.097
-0.321,-0.315,0.148,-0.041,-0.408,-0.339,-0.381,0.513,-0.119,-0.210
-0.180,-0.377,0.236,0.042,-0.321,-0.274,-0.280,0.614,0.025,-0.109
0.154,-0.004,0.601,0.340,0.032,0.014,0.012,0.989,0.372,0.266
0.193,0.027,0.562,0.407,0.040,0.096,0.124,1.037,0.404,0.299
0.374,0.193,0.739,0.577,0.174,0.177,0.283,1.165,0.579,0.441
0.418,0.454,0.869,0.599,0.261,0.291,0.396,1.195,0.695,0.468
0.326,0.317,0.780,0.545,0.213,0.204,0.224,1.118,0.536,0.314
0.219,0.200,0.729,0.500,0.124,0.117,0.080,1.055,0.429,0.321
0.145,-0.014,0.539,0.344,-0.072,0.018,-0.014,0.892,0.233,0.277
0.066,-0.080,0.425,0.276,-0.016,0.034,-0.056,0.874,0.223,0.131
0.199,0.142,0.711,0.409,0.034,0.126,0.058,1.061,0.421,0.283
0.250,0.230,0.748,0.480,0.134,0.110,0.149,1.121,0.496,0.309
0.072,-0.015,0.438,0.239,-0.146,-0.044,-0.170,0.891,0.260,0.109
0.043,-0.029,0.511,0.239,-0.039,-0.055,-0.015,0.832,0.227,0.066
-0.009,-0.140,0.427,0.161,-0.264,-0.060,-0.149,0.686,0.071,-0.111
-0.239,-0.280,0.226,0.037,-0.413,-0.270,-0.350,0.634,-0.029,-0.125
-0.054,-0.048,0.467,0.147,-0.192,-0.103,-0.098,0.733,0.161,-0.053
0.039,-0.045,0.449,0.125,-0.253,-0.119,-0.088,0.788,0.126,-0.014
0.038,0.041,0.511,0.222,-0.126,-0.007,-0.059,0.855,0.259,0.100
0.036,0.018,0.470,0.182,-0.157,0.027,-0.052,0.801,0.193,0.100
0.040,-0.044,0.528,0.303,-0.055,0.063,0.082,0.890,0.354,0.145
0.269,0.196,0.743,0.500,0.224,0.248,0.228,1.084,0.513,0.446
0.199,0.168,0.613,0.454,0.014,0.173,0.128,1.035,0.408,0.347
0.162,0.047,0.482,0.349,-0.073,0.092,-0.051,0.913,0.250,0.184
0.090,0.080,0.587,0.356,0.021,0.090,0.040,1.036,0.240,0.252
0.241,-0.020,0.553,0.362,0.025,0.083,0.135,1.006,0.315,0.231
-0.068,-0.288,0.198,0.069,-0.209,-0.220,-0.246,0.707,0.047,-0.139
-0.390,-0.541,-0.081,-0.301,-0.519,-0.471,-0.554,0.469,-0.297,-0.369
-0.463,-0.569,-0.045,-0.295,-0.637,-0.584,-0.582,0.338,-0.360,-0.387
-0.488,-0.458,-0.017,-0.169,-0.521,-0.451,-0.521,0.431,-0.278,-0.311
-0.523,-0.556,-0.125,-0.261,-0.608,-0.586,-0.589,0.283,-0.416,-0.424
-0.867,-0.972,-0.515,-0.659,-1.025,-1.014,-1.037,-0.054,-0.722,-0.833
-0.995,-1.052,-0.544,-0.728,-1.022,-1.104,-1.095,-0.123,-0.724,-0.856
-0.911,-0.892,-0.581,-0.753,-1.107,-1.074,-0.998,-0.184,-0.752,-0.777
-0.901,-0.903,-0.432,-0.542,-0.959,-0.905,-0.872,-0.012,-0.673,-0.689
-0.701,-0.862,-0.292,-0.464,-0.854,-0.832,-0.751,0.115,-0.584,-0.548
-0.576,-0.649,-0.129,-0.367,-0.663,-0.620,-0.669,0.237,-0.381,-0.505
-0.458,-0.464,0.011,-0.199,-0.515,-0.411,-0.444,0.438,-0.239,-0.349
-0.209,-0.277,0.232,0.025,-0.364,-0.247,-0.317,0.654,-0.076,-0.129
-0.371,-0.316,0.129,-0.093,-0.568,-0.371,-0.400,0.513,-0.231,-0.312
-0.243,-0.169,0.257,0.059,-0.367,-0.216,-0.323,0.611,0.001,-0.182
0.143,0.145,0.635,0.443,-0.014,0.153,0.138,0.991,0.386,0.204
-0.095,0.011,0.405,0.236,-0.248,-0.060,-0.035,0.876,0.251,0.010
-0.138,-0.160,0.279,-0.029,-0.259,-0.271,-0.232,0.645,0.106,-0.064
-0.292,-0.407,0.118,-0.168,-0.542,-0.432,-0.370,0.458,-0.154,-0.306
-0.260,-0.352,0.164,-0.143,-0.558,-0.341,-0.498,0.449,-0.120,-0.205
-0.170,-0.227,0.194,-0.055,-0.424,-0.263,-0.388,0.541,-0.003,-0.178
-0.215,-0.216,0.117,0.005,-0.333,-0.169,-0.252,0.591,-0.101,-0.091
0.005,-0.064,0.386,0.145,-0.148,0.016,-0.172,0.777,0.127,0.101
0.136,0.018,0.605,0.340,-0.080,0.025,-0.071,0.930,0.265,0.190
-0.087,-0.169,0.258,0.063,-0.311,-0.160,-0.169,0.741,0.077,-0.080
0.001,-0.115,0.433,0.211,-0.172,-0.015,-0.059,0.834,0.227,0.086
-0.296,-0.341,0.175,-0.031,-0.362,-0.208,-0.315,0.596,-0.070,-0.169
-0.034,-0.145,0.290,0.051,-0.376,-0.156,-0.189,0.736,0.033,-0.006
-0.339,-0.320,0.136,-0.128,-0.508,-0.258,-0.493,0.548,-0.129,-0.181
-0.345,-0.483,0.006,-0.152,-0.623,-0.440,-0.615,0.407,-0.224,-0.376
-0.147,-0.248,0.218,-0.009,-0.394,-0.273,-0.290,0.606,-0.035,-0.223
0.094,0.026,0.463,0.244,-0.195,-0.025,-0.217,0.893,0.226,0.062
-0.025,-0.145,0.367,0.173,-0.305,-0.219,-0.234,0.758,0.064,-0.012
-0.194,-0.268,0.122,-0.078,-0.504,-0.338,-0.340,0.679,-0.097,-0.152
-0.063,-0.110,0.342,0.066,-0.227,-0.195,-0.161,0.787,0.127,-0.034
-0.016,-0.219,0.314,0.074,-0.231,-0.144,-0.194,0.678,0.106,-0.100
-0.379,-0.365,0.020,-0.151,-0.526,-0.536,-0.510,0.461,-0.159,-0.329
-0.436,-0.564,-0.079,-0.247,-0.603,-0.431,-0.572,0.395,-0.269,-0.480
-0.375,-0.425,0.082,-0.141,-0.549,-0.389,-0.525,0.422,-0.244,-0.340
-0.363,-0.414,0.002,-0.157,-0.551,-0.459,-0.510,0.401,-0.171,-0.318
-0.180,-0.264,0.227,-0.042,-0.375,-0.297,-0.324,0.647,0.055,-0.073
-0.301,-0.363,0.080,-0.188,-0.397,-0.345,-0.480,0.519,-0.106,-0.277
-0.386,-0.541,0.009,-0.197,-0.608,-0.378,-0.518,0.383,-0.172,-0.356
-0.411,-0.437,0.040,-0.211,-0.648,-0.391,-0.490,0.442,-0.097,-0.291
-0.159,-0.174,0.260,0.058,-0.389,-0.181,-0.237,0.640,0.057,-0.061
-0.081,-0.089,0.309,0.157,-0.247,-0.100,-0.191,0.725,0.173,0.007
-0.196,-0.401,0.177,0.003,-0.413,-0.295,-0.366,0.579,0.041,-0.104
-0.174,-0.253,0.257,-0.029,-0.323,-0.219,-0.280,0.598,-0.063,-0.136
-0.459,-0.549,-0.037,-0.255,-0.537,-0.450,-0.542,0.393,-0.261,-0.404
-0.571,-0.645,-0.122,-0.381,-0.796,-0.581,-0.688,0.226,-0.414,-0.535
-0.439,-0.494,-0.023,-0.234,-0.691,-0.505,-0.542,0.397,-0.377,-0.400
-0.355,-0.489,-0.013,-0.216,-0.707,-0.460,-0.583,0.309,-0.328,-0.372
-0.388,-0.511,-0.126,-0.244,-0.596,-0.474,-0.554,0.354,-0.216,-0.328
-0.085,-0.128,0.204,0.082,-0.388,-0.116,-0.217,0.730,0.043,-0.002
0.080,0.086,0.405,0.291,-0.135,0.003,-0.036,0.871,0.223,0.161
0.039,0.005,0.287,0.134,-0.179,-0.012,-0.233,0.770,0.161,0.053
-0.206,-0.219,0.137,0.010,-0.403,-0.256,-0.280,0.623,-0.038,-0.108
-0.246,-0.298,0.081,-0.049,-0.382,-0.320,-0.370,0.540,-0.101,-0.153
0.075,-0.187,0.356,0.206,-0.163,-0.106,-0.213,0.795,0.174,0.100
0.048,-0.038,0.533,0.192,-0.080,0.018,-0.090,0.904,0.240,0.145
-0.149,-0.186,0.165,0.000,-0.319,-0.153,-0.345,0.602,-0.023,-0.105
-0.086,-0.177,0.271,-0.072,-0.400,-0.211,-0.363,0.673,-0.035,-0.142
0.119,0.008,0.514,0.237,-0.059,0.178,0.038,0.956,0.257,0.172
-0.101,-0.188,0.355,0.103,-0.220,-0.043,-0.166,0.792,0.098,-0.056
0.054,-0.108,0.433,0.161,-0.126,-0.002,-0.064,0.812,0.159,0.015
0.102,0.118,0.556,0.280,-0.021,0.144,-0.020,0.927,0.268,0.218
0.364,0.312,0.740,0.551,0.130,0.348,0.237,1.096,0.479,0.412
0.031,-0.021,0.392,0.143,-0.074,0.014,-0.052,0.838,0.175,0.040
0.073,-0.009,0.398,0.045,-0.251,-0.128,-0.006,0.683,0.120,0.064
-0.219,-0.135,0.183,-0.040,-0.454,-0.240,-0.207,0.586,-0.016,-0.156
-0.317,-0.419,0.045,-0.154,-0.563,-0.447,-0.563,0.405,-0.119,-0.329
-0.240,-0.256,0.165,-0.110,-0.363,-0.263,-0.433,0.565,-0.069,-0.214
-0.209,-0.225,0.149,-0.098,-0.394,-0.163,-0.222,0.609,-0.034,-0.159
-0.400,-0.307,0.081,-0.104,-0.461,-0.250,-0.467,0.523,-0.176,-0.316
-0.052,-0.101,0.302,0.130,-0.197,-0.109,-0.258,0.665,0.128,0.022
-0.002,-0.042,0.343,0.107,-0.306,-0.116,-0.138,0.738,0.128,0.003
-0.155,-0.145,0.226,-0.033,-0.315,-0.156,-0.209,0.680,0.040,-0.042
-0.178,-0.179,0.207,0.001,-0.319,-0.255,-0.302,0.667,0.057,-0.033
0.006,-0.071,0.228,0.036,-0.163,-0.149,-0.177,0.793,0.086,0.023
-0.065,-0.145,0.218,0.125,-0.297,-0.216,-0.309,0.687,0.032,-0.069
0.109,-0.005,0.354,0.242,-0.184,-0.105,-0.154,0.828,0.177,0.057
0.051,0.044,0.394,0.192,-0.102,-0.047,-0.207,0.798,0.183,0.143
0.118,0.127,0.480,0.259,-0.042,0.093,0.000,0.918,0.320,0.247
0.160,0.173,0.458,0.263,-0.080,0.050,-0.007,0.940,0.340,0.237
0.129,0.171,0.415,0.246,-0.018,0.056,0.013,0.869,0.310,0.126
0.227,0.235,0.508,0.343,-0.017,0.102,-0.000,0.929,0.292,0.171
0.349,0.385,0.693,0.517,0.093,0.354,0.135,1.103,0.467,0.343
0.624,0.679,0.898,0.765,0.284,0.516,0.405,1.356,0.702,0.612
0.507,0.516,0.861,0.650,0.326,0.446,0.326,1.263,0.604,0.502
0.436,0.404,0.738,0.543,0.228,0.386,0.220,1.193,0.550,0.367
0.408,0.479,0.745,0.549,0.137,0.409,0.272,1.252,0.616,0.458
0.371,0.446,0.779,0.451,0.238,0.285,0.210,1.159,0.455,0.451
0.591,0.632,0.934,0.716,0.404,0.535,0.451,1.362,0.745,0.627
0.332,0.381,0.652,0.587,0.089,0.268,0.214,1.117,0.523,0.362
0.136,0.191,0.604,0.443,0.026,0.197,0.069,1.037,0.329,0.185
0.183,0.078,0.468,0.330,-0.076,0.006,-0.009,0.894,0.212,0.094
0.092,0.026,0.459,0.331,-0.049,0.055,0.083,0.924,0.250,0.243
0.058,0.217,0.445,0.336,-0.100,0.024,0.030,0.979,0.261,0.106
0.096,0.146,0.426,0.280,-0.122,-0.081,-0.010,0.903,0.251,0.142
0.023,0.016,0.374,0.158,-0.262,-0.052,-0.107,0.818,0.152,0.055
0.122,0.076,0.448,0.146,-0.165,0.039,-0.049,0.852,0.223,0.077
-0.072,0.027,0.340,0.149,-0.235,-0.089,-0.145,0.767,0.194,0.018
-0.031,-0.002,0.371,0.165,-0.332,-0.011,-0.155,0.740,0.181,0.045
-0.157,-0.090,0.175,0.007,-0.352,-0.269,-0.292,0.572,0.041,-0.064
-0.098,-0.051,0.237,-0.031,-0.307,-0.138,-0.275,0.589,0.014,-0.053
-0.027,-0.046,0.299,0.029,-0.276,-0.150,-0.271,0.659,0.010,-0.038
0.095,0.033,0.447,0.200,-0.203,-0.099,-0.194,0.833,0.206,0.074
0.186,0.145,0.567,0.332,-0.048,0.059,0.014,0.968,0.293,0.225
0.261,0.118,0.576,0.470,-0.062,0.162,-0.015,1.015,0.344,0.299
-0.139,-0.227,0.245,0.026,-0.562,-0.331,-0.281,0.665,-0.060,-0.127
-0.207,-0.141,0.197,-0.113,-0.485,-0.289,-0.268,0.513,-0.078,-0.184
-0.369,-0.340,-0.028,-0.337,-0.540,-0.486,-0.465,0.351,-0.270,-0.299
-0.328,-0.311,-0.040,-0.222,-0.592,-0.411,-0.464,0.379,-0.206,-0.318
-0.060,-0.107,0.224,0.029,-0.324,-0.193,-0.134,0.685,0.054,-0.018
-0.297,-0.361,-0.015,-0.199,-0.665,-0.517,-0.550,0.439,-0.119,-0.274
-0.380,-0.366,0.041,-0.260,-0.447,-0.536,-0.512,0.479,-0.149,-0.345
-0.135,-0.183,0.256,0.001,-0.282,-0.189,-0.365,0.641,-0.004,-0.141
-0.362,-0.446,-0.018,-0.160,-0.525,-0.394,-0.601,0.417,-0.300,-0.350
-0.261,-0.367,-0.054,-0.189,-0.442,-0.401,-0.525,0.472,-0.167,-0.291
-0.428,-0.346,-0.001,-0.243,-0.613,-0.480,-0.522,0.466,-0.161,-0.338
-0.534,-0.524,-0.174,-0.405,-0.651,-0.659,-0.596,0.298,-0.339,-0.499
-0.352,-0.345,-0.015,-0.192,-0.459,-0.525,-0.557,0.472,-0.126,-0.377
-0.114,-0.107,0.184,0.116,-0.239,-0.207,-0.225,0.683,0.094,-0.013
0.057,0.032,0.415,0.298,-0.132,-0.059,-0.121,0.805,0.270,0.120
0.213,0.181,0.562,0.440,-0.032,0.141,0.095,1.021,0.444,0.264
0.003,-0.165,0.282,0.131,-0.273,-0.172,-0.149,0.756,0.122,-0.050
0.147,0.220,0.553,0.322,0.023,0.096,0.051,1.013,0.379,0.282
0.184,0.107,0.518,0.357,0.110,0.080,0.028,0.979,0.259,0.280
-0.094,-0.208,0.258,0.057,-0.253,-0.180,-0.216,0.692,0.048,-0.029
-0.324,-0.402,0.066,-0.157,-0.425,-0.432,-0.422,0.429,-0.154,-0.320
-0.340,-0.384,0.064,-0.185,-0.563,-0.356,-0.454,0.443,-0.210,-0.256
-0.491,-0.511,0.004,-0.330,-0.601,-0.508,-0.593,0.347,-0.308,-0.419
-0.613,-0.540,-0.109,-0.426,-0.790,-0.586,-0.746,0.306,-0.454,-0.401
-0.534,-0.532,-0.108,-0.430,-0.673,-0.665,-0.690,0.263,-0.388,-0.422
-0.392,-0.550,-0.078,-0.297,-0.627,-0.443,-0.639,0.308,-0.341,-0.326
-0.289,-0.397,0.010,-0.165,-0.497,-0.396,-0.419,0.487,-0.073,-0.258
-0.231,-0.319,0.108,-0.122,-0.511,-0.304,-0.385,0.517,0.012,-0.247
0.196,0.108,0.465,0.249,-0.054,0.056,0.080,0.950,0.374,0.256
0.108,0.115,0.551,0.299,-0.042,0.086,0.019,0.914,0.294,0.297
-0.281,-0.315,0.091,-0.102,-0.376,-0.326,-0.426,0.454,-0.141,-0.139
-0.341,-0.288,-0.008,-0.067,-0.454,-0.421,-0.562,0.439,-0.158,-0.181
-0.100,-0.183,0.257,-0.062,-0.380,-0.250,-0.457,0.558,-0.012,-0.020
-0.187,-0.047,0.335,-0.094,-0.369,-0.203,-0.325,0.570,-0.007,-0.070
-0.106,0.023,0.354,0.092,-0.209,-0.139,-0.146,0.665,0.177,-0.001
0.149,0.037,0.398,0.261,-0.138,-0.059,-0.046,0.853,0.257,0.195
-0.132,-0.026,0.271,0.086,-0.246,-0.222,-0.198,0.728,0.031,-0.020
-0.072,-0.103,0.199,0.012,-0.233,-0.215,-0.281,0.711,0.128,-0.069
-0.197,-0.231,0.104,-0.155,-0.387,-0.276,-0.371,0.550,-0.087,-0.095
-0.155,-0.092,0.206,-0.109,-0.414,-0.217,-0.360,0.584,-0.000,-0.093
-0.310,-0.259,0.141,-0.235,-0.477,-0.329,-0.383,0.488,-0.098,-0.227
-0.136,-0.109,0.290,-0.034,-0.275,-0.227,-0.195,0.681,-0.003,-0.106
-0.413,-0.338,-0.026,-0.298,-0.651,-0.400,-0.444,0.450,-0.193,-0.337
-0.242,-0.247,0.143,-0.022,-0.298,-0.255,-0.235,0.586,0.022,-0.146
-0.358,-0.301,0.032,-0.135,-0.458,-0.369,-0.480,0.490,-0.092,-0.205
-0.435,-0.361,0.013,-0.182,-0.536,-0.436,-0.500,0.462,-0.133,-0.295
-0.410,-0.382,0.001,-0.195,-0.624,-0.378,-0.505,0.471,-0.100,-0.273
-0.261,-0.214,0.141,-0.150,-0.370,-0.191,-0.442,0.530,-0.044,-0.129
-0.134,-0.139,0.200,-0.032,-0.298,-0.145,-0.341,0.625,-0.057,-0.069
-0.153,-0.166,0.185,-0.085,-0.315,-0.143,-0.273,0.627,-0.033,-0.083
-0.400,-0.238,0.044,-0.159,-0.464,-0.277,-0.408,0.505,-0.104,-0.201
-0.419,-0.317,-0.042,-0.200,-0.489,-0.375,-0.466,0.441,-0.117,-0.347
-0.389,-0.284,0.006,-0.165,-0.491,-0.314,-0.429,0.486,-0.184,-0.349
-0.497,-0.359,-0.068,-0.337,-0.507,-0.439,-0.537,0.420,-0.235,-0.320
-0.427,-0.359,-0.014,-0.307,-0.547,-0.458,-0.532,0.442,-0.273,-0.293
-0.302,-0.221,0.095,-0.108,-0.430,-0.261,-0.301,0.559,-0.084,-0.156
-0.224,-0.184,0.214,-0.105,-0.359,-0.171,-0.327,0.629,-0.035,-0.096
-0.131,-0.097,0.251,0.045,-0.350,-0.196,-0.199,0.654,0.032,-0.064
-0.182,-0.257,0.151,-0.063,-0.387,-0.398,-0.306,0.620,-0.142,-0.157
-0.249,-0.199,0.219,-0.065,-0.296,-0.215,-0.351,0.659,-0.055,-0.141
-0.135,-0.017,0.422,0.111,-0.236,-0.093,-0.133,0.785,0.153,-0.008
-0.002,0.018,0.406,0.140,-0.224,-0.064,-0.127,0.821,0.245,0.143
0.067,0.109,0.451,0.190,-0.158,-0.001,-0.092,0.914,0.270,0.157
-0.239,-0.240,0.114,-0.172,-0.651,-0.282,-0.417,0.617,-0.039,-0.137
-0.159,-0.214,0.221,-0.040,-0.475,-0.172,-0.299,0.653,0.037,-0.053
-0.113,-0.171,0.191,-0.061,-0.350,-0.223,-0.277,0.631,-0.002,-0.120
0.085,0.090,0.347,0.112,-0.163,-0.029,-0.221,0.876,0.198,0.141
0.214,0.195,0.608,0.307,-0.021,0.197,0.097,1.045,0.385,0.279
0.216,0.172,0.703,0.356,0.115,0.282,0.180,1.029,0.455,0.327
0.276,0.235,0.603,0.370,0.069,0.260,0.210,1.042,0.422,0.261
0.049,0.077,0.489,0.235,-0.099,0.038,-0.051,0.903,0.267,0.129
0.095,0.035,0.499,0.289,-0.012,0.110,-0.059,0.963,0.291,0.194
0.183,0.117,0.572,0.391,0.011,0.274,0.029,0.991,0.352,0.204
0.057,0.021,0.351,0.212,-0.074,0.078,-0.017,0.875,0.068,0.062
-0.084,-0.139,0.246,0.042,-0.264,-0.061,-0.311,0.723,0.010,-0.090
-0.134,-0.127,0.202,-0.018,-0.364,-0.187,-0.360,0.598,-0.023,-0.097
-0.134,-0.226,0.167,-0.086,-0.383,-0.216,-0.356,0.614,0.020,-0.103
-0.058,-0.045,0.355,0.126,-0.254,0.042,-0.082,0.787,0.087,0.016
-0.270,-0.301,0.116,-0.036,-0.466,-0.240,-0.410,0.607,-0.061,-0.167
-0.292,-0.316,0.064,-0.078,-0.482,-0.261,-0.377,0.479,-0.063,-0.285
-0.060,-0.012,0.351,0.180,-0.201,0.030,-0.153,0.772,0.153,0.054
0.163,0.200,0.619,0.319,-0.017,0.221,0.051,1.021,0.344,0.310
0.201,0.161,0.628,0.192,0.005,0.147,0.012,1.053,0.213,0.161
0.233,0.204,0.614,0.310,0.032,0.256,0.160,1.112,0.315,0.215
0.227,0.160,0.669,0.285,0.021,0.248,0.123,1.002,0.385,0.219
0.437,0.547,0.842,0.571,0.358,0.498,0.378,1.298,0.627,0.514
0.080,0.110,0.434,0.144,-0.004,0.133,-0.060,0.898,0.210,0.063
0.085,0.075,0.447,0.191,-0.151,0.071,0.044,0.945,0.260,0.115
0.081,0.068,0.465,0.191,-0.029,0.045,-0.019,0.914,0.234,0.117
-0.104,-0.154,0.205,-0.032,-0.281,-0.221,-0.264,0.636,0.021,-0.079
-0.045,-0.076,0.287,0.025,-0.228,-0.155,-0.118,0.714,0.112,-0.052
-0.026,-0.069,0.296,-0.021,-0.216,-0.116,-0.210,0.756,0.086,-0.089
-0.074,-0.067,0.174,0.006,-0.289,-0.069,-0.184,0.712,0.140,-0.040
0.131,0.130,0.472,0.290,0.011,0.187,0.021,0.988,0.359,0.245
0.117,0.079,0.430,0.199,0.022,0.105,-0.017,0.967,0.298,0.133
-0.021,0.037,0.399,0.162,-0.184,0.049,-0.188,0.852,0.272,-0.039
0.100,0.039,0.440,0.282,-0.054,0.097,-0.059,0.906,0.296,0.174
-0.073,-0.040,0.306,0.095,-0.130,-0.026,-0.181,0.745,0.180,0.060
-0.165,-0.136,0.173,-0.071,-0.377,-0.169,-0.329,0.636,0.003,-0.101
-0.182,-0.173,0.192,-0.102,-0.340,-0.166,-0.312,0.634,-0.011,-0.090
-0.244,-0.268,0.028,-0.277,-0.461,-0.229,-0.437,0.548,-0.133,-0.263
-0.338,-0.367,-0.099,-0.386,-0.606,-0.394,-0.519,0.301,-0.258,-0.357
-0.324,-0.322,0.026,-0.155,-0.417,-0.334,-0.474,0.472,-0.137,-0.258
-0.018,-0.015,0.379,0.039,-0.265,-0.067,-0.229,0.780,0.182,-0.076
-0.180,-0.261,0.122,-0.188,-0.435,-0.254,-0.390,0.558,0.051,-0.211
-0.236,-0.300,0.010,-0.281,-0.497,-0.366,-0.350,0.487,-0.115,-0.299
-0.265,-0.216,-0.010,-0.247,-0.588,-0.322,-0.400,0.497,-0.160,-0.174
-0.420,-0.391,-0.072,-0.282,-0.589,-0.442,-0.601,0.336,-0.304,-0.385
-0.285,-0.202,0.015,-0.122,-0.413,-0.237,-0.376,0.542,-0.076,-0.126
-0.089,-0.040,0.206,-0.054,-0.181,-0.073,-0.198,0.770,0.061,-0.054
-0.071,-0.185,0.198,-0.061,-0.299,-0.109,-0.213,0.673,0.036,-0.098
-0.071,-0.142,0.246,0.023,-0.273,-0.129,-0.255,0.707,0.071,-0.052
-0.076,-0.137,0.293,-0.027,-0.293,-0.065,-0.241,0.642,0.022,-0.159
-0.125,-0.238,0.098,-0.072,-0.442,-0.100,-0.353,0.604,0.065,-0.188
-0.013,-0.076,0.271,0.065,-0.220,0.011,-0.147,0.695,0.183,-0.070
-0.270,-0.244,0.125,-0.186,-0.397,-0.096,-0.297,0.569,-0.035,-0.236
-0.205,-0.257,0.055,-0.155,-0.423,-0.178,-0.370,0.556,-0.150,-0.216
-0.247,-0.267,0.032,-0.170,-0.384,-0.262,-0.339,0.539,-0.093,-0.133
-0.160,-0.210,0.220,-0.102,-0.288,-0.153,-0.312,0.601,0.032,-0.135
-0.284,-0.287,0.011,-0.172,-0.478,-0.260,-0.494,0.496,-0.164,-0.255
-0.377,-0.301,-0.041,-0.246,-0.588,-0.300,-0.484,0.438,-0.192,-0.276
-0.385,-0.386,-0.103,-0.299,-0.571,-0.379,-0.564,0.373,-0.221,-0.359
-0.232,-0.209,0.068,-0.044,-0.367,-0.317,-0.362,0.575,-0.143,-0.200
-0.744,-0.678,-0.444,-0.504,-0.905,-0.765,-0.795,0.092,-0.526,-0.651
-0.708,-0.726,-0.404,-0.571,-0.924,-0.724,-0.798,0.085,-0.562,-0.687
-0.889,-0.873,-0.552,-0.663,-0.986,-0.813,-0.884,-0.065,-0.725,-0.799
-0.837,-0.728,-0.411,-0.680,-0.910,-0.748,-0.842,0.071,-0.647,-0.733
-0.488,-0.521,-0.121,-0.327,-0.625,-0.412,-0.601,0.389,-0.282,-0.389
-0.296,-0.349,0.047,-0.150,-0.489,-0.310,-0.413,0.499,-0.100,-0.284
-0.076,-0.107,0.310,0.072,-0.159,-0.124,-0.157,0.747,0.079,0.025
-0.197,-0.097,0.315,0.043,-0.256,-0.107,-0.171,0.742,0.103,0.036
0.093,0.064,0.415,0.145,-0.131,0.068,0.040,0.900,0.318,0.156
0.004,0.010,0.316,0.089,-0.263,0.053,-0.145,0.857,0.163,0.001
-0.184,-0.169,0.119,-0.050,-0.358,-0.127,-0.287,0.703,-0.005,-0.056
-0.461,-0.355,0.071,-0.229,-0.412,-0.255,-0.426,0.483,-0.152,-0.206
-0.162,-0.170,0.224,-0.076,-0.276,-0.178,-0.285,0.598,-0.015,-0.049
-0.157,-0.223,0.183,-0.084,-0.297,-0.159,-0.239,0.614,-0.017,-0.000
-0.160,-0.206,0.125,-0.078,-0.399,-0.249,-0.223,0.574,-0.066,-0.158
-0.171,-0.167,0.205,0.017,-0.380,-0.222,-0.169,0.607,-0.026,-0.098
-0.178,-0.096,0.232,0.105,-0.224,-0.178,-0.179,0.767,0.053,-0.107
-0.093,-0.089,0.228,0.071,-0.177,-0.124,-0.154,0.770,0.049,-0.049
-0.245,-0.306,0.091,-0.134,-0.384,-0.276,-0.349,0.525,-0.141,-0.249
-0.069,-0.041,0.301,0.129,-0.165,-0.065,-0.132,0.780,0.076,0.009
-0.122,0.063,0.286,0.122,-0.243,0.043,-0.118,0.813,0.137,0.019
-0.361,-0.274,0.055,-0.165,-0.468,-0.346,-0.482,0.482,-0.199,-0.338
-0.322,-0.250,0.014,-0.114,-0.564,-0.441,-0.436,0.529,-0.177,-0.275
-0.198,-0.211,0.166,-0.078,-0.330,-0.288,-0.281,0.603,-0.024,-0.126
-0.297,-0.369,-0.027,-0.190,-0.402,-0.355,-0.392,0.568,-0.129,-0.324
-0.012,0.024,0.307,0.097,-0.013,0.006,-0.084,0.815,0.183,0.001
0.128,0.187,0.438,0.270,-0.007,0.099,-0.027,0.943,0.247,0.205
0.003,0.059,0.405,0.194,-0.095,0.116,-0.019,0.860,0.278,0.066
-0.029,-0.056,0.244,0.089,-0.230,-0.059,-0.088,0.722,0.095,-0.079
0.019,0.038,0.323,0.202,-0.152,0.037,0.021,0.866,0.198,0.094
-0.030,0.068,0.382,0.191,-0.066,-0.074,-0.100,0.934,0.205,0.014
-0.065,-0.025,0.280,0.151,-0.104,-0.045,-0.050,0.823,0.147,-0.045
0.144,0.130,0.488,0.325,0.019,0.146,0.013,0.948,0.268,0.087
-0.262,-0.351,0.015,-0.144,-0.462,-0.308,-0.392,0.477,-0.114,-0.235
-0.271,-0.357,-0.029,-0.179,-0.470,-0.336,-0.519,0.551,-0.121,-0.277
0.044,0.111,0.286,0.144,-0.075,0.054,-0.114,0.874,0.224,0.110
0.263,0.398,0.572,0.357,0.167,0.305,0.257,1.153,0.470,0.352
0.133,0.172,0.402,0.247,0.036,0.108,0.012,0.949,0.268,0.171
0.028,0.104,0.336,0.167,-0.114,-0.003,-0.185,0.786,0.143,0.037
0.104,0.137,0.474,0.165,0.051,0.064,0.023,0.903,0.287,0.137
0.199,0.257,0.565,0.364,0.165,0.176,0.063,1.071,0.349,0.186
0.278,0.356,0.622,0.459,0.197,0.261,0.150,1.135,0.444,0.352
0.318,0.405,0.707,0.435,0.201,0.331,0.267,1.193,0.510,0.332
0.099,0.159,0.494,0.182,-0.017,0.104,0.004,0.978,0.325,0.066
0.029,0.045,0.375,0.127,-0.087,0.068,-0.033,0.878,0.206,0.050
-0.012,-0.005,0.363,0.168,-0.178,0.052,0.010,0.893,0.244,0.123
0.195,0.152,0.493,0.267,-0.069,0.116,0.025,0.947,0.327,0.231
0.063,0.088,0.436,0.135,-0.099,-0.069,-0.127,0.884,0.248,0.075
-0.285,-0.166,0.197,-0.121,-0.316,-0.320,-0.352,0.624,0.009,-0.126
-0.194,-0.086,0.156,-0.153,-0.347,-0.219,-0.265,0.647,0.006,-0.093
-0.165,-0.010,0.233,-0.056,-0.244,-0.132,-0.223,0.730,0.030,-0.074
-0.251,-0.231,0.039,-0.128,-0.360,-0.255,-0.402,0.554,-0.129,-0.251
-0.289,-0.224,0.024,-0.119,-0.395,-0.311,-0.418,0.578,-0.140,-0.280
-0.181,-0.132,0.167,-0.004,-0.329,-0.193,-0.341,0.614,-0.003,-0.134
-0.317,-0.246,0.031,-0.141,-0.450,-0.360,-0.450,0.496,-0.126,-0.288
-0.340,-0.284,0.009,-0.226,-0.438,-0.312,-0.493,0.522,-0.193,-0.391
-0.448,-0.429,-0.132,-0.317,-0.596,-0.451,-0.577,0.353,-0.289,-0.425
-0.371,-0.396,-0.010,-0.297,-0.548,-0.452,-0.616,0.434,-0.269,-0.448
-0.443,-0.406,-0.014,-0.243,-0.475,-0.426,-0.558,0.410,-0.204,-0.335
-0.278,-0.207,0.068,-0.145,-0.484,-0.337,-0.365,0.544,-0.064,-0.162
-0.075,-0.041,0.205,-0.038,-0.298,-0.054,-0.244,0.691,0.105,0.004
-0.039,0.010,0.270,0.029,-0.294,-0.077,-0.203,0.812,0.146,0.028
-0.252,-0.281,0.083,-0.112,-0.470,-0.236,-0.448,0.582,-0.110,-0.168
-0.353,-0.387,-0.002,-0.125,-0.439,-0.389,-0.463,0.509,-0.137,-0.300
-0.184,-0.171,0.276,0.078,-0.285,-0.116,-0.249,0.710,0.012,-0.090
-0.180,-0.163,0.167,0.004,-0.312,-0.168,-0.337,0.622,-0.010,-0.034
-0.227,-0.137,0.179,0.012,-0.375,-0.196,-0.281,0.615,0.024,-0.114
0.007,-0.031,0.295,0.137,-0.151,0.051,-0.050,0.893,0.187,0.054
0.115,0.153,0.498,0.260,-0.020,0.146,0.019,1.032,0.367,0.291
0.081,0.113,0.367,0.235,-0.126,0.069,-0.024,0.915,0.255,0.117
0.161,0.221,0.459,0.258,-0.000,0.054,-0.036,0.918,0.351,0.174
-0.085,-0.016,0.303,0.129,-0.038,0.028,-0.138,0.820,0.254,0.074
0.090,0.101,0.360,0.256,-0.070,0.152,-0.048,0.846,0.236,0.117
0.450,0.422,0.819,0.555,0.268,0.385,0.343,1.263,0.616,0.486
0.565,0.651,0.925,0.685,0.361,0.530,0.498,1.453,0.799,0.617
0.321,0.320,0.591,0.435,0.165,0.234,0.202,1.147,0.474,0.328
0.116,0.148,0.456,0.277,0.022,0.054,0.052,0.967,0.326,0.163
0.040,0.084,0.464,0.220,-0.120,-0.031,-0.044,0.850,0.214,0.098
0.218,0.286,0.682,0.399,0.018,0.266,0.103,1.063,0.405,0.348
0.303,0.498,0.697,0.436,0.228,0.396,0.293,1.272,0.591,0.543
0.406,0.468,0.840,0.621,0.327,0.448,0.417,1.350,0.658,0.655
0.462,0.369,0.755,0.519,0.241,0.272,0.284,1.238,0.567,0.517
0.361,0.373,0.658,0.404,0.126,0.280,0.125,1.214,0.451,0.350
0.596,0.614,0.858,0.563,0.406,0.454,0.255,1.349,0.682,0.617
0.367,0.328,0.734,0.543,0.296,0.374,0.221,1.251,0.561,0.530
0.362,0.344,0.696,0.427,0.218,0.365,0.202,1.153,0.559,0.514
0.457,0.463,0.755,0.555,0.397,0.467,0.375,1.345,0.695,0.583
0.317,0.271,0.570,0.374,0.193,0.283,0.149,1.101,0.396,0.411
0.077,-0.005,0.412,0.146,-0.067,0.120,0.011,0.922,0.283,0.206
-0.054,-0.055,0.338,0.131,-0.113,-0.051,-0.124,0.795,0.113,-0.007
0.022,-0.059,0.321,0.132,-0.112,-0.136,-0.154,0.836,0.116,0.021
0.051,0.013,0.344,0.279,-0.138,0.010,-0.039,0.815,0.189,0.089
-0.350,-0.415,0.061,-0.179,-0.469,-0.384,-0.489,0.450,-0.238,-0.295
-0.311,-0.356,0.107,-0.104,-0.451,-0.283,-0.377,0.533,-0.082,-0.187
-0.198,-0.168,0.141,-0.029,-0.352,-0.094,-0.275,0.572,-0.119,-0.057
-0.418,-0.564,-0.073,-0.240,-0.543,-0.358,-0.529,0.320,-0.335,-0.414
-0.215,-0.252,0.187,-0.069,-0.299,-0.164,-0.341,0.544,-0.093,-0.242
0.034,-0.020,0.479,0.143,-0.030,0.076,-0.083,0.865,0.232,0.105
-0.240,-0.164,0.234,0.045,-0.286,-0.090,-0.241,0.698,0.082,-0.105
0.082,0.049,0.508,0.312,0.109,0.150,0.077,0.990,0.302,0.253
0.067,0.044,0.496,0.308,0.039,0.088,-0.052,0.908,0.254,0.184
0.145,0.106,0.567,0.374,0.198,0.131,0.153,1.018,0.237,0.253
0.084,0.148,0.569,0.326,0.115,0.162,0.095,0.916,0.276,0.135
0.045,0.074,0.437,0.275,-0.067,0.095,0.006,0.854,0.275,0.091
-0.176,-0.186,0.290,0.089,-0.194,-0.088,-0.179,0.714,0.065,-0.083
0.040,0.115,0.424,0.251,-0.060,0.051,0.025,0.925,0.277,0.080
0.042,0.143,0.462,0.305,-0.045,0.129,-0.067,1.014,0.287,0.066
0.156,0.147,0.521,0.311,0.074,0.155,0.067,1.001,0.345,0.179
0.283,0.314,0.612,0.391,0.061,0.220,0.122,1.076,0.479,0.309
0.335,0.290,0.681,0.479,0.113,0.242,0.203,1.158,0.494,0.313
0.053,0.024,0.357,0.126,-0.199,-0.027,-0.153,0.888,0.212,-0.036
-0.041,-0.130,0.319,-0.007,-0.178,-0.101,-0.292,0.775,0.143,-0.037
0.028,0.045,0.450,0.200,-0.132,0.021,-0.080,0.921,0.227,0.149
-0.203,-0.106,0.287,-0.005,-0.281,-0.165,-0.239,0.693,0.030,0.042
-0.245,-0.076,0.170,-0.041,-0.334,-0.300,-0.331,0.629,0.013,-0.107
-0.087,0.059,0.312,0.132,-0.140,-0.137,-0.215,0.776,0.145,0.032
-0.240,-0.247,0.134,0.052,-0.323,-0.191,-0.377,0.653,-0.062,-0.207
-0.315,-0.285,0.239,-0.070,-0.324,-0.295,-0.342,0.662,-0.042,-0.204
-0.454,-0.515,-0.105,-0.339,-0.669,-0.454,-0.571,0.400,-0.258,-0.367
-0.472,-0.550,-0.198,-0.366,-0.632,-0.533,-0.617,0.317,-0.354,-0.438
-0.396,-0.398,-0.072,-0.288,-0.625,-0.450,-0.548,0.409,-0.196,-0.322
-0.494,-0.427,-0.052,-0.176,-0.592,-0.376,-0.556,0.452,-0.183,-0.374
-0.366,-0.285,0.084,-0.187,-0.582,-0.270,-0.499,0.513,-0.136,-0.330
-0.270,-0.222,0.118,-0.148,-0.495,-0.284,-0.498,0.615,-0.055,-0.120
-0.734,-0.760,-0.375,-0.711,-0.834,-0.760,-0.983,0.022,-0.597,-0.589
-0.722,-0.791,-0.318,-0.626,-0.862,-0.729,-0.855,0.034,-0.503,-0.708
-0.806,-0.699,-0.451,-0.695,-0.876,-0.808,-0.828,0.011,-0.570,-0.765
-0.867,-0.870,-0.498,-0.700,-0.938,-0.908,-0.962,-0.060,-0.730,-0.750
-0.860,-0.793,-0.440,-0.631,-0.926,-0.879,-0.880,-0.009,-0.569,-0.761
-1.013,-0.863,-0.599,-0.845,-1.119,-0.991,-1.010,-0.152,-0.680,-0.903
-0.952,-0.928,-0.503,-0.795,-1.122,-0.987,-1.082,-0.177,-0.852,-0.937
-0.863,-0.868,-0.406,-0.628,-0.917,-0.751,-0.844,0.040,-0.672,-0.718
-0.966,-0.876,-0.563,-0.764,-1.063,-0.949,-1.052,-0.076,-0.713,-0.858
-0.798,-0.700,-0.439,-0.493,-0.946,-0.748,-0.773,0.115,-0.567,-0.656
-0.591,-0.518,-0.111,-0.384,-0.756,-0.515,-0.615,0.331,-0.399,-0.536
-0.605,-0.513,-0.242,-0.437,-0.819,-0.550,-0.683,0.250,-0.434,-0.613
-0.768,-0.733,-0.437,-0.586,-0.877,-0.691,-0.938,0.130,-0.531,-0.690
-0.568,-0.657,-0.260,-0.429,-0.740,-0.558,-0.690,0.208,-0.440,-0.538
-0.472,-0.495,-0.115,-0.308,-0.631,-0.427,-0.544,0.345,-0.332,-0.369
-0.419,-0.399,0.055,-0.218,-0.625,-0.353,-0.502,0.424,-0.219,-0.316
-0.162,-0.265,0.222,-0.152,-0.395,-0.178,-0.349,0.580,-0.071,-0.155
-0.252,-0.253,0.137,-0.193,-0.422,-0.132,-0.325,0.623,-0.060,-0.212
-0.143,-0.208,0.151,-0.095,-0.310,-0.113,-0.308,0.652,-0.071,-0.107
0.025,-0.057,0.365,0.101,-0.292,0.029,-0.013,0.829,0.143,-0.035
0.000,-0.026,0.326,0.044,-0.169,-0.037,-0.114,0.770,0.116,-0.110
0.051,0.097,0.387,0.265,-0.098,0.082,-0.063,0.902,0.269,0.097
0.193,0.105,0.520,0.324,0.019,0.197,0.049,0.985,0.455,0.193
0.188,0.011,0.545,0.264,-0.103,0.135,0.029,0.952,0.270,0.150
0.046,-0.036,0.485,0.242,-0.163,0.142,-0.046,0.854,0.244,0.120
-0.088,-0.154,0.216,0.044,-0.327,-0.102,-0.189,0.662,0.066,-0.044
0.256,0.191,0.570,0.332,-0.024,0.106,0.097,0.992,0.272,0.226
-0.038,-0.103,0.281,0.127,-0.323,-0.120,-0.149,0.708,0.065,-0.021
0.097,0.131,0.488,0.271,-0.127,0.045,-0.029,0.851,0.309,0.161
-0.177,-0.226,0.084,-0.023,-0.382,-0.256,-0.336,0.623,-0.059,-0.180
-0.692,-0.687,-0.317,-0.430,-0.730,-0.709,-0.769,0.184,-0.514,-0.629
-0.928,-0.825,-0.467,-0.701,-1.030,-0.823,-0.979,-0.048,-0.685,-0.765
-0.676,-0.638,-0.310,-0.491,-0.796,-0.710,-0.834,0.136,-0.490,-0.573
