0.250,0.250,0.250,0.250
-0.019,-0.008,0.378,0.344
0.416,0.362,0.728,0.796
0.556,0.374,0.975,0.887
0.538,0.490,0.793,0.856
0.328,0.175,0.626,0.558
0.067,0.004,0.453,0.392
-0.035,-0.091,0.338,0.374
0.252,0.180,0.679,0.549
-0.163,-0.338,0.164,0.099
0.158,0.103,0.426,0.434
-0.102,-0.235,0.225,0.179
-0.357,-0.488,0.004,-0.026
-0.652,-0.668,-0.290,-0.255
-0.577,-0.522,-0.185,-0.172
-0.462,-0.593,-0.112,-0.157
-0.430,-0.482,0.125,-0.003
-0.518,-0.617,-0.217,-0.248
-0.664,-0.739,-0.372,-0.405
-0.322,-0.449,0.038,-0.007
-0.545,-0.633,-0.308,-0.279
-0.672,-0.775,-0.342,-0.421
-0.865,-0.869,-0.423,-0.495
-0.610,-0.714,-0.291,-0.316
-0.388,-0.423,0.022,-0.011
-0.163,-0.277,0.206,0.081
-0.058,-0.187,0.159,0.188
-0.256,-0.322,0.066,-0.013
0.192,0.169,0.534,0.520
0.168,-0.040,0.442,0.436
0.164,-0.042,0.483,0.428
-0.308,-0.423,-0.006,-0.009
-0.054,-0.052,0.392,0.290
-0.011,-0.096,0.257,0.256
0.180,0.030,0.491,0.422
0.154,-0.027,0.473,0.433
-0.044,-0.221,0.306,0.302
-0.618,-0.642,-0.224,-0.200
-0.944,-0.956,-0.518,-0.581
-0.807,-0.880,-0.409,-0.403
-0.722,-0.803,-0.358,-0.555
-0.740,-0.704,-0.258,-0.328
-0.091,-0.108,0.366,0.268
0.152,0.140,0.515,0.496
0.047,0.026,0.432,0.327
0.168,0.186,0.515,0.549
0.255,0.088,0.552,0.489
0.153,0.068,0.559,0.461
0.724,0.563,1.000,0.992
0.739,0.562,1.106,1.008
0.846,0.733,1.193,1.155
0.593,0.466,0.967,0.873
0.662,0.550,0.973,0.981
0.763,0.612,1.060,0.999
0.380,0.235,0.705,0.719
0.321,0.203,0.666,0.674
0.008,-0.092,0.346,0.321
0.314,0.169,0.672,0.579
0.098,0.067,0.516,0.539
0.211,0.171,0.667,0.567
0.306,0.229,0.538,0.586
0.620,0.577,0.902,0.967
0.140,0.130,0.507,0.473
0.397,0.433,0.679,0.691
0.551,0.615,0.961,0.915
0.532,0.468,0.829,0.732
0.260,0.339,0.587,0.627
0.482,0.386,0.789,0.693
0.202,0.130,0.544,0.468
0.118,0.058,0.466,0.497
0.164,0.150,0.548,0.559
0.126,-0.015,0.456,0.408
-0.050,-0.075,0.329,0.326
-0.154,-0.420,0.096,0.040
-0.401,-0.462,-0.043,-0.093
-0.188,-0.163,0.242,0.273
-0.334,-0.426,-0.067,0.010
-0.142,-0.324,0.216,0.107
-0.069,-0.055,0.240,0.215
-0.182,-0.239,0.179,0.120
-0.545,-0.609,-0.040,-0.216
0.114,0.099,0.454,0.444
0.083,0.061,0.452,0.335
-0.264,-0.206,0.138,0.051
-0.445,-0.533,-0.057,-0.143
-0.593,-0.551,-0.147,-0.175
-0.926,-0.974,-0.476,-0.568
-0.463,-0.600,-0.107,-0.124
-0.842,-0.951,-0.489,-0.552
-0.899,-0.945,-0.530,-0.575
-0.850,-0.844,-0.497,-0.562
-1.041,-1.168,-0.758,-0.784
-0.938,-1.062,-0.654,-0.653
-0.799,-0.850,-0.423,-0.469
-0.792,-0.943,-0.511,-0.544
-1.065,-1.164,-0.742,-0.720
-0.784,-0.880,-0.424,-0.375
-1.130,-1.161,-0.722,-0.688
-0.566,-0.709,-0.188,-0.192
-0.455,-0.531,-0.105,-0.129
-0.318,-0.350,0.111,0.014
-0.484,-0.599,-0.148,-0.224
-0.414,-0.460,0.049,-0.047
-0.073,-0.160,0.313,0.259
-0.660,-0.756,-0.365,-0.317
-0.395,-0.477,0.024,-0.076
-0.691,-0.712,-0.339,-0.365
-0.696,-0.801,-0.417,-0.516
-0.436,-0.508,-0.059,-0.208
-0.496,-0.562,-0.091,-0.067
-0.494,-0.632,-0.107,-0.132
-0.459,-0.535,-0.067,-0.137
-0.480,-0.478,-0.121,-0.097
-0.544,-0.708,-0.274,-0.261
-0.225,-0.303,0.203,0.207
-0.587,-0.629,-0.147,-0.108
-0.329,-0.445,0.002,-0.026
-0.802,-1.000,-0.406,-0.484
-0.626,-0.711,-0.226,-0.289
-0.120,-0.189,0.244,0.201
-0.114,-0.159,0.225,0.189
-0.191,-0.263,0.230,0.153
-0.204,-0.293,0.217,0.214
-0.408,-0.456,-0.025,-0.058
-0.117,-0.227,0.428,0.263
-0.001,-0.068,0.341,0.288
0.216,0.192,0.620,0.601
0.526,0.396,0.818,0.795
0.529,0.412,0.800,0.781
0.847,0.683,1.148,1.102
0.918,0.852,1.280,1.272
0.657,0.486,1.035,1.026
0.253,0.181,0.603,0.629
0.159,0.044,0.521,0.376
0.102,-0.011,0.418,0.427
-0.315,-0.289,0.136,0.055
0.065,-0.078,0.418,0.379
-0.010,-0.172,0.371,0.261
0.253,0.189,0.602,0.589
0.123,0.048,0.358,0.281
-0.081,-0.130,0.276,0.190
0.205,0.162,0.584,0.485
0.186,0.064,0.486,0.438
0.086,-0.082,0.382,0.377
-0.249,-0.356,0.056,0.094
-0.096,-0.221,0.190,0.157
-0.013,-0.143,0.361,0.252
0.016,-0.093,0.431,0.401
0.021,-0.147,0.307,0.220
0.210,0.207,0.601,0.555
0.490,0.321,0.779,0.752
-0.103,-0.082,0.386,0.310
-0.390,-0.444,-0.067,-0.085
-0.159,-0.175,0.193,0.157
0.065,-0.007,0.375,0.321
-0.006,-0.132,0.242,0.254
-0.224,-0.330,0.175,0.103
-0.033,-0.099,0.225,0.235
-0.287,-0.295,0.103,0.072
-0.259,-0.330,0.042,-0.021
0.202,0.156,0.572,0.412
0.534,0.488,0.883,0.883
0.879,0.831,1.248,1.223
0.452,0.334,0.814,0.749
0.191,0.213,0.598,0.575
0.326,0.365,0.773,0.709
0.268,0.193,0.553,0.535
0.332,0.274,0.626,0.643
-0.031,-0.144,0.298,0.164
-0.279,-0.395,0.084,-0.043
-0.878,-1.010,-0.556,-0.537
-0.596,-0.729,-0.237,-0.290
-0.492,-0.540,-0.066,-0.110
-1.077,-1.183,-0.616,-0.687
-1.077,-1.292,-0.756,-0.717
-1.199,-1.376,-0.909,-0.967
-0.974,-1.156,-0.617,-0.735
-1.438,-1.415,-0.962,-1.073
-1.110,-1.141,-0.785,-0.732
-1.238,-1.268,-0.840,-0.806
-1.280,-1.415,-0.920,-0.957
-1.235,-1.314,-0.895,-0.961
-1.424,-1.482,-1.017,-1.056
-1.142,-1.302,-0.805,-0.828
-1.312,-1.426,-0.944,-0.971
-1.079,-1.056,-0.689,-0.739
-0.402,-0.422,-0.036,-0.052
-0.574,-0.699,-0.122,-0.207
-0.809,-0.832,-0.378,-0.434
-0.365,-0.392,0.008,-0.007
-0.366,-0.399,0.074,-0.031
-0.651,-0.644,-0.117,-0.206
-0.681,-0.721,-0.346,-0.316
-0.362,-0.435,0.009,-0.006
-0.531,-0.466,-0.101,-0.151
-0.037,-0.083,0.318,0.241
-0.000,-0.079,0.395,0.274
-0.126,-0.231,0.238,0.132
-0.128,-0.149,0.300,0.285
0.045,-0.064,0.335,0.304
-0.332,-0.471,0.057,-0.079
-0.451,-0.570,-0.062,-0.144
-0.618,-0.755,-0.293,-0.350
-0.144,-0.275,0.189,0.132
-0.172,-0.294,0.137,0.090
-0.623,-0.658,-0.212,-0.336
-0.703,-0.774,-0.303,-0.393
-0.446,-0.552,-0.086,-0.182
-0.594,-0.703,-0.309,-0.314
-0.691,-0.878,-0.354,-0.387
-1.025,-1.103,-0.585,-0.602
-0.514,-0.643,-0.268,-0.196
-0.640,-0.857,-0.337,-0.380
-0.569,-0.673,-0.188,-0.245
-0.915,-1.122,-0.638,-0.694
-0.611,-0.608,-0.211,-0.204
-0.473,-0.561,-0.113,-0.141
-0.451,-0.581,-0.176,-0.092
-0.149,-0.165,0.247,0.201
-0.243,-0.305,0.183,0.037
-0.385,-0.468,0.045,-0.068
-0.078,-0.224,0.190,0.222
-0.056,-0.141,0.234,0.204
-0.210,-0.304,0.080,0.048
-0.366,-0.452,0.014,-0.022
-0.562,-0.528,-0.051,-0.169
-0.444,-0.509,-0.002,-0.050
0.020,-0.039,0.414,0.316
0.137,0.020,0.475,0.431
0.475,0.489,0.892,0.777
0.445,0.303,0.844,0.719
0.570,0.376,0.871,0.760
0.073,-0.008,0.323,0.318
0.125,0.045,0.506,0.515
-0.026,0.040,0.338,0.306
-0.162,-0.210,0.212,0.166
-0.228,-0.256,0.119,0.143
-0.125,-0.342,0.219,0.133
-0.105,-0.240,0.215,0.185
-0.533,-0.680,-0.229,-0.242
-0.438,-0.433,-0.033,-0.079
-0.309,-0.435,-0.079,-0.067
-0.382,-0.483,-0.070,-0.159
-0.271,-0.381,-0.037,-0.019
0.305,0.235,0.668,0.580
0.263,0.172,0.558,0.567
0.139,0.109,0.537,0.523
0.078,0.121,0.568,0.472
0.623,0.484,0.934,0.827
0.289,0.217,0.679,0.595
0.278,0.279,0.763,0.681
0.222,0.042,0.580,0.585
0.510,0.306,0.758,0.713
0.292,0.063,0.636,0.542
-0.046,-0.126,0.331,0.303
-0.045,-0.160,0.311,0.249
-0.111,-0.216,0.292,0.242
-0.148,-0.312,0.172,0.108
-0.350,-0.486,0.020,-0.017
-0.156,-0.274,0.133,0.163
0.139,0.059,0.538,0.520
0.040,0.059,0.395,0.414
0.333,0.247,0.811,0.682
0.347,0.274,0.756,0.643
0.442,0.249,0.695,0.713
0.158,0.054,0.456,0.465
0.377,0.307,0.764,0.727
-0.006,-0.116,0.391,0.338
0.233,0.236,0.735,0.618
0.316,0.185,0.675,0.595
0.444,0.297,0.816,0.708
0.105,-0.010,0.499,0.434
0.083,-0.113,0.407,0.280
-0.042,-0.135,0.343,0.339
0.048,0.019,0.449,0.426
0.059,0.014,0.355,0.315
0.316,0.205,0.684,0.706
-0.094,-0.276,0.243,0.156
-0.259,-0.313,0.077,0.063
-0.077,-0.199,0.235,0.269
-0.690,-0.821,-0.276,-0.370
-0.320,-0.452,-0.048,-0.033
-0.252,-0.349,0.108,0.021
-0.135,-0.070,0.322,0.296
0.150,-0.003,0.510,0.516
0.270,-0.016,0.514,0.510
0.199,0.075,0.535,0.491
0.267,0.176,0.637,0.584
-0.073,-0.307,0.238,0.176
-0.270,-0.378,-0.019,-0.041
-0.240,-0.327,0.064,0.060
-0.315,-0.471,0.006,0.032
0.090,-0.047,0.334,0.356
0.247,0.187,0.630,0.575
-0.158,-0.251,0.217,0.174
0.236,0.104,0.570,0.450
0.022,-0.134,0.267,0.324
-0.068,-0.221,0.206,0.188
-0.210,-0.326,0.114,0.091
0.089,0.097,0.475,0.478
0.240,0.114,0.556,0.561
-0.039,-0.068,0.385,0.313
-0.139,-0.235,0.242,0.180
-0.299,-0.321,0.049,0.033
0.103,0.027,0.518,0.456
-0.084,-0.101,0.213,0.291
0.192,0.052,0.451,0.413
0.253,0.133,0.568,0.597
0.407,0.222,0.731,0.673
-0.202,-0.208,0.171,0.138
0.280,0.208,0.699,0.585
0.034,-0.098,0.371,0.207
0.569,0.371,0.977,0.870
0.331,0.225,0.647,0.585
0.175,0.179,0.610,0.581
0.475,0.382,0.803,0.761
0.474,0.457,0.892,0.852
0.206,0.143,0.623,0.547
0.198,0.180,0.580,0.540
0.799,0.691,1.074,1.005
0.608,0.470,0.954,0.881
-0.003,-0.053,0.357,0.413
0.056,0.052,0.449,0.286
-0.268,-0.378,0.095,-0.003
-0.642,-0.662,-0.258,-0.270
-0.547,-0.648,-0.232,-0.260
-0.612,-0.723,-0.374,-0.301
-0.705,-0.768,-0.347,-0.343
-0.718,-0.845,-0.266,-0.362
-0.794,-0.866,-0.433,-0.393
-0.237,-0.360,-0.046,-0.001
-0.404,-0.450,-0.013,-0.149
0.039,-0.122,0.353,0.310
-0.062,-0.248,0.145,0.145
-0.198,-0.323,0.112,0.047
-0.255,-0.341,-0.006,0.003
-0.262,-0.249,0.080,0.064
-0.155,-0.259,0.090,0.047
-0.182,-0.282,0.153,0.041
-0.203,-0.294,0.141,0.130
-0.320,-0.373,0.011,0.011
-0.646,-0.718,-0.288,-0.317
-0.745,-0.804,-0.299,-0.426
-0.764,-0.877,-0.509,-0.501
-1.192,-1.163,-0.831,-0.835
-1.046,-0.939,-0.615,-0.624
-0.487,-0.614,-0.153,-0.273
-0.495,-0.677,-0.267,-0.308
-0.697,-0.747,-0.358,-0.390
-0.350,-0.437,0.013,-0.042
-0.395,-0.425,-0.083,-0.102
-0.049,-0.226,0.203,0.147
-0.700,-0.793,-0.311,-0.448
-0.543,-0.504,-0.151,-0.187
-0.065,-0.178,0.266,0.246
-0.377,-0.480,-0.035,-0.110
-0.502,-0.515,-0.204,-0.268
-0.483,-0.570,-0.086,-0.151
-0.164,-0.306,0.208,0.204
-0.174,-0.179,0.186,0.200
0.172,0.162,0.535,0.471
0.334,0.252,0.645,0.590
0.143,0.105,0.577,0.497
0.480,0.426,0.883,0.819
0.391,0.319,0.710,0.707
0.607,0.460,0.942,0.905
-0.022,-0.030,0.494,0.330
0.158,0.105,0.477,0.408
0.358,0.266,0.688,0.763
-0.151,-0.171,0.185,0.228
-0.573,-0.624,-0.244,-0.264
-1.118,-1.151,-0.693,-0.758
-1.288,-1.310,-0.913,-1.024
-1.021,-1.090,-0.693,-0.682
-0.655,-0.915,-0.435,-0.428
-0.925,-0.937,-0.487,-0.440
-0.825,-0.856,-0.356,-0.403
-0.727,-0.755,-0.385,-0.399
-0.784,-0.800,-0.402,-0.417
-0.923,-1.001,-0.591,-0.642
-0.536,-0.533,-0.034,-0.138
-0.059,-0.183,0.255,0.225
-0.105,-0.294,0.195,0.209
0.071,-0.099,0.376,0.379
-0.139,-0.249,0.175,0.156
0.060,0.042,0.386,0.373
0.072,-0.034,0.499,0.444
0.222,0.127,0.569,0.538
0.453,0.409,0.824,0.781
0.248,0.201,0.596,0.626
0.275,0.198,0.643,0.572
0.203,0.152,0.502,0.512
-0.055,-0.152,0.349,0.252
-0.346,-0.343,0.011,-0.006
0.143,-0.014,0.604,0.522
0.213,0.142,0.568,0.577
0.380,0.313,0.736,0.671
0.152,0.155,0.542,0.521
0.343,0.191,0.699,0.609
0.063,-0.093,0.396,0.313
0.350,0.187,0.625,0.662
0.340,0.227,0.651,0.605
0.795,0.690,1.199,1.049
0.986,1.006,1.324,1.291
1.084,1.111,1.459,1.497
1.477,1.405,1.830,1.817
1.652,1.591,2.041,1.942
1.704,1.627,2.073,1.994
1.830,1.729,2.128,2.117
1.405,1.386,1.814,1.772
1.447,1.412,1.766,1.784
1.225,1.126,1.549,1.498
1.074,0.940,1.383,1.406
1.184,1.145,1.458,1.473
1.158,0.971,1.476,1.391
0.976,0.905,1.357,1.327
1.110,0.974,1.401,1.357
0.502,0.382,0.847,0.805
0.312,0.214,0.607,0.633
0.310,0.170,0.593,0.546
0.847,0.734,1.087,1.175
0.791,0.828,1.175,1.176
0.900,0.803,1.226,1.178
0.683,0.683,1.114,1.025
0.383,0.262,0.662,0.582
0.869,0.654,1.134,1.154
0.353,0.252,0.778,0.690
0.737,0.711,1.161,1.091
0.685,0.576,1.062,0.994
0.064,-0.045,0.404,0.462
-0.175,-0.261,0.165,0.115
-0.296,-0.375,0.034,-0.047
-0.161,-0.317,0.203,0.125
-0.190,-0.258,0.200,0.157
-0.282,-0.299,0.106,0.142
-0.437,-0.466,-0.036,-0.119
-0.248,-0.340,0.102,0.046
-0.653,-0.670,-0.268,-0.282
-0.595,-0.715,-0.324,-0.365
-0.549,-0.688,-0.318,-0.288
-0.379,-0.484,-0.028,-0.151
-0.694,-0.747,-0.344,-0.401
-0.395,-0.534,0.003,-0.129
-0.497,-0.630,-0.167,-0.176
-0.488,-0.483,-0.146,-0.175
-0.412,-0.491,-0.090,-0.180
-0.289,-0.251,0.163,0.200
-0.349,-0.313,0.055,0.070
-0.046,-0.076,0.327,0.251
-0.114,-0.096,0.277,0.233
-0.105,-0.128,0.344,0.283
-0.007,-0.209,0.364,0.263
-0.205,-0.315,0.137,0.042
-0.182,-0.365,0.167,0.164
0.091,-0.085,0.418,0.296
-0.476,-0.560,-0.098,-0.151
-0.416,-0.488,-0.079,-0.108
-0.674,-0.697,-0.333,-0.336
-0.437,-0.514,-0.099,-0.154
-0.347,-0.367,-0.015,0.042
-0.646,-0.654,-0.211,-0.168
-0.506,-0.691,-0.257,-0.306
-0.628,-0.750,-0.429,-0.366
-0.805,-0.979,-0.588,-0.534
-0.874,-0.825,-0.581,-0.510
-0.855,-0.978,-0.538,-0.587
-1.284,-1.421,-0.957,-1.031
-0.785,-0.858,-0.425,-0.422
-1.066,-1.054,-0.668,-0.768
-0.674,-0.697,-0.368,-0.336
-0.869,-1.010,-0.577,-0.568
-1.174,-1.314,-0.785,-0.866
-1.454,-1.514,-1.054,-1.091
-0.837,-0.981,-0.500,-0.561
-0.794,-0.910,-0.458,-0.488
-0.762,-0.858,-0.378,-0.465
-0.999,-1.022,-0.630,-0.713
-1.357,-1.478,-0.960,-1.001
-1.231,-1.409,-0.860,-0.922
-1.409,-1.491,-1.067,-1.125
-1.721,-1.736,-1.302,-1.380
-1.422,-1.546,-1.123,-1.129
-1.732,-1.772,-1.330,-1.425
-1.324,-1.373,-0.958,-1.000
-0.946,-1.020,-0.631,-0.704
-0.791,-0.807,-0.438,-0.434
-0.335,-0.395,0.053,0.044
-0.188,-0.341,0.117,0.076
-0.343,-0.383,-0.009,-0.013
0.224,0.142,0.560,0.536
-0.084,-0.169,0.352,0.259
-0.146,-0.152,0.274,0.150
-0.030,-0.140,0.337,0.219
-0.431,-0.533,-0.120,-0.138
-0.309,-0.377,0.021,0.024
-0.585,-0.624,-0.243,-0.246
-0.626,-0.701,-0.272,-0.284
-0.647,-0.781,-0.326,-0.327
-0.818,-0.779,-0.411,-0.442
-0.383,-0.423,-0.055,-0.072
-0.163,-0.312,0.172,0.037
0.173,0.075,0.454,0.442
0.173,0.009,0.445,0.429
-0.127,-0.282,0.184,0.094
-0.428,-0.468,0.038,-0.069
-0.361,-0.459,-0.037,0.059
-0.299,-0.433,-0.034,0.021
-0.314,-0.433,-0.018,0.076
-0.008,-0.152,0.292,0.299
0.039,-0.068,0.390,0.319
-0.021,-0.057,0.296,0.276
0.089,-0.080,0.345,0.253
-0.278,-0.290,0.175,0.096
-0.166,-0.306,0.200,0.141
-0.581,-0.647,-0.234,-0.287
-0.748,-0.799,-0.327,-0.450
-0.824,-0.860,-0.474,-0.552
-0.628,-0.581,-0.301,-0.174
-0.217,-0.393,0.051,0.035
-0.295,-0.388,0.036,-0.072
-0.299,-0.359,0.061,0.008
-0.435,-0.438,-0.040,-0.140
-0.610,-0.651,-0.200,-0.235
-0.439,-0.619,-0.165,-0.242
-0.346,-0.481,-0.015,-0.057
-0.251,-0.410,0.064,0.065
-0.852,-0.890,-0.365,-0.468
-0.473,-0.590,-0.094,-0.155
-0.816,-0.910,-0.371,-0.457
-0.809,-0.979,-0.475,-0.529
-0.779,-0.787,-0.316,-0.357
-0.472,-0.621,-0.106,-0.132
-0.380,-0.466,-0.085,-0.089
-0.227,-0.380,0.079,0.029
0.060,-0.115,0.390,0.403
0.016,0.017,0.466,0.363
0.339,0.358,0.741,0.670
0.360,0.395,0.807,0.694
0.432,0.398,0.837,0.763
0.583,0.519,0.913,0.871
0.675,0.617,0.951,1.029
0.455,0.379,0.805,0.763
0.349,0.268,0.690,0.704
-0.143,-0.161,0.257,0.304
0.106,0.016,0.439,0.444
0.055,-0.001,0.453,0.488
0.216,0.153,0.618,0.540
-0.225,-0.267,0.134,0.105
-0.277,-0.509,0.019,-0.034
-0.321,-0.391,0.014,-0.001
-0.175,-0.135,0.213,0.248
-0.206,-0.184,0.179,0.090
-0.408,-0.524,-0.082,-0.064
-0.334,-0.485,-0.015,-0.129
0.006,0.008,0.343,0.347
-0.311,-0.416,0.097,0.023
-0.402,-0.373,-0.044,-0.103
-0.580,-0.660,-0.262,-0.307
-0.688,-0.705,-0.324,-0.315
-0.787,-0.949,-0.353,-0.472
-0.504,-0.603,-0.094,-0.123
-0.899,-0.981,-0.530,-0.478
-0.432,-0.506,-0.096,-0.117
-0.277,-0.346,0.108,0.107
0.004,-0.182,0.270,0.300
-0.194,-0.256,0.174,0.166
-0.355,-0.597,-0.185,-0.206
-0.072,-0.208,0.178,0.161
-0.088,-0.159,0.307,0.261
0.265,0.236,0.716,0.651
0.121,0.085,0.441,0.425
0.045,-0.069,0.424,0.344
-0.081,-0.180,0.260,0.211
-0.243,-0.274,0.107,0.087
0.027,-0.020,0.431,0.428
-0.249,-0.339,0.114,0.065
-0.448,-0.553,-0.117,-0.152
-0.817,-0.911,-0.439,-0.512
-0.403,-0.615,-0.092,-0.202
-0.795,-0.980,-0.484,-0.488
-0.610,-0.723,-0.266,-0.225
-0.625,-0.689,-0.253,-0.254
-0.866,-0.926,-0.474,-0.505
-0.710,-0.757,-0.350,-0.415
-0.480,-0.644,-0.167,-0.170
-0.835,-0.999,-0.489,-0.538
-0.392,-0.585,-0.101,-0.141
-0.663,-0.677,-0.248,-0.212
-0.253,-0.256,0.145,0.034
0.085,0.082,0.534,0.482
0.124,0.062,0.479,0.497
0.229,0.176,0.588,0.566
0.301,0.093,0.582,0.534
0.330,0.179,0.590,0.592
0.650,0.529,0.945,0.872
0.243,0.206,0.624,0.622
0.250,0.236,0.686,0.608
0.163,-0.018,0.430,0.387
-0.310,-0.407,0.027,0.079
-0.049,-0.172,0.366,0.327
0.033,-0.105,0.428,0.244
-0.061,-0.127,0.242,0.195
-0.101,-0.163,0.249,0.254
-0.223,-0.285,0.167,0.100
0.140,-0.051,0.439,0.311
0.236,0.155,0.628,0.564
0.323,0.245,0.661,0.672
0.406,0.282,0.812,0.781
0.510,0.504,0.909,0.840
0.386,0.241,0.739,0.599
0.112,0.033,0.543,0.443
-0.170,-0.244,0.202,0.169
0.038,0.009,0.455,0.269
0.025,-0.076,0.380,0.318
-0.105,-0.173,0.247,0.182
0.005,-0.256,0.188,0.252
0.029,-0.051,0.403,0.458
0.118,-0.008,0.384,0.473
-0.115,-0.196,0.214,0.207
-0.099,-0.273,0.215,0.185
-0.040,-0.073,0.347,0.359
-0.348,-0.446,0.054,-0.079
-0.844,-0.881,-0.495,-0.511
-0.585,-0.548,-0.134,-0.154
-0.301,-0.466,0.024,-0.027
0.040,-0.082,0.344,0.207
0.585,0.443,0.967,0.925
1.038,0.901,1.414,1.313
0.747,0.622,1.179,1.053
0.382,0.276,0.764,0.747
0.187,0.032,0.506,0.501
0.183,0.150,0.503,0.502
-0.077,-0.171,0.305,0.233
-0.272,-0.326,0.149,0.115
-0.315,-0.369,0.059,-0.017
-0.656,-0.617,-0.284,-0.229
-0.829,-0.914,-0.480,-0.445
-0.220,-0.369,-0.002,-0.091
-0.082,-0.212,0.198,0.191
-0.197,-0.385,0.028,-0.017
-0.576,-0.660,-0.223,-0.181
-0.665,-0.775,-0.327,-0.361
-0.915,-1.002,-0.613,-0.591
-0.769,-0.960,-0.563,-0.605
-0.695,-0.789,-0.364,-0.462
-0.435,-0.509,-0.064,-0.033
-0.403,-0.447,-0.012,0.015
-0.368,-0.476,0.029,-0.112
-0.684,-0.780,-0.374,-0.492
-0.585,-0.646,-0.200,-0.366
-0.842,-0.867,-0.471,-0.566
-0.753,-0.822,-0.370,-0.384
-0.770,-0.875,-0.407,-0.463
-0.949,-1.036,-0.593,-0.693
-0.651,-0.708,-0.305,-0.302
-0.341,-0.419,0.004,0.019
-0.080,-0.264,0.273,0.193
-0.262,-0.403,0.222,0.102
-0.361,-0.447,0.036,0.022
-0.228,-0.397,0.096,0.085
-0.176,-0.267,0.170,0.130
-0.039,-0.050,0.357,0.317
-0.010,-0.084,0.329,0.273
-0.035,-0.144,0.273,0.195
-0.454,-0.504,-0.139,-0.092
-0.348,-0.460,0.030,-0.050
-0.429,-0.614,-0.146,-0.251
-0.577,-0.573,-0.206,-0.221
-0.262,-0.339,0.137,0.096
-0.240,-0.391,0.050,-0.007
-0.175,-0.347,0.174,0.110
-0.068,-0.243,0.249,0.112
0.175,0.016,0.426,0.405
0.172,0.183,0.644,0.547
-0.170,-0.283,0.206,0.074
0.103,-0.005,0.440,0.383
0.437,0.328,0.730,0.706
0.504,0.395,0.822,0.801
0.326,0.203,0.624,0.593
0.738,0.561,1.070,0.956
0.641,0.482,0.933,0.857
0.747,0.652,1.036,0.974
0.595,0.487,0.898,0.808
0.142,0.059,0.513,0.379
0.201,0.063,0.492,0.474
0.719,0.538,1.050,0.992
0.508,0.444,0.971,0.836
0.866,0.755,1.192,1.065
0.194,0.204,0.606,0.547
0.001,-0.054,0.305,0.309
0.212,0.080,0.542,0.573
-0.114,-0.182,0.141,0.153
-0.194,-0.301,0.095,0.125
-0.665,-0.684,-0.265,-0.249
-0.199,-0.342,0.130,0.071
-0.364,-0.605,-0.130,-0.187
-0.779,-0.890,-0.431,-0.481
-0.586,-0.634,-0.169,-0.260
-1.044,-1.091,-0.672,-0.581
-1.445,-1.517,-1.127,-1.099
-1.245,-1.321,-0.936,-0.903
-0.634,-0.740,-0.382,-0.347
-0.754,-0.847,-0.440,-0.436
-0.853,-0.999,-0.515,-0.630
-0.900,-0.982,-0.525,-0.603
-0.886,-0.943,-0.583,-0.607
-0.630,-0.729,-0.272,-0.300
-0.496,-0.576,-0.051,-0.171
-0.385,-0.487,-0.029,0.001
-0.289,-0.309,0.130,0.074
-0.421,-0.430,0.067,0.074
-0.123,-0.345,0.218,0.198
-0.020,-0.167,0.202,0.175
-0.457,-0.474,-0.121,-0.079
-0.510,-0.574,-0.088,-0.112
-0.760,-0.864,-0.407,-0.425
-0.758,-0.811,-0.433,-0.418
-1.195,-1.167,-0.753,-0.744
-0.491,-0.584,-0.139,-0.222
-0.138,-0.103,0.259,0.244
0.213,0.077,0.462,0.446
0.073,-0.081,0.383,0.286
0.019,-0.153,0.271,0.345
0.088,-0.069,0.463,0.326
0.140,0.002,0.459,0.425
0.050,-0.091,0.342,0.257
-0.123,-0.280,0.254,0.211
-0.256,-0.394,0.062,0.073
-0.468,-0.585,-0.174,-0.263
-0.534,-0.574,-0.205,-0.249
-0.177,-0.202,0.157,0.096
-0.207,-0.203,0.194,0.134
-0.195,-0.262,0.105,0.014
-0.348,-0.421,-0.001,-0.055
-0.553,-0.516,-0.196,-0.218
-0.879,-0.818,-0.485,-0.498
-0.314,-0.392,0.006,-0.034
-0.390,-0.551,-0.060,-0.134
-0.284,-0.489,0.085,0.036
-0.616,-0.717,-0.230,-0.319
-0.444,-0.572,-0.151,-0.124
-0.549,-0.519,-0.153,-0.236
-0.358,-0.376,-0.007,-0.035
-0.052,-0.055,0.318,0.332
0.113,0.051,0.554,0.506
0.691,0.702,1.049,1.089
0.905,0.837,1.325,1.259
0.735,0.674,1.038,1.100
1.062,0.920,1.356,1.321
1.220,0.992,1.467,1.469
0.506,0.455,0.876,0.800
0.406,0.307,0.704,0.703
0.322,0.216,0.705,0.620
0.400,0.288,0.634,0.679
0.129,-0.101,0.380,0.347
-0.164,-0.322,0.087,0.021
0.417,0.342,0.817,0.620
0.618,0.521,0.901,0.837
0.529,0.428,0.878,0.880
0.445,0.217,0.792,0.729
0.413,0.291,0.716,0.668
0.272,0.204,0.639,0.553
0.521,0.457,0.825,0.811
0.593,0.514,0.920,0.916
0.565,0.409,0.902,0.847
0.386,0.371,0.718,0.741
0.282,0.167,0.620,0.604
0.149,-0.005,0.524,0.395
-0.127,-0.171,0.242,0.221
-0.071,0.004,0.388,0.446
0.351,0.362,0.735,0.747
0.974,0.845,1.295,1.341
0.894,0.815,1.260,1.169
0.648,0.525,1.019,0.890
0.493,0.306,0.902,0.791
0.836,0.652,1.050,1.073
0.593,0.429,0.867,0.820
0.497,0.411,0.773,0.709
0.404,0.305,0.820,0.828
0.596,0.406,0.823,0.776
0.837,0.645,1.070,1.032
0.689,0.643,1.023,1.027
0.612,0.559,0.963,0.867
0.863,0.864,1.271,1.267
0.897,0.906,1.331,1.327
0.509,0.465,0.871,0.819
0.551,0.545,0.947,0.936
0.697,0.568,1.014,0.959
1.347,1.072,1.595,1.562
1.067,0.988,1.393,1.345
1.488,1.441,1.864,1.794
0.949,1.015,1.423,1.406
0.750,0.687,1.137,1.111
0.552,0.412,1.014,0.943
0.175,0.137,0.694,0.498
0.327,0.262,0.578,0.582
0.456,0.381,0.711,0.647
0.580,0.546,0.890,0.880
0.226,0.236,0.602,0.580
0.445,0.239,0.717,0.722
0.576,0.354,0.795,0.816
0.341,0.177,0.688,0.646
0.400,0.190,0.595,0.604
-0.195,-0.290,0.063,0.137
0.239,0.116,0.547,0.491
0.214,0.173,0.538,0.538
-0.221,-0.321,0.149,0.128
0.205,0.168,0.602,0.579
0.003,-0.095,0.320,0.294
-0.047,-0.145,0.284,0.246
-0.072,-0.114,0.217,0.190
-0.197,-0.282,0.128,0.058
0.025,-0.060,0.351,0.352
-0.278,-0.325,0.087,0.053
-0.732,-0.838,-0.429,-0.408
-0.583,-0.842,-0.396,-0.372
-1.024,-1.116,-0.700,-0.710
-0.741,-0.851,-0.412,-0.440
-0.506,-0.671,-0.169,-0.246
-0.464,-0.511,-0.077,-0.094
-0.629,-0.672,-0.234,-0.270
-0.277,-0.417,0.029,-0.053
-0.320,-0.461,0.052,-0.033
-0.004,-0.195,0.295,0.200
-0.245,-0.405,0.234,0.084
-0.392,-0.563,-0.022,-0.125
0.038,-0.010,0.380,0.365
-0.050,-0.245,0.214,0.149
0.067,-0.057,0.334,0.249
0.527,0.440,0.818,0.805
0.080,0.071,0.452,0.469
0.210,0.100,0.615,0.622
0.296,0.271,0.734,0.680
0.433,0.370,0.825,0.763
0.617,0.590,0.979,0.937
0.665,0.537,1.039,0.923
0.285,0.243,0.720,0.704
0.560,0.483,0.901,0.913
0.273,0.093,0.597,0.495
0.046,0.056,0.514,0.431
0.323,0.214,0.687,0.647
0.305,0.312,0.722,0.626
0.077,-0.046,0.422,0.312
0.376,0.203,0.762,0.706
0.230,0.063,0.585,0.499
-0.464,-0.577,-0.154,-0.175
-0.672,-0.709,-0.306,-0.401
-0.554,-0.662,-0.049,-0.175
-0.543,-0.602,-0.217,-0.178
-0.357,-0.480,0.022,-0.053
-0.434,-0.648,-0.093,-0.205
-0.285,-0.396,0.089,0.018
-0.164,-0.295,0.145,0.150
-0.328,-0.316,0.078,0.084
-0.243,-0.304,0.126,0.057
0.336,0.146,0.597,0.641
0.041,-0.036,0.395,0.383
0.048,0.012,0.512,0.389
0.153,0.075,0.518,0.475
0.231,0.170,0.619,0.622
0.297,0.107,0.603,0.537
0.262,0.159,0.624,0.560
0.107,0.111,0.568,0.544
0.714,0.574,1.093,0.976
0.721,0.551,0.993,1.032
0.385,0.265,0.843,0.746
-0.062,-0.091,0.394,0.347
-0.113,-0.192,0.271,0.260
-0.250,-0.206,0.169,0.150
-0.238,-0.359,0.074,0.117
-0.188,-0.196,0.248,0.235
-0.090,-0.131,0.282,0.205
-0.001,-0.081,0.341,0.304
0.186,0.133,0.557,0.513
0.217,0.131,0.588,0.543
0.126,-0.055,0.423,0.429
0.360,0.237,0.657,0.641
-0.009,-0.184,0.408,0.302
0.292,0.243,0.516,0.582
0.311,0.305,0.711,0.639
0.363,0.337,0.711,0.661
0.239,0.174,0.547,0.637
0.270,0.179,0.584,0.585
0.695,0.702,1.050,0.994
0.495,0.436,0.859,0.756
0.100,0.054,0.548,0.490
0.403,0.396,0.767,0.812
0.429,0.336,0.677,0.618
0.521,0.504,0.835,0.785
0.608,0.529,0.858,0.890
0.801,0.757,1.222,1.160
0.475,0.321,0.814,0.779
0.614,0.516,0.908,0.952
0.690,0.583,0.958,1.003
0.822,0.650,1.073,1.021
0.490,0.370,0.817,0.749
0.474,0.384,0.752,0.711
0.009,0.018,0.362,0.249
0.108,0.146,0.482,0.363
0.371,0.239,0.642,0.681
0.338,0.254,0.601,0.604
0.331,0.302,0.726,0.595
0.019,-0.023,0.317,0.373
0.053,0.004,0.386,0.438
0.218,0.030,0.572,0.506
0.068,-0.095,0.375,0.322
-0.126,-0.272,0.242,0.191
-0.107,-0.176,0.291,0.255
-0.159,-0.248,0.234,0.214
-0.042,-0.145,0.236,0.288
-0.096,-0.250,0.216,0.223
-0.141,-0.249,0.170,0.170
0.121,0.074,0.382,0.435
0.250,0.135,0.602,0.514
0.124,0.068,0.525,0.442
-0.278,-0.394,0.152,0.037
-0.159,-0.264,0.207,0.179
-0.110,-0.160,0.256,0.234
-0.032,-0.049,0.358,0.318
-0.087,-0.084,0.300,0.237
0.100,-0.144,0.422,0.345
0.100,0.015,0.435,0.461
0.086,0.009,0.483,0.511
-0.130,-0.262,0.123,0.101
-0.304,-0.368,0.090,0.101
-0.348,-0.444,0.018,-0.021
-0.458,-0.524,-0.020,-0.037
-0.312,-0.369,0.057,0.074
-0.418,-0.458,-0.083,-0.126
-0.583,-0.845,-0.297,-0.395
-0.598,-0.718,-0.187,-0.270
-0.432,-0.561,-0.114,-0.094
-0.291,-0.394,0.020,0.024
-0.381,-0.482,0.004,-0.123
0.004,-0.110,0.381,0.242
-0.328,-0.397,0.002,-0.167
-0.563,-0.674,-0.203,-0.369
-0.150,-0.187,0.273,0.120
0.183,-0.001,0.497,0.382
-0.065,-0.189,0.251,0.154
-0.005,-0.079,0.344,0.290
-0.087,-0.213,0.293,0.211
-0.119,-0.210,0.237,0.192
-0.252,-0.300,0.160,0.140
0.380,0.255,0.580,0.622
0.372,0.297,0.811,0.739
0.031,0.042,0.471,0.448
0.493,0.427,0.749,0.773
0.211,0.105,0.504,0.526
-0.160,-0.279,0.206,0.119
-0.232,-0.324,0.136,0.104
-0.060,-0.127,0.286,0.251
-0.305,-0.322,0.136,0.120
0.292,0.139,0.561,0.616
0.260,0.130,0.588,0.667
0.065,-0.042,0.422,0.410
-0.243,-0.263,0.175,0.145
-0.083,-0.092,0.337,0.296
-0.292,-0.375,0.104,0.109
-0.295,-0.383,0.024,0.028
-0.067,-0.130,0.261,0.250
0.136,0.015,0.366,0.365
0.262,0.308,0.647,0.562
0.365,0.306,0.750,0.745
0.404,0.286,0.720,0.761
0.010,-0.089,0.416,0.362
-0.217,-0.257,0.158,0.138
-0.009,-0.113,0.315,0.291
0.295,0.085,0.612,0.467
0.227,0.116,0.618,0.527
0.064,-0.069,0.454,0.374
-0.276,-0.237,0.187,0.120
-0.149,-0.213,0.267,0.112
-0.319,-0.398,0.012,-0.092
-0.740,-0.760,-0.436,-0.417
-0.409,-0.558,-0.105,-0.140
-0.683,-0.763,-0.298,-0.313
-0.826,-0.927,-0.450,-0.424
-0.960,-1.029,-0.537,-0.584
-1.132,-1.114,-0.708,-0.668
-1.165,-1.201,-0.774,-0.793
-1.253,-1.304,-0.878,-0.963
-0.818,-0.797,-0.460,-0.471
-0.854,-0.932,-0.469,-0.467
-1.140,-1.154,-0.718,-0.778
-0.840,-0.948,-0.574,-0.627
-0.609,-0.572,-0.191,-0.188
-0.811,-0.918,-0.440,-0.489
-1.213,-1.226,-0.756,-0.852
-1.292,-1.479,-0.930,-1.030
-1.032,-1.137,-0.694,-0.732
-1.180,-1.235,-0.769,-0.840
-1.090,-1.098,-0.701,-0.737
-1.182,-1.292,-0.819,-0.771
-0.632,-0.780,-0.372,-0.352
-0.993,-1.127,-0.666,-0.723
-0.749,-0.848,-0.430,-0.530
-0.328,-0.396,0.040,-0.021
-0.406,-0.498,-0.006,-0.109
-0.728,-0.860,-0.436,-0.490
-0.640,-0.707,-0.261,-0.392
-0.752,-0.846,-0.330,-0.474
-0.231,-0.353,0.098,0.026
-0.061,0.020,0.419,0.305
0.080,0.019,0.455,0.414
0.074,0.042,0.389,0.381
-0.373,-0.504,-0.029,-0.011
-0.151,-0.321,0.254,0.164
-0.317,-0.355,0.044,-0.001
-0.511,-0.534,-0.174,-0.198
-0.693,-0.843,-0.379,-0.373
-0.495,-0.691,-0.241,-0.232
-0.381,-0.485,-0.016,-0.055
0.359,0.239,0.807,0.640
0.148,0.044,0.591,0.400
0.093,0.000,0.448,0.367
-0.102,-0.205,0.259,0.213
-0.674,-0.739,-0.356,-0.364
-0.417,-0.650,-0.199,-0.189
-0.192,-0.256,0.231,0.213
-0.249,-0.310,0.207,0.150
-0.201,-0.210,0.168,0.154
-0.152,-0.329,0.140,0.142
-0.242,-0.326,0.093,0.059
-0.397,-0.498,-0.034,-0.124
-0.406,-0.528,-0.103,-0.225
-0.576,-0.565,-0.229,-0.289
-0.623,-0.697,-0.250,-0.272
-0.734,-0.661,-0.349,-0.339
-0.505,-0.601,-0.121,-0.152
-0.507,-0.578,-0.166,-0.147
-0.259,-0.338,0.129,0.080
-0.288,-0.375,0.134,0.111
-0.351,-0.370,0.202,0.104
-0.622,-0.720,-0.301,-0.381
-0.129,-0.142,0.268,0.157
-0.301,-0.475,0.002,-0.013
-0.479,-0.550,-0.167,-0.163
-0.370,-0.490,0.004,-0.052
-0.070,-0.197,0.344,0.191
-0.077,-0.153,0.270,0.238
0.085,0.023,0.413,0.408
0.216,0.123,0.494,0.528
0.128,-0.034,0.417,0.361
0.204,0.002,0.512,0.500
0.564,0.529,0.874,0.889
0.566,0.490,0.906,0.875
0.253,0.158,0.560,0.530
-0.082,-0.283,0.087,0.156
-0.296,-0.444,0.035,0.012
-0.495,-0.521,-0.028,-0.115
-0.365,-0.508,0.016,0.019
-0.115,-0.197,0.259,0.225
-0.402,-0.426,-0.013,-0.051
-0.484,-0.645,-0.155,-0.216
-0.439,-0.528,-0.131,-0.144
-0.269,-0.368,-0.015,0.006
-0.476,-0.612,-0.138,-0.200
-0.337,-0.387,0.081,0.008
-0.198,-0.383,0.101,0.129
-0.139,-0.395,0.076,0.014
-0.475,-0.522,-0.130,-0.172
-0.699,-0.873,-0.412,-0.405
-0.489,-0.569,-0.140,-0.137
-0.574,-0.621,-0.171,-0.221
-0.375,-0.527,-0.120,-0.164
0.149,-0.017,0.401,0.350
0.117,-0.046,0.474,0.394
-0.505,-0.638,-0.220,-0.233
-0.390,-0.508,-0.042,-0.085
-0.603,-0.685,-0.241,-0.274
-0.378,-0.484,-0.022,-0.084
-0.398,-0.503,-0.021,-0.099
-0.559,-0.850,-0.289,-0.396
-0.537,-0.670,-0.223,-0.303
-0.647,-0.648,-0.197,-0.350
-0.545,-0.590,-0.113,-0.127
-0.477,-0.532,-0.073,-0.161
0.043,-0.037,0.371,0.367
0.339,0.181,0.615,0.574
0.320,0.223,0.635,0.597
0.068,0.059,0.442,0.435
0.069,0.078,0.490,0.456
0.201,0.028,0.464,0.428
0.287,0.063,0.572,0.480
0.191,0.022,0.567,0.453
0.039,-0.126,0.308,0.357
0.291,0.143,0.505,0.571
0.123,0.071,0.494,0.410
0.293,0.191,0.670,0.630
0.259,0.147,0.696,0.640
0.526,0.416,0.884,0.813
0.307,0.304,0.741,0.703
0.307,0.308,0.744,0.676
0.201,0.127,0.584,0.520
0.315,0.186,0.669,0.641
0.164,-0.004,0.466,0.454
-0.198,-0.344,0.104,0.072
-0.381,-0.508,-0.003,0.009
-0.435,-0.553,-0.121,-0.184
-0.790,-0.882,-0.381,-0.404
-0.720,-0.855,-0.391,-0.395
-0.753,-0.845,-0.367,-0.443
-0.795,-0.850,-0.423,-0.506
-0.524,-0.748,-0.245,-0.289
-0.592,-0.695,-0.316,-0.313
-0.291,-0.338,0.068,0.069
-0.108,-0.137,0.219,0.206
-0.270,-0.340,0.144,0.121
-0.689,-0.792,-0.266,-0.375
-0.747,-0.845,-0.467,-0.491
-0.762,-0.956,-0.473,-0.463
-0.915,-1.009,-0.447,-0.546
-1.102,-1.163,-0.719,-0.699
-0.761,-0.780,-0.433,-0.431
-0.560,-0.698,-0.253,-0.288
-0.683,-0.798,-0.381,-0.395
-0.831,-0.938,-0.428,-0.477
-0.537,-0.637,-0.121,-0.139
-0.115,-0.256,0.113,0.125
-0.384,-0.551,-0.061,-0.137
-0.585,-0.687,-0.224,-0.335
-0.483,-0.590,-0.012,-0.179
-0.480,-0.559,-0.087,-0.121
-0.305,-0.334,0.092,0.025
-0.678,-0.629,-0.251,-0.292
-0.355,-0.388,-0.055,-0.051
-0.445,-0.392,-0.012,0.035
-0.540,-0.479,-0.031,-0.149
0.055,-0.141,0.329,0.380
0.558,0.517,0.986,0.953
0.811,0.649,1.146,1.113
0.716,0.489,1.070,1.028
0.972,0.965,1.407,1.268
0.860,0.755,1.206,1.126
0.737,0.656,1.074,1.057
0.585,0.487,0.971,0.940
0.350,0.348,0.806,0.636
0.315,0.249,0.765,0.660
0.116,-0.015,0.444,0.368
-0.113,-0.142,0.321,0.226
-0.221,-0.305,0.130,0.175
-0.124,-0.283,0.186,0.163
-0.174,-0.276,0.190,0.163
-0.675,-0.684,-0.278,-0.346
-0.880,-1.032,-0.460,-0.582
-1.234,-1.301,-0.976,-0.916
-1.321,-1.368,-0.974,-1.020
-1.180,-1.143,-0.818,-0.817
-1.132,-1.324,-0.818,-0.902
-0.808,-0.766,-0.373,-0.453
-0.792,-0.866,-0.367,-0.473
-0.682,-0.805,-0.379,-0.378
-0.997,-1.063,-0.588,-0.654
-1.331,-1.401,-0.954,-1.005
-1.597,-1.725,-1.268,-1.361
-1.778,-1.793,-1.344,-1.435
-1.438,-1.628,-1.143,-1.219
-1.427,-1.437,-0.993,-0.949
-0.904,-0.910,-0.497,-0.533
-0.803,-0.888,-0.498,-0.479
-0.078,-0.063,0.386,0.256
0.003,-0.066,0.362,0.257
0.176,0.202,0.603,0.567
-0.099,-0.154,0.417,0.251
0.033,-0.032,0.392,0.431
0.112,-0.111,0.322,0.279
-0.075,-0.178,0.246,0.218
-0.055,-0.222,0.284,0.221
-0.297,-0.459,-0.008,-0.058
-0.322,-0.247,0.093,0.021
-0.306,-0.335,0.101,0.051
0.021,-0.047,0.368,0.271
0.037,-0.089,0.339,0.266
0.307,0.216,0.562,0.659
0.678,0.594,1.091,0.950
0.037,-0.029,0.398,0.344
-0.079,-0.104,0.305,0.232
-0.054,-0.144,0.264,0.201
-0.369,-0.507,0.000,-0.145
-0.440,-0.570,-0.106,-0.115
0.041,-0.012,0.444,0.465
-0.124,-0.377,0.124,0.160
-0.464,-0.581,-0.192,-0.142
-0.611,-0.640,-0.227,-0.230
-0.680,-0.823,-0.370,-0.414
-0.509,-0.660,-0.307,-0.225
0.114,0.069,0.546,0.441
-0.085,-0.243,0.280,0.283
-0.255,-0.404,0.096,0.055
-0.424,-0.539,-0.066,-0.147
-0.374,-0.384,0.078,0.055
0.054,-0.045,0.385,0.360
0.080,-0.070,0.410,0.332
0.081,-0.015,0.411,0.453
0.119,0.026,0.549,0.522
0.040,-0.116,0.371,0.344
-0.065,-0.162,0.303,0.259
-0.482,-0.525,-0.089,-0.149
-0.418,-0.484,0.035,-0.054
-0.552,-0.608,-0.141,-0.182
-0.391,-0.484,-0.026,-0.046
-0.074,-0.248,0.259,0.217
-0.577,-0.682,-0.192,-0.223
-0.528,-0.602,-0.175,-0.160
-0.761,-0.952,-0.457,-0.523
-0.707,-0.833,-0.385,-0.465
-0.682,-0.871,-0.339,-0.389
-0.342,-0.409,0.073,-0.000
-0.664,-0.723,-0.378,-0.323
-0.854,-0.986,-0.531,-0.555
-0.893,-0.861,-0.569,-0.531
-0.322,-0.400,-0.085,-0.181
-0.293,-0.442,0.066,-0.065
-0.024,-0.024,0.317,0.211
-0.085,-0.038,0.327,0.250
-0.286,-0.388,0.105,0.002
-0.542,-0.687,-0.185,-0.255
-0.343,-0.428,-0.017,-0.068
-0.062,-0.180,0.342,0.302
0.115,-0.046,0.433,0.373
0.248,0.092,0.621,0.585
0.316,0.229,0.723,0.688
0.519,0.389,0.832,0.795
0.145,0.124,0.633,0.551
0.012,-0.051,0.500,0.440
-0.000,-0.134,0.316,0.321
0.009,-0.095,0.357,0.319
-0.188,-0.328,0.062,0.023
-0.506,-0.455,-0.127,-0.104
-0.363,-0.378,-0.025,-0.053
-0.682,-0.700,-0.274,-0.296
-0.919,-1.052,-0.527,-0.568
-0.624,-0.761,-0.278,-0.356
-1.004,-1.097,-0.617,-0.683
-0.711,-0.946,-0.449,-0.503
-0.441,-0.523,-0.086,-0.192
-0.536,-0.572,-0.159,-0.289
-0.538,-0.626,-0.217,-0.228
-0.691,-0.833,-0.397,-0.394
-0.592,-0.679,-0.282,-0.310
-0.561,-0.632,-0.114,-0.182
-0.061,-0.174,0.235,0.154
0.079,0.031,0.482,0.454
-0.310,-0.276,0.041,0.067
-0.053,-0.091,0.352,0.245
0.146,0.066,0.455,0.419
0.265,0.131,0.508,0.504
0.279,0.100,0.645,0.581
0.181,0.057,0.543,0.455
-0.114,-0.248,0.142,0.046
-0.134,-0.203,0.161,0.167
-0.207,-0.114,0.260,0.221
0.045,0.039,0.408,0.333
-0.103,-0.150,0.265,0.150
-0.908,-0.852,-0.401,-0.483
-0.678,-0.757,-0.272,-0.399
-0.450,-0.566,-0.159,-0.146
-0.643,-0.733,-0.328,-0.283
0.244,0.116,0.509,0.478
0.305,0.283,0.708,0.593
0.058,0.093,0.442,0.397
-0.308,-0.357,0.105,0.034
-0.481,-0.503,-0.091,-0.157
-0.073,-0.145,0.303,0.263
0.131,0.038,0.489,0.349
-0.138,-0.251,0.240,0.135
-0.469,-0.518,-0.068,-0.148
-0.517,-0.633,-0.180,-0.182
-0.276,-0.357,0.041,-0.011
-0.820,-1.040,-0.587,-0.600
-0.576,-0.628,-0.209,-0.293
-0.327,-0.486,0.079,-0.029
-0.502,-0.693,-0.185,-0.284
-0.316,-0.385,0.093,0.055
-0.174,-0.187,0.163,0.106
-0.019,-0.133,0.220,0.294
-0.092,-0.128,0.268,0.259
-0.080,-0.135,0.301,0.202
-0.023,-0.213,0.299,0.284
0.119,0.053,0.424,0.384
-0.116,-0.202,0.230,0.192
-0.011,-0.154,0.337,0.208
0.005,0.132,0.461,0.437
0.346,0.266,0.701,0.655
0.758,0.682,1.071,1.038
0.596,0.513,0.889,0.881
0.785,0.594,1.057,1.080
0.703,0.652,1.198,1.085
0.551,0.622,0.909,0.965
0.685,0.555,0.966,0.923
0.631,0.535,0.965,0.989
0.494,0.407,0.958,0.859
0.141,-0.036,0.458,0.481
0.341,0.300,0.741,0.734
0.918,0.836,1.306,1.261
0.507,0.269,0.683,0.730
0.574,0.523,0.923,0.897
0.211,0.124,0.599,0.560
0.397,0.360,0.778,0.637
0.098,-0.069,0.414,0.370
-0.149,-0.264,0.206,0.190
-0.257,-0.310,0.118,0.090
-0.598,-0.707,-0.282,-0.350
-0.346,-0.475,-0.072,-0.096
-0.806,-0.819,-0.451,-0.483
-0.339,-0.311,0.103,-0.002
-0.146,-0.189,0.208,0.163
0.007,-0.006,0.312,0.262
-0.429,-0.494,-0.105,-0.059
-0.215,-0.249,0.220,0.133
0.180,0.197,0.621,0.538
0.065,0.055,0.363,0.335
0.524,0.487,0.830,0.796
0.547,0.569,0.988,0.832
0.660,0.594,1.027,0.988
0.753,0.726,1.075,1.057
0.367,0.400,0.829,0.727
0.333,0.212,0.662,0.713
0.157,0.147,0.493,0.484
0.455,0.392,0.821,0.837
0.157,0.133,0.545,0.517
-0.124,-0.245,0.174,0.160
-0.496,-0.550,-0.176,-0.064
-0.677,-0.674,-0.279,-0.331
-0.456,-0.543,-0.156,-0.116
-0.773,-0.819,-0.384,-0.415
-0.200,-0.280,0.205,0.188
-0.014,-0.144,0.386,0.273
0.370,0.276,0.760,0.731
0.830,0.881,1.249,1.162
0.747,0.744,1.215,1.163
0.765,0.739,1.210,1.174
0.628,0.546,0.979,0.970
0.482,0.421,0.874,0.848
0.377,0.343,0.794,0.694
0.089,0.025,0.469,0.406
0.336,0.202,0.680,0.729
0.250,0.195,0.709,0.617
-0.112,-0.297,0.213,0.208
0.434,0.262,0.744,0.704
0.322,0.271,0.683,0.623
-0.217,-0.215,0.129,0.133
-0.204,-0.267,0.226,0.235
0.250,0.179,0.613,0.552
0.098,-0.040,0.449,0.365
0.030,-0.092,0.374,0.349
-0.290,-0.495,0.042,0.004
-0.319,-0.399,0.044,-0.037
-0.350,-0.471,0.012,0.028
-0.306,-0.455,0.088,0.021
-0.366,-0.465,0.024,-0.012
-0.571,-0.564,-0.167,-0.226
-0.438,-0.488,-0.096,-0.061
-0.698,-0.682,-0.320,-0.315
-0.959,-1.192,-0.721,-0.802
-1.254,-1.345,-0.861,-0.955
-1.103,-1.221,-0.760,-0.840
-0.819,-0.870,-0.421,-0.448
-0.830,-0.936,-0.544,-0.526
-0.923,-0.875,-0.499,-0.535
-0.964,-0.991,-0.579,-0.669
-0.829,-1.088,-0.622,-0.584
-1.007,-0.921,-0.522,-0.609
-0.833,-0.885,-0.493,-0.527
-0.961,-1.007,-0.564,-0.670
-1.203,-1.117,-0.771,-0.870
-1.251,-1.324,-0.839,-0.929
-1.167,-1.238,-0.729,-0.828
-1.139,-1.275,-0.810,-0.878
-0.988,-1.018,-0.549,-0.636
-1.055,-1.264,-0.733,-0.787
-1.118,-1.232,-0.748,-0.788
-1.215,-1.276,-0.893,-0.885
-0.538,-0.637,-0.163,-0.222
-0.575,-0.628,-0.207,-0.200
-0.339,-0.303,0.072,0.000
0.237,0.319,0.597,0.607
0.451,0.306,0.837,0.713
0.683,0.569,0.955,0.939
0.574,0.449,0.929,0.945
0.792,0.731,1.123,1.097
0.950,0.848,1.327,1.332
0.598,0.556,0.976,0.928
0.212,0.197,0.600,0.586
0.144,0.063,0.476,0.445
0.165,0.092,0.552,0.446
-0.012,-0.061,0.469,0.380
0.104,0.014,0.419,0.431
0.097,-0.118,0.385,0.407
0.249,0.064,0.643,0.570
0.235,0.224,0.669,0.642
0.299,0.244,0.560,0.596
0.744,0.794,1.177,1.121
0.865,0.775,1.211,1.165
0.774,0.786,1.168,1.111
0.677,0.604,0.980,0.936
0.938,0.633,1.208,1.131
1.157,1.133,1.492,1.465
1.079,0.981,1.334,1.366
0.825,0.701,1.220,1.240
0.580,0.466,0.844,0.864
0.111,0.078,0.528,0.458
-0.002,-0.063,0.398,0.327
-0.098,-0.133,0.267,0.249
-0.119,-0.101,0.228,0.239
-0.326,-0.419,-0.034,-0.054
-0.425,-0.401,0.040,-0.070
-0.098,-0.167,0.276,0.201
0.261,0.208,0.619,0.632
0.004,-0.165,0.270,0.188
-0.196,-0.258,0.151,0.145
-0.384,-0.408,0.062,0.009
0.026,-0.071,0.379,0.399
-0.045,-0.093,0.324,0.362
-0.146,-0.175,0.274,0.156
-0.139,-0.221,0.248,0.217
-0.116,-0.182,0.261,0.179
-0.258,-0.379,0.062,0.080
-0.255,-0.293,0.087,0.041
0.002,-0.148,0.361,0.318
-0.188,-0.174,0.213,0.278
-0.357,-0.240,0.113,0.085
-0.459,-0.515,-0.092,-0.188
-0.624,-0.807,-0.249,-0.324
-0.150,-0.316,0.189,0.131
-0.085,-0.231,0.268,0.202
-0.589,-0.720,-0.283,-0.311
-0.281,-0.533,-0.065,-0.039
-0.756,-0.789,-0.461,-0.473
-0.834,-0.826,-0.523,-0.461
-0.706,-0.789,-0.365,-0.407
-0.848,-1.029,-0.542,-0.594
-0.923,-1.046,-0.542,-0.540
-0.723,-0.842,-0.371,-0.411
-0.926,-1.115,-0.529,-0.638
-1.022,-1.095,-0.706,-0.695
-0.813,-0.878,-0.441,-0.512
-0.708,-0.878,-0.400,-0.496
-0.741,-0.870,-0.397,-0.449
-0.770,-0.987,-0.452,-0.505
-0.550,-0.631,-0.218,-0.265
0.017,-0.233,0.342,0.212
-0.080,-0.250,0.167,0.165
-0.413,-0.528,-0.102,-0.147
-0.510,-0.620,-0.089,-0.146
-0.449,-0.520,-0.052,-0.155
-0.186,-0.291,0.215,0.146
-0.575,-0.639,-0.264,-0.225
-0.535,-0.595,-0.183,-0.158
-0.677,-0.711,-0.280,-0.321
-0.865,-0.794,-0.379,-0.434
-0.769,-0.768,-0.306,-0.443
-0.882,-1.017,-0.569,-0.668
-0.591,-0.693,-0.162,-0.274
-0.491,-0.577,-0.246,-0.219
-0.523,-0.482,-0.163,-0.105
-0.596,-0.703,-0.256,-0.349
-0.667,-0.722,-0.264,-0.350
-0.443,-0.497,-0.047,-0.137
-0.776,-0.774,-0.364,-0.395
-0.296,-0.401,-0.037,-0.037
0.030,-0.046,0.406,0.320
-0.239,-0.272,0.150,0.104
-0.101,-0.227,0.181,0.190
-0.313,-0.374,-0.002,-0.040
0.152,0.081,0.420,0.392
0.081,-0.161,0.273,0.250
-0.366,-0.543,-0.059,0.002
-0.145,-0.335,0.159,0.189
-0.245,-0.435,0.057,0.014
0.275,0.137,0.593,0.624
0.071,-0.008,0.478,0.434
-0.145,-0.334,0.102,0.064
0.281,0.256,0.617,0.571
0.377,0.392,0.747,0.755
0.241,0.126,0.566,0.595
0.506,0.302,0.766,0.776
0.727,0.655,1.038,0.941
0.302,0.287,0.681,0.644
0.720,0.766,1.034,1.070
0.495,0.311,0.749,0.729
0.258,0.033,0.620,0.587
-0.084,-0.211,0.297,0.201
-0.182,-0.327,0.074,0.059
-0.384,-0.496,-0.036,-0.101
-0.184,-0.268,0.279,0.166
-0.041,-0.154,0.316,0.262
-0.246,-0.219,0.168,0.130
-0.187,-0.350,0.039,-0.027
-0.063,-0.048,0.375,0.256
-0.260,-0.329,0.221,0.082
-0.160,-0.429,0.148,0.044
-0.416,-0.482,-0.104,-0.090
-0.406,-0.595,-0.046,-0.166
-0.082,-0.162,0.367,0.285
-0.509,-0.622,-0.100,-0.240
-0.153,-0.206,0.251,0.191
-0.206,-0.237,0.171,0.194
-0.091,-0.113,0.267,0.237
-0.038,-0.146,0.386,0.299
0.118,0.002,0.499,0.458
0.192,0.120,0.515,0.526
0.238,0.033,0.564,0.526
0.444,0.267,0.684,0.643
0.445,0.376,0.781,0.745
0.404,0.389,0.765,0.733
0.291,0.271,0.630,0.665
-0.084,-0.201,0.369,0.249
-0.148,-0.235,0.196,0.147
-0.544,-0.583,-0.139,-0.200
-0.731,-0.800,-0.354,-0.375
-0.945,-1.088,-0.526,-0.608
-1.045,-1.173,-0.776,-0.783
-1.316,-1.502,-0.997,-1.085
-1.583,-1.720,-1.258,-1.284
-1.994,-2.030,-1.591,-1.617
-1.840,-1.875,-1.468,-1.542
-1.796,-1.819,-1.352,-1.349
-1.616,-1.589,-1.249,-1.268
-2.073,-2.133,-1.784,-1.754
-1.832,-1.946,-1.546,-1.514
-1.629,-1.730,-1.317,-1.384
-1.209,-1.154,-0.774,-0.840
-0.786,-0.938,-0.440,-0.489
-0.840,-0.953,-0.502,-0.557
-0.820,-0.939,-0.552,-0.531
-0.591,-0.644,-0.197,-0.265
-0.763,-0.744,-0.299,-0.303
-0.898,-0.999,-0.498,-0.621
-0.671,-0.651,-0.224,-0.324
-0.932,-0.980,-0.492,-0.597
-0.721,-0.803,-0.361,-0.386
-0.412,-0.470,-0.056,-0.022
-0.521,-0.555,-0.172,-0.137
-0.808,-1.035,-0.521,-0.501
-0.731,-0.884,-0.324,-0.446
-0.984,-0.990,-0.551,-0.605
-1.048,-1.137,-0.648,-0.747
-0.835,-0.902,-0.417,-0.488
-1.111,-1.170,-0.786,-0.835
-0.751,-0.854,-0.416,-0.481
-0.807,-0.814,-0.407,-0.491
-0.671,-0.854,-0.381,-0.378
-0.416,-0.542,-0.120,-0.119
-0.549,-0.608,-0.143,-0.181
-0.685,-0.669,-0.253,-0.308
-0.866,-1.043,-0.680,-0.642
-1.098,-1.107,-0.719,-0.688
-1.052,-0.957,-0.633,-0.696
-0.717,-0.868,-0.358,-0.419
-1.069,-1.247,-0.780,-0.775
-0.895,-0.889,-0.464,-0.542
-1.310,-1.355,-0.900,-1.010
-0.853,-0.939,-0.420,-0.544
-0.796,-0.923,-0.488,-0.519
-0.961,-1.044,-0.562,-0.649
-0.944,-1.168,-0.653,-0.774
-1.100,-1.205,-0.762,-0.885
-0.764,-0.970,-0.455,-0.484
-0.647,-0.799,-0.337,-0.364
-0.727,-0.726,-0.332,-0.427
-0.915,-1.005,-0.592,-0.572
-0.856,-0.921,-0.504,-0.547
-1.325,-1.401,-0.946,-1.014
-1.077,-1.103,-0.732,-0.773
-0.986,-1.030,-0.562,-0.739
-1.020,-1.105,-0.622,-0.662
-0.918,-0.995,-0.700,-0.552
-0.347,-0.443,0.016,-0.037
-0.395,-0.484,-0.072,-0.093
-0.522,-0.701,-0.185,-0.260
-0.219,-0.206,0.135,0.122
-0.304,-0.418,0.100,0.009
-0.614,-0.837,-0.297,-0.349
-0.766,-0.840,-0.414,-0.458
-0.683,-0.715,-0.358,-0.294
-0.919,-0.976,-0.549,-0.509
-0.810,-0.995,-0.485,-0.512
-0.798,-0.741,-0.422,-0.456
-0.246,-0.385,-0.014,0.028
-0.266,-0.315,0.073,0.011
-0.196,-0.302,0.095,0.127
-0.370,-0.468,-0.021,-0.116
0.064,-0.000,0.443,0.364
-0.471,-0.557,-0.146,-0.171
-0.496,-0.545,-0.131,-0.097
-0.416,-0.364,0.050,0.011
0.027,-0.126,0.369,0.326
0.525,0.407,0.826,0.791
0.614,0.503,0.959,0.916
1.042,0.962,1.401,1.419
1.246,1.185,1.655,1.598
1.368,1.236,1.746,1.707
1.299,1.287,1.665,1.659
0.974,0.926,1.371,1.357
0.492,0.393,0.827,0.716
0.394,0.292,0.780,0.725
0.262,0.266,0.693,0.701
0.339,0.258,0.680,0.685
0.329,0.196,0.698,0.651
0.226,0.114,0.662,0.563
0.758,0.506,1.085,1.002
0.401,0.340,0.804,0.713
0.438,0.375,0.775,0.755
0.331,0.206,0.618,0.745
-0.005,-0.128,0.309,0.367
0.349,0.306,0.727,0.723
0.300,0.167,0.616,0.662
0.502,0.275,0.845,0.836
0.106,0.018,0.478,0.423
0.204,0.149,0.476,0.462
-0.111,-0.281,0.252,0.142
-0.096,-0.189,0.348,0.319
-0.281,-0.394,0.020,0.083
-0.052,-0.146,0.305,0.245
-0.312,-0.355,0.039,-0.025
-0.335,-0.436,0.029,-0.070
-0.131,-0.335,0.245,0.090
0.124,-0.024,0.468,0.339
-0.012,-0.188,0.246,0.193
0.024,-0.032,0.400,0.247
0.031,-0.035,0.367,0.331
0.196,0.142,0.533,0.490
0.307,0.171,0.543,0.525
0.271,0.217,0.607,0.592
0.040,-0.049,0.403,0.393
0.014,-0.095,0.348,0.257
-0.290,-0.406,0.070,0.041
-0.774,-0.977,-0.468,-0.483
-0.431,-0.527,-0.119,-0.171
-1.017,-1.083,-0.669,-0.683
-0.496,-0.660,-0.197,-0.245
-0.748,-0.833,-0.385,-0.438
-1.127,-1.219,-0.786,-0.768
-1.219,-1.346,-0.882,-0.905
-1.218,-1.233,-0.823,-0.889
-1.244,-1.372,-0.929,-1.000
-0.986,-1.089,-0.651,-0.708
-1.087,-1.179,-0.711,-0.821
-0.681,-0.691,-0.350,-0.385
-0.790,-0.914,-0.487,-0.494
-0.943,-1.138,-0.625,-0.659
-1.019,-1.041,-0.566,-0.668
-1.096,-1.149,-0.710,-0.822
-0.862,-0.873,-0.461,-0.472
-1.048,-1.095,-0.612,-0.707
-0.905,-1.120,-0.556,-0.697
-1.002,-1.081,-0.682,-0.745
-0.636,-0.734,-0.356,-0.318
-0.582,-0.723,-0.258,-0.297
-0.877,-0.980,-0.496,-0.610
-1.276,-1.397,-0.900,-0.994
-1.094,-1.179,-0.780,-0.874
-0.598,-0.565,-0.276,-0.324
-0.535,-0.537,-0.185,-0.237
-0.583,-0.735,-0.250,-0.311
-0.389,-0.578,-0.091,-0.090
-0.141,-0.223,0.251,0.227
-0.104,-0.166,0.337,0.210
0.442,0.420,0.745,0.768
0.132,0.111,0.492,0.466
0.311,0.282,0.623,0.612
0.149,0.035,0.463,0.411
-0.137,-0.157,0.264,0.276
0.384,0.303,0.780,0.732
0.702,0.723,1.118,1.108
0.678,0.558,1.004,0.989
0.786,0.639,1.107,1.126
0.734,0.714,1.150,1.125
0.864,0.839,1.309,1.214
0.743,0.636,1.158,1.023
0.518,0.511,0.860,0.905
0.346,0.324,0.783,0.665
-0.159,-0.356,0.107,0.055
-0.045,-0.199,0.325,0.211
-0.413,-0.579,-0.085,-0.158
-0.445,-0.469,-0.102,-0.147
0.087,0.060,0.523,0.368
0.539,0.366,0.885,0.762
0.208,0.023,0.574,0.386
0.222,0.129,0.551,0.527
-0.388,-0.493,0.010,-0.098
-0.174,-0.181,0.267,0.189
0.065,-0.062,0.367,0.360
0.083,0.026,0.382,0.392
0.015,-0.051,0.418,0.345
0.153,0.126,0.569,0.491
0.612,0.551,1.009,0.973
0.556,0.500,0.985,0.870
0.453,0.398,0.868,0.859
0.680,0.441,0.910,0.773
0.196,0.011,0.342,0.326
0.271,0.040,0.525,0.451
0.188,0.156,0.560,0.443
-0.070,-0.161,0.242,0.187
-0.136,-0.221,0.245,0.196
0.312,0.242,0.721,0.699
0.014,-0.154,0.322,0.334
-0.430,-0.485,-0.098,-0.031
-0.272,-0.396,0.087,0.020
-0.302,-0.324,0.087,0.112
-0.554,-0.615,-0.164,-0.163
-0.552,-0.683,-0.233,-0.302
-0.966,-1.025,-0.527,-0.603
-0.972,-1.091,-0.626,-0.634
-0.782,-0.849,-0.412,-0.544
-0.469,-0.478,-0.080,-0.117
-0.084,-0.204,0.216,0.184
0.269,0.151,0.592,0.549
0.269,0.189,0.620,0.557
0.282,0.274,0.595,0.512
0.345,0.201,0.693,0.640
0.236,0.209,0.607,0.633
0.125,0.082,0.524,0.511
-0.094,-0.238,0.240,0.231
0.014,-0.094,0.325,0.291
-0.151,-0.235,0.245,0.242
-0.085,-0.237,0.215,0.175
0.167,0.159,0.534,0.500
0.301,0.160,0.652,0.611
-0.048,-0.192,0.281,0.268
-0.045,-0.131,0.364,0.344
0.273,0.166,0.651,0.600
0.320,0.219,0.720,0.582
-0.008,0.047,0.485,0.396
0.123,0.210,0.584,0.470
0.383,0.343,0.734,0.707
0.331,0.343,0.746,0.771
0.237,0.133,0.590,0.544
0.048,-0.008,0.485,0.433
0.233,0.230,0.680,0.655
0.239,0.115,0.622,0.567
-0.264,-0.376,0.158,0.051
-0.135,-0.162,0.414,0.338
0.093,0.030,0.461,0.503
0.125,0.086,0.485,0.491
-0.093,-0.153,0.280,0.164
-0.110,-0.250,0.281,0.290
0.008,-0.216,0.313,0.304
0.287,0.204,0.709,0.665
-0.020,-0.133,0.404,0.359
-0.057,-0.072,0.245,0.244
-0.022,-0.146,0.342,0.290
0.219,0.104,0.512,0.511
0.530,0.441,0.919,0.914
0.544,0.466,0.911,0.893
0.566,0.436,0.919,0.835
0.529,0.430,0.936,0.840
0.180,0.181,0.601,0.593
0.269,0.122,0.662,0.639
0.274,0.268,0.750,0.673
-0.105,-0.144,0.258,0.202
0.380,0.243,0.668,0.621
0.137,0.089,0.529,0.487
0.397,0.278,0.769,0.753
-0.182,-0.253,0.183,0.089
-0.135,-0.225,0.203,0.247
-0.307,-0.411,0.036,0.013
-0.115,-0.220,0.224,0.197
0.205,0.234,0.679,0.563
0.577,0.477,0.908,0.877
0.790,0.832,1.183,1.162
0.547,0.555,0.943,0.932
0.691,0.525,0.973,0.992
0.145,0.054,0.552,0.475
0.249,-0.012,0.561,0.491
0.243,0.136,0.597,0.645
0.213,0.091,0.548,0.512
-0.199,-0.359,0.134,0.035
-0.215,-0.297,0.127,0.114
-0.236,-0.352,0.153,0.157
-0.681,-0.802,-0.387,-0.448
-0.908,-1.010,-0.539,-0.573
-0.753,-0.716,-0.334,-0.316
-0.474,-0.453,-0.112,-0.105
-0.417,-0.571,0.039,-0.144
-0.417,-0.456,-0.069,-0.125
-0.524,-0.615,-0.112,-0.165
-0.482,-0.605,-0.218,-0.178
-0.240,-0.302,-0.019,0.048
-0.129,-0.291,0.160,0.114
-0.213,-0.267,0.185,0.127
0.065,0.086,0.456,0.411
-0.194,-0.307,0.142,0.096
-0.121,-0.120,0.246,0.200
-0.305,-0.423,0.056,0.021
-0.266,-0.401,0.078,0.039
-0.165,-0.317,0.168,0.073
-0.154,-0.214,0.214,0.181
-0.469,-0.602,-0.114,-0.174
-0.445,-0.552,-0.089,-0.151
-0.603,-0.682,-0.171,-0.297
-0.227,-0.414,0.064,-0.027
-0.474,-0.513,0.004,-0.075
-0.302,-0.491,0.023,-0.098
-0.342,-0.469,0.026,-0.052
-0.625,-0.687,-0.229,-0.297
-0.125,-0.108,0.336,0.284
0.079,-0.067,0.421,0.416
-0.105,-0.237,0.150,0.138
-0.662,-0.694,-0.293,-0.308
-0.139,-0.315,0.167,0.194
-0.130,-0.238,0.179,0.131
-0.015,-0.039,0.348,0.310
-0.361,-0.359,0.122,0.138
0.029,-0.078,0.431,0.302
0.029,-0.131,0.322,0.199
-0.055,0.004,0.342,0.285
0.252,0.129,0.612,0.545
0.325,0.275,0.705,0.643
0.184,0.019,0.469,0.487
-0.074,-0.128,0.249,0.389
-0.188,-0.317,0.163,0.154
0.069,-0.024,0.444,0.384
-0.003,0.016,0.354,0.357
0.218,0.263,0.644,0.555
0.095,0.084,0.570,0.515
-0.245,-0.348,0.154,0.100
0.238,0.104,0.540,0.466
0.330,0.088,0.641,0.504
0.291,0.045,0.630,0.493
0.142,0.087,0.496,0.414
0.060,-0.050,0.436,0.346
0.055,0.059,0.471,0.473
0.028,0.072,0.503,0.416
0.135,-0.024,0.379,0.408
-0.226,-0.183,0.193,0.172
0.349,0.145,0.599,0.656
-0.017,-0.063,0.344,0.319
0.579,0.377,0.774,0.798
0.836,0.819,1.173,1.184
0.633,0.442,0.867,0.802
0.541,0.386,0.913,0.889
0.633,0.539,0.964,0.902
0.719,0.613,1.159,1.090
0.965,0.805,1.351,1.298
0.782,0.691,1.152,1.203
0.940,0.888,1.311,1.311
0.898,0.743,1.209,1.216
0.537,0.462,0.813,0.782
0.528,0.518,0.908,0.850
0.540,0.504,0.891,0.943
0.081,-0.014,0.352,0.378
-0.380,-0.442,-0.005,-0.010
-0.301,-0.480,-0.012,0.009
-0.034,-0.076,0.393,0.388
-0.433,-0.505,-0.069,-0.167
-0.612,-0.652,-0.194,-0.242
-0.720,-0.893,-0.452,-0.480
-0.679,-0.786,-0.242,-0.346
-0.595,-0.743,-0.275,-0.294
-0.078,-0.243,0.176,0.169
-0.012,-0.135,0.361,0.317
-0.119,-0.280,0.221,0.190
-0.315,-0.414,0.078,-0.077
-0.307,-0.200,0.075,0.055
-0.185,-0.314,0.114,0.089
-0.585,-0.753,-0.209,-0.227
-0.521,-0.682,-0.185,-0.241
0.012,-0.121,0.282,0.296
-0.046,-0.040,0.303,0.269
0.149,0.064,0.546,0.477
0.396,0.261,0.709,0.724
0.876,0.823,1.255,1.201
0.781,0.809,1.260,1.297
0.236,0.240,0.575,0.570
0.154,0.031,0.563,0.406
-0.392,-0.437,-0.024,-0.078
-0.503,-0.518,-0.184,-0.103
-1.006,-1.086,-0.644,-0.708
-0.577,-0.693,-0.240,-0.332
-0.354,-0.401,0.005,-0.094
-0.168,-0.236,0.214,0.167
-0.577,-0.651,-0.277,-0.264
-0.844,-0.937,-0.520,-0.612
-0.925,-0.889,-0.515,-0.466
-0.432,-0.525,-0.161,-0.151
-0.138,-0.199,0.150,0.180
-0.108,-0.212,0.206,0.186
-0.548,-0.548,-0.068,-0.119
-0.868,-0.935,-0.498,-0.585
-0.916,-1.019,-0.573,-0.662
-0.329,-0.366,0.029,0.015
0.023,-0.125,0.355,0.274
-0.302,-0.324,0.070,0.087
-0.130,-0.279,0.163,0.115
-0.007,-0.036,0.366,0.386
-0.295,-0.319,0.170,0.104
-0.271,-0.476,0.039,-0.093
-0.033,-0.133,0.266,0.148
-0.022,-0.087,0.444,0.307
0.499,0.419,0.902,0.891
0.187,0.065,0.513,0.543
-0.076,-0.320,0.223,0.170
-0.122,-0.248,0.194,0.137
-0.015,-0.071,0.276,0.216
0.147,-0.024,0.444,0.442
-0.335,-0.444,-0.033,-0.072
-0.255,-0.328,0.172,0.048
-0.393,-0.560,-0.028,-0.097
-0.302,-0.300,0.106,0.094
-0.602,-0.713,-0.223,-0.321
-0.761,-0.810,-0.342,-0.387
-0.517,-0.591,-0.179,-0.189
-0.100,-0.301,0.213,0.150
-0.040,-0.010,0.395,0.326
0.140,0.164,0.495,0.547
0.479,0.458,0.843,0.784
0.358,0.236,0.657,0.687
0.288,0.168,0.576,0.575
0.079,-0.088,0.421,0.307
-0.005,-0.139,0.283,0.305
-0.288,-0.374,0.046,0.092
0.032,-0.028,0.336,0.345
0.204,0.127,0.638,0.538
-0.130,-0.123,0.264,0.273
0.125,0.033,0.474,0.471
-0.186,-0.283,0.123,0.115
-0.088,-0.218,0.194,0.154
-0.228,-0.231,0.221,0.121
-0.616,-0.777,-0.241,-0.272
-0.384,-0.410,-0.009,-0.027
-0.523,-0.580,-0.240,-0.284
-0.745,-0.828,-0.434,-0.464
-0.648,-0.721,-0.203,-0.344
-0.467,-0.561,-0.070,-0.145
-0.531,-0.498,-0.217,-0.234
-0.545,-0.588,-0.189,-0.216
-0.686,-0.801,-0.410,-0.388
-1.002,-1.142,-0.755,-0.739
-0.655,-0.733,-0.257,-0.285
-0.732,-0.767,-0.431,-0.392
-0.694,-0.791,-0.366,-0.315
-0.982,-1.191,-0.677,-0.685
-0.738,-0.881,-0.485,-0.460
-0.638,-0.741,-0.330,-0.339
-0.570,-0.644,-0.182,-0.222
-0.415,-0.544,-0.070,-0.119
0.034,-0.118,0.312,0.265
-0.017,-0.098,0.351,0.294
-0.367,-0.328,0.030,-0.038
-0.590,-0.754,-0.245,-0.274
-0.499,-0.498,-0.175,-0.210
-0.408,-0.528,-0.033,-0.143
-0.298,-0.352,0.040,-0.062
-0.389,-0.516,-0.025,-0.115
-0.180,-0.438,0.116,0.082
-0.669,-0.690,-0.338,-0.294
-0.143,-0.337,0.104,0.104
-0.200,-0.243,0.135,0.137
-0.151,-0.246,0.159,0.130
-0.015,-0.163,0.197,0.166
-0.097,-0.236,0.129,0.138
-0.230,-0.349,0.144,0.075
-0.518,-0.695,-0.132,-0.249
-1.060,-1.081,-0.697,-0.753
-1.043,-1.155,-0.726,-0.738
-1.104,-1.205,-0.708,-0.724
-0.405,-0.554,-0.100,-0.148
-0.749,-0.837,-0.427,-0.519
-0.862,-0.990,-0.563,-0.628
-0.904,-1.036,-0.619,-0.609
-0.428,-0.560,-0.126,-0.157
-0.603,-0.646,-0.147,-0.270
-0.473,-0.499,0.009,-0.111
-0.818,-0.827,-0.376,-0.389
-0.493,-0.492,-0.135,-0.131
-0.434,-0.505,-0.070,-0.118
-0.410,-0.498,-0.105,-0.177
-0.018,-0.127,0.280,0.269
-0.386,-0.458,-0.030,-0.042
-0.435,-0.493,-0.102,-0.062
-0.470,-0.514,-0.116,-0.172
-0.155,-0.316,0.161,0.074
-0.307,-0.325,0.070,-0.024
-0.004,-0.182,0.267,0.317
0.073,-0.040,0.406,0.378
-0.235,-0.312,0.149,0.116
0.122,0.076,0.479,0.447
-0.220,-0.245,0.131,0.108
0.048,-0.077,0.361,0.349
0.295,0.189,0.652,0.498
0.321,0.265,0.683,0.675
0.381,0.278,0.734,0.635
0.172,0.076,0.537,0.506
0.030,-0.009,0.322,0.376
0.151,-0.005,0.464,0.429
0.294,0.097,0.623,0.556
0.150,0.153,0.560,0.444
0.491,0.448,0.843,0.822
0.453,0.433,0.841,0.803
0.394,0.200,0.675,0.660
0.751,0.760,1.094,1.044
0.683,0.764,1.088,1.017
0.419,0.332,0.782,0.653
-0.006,-0.122,0.226,0.209
0.398,0.165,0.636,0.591
0.196,0.060,0.470,0.388
0.353,0.260,0.672,0.587
0.477,0.406,0.798,0.863
0.344,0.341,0.770,0.743
-0.219,-0.294,0.143,-0.015
-0.061,-0.236,0.266,0.162
0.032,-0.138,0.402,0.342
0.248,0.009,0.536,0.447
0.536,0.433,0.895,0.883
0.335,0.212,0.712,0.665
0.932,0.752,1.300,1.249
0.443,0.261,0.745,0.684
0.145,0.143,0.547,0.534
0.525,0.399,0.868,0.908
1.074,0.936,1.435,1.426
1.419,1.328,1.791,1.752
1.639,1.479,1.972,1.945
1.472,1.331,1.728,1.730
1.192,1.160,1.567,1.513
1.071,0.964,1.386,1.337
1.050,0.851,1.347,1.300
0.903,0.884,1.284,1.256
0.810,0.768,1.179,1.179
1.018,0.889,1.322,1.295
0.866,0.638,1.169,1.134
1.203,1.091,1.580,1.525
0.906,0.799,1.278,1.256
0.246,0.189,0.590,0.596
0.143,0.179,0.653,0.569
0.762,0.584,1.109,1.059
0.313,0.324,0.659,0.572
0.234,0.158,0.596,0.599
0.352,0.177,0.661,0.620
0.442,0.402,0.780,0.792
0.518,0.431,0.845,0.798
0.334,0.176,0.700,0.665
0.275,0.354,0.627,0.559
0.115,0.083,0.496,0.445
0.506,0.374,0.875,0.815
1.112,0.977,1.400,1.440
0.775,0.691,1.126,1.135
0.822,0.785,1.191,1.136
0.334,0.323,0.668,0.707
0.291,0.196,0.683,0.644
0.099,-0.034,0.392,0.429
-0.010,-0.248,0.292,0.195
0.026,-0.016,0.361,0.368
-0.008,-0.117,0.298,0.265
-0.837,-0.820,-0.453,-0.487
-1.040,-1.125,-0.743,-0.747
-0.628,-0.706,-0.306,-0.306
-0.653,-0.721,-0.320,-0.385
-0.789,-0.867,-0.384,-0.413
-0.745,-0.762,-0.380,-0.384
-0.703,-0.944,-0.466,-0.480
-0.384,-0.540,-0.072,-0.121
-0.305,-0.309,0.031,0.045
-0.222,-0.181,0.213,0.040
0.190,0.069,0.573,0.478
0.458,0.294,0.785,0.731
0.341,0.245,0.720,0.677
0.197,0.054,0.576,0.521
-0.198,-0.263,0.155,0.134
-0.310,-0.364,0.015,0.021
-0.209,-0.405,0.107,0.047
-0.279,-0.438,-0.002,-0.020
-0.362,-0.588,0.045,-0.098
0.048,-0.065,0.489,0.392
0.269,0.184,0.650,0.588
0.136,-0.059,0.408,0.361
0.104,-0.025,0.367,0.313
0.408,0.144,0.620,0.595
0.227,0.155,0.511,0.536
0.460,0.358,0.774,0.763
0.301,0.166,0.639,0.591
0.201,0.168,0.562,0.583
-0.205,-0.304,0.189,0.148
-0.226,-0.281,0.127,0.105
-0.430,-0.474,-0.063,-0.103
-0.336,-0.442,-0.030,-0.060
0.087,-0.014,0.458,0.323
0.050,0.007,0.448,0.411
-0.270,-0.363,0.102,0.056
-0.109,-0.143,0.313,0.297
0.337,0.196,0.761,0.629
0.388,0.471,0.940,0.896
0.496,0.439,0.922,0.733
0.707,0.551,1.044,1.057
0.569,0.389,0.815,0.787
0.449,0.343,0.815,0.737
0.659,0.583,1.027,0.985
0.402,0.346,0.725,0.648
0.783,0.702,1.124,1.074
-0.029,-0.006,0.462,0.355
0.082,-0.001,0.459,0.489
0.014,-0.017,0.380,0.379
-0.005,-0.140,0.263,0.151
0.035,-0.021,0.490,0.442
0.130,0.052,0.531,0.427
0.234,0.213,0.687,0.612
0.315,0.284,0.677,0.591
0.059,0.045,0.510,0.402
-0.011,-0.173,0.407,0.274
0.136,0.148,0.558,0.517
0.639,0.564,1.006,0.938
0.111,-0.024,0.388,0.357
0.084,-0.039,0.397,0.393
-0.539,-0.510,-0.144,-0.147
-0.579,-0.712,-0.320,-0.279
-0.622,-0.732,-0.191,-0.276
-0.477,-0.619,-0.150,-0.176
-0.417,-0.566,-0.125,-0.082
-0.219,-0.296,0.086,0.139
0.051,0.043,0.419,0.442
-0.153,-0.214,0.238,0.185
0.241,0.131,0.690,0.544
0.454,0.372,0.864,0.767
0.387,0.386,0.755,0.630
-0.218,-0.289,0.084,0.090
-0.214,-0.396,0.097,0.069
-0.104,-0.152,0.299,0.257
-0.370,-0.391,-0.010,-0.002
-0.550,-0.724,-0.154,-0.245
-0.637,-0.722,-0.253,-0.300
-0.074,-0.150,0.211,0.181
-0.203,-0.277,0.155,0.171
-0.181,-0.214,0.220,0.125
-0.528,-0.521,-0.104,-0.234
-0.725,-0.901,-0.463,-0.491
-0.643,-0.658,-0.307,-0.316
-0.431,-0.580,-0.138,-0.125
-0.606,-0.646,-0.234,-0.280
-0.572,-0.671,-0.221,-0.249
-0.600,-0.731,-0.297,-0.357
-0.699,-0.724,-0.239,-0.360
-0.535,-0.574,-0.131,-0.130
-0.391,-0.373,-0.015,-0.048
-0.198,-0.172,0.125,0.101
-0.426,-0.387,-0.067,-0.052
-0.283,-0.305,0.032,-0.027
-0.005,-0.079,0.336,0.327
-0.019,-0.064,0.351,0.335
0.368,0.433,0.845,0.789
0.007,-0.027,0.429,0.353
-0.187,-0.276,0.157,0.112
-0.362,-0.395,0.045,0.036
-0.418,-0.347,0.087,0.017
0.125,0.058,0.475,0.478
0.349,0.195,0.650,0.584
0.170,0.098,0.580,0.546
0.136,0.038,0.557,0.459
-0.411,-0.383,0.015,-0.037
-0.026,0.012,0.396,0.412
-0.060,-0.063,0.402,0.377
-0.048,-0.167,0.283,0.237
0.016,-0.077,0.339,0.274
-0.233,-0.318,0.071,0.013
-0.267,-0.317,0.084,0.108
-0.500,-0.529,-0.105,-0.185
-0.404,-0.434,-0.041,-0.042
-0.897,-0.985,-0.581,-0.650
-0.873,-0.866,-0.492,-0.530
-0.537,-0.652,-0.227,-0.300
-0.712,-0.793,-0.368,-0.404
-0.846,-0.916,-0.433,-0.448
-0.954,-1.102,-0.669,-0.740
-0.715,-0.799,-0.403,-0.419
-0.845,-0.936,-0.491,-0.549
-0.402,-0.442,-0.068,-0.121
-0.520,-0.678,-0.268,-0.239
-0.456,-0.636,-0.295,-0.305
-0.339,-0.453,-0.014,-0.048
-0.455,-0.500,-0.057,-0.100
-0.355,-0.397,0.004,-0.011
-0.470,-0.538,-0.094,-0.164
-0.802,-0.867,-0.396,-0.483
-0.555,-0.604,-0.199,-0.164
-0.295,-0.357,0.066,-0.009
-0.368,-0.590,-0.045,-0.103
-0.186,-0.426,0.024,-0.030
-0.095,-0.193,0.255,0.164
-0.636,-0.692,-0.211,-0.201
-0.442,-0.544,-0.010,-0.065
-0.526,-0.664,-0.228,-0.243
-0.528,-0.662,-0.195,-0.149
-0.309,-0.395,0.041,0.022
-0.720,-0.708,-0.268,-0.243
-1.124,-1.127,-0.667,-0.751
-1.003,-1.178,-0.631,-0.683
-0.906,-0.954,-0.530,-0.533
-0.977,-1.061,-0.626,-0.659
-0.189,-0.352,0.143,0.095
0.142,-0.039,0.453,0.393
0.280,0.212,0.650,0.611
-0.082,-0.041,0.369,0.335
0.275,0.220,0.620,0.623
-0.195,-0.210,0.183,0.122
0.050,-0.123,0.384,0.304
0.051,-0.024,0.532,0.482
-0.088,-0.157,0.215,0.257
-0.128,-0.203,0.278,0.267
-0.371,-0.389,0.057,0.067
-0.289,-0.364,0.135,0.115
-0.018,-0.012,0.351,0.364
0.305,0.292,0.631,0.707
0.136,0.101,0.508,0.431
0.020,-0.125,0.292,0.156
0.051,-0.028,0.373,0.328
0.394,0.240,0.613,0.644
0.069,-0.049,0.393,0.327
-0.129,-0.143,0.224,0.294
0.341,0.153,0.636,0.659
0.774,0.715,1.104,1.150
0.696,0.710,1.133,1.138
0.842,0.724,1.157,1.131
0.761,0.686,1.100,1.134
0.324,0.274,0.624,0.620
-0.041,-0.096,0.362,0.303
0.272,0.074,0.615,0.483
0.034,-0.104,0.351,0.368
-0.286,-0.249,0.182,0.158
-0.205,-0.336,0.229,0.187
0.079,-0.006,0.438,0.380
0.040,-0.082,0.326,0.243
-0.280,-0.281,0.166,0.145
-0.217,-0.171,0.178,0.176
-0.255,-0.333,0.062,0.033
-0.294,-0.373,0.075,-0.100
-0.439,-0.463,-0.078,-0.041
-0.408,-0.499,-0.082,-0.070
-0.655,-0.710,-0.189,-0.279
-0.472,-0.525,-0.051,-0.156
-0.354,-0.432,0.079,-0.020
-0.738,-0.836,-0.399,-0.429
-0.685,-0.810,-0.369,-0.405
-0.516,-0.567,-0.133,-0.227
-0.414,-0.528,0.046,0.027
-0.436,-0.378,0.016,0.055
-0.340,-0.307,0.047,0.056
-0.189,-0.282,0.161,0.151
-0.422,-0.397,-0.026,-0.095
-0.274,-0.347,0.078,0.049
-0.339,-0.396,0.013,0.013
-0.406,-0.559,-0.101,-0.183
-0.432,-0.581,-0.143,-0.153
-0.775,-0.701,-0.233,-0.281
-0.685,-0.703,-0.275,-0.360
-0.444,-0.532,0.018,-0.144
-0.225,-0.206,0.173,0.105
-0.666,-0.835,-0.289,-0.368
-0.707,-0.893,-0.442,-0.418
-0.666,-0.762,-0.323,-0.365
-0.950,-0.932,-0.527,-0.529
-0.882,-0.986,-0.503,-0.503
-0.961,-1.007,-0.550,-0.546
-1.167,-1.366,-0.882,-0.887
-0.791,-0.897,-0.431,-0.503
-0.195,-0.240,0.148,0.073
0.038,-0.106,0.337,0.351
-0.242,-0.297,0.074,0.090
-0.354,-0.349,-0.002,-0.038
-0.389,-0.416,0.012,-0.029
-0.714,-0.795,-0.416,-0.360
-0.678,-0.731,-0.242,-0.231
-0.075,-0.175,0.221,0.192
-0.205,-0.349,0.104,0.061
-0.280,-0.318,0.104,-0.040
-0.137,-0.267,0.250,0.164
-0.114,-0.104,0.289,0.307
0.414,0.312,0.763,0.711
0.182,0.099,0.561,0.553
0.197,0.115,0.608,0.579
0.156,0.121,0.548,0.492
0.026,-0.104,0.367,0.316
0.166,0.122,0.561,0.552
0.246,0.122,0.688,0.592
0.272,0.116,0.626,0.505
0.384,0.255,0.742,0.647
0.051,-0.096,0.319,0.227
0.586,0.441,0.884,0.842
0.396,0.342,0.777,0.705
0.683,0.548,0.964,0.951
0.322,0.189,0.651,0.618
-0.010,-0.148,0.360,0.278
0.210,0.167,0.602,0.573
0.271,0.106,0.599,0.555
-0.238,-0.263,0.202,0.084
0.338,0.198,0.731,0.620
0.227,0.176,0.556,0.595
0.064,-0.053,0.489,0.409
-0.047,-0.158,0.296,0.280
-0.273,-0.401,0.097,0.001
-0.136,-0.079,0.318,0.243
-0.110,-0.187,0.323,0.226
0.295,0.141,0.684,0.637
0.234,0.032,0.487,0.493
-0.155,-0.295,0.209,0.170
-0.218,-0.271,0.105,0.159
0.501,0.376,0.933,0.809
0.335,0.201,0.624,0.579
0.769,0.651,1.112,1.094
0.763,0.694,1.132,1.106
0.172,0.048,0.539,0.553
0.269,0.135,0.569,0.556
0.217,0.053,0.474,0.453
0.064,-0.062,0.346,0.378
-0.237,-0.417,0.069,-0.030
-0.065,-0.223,0.357,0.281
-0.133,-0.188,0.306,0.131
-0.289,-0.378,0.138,0.105
-0.737,-0.911,-0.493,-0.469
-0.921,-1.044,-0.641,-0.701
-1.310,-1.424,-0.990,-1.031
-1.430,-1.469,-1.030,-1.074
-1.130,-1.206,-0.766,-0.818
-1.460,-1.586,-1.115,-1.096
-1.611,-1.623,-1.243,-1.169
-1.582,-1.700,-1.322,-1.303
-1.294,-1.415,-1.030,-1.030
-1.082,-1.155,-0.739,-0.789
-0.394,-0.462,0.009,-0.131
-0.334,-0.331,0.071,0.043
-0.165,-0.114,0.283,0.209
0.077,-0.032,0.431,0.424
0.253,0.029,0.648,0.535
0.114,0.107,0.572,0.436
-0.181,-0.264,0.176,0.173
0.052,-0.030,0.453,0.300
-0.155,-0.177,0.249,0.204
-0.228,-0.263,0.187,0.151
-0.167,-0.223,0.135,0.106
-0.210,-0.271,0.164,0.075
-0.244,-0.280,0.089,0.059
0.404,0.261,0.750,0.664
-0.247,-0.334,0.167,0.163
-0.000,-0.086,0.389,0.375
0.292,0.168,0.629,0.636
0.375,0.211,0.742,0.671
0.033,-0.031,0.379,0.427
0.114,-0.060,0.446,0.408
0.445,0.173,0.775,0.702
0.854,0.702,1.188,1.157
0.708,0.612,1.085,1.067
0.619,0.627,1.139,1.073
0.936,0.921,1.351,1.284
0.684,0.514,0.972,0.903
0.187,0.179,0.599,0.639
-0.260,-0.346,0.177,0.146
-0.177,-0.192,0.267,0.241
-0.291,-0.386,0.151,0.110
-0.674,-0.661,-0.227,-0.290
-0.128,-0.224,0.353,0.231
0.078,0.077,0.461,0.360
-0.090,-0.253,0.240,0.191
-0.576,-0.756,-0.294,-0.329
-0.296,-0.368,0.140,0.001
-0.171,-0.223,0.236,0.114
-0.293,-0.368,0.121,0.063
-0.478,-0.583,-0.163,-0.144
-0.351,-0.474,-0.068,-0.074
-0.179,-0.181,0.286,0.181
-0.238,-0.232,0.167,0.128
-0.053,0.005,0.302,0.287
-0.164,-0.356,0.220,0.197
-0.199,-0.242,0.262,0.111
-0.223,-0.275,0.086,0.081
-0.252,-0.388,0.109,0.015
0.138,0.045,0.561,0.477
-0.235,-0.267,0.168,0.026
0.006,-0.137,0.247,0.247
0.031,-0.218,0.291,0.218
0.268,0.186,0.608,0.579
-0.191,-0.342,0.141,0.197
0.043,-0.112,0.380,0.344
0.299,0.311,0.741,0.666
0.289,0.306,0.710,0.683
0.167,0.254,0.682,0.648
0.305,0.211,0.613,0.585
0.081,0.114,0.466,0.450
0.373,0.281,0.781,0.681
0.024,-0.054,0.419,0.305
0.013,-0.124,0.299,0.252
-0.366,-0.467,-0.090,-0.056
-0.498,-0.526,-0.191,-0.205
-0.587,-0.602,-0.205,-0.186
-0.643,-0.693,-0.263,-0.217
-0.695,-0.832,-0.363,-0.467
-0.484,-0.662,-0.179,-0.235
-0.595,-0.617,-0.112,-0.266
-0.520,-0.644,-0.213,-0.239
-0.952,-1.055,-0.624,-0.601
-0.399,-0.405,-0.067,-0.050
-0.036,-0.140,0.306,0.288
-0.013,-0.257,0.250,0.284
-0.047,-0.265,0.260,0.190
-0.082,-0.221,0.254,0.238
-0.184,-0.304,0.144,0.168
-0.137,-0.220,0.232,0.160
-0.173,-0.351,0.160,0.031
-0.381,-0.496,-0.005,-0.076
-0.147,-0.294,0.158,0.118
-0.276,-0.346,0.107,0.053
-0.506,-0.579,-0.163,-0.192
-0.320,-0.350,0.119,0.015
-0.337,-0.334,0.038,0.035
-0.411,-0.499,-0.057,-0.050
-0.610,-0.737,-0.173,-0.262
-0.863,-0.943,-0.528,-0.639
-0.651,-0.663,-0.259,-0.185
-0.504,-0.608,-0.121,-0.237
-0.050,-0.274,0.283,0.244
-0.010,-0.099,0.339,0.335
0.213,0.074,0.522,0.533
0.573,0.467,0.958,0.938
0.493,0.379,0.865,0.814
0.205,0.079,0.537,0.525
-0.012,-0.070,0.336,0.279
0.109,-0.019,0.444,0.359
0.051,-0.001,0.315,0.384
0.316,0.154,0.518,0.603
0.648,0.391,0.822,0.826
0.849,0.748,1.157,1.223
0.549,0.418,0.824,0.764
0.340,0.322,0.728,0.621
0.391,0.170,0.726,0.707
0.163,0.122,0.533,0.525
0.216,0.058,0.607,0.577
0.414,0.269,0.694,0.632
-0.017,-0.033,0.354,0.295
0.348,0.355,0.728,0.706
0.802,0.754,1.208,1.167
0.962,0.802,1.334,1.236
0.983,0.859,1.267,1.242
0.835,0.822,1.145,1.114
0.867,0.796,1.176,1.174
1.071,1.043,1.449,1.401
1.085,0.906,1.392,1.441
1.223,1.120,1.520,1.492
1.057,0.880,1.380,1.400
1.385,1.283,1.763,1.656
1.014,0.861,1.363,1.278
0.903,0.895,1.296,1.320
0.563,0.665,1.063,1.035
1.163,1.034,1.467,1.366
0.827,0.721,1.146,1.187
0.456,0.342,0.815,0.733
0.664,0.444,1.003,0.906
0.775,0.709,1.170,1.153
0.826,0.734,1.238,1.182
0.716,0.700,1.133,1.076
0.526,0.415,0.917,0.846
0.583,0.436,0.880,0.946
0.583,0.409,0.868,0.760
0.577,0.545,0.987,0.907
-0.045,-0.027,0.384,0.326
-0.341,-0.438,0.007,-0.054
-0.282,-0.381,0.029,0.021
-0.196,-0.278,0.115,0.075
-0.062,-0.235,0.195,0.125
-0.054,-0.118,0.360,0.206
-0.413,-0.406,0.001,-0.097
-0.099,-0.180,0.250,0.242
-0.433,-0.598,-0.043,-0.055
-0.119,-0.227,0.131,0.144
-0.321,-0.376,0.048,0.023
-0.189,-0.159,0.211,0.174
-0.035,-0.014,0.379,0.325
0.012,-0.123,0.334,0.331
0.216,0.032,0.506,0.528
-0.103,-0.153,0.288,0.209
-0.184,-0.290,0.094,0.058
-0.189,-0.298,0.071,0.040
0.076,-0.008,0.422,0.338
-0.487,-0.541,-0.104,-0.145
-0.606,-0.758,-0.266,-0.204
-0.602,-0.566,-0.159,-0.236
-0.455,-0.586,-0.053,-0.124
-0.177,-0.345,0.198,0.120
-0.222,-0.375,0.176,0.160
-0.218,-0.198,0.165,0.146
0.006,-0.027,0.469,0.377
-0.181,-0.284,0.086,0.125
-0.366,-0.358,0.062,0.048
-0.200,-0.239,0.189,0.099
-0.085,-0.263,0.195,0.211
0.476,0.454,0.889,0.901
0.071,-0.008,0.397,0.365
0.670,0.569,1.032,0.993
0.464,0.375,0.748,0.719
0.385,0.435,0.719,0.715
0.232,0.137,0.703,0.610
0.328,0.225,0.768,0.651
0.125,0.046,0.476,0.534
0.287,0.199,0.720,0.700
-0.093,-0.108,0.344,0.297
-0.329,-0.384,0.066,0.156
-0.022,-0.158,0.337,0.245
-0.191,-0.229,0.191,0.182
0.021,0.008,0.377,0.338
-0.253,-0.249,0.160,0.106
0.157,0.156,0.572,0.435
0.250,0.150,0.595,0.548
0.246,0.146,0.538,0.517
0.224,0.200,0.646,0.607
0.102,0.087,0.462,0.511
-0.348,-0.453,-0.109,-0.037
-0.158,-0.250,0.206,0.116
-0.310,-0.288,0.128,0.005
-0.365,-0.470,0.021,-0.060
-0.692,-0.774,-0.338,-0.368
-0.684,-0.871,-0.341,-0.350
-0.505,-0.494,-0.130,-0.166
-0.696,-0.730,-0.249,-0.383
-0.630,-0.749,-0.288,-0.286
-0.823,-0.879,-0.407,-0.478
-0.825,-0.974,-0.651,-0.655
-0.361,-0.483,-0.065,-0.113
-0.078,-0.220,0.113,0.082
-0.248,-0.384,-0.047,-0.054
-0.382,-0.521,-0.019,-0.221
-0.547,-0.691,-0.176,-0.310
-0.375,-0.499,-0.097,-0.139
-0.680,-0.712,-0.274,-0.351
-0.938,-0.913,-0.540,-0.547
-0.897,-1.082,-0.605,-0.636
-0.969,-1.055,-0.631,-0.690
-1.516,-1.557,-1.177,-1.225
-1.512,-1.567,-1.057,-1.215
-1.465,-1.526,-1.095,-1.079
-1.362,-1.597,-1.047,-1.114
-0.875,-1.014,-0.465,-0.548
-0.309,-0.451,-0.012,0.053
-0.363,-0.459,-0.002,-0.080
0.041,-0.064,0.493,0.349
-0.348,-0.546,0.004,-0.002
-0.441,-0.575,-0.084,-0.155
-0.560,-0.625,-0.296,-0.273
-0.588,-0.591,-0.226,-0.202
-0.224,-0.263,0.173,0.098
0.201,0.135,0.470,0.440
0.339,0.281,0.710,0.713
0.690,0.544,1.011,0.893
0.623,0.623,1.055,1.055
0.110,0.084,0.451,0.442
0.386,0.257,0.726,0.685
0.580,0.455,0.808,0.847
0.512,0.211,0.736,0.682
0.242,0.045,0.570,0.454
0.013,-0.121,0.405,0.331
-0.398,-0.515,-0.085,-0.053
-0.070,-0.158,0.299,0.247
-0.353,-0.431,-0.020,-0.056
-0.523,-0.590,-0.215,-0.262
-0.476,-0.455,-0.024,-0.028
-0.647,-0.717,-0.362,-0.449
-0.797,-0.898,-0.428,-0.413
-1.241,-1.337,-0.889,-1.001
-1.345,-1.289,-0.873,-0.907
-1.200,-1.238,-0.799,-0.881
-1.326,-1.285,-0.821,-0.943
-1.442,-1.436,-1.073,-1.037
-1.160,-1.251,-0.759,-0.800
-0.565,-0.669,-0.151,-0.181
-0.101,-0.137,0.301,0.224
-0.022,-0.156,0.259,0.274
0.183,0.090,0.554,0.526
0.062,0.036,0.502,0.446
0.006,-0.004,0.376,0.390
0.160,0.152,0.492,0.531
0.364,0.291,0.681,0.605
0.047,-0.131,0.313,0.291
-0.184,-0.207,0.153,0.123
0.070,-0.041,0.382,0.373
-0.088,-0.196,0.141,0.241
0.210,0.034,0.576,0.487
0.351,0.269,0.636,0.627
0.258,0.043,0.533,0.454
0.235,0.115,0.583,0.567
0.098,0.029,0.425,0.361
0.039,0.043,0.417,0.406
-0.066,-0.174,0.286,0.345
0.031,-0.087,0.436,0.308
-0.492,-0.425,-0.103,-0.075
-0.008,-0.118,0.348,0.307
0.263,0.097,0.643,0.564
0.475,0.322,0.820,0.740
0.499,0.423,0.932,0.791
0.428,0.364,0.717,0.780
-0.122,-0.185,0.205,0.215
-0.163,-0.280,0.184,0.085
0.049,-0.089,0.365,0.330
0.184,0.065,0.517,0.461
-0.073,-0.113,0.320,0.227
0.212,0.107,0.542,0.548
-0.095,-0.199,0.239,0.168
-0.287,-0.500,0.069,-0.032
-0.654,-0.699,-0.277,-0.320
-0.365,-0.505,0.029,0.017
-0.397,-0.509,-0.093,-0.095
-0.122,-0.283,0.286,0.178
-0.052,-0.192,0.236,0.247
-0.231,-0.392,0.102,0.091
-0.368,-0.362,-0.007,0.072
-0.561,-0.588,-0.107,-0.210
-0.432,-0.501,-0.137,-0.149
-0.693,-0.760,-0.268,-0.444
-0.781,-0.786,-0.372,-0.446
-0.514,-0.671,-0.121,-0.127
-0.287,-0.383,0.077,0.027
-0.484,-0.522,-0.065,-0.071
-0.606,-0.678,-0.191,-0.284
-0.314,-0.352,0.067,0.016
-0.426,-0.514,-0.061,-0.106
-0.725,-0.742,-0.293,-0.373
-0.356,-0.516,-0.137,-0.070
-0.366,-0.370,-0.001,0.077
-0.010,-0.150,0.310,0.235
-0.045,-0.239,0.235,0.129
0.077,-0.190,0.349,0.296
-0.063,-0.197,0.310,0.243
-0.180,-0.292,0.173,0.110
-0.350,-0.512,-0.013,-0.004
0.102,-0.075,0.409,0.355
0.451,0.345,0.715,0.696
0.325,0.156,0.554,0.587
0.220,0.214,0.562,0.578
0.193,0.055,0.520,0.516
0.267,0.158,0.584,0.602
0.605,0.648,0.952,0.925
0.603,0.521,1.017,0.942
0.451,0.410,0.791,0.766
0.064,0.064,0.466,0.423
0.093,0.040,0.388,0.520
-0.004,-0.126,0.352,0.266
-0.240,-0.273,0.125,0.100
-0.344,-0.566,0.032,-0.004
-0.598,-0.621,-0.266,-0.275
-0.743,-0.827,-0.417,-0.402
-0.539,-0.570,-0.263,-0.183
-0.238,-0.256,0.124,0.129
-0.548,-0.593,-0.082,-0.214
-0.604,-0.758,-0.295,-0.349
-0.488,-0.533,-0.062,-0.103
-0.587,-0.626,-0.185,-0.215
-0.392,-0.467,-0.070,-0.063
-0.222,-0.291,0.107,0.043
0.029,-0.100,0.396,0.250
0.138,0.066,0.559,0.521
0.040,-0.115,0.364,0.270
-0.596,-0.612,-0.295,-0.284
-0.160,-0.312,0.162,0.128
-0.001,-0.140,0.346,0.313
-0.121,-0.154,0.251,0.314
0.031,-0.021,0.382,0.406
-0.210,-0.291,0.100,0.115
-0.398,-0.367,0.006,-0.008
-0.246,-0.201,0.154,0.140
0.034,0.023,0.349,0.357
-0.170,-0.277,0.184,0.241
-0.331,-0.437,0.031,0.027
-0.282,-0.326,-0.053,-0.036
-0.221,-0.378,0.119,0.025
-0.187,-0.282,0.158,0.139
-0.338,-0.501,-0.062,-0.065
-0.062,-0.160,0.205,0.178
-0.310,-0.356,0.031,0.007
-0.388,-0.566,0.004,-0.051
0.065,-0.012,0.390,0.390
0.027,-0.016,0.378,0.334
-0.427,-0.480,-0.032,-0.074
-0.056,-0.157,0.302,0.226
-0.072,-0.179,0.299,0.256
-0.242,-0.221,0.148,0.089
-0.158,-0.151,0.201,0.160
-0.229,-0.357,0.126,0.141
-0.074,-0.195,0.272,0.202
-0.058,-0.176,0.257,0.266
-0.036,-0.098,0.304,0.288
-0.575,-0.602,-0.237,-0.168
-0.722,-0.835,-0.387,-0.454
-0.339,-0.315,0.099,-0.036
-0.005,-0.101,0.312,0.270
0.050,-0.034,0.454,0.345
-0.444,-0.592,-0.172,-0.154
-0.154,-0.167,0.226,0.170
0.046,0.021,0.532,0.452
-0.369,-0.364,0.096,0.035
-0.210,-0.259,0.146,0.140
0.144,0.105,0.584,0.506
0.244,0.322,0.751,0.681
0.362,0.435,0.826,0.752
0.135,0.128,0.528,0.479
0.027,0.005,0.446,0.447
-0.249,-0.201,0.144,0.249
-0.043,-0.053,0.371,0.378
0.110,0.128,0.554,0.514
-0.249,-0.333,0.178,0.053
-0.088,-0.198,0.204,0.181
0.523,0.235,0.815,0.753
0.360,0.313,0.771,0.698
0.436,0.361,0.754,0.754
0.585,0.558,0.926,1.000
0.389,0.254,0.774,0.677
0.864,0.781,1.237,1.140
0.765,0.678,1.119,1.145
0.677,0.616,1.043,1.046
0.545,0.431,0.851,0.847
0.171,0.081,0.444,0.428
-0.225,-0.299,0.152,0.128
-0.171,-0.251,0.253,0.116
0.304,0.228,0.695,0.598
0.326,0.186,0.670,0.656
0.353,0.278,0.707,0.623
0.540,0.510,0.962,0.906
0.716,0.757,1.083,1.128
0.430,0.397,0.792,0.764
-0.041,-0.158,0.257,0.290
0.031,-0.085,0.394,0.313
-0.012,-0.116,0.389,0.275
0.274,0.240,0.751,0.603
0.130,0.018,0.581,0.496
-0.095,-0.259,0.229,0.152
-0.140,-0.253,0.177,0.129
-0.527,-0.557,-0.175,-0.179
-0.241,-0.190,0.230,0.120
-0.250,-0.287,0.196,0.077
-0.399,-0.540,-0.020,-0.136
-0.066,-0.158,0.226,0.266
-0.134,-0.244,0.235,0.117
-0.350,-0.352,0.018,0.066
-0.033,-0.022,0.377,0.331
0.180,0.135,0.642,0.603
0.533,0.430,0.895,0.872
0.311,0.284,0.603,0.614
0.601,0.447,0.937,0.829
0.226,0.123,0.616,0.564
0.054,0.019,0.408,0.331
0.379,0.237,0.823,0.694
0.201,0.120,0.548,0.524
0.301,0.209,0.681,0.601
0.615,0.432,0.931,0.885
0.422,0.341,0.857,0.752
-0.204,-0.209,0.236,0.177
-0.244,-0.293,0.114,-0.033
-0.323,-0.383,0.060,-0.061
-0.131,-0.337,0.186,0.091
-0.425,-0.522,0.005,-0.129
-0.331,-0.378,0.064,-0.025
-0.204,-0.292,0.160,0.139
0.111,0.002,0.511,0.441
-0.148,-0.211,0.147,0.176
-0.309,-0.427,0.014,0.042
-0.080,-0.179,0.248,0.288
-0.203,-0.285,0.111,0.056
-0.353,-0.465,0.095,-0.050
-0.458,-0.580,-0.162,-0.202
-0.257,-0.215,0.099,0.121
-0.187,-0.229,0.160,0.149
0.015,-0.006,0.448,0.465
0.005,-0.023,0.386,0.285
-0.382,-0.516,-0.022,-0.089
-0.699,-0.706,-0.240,-0.300
-0.143,-0.289,0.212,0.190
-0.156,-0.210,0.286,0.149
-0.210,-0.394,0.151,0.119
-0.415,-0.549,-0.071,-0.044
-0.575,-0.646,-0.258,-0.335
-0.390,-0.449,-0.039,-0.127
-0.115,-0.337,0.151,0.162
0.012,-0.107,0.341,0.345
0.101,0.013,0.407,0.374
0.228,0.037,0.429,0.419
0.144,-0.042,0.540,0.409
-0.102,-0.142,0.239,0.183
0.182,0.124,0.595,0.534
0.176,0.071,0.500,0.521
0.075,0.019,0.462,0.508
0.544,0.394,0.902,0.902
0.080,0.020,0.461,0.409
-0.062,-0.085,0.291,0.384
0.121,0.044,0.465,0.443
0.177,0.171,0.679,0.508
-0.346,-0.312,0.103,0.071
-0.126,-0.127,0.381,0.230
0.233,0.299,0.775,0.602
0.207,0.181,0.598,0.550
0.344,0.247,0.665,0.678
0.236,0.174,0.526,0.510
0.393,0.299,0.681,0.715
0.379,0.263,0.738,0.611
0.404,0.272,0.686,0.584
0.032,-0.125,0.373,0.259
-0.308,-0.397,-0.017,-0.033
-0.310,-0.443,0.025,-0.011
-0.266,-0.356,0.101,0.095
-0.570,-0.678,-0.217,-0.231
-0.372,-0.344,0.065,-0.009
-0.688,-0.759,-0.253,-0.338
-0.638,-0.651,-0.264,-0.322
-0.594,-0.761,-0.417,-0.310
-0.306,-0.402,0.055,-0.054
-0.694,-0.780,-0.305,-0.365
-0.704,-0.743,-0.259,-0.366
-0.736,-0.756,-0.301,-0.384
-0.630,-0.663,-0.189,-0.289
-0.234,-0.292,0.160,0.131
-0.384,-0.350,0.022,0.055
-0.189,-0.203,0.191,0.196
0.162,0.012,0.480,0.476
-0.009,-0.146,0.274,0.308
-0.459,-0.576,-0.138,-0.113
-0.690,-0.758,-0.402,-0.384
-0.729,-0.795,-0.387,-0.386
-0.422,-0.649,-0.139,-0.166
-0.605,-0.691,-0.227,-0.266
-0.386,-0.560,-0.176,-0.175
-0.454,-0.543,-0.196,-0.150
-0.325,-0.400,-0.004,-0.027
-0.811,-0.785,-0.373,-0.401
-0.627,-0.672,-0.347,-0.345
-0.550,-0.593,-0.284,-0.229
-0.297,-0.369,0.069,0.043
-0.458,-0.464,-0.044,-0.072
-0.569,-0.662,-0.238,-0.291
-0.259,-0.391,0.010,0.066
-0.691,-0.862,-0.297,-0.375
-0.655,-0.785,-0.351,-0.356
-0.748,-0.832,-0.335,-0.343
-0.673,-0.745,-0.249,-0.364
-0.835,-0.859,-0.550,-0.537
-0.544,-0.651,-0.184,-0.237
-0.662,-0.701,-0.239,-0.308
-0.319,-0.347,0.042,0.047
-0.430,-0.500,-0.122,-0.180
-0.532,-0.637,-0.254,-0.139
-0.719,-0.734,-0.324,-0.372
-0.651,-0.801,-0.418,-0.395
-0.741,-0.867,-0.427,-0.397
-0.360,-0.428,-0.076,-0.070
-0.388,-0.514,-0.116,-0.098
-0.369,-0.494,-0.060,-0.107
-0.570,-0.807,-0.252,-0.225
-0.550,-0.623,-0.121,-0.252
-0.873,-0.918,-0.397,-0.542
-0.894,-1.048,-0.548,-0.613
-0.467,-0.589,-0.126,-0.141
-0.468,-0.433,-0.074,-0.209
-0.305,-0.463,0.063,0.007
-0.500,-0.696,-0.222,-0.209
-0.329,-0.466,0.041,0.017
-0.690,-0.709,-0.292,-0.234
-0.891,-0.889,-0.542,-0.535
-0.562,-0.764,-0.340,-0.289
-0.340,-0.463,0.025,-0.012
-0.285,-0.374,0.133,0.038
-0.198,-0.437,0.044,0.013
-0.430,-0.540,-0.077,-0.186
0.100,-0.035,0.413,0.320
-0.113,-0.250,0.247,0.172
0.030,-0.145,0.288,0.252
0.447,0.384,0.742,0.672
0.847,0.780,1.179,1.078
0.750,0.645,1.085,1.043
1.105,0.978,1.420,1.376
1.479,1.490,1.851,1.779
1.513,1.464,1.753,1.778
1.322,1.163,1.598,1.645
1.330,1.246,1.702,1.662
1.081,0.994,1.409,1.427
0.865,0.825,1.268,1.237
0.766,0.702,1.166,1.153
0.479,0.384,0.825,0.788
0.108,0.007,0.398,0.359
0.639,0.579,1.030,0.951
0.467,0.338,0.752,0.752
0.318,0.308,0.713,0.695
0.110,0.010,0.398,0.398
0.369,0.216,0.629,0.744
0.144,0.155,0.512,0.555
0.004,-0.108,0.297,0.295
0.351,0.156,0.618,0.598
0.292,0.271,0.690,0.658
0.464,0.347,0.809,0.789
0.727,0.576,0.970,0.983
0.760,0.681,1.081,1.154
0.603,0.451,0.971,0.936
0.470,0.354,0.807,0.755
0.124,-0.006,0.505,0.401
0.025,-0.043,0.354,0.340
-0.011,-0.097,0.328,0.240
-0.123,-0.263,0.249,0.206
0.164,0.026,0.524,0.399
0.085,0.053,0.387,0.343
0.159,0.146,0.496,0.498
0.082,-0.018,0.390,0.441
0.054,0.024,0.385,0.413
0.325,0.157,0.559,0.544
0.598,0.547,0.908,0.902
0.569,0.469,0.823,0.853
0.463,0.358,0.821,0.815
0.375,0.290,0.738,0.652
0.472,0.349,0.863,0.801
