0.005,0.005,0.005,0.005,0.005,0.005,0.005,0.005,0.005,0.005,0.005,0.005,0.005,0.005,0.005,0.005,0.005,0.005,0.005,0.005,0.005,0.005,0.005,0.005,0.005,0.005,0.005,0.005,0.005,0.005,0.005,0.005,0.005,0.005,0.005,0.005,0.005,0.005,0.005,0.005,0.005,0.005,0.005,0.005,0.005,0.005,0.005,0.005,0.005,0.005,0.005,0.005,0.005,0.005,0.005,0.005,0.005,0.005,0.005,0.005,0.005,0.005,0.005,0.005,0.005,0.005,0.005,0.005,0.005,0.005,0.005,0.005,0.005,0.005,0.005,0.005,0.005,0.005,0.005,0.005,0.005,0.005,0.005,0.005,0.005,0.005,0.005,0.005,0.005,0.005,0.005,0.005,0.005,0.005,0.005,0.005,0.005,0.005,0.005,0.005,0.005,0.005,0.005,0.005,0.005,0.005,0.005,0.005,0.005,0.005,0.005,0.005,0.005,0.005,0.005,0.005,0.005,0.005,0.005,0.005,0.005,0.005,0.005,0.005,0.005,0.005,0.005,0.005,0.005,0.005,0.005,0.005,0.005,0.005,0.005,0.005,0.005,0.005,0.005,0.005,0.005,0.005,0.005,0.005,0.005,0.005,0.005,0.005,0.005,0.005,0.005,0.005,0.005,0.005,0.005,0.005,0.005,0.005,0.005,0.005,0.005,0.005,0.005,0.005,0.005,0.005,0.005,0.005,0.005,0.005,0.005,0.005,0.005,0.005,0.005,0.005,0.005,0.005,0.005,0.005,0.005,0.005,0.005,0.005,0.005,0.005,0.005,0.005,0.005,0.005
0.350,0.740,0.034,0.300,0.185,0.926,0.184,0.473,0.182,0.321,-0.110,0.440,0.427,-0.095,0.025,0.981,0.082,0.564,0.251,0.539,0.442,0.497,0.460,0.365,0.495,0.644,0.026,0.571,0.271,0.027,0.285,0.470,0.749,0.165,0.634,-0.035,0.692,-0.180,0.192,0.668,-0.045,0.465,-0.115,0.570,0.069,0.363,0.541,0.045,0.149,0.621,0.218,0.542,0.166,0.595,-0.059,0.288,0.395,0.226,0.231,0.434,0.675,0.072,0.229,0.443,0.297,0.063,0.363,0.491,-0.007,0.264,0.241,0.202,0.299,0.454,0.563,-0.006,0.504,0.226,0.298,-0.628,0.923,0.706,-0.062,0.316,0.619,0.563,0.124,0.530,-0.631,0.655,0.146,0.384,0.548,0.026,0.172,0.908,-0.055,0.579,0.156,0.700,0.576,0.608,-0.334,1.161,-0.001,0.173,0.268,0.342,0.644,0.094,0.172,-0.057,0.583,0.333,0.414,0.156,0.496,0.570,-0.325,0.103,0.497,0.049,0.114,0.397,0.636,0.145,0.343,-0.316,0.656,0.393,0.246,0.357,0.026,0.509,0.511,0.545,0.295,0.753,0.483,0.455,0.415,0.387,0.346,0.700,-0.191,0.528,-0.135,0.396,0.092,0.854,0.355,0.383,0.220,0.218,0.234,-0.147,1.014,-0.165,0.556,-0.181,0.318,0.552,-0.046,0.253,-0.333,0.447,0.576,0.006,0.640,-0.379,0.783,0.449,0.526,0.324,0.296,0.243,0.015,0.880,0.298,-0.325,0.061,0.104,1.203,-0.012,0.125,0.502,0.635,0.391,0.351,0.194
0.971,0.061,0.793,0.201,0.116,0.883,0.439,0.392,0.206,0.231,0.151,0.749,0.350,0.203,-0.884,1.142,-0.446,1.095,0.270,0.918,0.098,0.830,0.520,0.106,0.868,0.883,-0.015,0.447,0.531,-0.013,0.650,0.031,0.831,0.259,0.507,0.485,0.343,0.381,0.193,0.990,-0.303,0.541,-0.284,0.304,0.350,0.309,0.631,0.217,-0.267,1.382,-0.080,0.702,0.319,0.826,-0.137,0.414,0.430,0.001,0.098,0.626,0.775,-0.164,0.796,-0.135,1.065,-0.583,0.807,-0.077,0.931,-0.400,1.076,-0.154,0.250,1.164,0.355,0.071,0.578,0.946,0.006,0.098,0.282,0.895,0.146,1.060,0.175,0.572,0.323,0.716,0.038,0.631,0.467,0.838,0.097,0.196,0.220,0.349,0.005,0.210,0.756,0.057,0.836,0.310,-0.260,1.067,0.327,0.131,0.411,0.679,0.545,0.045,0.700,0.452,0.675,0.013,0.506,0.327,0.525,0.852,-0.154,-0.429,1.064,-0.417,-0.252,0.887,0.355,0.180,0.607,-0.358,0.901,0.119,1.107,0.489,0.013,1.059,0.208,1.176,-0.018,0.999,0.114,0.705,0.802,0.002,-0.081,0.952,-0.429,1.082,0.034,0.275,0.203,0.780,1.534,-0.006,0.218,0.611,0.123,0.367,1.265,0.126,0.126,-0.073,0.813,0.761,-0.023,0.276,-0.037,0.279,0.583,0.112,0.876,-0.417,1.359,-0.122,1.191,-0.019,0.549,-0.657,0.041,0.620,0.525,-0.556,-0.722,-0.450,1.538,0.273,0.186,0.396,1.240,-0.028,0.533,0.662
0.569,0.139,0.547,0.324,0.209,1.442,0.073,0.773,-0.497,0.345,0.597,0.662,0.869,0.080,-0.459,1.629,-0.214,1.230,0.060,1.117,0.273,0.926,0.556,0.723,0.221,1.405,0.052,0.148,0.829,-0.059,0.970,0.105,0.401,0.274,0.520,0.154,0.780,0.210,0.043,1.566,-0.842,0.630,-0.505,0.227,0.734,-0.079,0.973,0.187,-0.093,1.384,-0.798,1.067,0.439,0.835,-0.038,0.215,0.999,-0.191,0.351,0.478,1.164,-0.744,1.191,-0.236,1.113,-0.241,0.498,0.107,0.883,-0.092,0.846,-0.338,0.839,0.837,0.819,0.266,0.966,0.461,0.700,0.211,-0.143,0.617,0.179,1.139,-0.128,0.996,0.167,1.067,-0.239,0.355,1.129,0.542,0.614,-0.151,0.476,0.216,0.473,0.447,0.596,0.525,0.197,0.450,0.355,0.667,1.060,-0.194,0.035,-0.038,1.054,-0.078,0.190,0.782,0.299,0.045,0.632,0.334,0.634,0.763,-0.490,-0.289,1.756,-1.024,-0.415,1.116,-0.173,0.256,0.778,-0.346,0.878,0.409,0.585,0.701,0.007,0.810,0.172,1.255,0.283,1.102,0.195,1.051,0.557,-0.340,0.006,0.284,-0.618,1.251,0.041,0.555,0.304,0.205,1.942,-0.306,0.630,0.567,0.643,-0.303,1.529,-0.230,0.487,-0.239,0.761,0.716,0.156,0.353,-0.423,0.291,0.811,0.174,0.935,-0.133,1.036,0.578,0.751,0.422,0.297,-1.013,0.157,0.463,1.020,-1.611,-0.374,-0.813,1.773,0.097,0.542,0.251,0.901,-0.002,0.748,0.414
0.576,0.538,0.417,0.567,0.072,1.562,0.109,1.119,-0.762,0.285,0.413,0.841,0.625,0.100,-0.343,1.837,-0.016,0.765,0.327,1.007,0.267,0.943,0.242,0.785,0.349,1.180,0.109,0.469,1.173,0.041,0.823,-0.129,0.961,0.289,0.814,0.196,0.731,0.419,0.245,1.386,-0.252,-0.097,0.153,-0.147,0.678,0.093,0.713,0.569,-0.031,1.510,-0.762,1.343,0.496,0.881,0.217,0.233,1.125,-0.451,0.644,0.411,1.644,-1.308,1.754,-0.567,1.374,-0.515,0.482,0.096,1.116,-0.236,0.942,-0.460,0.755,1.020,0.430,0.211,0.951,0.399,0.449,-0.243,0.832,0.351,0.337,0.995,0.310,0.954,-0.198,1.305,0.061,0.662,0.862,0.586,0.448,-0.114,0.620,0.146,1.001,0.179,1.096,0.270,0.403,0.163,0.491,0.383,1.003,-0.191,0.290,-0.303,0.921,-0.262,0.714,0.479,0.444,-0.071,0.570,0.497,0.470,0.296,-0.003,-0.395,1.457,-0.692,-0.925,1.733,-0.815,0.089,0.629,-0.207,0.362,-0.068,0.826,0.500,-0.159,0.711,0.149,1.735,0.110,1.543,-0.043,1.843,0.045,0.252,-0.025,0.098,-0.308,1.464,0.039,0.914,0.041,0.440,1.978,-0.366,0.531,0.529,0.231,-0.092,1.427,-0.421,0.403,-0.408,0.730,0.767,-0.162,0.946,-1.350,0.581,0.908,0.423,0.994,-0.347,1.146,0.293,1.042,-0.010,0.700,-0.732,-0.158,0.477,1.738,-1.045,-0.444,-0.137,1.539,0.009,0.377,0.509,0.802,0.359,0.620,0.413
0.506,0.548,0.108,1.131,0.061,1.200,0.433,0.826,-0.573,0.626,-0.166,1.010,0.564,0.346,0.164,1.593,0.404,0.787,0.126,1.118,0.302,1.196,0.077,0.890,0.394,1.318,-0.279,0.621,0.736,0.222,0.543,0.115,1.108,0.164,1.099,-0.185,0.737,0.338,0.248,1.303,-0.203,0.286,0.108,0.028,0.985,-0.101,0.861,0.234,-0.220,2.021,-0.416,0.910,0.068,1.069,0.156,0.086,1.067,-0.543,0.289,0.242,1.815,-1.028,1.541,-0.212,1.534,-0.848,0.534,-0.128,1.423,-0.137,1.272,0.228,0.795,0.795,0.371,0.064,1.274,0.308,0.237,-0.563,1.082,0.517,0.088,1.388,0.303,1.145,0.040,1.067,0.504,0.311,1.113,0.226,0.803,-0.310,0.131,0.574,0.952,0.006,1.600,-0.080,0.607,-0.550,0.867,-0.202,1.603,-0.428,0.929,-0.517,1.304,-0.324,0.950,0.913,0.342,0.400,0.722,0.471,0.315,0.844,-0.348,0.229,0.455,0.004,-0.770,1.600,-1.097,0.430,0.610,0.055,0.200,0.110,1.063,0.357,0.097,0.762,0.360,1.473,0.217,1.444,0.087,1.565,0.171,0.000,0.411,-0.604,0.388,1.071,0.430,0.960,-0.685,0.341,1.961,-0.102,0.265,0.601,0.147,0.059,1.142,-0.460,-0.367,-0.302,0.681,0.788,-0.337,1.121,-1.207,0.736,0.924,0.294,1.013,0.221,0.801,0.352,1.366,-0.249,0.787,-0.381,0.521,0.680,1.095,-0.515,0.070,0.149,1.103,0.318,0.491,0.146,1.210,0.107,0.672,-0.843
0.115,1.133,-0.450,1.832,-0.316,1.405,0.348,1.093,-0.614,0.152,-0.260,0.952,0.785,0.520,0.115,1.765,0.201,1.331,0.052,0.953,0.487,0.955,0.325,0.866,0.440,1.489,-0.515,0.953,0.544,0.028,0.821,-0.008,1.402,0.074,1.135,-0.211,0.695,0.506,0.119,1.078,-0.262,0.558,0.109,-0.001,0.878,-0.207,0.802,0.471,-0.013,1.782,-0.571,1.476,0.173,0.682,0.484,-0.120,1.409,-1.095,0.830,0.017,2.161,-0.948,1.721,-0.450,1.918,-1.396,0.880,-0.135,1.396,0.129,0.582,0.633,0.565,1.323,0.198,0.388,1.071,0.419,0.446,-0.250,0.027,0.730,-0.057,1.753,-0.022,1.857,-0.497,1.249,0.185,0.429,0.508,0.633,0.501,-1.172,0.541,0.742,1.021,-0.688,2.008,-0.174,0.627,-1.138,0.974,-0.388,1.661,-0.533,0.967,-0.594,2.052,-0.952,0.749,1.038,-0.054,0.618,0.827,0.360,0.431,1.033,-0.691,-0.209,0.829,-0.126,-0.981,1.686,-0.986,0.357,0.201,-0.941,0.501,-0.402,1.484,0.279,0.338,0.567,0.672,1.276,0.311,1.353,0.428,1.087,0.697,-0.115,0.513,0.208,0.635,0.562,0.776,0.582,-0.230,0.604,1.985,-0.091,0.593,0.474,0.512,-0.361,1.431,-0.311,-0.680,-0.221,0.267,1.221,-0.872,0.989,-2.214,1.178,0.565,0.180,0.777,0.547,0.446,0.696,1.335,-0.151,1.014,-0.427,0.949,-0.035,1.189,-0.648,0.471,0.268,0.955,0.371,0.765,-0.007,1.241,0.500,0.414,-0.199
-0.160,1.316,-0.800,1.802,0.154,1.029,0.699,0.664,-0.438,-0.010,-0.328,1.293,0.444,0.332,0.307,1.344,0.273,1.175,-0.293,1.278,0.175,1.295,0.323,0.599,0.894,1.197,-0.177,0.890,0.545,-0.224,0.993,0.030,1.151,-0.134,1.572,-0.619,0.450,0.674,-0.226,1.218,-0.956,0.965,-0.289,0.496,0.658,0.098,0.707,0.774,-0.029,1.473,-0.599,1.622,0.149,0.267,0.756,-0.516,1.204,-0.573,0.413,0.698,1.696,-0.496,1.311,-0.480,1.989,-1.656,1.026,-0.401,1.209,0.434,0.686,0.159,0.868,1.282,0.121,0.511,0.922,0.836,0.144,-0.902,-0.186,0.752,-0.105,1.742,0.020,1.835,-0.743,1.091,0.544,-0.029,1.088,-0.073,0.462,-1.029,0.345,1.063,0.776,-0.636,1.672,-0.039,-0.431,-0.873,1.015,-0.616,1.682,-0.923,1.243,-0.495,1.791,-0.768,0.174,1.233,-0.123,0.910,0.504,0.725,0.165,0.867,-0.579,-0.616,0.993,-0.218,-0.258,0.943,-0.190,0.007,0.719,-0.435,0.269,0.041,1.394,0.600,0.340,0.396,1.040,1.019,0.653,0.970,0.508,1.177,0.205,-0.072,0.219,0.658,0.852,0.695,1.067,0.506,-0.009,0.777,1.723,0.438,0.550,0.319,0.570,-0.129,1.347,-0.134,-0.304,-0.566,0.838,0.743,-0.263,0.647,-2.490,1.860,0.181,0.489,0.602,0.591,0.694,0.695,1.264,0.188,1.054,-0.056,0.885,0.001,2.031,-1.667,0.341,0.118,1.399,0.216,0.622,0.036,1.070,0.727,0.312,0.213
0.076,1.431,-0.798,2.119,0.078,1.085,1.037,0.450,-0.690,0.230,-0.693,1.116,0.970,-0.003,-0.121,1.353,0.309,1.330,-0.576,1.172,0.428,1.091,0.713,0.503,0.847,0.868,-0.363,1.332,0.105,0.087,1.153,0.214,1.214,0.003,0.975,-0.531,0.414,0.760,-0.280,1.253,-1.218,1.182,-0.206,0.250,0.743,0.219,0.642,0.913,0.355,1.247,-0.210,1.280,0.230,-0.022,1.131,-0.858,1.264,-0.542,0.640,0.660,1.583,-0.488,1.014,-0.687,1.726,-1.257,0.857,-0.811,1.530,0.457,0.740,-0.102,1.212,1.164,-0.162,0.935,0.496,1.085,0.257,-0.915,0.054,1.061,-0.132,1.782,0.079,1.613,-0.341,1.077,0.261,0.436,0.406,0.205,0.194,-0.122,-0.073,1.439,0.420,-0.929,1.866,-0.252,-0.595,-0.309,0.829,-0.766,2.004,-1.280,1.182,-0.424,1.998,-0.728,0.462,0.863,0.443,0.810,0.389,0.588,-0.083,1.178,-0.798,-0.158,1.314,-0.402,-0.375,0.642,-0.146,0.805,-0.278,-0.188,-0.075,-0.401,1.518,0.745,0.150,0.378,0.970,1.010,0.569,1.210,0.098,1.241,-0.457,0.560,-0.018,0.904,0.372,0.631,0.701,0.716,-0.209,0.390,1.693,0.607,0.717,0.194,0.941,-0.284,1.577,-0.371,0.160,-0.502,0.782,1.010,-0.634,0.829,-2.178,1.852,0.078,0.365,0.117,0.766,0.586,0.819,1.051,-0.310,1.613,-0.193,0.703,0.341,1.143,-0.956,0.155,0.283,0.995,0.642,0.508,0.420,1.299,0.573,0.423,-0.000
-0.556,2.011,-1.270,2.011,-0.276,1.695,0.586,0.741,-1.072,-0.287,-0.506,1.098,0.840,0.393,-0.293,0.746,0.313,1.331,-1.074,1.295,0.422,1.156,0.797,0.129,1.188,0.398,-0.310,0.907,0.684,-0.013,1.440,0.301,1.323,0.291,0.671,-0.402,0.269,0.902,0.061,1.108,-1.233,0.766,-0.008,0.165,0.410,0.451,0.358,1.106,0.413,1.247,-0.116,1.710,-0.031,0.444,0.924,-0.861,1.744,-0.903,0.944,0.518,1.433,-0.620,1.122,-0.880,1.838,-1.264,0.475,-0.826,1.630,0.064,0.754,-0.512,1.277,1.074,-0.346,1.287,0.331,0.976,0.323,-1.069,0.122,0.792,-0.224,2.022,0.109,1.423,-0.228,1.181,0.196,0.356,0.495,0.401,0.061,-1.105,0.168,1.244,0.135,-0.932,2.232,-0.388,-0.317,-0.063,0.429,-0.243,2.314,-1.554,1.372,0.064,1.236,-0.100,0.662,0.721,0.963,0.683,0.235,0.727,0.137,1.342,-1.222,0.355,1.155,-0.458,-0.737,1.282,-0.087,1.104,-0.671,0.331,0.324,-0.284,1.628,0.674,0.095,0.080,1.285,0.999,0.671,1.325,-0.047,1.851,-0.684,0.423,-0.023,0.929,0.033,1.148,0.027,0.521,-0.576,0.625,1.552,0.798,0.645,0.169,0.556,-0.038,1.185,-0.169,0.188,-0.014,0.840,1.020,0.139,1.101,-1.314,1.959,-0.632,0.692,0.478,1.012,0.372,1.384,0.471,-0.151,1.634,-0.166,1.201,0.331,1.186,-0.925,0.132,-0.009,0.833,0.507,0.306,0.537,1.259,0.491,0.505,-0.262
-0.927,2.228,-1.983,2.633,-0.885,1.599,0.949,0.538,-0.973,-0.187,-0.501,0.835,1.123,-0.169,-0.437,1.299,0.201,1.290,-1.047,1.378,0.317,1.399,0.580,-0.364,1.369,-0.048,-0.168,1.035,0.714,-0.104,1.653,0.400,1.401,0.219,0.378,0.077,-0.103,1.131,0.129,1.007,-1.149,1.072,0.003,-0.470,0.795,0.378,0.653,0.808,0.462,1.252,-0.305,2.137,-0.526,0.259,1.065,-0.718,1.329,-0.544,0.454,0.895,1.260,-0.345,0.980,-0.567,1.790,-1.090,0.034,-0.764,1.630,-0.082,1.277,-0.829,1.505,0.991,-0.477,0.709,0.841,0.720,0.643,-0.971,-0.443,0.453,0.333,1.712,0.380,1.435,-0.231,1.083,-0.147,0.520,0.313,0.591,-0.730,-1.865,-0.147,1.463,-0.021,-0.997,2.169,-0.551,-0.483,0.335,0.144,-0.116,2.052,-1.251,1.370,0.472,0.893,0.385,0.946,0.575,0.875,0.798,0.136,0.742,0.093,1.162,-1.501,0.263,0.823,-0.049,-0.798,0.757,0.259,1.075,-1.212,0.468,0.332,0.101,1.326,0.697,0.169,0.306,0.907,1.267,0.483,1.231,0.129,1.462,-0.189,0.405,-0.236,1.026,0.047,0.998,0.263,0.357,-0.029,-0.040,1.658,0.784,0.730,-0.039,0.842,0.051,0.535,0.085,0.182,0.115,0.766,1.013,0.052,1.146,-1.215,1.920,-0.694,1.185,0.086,0.740,0.548,1.039,0.802,-0.052,1.331,-0.095,0.978,0.770,0.742,-1.096,-0.183,0.185,1.053,0.284,0.905,0.322,0.608,0.958,0.405,-0.333
-0.280,1.774,-1.753,2.944,-1.062,1.179,1.155,0.061,-0.539,-0.355,-1.075,0.581,1.503,-0.751,-0.381,1.228,-0.485,1.203,-0.917,1.442,0.357,1.413,0.721,-0.238,1.000,0.565,-0.663,1.119,0.366,0.360,1.345,0.422,1.631,0.018,0.170,-0.030,-0.317,1.035,0.369,1.161,-0.565,0.473,0.232,-0.724,0.983,0.442,0.550,0.664,0.882,0.979,-0.250,1.616,-0.618,0.722,0.675,-0.278,1.360,-0.576,0.294,1.606,0.588,-0.195,1.326,-0.553,1.214,-0.136,0.184,-0.755,1.593,0.033,1.225,-0.822,1.588,0.904,-0.462,0.744,0.958,0.555,0.710,-0.799,-0.025,-0.498,0.364,1.751,0.683,1.146,-0.027,0.684,0.337,0.297,-0.041,1.005,-0.780,-1.591,0.918,1.144,0.193,-0.484,1.526,-0.178,-0.214,0.217,0.419,-0.235,1.660,-0.999,1.293,0.312,1.038,0.428,0.236,0.807,0.712,0.980,-0.086,0.756,0.519,0.842,-1.763,0.420,0.688,0.132,-0.563,0.757,-0.453,0.868,-0.797,0.231,-0.166,0.607,0.731,1.164,-0.423,0.760,0.612,1.260,0.606,0.731,0.471,1.242,-0.005,-0.495,-0.052,1.026,0.364,0.930,0.318,-0.252,0.226,-0.071,1.875,0.688,0.621,-0.160,0.997,0.283,0.544,0.153,0.113,0.050,0.148,1.772,-0.720,1.382,-0.716,1.989,-0.748,1.352,0.087,0.576,0.707,0.782,0.893,0.176,1.294,-0.253,1.159,-0.142,0.386,-0.752,-0.057,-0.289,1.106,0.126,0.759,0.255,0.320,1.308,-0.136,0.153
-0.569,1.885,-1.739,3.293,-1.096,1.073,1.236,-0.036,0.291,-0.612,-1.380,0.535,1.001,-0.233,-0.353,0.430,-0.603,1.650,-0.871,1.339,-0.013,1.166,0.697,-0.265,1.257,0.489,-1.301,0.857,0.193,0.420,1.384,0.343,1.356,0.485,0.413,-0.470,0.024,0.735,0.504,0.922,-0.876,0.567,0.074,-0.595,0.670,0.843,0.329,0.766,1.074,1.020,-0.732,2.174,-0.974,0.937,0.735,-0.607,1.431,-0.807,-0.336,1.905,0.302,0.070,1.183,-0.416,1.356,-0.222,0.335,-0.773,1.744,-0.010,1.472,-0.723,1.771,0.705,-0.017,0.509,0.846,0.298,0.789,-1.819,-0.206,0.329,0.114,2.289,0.165,1.559,-0.156,0.244,0.638,0.185,0.017,1.012,-0.920,-1.654,1.442,0.913,0.561,-0.615,1.717,-0.022,-0.543,0.597,0.305,-0.048,0.477,-0.348,1.429,0.161,1.233,0.358,0.311,1.315,0.665,0.784,-0.397,0.895,0.266,0.683,-1.382,0.596,0.547,0.406,-0.436,0.944,-0.628,-0.048,-1.305,0.408,-0.354,0.389,1.275,1.201,-0.368,0.547,0.700,0.992,0.629,1.055,0.473,0.978,0.065,-0.101,-0.172,1.175,0.398,1.111,0.431,-0.295,-0.504,0.424,1.541,1.137,0.741,-0.051,0.851,0.270,0.422,0.136,0.325,-0.221,0.464,1.699,-0.545,1.365,-0.765,2.032,-0.803,0.902,0.042,0.874,0.415,0.808,1.020,0.364,1.319,-0.025,0.697,0.232,-0.078,0.266,-0.255,-0.182,1.131,0.102,0.659,0.461,0.486,1.260,-0.124,0.871
-0.766,2.098,-2.175,3.465,-1.354,0.804,1.234,0.188,-0.014,-0.605,-1.695,-0.019,1.438,0.035,-0.548,0.253,-0.752,1.377,-0.367,0.864,0.457,1.050,0.685,0.342,0.800,1.085,-1.170,0.274,0.413,0.538,1.328,0.687,1.143,0.141,0.564,-0.578,0.739,0.209,0.876,0.717,-1.047,0.273,0.235,-0.576,0.617,0.796,0.404,0.755,1.237,0.825,-0.036,1.730,-0.541,0.713,0.806,-0.329,1.015,-0.726,-0.215,1.874,0.580,0.095,1.286,-0.941,1.637,-0.257,1.087,-0.979,1.792,-0.191,1.842,-0.499,1.348,0.777,0.237,0.587,0.761,0.282,0.628,-1.636,-0.535,-0.352,0.375,1.818,0.303,1.174,-0.214,0.441,0.811,-0.032,0.163,1.286,-1.084,-1.376,1.212,1.176,0.220,-0.507,1.276,-0.076,-0.141,0.442,0.224,-0.413,1.038,-0.737,1.499,0.304,0.864,0.452,-0.244,1.121,0.422,0.868,-0.540,0.838,0.538,0.503,-1.982,0.852,0.666,0.420,-0.317,1.058,-0.790,-0.919,-1.573,0.364,0.128,0.369,1.237,0.872,-0.434,0.336,0.994,1.008,0.642,0.779,0.647,0.577,0.775,0.248,0.143,0.378,1.171,0.617,1.092,-0.726,-1.025,0.364,1.829,0.801,0.731,-0.575,1.179,0.038,0.841,0.280,0.461,-0.538,0.206,2.021,-0.937,1.750,-1.028,1.829,-1.004,0.196,0.550,0.891,0.525,0.908,0.764,0.317,1.196,-0.246,1.118,-0.054,0.196,-0.423,-0.505,-0.396,1.728,-0.079,0.412,1.139,0.234,0.829,0.059,0.303
-0.997,1.783,-1.381,2.944,-0.796,1.045,0.844,0.435,0.065,-0.934,-1.947,0.269,0.986,0.140,0.026,-1.194,-0.389,1.052,-0.076,0.399,0.498,1.502,0.409,0.358,0.671,1.183,-0.919,-0.660,1.616,-0.158,1.667,0.594,0.839,-0.500,0.464,-0.732,0.925,-0.140,1.118,0.395,-0.820,-0.066,0.095,-0.095,0.817,0.763,0.466,0.592,1.019,0.982,-0.122,1.664,-0.143,0.043,1.469,-0.957,1.664,-1.315,-0.120,2.037,0.455,0.357,1.214,-0.495,0.809,-0.174,0.642,-0.595,1.690,-0.144,1.852,-0.237,1.139,0.951,0.689,0.442,1.000,0.416,-0.053,-1.239,-0.881,-0.716,0.793,1.080,0.834,0.718,0.385,0.598,0.356,0.306,0.227,0.907,-0.733,-1.502,0.250,1.709,-0.064,-0.726,1.460,-0.101,-0.170,-0.159,0.249,-0.075,0.917,-0.790,1.410,0.079,1.380,0.148,-0.223,1.373,0.308,0.983,-0.796,1.237,0.443,0.489,-1.891,0.666,0.296,0.928,-0.645,1.541,-1.189,-1.705,-1.916,0.038,0.457,0.351,1.194,0.355,-0.512,0.402,0.729,1.233,0.680,0.813,0.523,0.277,1.399,-0.078,0.450,0.241,1.168,0.745,0.952,-0.562,-0.532,0.420,1.501,0.998,0.764,-0.187,1.036,0.195,1.225,0.136,0.308,-0.801,0.635,1.690,-0.311,1.356,-1.707,2.039,-1.284,0.534,0.309,0.997,0.061,1.149,0.607,0.298,1.125,-0.254,0.511,0.426,0.395,-0.182,0.300,-1.484,2.348,-0.555,0.459,0.753,0.426,0.869,0.324,0.363
-0.744,1.816,-1.553,2.707,-0.446,0.623,1.286,0.219,0.112,-1.157,-1.913,0.333,0.906,0.909,-0.032,-0.968,-0.855,1.777,-0.693,0.301,0.839,1.410,0.335,-0.021,1.135,0.659,-1.089,-0.153,1.005,-0.200,1.378,0.708,1.082,-0.490,0.729,-1.187,0.741,0.271,0.733,0.916,-1.462,0.077,-1.216,-0.169,0.916,0.421,0.897,0.434,1.148,1.312,0.006,1.714,-0.137,0.411,1.298,-0.960,1.875,-1.303,-0.455,2.141,0.287,0.176,1.416,-0.782,0.335,0.246,-0.306,-0.303,1.262,0.045,1.903,-0.130,0.914,1.755,0.134,0.369,1.220,0.457,0.183,-0.866,-0.646,-0.622,0.821,1.139,0.979,0.459,0.739,1.072,0.075,0.332,0.245,0.907,-0.491,-1.717,0.136,2.270,-0.536,-0.975,1.125,0.326,-0.264,-0.444,-0.188,0.131,0.915,-0.728,0.822,0.078,0.974,0.454,-0.230,1.539,0.352,1.109,-1.052,1.255,0.344,0.535,-1.793,0.396,0.353,0.757,-0.515,1.666,-1.086,-0.589,-1.747,0.026,0.320,0.036,1.909,0.055,-0.770,0.283,0.973,0.830,0.970,0.663,0.703,0.329,0.970,0.051,0.756,-0.124,1.407,0.323,1.027,-1.182,-0.414,0.356,1.620,0.801,0.435,-0.432,1.191,0.051,1.316,0.220,0.599,-0.593,0.945,1.284,0.144,0.920,-1.158,2.300,-1.317,0.380,-0.302,1.424,-0.078,0.879,0.720,0.576,0.915,-0.324,0.455,0.275,0.574,-0.162,0.401,-1.458,2.038,-0.110,0.197,0.949,0.089,1.185,0.251,0.170
-0.607,1.420,-1.393,2.434,-0.203,0.745,1.051,0.383,0.018,-1.609,-2.161,0.796,0.878,0.857,0.024,-0.780,-0.706,1.492,-0.503,-0.137,1.287,0.964,0.868,-0.277,1.173,1.034,-1.094,-0.122,1.139,-0.252,1.787,0.144,1.509,-0.631,1.088,-1.737,0.701,0.289,0.415,0.809,-1.437,-0.418,-1.211,0.531,0.574,0.421,0.801,0.616,0.745,1.372,0.063,1.784,-0.075,0.670,1.051,-0.556,1.844,-1.413,0.213,1.813,0.603,0.278,1.289,-0.305,-0.091,0.350,0.087,-0.514,1.946,-0.387,2.294,-0.226,1.118,1.571,-0.047,0.125,1.669,0.025,0.357,-1.277,-0.553,0.170,0.734,1.062,1.437,0.215,1.359,0.145,0.421,0.234,-0.249,0.543,-0.106,-1.800,-0.151,2.409,-0.536,-1.152,0.715,0.579,-0.689,-0.072,0.352,0.273,0.691,-0.711,0.727,-0.301,0.764,0.956,-0.454,1.653,0.177,0.681,-0.956,1.151,0.748,-0.045,-0.671,0.695,0.378,0.883,-0.249,1.376,-0.502,-0.514,-0.585,0.648,-0.376,0.478,1.647,-0.163,-0.758,0.151,1.301,0.690,1.093,1.000,0.386,0.529,0.530,0.344,0.792,-0.087,1.453,0.321,0.640,-1.309,-1.000,0.244,1.872,0.526,0.654,-0.232,0.829,0.428,1.296,0.093,0.801,-0.131,0.960,1.380,-0.102,0.386,-1.973,1.536,-0.910,-0.764,-0.157,1.135,0.397,0.289,1.128,0.547,0.936,-0.919,0.609,0.236,0.622,-0.818,0.313,-1.167,1.839,0.451,0.140,1.126,0.401,1.146,0.733,-0.064
-0.431,1.481,-1.284,2.535,-0.059,1.140,0.690,0.537,-0.464,-1.152,-3.088,0.172,1.120,1.080,0.384,-0.255,-0.491,1.343,-0.114,0.254,0.856,1.195,0.717,-0.364,1.133,1.107,-1.001,0.004,0.889,-0.364,2.055,0.140,1.539,-1.103,1.067,-2.733,1.024,0.324,0.322,1.341,-1.449,-0.249,-1.383,0.717,0.299,0.105,0.697,1.002,0.439,1.623,0.492,1.262,0.177,0.633,0.874,-0.050,1.508,-1.509,0.339,1.581,0.532,0.483,1.119,0.076,-0.312,0.971,-0.476,0.319,1.165,0.161,1.815,0.308,0.672,1.734,-0.194,0.494,1.393,0.167,0.216,-1.198,-0.069,0.463,0.669,1.030,1.426,0.255,1.238,-0.273,0.791,0.345,-0.181,0.212,0.288,-1.519,0.149,2.261,-0.388,-0.643,0.697,0.898,-1.171,-0.223,1.015,0.028,0.024,-0.680,0.590,0.349,0.857,0.943,-0.403,1.590,0.282,0.488,-1.053,0.676,0.922,-0.285,-0.342,0.500,0.329,0.780,-0.518,1.530,-0.986,0.070,-0.813,0.658,-0.356,0.819,1.144,0.261,-1.134,0.262,1.367,0.810,0.753,1.094,0.228,1.127,0.070,0.613,0.375,0.503,1.132,0.388,1.008,-0.645,-0.974,0.888,1.386,0.809,0.433,-0.574,0.985,0.092,1.177,-0.021,0.166,-0.196,0.660,1.313,-0.237,0.832,-1.056,0.823,-0.488,-1.528,0.139,0.677,0.234,0.712,0.605,0.633,0.628,-1.134,0.671,0.722,0.507,-0.323,0.605,-1.098,1.765,0.345,-0.383,1.518,0.410,0.535,1.241,-0.867
-0.477,1.159,-0.739,2.315,-0.051,0.878,0.807,-0.118,-1.353,-2.194,-2.831,0.053,0.774,1.035,0.463,-0.124,-0.294,1.497,-0.256,0.663,0.440,1.396,0.624,-0.531,1.098,1.048,-0.391,0.171,0.807,0.342,1.520,-0.179,1.548,-0.986,0.450,-3.451,1.087,0.131,0.920,0.521,-1.746,-0.259,-1.258,0.628,0.300,0.203,1.293,0.305,0.618,1.254,0.604,1.092,0.096,0.799,0.594,0.142,0.779,-1.286,-0.149,1.743,0.423,0.554,1.431,-0.542,-0.436,0.604,-0.257,0.331,1.097,-0.064,1.806,0.567,0.735,1.374,0.776,0.372,1.525,0.213,0.005,-0.294,0.054,0.267,0.710,1.216,1.392,0.373,1.069,0.097,0.920,0.147,0.085,0.025,0.601,-2.117,0.135,2.097,-0.241,-0.385,0.759,0.489,-1.243,-0.607,0.336,0.340,0.431,-0.149,-0.264,0.116,1.123,0.492,-0.102,1.363,0.490,0.031,-1.121,1.305,0.720,0.056,-0.228,0.892,-0.180,1.269,-0.855,1.449,-0.759,0.415,-0.745,1.045,-0.629,0.641,1.448,-0.086,-1.047,-0.099,1.447,0.902,0.388,1.539,-0.299,1.500,-0.064,0.322,0.804,0.537,0.953,0.613,1.165,-0.813,-0.698,1.031,1.526,0.436,0.811,-0.992,1.029,0.161,1.164,-0.008,0.064,0.034,0.657,1.070,0.359,0.663,-1.097,0.464,0.921,-2.181,0.227,0.558,0.013,0.973,0.569,0.434,0.757,-1.093,0.937,0.333,0.982,-0.401,0.562,-0.219,1.335,0.529,-0.865,1.033,0.527,0.669,0.967,-1.243
-0.868,1.298,-0.604,2.223,0.145,0.853,0.932,-0.204,-1.401,-2.172,-3.376,0.289,0.680,1.210,0.691,0.009,-0.080,1.583,-0.571,1.006,0.224,1.442,0.762,-0.759,1.283,1.016,-0.348,0.593,0.587,0.769,1.051,0.151,1.120,-0.630,0.414,-3.207,0.948,0.226,0.581,0.843,-1.833,0.206,-0.897,0.217,0.465,0.133,1.149,0.354,0.584,1.436,0.547,1.234,-0.001,0.834,0.473,-0.302,0.999,-1.307,-0.033,1.382,0.692,0.399,1.594,-0.780,-0.203,0.969,-0.898,0.541,1.040,-0.204,1.658,0.532,0.691,1.551,0.371,0.412,1.389,0.209,0.022,-0.750,0.004,0.384,0.799,1.221,1.045,0.596,0.746,0.178,0.754,-0.021,-0.095,0.314,0.474,-1.941,-0.076,2.143,-0.357,-0.508,0.754,0.652,-0.447,-1.311,0.711,0.424,0.528,-0.464,0.101,0.364,0.435,1.115,-0.090,1.164,0.847,-0.137,-1.020,1.127,0.782,0.188,-0.085,0.834,-0.521,1.201,-0.576,0.937,-0.301,0.564,-0.997,0.998,-1.080,0.389,1.328,-0.040,-1.638,-0.198,1.512,0.728,0.718,1.445,-0.454,1.080,-0.305,0.368,0.226,0.406,1.380,0.476,0.948,-0.647,-1.126,0.852,1.473,0.858,1.057,-1.280,0.949,-0.142,1.289,0.359,0.084,-0.036,0.740,1.252,-0.185,0.923,-1.519,0.922,0.543,-1.864,-0.574,0.884,-0.260,0.807,0.865,0.527,0.817,-1.403,0.966,0.791,0.486,0.176,0.403,-0.040,0.915,0.743,-0.075,1.046,0.242,0.719,0.792,-1.057
-0.349,1.128,-0.407,2.131,-0.107,0.638,1.086,-0.817,-0.854,-1.970,-3.455,0.583,0.643,1.032,0.746,-0.107,0.380,0.943,0.130,0.970,0.425,1.480,0.526,-0.418,1.346,0.861,-0.793,1.039,0.169,0.901,1.163,0.551,0.960,-0.656,0.546,-3.855,1.138,0.170,0.537,0.854,-1.113,0.191,-1.566,0.374,0.261,0.315,1.127,0.248,0.783,1.280,0.858,0.981,0.219,0.681,0.641,-0.340,1.337,-1.436,-0.084,1.127,0.795,0.276,1.556,-0.480,-0.237,0.863,-1.011,0.656,0.893,0.073,1.493,0.621,0.438,1.520,0.164,-0.123,1.713,-0.286,0.146,-1.342,0.576,0.633,0.356,1.700,0.573,0.878,0.538,0.235,0.654,-0.466,0.075,0.109,0.354,-1.678,0.301,2.125,-0.437,-1.002,0.897,0.554,-0.321,-1.397,0.668,0.575,0.542,-0.233,-0.110,0.434,1.098,0.611,-0.165,0.618,1.170,-0.013,-0.837,0.742,0.923,0.078,0.031,0.531,-0.337,1.126,-0.595,0.852,-0.144,0.582,-1.284,0.494,-0.745,-0.027,1.841,-0.337,-1.532,0.326,1.255,0.836,0.532,1.418,-0.320,1.237,-0.426,0.777,0.086,0.379,1.195,0.389,0.816,-1.436,-0.899,0.948,1.667,0.684,0.793,-1.649,0.814,0.174,1.306,-0.090,0.702,-0.532,0.526,1.296,-0.449,1.011,-1.522,0.652,0.134,-1.580,-0.469,0.493,-0.068,0.805,0.639,0.500,0.807,-1.668,0.515,1.026,-0.075,0.846,0.125,0.588,1.002,1.000,-0.339,0.740,0.102,0.143,1.312,-1.882
-0.247,0.498,-0.264,1.956,-0.014,0.795,1.158,-0.349,-1.186,-1.091,-3.416,0.597,0.976,0.411,0.968,-0.104,0.877,0.841,-0.070,1.237,0.364,1.662,0.550,-0.381,1.368,0.814,-0.554,0.938,0.390,1.264,0.971,0.336,0.937,-0.663,0.618,-3.453,0.485,0.681,0.684,0.353,-0.661,-1.052,-1.145,-0.139,0.729,-0.002,1.722,-0.156,0.383,1.544,0.245,1.293,-0.095,0.969,0.559,-0.590,0.705,-0.676,0.060,1.178,0.650,0.355,1.175,0.094,-0.532,1.023,-1.130,1.128,0.508,0.605,1.151,0.776,0.640,1.373,0.443,-0.192,1.983,-0.608,0.865,-1.119,0.569,0.003,0.690,1.447,0.627,0.794,0.635,-0.064,1.024,-0.421,0.319,0.357,0.045,-1.709,0.376,1.921,-0.434,-0.688,0.978,0.453,-0.682,-0.863,0.101,0.997,-0.287,0.966,-0.007,0.267,0.806,0.642,0.295,0.743,0.954,0.025,-0.575,0.409,1.284,-0.070,0.406,0.230,-0.003,0.898,0.071,0.584,-0.197,1.326,-1.525,0.544,-0.764,-0.082,2.295,-0.595,-0.571,0.378,1.237,0.768,0.503,1.325,-0.383,1.025,-0.484,0.827,0.063,0.701,1.000,0.360,0.785,-0.892,-0.208,0.312,2.037,0.700,0.853,-1.338,1.161,-0.145,1.424,0.309,0.606,0.042,0.335,1.462,-0.103,0.231,-1.126,0.856,0.300,-1.380,-0.627,0.389,0.145,0.302,1.045,0.254,0.989,-1.426,0.523,1.015,0.079,-0.210,0.118,0.654,1.196,0.651,0.558,0.681,0.272,0.203,1.708,-1.848
-0.134,1.012,-0.573,2.323,-0.208,0.914,0.926,-0.158,-1.617,-0.430,-2.223,0.108,1.208,0.185,0.990,-0.289,1.033,0.709,0.029,0.888,0.468,1.156,0.846,-0.360,0.967,1.130,-0.675,1.105,0.344,0.805,0.918,0.272,0.686,-0.792,0.912,-2.611,0.150,0.741,0.726,0.048,-0.215,-1.290,-1.325,-0.252,1.230,-0.102,1.831,-0.238,0.048,1.967,0.063,1.449,-0.436,0.740,0.716,-0.455,0.688,-1.021,0.095,1.393,0.718,0.181,1.304,0.292,-0.694,1.217,-1.022,1.101,0.424,0.347,1.439,0.155,1.214,1.250,0.563,-0.186,2.117,-0.566,0.130,-0.436,0.290,-0.396,0.502,1.701,0.382,1.049,0.769,-0.062,1.219,-0.233,-0.184,0.487,0.185,-1.812,0.231,1.964,-0.344,-0.654,1.075,0.584,0.015,-0.922,-0.183,1.133,-0.006,0.973,-0.177,0.503,0.654,0.629,0.930,-0.086,1.830,-0.685,-0.250,0.463,1.186,0.091,0.537,0.317,0.298,0.611,0.308,0.345,-0.052,1.080,-0.857,-0.209,-0.466,0.456,1.902,-0.375,-0.409,0.308,0.997,1.322,0.332,1.520,-0.532,0.520,0.366,0.662,0.123,1.133,0.431,1.273,0.471,-1.434,-0.353,0.511,1.509,0.888,0.497,-1.264,1.101,0.006,1.828,0.402,0.327,0.345,-0.075,1.538,-0.415,0.208,-1.637,1.087,-0.018,-1.405,-0.135,0.777,0.275,-0.019,1.587,-0.155,1.404,-1.179,0.851,0.766,0.253,-0.151,-0.011,0.305,1.521,0.510,0.857,0.505,0.060,0.228,1.363,-1.327
0.432,0.611,-0.061,1.939,0.055,0.939,0.855,-0.193,-1.274,-0.072,-2.484,0.351,0.722,0.384,0.540,-0.687,0.804,0.328,-0.581,1.482,0.100,1.669,0.702,-0.148,0.703,1.282,-0.729,0.582,0.624,0.507,1.303,0.309,0.772,-0.413,0.341,-2.026,0.036,0.678,0.799,-0.088,0.119,-1.211,-0.797,-0.015,0.938,0.254,1.301,-0.010,-0.116,1.851,-0.098,1.720,-0.906,1.098,0.587,-0.259,-0.006,-0.426,-0.789,2.100,0.208,0.801,0.544,0.908,-1.007,1.164,-1.135,1.121,0.532,0.107,2.001,-0.165,1.412,1.212,0.171,0.086,1.897,-0.751,0.272,-0.621,-0.072,-0.706,0.615,1.424,0.551,1.021,0.698,-0.036,1.133,-0.106,-0.271,0.951,-0.204,-2.011,0.324,2.003,-0.431,-0.717,1.626,0.018,0.518,-1.161,-0.164,0.940,0.178,0.839,0.001,0.574,0.605,0.809,0.743,0.177,1.509,-0.313,-0.613,0.875,1.010,0.495,0.282,-0.104,0.929,0.052,-0.252,0.962,-0.295,1.258,-0.719,-0.291,-0.932,-0.018,1.829,-0.382,-1.385,0.074,1.212,1.205,0.301,1.836,-0.625,0.972,0.067,-0.083,0.706,0.985,0.615,1.088,0.243,-0.983,-0.252,-0.112,1.663,0.504,0.968,-1.199,1.447,-0.309,1.922,0.047,0.710,0.061,-0.300,1.035,-0.095,-0.357,-1.652,0.530,0.301,-1.508,0.196,0.891,0.054,0.347,1.244,0.144,1.212,-1.338,0.735,0.659,-0.262,-0.309,-0.354,0.435,0.985,0.535,1.069,0.400,0.756,0.442,1.220,-1.019
0.628,0.915,-0.106,1.991,0.170,0.986,0.784,-0.137,-1.552,-0.778,-2.702,0.667,0.357,0.485,0.402,-0.116,1.094,0.415,-0.517,1.321,0.139,1.486,0.807,-0.119,0.711,1.287,-0.538,0.559,0.586,0.270,1.499,0.231,1.004,-0.425,0.469,-1.841,0.246,0.213,1.326,-0.552,-0.450,-0.868,-1.064,0.013,0.878,0.080,1.193,-0.045,0.013,1.633,0.110,1.419,-0.659,1.353,0.247,0.154,0.032,-0.922,-0.601,1.770,0.508,0.679,0.741,0.756,-0.696,0.548,-1.030,1.355,0.271,0.581,1.611,-0.250,1.663,0.863,0.354,0.079,1.778,-0.846,0.045,-0.089,0.251,-0.859,0.830,1.060,0.722,0.854,0.966,-0.153,1.066,-0.039,-0.853,1.482,-0.661,-1.158,0.210,1.791,-0.409,-1.303,1.860,0.037,0.295,-0.965,-0.663,0.745,0.229,0.858,-0.216,0.680,0.560,0.314,0.442,0.482,1.040,0.317,-1.095,1.204,0.753,0.464,0.638,-0.274,1.063,-0.067,0.079,0.882,-0.220,1.890,-1.099,-0.300,-0.896,-0.400,2.338,-0.581,-1.167,0.545,1.058,1.053,0.546,1.557,-0.523,0.978,-0.029,-0.345,1.019,0.807,0.843,0.989,-0.068,-0.206,-0.210,0.126,1.399,0.392,0.716,-1.901,1.525,-0.350,2.185,-0.150,0.589,-0.361,-0.187,0.846,0.254,0.307,-1.303,0.314,0.942,-1.585,0.254,0.905,0.223,0.539,1.175,0.469,1.177,-1.873,0.997,0.606,-0.018,-0.552,-0.267,0.297,1.365,0.241,0.715,0.402,0.876,0.240,1.286,-1.858
0.888,0.674,-0.071,2.087,-0.066,1.152,0.787,0.358,-1.698,-1.400,-2.337,0.283,0.638,0.895,0.174,0.007,1.098,0.718,-0.924,1.700,-0.053,1.513,0.882,-0.154,0.743,1.479,-0.788,0.406,0.275,0.137,1.615,0.062,0.935,0.035,-0.479,-1.051,0.303,0.285,1.446,0.107,-0.105,-0.627,-1.201,0.219,0.974,-0.164,1.302,0.076,-0.332,1.833,0.233,1.107,-0.333,0.983,0.368,0.413,-0.376,-0.600,-0.739,1.714,0.671,0.534,0.398,0.876,-1.050,0.390,-0.836,1.151,0.266,0.599,1.528,-0.083,1.753,1.096,0.380,0.325,1.370,-0.434,0.202,-0.035,0.363,-0.625,0.521,1.291,0.502,1.097,0.608,-0.658,0.692,0.381,-0.158,1.391,-0.471,-0.768,-0.039,1.598,-0.455,-0.966,1.913,-0.273,0.789,-1.863,-0.659,0.253,0.571,0.437,-0.204,0.727,0.619,0.056,0.197,0.539,1.300,0.004,-0.839,1.169,1.145,0.212,0.992,-0.591,1.032,0.050,-0.078,1.118,0.051,1.484,-1.365,0.097,-0.660,0.239,1.821,-0.436,-0.517,0.416,1.365,0.656,0.932,1.181,-0.249,1.005,-0.208,-0.364,1.431,0.679,0.774,1.051,-0.486,-0.708,0.052,0.160,1.669,0.286,1.120,-1.842,1.221,-0.057,1.893,-0.066,1.012,-0.817,0.162,0.744,0.301,0.760,-1.291,0.165,1.076,-1.558,-0.058,1.039,0.312,0.555,0.974,0.546,0.723,-1.836,1.070,0.417,-0.076,-0.091,-0.002,-0.642,2.268,-0.415,1.142,0.400,0.221,0.677,0.698,-1.961
1.038,0.554,-0.050,2.150,-0.099,0.951,0.899,-0.255,-1.923,-1.463,-2.066,0.352,0.932,0.947,0.330,-0.180,1.088,0.845,-0.611,1.726,0.060,1.141,1.096,0.062,0.460,1.649,-1.295,0.533,0.549,-0.153,1.736,0.347,0.668,0.290,0.244,-0.804,0.183,0.497,1.356,-0.250,-0.375,-1.231,-1.179,0.249,0.908,0.182,1.474,0.048,0.314,1.224,0.976,0.785,-0.114,0.985,0.373,0.315,-0.004,-1.051,-0.508,1.713,0.573,0.296,0.840,0.408,-0.608,-0.193,-0.739,1.674,-0.011,0.693,1.233,0.262,1.550,1.552,0.052,0.099,1.563,0.059,-0.093,0.199,0.587,-0.782,1.257,0.784,0.936,1.298,0.395,-0.929,0.466,0.663,-0.331,1.205,-0.299,-0.264,0.128,1.205,-0.491,-0.922,1.651,0.049,0.619,-1.283,-0.313,0.571,0.792,0.526,-0.317,0.657,0.248,0.083,-0.080,0.739,1.107,0.122,-0.989,1.458,0.584,0.616,0.870,-0.678,0.734,0.341,0.133,0.851,-0.008,1.051,-0.635,0.310,-1.320,-0.103,1.970,-0.767,-0.326,0.089,1.538,0.566,0.959,0.873,0.403,0.863,-0.996,-0.709,1.423,0.823,0.727,1.180,-0.635,-0.213,0.155,-0.568,2.105,0.187,0.708,-1.324,1.425,-0.084,2.000,-0.249,1.095,-0.629,0.561,0.829,-0.121,1.261,-1.158,0.061,1.017,-1.906,0.234,0.933,0.571,0.566,1.029,0.567,0.886,-1.565,0.995,0.256,0.783,-1.171,-0.317,-0.486,2.177,-0.235,0.875,0.796,0.117,0.388,1.173,-1.633
1.113,0.489,-0.053,1.964,0.331,0.740,1.178,-0.234,-2.439,-2.065,-1.468,0.951,0.540,1.447,0.079,0.042,0.781,0.824,-0.324,1.604,0.083,1.297,0.808,0.773,0.210,1.764,-1.481,1.091,-0.021,-0.041,1.538,0.471,0.570,0.282,0.407,-1.078,-0.004,0.690,1.259,-0.015,-0.539,-1.133,-1.082,0.155,0.835,-0.057,1.655,-0.122,0.273,1.005,1.143,0.736,-0.627,1.148,0.382,0.310,0.397,-1.389,-0.257,1.521,0.594,0.195,0.878,0.031,-0.296,-0.239,-0.644,1.413,-0.091,1.132,0.804,0.310,1.602,1.290,-0.060,0.047,1.176,0.002,0.126,-0.218,1.021,-1.212,1.385,0.926,0.624,1.638,-0.054,-1.408,0.663,0.562,-0.162,1.110,-0.143,0.081,-0.031,1.660,-0.750,-1.336,1.739,0.180,0.267,-0.625,-0.930,0.806,0.667,0.864,-0.156,0.156,-0.013,-0.193,0.031,0.376,1.303,-0.032,-0.868,1.563,0.685,0.722,0.770,-0.502,0.838,0.364,-0.128,1.126,-0.328,0.738,-0.463,0.294,-1.584,-0.448,1.997,-0.430,-0.992,0.065,1.498,0.397,0.895,0.512,0.501,0.174,-0.873,-0.783,1.220,0.854,0.859,0.859,0.042,-0.190,0.100,-0.278,1.999,-0.022,0.398,-0.737,0.748,0.426,1.528,-0.131,1.163,-0.893,0.317,0.963,0.004,1.277,-1.829,0.785,0.603,-2.454,0.653,1.002,0.820,0.723,0.845,0.801,0.521,-1.353,0.832,0.217,1.138,-0.836,-0.355,-0.200,1.658,-0.018,0.983,0.816,0.312,0.113,1.036,-1.011
0.845,0.825,-0.278,2.188,-0.098,1.306,0.520,-0.051,-2.215,-1.914,-1.768,1.197,0.166,1.989,-1.000,0.537,0.352,1.790,-0.471,1.759,0.220,1.581,0.704,0.486,0.097,1.991,-1.638,1.140,-0.341,0.044,1.361,0.498,0.130,0.996,-0.030,-1.163,0.437,0.443,1.526,-0.269,-0.692,-1.575,-0.565,-0.468,1.436,-0.707,2.252,-0.711,0.349,0.907,1.013,1.074,-0.880,1.619,0.152,0.602,-0.026,-0.962,-0.198,1.763,0.234,0.383,0.941,0.172,-0.144,-0.187,-0.152,1.283,0.180,1.220,0.789,-0.023,1.634,1.491,-0.416,-0.070,1.132,-0.063,0.586,-0.171,1.083,-1.060,1.357,1.301,0.616,1.611,-0.038,-1.048,0.557,0.668,-0.024,0.747,0.314,-0.090,0.198,1.332,-0.549,-1.487,1.390,0.361,0.233,-0.178,-0.565,0.890,0.553,1.015,-0.028,0.453,-0.339,-0.460,0.511,0.411,1.199,0.185,-1.164,1.665,0.253,0.641,0.618,-0.309,1.075,0.061,0.143,1.118,-0.058,0.398,-0.503,0.011,-1.909,-0.051,1.951,-0.539,-1.468,0.277,1.252,0.500,0.605,0.479,0.557,-0.047,-1.106,-0.661,0.714,0.903,0.730,1.018,-0.033,-0.750,0.193,-0.561,2.350,-0.131,0.204,-0.612,0.839,0.686,1.157,-0.189,0.879,-0.870,0.178,0.837,0.512,0.779,-1.809,1.161,0.453,-2.267,0.797,0.616,0.916,0.787,0.906,0.756,0.533,-1.345,0.757,0.097,0.867,-1.071,0.020,-0.382,1.928,-0.274,0.975,0.793,0.795,-0.141,1.083,-1.262
0.661,1.069,-0.172,1.962,0.131,1.517,0.419,0.602,-1.790,-1.369,-1.645,1.642,-0.267,2.168,-1.030,0.620,0.484,1.544,-0.053,1.437,0.639,1.000,0.996,0.315,0.738,1.237,-1.645,0.888,-0.359,0.422,0.846,0.890,-0.089,0.894,0.150,-1.137,0.038,0.383,1.253,-0.390,0.043,-1.099,-0.905,-0.761,1.465,-0.557,2.100,-0.544,0.290,1.215,0.519,1.265,-1.018,1.455,0.277,0.938,0.029,-1.112,0.129,1.406,0.688,0.236,1.083,0.345,0.241,0.254,-0.258,1.039,0.599,0.908,0.884,-0.189,1.564,1.755,-0.365,-0.165,1.092,-0.138,0.339,-0.284,0.595,-0.639,1.471,1.145,0.835,1.383,0.432,-1.515,0.558,0.588,-0.261,0.626,0.481,-0.042,0.332,1.246,-0.673,-1.230,1.553,0.315,0.270,-0.042,-0.778,1.124,0.761,0.690,-0.083,0.617,-0.352,-0.212,0.399,0.076,1.713,-0.249,-0.725,0.844,1.037,0.382,0.856,-0.557,1.372,-0.243,0.269,0.801,0.055,0.279,-0.260,0.141,-1.892,-0.384,2.113,-0.711,-0.823,0.409,1.246,0.355,0.681,0.378,1.049,-0.526,-0.586,-1.242,0.543,1.280,0.303,1.294,-1.025,-0.087,-0.604,-0.286,2.197,-0.139,0.674,-0.638,1.022,0.820,0.794,-0.288,0.836,-0.554,0.216,0.404,0.816,0.800,-1.822,0.661,0.534,-2.116,0.191,0.929,0.670,0.968,0.733,0.337,0.869,-0.619,0.600,0.168,0.535,-0.635,-0.508,-0.440,2.030,0.049,0.465,0.752,0.557,-0.175,0.838,-0.360
0.554,0.759,-0.562,1.705,0.055,1.471,0.290,0.113,-2.040,-1.529,-1.119,1.189,0.297,1.464,-0.642,0.430,0.701,1.216,0.192,1.315,0.572,1.404,0.654,0.387,1.058,0.996,-0.907,0.802,-0.277,0.814,0.725,0.931,0.311,1.002,0.009,-1.261,0.372,0.239,1.174,-0.237,0.692,-1.451,-0.145,-0.662,1.018,-0.503,2.060,-0.482,1.043,0.851,0.963,0.972,-0.772,1.363,0.446,0.492,0.446,-1.279,-0.254,1.685,0.741,0.353,0.943,0.421,0.005,0.365,-0.355,0.893,0.615,0.675,0.925,-0.623,1.412,1.872,-0.533,0.249,0.717,0.271,0.333,-0.847,0.338,-1.221,1.671,1.155,0.895,1.084,0.563,-1.792,0.742,0.506,0.013,0.800,0.335,-0.482,0.264,0.874,-0.589,-0.311,1.076,0.679,0.288,0.423,-0.814,0.611,1.208,0.177,0.465,0.736,-0.289,-0.221,0.819,-0.692,1.839,-0.435,-0.883,1.047,0.814,0.635,0.604,-0.681,1.315,-0.351,0.130,0.833,-0.095,0.541,0.176,0.049,-1.771,-0.700,2.287,-0.446,-0.808,0.123,1.348,0.327,1.008,0.719,0.492,-0.154,-0.702,-1.162,0.346,1.201,0.181,1.875,-1.057,0.728,-0.318,0.224,1.837,-0.085,1.045,-0.525,1.130,0.885,0.966,0.286,0.689,-0.332,-0.021,0.663,0.869,0.479,-1.905,0.461,1.041,-2.268,0.078,0.939,0.849,0.824,0.931,0.472,0.668,-1.284,0.539,0.852,0.989,-0.245,-0.155,0.231,1.987,0.131,0.564,0.138,0.662,-0.038,0.678,0.311
0.428,1.153,-0.872,1.939,-0.169,1.422,0.577,-0.820,-1.433,-1.455,-0.791,1.288,0.493,1.204,-0.318,0.302,0.674,1.315,0.527,0.853,0.608,1.562,0.416,0.559,0.636,1.577,-1.346,0.472,-0.599,1.410,0.394,0.923,0.451,1.111,0.089,-1.437,0.406,0.413,0.988,0.357,0.508,-1.249,-0.440,-1.039,1.704,-0.840,1.947,-0.427,1.406,0.570,1.096,0.716,-0.921,1.760,0.364,0.473,0.531,-0.978,-0.247,1.583,0.751,0.410,1.251,0.219,0.361,0.063,-0.348,0.761,0.552,0.647,1.028,-0.364,1.045,2.340,-0.714,0.031,0.813,0.882,-0.533,-0.916,0.685,-1.300,1.909,1.059,0.903,1.163,0.707,-1.510,0.937,0.341,-0.144,1.100,0.110,-0.459,0.325,0.791,-0.436,-0.244,1.418,0.249,0.518,0.450,-0.619,0.636,1.383,0.193,0.328,0.854,-0.621,0.195,0.398,-0.217,1.465,-0.146,-0.943,1.274,0.847,0.537,0.779,-0.546,1.531,-0.980,0.487,0.537,0.113,0.045,0.594,-0.243,-1.959,-0.216,1.743,-0.227,-0.472,0.660,1.378,0.520,1.007,0.704,0.062,0.024,0.202,-1.297,0.267,1.199,0.146,1.776,-1.021,0.704,-0.593,-0.283,2.102,-0.179,1.189,-0.622,1.474,0.593,1.067,0.063,0.724,-0.921,0.573,0.487,0.740,0.693,-2.039,0.418,0.785,-2.142,-0.113,0.801,0.766,0.689,1.309,0.324,0.799,-1.591,0.701,0.638,1.191,-0.059,0.227,0.148,2.052,-0.038,0.566,0.408,0.612,-0.292,0.466,0.582
0.170,1.236,-0.186,1.437,0.393,1.177,0.587,-1.025,-0.508,-1.572,-0.538,0.743,1.225,0.798,-0.109,0.801,0.286,1.842,-0.056,0.806,0.703,1.432,0.459,0.287,0.998,1.382,-0.744,0.387,-0.216,1.260,0.684,0.746,0.232,1.301,0.166,-1.952,0.106,0.431,0.673,0.362,0.762,-1.301,-0.366,-1.235,1.561,-0.713,1.675,-0.421,1.067,0.321,1.086,0.739,-0.760,1.848,0.222,0.255,-0.078,-1.210,-0.598,1.634,0.894,0.242,1.676,-0.001,-0.351,0.562,0.302,0.345,0.701,0.709,0.796,0.084,0.674,2.425,-0.528,0.148,0.758,0.064,0.248,-1.088,0.678,-1.147,1.699,1.012,0.621,1.313,0.506,-1.988,1.131,0.054,-0.199,1.133,0.317,-0.694,0.408,0.385,-0.006,-0.364,1.210,0.007,0.810,0.140,-0.142,0.664,1.162,0.149,0.818,0.910,-1.552,0.418,-0.035,-0.417,1.755,-0.094,-1.049,1.803,0.348,0.876,0.471,-0.306,1.497,-0.962,0.467,0.693,-0.287,0.497,0.278,0.033,-2.392,-0.517,1.736,0.060,-0.429,0.893,1.012,0.679,0.972,0.507,0.079,0.768,-0.320,-0.486,0.070,1.237,0.287,1.624,-0.835,0.799,-0.665,0.288,2.136,-0.398,1.246,-0.531,1.449,0.511,1.174,0.022,0.516,-0.814,0.629,0.707,0.818,0.906,-1.695,0.183,0.893,-1.615,-0.258,0.803,0.775,0.377,1.689,0.000,0.631,-2.301,0.932,0.494,1.539,-0.171,0.415,0.556,1.464,-0.209,0.396,0.248,0.984,-0.488,0.781,0.137
-0.192,1.655,-0.466,1.384,0.823,0.505,1.448,-0.794,-1.719,-1.225,-0.952,0.965,1.006,0.845,-0.080,0.834,0.337,1.539,-0.117,1.009,0.240,1.809,-0.063,0.457,0.779,1.565,-0.720,0.538,-0.269,0.886,1.027,0.510,-0.044,1.325,0.118,-1.381,0.035,0.442,0.517,0.650,0.344,-1.244,-0.341,-0.574,1.535,-0.768,1.497,-0.088,0.910,0.712,1.289,0.374,-0.870,1.728,0.256,0.189,0.199,-1.535,-0.604,1.439,1.021,0.106,1.710,-0.332,-0.507,0.442,0.236,0.502,0.891,0.710,0.676,0.386,0.416,2.561,-0.877,0.260,0.510,0.246,0.141,-1.079,0.373,-0.821,1.088,1.179,0.479,1.526,0.272,-2.050,1.076,0.305,-1.064,1.273,0.395,-0.979,0.865,0.054,0.440,-0.231,1.313,-0.096,1.109,-0.926,-0.447,0.476,1.277,0.282,0.342,1.029,-1.744,0.468,-0.464,-0.662,2.144,-0.356,-1.254,1.977,0.062,1.051,0.285,0.066,1.143,-0.508,0.095,0.854,-0.135,0.572,0.440,-0.004,-1.970,-0.364,2.014,-0.108,-0.785,0.764,1.019,0.502,0.892,0.954,-0.352,0.264,-0.977,0.071,0.099,1.092,0.338,1.640,-0.561,-0.140,0.038,0.069,2.219,-0.526,1.191,-0.321,1.291,0.797,0.806,0.530,0.560,-0.623,0.672,0.855,0.359,0.676,-2.274,1.074,0.434,-1.630,-0.377,0.635,0.767,0.349,1.769,-0.194,0.421,-1.689,0.721,0.247,1.633,-0.105,0.868,0.394,1.370,0.432,-0.303,0.461,1.111,-0.057,0.082,1.085
-0.342,1.469,-0.411,1.386,0.748,0.392,1.476,-1.200,-1.824,-0.323,-1.555,0.782,1.296,0.174,0.015,0.766,0.240,1.636,-0.322,1.305,0.122,2.085,-0.475,0.671,0.582,1.937,-0.193,-0.511,0.372,0.883,0.977,0.708,0.471,0.789,0.275,-1.179,-0.053,0.492,0.594,0.403,0.302,-0.717,0.058,-0.653,1.187,-0.952,1.405,-0.151,0.975,0.803,1.089,0.294,-0.905,1.156,0.703,-0.568,0.754,-1.567,-0.260,1.175,1.136,0.122,1.606,-0.187,-1.219,0.708,0.103,0.144,0.750,0.603,0.812,0.103,0.608,2.721,-0.877,0.401,0.337,0.736,0.418,-0.617,0.133,-0.582,1.273,0.937,0.566,1.271,0.486,-2.104,0.722,0.572,-0.901,0.828,0.543,-0.443,0.654,-0.156,0.516,-0.126,1.268,0.191,1.006,-0.188,-0.851,0.847,1.067,0.573,0.557,0.468,-0.851,0.810,-0.412,-0.214,1.600,-0.038,-0.867,1.744,0.469,0.551,-0.153,-0.102,0.906,0.027,0.061,0.506,0.108,0.833,-0.316,0.366,-0.876,-0.524,2.166,-0.190,-0.748,0.528,1.225,0.441,1.089,0.910,-0.379,0.484,-0.908,0.337,0.261,1.162,-0.020,1.868,-0.965,-0.092,0.469,0.043,2.043,-0.398,0.919,-0.276,1.214,0.941,0.816,0.810,0.545,-1.073,0.683,0.667,0.535,0.310,-2.612,0.808,0.739,-1.922,-0.140,0.580,0.755,0.223,1.759,-0.281,0.498,-1.862,0.357,0.564,1.608,-0.017,0.417,0.558,1.384,0.391,-0.993,0.223,1.146,0.171,-0.273,0.856
-0.425,1.454,-0.594,1.521,0.764,0.689,1.170,-1.271,-0.389,-0.856,-1.078,1.383,0.962,0.697,-0.664,1.591,0.040,1.587,-0.419,1.287,0.480,1.748,-0.494,0.298,0.322,2.026,-0.063,-0.532,0.119,0.598,1.379,0.741,0.942,0.896,-0.002,-0.256,0.049,0.370,0.664,0.835,0.319,-0.634,0.219,-0.427,1.030,-0.510,1.087,-0.020,0.734,0.604,1.396,0.390,-1.932,1.308,0.630,-0.182,0.641,-1.203,-0.440,1.379,0.907,0.433,1.562,0.043,-1.970,1.250,-0.328,-0.050,0.731,1.084,0.411,0.084,0.237,2.762,-1.043,0.142,0.298,0.465,0.399,0.551,-0.210,-0.646,1.436,0.615,0.495,1.481,0.119,-2.291,1.638,-0.581,-0.320,0.705,0.776,-0.199,0.553,-0.187,0.549,-0.073,1.453,0.210,0.691,0.302,-1.045,0.891,0.801,0.712,0.170,0.043,-0.609,0.512,-0.311,0.122,1.031,0.718,-0.783,1.598,0.522,0.642,0.071,0.613,0.663,0.466,-0.406,0.590,-0.012,0.615,-0.268,0.121,-1.061,-0.501,2.090,-0.547,-0.484,0.505,1.239,0.730,0.980,0.860,-0.552,0.864,-1.156,0.155,0.190,1.178,-0.133,1.631,-0.680,-0.153,0.518,0.074,1.950,-0.350,1.218,-0.290,1.451,0.884,1.120,0.431,1.186,-0.906,0.619,0.885,0.539,0.372,-2.479,0.671,1.262,-1.532,0.169,0.359,0.863,0.151,1.749,-0.158,0.202,-1.602,0.028,1.000,1.115,0.150,0.055,0.951,1.423,0.190,-1.037,0.677,0.877,0.453,-0.000,0.933
-0.348,1.296,-0.355,1.699,0.409,0.972,0.717,-0.676,-0.392,-1.494,-1.396,1.457,0.854,0.470,-0.275,1.731,0.262,1.507,-0.648,1.634,0.201,2.035,-0.450,0.331,0.134,1.983,-0.143,-0.957,0.517,0.264,1.561,0.265,1.120,0.765,-0.618,0.598,-0.494,0.840,0.329,1.225,0.260,-0.353,0.292,-0.345,0.726,-0.225,0.841,0.366,0.579,0.856,1.056,0.523,-1.752,1.299,0.530,-0.008,0.692,-0.339,-0.833,1.721,0.643,0.462,1.564,-0.245,-1.446,0.739,-0.661,-0.309,0.352,1.480,-0.292,0.079,0.045,2.864,-1.385,0.561,-0.036,0.344,0.400,0.663,-0.392,-0.623,1.423,0.611,0.403,1.731,0.168,-2.005,1.274,0.110,-0.694,0.734,0.586,-0.110,0.784,-0.019,0.229,-0.158,1.472,0.287,0.420,0.881,-1.155,1.317,0.128,0.615,0.330,0.456,-0.283,0.650,-0.480,0.695,0.870,0.885,-1.294,2.110,0.211,0.936,-0.170,1.378,0.066,0.702,-0.389,0.698,-0.096,0.409,-1.155,0.386,-1.142,-0.531,2.316,-0.637,0.023,0.124,1.497,0.278,1.567,0.326,-0.366,0.813,-0.224,0.313,-0.141,1.255,0.015,0.966,-1.147,-0.414,1.488,-0.248,2.188,-0.539,1.120,-0.465,1.338,0.830,1.024,0.731,0.719,-0.556,0.515,0.807,0.197,0.276,-2.811,1.153,0.888,-0.934,0.135,-0.145,1.040,-0.514,2.394,-0.568,-0.112,-0.949,0.267,0.679,1.453,-0.044,0.343,1.370,0.894,1.019,-0.639,0.587,0.927,0.557,0.196,0.116
0.119,1.155,-0.441,1.828,0.570,0.831,1.118,-0.739,0.276,-1.270,-1.140,1.353,0.814,0.562,-1.076,2.101,-0.146,1.379,-0.070,1.319,0.176,2.047,-0.422,0.828,-0.521,2.673,-0.679,-1.131,-0.269,1.044,1.162,0.170,0.844,0.716,-0.887,1.158,-0.612,0.698,0.425,1.206,0.341,0.236,-0.272,-0.156,0.134,0.182,0.407,0.813,0.252,1.149,0.424,0.940,-1.841,1.650,0.181,0.380,0.501,-0.039,-0.985,1.785,0.451,0.537,1.713,-0.468,-1.884,1.125,-1.441,0.028,0.611,1.086,0.381,0.193,0.207,2.806,-1.394,0.579,0.416,0.187,0.658,0.039,-0.453,-0.555,1.463,0.561,0.391,1.717,0.053,-1.835,1.594,-0.162,-0.560,0.681,0.583,-0.427,1.209,-0.473,0.317,-0.478,1.767,0.325,0.299,1.041,-1.114,1.081,0.021,0.545,-0.001,1.181,-0.594,1.136,-0.726,0.753,0.819,0.699,-1.174,1.537,0.981,0.087,0.100,1.025,0.271,0.675,-0.599,0.987,-0.270,-0.035,-1.277,0.274,-0.839,-1.179,2.321,-0.601,0.533,-0.007,1.538,-0.206,1.728,0.030,-0.010,0.704,-0.577,0.407,-0.305,1.039,0.191,0.567,-1.133,0.289,0.714,-0.001,1.718,-0.082,1.071,-0.435,1.168,0.928,0.783,1.126,-0.018,-0.912,-0.045,1.367,-0.191,0.614,-2.534,1.127,0.718,-0.400,-0.693,0.260,0.863,-0.850,2.590,-0.619,-0.443,-0.451,0.546,0.812,1.450,-0.054,0.092,1.233,0.883,1.353,-1.225,0.838,0.554,0.414,0.241,0.211
-0.016,1.087,-0.308,1.795,0.445,0.952,1.136,-0.749,-0.026,-1.846,-0.966,0.896,1.425,0.206,-1.137,1.850,0.101,1.099,0.228,1.122,0.269,2.024,-0.678,0.898,-0.402,2.299,-0.404,-1.002,-0.568,1.239,1.186,0.164,1.305,0.428,-1.231,1.411,-0.586,0.852,0.509,0.988,0.239,0.281,-0.011,0.007,0.620,-0.086,0.308,0.943,0.722,0.917,0.674,0.482,-1.388,1.588,0.028,0.506,0.257,0.165,-0.836,1.754,0.756,0.699,1.564,-0.353,-2.099,0.536,-1.325,0.280,0.502,1.129,0.469,0.027,0.424,2.494,-1.266,1.079,0.379,0.443,0.344,0.376,-0.536,-0.164,1.002,0.941,0.491,1.464,0.251,-1.997,1.438,-0.426,-0.644,1.051,0.046,-0.407,0.815,-0.594,0.770,-0.487,1.516,0.323,0.325,0.977,-1.126,1.076,-0.118,0.344,0.599,0.857,-0.698,0.928,-0.714,0.823,0.795,0.749,-0.811,1.568,0.695,0.218,-0.294,1.135,0.199,0.325,-0.434,0.816,0.285,0.481,-1.217,-0.411,-0.531,-0.781,2.348,-0.518,0.829,0.048,1.454,-0.215,1.932,-0.257,-0.034,0.737,-0.361,0.486,-0.276,0.780,0.724,-0.120,-0.994,0.334,0.646,0.060,1.336,0.663,0.807,-0.023,1.229,0.957,0.754,1.378,-0.050,-0.631,-0.055,1.215,0.321,0.265,-2.556,1.558,0.635,-0.254,-0.596,0.513,1.051,-0.786,2.646,-0.610,-0.202,-0.221,0.572,0.967,1.034,0.527,-0.099,1.332,0.967,1.276,-0.532,0.183,0.719,0.302,0.312,0.483
-0.084,0.816,-0.004,1.483,0.808,0.808,1.403,-0.707,0.348,-1.079,-1.160,0.703,1.510,-0.212,-0.722,2.092,0.151,0.846,0.313,0.808,0.676,1.668,-0.025,-0.048,0.419,1.626,0.028,-0.948,-0.876,1.200,1.306,-0.093,1.179,0.624,-1.229,1.497,-0.309,0.809,0.614,0.748,0.431,-0.145,0.137,-0.223,0.834,-0.337,0.212,0.806,0.657,1.145,0.652,0.142,-1.295,1.257,0.065,0.422,0.185,0.036,-0.959,1.385,1.077,0.176,1.911,-0.775,-1.634,0.188,-1.680,0.177,0.865,0.751,0.814,0.051,0.498,2.042,-1.023,0.787,0.719,0.545,0.168,0.451,-0.804,-0.066,0.969,1.129,0.529,1.526,-0.092,-1.725,1.578,-0.733,-0.512,0.840,0.659,-0.215,0.306,0.085,0.516,-0.817,1.788,0.122,0.727,0.811,-0.458,0.793,-0.119,-0.081,0.972,0.748,0.225,0.536,-0.580,0.837,0.806,0.676,-0.424,1.110,1.097,0.164,-0.199,1.336,-0.026,0.491,-0.477,0.549,0.038,-0.385,-0.485,-1.293,0.087,-0.645,2.372,-0.942,0.857,-0.168,1.404,-0.071,1.643,-0.468,0.056,0.278,-0.197,0.778,-0.937,1.173,0.440,0.292,-1.012,0.213,1.119,0.155,1.184,0.918,0.815,0.165,1.103,0.995,0.874,1.349,0.283,-0.271,-0.346,1.726,-0.116,0.421,-2.644,1.585,0.615,0.146,-0.391,0.991,0.799,-0.306,2.213,-0.211,0.114,0.013,0.859,0.672,0.879,1.056,-0.076,0.722,1.216,0.868,-0.414,-0.013,0.866,0.349,0.434,0.191
0.119,0.523,0.041,0.929,1.277,0.336,1.804,-0.921,1.101,-1.592,-0.862,0.305,1.845,-0.439,-0.363,1.926,0.186,0.397,0.584,0.597,0.834,1.449,0.106,-0.550,0.875,1.279,0.278,-0.388,-1.269,1.308,1.039,-0.158,1.209,0.840,-1.138,0.518,-0.030,1.104,0.242,0.962,0.404,0.280,0.532,-0.403,1.460,-0.402,0.016,1.117,0.236,1.478,-0.052,0.931,-1.630,1.057,0.338,0.508,0.235,-0.047,-0.915,1.319,1.054,0.105,1.850,-0.592,-2.154,-0.402,-1.567,0.096,1.204,0.519,0.983,-0.059,0.601,1.684,-1.015,0.871,0.730,0.355,0.258,0.509,-1.319,0.232,0.859,1.090,0.328,1.593,-0.492,-1.277,0.940,-0.119,-0.565,0.998,0.246,0.484,0.090,-0.065,0.703,-1.319,2.642,-0.619,1.195,0.170,-0.247,1.077,0.149,-0.222,1.318,0.539,-0.057,0.491,-0.578,1.178,0.718,0.597,-0.102,1.056,0.966,0.454,-0.106,1.031,0.252,0.210,-0.152,0.577,0.119,-0.790,-0.523,-1.537,0.167,-0.534,2.004,-0.707,0.826,-0.016,1.367,0.267,1.359,0.092,-0.606,0.989,-0.167,0.843,-0.624,1.292,0.332,0.246,-0.534,-0.252,0.476,-0.111,1.601,0.875,0.867,-0.014,1.119,0.884,0.594,1.631,0.145,0.141,-0.162,1.733,-0.243,0.318,-3.176,1.612,0.864,0.231,-0.526,0.484,1.274,-0.641,2.430,-0.802,0.154,0.074,-0.046,1.224,0.506,0.607,0.065,0.992,0.809,1.308,-0.664,0.075,1.189,0.201,0.498,-0.219
0.238,0.598,0.016,1.242,0.913,0.764,1.434,-0.899,0.904,-1.075,-1.029,0.089,1.826,0.267,-0.477,2.038,0.252,0.321,0.517,0.569,0.869,0.979,0.191,-1.087,1.468,0.435,0.599,-1.145,-0.959,1.103,1.059,-0.484,1.611,0.374,-1.032,0.204,0.132,0.977,0.525,0.662,0.003,0.664,0.548,-0.253,1.405,-0.541,0.137,0.758,0.222,1.441,0.023,1.045,-0.761,1.058,0.567,0.088,0.495,0.183,-0.862,1.209,1.244,0.200,1.776,-0.374,-1.531,-0.564,-1.160,0.480,0.967,0.922,0.427,0.326,0.541,1.559,-0.346,1.121,0.648,0.055,0.772,-0.154,-1.467,0.049,0.620,1.146,0.532,1.423,-0.746,-1.005,0.437,-0.365,-0.237,1.181,0.106,0.399,-0.431,0.350,0.566,-0.615,2.033,-0.304,1.020,0.110,-0.228,1.104,-0.346,0.113,1.036,0.578,-0.150,0.413,-0.232,1.230,0.891,0.526,-0.254,0.989,1.146,0.511,0.379,0.603,0.393,0.155,-0.004,0.263,0.833,-0.854,-0.659,-1.629,0.173,-0.495,2.152,-0.384,0.925,0.021,1.335,0.058,1.718,-0.196,0.087,0.502,0.394,0.831,-0.949,1.828,0.015,0.200,-0.076,-0.293,0.301,0.174,1.498,1.134,0.931,-0.627,1.018,0.946,0.515,1.437,-0.136,-0.265,-0.363,2.097,-0.545,-0.050,-2.373,1.838,0.565,0.305,-0.683,0.489,1.277,-0.480,2.155,-0.497,-0.191,-0.201,-0.053,1.232,0.449,1.015,-0.009,1.042,0.669,1.602,-0.673,-0.244,1.315,-0.273,0.648,-0.301
0.516,0.100,0.158,1.348,0.926,0.397,1.579,-0.692,0.641,-1.649,-0.918,-0.284,2.120,-0.279,-0.083,2.100,-0.086,0.462,0.218,0.412,1.097,0.948,0.178,-1.427,1.267,0.610,0.483,-1.572,-1.565,0.766,1.556,-0.076,0.969,1.006,-1.300,0.293,-0.123,1.019,0.596,0.035,0.260,0.400,0.725,-0.391,1.569,-0.575,-0.402,0.887,0.427,0.862,0.790,0.632,-0.755,0.886,0.532,0.306,0.291,0.312,-0.705,1.331,1.200,0.511,1.532,-0.604,-1.386,0.234,-1.151,-0.145,1.432,0.669,0.574,0.651,0.541,1.483,-0.126,0.990,0.909,-0.313,0.756,-0.221,-0.779,0.409,0.839,0.737,0.788,0.815,-0.255,-0.668,0.710,-0.630,0.074,0.862,0.168,-0.122,-0.201,-0.052,1.074,-0.463,1.525,-0.261,0.653,0.013,-0.578,1.180,-0.174,-0.048,1.031,1.069,0.109,0.731,-0.842,0.736,1.330,-0.075,-0.325,0.634,1.751,0.052,0.435,0.931,-0.040,0.175,-0.673,0.698,0.808,-0.881,-0.924,-1.705,0.441,-0.143,1.461,-0.514,1.157,0.103,1.243,0.178,1.695,-0.175,-0.187,0.785,0.032,0.994,-0.521,1.045,0.786,0.438,0.197,-0.426,-0.739,0.649,1.521,0.915,1.066,-0.954,1.327,0.594,0.563,1.328,0.041,-0.322,0.259,1.511,-0.306,0.127,-2.594,1.329,0.897,-0.248,-0.013,0.409,1.435,-0.095,1.600,-0.465,-0.489,-0.036,0.097,0.946,0.452,0.610,0.216,0.739,0.612,1.715,-0.997,-0.148,1.208,-0.100,0.469,-1.166
0.361,0.315,0.183,1.229,1.145,0.037,1.909,-0.792,0.911,-1.899,-1.504,-0.507,2.267,-0.350,-0.230,1.968,-0.000,1.057,0.271,0.392,1.227,0.684,0.775,-1.321,0.882,0.631,0.217,-1.512,-1.529,0.821,1.528,0.092,0.698,0.823,-0.839,0.503,-0.029,0.889,0.483,0.507,0.200,0.056,0.529,-0.550,1.619,-0.801,-1.077,1.276,-0.219,1.626,0.506,0.708,-0.789,0.509,1.003,-0.092,0.030,-0.005,-0.766,1.296,1.102,0.520,1.374,-0.512,-1.984,0.085,-1.010,-0.446,1.539,0.584,0.483,0.651,0.600,1.511,-0.618,0.776,1.062,-0.519,0.637,-0.068,-0.938,0.267,0.952,1.095,0.296,1.116,-0.069,-0.725,0.547,-0.746,0.332,0.907,0.179,0.041,0.244,0.412,0.716,-0.345,1.389,-0.117,1.020,-0.297,-0.891,1.253,-0.726,-0.031,1.549,0.783,0.656,0.244,-0.256,0.920,1.002,0.136,-0.433,0.617,1.884,-0.208,0.527,0.720,0.293,0.467,-0.441,0.583,0.788,-0.038,-0.638,-2.002,-0.549,0.171,1.324,-1.149,1.229,0.064,1.372,0.458,1.057,0.279,-0.095,0.800,0.202,0.918,-0.523,0.868,1.195,0.353,0.370,-0.704,-0.122,0.396,1.876,0.664,1.319,-0.726,1.479,0.255,1.094,0.861,0.567,-0.769,0.472,1.508,-0.094,-0.103,-2.814,0.456,1.463,-0.235,-0.521,0.786,0.979,0.440,1.185,-0.241,0.214,-0.525,0.729,0.988,0.219,0.595,-0.618,1.524,0.130,2.084,-0.732,-0.100,1.240,-0.132,0.859,-0.872
0.282,0.379,0.428,1.276,0.978,0.336,1.570,-0.481,1.018,-1.725,-1.373,-0.319,2.134,-0.197,-0.116,1.291,0.441,0.782,0.696,-0.480,1.793,0.235,1.450,-1.455,1.357,0.014,0.300,-1.692,-1.973,0.843,1.417,0.425,1.046,0.508,-1.012,0.318,-0.018,1.033,0.065,0.783,-0.020,-0.246,0.470,-0.175,0.899,-0.236,-1.449,1.095,-0.591,1.942,0.152,1.103,-0.683,0.871,0.516,0.297,-0.181,-0.175,-0.930,1.333,0.690,0.678,1.104,-0.103,-1.027,0.063,-1.108,-0.627,1.603,0.512,0.307,0.454,0.826,1.306,-0.519,0.333,1.315,-0.348,0.244,-0.027,-1.334,0.378,0.817,1.241,0.200,1.264,-0.122,-0.592,1.298,-0.590,0.475,0.958,0.606,-0.167,0.509,0.660,0.764,-0.429,1.349,-0.416,1.283,0.157,-0.955,0.845,-0.327,0.402,1.160,1.379,0.279,0.209,-0.661,0.920,0.771,0.187,-0.535,0.373,2.108,-0.229,0.049,1.213,0.049,0.628,-0.344,0.900,0.473,-0.299,-0.790,-1.273,-0.603,0.044,1.343,-0.883,1.034,0.297,1.179,0.650,1.295,0.515,-0.217,0.436,0.755,0.879,-0.344,0.701,1.302,0.216,0.431,-0.445,-0.104,-0.100,1.923,0.382,1.595,-0.578,1.263,0.406,1.518,0.488,1.427,-1.320,0.585,1.466,-0.077,0.034,-2.429,1.040,0.753,0.438,-0.768,1.287,0.502,0.640,0.932,-0.117,-0.148,-0.371,0.827,0.788,0.149,0.075,-0.381,1.663,0.106,2.059,-0.707,0.369,0.484,-0.108,0.717,-0.919
0.142,-0.114,0.610,1.377,0.887,0.181,1.666,-0.559,0.665,-2.184,-1.131,0.286,1.508,0.176,-0.282,1.149,0.416,0.794,0.521,0.251,1.408,0.585,1.264,-1.336,0.686,0.961,-0.153,-1.719,-1.808,0.678,1.409,0.241,1.002,0.145,-0.791,0.260,-0.261,1.022,0.558,0.580,-0.366,0.706,0.369,-0.151,1.091,-0.449,-1.041,0.823,-0.483,2.180,0.012,1.396,-0.915,0.924,0.596,0.285,-0.057,-0.364,-0.366,0.791,1.122,0.199,1.423,-0.134,-1.067,-0.470,-0.818,-0.795,1.915,0.104,0.576,0.423,0.866,1.355,-0.343,0.513,0.981,-0.210,0.052,-0.714,-1.878,0.388,1.083,1.318,0.248,1.352,0.018,-0.676,0.814,-0.285,0.622,0.946,0.768,-0.205,-0.248,0.518,0.434,-0.412,1.391,-0.299,1.104,-0.084,-0.345,0.760,-0.511,-0.162,0.990,1.321,0.062,0.632,-1.430,1.015,0.943,0.383,-0.863,0.239,2.125,-0.425,0.261,0.661,0.298,0.649,-0.363,1.001,0.452,-0.142,-0.829,-0.791,-0.371,-0.517,1.946,-1.417,0.934,0.753,0.968,0.837,0.902,0.729,-0.153,-0.317,1.123,0.623,-0.452,0.787,1.143,0.389,0.391,-0.105,-0.300,-0.025,2.094,0.064,1.981,-1.040,1.191,0.217,1.598,0.557,0.980,-1.254,1.076,1.114,0.331,-0.028,-2.215,0.583,1.251,0.226,-0.549,1.014,0.700,0.421,1.059,0.396,-1.103,-0.911,0.669,0.811,0.292,-0.031,-0.111,1.680,0.165,2.008,-1.238,0.745,0.335,-0.238,0.355,-0.630
0.232,0.027,0.435,1.481,0.650,0.695,1.090,-0.022,0.373,-1.223,-0.758,0.580,1.059,0.993,-0.618,1.306,0.172,0.761,0.259,0.037,1.850,0.053,1.523,-1.280,1.032,0.773,0.457,-2.135,-1.510,0.574,1.310,0.124,1.104,-0.359,-0.703,0.327,-0.141,0.845,0.693,0.531,-0.624,0.629,0.580,-0.065,1.070,-0.775,-1.191,0.993,-0.524,2.178,-0.329,1.628,-1.137,0.831,0.471,0.338,0.424,-0.549,0.082,0.942,1.007,0.163,1.723,-0.430,-0.968,-0.708,-0.965,-1.593,2.207,-0.135,0.656,0.226,1.034,0.998,0.561,0.157,0.938,-0.058,-0.089,0.164,-2.073,0.325,1.227,1.142,0.226,1.548,0.093,-0.939,0.470,-0.537,1.085,0.442,0.935,-0.099,-0.061,0.577,0.495,-0.640,1.576,-0.175,1.147,-0.353,0.553,-0.081,0.513,-0.242,0.726,1.523,-0.131,0.523,-1.525,0.805,1.170,0.546,-0.947,0.066,2.234,-0.299,0.040,0.923,0.177,0.366,-0.385,1.210,0.173,-0.663,-1.234,-0.145,-0.461,-0.629,1.255,-0.319,0.487,0.593,1.167,0.820,1.053,0.692,0.072,-0.355,1.050,0.710,-0.445,1.406,0.555,0.982,0.188,0.527,-0.662,-0.097,2.130,-0.008,1.782,-0.798,0.927,0.586,1.562,0.453,0.944,-0.889,0.697,1.192,0.603,0.107,-1.844,0.892,1.052,-0.112,-0.225,0.847,0.743,0.783,0.512,0.662,-0.776,-0.007,0.152,1.158,-0.104,-0.184,-0.068,1.251,0.616,1.485,-0.870,0.628,-0.201,-0.364,-0.172,0.002
0.914,-0.428,0.766,1.327,0.993,0.450,0.880,-0.229,0.817,-0.900,-0.822,0.670,0.818,1.271,-0.863,1.875,-0.384,0.902,0.321,0.160,1.918,-0.045,1.353,-1.192,1.171,0.550,0.596,-1.699,-1.260,0.394,1.301,-0.016,1.341,0.235,-0.844,0.232,0.026,0.576,0.817,0.011,-0.919,0.430,0.597,0.092,0.891,-0.572,-0.658,0.441,-0.614,2.213,-0.202,1.914,-1.047,0.407,0.204,0.489,0.086,-0.373,-0.014,0.899,1.223,0.231,1.658,-0.481,-1.096,-1.553,-1.532,-1.453,2.037,0.041,0.763,0.308,0.793,0.995,0.492,0.527,0.760,-0.303,-0.521,0.332,-1.971,-0.070,1.468,0.814,-0.238,1.698,-0.338,-1.070,0.399,-1.411,1.508,0.262,0.999,-0.115,0.043,0.597,0.099,-0.619,1.633,0.106,1.309,-0.138,0.184,0.447,0.053,0.012,0.240,1.606,0.171,0.337,-2.006,1.276,0.545,1.078,-1.057,-0.240,2.414,-0.770,-0.634,1.213,0.092,0.475,-0.500,1.459,0.085,-0.424,-0.168,-0.137,-0.849,-0.562,0.923,-0.354,0.520,0.404,1.293,0.594,1.427,-0.088,0.549,-0.442,0.546,0.838,-0.604,0.989,0.643,0.797,-0.071,0.206,-0.936,0.677,1.543,0.204,2.002,-0.792,0.989,0.369,1.621,0.438,0.672,-0.282,0.591,1.354,0.549,-0.336,-1.147,0.955,1.642,-0.296,-0.115,0.883,0.797,0.846,0.732,0.367,-1.097,-0.830,0.428,0.860,0.364,-0.590,-0.162,0.838,0.933,1.075,-0.945,0.606,-0.298,0.192,-0.394,0.062
0.997,-0.691,0.631,1.208,1.076,0.349,0.729,-0.512,1.063,-0.967,-0.930,0.686,0.943,0.757,-0.203,1.619,-0.213,0.520,0.572,0.205,1.900,0.091,1.524,-1.104,1.093,0.688,0.579,-1.580,-1.251,0.440,1.575,0.054,1.663,0.042,-0.808,0.184,0.314,0.490,0.894,0.272,-1.330,0.319,0.789,-0.346,1.657,-0.616,-0.024,0.331,-0.351,2.280,-0.450,2.425,-1.722,1.231,-0.423,0.948,-0.605,0.469,-0.480,0.901,1.340,0.605,1.177,-0.054,-0.592,-0.997,-1.732,-1.538,2.339,-0.303,0.901,0.416,0.670,0.940,0.841,0.513,0.790,-0.092,-0.210,0.677,-1.444,0.180,1.564,0.541,-0.402,2.319,-0.766,-1.258,0.399,-1.271,1.606,0.289,1.068,-0.119,-0.016,0.140,0.154,-0.648,1.261,0.284,0.778,-0.282,0.391,0.636,0.032,0.013,0.493,1.320,0.338,0.451,-2.191,1.440,0.088,1.029,-0.812,0.193,1.893,-0.295,-0.444,1.121,0.233,0.330,-0.621,1.465,-0.220,-0.725,-0.932,-0.474,-0.880,-1.199,1.257,-0.760,0.116,0.613,1.170,0.869,1.171,0.149,0.368,-0.037,0.721,0.585,-0.067,0.965,0.670,0.302,-0.020,0.409,-1.337,0.583,1.730,0.155,2.005,-0.321,0.835,0.851,1.581,0.519,0.288,-0.356,0.759,1.220,0.560,0.204,-0.970,1.104,1.485,-0.881,-0.186,0.764,0.875,0.612,0.834,0.597,-0.810,-0.987,0.042,1.095,0.238,-0.828,0.591,0.479,1.415,0.977,-0.514,0.697,-0.019,0.254,-0.420,0.306
1.205,-1.008,0.713,1.135,1.214,0.218,0.842,-0.105,0.894,-0.734,-0.804,0.925,1.040,0.856,-0.262,1.351,-0.031,0.550,0.606,0.142,1.735,0.113,1.730,-1.024,0.924,0.762,0.444,-1.267,-0.856,0.810,1.138,0.410,1.746,-0.352,-0.558,-0.439,1.001,-0.120,1.521,0.065,-0.976,0.398,0.738,-0.042,1.517,-0.219,0.037,0.463,-0.586,2.697,-0.499,2.020,-1.863,1.141,-0.692,1.094,-0.394,0.381,-0.392,0.678,1.515,0.145,1.007,0.070,-0.534,-2.046,-0.823,-1.724,2.090,-0.089,0.753,0.585,0.545,1.243,0.719,0.603,0.645,0.293,0.190,-0.090,-1.475,0.219,1.581,1.043,-0.181,1.721,-0.332,-0.970,0.305,-0.341,1.142,0.910,0.495,-0.623,0.395,0.507,-0.120,-1.199,1.691,-0.408,1.120,-0.551,-0.428,0.691,0.271,-0.229,0.630,1.255,0.399,0.126,-2.429,1.503,0.320,0.939,-0.620,0.521,1.540,-0.082,-0.618,0.750,0.436,0.526,-0.387,1.630,-0.608,-0.476,-0.604,-0.413,-0.734,-1.148,1.240,-0.784,0.123,0.632,0.954,1.037,1.062,0.437,0.260,-0.170,0.447,0.751,0.407,1.060,0.865,0.443,0.216,0.036,-1.127,0.433,1.762,0.409,1.829,-0.521,0.777,1.029,1.309,0.377,0.021,-0.358,0.273,1.493,0.293,-0.383,-1.361,1.366,1.434,-0.635,-0.781,0.972,0.851,0.675,0.942,0.589,-1.101,-0.553,0.242,0.759,0.702,-0.545,0.869,0.414,1.454,0.922,-0.295,0.043,0.658,-0.093,-0.394,-0.666
1.254,-1.444,0.883,1.356,0.869,0.857,0.066,0.486,0.245,-0.253,-1.430,0.664,1.074,0.812,-0.071,0.860,0.103,1.031,0.183,0.618,1.361,0.598,1.274,-1.024,1.149,0.762,0.006,-0.663,-1.029,0.858,1.184,0.514,1.805,-0.130,-0.626,-0.285,0.836,-0.111,1.362,0.077,-1.320,0.613,0.578,0.041,1.345,-0.370,0.170,0.115,-0.164,2.270,-0.118,1.820,-1.543,1.691,-0.550,0.720,0.535,-0.485,0.348,0.231,2.050,-0.121,1.459,-0.470,0.030,-1.408,-0.652,-1.316,1.709,0.441,0.539,0.670,0.770,1.395,0.704,0.647,0.543,0.612,-0.033,0.306,-1.888,0.398,1.540,0.888,0.618,1.234,-0.387,-0.714,0.446,-0.426,1.008,0.672,0.810,-0.454,0.153,0.366,0.157,-2.010,1.847,-0.293,1.323,-0.572,-0.347,0.672,0.729,-0.768,0.380,1.427,-0.085,-0.398,-1.465,1.204,0.571,0.679,0.039,-0.270,1.869,-0.190,-0.298,1.059,0.310,0.231,-0.020,1.450,-0.430,-0.888,-0.948,-0.692,-1.810,-0.438,0.633,-0.994,0.147,1.042,0.720,1.377,0.506,0.893,-0.469,-0.035,0.304,0.909,-0.079,0.869,1.093,0.188,0.351,0.193,-1.612,0.016,2.080,0.450,1.751,-0.407,0.575,0.899,1.364,0.488,0.212,-0.457,0.001,1.881,-0.040,-0.414,-1.702,1.340,1.038,-0.369,-1.159,0.812,0.704,0.904,0.422,1.044,-0.918,-0.166,0.270,0.808,0.679,0.007,0.637,0.670,1.590,1.030,-0.486,0.046,0.807,-0.153,-0.544,-1.177
1.592,-1.188,0.558,1.833,0.428,1.399,-0.266,0.466,0.067,-0.223,-1.513,0.420,1.340,0.714,0.205,0.984,0.340,1.183,-0.136,1.000,0.760,0.853,1.262,-0.927,1.239,0.779,-0.347,-0.942,-0.497,0.444,1.412,0.194,2.212,-1.005,-0.502,-0.411,1.001,0.095,1.279,0.510,-1.609,1.109,0.430,-0.245,1.385,-0.187,0.233,0.405,0.177,1.971,-0.084,1.725,-1.008,1.416,0.144,0.507,0.687,-0.821,-0.018,0.215,2.346,-0.391,1.789,-0.393,0.110,-2.162,-0.593,-1.245,1.620,0.510,0.300,0.547,0.817,1.505,0.648,0.734,0.594,0.474,0.134,0.053,-1.415,0.453,1.485,1.205,0.336,1.412,-0.299,-0.039,-0.199,-0.196,0.809,0.979,0.712,-0.740,0.001,0.177,0.543,-1.917,1.767,0.192,0.997,-0.301,-0.197,0.678,0.559,-1.714,1.011,0.877,-0.274,0.299,-1.582,1.452,0.615,0.219,0.281,-0.176,2.073,-0.363,0.187,0.579,0.710,-0.090,-0.140,1.715,-0.452,-1.193,-0.583,-0.964,-1.132,-0.700,0.779,-0.737,0.301,1.123,0.742,1.127,0.680,0.743,-1.215,-0.234,0.498,0.698,0.219,0.418,1.268,-0.056,-0.127,0.107,-1.626,-0.366,2.433,-0.087,1.487,-0.004,0.511,0.810,1.331,0.612,-0.399,-1.019,0.109,1.844,-0.142,0.459,-1.403,1.646,0.759,-0.281,-1.293,1.287,0.390,0.886,0.525,0.908,-0.622,-0.140,0.622,0.375,1.218,-0.187,0.947,0.607,1.757,1.021,-0.333,-0.127,1.056,-0.088,-0.633,-1.364
1.650,-1.022,0.882,1.677,0.509,1.194,-0.143,1.007,-0.083,-0.518,-0.946,0.165,1.152,0.989,-0.229,0.967,0.156,1.383,-0.388,1.010,0.890,0.853,1.236,-0.800,1.186,0.812,-0.598,-0.681,-0.381,0.575,0.877,0.828,1.579,-0.341,-0.095,-0.585,0.952,0.328,0.710,0.841,-1.046,1.292,0.248,0.283,1.178,-0.224,0.929,-0.277,0.657,1.484,-0.001,1.549,-0.582,1.034,0.344,0.313,0.792,-1.246,-0.490,0.690,1.932,-0.054,1.405,0.131,0.038,-1.800,-0.587,-1.299,1.451,0.744,0.565,0.367,0.383,1.817,0.520,1.019,0.372,0.515,-0.058,0.103,-1.137,0.569,1.500,1.123,0.291,1.265,0.192,-0.153,0.744,-0.988,1.323,0.575,0.857,-0.467,0.197,-0.031,0.616,-1.367,1.294,0.406,0.717,-0.351,-0.020,0.389,0.563,-1.225,0.751,0.814,-0.259,-0.124,-1.715,0.935,1.044,0.045,0.683,-0.473,2.281,-0.514,-0.214,0.476,0.463,0.595,-0.375,1.781,-0.583,-1.115,-0.655,-1.789,-1.168,-0.279,0.996,-1.019,0.807,0.885,0.875,1.105,0.649,0.727,-0.564,-0.187,0.579,0.379,0.423,0.181,1.441,-0.249,-0.648,0.460,-0.323,-0.686,2.841,-0.533,1.500,-0.097,0.830,0.560,1.316,0.947,-0.460,-0.991,0.191,1.654,-0.148,0.366,-1.630,1.470,0.822,-0.358,-1.647,1.561,0.340,1.221,0.116,0.994,-0.649,-0.227,0.264,1.043,1.092,-0.019,0.987,0.521,2.077,0.662,0.209,-0.153,1.874,-0.576,-0.583,-1.059
1.650,-0.898,0.564,1.652,0.461,1.298,0.015,0.637,0.339,-0.922,-0.606,0.399,1.022,0.791,-0.250,1.170,-0.122,1.319,-0.577,1.004,0.856,1.037,0.930,-0.664,1.343,0.780,-0.448,-0.661,-0.420,0.913,0.673,0.908,1.460,-0.113,-0.213,-0.892,0.544,0.198,0.787,0.821,-0.459,1.080,0.609,-0.452,1.266,-0.577,1.388,-0.245,0.707,1.378,-0.144,1.859,-0.450,1.279,0.140,0.503,0.371,-1.170,-0.275,0.803,1.905,-0.293,1.368,-0.051,0.003,-1.599,-0.269,-1.467,0.822,1.350,0.302,0.424,0.372,1.710,0.402,1.198,0.278,0.235,-0.050,-0.130,-1.170,0.998,1.143,1.225,0.192,1.359,-0.006,0.301,0.189,-1.111,1.225,0.565,0.853,-0.305,0.132,-0.476,0.759,-1.464,1.652,0.136,0.779,-0.586,0.333,0.526,0.696,-1.411,0.678,0.885,-0.058,-0.549,-1.285,0.413,1.610,-0.466,0.668,-0.506,2.072,-0.382,0.110,0.461,0.488,0.427,-0.190,1.645,-0.599,-1.567,-0.935,-1.700,-0.666,0.354,0.928,-1.088,1.147,0.357,1.234,1.049,0.977,0.680,-0.891,-0.076,0.656,0.287,0.199,0.438,1.309,0.109,-1.144,0.937,-0.123,-0.732,2.872,-0.303,1.192,0.323,0.583,0.428,1.425,0.806,-0.047,-0.650,-0.026,1.571,-0.259,0.983,-1.048,1.001,1.108,-0.166,-1.400,1.241,0.629,1.234,-0.115,1.188,-1.115,-0.387,0.586,1.055,0.530,0.454,1.325,0.320,2.074,0.618,0.294,-0.365,2.054,-0.699,-1.061,-0.605
1.603,-1.496,0.455,1.337,0.814,1.366,0.067,1.022,-0.377,-0.271,-0.268,0.417,1.205,0.427,-0.618,1.146,0.116,1.166,-0.449,1.445,0.321,0.924,1.041,-0.699,1.595,0.738,-0.662,-0.424,-0.911,1.014,0.803,0.647,1.598,0.102,-0.407,-1.057,0.935,-0.490,0.466,0.900,-0.343,0.827,0.959,-0.910,1.317,-0.491,0.736,0.118,0.560,1.027,0.105,1.396,-0.127,0.863,0.023,0.172,0.589,-0.944,-0.431,1.195,1.386,-0.210,1.654,-0.186,0.297,-2.045,-0.286,-1.028,1.034,1.144,0.630,0.207,-0.161,2.082,-0.222,1.520,-0.011,0.159,0.077,-0.616,-0.473,0.810,1.296,1.182,0.531,1.591,-0.090,0.334,-0.037,-0.628,1.123,0.668,0.926,-0.306,-0.069,-0.380,0.490,-0.680,1.516,-0.179,0.856,-0.157,0.080,0.146,0.897,-0.963,1.007,0.526,0.374,-0.962,-1.103,0.517,1.518,-0.562,0.523,0.011,1.627,-0.146,-0.427,0.159,0.669,0.845,-0.556,2.086,-0.563,-1.604,0.300,-1.831,-0.396,0.374,0.676,-1.265,0.938,0.236,1.296,0.806,1.375,0.475,-0.595,-1.442,0.753,0.389,0.156,0.137,1.326,0.336,-0.841,0.601,0.359,-0.133,2.392,0.186,0.774,1.050,0.762,0.104,1.646,0.903,-0.089,-0.621,-0.095,1.789,-0.384,0.785,-1.228,1.221,1.083,0.070,-0.755,0.733,0.788,1.470,-0.040,1.281,-0.568,-0.517,0.969,0.590,1.246,-0.824,1.363,0.135,2.025,0.591,0.176,-0.296,1.843,-0.458,-0.916,-0.069
1.791,-1.718,0.077,1.821,0.336,1.671,-0.000,1.242,-0.911,-0.069,-0.376,-0.039,1.426,0.257,-1.148,0.939,0.088,1.303,-0.502,1.701,0.044,0.942,0.882,-0.774,1.596,0.868,-0.309,-0.149,-0.768,0.465,1.155,0.547,1.314,0.402,-0.755,-0.824,0.536,0.068,-0.123,1.268,-0.631,1.056,0.377,-0.656,1.163,-0.473,0.070,0.795,0.486,1.061,0.172,1.421,-0.214,0.562,0.363,0.090,0.944,-0.934,-0.448,1.371,1.153,0.213,1.313,0.104,-0.342,-2.187,-0.152,-1.616,1.239,0.978,0.786,0.822,0.021,2.197,-0.713,1.958,-0.144,0.690,0.081,-0.124,-0.613,1.210,0.698,0.988,0.708,1.584,-0.489,0.076,-0.317,-0.277,0.921,0.828,0.864,-0.235,0.064,0.214,0.225,-0.906,1.733,-0.316,0.741,0.142,0.360,0.301,0.691,-0.216,0.652,1.018,0.446,-0.931,-1.817,0.756,1.479,-0.618,0.912,-0.042,1.658,-0.168,-0.063,-0.082,0.678,0.689,-0.260,1.868,-0.452,-2.013,0.544,-1.853,-0.735,0.584,1.008,-1.674,0.986,0.001,1.243,0.769,1.162,0.281,0.076,-0.714,0.220,0.484,-0.118,0.613,1.032,0.359,-0.521,0.244,-0.559,-0.100,2.296,0.393,0.551,1.170,0.584,0.015,1.097,0.962,-0.260,-0.765,-0.115,1.702,-0.364,1.222,-1.689,1.595,0.676,0.267,-1.419,0.553,0.680,1.498,-0.166,1.509,-0.887,0.005,0.921,0.388,0.997,-0.689,1.435,0.035,2.320,-0.063,-0.197,0.081,1.769,-0.745,-1.179,-0.082
1.664,-1.425,0.087,1.409,0.768,1.431,-0.198,1.355,-0.282,-0.274,-1.464,-0.254,1.690,0.166,-0.869,1.432,0.124,1.199,-0.493,1.508,0.036,0.716,0.852,-0.675,1.620,0.863,-0.013,-0.678,-0.070,0.160,1.452,0.367,1.523,-0.116,0.113,-0.950,0.678,0.425,-0.347,1.123,-0.450,1.165,-0.091,-0.091,0.764,-0.008,0.348,0.458,-0.271,1.685,0.226,1.808,-0.432,0.798,-0.139,0.447,0.921,-1.171,-0.494,1.503,0.881,0.505,1.207,0.017,-0.084,-1.809,-0.453,-1.434,1.127,0.760,0.840,0.569,-0.184,2.465,-0.654,1.764,-0.221,0.615,-0.626,0.778,-0.238,0.824,0.968,0.668,0.725,1.767,-0.574,0.304,-0.527,-0.877,1.537,0.550,1.107,-0.685,0.623,0.146,-0.076,-1.027,1.971,-0.183,0.671,0.625,-0.035,0.306,1.116,-0.487,0.354,1.248,-0.403,-0.126,-2.460,0.831,1.425,-0.802,1.069,0.030,1.673,-0.295,0.109,-0.764,0.691,0.701,-0.521,1.863,-0.339,-1.637,-0.019,-1.804,-0.051,1.029,0.858,-1.027,0.578,0.266,1.125,0.687,1.283,0.626,-0.340,-0.439,0.712,0.204,0.130,0.793,0.744,0.312,-0.498,-0.059,-0.244,-0.124,2.116,0.636,0.476,0.878,0.618,0.117,0.803,1.054,0.381,-0.744,-0.252,1.836,-0.237,0.297,-2.165,1.668,0.896,-0.234,-1.090,0.384,0.768,1.218,0.482,0.798,-0.715,-0.587,1.146,0.830,0.781,0.174,1.180,-0.194,2.568,-0.515,0.450,-0.287,1.438,-0.444,-0.794,0.853
1.495,-1.571,0.431,1.207,0.957,1.463,-0.249,1.254,-0.230,0.451,-1.726,0.118,1.499,0.289,-1.081,1.030,0.441,1.122,-0.713,2.019,-0.350,1.152,0.483,-0.415,1.451,0.904,-0.074,-0.199,-0.279,-0.092,1.657,0.356,1.135,0.003,-0.234,-0.896,0.720,0.304,-0.667,1.628,-0.380,1.096,-0.433,0.501,0.680,0.403,0.265,0.907,0.024,1.732,0.190,1.542,-0.645,1.176,-0.240,0.443,0.552,-0.400,-0.433,1.634,0.852,0.503,1.137,0.162,0.328,-1.300,-0.831,-1.520,1.605,0.262,1.126,0.370,-0.113,2.238,-0.977,1.601,-0.131,0.509,-0.258,0.866,-0.045,1.025,0.955,0.623,1.142,1.682,-0.684,0.071,-0.520,-0.316,1.363,0.491,1.320,-0.503,0.724,0.522,-0.289,-0.737,1.594,0.266,0.544,0.478,-0.203,0.234,1.670,-1.073,-0.165,1.391,-0.842,-0.328,-2.317,0.720,1.389,-0.681,1.290,-0.249,1.600,-0.047,0.318,-0.795,0.263,0.773,-0.606,2.171,-0.737,-1.652,0.326,-1.489,-0.258,0.972,0.722,-0.770,1.180,-0.269,1.479,0.542,1.152,0.875,-0.696,-0.105,0.799,-0.444,0.146,0.960,0.523,0.332,-0.656,0.465,0.540,-0.451,2.360,0.457,1.178,0.395,0.969,0.110,0.912,0.717,0.538,-1.068,-0.104,1.696,-0.474,0.418,-1.956,1.346,1.391,-0.223,-1.016,0.200,0.682,0.932,0.665,0.497,-0.551,-0.345,0.814,0.849,0.842,0.287,1.148,-0.472,2.667,-0.561,0.806,-0.141,1.250,-0.390,-0.690,1.505
0.616,-1.217,0.172,1.160,1.054,1.070,-0.141,0.835,-0.296,0.659,-2.172,0.449,1.052,0.349,-0.855,0.701,0.378,0.957,0.191,1.334,0.200,0.994,0.608,-0.947,1.452,0.911,-0.480,0.228,-0.471,0.062,1.572,0.035,1.476,-0.249,-0.025,-0.548,0.531,0.590,-0.831,1.732,-0.199,0.877,-0.004,0.275,0.887,0.351,0.576,0.891,0.510,1.728,0.272,1.488,-0.396,0.799,-0.046,0.245,0.680,-0.508,-0.572,1.544,0.743,0.510,1.157,0.057,0.031,-1.140,-0.288,-1.119,1.881,0.087,1.087,0.557,-0.406,2.778,-1.145,1.344,0.010,0.869,-0.603,0.919,-0.595,1.203,0.833,0.980,0.902,1.722,-0.654,-0.544,-0.010,-0.308,1.695,0.365,1.443,-0.766,1.247,0.241,-0.394,-0.787,1.923,0.099,0.848,0.175,-0.573,0.145,1.411,-1.096,-1.170,1.275,-1.255,-0.390,-1.053,0.416,1.353,-0.337,0.798,0.016,1.568,-0.066,-0.301,-0.411,0.094,0.978,-0.585,2.106,-0.938,-1.666,-0.291,-1.252,-0.046,1.183,0.458,-1.020,0.816,0.243,1.352,0.585,1.276,0.970,-0.473,0.255,0.846,-0.582,0.116,0.640,0.868,-0.216,-0.741,0.670,0.526,-0.765,2.643,0.089,1.136,0.156,1.382,-0.310,1.449,0.419,1.111,-1.367,-0.570,1.688,-0.428,0.334,-1.610,0.919,1.567,-0.451,-0.525,0.039,0.351,1.118,0.521,0.472,-0.689,-0.644,0.633,0.904,0.565,0.002,1.352,-0.651,2.499,-0.379,0.359,-0.527,1.736,-0.779,-0.411,1.593
0.517,-1.055,0.226,1.188,1.510,0.663,0.365,0.484,-0.245,0.846,-2.922,0.315,1.405,0.140,-0.522,0.418,0.186,0.972,0.265,1.342,0.322,1.251,0.204,-0.840,1.529,0.852,-0.193,0.745,-0.894,0.225,1.740,0.047,1.837,-0.440,0.016,-0.655,0.423,0.847,-0.574,1.488,-0.049,0.881,0.367,-0.135,1.524,-0.377,0.635,1.077,0.211,1.741,0.412,1.498,-0.564,1.037,-0.578,0.288,0.820,-0.547,-0.792,1.520,0.865,0.439,1.320,-0.285,0.292,-0.290,-0.337,-1.042,1.730,0.368,0.995,0.201,-0.598,2.763,-1.012,1.409,0.057,0.514,-0.857,1.572,-0.854,1.248,0.527,0.972,1.052,1.470,-0.595,-0.752,0.306,-0.842,2.070,0.102,1.586,-0.986,0.752,0.757,-0.326,-0.399,1.329,0.747,0.816,-0.072,-0.475,0.607,0.894,-0.974,-1.088,1.063,-1.703,-0.325,-0.704,0.716,1.078,0.035,1.090,-0.161,1.907,-0.262,0.145,0.282,0.148,0.992,-0.472,2.033,-0.925,-1.722,0.366,-1.536,0.459,0.936,0.201,-1.258,0.896,0.050,1.049,0.975,0.785,1.501,-0.629,0.499,0.549,-0.949,-0.073,0.539,1.142,-0.084,-1.033,0.540,0.303,-0.578,2.596,0.352,1.003,0.131,1.384,-0.274,1.433,0.539,0.282,-0.808,-0.174,1.289,0.087,-0.213,-2.005,0.659,1.962,-0.509,-0.908,0.277,0.437,1.358,0.028,0.814,-0.736,-0.299,0.792,0.208,0.157,0.028,1.213,-0.535,1.718,-0.347,0.721,-1.046,2.019,-0.707,-0.041,1.205
1.030,-0.748,0.407,0.542,2.027,0.222,0.617,0.174,0.001,0.527,-2.885,0.132,1.490,0.257,-0.861,0.496,0.548,1.135,0.019,1.310,0.396,1.144,0.358,-1.155,1.650,0.423,-0.133,0.497,-0.415,-0.059,1.815,0.319,1.458,0.202,-0.664,-1.025,-0.111,1.039,-0.386,1.491,-0.350,0.740,0.759,-0.283,1.189,0.044,0.177,1.473,0.085,1.831,0.492,1.758,-0.765,0.974,-0.477,0.511,0.941,-0.506,-0.366,0.866,1.338,0.458,1.344,-0.146,0.514,-0.516,-0.711,-0.413,1.421,0.605,1.047,0.340,-0.218,2.414,-0.944,1.793,-0.284,0.425,-0.385,1.279,-0.809,1.098,0.581,0.928,0.955,1.691,-0.800,-0.759,0.253,-0.792,2.003,0.309,1.525,-0.680,0.524,1.033,-0.116,-0.234,0.935,0.736,0.535,0.167,-0.064,0.090,1.386,-1.453,-0.345,0.664,-1.773,0.279,-0.536,0.701,1.095,-0.166,1.572,-0.469,1.988,-0.107,0.183,0.089,0.469,0.770,-0.475,2.005,-0.701,-1.453,0.943,-1.401,-0.284,0.876,0.387,-1.280,1.035,-0.146,1.090,1.217,0.217,1.819,-0.588,0.460,-0.089,-1.426,-0.049,0.621,0.956,-0.100,-0.474,0.325,0.188,-0.133,2.497,0.363,0.905,0.065,1.388,-0.191,1.267,0.653,0.176,-1.108,-0.313,1.269,0.087,-0.712,-2.213,0.709,2.037,-0.565,-1.053,-0.135,0.806,1.085,0.141,0.983,-0.689,-0.943,0.567,0.528,-0.381,0.008,0.407,-0.244,1.110,0.405,0.229,-0.915,1.872,-0.453,-0.367,1.283
0.892,-0.778,0.367,0.699,1.835,0.309,0.352,0.643,-0.444,1.125,-1.858,0.189,1.311,0.543,-0.768,-0.247,1.123,0.769,0.008,1.363,0.514,1.192,0.567,-1.066,1.474,0.606,-0.114,0.107,0.007,-0.268,1.888,0.048,1.469,0.398,-0.925,-1.091,-0.156,0.924,0.180,1.231,-0.276,0.755,0.694,0.143,0.234,0.782,-0.376,1.758,0.017,2.073,0.480,1.680,-0.861,0.933,-0.191,0.548,0.862,-0.475,-0.899,0.971,1.138,0.392,1.571,-0.518,0.754,-0.530,-0.459,-0.317,1.698,0.186,1.555,0.155,-0.502,2.785,-1.092,2.350,-0.370,0.433,-0.600,1.365,-0.163,1.161,0.834,1.245,0.737,1.647,-0.739,-1.658,0.481,-0.764,2.204,-0.136,1.769,-0.378,0.031,1.382,-0.302,-0.428,0.988,0.526,0.058,-0.058,0.116,-0.360,1.437,-1.217,-0.962,1.090,-2.453,0.861,-0.688,1.018,0.981,0.037,1.285,-0.362,1.918,-0.251,0.249,0.216,0.257,0.927,-0.990,2.294,-0.938,-1.263,0.281,-1.367,0.037,0.937,0.276,-1.393,0.923,-0.334,1.210,1.000,0.454,1.480,-0.264,0.680,-0.488,-1.299,0.009,0.461,0.925,-0.273,-0.822,0.364,-0.097,0.100,2.505,0.275,0.732,0.260,1.148,-0.188,1.374,0.596,0.100,-0.131,-0.431,1.315,-0.269,0.096,-2.371,0.594,2.056,-0.609,-0.594,-0.048,0.489,1.260,0.187,0.423,-0.748,-0.378,0.663,0.636,-0.894,-0.152,0.428,-0.474,0.952,0.594,-0.235,-0.614,1.871,-0.180,-0.433,1.283
0.507,-0.376,0.106,0.436,1.662,0.430,0.783,0.320,0.044,0.896,-1.878,0.321,1.517,0.635,-0.363,-0.229,1.172,0.735,0.144,1.163,0.382,1.603,0.389,-1.120,1.267,0.816,-0.094,0.426,-0.027,-0.515,2.159,-0.289,1.383,0.553,-0.681,-0.832,-0.356,1.089,-0.071,0.892,-0.268,0.985,0.331,-0.344,0.480,0.627,-0.358,1.690,0.268,1.916,0.466,1.767,-0.714,0.666,-0.444,0.768,0.520,-0.035,-0.883,1.159,1.114,0.229,1.451,-0.518,0.362,0.435,-0.416,-0.649,1.891,-0.073,1.413,0.015,-0.459,2.775,-1.222,2.099,-0.165,0.432,-0.577,1.520,-0.341,1.302,0.812,1.499,0.499,1.864,-1.236,-2.037,0.716,-1.192,2.004,0.022,1.690,-0.002,0.384,1.148,-0.244,-0.590,1.258,0.408,0.006,-0.118,0.563,-0.319,1.661,-0.572,-0.800,1.171,-1.931,0.701,-1.013,1.153,1.006,0.435,1.094,-0.718,1.932,-0.191,0.594,0.079,0.244,0.787,-0.795,1.969,-0.623,-0.970,0.088,-1.254,0.401,0.596,0.487,-2.056,0.694,0.212,0.891,1.240,0.540,1.610,-0.108,1.193,0.025,-1.130,-0.257,0.445,0.988,-0.224,-1.096,-0.022,0.104,0.007,2.389,0.303,0.910,0.166,1.166,0.077,1.284,0.636,0.323,-0.050,0.057,1.171,-0.158,0.005,-2.622,0.513,1.821,-0.461,-0.538,-0.890,0.303,0.905,0.639,0.371,-0.151,-1.227,0.489,0.597,-0.426,-0.803,0.895,-0.087,0.516,0.739,-0.000,-0.884,2.171,-0.339,-0.665,1.136
0.502,-0.123,-0.575,0.588,1.800,0.392,1.035,-0.209,0.587,0.106,-2.002,0.166,1.717,0.304,-0.164,-0.439,1.054,0.738,0.253,1.008,0.729,1.211,0.231,-1.118,0.846,1.213,-0.276,0.050,0.460,-0.267,1.978,-0.321,1.407,0.323,-0.622,-0.664,-0.630,0.958,-0.583,1.225,-0.041,0.610,0.889,-0.458,0.832,0.311,-0.162,1.461,0.244,1.845,0.473,1.973,-0.678,0.368,-0.022,0.277,0.727,0.051,-0.448,1.050,1.013,0.553,1.126,-0.391,0.454,0.106,-0.716,-0.394,1.793,-0.353,1.645,-0.273,-1.029,3.114,-1.578,2.120,-0.037,0.936,-0.333,1.178,-0.379,1.682,0.422,1.994,0.265,2.210,-1.382,-2.387,0.351,-1.366,1.887,0.381,1.007,0.683,-0.071,1.650,-0.586,-0.190,0.880,0.816,-0.073,-0.266,0.334,-0.106,1.669,-0.197,-0.295,0.712,-1.784,0.955,-1.251,1.085,0.776,0.456,0.760,-1.073,2.653,-0.975,0.367,0.673,0.092,1.086,-0.700,2.018,-0.786,-1.225,0.560,-1.265,0.084,0.580,0.680,-1.729,0.617,0.252,0.944,1.331,0.523,1.734,-0.045,0.659,0.607,-1.458,-0.470,0.773,0.901,-0.219,-0.858,0.058,-0.349,0.046,2.136,0.477,0.884,-0.113,1.365,0.188,1.033,0.257,0.842,-0.703,-0.193,1.349,-0.192,0.514,-1.803,0.836,1.746,-0.398,0.188,-1.123,0.629,0.712,0.726,0.436,0.373,-0.898,-0.070,0.860,-0.078,-0.997,0.469,-0.129,0.494,0.324,0.230,-0.868,1.648,0.209,0.293,0.076
0.753,-0.024,-0.558,0.751,1.504,0.576,1.034,-0.190,-0.126,-0.466,-1.070,-0.237,1.945,-0.037,-0.469,-1.644,1.057,0.705,0.478,0.766,0.999,0.998,0.052,-0.657,1.009,1.105,-0.338,0.204,0.518,-0.303,1.809,-0.073,0.828,0.760,-0.861,-0.581,-0.480,0.538,-0.736,1.240,-0.258,0.631,0.510,0.006,0.184,0.372,-0.058,1.697,0.204,2.172,0.190,2.227,-1.084,0.108,0.333,-0.039,0.800,0.325,-0.549,0.732,1.240,0.446,0.959,-0.150,-0.202,0.507,-0.786,-0.617,1.656,-0.390,1.855,-0.576,-0.881,3.028,-1.470,1.834,0.299,1.030,-0.412,0.882,-0.081,1.190,0.594,1.566,0.713,1.771,-1.051,-1.892,0.352,-0.916,1.908,0.290,1.119,0.655,0.364,1.335,-0.321,0.045,0.869,0.941,-0.838,0.160,0.544,-0.660,2.014,-0.128,-0.589,1.116,-1.661,1.290,-1.454,0.835,1.202,-0.058,0.525,-1.212,2.481,-0.823,-0.141,1.032,-0.027,0.941,-0.737,2.414,-1.562,-1.792,0.972,-1.687,0.585,0.485,0.332,-1.546,0.211,0.456,0.435,1.714,0.076,1.840,-0.304,0.606,0.081,-1.008,0.018,0.477,1.137,-0.295,-0.411,0.200,-0.021,-0.222,2.512,0.348,0.960,0.400,1.062,0.134,0.906,0.478,0.778,-0.756,-0.179,1.258,-0.129,0.546,-2.054,1.329,1.234,-0.320,0.335,-0.872,0.528,0.832,0.827,0.173,0.620,-0.916,0.634,0.956,-0.275,-0.661,0.563,-0.727,0.507,0.734,0.244,-0.218,1.382,0.667,0.174,0.203
0.455,0.068,-0.411,1.189,1.085,0.858,0.882,0.261,-0.488,-0.326,-0.929,-0.146,1.868,-0.188,-0.360,-1.295,1.240,0.783,0.380,0.624,1.146,0.854,0.425,-1.383,1.656,0.373,-0.266,-0.250,0.749,-0.115,1.879,-0.078,0.535,1.191,-1.156,-0.573,-0.798,0.882,-0.739,0.977,-0.310,0.204,0.645,0.143,0.482,-0.304,0.026,1.483,0.085,1.881,0.574,1.889,-0.308,0.310,0.320,-0.310,1.035,0.239,-0.309,0.289,1.871,-0.000,1.388,0.012,-0.703,1.003,-0.521,-0.260,1.494,-0.232,1.616,0.099,-0.501,2.544,-1.214,1.947,0.075,1.195,-0.231,0.306,0.717,0.342,1.322,0.883,0.994,1.504,-0.733,-1.331,0.632,-0.988,2.102,0.029,1.299,0.512,0.509,1.294,-0.516,0.064,1.059,0.458,-0.353,0.274,-0.130,-0.140,1.807,0.216,-0.225,1.135,-1.511,1.871,-1.336,1.116,1.074,0.049,0.638,-0.993,2.639,-1.183,0.456,1.072,0.062,1.214,-0.610,2.028,-1.371,-1.733,0.575,-2.080,1.164,0.503,-0.353,-1.396,-0.019,0.318,0.365,1.839,0.207,1.656,-0.267,0.597,0.166,-0.731,0.026,0.802,0.190,0.253,-0.466,0.463,-0.402,0.127,2.279,-0.015,0.596,0.417,0.966,0.341,0.991,0.232,1.428,-0.459,-0.413,1.374,-0.029,0.766,-1.571,1.165,1.173,-0.260,-0.066,-0.631,0.460,0.622,0.679,-0.008,0.395,-0.595,0.030,1.341,-0.324,-1.141,0.505,-0.799,0.960,0.735,0.332,-0.316,0.641,0.986,0.122,0.818
0.543,0.262,-0.899,1.749,0.660,1.046,0.910,0.597,-0.356,-0.579,-0.620,0.342,1.466,0.337,-0.861,-1.569,1.467,0.758,0.257,0.621,1.014,0.904,0.295,-1.568,1.733,0.067,-0.239,0.789,0.001,0.103,1.417,0.501,0.537,1.026,-1.144,-1.267,-0.353,0.533,-1.126,1.381,-0.745,0.606,0.395,0.254,0.340,0.087,-0.139,1.546,0.376,1.846,0.521,1.936,-0.246,0.442,0.109,0.211,0.700,0.478,-0.702,0.017,2.124,-0.175,1.643,-0.419,-0.291,0.371,0.252,-0.171,1.339,0.170,1.339,0.206,-0.177,2.114,-0.843,1.893,-0.049,0.806,-0.506,0.372,1.024,0.118,0.836,0.947,1.004,1.243,-0.561,-1.353,0.187,-0.598,1.864,0.160,1.254,-0.012,1.101,0.997,-0.278,-0.338,1.346,0.032,-0.957,-0.231,-0.283,-0.233,1.730,0.186,-0.424,1.302,-1.307,1.618,-0.816,1.064,0.991,0.203,0.055,-0.671,2.234,-0.588,0.282,0.127,0.530,0.853,-0.805,2.197,-1.763,-1.367,0.267,-1.906,0.932,0.017,0.042,-1.859,0.064,0.316,0.050,2.043,0.077,1.580,-0.346,1.249,0.120,-0.955,0.207,-0.128,0.674,-0.501,0.112,0.087,0.850,-0.063,2.680,-0.204,0.903,0.484,1.265,0.076,1.161,0.141,1.510,-0.630,-0.728,1.599,-0.120,0.224,-1.320,1.238,1.171,-1.123,0.346,-0.431,0.115,0.691,0.649,0.047,-0.164,-0.650,0.032,1.474,0.268,-1.759,0.707,-1.038,1.295,0.655,0.144,-0.587,0.688,0.742,0.562,0.660
0.652,-0.066,-0.650,1.394,0.909,0.779,1.025,0.744,-0.766,0.034,-0.714,0.534,1.017,0.871,-0.777,-1.466,1.456,0.768,0.692,0.004,1.610,0.453,0.603,-1.330,1.792,-0.043,0.047,0.674,-0.246,0.436,1.181,0.343,0.441,1.239,-0.684,-1.631,0.798,-0.001,-0.582,0.847,-0.164,-0.521,0.876,0.067,0.421,-0.206,0.164,1.594,0.191,2.152,0.478,1.792,0.050,0.432,-0.127,0.094,0.787,0.342,-0.076,-0.127,1.941,0.043,1.238,-0.216,-0.142,0.279,0.914,-0.468,1.368,0.370,0.778,0.592,-0.098,2.388,-0.896,1.591,0.155,0.706,-0.377,0.268,1.559,-0.118,0.963,0.414,1.573,1.008,-0.025,-0.710,-0.034,-0.446,1.856,0.194,1.569,-0.080,0.667,1.408,-0.432,-0.262,1.406,0.104,-0.600,0.038,0.837,-0.385,1.720,0.154,-0.293,1.473,-0.734,1.280,-0.728,0.825,1.334,0.029,0.275,-0.671,2.193,-0.586,-0.387,0.048,0.995,0.540,-0.419,1.934,-1.524,-1.380,1.213,-2.222,1.127,0.321,-0.007,-1.876,0.342,0.126,0.461,1.600,0.263,1.385,-0.318,0.927,-0.161,-0.605,0.488,-0.940,1.982,-1.218,-0.306,0.472,0.249,-0.520,2.561,-0.345,1.095,0.263,1.514,-0.091,1.636,0.337,1.607,-0.738,-0.784,1.676,-0.191,0.037,-0.861,1.208,1.338,-1.237,0.415,0.095,0.242,0.699,0.594,0.541,-0.295,-0.103,0.191,1.941,0.038,-1.964,0.374,-0.462,1.105,0.793,0.015,-1.108,1.248,0.333,0.432,0.810
0.524,0.044,-0.869,1.826,0.455,1.184,0.488,1.279,-0.880,-0.757,-0.721,0.718,0.914,0.637,-0.509,-0.989,1.552,0.514,1.081,-0.320,1.609,0.402,1.045,-0.432,1.149,0.435,0.217,0.743,-0.668,0.352,1.407,0.490,-0.362,1.988,-0.853,-1.638,0.550,0.092,-0.023,0.476,-0.211,-0.848,0.543,0.552,0.055,0.214,-0.006,1.764,-0.562,2.413,0.212,1.912,-0.211,0.214,0.047,0.144,1.289,-0.447,0.426,0.075,1.591,0.527,0.925,0.016,-0.274,0.285,0.864,-0.263,1.448,0.054,1.295,0.227,-0.181,2.525,-0.984,1.630,-0.010,0.700,-0.232,-0.102,1.899,-0.168,0.778,0.487,1.476,1.219,-0.121,-0.495,0.654,-0.061,1.597,0.090,1.527,-0.190,0.490,1.351,-0.167,-0.980,1.651,0.009,-0.258,0.294,0.458,0.196,1.536,0.584,-0.239,1.276,-0.606,0.875,-0.157,0.837,1.448,0.140,0.297,-0.670,2.208,-0.590,-0.646,0.547,0.792,0.659,-0.258,1.634,-1.299,-1.195,1.531,-1.920,0.651,0.119,-0.250,-1.552,-0.152,0.769,0.355,1.636,0.435,1.036,0.300,0.608,0.619,-0.623,0.907,-0.983,1.909,-1.155,-0.070,0.454,-0.081,-0.152,2.390,-0.477,0.941,-0.113,1.775,-0.407,1.831,0.138,1.410,-0.840,-0.875,1.676,0.268,-0.255,-1.598,1.345,1.124,-1.018,0.372,-0.114,0.619,0.503,0.714,0.686,-0.567,-0.146,0.388,1.555,0.136,-2.004,0.016,0.010,1.097,0.601,-0.146,-1.359,1.300,0.105,0.587,0.531
0.136,0.038,-1.131,2.147,0.198,0.940,1.016,0.486,-1.044,-0.296,-1.051,0.690,0.961,0.840,-0.534,-0.429,1.312,0.746,0.990,0.079,1.719,0.203,0.979,-0.742,1.045,0.204,0.344,0.555,-0.530,0.591,1.133,0.851,-0.168,1.476,-0.736,-1.597,0.592,0.123,-0.724,0.791,-0.278,-0.517,1.015,0.280,0.266,0.414,0.354,1.467,-0.662,2.092,0.620,1.433,-0.226,0.157,0.336,0.045,1.323,-0.492,0.484,0.394,1.469,0.508,0.836,-0.062,-0.543,0.159,0.747,-0.429,1.435,0.378,0.937,0.485,-0.461,2.600,-0.802,1.401,0.193,0.574,-0.212,0.126,1.744,-0.140,0.931,0.309,1.406,1.194,-0.089,-0.785,0.989,-0.245,1.804,-0.208,1.251,-0.627,0.640,1.471,-0.545,-0.862,1.323,0.323,-0.847,0.317,0.294,0.199,1.383,0.944,-0.139,1.108,-0.234,1.051,-0.223,0.992,1.382,0.337,0.237,-0.025,1.755,-0.190,-0.434,0.765,0.930,0.640,-0.329,1.492,-0.876,-1.356,1.754,-2.230,1.214,-0.042,-0.874,-1.471,0.018,0.324,0.262,1.514,0.412,0.917,0.656,0.342,0.504,-0.635,0.983,-0.717,1.736,-1.832,-0.363,-0.451,-0.534,-0.234,1.841,0.591,0.334,0.395,1.126,0.001,1.344,-0.129,1.240,-0.661,-1.280,1.861,-0.145,-0.554,-1.222,1.167,1.567,-0.787,0.306,0.003,0.133,0.760,0.575,1.058,-0.299,-0.077,1.091,1.221,0.747,-2.118,0.120,-0.156,1.375,0.238,0.031,-0.398,0.632,0.992,0.455,0.015
-0.137,0.090,-1.336,1.798,0.450,0.308,1.230,0.672,-1.259,-0.442,-0.409,0.742,0.984,1.044,-0.788,-0.315,1.564,0.670,1.019,0.335,1.402,0.295,0.911,-0.909,1.338,0.495,-0.204,1.136,-1.125,0.402,1.045,0.625,0.051,1.264,-1.319,-1.471,0.591,0.125,-0.188,0.324,-0.927,-0.320,0.776,0.295,0.507,0.118,0.578,1.216,-0.640,2.217,0.303,1.503,0.231,-0.458,0.745,-0.008,0.902,-0.540,0.293,0.414,1.764,0.183,1.210,-0.256,-0.623,0.372,0.541,-0.340,1.165,0.458,0.688,0.562,-0.398,2.602,-1.000,1.665,-0.203,0.639,-0.740,0.047,1.872,-0.221,0.773,0.419,1.365,0.933,-0.079,-0.474,0.899,-0.450,2.065,-0.685,1.502,-0.144,-0.267,1.963,-0.790,-0.730,1.158,0.495,-0.713,0.052,-0.121,0.325,1.182,0.815,-0.001,1.367,-0.692,0.945,-0.512,1.061,1.601,-0.050,0.670,-0.682,2.046,-0.444,-0.404,0.489,0.400,0.372,-0.036,1.181,-0.743,-0.932,1.662,-2.377,0.681,1.070,-1.152,-1.887,0.154,0.610,0.383,1.233,0.368,1.092,0.483,0.146,0.446,-0.759,0.771,-0.624,1.450,-1.959,-0.849,-0.692,-0.736,-0.088,1.481,0.882,0.266,0.508,0.937,-0.030,1.164,-0.209,0.404,-0.252,-1.408,2.084,-0.347,-0.766,-1.421,0.830,1.677,-0.658,0.468,0.020,-0.255,0.841,0.425,0.889,0.043,0.264,0.863,1.494,0.087,-2.227,0.274,0.191,1.515,0.571,-0.616,-0.594,0.715,0.813,0.212,0.605
-0.179,0.365,-0.904,1.716,0.624,0.631,0.996,0.632,-1.732,0.136,-0.532,0.748,1.120,0.879,-0.525,-0.235,1.576,0.747,0.899,0.577,1.478,0.122,1.282,-0.991,1.723,0.171,0.295,0.989,-1.171,0.680,1.045,0.795,0.364,1.167,-1.055,-0.972,0.929,-0.016,-0.524,0.494,-1.279,0.058,0.404,0.428,0.612,0.300,0.751,1.162,-0.627,1.905,0.564,1.232,0.593,-0.836,1.197,0.105,0.801,-0.257,0.121,0.552,1.576,0.564,0.701,0.035,-0.685,0.577,-0.189,-0.157,1.039,0.623,0.711,0.781,-0.414,2.597,-0.977,1.566,0.299,0.920,-0.982,0.184,1.857,-0.607,0.602,0.822,0.884,1.035,0.314,-0.572,0.670,-0.113,1.860,-0.455,1.398,-0.142,-0.165,1.718,-0.669,-1.138,0.890,0.694,-0.842,-0.609,-0.061,0.247,0.923,0.877,0.367,1.065,-0.437,0.372,-1.168,0.748,1.500,-0.553,0.798,-0.700,2.005,-0.336,-0.862,0.639,0.171,0.425,-0.143,0.864,-0.328,-1.460,1.693,-2.318,0.096,1.235,-1.168,-1.572,-0.333,-0.006,0.819,0.672,1.021,0.912,0.867,0.178,0.875,-0.321,0.717,-0.208,0.787,-2.715,-0.708,-0.674,-0.021,-0.001,1.304,1.121,-0.258,0.700,0.686,0.355,1.214,0.146,0.592,-0.057,-0.719,2.175,-0.399,-0.974,-1.194,0.959,1.389,-0.701,0.397,-0.057,-0.063,0.712,0.344,0.719,-0.006,0.139,0.858,1.415,0.259,-1.716,0.320,-0.088,1.768,0.418,-0.122,-0.036,0.625,0.114,0.935,0.018
0.514,-0.593,-0.647,1.784,0.626,0.708,0.759,0.967,-2.159,0.489,-1.025,0.813,1.213,0.624,-0.077,-0.313,1.924,0.576,0.788,0.945,0.727,0.480,0.959,-0.878,1.842,-0.061,-0.328,0.670,-0.767,0.789,1.102,0.879,0.143,1.332,-0.893,-1.043,1.120,-0.206,-0.178,0.003,-1.609,0.061,0.393,0.269,0.461,0.662,0.428,1.441,-0.345,1.924,0.501,1.413,0.523,-0.833,1.287,-0.209,0.851,-0.083,0.169,0.052,1.901,0.325,0.763,0.013,-0.217,-0.156,-0.595,0.271,0.829,0.821,0.692,0.655,0.171,2.157,-0.789,1.314,0.208,0.992,-0.796,0.079,1.475,-0.395,1.053,0.642,1.141,0.739,0.818,-0.470,1.109,-0.261,1.637,0.008,0.944,0.170,-0.077,2.136,-0.725,-1.407,0.394,1.295,-1.747,-0.914,-0.791,0.246,1.087,0.819,0.430,0.801,-0.679,0.060,-1.094,0.865,1.306,-0.419,0.360,-0.435,1.949,-0.158,-0.811,0.853,0.391,0.617,0.261,0.750,-0.098,-1.700,1.644,-2.072,-0.433,1.646,-2.296,-1.299,0.383,-0.095,0.958,0.507,1.025,0.793,0.712,0.271,0.744,0.228,0.368,-0.227,0.298,-1.720,-0.606,-0.312,-0.484,-0.124,1.115,1.626,-0.451,0.870,0.622,0.504,0.999,-0.099,1.022,-0.370,-0.451,2.006,0.089,-1.097,-0.671,0.817,1.773,-0.574,0.389,-0.021,0.213,0.406,0.089,1.127,-0.126,-0.202,1.001,1.267,0.044,-1.236,0.626,-0.010,1.574,0.707,-0.031,0.521,0.271,0.371,0.584,-0.502
0.952,-0.997,-0.497,1.976,0.499,1.102,0.460,1.584,-1.174,0.286,-0.772,0.868,1.300,0.829,-0.427,-0.338,2.048,0.783,0.621,1.282,0.443,0.973,0.588,-0.831,2.167,-0.223,-0.874,1.819,-1.754,0.568,1.366,0.984,0.273,1.423,-1.150,-1.045,1.504,-0.800,0.502,-0.428,-0.974,0.030,0.215,0.427,0.287,0.105,0.850,0.860,0.203,1.668,0.640,1.180,0.276,-1.003,1.283,-0.247,1.056,-0.283,0.194,-0.231,2.114,0.196,0.896,0.065,-0.292,-0.271,-0.050,0.102,0.851,0.710,0.481,0.226,0.259,1.996,-0.521,1.159,0.324,1.210,-1.040,-0.402,1.807,-0.900,1.594,0.655,1.185,0.873,0.411,-0.119,1.237,0.061,1.395,0.097,0.949,0.202,-0.250,2.205,-0.468,-0.810,0.273,1.065,-1.200,-1.366,-1.382,0.578,1.127,0.483,0.518,1.304,-1.291,0.177,-1.058,0.685,1.488,-0.272,0.016,-0.542,1.732,0.149,-0.547,0.554,0.133,0.844,0.053,1.190,-0.566,-1.848,1.614,-1.646,0.216,0.966,-1.739,-2.520,0.550,0.042,0.990,0.563,1.258,0.588,0.804,0.220,0.419,0.848,-0.577,0.290,0.303,-0.934,0.091,-0.648,-0.336,-0.298,1.530,1.124,-0.298,1.350,0.434,0.412,1.072,0.058,0.653,-0.511,-0.057,1.433,0.405,-0.967,0.223,1.176,1.432,-1.093,0.311,0.010,0.052,0.145,0.181,1.234,-0.327,-0.305,0.556,1.452,-0.119,-1.723,0.411,0.101,1.521,0.560,-0.589,0.419,0.004,0.624,1.007,-0.442
0.487,-0.573,0.033,1.615,0.414,0.827,0.920,1.519,-1.466,0.224,-0.934,0.601,1.693,0.757,-0.306,-0.478,2.091,0.612,0.746,1.207,0.113,1.199,0.003,-0.431,1.743,-0.048,-0.458,1.720,-1.012,-0.061,1.708,0.340,0.348,1.639,-0.678,-1.319,1.684,-0.926,0.858,-0.830,-0.077,-0.307,0.103,0.220,0.834,0.211,0.954,0.886,0.073,2.194,0.424,1.387,0.091,-0.990,0.817,-0.105,1.339,-0.428,-0.030,0.180,1.828,0.200,1.249,-0.120,-0.354,-0.468,0.518,-0.454,1.396,0.425,0.603,0.583,0.241,2.110,-0.342,1.075,0.630,0.846,-0.705,-0.421,1.876,-1.111,1.437,0.632,1.050,1.099,0.263,-0.267,1.462,0.204,0.680,0.441,0.336,0.023,-0.259,1.936,-0.352,-0.063,-0.289,1.544,-1.455,-1.641,-1.811,1.610,0.559,1.185,-0.097,1.770,-0.523,0.162,-0.530,0.710,1.922,-0.837,-0.332,-0.392,1.476,0.469,-0.850,1.362,-0.021,1.098,-0.036,1.583,-1.308,-1.049,0.855,-1.149,0.324,1.102,-0.645,-1.589,1.000,-0.418,1.471,0.291,1.149,0.598,0.695,0.054,1.105,0.270,-0.692,0.497,0.567,-0.799,-0.253,-0.439,-0.309,0.782,1.343,1.294,0.109,1.257,0.540,0.175,1.222,0.094,0.552,-0.135,-0.543,1.669,0.234,-0.999,0.087,1.612,1.165,-0.764,0.281,0.644,-0.304,-0.477,0.496,1.094,0.199,-0.824,0.988,1.135,0.399,-2.403,0.883,0.117,1.551,0.541,-0.485,0.131,0.776,0.176,1.650,-0.587
0.696,-1.133,0.472,1.184,0.410,0.510,0.969,1.179,-1.387,-0.628,-1.084,0.714,1.510,0.614,-0.667,-0.152,1.464,0.841,0.713,1.245,0.357,1.237,0.081,-1.007,2.571,-0.772,-0.428,1.715,-0.954,0.162,1.886,0.404,-0.058,1.873,-0.499,-1.031,1.782,-0.822,1.037,-0.455,-0.508,0.098,0.313,0.028,0.813,0.045,0.652,1.215,-0.443,2.281,0.516,1.563,-0.090,-0.602,0.699,-0.563,2.021,-0.844,-0.123,0.213,1.749,0.189,1.477,-0.098,-0.130,-1.130,0.639,-0.138,0.972,1.096,-0.151,0.572,0.149,2.096,-0.261,0.782,0.726,0.813,-0.966,-0.419,2.239,-1.537,1.656,0.293,1.384,0.780,0.683,0.204,1.548,0.520,0.801,0.600,0.470,0.093,0.254,1.696,-0.494,-0.480,0.066,1.208,-1.409,-0.733,-1.972,0.752,1.129,0.609,0.144,1.690,-0.433,-0.149,-1.064,0.836,1.823,-0.309,-0.597,0.433,0.986,0.871,-1.339,0.951,0.558,0.785,0.139,1.044,-1.587,-0.873,1.334,-1.073,-0.152,0.993,-0.587,-0.868,0.712,-0.450,1.216,0.286,1.445,0.458,0.976,-0.377,1.484,0.037,-0.149,0.323,0.793,-0.422,-0.454,-0.303,-0.708,0.417,1.640,1.017,0.442,1.063,0.688,0.508,1.371,0.267,0.242,0.483,-0.445,1.753,0.226,-1.253,0.196,1.785,1.188,-0.148,0.007,0.490,0.259,-0.239,0.241,1.030,0.076,-0.678,0.902,1.025,0.079,-2.440,0.926,-0.045,1.476,0.539,-0.371,-0.052,1.208,0.329,1.137,0.055
0.607,-0.715,0.638,0.768,0.709,0.681,0.821,1.440,-1.380,-1.067,-1.180,0.569,1.553,0.635,-0.743,-0.176,1.519,1.121,0.530,1.082,0.338,1.409,0.188,-0.626,2.239,-0.720,-0.358,1.535,-0.741,-0.344,2.071,0.097,0.446,1.545,-0.382,-0.881,1.116,-0.440,1.033,-0.546,-0.280,0.431,0.049,0.219,0.816,0.163,0.643,0.978,-0.166,2.082,0.830,1.525,0.146,-0.599,0.680,-0.367,1.677,-0.796,0.107,-0.036,1.698,0.037,1.446,0.014,0.017,-1.187,1.364,-0.300,1.112,1.126,-0.166,0.887,0.300,1.717,0.100,0.733,0.403,0.868,-0.787,-0.466,2.248,-1.067,1.251,0.912,0.990,0.970,0.113,0.100,1.452,0.770,0.167,0.833,0.061,0.921,0.239,1.736,-0.603,-0.704,0.990,0.633,-1.033,-0.555,-2.536,0.747,1.118,0.415,0.445,1.346,-0.479,-0.375,-1.165,0.947,1.524,-0.289,-0.392,-0.279,1.281,0.504,-0.877,0.710,0.586,0.802,-0.182,1.247,-1.334,-0.945,0.511,-1.260,-0.578,1.408,-0.426,0.200,-0.085,-0.325,1.164,0.146,1.439,0.839,0.443,-0.356,1.623,-0.460,0.675,-0.249,1.278,-0.922,-0.634,0.427,-0.692,0.186,1.464,1.086,0.537,0.977,0.728,0.662,0.736,0.660,0.267,0.354,-0.432,1.752,-0.117,-1.342,-0.193,1.871,1.021,-0.684,0.070,0.640,0.398,-0.212,0.290,0.753,-0.028,0.077,1.055,0.767,-0.080,-2.160,0.212,0.678,1.272,0.305,-0.340,0.783,0.227,0.662,1.262,-0.629
0.597,-0.643,0.559,1.084,0.160,0.788,0.928,1.297,-1.403,-1.540,-1.592,0.327,1.877,0.030,-0.422,0.326,1.294,1.256,0.383,1.089,0.545,0.996,0.606,-0.715,2.277,-0.706,-0.369,1.239,-0.501,-0.573,2.367,-0.046,0.459,1.477,-0.486,-0.762,0.851,-0.387,1.431,-0.850,-0.102,0.443,-0.089,0.580,0.919,0.224,0.625,1.064,-0.201,2.029,1.105,1.296,0.225,-0.389,0.310,-0.783,1.912,-1.132,0.096,0.455,1.480,0.457,1.134,0.527,0.143,-0.646,1.117,-0.326,0.810,1.198,-0.897,0.967,0.089,1.606,0.293,0.460,0.779,0.367,-0.245,-1.128,2.132,-1.062,1.520,0.515,1.283,0.678,0.308,0.167,0.913,1.059,0.096,0.987,0.113,0.777,-0.355,2.042,-0.556,-0.523,0.554,0.993,-0.936,-1.828,-2.560,0.847,1.244,0.341,0.150,1.433,-0.788,-1.302,-1.229,1.002,1.646,0.207,-0.337,-0.446,1.649,0.068,-0.678,1.156,-0.073,1.248,-0.737,1.608,-1.199,-1.045,0.566,-1.428,-0.524,1.384,-0.543,-0.261,-0.208,0.195,1.099,0.249,1.195,1.047,0.623,-0.742,2.191,-0.766,0.639,-0.110,1.293,-1.112,-0.843,0.266,-0.332,0.653,1.386,0.670,0.785,0.800,1.039,-0.005,0.839,0.762,0.267,0.572,-0.921,2.052,-0.462,-0.688,-0.789,1.624,1.288,-0.877,-0.310,0.640,0.349,0.045,0.211,0.643,0.179,-0.354,1.143,0.399,0.113,-1.706,-0.551,0.641,1.572,0.028,-0.715,0.809,0.451,0.418,1.101,-0.682
0.479,-0.753,0.251,1.585,0.055,1.132,0.556,1.483,-1.951,-1.249,-1.226,0.304,2.017,0.220,-0.586,0.267,1.177,1.135,0.024,1.140,0.527,1.273,0.448,-0.726,2.039,-0.337,-0.384,1.495,-0.697,-1.076,2.933,-0.431,0.473,1.521,-0.370,-0.569,0.741,-0.254,0.983,-0.764,-0.383,0.759,-0.354,0.846,0.753,0.298,0.583,1.015,-0.231,1.932,1.008,1.037,0.317,-0.429,0.335,-0.532,1.324,-0.555,0.218,0.603,1.488,0.453,1.301,0.499,-0.182,-0.865,1.250,-0.321,0.609,1.163,-0.920,1.046,-0.066,1.820,0.446,0.492,0.838,0.819,-0.152,-0.528,1.998,-1.430,1.233,1.027,1.083,0.763,0.503,0.093,0.590,1.149,0.048,0.539,0.356,0.773,-0.047,1.833,-0.326,-0.370,1.282,0.411,-0.439,-1.716,-2.830,1.230,0.944,0.322,0.768,0.998,-0.756,-1.420,-0.898,0.978,1.482,0.249,-0.566,-0.388,1.626,0.226,-1.005,1.242,0.076,1.162,-0.566,1.576,-1.389,-0.502,0.513,-1.356,-0.319,1.223,-0.410,-0.384,-0.275,0.452,0.897,0.568,1.084,0.943,0.654,-0.441,1.958,-0.460,0.458,-0.636,1.550,-1.001,-1.283,0.735,-0.495,0.733,1.447,0.972,0.671,0.910,0.711,0.337,0.507,0.864,0.528,-0.013,-0.786,1.735,-0.255,-0.206,-1.086,1.686,1.157,-0.569,-0.149,1.136,0.155,0.174,0.309,0.786,0.112,-0.952,1.242,0.164,0.630,-0.943,-1.081,0.186,1.846,0.175,-0.911,1.179,0.079,0.523,0.718,-0.913
0.868,-0.501,0.459,1.296,0.215,1.133,0.284,1.558,-2.085,-1.776,-0.570,0.467,1.437,0.869,-1.073,0.545,1.029,1.502,0.316,0.952,0.634,1.386,0.803,-1.039,2.113,-0.231,-0.520,1.560,-0.766,-1.254,3.030,-0.680,0.527,1.825,-0.827,-0.042,0.575,0.026,0.547,-0.480,0.140,0.658,-0.361,0.811,0.578,0.211,0.738,0.899,-0.430,2.010,1.026,1.078,0.101,0.217,0.177,-0.356,1.296,-1.114,0.577,0.319,1.762,0.141,1.537,0.327,-0.547,-1.143,0.720,-0.487,0.603,1.197,-0.693,0.739,0.605,1.338,0.740,0.373,1.060,0.626,0.055,-0.307,1.574,-1.069,1.114,1.124,1.049,1.084,0.206,0.159,0.688,1.094,0.074,0.309,0.716,0.704,-0.006,1.376,-0.116,-0.699,1.581,-0.031,0.031,-1.060,-2.136,1.321,0.635,0.870,0.913,1.160,-0.675,-1.427,-0.295,0.698,1.582,0.118,-0.724,-0.130,1.628,-0.063,-0.197,0.980,-0.156,1.127,-0.017,0.731,-1.418,-0.335,-0.275,-1.240,-0.301,1.195,-0.650,-0.537,-0.705,0.939,0.658,0.561,1.063,0.665,0.811,-0.296,2.064,-0.579,0.792,-0.550,1.870,-0.486,-1.412,0.099,-0.086,0.540,1.486,0.961,0.501,0.909,0.600,0.235,0.416,0.307,0.924,-0.545,0.282,1.045,-0.005,0.310,-0.857,1.154,1.529,-0.471,0.379,0.720,-0.027,0.126,0.512,-0.040,0.832,-0.979,1.427,0.013,0.969,-1.671,-0.687,0.007,1.453,0.509,-1.399,0.873,0.458,0.788,0.247,-0.685
0.907,-0.171,-0.102,1.551,0.153,0.960,0.472,1.113,-2.216,-1.433,-0.344,0.516,1.105,0.989,-2.014,0.190,0.972,1.688,-0.033,1.102,0.553,1.646,0.487,-1.103,1.772,-0.133,-0.672,1.219,-0.753,-1.463,3.306,-0.988,0.671,1.698,-1.230,-0.498,0.857,0.263,0.453,-0.061,0.154,0.890,-0.290,0.698,0.754,-0.237,1.242,0.372,0.031,1.623,1.340,0.874,0.298,-0.199,0.495,-0.501,1.160,-1.363,1.183,0.106,1.534,0.128,1.382,0.262,-0.076,-0.684,0.238,-0.008,0.592,1.085,-0.711,0.230,0.917,1.169,0.870,0.010,1.278,0.165,0.393,-0.313,1.122,-1.257,0.811,1.442,0.780,1.305,0.206,0.192,1.090,0.856,0.174,0.636,0.333,0.736,0.172,1.380,-0.147,-1.031,2.023,-0.258,-0.297,-0.706,-2.014,0.657,1.000,0.791,0.762,1.277,-0.841,-1.037,-0.253,0.657,1.584,-0.181,-0.320,-0.613,2.186,-0.491,-0.032,0.494,0.127,1.372,-0.093,0.851,-1.104,0.179,-0.419,-0.720,-0.227,1.429,-0.905,-0.474,-0.487,0.826,0.616,0.649,0.816,0.883,0.628,-0.134,2.013,-0.449,0.631,-0.247,1.249,-0.141,-1.162,0.919,-0.307,0.322,1.673,0.723,0.692,0.983,0.291,0.556,0.099,0.654,0.701,-0.610,0.143,1.242,-0.498,-0.184,-1.369,1.607,0.846,-0.394,0.421,0.589,-0.104,-0.251,0.726,-0.259,0.955,-0.688,1.077,0.257,0.267,-1.522,-0.902,0.515,1.126,0.614,-2.114,1.242,0.247,0.797,0.068,-1.116
0.975,-0.327,0.097,1.340,0.051,0.677,0.683,0.791,-1.895,-0.815,-0.747,0.549,1.218,1.022,-1.728,0.454,1.056,1.669,-0.392,0.920,0.919,1.374,0.675,-0.920,1.555,0.228,-0.416,1.013,-0.814,-0.798,2.669,-0.654,0.257,1.725,-1.066,-0.467,0.797,0.288,0.403,-0.261,0.212,0.879,-0.460,0.725,0.886,-0.397,1.262,0.301,-0.345,1.854,0.855,1.208,0.033,-0.731,0.735,-0.944,1.415,-1.314,1.271,-0.054,1.549,0.198,1.589,0.174,-0.511,-1.069,-0.042,0.256,0.373,1.104,-0.732,0.676,0.623,1.616,0.432,0.561,1.238,0.510,0.478,-0.559,1.607,-1.286,0.566,1.670,0.472,1.337,0.151,0.364,0.594,0.860,0.035,0.735,0.355,0.720,0.130,1.358,-0.063,-1.331,2.114,-0.575,0.006,-1.029,-2.048,1.493,0.493,0.879,0.701,1.073,0.119,-0.826,-0.362,1.364,0.920,-0.142,-0.127,-0.141,1.931,-0.220,0.198,0.314,0.210,1.375,-0.142,0.488,-1.478,1.198,-1.101,-0.916,0.226,1.006,-1.064,-0.710,-0.312,0.606,0.625,0.737,0.831,0.801,0.860,-0.097,1.706,-0.408,1.040,-0.237,1.373,0.014,-0.400,0.381,-0.107,0.352,1.585,0.638,0.484,0.865,0.748,0.403,0.375,0.705,0.411,-0.906,0.472,1.109,-0.490,0.370,-1.180,1.189,1.144,-0.909,-0.275,1.070,-0.208,-0.862,0.991,-0.486,0.373,-0.364,1.465,-0.090,0.959,-1.167,-0.624,0.683,0.868,0.320,-2.294,1.269,-0.132,0.805,-0.052,-0.813
0.489,-0.307,0.546,0.908,0.091,0.679,0.943,0.547,-1.450,-0.971,-1.328,0.704,1.212,1.027,-2.179,1.567,0.414,1.954,-0.500,0.896,1.045,1.389,0.766,-0.833,1.572,0.056,-1.016,1.719,-1.091,-1.153,3.117,-1.157,0.251,1.382,-0.758,-0.945,0.797,0.197,0.507,-0.182,-0.052,0.563,-0.182,0.482,0.932,-0.376,0.942,0.552,-0.389,1.811,0.848,1.162,0.147,-0.120,0.405,-0.507,1.256,-1.251,0.870,0.246,1.537,0.286,1.093,0.426,-0.472,-0.503,0.058,-0.010,0.957,0.671,-0.276,1.282,0.080,2.207,0.197,0.566,1.012,0.373,0.105,-0.770,1.965,-1.163,0.341,1.774,0.229,1.470,0.168,-0.052,0.906,0.702,-0.221,1.210,0.088,0.793,0.203,1.538,-0.225,-1.518,1.997,-0.638,0.363,-0.841,-2.019,0.912,1.092,0.077,0.708,0.683,0.145,-0.892,-0.345,1.247,0.983,0.118,-0.086,0.322,1.485,0.162,-0.691,0.671,0.092,1.578,-0.490,0.263,-1.505,1.406,-0.867,-0.426,0.189,1.381,-0.689,0.030,0.198,0.260,0.683,0.751,0.557,0.883,1.132,-0.461,1.620,-0.768,1.639,-0.739,1.846,-0.285,-0.631,0.598,-0.636,0.614,1.544,0.377,1.352,0.372,0.888,0.604,0.576,0.477,0.095,-0.941,0.374,0.820,-0.437,0.443,-1.143,0.957,1.387,-1.138,-0.348,1.164,0.481,-0.633,0.880,-0.468,0.510,0.144,1.710,0.347,0.609,-0.058,-0.699,0.761,0.724,0.393,-2.729,0.882,0.325,0.358,0.814,-2.050
