1.789,0.437,0.096,-1.863,-0.277,-0.355
0.284,0.693,0.440,0.157,0.545,0.780
0.626,0.504,0.273,0.043,0.747,0.315
0.885,0.744,0.082,0.892,0.125,0.779
0.704,0.428,0.225,0.439,0.757,0.167
0.202,0.730,0.015,0.423,0.717,0.360
0.360,0.519,0.408,0.626,0.102,0.441
0.535,0.689,0.191,0.134,0.101,0.976
0.657,0.658,0.262,0.022,0.098,0.514
0.101,0.736,0.789,0.432,0.300,0.252
0.515,0.805,0.289,0.555,0.776,0.274
0.399,0.489,0.675,0.334,0.265,0.549
0.790,0.261,0.706,0.095,0.793,0.789
0.265,0.203,0.464,0.553,0.019,0.848
0.358,0.540,0.304,0.953,0.514,0.309
0.924,0.824,0.674,0.778,0.672,0.247
0.537,0.405,0.645,0.078,0.519,0.438
0.795,0.806,0.244,0.650,0.333,0.843
0.508,0.621,0.523,0.503,0.635,0.046
0.071,0.271,0.940,0.444,0.830,0.461
0.377,0.780,0.198,0.183,0.366,0.152
0.720,0.646,0.644,0.475,0.445,0.535
0.439,0.191,0.958,0.167,0.115,0.252
0.579,0.147,0.182,0.932,0.835,0.459
0.495,0.087,0.518,0.685,0.321,0.828
0.203,0.771,0.843,0.024,0.171,0.187
0.662,0.589,0.422,0.001,0.878,0.551
0.406,0.036,0.901,0.666,0.495,0.510
0.559,0.527,0.642,0.786,0.045,0.806
0.346,0.756,0.075,0.096,0.981,0.980
1.000,0.806,0.380,0.330,0.647,0.928
0.590,0.014,0.936,0.029,0.082,0.245
0.819,0.970,0.121,0.801,0.199,0.964
0.816,0.341,0.451,0.364,0.108,0.052
0.276,0.283,0.302,0.475,0.062,0.430
0.020,0.040,0.789,0.964,0.926,0.793
0.321,0.238,0.770,0.613,0.532,0.764
0.214,0.036,0.374,0.810,0.175,0.754
0.552,0.154,0.474,0.082,0.109,0.437
0.676,0.168,0.943,0.999,0.077,0.081
0.779,0.191,0.598,0.480,0.078,0.033
0.891,0.562,0.838,0.244,0.314,0.660
0.770,0.048,0.202,0.338,0.285,0.951
0.476,0.931,0.714,0.941,0.068,0.789
0.555,0.432,0.445,0.620,0.875,0.258
0.392,0.654,0.080,0.810,0.049,0.621
0.586,0.187,0.402,0.928,0.834,0.770
0.269,0.220,0.128,0.981,0.582,0.213
0.028,0.206,0.324,0.280,0.086,0.229
0.301,0.442,0.903,0.794,0.751,0.132
0.424,0.085,0.009,0.515,0.168,0.318
0.817,0.679,0.477,0.303,0.531,0.453
0.094,0.035,0.506,0.981,0.522,0.354
0.708,0.541,0.866,0.581,0.915,0.849
0.304,0.485,0.438,0.522,0.810,0.486
0.547,0.643,0.122,0.904,0.049,0.884
0.839,0.539,0.071,0.827,0.282,0.392
0.488,0.669,0.940,0.054,0.420,0.781
0.634,0.943,0.573,0.936,0.029,0.512
0.129,0.614,0.686,0.500,0.946,0.279
0.587,0.349,0.358,0.942,0.458,0.708
0.062,0.829,0.499,0.746,0.297,0.030
0.607,0.970,0.171,0.666,0.129,0.322
0.672,0.404,0.751,0.152,0.687,0.610
0.172,0.168,0.486,0.022,0.092,0.263
0.573,0.949,0.319,0.587,0.014,0.380
0.133,0.313,0.677,0.780,0.037,0.098
0.182,0.242,0.023,0.276,0.176,0.550
0.335,0.734,0.448,0.660,0.293,0.618
0.519,0.262,0.306,0.260,0.755,0.243
0.069,0.942,0.559,0.991,0.236,0.378
0.452,0.006,0.407,0.208,0.197,0.080
1.007,0.855,0.454,1.391,-0.022,0.195
0.299,0.335,0.808,0.362,0.759,0.263
0.207,0.707,0.326,0.445,0.583,0.885
0.819,0.962,0.048,0.508,0.591,0.076
0.361,0.940,0.458,0.092,0.846,0.674
0.518,0.138,0.871,0.736,0.880,0.360
0.546,0.024,0.466,0.968,0.426,0.354
0.767,0.826,0.634,0.457,0.594,0.196
0.880,0.681,0.716,0.030,0.400,0.650
0.957,0.815,0.543,0.027,0.196,0.766
0.762,0.177,0.791,0.354,0.257,0.272
0.395,0.271,0.560,0.818,0.881,0.825
0.331,0.986,0.934,0.449,0.273,0.116
0.163,0.723,0.580,0.694,0.945,0.733
0.885,0.827,0.832,0.588,0.832,0.682
0.781,0.266,0.299,0.756,0.872,0.514
0.553,0.850,0.773,0.708,0.107,0.943
0.837,0.704,0.463,0.579,0.131,0.296
0.219,0.243,0.207,0.010,0.766,0.027
0.005,0.171,0.310,0.277,0.821,0.948
0.152,0.906,0.513,0.272,0.130,0.257
0.083,0.932,0.309,0.244,0.883,0.589
0.581,1.150,0.118,1.024,0.357,0.561
0.074,0.609,0.852,0.027,0.382,0.129
0.057,0.645,0.906,0.997,0.317,0.738
0.088,0.468,0.661,0.273,0.577,0.649
0.447,0.313,0.341,0.224,0.305,0.788
0.414,0.939,0.187,0.921,0.015,0.337
0.229,0.681,0.751,0.162,0.407,0.244
0.831,0.390,0.038,0.203,0.999,0.246
0.383,0.511,0.407,0.995,0.872,0.528
0.435,0.875,0.763,0.533,0.468,0.327
0.211,0.360,0.270,0.562,0.608,0.435
0.180,0.087,0.982,0.443,0.297,0.116
0.346,0.127,0.519,0.417,0.915,0.243
0.644,0.919,0.406,0.596,0.698,0.367
0.971,0.390,0.288,0.586,0.116,0.110
0.496,0.253,0.479,0.826,0.024,0.578
0.279,0.935,0.982,0.704,0.790,0.064
0.057,0.839,0.680,0.493,0.235,0.639
0.988,0.091,0.079,0.082,0.888,0.069
0.286,0.423,0.633,0.201,0.289,0.272
0.242,0.381,0.846,0.125,0.820,0.163
0.730,0.675,0.529,0.061,0.482,0.466
0.535,0.137,0.430,0.332,0.042,0.620
0.476,0.264,0.388,0.058,0.446,0.868
0.127,0.168,0.701,0.640,0.978,0.147
0.648,0.551,0.117,0.380,0.399,0.687
0.974,0.525,0.812,0.113,0.328,0.151
0.970,0.755,0.258,0.281,0.576,0.881
0.253,0.686,0.709,0.844,0.700,0.110
0.323,0.003,0.294,0.743,0.159,0.906
0.985,0.017,0.404,0.789,0.106,0.762
0.472,0.376,0.974,0.133,0.613,0.808
0.795,0.423,0.414,0.959,0.612,0.216
0.515,0.730,0.133,0.556,0.656,0.753
0.463,0.333,0.859,0.171,0.683,0.761
0.738,0.382,0.816,0.165,0.107,0.101
0.703,0.029,0.449,0.367,0.066,0.714
0.997,0.344,0.622,0.902,0.218,0.795
0.836,0.766,0.834,0.230,0.462,0.048
0.681,0.234,0.082,0.622,0.722,0.448
0.144,0.084,0.389,0.051,0.525,0.193
0.472,0.257,0.318,0.022,0.067,0.770
0.751,0.550,0.004,0.786,0.438,0.647
0.352,0.662,0.734,0.015,0.314,0.800
0.406,0.338,0.515,0.878,0.327,0.391
0.717,0.565,0.298,0.322,0.069,0.823
0.965,0.595,0.508,0.464,0.633,0.399
0.689,0.651,-0.352,1.244,-0.480,-0.245
0.437,0.846,-0.632,1.505,-0.001,-0.369
0.517,0.392,0.136,0.320,0.369,0.914
0.818,0.938,0.297,0.859,0.402,0.572
0.593,0.547,0.519,0.553,0.543,0.815
0.414,0.780,0.532,0.620,0.548,0.975
0.500,0.873,0.904,0.453,0.237,0.891
0.145,0.412,0.497,0.766,0.399,0.408
0.383,0.978,0.908,0.566,0.858,0.187
0.734,0.506,0.737,0.843,0.991,0.442
0.490,0.744,0.167,1.046,0.243,0.064
0.042,0.021,0.202,0.390,0.438,0.639
0.818,0.030,0.938,0.025,0.242,0.071
0.189,0.109,0.093,0.203,0.131,0.516
0.574,0.003,0.731,0.238,0.877,0.117
0.520,0.875,0.227,0.574,0.911,0.045
0.561,0.093,0.123,0.133,0.453,0.638
0.753,0.025,0.102,0.673,0.203,0.132
0.686,0.783,0.975,0.142,0.673,0.345
0.227,0.557,0.447,0.994,0.550,0.357
0.102,0.352,0.418,0.905,0.264,1.000
0.231,0.183,0.834,0.414,0.198,0.480
0.400,0.450,0.875,0.686,0.321,0.002
0.265,0.015,0.744,0.392,0.057,0.067
0.519,0.556,0.672,0.978,0.231,0.882
0.150,0.711,0.162,0.741,0.150,0.739
0.679,0.761,0.795,0.705,0.038,0.724
0.834,0.615,0.158,0.394,0.561,0.161
0.647,0.137,0.938,0.146,0.306,0.306
0.681,0.581,0.239,0.165,0.181,0.024
0.826,0.107,0.976,0.723,0.706,0.397
0.194,0.409,0.286,0.019,0.410,0.378
0.939,0.082,0.957,0.188,0.569,0.793
0.864,0.583,0.308,1.096,0.247,0.487
0.035,0.644,0.779,0.073,0.473,0.666
0.075,0.041,0.132,0.990,0.759,0.738
0.219,0.636,-0.274,1.544,-0.310,0.012
0.103,0.960,0.485,0.963,0.314,0.067
0.489,0.978,0.954,0.591,0.128,0.524
0.542,0.781,0.218,0.736,0.158,0.510
0.662,0.880,-0.151,1.270,-0.363,0.299
0.507,0.677,0.314,0.950,0.275,0.639
0.501,0.518,0.647,0.227,0.316,0.110
0.954,0.393,0.432,0.209,0.442,0.982
0.606,0.767,-0.150,1.167,-0.157,0.146
0.311,1.676,-0.497,1.761,0.001,-0.373
1.017,1.235,-0.764,0.924,-0.263,0.229
0.561,0.297,0.903,0.650,0.533,0.876
0.019,0.454,0.610,0.686,0.198,0.604
0.298,0.135,0.495,0.391,0.870,0.559
0.075,0.156,0.381,0.760,0.266,0.282
1.071,0.526,0.481,0.785,0.481,0.645
0.496,0.307,0.069,0.907,0.184,0.423
0.937,0.890,0.034,0.824,0.215,0.892
0.569,0.668,0.151,1.036,0.180,0.736
0.762,0.272,0.268,0.425,0.213,0.736
0.230,1.176,-0.252,1.386,-0.499,0.168
0.845,0.644,-0.015,1.104,0.327,0.276
0.748,0.870,0.432,0.902,0.541,0.510
0.605,0.619,0.310,0.975,0.421,0.111
0.450,0.954,0.341,0.726,0.556,0.015
0.719,1.034,0.217,0.990,0.320,0.256
0.399,0.485,0.514,0.076,0.521,0.226
0.293,0.147,0.065,0.884,0.299,0.551
0.349,0.840,0.402,0.969,0.239,0.065
0.107,0.178,0.877,0.963,0.775,0.305
0.734,0.914,0.419,0.413,0.250,0.738
0.483,0.549,0.818,0.740,0.998,0.933
0.641,1.280,-0.202,1.802,0.249,0.226
0.504,1.046,-0.331,1.735,0.236,0.090
0.710,1.303,-0.576,0.785,0.256,0.183
0.341,0.638,0.645,0.867,0.693,0.871
0.679,0.891,0.562,0.617,0.168,0.466
0.789,0.488,0.485,0.866,0.657,0.424
0.570,0.876,-0.200,1.062,0.205,0.107
0.825,0.460,0.047,1.314,0.376,0.243
0.305,0.417,-0.686,1.382,0.030,-0.043
0.117,0.920,0.914,0.443,0.363,0.061
0.489,0.441,0.458,0.361,0.059,0.977
0.551,1.210,-0.265,1.165,-0.876,0.207
0.714,1.752,-0.543,1.625,-0.068,-0.580
0.598,0.711,0.885,0.965,0.078,0.268
0.963,0.183,0.055,0.066,0.270,0.163
0.377,0.179,0.894,0.766,0.426,0.502
0.087,0.902,0.428,0.336,0.706,0.470
0.957,0.341,0.089,0.867,0.189,0.777
1.330,0.917,-0.309,0.877,0.191,0.770
0.485,0.212,0.430,0.256,0.240,0.168
0.370,0.894,0.655,0.273,0.270,0.027
0.289,0.927,0.036,1.478,-0.089,-0.293
0.336,1.319,0.033,1.116,-0.038,-0.077
0.475,0.716,0.617,0.613,0.653,0.034
0.015,0.327,0.473,0.369,0.749,0.218
0.186,0.630,0.035,1.369,-0.254,-0.121
0.548,0.784,0.966,0.723,0.990,0.428
0.677,0.531,0.429,0.291,0.210,0.034
1.044,0.395,0.066,0.323,0.312,0.094
0.354,0.718,0.924,0.277,0.151,0.208
0.879,0.860,0.934,0.925,0.218,0.041
0.075,0.208,0.879,0.692,0.726,0.074
0.171,0.671,0.288,0.539,0.495,0.493
0.193,0.877,-0.477,1.122,-0.345,-0.092
0.559,1.376,-0.362,0.991,0.028,0.013
0.834,0.658,-0.453,1.088,-0.059,0.018
0.749,1.031,-0.134,1.494,0.129,0.090
0.386,1.195,0.005,1.692,0.207,0.176
0.075,1.130,-0.175,1.729,0.112,0.059
0.676,0.685,-0.082,1.046,0.212,0.229
0.872,1.267,-0.494,1.822,0.275,-0.055
1.454,0.990,-0.905,1.342,0.150,-0.739
0.961,1.620,-1.143,1.609,0.033,-0.325
1.019,0.742,-1.149,1.208,0.321,0.353
1.074,1.268,-0.859,1.445,0.552,0.505
0.734,1.336,-0.703,1.339,0.407,0.421
0.766,1.855,-0.870,1.729,0.250,0.120
0.090,0.361,0.939,0.327,0.802,0.348
0.391,0.685,0.378,0.209,0.028,0.384
0.698,1.375,-0.311,1.029,-0.103,-0.492
0.980,0.855,-0.216,0.728,0.301,0.309
0.347,0.623,-0.570,1.220,-0.100,-0.078
1.250,1.032,-1.020,0.757,0.010,0.293
1.411,1.938,-1.986,1.575,0.274,0.175
0.760,1.733,-2.221,1.286,-0.091,-0.012
0.570,0.397,0.921,0.231,0.225,0.493
0.182,0.048,0.614,0.492,0.852,0.003
0.746,1.124,0.311,1.742,0.154,-0.328
0.048,0.865,0.892,0.254,0.065,0.667
0.220,0.104,0.663,0.173,0.875,0.067
0.588,0.616,0.367,0.640,0.524,-0.042
0.694,0.793,0.207,0.616,0.382,0.128
0.534,0.528,0.528,0.328,0.118,0.299
0.639,0.514,0.496,0.492,-0.159,0.197
1.253,0.813,0.755,0.357,0.215,0.538
0.959,0.168,0.514,0.468,0.182,0.334
1.058,1.110,0.196,1.222,0.078,0.124
0.655,1.238,0.015,1.399,0.091,0.174
1.034,0.817,-0.021,1.326,0.116,0.184
0.916,0.832,-0.162,1.244,0.145,0.213
1.513,1.060,-0.724,1.066,-0.378,0.618
1.032,1.215,-0.384,1.001,0.266,0.338
0.869,0.518,-0.464,1.062,0.378,0.337
0.688,1.165,-0.167,0.962,0.388,0.407
0.811,0.495,-0.515,0.679,0.121,0.285
0.666,1.303,-0.331,1.350,0.168,0.297
0.650,1.315,-0.272,1.547,0.256,0.288
0.522,0.114,0.597,0.467,0.007,0.120
0.505,0.285,0.501,0.463,0.424,0.391
0.485,1.346,0.107,1.364,0.251,0.084
0.252,0.907,-0.002,1.841,0.331,0.356
0.700,0.960,-0.514,0.959,0.161,0.239
1.436,0.702,-1.579,1.642,0.502,-0.038
0.720,1.440,-0.632,1.029,0.344,0.243
0.999,0.863,-0.431,0.971,0.384,0.569
0.467,1.251,-0.427,1.156,0.106,0.181
0.541,1.013,-0.388,1.080,0.077,0.198
1.032,0.962,0.054,1.333,0.419,0.592
0.121,0.365,0.881,0.905,0.694,0.006
0.744,0.841,0.714,0.701,0.260,0.285
0.980,0.644,0.677,0.969,0.329,0.476
0.613,0.676,0.898,0.906,0.982,0.233
0.796,0.629,0.550,0.996,0.106,0.233
0.232,0.938,0.453,0.231,0.084,0.114
0.311,0.724,-0.163,1.454,0.103,0.117
-0.156,0.945,0.099,1.742,0.083,0.170
0.270,1.224,-0.011,2.057,0.021,0.242
1.329,1.507,-0.295,0.857,-0.108,0.338
0.691,1.733,-0.784,1.288,-0.020,-0.277
0.795,1.830,-1.345,1.593,-0.230,0.229
0.741,1.151,-0.768,1.551,0.256,0.455
1.006,1.420,-0.449,1.212,0.173,0.518
0.692,1.296,-0.345,1.281,0.168,0.315
0.576,0.884,-0.386,0.988,0.095,0.194
0.832,1.253,-0.260,1.224,0.249,0.339
0.657,1.290,-0.744,1.554,0.110,0.390
1.315,1.109,-0.604,1.225,0.637,0.837
1.238,0.773,-0.548,1.104,0.159,0.498
1.546,1.361,-2.767,2.056,0.590,0.549
0.805,1.083,-0.973,1.158,0.132,0.218
0.635,1.608,-0.371,1.277,0.211,0.311
0.317,1.374,-0.571,0.934,-0.095,0.060
0.289,1.697,-0.422,1.173,0.060,0.285
0.461,1.792,-0.245,1.427,0.256,0.406
0.553,1.115,-0.404,1.337,0.021,0.164
0.483,1.179,-0.327,1.074,0.092,0.294
0.868,0.986,-0.284,1.496,0.192,0.404
1.468,1.180,-0.602,1.133,-0.010,0.788
1.155,0.709,-0.517,1.170,0.281,0.548
1.013,0.975,-0.311,1.234,0.326,0.454
0.952,0.969,-0.300,0.934,0.091,0.251
1.057,1.189,-0.925,0.795,-0.046,0.161
0.843,0.965,-0.558,1.164,0.167,0.393
1.564,1.091,-1.044,1.145,0.122,0.908
1.025,1.180,-0.801,1.274,-0.134,0.364
0.890,0.623,-0.751,1.088,-0.125,0.104
0.656,0.530,0.700,0.261,0.039,0.368
0.479,1.294,0.307,1.542,-0.388,-0.495
0.588,1.215,-0.255,1.742,0.184,0.391
1.336,1.342,-0.419,0.897,-0.139,0.115
0.700,1.491,-1.350,1.266,-0.567,-0.091
0.525,1.206,-0.598,1.726,-0.103,0.210
0.284,1.159,-0.469,1.618,0.051,0.258
0.572,1.146,-0.276,1.612,0.195,0.364
0.756,0.672,-0.371,1.528,0.011,0.201
0.319,1.030,-0.256,1.752,0.033,0.214
0.444,1.238,-0.292,1.596,0.102,0.241
0.564,1.292,-0.219,1.821,0.224,0.306
0.646,0.773,-0.097,1.612,0.290,0.448
0.959,0.879,-0.575,1.086,0.075,0.151
0.465,0.973,-0.598,1.098,-0.104,0.025
0.895,1.460,-1.048,0.479,-0.358,0.299
1.359,2.204,-1.080,1.666,0.102,0.584
0.488,1.858,-1.352,1.480,-0.172,0.117
1.629,1.515,-2.429,1.369,-0.264,0.372
1.160,1.933,-1.289,1.636,-0.399,0.424
1.049,1.088,-0.768,1.536,0.193,0.445
0.607,0.931,-0.665,1.017,-0.021,0.148
1.197,0.893,-0.958,1.424,0.177,0.251
0.922,1.247,-0.518,1.548,0.267,0.400
0.700,1.344,-0.215,1.701,0.319,0.449
1.035,0.919,-0.176,0.939,0.369,0.496
0.674,0.811,-0.427,1.040,0.060,0.185
0.457,0.942,0.725,0.629,0.034,0.234
0.660,0.580,0.666,0.740,0.269,0.403
0.444,0.761,-0.036,0.925,-0.030,0.122
0.715,0.970,-0.322,1.659,-0.750,0.200
0.552,0.845,-0.421,1.509,-0.028,0.235
0.635,1.144,-1.352,1.692,-0.094,0.172
0.880,1.358,-0.884,1.061,0.124,0.311
0.738,1.707,-1.767,1.549,0.068,0.269
0.883,1.339,-0.662,1.348,0.341,0.516
0.841,1.307,-1.107,1.375,0.269,0.518
0.945,0.569,-0.444,0.985,0.104,0.293
0.916,1.313,-0.222,1.621,0.283,0.133
1.395,1.264,-0.839,1.153,0.497,-0.264
0.867,0.844,-0.686,1.002,0.126,0.010
0.776,1.141,-0.336,1.547,0.187,0.257
0.894,0.982,-0.254,0.967,0.241,0.356
0.435,0.738,-0.620,0.842,-0.132,0.004
1.825,1.329,-1.906,1.628,0.429,0.395
1.061,1.618,-1.430,1.472,0.144,0.211
1.948,2.395,-3.291,1.558,-0.059,1.094
0.882,0.764,-1.096,1.141,-0.199,0.370
0.733,1.325,-0.446,1.566,0.219,0.364
0.471,1.295,-0.594,1.210,0.058,0.264
1.389,1.061,-1.601,1.393,-0.017,0.690
1.222,0.908,-0.782,1.425,0.053,0.124
0.800,1.493,-0.146,0.877,-0.695,-0.192
0.331,1.604,-0.809,1.455,-0.289,0.112
1.156,1.365,-1.210,1.165,0.133,0.450
1.113,0.842,-0.585,0.982,0.322,0.505
0.708,1.300,-0.458,1.454,0.060,0.210
0.455,1.288,-0.630,1.019,-0.113,0.053
1.162,1.497,-0.928,1.025,0.468,0.287
0.791,1.416,-0.512,1.343,0.140,0.282
1.167,0.993,-0.602,1.069,0.236,0.343
0.470,0.891,-0.719,1.207,-0.178,-0.037
1.227,1.279,-0.571,0.951,-0.372,0.356
1.039,0.766,-0.465,0.920,0.022,0.421
1.081,1.210,-0.268,0.854,0.118,0.435
0.708,1.303,-0.298,1.413,0.082,0.187
0.600,1.205,-0.594,1.086,-0.120,0.055
1.703,1.664,-1.929,1.170,0.290,0.301
1.730,1.251,-3.168,1.805,-0.063,0.432
1.428,1.112,-0.595,1.273,0.318,0.711
0.714,0.771,-0.594,1.244,0.001,0.181
0.502,0.789,-0.507,1.571,-0.070,0.101
0.068,0.761,-0.599,1.482,-0.213,-0.159
0.367,1.281,-0.744,1.834,-0.086,0.209
0.592,1.326,-0.414,1.862,0.198,0.384
0.315,1.138,-0.476,1.686,0.011,0.172
0.552,1.128,-0.341,1.291,0.124,0.259
0.798,0.867,-0.342,0.947,-0.043,0.112
0.822,0.888,-0.620,1.290,0.022,0.185
0.761,1.340,-0.335,1.309,0.116,0.281
0.391,1.326,-0.380,1.456,0.052,0.094
0.466,0.514,-0.344,1.409,0.220,0.257
0.857,1.090,-0.204,1.168,0.226,0.284
1.027,0.931,-0.749,0.867,-0.155,0.286
0.980,1.350,-0.228,1.503,0.266,0.375
0.525,1.247,-0.569,0.930,-0.067,0.029
1.229,1.090,-1.106,1.054,-0.429,0.274
0.923,1.546,-0.586,1.373,0.129,0.411
0.567,1.326,-0.457,1.486,0.240,0.145
0.951,1.269,-0.178,1.310,0.361,0.455
0.607,1.038,-0.499,1.200,0.086,0.196
0.721,1.289,-0.438,1.661,0.146,-0.169
0.806,1.176,-0.411,1.524,0.192,0.230
0.854,1.457,-0.345,1.313,0.116,0.262
1.600,1.314,-2.187,1.231,-0.365,0.773
1.510,1.082,-2.637,1.741,-0.592,0.914
1.110,1.366,-0.668,1.204,-0.005,0.443
0.924,0.613,-0.488,0.774,0.165,0.298
0.825,1.094,-0.367,0.838,0.167,0.310
0.783,1.472,-0.170,1.461,0.200,0.366
0.720,1.057,-0.271,0.908,0.057,0.229
0.480,1.397,-0.347,0.810,-0.094,0.114
1.112,1.070,-0.106,0.997,0.226,0.473
1.720,1.311,-1.481,1.299,-0.484,0.905
1.173,0.970,-0.614,1.187,-0.158,0.724
0.847,1.254,-0.417,1.101,-0.074,0.310
0.535,0.931,-0.545,0.962,-0.128,0.097
0.687,1.005,-0.629,0.674,-0.214,0.049
1.315,0.836,-0.141,1.123,0.307,0.676
1.013,1.250,-0.391,0.880,0.087,0.119
0.967,0.750,0.151,1.691,0.184,-0.385
0.600,1.326,-1.052,1.857,0.085,-0.090
0.528,1.220,-0.466,1.728,0.182,0.226
0.925,1.509,0.073,1.041,0.155,0.655
1.036,1.144,-0.091,1.164,0.285,0.604
0.496,1.022,-0.350,1.361,-0.222,0.307
0.854,1.108,-0.123,1.534,0.081,0.333
0.498,1.068,-0.252,1.603,0.038,0.208
0.516,1.120,-0.396,1.099,-0.121,0.110
1.501,1.214,-0.460,1.078,-0.585,0.636
0.897,1.349,-0.383,1.191,-0.117,0.157
0.565,1.133,-0.443,1.100,-0.118,0.108
1.639,1.650,-1.396,1.270,0.509,0.447
1.426,1.042,-2.177,1.627,0.389,0.208
0.744,1.016,-0.654,1.476,0.247,0.200
0.488,0.826,-0.630,1.271,-0.061,0.049
1.266,1.230,-0.595,0.952,0.145,-0.093
0.745,1.511,-0.804,0.994,0.428,0.529
0.703,1.078,-0.559,1.089,0.115,0.331
0.678,1.432,-0.199,1.641,0.251,0.357
1.100,1.009,-0.944,0.652,-0.644,0.470
0.782,1.398,-0.438,1.336,0.028,0.363
0.332,1.489,-0.410,1.060,0.191,0.339
0.432,1.085,-0.433,1.215,-0.030,0.149
0.887,1.010,-0.330,0.901,0.032,0.196
0.953,1.186,-0.244,1.274,0.141,0.347
0.805,0.625,-0.500,0.762,-0.174,0.011
0.730,0.721,-0.499,0.621,-0.128,0.026
0.860,1.253,-0.338,0.985,-0.037,0.111
1.396,1.225,-2.003,1.152,-0.055,0.748
1.014,1.540,-0.658,1.257,0.122,0.396
0.553,1.298,-0.742,0.961,-0.071,0.095
1.636,1.131,-0.704,1.367,-0.433,0.904
0.751,0.917,-0.677,0.992,-0.249,0.168
0.808,1.342,-0.352,0.957,-0.322,0.313
0.512,1.190,-0.526,0.792,-0.153,0.045
0.354,0.849,-0.412,1.331,0.073,0.150
0.281,1.218,-0.256,1.779,0.052,0.206
0.998,1.189,-0.066,2.028,-0.060,0.178
0.543,1.102,-0.240,1.713,0.047,0.192
1.172,1.113,-0.249,0.947,0.481,0.596
1.524,1.089,-1.179,1.296,0.870,0.486
0.834,1.102,-0.812,1.150,0.296,0.275
0.748,1.051,-0.441,1.097,0.183,0.253
1.616,1.735,-1.307,1.309,0.264,0.566
1.758,1.376,-2.903,1.774,0.105,1.267
1.049,1.280,-0.576,1.547,0.295,0.652
0.886,0.739,-0.554,1.293,-0.043,0.082
0.781,1.103,-0.261,1.288,0.203,0.314
1.087,0.832,-0.864,1.144,0.248,0.333
0.309,0.693,-0.577,1.465,0.224,0.457
0.527,1.323,-0.603,1.736,0.193,-0.079
0.142,1.021,-0.529,1.433,-0.029,-0.061
0.569,1.529,-0.369,1.879,0.092,0.288
0.436,1.188,-0.378,1.658,-0.041,0.293
0.557,1.001,-0.366,1.273,-0.018,0.203
1.046,1.241,-0.273,0.741,0.153,0.368
0.841,0.810,-0.528,0.864,-0.179,0.194
0.648,1.321,-0.281,1.375,0.124,0.237
0.488,0.717,-0.430,1.067,-0.026,0.137
0.725,1.249,-0.081,1.763,0.231,0.385
0.513,1.553,-0.506,1.882,-0.146,0.206
0.508,1.315,-0.414,1.346,0.023,0.191
1.384,1.271,-0.835,0.864,0.440,-0.258
0.824,1.449,-0.779,1.287,-0.176,0.039
0.625,1.639,-0.334,1.340,0.123,0.318
0.901,1.052,-0.334,0.970,0.021,0.242
0.679,1.030,-0.422,1.090,0.060,0.018
0.923,1.140,-0.627,0.697,-0.406,-0.137
0.753,1.022,-0.434,1.372,0.157,0.369
0.670,1.065,-0.182,1.566,0.101,0.296
1.191,1.571,-1.138,0.878,-0.444,0.683
0.832,1.097,-0.714,1.103,-0.093,0.508
0.654,0.831,-0.732,1.247,-0.153,0.206
0.837,1.175,-0.187,1.492,0.318,0.458
0.464,1.163,-0.954,1.573,-0.129,0.034
0.738,1.262,-0.195,1.709,-0.130,0.073
0.677,1.426,-0.146,1.356,0.185,0.333
1.344,1.229,-2.070,0.971,0.128,0.709
0.752,0.893,-0.904,1.327,-0.015,0.191
1.502,1.503,-0.334,1.184,-0.185,0.396
0.759,1.299,-0.501,0.948,-0.107,0.080
0.874,1.131,-0.215,1.301,0.174,0.350
1.133,0.837,-0.751,0.763,0.337,0.524
1.144,1.027,-0.274,1.371,0.342,0.330
0.554,0.949,-0.457,1.050,-0.055,0.070
0.662,1.058,-0.303,1.151,0.094,0.234
0.804,1.223,-0.392,0.956,0.041,0.193
1.363,1.070,-0.795,1.032,0.362,-0.248
0.793,1.374,-0.503,1.489,0.099,0.418
0.504,0.908,-0.611,0.986,-0.149,0.040
0.601,0.982,-0.416,1.222,-0.073,0.211
0.500,1.383,-0.203,1.586,0.161,0.287
0.386,1.027,-0.360,1.558,-0.017,0.119
0.578,1.169,-0.509,1.266,-0.081,0.003
1.598,1.906,-1.997,1.143,0.642,0.355
0.734,1.439,-0.791,0.978,-0.063,0.062
1.591,1.904,-0.540,0.940,-0.220,0.147
1.289,0.848,-0.681,1.292,0.305,0.550
1.068,1.063,-0.693,0.872,0.138,0.272
0.684,0.973,-0.487,1.071,0.013,0.169
0.735,1.090,-0.321,1.163,0.133,0.248
0.712,0.732,-0.298,1.295,-0.122,-0.078
1.357,1.289,-0.498,0.999,-1.119,0.279
0.775,1.445,-0.466,1.161,-0.232,0.155
1.025,0.732,-1.309,0.861,-0.277,0.204
0.843,0.803,-0.592,1.389,-0.022,0.183
0.662,1.114,-0.453,1.127,0.017,0.183
0.729,1.265,-0.217,1.613,0.325,0.343
0.674,1.410,-0.142,1.384,0.205,0.331
0.534,1.077,-1.238,1.897,0.407,0.340
0.807,1.188,-0.490,1.600,0.504,0.539
0.761,1.495,-0.303,1.128,-0.156,0.186
1.495,1.116,-1.126,1.248,0.524,0.185
0.988,1.098,-0.843,1.074,0.089,0.055
0.971,1.452,-0.912,0.941,-0.022,0.073
1.719,1.169,-0.929,1.853,0.045,0.238
0.730,0.904,-0.718,1.124,-0.096,0.040
0.488,0.860,-0.518,1.397,-0.069,0.011
0.561,1.255,-0.319,1.586,0.107,0.187
0.553,1.170,-0.257,1.724,0.132,0.237
1.470,1.387,-1.647,1.017,0.190,0.261
0.497,1.303,-0.772,0.938,-0.046,0.089
1.110,1.211,-0.431,1.170,-0.216,0.405
0.632,0.976,-1.065,1.485,-0.072,0.326
0.788,1.011,-1.197,2.302,0.655,0.646
1.597,1.470,-2.256,0.918,0.097,0.845
1.124,1.099,-1.138,1.232,0.002,0.558
1.008,1.330,-0.418,1.223,0.012,0.485
0.695,1.308,-0.233,1.199,0.103,0.373
1.394,0.945,-0.961,1.071,-0.547,0.807
1.292,0.822,-1.099,1.080,-0.404,0.674
0.751,1.009,-0.575,1.183,-0.059,0.310
0.836,1.177,-0.260,1.202,0.200,0.396
1.182,1.087,-0.708,0.713,-0.346,0.211
0.893,1.685,-0.246,1.194,0.095,0.298
0.882,0.914,-0.678,0.826,-0.211,-0.066
0.651,1.362,-0.374,1.463,0.058,0.190
0.857,1.312,-0.137,1.554,0.291,0.412
1.133,0.992,-0.770,0.584,0.187,-0.029
0.453,0.899,-0.635,1.126,-0.313,-0.030
0.888,1.019,-0.219,1.093,0.159,0.329
0.560,0.849,-0.397,1.352,-0.111,-0.006
0.699,1.239,-0.167,1.656,0.121,0.266
0.857,1.213,-0.384,0.886,-0.022,0.136
0.958,1.098,-0.321,1.222,0.049,0.225
1.896,1.559,-1.156,1.448,0.456,0.679
1.309,0.675,-0.263,1.179,0.269,0.272
1.629,1.446,-2.144,1.088,0.749,0.602
1.002,1.162,-0.660,1.194,0.380,0.372
1.189,1.230,-0.610,0.840,0.073,0.188
1.191,0.810,-0.545,0.999,0.181,0.574
1.441,1.000,-0.690,1.006,-0.076,0.553
0.864,1.203,-0.395,1.316,0.166,0.395
0.726,1.057,-0.466,1.125,0.046,0.238
1.497,1.499,-1.138,1.043,0.227,0.676
1.576,1.078,-1.749,1.704,-0.356,0.586
1.116,0.754,-0.773,1.146,-0.169,0.165
0.833,1.285,-0.292,1.522,0.190,0.273
0.717,1.109,-0.363,1.196,0.108,0.226
0.422,0.672,-0.463,1.417,-0.127,-0.065
0.500,1.099,-0.279,0.860,0.007,0.147
0.470,0.933,-0.369,1.118,-0.102,0.091
0.623,0.893,-0.361,1.114,-0.048,0.116
0.787,0.831,-0.400,0.787,-0.012,0.092
0.809,0.937,-0.333,1.054,0.052,0.215
0.733,1.159,-0.315,1.186,0.037,0.193
0.680,1.030,-0.344,1.252,0.032,0.175
1.484,1.341,-1.249,1.076,-0.115,0.798
0.590,1.242,-0.658,0.888,-0.039,0.344
1.132,0.893,-0.846,1.341,0.326,0.106
1.074,1.126,-0.450,0.973,0.215,0.270
0.622,1.242,-0.417,1.364,0.030,0.156
0.320,1.341,-0.316,0.825,0.100,0.247
0.622,1.556,-0.294,1.308,0.037,0.090
0.772,1.461,-0.315,0.870,0.097,0.192
0.717,1.000,-0.448,1.404,0.165,0.192
0.708,1.389,-0.173,1.004,0.298,0.382
1.177,0.875,-1.408,0.971,0.065,0.268
0.949,1.470,-0.640,1.317,0.303,0.446
0.584,1.234,-0.536,1.395,-0.003,0.030
0.734,1.194,-0.266,1.347,0.199,0.328
0.542,0.933,-0.299,1.193,-0.011,0.142
1.394,1.437,-0.907,0.811,0.117,0.512
0.760,1.355,-0.437,1.257,-0.012,0.021
1.449,1.361,-1.723,1.054,0.144,0.826
0.934,1.470,-0.525,0.959,0.272,0.577
1.594,1.275,-1.878,1.505,-0.163,0.596
1.043,1.053,-0.695,1.133,0.089,0.363
0.638,1.061,-0.498,1.213,-0.058,0.156
1.853,1.567,-1.337,1.416,0.388,0.647
0.968,1.541,-0.628,1.061,0.089,0.273
0.715,1.419,-0.475,1.073,0.046,0.212
0.826,1.260,-0.247,1.357,0.215,0.366
0.858,1.054,-0.239,1.070,0.186,0.354
1.394,1.257,-1.836,1.044,0.156,0.726
1.735,1.333,-1.551,1.423,-1.125,0.700
1.488,1.343,-1.488,2.114,-1.687,0.598
0.957,1.319,-0.516,1.362,-0.076,0.423
1.857,1.115,-1.967,2.162,-0.075,0.476
1.052,1.012,-0.661,1.076,-0.014,0.183
0.945,1.090,-0.178,1.593,0.242,0.372
0.718,0.924,-0.551,1.551,0.375,0.028
0.754,1.065,-0.349,1.157,0.257,0.220
1.434,1.494,-0.586,1.118,0.042,0.114
1.780,1.167,-0.861,1.906,-0.289,0.298
0.941,0.834,-1.034,1.473,-0.353,-0.101
0.565,1.081,-0.513,1.323,-0.021,0.164
0.551,1.261,-0.337,1.148,0.097,0.217
0.782,1.271,-0.122,1.315,0.272,0.369
1.429,1.239,-0.017,0.949,-0.321,0.268
0.758,1.350,-0.288,1.021,-0.095,0.151
0.491,1.109,-0.353,1.168,-0.033,0.097
0.482,1.074,-0.393,1.014,0.000,0.155
0.617,1.193,-0.223,1.145,0.115,0.235
0.810,1.294,-0.248,0.952,0.023,0.135
0.782,1.340,-0.249,1.054,0.092,0.011
1.448,1.275,-0.977,0.987,0.561,0.515
0.915,0.801,-0.554,1.145,0.073,0.164
1.152,1.100,-0.269,1.038,0.183,0.355
1.379,1.083,-2.121,1.074,0.080,0.242
0.800,1.500,-0.904,1.070,-0.187,0.466
0.910,1.436,-0.605,0.994,-0.141,0.224
1.947,1.442,-1.340,1.858,0.037,0.685
1.343,1.650,-0.362,1.435,0.333,0.557
1.590,1.202,-0.794,1.245,-0.562,0.773
0.849,1.161,-0.506,1.134,-0.128,0.352
0.680,1.182,-0.731,0.843,-0.169,0.110
0.971,0.917,-0.295,1.053,0.149,0.411
1.401,1.654,-0.405,0.937,-0.225,0.176
0.857,0.941,-0.305,0.944,-0.073,-0.084
1.564,1.320,-0.186,0.976,-0.378,-0.194
0.863,1.526,-0.200,0.698,0.184,0.324
0.783,0.888,-0.315,1.098,0.081,0.286
0.558,0.912,-0.379,1.034,0.001,0.191
0.587,1.200,-0.303,1.129,0.080,0.264
0.741,0.871,-0.641,0.979,-0.055,0.159
0.461,1.174,-0.442,1.381,-0.043,0.010
0.910,0.953,-0.320,0.871,0.081,0.247
0.444,1.146,-0.466,1.302,-0.127,0.079
0.166,1.253,-0.547,0.883,-0.131,0.032
0.457,0.956,-0.560,0.913,-0.092,0.098
1.500,1.259,-0.495,1.119,-0.358,0.120
1.011,1.475,-0.155,1.420,0.171,0.409
0.622,1.019,-0.326,1.268,0.051,0.247
1.182,1.421,-1.576,1.145,0.646,0.582
1.126,1.596,-0.521,1.204,0.597,0.419
0.588,1.301,-0.707,1.390,-0.084,0.125
0.710,1.206,-0.365,1.120,0.195,0.357
0.831,1.348,-0.240,1.080,0.304,0.452
0.775,1.800,0.181,0.487,-0.312,-0.164
0.742,1.774,-0.223,1.396,-0.050,-0.267
0.569,0.985,-0.387,1.479,-0.039,0.033
0.902,1.164,-0.950,1.774,-0.016,-0.065
0.701,0.858,-0.705,1.365,0.106,0.040
1.224,1.154,-1.003,0.729,0.161,0.402
0.890,1.089,-0.616,0.767,-0.095,0.075
1.413,1.199,-0.102,1.523,0.445,0.236
0.589,1.078,-0.368,1.083,0.052,0.087
1.548,1.293,-1.579,1.035,0.111,0.439
1.115,1.018,-0.646,1.085,0.027,0.188
1.003,1.173,-0.583,0.982,-0.012,0.146
0.721,1.076,-0.490,1.299,-0.079,0.059
1.537,1.481,-1.811,1.120,0.509,0.476
0.957,1.651,-2.246,1.143,0.466,0.370
0.792,1.043,-0.817,1.036,0.129,0.202
1.085,0.928,-1.975,0.934,0.178,0.107
1.046,1.083,-0.498,1.238,0.236,0.297
0.963,1.139,-0.140,1.538,0.176,0.300
0.718,1.165,-0.389,1.306,0.102,0.263
1.185,1.045,-0.649,0.911,-0.151,0.500
0.733,1.303,-0.469,1.384,-0.020,0.235
0.657,1.045,-0.408,1.179,-0.010,0.201
1.181,1.033,-0.096,1.829,0.248,-0.327
0.511,1.046,-0.458,1.058,-0.106,-0.057
1.689,1.439,-1.656,1.398,0.643,0.076
0.781,1.054,-0.779,1.151,0.058,0.044
0.746,1.012,-0.530,1.273,0.126,0.231
1.410,1.624,-0.386,0.652,0.187,0.104
0.513,1.563,-0.860,1.239,-0.228,-0.335
0.811,1.258,-0.328,1.272,0.167,0.253
1.608,2.089,0.226,1.703,0.931,0.891
0.946,1.273,-0.187,1.234,0.286,0.377
0.959,0.637,-1.176,0.685,-0.103,0.219
0.765,0.802,-0.789,1.147,-0.166,0.165
1.564,1.633,-0.515,0.965,-0.199,0.564
0.914,1.677,-0.556,1.133,0.034,0.212
0.630,1.148,-0.492,1.036,-0.014,0.162
1.239,0.812,-0.698,0.717,0.276,0.077
0.809,1.122,-0.477,1.297,0.057,0.061
0.890,1.122,-0.239,1.310,0.213,0.313
1.641,1.251,-2.038,1.349,0.263,0.557
0.937,0.845,-0.937,1.305,0.068,0.046
1.563,1.281,-0.949,1.074,-0.045,0.634
1.070,1.281,-0.368,1.292,0.177,0.473
1.504,1.334,-1.598,1.169,0.140,0.517
0.966,1.610,-0.500,1.459,0.196,0.426
0.969,1.396,-0.170,1.460,0.333,0.507
0.462,1.221,-0.403,1.171,-0.010,0.179
0.824,0.759,-0.374,0.732,0.075,0.274
0.630,0.812,-0.498,0.753,-0.134,0.117
1.550,1.486,-0.226,1.342,0.268,0.542
1.108,1.479,-0.217,1.209,0.173,0.445
0.953,1.302,-0.519,0.837,0.046,0.207
0.730,1.365,-0.311,1.272,0.127,0.296
0.465,1.477,-0.382,0.945,0.126,0.310
0.650,1.029,-0.290,1.476,0.275,0.382
0.863,0.891,-0.435,1.169,0.194,0.267
0.731,1.341,-0.066,1.734,0.259,0.416
0.606,0.870,-0.346,1.170,-0.006,0.160
1.473,1.342,-0.674,1.114,0.444,0.319
1.079,1.169,-0.398,1.180,0.164,0.242
0.842,1.181,-0.251,1.223,0.170,0.297
0.464,1.230,-0.310,1.416,0.020,0.102
0.172,0.908,-0.440,1.606,-0.204,0.058
0.842,0.812,-0.113,1.739,0.304,0.442
1.364,1.264,-2.013,0.842,0.824,0.717
1.357,1.163,-1.277,0.979,0.066,0.616
1.941,1.394,-1.537,1.838,-0.096,0.900
0.728,0.813,-1.383,1.231,-0.236,0.151
0.847,0.870,-1.020,1.360,0.194,0.221
0.838,1.151,-0.547,1.300,0.258,0.345
1.157,0.985,-0.398,1.161,0.118,0.363
1.003,1.150,-0.241,1.225,0.215,0.392
0.671,0.884,-0.370,1.494,-0.011,0.117
1.135,1.209,-0.518,0.849,-0.219,0.196
0.603,1.388,-0.621,1.072,-0.051,0.073
1.064,0.879,-0.323,1.351,-0.086,0.281
1.002,0.941,-0.644,0.966,-0.197,0.064
1.463,1.108,-0.623,1.082,-0.209,0.453
1.063,0.918,-0.421,1.475,-0.047,0.118
0.771,0.816,-0.645,1.454,-0.100,0.067
1.669,1.713,-0.778,1.131,0.095,0.391
1.033,1.556,-1.660,1.318,0.227,0.544
0.880,1.263,-1.012,1.249,0.319,0.492
0.579,1.371,-0.613,1.313,-0.016,0.097
1.248,1.048,-0.956,0.931,-0.177,0.394
0.634,0.996,-0.619,1.329,-0.083,0.247
0.354,1.299,-0.429,0.972,-0.015,0.189
0.558,1.079,-0.405,0.891,-0.086,0.084
1.650,1.540,-2.263,1.198,0.255,0.657
1.329,1.203,-0.529,1.663,-0.092,0.466
0.977,1.191,-0.267,1.584,0.182,0.304
0.601,1.140,-0.783,1.485,0.293,0.375
0.800,1.715,-1.517,1.964,0.173,0.475
1.613,1.356,-2.432,1.327,0.422,0.164
1.228,0.931,-0.550,1.249,0.487,0.479
1.076,1.008,-0.330,1.012,0.108,0.184
0.491,1.044,-0.490,1.279,-0.058,-0.110
0.454,1.404,-0.467,0.917,0.085,0.074
1.133,1.000,-1.618,0.916,0.068,0.369
0.916,1.493,-0.772,1.407,0.100,0.326
0.675,1.376,-0.450,1.087,0.017,0.467
0.607,1.405,-0.404,1.288,0.038,0.194
0.436,0.990,-0.515,1.062,-0.095,0.097
0.423,1.249,-0.411,1.051,0.079,0.167
1.156,0.770,-0.519,0.791,0.314,-0.344
0.887,0.782,-0.549,0.782,0.288,0.141
0.780,1.011,-0.392,1.111,0.157,0.175
1.327,1.062,-1.855,0.928,-0.276,0.304
1.730,1.343,-1.625,1.898,-0.417,0.814
1.154,1.076,-0.586,1.390,-0.032,0.330
0.751,1.160,-0.511,1.443,0.000,0.162
0.628,1.370,-0.284,1.476,0.152,0.199
1.171,1.055,-0.226,1.141,0.244,0.394
0.881,0.882,-0.321,1.021,0.142,0.271
0.669,1.027,-0.305,1.549,-0.031,0.148
0.764,1.208,-0.176,1.733,0.106,0.258
0.663,1.352,-0.186,1.126,0.176,0.257
0.464,1.039,-0.436,1.207,0.023,0.143
1.057,1.642,-0.115,1.115,-0.310,0.302
1.708,0.949,-0.390,1.683,-0.048,0.307
0.826,1.237,-0.362,1.587,0.015,0.199
1.427,1.782,-1.325,1.216,-0.215,0.803
0.808,1.820,-0.423,1.158,0.137,0.382
0.808,1.699,-0.729,1.092,0.016,0.221
0.974,0.702,-0.633,0.935,0.156,0.435
0.362,0.784,-0.561,1.476,0.219,0.418
0.739,1.544,-1.118,1.977,0.291,0.461
0.955,1.286,-0.233,1.900,-0.017,0.153
0.844,1.505,-0.182,1.418,0.135,0.307
0.521,0.948,-0.498,0.993,-0.125,0.039
0.652,1.076,-0.346,1.267,0.162,0.301
0.324,1.162,-0.428,1.438,-0.146,-0.097
0.730,1.231,-0.182,1.325,0.195,0.295
0.755,1.336,-0.201,1.465,0.273,0.371
1.158,0.963,-1.255,0.714,-0.110,0.119
1.349,1.101,-1.349,1.135,0.092,0.377
1.327,0.983,-0.507,1.462,0.164,0.044
1.026,1.482,-0.074,1.763,0.301,0.437
0.688,1.255,-0.318,1.342,0.138,0.267
0.470,0.958,-0.503,1.213,0.009,0.113
0.431,1.211,-0.378,0.995,0.122,0.204
0.576,1.089,-0.352,1.124,0.058,0.174
0.941,1.092,-0.200,1.001,0.147,0.328
1.607,1.191,-1.311,1.350,0.529,0.544
0.884,0.968,-0.770,1.048,0.115,0.186
0.595,1.593,-1.621,0.909,0.353,0.537
0.824,1.810,-1.653,1.673,0.237,0.523
0.869,1.036,-0.602,1.241,0.147,0.435
0.989,1.017,-0.494,0.743,-0.006,0.044
1.258,1.236,-0.125,1.280,0.313,0.409
0.909,1.117,-0.324,1.084,0.092,0.204
0.946,1.040,-0.370,1.061,0.070,0.279
0.547,1.157,-0.487,1.371,-0.102,-0.006
0.768,1.269,-0.276,1.555,0.167,0.204
0.745,1.164,-0.189,1.311,0.221,0.369
0.585,1.558,-1.374,1.762,0.068,0.166
0.705,0.951,-0.886,1.031,-0.040,0.013
1.322,0.981,-1.537,1.111,0.374,0.030
1.018,0.794,-1.001,0.798,-0.083,-0.189
0.738,1.089,-0.569,1.173,-0.027,0.049
1.306,1.560,-0.238,1.132,0.165,0.474
1.484,1.121,-1.099,1.430,0.720,0.574
0.877,0.572,-0.801,0.639,0.069,0.293
0.818,1.000,-0.808,1.086,0.152,0.388
1.516,1.097,-1.244,1.361,0.440,0.324
0.649,0.970,-0.834,1.187,-0.049,-0.071
0.909,1.476,-0.234,1.429,0.257,0.409
1.329,1.228,-0.744,1.041,0.320,0.323
1.658,0.987,-1.719,1.157,0.771,0.381
1.333,1.999,-1.844,1.997,0.914,0.226
1.160,0.976,-0.611,0.975,0.592,0.231
0.623,0.950,-0.685,1.008,0.108,0.095
1.141,1.474,-0.371,1.345,0.541,0.662
0.482,1.314,-0.368,0.892,0.098,0.319
0.504,1.137,-0.477,1.520,0.093,0.317
1.481,1.404,-1.129,1.039,0.224,0.762
1.283,0.816,-2.458,1.214,0.039,0.572
0.953,1.813,-1.645,1.318,0.761,0.963
1.006,1.443,-0.484,1.260,0.359,0.516
0.454,0.805,-0.560,1.314,0.198,0.366
0.831,1.061,-0.391,1.624,0.144,0.228
0.629,1.154,-0.732,1.320,-0.050,0.066
0.460,0.926,-0.990,1.530,0.201,0.206
0.621,1.015,-0.564,1.247,0.136,0.170
0.405,1.143,-0.349,1.625,0.069,0.185
0.337,1.020,-0.470,1.660,-0.093,0.051
1.230,1.242,-1.121,0.842,0.313,-0.391
0.849,1.151,-0.575,1.489,0.154,0.143
1.084,1.119,-0.128,1.202,0.052,0.205
0.799,1.696,-1.061,1.804,0.103,0.289
0.840,1.270,-0.458,1.400,0.176,0.346
1.262,1.170,-1.181,0.837,0.140,-0.544
1.232,0.850,-0.696,0.898,0.364,0.160
0.790,1.104,-0.443,1.219,0.136,0.215
0.721,1.151,-0.248,1.662,0.201,0.162
0.287,1.000,-0.445,1.576,-0.162,0.038
0.941,1.407,-0.143,1.065,-0.087,0.414
0.725,1.244,-0.243,1.138,0.041,0.280
0.896,1.025,-0.483,0.843,-0.110,0.018
1.227,0.772,-0.521,0.959,0.016,0.115
0.759,1.282,-0.327,1.094,0.132,0.289
0.307,1.386,-0.109,0.838,-0.036,0.397
0.469,1.570,-0.224,1.093,-0.024,0.189
1.289,1.139,-1.046,1.042,0.098,0.400
1.238,1.031,-0.888,0.905,-0.213,0.481
0.828,1.144,-0.878,0.844,-0.067,0.062
1.447,1.257,-1.585,1.943,-0.125,0.315
1.057,1.170,-0.643,1.257,0.122,0.364
0.744,0.718,-0.906,0.987,-0.026,0.179
1.079,1.228,-0.424,0.874,0.197,0.332
0.543,1.024,-0.645,0.942,-0.078,0.042
0.551,1.144,-0.420,0.795,0.101,0.257
0.482,1.412,-0.422,1.160,-0.103,-0.020
0.999,1.224,-0.163,1.141,0.207,0.347
0.969,1.158,-0.271,1.091,0.156,0.357
1.283,0.863,-1.412,1.118,0.177,0.409
0.929,1.191,-0.427,1.306,0.215,0.351
0.807,1.000,-0.384,0.977,-0.008,0.183
0.989,1.091,-0.370,0.806,-0.271,0.123
1.458,1.214,-2.191,1.298,-0.055,0.555
0.918,0.931,-1.040,1.020,-0.100,0.080
0.967,1.311,-0.339,1.353,0.279,0.417
1.404,1.648,-1.085,1.317,0.579,0.599
1.833,1.674,-3.117,1.674,0.687,0.766
0.888,1.264,-0.691,1.337,0.263,0.373
0.940,1.242,-0.210,1.490,0.392,0.520
0.316,1.222,-0.435,1.107,0.125,0.032
0.335,1.058,-0.591,0.719,-0.106,-0.031
0.732,1.164,-0.573,1.058,0.177,0.326
0.639,1.406,-0.378,0.982,0.000,0.227
1.431,0.807,-1.417,1.416,-0.009,0.484
0.959,1.149,-0.494,1.217,0.105,0.319
0.909,0.791,-0.540,0.816,-0.075,0.031
1.567,1.486,-0.562,1.295,0.223,0.517
1.034,1.543,-0.286,1.494,0.257,0.426
1.611,1.342,-0.759,1.247,0.385,0.212
1.028,1.061,-0.851,1.104,0.333,0.383
0.501,0.928,-0.744,0.973,-0.141,0.027
1.011,1.179,-0.261,1.178,0.235,0.411
1.764,1.752,-1.539,1.289,-0.014,0.867
1.238,0.819,-0.650,1.094,0.072,0.596
0.756,1.153,-1.533,1.770,0.298,0.479
0.834,1.228,-1.252,1.715,0.124,0.239
0.713,1.081,-0.461,1.517,0.122,0.257
0.846,0.835,-0.374,0.796,0.128,0.263
0.741,1.176,-0.424,1.342,0.109,0.307
0.541,1.300,-0.269,1.502,0.078,0.269
0.573,1.079,-0.360,1.276,0.066,0.206
0.474,0.929,-0.320,1.258,0.152,0.272
0.695,1.287,-0.191,1.338,0.233,0.379
1.530,1.187,-1.450,1.251,0.168,0.720
0.650,1.449,-0.646,0.969,0.370,0.453
0.691,1.376,-0.522,1.019,0.074,0.138
0.496,1.046,-0.661,0.767,-0.278,-0.132
0.723,1.131,-0.308,1.134,0.077,0.227
1.290,0.992,-0.501,1.065,-0.250,0.379
1.384,0.891,-0.485,1.082,0.450,0.735
0.743,0.978,-0.478,1.054,0.069,0.244
1.352,1.149,-1.927,1.005,0.511,0.723
0.980,1.803,-0.429,1.623,0.451,0.573
0.557,1.474,-0.454,1.089,0.195,0.451
0.492,1.203,-0.480,1.051,-0.053,0.084
0.474,0.836,-0.365,1.583,-0.078,0.064
0.426,1.035,-0.881,1.595,-0.411,-0.300
0.663,1.000,-0.401,1.666,0.013,0.151
0.901,1.702,-0.130,1.422,0.216,0.355
1.698,1.786,-1.439,1.326,0.323,0.350
0.768,1.488,-0.997,1.055,-0.069,0.072
1.335,0.962,-1.665,1.218,0.204,-0.228
0.822,0.699,-0.873,1.482,0.342,0.201
0.563,1.033,-0.533,1.499,0.078,0.161
0.654,1.190,-1.067,1.653,-0.233,-0.001
0.584,0.998,-0.574,1.660,-0.055,0.119
0.997,1.379,-0.198,1.210,0.379,0.539
0.737,1.051,-0.366,1.099,0.096,0.245
0.686,1.335,-0.251,1.479,0.165,0.204
0.942,1.192,-0.057,1.242,0.287,0.399
0.695,1.433,-0.379,1.668,0.219,0.281
-0.030,0.526,-0.924,0.720,-0.416,-0.297
0.812,1.151,-0.392,1.533,-0.152,-0.010
0.532,1.416,-0.340,1.310,0.003,0.085
1.158,1.195,-0.185,1.287,0.248,0.412
0.791,1.447,-0.108,1.522,0.235,0.383
1.014,1.092,-0.358,0.995,0.115,0.332
0.929,1.176,-0.289,0.979,0.101,0.321
1.032,0.669,-0.307,1.065,0.065,0.167
1.653,1.431,-0.604,1.236,0.149,0.774
0.934,0.934,-0.551,1.021,-0.046,0.234
0.390,1.164,-0.575,0.702,-0.136,-0.110
0.600,1.425,-0.537,1.065,-0.403,-0.191
0.495,1.252,-0.546,1.027,-0.207,-0.127
0.724,1.403,-0.422,1.326,0.117,0.263
1.168,1.094,-0.160,1.256,0.106,0.167
0.749,1.009,-0.321,1.602,0.019,0.112
0.676,1.025,-0.327,1.300,0.043,0.181
0.534,1.111,-0.337,1.298,0.001,0.097
1.383,1.185,-1.462,0.825,-0.367,0.733
0.663,1.074,-0.744,0.951,-0.131,0.212
0.776,1.371,-0.812,1.287,0.224,0.411
0.751,1.407,-0.498,1.025,-0.008,0.019
1.425,1.069,-1.044,1.510,-0.019,-0.122
0.943,1.001,-0.495,1.239,0.085,0.145
0.630,0.966,-0.411,1.172,0.055,0.142
1.437,1.391,-1.506,0.737,0.445,0.509
0.582,1.363,-0.970,1.049,0.017,0.113
0.947,1.488,-0.587,1.243,0.188,0.316
0.764,1.912,0.045,0.754,0.030,-0.546
1.056,1.156,-0.305,1.178,-0.056,0.100
0.873,0.794,-1.120,1.430,-0.273,-0.052
0.867,0.864,-0.638,0.756,-0.120,0.067
0.969,1.076,-0.450,0.975,-0.147,0.174
0.434,0.715,-0.386,1.227,-0.181,0.138
0.691,1.255,-0.089,1.163,0.207,0.403
0.828,0.968,-0.299,1.126,0.116,0.340
0.822,1.059,-0.406,1.411,0.055,0.178
0.669,1.224,-0.260,1.444,0.154,0.258
0.829,1.443,-0.149,1.320,0.221,0.251
0.755,0.936,-0.302,1.223,0.055,0.083
1.364,1.228,-0.585,0.741,0.477,0.009
1.636,1.405,-2.057,1.495,0.881,0.587
0.882,1.470,-1.094,1.183,0.376,0.320
0.699,0.969,-0.678,1.050,0.107,0.177
0.680,1.161,-0.394,1.141,0.120,0.245
1.409,1.130,-1.537,1.024,0.613,0.594
0.810,0.863,-0.831,1.101,0.135,0.210
1.227,1.156,-0.235,1.478,0.333,0.470
0.885,0.867,-0.332,1.395,0.246,0.196
0.709,0.946,-0.321,1.292,0.084,0.180
0.721,1.361,-0.167,1.200,0.131,0.243
0.538,1.089,-0.439,0.889,-0.098,-0.019
0.560,1.061,-0.012,1.494,0.234,0.479
0.625,1.091,-0.138,1.610,0.103,0.192
0.246,1.079,-0.413,1.617,-0.086,-0.026
0.581,0.910,-0.763,1.645,-0.404,-0.022
0.667,1.100,-0.422,1.332,-0.014,0.150
1.080,0.953,-1.145,0.758,0.055,0.085
1.000,1.520,-0.728,1.273,-0.230,0.153
1.027,1.157,-0.465,1.361,0.058,0.226
0.822,0.791,-0.540,1.582,-0.098,-0.196
0.687,1.157,-0.249,1.583,0.139,0.215
0.535,0.825,-0.523,1.002,-0.112,0.048
0.765,1.002,-0.296,1.026,0.093,0.222
0.573,1.119,-0.485,1.259,-0.076,0.044
0.554,1.108,-0.367,1.123,-0.010,0.096
0.410,1.266,-0.379,1.418,-0.031,0.023
1.439,1.837,-1.305,1.140,0.158,0.562
1.069,1.010,-0.715,0.827,-0.074,0.125
1.222,0.972,-0.215,0.882,0.233,0.502
0.543,1.190,-0.379,1.031,0.142,0.196
0.578,0.861,-0.433,1.280,0.096,0.035
0.395,1.102,-0.380,1.293,0.018,0.111
0.419,1.288,-0.546,1.099,-0.103,0.043
0.205,0.600,-0.471,1.130,-0.130,0.106
0.886,1.031,-0.214,1.623,-0.221,-0.123
0.887,1.165,-0.154,1.742,0.160,0.291
1.400,1.492,-0.527,0.930,-0.736,0.548
0.689,1.556,-0.468,0.882,-0.244,0.111
0.812,1.380,-0.308,0.981,0.043,0.230
1.085,0.671,-0.580,0.889,0.273,0.501
0.875,0.929,-0.400,1.115,0.147,0.286
0.768,1.149,-0.165,1.602,0.202,0.259
0.633,1.036,-0.273,1.218,0.112,0.147
0.382,1.267,-0.253,1.475,0.001,0.095
0.737,1.267,-0.259,1.258,0.167,0.277
0.898,0.956,-0.344,1.189,0.147,0.267
0.500,0.784,-0.514,1.475,0.161,0.174
0.519,1.057,-0.295,1.797,0.046,0.236
0.681,1.569,-0.051,1.160,-0.197,0.429
1.044,1.309,-0.812,1.752,-0.034,0.493
0.838,1.168,-0.399,1.331,0.138,0.367
0.858,1.055,-0.502,0.930,-0.101,0.150
0.645,0.983,-0.283,1.334,0.253,0.411
0.646,1.271,-0.223,1.442,0.232,0.343
0.726,1.392,-0.770,0.934,-0.256,-0.073
0.928,1.162,-0.238,1.221,0.268,0.422
1.746,1.282,-0.843,1.312,0.526,0.689
0.764,1.197,-0.686,1.017,-0.007,0.062
0.808,1.292,-0.651,1.022,-0.065,0.083
0.648,1.573,-0.306,1.309,0.086,0.194
0.690,1.211,-0.312,1.273,0.039,0.201
1.322,1.090,-0.455,1.044,-0.123,-0.208
1.451,1.327,-1.972,2.060,-0.228,0.607
1.025,1.311,-0.504,1.470,0.218,0.458
1.058,0.632,-0.445,1.216,0.114,0.237
0.940,1.109,-0.220,1.298,0.304,0.385
1.321,1.214,-0.365,0.766,-0.158,0.061
0.843,1.256,-0.269,1.159,0.052,0.230
0.461,1.562,-0.249,1.092,0.144,0.272
0.580,1.320,-0.224,1.446,0.149,0.171
0.641,1.326,-0.182,1.258,0.166,0.306
0.749,0.987,-0.508,1.417,-0.043,0.124
0.706,0.810,-0.425,0.967,-0.000,0.116
0.855,0.859,-0.482,1.310,-0.028,0.118
0.745,1.138,-0.134,1.530,0.226,0.396
0.771,1.023,-0.329,1.439,0.170,0.343
0.941,1.646,-0.021,1.188,0.264,0.369
0.920,1.071,-0.142,1.103,0.223,0.415
0.739,1.379,-0.120,1.660,0.234,0.313
0.596,1.232,-0.293,1.095,0.127,0.221
0.641,1.052,-0.447,1.290,0.088,0.277
0.822,1.250,-0.518,1.379,0.417,0.385
1.048,1.453,-0.116,1.670,0.610,0.691
0.771,1.502,-0.301,1.127,0.220,0.103
0.846,1.037,-0.802,1.258,-0.113,0.324
1.543,0.902,-1.544,2.007,-0.301,0.795
0.819,1.120,-0.615,1.347,0.017,0.330
0.538,1.189,-0.493,1.036,0.090,0.264
0.715,1.414,-0.729,0.986,0.217,0.381
0.432,0.992,-0.641,0.831,-0.074,0.052
1.373,1.011,-0.309,1.258,0.104,0.375
0.536,0.962,-0.732,1.398,0.138,0.399
0.911,1.215,-0.270,1.680,0.160,0.326
0.893,0.744,-0.342,0.923,0.057,0.217
0.594,0.997,-1.237,1.575,0.216,0.276
0.583,1.032,-0.548,1.670,-0.080,0.262
0.479,1.123,-0.478,1.656,-0.122,0.074
1.052,1.358,0.027,1.616,0.386,0.542
0.511,0.654,-0.344,1.209,0.055,0.219
0.528,0.879,-0.380,1.084,-0.022,0.086
0.753,1.000,-0.220,1.255,0.057,0.201
0.653,0.983,-0.305,1.106,0.044,0.174
0.458,0.869,-0.748,1.504,-0.105,0.101
1.102,1.016,-0.779,0.814,0.198,0.037
0.904,1.081,-0.444,1.294,0.095,0.168
0.617,0.903,-0.392,1.316,0.073,0.046
0.667,0.969,-0.313,1.150,0.093,0.169
1.466,1.359,0.003,1.032,-0.116,0.439
0.558,0.796,-0.525,0.815,-0.224,0.037
0.791,0.806,-0.415,1.152,-0.040,0.100
0.694,1.101,-0.343,1.154,0.065,0.196
0.934,1.333,-0.184,1.477,0.380,0.443
0.304,1.316,-0.638,0.958,0.277,0.331
0.386,1.156,-0.434,0.874,0.056,0.239
0.483,1.286,-0.453,0.992,-0.183,0.067
0.923,0.928,-0.207,1.110,0.165,0.326
0.520,0.822,-0.420,1.401,-0.081,0.051
1.280,1.619,-0.464,0.973,0.131,0.022
1.482,1.122,-0.773,1.682,-0.733,0.681
1.244,1.155,-0.732,1.213,-0.646,0.411
1.086,1.071,-0.373,1.223,-0.027,0.329
0.862,1.337,-0.202,1.574,0.280,0.448
0.502,1.100,-0.347,1.640,0.022,0.138
0.376,0.965,-0.405,1.678,-0.081,0.014
0.111,0.903,-0.557,1.442,-0.242,-0.142
0.515,1.004,-0.689,1.423,0.072,0.126
0.652,1.224,-0.485,1.626,-0.144,0.007
0.651,0.931,-0.826,1.442,-0.340,-0.162
0.785,0.937,-0.579,0.949,0.030,0.128
1.350,0.999,-1.292,2.106,-0.301,0.271
1.318,1.664,-0.082,1.697,0.518,0.680
0.564,1.547,-0.373,1.433,0.069,0.100
1.334,1.340,-1.248,0.988,0.210,0.367
1.580,1.248,-2.657,1.509,0.580,0.306
1.171,1.189,-0.322,1.200,0.331,0.473
1.191,0.913,-2.175,1.100,0.389,0.279
0.707,0.804,-1.377,1.633,0.482,0.680
0.262,1.138,-1.338,1.794,0.457,0.186
0.821,1.445,-0.668,1.450,0.552,0.294
1.012,1.383,-0.323,1.015,0.310,0.089
0.484,1.257,-0.470,1.200,-0.110,-0.075
1.324,0.964,-0.449,1.153,-0.303,0.271
1.002,0.947,-0.278,1.510,-0.201,0.278
0.907,0.946,-0.621,1.318,-0.368,-0.091
1.091,1.329,-0.278,1.316,0.272,0.442
1.144,0.858,-0.416,1.208,-0.421,0.294
1.065,1.265,-0.639,1.063,0.100,0.460
1.632,0.998,-1.380,1.553,-0.435,0.694
0.888,1.056,-0.653,1.100,-0.119,0.226
1.249,1.176,-0.109,1.378,0.366,0.579
1.147,1.217,0.016,1.624,0.456,0.487
1.271,1.190,-0.538,0.871,-0.035,0.345
1.169,0.735,-1.159,0.980,-0.223,0.246
0.575,1.259,-0.526,1.231,-0.035,0.147
0.848,1.096,-0.339,1.053,0.139,0.280
1.050,0.865,-0.501,0.906,0.325,0.531
0.641,1.305,-0.432,1.112,0.289,0.466
1.288,1.048,-1.667,1.034,-0.137,0.539
1.260,1.037,-1.144,1.098,-0.055,0.472
0.831,1.132,-0.607,1.088,0.046,0.340
1.263,0.889,-2.040,0.791,0.108,0.592
1.239,0.829,-0.730,1.029,0.339,0.630
0.840,1.194,-0.767,1.444,0.162,0.242
0.627,1.506,-0.577,1.387,-0.055,0.155
0.206,1.564,-0.715,0.984,0.172,0.428
0.411,1.344,-0.465,0.774,0.069,0.294
0.750,1.627,-0.616,1.264,0.038,-0.030
1.451,1.093,-0.955,1.127,-0.281,-0.473
0.905,1.287,-0.326,1.232,-0.051,-0.047
0.571,1.148,-0.363,1.417,-0.052,0.039
1.483,1.410,-0.517,1.248,-0.174,0.183
1.050,1.291,-0.306,1.270,0.109,0.319
0.790,1.183,-0.246,1.207,0.165,0.309
0.690,1.288,-0.311,0.976,0.179,0.363
0.871,0.926,-0.550,0.682,0.037,0.099
0.578,1.319,-0.397,1.307,-0.022,-0.025
0.719,1.259,-0.191,1.468,0.104,0.295
0.641,1.063,-0.238,1.617,0.095,0.176
0.268,0.989,-0.408,1.602,-0.059,-0.007
0.179,1.204,-0.383,0.723,0.094,0.252
0.678,1.082,0.051,1.729,0.340,0.481
0.656,1.331,-0.010,1.178,0.084,0.212
0.622,1.426,-0.179,1.284,0.077,0.212
0.341,0.787,-0.657,0.736,-0.223,-0.068
0.318,0.731,-0.908,1.100,-0.062,0.077
1.398,1.385,-1.610,1.001,0.017,0.900
0.974,1.297,-0.514,1.330,0.193,0.556
1.021,0.934,-0.478,0.834,-0.054,0.089
0.809,1.454,-0.493,1.096,-0.068,0.045
0.608,1.662,-0.931,1.533,-0.121,0.111
1.039,0.845,-0.524,1.225,-0.031,0.215
0.922,1.027,-0.311,1.652,0.067,0.216
0.981,1.746,-0.977,2.098,0.169,0.386
1.078,1.668,-0.265,1.208,-0.076,0.098
0.875,1.650,-0.567,1.600,-0.140,-0.019
0.909,1.113,-0.343,1.151,0.025,0.258
1.262,0.893,-1.176,0.844,-0.869,0.412
1.395,0.706,-2.001,1.280,-0.743,0.539
0.546,1.037,-0.868,1.126,-0.347,-0.019
0.660,1.329,-0.283,1.281,0.112,0.302
1.512,1.450,-0.701,0.881,0.008,-0.133
0.860,0.982,-0.740,1.024,0.016,0.203
0.589,1.223,-0.417,1.506,-0.008,0.177
1.138,1.318,-0.005,1.148,0.391,0.534
0.900,0.921,-0.148,1.593,0.189,0.393
0.457,1.109,-0.363,1.676,-0.083,-0.004
1.366,1.559,-1.363,0.866,-0.654,0.453
0.991,0.802,-0.530,0.974,-0.001,0.439
0.623,0.969,-0.475,1.195,-0.016,0.132
1.282,1.093,-0.865,0.701,-0.176,0.505
0.710,1.290,-0.620,0.922,-0.165,-0.022
1.630,1.225,-1.343,2.114,-0.115,0.551
0.813,1.328,-0.782,1.604,0.113,0.316
0.742,1.412,-0.306,1.129,0.352,0.485
1.518,1.122,-1.648,1.180,-0.347,0.898
1.119,1.146,-1.827,1.695,0.188,0.457
0.931,1.063,-0.708,1.471,0.134,0.214
0.261,1.021,-0.656,1.416,-0.162,-0.018
0.306,1.239,-0.349,1.447,-0.000,0.128
1.048,1.255,-0.613,0.519,-0.289,0.263
1.182,0.808,-0.522,1.096,0.253,0.624
1.107,0.728,-0.689,0.740,0.168,0.305
1.205,0.949,-0.787,1.264,0.114,0.314
0.705,1.241,-0.607,1.434,-0.108,0.109
0.338,1.128,-0.531,1.354,-0.139,0.012
0.695,1.111,-0.372,0.956,-0.035,0.180
1.644,1.421,-1.624,1.213,0.716,0.858
0.969,1.585,-0.508,1.337,0.356,0.488
0.921,0.882,-0.603,1.349,-0.038,0.146
1.229,1.291,-0.243,1.031,0.246,0.182
0.612,1.121,-0.433,1.295,-0.113,0.017
0.736,0.982,-0.318,1.315,-0.031,0.054
0.421,1.013,-0.327,1.621,0.003,-0.035
0.354,1.285,-0.577,1.703,0.009,-0.448
0.521,1.625,-0.662,1.297,0.474,0.451
1.604,1.020,-2.975,1.603,0.407,0.549
0.788,1.142,-0.789,0.955,0.075,0.156
1.535,1.233,-0.725,1.219,-0.207,-0.269
0.948,1.146,-0.570,1.189,0.144,0.203
1.051,0.997,-0.552,1.186,0.030,0.200
1.167,1.108,-0.483,0.907,0.142,0.313
0.583,1.396,-0.532,0.916,-0.182,0.097
0.673,1.076,-0.370,1.109,-0.026,0.167
0.934,1.384,0.011,1.522,0.350,0.539
0.475,1.655,0.080,1.201,0.316,0.539
1.210,1.528,-1.441,1.826,0.370,0.836
0.526,0.746,-0.905,1.104,-0.123,0.195
0.775,1.137,-0.416,1.015,-0.018,0.255
0.807,1.145,-0.180,1.209,0.157,0.387
1.526,1.257,-0.355,1.194,-0.005,0.742
1.046,0.895,-0.462,0.832,0.021,0.422
0.541,0.887,-0.785,0.658,-0.362,-0.003
0.792,1.084,-0.417,1.034,-0.011,0.232
0.403,1.170,-0.571,1.016,-0.234,-0.150
1.302,1.426,-0.102,1.046,0.249,0.377
1.328,0.751,-1.237,1.118,0.208,-0.174
1.245,1.131,-1.588,1.047,-0.106,0.185
0.910,1.253,-0.579,0.727,-0.344,0.059
0.675,1.596,-0.335,1.189,-0.059,0.199
0.920,1.036,-0.460,1.437,-0.231,0.192
1.461,1.335,-0.412,1.049,-0.790,0.512
1.550,0.741,-1.417,1.427,-0.172,0.161
1.183,1.438,-0.585,1.163,0.136,0.254
0.521,1.422,-0.812,0.919,0.236,0.403
1.346,0.904,-1.162,1.208,-0.121,0.769
0.972,1.501,-0.670,0.824,-0.306,0.184
0.788,1.158,-0.255,1.245,0.166,0.379
1.055,1.388,-0.220,0.993,0.225,0.249
1.738,0.985,-0.925,1.650,0.402,0.567
0.369,0.485,-0.607,1.373,0.074,0.242
0.723,0.570,-0.766,0.564,0.103,0.187
0.632,0.786,-0.759,1.316,0.252,0.441
0.803,0.943,-0.503,1.336,0.171,0.374
0.471,1.406,-0.402,0.989,0.164,0.308
1.488,0.883,-1.139,1.295,0.549,0.872
1.099,1.317,-0.325,1.446,0.463,0.585
0.546,1.308,-0.474,1.572,0.127,0.058
0.710,1.277,-0.304,0.999,0.307,0.316
0.759,0.948,-0.314,0.986,0.058,0.260
0.729,1.292,-0.121,1.469,0.214,0.364
1.545,1.255,-1.171,1.205,-0.149,0.151
0.892,1.264,-0.678,1.102,0.125,0.181
1.072,0.936,-0.861,1.317,0.213,0.416
1.043,0.945,-0.606,0.974,0.174,0.175
1.061,1.353,-0.085,1.347,0.433,0.512
1.364,0.846,-0.548,1.129,0.111,-0.029
0.699,0.891,-0.659,1.076,-0.109,-0.089
0.726,1.461,-0.199,1.686,0.140,0.267
1.346,1.700,-0.827,0.822,0.202,0.190
0.443,1.225,-1.098,0.840,-0.230,-0.135
0.789,1.179,-0.647,1.079,0.088,0.245
0.620,0.894,-0.601,1.010,-0.056,0.104
0.723,1.088,-0.460,1.006,0.001,0.138
0.761,1.149,-0.233,1.184,0.130,0.262
0.704,1.131,-0.321,1.120,0.032,0.219
0.331,0.842,-0.493,1.254,0.050,0.133
0.839,0.965,-0.470,1.107,0.089,0.218
0.716,1.238,-0.281,1.378,0.071,0.148
1.134,1.069,-0.297,0.974,0.401,0.476
0.401,0.778,-0.699,0.796,-0.207,-0.057
1.332,1.462,-0.966,0.936,0.054,0.312
0.783,1.147,-0.675,0.862,-0.074,0.092
0.651,0.965,-0.609,0.989,-0.047,0.120
0.578,0.934,-0.546,0.784,-0.110,0.075
0.367,0.868,-0.602,0.818,-0.201,-0.036
0.374,1.127,-0.438,1.307,-0.080,-0.069
0.939,1.471,0.012,1.152,0.400,0.393
0.634,1.003,-0.280,1.720,0.254,0.220
0.767,1.591,-0.619,2.122,-0.208,0.389
0.522,1.001,-0.402,1.566,0.007,0.298
0.513,1.299,-0.195,1.909,0.085,0.154
0.399,0.912,-0.736,1.673,-0.230,0.017
1.014,1.162,-0.288,1.203,0.258,0.418
0.800,0.945,-0.380,1.148,0.062,0.160
0.759,0.859,-0.263,1.255,-0.074,0.264
0.618,0.955,-0.289,1.118,0.013,0.196
1.585,1.417,-1.956,1.123,0.540,0.736
0.935,1.578,-0.917,1.222,-0.366,0.237
0.756,1.311,-0.478,1.376,0.097,0.372
0.786,1.447,-0.224,1.579,0.231,0.356
0.933,1.132,-0.221,1.656,0.197,0.290
0.704,1.355,-0.321,1.220,0.050,0.052
1.181,0.640,-1.034,1.022,-0.562,0.424
0.890,1.033,-0.554,1.223,-0.005,0.406
0.776,1.467,-0.172,1.703,0.222,0.366
0.409,1.334,-0.397,1.031,-0.040,0.108
1.329,1.067,-1.514,1.078,0.332,0.467
0.977,1.230,-1.248,0.893,0.050,0.148
0.583,0.969,-0.750,1.172,-0.012,0.019
1.076,0.904,-1.442,0.596,-0.314,0.113
0.327,1.486,-0.195,0.884,-0.049,0.047
1.188,0.919,-1.751,1.027,0.245,0.788
0.758,1.530,-1.567,1.416,0.357,0.315
1.870,1.869,-3.721,1.572,0.270,0.661
0.920,1.363,-0.825,1.239,0.076,0.216
0.899,1.236,-0.664,0.903,-0.032,0.169
1.600,1.255,-0.673,1.351,0.361,0.449
0.965,1.006,-0.586,1.165,0.061,0.194
0.691,1.271,-0.374,1.396,0.075,0.099
1.270,1.252,-0.844,1.047,0.043,0.012
0.848,1.139,-0.455,1.155,0.152,0.251
1.543,1.145,-0.688,1.140,-0.855,-0.041
0.929,1.168,-0.454,1.161,-0.052,0.194
1.065,1.231,-0.313,0.955,0.029,0.299
0.688,1.235,-0.477,1.424,-0.020,0.047
0.687,1.294,-0.295,1.244,0.131,0.203
0.813,1.284,-0.205,1.297,0.202,0.377
0.693,1.093,-0.342,1.180,0.064,0.221
0.485,0.710,0.464,0.789,-0.001,0.103
0.505,0.914,-0.063,1.040,-0.166,0.095
0.647,1.045,-0.273,1.062,-0.020,0.225
0.863,1.021,-0.309,0.815,0.041,0.195
1.610,1.420,-1.316,0.973,0.325,0.855
1.103,1.333,-0.559,1.301,0.315,0.513
0.920,1.339,-0.350,0.942,0.170,0.245
0.459,0.800,-0.579,0.928,-0.132,0.011
0.639,0.985,-0.358,1.490,0.041,0.090
0.290,1.119,-0.534,1.619,-0.078,0.042
0.684,1.275,-0.681,1.740,-0.312,0.100
0.745,1.181,-0.573,0.931,-0.136,0.087
0.621,1.407,-0.400,1.304,0.007,0.074
0.617,1.388,-0.197,1.536,0.188,0.301
0.523,0.954,-0.529,1.114,-0.077,0.063
0.783,1.362,-0.783,1.002,-0.363,0.212
0.847,1.114,-0.338,1.567,-0.014,0.310
0.880,0.975,-0.473,1.030,0.041,0.202
0.556,0.889,-0.356,1.547,0.271,0.373
0.925,1.421,-0.939,1.955,0.225,0.198
0.866,1.155,-0.468,1.254,0.180,0.248
0.733,1.349,-0.384,0.844,0.154,0.208
1.481,0.922,-1.235,1.390,-0.209,0.734
1.118,1.413,-0.386,1.422,0.213,0.600
0.615,0.953,-0.407,1.273,-0.073,-0.081
0.659,1.239,-0.184,1.217,0.222,0.316
0.695,1.072,-0.305,1.139,0.141,0.313
0.707,1.137,-0.321,1.075,0.060,0.239
0.294,1.007,-0.359,1.420,0.105,0.291
0.643,0.426,-0.029,1.715,0.282,0.278
0.712,0.882,-0.555,1.804,-0.452,0.116
1.052,1.406,-0.007,1.707,0.368,0.592
0.422,1.272,-0.202,1.024,0.061,0.198
0.461,1.317,-0.369,0.975,-0.310,0.357
1.272,0.727,-0.485,1.138,-0.550,0.241
0.929,1.352,-0.481,1.190,-0.129,0.370
1.508,0.946,-0.733,1.470,-0.241,0.322
0.969,1.136,-0.342,1.329,0.096,0.326
1.446,1.002,-1.316,0.882,0.413,0.576
0.954,1.166,-0.611,1.190,0.236,0.382
0.966,1.464,-0.290,1.293,0.276,0.393
0.571,1.185,-0.432,1.302,0.072,0.258
1.512,1.226,-1.171,1.133,0.436,-0.273
0.768,1.133,-0.764,0.970,0.119,0.088
0.582,1.221,-0.629,1.108,0.177,0.247
0.676,1.197,-0.414,0.923,0.215,0.366
1.563,1.112,-0.401,1.210,-0.120,0.703
0.902,1.757,0.081,0.904,0.384,0.695
0.722,1.212,-0.262,1.116,0.083,0.306
0.656,1.103,-0.309,1.219,0.072,0.337
1.008,1.230,-0.361,1.833,0.106,0.585
0.484,0.986,-0.549,1.506,-0.143,0.037
1.038,1.373,-0.451,1.067,0.250,0.296
0.715,1.053,-0.387,0.972,0.045,0.238
0.854,1.317,-0.168,1.347,0.212,0.379
0.918,0.961,-0.229,1.029,0.145,0.297
0.838,1.369,-0.172,1.532,0.115,0.217
0.726,1.244,-0.162,1.434,0.162,0.326
1.077,0.911,-0.154,0.955,0.183,0.397
1.683,1.153,-0.812,1.374,0.113,0.710
0.778,1.435,-1.021,1.245,-0.237,0.044
0.984,1.468,-0.426,0.942,0.109,0.147
0.905,1.736,-0.260,1.595,0.101,0.140
1.467,1.061,-1.208,1.410,-0.034,-0.378
0.931,1.126,-0.503,1.206,0.063,0.127
0.644,0.907,-0.463,1.510,-0.069,0.031
1.203,1.205,-0.698,0.605,0.039,-0.069
1.671,1.295,-0.624,1.557,-0.033,0.493
1.570,1.321,-0.736,1.567,0.169,0.393
0.824,1.107,-0.497,1.124,0.028,0.195
1.101,0.986,-0.136,1.503,0.334,0.481
0.873,1.167,-0.066,1.853,0.232,0.337
0.267,1.107,-0.330,1.679,-0.052,0.007
0.331,1.074,-0.348,1.717,-0.102,0.064
0.322,1.149,-0.449,1.600,-0.154,0.019
0.711,1.323,-0.256,1.008,-0.186,0.272
1.301,0.987,-0.188,1.248,-0.294,0.174
1.217,1.232,-0.249,1.301,0.170,0.412
0.737,1.083,-0.386,1.097,0.062,0.225
0.630,1.460,-0.370,1.206,0.039,0.197
1.616,1.136,-0.837,1.319,-0.150,0.868
1.097,1.347,-0.326,1.345,0.151,0.549
1.455,1.192,-0.807,0.860,-0.754,0.709
0.691,1.254,-0.564,1.006,-0.246,0.196
1.437,0.853,-0.675,1.078,-0.024,0.340
1.957,1.176,-0.101,1.286,-0.993,-0.248
1.319,0.962,-0.163,1.246,-0.131,0.481
0.722,1.601,-0.107,1.062,-0.189,0.261
1.103,0.835,-0.248,1.041,-0.098,0.339
0.787,0.563,-0.475,0.928,-0.161,0.042
0.813,1.352,-0.064,1.431,0.265,0.352
0.641,1.453,-0.123,1.635,0.131,0.200
0.786,1.248,-0.293,0.855,0.065,0.062
0.453,1.306,-0.454,1.176,-0.172,-0.018
0.874,0.956,-0.481,1.139,-0.108,-0.261
0.756,1.261,-0.263,1.456,0.102,0.092
1.547,1.243,-1.210,1.074,-0.264,0.324
1.085,1.730,-0.464,1.323,0.175,0.341
1.576,0.971,-0.970,1.215,0.600,0.229
0.911,0.862,-0.643,0.790,0.231,0.150
1.387,0.729,-0.622,1.157,-0.070,0.018
0.810,1.092,-0.452,1.228,0.019,0.141
0.678,0.861,-0.478,1.247,0.009,0.156
0.670,1.187,-0.274,1.614,0.094,0.253
0.550,1.071,-0.322,1.709,-0.011,0.137
0.646,1.424,-0.173,1.664,0.234,0.327
1.406,1.228,-1.251,1.033,0.431,0.147
0.796,1.071,-0.590,1.086,0.120,0.169
0.924,1.272,-0.362,0.925,0.224,0.335
0.882,1.173,-0.227,1.076,0.197,0.373
1.290,0.777,-0.660,1.065,0.509,0.224
1.328,1.442,-1.580,1.051,0.580,-0.112
1.279,1.168,-0.436,1.187,0.605,0.488
0.787,1.170,-0.355,1.191,0.247,0.270
0.309,0.742,-0.461,1.568,0.139,-0.025
0.623,0.930,-0.201,1.704,0.089,0.296
1.254,1.195,-0.875,0.604,-0.159,-0.201
0.945,1.369,-0.518,1.085,0.035,0.163
0.630,1.174,-0.420,1.358,-0.120,0.074
0.466,1.283,-0.576,1.069,-0.190,-0.188
1.025,0.771,-0.265,1.076,0.066,0.236
0.550,1.163,-0.345,1.491,-0.084,0.028
0.594,1.271,-0.191,1.386,0.095,0.184
0.726,1.290,-0.173,1.535,0.184,0.321
0.855,0.730,-0.381,1.480,-0.012,0.143
1.067,1.106,-0.117,1.256,0.108,0.216
0.840,1.194,-0.660,0.841,-0.180,0.004
0.812,1.552,-0.415,1.162,0.124,0.244
1.215,0.923,-1.396,1.192,0.391,0.257
0.830,0.696,-0.964,1.096,-0.178,-0.295
0.615,1.328,-0.661,1.007,0.250,0.188
1.049,0.842,-1.578,0.720,-0.242,0.179
1.176,1.300,-0.540,1.079,0.030,0.282
1.002,0.905,-0.479,1.166,-0.064,0.140
0.449,0.874,-0.513,1.305,-0.113,0.057
0.598,1.059,-0.371,1.369,-0.046,0.134
0.955,1.242,-0.072,1.351,0.307,0.465
0.482,1.066,-0.419,1.560,-0.019,0.074
0.488,1.418,-0.370,1.051,0.082,-0.018
0.785,1.247,-0.176,1.247,0.201,0.311
0.809,1.050,-0.480,1.509,-0.059,-0.135
0.773,1.332,-0.330,1.257,0.039,0.162
0.783,1.177,-0.227,1.286,0.170,0.270
0.410,0.901,-0.430,1.181,-0.097,0.088
0.390,0.728,-0.410,1.497,-0.014,-0.021
0.263,1.018,-0.965,1.596,-0.339,-0.216
0.802,1.047,-0.765,1.661,0.170,0.112
0.587,0.894,-0.603,1.169,0.018,0.075
0.580,1.401,-0.259,1.558,0.160,0.206
0.917,1.307,-0.350,1.352,0.183,0.317
1.338,0.939,-1.513,0.752,0.328,0.714
0.989,0.839,-0.821,0.907,-0.073,0.045
0.462,1.074,-0.649,1.313,-0.153,-0.009
1.219,1.008,-1.325,0.730,-0.008,0.615
0.942,1.108,-0.542,1.418,0.197,0.504
1.034,1.571,-1.095,1.166,-0.098,0.140
0.533,1.049,-0.750,1.253,-0.146,-0.033
0.711,1.261,-0.365,1.463,0.172,0.322
0.498,1.006,-0.502,1.143,-0.033,0.090
0.189,1.110,-0.689,1.375,-0.201,-0.164
0.580,1.257,-0.485,1.062,-0.050,0.087
1.186,1.168,-0.195,0.893,0.017,0.351
0.926,0.862,-0.478,1.268,-0.263,0.022
0.699,0.910,-0.775,1.496,-0.231,0.035
0.882,1.108,-0.452,1.757,-0.044,0.117
1.454,1.766,-1.935,0.916,0.219,0.587
1.424,1.238,-2.981,1.615,0.472,1.100
0.461,1.331,-1.103,1.047,-0.033,0.201
1.389,0.857,-1.352,1.322,0.122,0.652
0.736,1.044,-1.121,1.471,-0.190,0.152
0.835,1.098,-0.471,1.254,0.068,0.187
0.363,1.139,-0.581,1.082,-0.120,-0.030
1.076,1.122,-0.730,0.729,0.097,0.299
1.388,0.991,-1.257,1.197,0.297,0.459
1.453,1.323,-0.207,1.644,0.424,0.599
0.829,0.854,-0.526,1.074,-0.037,0.090
1.704,1.547,-1.267,1.066,0.705,0.423
0.523,1.162,-0.774,0.766,0.129,0.115
0.598,1.071,-0.525,0.820,-0.042,0.120
0.679,0.803,-0.435,1.091,-0.099,0.075
0.689,1.241,-0.441,0.693,-0.104,-0.078
0.823,1.625,-0.118,1.418,0.251,0.262
0.440,0.851,-0.630,1.001,-0.127,-0.043
0.670,1.627,-0.246,1.040,0.157,0.189
0.609,1.404,-0.415,0.980,-0.058,0.081
1.592,1.343,-0.566,1.025,-0.475,0.965
1.470,0.988,-2.550,1.800,-0.332,0.843
0.737,1.807,-0.107,0.923,-1.256,0.383
1.416,0.984,-0.060,1.446,-1.661,0.969
0.959,1.161,-0.161,1.502,-0.150,0.575
1.492,1.152,-0.293,1.043,-1.093,0.453
1.210,0.773,-0.172,1.109,-0.102,0.538
1.032,1.174,-0.117,1.469,0.150,0.248
0.783,1.314,-0.051,1.342,0.270,0.380
0.557,1.047,-0.372,1.176,0.023,0.137
0.535,0.912,-0.437,1.113,-0.026,0.112
0.637,1.233,-0.195,1.272,0.157,0.294
0.966,1.087,-0.188,1.058,0.134,0.318
1.097,0.936,-1.862,0.725,-0.119,0.423
1.429,1.274,-2.676,2.077,0.274,0.153
1.268,1.371,-0.519,1.181,0.335,0.197
0.602,1.349,-0.438,1.062,0.001,0.155
1.216,0.562,-0.999,0.953,-0.163,0.114
0.921,1.406,-0.429,1.329,0.082,0.198
1.761,1.459,-1.031,1.346,0.057,0.982
0.612,1.533,-0.368,0.852,0.176,0.609
0.615,1.679,-1.260,1.470,-0.002,0.252
0.960,1.309,-0.260,1.525,0.271,0.446
0.544,1.543,-0.225,1.160,0.142,0.258
0.494,0.905,-0.521,0.897,-0.112,0.095
1.498,1.281,-0.641,1.248,0.357,0.570
0.551,0.785,-0.563,1.474,0.330,0.564
0.396,1.243,-0.237,1.807,0.202,0.264
0.269,1.291,-0.340,1.790,-0.049,0.130
0.436,1.409,-0.138,1.863,0.127,0.316
0.376,1.220,-0.205,1.787,0.102,0.169
1.233,1.233,-0.830,0.687,0.046,-0.075
0.831,1.238,-0.476,1.024,0.008,0.169
1.459,1.129,-0.574,1.211,-0.389,0.236
0.738,1.325,-0.405,1.212,-0.069,0.054
0.682,1.365,-0.162,1.280,0.173,0.392
0.911,1.183,-0.121,1.497,0.285,0.488
0.497,1.278,-0.247,1.144,0.115,0.246
1.011,1.178,0.068,1.490,0.328,0.659
0.991,1.320,-0.145,0.871,-0.169,0.427
0.670,1.330,-0.333,1.143,-0.009,0.322
1.497,1.150,-0.854,1.238,-0.361,0.766
0.876,1.267,-0.512,1.184,-0.047,0.406
1.234,0.836,-1.048,0.784,-0.267,0.703
1.834,1.246,-2.143,1.971,0.419,1.210
0.921,1.390,-0.485,1.707,0.240,0.408
0.425,1.153,-0.487,1.396,-0.020,0.081
0.583,1.157,-0.183,1.626,0.073,0.277
0.782,0.863,-0.422,1.405,-0.056,0.107
0.464,1.141,-0.280,0.890,0.130,0.203
0.518,0.957,-0.026,1.457,0.356,0.527
0.599,1.418,0.068,2.007,0.243,0.362
0.191,0.993,-0.406,1.620,-0.152,0.011
0.220,1.174,-0.886,1.771,-0.044,0.151
0.506,1.221,-0.511,1.172,-0.018,0.144
1.397,1.220,-1.603,1.258,0.119,0.255
0.719,1.255,-0.757,1.151,-0.083,0.093
1.289,1.128,-1.769,1.135,0.060,0.467
1.196,1.041,-0.748,0.997,0.406,0.642
0.547,1.202,-0.594,1.020,-0.114,0.297
1.052,1.074,-0.162,0.886,0.097,0.391
0.809,1.310,-0.255,0.951,0.105,-0.003
0.599,1.201,-0.312,1.241,0.073,0.098
0.470,1.548,-0.036,1.813,0.204,0.351
1.061,1.026,-0.624,0.879,0.231,-0.127
1.604,0.864,-0.919,1.322,0.089,0.078
1.253,0.904,-0.612,1.203,0.128,0.214
0.703,1.074,-0.304,0.695,-0.041,0.061
0.694,0.921,-0.301,1.274,-0.269,0.277
0.790,1.419,-0.144,0.943,-0.460,0.669
1.433,0.743,-0.774,1.324,-0.229,0.908
1.798,1.261,-0.693,1.391,-0.717,0.494
1.233,1.253,-0.232,1.424,0.081,0.478
0.722,1.035,-0.363,1.085,-0.003,0.202
0.747,1.074,-0.273,1.040,0.051,0.197
0.972,0.910,-0.377,0.713,-0.008,0.338
1.146,1.136,-0.220,1.359,0.152,0.448
0.854,1.154,-0.251,1.364,0.184,0.384
0.771,1.111,-0.257,1.191,0.122,0.255
1.353,0.904,-0.813,0.832,-0.260,0.657
0.597,1.252,-0.611,0.961,-0.047,0.413
0.898,0.949,-0.283,1.257,0.078,0.396
0.310,1.116,-0.510,1.404,-0.105,0.071
0.919,1.328,-0.233,1.732,0.193,0.325
0.780,1.564,-0.077,1.086,0.251,0.360
0.811,1.545,-0.262,1.054,0.064,0.237
0.720,1.194,-0.294,1.149,0.060,0.251
0.495,1.244,-0.515,0.908,-0.220,-0.078
0.925,1.077,-0.693,1.106,-0.692,0.267
0.599,1.318,-0.430,1.155,-0.143,0.176
1.367,1.091,-1.275,1.216,0.010,0.753
0.842,1.248,-0.441,1.106,0.203,0.524
0.539,0.902,-0.437,1.436,-0.070,0.148
0.777,1.334,-0.334,1.862,-0.562,0.394
0.856,1.033,-0.356,1.420,-0.036,0.249
0.664,1.380,-0.134,1.644,0.150,0.332
0.507,0.782,-0.505,1.202,-0.057,0.053
0.691,1.252,-0.081,1.670,0.238,0.334
0.401,1.068,-0.279,0.822,0.089,0.073
1.142,1.179,-1.237,0.597,0.199,0.166
0.925,1.581,-0.366,1.288,0.269,0.396
0.828,1.157,-0.322,1.107,0.138,0.276
0.927,1.264,-0.149,1.192,0.244,0.387
0.892,0.944,-0.325,0.871,0.104,0.299
0.871,0.996,-0.308,1.085,0.026,0.308
0.614,1.100,-0.308,0.795,0.078,0.324
0.555,0.957,-0.344,0.955,-0.038,0.150
0.296,0.772,0.061,1.631,-0.345,-0.045
0.504,0.844,-0.218,1.072,-0.103,0.051
0.243,1.083,-0.140,1.576,0.082,0.135
0.276,1.079,-0.338,1.683,-0.126,0.020
0.350,1.164,-0.286,1.585,-0.054,0.135
0.615,1.423,-0.044,1.970,0.191,0.360
1.369,1.849,-1.505,1.026,-0.211,0.659
0.996,0.561,-0.677,1.071,-0.094,0.496
0.643,1.072,-0.399,1.498,0.032,0.234
0.579,1.259,-0.368,1.064,-0.020,0.172
0.581,0.984,-0.048,1.637,0.109,0.717
0.501,1.208,-0.115,1.696,0.224,0.574
1.080,1.163,-0.474,0.813,0.189,0.400
1.520,0.877,-1.445,1.161,-0.532,0.680
1.484,1.093,-0.549,1.238,0.144,0.483
1.682,1.318,-1.369,1.624,-0.099,0.439
0.937,1.145,-0.510,1.188,0.012,0.269
1.340,1.573,-0.464,1.269,-0.151,0.419
0.617,1.090,-0.426,1.041,-0.226,0.140
0.975,0.993,-0.169,1.421,-0.063,0.260
0.604,0.965,-0.351,1.117,-0.060,0.132
1.432,1.388,-0.434,1.052,0.225,0.319
1.120,1.082,-0.611,1.466,-0.005,0.258
0.597,0.880,-0.316,1.179,0.037,0.202
0.752,1.562,-0.105,1.156,0.188,0.275
1.526,1.172,-1.200,1.065,-0.632,0.438
1.731,1.491,-0.548,1.352,0.475,0.459
0.991,0.755,-0.910,1.040,-0.110,-0.052
0.933,1.401,-0.345,1.691,0.104,0.129
0.629,1.376,-0.173,1.274,0.043,0.176
1.381,1.144,-0.536,1.131,-0.263,0.521
1.404,0.866,-1.070,1.711,-0.467,-0.159
1.910,2.100,-2.219,1.483,-0.113,0.237
1.787,1.517,-2.750,2.192,-0.271,0.310
0.940,1.120,-0.652,1.220,-0.052,0.152
0.893,1.251,-0.256,1.320,0.212,0.380
1.552,1.192,-0.722,1.140,0.142,0.237
0.764,1.259,-0.642,1.235,-0.047,-0.014
0.308,1.060,-0.587,1.300,-0.172,-0.058
0.642,1.145,-0.319,1.338,0.098,0.230
0.698,1.099,-0.307,1.105,0.099,0.254
0.738,1.182,-0.237,1.112,0.139,0.302
0.708,1.124,-0.244,1.242,0.137,0.290
1.223,0.971,-1.805,0.902,0.135,0.593
0.528,1.280,-1.280,1.119,-0.094,0.146
0.582,0.922,-0.675,1.082,-0.037,0.101
0.593,0.884,-0.593,1.586,0.001,0.424
0.440,0.974,-0.774,1.546,-0.268,-0.025
0.484,1.257,-0.382,1.843,0.084,0.188
0.689,1.095,-0.507,1.728,0.176,0.250
0.373,1.159,-0.402,1.775,0.062,0.033
0.408,1.112,-0.526,1.603,-0.113,-0.001
1.546,1.675,-0.709,1.081,-0.118,0.636
1.097,1.184,-0.982,1.229,0.043,0.491
0.882,1.538,-0.522,1.370,0.148,0.337
0.333,0.977,-0.520,1.344,0.001,0.152
0.699,1.423,-0.084,1.107,0.027,0.119
0.767,1.227,-0.071,1.363,0.201,0.388
1.196,1.110,-0.343,0.863,-0.295,-0.330
0.571,1.193,-0.278,0.704,-0.002,0.183
1.534,1.091,-0.705,1.018,-0.119,0.479
0.611,1.553,-0.329,0.633,-0.174,0.613
0.483,1.149,-0.474,0.931,-0.143,0.260
0.603,0.775,-0.591,1.172,-0.032,0.328
1.067,0.737,-1.341,0.588,-0.132,-0.053
1.091,0.801,-0.527,1.012,0.179,0.541
1.187,1.155,-0.611,0.971,-0.048,0.508
0.378,1.270,-0.609,0.837,-0.220,0.046
0.594,1.145,-0.328,1.254,0.127,0.308
0.185,1.139,-0.485,1.354,-0.157,-0.143
0.666,1.233,-0.298,1.187,0.002,0.247
1.143,0.688,-1.525,0.825,0.238,0.663
1.086,0.643,-0.589,0.806,-0.386,0.253
0.686,1.139,-0.758,1.104,-0.002,0.367
0.588,1.267,-0.422,1.428,-0.038,0.265
0.937,1.007,-0.369,0.949,0.141,0.464
0.800,1.165,-0.235,1.348,0.117,0.312
1.377,1.278,-0.701,0.624,0.459,-0.126
1.332,0.794,-0.560,1.033,0.631,0.528
1.102,1.292,-0.150,1.378,0.498,0.527
0.729,1.248,-0.265,1.557,0.168,0.203
0.564,1.209,-0.361,0.831,-0.050,0.124
0.644,0.694,-0.428,1.078,-0.081,-0.036
0.408,1.103,-0.373,1.465,-0.116,0.029
0.444,1.066,-0.236,1.790,0.043,0.202
0.194,1.088,-0.408,1.786,-0.095,0.027
0.162,1.109,-0.435,1.710,-0.147,0.004
0.463,1.574,-0.063,1.107,0.406,0.173
0.371,1.344,-0.407,0.927,0.048,0.220
0.253,0.722,-0.475,1.109,-0.100,0.055
1.075,1.006,-0.242,1.599,0.235,0.256
1.429,1.269,-0.726,1.031,-0.375,0.281
1.144,1.155,-0.311,1.512,0.111,0.420
1.588,1.937,-2.101,1.170,0.504,0.666
0.881,1.243,-0.854,1.136,0.214,0.386
0.487,1.360,-0.521,1.272,0.062,0.099
1.358,1.343,-0.627,0.872,-0.188,0.407
1.611,1.397,-3.083,1.707,0.545,0.713
0.794,0.830,-0.883,1.075,-0.004,0.071
0.993,0.933,-0.548,0.917,0.008,0.128
0.926,1.598,-0.211,1.198,0.235,0.540
1.565,0.906,-0.845,1.868,0.245,0.455
0.607,0.701,-0.750,1.193,-0.071,0.079
0.741,0.948,-0.428,1.349,0.080,0.183
0.097,0.932,-0.239,1.648,-0.011,0.199
0.505,1.418,-0.810,1.889,-0.131,0.346
0.858,1.297,-0.438,1.414,0.218,0.480
0.466,1.414,-0.278,1.671,0.122,0.218
0.533,1.177,-0.370,1.213,0.073,0.192
0.608,1.060,-0.325,0.988,0.096,0.243
0.650,1.313,-0.190,0.785,0.141,0.305
0.806,1.344,-0.238,1.224,0.119,0.339
0.593,1.026,-0.369,0.988,-0.007,0.165
1.642,1.348,-0.758,1.361,0.487,0.636
1.287,0.710,-0.192,1.234,0.204,0.334
0.677,0.621,-0.569,0.922,-0.221,-0.108
0.962,0.702,-0.340,0.548,0.097,0.230
0.634,0.941,-0.407,1.116,-0.014,0.037
0.507,1.037,-0.399,1.065,-0.052,0.073
0.622,1.024,-0.232,1.600,0.147,0.359
0.739,1.157,-0.141,1.613,0.246,0.353
0.468,1.178,-0.311,1.021,-0.012,0.119
0.293,1.103,-0.101,1.690,0.171,0.426
0.662,1.253,-0.511,1.873,-0.468,0.376
0.731,1.098,-0.344,1.218,0.006,0.304
0.502,1.092,-0.463,0.943,-0.103,0.057
0.784,1.287,-0.167,1.267,0.202,0.357
1.271,0.950,-0.711,0.787,-0.112,0.620
0.918,0.998,-0.337,1.234,0.072,0.380
0.610,0.814,-0.496,1.392,-0.303,-0.124
0.516,1.092,-0.191,1.507,-0.239,0.361
0.541,1.292,-0.319,1.043,-0.090,0.131
0.542,1.470,-0.605,1.054,-0.396,0.110
0.606,1.320,-0.498,1.540,-0.053,0.377
0.776,1.162,-0.278,1.273,0.146,0.367
0.655,1.127,-0.496,0.939,0.044,0.198
0.636,0.901,-0.435,1.047,0.039,0.150
0.216,0.654,-0.309,1.279,0.032,0.288
0.682,1.242,-0.070,1.287,0.281,0.416
0.687,1.022,-0.323,1.014,0.142,0.331
0.863,0.882,-0.343,0.730,-0.031,0.164
0.823,1.181,-0.390,0.907,-0.065,0.049
0.492,1.348,-0.422,1.183,-0.115,0.071
0.633,0.964,-0.414,0.855,-0.013,0.107
1.416,1.194,-0.309,0.989,-0.351,0.666
0.911,1.163,-0.305,1.140,-0.035,0.375
0.514,0.953,-0.468,1.036,-0.095,0.149
0.393,1.018,-0.442,1.100,-0.063,-0.015
0.551,0.970,-0.361,1.047,-0.012,0.143
0.701,1.484,-0.338,1.761,-0.289,0.209
0.449,0.996,-0.525,1.144,-0.225,0.048
1.193,0.970,-0.884,0.805,-0.293,0.293
0.726,1.269,-1.111,0.940,0.056,0.267
1.613,1.246,-1.217,1.414,0.083,0.947
1.190,1.068,-0.631,1.623,0.169,0.579
0.918,0.978,-0.418,1.430,0.139,0.279
0.519,1.269,-0.311,1.565,0.098,0.182
0.745,1.149,-1.531,1.701,-0.066,0.156
0.853,0.894,-0.571,0.709,-0.159,0.096
0.721,1.323,-0.248,1.298,0.182,0.331
0.871,1.236,-0.049,1.747,0.422,0.171
0.333,1.167,-0.302,1.669,0.091,0.119
0.586,0.824,-0.392,1.298,-0.010,0.160
0.609,1.032,-0.771,1.607,-0.177,0.022
0.895,1.153,-0.264,1.450,0.207,0.314
1.684,1.452,-1.468,1.212,0.348,0.553
1.305,1.238,-0.772,1.153,0.120,0.284
0.660,0.987,-0.662,1.256,0.096,0.225
1.573,1.360,-1.569,1.355,-0.001,0.478
1.687,1.197,-1.790,1.666,0.393,-0.444
0.861,1.154,-0.765,0.888,0.247,0.077
0.677,1.042,-0.440,1.276,0.121,0.188
1.029,1.238,-0.122,1.490,0.298,0.437
1.228,1.297,-0.818,0.840,-0.609,0.243
0.762,1.257,-0.424,1.380,-0.070,0.191
0.743,1.333,-0.263,1.537,0.133,0.274
0.427,1.102,-0.551,1.215,-0.022,0.126
0.637,0.903,-0.471,1.488,-0.388,0.053
0.798,1.194,-0.653,1.671,-0.076,-0.076
1.624,2.012,-1.588,1.282,0.524,0.167
0.494,1.056,-0.918,1.170,-0.044,-0.031
0.895,1.653,-0.652,1.435,0.236,0.242
1.569,1.008,-1.384,1.365,-0.294,-0.155
1.106,0.674,-0.908,0.831,0.037,0.189
1.395,1.249,-1.474,1.106,0.285,0.769
0.916,1.389,-0.413,1.335,0.293,0.499
0.678,1.058,-0.299,1.354,0.180,0.379
0.541,0.911,-0.516,0.923,-0.043,0.069
0.978,1.171,-0.308,0.849,0.086,0.272
0.660,1.016,-0.355,1.188,0.126,0.257
0.643,1.119,-0.583,1.481,0.074,0.226
0.448,1.150,-0.288,1.805,0.159,0.234
0.180,1.081,-0.349,1.746,-0.002,-0.013
0.708,1.197,-0.192,1.312,0.213,0.322
1.250,0.904,-0.932,1.205,0.121,0.516
0.869,1.153,-0.449,1.400,0.112,0.318
0.867,1.506,-0.769,1.130,0.121,0.279
0.649,1.386,-0.491,1.331,0.111,0.194
0.792,1.464,-0.515,1.231,0.051,0.127
1.480,0.996,-0.854,1.366,-0.965,0.376
0.967,1.713,-0.680,1.508,-0.014,0.506
1.095,0.761,-0.650,1.115,-0.310,0.346
0.533,1.120,-0.474,1.328,-0.157,-0.037
0.803,1.006,-0.280,1.051,0.112,0.238
1.582,1.282,-0.389,1.122,0.116,0.420
0.773,1.652,-1.155,1.170,0.273,0.406
0.565,1.261,-0.633,1.479,-0.010,0.054
0.736,1.170,-0.538,1.606,-0.192,-0.025
0.449,0.941,-0.454,1.626,-0.125,0.026
0.597,1.206,-0.513,1.773,-0.076,-0.067
0.590,1.297,-0.242,1.864,0.130,0.191
0.700,0.971,-0.553,0.740,-0.009,0.020
0.731,1.645,-0.737,1.060,-0.031,0.643
0.862,1.148,-0.469,0.990,0.066,0.390
0.595,1.513,-0.279,1.449,0.096,0.201
0.608,1.663,-0.291,1.266,-0.085,0.154
0.447,1.113,-0.462,0.848,-0.077,0.134
0.224,1.259,-0.479,0.758,-0.123,-0.086
1.312,0.813,-0.783,1.385,-0.148,0.023
1.078,0.846,-0.540,1.047,-0.058,0.031
0.821,1.083,-0.380,1.482,-0.014,0.146
1.015,1.061,-0.217,1.275,0.195,0.341
0.604,1.382,-0.269,1.147,0.077,0.165
1.588,0.968,-1.342,1.352,0.210,1.118
0.973,1.716,-2.413,1.125,0.427,0.710
1.164,1.372,-0.870,1.052,0.123,0.295
1.751,1.029,-0.263,1.409,-0.157,0.384
1.004,1.316,-0.303,1.245,0.005,0.194
1.457,1.112,-0.948,1.498,0.502,0.264
1.238,1.041,-0.458,1.018,0.348,0.305
0.566,0.881,-0.466,1.267,0.183,0.294
0.774,1.533,-1.245,1.919,0.411,0.322
0.704,0.809,-0.399,1.663,0.262,0.400
0.620,0.910,-0.403,1.325,0.132,0.231
0.800,1.627,-0.862,2.016,-0.032,0.367
0.628,1.094,-0.575,1.080,-0.058,0.154
0.371,0.963,-0.694,1.377,0.029,0.369
0.664,0.913,-0.632,0.594,-0.130,0.226
1.157,0.727,-1.270,1.128,0.312,0.407
0.818,0.981,-0.561,1.470,0.033,0.195
0.812,0.972,-0.333,1.208,0.133,0.210
0.674,1.202,-0.391,1.573,-0.023,-0.137
1.121,1.318,-0.324,1.008,-0.040,-0.072
1.565,0.815,-0.637,1.731,0.143,-0.236
0.754,1.105,-0.410,1.539,0.102,0.064
0.900,1.257,-0.136,1.321,0.340,0.433
1.511,1.259,-1.206,1.267,0.731,0.266
1.137,0.915,-0.517,1.369,0.239,0.054
1.118,1.311,-1.449,0.734,0.217,0.261
0.446,1.640,-0.750,1.335,0.086,0.281
0.065,0.576,-0.622,1.076,-0.184,-0.008
0.581,1.257,-0.997,1.720,0.156,0.321
0.608,1.389,-0.495,1.871,0.214,0.315
0.694,1.178,-0.306,1.471,0.209,0.318
0.442,1.246,-0.420,1.233,0.031,0.124
0.775,1.429,-0.608,1.044,0.388,0.333
0.826,0.969,-0.432,1.438,0.198,0.295
0.693,0.770,-0.398,1.181,-0.036,0.215
0.610,1.336,-0.238,1.301,0.045,0.102
0.828,1.263,-0.623,0.853,-0.037,0.089
0.736,1.668,-0.621,1.465,-0.352,0.066
0.907,1.280,-0.371,1.636,0.137,0.296
0.969,1.225,-0.125,1.454,0.366,0.480
1.479,1.193,-0.180,0.925,0.360,0.465
0.637,1.138,-0.538,1.009,-0.221,-0.164
0.607,0.811,-0.436,1.435,-0.154,-0.002
0.782,0.895,-0.158,1.625,-0.081,0.108
0.839,1.195,-0.059,1.440,0.211,0.348
1.127,1.316,-0.406,0.934,0.235,0.263
0.548,1.354,-1.059,1.217,-0.098,0.015
1.818,1.382,-1.975,1.306,0.049,0.372
0.948,1.212,-0.802,1.121,0.076,0.264
0.553,1.530,-0.896,1.392,0.065,0.013
0.549,1.461,-0.253,1.102,0.309,0.391
0.670,1.285,-0.282,1.471,0.111,0.204
0.810,1.212,-0.108,1.425,0.293,0.412
0.247,1.143,-0.670,1.421,-0.231,-0.149
1.437,1.346,-0.215,0.994,0.285,0.431
0.810,1.343,-0.377,1.229,0.039,0.077
1.628,1.459,-2.000,1.119,0.291,0.401
1.309,1.074,-0.645,1.460,0.160,0.042
1.226,1.465,-0.226,1.268,0.540,0.552
0.752,0.991,-0.513,0.871,-0.057,0.077
1.109,1.322,-0.214,1.716,0.135,0.293
0.790,1.236,-0.352,1.298,0.112,0.241
0.603,1.523,-0.394,0.971,0.027,0.177
0.825,1.106,-0.332,1.344,0.163,0.318
1.250,0.772,-0.782,0.804,-0.415,0.568
0.722,1.332,-0.490,0.905,-0.052,0.200
0.528,0.695,-0.548,1.179,-0.321,-0.011
0.761,1.037,-0.316,1.205,0.070,0.252
0.136,0.929,-0.500,1.257,-0.176,0.003
1.271,1.225,-0.075,1.005,0.027,0.362
0.856,0.801,-0.311,0.902,0.008,0.273
0.690,1.306,-0.344,1.143,0.007,0.001
0.872,1.146,-0.324,1.363,0.076,0.194
1.735,1.553,-1.919,1.322,0.546,0.900
1.551,1.213,-2.171,1.492,-0.164,0.772
0.491,1.162,-1.103,1.073,-0.214,-0.034
0.902,0.934,-0.491,1.152,0.017,0.175
0.670,1.274,-0.395,1.030,-0.022,0.103
1.510,0.927,-1.861,1.511,0.122,-0.088
1.673,1.495,-1.474,1.607,0.403,0.315
0.805,1.281,-0.710,1.284,0.056,0.123
0.669,0.865,-0.573,1.136,-0.002,0.195
0.606,1.034,-0.408,1.194,0.016,0.184
0.723,0.984,-0.489,1.012,0.084,0.236
0.559,0.899,-0.444,1.460,0.099,0.251
1.393,1.325,-0.897,0.805,0.242,-0.205
1.429,1.497,-1.149,1.515,0.218,0.047
0.993,1.360,-0.391,1.471,0.247,0.329
0.508,0.793,-0.699,1.292,-0.080,-0.010
1.135,1.051,-0.495,1.034,0.412,0.064
1.653,1.193,-1.568,1.438,0.737,0.565
1.712,1.096,-2.969,1.974,0.844,0.709
0.694,1.090,-1.300,1.640,0.073,0.139
0.984,0.965,-0.621,0.882,0.162,0.175
1.001,1.214,-0.449,1.172,0.222,0.464
1.046,0.761,-0.800,0.914,-0.409,-0.114
0.981,0.989,-0.949,1.591,0.037,0.073
0.268,1.268,-0.562,0.931,0.072,0.129
1.401,0.929,-1.990,1.253,0.230,0.602
0.425,1.206,-1.545,0.821,0.124,0.419
0.652,1.001,-0.658,1.159,0.093,0.339
0.838,0.993,-0.387,1.045,0.143,0.297
1.511,1.109,-1.792,1.523,0.769,0.596
0.798,1.263,-0.696,1.421,0.258,0.291
0.736,0.989,-0.679,1.120,0.051,0.144
0.738,0.872,-0.497,0.971,0.046,0.142
0.781,1.159,-0.241,1.186,0.296,0.380
1.326,0.968,-1.480,1.014,0.144,0.494
1.788,1.539,-2.130,1.803,0.614,0.648
0.849,1.362,-0.651,1.544,0.201,0.317
1.347,1.001,-1.620,1.032,-0.193,0.586
0.792,1.337,-0.912,1.361,0.077,0.345
0.584,1.090,-0.850,1.353,-0.020,0.116
0.840,0.846,-0.501,1.359,0.065,0.202
0.776,1.330,-0.260,1.115,0.050,0.186
0.584,1.073,-0.203,1.677,0.138,0.219
0.458,1.208,-0.195,0.890,0.137,0.249
0.451,1.605,-0.242,1.191,0.042,0.112
0.574,1.414,-0.361,1.080,-0.030,0.076
0.616,1.556,-0.410,1.229,0.183,0.273
0.958,1.239,-0.498,0.789,0.035,0.087
