0.167,0.167,0.167,0.167,0.167,0.167
0.060,0.255,-0.771,0.464,-0.523,-0.509
0.270,0.509,-0.683,0.556,-0.161,-0.267
0.721,1.083,-0.235,0.972,0.066,0.099
-0.086,0.314,-0.799,0.285,-0.581,-0.551
0.917,1.312,-0.074,1.235,0.346,0.328
0.459,0.792,-0.259,0.943,0.047,-0.038
-0.254,-0.020,-1.196,0.288,-0.787,-0.734
0.942,1.182,-0.105,1.248,0.329,0.362
0.063,0.314,-0.918,0.455,-0.487,-0.478
1.024,1.365,-0.023,1.275,0.401,0.549
0.047,0.342,-1.015,0.332,-0.564,-0.584
0.427,0.830,-0.405,0.790,-0.133,-0.049
0.480,0.790,-0.441,0.939,0.032,-0.080
0.754,0.992,-0.216,1.238,0.275,0.245
-0.455,0.005,-1.268,0.088,-0.850,-0.793
-0.630,-0.324,-1.589,-0.217,-1.014,-1.004
0.190,0.488,-0.810,0.517,-0.246,-0.257
-0.830,-0.485,-1.656,-0.318,-1.214,-1.284
-0.167,0.165,-1.104,0.294,-0.693,-0.613
-0.651,-0.299,-1.455,-0.098,-1.052,-0.975
-0.200,0.020,-1.149,0.196,-0.775,-0.799
0.958,1.271,0.053,1.404,0.478,0.392
0.137,0.529,-0.770,0.562,-0.277,-0.437
-0.229,0.079,-1.261,0.029,-0.775,-0.735
-0.443,-0.125,-1.366,0.022,-0.792,-0.906
0.562,0.793,-0.545,0.964,0.046,0.043
-0.744,-0.318,-1.540,-0.269,-1.144,-1.168
0.212,0.642,-0.473,0.789,-0.098,-0.153
0.079,0.464,-0.852,0.537,-0.448,-0.217
0.209,0.420,-0.725,0.567,-0.254,-0.383
0.768,1.125,-0.254,1.180,0.259,0.314
-0.946,-0.496,-1.909,-0.408,-1.505,-1.304
0.895,1.210,-0.082,1.249,0.376,0.489
-0.156,0.371,-0.887,0.338,-0.534,-0.500
0.223,0.618,-0.716,0.687,-0.200,-0.147
-0.062,0.236,-1.105,0.328,-0.654,-0.651
-0.050,0.348,-1.005,0.499,-0.322,-0.536
0.528,0.971,-0.405,1.062,0.159,0.111
0.524,0.875,-0.374,0.830,0.016,0.158
0.448,0.872,-0.263,1.041,0.230,0.091
-0.181,0.086,-1.189,0.363,-0.574,-0.781
0.286,0.548,-0.815,0.599,-0.246,-0.179
0.592,1.059,-0.325,0.909,0.087,0.133
-0.045,0.443,-1.016,0.387,-0.452,-0.489
-0.095,0.325,-1.036,0.330,-0.573,-0.639
1.005,1.353,-0.086,1.321,0.540,0.427
0.058,0.285,-1.023,0.346,-0.459,-0.477
0.936,1.245,0.020,1.419,0.522,0.455
0.621,1.086,-0.312,1.106,0.118,0.165
0.183,0.434,-0.773,0.470,-0.472,-0.301
-0.065,0.282,-1.115,0.296,-0.562,-0.580
0.662,1.012,-0.357,0.989,0.156,0.132
-0.040,0.321,-1.048,0.509,-0.413,-0.364
0.900,1.117,-0.163,1.263,0.500,0.489
-0.581,-0.202,-1.371,-0.145,-1.041,-0.854
-0.012,0.166,-1.076,0.181,-0.562,-0.634
-0.150,0.183,-1.196,0.171,-0.565,-0.607
-0.034,0.341,-0.918,0.407,-0.486,-0.278
0.968,1.255,0.080,1.387,0.457,0.407
0.404,0.707,-0.685,0.785,-0.065,-0.104
0.466,0.812,-0.396,0.740,-0.023,0.051
0.377,0.610,-0.529,0.743,-0.066,-0.197
-0.299,0.168,-1.104,0.281,-0.680,-0.742
-0.318,-0.050,-1.235,0.069,-0.921,-0.943
-0.484,-0.242,-1.450,-0.164,-1.089,-1.127
0.665,0.955,-0.435,1.073,0.151,0.081
0.553,0.843,-0.509,0.892,0.058,-0.084
0.074,0.481,-0.854,0.557,-0.346,-0.250
0.213,0.437,-0.731,0.635,-0.354,-0.322
0.129,0.427,-0.942,0.550,-0.380,-0.381
-0.043,0.349,-0.844,0.528,-0.418,-0.556
0.635,1.086,-0.270,1.140,0.297,0.198
0.140,0.496,-0.733,0.578,-0.306,-0.261
0.809,1.052,-0.077,1.215,0.266,0.212
0.787,1.066,-0.086,1.174,0.368,0.322
-0.116,0.325,-1.067,0.392,-0.580,-0.603
0.359,0.613,-0.600,0.656,-0.133,-0.030
-0.580,-0.192,-1.432,-0.110,-0.998,-1.041
0.104,0.483,-0.759,0.653,-0.225,-0.165
0.763,0.990,-0.195,1.141,0.369,0.199
0.096,0.365,-0.777,0.548,-0.488,-0.301
-0.075,0.244,-1.102,0.263,-0.556,-0.557
-0.006,0.415,-0.957,0.387,-0.457,-0.436
0.217,0.551,-0.635,0.711,-0.186,-0.116
0.343,0.625,-0.665,0.671,-0.085,-0.052
0.168,0.371,-0.942,0.538,-0.381,-0.188
0.005,0.415,-0.764,0.558,-0.374,-0.157
-0.684,-0.319,-1.549,-0.194,-1.044,-1.240
0.279,0.629,-0.477,0.774,-0.097,-0.177
0.023,0.347,-0.899,0.556,-0.185,-0.492
0.227,0.533,-0.827,0.588,-0.209,-0.395
-0.380,-0.020,-1.308,-0.036,-0.798,-0.841
0.719,0.986,-0.241,1.075,0.297,0.181
0.202,0.533,-0.795,0.631,-0.275,-0.320
0.732,1.072,-0.275,1.080,0.189,0.227
0.353,0.539,-0.553,0.627,-0.250,-0.287
0.413,0.728,-0.472,0.962,-0.044,-0.110
0.236,0.541,-0.558,0.691,-0.140,-0.220
0.819,1.177,-0.129,1.084,0.308,0.254
-0.244,0.032,-1.311,0.107,-0.863,-0.645
0.062,0.472,-0.818,0.617,-0.435,-0.337
0.352,0.605,-0.660,0.699,-0.082,-0.198
0.217,0.498,-0.750,0.529,-0.348,-0.404
0.089,0.546,-0.624,0.568,-0.271,-0.211
0.017,0.311,-1.076,0.280,-0.499,-0.601
0.201,0.515,-0.622,0.642,-0.411,-0.286
0.395,0.650,-0.500,0.790,-0.131,-0.116
0.085,0.389,-0.959,0.519,-0.616,-0.427
-0.559,-0.109,-1.413,0.010,-0.847,-0.862
0.584,0.892,-0.494,0.967,0.104,0.076
0.164,0.408,-0.872,0.405,-0.417,-0.353
0.656,0.999,-0.425,0.958,0.243,0.073
0.627,1.107,-0.422,0.998,0.183,0.181
0.167,0.634,-0.678,0.728,-0.239,-0.231
0.646,1.055,-0.089,1.134,0.318,0.263
0.060,0.446,-0.712,0.505,-0.314,-0.394
-0.273,0.046,-1.227,0.124,-0.685,-0.663
0.306,0.647,-0.603,0.662,-0.166,-0.194
0.359,0.687,-0.537,0.961,-0.084,-0.189
0.389,0.663,-0.639,0.814,-0.065,-0.150
-0.168,0.125,-0.972,0.351,-0.632,-0.731
0.460,0.730,-0.409,0.927,-0.073,0.042
0.230,0.419,-0.909,0.499,-0.388,-0.367
0.469,0.773,-0.506,0.876,-0.023,0.034
0.167,0.424,-0.810,0.600,-0.342,-0.341
1.167,1.454,0.141,1.523,0.710,0.650
0.619,0.924,-0.463,0.854,0.045,0.064
-0.269,0.054,-1.279,0.140,-0.842,-0.790
1.439,1.702,0.452,1.915,1.006,0.976
0.131,0.259,-0.973,0.460,-0.272,-0.368
0.026,0.299,-1.021,0.270,-0.679,-0.578
0.316,0.642,-0.670,0.806,-0.154,-0.177
-0.202,0.225,-0.899,0.277,-0.618,-0.521
0.245,0.547,-0.726,0.631,-0.340,-0.266
0.089,0.321,-0.765,0.506,-0.355,-0.508
-0.032,0.269,-0.949,0.309,-0.482,-0.524
0.223,0.448,-0.725,0.541,-0.292,-0.326
-0.696,-0.407,-1.420,-0.198,-1.215,-1.161
0.717,1.072,-0.304,1.149,0.230,0.099
-0.580,-0.420,-1.628,-0.263,-1.124,-1.260
-0.422,-0.037,-1.261,-0.004,-0.878,-0.887
0.118,0.382,-0.732,0.568,-0.368,-0.482
0.733,1.037,-0.204,1.043,0.234,0.132
-0.083,0.392,-0.955,0.327,-0.744,-0.390
1.263,1.665,0.451,1.661,0.745,0.927
-0.249,0.218,-1.066,0.230,-0.528,-0.612
0.489,0.872,-0.606,0.931,0.117,0.020
-0.036,0.360,-1.009,0.486,-0.459,-0.405
0.150,0.410,-0.847,0.477,-0.434,-0.485
1.098,1.429,0.117,1.526,0.565,0.491
-0.098,0.299,-0.948,0.378,-0.602,-0.529
-0.347,-0.002,-1.258,0.141,-0.725,-0.789
0.071,0.498,-0.808,0.723,-0.205,-0.278
0.027,0.360,-0.966,0.439,-0.401,-0.480
-0.194,0.132,-1.021,0.183,-0.715,-0.716
0.809,1.110,-0.230,1.243,0.280,0.266
0.989,1.271,-0.031,1.312,0.418,0.412
0.432,0.688,-0.488,0.811,-0.099,-0.090
0.882,1.296,-0.023,1.233,0.205,0.432
-0.120,0.162,-1.155,0.275,-0.604,-0.784
0.082,0.275,-0.914,0.444,-0.385,-0.434
-0.410,-0.070,-1.240,0.093,-0.759,-0.865
-0.141,0.086,-0.799,0.393,-0.344,-0.567
-0.095,0.413,-1.047,0.426,-0.475,-0.551
-0.656,-0.193,-1.588,-0.188,-1.032,-1.115
0.672,1.067,-0.136,1.143,0.171,0.096
0.060,0.411,-0.726,0.531,-0.353,-0.357
0.504,0.856,-0.399,0.793,0.049,0.049
0.283,0.411,-0.694,0.475,-0.493,-0.242
