0.167,0.167,0.167,0.167,0.167,0.167
0.060,0.255,-0.771,0.464,-0.523,-0.509
0.270,0.509,-0.683,0.556,-0.161,-0.267
0.721,1.083,-0.235,0.972,0.066,0.099
-0.086,0.314,-0.799,0.285,-0.581,-0.551
0.917,1.312,-0.074,1.235,0.346,0.328
0.459,0.792,-0.259,0.943,0.047,-0.038
-0.254,-0.020,-1.196,0.288,-0.787,-0.734
0.942,1.182,-0.105,1.248,0.329,0.362
0.063,0.314,-0.918,0.455,-0.487,-0.478
1.024,1.365,-0.023,1.275,0.401,0.549
0.047,0.342,-1.015,0.332,-0.564,-0.584
0.427,0.830,-0.405,0.790,-0.133,-0.049
0.480,0.790,-0.441,0.939,0.032,-0.080
0.754,0.992,-0.216,1.238,0.275,0.245
-0.455,0.005,-1.268,0.088,-0.850,-0.793
-0.630,-0.324,-1.589,-0.217,-1.014,-1.004
0.190,0.488,-0.810,0.517,-0.246,-0.257
-0.830,-0.485,-1.656,-0.318,-1.214,-1.284
-0.167,0.165,-1.104,0.294,-0.693,-0.613
-0.651,-0.299,-1.455,-0.098,-1.052,-0.975
-0.200,0.020,-1.149,0.196,-0.775,-0.799
0.958,1.271,0.053,1.404,0.478,0.392
0.137,0.529,-0.770,0.562,-0.277,-0.437
-0.229,0.079,-1.261,0.029,-0.775,-0.735
-0.443,-0.125,-1.366,0.022,-0.792,-0.906
0.562,0.793,-0.545,0.964,0.046,0.043
-0.744,-0.318,-1.540,-0.269,-1.144,-1.168
0.212,0.642,-0.473,0.789,-0.098,-0.153
0.079,0.464,-0.852,0.537,-0.448,-0.217
0.209,0.420,-0.725,0.567,-0.254,-0.383
0.768,1.125,-0.254,1.180,0.259,0.314
-0.946,-0.496,-1.909,-0.408,-1.505,-1.304
0.895,1.210,-0.082,1.249,0.376,0.489
-0.156,0.371,-0.887,0.338,-0.534,-0.500
0.223,0.618,-0.716,0.687,-0.200,-0.147
-0.062,0.236,-1.105,0.328,-0.654,-0.651
-0.050,0.348,-1.005,0.499,-0.322,-0.536
0.528,0.971,-0.405,1.062,0.159,0.111
0.524,0.875,-0.374,0.830,0.016,0.158
0.448,0.872,-0.263,1.041,0.230,0.091
-0.181,0.086,-1.189,0.363,-0.574,-0.781
0.286,0.548,-0.815,0.599,-0.246,-0.179
0.592,1.059,-0.325,0.909,0.087,0.133
-0.045,0.443,-1.016,0.387,-0.452,-0.489
-0.095,0.325,-1.036,0.330,-0.573,-0.639
1.005,1.353,-0.086,1.321,0.540,0.427
0.058,0.285,-1.023,0.346,-0.459,-0.477
0.936,1.245,0.020,1.419,0.522,0.455
0.621,1.086,-0.312,1.106,0.118,0.165
0.183,0.434,-0.773,0.470,-0.472,-0.301
-0.065,0.282,-1.115,0.296,-0.562,-0.580
0.662,1.012,-0.357,0.989,0.156,0.132
-0.040,0.321,-1.048,0.509,-0.413,-0.364
0.900,1.117,-0.163,1.263,0.500,0.489
-0.581,-0.202,-1.371,-0.145,-1.041,-0.854
-0.012,0.166,-1.076,0.181,-0.562,-0.634
-0.150,0.183,-1.196,0.171,-0.565,-0.607
-0.034,0.341,-0.918,0.407,-0.486,-0.278
0.968,1.255,0.080,1.387,0.457,0.407
0.404,0.707,-0.685,0.785,-0.065,-0.104
0.466,0.812,-0.396,0.740,-0.023,0.051
0.377,0.610,-0.529,0.743,-0.066,-0.197
-0.299,0.168,-1.104,0.281,-0.680,-0.742
-0.318,-0.050,-1.235,0.069,-0.921,-0.943
-0.484,-0.242,-1.450,-0.164,-1.089,-1.127
0.665,0.955,-0.435,1.073,0.151,0.081
0.553,0.843,-0.509,0.892,0.058,-0.084
0.074,0.481,-0.854,0.557,-0.346,-0.250
0.213,0.437,-0.731,0.635,-0.354,-0.322
0.129,0.427,-0.942,0.550,-0.380,-0.381
-0.043,0.349,-0.844,0.528,-0.418,-0.556
0.635,1.086,-0.270,1.140,0.297,0.198
0.140,0.496,-0.733,0.578,-0.306,-0.261
0.809,1.052,-0.077,1.215,0.266,0.212
0.787,1.066,-0.086,1.174,0.368,0.322
-0.116,0.325,-1.067,0.392,-0.580,-0.603
0.359,0.613,-0.600,0.656,-0.133,-0.030
-0.580,-0.192,-1.432,-0.110,-0.998,-1.041
0.104,0.483,-0.759,0.653,-0.225,-0.165
0.763,0.990,-0.195,1.141,0.369,0.199
0.096,0.365,-0.777,0.548,-0.488,-0.301
-0.075,0.244,-1.102,0.263,-0.556,-0.557
-0.006,0.415,-0.957,0.387,-0.457,-0.436
0.217,0.551,-0.635,0.711,-0.186,-0.116
0.343,0.625,-0.665,0.671,-0.085,-0.052
0.168,0.371,-0.942,0.538,-0.381,-0.188
0.005,0.415,-0.764,0.558,-0.374,-0.157
-0.684,-0.319,-1.549,-0.194,-1.044,-1.240
0.279,0.629,-0.477,0.774,-0.097,-0.177
0.023,0.347,-0.899,0.556,-0.185,-0.492
0.227,0.533,-0.827,0.588,-0.209,-0.395
-0.380,-0.020,-1.308,-0.036,-0.798,-0.841
0.719,0.986,-0.241,1.075,0.297,0.181
0.202,0.533,-0.795,0.631,-0.275,-0.320
0.732,1.072,-0.275,1.080,0.189,0.227
0.353,0.539,-0.553,0.627,-0.250,-0.287
0.413,0.728,-0.472,0.962,-0.044,-0.110
0.236,0.541,-0.558,0.691,-0.140,-0.220
0.819,1.177,-0.129,1.084,0.308,0.254
-0.244,0.032,-1.311,0.107,-0.863,-0.645
0.062,0.472,-0.818,0.617,-0.435,-0.337
0.352,0.605,-0.660,0.699,-0.082,-0.198
0.217,0.498,-0.750,0.529,-0.348,-0.404
0.089,0.546,-0.624,0.568,-0.271,-0.211
0.017,0.311,-1.076,0.280,-0.499,-0.601
0.201,0.515,-0.622,0.642,-0.411,-0.286
0.395,0.650,-0.500,0.790,-0.131,-0.116
0.085,0.389,-0.959,0.519,-0.616,-0.427
-0.559,-0.109,-1.413,0.010,-0.847,-0.862
0.584,0.892,-0.494,0.967,0.104,0.076
0.164,0.408,-0.872,0.405,-0.417,-0.353
0.656,0.999,-0.425,0.958,0.243,0.073
0.627,1.107,-0.422,0.998,0.183,0.181
0.167,0.634,-0.678,0.728,-0.239,-0.231
0.646,1.055,-0.089,1.134,0.318,0.263
0.060,0.446,-0.712,0.505,-0.314,-0.394
-0.273,0.046,-1.227,0.124,-0.685,-0.663
0.306,0.647,-0.603,0.662,-0.166,-0.194
0.359,0.687,-0.537,0.961,-0.084,-0.189
0.389,0.663,-0.639,0.814,-0.065,-0.150
-0.168,0.125,-0.972,0.351,-0.632,-0.731
0.460,0.730,-0.409,0.927,-0.073,0.042
0.230,0.419,-0.909,0.499,-0.388,-0.367
0.469,0.773,-0.506,0.876,-0.023,0.034
0.167,0.424,-0.810,0.600,-0.342,-0.341
1.167,1.454,0.141,1.523,0.710,0.650
0.619,0.924,-0.463,0.854,0.045,0.064
-0.269,0.054,-1.279,0.140,-0.842,-0.790
1.439,1.702,0.452,1.915,1.006,0.976
0.131,0.259,-0.973,0.460,-0.272,-0.368
0.026,0.299,-1.021,0.270,-0.679,-0.578
0.316,0.642,-0.670,0.806,-0.154,-0.177
-0.202,0.225,-0.899,0.277,-0.618,-0.521
0.245,0.547,-0.726,0.631,-0.340,-0.266
0.089,0.321,-0.765,0.506,-0.355,-0.508
-0.032,0.269,-0.949,0.309,-0.482,-0.524
0.223,0.448,-0.725,0.541,-0.292,-0.326
-0.696,-0.407,-1.420,-0.198,-1.215,-1.161
0.717,1.072,-0.304,1.149,0.230,0.099
-0.580,-0.420,-1.628,-0.263,-1.124,-1.260
-0.422,-0.037,-1.261,-0.004,-0.878,-0.887
0.118,0.382,-0.732,0.568,-0.368,-0.482
0.733,1.037,-0.204,1.043,0.234,0.132
-0.083,0.392,-0.955,0.327,-0.744,-0.390
1.263,1.665,0.451,1.661,0.745,0.927
-0.249,0.218,-1.066,0.230,-0.528,-0.612
0.489,0.872,-0.606,0.931,0.117,0.020
-0.036,0.360,-1.009,0.486,-0.459,-0.405
0.150,0.410,-0.847,0.477,-0.434,-0.485
1.098,1.429,0.117,1.526,0.565,0.491
-0.098,0.299,-0.948,0.378,-0.602,-0.529
-0.347,-0.002,-1.258,0.141,-0.725,-0.789
0.071,0.498,-0.808,0.723,-0.205,-0.278
0.027,0.360,-0.966,0.439,-0.401,-0.480
-0.194,0.132,-1.021,0.183,-0.715,-0.716
0.809,1.110,-0.230,1.243,0.280,0.266
0.989,1.271,-0.031,1.312,0.418,0.412
0.432,0.688,-0.488,0.811,-0.099,-0.090
0.882,1.296,-0.023,1.233,0.205,0.432
-0.120,0.162,-1.155,0.275,-0.604,-0.784
0.082,0.275,-0.914,0.444,-0.385,-0.434
-0.410,-0.070,-1.240,0.093,-0.759,-0.865
-0.141,0.086,-0.799,0.393,-0.344,-0.567
-0.095,0.413,-1.047,0.426,-0.475,-0.551
-0.656,-0.193,-1.588,-0.188,-1.032,-1.115
0.672,1.067,-0.136,1.143,0.171,0.096
0.060,0.411,-0.726,0.531,-0.353,-0.357
0.504,0.856,-0.399,0.793,0.049,0.049
0.283,0.411,-0.694,0.475,-0.493,-0.242
-0.330,-0.035,-1.279,0.048,-0.800,-0.930
-0.318,-0.202,-1.234,0.089,-0.696,-0.861
0.290,0.715,-0.660,0.704,-0.045,-0.168
0.911,1.251,0.067,1.403,0.642,0.527
0.455,0.778,-0.522,0.792,-0.169,-0.139
-0.313,0.119,-1.190,0.113,-0.726,-0.794
0.563,0.836,-0.507,0.787,0.023,0.077
0.430,0.690,-0.460,0.805,-0.089,-0.117
0.342,0.689,-0.604,0.698,-0.105,-0.161
0.465,0.765,-0.664,0.890,-0.011,-0.056
0.350,0.620,-0.464,0.909,-0.039,-0.081
0.282,0.627,-0.801,0.601,-0.131,-0.230
0.720,1.035,-0.212,1.229,0.387,0.306
0.392,0.708,-0.655,0.859,-0.049,-0.126
0.545,0.847,-0.320,1.069,0.269,0.172
0.875,1.115,-0.085,1.278,0.368,0.443
-0.710,-0.330,-1.757,-0.395,-1.273,-1.281
-0.298,0.124,-0.914,0.298,-0.630,-0.755
-0.162,0.072,-1.097,0.143,-0.684,-0.763
-0.513,-0.079,-1.196,0.139,-0.775,-0.923
0.380,0.537,-0.666,0.746,-0.228,-0.263
1.118,1.315,0.051,1.469,0.537,0.498
-0.545,-0.137,-1.473,-0.122,-1.131,-1.077
-0.357,-0.031,-1.168,0.270,-0.835,-0.704
0.623,0.955,-0.242,1.038,0.100,0.071
0.073,0.546,-0.803,0.420,-0.343,-0.250
0.949,1.357,-0.166,1.202,0.449,0.466
0.337,0.637,-0.489,0.764,-0.087,-0.143
-0.326,-0.029,-1.218,0.077,-0.747,-0.822
0.289,0.534,-0.451,0.727,-0.262,-0.320
-0.658,-0.247,-1.558,-0.270,-1.217,-1.193
0.618,0.891,-0.250,0.974,0.150,-0.028
0.205,0.545,-0.642,0.730,-0.262,-0.212
0.487,0.773,-0.494,0.868,-0.109,-0.061
0.394,0.752,-0.534,0.854,-0.083,-0.106
0.192,0.612,-0.578,0.694,-0.173,-0.246
-0.424,-0.135,-1.281,-0.035,-0.935,-0.997
0.120,0.559,-1.013,0.468,-0.349,-0.312
0.405,0.731,-0.600,0.779,0.012,-0.145
0.435,0.845,-0.434,0.864,0.032,-0.008
0.895,1.147,0.109,1.292,0.405,0.299
-0.290,0.115,-1.277,0.217,-0.698,-0.812
0.257,0.417,-0.985,0.390,-0.408,-0.584
0.435,0.755,-0.717,0.812,-0.141,-0.115
-0.172,0.129,-1.315,0.199,-0.636,-0.678
0.391,0.843,-0.446,0.787,0.009,0.079
0.766,1.351,-0.107,1.304,0.345,0.467
-0.040,0.341,-0.933,0.399,-0.487,-0.567
0.258,0.538,-0.582,0.779,-0.139,-0.240
0.361,0.681,-0.594,0.801,-0.154,-0.166
0.166,0.559,-0.778,0.697,-0.141,-0.307
0.467,0.855,-0.504,0.725,-0.079,-0.092
0.421,0.742,-0.438,0.776,-0.155,-0.060
-0.738,-0.330,-1.419,-0.231,-1.223,-1.156
0.050,0.328,-0.952,0.362,-0.428,-0.526
0.085,0.250,-0.761,0.434,-0.385,-0.499
0.182,0.559,-0.929,0.593,-0.293,-0.285
0.824,1.171,-0.252,1.155,0.343,0.179
-0.090,0.261,-1.159,0.315,-0.647,-0.591
0.374,0.711,-0.601,0.890,-0.018,-0.148
0.260,0.582,-0.638,0.792,-0.139,-0.204
0.845,1.060,-0.096,1.189,0.204,0.400
-0.303,-0.023,-1.236,-0.033,-0.756,-0.860
-0.313,0.032,-1.227,0.009,-0.817,-0.721
0.044,0.408,-0.748,0.536,-0.340,-0.402
-0.527,-0.167,-1.301,-0.069,-0.872,-0.920
1.279,1.523,0.417,1.712,0.638,0.700
-0.309,-0.012,-1.185,0.153,-0.866,-0.841
0.095,0.416,-0.899,0.581,-0.266,-0.489
0.355,0.637,-0.613,0.744,-0.143,-0.168
0.818,1.109,-0.175,1.197,0.240,0.250
0.235,0.556,-0.780,0.514,-0.458,-0.395
-0.085,0.167,-1.079,0.232,-0.642,-0.743
0.946,1.188,0.106,1.429,0.359,0.491
-0.384,-0.046,-1.167,0.043,-0.858,-0.961
-0.118,0.200,-1.393,0.161,-0.713,-0.791
-0.143,0.261,-0.910,0.492,-0.423,-0.549
0.079,0.411,-0.781,0.534,-0.326,-0.445
0.378,0.746,-0.597,0.783,0.020,0.030
0.499,0.827,-0.364,0.965,-0.015,0.061
-0.534,-0.192,-1.495,-0.007,-0.993,-1.057
0.045,0.485,-0.817,0.543,-0.386,-0.462
0.864,1.126,-0.036,1.252,0.367,0.193
-0.360,-0.102,-1.147,0.185,-0.864,-0.951
0.115,0.429,-0.781,0.570,-0.318,-0.412
0.118,0.422,-0.899,0.454,-0.278,-0.513
0.319,0.658,-0.617,0.712,-0.183,-0.165
0.494,0.767,-0.440,0.881,-0.100,-0.190
0.606,0.842,-0.319,1.025,0.172,0.055
0.704,0.911,-0.271,1.025,0.115,0.162
0.485,0.633,-0.378,0.778,-0.198,-0.032
0.675,0.941,-0.275,1.109,0.062,0.267
0.441,0.629,-0.554,0.715,-0.275,-0.190
0.075,0.438,-0.904,0.476,-0.356,-0.558
0.193,0.635,-0.747,0.566,-0.170,-0.200
-0.318,0.034,-1.101,0.028,-0.933,-0.689
0.647,0.989,-0.230,1.047,0.143,0.174
-0.430,-0.110,-1.394,0.034,-0.909,-0.880
0.193,0.575,-0.805,0.717,-0.282,-0.150
0.415,0.740,-0.543,0.787,-0.160,-0.114
0.002,0.392,-0.825,0.388,-0.452,-0.351
1.222,1.619,0.238,1.630,0.843,0.828
-0.353,-0.003,-1.217,0.194,-0.869,-0.874
0.592,0.952,-0.148,1.152,0.209,0.059
-0.356,0.052,-1.144,0.042,-0.703,-0.894
-0.203,0.156,-1.164,0.186,-0.701,-0.681
0.448,0.771,-0.464,0.923,0.050,0.034
-0.041,0.341,-0.803,0.376,-0.366,-0.481
0.102,0.570,-0.816,0.493,-0.429,-0.268
0.460,0.979,-0.565,0.911,0.066,0.136
0.112,0.465,-0.923,0.525,-0.442,-0.484
-0.117,0.362,-1.010,0.335,-0.428,-0.625
0.165,0.349,-0.752,0.434,-0.504,-0.455
0.301,0.659,-0.581,0.680,-0.149,-0.198
-0.478,-0.223,-1.326,0.037,-0.871,-0.996
0.472,0.816,-0.431,1.064,-0.035,-0.061
-0.161,0.114,-0.989,0.281,-0.753,-0.612
-0.358,-0.025,-1.118,0.019,-0.799,-0.861
0.196,0.555,-0.615,0.616,-0.248,-0.339
0.621,0.878,-0.553,0.876,0.111,0.061
0.835,1.307,-0.127,1.119,0.261,0.353
0.244,0.459,-0.853,0.673,-0.214,-0.306
0.353,0.666,-0.609,0.770,-0.050,-0.157
0.093,0.457,-0.787,0.550,-0.348,-0.297
-0.020,0.258,-1.051,0.466,-0.470,-0.586
0.884,1.204,-0.091,1.320,0.343,0.310
-0.237,0.132,-1.253,0.282,-0.690,-0.819
0.206,0.529,-0.558,0.562,-0.118,-0.248
0.185,0.539,-0.756,0.644,-0.316,-0.334
-0.200,0.137,-1.038,0.201,-0.738,-0.619
0.810,1.030,-0.203,1.374,0.530,0.365
0.189,0.402,-0.821,0.534,-0.327,-0.301
0.391,0.804,-0.419,0.839,-0.176,-0.063
-0.064,0.338,-0.893,0.413,-0.444,-0.473
-0.125,0.235,-1.016,0.172,-0.579,-0.672
0.188,0.400,-0.928,0.421,-0.282,-0.423
-0.513,-0.058,-1.400,-0.066,-0.924,-0.906
0.331,0.579,-0.726,0.687,-0.355,-0.333
0.829,1.103,-0.298,1.138,0.302,0.212
1.089,1.481,0.160,1.477,0.658,0.564
0.300,0.539,-0.798,0.589,-0.173,-0.229
0.829,1.199,-0.093,1.321,0.405,0.363
-0.278,0.001,-1.213,0.209,-0.507,-0.633
0.499,0.982,-0.385,0.984,0.188,0.179
0.586,0.848,-0.202,0.957,-0.004,0.177
0.140,0.557,-0.826,0.456,-0.451,-0.377
0.029,0.451,-0.760,0.578,-0.183,-0.345
0.622,0.792,-0.273,1.080,0.097,-0.091
-0.174,0.163,-1.023,0.302,-0.658,-0.599
0.196,0.460,-0.663,0.606,-0.362,-0.365
1.313,1.732,0.396,1.846,0.922,0.983
-0.293,0.238,-1.035,0.265,-0.669,-0.640
0.579,0.940,-0.204,1.019,0.065,0.032
0.061,0.364,-0.792,0.494,-0.521,-0.461
1.192,1.530,0.139,1.609,0.581,0.674
0.710,1.141,-0.232,1.350,0.391,0.238
0.617,0.882,-0.355,0.937,0.154,-0.025
0.245,0.621,-0.765,0.658,-0.270,-0.301
0.200,0.403,-0.920,0.559,-0.302,-0.525
-0.650,-0.248,-1.578,-0.224,-1.087,-1.138
0.629,1.022,-0.218,1.044,0.125,0.097
0.002,0.261,-0.918,0.306,-0.642,-0.581
-0.449,-0.076,-1.185,-0.046,-0.912,-1.024
0.518,0.810,-0.391,0.940,0.079,-0.040
0.186,0.470,-0.864,0.505,-0.408,-0.304
-0.337,0.113,-1.121,0.167,-0.815,-0.784
-0.179,0.186,-1.020,0.283,-0.588,-0.612
0.884,1.122,-0.002,1.251,0.339,0.384
-0.286,0.067,-1.067,0.101,-0.807,-0.671
0.484,0.901,-0.409,0.971,-0.005,0.014
-0.593,-0.269,-1.412,-0.152,-1.067,-1.129
0.546,0.939,-0.294,1.147,0.095,0.076
0.034,0.337,-0.668,0.486,-0.459,-0.527
-0.112,0.186,-1.118,0.232,-0.663,-0.581
0.540,0.884,-0.169,0.840,0.064,0.203
-0.350,-0.130,-1.287,0.045,-0.738,-0.891
-0.155,0.248,-0.901,0.398,-0.655,-0.429
-0.105,0.136,-1.219,0.169,-0.753,-0.627
0.194,0.374,-0.662,0.543,-0.377,-0.242
0.596,1.099,-0.326,1.097,0.202,0.165
0.485,0.887,-0.532,0.908,0.043,0.028
0.546,0.778,-0.509,0.889,0.024,-0.139
0.696,0.934,-0.419,0.894,0.059,0.204
0.119,0.464,-0.859,0.479,-0.420,-0.503
0.511,0.684,-0.404,0.917,0.073,-0.059
0.670,0.858,-0.215,1.083,0.073,0.082
0.835,1.146,-0.152,1.241,0.461,0.330
-0.070,0.258,-1.054,0.357,-0.515,-0.408
0.819,1.087,-0.205,1.197,0.292,0.251
-0.214,0.229,-1.058,0.362,-0.673,-0.579
-0.512,-0.235,-1.483,-0.032,-1.007,-1.079
0.541,0.752,-0.598,0.858,-0.030,0.019
0.279,0.616,-0.779,0.717,-0.171,-0.081
-0.171,0.203,-1.008,0.252,-0.734,-0.582
0.597,1.023,-0.273,1.104,0.114,0.119
-0.436,-0.095,-1.468,-0.063,-0.861,-0.994
0.160,0.564,-0.639,0.549,-0.379,-0.245
-0.438,-0.208,-1.539,-0.162,-1.113,-1.200
0.392,0.655,-0.625,0.579,-0.231,-0.297
0.226,0.553,-0.721,0.661,-0.189,-0.340
-0.504,-0.279,-1.455,-0.117,-0.964,-1.021
0.034,0.348,-0.702,0.568,-0.370,-0.428
0.344,0.502,-0.625,0.703,-0.224,-0.291
-0.353,-0.076,-1.417,-0.095,-0.967,-0.912
-0.125,0.076,-1.140,0.162,-0.594,-0.668
0.286,0.537,-0.657,0.783,-0.007,-0.198
0.692,1.064,-0.258,1.080,0.169,0.249
0.498,0.893,-0.219,1.094,0.070,0.061
0.440,0.784,-0.334,0.836,-0.024,-0.038
0.210,0.504,-0.669,0.776,-0.258,-0.370
0.347,0.670,-0.738,0.881,-0.106,-0.103
0.270,0.508,-0.769,0.587,-0.469,-0.148
-0.144,0.230,-1.071,0.323,-0.554,-0.493
0.336,0.767,-0.721,0.599,-0.288,-0.070
0.511,0.868,-0.506,0.860,-0.006,0.023
1.029,1.410,0.006,1.452,0.684,0.442
0.278,0.653,-0.740,0.734,-0.207,-0.272
0.248,0.556,-0.723,0.703,-0.100,-0.225
0.454,0.848,-0.413,0.835,0.010,0.029
-0.266,0.065,-1.064,0.228,-0.607,-0.717
0.773,0.986,-0.292,1.112,0.264,0.065
0.393,0.835,-0.417,0.912,0.020,-0.188
0.220,0.640,-0.629,0.681,-0.200,-0.246
-0.013,0.256,-1.029,0.331,-0.449,-0.562
0.418,0.821,-0.526,0.855,-0.125,0.021
0.474,0.828,-0.564,0.836,0.071,0.039
0.461,0.729,-0.396,0.792,-0.069,0.017
-0.227,0.112,-1.074,0.099,-0.712,-0.927
-0.110,0.198,-1.044,0.296,-0.527,-0.647
-0.680,-0.337,-1.564,-0.217,-1.183,-1.118
0.596,0.930,-0.469,0.937,0.122,0.125
0.620,0.904,-0.169,1.062,0.090,0.198
-0.026,0.424,-0.855,0.626,-0.091,-0.320
-0.158,0.177,-1.033,0.301,-0.697,-0.683
-0.083,0.259,-1.058,0.353,-0.563,-0.575
-0.100,0.182,-0.898,0.416,-0.541,-0.627
0.199,0.572,-0.685,0.592,-0.172,-0.220
0.082,0.340,-0.857,0.400,-0.451,-0.524
-0.039,0.327,-0.937,0.458,-0.501,-0.466
0.531,0.860,-0.483,1.028,0.240,0.086
0.969,1.189,-0.190,1.227,0.383,0.366
0.932,1.181,0.039,1.296,0.482,0.424
0.177,0.453,-0.634,0.603,-0.425,-0.250
0.228,0.462,-0.709,0.650,-0.366,-0.412
0.204,0.489,-0.800,0.552,-0.336,-0.402
0.154,0.567,-0.760,0.416,-0.556,-0.354
0.216,0.425,-0.648,0.631,-0.313,-0.237
0.176,0.383,-0.979,0.482,-0.402,-0.441
0.075,0.390,-0.799,0.451,-0.428,-0.608
1.023,1.422,0.008,1.380,0.496,0.633
-0.009,0.454,-0.907,0.517,-0.380,-0.411
-0.109,0.235,-1.180,0.313,-0.760,-0.633
0.275,0.614,-0.702,0.742,0.022,-0.302
0.221,0.638,-0.763,0.650,-0.338,-0.227
0.086,0.292,-0.897,0.484,-0.445,-0.369
0.398,0.682,-0.481,0.759,-0.152,-0.043
0.745,1.062,-0.222,1.291,0.500,0.205
0.006,0.475,-0.841,0.502,-0.383,-0.465
0.580,0.839,-0.279,0.969,0.011,0.030
1.245,1.549,0.431,1.652,0.740,0.853
-0.402,-0.083,-1.456,-0.042,-0.845,-0.902
-0.492,-0.143,-1.328,-0.068,-0.999,-0.939
-0.051,0.283,-1.081,0.324,-0.627,-0.628
-0.596,-0.190,-1.728,-0.403,-1.254,-1.055
0.462,0.755,-0.612,0.814,-0.013,-0.048
0.233,0.576,-0.810,0.616,-0.229,-0.262
0.047,0.377,-0.972,0.268,-0.585,-0.615
0.691,0.993,-0.237,1.139,0.215,0.204
0.867,1.266,-0.115,1.316,0.413,0.485
-0.586,-0.318,-1.449,-0.202,-1.185,-1.102
-0.415,-0.084,-1.194,-0.059,-0.923,-0.876
0.278,0.536,-0.767,0.652,-0.118,-0.221
0.658,0.971,-0.313,1.032,0.158,0.134
-0.115,0.254,-0.884,0.341,-0.502,-0.554
0.494,0.784,-0.558,0.852,-0.048,-0.087
0.771,1.128,-0.242,1.076,0.331,0.274
0.128,0.433,-0.728,0.488,-0.449,-0.365
0.084,0.439,-0.889,0.549,-0.287,-0.460
1.126,1.381,0.218,1.437,0.559,0.492
0.005,0.245,-0.896,0.394,-0.491,-0.754
0.082,0.302,-0.805,0.453,-0.389,-0.485
-0.076,0.359,-1.069,0.305,-0.431,-0.537
0.194,0.494,-0.733,0.651,-0.085,-0.313
0.219,0.531,-0.712,0.543,-0.331,-0.128
0.713,0.986,-0.238,1.151,0.242,0.205
0.341,0.640,-0.690,0.716,-0.172,-0.251
0.414,0.868,-0.547,0.889,-0.047,0.057
0.070,0.274,-0.881,0.545,-0.413,-0.398
0.492,0.666,-0.539,0.914,-0.128,-0.095
0.327,0.662,-0.706,0.597,-0.254,-0.183
0.828,1.122,-0.063,1.172,0.464,0.482
0.199,0.463,-1.009,0.495,-0.352,-0.436
0.322,0.686,-0.664,0.774,-0.132,-0.125
0.904,1.221,-0.057,1.289,0.318,0.446
0.432,0.754,-0.467,0.807,-0.071,-0.061
-0.201,0.055,-1.151,0.129,-0.723,-0.664
0.173,0.443,-0.858,0.524,-0.408,-0.318
0.216,0.530,-0.875,0.668,-0.126,-0.341
-0.114,0.285,-0.918,0.386,-0.476,-0.547
-0.210,0.164,-1.037,0.291,-0.682,-0.479
0.621,0.892,-0.448,1.022,0.061,0.099
-0.577,-0.168,-1.378,-0.014,-0.882,-1.101
0.164,0.438,-0.682,0.638,-0.367,-0.283
0.321,0.677,-0.731,0.646,-0.287,-0.209
0.497,0.758,-0.490,0.711,-0.141,-0.047
-0.321,0.041,-1.164,0.119,-0.616,-0.797
0.070,0.407,-0.823,0.371,-0.347,-0.289
0.269,0.678,-0.621,0.597,-0.279,-0.335
-0.195,0.132,-1.236,0.184,-0.605,-0.804
0.266,0.542,-0.752,0.635,-0.225,-0.204
0.697,0.987,-0.327,1.090,0.209,0.147
0.113,0.367,-0.818,0.429,-0.303,-0.392
-0.087,0.154,-1.067,0.322,-0.552,-0.591
0.516,0.819,-0.363,0.891,0.105,0.161
0.319,0.663,-0.712,0.606,-0.251,-0.292
0.578,0.823,-0.403,0.801,-0.036,-0.062
0.192,0.405,-0.617,0.647,-0.267,-0.271
1.000,1.271,-0.111,1.306,0.459,0.418
0.325,0.736,-0.884,0.647,-0.273,-0.326
0.104,0.474,-0.925,0.487,-0.404,-0.520
0.211,0.613,-0.774,0.742,-0.260,-0.267
-0.063,0.197,-1.059,0.243,-0.685,-0.652
0.576,0.806,-0.507,0.919,0.109,-0.049
0.295,0.593,-0.711,0.660,-0.343,-0.188
-0.754,-0.392,-1.647,-0.188,-1.137,-1.267
0.726,0.870,-0.258,1.145,0.128,-0.052
0.354,0.608,-0.635,0.649,-0.246,-0.276
0.460,0.856,-0.256,1.113,0.116,0.097
-0.378,-0.005,-1.322,-0.019,-0.769,-0.911
0.493,0.867,-0.399,0.873,0.046,-0.082
0.368,0.717,-0.575,0.873,-0.131,-0.184
0.013,0.408,-0.950,0.276,-0.491,-0.523
-0.390,0.005,-1.356,0.079,-0.802,-0.791
0.630,0.979,-0.305,1.074,0.122,0.060
0.404,0.734,-0.465,0.731,-0.185,-0.095
0.071,0.407,-0.846,0.429,-0.395,-0.424
0.697,1.053,-0.194,1.100,0.135,0.151
0.220,0.561,-0.705,0.611,-0.241,-0.296
0.772,1.161,-0.259,1.074,0.369,0.134
0.336,0.680,-0.675,0.757,-0.189,-0.171
0.660,0.956,-0.332,1.052,0.173,0.101
0.024,0.333,-1.067,0.301,-0.610,-0.520
0.003,0.285,-0.870,0.321,-0.361,-0.633
0.779,1.118,-0.218,1.077,0.207,0.114
-0.308,-0.090,-1.260,0.049,-0.937,-0.900
-0.507,-0.211,-1.498,-0.127,-1.108,-1.051
0.847,1.165,-0.062,1.282,0.370,0.473
0.476,0.789,-0.520,0.994,0.007,0.007
-0.558,-0.120,-1.254,-0.043,-1.112,-0.929
0.299,0.676,-0.618,0.767,-0.209,-0.180
-0.205,0.147,-1.103,0.269,-0.629,-0.691
0.202,0.392,-0.696,0.620,-0.332,-0.429
0.391,0.628,-0.435,0.951,-0.062,0.016
0.291,0.611,-0.543,0.730,-0.098,-0.204
-0.287,0.072,-1.223,0.145,-0.692,-0.781
0.452,0.762,-0.483,0.702,-0.154,-0.025
0.632,0.932,-0.393,1.023,0.135,0.185
0.168,0.592,-0.561,0.695,-0.235,-0.172
0.632,0.915,-0.327,1.114,0.222,0.155
0.303,0.540,-0.742,0.690,-0.123,-0.291
0.682,0.996,-0.241,1.045,0.207,0.207
0.294,0.731,-0.698,0.758,-0.102,-0.122
0.773,0.999,-0.191,1.183,0.129,0.253
0.890,1.193,-0.111,1.253,0.396,0.473
0.229,0.608,-0.564,0.887,-0.088,-0.135
-0.478,-0.047,-1.347,0.061,-0.988,-0.939
0.117,0.408,-0.890,0.596,-0.378,-0.336
0.182,0.389,-0.834,0.571,-0.359,-0.411
0.537,0.870,-0.525,0.904,0.001,0.036
0.581,0.798,-0.522,0.924,-0.049,0.020
0.166,0.406,-0.843,0.519,-0.444,-0.471
0.191,0.514,-0.613,0.561,-0.222,-0.111
0.228,0.630,-0.503,0.708,-0.215,-0.098
0.971,1.217,0.122,1.352,0.473,0.453
0.069,0.411,-0.990,0.482,-0.439,-0.438
0.936,1.160,-0.054,1.277,0.301,0.350
0.498,0.781,-0.521,0.939,-0.102,0.146
1.184,1.626,0.128,1.628,0.877,0.512
0.372,0.729,-0.467,0.722,-0.227,-0.105
-0.140,0.273,-1.162,0.320,-0.705,-0.584
0.214,0.378,-0.810,0.509,-0.428,-0.292
0.058,0.349,-0.939,0.371,-0.486,-0.484
0.266,0.687,-0.708,0.747,-0.136,-0.120
-0.136,0.169,-0.954,0.277,-0.452,-0.606
-0.499,-0.268,-1.609,-0.121,-1.080,-1.040
-0.701,-0.455,-1.620,-0.230,-1.204,-1.216
0.147,0.438,-0.793,0.615,-0.406,-0.408
0.026,0.358,-0.955,0.467,-0.402,-0.522
0.466,0.858,-0.494,0.889,0.016,-0.035
-0.405,-0.068,-1.232,0.060,-0.815,-0.843
-0.183,0.043,-1.103,0.167,-0.751,-0.714
0.713,0.964,-0.500,0.979,0.147,0.046
-0.476,-0.065,-1.299,-0.010,-0.888,-0.865
0.043,0.283,-0.987,0.367,-0.616,-0.391
0.381,0.633,-0.507,0.615,-0.203,-0.307
0.198,0.378,-0.829,0.452,-0.383,-0.288
0.814,0.986,-0.209,1.329,0.376,0.173
0.144,0.610,-0.637,0.714,-0.259,-0.113
1.104,1.543,0.226,1.642,0.687,0.714
0.571,0.989,-0.381,0.923,0.124,0.066
0.743,1.024,-0.323,1.069,0.223,0.212
0.030,0.444,-0.807,0.519,-0.346,-0.365
0.207,0.564,-0.791,0.585,-0.291,-0.234
0.353,0.557,-0.625,0.754,-0.179,-0.101
-0.698,-0.349,-1.668,-0.214,-1.125,-1.263
0.274,0.658,-0.682,0.707,-0.293,-0.137
-0.389,-0.021,-1.335,0.119,-0.846,-0.922
-0.113,0.209,-1.051,0.258,-0.484,-0.619
-0.482,-0.230,-1.403,-0.088,-1.048,-0.995
-0.037,0.185,-0.969,0.411,-0.658,-0.541
0.241,0.615,-0.643,0.679,-0.179,-0.116
-0.156,0.116,-1.295,0.111,-0.680,-0.935
0.096,0.465,-0.747,0.468,-0.243,-0.341
0.416,0.666,-0.528,0.842,-0.067,-0.085
-0.183,0.106,-0.977,0.150,-0.776,-0.657
0.596,0.885,-0.291,0.807,-0.095,0.041
0.564,0.833,-0.304,0.912,0.064,0.001
0.896,1.240,-0.053,1.245,0.227,0.429
0.244,0.703,-0.578,0.720,-0.157,-0.060
0.150,0.359,-0.933,0.428,-0.431,-0.513
0.406,0.714,-0.514,0.820,-0.062,-0.037
0.238,0.607,-0.582,0.703,-0.243,-0.260
0.479,0.813,-0.411,0.965,0.131,0.111
-0.040,0.355,-0.957,0.408,-0.367,-0.527
-0.821,-0.425,-1.740,-0.285,-1.198,-1.286
0.747,1.116,-0.162,1.200,0.156,0.489
0.357,0.717,-0.584,0.824,-0.189,-0.155
0.632,0.933,-0.287,1.077,0.166,0.206
0.556,0.871,-0.508,0.911,0.072,-0.133
0.788,1.130,-0.052,1.196,0.448,0.173
0.173,0.505,-0.948,0.585,-0.379,-0.341
-0.003,0.402,-0.834,0.413,-0.585,-0.334
-0.287,0.039,-1.184,0.305,-0.593,-0.706
0.327,0.678,-0.725,0.695,-0.249,0.006
0.052,0.291,-0.875,0.309,-0.513,-0.396
0.058,0.435,-0.775,0.417,-0.472,-0.366
0.487,0.756,-0.399,0.820,-0.069,0.056
0.311,0.664,-0.631,0.765,-0.222,-0.161
0.264,0.616,-0.569,0.719,-0.303,-0.348
0.217,0.600,-0.534,0.787,-0.243,-0.203
0.185,0.415,-1.088,0.436,-0.534,-0.390
0.101,0.509,-0.948,0.516,-0.434,-0.525
0.110,0.449,-0.835,0.485,-0.366,-0.355
-0.002,0.338,-1.061,0.408,-0.494,-0.609
-0.368,-0.219,-1.348,0.043,-0.786,-0.837
1.073,1.407,0.027,1.489,0.639,0.518
-0.381,-0.086,-1.207,-0.031,-0.914,-0.890
0.496,0.793,-0.365,1.053,-0.029,-0.133
0.133,0.461,-0.829,0.482,-0.391,-0.294
0.078,0.456,-0.697,0.609,-0.447,-0.465
-0.274,0.123,-1.178,0.100,-0.764,-0.703
0.027,0.298,-0.757,0.373,-0.530,-0.501
0.533,0.936,-0.235,1.021,0.081,-0.006
-0.047,0.372,-0.707,0.504,-0.529,-0.396
0.792,1.120,-0.136,1.164,0.236,0.424
-0.334,0.116,-1.136,0.113,-0.798,-0.697
0.013,0.361,-0.944,0.569,-0.491,-0.421
-0.039,0.297,-0.776,0.346,-0.653,-0.574
0.554,0.899,-0.202,0.968,-0.016,0.168
-0.408,0.013,-1.294,0.034,-0.914,-0.869
1.234,1.480,0.256,1.670,0.726,0.687
0.417,0.775,-0.528,0.730,-0.160,0.019
-0.214,0.076,-1.088,0.264,-0.669,-0.603
0.122,0.550,-0.852,0.467,-0.309,-0.311
-0.296,0.196,-1.091,0.086,-0.873,-0.803
0.655,1.056,-0.350,1.004,0.133,0.136
-0.213,0.106,-1.255,0.206,-0.754,-0.744
0.824,1.353,-0.085,1.246,0.375,0.359
0.319,0.619,-0.429,0.857,-0.250,-0.104
0.658,1.033,-0.231,1.179,0.247,0.229
0.073,0.285,-1.085,0.298,-0.556,-0.508
-0.068,0.312,-0.941,0.367,-0.516,-0.564
0.412,0.707,-0.472,0.904,0.029,0.008
0.430,0.687,-0.399,0.916,-0.015,-0.168
-0.150,0.274,-1.133,0.167,-0.681,-0.653
1.260,1.535,0.279,1.660,0.851,0.657
0.856,1.272,-0.080,1.283,0.493,0.567
0.464,0.826,-0.500,0.795,0.041,-0.043
0.011,0.384,-0.862,0.531,-0.457,-0.349
0.714,1.185,-0.110,1.092,0.180,0.311
0.171,0.359,-0.744,0.574,-0.319,-0.432
-0.050,0.353,-0.864,0.403,-0.643,-0.652
0.219,0.559,-0.693,0.804,0.007,-0.078
0.130,0.399,-0.925,0.485,-0.383,-0.487
0.660,0.987,-0.212,1.037,0.091,0.238
-0.050,0.220,-0.924,0.272,-0.557,-0.638
-0.000,0.175,-1.023,0.420,-0.409,-0.532
0.770,1.162,-0.261,1.231,0.146,0.343
-0.039,0.195,-1.068,0.377,-0.597,-0.562
0.417,0.716,-0.631,0.696,-0.054,-0.259
0.391,0.727,-0.406,0.870,-0.115,-0.212
0.451,0.888,-0.523,0.940,0.008,-0.060
0.530,0.834,-0.490,0.979,0.136,0.063
-0.082,0.306,-0.894,0.383,-0.476,-0.506
0.512,0.893,-0.376,0.955,0.084,0.035
0.267,0.574,-0.576,0.743,-0.378,-0.271
0.213,0.548,-0.626,0.635,-0.155,-0.309
0.095,0.434,-0.943,0.515,-0.301,-0.420
-0.062,0.251,-0.971,0.243,-0.700,-0.606
0.162,0.620,-0.739,0.558,-0.383,-0.355
0.033,0.336,-0.831,0.399,-0.367,-0.449
-0.135,0.229,-1.104,0.224,-0.635,-0.509
0.910,1.249,0.006,1.330,0.366,0.568
-0.790,-0.598,-1.691,-0.457,-1.331,-1.371
-0.090,0.365,-0.889,0.484,-0.533,-0.435
-0.674,-0.450,-1.558,-0.172,-1.231,-1.230
0.347,0.734,-0.494,0.783,-0.125,-0.090
0.251,0.587,-0.609,0.655,-0.429,-0.366
-0.182,0.178,-0.959,0.260,-0.731,-0.667
-0.025,0.114,-0.933,0.231,-0.629,-0.641
-0.501,-0.089,-1.108,0.095,-0.892,-0.929
-0.513,-0.183,-1.513,-0.100,-0.898,-1.221
-0.194,0.129,-1.182,0.198,-0.719,-0.714
0.462,0.813,-0.460,0.769,-0.095,-0.058
0.224,0.594,-0.656,0.659,-0.326,-0.177
-0.311,0.030,-1.272,-0.030,-1.031,-0.808
0.160,0.367,-0.795,0.334,-0.555,-0.553
-0.507,-0.265,-1.491,-0.084,-0.875,-0.973
0.071,0.285,-0.886,0.454,-0.495,-0.510
-0.333,0.072,-1.187,0.106,-0.817,-0.849
-0.135,0.245,-0.973,0.320,-0.575,-0.566
1.046,1.455,0.086,1.570,0.706,0.622
0.300,0.669,-0.539,0.763,-0.014,-0.110
-0.357,-0.126,-1.346,-0.003,-0.885,-0.877
0.844,1.165,-0.243,1.179,0.307,0.450
-0.024,0.187,-0.989,0.288,-0.685,-0.487
0.382,0.724,-0.436,0.817,-0.159,0.023
0.727,1.003,-0.186,1.158,0.299,0.251
-0.185,0.081,-1.151,0.246,-0.494,-0.660
0.362,0.619,-0.618,0.799,-0.213,-0.088
0.277,0.587,-0.636,0.744,-0.104,-0.250
-0.292,0.118,-1.224,0.156,-0.744,-0.598
-0.232,0.134,-1.204,0.145,-0.628,-0.691
0.105,0.538,-0.906,0.504,-0.255,-0.319
0.311,0.581,-0.666,0.641,-0.190,-0.334
-0.345,-0.056,-1.321,-0.021,-0.932,-0.883
0.047,0.450,-0.826,0.530,-0.294,-0.367
0.727,0.957,-0.334,1.220,0.245,0.141
0.368,0.597,-0.824,0.741,-0.014,-0.282
-0.168,0.084,-1.137,0.254,-0.647,-0.724
0.140,0.568,-0.683,0.609,-0.159,-0.342
0.002,0.536,-0.759,0.447,-0.523,-0.354
0.161,0.532,-0.702,0.585,-0.261,-0.229
0.476,0.802,-0.383,0.805,-0.054,-0.037
0.791,1.127,-0.097,1.175,0.431,0.301
0.267,0.637,-0.653,0.575,-0.239,-0.103
0.283,0.665,-0.623,0.694,-0.237,-0.146
1.010,1.325,-0.064,1.271,0.406,0.463
-0.394,-0.045,-1.265,-0.005,-0.844,-0.868
1.054,1.316,0.176,1.390,0.528,0.551
0.138,0.450,-0.651,0.591,-0.414,-0.314
0.385,0.650,-0.698,0.695,-0.232,-0.116
0.134,0.584,-0.719,0.539,-0.329,-0.132
0.083,0.507,-0.869,0.593,-0.418,-0.340
0.349,0.790,-0.500,0.755,-0.108,0.008
0.367,0.667,-0.585,0.742,-0.070,-0.165
-0.064,0.180,-1.192,0.267,-0.445,-0.583
-0.116,0.182,-1.177,0.321,-0.606,-0.730
-0.675,-0.285,-1.446,-0.069,-1.114,-1.037
0.271,0.533,-0.759,0.656,-0.245,-0.251
-1.010,-0.618,-1.913,-0.524,-1.537,-1.378
0.379,0.517,-0.619,0.689,-0.093,-0.252
-0.143,0.260,-0.949,0.375,-0.643,-0.615
0.559,0.763,-0.522,0.908,0.088,-0.058
0.736,1.109,-0.215,1.190,0.278,0.312
0.274,0.511,-0.741,0.564,-0.379,-0.324
-0.224,0.082,-1.197,0.125,-0.776,-0.767
0.727,0.981,-0.223,1.034,0.160,0.366
0.344,0.687,-0.626,0.770,-0.238,-0.074
0.053,0.405,-1.009,0.391,-0.393,-0.558
0.281,0.656,-0.714,0.658,-0.037,-0.174
0.543,0.856,-0.421,0.840,-0.035,-0.136
0.164,0.558,-0.786,0.521,-0.488,-0.320
0.812,1.016,-0.040,1.259,0.448,0.437
0.374,0.688,-0.554,0.706,-0.062,-0.104
0.308,0.643,-0.644,0.738,-0.233,-0.179
0.397,0.803,-0.572,0.782,-0.070,-0.045
0.073,0.418,-0.800,0.591,-0.355,-0.423
0.300,0.718,-0.511,0.814,-0.051,-0.118
0.281,0.664,-0.592,0.666,-0.285,-0.297
0.080,0.525,-0.687,0.574,-0.366,-0.285
0.503,0.874,-0.400,0.825,-0.033,-0.028
0.506,0.781,-0.380,0.965,0.149,0.115
0.022,0.322,-0.948,0.431,-0.580,-0.473
0.822,1.154,-0.042,1.285,0.360,0.412
-0.087,0.244,-0.849,0.430,-0.537,-0.454
-0.457,-0.198,-1.491,-0.115,-1.043,-1.119
0.292,0.695,-0.753,0.654,-0.197,-0.173
0.352,0.676,-0.530,0.741,-0.102,-0.098
0.870,1.340,-0.050,1.288,0.323,0.298
-0.132,0.230,-0.930,0.511,-0.404,-0.639
0.687,0.898,-0.452,1.063,0.197,0.021
0.918,1.297,-0.088,1.337,0.333,0.369
-0.605,-0.159,-1.447,-0.055,-0.947,-1.076
0.365,0.738,-0.594,0.818,-0.101,-0.029
-0.029,0.334,-1.017,0.467,-0.471,-0.421
0.906,1.366,0.084,1.429,0.634,0.491
0.092,0.427,-0.768,0.450,-0.400,-0.505
1.169,1.457,0.260,1.549,0.563,0.531
0.161,0.363,-0.726,0.521,-0.437,-0.387
-0.099,0.118,-1.189,0.162,-0.673,-0.770
0.619,0.902,-0.421,1.102,0.060,0.022
0.452,0.652,-0.629,0.697,-0.229,-0.209
0.625,1.064,-0.263,1.199,0.197,0.213
0.444,0.616,-0.337,0.865,-0.004,-0.126
-0.168,0.151,-1.102,0.261,-0.634,-0.603
0.524,0.783,-0.584,0.993,-0.059,0.014
0.431,0.760,-0.507,0.939,0.100,0.018
0.228,0.630,-0.751,0.614,-0.224,-0.286
0.376,0.755,-0.268,0.775,-0.028,0.039
0.350,0.650,-0.683,0.529,-0.298,-0.246
-0.241,0.068,-1.159,0.127,-0.661,-0.718
0.022,0.298,-0.705,0.594,-0.415,-0.254
0.349,0.637,-0.527,0.874,-0.098,-0.078
0.113,0.468,-0.660,0.417,-0.365,-0.461
0.013,0.406,-0.805,0.660,-0.384,-0.507
0.491,0.782,-0.523,0.757,-0.078,-0.042
0.336,0.739,-0.697,0.898,-0.101,-0.246
0.149,0.424,-0.781,0.587,-0.375,-0.261
0.208,0.643,-0.725,0.669,-0.287,-0.286
0.487,0.867,-0.449,0.947,0.129,0.143
0.738,1.197,-0.261,1.313,0.437,0.303
-0.071,0.276,-1.136,0.330,-0.433,-0.564
0.879,1.120,-0.441,1.147,0.387,0.314
0.242,0.626,-0.772,0.646,-0.262,-0.313
0.101,0.429,-0.715,0.599,-0.313,-0.319
0.261,0.480,-0.614,0.713,-0.226,-0.337
0.973,1.259,-0.225,1.167,0.398,0.488
0.039,0.400,-0.901,0.394,-0.488,-0.363
0.186,0.479,-0.533,0.609,-0.319,-0.188
-0.092,0.220,-1.089,0.346,-0.512,-0.644
0.758,1.027,-0.237,1.121,0.231,0.220
0.528,0.845,-0.344,0.909,-0.028,0.078
0.574,0.915,-0.376,0.961,0.012,0.108
-0.700,-0.410,-1.601,-0.382,-1.239,-1.169
-0.124,0.199,-1.049,0.297,-0.525,-0.684
0.413,0.535,-0.718,0.660,-0.137,-0.269
-0.002,0.332,-0.906,0.633,-0.303,-0.468
-0.045,0.307,-0.956,0.423,-0.402,-0.469
0.984,1.324,0.149,1.407,0.627,0.573
0.188,0.428,-0.734,0.538,-0.343,-0.382
0.308,0.731,-0.507,0.665,-0.237,-0.210
0.963,1.266,0.270,1.353,0.290,0.446
-0.635,-0.320,-1.573,-0.189,-1.083,-1.117
0.607,0.978,-0.455,1.041,0.016,0.065
0.406,0.711,-0.561,0.792,-0.060,-0.201
0.040,0.320,-0.870,0.399,-0.335,-0.449
-0.681,-0.375,-1.651,-0.317,-1.131,-1.185
0.414,0.661,-0.684,0.803,-0.072,-0.075
-0.234,0.071,-1.229,0.061,-0.750,-0.882
0.511,0.739,-0.415,0.975,0.040,-0.109
0.423,0.658,-0.578,0.817,-0.203,-0.153
0.529,0.952,-0.229,1.050,0.064,0.203
0.358,0.663,-0.642,0.706,-0.149,-0.108
-0.147,0.290,-1.066,0.350,-0.521,-0.543
-0.172,0.200,-1.118,0.318,-0.392,-0.547
0.486,0.791,-0.516,0.804,-0.063,-0.045
0.965,1.209,-0.078,1.426,0.595,0.511
0.685,1.058,-0.200,1.082,0.202,0.099
0.633,0.969,-0.176,1.168,0.238,0.131
-0.113,0.201,-1.052,0.344,-0.662,-0.688
-0.034,0.478,-0.920,0.477,-0.483,-0.683
0.015,0.236,-0.910,0.335,-0.487,-0.620
0.135,0.472,-0.860,0.504,-0.366,-0.294
0.989,1.223,-0.099,1.440,0.561,0.318
0.053,0.345,-1.044,0.323,-0.590,-0.475
-0.299,-0.058,-1.391,0.023,-0.892,-0.831
-0.495,-0.192,-1.358,-0.063,-0.846,-0.841
0.170,0.596,-0.706,0.675,-0.238,-0.302
1.052,1.363,0.079,1.359,0.548,0.405
0.066,0.262,-0.843,0.465,-0.423,-0.419
0.787,1.015,-0.178,1.161,0.211,0.392
0.229,0.432,-0.833,0.513,-0.259,-0.368
-0.344,-0.048,-1.243,-0.007,-0.798,-0.869
0.583,0.809,-0.415,0.967,0.176,-0.092
0.298,0.668,-0.563,0.692,-0.138,-0.160
-0.536,-0.170,-1.455,-0.233,-1.079,-1.042
0.554,0.844,-0.295,0.910,0.063,-0.051
0.609,0.925,-0.259,1.127,0.326,0.111
0.173,0.610,-0.904,0.583,-0.235,-0.155
-0.284,0.108,-1.387,0.020,-0.952,-0.767
0.350,0.823,-0.670,0.720,-0.190,-0.154
0.946,1.232,-0.123,1.218,0.370,0.418
0.003,0.281,-0.965,0.550,-0.504,-0.487
0.351,0.738,-0.495,0.941,-0.041,-0.159
0.342,0.777,-0.575,0.916,-0.052,-0.144
-0.064,0.202,-1.148,0.372,-0.504,-0.652
1.841,2.112,0.928,2.266,1.247,1.336
0.013,0.315,-0.944,0.467,-0.489,-0.461
0.830,1.137,-0.148,1.304,0.297,0.312
-0.002,0.291,-1.042,0.355,-0.488,-0.566
-0.100,0.245,-0.927,0.251,-0.801,-0.631
-0.002,0.390,-1.156,0.325,-0.497,-0.699
0.107,0.525,-0.991,0.497,-0.298,-0.294
0.479,0.827,-0.540,0.852,0.089,-0.005
0.719,0.996,-0.293,1.054,0.319,0.234
0.185,0.458,-0.945,0.508,-0.590,-0.398
0.185,0.501,-0.813,0.524,-0.265,-0.380
1.081,1.266,0.216,1.481,0.567,0.594
-0.443,-0.087,-1.342,0.032,-1.022,-0.926
0.385,0.733,-0.610,0.753,-0.178,-0.148
-0.190,0.128,-1.068,0.232,-0.612,-0.625
0.379,0.888,-0.494,0.758,-0.136,-0.051
-0.478,-0.200,-1.367,-0.070,-1.042,-0.947
-0.500,-0.286,-1.506,-0.153,-0.982,-1.038
0.899,1.196,0.094,1.323,0.315,0.427
0.171,0.464,-0.880,0.482,-0.427,-0.408
-0.029,0.318,-0.962,0.283,-0.456,-0.512
-0.115,0.182,-1.257,0.255,-0.542,-0.657
-0.236,0.132,-1.260,0.234,-0.620,-0.701
0.145,0.515,-0.734,0.706,-0.209,-0.188
0.551,0.689,-0.569,0.837,0.015,-0.085
-0.418,-0.144,-1.316,0.084,-0.816,-0.939
0.309,0.650,-0.728,0.662,-0.107,-0.107
-0.577,-0.241,-1.423,-0.192,-1.127,-1.058
0.702,0.909,-0.433,0.948,0.141,-0.080
1.097,1.435,0.273,1.637,0.623,0.644
0.117,0.443,-0.786,0.501,-0.415,-0.375
-0.491,-0.116,-1.391,-0.028,-0.905,-0.989
0.619,0.991,-0.296,1.117,0.240,0.059
-0.046,0.277,-1.151,0.238,-0.687,-0.672
0.026,0.306,-0.856,0.357,-0.590,-0.552
0.824,1.233,-0.018,1.238,0.309,0.401
0.505,0.836,-0.617,0.770,-0.088,-0.099
-0.120,0.224,-1.153,0.336,-0.717,-0.623
0.265,0.627,-0.582,0.727,-0.165,-0.157
0.197,0.525,-0.743,0.665,-0.334,-0.361
0.499,0.790,-0.536,0.759,-0.153,-0.085
0.348,0.623,-0.559,0.750,-0.028,-0.173
0.066,0.414,-1.007,0.409,-0.545,-0.495
-0.282,0.023,-1.198,0.127,-0.793,-0.619
0.451,0.773,-0.417,0.904,0.095,-0.022
0.239,0.421,-0.837,0.516,-0.342,-0.290
0.076,0.244,-0.884,0.452,-0.413,-0.436
0.452,0.704,-0.524,0.746,-0.086,-0.084
0.597,0.856,-0.605,0.919,0.088,0.033
-0.326,-0.001,-1.328,0.195,-0.617,-0.959
0.309,0.521,-0.916,0.602,-0.215,-0.436
-0.084,0.305,-1.148,0.323,-0.578,-0.656
0.613,0.894,-0.391,1.052,0.301,0.151
-0.051,0.281,-0.967,0.381,-0.689,-0.566
-0.148,0.039,-1.105,0.140,-0.732,-0.681
0.266,0.572,-0.582,0.638,-0.234,-0.376
-0.042,0.290,-0.950,0.288,-0.618,-0.547
0.187,0.533,-0.740,0.515,-0.346,-0.256
0.052,0.360,-0.891,0.513,-0.487,-0.401
-0.027,0.224,-0.906,0.437,-0.338,-0.548
0.105,0.567,-0.712,0.647,-0.244,-0.315
-0.061,0.302,-0.940,0.447,-0.487,-0.502
0.259,0.615,-0.789,0.718,-0.199,-0.156
0.564,0.931,-0.276,1.134,0.221,0.150
0.611,0.983,-0.144,1.197,0.315,0.177
0.264,0.477,-0.876,0.614,-0.176,-0.435
0.340,0.545,-0.729,0.714,-0.210,-0.062
-0.256,0.094,-1.099,0.265,-0.729,-0.722
-0.477,-0.138,-1.390,-0.152,-0.975,-1.014
0.611,0.999,-0.312,1.061,0.222,-0.015
0.552,0.810,-0.412,0.889,-0.034,0.081
0.275,0.530,-0.824,0.587,-0.266,-0.259
-0.302,-0.075,-1.301,0.084,-0.892,-0.804
-0.144,0.173,-1.009,0.285,-0.654,-0.749
0.143,0.458,-0.878,0.541,-0.351,-0.331
-0.659,-0.279,-1.668,-0.309,-1.252,-1.129
0.002,0.431,-0.991,0.481,-0.445,-0.244
0.085,0.497,-0.673,0.630,-0.314,-0.312
0.207,0.536,-0.625,0.551,-0.396,-0.234
0.386,0.809,-0.602,0.744,-0.160,-0.117
0.330,0.706,-0.699,0.669,-0.169,-0.237
-0.255,0.090,-1.006,0.338,-0.707,-0.742
-0.227,0.024,-1.145,0.134,-0.695,-0.797
0.604,0.834,-0.308,1.030,0.020,0.109
0.301,0.729,-0.753,0.682,-0.270,-0.239
0.377,0.799,-0.346,0.925,0.053,0.048
0.394,0.850,-0.324,0.988,0.053,0.085
0.264,0.526,-0.714,0.678,-0.215,-0.319
-0.037,0.221,-1.028,0.189,-0.778,-0.648
0.936,1.316,0.202,1.481,0.398,0.609
0.542,0.989,-0.348,0.930,0.066,0.170
0.167,0.572,-0.584,0.605,-0.281,-0.283
0.632,1.046,-0.197,1.130,0.168,0.201
0.594,0.855,-0.324,0.907,0.038,0.107
0.046,0.333,-0.901,0.491,-0.518,-0.554
0.731,1.126,-0.266,1.110,0.289,0.237
-0.156,0.246,-1.005,0.313,-0.631,-0.694
-0.070,0.255,-1.025,0.262,-0.591,-0.614
0.024,0.347,-0.761,0.439,-0.432,-0.611
0.203,0.565,-0.645,0.661,-0.218,-0.363
0.226,0.657,-0.933,0.693,-0.196,-0.303
0.544,0.921,-0.358,1.005,0.159,0.131
-0.470,-0.046,-1.399,0.055,-0.863,-1.068
-0.057,0.178,-1.193,0.247,-0.494,-0.678
0.706,1.145,-0.212,1.086,0.075,0.174
-0.053,0.266,-0.945,0.410,-0.529,-0.511
-0.357,0.007,-1.261,0.100,-0.875,-0.829
0.080,0.496,-0.770,0.508,-0.425,-0.133
0.054,0.406,-0.844,0.581,-0.281,-0.276
0.208,0.491,-0.751,0.619,-0.240,-0.383
0.148,0.352,-0.763,0.533,-0.322,-0.492
0.444,0.925,-0.482,0.926,0.009,0.041
0.362,0.708,-0.677,0.676,-0.155,-0.158
0.344,0.705,-0.694,0.756,-0.128,-0.111
-0.360,0.091,-1.242,0.063,-0.784,-0.879
0.990,1.303,0.214,1.404,0.511,0.478
-0.222,0.121,-1.238,0.162,-0.719,-0.598
0.204,0.523,-0.787,0.755,-0.123,-0.244
0.444,0.859,-0.203,0.926,0.171,0.066
0.258,0.630,-0.838,0.548,-0.251,-0.385
0.226,0.473,-0.616,0.613,-0.252,-0.293
-0.775,-0.375,-1.541,-0.257,-1.100,-1.262
0.358,0.672,-0.561,0.803,-0.119,-0.168
0.318,0.635,-0.589,0.691,-0.147,-0.242
1.212,1.653,0.463,1.639,0.756,0.767
-0.227,0.057,-1.196,0.172,-0.741,-0.744
0.971,1.272,-0.020,1.210,0.381,0.404
-0.024,0.394,-0.833,0.508,-0.517,-0.440
0.945,1.276,0.008,1.440,0.483,0.443
0.193,0.500,-0.724,0.617,-0.223,-0.256
0.189,0.528,-0.915,0.430,-0.389,-0.309
0.144,0.515,-0.719,0.539,-0.397,-0.286
0.469,0.827,-0.569,0.642,-0.217,-0.157
-0.173,0.116,-1.075,0.213,-0.692,-0.569
-0.133,0.328,-1.000,0.299,-0.487,-0.567
-0.264,0.005,-1.175,0.136,-0.681,-0.907
-0.044,0.312,-0.916,0.434,-0.445,-0.415
0.822,1.189,0.015,1.316,0.434,0.532
-0.020,0.380,-0.741,0.442,-0.391,-0.364
0.222,0.574,-0.558,0.699,-0.223,-0.124
-0.226,0.130,-1.117,0.164,-0.812,-0.743
-0.246,0.127,-1.097,0.307,-0.773,-0.536
0.326,0.693,-0.581,0.719,-0.055,-0.163
0.248,0.752,-0.501,0.730,-0.081,-0.186
0.344,0.729,-0.453,0.785,-0.005,0.012
0.260,0.558,-0.781,0.623,-0.294,-0.342
1.367,1.808,0.426,1.797,0.975,1.037
1.097,1.418,0.220,1.558,0.656,0.612
0.487,0.683,-0.463,0.988,-0.042,-0.099
-0.171,0.124,-1.018,0.360,-0.626,-0.653
0.011,0.449,-0.705,0.576,-0.328,-0.354
0.279,0.591,-0.598,0.780,-0.098,-0.155
0.340,0.785,-0.516,0.749,-0.138,-0.158
-0.198,0.073,-1.069,0.221,-0.472,-0.815
0.676,0.943,-0.139,0.883,0.024,0.220
0.428,0.636,-0.540,0.828,-0.143,-0.143
-0.095,0.349,-1.036,0.325,-0.692,-0.481
-0.087,0.324,-0.959,0.337,-0.700,-0.487
1.533,1.894,0.711,2.004,1.053,1.098
0.282,0.510,-0.636,0.716,-0.137,-0.416
-0.207,0.046,-1.015,0.282,-0.611,-0.626
-0.454,-0.223,-1.490,-0.159,-1.031,-0.873
0.350,0.573,-0.560,0.840,-0.144,-0.286
-0.166,0.240,-0.975,0.396,-0.530,-0.456
0.417,0.749,-0.539,0.863,-0.127,-0.100
0.114,0.367,-0.820,0.572,-0.446,-0.388
0.213,0.489,-0.712,0.680,-0.217,-0.316
0.595,0.817,-0.342,1.065,0.070,0.167
0.234,0.503,-0.800,0.606,-0.115,-0.384
0.336,0.697,-0.490,0.786,-0.101,-0.023
0.531,0.940,-0.393,0.949,0.095,0.122
0.034,0.418,-0.991,0.467,-0.470,-0.332
-0.175,0.185,-1.019,0.267,-0.645,-0.568
-0.044,0.347,-1.017,0.470,-0.380,-0.548
-0.157,0.255,-1.057,0.232,-0.537,-0.626
0.571,0.864,-0.324,1.032,0.201,0.151
-0.240,0.173,-1.019,0.195,-0.823,-0.632
0.092,0.321,-0.994,0.348,-0.446,-0.507
-0.182,0.182,-1.008,0.303,-0.572,-0.468
-0.028,0.243,-0.927,0.414,-0.365,-0.557
0.383,0.799,-0.387,0.881,-0.027,0.081
0.073,0.392,-0.874,0.374,-0.578,-0.498
-0.015,0.367,-0.884,0.508,-0.283,-0.488
-0.713,-0.340,-1.344,-0.089,-1.036,-1.076
0.192,0.465,-0.697,0.728,-0.227,-0.340
-0.296,0.142,-1.070,0.090,-0.742,-0.778
0.324,0.613,-0.578,0.788,-0.228,-0.012
-0.038,0.280,-0.949,0.424,-0.440,-0.480
-0.259,0.166,-1.247,0.165,-0.515,-0.776
0.042,0.417,-0.856,0.481,-0.496,-0.498
0.873,1.179,-0.078,1.253,0.464,0.393
0.612,0.963,-0.320,1.027,0.129,0.106
-0.031,0.354,-1.042,0.288,-0.519,-0.584
-0.082,0.224,-0.994,0.231,-0.691,-0.594
0.146,0.539,-0.804,0.603,-0.296,-0.273
-0.097,0.207,-0.938,0.202,-0.626,-0.557
0.898,1.122,0.048,1.278,0.464,0.307
0.205,0.543,-0.792,0.530,-0.508,-0.390
0.321,0.537,-0.609,0.615,-0.202,-0.241
0.512,0.797,-0.515,0.817,0.011,-0.068
0.056,0.248,-1.015,0.409,-0.402,-0.487
-0.253,0.108,-0.948,0.195,-0.773,-0.650
0.395,0.785,-0.520,0.900,-0.019,-0.030
0.705,1.088,-0.371,1.027,0.139,0.156
-0.220,0.138,-1.245,0.212,-0.559,-0.715
-0.541,-0.073,-1.185,-0.073,-1.046,-0.808
-0.500,-0.149,-1.401,-0.011,-1.066,-0.874
0.015,0.253,-0.866,0.526,-0.415,-0.371
0.041,0.342,-0.908,0.390,-0.391,-0.459
-0.724,-0.285,-1.691,-0.232,-1.108,-1.081
0.844,1.329,-0.078,1.186,0.367,0.394
0.067,0.322,-0.787,0.582,-0.393,-0.421
0.082,0.422,-0.805,0.552,-0.380,-0.345
0.134,0.419,-0.825,0.611,-0.136,-0.346
0.874,0.969,-0.168,1.062,0.157,0.256
0.550,0.887,-0.274,1.099,-0.031,0.207
-0.291,0.077,-1.142,0.168,-0.744,-0.667
-0.076,0.215,-0.919,0.249,-0.646,-0.618
0.455,0.730,-0.531,0.903,0.001,-0.042
0.331,0.659,-0.594,0.809,-0.136,-0.028
0.159,0.375,-1.050,0.460,-0.404,-0.521
-0.025,0.476,-0.815,0.524,-0.420,-0.216
-0.323,-0.036,-1.199,0.138,-0.718,-0.723
0.316,0.689,-0.602,0.805,-0.069,-0.176
-0.154,0.296,-0.897,0.237,-0.543,-0.567
-0.745,-0.331,-1.565,-0.361,-1.318,-1.231
0.044,0.387,-0.826,0.432,-0.403,-0.429
-0.116,0.275,-0.908,0.124,-0.675,-0.539
0.268,0.594,-0.680,0.556,-0.082,-0.230
0.930,1.257,-0.032,1.188,0.382,0.498
0.146,0.481,-0.817,0.483,-0.363,-0.334
0.429,0.836,-0.255,0.818,-0.149,0.045
0.237,0.555,-0.695,0.618,-0.080,-0.291
0.245,0.639,-0.728,0.612,-0.165,-0.135
0.301,0.728,-0.640,0.681,-0.103,-0.089
0.201,0.546,-0.600,0.665,-0.327,-0.314
-0.018,0.354,-0.969,0.223,-0.684,-0.669
0.635,1.005,-0.272,0.969,0.163,0.194
0.068,0.430,-0.711,0.511,-0.307,-0.500
0.499,0.871,-0.450,0.786,-0.160,0.039
-0.001,0.420,-1.063,0.372,-0.466,-0.500
0.169,0.572,-0.722,0.667,-0.327,-0.268
0.958,1.222,-0.027,1.357,0.391,0.412
0.493,0.840,-0.492,0.813,-0.075,-0.039
-0.154,0.103,-1.238,0.234,-0.631,-0.690
-0.147,0.221,-0.949,0.260,-0.617,-0.596
0.465,0.773,-0.389,0.840,-0.215,0.034
0.776,1.144,-0.228,1.263,0.354,0.396
-0.013,0.375,-0.929,0.512,-0.331,-0.383
0.152,0.394,-0.798,0.485,-0.392,-0.209
0.283,0.617,-0.570,0.637,-0.200,-0.234
0.204,0.426,-0.897,0.493,-0.376,-0.482
-0.075,0.272,-1.049,0.284,-0.606,-0.584
0.214,0.549,-0.737,0.589,-0.266,-0.159
-0.492,-0.032,-1.273,0.015,-1.012,-0.768
0.004,0.270,-0.712,0.550,-0.351,-0.380
0.338,0.600,-0.582,0.672,-0.192,-0.202
0.504,0.710,-0.675,0.626,-0.104,-0.159
0.092,0.552,-0.990,0.388,-0.446,-0.337
0.363,0.692,-0.685,0.593,-0.170,-0.065
0.251,0.700,-0.623,0.735,-0.142,-0.228
0.182,0.585,-0.610,0.676,-0.312,-0.268
0.796,1.084,-0.161,1.276,0.423,0.323
-0.300,0.150,-1.185,0.141,-0.735,-0.636
-0.155,0.175,-0.987,0.260,-0.610,-0.665
-0.141,0.176,-0.931,0.351,-0.589,-0.695
0.170,0.530,-0.597,0.532,-0.415,-0.241
-0.809,-0.649,-1.833,-0.447,-1.292,-1.370
-0.019,0.357,-0.956,0.484,-0.353,-0.456
0.784,1.136,-0.244,1.207,0.261,0.295
0.153,0.566,-0.756,0.528,-0.352,-0.398
0.080,0.491,-0.803,0.515,-0.299,-0.437
0.420,0.902,-0.570,0.894,0.098,-0.067
0.213,0.654,-0.822,0.607,-0.257,-0.200
-0.553,-0.191,-1.484,-0.077,-0.928,-1.060
0.492,0.700,-0.460,0.908,0.029,0.055
0.356,0.596,-0.660,0.732,-0.311,-0.255
0.380,0.794,-0.534,0.887,-0.039,-0.103
0.638,1.072,-0.337,1.113,0.141,0.149
1.053,1.302,-0.138,1.332,0.324,0.494
-0.353,-0.069,-1.326,0.039,-0.876,-0.738
0.136,0.332,-0.843,0.352,-0.659,-0.495
0.534,0.782,-0.609,0.911,-0.139,-0.136
0.733,0.989,-0.266,1.116,0.166,0.125
0.536,0.724,-0.648,0.846,-0.110,-0.101
0.596,0.964,-0.533,0.950,0.116,0.070
0.048,0.470,-0.813,0.481,-0.344,-0.369
-0.706,-0.347,-1.582,-0.173,-0.979,-1.055
0.110,0.363,-0.840,0.563,-0.388,-0.387
0.314,0.559,-0.694,0.648,-0.268,-0.389
0.145,0.563,-0.802,0.586,-0.310,-0.392
0.706,1.225,0.107,1.267,0.310,0.447
-0.225,0.191,-1.136,0.101,-0.967,-0.712
-0.732,-0.294,-1.666,-0.205,-1.110,-1.342
0.423,0.576,-0.576,0.737,-0.152,-0.116
0.297,0.663,-0.590,0.838,-0.133,-0.226
0.611,1.012,-0.330,1.063,-0.067,0.082
1.043,1.335,-0.049,1.417,0.464,0.325
1.253,1.658,0.220,1.587,0.625,0.646
-0.449,-0.022,-1.351,0.057,-0.916,-0.868
-0.140,0.204,-1.146,0.359,-0.623,-0.578
0.437,0.756,-0.511,0.864,-0.021,0.051
0.002,0.366,-1.039,0.283,-0.595,-0.583
0.189,0.627,-0.542,0.889,-0.174,-0.093
0.597,0.887,-0.476,0.937,0.013,0.082
0.531,0.849,-0.302,0.985,0.108,0.118
0.143,0.489,-0.880,0.564,-0.330,-0.333
-0.466,-0.085,-1.357,-0.157,-0.895,-1.164
0.617,0.821,-0.408,0.954,0.071,-0.076
-0.022,0.527,-0.826,0.510,-0.315,-0.253
0.250,0.624,-0.606,0.646,-0.241,-0.205
-0.122,0.206,-1.138,0.276,-0.674,-0.719
0.758,1.237,-0.034,1.316,0.341,0.395
-0.014,0.337,-0.867,0.331,-0.485,-0.425
-0.740,-0.433,-1.666,-0.363,-1.255,-1.450
0.359,0.765,-0.625,0.593,-0.182,-0.044
0.333,0.748,-0.414,0.886,0.011,-0.117
0.610,0.937,-0.142,1.051,0.168,0.125
0.684,1.129,-0.326,1.094,0.315,0.076
-0.100,0.189,-1.078,0.268,-0.593,-0.603
0.513,0.789,-0.407,0.966,0.004,0.101
0.399,0.769,-0.491,0.921,0.040,0.034
0.513,0.822,-0.403,0.887,0.025,0.096
0.423,0.683,-0.642,0.816,-0.136,-0.147
0.330,0.537,-0.802,0.775,-0.222,-0.209
0.923,1.295,-0.187,1.404,0.319,0.446
0.246,0.490,-0.815,0.507,-0.464,-0.215
-0.071,0.342,-1.021,0.321,-0.552,-0.555
-0.218,0.192,-1.166,0.304,-0.539,-0.735
0.709,0.941,-0.398,1.066,0.110,0.082
0.700,0.949,-0.288,1.198,0.290,0.298
0.765,1.004,-0.155,1.209,0.238,0.396
-0.311,-0.028,-1.167,0.166,-0.985,-0.732
0.304,0.596,-0.705,0.788,-0.120,-0.170
-0.966,-0.699,-1.854,-0.368,-1.360,-1.541
0.326,0.654,-0.634,0.753,-0.227,-0.210
-0.305,0.094,-1.316,0.059,-0.864,-0.834
0.614,0.951,-0.271,1.061,0.245,0.066
0.581,0.904,-0.326,1.142,0.191,0.139
0.884,1.267,-0.011,1.370,0.434,0.281
0.409,0.802,-0.536,0.815,-0.037,0.042
-0.025,0.322,-0.892,0.435,-0.531,-0.405
-0.218,0.028,-1.216,0.110,-0.664,-0.693
0.024,0.401,-0.916,0.483,-0.359,-0.363
0.569,0.867,-0.343,0.945,0.133,0.046
-0.603,-0.358,-1.532,-0.172,-1.089,-0.997
-0.028,0.345,-0.926,0.481,-0.462,-0.560
0.205,0.517,-0.725,0.688,-0.214,-0.318
-0.596,-0.207,-1.441,-0.149,-1.103,-1.092
0.608,0.988,-0.391,0.904,0.124,0.081
0.720,1.049,-0.161,1.072,0.174,0.237
0.465,0.843,-0.460,0.805,0.064,-0.017
-0.662,-0.265,-1.539,-0.061,-1.044,-0.992
0.592,0.881,-0.433,0.933,0.001,-0.058
1.044,1.397,0.117,1.494,0.628,0.431
1.052,1.317,-0.022,1.256,0.533,0.268
0.486,0.848,-0.455,0.993,0.036,-0.047
0.049,0.309,-0.968,0.364,-0.584,-0.480
0.112,0.367,-0.999,0.353,-0.537,-0.418
0.530,0.797,-0.482,0.932,0.031,-0.092
-0.360,0.161,-1.075,0.272,-0.622,-0.570
-0.225,0.277,-0.940,0.209,-0.713,-0.624
0.895,1.186,-0.039,1.260,0.499,0.224
0.011,0.103,-1.216,0.263,-0.562,-0.765
0.173,0.450,-0.639,0.610,-0.140,-0.184
0.804,1.194,-0.067,1.365,0.561,0.265
0.529,0.873,-0.304,1.048,0.249,0.040
-0.058,0.378,-0.931,0.324,-0.423,-0.373
0.676,1.114,-0.248,1.189,0.384,0.297
-0.113,0.344,-0.899,0.444,-0.371,-0.532
0.576,0.937,-0.306,0.996,0.047,0.083
-0.199,0.107,-1.240,0.026,-0.819,-0.898
0.884,1.225,-0.048,1.260,0.355,0.408
0.533,0.802,-0.406,0.969,0.103,0.000
0.258,0.469,-0.763,0.634,-0.205,-0.238
0.234,0.547,-0.381,0.650,-0.262,-0.142
-0.246,0.015,-1.324,0.065,-0.797,-0.882
0.031,0.308,-0.846,0.534,-0.340,-0.436
0.585,0.959,-0.317,1.029,0.125,0.063
0.747,1.074,-0.169,1.243,0.324,0.289
-0.455,0.054,-1.303,0.067,-0.875,-0.752
-0.372,0.079,-1.153,0.165,-0.742,-0.754
-0.212,0.051,-1.113,0.238,-0.591,-0.883
0.762,1.131,-0.086,1.256,0.311,0.405
-0.500,-0.223,-1.462,-0.125,-1.036,-1.134
0.387,0.625,-0.630,0.759,-0.153,-0.112
0.223,0.531,-0.980,0.527,-0.151,-0.321
0.021,0.289,-0.922,0.420,-0.315,-0.491
0.876,1.173,-0.015,1.318,0.355,0.354
0.371,0.603,-0.695,0.731,-0.049,-0.313
0.129,0.495,-0.852,0.581,-0.241,-0.358
0.232,0.632,-0.828,0.581,-0.427,-0.294
-0.237,0.073,-1.117,0.203,-0.531,-0.722
0.269,0.572,-0.719,0.774,-0.210,-0.207
0.181,0.358,-0.934,0.375,-0.463,-0.485
0.276,0.647,-0.623,0.608,-0.218,-0.275
0.616,1.103,-0.144,1.180,0.325,0.343
0.571,0.821,-0.364,0.936,0.156,0.012
0.385,0.778,-0.484,0.725,-0.264,-0.010
0.370,0.577,-0.485,0.714,-0.154,-0.145
0.817,1.078,-0.034,1.150,0.287,0.322
0.149,0.517,-0.638,0.537,-0.345,-0.368
0.848,1.151,-0.007,1.297,0.439,0.422
1.047,1.275,0.100,1.359,0.579,0.463
-0.150,0.269,-0.886,0.380,-0.506,-0.584
0.191,0.558,-0.928,0.588,-0.368,-0.367
-0.132,0.250,-1.033,0.342,-0.651,-0.573
0.209,0.538,-0.747,0.595,-0.208,-0.365
-0.274,-0.018,-1.258,0.115,-0.719,-0.932
0.421,0.597,-0.614,0.682,-0.147,-0.194
1.187,1.585,0.394,1.649,0.823,0.891
0.360,0.790,-0.660,0.589,-0.114,-0.111
-0.190,0.087,-1.081,0.158,-0.763,-0.614
0.226,0.598,-0.676,0.624,-0.165,-0.193
0.009,0.402,-0.907,0.435,-0.455,-0.414
-0.130,0.389,-0.793,0.557,-0.464,-0.398
0.009,0.323,-0.809,0.474,-0.393,-0.416
0.454,0.674,-0.474,0.868,0.110,-0.060
-0.215,0.092,-1.143,0.313,-0.714,-0.738
0.120,0.473,-0.789,0.525,-0.280,-0.399
-0.398,-0.153,-1.370,0.117,-0.865,-0.928
0.437,0.818,-0.485,0.909,-0.035,-0.034
0.852,1.110,-0.031,1.174,0.439,0.312
-0.566,-0.243,-1.579,-0.010,-0.927,-1.039
-0.093,0.244,-0.822,0.421,-0.591,-0.538
-0.241,0.094,-1.192,0.044,-0.818,-0.742
0.481,0.828,-0.422,0.840,-0.065,0.040
0.714,1.052,0.008,1.300,0.314,0.416
-0.555,-0.164,-1.557,-0.211,-1.163,-1.073
0.539,0.835,-0.238,0.904,-0.016,-0.003
0.916,1.203,0.009,1.288,0.299,0.395
0.003,0.212,-0.943,0.148,-0.711,-0.647
0.095,0.361,-0.951,0.448,-0.594,-0.458
0.902,1.220,0.006,1.392,0.446,0.486
0.252,0.503,-0.856,0.528,-0.454,-0.366
-0.187,0.196,-0.924,0.200,-0.689,-0.617
-0.254,0.085,-1.257,0.188,-0.708,-0.742
0.148,0.474,-0.719,0.590,-0.408,-0.319
-0.184,0.112,-1.100,0.189,-0.733,-0.757
-0.098,0.045,-1.111,0.272,-0.583,-0.737
0.829,1.177,-0.095,1.152,0.282,0.269
0.011,0.417,-0.785,0.498,-0.418,-0.459
0.293,0.664,-0.481,0.733,-0.123,-0.314
0.025,0.233,-0.898,0.290,-0.587,-0.634
0.497,0.936,-0.539,0.887,-0.047,0.068
0.791,1.215,-0.158,1.323,0.418,0.391
-0.012,0.352,-0.841,0.585,-0.323,-0.403
-0.616,-0.361,-1.374,-0.122,-1.002,-1.049
0.208,0.672,-0.682,0.597,-0.230,-0.257
-0.966,-0.696,-1.944,-0.494,-1.361,-1.433
0.496,0.934,-0.533,0.821,-0.156,-0.012
0.060,0.211,-1.105,0.448,-0.476,-0.657
0.101,0.475,-0.756,0.596,-0.322,-0.301
0.258,0.682,-0.660,0.621,-0.251,-0.196
0.043,0.378,-0.908,0.430,-0.359,-0.349
0.182,0.643,-0.712,0.664,-0.257,-0.241
-0.200,0.089,-1.049,0.284,-0.531,-0.660
0.497,0.927,-0.439,0.869,-0.026,0.008
0.663,0.872,-0.309,1.076,0.124,0.176
0.681,1.015,-0.365,1.093,0.262,0.041
-0.034,0.256,-1.019,0.468,-0.517,-0.468
-0.578,-0.338,-1.516,-0.050,-0.884,-1.029
0.169,0.587,-0.656,0.664,-0.238,-0.350
0.197,0.546,-0.716,0.593,-0.233,-0.325
0.080,0.343,-0.904,0.466,-0.337,-0.472
0.116,0.448,-0.811,0.524,-0.320,-0.305
-0.181,0.173,-1.083,0.227,-0.540,-0.555
0.532,0.948,-0.287,1.010,0.129,0.115
-0.365,-0.171,-1.442,0.029,-0.812,-0.841
0.747,1.027,-0.285,1.211,0.339,0.260
0.369,0.760,-0.598,0.816,-0.018,-0.144
0.788,0.962,-0.276,1.106,0.384,0.248
-0.196,0.154,-1.246,0.183,-0.723,-0.655
0.116,0.451,-0.743,0.667,-0.222,-0.363
0.393,0.724,-0.659,0.703,-0.088,-0.188
-0.599,-0.302,-1.517,-0.142,-1.081,-1.121
0.254,0.605,-0.689,0.650,-0.096,-0.212
0.935,1.197,-0.194,1.300,0.401,0.494
-0.718,-0.391,-1.688,-0.261,-1.249,-1.313
0.082,0.323,-0.877,0.480,-0.373,-0.486
-0.264,0.107,-1.284,0.195,-0.718,-0.613
-0.055,0.312,-1.059,0.429,-0.505,-0.516
0.402,0.689,-0.636,0.859,-0.100,0.001
0.462,0.692,-0.576,0.737,-0.212,-0.260
-0.224,0.099,-1.046,0.154,-0.690,-0.665
0.079,0.454,-0.817,0.532,-0.269,-0.333
0.180,0.594,-0.589,0.754,-0.223,-0.057
0.094,0.426,-0.934,0.390,-0.421,-0.302
0.028,0.340,-0.996,0.448,-0.359,-0.408
0.444,0.733,-0.420,0.942,0.012,-0.069
0.274,0.655,-0.745,0.628,-0.323,-0.220
0.922,1.140,0.097,1.302,0.460,0.300
-0.140,0.246,-0.989,0.391,-0.529,-0.473
0.092,0.457,-0.774,0.470,-0.446,-0.357
0.400,0.751,-0.434,0.819,-0.110,-0.131
0.336,0.668,-0.515,0.627,-0.092,-0.192
0.439,0.712,-0.546,0.806,0.052,-0.054
0.029,0.384,-0.922,0.397,-0.477,-0.460
0.355,0.559,-0.668,0.717,-0.105,-0.265
0.385,0.808,-0.461,0.954,-0.013,-0.121
-0.319,-0.019,-1.260,0.170,-0.671,-0.875
0.395,0.691,-0.667,0.606,-0.212,-0.146
0.602,0.989,-0.307,1.057,0.104,0.112
0.503,0.880,-0.422,1.017,0.063,0.060
0.307,0.580,-0.618,0.794,-0.149,-0.095
0.511,0.887,-0.452,0.983,0.114,0.008
0.142,0.427,-0.833,0.615,-0.253,-0.428
0.527,0.832,-0.545,0.884,-0.073,-0.021
0.264,0.554,-0.681,0.663,-0.297,-0.397
0.662,0.959,-0.426,1.019,0.061,0.098
-0.193,0.088,-1.296,0.137,-0.613,-0.757
-0.507,-0.094,-1.549,-0.062,-0.849,-0.876
0.138,0.541,-0.790,0.506,-0.352,-0.393
0.262,0.617,-0.737,0.617,-0.260,-0.357
0.631,1.009,-0.358,0.950,0.150,0.068
0.135,0.584,-0.777,0.553,-0.400,-0.376
-0.323,-0.163,-1.315,-0.043,-0.922,-0.992
0.076,0.423,-0.878,0.503,-0.374,-0.540
0.423,0.825,-0.486,1.011,-0.027,0.103
0.295,0.525,-0.615,0.678,-0.245,-0.116
-0.599,-0.313,-1.510,-0.058,-0.860,-0.880
-0.266,-0.029,-1.335,0.055,-0.757,-0.911
0.437,0.739,-0.468,0.724,-0.035,-0.013
-0.285,0.132,-1.181,0.120,-0.807,-0.740
0.075,0.288,-0.994,0.261,-0.466,-0.598
1.044,1.193,-0.097,1.285,0.489,0.448
0.198,0.488,-0.747,0.684,-0.232,-0.391
0.603,0.953,-0.427,1.101,0.106,0.122
0.698,1.040,-0.391,1.073,0.098,0.004
0.547,0.829,-0.347,1.109,0.121,0.121
-0.596,-0.305,-1.492,-0.114,-0.975,-1.207
-0.411,0.034,-1.206,-0.006,-0.868,-0.820
-0.015,0.394,-0.945,0.393,-0.475,-0.510
-0.132,0.182,-1.048,0.199,-0.629,-0.788
0.575,0.961,-0.540,1.023,0.110,0.038
0.856,1.193,-0.227,1.283,0.461,0.315
0.073,0.387,-0.855,0.459,-0.508,-0.439
0.091,0.538,-0.901,0.522,-0.293,-0.316
0.148,0.334,-0.868,0.593,-0.356,-0.520
0.356,0.577,-0.930,0.651,-0.323,-0.265
-0.154,0.106,-1.068,0.187,-0.740,-0.620
0.245,0.471,-0.801,0.632,-0.292,-0.463
0.450,0.723,-0.529,0.732,-0.105,-0.093
0.329,0.733,-0.361,0.829,-0.073,-0.080
0.840,1.063,0.049,1.300,0.461,0.502
1.014,1.301,0.086,1.369,0.505,0.475
0.745,1.086,-0.210,1.135,0.277,0.258
0.189,0.463,-0.706,0.569,-0.342,-0.258
0.522,0.717,-0.395,0.916,0.084,-0.130
0.193,0.600,-0.778,0.618,-0.195,-0.342
-0.585,-0.230,-1.441,-0.113,-1.005,-1.019
-0.176,0.248,-1.033,0.335,-0.498,-0.621
0.584,1.055,-0.283,0.986,0.082,0.281
0.874,1.106,0.030,1.284,0.410,0.309
0.490,0.894,-0.482,0.843,-0.086,-0.047
0.129,0.538,-0.849,0.534,-0.361,-0.306
0.137,0.517,-0.869,0.520,-0.390,-0.420
0.568,0.791,-0.420,0.932,-0.127,0.054
0.124,0.435,-0.751,0.641,-0.457,-0.334
-0.158,0.041,-1.243,0.046,-0.597,-0.871
0.759,1.134,-0.185,1.116,0.341,0.210
0.432,0.787,-0.548,0.813,-0.092,-0.025
0.030,0.349,-0.957,0.489,-0.402,-0.525
0.575,0.780,-0.335,0.838,0.068,0.017
0.040,0.441,-0.792,0.621,-0.292,-0.408
0.465,0.721,-0.563,0.775,-0.145,-0.188
-0.223,0.213,-0.996,0.328,-0.601,-0.447
-0.304,0.071,-1.109,0.043,-0.838,-0.737
-0.378,-0.132,-1.322,0.108,-0.800,-0.690
-0.297,0.005,-1.140,0.124,-0.956,-0.752
0.636,0.906,-0.349,0.941,0.133,0.150
-0.528,-0.138,-1.506,-0.149,-1.011,-0.972
-0.252,0.131,-1.180,0.059,-0.734,-0.759
-0.061,0.133,-1.200,0.267,-0.656,-0.643
-0.374,-0.050,-1.456,-0.085,-0.790,-0.901
0.448,0.771,-0.452,0.816,-0.061,-0.045
0.771,1.057,-0.057,1.225,0.277,0.228
0.393,0.791,-0.547,0.854,-0.138,-0.107
0.805,1.158,0.047,1.344,0.422,0.379
-0.028,0.350,-0.850,0.400,-0.566,-0.407
0.334,0.562,-0.468,0.657,-0.342,-0.225
-0.029,0.226,-1.045,0.305,-0.653,-0.603
0.567,0.936,-0.316,1.042,0.061,-0.008
0.087,0.475,-0.839,0.576,-0.407,-0.239
-0.395,-0.008,-1.409,-0.102,-0.906,-0.866
0.005,0.170,-0.999,0.312,-0.392,-0.629
0.428,0.784,-0.496,0.959,-0.094,-0.165
0.253,0.540,-0.590,0.734,-0.090,-0.149
-0.496,-0.076,-1.493,-0.020,-1.070,-1.048
-0.399,-0.025,-1.256,-0.065,-0.908,-1.057
0.419,0.876,-0.615,0.853,-0.100,0.134
0.698,0.836,-0.108,0.945,0.120,0.139
0.631,1.058,-0.179,1.207,0.314,0.251
0.088,0.464,-0.857,0.420,-0.447,-0.498
0.505,0.724,-0.600,0.861,-0.072,-0.209
0.226,0.571,-0.954,0.623,-0.238,-0.373
0.477,0.764,-0.482,0.803,0.095,-0.140
-0.368,0.084,-1.300,0.018,-0.863,-0.969
-0.334,0.002,-1.309,0.074,-0.795,-0.728
0.304,0.587,-0.618,0.681,-0.130,-0.121
0.586,0.833,-0.388,0.959,0.141,-0.088
0.163,0.599,-0.564,0.727,-0.145,-0.137
0.038,0.379,-0.863,0.600,-0.385,-0.409
-0.026,0.374,-0.888,0.273,-0.679,-0.523
0.177,0.580,-0.617,0.629,-0.405,-0.141
-0.086,0.296,-1.043,0.329,-0.626,-0.571
0.921,1.199,-0.141,1.174,0.286,0.404
-0.084,0.261,-0.896,0.398,-0.490,-0.369
0.910,1.347,0.201,1.439,0.500,0.582
-0.002,0.437,-0.943,0.411,-0.346,-0.398
0.215,0.539,-0.885,0.513,-0.271,-0.211
0.277,0.546,-0.768,0.660,-0.124,-0.199
-0.127,0.164,-1.121,0.212,-0.614,-0.747
0.057,0.444,-0.834,0.552,-0.387,-0.377
0.068,0.413,-0.718,0.592,-0.403,-0.331
0.082,0.428,-1.055,0.575,-0.328,-0.479
0.394,0.702,-0.342,0.952,0.020,-0.019
0.421,0.754,-0.462,0.853,-0.072,0.071
0.962,1.302,-0.111,1.478,0.514,0.445
1.036,1.289,-0.082,1.383,0.539,0.506
-0.078,0.145,-1.008,0.285,-0.610,-0.565
-0.339,-0.031,-1.266,0.017,-0.920,-0.886
0.339,0.754,-0.526,0.781,-0.101,-0.192
-0.274,-0.053,-1.306,0.076,-0.789,-0.811
0.931,1.356,-0.001,1.464,0.432,0.504
0.226,0.509,-0.617,0.754,-0.240,-0.232
-0.168,0.128,-1.225,0.253,-0.660,-0.664
-0.125,0.360,-1.010,0.343,-0.557,-0.544
-0.231,0.033,-1.242,0.179,-0.840,-0.829
0.861,1.255,-0.087,1.264,0.245,0.359
0.161,0.413,-0.825,0.477,-0.342,-0.409
0.209,0.638,-0.798,0.510,-0.294,-0.275
0.278,0.698,-0.607,0.624,-0.148,-0.102
-0.403,0.058,-1.225,0.129,-0.869,-0.772
-0.553,-0.236,-1.531,-0.217,-1.118,-1.131
0.455,0.677,-0.428,0.785,-0.223,-0.119
0.343,0.674,-0.623,0.734,-0.054,-0.051
0.678,1.175,-0.153,1.079,0.371,0.299
-0.750,-0.396,-1.502,-0.193,-1.122,-1.237
-0.493,-0.301,-1.524,-0.158,-0.987,-1.066
0.057,0.472,-0.849,0.570,-0.431,-0.461
0.239,0.544,-0.581,0.680,-0.128,-0.187
0.055,0.390,-0.844,0.595,-0.309,-0.303
0.090,0.299,-0.952,0.462,-0.520,-0.432
-0.343,0.092,-1.268,0.181,-0.733,-0.676
0.147,0.410,-0.768,0.668,-0.222,-0.374
0.408,0.713,-0.572,0.829,-0.136,-0.159
-0.201,0.149,-1.124,0.139,-0.645,-0.650
0.175,0.675,-0.539,0.702,-0.264,-0.078
0.860,1.147,-0.011,1.347,0.324,0.398
0.715,0.920,-0.380,0.962,0.148,0.107
0.177,0.446,-0.836,0.484,-0.466,-0.322
-0.236,0.162,-1.080,0.223,-0.562,-0.561
-0.351,0.062,-1.322,0.071,-0.957,-0.876
-0.142,0.119,-1.120,0.163,-0.760,-0.860
0.920,1.226,-0.176,1.276,0.371,0.290
0.430,0.805,-0.567,0.856,-0.079,-0.138
0.386,0.677,-0.527,0.714,-0.170,-0.148
-0.208,0.055,-1.217,0.215,-0.681,-0.754
0.269,0.526,-0.895,0.670,-0.214,-0.293
0.369,0.717,-0.378,0.852,0.065,-0.040
-0.030,0.347,-0.932,0.350,-0.526,-0.401
0.670,0.899,-0.306,0.992,0.092,0.100
0.343,0.819,-0.468,0.765,-0.230,0.064
-0.158,0.212,-0.963,0.397,-0.501,-0.548
0.145,0.501,-0.676,0.612,-0.327,-0.517
-0.039,0.311,-0.966,0.320,-0.440,-0.624
0.474,0.771,-0.609,0.934,0.067,-0.035
-0.897,-0.582,-1.964,-0.488,-1.537,-1.372
0.436,0.878,-0.574,0.825,0.174,-0.110
0.361,0.671,-0.612,0.730,-0.153,-0.126
0.659,1.007,-0.335,1.120,0.148,0.184
-0.250,0.025,-1.388,0.107,-0.709,-0.795
0.245,0.738,-0.539,0.811,-0.015,0.008
0.608,0.932,-0.300,0.970,0.145,0.068
0.025,0.314,-0.845,0.484,-0.429,-0.469
0.007,0.330,-0.903,0.338,-0.467,-0.526
-0.168,0.193,-1.147,0.352,-0.647,-0.551
0.214,0.433,-0.557,0.671,-0.324,-0.276
0.007,0.326,-0.920,0.232,-0.495,-0.551
-0.295,0.076,-1.010,0.220,-0.537,-0.696
0.154,0.402,-0.918,0.370,-0.448,-0.587
-0.176,0.112,-1.123,0.136,-0.635,-0.655
0.220,0.602,-0.794,0.728,-0.242,-0.282
0.792,1.021,-0.121,1.275,0.237,0.296
-0.095,0.226,-1.018,0.207,-0.599,-0.586
0.247,0.586,-0.874,0.491,-0.252,-0.222
-0.048,0.281,-0.916,0.294,-0.565,-0.580
-0.417,-0.110,-1.329,0.005,-0.932,-0.841
0.175,0.551,-0.857,0.447,-0.457,-0.309
0.690,1.147,-0.052,1.255,0.246,0.172
0.927,1.210,0.049,1.307,0.450,0.295
0.076,0.399,-0.837,0.374,-0.402,-0.475
0.340,0.647,-0.740,0.701,-0.221,-0.182
0.382,0.683,-0.581,0.882,-0.117,-0.115
0.748,1.037,-0.155,1.125,0.215,0.253
-1.120,-0.720,-1.847,-0.484,-1.596,-1.378
-0.457,-0.269,-1.516,-0.147,-0.964,-1.038
0.951,1.268,0.041,1.490,0.533,0.454
0.329,0.779,-0.532,0.806,-0.034,-0.095
-0.047,0.357,-0.862,0.456,-0.479,-0.472
-0.293,0.028,-1.056,0.278,-0.750,-0.741
0.575,0.920,-0.423,1.008,0.144,0.108
0.449,0.746,-0.380,0.853,-0.040,0.137
-0.306,0.064,-1.205,0.179,-0.602,-0.602
0.297,0.683,-0.773,0.712,-0.179,-0.122
0.683,1.079,-0.133,1.290,0.340,0.228
0.043,0.315,-1.070,0.276,-0.507,-0.533
0.134,0.435,-0.770,0.569,-0.325,-0.373
-0.295,0.069,-1.223,0.172,-0.759,-0.842
-0.104,0.366,-0.978,0.429,-0.553,-0.553
0.668,1.063,-0.387,1.128,0.108,0.145
0.336,0.699,-0.547,0.928,-0.009,-0.024
0.301,0.636,-0.348,0.830,-0.031,0.028
-0.509,-0.162,-1.498,-0.098,-0.892,-0.955
0.742,1.072,-0.372,1.035,0.257,0.206
0.062,0.403,-0.985,0.461,-0.562,-0.610
-0.013,0.409,-1.041,0.443,-0.412,-0.491
-0.259,0.021,-1.269,0.078,-0.919,-0.786
0.723,1.042,-0.158,1.107,0.106,0.207
-0.158,0.249,-1.200,0.315,-0.649,-0.643
0.586,0.948,-0.480,1.031,0.114,0.064
0.230,0.443,-0.667,0.412,-0.376,-0.437
0.529,0.817,-0.448,0.918,-0.064,0.053
0.543,0.849,-0.374,0.959,-0.068,0.150
0.682,1.171,-0.203,1.169,0.307,0.298
1.262,1.521,0.217,1.528,0.740,0.634
0.666,0.999,-0.126,1.079,0.280,0.206
0.318,0.787,-0.524,0.754,-0.046,0.026
0.992,1.383,0.154,1.500,0.664,0.589
-0.449,-0.221,-1.415,-0.011,-1.013,-0.901
0.468,0.865,-0.508,0.871,-0.115,0.088
0.761,1.134,-0.067,1.118,0.283,0.371
0.276,0.538,-0.598,0.648,-0.243,-0.209
-0.072,0.183,-1.054,0.278,-0.552,-0.636
0.382,0.706,-0.504,0.778,-0.067,-0.092
0.849,1.201,-0.025,1.233,0.345,0.397
0.006,0.370,-0.960,0.492,-0.519,-0.542
0.121,0.563,-0.722,0.661,-0.261,-0.394
0.416,0.783,-0.512,0.828,-0.035,-0.041
0.981,1.411,0.050,1.396,0.436,0.478
0.627,0.992,-0.313,0.978,0.153,0.003
0.105,0.489,-0.782,0.626,-0.290,-0.360
0.838,1.056,-0.241,1.184,0.271,0.207
0.188,0.429,-0.728,0.541,-0.383,-0.349
0.861,1.027,-0.101,1.235,0.440,0.210
-0.567,-0.248,-1.665,-0.249,-1.188,-1.156
0.506,0.898,-0.522,0.907,-0.176,0.021
-0.001,0.372,-0.854,0.464,-0.572,-0.458
0.293,0.555,-0.773,0.581,-0.156,-0.302
-0.261,0.027,-1.332,0.055,-0.819,-0.849
1.165,1.369,0.020,1.542,0.628,0.610
0.500,0.924,-0.456,0.974,-0.039,0.012
0.000,0.298,-0.787,0.408,-0.464,-0.464
-0.355,-0.051,-1.349,-0.040,-0.942,-1.002
-0.603,-0.254,-1.552,-0.098,-0.878,-0.950
-0.253,0.075,-1.132,0.179,-0.714,-0.751
-0.401,0.025,-1.289,-0.104,-0.907,-0.828
0.009,0.348,-0.874,0.615,-0.302,-0.499
-0.892,-0.491,-1.883,-0.363,-1.248,-1.351
0.403,0.866,-0.555,0.722,-0.112,-0.103
0.601,0.977,-0.311,1.015,0.093,0.114
-0.044,0.323,-1.025,0.263,-0.564,-0.568
0.348,0.760,-0.504,0.778,-0.046,-0.132
0.235,0.484,-0.705,0.646,-0.301,-0.331
-0.478,-0.316,-1.567,-0.241,-1.093,-1.110
0.184,0.615,-0.803,0.682,-0.247,-0.213
0.597,0.858,-0.200,0.996,0.208,0.170
0.410,0.727,-0.473,0.808,-0.106,-0.105
0.640,0.947,-0.356,0.972,0.229,0.158
0.455,0.705,-0.550,0.755,0.073,-0.200
0.597,0.973,-0.241,0.934,0.114,0.158
0.007,0.294,-0.928,0.328,-0.595,-0.529
0.836,1.168,-0.047,1.170,0.251,0.418
-0.503,-0.284,-1.280,-0.085,-1.057,-1.006
-0.234,0.137,-1.139,0.121,-0.769,-0.736
0.151,0.417,-1.067,0.526,-0.401,-0.471
0.843,1.252,0.084,1.348,0.403,0.436
1.175,1.601,0.264,1.613,0.888,0.770
0.443,0.838,-0.337,0.899,0.081,0.023
-0.021,0.279,-0.915,0.510,-0.511,-0.455
-0.135,0.208,-1.058,0.236,-0.478,-0.602
-0.159,-0.062,-1.208,0.143,-0.723,-0.834
-0.064,0.360,-0.967,0.346,-0.503,-0.495
0.239,0.464,-0.686,0.625,-0.251,-0.318
0.630,1.014,-0.309,1.092,0.253,0.146
0.721,1.077,-0.047,1.262,0.340,0.376
-0.111,0.197,-1.186,0.232,-0.827,-0.644
0.820,1.082,-0.105,1.302,0.360,0.422
0.940,1.283,0.132,1.444,0.470,0.470
0.876,1.217,-0.191,1.288,0.341,0.222
0.056,0.315,-0.873,0.520,-0.421,-0.557
-0.366,-0.017,-1.100,0.088,-0.861,-0.735
0.580,0.942,-0.489,1.055,0.083,0.176
0.151,0.494,-0.811,0.597,-0.380,-0.343
0.006,0.166,-1.267,0.293,-0.633,-0.595
-0.112,0.150,-1.088,0.260,-0.489,-0.564
0.116,0.388,-0.793,0.487,-0.338,-0.348
0.607,0.773,-0.393,1.018,0.114,0.077
-0.008,0.231,-0.939,0.374,-0.643,-0.496
0.152,0.475,-0.899,0.481,-0.349,-0.439
-0.014,0.286,-1.102,0.421,-0.460,-0.477
0.461,0.796,-0.493,0.905,0.133,-0.084
-0.391,-0.027,-1.193,0.086,-0.663,-0.931
0.192,0.516,-0.737,0.641,-0.057,-0.201
-0.297,-0.001,-1.197,0.211,-0.679,-0.741
0.213,0.501,-0.809,0.686,-0.156,-0.395
0.483,0.916,-0.384,0.905,0.008,0.058
0.762,1.170,-0.220,1.156,0.253,0.278
0.545,0.778,-0.498,0.760,0.013,0.089
-0.452,-0.092,-1.496,-0.061,-0.920,-0.905
-0.342,0.072,-1.334,0.130,-0.571,-0.809
0.056,0.301,-0.839,0.402,-0.476,-0.479
0.195,0.567,-0.725,0.655,-0.163,-0.349
0.507,0.950,-0.512,0.860,-0.041,-0.001
0.337,0.670,-0.527,0.708,-0.173,-0.197
-0.388,-0.169,-1.414,0.024,-0.746,-0.998
0.548,0.915,-0.287,0.966,0.033,0.176
0.217,0.661,-0.524,0.732,-0.189,-0.072
0.943,1.147,0.028,1.215,0.538,0.369
-0.309,-0.007,-1.334,-0.028,-0.903,-0.909
-0.535,-0.218,-1.434,-0.048,-1.113,-0.892
0.261,0.682,-0.670,0.633,-0.288,-0.267
-0.353,-0.029,-1.313,0.063,-0.864,-1.009
-0.118,0.231,-1.035,0.320,-0.546,-0.636
0.168,0.475,-0.825,0.488,-0.445,-0.360
0.615,0.880,-0.503,0.914,0.059,-0.030
0.547,0.834,-0.536,1.030,0.115,0.034
0.756,0.996,-0.405,1.174,0.275,0.266
-0.663,-0.230,-1.615,-0.339,-1.181,-1.171
0.508,0.752,-0.491,0.784,-0.117,0.028
0.780,1.042,-0.159,1.022,0.198,0.189
0.066,0.458,-0.898,0.444,-0.340,-0.340
-0.073,0.331,-0.960,0.413,-0.420,-0.408
0.061,0.341,-1.050,0.290,-0.486,-0.509
-0.110,0.146,-1.228,0.125,-0.565,-0.511
-0.303,0.008,-1.237,-0.009,-0.892,-0.838
0.106,0.492,-0.779,0.488,-0.366,-0.326
-0.132,0.284,-0.860,0.395,-0.618,-0.597
-0.608,-0.274,-1.593,-0.156,-1.089,-1.038
-0.543,-0.186,-1.545,-0.081,-1.056,-0.998
-0.095,0.227,-1.084,0.280,-0.523,-0.638
0.808,1.160,-0.119,1.218,0.460,0.265
0.697,0.999,-0.249,1.018,0.173,0.093
0.588,0.892,-0.322,1.031,0.055,0.169
0.354,0.507,-0.600,0.726,-0.022,-0.257
0.249,0.579,-0.803,0.583,-0.267,-0.294
-0.239,0.119,-1.043,0.239,-0.628,-0.704
0.821,0.999,0.101,1.145,0.323,0.375
0.064,0.586,-0.765,0.605,-0.393,-0.373
0.442,0.775,-0.505,0.789,-0.023,-0.085
0.665,0.909,-0.186,1.024,0.151,0.123
-0.169,0.117,-1.293,0.188,-0.672,-0.655
0.557,0.930,-0.436,1.006,0.079,0.095
-0.402,-0.273,-1.434,0.050,-0.913,-1.061
0.549,0.876,-0.354,1.016,0.036,0.110
0.364,0.511,-0.549,0.715,-0.263,-0.169
-0.481,-0.220,-1.391,-0.067,-1.084,-0.978
-0.981,-0.608,-1.855,-0.611,-1.441,-1.525
0.442,0.937,-0.411,0.942,-0.010,0.100
0.440,0.688,-0.368,0.899,0.022,-0.006
0.451,0.834,-0.540,0.809,-0.030,-0.081
0.133,0.459,-0.774,0.653,-0.347,-0.390
0.593,0.923,-0.528,0.897,0.134,0.056
-0.075,0.274,-0.987,0.392,-0.547,-0.488
0.427,0.771,-0.379,0.914,0.063,0.083
0.932,1.335,-0.044,1.351,0.441,0.459
0.324,0.571,-0.716,0.719,-0.245,-0.191
-0.085,0.298,-1.151,0.236,-0.574,-0.647
0.346,0.583,-0.727,0.660,-0.312,-0.197
0.146,0.373,-0.699,0.586,-0.425,-0.271
0.497,0.862,-0.398,0.918,0.047,0.056
-0.019,0.294,-0.931,0.384,-0.588,-0.557
0.233,0.611,-0.854,0.519,-0.323,-0.163
0.275,0.558,-0.773,0.746,-0.299,-0.374
-0.047,0.325,-0.920,0.459,-0.433,-0.428
0.261,0.574,-0.786,0.577,-0.234,-0.182
1.351,1.667,0.319,1.741,0.767,0.806
-0.548,-0.042,-1.472,-0.111,-1.090,-0.968
0.312,0.691,-0.604,0.777,-0.189,-0.276
0.437,0.721,-0.458,0.874,-0.046,-0.032
0.115,0.404,-0.878,0.471,-0.377,-0.355
-0.061,0.233,-1.015,0.237,-0.434,-0.771
0.152,0.504,-0.748,0.584,-0.231,-0.406
-0.428,-0.033,-1.438,-0.017,-0.868,-0.960
-0.001,0.191,-1.117,0.188,-0.677,-0.529
0.403,0.683,-0.592,0.811,0.035,-0.279
0.379,0.712,-0.508,0.731,-0.051,-0.236
0.124,0.546,-0.902,0.535,-0.377,-0.484
0.369,0.747,-0.488,0.895,-0.035,-0.055
-0.270,-0.000,-1.100,0.101,-0.834,-0.807
0.360,0.633,-0.371,0.827,-0.113,-0.018
-0.274,-0.119,-1.230,-0.006,-0.812,-0.758
0.940,1.275,-0.039,1.331,0.465,0.342
0.329,0.797,-0.638,0.761,-0.082,-0.123
0.693,0.957,-0.339,1.005,0.143,0.273
0.413,0.666,-0.530,0.683,-0.031,-0.164
1.038,1.344,0.055,1.407,0.571,0.523
0.136,0.425,-0.858,0.520,-0.516,-0.359
-0.458,-0.102,-1.339,-0.104,-0.968,-0.921
-0.153,0.171,-0.998,0.325,-0.495,-0.573
-0.576,-0.203,-1.387,-0.146,-1.059,-1.106
0.361,0.797,-0.520,0.716,-0.143,-0.048
0.489,0.819,-0.375,0.954,0.101,0.207
0.745,1.194,-0.221,1.170,0.239,0.326
0.674,1.060,-0.402,1.218,0.401,0.174
0.684,1.035,-0.309,1.025,0.094,0.089
0.120,0.393,-0.627,0.543,-0.336,-0.472
-0.196,0.030,-1.081,0.149,-0.715,-0.786
-0.031,0.379,-0.930,0.468,-0.430,-0.434
-0.162,0.132,-1.044,0.210,-0.844,-0.693
0.995,1.251,0.095,1.307,0.453,0.401
0.297,0.712,-0.566,0.741,-0.282,-0.171
-0.644,-0.250,-1.571,-0.240,-1.195,-1.165
0.346,0.557,-0.767,0.617,-0.246,-0.185
-0.131,0.137,-0.966,0.310,-0.629,-0.686
-0.072,0.322,-1.011,0.322,-0.437,-0.542
0.625,0.910,-0.142,1.079,0.156,0.156
-0.236,0.163,-0.950,0.372,-0.684,-0.511
0.196,0.539,-0.762,0.607,-0.400,-0.361
0.594,0.954,-0.490,1.019,0.112,0.036
-0.298,-0.014,-1.247,0.181,-0.769,-0.789
0.081,0.421,-0.939,0.477,-0.287,-0.483
0.486,0.902,-0.525,0.840,0.133,0.139
0.050,0.393,-0.945,0.493,-0.379,-0.323
0.201,0.742,-0.571,0.807,-0.282,-0.168
0.187,0.388,-0.855,0.490,-0.295,-0.450
0.316,0.769,-0.485,0.822,-0.171,-0.087
-0.124,0.187,-1.016,0.339,-0.708,-0.598
0.467,0.711,-0.529,0.760,-0.147,-0.052
-0.929,-0.741,-2.060,-0.631,-1.356,-1.446
0.656,1.022,-0.056,1.167,0.223,0.217
0.145,0.471,-0.693,0.475,-0.546,-0.289
-0.155,0.304,-1.013,0.374,-0.462,-0.576
0.462,0.771,-0.451,0.856,0.140,0.013
0.213,0.550,-0.753,0.569,-0.292,-0.297
0.240,0.485,-0.739,0.673,-0.293,-0.283
0.108,0.507,-0.740,0.441,-0.338,-0.476
0.947,1.336,0.211,1.352,0.381,0.432
0.374,0.712,-0.530,0.892,-0.022,-0.109
0.093,0.364,-0.782,0.421,-0.501,-0.458
0.224,0.532,-0.675,0.751,-0.192,-0.222
0.302,0.590,-0.906,0.629,-0.224,-0.228
0.615,0.845,-0.387,1.133,0.084,0.150
0.251,0.496,-0.919,0.630,-0.325,-0.458
0.211,0.620,-0.515,0.694,-0.176,-0.197
0.324,0.620,-0.603,0.715,-0.091,-0.163
0.202,0.611,-0.873,0.528,-0.357,-0.297
0.073,0.358,-1.033,0.449,-0.448,-0.367
0.129,0.478,-0.785,0.518,-0.319,-0.406
-0.119,0.270,-1.039,0.285,-0.554,-0.627
0.436,0.755,-0.584,0.729,0.035,-0.166
0.699,0.879,-0.354,1.152,0.156,0.006
0.644,0.939,-0.463,0.921,0.017,-0.093
0.337,0.624,-0.809,0.576,-0.247,-0.295
-0.326,0.207,-1.207,0.142,-0.841,-0.685
0.718,1.025,-0.180,1.116,0.174,0.139
0.701,0.976,-0.325,0.983,0.157,0.101
0.149,0.655,-0.657,0.663,-0.282,-0.250
0.356,0.751,-0.597,0.842,-0.016,-0.178
0.383,0.655,-0.470,0.740,-0.029,-0.175
-0.196,0.039,-1.141,0.260,-0.658,-0.762
0.101,0.477,-0.650,0.659,-0.203,-0.304
0.366,0.723,-0.415,0.959,0.038,0.038
0.101,0.544,-0.645,0.684,-0.222,-0.376
0.392,0.760,-0.603,0.900,-0.139,-0.108
-0.262,0.074,-1.251,0.116,-0.850,-0.812
-0.206,0.137,-1.165,0.048,-0.707,-0.740
0.075,0.388,-0.825,0.402,-0.422,-0.362
-0.000,0.289,-1.112,0.312,-0.559,-0.512
-0.302,-0.098,-1.271,-0.032,-0.911,-0.931
-0.386,-0.090,-1.304,-0.045,-0.678,-0.932
-0.417,-0.074,-1.489,-0.139,-1.003,-0.938
0.309,0.637,-0.755,0.488,-0.280,-0.385
-0.073,0.168,-0.970,0.158,-0.606,-0.612
0.674,1.036,-0.096,1.088,0.108,0.179
-0.084,0.385,-0.994,0.448,-0.379,-0.474
0.291,0.639,-0.854,0.619,-0.175,-0.189
0.135,0.609,-0.878,0.524,-0.310,-0.273
0.527,0.975,-0.306,0.912,0.031,0.151
0.602,0.921,-0.354,0.961,0.189,0.160
0.129,0.510,-0.765,0.541,-0.358,-0.476
-0.060,0.276,-0.951,0.328,-0.511,-0.500
-0.410,-0.126,-1.333,0.014,-0.878,-1.018
0.648,0.982,-0.280,1.078,0.220,0.188
0.654,0.934,-0.312,1.046,0.241,0.016
0.883,1.235,0.034,1.449,0.629,0.553
0.045,0.387,-0.909,0.450,-0.503,-0.366
0.287,0.706,-0.907,0.613,-0.242,-0.199
0.101,0.457,-0.755,0.706,-0.229,-0.270
0.241,0.538,-0.512,0.737,-0.228,-0.209
0.122,0.485,-0.843,0.599,-0.342,-0.359
0.416,0.671,-0.542,0.732,-0.133,0.003
-0.458,-0.274,-1.431,-0.173,-0.988,-1.109
0.743,1.032,-0.202,1.098,0.142,0.274
-0.117,0.159,-0.970,0.342,-0.384,-0.533
0.617,0.812,-0.344,0.900,0.071,0.114
0.401,0.687,-0.616,0.664,-0.197,-0.228
0.529,0.963,-0.485,0.941,0.121,0.093
0.096,0.451,-0.801,0.568,-0.297,-0.405
0.110,0.485,-0.795,0.567,-0.464,-0.381
0.408,0.733,-0.527,0.828,-0.075,-0.067
0.350,0.530,-0.542,0.784,-0.179,-0.260
0.428,0.709,-0.666,0.867,0.078,-0.027
0.327,0.615,-0.709,0.757,-0.247,-0.250
0.350,0.667,-0.587,0.732,-0.188,-0.215
0.332,0.692,-0.435,0.848,-0.014,0.064
0.988,1.156,-0.021,1.316,0.397,0.397
0.238,0.551,-0.592,0.658,-0.263,-0.344
0.724,1.056,-0.135,1.091,0.189,0.196
0.306,0.615,-0.571,0.750,-0.184,-0.199
1.016,1.220,0.128,1.493,0.616,0.426
0.132,0.371,-0.702,0.461,-0.234,-0.422
-0.297,-0.028,-1.193,0.159,-0.719,-0.747
0.383,0.601,-0.491,0.860,-0.107,-0.210
0.946,1.313,0.005,1.264,0.483,0.504
0.651,0.948,-0.238,0.928,0.149,-0.006
0.429,0.769,-0.351,0.935,0.118,-0.097
0.083,0.375,-0.764,0.553,-0.416,-0.297
0.294,0.593,-0.678,0.697,-0.175,-0.047
0.154,0.552,-0.737,0.603,-0.194,-0.211
-0.613,-0.240,-1.645,-0.217,-1.100,-1.014
0.824,1.158,0.040,1.320,0.246,0.439
0.059,0.365,-0.855,0.523,-0.590,-0.496
-0.138,0.140,-1.096,0.277,-0.651,-0.713
0.255,0.683,-0.655,0.691,-0.262,-0.150
-0.331,0.024,-1.049,0.156,-0.888,-0.687
0.463,0.873,-0.267,0.887,0.112,0.026
0.300,0.599,-0.407,0.755,-0.350,-0.056
0.119,0.368,-0.745,0.428,-0.515,-0.332
0.249,0.496,-0.659,0.703,-0.159,-0.316
0.103,0.538,-0.659,0.604,-0.307,-0.293
-0.519,-0.172,-1.457,-0.243,-1.095,-1.013
0.382,0.645,-0.588,0.760,-0.192,-0.147
-0.033,0.353,-0.925,0.480,-0.534,-0.330
0.259,0.655,-0.691,0.570,-0.255,-0.238
0.931,1.272,0.092,1.340,0.520,0.510
0.286,0.701,-0.542,0.751,-0.330,-0.056
-1.125,-0.713,-1.844,-0.583,-1.446,-1.424
0.388,0.824,-0.547,0.661,-0.192,0.006
-0.067,0.172,-1.095,0.313,-0.606,-0.580
0.852,1.163,0.003,1.227,0.306,0.332
0.623,1.065,-0.157,1.177,0.192,0.219
0.173,0.441,-0.844,0.457,-0.441,-0.222
-0.706,-0.340,-1.798,-0.329,-1.234,-0.998
-0.098,0.165,-1.110,0.296,-0.658,-0.626
0.318,0.714,-0.604,0.737,-0.196,-0.090
-0.428,-0.023,-1.410,0.026,-0.903,-0.757
0.606,0.982,-0.231,0.973,0.251,0.084
-0.613,-0.294,-1.463,-0.159,-0.983,-0.821
0.391,0.786,-0.611,0.727,-0.028,-0.061
0.017,0.403,-0.988,0.397,-0.349,-0.355
-0.160,0.277,-1.067,0.164,-0.773,-0.703
0.521,0.886,-0.237,1.070,0.145,0.035
0.126,0.572,-0.504,0.692,-0.158,-0.232
0.398,0.640,-0.632,0.754,-0.227,-0.195
0.463,0.802,-0.662,0.876,-0.057,-0.169
-0.202,0.191,-0.852,0.277,-0.673,-0.482
-0.349,-0.152,-1.331,0.024,-0.990,-1.020
0.263,0.689,-0.669,0.866,-0.160,-0.112
0.475,0.734,-0.368,0.962,-0.000,0.002
0.127,0.452,-0.941,0.462,-0.634,-0.382
0.366,0.701,-0.540,0.770,-0.181,0.111
-0.014,0.331,-0.954,0.318,-0.531,-0.552
-0.335,0.020,-1.197,0.164,-0.703,-0.818
0.643,0.915,-0.349,1.061,0.102,0.240
0.451,0.799,-0.486,0.864,-0.086,-0.039
0.371,0.707,-0.350,0.906,-0.039,-0.146
0.256,0.523,-0.784,0.554,-0.324,-0.290
-0.087,0.230,-1.029,0.463,-0.399,-0.625
0.317,0.444,-0.771,0.499,-0.280,-0.371
-0.324,0.066,-1.172,0.096,-0.742,-0.783
-0.266,0.050,-1.181,0.022,-0.755,-0.731
0.163,0.578,-0.827,0.583,-0.264,-0.189
-0.366,-0.007,-1.304,0.118,-0.875,-0.781
-0.553,-0.223,-1.410,-0.022,-1.177,-1.005
0.299,0.485,-0.684,0.668,-0.167,-0.353
0.315,0.636,-0.629,0.751,-0.295,-0.208
0.774,1.095,-0.328,1.148,0.270,0.202
0.402,0.507,-0.722,0.697,-0.224,-0.289
-0.092,0.079,-1.142,0.233,-0.603,-0.704
0.085,0.463,-0.972,0.393,-0.349,-0.379
0.062,0.213,-0.913,0.416,-0.416,-0.586
-0.500,-0.235,-1.546,-0.044,-0.997,-1.103
0.463,0.865,-0.408,1.038,-0.062,-0.088
0.589,0.918,-0.476,1.042,0.088,0.033
-0.066,0.243,-0.961,0.440,-0.363,-0.550
0.463,0.771,-0.387,0.844,-0.099,0.147
-0.371,-0.056,-1.304,-0.088,-0.859,-1.084
0.120,0.369,-0.868,0.502,-0.326,-0.464
-0.130,0.252,-0.991,0.165,-0.766,-0.563
0.555,0.844,-0.528,0.801,-0.139,-0.069
-0.437,-0.249,-1.431,-0.018,-0.868,-0.976
0.646,0.990,-0.209,1.187,0.207,0.227
0.061,0.367,-0.832,0.526,-0.372,-0.537
0.253,0.559,-0.602,0.627,-0.245,-0.151
-0.347,-0.057,-1.394,-0.028,-0.869,-0.859
0.232,0.485,-0.786,0.629,-0.407,-0.366
-0.051,0.341,-0.922,0.370,-0.499,-0.517
0.004,0.347,-0.738,0.497,-0.430,-0.436
0.391,0.702,-0.519,0.836,-0.064,-0.182
0.325,0.683,-0.673,0.795,-0.066,-0.106
-0.331,-0.103,-1.204,0.114,-0.823,-0.740
-0.006,0.286,-1.070,0.327,-0.608,-0.494
0.749,1.047,-0.336,1.085,0.189,0.126
0.689,1.159,-0.303,1.075,0.147,0.220
0.538,0.845,-0.454,0.908,-0.000,-0.081
0.925,1.358,0.140,1.424,0.531,0.494
0.023,0.284,-0.837,0.559,-0.299,-0.467
-0.585,-0.335,-1.596,-0.141,-1.027,-1.120
0.213,0.420,-0.730,0.646,-0.250,-0.432
0.617,1.022,-0.394,1.106,0.218,-0.049
0.732,1.111,-0.146,1.213,0.307,0.255
-0.037,0.314,-1.211,0.310,-0.571,-0.599
0.513,0.873,-0.494,0.946,0.136,-0.028
0.347,0.592,-0.588,0.709,-0.128,-0.275
0.429,0.816,-0.543,0.812,0.037,-0.210
0.475,0.914,-0.495,0.951,-0.023,-0.059
0.611,0.842,-0.518,0.972,0.142,-0.057
-0.935,-0.576,-1.725,-0.470,-1.333,-1.461
0.238,0.490,-0.856,0.574,-0.380,-0.369
-0.465,-0.046,-1.604,-0.081,-0.983,-1.050
0.010,0.299,-1.114,0.423,-0.508,-0.580
0.868,1.111,-0.221,1.136,0.326,0.247
0.449,0.821,-0.704,0.985,0.075,-0.076
0.082,0.472,-0.750,0.457,-0.397,-0.396
0.816,1.037,-0.392,1.092,0.205,0.185
-0.020,0.337,-0.856,0.419,-0.553,-0.535
0.591,0.850,-0.223,0.995,0.077,0.137
0.036,0.557,-0.957,0.468,-0.464,-0.480
0.102,0.382,-0.885,0.508,-0.256,-0.338
0.038,0.356,-0.761,0.470,-0.408,-0.580
0.092,0.545,-0.858,0.631,-0.333,-0.353
0.211,0.660,-0.763,0.713,-0.121,-0.131
0.782,1.027,-0.184,1.172,0.165,0.270
0.198,0.498,-0.842,0.513,-0.300,-0.170
-0.512,-0.226,-1.528,-0.200,-0.976,-1.099
-0.228,0.187,-1.153,0.128,-0.738,-0.594
0.061,0.244,-0.949,0.450,-0.378,-0.457
0.797,1.089,-0.391,1.140,0.193,0.206
0.239,0.578,-0.756,0.592,-0.188,-0.178
-0.640,-0.379,-1.410,-0.185,-1.200,-1.045
0.197,0.485,-0.833,0.593,-0.244,-0.374
0.220,0.523,-0.947,0.507,-0.418,-0.370
-0.186,0.301,-1.046,0.319,-0.557,-0.566
0.720,1.060,-0.236,1.202,0.372,0.201
-0.783,-0.378,-1.757,-0.296,-1.330,-1.155
0.027,0.289,-0.886,0.479,-0.571,-0.428
0.035,0.390,-1.010,0.456,-0.344,-0.566
0.701,0.989,-0.229,1.104,0.303,0.288
-0.358,0.023,-1.340,0.028,-0.825,-0.902
-0.126,0.179,-1.083,0.287,-0.667,-0.755
0.634,0.977,-0.406,0.978,0.159,0.053
0.333,0.590,-0.626,0.632,-0.209,-0.137
0.309,0.596,-0.731,0.566,-0.331,-0.354
0.599,1.071,-0.404,0.996,0.172,0.165
0.040,0.356,-1.033,0.415,-0.414,-0.514
-0.103,0.097,-0.908,0.248,-0.587,-0.598
0.568,0.808,-0.247,0.969,0.138,0.071
0.458,0.690,-0.434,0.897,-0.043,-0.121
0.080,0.389,-0.986,0.503,-0.368,-0.413
0.382,0.791,-0.651,0.670,-0.115,-0.125
0.458,0.727,-0.566,0.911,-0.088,-0.137
1.033,1.461,0.071,1.460,0.656,0.544
0.093,0.399,-0.819,0.493,-0.315,-0.354
0.539,0.761,-0.455,0.953,0.017,0.055
0.615,0.951,-0.386,0.972,0.229,0.119
-0.293,-0.080,-1.399,-0.054,-0.883,-0.880
-0.504,-0.034,-1.389,-0.178,-0.993,-0.912
0.107,0.258,-0.891,0.519,-0.285,-0.426
0.225,0.528,-0.914,0.601,-0.389,-0.276
-0.085,0.233,-0.735,0.443,-0.518,-0.422
0.072,0.496,-0.753,0.485,-0.273,-0.496
0.770,1.082,-0.099,1.112,0.400,0.254
-0.162,-0.025,-1.179,0.075,-0.730,-0.798
-0.024,0.276,-0.935,0.263,-0.600,-0.469
0.142,0.417,-0.754,0.528,-0.448,-0.404
0.149,0.447,-0.976,0.516,-0.322,-0.300
0.171,0.412,-0.829,0.653,-0.331,-0.221
-0.454,-0.121,-1.578,-0.144,-0.759,-0.972
0.350,0.622,-0.695,0.605,-0.227,-0.219
0.850,1.078,-0.093,1.157,0.141,0.339
-0.424,-0.116,-1.391,0.010,-0.781,-0.952
0.249,0.458,-0.982,0.666,-0.243,-0.318
-0.472,-0.187,-1.623,-0.199,-1.050,-0.955
0.490,0.835,-0.480,0.941,0.036,0.183
0.338,0.678,-0.662,0.677,-0.220,-0.145
0.253,0.513,-0.921,0.611,-0.403,-0.231
-0.265,0.221,-1.033,0.195,-0.783,-0.667
0.692,0.871,-0.380,1.004,0.106,-0.034
0.228,0.564,-0.736,0.605,-0.281,-0.191
0.292,0.551,-0.721,0.675,-0.266,-0.178
0.488,0.747,-0.498,0.780,0.026,-0.119
0.128,0.425,-0.843,0.472,-0.398,-0.339
0.490,0.967,-0.585,0.906,0.010,0.037
0.634,0.958,-0.573,0.949,0.085,0.072
0.763,1.044,-0.444,1.064,0.227,0.070
-0.042,0.188,-1.055,0.380,-0.631,-0.687
0.147,0.567,-0.724,0.566,-0.226,-0.321
-0.076,0.292,-0.842,0.596,-0.473,-0.389
1.081,1.349,0.081,1.453,0.383,0.588
0.316,0.632,-0.542,0.681,-0.235,-0.150
0.758,1.066,-0.321,1.035,0.162,0.203
-0.008,0.256,-1.126,0.235,-0.646,-0.616
0.824,1.248,-0.019,1.198,0.366,0.353
-0.104,0.299,-1.046,0.345,-0.557,-0.563
-0.111,0.265,-1.232,0.212,-0.683,-0.663
0.917,1.240,-0.049,1.302,0.491,0.406
0.268,0.678,-0.599,0.665,-0.300,-0.250
-0.764,-0.466,-1.597,-0.309,-1.325,-1.149
0.167,0.533,-0.611,0.758,-0.100,-0.198
0.769,1.078,-0.231,1.153,0.287,0.201
-0.083,0.160,-0.962,0.334,-0.526,-0.587
-0.147,0.077,-1.045,0.234,-0.608,-0.620
0.111,0.534,-0.823,0.534,-0.317,-0.335
0.113,0.478,-0.666,0.599,-0.256,-0.235
-0.735,-0.291,-1.755,-0.337,-1.185,-1.096
-0.406,-0.133,-1.329,-0.024,-0.809,-0.863
-0.505,-0.164,-1.521,-0.108,-1.007,-1.038
0.336,0.632,-0.678,0.555,-0.251,-0.216
0.427,0.856,-0.475,0.907,0.031,0.029
0.625,0.968,-0.302,0.993,0.006,0.101
-0.049,0.276,-1.053,0.403,-0.520,-0.584
0.800,1.166,-0.001,1.240,0.452,0.290
0.826,1.172,0.007,1.344,0.529,0.421
0.568,0.847,-0.359,1.027,0.075,0.025
0.273,0.641,-0.416,0.707,-0.254,-0.151
0.246,0.520,-0.719,0.678,-0.298,-0.225
0.040,0.160,-1.087,0.278,-0.450,-0.661
-0.295,-0.029,-1.239,0.023,-0.847,-0.922
0.561,0.785,-0.533,0.920,-0.034,-0.066
-0.275,-0.004,-1.252,0.019,-0.781,-0.869
0.310,0.724,-0.721,0.711,-0.128,-0.238
-0.191,0.180,-1.177,0.247,-0.672,-0.703
-0.072,0.208,-0.997,0.335,-0.527,-0.536
-0.066,0.204,-1.006,0.446,-0.498,-0.472
0.736,1.073,-0.361,1.109,0.187,0.254
0.257,0.603,-0.880,0.481,-0.349,-0.141
0.476,0.745,-0.422,0.802,-0.092,0.051
0.852,1.202,0.014,1.356,0.449,0.387
-0.001,0.332,-0.999,0.395,-0.442,-0.467
-0.539,-0.321,-1.465,-0.050,-1.046,-1.108
0.279,0.567,-0.696,0.712,-0.118,-0.205
-0.455,0.008,-1.383,-0.021,-1.019,-0.837
0.328,0.570,-0.454,0.693,-0.225,-0.244
0.468,0.786,-0.421,0.893,0.091,-0.068
0.626,0.898,-0.390,1.089,0.148,0.148
0.199,0.599,-0.647,0.527,-0.288,-0.287
0.324,0.710,-0.752,0.687,-0.151,-0.188
1.006,1.318,0.071,1.537,0.541,0.577
0.801,1.087,-0.087,1.173,0.242,0.248
0.012,0.403,-0.881,0.485,-0.504,-0.547
0.405,0.681,-0.517,0.959,-0.044,-0.125
0.150,0.477,-0.820,0.582,-0.382,-0.384
-0.124,0.179,-1.114,0.206,-0.685,-0.634
-0.309,0.031,-1.291,0.077,-0.755,-0.910
-0.019,0.392,-0.824,0.452,-0.423,-0.423
0.476,0.805,-0.469,0.963,0.048,0.024
-0.447,-0.038,-1.432,0.173,-0.860,-0.956
-0.168,0.250,-0.971,0.317,-0.658,-0.538
0.128,0.576,-0.728,0.547,-0.288,-0.326
0.281,0.576,-0.892,0.632,-0.257,-0.291
0.435,0.833,-0.473,0.968,0.125,0.130
1.040,1.272,0.109,1.397,0.447,0.496
0.537,0.983,-0.306,0.925,-0.015,0.230
0.323,0.558,-0.683,0.633,-0.104,-0.301
0.444,0.648,-0.474,0.801,-0.076,0.017
0.394,0.628,-0.444,0.823,-0.041,-0.099
0.527,0.818,-0.408,0.980,0.056,-0.122
0.417,0.689,-0.438,0.931,0.003,-0.038
0.741,0.998,-0.238,1.138,0.177,0.238
-0.433,-0.105,-1.287,0.081,-0.825,-0.836
0.083,0.305,-0.753,0.505,-0.549,-0.378
0.346,0.802,-0.329,0.912,-0.025,-0.070
0.096,0.445,-0.687,0.504,-0.374,-0.474
0.394,0.559,-0.636,0.727,-0.100,-0.112
-0.087,0.261,-1.129,0.405,-0.542,-0.500
-0.680,-0.243,-1.503,-0.133,-1.039,-0.947
0.171,0.419,-0.857,0.521,-0.281,-0.491
1.002,1.325,0.017,1.396,0.463,0.461
0.205,0.574,-0.697,0.658,-0.229,-0.177
0.526,0.830,-0.460,0.926,0.074,0.021
0.330,0.721,-0.779,0.804,-0.236,-0.112
0.173,0.368,-0.720,0.544,-0.423,-0.279
1.024,1.359,0.004,1.385,0.533,0.374
0.219,0.558,-0.805,0.524,-0.212,-0.364
0.300,0.630,-0.701,0.690,-0.201,-0.280
0.774,1.095,-0.189,1.112,0.272,0.247
-0.038,0.259,-0.953,0.291,-0.563,-0.501
0.198,0.680,-0.698,0.742,-0.164,-0.125
1.030,1.346,0.038,1.477,0.579,0.394
0.077,0.427,-0.790,0.384,-0.652,-0.323
0.069,0.514,-0.703,0.424,-0.503,-0.330
-0.012,0.332,-0.865,0.388,-0.566,-0.531
0.413,0.749,-0.654,0.675,-0.209,-0.066
0.298,0.668,-0.745,0.681,-0.169,-0.094
0.830,1.110,-0.130,1.221,0.311,0.399
-0.109,0.212,-1.042,0.301,-0.526,-0.543
0.703,1.073,-0.138,0.959,0.174,0.236
-0.167,0.271,-0.937,0.234,-0.742,-0.546
0.016,0.348,-0.924,0.490,-0.337,-0.500
0.210,0.653,-0.517,0.701,-0.162,-0.271
-0.169,0.222,-1.081,0.113,-0.689,-0.623
-0.433,-0.061,-1.468,0.027,-0.887,-0.919
-0.174,0.156,-1.119,0.192,-0.705,-0.630
0.575,0.866,-0.476,0.973,-0.073,0.028
0.241,0.393,-0.530,0.778,-0.214,-0.302
0.437,0.830,-0.538,0.922,0.064,-0.013
-0.086,0.150,-1.124,0.352,-0.678,-0.614
0.364,0.652,-0.619,0.659,-0.082,-0.314
0.018,0.328,-1.115,0.352,-0.462,-0.613
0.375,0.637,-0.377,0.758,-0.217,-0.070
0.372,0.579,-0.587,0.641,-0.317,-0.227
0.838,0.998,-0.225,1.016,0.145,0.256
0.565,0.808,-0.323,0.918,-0.097,-0.020
0.173,0.546,-0.681,0.545,-0.248,-0.361
0.343,0.674,-0.567,0.855,-0.022,-0.265
-0.348,0.018,-1.363,0.027,-0.891,-0.947
0.129,0.470,-0.718,0.449,-0.332,-0.316
0.914,1.331,0.082,1.347,0.498,0.615
0.046,0.483,-0.878,0.422,-0.387,-0.486
-0.509,-0.214,-1.486,-0.086,-1.161,-0.984
-0.568,-0.178,-1.471,-0.137,-1.045,-1.057
0.041,0.353,-0.908,0.388,-0.500,-0.496
1.255,1.489,0.179,1.580,0.613,0.675
0.066,0.371,-0.980,0.417,-0.311,-0.536
0.263,0.659,-0.566,0.733,-0.079,-0.199
0.378,0.742,-0.484,0.794,-0.030,-0.187
0.868,1.241,-0.102,1.232,0.266,0.389
0.128,0.516,-0.740,0.686,-0.342,-0.216
0.601,0.813,-0.472,0.944,-0.005,0.025
0.443,0.545,-0.584,0.797,-0.047,-0.221
-0.016,0.311,-0.869,0.438,-0.481,-0.527
-0.009,0.296,-0.957,0.275,-0.507,-0.549
0.455,0.699,-0.601,0.822,-0.042,-0.156
-0.582,-0.230,-1.374,-0.180,-1.120,-1.091
0.189,0.399,-0.705,0.560,-0.183,-0.362
0.278,0.636,-0.606,0.744,-0.142,-0.226
-0.186,0.186,-1.217,0.141,-0.660,-0.698
-0.582,-0.259,-1.448,-0.165,-1.088,-1.154
0.003,0.355,-0.856,0.478,-0.532,-0.467
1.041,1.343,0.060,1.542,0.451,0.383
-0.150,0.187,-0.977,0.337,-0.518,-0.552
-0.175,0.167,-0.969,0.387,-0.713,-0.585
0.467,0.858,-0.369,0.817,-0.104,-0.097
-0.038,0.264,-1.023,0.370,-0.562,-0.767
-0.185,0.192,-1.056,0.318,-0.692,-0.622
-0.403,-0.123,-1.189,0.130,-0.701,-0.871
1.133,1.502,0.158,1.546,0.769,0.686
0.618,0.969,-0.419,0.975,0.159,0.165
-0.094,0.160,-1.100,0.378,-0.602,-0.520
0.366,0.515,-0.635,0.668,-0.107,-0.230
0.468,0.927,-0.426,1.002,0.079,0.036
0.653,0.957,-0.425,1.088,0.164,0.107
0.587,0.931,-0.198,1.175,0.227,0.159
0.251,0.587,-0.582,0.707,-0.148,-0.270
1.459,1.881,0.612,1.995,0.875,1.015
0.081,0.406,-0.687,0.622,-0.300,-0.308
0.025,0.373,-0.942,0.281,-0.564,-0.507
0.719,0.877,-0.332,0.968,0.044,0.161
0.072,0.282,-0.918,0.240,-0.481,-0.486
0.066,0.241,-0.790,0.398,-0.473,-0.681
0.654,0.940,-0.339,1.084,0.105,0.020
0.641,0.855,-0.261,1.059,0.144,0.126
0.260,0.595,-0.671,0.568,-0.341,-0.251
-0.083,0.279,-1.044,0.316,-0.528,-0.553
0.942,1.232,0.310,1.447,0.572,0.578
-0.020,0.213,-0.966,0.179,-0.628,-0.655
0.322,0.709,-0.610,0.736,-0.255,-0.239
0.201,0.443,-0.878,0.627,-0.242,-0.400
0.220,0.608,-0.715,0.626,-0.349,-0.204
-0.291,0.009,-1.232,0.052,-0.770,-0.766
-0.101,0.273,-0.959,0.283,-0.635,-0.660
-0.186,0.104,-1.110,0.311,-0.689,-0.676
-0.415,-0.018,-1.225,0.083,-0.856,-0.852
0.423,0.712,-0.443,0.818,0.114,-0.158
0.233,0.452,-0.740,0.636,-0.316,-0.177
-0.152,0.180,-1.093,0.166,-0.744,-0.649
0.583,1.002,-0.407,0.993,0.043,0.229
0.367,0.837,-0.517,0.819,-0.083,0.023
-0.735,-0.334,-1.597,-0.408,-1.208,-1.210
0.044,0.308,-0.819,0.414,-0.444,-0.453
0.445,0.712,-0.561,0.742,-0.097,-0.091
0.988,1.386,-0.048,1.319,0.523,0.614
-0.181,0.166,-1.002,0.408,-0.633,-0.475
-0.060,0.233,-1.211,0.201,-0.703,-0.661
0.080,0.514,-0.660,0.555,-0.486,-0.261
1.260,1.641,0.332,1.655,0.844,0.829
-0.188,0.204,-1.095,0.053,-0.650,-0.556
-0.048,0.371,-1.033,0.349,-0.450,-0.522
-0.201,0.160,-0.962,0.344,-0.622,-0.655
-0.763,-0.451,-1.378,-0.267,-1.130,-1.135
0.478,0.752,-0.465,0.824,0.025,-0.089
0.051,0.442,-0.688,0.653,-0.234,-0.274
0.242,0.593,-0.780,0.518,-0.325,-0.411
0.270,0.539,-0.816,0.605,-0.231,-0.342
0.013,0.284,-0.967,0.446,-0.409,-0.585
0.909,1.043,-0.300,1.076,0.203,0.206
0.393,0.734,-0.530,0.753,-0.167,-0.199
0.935,1.217,0.068,1.310,0.355,0.402
0.525,0.926,-0.413,0.872,-0.019,-0.055
0.295,0.591,-0.532,0.604,-0.195,-0.256
-0.198,0.051,-1.165,0.137,-0.743,-0.777
-0.381,0.040,-1.223,0.113,-0.817,-0.754
0.691,1.004,-0.380,1.152,0.327,0.191
0.564,0.909,-0.378,0.938,0.129,0.010
-0.288,0.158,-1.097,0.184,-0.578,-0.711
0.372,0.711,-0.590,0.834,-0.041,-0.097
0.328,0.663,-0.612,0.644,-0.140,-0.255
0.362,0.668,-0.690,0.828,-0.106,-0.223
-0.121,0.283,-1.059,0.308,-0.645,-0.693
-0.070,0.151,-1.018,0.274,-0.601,-0.744
0.656,1.009,-0.329,1.049,0.152,0.033
0.384,0.694,-0.537,0.732,-0.211,-0.086
-1.227,-0.875,-2.131,-0.792,-1.711,-1.662
0.180,0.408,-0.664,0.584,-0.172,-0.256
-0.159,0.164,-1.033,0.243,-0.572,-0.656
0.814,1.033,-0.330,1.101,0.328,0.060
-0.272,0.071,-1.245,0.179,-0.893,-0.706
0.945,1.236,-0.103,1.310,0.306,0.351
-0.172,0.171,-1.206,0.141,-0.638,-0.740
0.590,0.828,-0.411,0.896,0.126,0.035
0.540,0.901,-0.231,0.962,0.027,0.032
-0.592,-0.210,-1.419,-0.098,-1.030,-1.141
-0.107,0.232,-1.151,0.232,-0.653,-0.695
-0.306,-0.073,-1.231,-0.035,-0.776,-0.781
0.418,0.814,-0.452,0.725,-0.046,0.027
0.007,0.378,-0.729,0.434,-0.345,-0.334
0.558,0.962,-0.309,0.867,0.137,0.043
-0.722,-0.286,-1.574,-0.383,-1.205,-1.203
0.356,0.674,-0.355,0.985,-0.090,-0.154
-0.128,0.306,-0.982,0.254,-0.597,-0.547
0.328,0.746,-0.716,0.788,-0.085,-0.152
-0.581,-0.181,-1.479,-0.111,-0.954,-0.989
0.513,0.917,-0.554,0.917,0.034,-0.038
0.665,0.969,-0.357,0.919,0.040,0.077
0.031,0.457,-0.739,0.484,-0.335,-0.326
0.061,0.356,-0.802,0.394,-0.635,-0.477
-0.134,0.129,-1.171,0.164,-0.779,-0.743
0.078,0.449,-0.709,0.504,-0.428,-0.282
0.301,0.731,-0.678,0.616,-0.114,-0.208
-0.167,0.245,-1.029,0.243,-0.715,-0.456
-0.769,-0.437,-1.688,-0.313,-1.191,-1.174
0.194,0.613,-0.700,0.823,-0.267,-0.165
0.625,1.003,-0.397,1.177,0.174,0.210
0.239,0.471,-0.718,0.685,-0.208,-0.415
0.052,0.344,-0.757,0.451,-0.375,-0.401
-0.097,0.280,-0.984,0.403,-0.454,-0.564
0.471,0.800,-0.478,0.737,-0.018,-0.033
0.762,1.022,-0.303,1.118,0.310,0.244
0.355,0.787,-0.560,0.819,-0.044,-0.049
-0.120,0.194,-1.108,0.304,-0.487,-0.668
0.410,0.828,-0.497,0.757,0.002,0.135
0.326,0.581,-0.698,0.746,-0.199,-0.127
0.684,0.996,-0.212,0.945,0.121,0.163
0.075,0.459,-0.845,0.582,-0.287,-0.344
0.792,1.218,-0.071,1.296,0.399,0.362
-0.485,-0.209,-1.317,0.094,-0.962,-1.026
0.680,1.051,-0.241,1.054,0.073,0.176
0.429,0.766,-0.574,0.895,-0.000,-0.133
-0.190,0.196,-1.046,0.384,-0.506,-0.681
0.489,0.904,-0.244,1.001,0.086,0.153
0.451,0.850,-0.352,0.931,0.017,-0.120
0.830,1.183,-0.194,1.289,0.355,0.309
0.640,0.939,-0.395,1.112,0.128,0.185
-0.299,-0.051,-1.273,0.028,-0.822,-0.795
0.367,0.651,-0.795,0.648,-0.253,-0.253
-0.227,0.234,-0.966,0.307,-0.716,-0.644
0.313,0.613,-0.621,0.674,-0.203,-0.279
0.331,0.764,-0.418,0.752,-0.117,-0.045
0.605,0.925,-0.488,1.009,0.111,0.017
-0.444,-0.161,-1.549,-0.065,-0.919,-0.841
0.795,1.224,-0.107,1.175,0.253,0.473
-0.610,-0.285,-1.661,-0.214,-1.185,-1.118
0.153,0.409,-0.905,0.433,-0.418,-0.457
0.003,0.379,-0.925,0.328,-0.490,-0.608
0.221,0.620,-0.661,0.683,-0.296,-0.344
0.567,1.087,-0.139,1.171,0.179,0.270
0.949,1.341,0.209,1.410,0.638,0.694
0.207,0.554,-0.643,0.718,-0.239,-0.317
0.218,0.468,-0.746,0.624,-0.201,-0.403
0.505,0.713,-0.460,0.857,-0.060,-0.187
0.692,1.092,-0.336,1.046,0.208,0.236
-0.381,0.004,-1.317,0.018,-0.941,-1.120
-0.421,-0.052,-1.384,-0.025,-0.778,-0.976
-0.005,0.377,-0.942,0.489,-0.441,-0.600
-0.143,0.078,-1.223,0.230,-0.780,-0.865
0.595,1.011,-0.066,1.158,0.271,0.273
0.346,0.702,-0.451,0.836,-0.023,-0.168
-0.240,0.060,-1.116,0.193,-0.817,-0.734
0.175,0.664,-0.714,0.712,-0.297,-0.237
0.589,0.839,-0.382,0.843,-0.068,-0.088
0.769,1.158,-0.207,1.108,0.185,0.256
0.423,0.787,-0.642,0.752,-0.132,-0.044
-0.331,0.045,-1.313,0.140,-0.825,-0.804
0.226,0.480,-0.728,0.538,-0.358,-0.441
0.527,0.764,-0.539,0.940,0.013,-0.026
0.650,0.987,-0.387,1.020,0.128,0.224
0.808,1.027,-0.248,1.107,0.319,0.317
-0.001,0.441,-0.727,0.476,-0.577,-0.452
-0.447,-0.191,-1.587,-0.096,-0.880,-1.055
0.564,0.924,-0.463,0.943,0.115,-0.052
0.738,1.064,-0.383,1.023,0.034,0.009
-0.669,-0.457,-1.643,-0.295,-1.177,-1.264
0.685,1.068,-0.017,1.183,0.299,0.252
0.145,0.527,-0.665,0.600,-0.225,-0.314
0.924,1.225,-0.151,1.144,0.331,0.415
-0.689,-0.407,-1.588,-0.217,-1.092,-1.114
0.019,0.270,-1.035,0.450,-0.423,-0.501
-0.028,0.276,-0.822,0.483,-0.420,-0.451
-0.041,0.274,-0.750,0.452,-0.505,-0.383
-0.045,0.290,-0.878,0.462,-0.576,-0.472
-0.534,-0.211,-1.334,-0.016,-1.115,-1.019
-0.246,0.049,-1.355,0.068,-0.883,-0.767
-0.023,0.211,-1.040,0.322,-0.626,-0.569
0.049,0.306,-0.826,0.512,-0.390,-0.227
0.507,0.970,-0.475,1.011,0.160,0.127
-0.120,0.158,-1.224,0.230,-0.577,-0.717
0.570,0.877,-0.492,0.866,0.139,-0.016
-0.208,0.130,-1.289,0.269,-0.571,-0.636
-0.350,0.060,-1.266,0.223,-0.831,-0.826
0.364,0.724,-0.531,0.781,-0.184,-0.155
-0.093,0.325,-0.970,0.385,-0.496,-0.395
0.774,1.088,-0.165,1.067,0.182,0.269
0.032,0.366,-0.945,0.340,-0.408,-0.545
-0.273,-0.020,-1.137,0.170,-0.755,-0.695
0.554,0.792,-0.560,0.738,-0.127,0.060
-0.294,0.069,-1.018,0.273,-0.626,-0.636
-0.122,0.296,-1.060,0.221,-0.573,-0.671
0.149,0.438,-0.993,0.494,-0.333,-0.501
0.170,0.535,-0.798,0.502,-0.287,-0.268
-0.218,0.152,-1.180,0.248,-0.566,-0.426
0.120,0.431,-0.959,0.482,-0.464,-0.168
