0.333,0.333,0.333
0.275,0.526,-0.064
0.152,0.621,-0.203
0.186,0.640,-0.271
0.198,0.617,-0.404
0.142,0.735,-0.515
0.192,0.655,-0.396
0.203,0.676,-0.542
0.117,0.733,-0.503
0.199,0.638,-0.395
0.002,0.840,-0.530
0.170,0.690,-0.358
-0.032,0.855,-0.556
0.000,0.788,-0.459
-0.081,0.922,-0.623
0.040,0.862,-0.440
-0.065,0.892,-0.494
-0.059,0.864,-0.532
-0.116,0.928,-0.601
0.007,0.910,-0.515
0.015,0.922,-0.502
-0.056,1.055,-0.730
-0.032,0.916,-0.604
-0.115,1.091,-0.742
-0.189,1.148,-0.753
0.005,0.931,-0.663
-0.102,0.995,-0.731
0.010,0.901,-0.631
0.021,0.885,-0.561
0.137,0.711,-0.506
0.021,0.874,-0.511
0.041,0.868,-0.555
0.033,0.897,-0.570
-0.059,0.919,-0.552
-0.070,1.009,-0.702
0.074,0.770,-0.490
0.149,0.683,-0.339
0.111,0.743,-0.465
0.032,0.821,-0.572
0.095,0.721,-0.604
0.108,0.751,-0.577
0.179,0.770,-0.564
0.080,0.863,-0.629
0.114,0.825,-0.476
-0.034,1.004,-0.741
-0.083,1.016,-0.768
-0.006,0.995,-0.776
-0.077,1.033,-0.854
0.068,0.883,-0.664
0.147,0.732,-0.482
0.033,0.890,-0.555
-0.040,0.954,-0.538
-0.051,0.985,-0.626
-0.116,1.089,-0.731
-0.041,0.982,-0.664
-0.104,1.058,-0.747
-0.123,1.071,-0.717
-0.119,1.026,-0.559
-0.038,0.956,-0.544
0.022,0.898,-0.542
0.035,0.887,-0.516
-0.113,0.997,-0.577
-0.241,1.112,-0.689
-0.187,1.139,-0.687
-0.082,1.009,-0.553
-0.183,1.064,-0.678
-0.127,0.990,-0.664
-0.064,0.981,-0.742
-0.233,1.159,-0.981
-0.216,1.132,-0.851
-0.236,1.091,-0.640
-0.235,1.178,-0.947
-0.152,1.031,-0.754
-0.085,1.039,-0.683
-0.069,1.042,-0.675
-0.203,1.032,-0.697
0.007,0.885,-0.570
-0.050,0.896,-0.523
0.052,0.893,-0.455
-0.128,1.085,-0.667
-0.053,1.026,-0.708
-0.141,1.105,-0.668
-0.008,0.985,-0.702
0.048,0.818,-0.431
-0.106,1.056,-0.741
-0.034,0.926,-0.713
0.041,0.859,-0.620
0.058,0.799,-0.579
0.011,0.900,-0.706
0.057,0.900,-0.636
-0.105,1.004,-0.745
-0.169,1.127,-0.888
-0.114,1.042,-0.749
0.067,0.859,-0.672
0.216,0.730,-0.538
0.091,0.747,-0.647
0.182,0.636,-0.416
0.244,0.580,-0.297
0.146,0.697,-0.440
0.161,0.669,-0.356
0.154,0.670,-0.320
0.073,0.811,-0.601
0.122,0.744,-0.492
0.196,0.625,-0.435
0.127,0.706,-0.561
0.040,0.869,-0.738
0.066,0.760,-0.583
0.189,0.699,-0.541
0.068,0.823,-0.660
0.063,0.838,-0.602
0.061,0.910,-0.662
0.040,0.914,-0.649
0.197,0.687,-0.382
0.053,0.920,-0.593
-0.013,0.964,-0.743
0.097,0.872,-0.581
0.020,0.906,-0.580
0.054,0.880,-0.747
0.097,0.817,-0.512
0.120,0.812,-0.592
0.217,0.655,-0.485
0.076,0.798,-0.609
0.050,0.766,-0.581
0.040,0.772,-0.622
-0.034,0.806,-0.588
0.118,0.760,-0.550
0.133,0.806,-0.594
0.078,0.794,-0.545
0.104,0.769,-0.587
0.143,0.787,-0.675
0.155,0.677,-0.467
-0.029,0.848,-0.598
-0.162,1.026,-0.747
0.055,0.811,-0.564
0.041,0.894,-0.745
-0.013,0.957,-0.843
-0.074,0.901,-0.612
-0.099,0.973,-0.600
-0.052,0.909,-0.622
-0.090,1.041,-0.705
0.003,0.930,-0.592
0.004,0.904,-0.607
0.035,0.790,-0.464
0.000,0.862,-0.462
-0.172,1.025,-0.582
-0.148,1.090,-0.772
-0.048,0.927,-0.709
-0.065,0.892,-0.677
-0.070,0.943,-0.735
-0.195,1.111,-0.921
-0.028,0.822,-0.547
0.167,0.643,-0.377
0.213,0.646,-0.480
0.254,0.672,-0.641
0.201,0.666,-0.750
0.122,0.803,-0.784
0.029,0.874,-0.721
0.100,0.823,-0.505
0.052,0.855,-0.482
-0.102,1.045,-0.823
-0.184,1.108,-0.835
-0.197,1.000,-0.733
-0.054,0.852,-0.557
-0.063,0.934,-0.596
0.035,0.848,-0.444
0.146,0.698,-0.485
0.096,0.783,-0.581
0.056,0.867,-0.634
0.043,0.894,-0.668
-0.024,0.982,-0.746
0.044,0.865,-0.576
0.038,0.852,-0.653
0.075,0.837,-0.533
-0.048,0.912,-0.522
0.245,0.641,-0.206
0.186,0.744,-0.376
0.097,0.761,-0.499
0.115,0.732,-0.437
0.097,0.773,-0.498
-0.027,0.904,-0.585
0.156,0.626,-0.413
0.123,0.790,-0.547
0.036,0.829,-0.525
0.050,0.876,-0.593
-0.032,0.919,-0.617
0.066,0.864,-0.595
0.020,0.930,-0.534
-0.097,1.065,-0.773
-0.044,1.028,-0.692
-0.068,1.010,-0.686
0.029,0.881,-0.575
-0.034,0.949,-0.756
-0.096,1.129,-0.913
-0.039,1.017,-0.752
0.176,0.873,-0.624
0.132,0.996,-0.800
0.066,0.945,-0.835
0.161,0.849,-0.705
0.169,0.801,-0.646
0.065,0.881,-0.695
0.058,0.864,-0.526
0.099,0.834,-0.472
-0.169,1.049,-0.721
-0.048,0.908,-0.521
-0.015,0.822,-0.528
0.018,0.884,-0.652
-0.009,1.006,-0.801
0.018,0.868,-0.670
0.020,0.974,-0.620
0.081,0.907,-0.715
0.123,0.809,-0.603
-0.076,1.036,-0.911
-0.095,0.979,-0.727
0.009,0.916,-0.738
0.142,0.770,-0.564
-0.011,0.988,-0.719
-0.141,1.164,-0.897
-0.074,1.082,-0.691
-0.320,1.388,-1.013
-0.265,1.295,-0.866
-0.189,1.174,-0.803
-0.139,1.070,-0.781
-0.020,0.923,-0.616
-0.080,0.953,-0.656
-0.072,1.021,-0.763
-0.137,1.094,-0.833
-0.165,1.148,-0.877
-0.041,1.060,-0.859
-0.043,0.959,-0.809
-0.002,0.829,-0.644
0.055,0.747,-0.434
0.027,0.888,-0.551
0.038,0.835,-0.586
-0.009,0.910,-0.603
-0.017,0.843,-0.565
0.029,0.756,-0.508
0.018,0.893,-0.655
-0.014,0.919,-0.618
-0.012,0.934,-0.588
-0.115,1.029,-0.769
-0.128,1.030,-0.787
-0.142,1.074,-0.799
-0.077,0.957,-0.669
0.003,0.958,-0.635
-0.053,0.957,-0.541
-0.043,0.950,-0.532
-0.025,0.891,-0.553
-0.031,0.970,-0.708
0.066,0.865,-0.507
0.081,0.835,-0.561
0.183,0.635,-0.435
0.186,0.692,-0.476
0.124,0.715,-0.521
0.207,0.675,-0.490
0.226,0.614,-0.307
0.088,0.759,-0.366
0.115,0.761,-0.481
-0.001,0.978,-0.744
-0.055,1.054,-0.805
0.113,0.791,-0.479
0.040,0.796,-0.562
0.026,0.737,-0.423
0.073,0.875,-0.668
-0.121,0.929,-0.666
-0.033,0.816,-0.464
0.031,0.861,-0.571
0.015,0.953,-0.712
0.065,0.914,-0.737
0.020,0.936,-0.797
-0.030,1.055,-0.798
-0.036,0.994,-0.693
-0.033,0.957,-0.653
-0.139,1.056,-0.757
-0.111,1.000,-0.617
-0.069,0.989,-0.575
-0.089,1.035,-0.736
-0.190,1.190,-0.834
-0.136,1.106,-0.672
-0.079,1.090,-0.810
-0.159,1.135,-0.891
-0.124,1.058,-0.732
-0.191,1.126,-0.746
-0.093,1.035,-0.721
-0.097,0.960,-0.599
0.011,0.791,-0.368
0.060,0.852,-0.477
0.070,0.862,-0.491
0.100,0.839,-0.473
0.079,0.847,-0.630
-0.010,0.975,-0.783
-0.042,0.930,-0.741
-0.024,0.867,-0.619
-0.015,0.701,-0.457
-0.045,0.789,-0.655
-0.138,0.976,-0.719
-0.092,0.926,-0.693
-0.108,0.895,-0.629
-0.107,0.936,-0.615
-0.041,0.943,-0.670
-0.128,1.022,-0.702
-0.056,0.986,-0.621
-0.026,0.972,-0.653
-0.060,1.024,-0.817
-0.066,0.951,-0.650
0.000,0.939,-0.541
-0.045,0.870,-0.544
-0.144,1.009,-0.773
-0.146,1.027,-0.727
-0.112,1.037,-0.613
-0.012,0.870,-0.459
0.112,0.799,-0.510
0.114,0.783,-0.572
0.253,0.646,-0.328
0.214,0.741,-0.457
0.105,0.865,-0.564
0.121,0.861,-0.592
0.167,0.819,-0.495
0.146,0.765,-0.456
-0.034,0.912,-0.654
0.114,0.766,-0.572
0.098,0.789,-0.553
-0.015,0.858,-0.584
0.023,0.840,-0.468
-0.028,0.908,-0.526
-0.123,1.032,-0.638
-0.032,0.887,-0.486
-0.111,0.955,-0.674
-0.135,0.964,-0.624
-0.117,0.932,-0.644
-0.014,0.831,-0.450
0.038,0.737,-0.450
-0.094,0.891,-0.649
-0.151,0.900,-0.653
0.108,0.623,-0.452
0.095,0.735,-0.598
-0.046,0.831,-0.606
-0.003,0.839,-0.589
0.047,0.818,-0.615
0.095,0.793,-0.594
0.000,0.907,-0.691
0.010,0.943,-0.763
0.107,0.868,-0.591
0.219,0.786,-0.467
0.098,0.887,-0.642
0.069,0.893,-0.754
0.125,0.860,-0.618
0.118,0.783,-0.484
0.053,0.767,-0.441
0.038,0.810,-0.677
0.033,0.860,-0.657
0.007,0.841,-0.529
0.048,0.854,-0.690
-0.024,0.948,-0.750
-0.081,1.062,-0.765
-0.059,0.972,-0.584
0.078,0.840,-0.396
0.075,0.773,-0.458
0.050,0.825,-0.492
-0.129,0.947,-0.576
-0.210,1.038,-0.612
-0.206,1.016,-0.650
-0.090,0.971,-0.732
0.024,0.793,-0.445
-0.078,0.874,-0.657
-0.027,0.874,-0.729
-0.079,0.877,-0.556
-0.004,0.800,-0.362
-0.024,0.741,-0.224
0.068,0.773,-0.405
-0.047,0.816,-0.514
0.015,0.822,-0.543
0.017,0.864,-0.663
-0.019,0.835,-0.649
0.034,0.753,-0.487
0.009,0.715,-0.486
0.114,0.657,-0.428
0.020,0.910,-0.863
-0.086,1.087,-0.886
0.048,0.966,-0.786
0.074,0.945,-0.775
0.113,0.861,-0.596
0.141,0.709,-0.463
0.215,0.651,-0.361
-0.011,0.873,-0.607
0.019,0.869,-0.666
0.167,0.674,-0.407
0.148,0.805,-0.612
0.187,0.783,-0.547
0.073,0.855,-0.616
-0.056,0.980,-0.749
-0.000,0.881,-0.622
0.001,0.819,-0.580
-0.029,0.906,-0.711
0.064,0.740,-0.475
-0.055,0.943,-0.778
-0.032,0.936,-0.725
-0.079,0.987,-0.738
0.027,0.839,-0.597
-0.078,0.932,-0.656
0.030,0.729,-0.432
-0.071,0.794,-0.497
0.022,0.736,-0.368
-0.087,0.959,-0.556
-0.100,0.939,-0.685
-0.040,0.877,-0.554
-0.028,0.873,-0.602
-0.073,0.994,-0.704
-0.090,1.022,-0.732
-0.135,1.141,-0.875
-0.159,1.122,-0.828
0.042,0.901,-0.651
-0.004,0.885,-0.720
-0.017,0.878,-0.705
-0.045,0.956,-0.709
0.060,0.847,-0.553
0.031,0.859,-0.615
0.015,0.863,-0.618
0.004,0.901,-0.524
0.052,0.851,-0.461
0.037,0.893,-0.512
0.059,0.874,-0.549
0.015,0.824,-0.484
-0.035,0.835,-0.503
-0.011,0.805,-0.603
0.033,0.745,-0.457
-0.010,0.846,-0.618
0.053,0.822,-0.730
0.051,0.767,-0.559
-0.068,0.893,-0.666
-0.023,0.784,-0.513
0.057,0.776,-0.594
0.073,0.802,-0.624
0.098,0.779,-0.673
0.003,0.841,-0.713
0.078,0.761,-0.515
-0.104,0.918,-0.747
-0.062,0.973,-0.747
0.050,0.860,-0.671
0.152,0.781,-0.498
-0.099,1.114,-0.780
-0.218,1.237,-0.849
-0.090,1.154,-0.849
-0.042,1.081,-0.868
0.008,0.982,-0.663
-0.064,1.012,-0.684
-0.291,1.324,-1.026
-0.124,1.104,-0.821
0.093,0.867,-0.567
-0.085,1.023,-0.890
-0.001,1.034,-0.868
0.011,1.035,-0.914
0.043,1.002,-0.737
-0.041,0.989,-0.698
-0.086,1.097,-0.907
-0.082,1.043,-0.798
-0.113,0.947,-0.587
-0.014,0.869,-0.519
0.037,0.866,-0.576
-0.107,0.924,-0.521
-0.035,0.868,-0.432
-0.030,0.862,-0.421
-0.103,0.923,-0.537
0.039,0.799,-0.460
-0.035,1.003,-0.659
-0.034,0.896,-0.507
-0.005,0.886,-0.514
0.062,0.847,-0.402
0.050,0.830,-0.405
-0.067,0.942,-0.669
-0.093,0.955,-0.636
-0.076,0.958,-0.695
-0.054,0.844,-0.472
-0.104,0.837,-0.443
0.005,0.852,-0.550
-0.058,0.997,-0.761
-0.118,1.034,-0.742
-0.118,1.087,-0.948
-0.078,0.970,-0.682
0.076,0.826,-0.623
0.101,0.746,-0.546
0.047,0.832,-0.643
-0.019,0.981,-0.667
-0.206,1.186,-0.820
-0.252,1.251,-0.963
-0.242,1.228,-0.883
-0.241,1.116,-0.877
-0.093,1.013,-0.740
-0.095,0.975,-0.681
-0.082,0.934,-0.713
-0.117,1.021,-0.712
-0.126,1.043,-0.675
-0.193,1.114,-0.742
-0.160,1.043,-0.781
-0.002,0.843,-0.543
0.080,0.803,-0.497
0.065,0.810,-0.525
0.007,0.811,-0.509
0.003,0.782,-0.552
0.007,0.819,-0.622
0.076,0.716,-0.437
0.137,0.675,-0.515
0.122,0.703,-0.514
0.170,0.685,-0.461
0.226,0.570,-0.391
0.121,0.745,-0.510
0.144,0.697,-0.513
0.069,0.873,-0.733
0.187,0.722,-0.457
0.177,0.641,-0.379
0.198,0.688,-0.313
-0.054,0.947,-0.712
-0.033,0.886,-0.656
-0.007,0.902,-0.793
0.132,0.757,-0.523
-0.026,0.916,-0.707
0.044,0.772,-0.549
-0.012,0.764,-0.555
-0.109,0.948,-0.654
-0.008,0.830,-0.613
-0.012,0.782,-0.588
-0.001,0.806,-0.442
0.072,0.713,-0.278
0.027,0.847,-0.567
-0.115,0.967,-0.795
-0.065,0.917,-0.695
-0.022,0.898,-0.632
0.050,0.864,-0.566
-0.017,0.992,-0.639
-0.059,0.978,-0.649
-0.130,0.975,-0.669
-0.157,0.996,-0.712
-0.031,0.910,-0.578
0.072,0.843,-0.545
0.039,0.944,-0.696
0.110,0.789,-0.405
-0.001,0.994,-0.714
-0.048,1.010,-0.758
-0.191,1.038,-0.861
-0.025,0.940,-0.661
-0.117,1.102,-0.746
0.022,1.008,-0.680
-0.005,0.854,-0.544
-0.044,0.907,-0.580
-0.020,0.941,-0.628
0.020,0.956,-0.523
0.076,0.820,-0.540
-0.067,0.928,-0.570
-0.114,1.057,-0.827
-0.127,1.026,-0.764
-0.012,1.051,-0.916
0.110,0.867,-0.563
0.027,0.941,-0.575
0.007,0.987,-0.661
0.012,1.027,-0.688
0.190,0.824,-0.552
0.159,0.756,-0.392
-0.003,1.016,-0.747
0.201,0.709,-0.432
0.187,0.725,-0.519
0.188,0.663,-0.448
0.147,0.722,-0.460
0.200,0.508,-0.244
0.075,0.743,-0.536
-0.115,0.909,-0.720
-0.061,0.924,-0.712
-0.086,0.965,-0.574
-0.159,1.006,-0.683
0.002,0.796,-0.532
0.018,0.781,-0.575
-0.110,0.976,-0.723
-0.068,0.970,-0.620
-0.131,1.010,-0.689
-0.129,0.996,-0.831
-0.139,1.092,-0.842
0.040,0.876,-0.678
0.098,0.765,-0.512
0.048,0.812,-0.523
-0.118,1.000,-0.675
-0.120,0.954,-0.627
-0.167,1.048,-0.638
-0.057,1.064,-0.686
-0.026,0.984,-0.594
0.005,0.930,-0.575
-0.104,0.993,-0.708
-0.082,1.028,-0.713
-0.111,0.977,-0.694
-0.065,0.799,-0.527
-0.068,0.857,-0.654
-0.058,0.823,-0.563
-0.164,1.018,-0.861
-0.084,0.920,-0.611
-0.006,0.790,-0.591
0.070,0.787,-0.533
0.081,0.745,-0.420
0.058,0.760,-0.478
0.073,0.810,-0.484
0.068,0.888,-0.645
-0.027,0.905,-0.619
0.052,0.843,-0.660
-0.026,0.933,-0.615
0.142,0.755,-0.409
0.056,0.882,-0.577
-0.137,1.092,-0.802
-0.031,0.907,-0.584
-0.089,0.968,-0.709
0.069,0.845,-0.583
0.156,0.748,-0.511
-0.041,0.978,-0.651
-0.026,0.884,-0.483
-0.000,0.930,-0.584
-0.075,1.141,-0.761
-0.151,1.201,-0.885
-0.067,1.051,-0.752
-0.092,1.156,-0.838
-0.011,1.075,-0.832
-0.025,1.031,-0.733
-0.133,1.093,-0.827
-0.002,0.937,-0.684
0.093,0.829,-0.511
0.094,0.850,-0.490
0.053,0.906,-0.617
-0.001,0.878,-0.433
-0.021,0.941,-0.590
0.030,0.824,-0.510
0.008,0.916,-0.652
0.178,0.729,-0.443
0.046,0.897,-0.682
0.021,0.918,-0.758
-0.013,1.001,-0.758
0.097,0.901,-0.687
-0.005,1.005,-0.722
-0.062,1.127,-0.893
0.164,0.878,-0.506
0.156,0.852,-0.667
0.156,0.806,-0.660
0.032,0.935,-0.705
0.104,0.808,-0.692
0.049,0.924,-0.778
-0.006,0.916,-0.850
0.164,0.720,-0.541
-0.003,0.845,-0.531
-0.109,1.001,-0.818
0.110,0.762,-0.675
0.045,0.767,-0.588
-0.063,0.959,-0.790
0.054,0.841,-0.640
0.137,0.751,-0.443
0.174,0.685,-0.403
0.028,0.756,-0.511
-0.043,0.854,-0.667
0.027,0.843,-0.605
0.138,0.791,-0.641
0.187,0.779,-0.704
0.176,0.866,-0.785
0.294,0.756,-0.645
0.162,0.877,-0.918
0.165,0.758,-0.606
0.102,0.849,-0.730
-0.012,0.924,-0.734
0.067,0.848,-0.697
0.143,0.839,-0.733
-0.061,0.937,-0.678
-0.162,1.070,-0.844
-0.085,0.964,-0.680
-0.097,0.951,-0.595
-0.045,0.832,-0.451
0.045,0.761,-0.382
0.048,0.759,-0.455
0.105,0.737,-0.362
0.010,0.894,-0.507
-0.081,1.121,-0.740
-0.074,1.059,-0.740
-0.184,1.163,-0.831
-0.175,1.094,-0.748
-0.093,1.094,-0.823
0.093,0.846,-0.472
0.187,0.782,-0.568
0.047,0.878,-0.710
0.083,0.799,-0.534
0.155,0.651,-0.326
0.063,0.825,-0.544
0.018,0.877,-0.686
0.039,0.915,-0.722
0.044,0.903,-0.707
0.040,0.988,-0.902
-0.034,1.021,-0.870
-0.006,0.935,-0.716
-0.088,0.989,-0.840
0.037,0.941,-0.688
0.078,0.905,-0.774
0.099,0.874,-0.786
0.143,0.872,-0.701
0.178,0.715,-0.497
-0.023,0.951,-0.715
0.051,0.804,-0.493
0.098,0.741,-0.496
0.165,0.633,-0.344
0.082,0.784,-0.522
0.115,0.717,-0.482
0.163,0.695,-0.361
0.161,0.691,-0.431
0.156,0.749,-0.637
0.139,0.727,-0.695
0.102,0.802,-0.557
0.127,0.741,-0.463
0.101,0.829,-0.570
0.174,0.717,-0.420
0.163,0.731,-0.501
0.022,0.877,-0.607
0.104,0.779,-0.475
0.097,0.755,-0.493
0.127,0.713,-0.458
0.083,0.770,-0.478
-0.064,0.921,-0.589
-0.005,0.856,-0.466
0.043,0.873,-0.607
-0.085,0.918,-0.582
-0.204,1.113,-0.859
-0.213,1.103,-0.765
-0.179,1.085,-0.934
-0.138,0.975,-0.730
-0.264,1.210,-0.874
-0.154,1.099,-0.823
-0.190,1.086,-0.790
-0.122,1.151,-0.809
-0.066,1.086,-0.688
-0.043,1.066,-0.716
-0.154,1.170,-0.894
-0.111,1.138,-0.844
-0.236,1.247,-0.944
-0.153,1.136,-0.749
-0.177,1.155,-0.810
-0.109,1.049,-0.837
-0.164,1.129,-0.883
0.005,0.891,-0.667
0.123,0.814,-0.558
0.122,0.777,-0.623
0.047,0.785,-0.479
0.088,0.773,-0.502
0.015,0.893,-0.702
-0.079,0.944,-0.625
-0.088,0.991,-0.685
-0.024,0.925,-0.655
0.064,0.887,-0.585
0.112,0.761,-0.459
0.029,0.861,-0.575
-0.042,1.017,-0.761
-0.204,1.044,-0.642
-0.110,1.082,-0.869
-0.107,1.119,-0.788
0.008,1.020,-0.735
-0.154,1.106,-0.787
-0.128,1.057,-0.775
-0.059,0.954,-0.715
-0.095,1.031,-0.712
0.019,0.943,-0.692
0.000,0.949,-0.782
-0.153,1.079,-0.805
-0.077,1.009,-0.655
-0.163,1.055,-0.937
-0.180,1.081,-0.841
-0.145,1.108,-0.845
-0.105,1.056,-0.760
-0.130,1.055,-0.828
-0.082,0.977,-0.703
-0.078,0.947,-0.685
-0.044,0.833,-0.455
-0.012,0.829,-0.553
0.025,0.846,-0.644
0.015,0.887,-0.583
0.139,0.731,-0.427
0.108,0.693,-0.498
0.106,0.715,-0.534
0.130,0.757,-0.598
0.180,0.680,-0.481
0.133,0.768,-0.497
0.026,0.895,-0.748
0.081,0.827,-0.568
0.079,0.833,-0.572
-0.028,1.046,-0.732
-0.015,0.970,-0.661
-0.041,1.042,-0.761
-0.058,1.081,-0.699
-0.007,0.982,-0.679
-0.182,1.149,-0.825
-0.062,1.039,-0.812
0.028,0.920,-0.663
0.008,0.934,-0.695
0.041,0.858,-0.585
0.079,0.795,-0.547
-0.047,0.893,-0.763
-0.192,1.048,-0.893
-0.154,1.004,-0.811
-0.036,0.884,-0.701
0.008,0.943,-0.664
0.075,0.870,-0.559
0.100,0.804,-0.521
0.194,0.696,-0.518
0.139,0.762,-0.522
0.221,0.602,-0.227
0.179,0.706,-0.465
0.014,0.880,-0.607
0.112,0.744,-0.527
0.094,0.735,-0.524
-0.019,0.880,-0.558
-0.067,0.884,-0.586
-0.052,0.928,-0.733
-0.001,0.855,-0.695
-0.047,0.893,-0.671
0.047,0.777,-0.530
0.081,0.805,-0.639
0.085,0.900,-0.711
0.018,0.899,-0.658
0.040,0.851,-0.608
-0.030,0.994,-0.696
-0.018,0.970,-0.670
0.036,0.889,-0.523
-0.056,0.966,-0.564
-0.016,0.904,-0.716
0.020,0.818,-0.558
0.063,0.774,-0.584
0.039,0.877,-0.560
-0.061,0.999,-0.700
-0.107,0.994,-0.777
-0.076,1.009,-0.778
0.084,0.820,-0.615
0.031,0.852,-0.576
0.026,0.828,-0.580
0.081,0.838,-0.578
-0.021,0.975,-0.658
0.113,0.841,-0.518
0.111,0.736,-0.630
-0.005,0.809,-0.638
0.026,0.730,-0.531
0.143,0.690,-0.401
0.117,0.771,-0.502
-0.064,0.932,-0.594
-0.017,0.913,-0.519
-0.134,1.074,-0.834
-0.103,1.073,-0.859
0.012,0.896,-0.603
0.070,0.888,-0.672
-0.013,1.048,-0.861
-0.040,1.021,-0.701
-0.052,1.092,-0.859
-0.040,1.042,-0.717
0.084,0.882,-0.635
0.010,0.932,-0.648
0.013,0.935,-0.751
0.028,0.840,-0.695
0.150,0.721,-0.484
0.117,0.832,-0.652
0.225,0.716,-0.447
-0.032,0.893,-0.652
-0.022,0.879,-0.760
0.090,0.741,-0.547
0.197,0.628,-0.482
0.161,0.611,-0.377
0.110,0.623,-0.416
0.137,0.689,-0.478
-0.042,0.899,-0.704
-0.121,1.059,-0.850
-0.132,1.135,-0.868
-0.051,0.991,-0.698
-0.054,1.069,-0.831
0.046,0.911,-0.633
0.063,0.880,-0.667
0.089,0.844,-0.713
0.207,0.711,-0.541
0.184,0.741,-0.627
0.124,0.791,-0.714
0.074,0.778,-0.612
0.057,0.794,-0.533
-0.055,1.008,-0.797
0.077,0.785,-0.523
-0.060,0.923,-0.604
0.014,0.779,-0.453
0.080,0.804,-0.608
0.021,0.865,-0.579
0.045,0.773,-0.492
0.024,0.840,-0.588
0.025,0.917,-0.710
0.073,0.846,-0.597
-0.037,0.984,-0.857
-0.138,1.127,-0.871
-0.268,1.291,-1.182
-0.191,1.124,-0.851
0.012,0.989,-0.804
0.079,0.856,-0.803
-0.064,1.062,-0.938
-0.042,1.064,-0.869
-0.116,1.119,-0.969
-0.012,1.012,-0.814
-0.014,0.949,-0.565
-0.065,0.962,-0.577
-0.110,1.045,-0.807
-0.110,0.968,-0.780
0.047,0.853,-0.643
-0.014,0.930,-0.652
-0.073,0.938,-0.643
0.048,0.836,-0.538
0.018,0.833,-0.472
-0.074,0.874,-0.657
0.122,0.686,-0.538
0.083,0.750,-0.483
0.050,0.842,-0.487
-0.045,0.941,-0.658
-0.030,0.837,-0.568
0.031,0.872,-0.631
-0.000,0.925,-0.789
0.106,0.760,-0.558
0.098,0.844,-0.620
0.078,0.902,-0.699
0.089,0.868,-0.690
0.064,0.936,-0.749
0.129,0.877,-0.631
0.073,0.930,-0.672
0.071,0.921,-0.715
-0.079,1.047,-0.752
-0.100,1.007,-0.747
-0.078,0.923,-0.549
-0.013,0.946,-0.638
-0.058,0.908,-0.615
-0.084,0.981,-0.636
-0.031,0.899,-0.472
-0.000,0.894,-0.527
-0.090,0.918,-0.555
-0.154,1.115,-0.708
-0.180,1.102,-0.810
-0.273,1.244,-0.929
-0.176,1.145,-0.808
-0.149,1.097,-0.761
-0.176,1.140,-0.735
-0.295,1.271,-0.754
-0.254,1.221,-0.772
-0.172,1.093,-0.608
-0.216,1.130,-0.778
-0.085,0.948,-0.604
-0.196,1.109,-0.774
-0.077,0.957,-0.665
-0.172,0.952,-0.533
-0.024,0.907,-0.590
-0.020,0.893,-0.576
-0.051,0.986,-0.683
-0.046,0.937,-0.552
-0.081,0.913,-0.553
-0.185,1.054,-0.764
-0.160,1.083,-0.722
-0.078,0.998,-0.693
-0.080,1.034,-0.762
0.043,0.836,-0.580
0.091,0.909,-0.687
-0.007,0.913,-0.689
0.045,0.930,-0.657
-0.047,1.010,-0.762
0.006,0.883,-0.481
-0.037,1.051,-0.739
0.017,0.984,-0.613
0.156,0.814,-0.454
0.076,0.885,-0.583
0.059,0.844,-0.532
0.006,0.944,-0.681
0.053,0.897,-0.617
-0.015,0.929,-0.610
-0.031,1.031,-0.816
-0.210,1.164,-0.880
-0.268,1.275,-1.055
-0.276,1.226,-0.881
-0.175,1.055,-0.643
-0.086,0.966,-0.717
-0.155,1.001,-0.780
-0.185,1.023,-0.648
-0.181,1.090,-0.818
-0.143,1.013,-0.698
-0.065,0.930,-0.668
-0.010,0.801,-0.544
0.120,0.659,-0.358
0.102,0.700,-0.385
0.082,0.754,-0.487
0.055,0.826,-0.550
0.059,0.802,-0.510
-0.053,1.033,-0.758
0.108,0.851,-0.638
-0.030,1.020,-0.816
-0.030,1.002,-0.785
-0.038,1.021,-0.835
-0.104,0.948,-0.680
-0.028,0.863,-0.705
-0.150,1.068,-0.935
-0.094,1.015,-0.790
-0.105,1.025,-0.773
-0.045,0.964,-0.606
-0.043,0.933,-0.617
0.003,0.929,-0.671
0.029,0.859,-0.558
0.031,0.799,-0.513
-0.040,0.852,-0.615
-0.092,0.983,-0.733
-0.157,1.095,-0.888
-0.060,1.020,-0.743
-0.058,1.080,-0.687
-0.049,1.030,-0.731
-0.080,0.973,-0.573
0.030,0.850,-0.526
-0.004,0.974,-0.664
0.066,0.928,-0.714
-0.074,0.965,-0.725
-0.024,0.950,-0.732
-0.014,0.849,-0.628
-0.080,1.002,-0.769
0.031,0.778,-0.566
0.104,0.714,-0.480
0.063,0.771,-0.509
0.031,0.747,-0.438
-0.073,0.850,-0.612
-0.043,0.909,-0.643
-0.021,0.961,-0.715
0.064,0.863,-0.664
-0.094,1.014,-0.812
-0.063,0.962,-0.659
-0.054,0.972,-0.669
-0.109,1.016,-0.717
-0.253,1.195,-0.883
-0.065,0.912,-0.644
0.109,0.805,-0.647
0.012,0.861,-0.733
0.119,0.764,-0.533
0.163,0.740,-0.579
0.151,0.703,-0.446
0.017,0.922,-0.741
-0.014,0.959,-0.878
0.085,0.830,-0.734
0.084,0.751,-0.491
0.139,0.746,-0.547
0.147,0.754,-0.624
0.139,0.801,-0.678
0.213,0.727,-0.547
0.096,0.910,-0.628
-0.051,1.041,-0.778
0.004,1.018,-0.765
-0.044,1.064,-0.768
-0.020,0.993,-0.773
0.038,0.977,-0.670
0.024,0.963,-0.678
0.048,0.900,-0.647
-0.009,1.040,-0.948
0.024,0.928,-0.816
-0.174,1.210,-1.008
-0.041,1.016,-0.810
-0.213,1.162,-0.978
-0.181,1.103,-0.953
-0.095,1.045,-0.854
-0.024,0.894,-0.577
0.129,0.733,-0.418
-0.035,0.887,-0.533
0.013,0.946,-0.612
0.052,0.865,-0.565
-0.085,0.938,-0.674
-0.110,0.989,-0.643
-0.087,0.974,-0.583
-0.099,0.969,-0.572
-0.257,1.179,-0.909
-0.116,0.988,-0.706
-0.118,0.935,-0.659
-0.090,1.024,-0.770
-0.166,1.078,-0.781
-0.151,1.019,-0.758
-0.187,1.023,-0.686
-0.098,0.986,-0.667
-0.175,1.047,-0.723
-0.082,0.977,-0.604
-0.012,0.898,-0.640
-0.122,1.082,-0.759
-0.186,1.153,-0.837
-0.084,1.066,-0.816
-0.202,1.219,-0.971
0.026,0.977,-0.708
-0.106,1.052,-0.705
-0.018,0.981,-0.640
-0.025,0.999,-0.691
0.033,1.020,-0.671
-0.127,1.019,-0.749
-0.148,1.022,-0.708
-0.157,1.084,-0.684
-0.037,0.888,-0.600
-0.056,0.992,-0.671
0.019,0.931,-0.712
-0.035,1.004,-0.791
0.081,0.777,-0.460
-0.078,0.962,-0.679
0.045,0.809,-0.531
0.084,0.751,-0.381
0.007,0.783,-0.533
-0.016,0.841,-0.621
-0.012,0.828,-0.518
-0.055,0.877,-0.583
-0.066,0.906,-0.567
0.166,0.658,-0.394
0.182,0.681,-0.402
0.082,0.834,-0.645
0.167,0.660,-0.373
0.075,0.831,-0.681
-0.063,0.984,-0.803
-0.008,0.912,-0.761
0.064,0.746,-0.615
0.139,0.635,-0.487
0.138,0.663,-0.454
0.009,0.846,-0.693
-0.018,0.906,-0.730
-0.030,0.948,-0.719
-0.025,0.944,-0.785
0.047,0.889,-0.621
0.092,0.821,-0.553
-0.054,0.927,-0.670
-0.012,0.896,-0.646
0.034,0.832,-0.580
-0.048,0.872,-0.606
-0.032,0.871,-0.547
-0.052,0.862,-0.571
-0.098,0.940,-0.612
-0.025,0.991,-0.736
0.092,0.766,-0.551
0.162,0.724,-0.446
0.084,0.816,-0.556
-0.030,0.920,-0.705
0.101,0.769,-0.571
-0.021,0.807,-0.635
-0.056,0.906,-0.788
-0.138,1.050,-0.893
0.029,0.924,-0.772
0.096,0.781,-0.536
0.181,0.708,-0.519
0.146,0.779,-0.580
0.067,0.938,-0.758
0.095,0.872,-0.578
0.176,0.781,-0.536
0.179,0.778,-0.628
0.240,0.674,-0.502
0.242,0.691,-0.539
0.125,0.826,-0.598
0.004,0.932,-0.691
0.095,0.784,-0.612
0.056,0.851,-0.584
-0.041,0.934,-0.679
0.008,0.888,-0.609
0.007,0.913,-0.735
0.125,0.860,-0.669
0.148,0.828,-0.665
0.147,0.785,-0.573
-0.014,1.040,-0.873
-0.172,1.211,-1.028
0.015,0.948,-0.703
0.011,0.966,-0.712
-0.058,0.947,-0.681
-0.209,1.065,-0.741
-0.099,0.939,-0.705
0.007,0.835,-0.553
-0.026,0.938,-0.584
-0.087,0.969,-0.573
-0.034,0.939,-0.626
-0.019,0.958,-0.689
-0.119,1.038,-0.803
-0.136,1.019,-0.746
-0.043,0.876,-0.615
-0.141,0.965,-0.764
0.092,0.821,-0.593
0.173,0.819,-0.642
0.095,0.884,-0.638
0.158,0.775,-0.519
-0.065,0.974,-0.691
-0.153,1.107,-0.840
-0.144,1.045,-0.717
-0.081,1.019,-0.723
0.055,0.909,-0.670
-0.070,1.036,-0.789
-0.076,0.970,-0.703
-0.115,0.958,-0.707
-0.018,0.916,-0.604
0.012,0.851,-0.550
0.035,0.936,-0.723
-0.022,0.906,-0.707
0.098,0.628,-0.386
-0.013,0.823,-0.554
-0.012,0.801,-0.453
-0.112,0.967,-0.647
-0.055,0.875,-0.522
0.016,0.906,-0.541
0.051,0.823,-0.540
0.048,0.897,-0.615
0.031,0.917,-0.591
0.123,0.851,-0.552
0.202,0.767,-0.363
0.142,0.836,-0.440
0.167,0.718,-0.380
0.197,0.641,-0.346
0.110,0.679,-0.308
0.041,0.806,-0.433
0.047,0.858,-0.603
0.083,0.807,-0.592
0.054,0.866,-0.612
0.060,0.836,-0.653
0.040,0.851,-0.559
0.022,0.998,-0.653
-0.034,1.063,-0.693
-0.131,1.088,-0.713
-0.106,1.027,-0.728
0.008,0.936,-0.711
0.056,0.868,-0.773
0.178,0.735,-0.501
0.039,0.869,-0.653
0.091,0.781,-0.622
0.145,0.720,-0.561
0.083,0.739,-0.527
0.065,0.908,-0.685
0.146,0.735,-0.514
-0.033,0.856,-0.640
0.014,0.797,-0.625
0.102,0.734,-0.556
0.073,0.716,-0.533
0.059,0.749,-0.480
0.107,0.798,-0.587
0.092,0.846,-0.629
0.086,0.823,-0.567
0.211,0.620,-0.376
0.174,0.711,-0.489
0.037,0.829,-0.576
0.121,0.813,-0.602
0.045,0.933,-0.646
-0.060,0.976,-0.612
0.164,0.770,-0.392
0.111,0.815,-0.513
0.083,0.800,-0.585
0.033,0.827,-0.514
0.059,0.826,-0.498
0.101,0.826,-0.576
-0.003,0.849,-0.531
0.070,0.775,-0.545
0.120,0.794,-0.486
-0.015,0.857,-0.610
-0.228,1.079,-0.726
-0.133,1.016,-0.641
-0.145,1.071,-0.729
0.072,0.851,-0.503
0.109,0.754,-0.520
0.116,0.736,-0.420
0.052,0.814,-0.518
-0.013,0.842,-0.595
0.120,0.730,-0.477
0.128,0.721,-0.510
0.035,0.815,-0.553
0.022,0.915,-0.660
-0.172,1.151,-0.955
-0.144,1.093,-0.793
-0.064,0.956,-0.626
-0.058,1.036,-0.764
0.051,0.900,-0.699
0.025,0.855,-0.669
0.178,0.683,-0.403
0.179,0.762,-0.510
0.076,0.837,-0.677
0.124,0.799,-0.607
-0.001,1.018,-0.863
0.018,0.915,-0.680
0.108,0.803,-0.591
0.044,0.926,-0.822
0.050,0.914,-0.746
-0.042,1.019,-0.759
0.059,0.976,-0.742
-0.034,1.047,-0.768
0.041,0.851,-0.634
-0.078,0.967,-0.588
0.013,0.904,-0.498
-0.056,1.041,-0.665
-0.001,0.885,-0.460
-0.130,1.058,-0.734
-0.054,0.921,-0.627
-0.017,0.946,-0.732
-0.105,1.017,-0.748
-0.105,0.945,-0.687
-0.097,0.997,-0.757
-0.051,0.960,-0.693
-0.038,1.026,-0.901
-0.094,1.089,-0.890
0.039,0.952,-0.742
0.173,0.794,-0.512
0.051,0.845,-0.631
-0.004,0.874,-0.571
0.105,0.822,-0.519
0.100,0.763,-0.445
0.105,0.806,-0.590
0.066,0.894,-0.624
0.070,0.739,-0.485
0.086,0.805,-0.608
-0.044,1.053,-0.903
-0.101,1.089,-0.804
-0.095,1.073,-0.819
-0.100,1.090,-0.788
-0.101,1.038,-0.679
-0.159,1.165,-0.868
-0.212,1.251,-0.902
-0.110,1.075,-0.763
-0.029,0.952,-0.682
0.133,0.744,-0.512
0.034,0.814,-0.643
0.122,0.770,-0.594
0.143,0.771,-0.544
0.005,0.880,-0.674
-0.115,1.060,-0.914
-0.159,1.049,-0.816
-0.030,0.908,-0.643
0.129,0.800,-0.572
0.137,0.802,-0.542
0.228,0.603,-0.415
0.076,0.766,-0.539
0.079,0.761,-0.495
0.003,0.818,-0.605
0.006,0.826,-0.584
0.041,0.843,-0.566
-0.022,0.910,-0.724
0.026,0.789,-0.416
-0.151,0.936,-0.560
-0.054,0.870,-0.464
-0.135,0.999,-0.668
-0.023,0.916,-0.544
0.038,0.916,-0.604
0.056,0.828,-0.505
-0.065,0.872,-0.579
0.006,0.856,-0.553
-0.034,0.955,-0.788
0.058,0.960,-0.826
0.008,1.028,-0.874
0.130,0.871,-0.622
0.145,0.890,-0.656
0.075,0.897,-0.669
-0.049,1.024,-0.774
-0.028,0.948,-0.701
0.003,0.885,-0.710
0.044,0.848,-0.584
0.004,0.851,-0.565
0.071,0.752,-0.590
-0.070,0.993,-0.814
-0.006,0.854,-0.586
-0.002,0.864,-0.506
0.089,0.794,-0.570
0.080,0.703,-0.544
0.053,0.789,-0.617
0.089,0.825,-0.563
0.035,0.921,-0.586
0.031,0.935,-0.597
0.152,0.823,-0.554
-0.000,0.952,-0.733
0.020,0.947,-0.710
0.044,0.884,-0.613
0.115,0.817,-0.631
0.017,0.873,-0.649
0.090,0.854,-0.726
0.002,0.941,-0.679
-0.011,0.955,-0.707
-0.080,1.068,-0.772
0.003,0.967,-0.685
0.063,0.945,-0.753
0.035,0.936,-0.700
0.030,0.859,-0.486
-0.118,1.008,-0.727
-0.134,1.045,-0.696
-0.053,0.967,-0.604
-0.035,1.010,-0.685
-0.057,0.974,-0.573
0.022,0.829,-0.472
0.158,0.695,-0.440
0.140,0.729,-0.534
0.260,0.588,-0.392
0.081,0.773,-0.532
0.077,0.771,-0.553
-0.022,0.970,-0.788
-0.021,0.944,-0.573
0.171,0.850,-0.593
0.060,0.953,-0.689
0.098,0.883,-0.631
-0.069,0.961,-0.752
-0.042,0.926,-0.733
-0.008,0.910,-0.662
0.029,0.927,-0.729
-0.050,0.904,-0.657
0.121,0.664,-0.345
0.183,0.649,-0.315
0.016,0.832,-0.580
0.031,0.930,-0.722
0.051,0.847,-0.634
0.054,0.827,-0.687
0.126,0.734,-0.569
0.150,0.793,-0.627
0.018,0.832,-0.617
0.163,0.794,-0.555
-0.009,0.924,-0.636
0.016,0.893,-0.660
0.006,0.949,-0.801
0.073,0.854,-0.640
0.050,0.822,-0.502
0.046,0.746,-0.507
-0.051,0.932,-0.699
-0.016,0.958,-0.675
-0.051,0.989,-0.783
0.018,0.860,-0.624
0.080,0.726,-0.511
0.098,0.681,-0.506
0.100,0.766,-0.554
0.031,0.806,-0.596
-0.070,0.919,-0.673
-0.051,0.927,-0.723
-0.050,0.954,-0.741
0.011,0.833,-0.690
-0.049,0.893,-0.705
-0.084,0.929,-0.638
-0.060,1.022,-0.803
-0.009,0.959,-0.792
-0.025,0.803,-0.675
-0.044,0.876,-0.711
-0.054,0.842,-0.557
-0.039,0.773,-0.465
0.069,0.727,-0.457
0.055,0.857,-0.528
0.040,0.876,-0.624
0.065,0.904,-0.771
-0.065,0.982,-0.768
0.055,0.927,-0.610
0.090,0.784,-0.431
0.114,0.835,-0.547
0.172,0.781,-0.484
0.159,0.769,-0.504
0.075,0.715,-0.446
-0.002,0.851,-0.590
-0.051,0.935,-0.791
-0.076,0.835,-0.604
-0.031,0.805,-0.552
-0.079,0.915,-0.599
0.036,0.729,-0.453
0.124,0.690,-0.393
0.143,0.802,-0.629
0.169,0.743,-0.521
0.141,0.758,-0.513
0.019,0.878,-0.666
-0.020,0.870,-0.699
-0.071,0.945,-0.758
0.158,0.703,-0.546
-0.004,0.892,-0.723
0.036,0.865,-0.669
0.081,0.783,-0.588
-0.091,0.990,-0.795
-0.226,1.114,-0.825
-0.021,0.883,-0.599
-0.049,0.854,-0.597
-0.091,1.002,-0.657
-0.107,0.920,-0.604
-0.079,0.952,-0.743
0.070,0.857,-0.764
0.104,0.789,-0.616
0.135,0.757,-0.650
0.218,0.646,-0.500
0.092,0.691,-0.444
0.108,0.742,-0.424
0.177,0.763,-0.466
0.043,0.855,-0.564
0.052,0.773,-0.526
-0.042,0.920,-0.636
-0.067,0.992,-0.709
-0.055,0.936,-0.607
0.058,0.905,-0.643
0.069,0.875,-0.602
-0.118,1.059,-0.774
-0.171,1.092,-0.891
-0.043,0.846,-0.554
-0.242,1.066,-0.799
-0.064,0.955,-0.775
-0.195,1.184,-1.038
-0.075,1.083,-0.886
-0.105,1.126,-0.867
-0.170,1.148,-0.823
-0.136,1.056,-0.583
-0.204,1.127,-0.639
-0.177,1.115,-0.632
-0.224,1.231,-0.826
-0.328,1.346,-0.944
-0.332,1.292,-0.907
-0.148,1.043,-0.611
-0.168,1.094,-0.722
-0.136,1.066,-0.666
-0.043,0.943,-0.559
0.009,0.853,-0.527
-0.026,0.882,-0.534
-0.136,1.006,-0.679
-0.060,1.015,-0.671
0.003,0.964,-0.609
0.053,0.842,-0.582
0.054,0.755,-0.712
0.059,0.859,-0.744
0.076,0.790,-0.504
0.145,0.763,-0.516
-0.022,0.842,-0.617
0.049,0.876,-0.623
0.050,0.793,-0.469
-0.044,0.850,-0.475
0.010,0.863,-0.620
-0.089,0.962,-0.690
-0.053,0.977,-0.667
-0.005,0.889,-0.622
-0.073,0.981,-0.662
-0.247,1.127,-0.823
-0.098,0.972,-0.759
-0.111,1.083,-0.716
-0.025,0.912,-0.735
0.037,0.875,-0.657
0.114,0.765,-0.605
0.186,0.745,-0.580
0.102,0.850,-0.703
0.125,0.724,-0.520
0.122,0.721,-0.519
0.159,0.699,-0.459
0.064,0.781,-0.519
0.066,0.795,-0.547
0.076,0.810,-0.561
0.104,0.805,-0.536
0.120,0.808,-0.540
0.117,0.839,-0.528
0.117,0.813,-0.554
0.182,0.750,-0.551
0.163,0.897,-0.737
0.225,0.754,-0.511
0.160,0.711,-0.498
0.162,0.752,-0.517
-0.022,0.975,-0.781
0.051,0.836,-0.619
0.053,0.896,-0.504
0.029,0.963,-0.585
0.053,0.871,-0.445
0.002,0.975,-0.580
-0.097,1.099,-0.731
-0.060,1.089,-0.830
-0.180,1.105,-0.789
-0.203,1.112,-0.788
-0.137,0.995,-0.667
-0.016,0.927,-0.594
0.006,0.993,-0.678
0.104,0.866,-0.558
0.167,0.855,-0.627
0.030,0.992,-0.786
0.005,0.978,-0.726
-0.137,1.086,-0.735
-0.235,1.097,-0.685
-0.116,0.984,-0.591
-0.050,0.868,-0.539
-0.050,0.950,-0.636
0.049,0.793,-0.378
-0.147,1.023,-0.760
-0.022,0.972,-0.579
-0.020,0.975,-0.651
-0.084,1.020,-0.607
0.022,0.923,-0.621
-0.065,0.959,-0.680
0.062,0.859,-0.625
0.160,0.814,-0.573
0.201,0.734,-0.466
0.183,0.777,-0.593
0.132,0.733,-0.494
0.164,0.720,-0.592
0.288,0.577,-0.303
0.122,0.752,-0.514
0.069,0.791,-0.539
0.120,0.759,-0.537
0.085,0.732,-0.540
0.100,0.667,-0.398
0.084,0.712,-0.519
0.061,0.792,-0.608
-0.078,0.949,-0.654
-0.062,0.983,-0.658
-0.042,0.961,-0.650
0.064,0.824,-0.529
-0.007,0.949,-0.676
-0.035,0.947,-0.745
-0.178,1.065,-0.810
-0.080,0.926,-0.698
-0.151,1.074,-0.861
-0.128,1.002,-0.700
-0.139,1.026,-0.761
-0.066,0.922,-0.587
0.050,0.831,-0.603
0.092,0.824,-0.533
0.163,0.777,-0.492
0.012,0.923,-0.758
0.033,0.825,-0.573
0.014,0.833,-0.608
-0.007,0.799,-0.560
-0.127,0.980,-0.691
-0.035,0.866,-0.596
0.019,0.824,-0.490
-0.009,0.818,-0.534
-0.031,0.838,-0.632
0.001,0.795,-0.501
-0.065,0.874,-0.513
-0.130,0.871,-0.422
-0.080,0.916,-0.593
-0.170,1.061,-0.816
-0.081,0.957,-0.644
-0.060,0.918,-0.636
0.042,0.768,-0.399
-0.002,0.841,-0.564
-0.082,0.917,-0.646
-0.098,0.934,-0.671
-0.051,0.917,-0.679
0.062,0.782,-0.525
0.043,0.842,-0.547
0.040,0.859,-0.602
0.105,0.798,-0.518
0.041,0.862,-0.617
0.014,0.818,-0.526
-0.030,0.845,-0.483
-0.049,0.884,-0.557
0.051,0.781,-0.558
0.096,0.829,-0.644
0.171,0.751,-0.656
0.146,0.832,-0.704
0.058,0.953,-0.827
0.052,0.903,-0.711
0.001,0.993,-0.717
0.148,0.773,-0.576
-0.074,0.954,-0.680
-0.070,0.987,-0.679
-0.046,1.005,-0.702
-0.011,0.885,-0.515
-0.081,0.852,-0.581
-0.120,0.982,-0.705
-0.067,0.905,-0.604
0.070,0.875,-0.562
0.140,0.805,-0.471
-0.065,0.913,-0.516
-0.069,0.985,-0.715
-0.103,1.051,-0.752
-0.015,0.869,-0.680
0.149,0.638,-0.418
-0.013,0.808,-0.504
-0.015,0.867,-0.559
-0.056,0.863,-0.616
-0.115,0.932,-0.567
-0.105,0.956,-0.578
-0.174,1.029,-0.730
-0.078,0.914,-0.699
-0.152,0.970,-0.715
-0.184,1.075,-0.843
0.013,0.876,-0.687
0.047,0.910,-0.667
-0.002,0.885,-0.678
0.037,0.807,-0.660
0.065,0.794,-0.586
0.015,0.784,-0.552
-0.080,0.945,-0.714
-0.010,0.867,-0.609
-0.150,1.056,-0.801
-0.083,1.051,-0.757
-0.129,1.085,-0.866
-0.061,0.996,-0.751
0.027,0.843,-0.412
0.151,0.781,-0.440
0.118,0.856,-0.588
-0.104,1.073,-0.799
-0.079,1.076,-0.789
-0.141,1.105,-0.769
-0.116,1.103,-0.883
-0.095,1.014,-0.751
-0.061,1.014,-0.699
-0.070,0.924,-0.495
-0.055,0.962,-0.633
-0.018,0.912,-0.590
0.050,0.848,-0.507
-0.050,0.909,-0.638
-0.039,0.932,-0.665
-0.007,0.872,-0.605
0.124,0.766,-0.554
0.159,0.787,-0.596
0.110,0.826,-0.641
0.040,0.906,-0.625
-0.047,0.995,-0.680
-0.102,1.042,-0.752
-0.057,1.034,-0.713
-0.067,1.007,-0.690
-0.123,1.052,-0.663
0.007,0.785,-0.393
0.035,0.802,-0.450
-0.118,0.932,-0.628
0.060,0.856,-0.594
0.101,0.773,-0.379
0.124,0.702,-0.405
0.089,0.742,-0.448
0.061,0.850,-0.499
0.091,0.816,-0.460
-0.011,0.874,-0.461
0.054,0.911,-0.620
0.054,0.909,-0.716
-0.089,0.952,-0.651
-0.038,0.847,-0.440
0.004,0.786,-0.455
0.085,0.851,-0.613
0.095,0.830,-0.495
-0.124,1.095,-0.881
-0.036,0.949,-0.710
-0.068,1.006,-0.619
-0.097,1.000,-0.614
-0.040,1.042,-0.750
-0.017,1.020,-0.723
0.039,0.947,-0.641
-0.078,0.972,-0.576
0.004,0.837,-0.346
-0.008,0.939,-0.545
-0.029,0.921,-0.711
-0.024,0.965,-0.645
-0.072,0.977,-0.695
-0.056,0.923,-0.581
0.142,0.718,-0.569
0.163,0.677,-0.489
0.062,0.787,-0.542
0.093,0.770,-0.666
0.147,0.699,-0.532
0.057,0.828,-0.608
0.010,0.820,-0.576
-0.025,0.917,-0.643
-0.151,1.032,-0.815
-0.217,1.118,-0.968
-0.027,0.967,-0.861
-0.099,0.929,-0.781
-0.049,0.813,-0.571
-0.118,0.865,-0.542
-0.048,0.835,-0.585
-0.073,0.904,-0.612
-0.013,0.835,-0.560
0.064,0.854,-0.556
0.045,0.819,-0.472
-0.058,0.815,-0.408
-0.051,0.988,-0.607
-0.087,1.017,-0.654
0.032,0.881,-0.551
0.231,0.656,-0.459
0.155,0.702,-0.544
0.139,0.769,-0.600
0.052,0.852,-0.667
0.112,0.756,-0.428
0.099,0.759,-0.455
0.204,0.707,-0.473
0.095,0.778,-0.597
0.170,0.742,-0.595
0.222,0.654,-0.392
0.178,0.766,-0.497
0.169,0.739,-0.517
0.122,0.733,-0.504
0.084,0.797,-0.587
0.132,0.831,-0.622
-0.022,0.973,-0.703
0.079,0.815,-0.630
0.278,0.614,-0.349
0.170,0.761,-0.504
0.043,0.898,-0.843
-0.033,0.953,-0.735
-0.004,0.939,-0.770
0.026,0.893,-0.722
-0.060,0.980,-0.798
0.061,0.834,-0.629
0.005,0.822,-0.621
-0.061,0.885,-0.649
-0.021,0.875,-0.611
-0.052,0.939,-0.651
-0.155,1.048,-0.707
-0.223,1.083,-0.724
-0.305,1.213,-0.926
-0.216,1.196,-0.817
-0.192,1.244,-0.959
-0.071,0.993,-0.749
0.100,0.822,-0.553
-0.012,0.948,-0.564
-0.046,0.957,-0.557
-0.106,1.085,-0.723
-0.150,0.965,-0.579
-0.269,1.081,-0.567
-0.030,0.869,-0.550
-0.056,0.948,-0.781
-0.089,1.060,-0.771
-0.025,0.964,-0.741
-0.114,1.060,-0.776
-0.004,0.932,-0.635
-0.100,0.947,-0.520
0.011,0.829,-0.449
0.002,0.838,-0.531
-0.077,0.900,-0.655
-0.115,1.027,-0.751
0.002,0.949,-0.755
-0.043,0.929,-0.710
-0.097,0.952,-0.651
-0.006,0.998,-0.722
0.004,1.021,-0.790
-0.021,0.998,-0.730
0.053,0.940,-0.723
0.111,0.839,-0.751
0.216,0.674,-0.491
0.174,0.754,-0.522
0.161,0.755,-0.451
0.127,0.820,-0.565
-0.015,0.931,-0.798
-0.027,1.000,-0.748
-0.055,0.989,-0.663
-0.182,1.086,-0.656
-0.223,1.331,-0.984
-0.200,1.240,-0.912
-0.206,1.137,-0.788
-0.197,1.133,-0.699
-0.300,1.253,-0.906
-0.082,1.040,-0.663
-0.105,1.009,-0.583
-0.224,1.152,-0.729
-0.115,1.008,-0.618
-0.027,0.921,-0.516
-0.033,0.894,-0.491
-0.006,0.888,-0.580
-0.190,1.120,-0.739
-0.030,0.926,-0.670
-0.098,1.059,-0.705
-0.136,1.091,-0.793
-0.084,1.123,-0.880
0.030,0.987,-0.832
0.036,0.942,-0.618
0.083,0.851,-0.572
-0.001,0.955,-0.693
-0.070,0.978,-0.692
-0.143,1.025,-0.689
-0.149,1.024,-0.597
-0.015,0.861,-0.490
-0.125,0.941,-0.629
0.003,0.810,-0.569
-0.002,0.810,-0.616
0.086,0.715,-0.474
0.009,0.752,-0.505
-0.004,0.854,-0.655
0.059,0.771,-0.652
-0.072,0.884,-0.726
-0.011,0.856,-0.591
0.071,0.741,-0.439
0.021,0.827,-0.464
0.061,0.801,-0.507
0.140,0.706,-0.388
0.092,0.783,-0.489
0.119,0.674,-0.420
0.042,0.808,-0.581
0.056,0.768,-0.579
0.018,0.850,-0.690
0.119,0.768,-0.600
0.124,0.730,-0.562
0.084,0.842,-0.708
0.048,0.942,-0.716
0.081,0.747,-0.417
0.082,0.710,-0.350
0.023,0.747,-0.404
0.119,0.645,-0.386
-0.152,1.021,-0.812
-0.033,0.884,-0.697
-0.001,0.792,-0.526
-0.023,0.821,-0.499
-0.002,0.915,-0.658
-0.062,0.914,-0.675
0.048,0.840,-0.574
-0.014,0.897,-0.642
0.022,0.868,-0.549
-0.029,0.920,-0.624
-0.027,0.982,-0.690
0.057,0.915,-0.686
0.026,0.865,-0.587
0.084,0.772,-0.549
0.041,0.844,-0.578
-0.024,0.920,-0.709
0.019,0.892,-0.698
0.060,0.844,-0.591
0.106,0.733,-0.630
0.138,0.682,-0.441
0.066,0.745,-0.500
0.088,0.749,-0.621
-0.031,0.961,-0.724
0.088,0.760,-0.368
0.065,0.903,-0.591
0.054,0.951,-0.638
-0.096,1.037,-0.705
-0.159,1.128,-0.670
-0.226,1.185,-0.721
-0.133,1.032,-0.625
0.048,0.884,-0.591
0.039,0.873,-0.611
-0.086,0.943,-0.752
0.004,0.885,-0.646
-0.283,1.236,-0.933
-0.181,1.129,-0.811
-0.110,1.080,-0.690
-0.174,1.109,-0.763
-0.038,0.944,-0.615
-0.068,1.061,-0.736
-0.087,1.006,-0.623
-0.118,1.009,-0.681
-0.056,0.910,-0.630
0.025,0.774,-0.464
0.034,0.834,-0.472
-0.008,0.815,-0.488
0.096,0.764,-0.436
0.071,0.716,-0.446
0.085,0.672,-0.542
-0.037,0.879,-0.680
0.133,0.695,-0.571
-0.057,0.831,-0.650
0.127,0.678,-0.478
0.287,0.558,-0.344
0.150,0.674,-0.404
0.155,0.682,-0.472
0.105,0.808,-0.626
0.089,0.802,-0.562
0.236,0.736,-0.523
0.158,0.796,-0.487
0.129,0.816,-0.502
0.094,0.829,-0.508
0.018,0.870,-0.575
-0.074,0.926,-0.676
-0.250,1.127,-0.817
-0.112,1.003,-0.686
-0.133,1.031,-0.735
-0.164,1.092,-0.810
-0.047,0.909,-0.555
-0.045,0.895,-0.548
-0.134,1.038,-0.721
-0.124,1.011,-0.764
-0.126,0.979,-0.666
-0.070,0.922,-0.638
-0.155,1.096,-0.717
-0.081,1.050,-0.632
-0.069,1.006,-0.731
0.028,0.882,-0.685
-0.207,1.102,-0.846
-0.060,1.016,-0.679
-0.056,1.026,-0.824
0.004,0.959,-0.753
0.051,0.854,-0.647
-0.009,0.861,-0.616
0.056,0.781,-0.556
0.131,0.711,-0.485
0.017,0.850,-0.727
0.037,0.817,-0.618
0.103,0.799,-0.644
0.070,0.884,-0.620
0.071,0.839,-0.621
-0.042,0.885,-0.690
0.023,0.841,-0.689
-0.097,0.983,-0.646
-0.107,1.001,-0.695
-0.212,1.132,-0.879
-0.109,0.981,-0.724
-0.143,1.071,-0.754
-0.016,0.894,-0.528
0.011,0.970,-0.710
0.013,0.959,-0.754
-0.078,1.020,-0.724
0.006,0.982,-0.646
-0.007,1.009,-0.655
0.029,0.981,-0.704
-0.072,1.059,-0.759
0.028,0.902,-0.688
-0.011,0.949,-0.755
-0.010,0.953,-0.765
0.051,0.905,-0.676
-0.102,1.062,-0.762
0.152,0.715,-0.480
-0.013,1.017,-0.853
0.096,0.861,-0.471
-0.041,1.036,-0.739
-0.066,0.990,-0.698
-0.137,1.115,-0.917
-0.104,0.991,-0.743
-0.139,1.029,-0.910
-0.182,1.174,-0.896
-0.157,1.057,-0.841
-0.080,0.951,-0.583
-0.024,0.934,-0.608
0.036,0.906,-0.607
-0.016,1.013,-0.800
0.002,0.873,-0.557
-0.013,0.964,-0.684
0.050,0.855,-0.659
-0.039,0.934,-0.726
-0.023,0.942,-0.753
0.092,0.808,-0.679
0.030,0.885,-0.713
-0.034,0.980,-0.707
0.091,0.795,-0.571
0.075,0.899,-0.719
0.123,0.842,-0.550
0.232,0.700,-0.447
0.105,0.843,-0.681
0.038,0.905,-0.613
-0.005,0.948,-0.687
0.112,0.794,-0.553
0.176,0.731,-0.500
-0.006,0.862,-0.666
-0.092,1.022,-0.824
-0.038,0.956,-0.740
0.007,0.835,-0.460
-0.039,0.976,-0.674
0.142,0.739,-0.447
-0.053,0.935,-0.698
0.011,0.983,-0.718
-0.074,1.045,-0.723
-0.082,1.034,-0.734
0.052,0.924,-0.525
0.007,0.947,-0.658
-0.048,1.060,-0.769
0.058,0.878,-0.626
0.202,0.670,-0.427
0.093,0.758,-0.477
0.003,0.835,-0.558
0.098,0.752,-0.459
-0.119,0.963,-0.647
0.055,0.832,-0.566
0.159,0.737,-0.603
0.029,0.895,-0.720
-0.054,1.013,-0.857
-0.023,0.918,-0.729
-0.106,0.924,-0.669
-0.054,0.874,-0.730
0.051,0.848,-0.518
0.151,0.749,-0.433
0.062,0.846,-0.581
0.006,0.870,-0.633
0.154,0.737,-0.408
0.097,0.813,-0.593
0.074,0.804,-0.679
0.020,0.902,-0.839
-0.001,0.877,-0.676
-0.044,0.917,-0.639
-0.020,0.973,-0.737
-0.003,0.907,-0.616
0.095,0.760,-0.494
0.019,0.842,-0.611
0.094,0.716,-0.531
0.084,0.803,-0.645
0.102,0.787,-0.744
0.185,0.671,-0.484
0.145,0.762,-0.481
0.084,0.792,-0.540
0.091,0.765,-0.634
0.095,0.729,-0.539
0.166,0.690,-0.496
0.114,0.826,-0.635
0.034,0.828,-0.565
0.026,0.811,-0.563
0.101,0.758,-0.590
-0.043,0.966,-0.810
-0.028,0.887,-0.719
-0.015,0.865,-0.598
0.216,0.597,-0.204
0.102,0.803,-0.559
0.033,0.875,-0.556
0.019,0.848,-0.504
-0.111,0.997,-0.618
-0.193,1.049,-0.677
-0.032,0.950,-0.697
0.043,0.889,-0.658
0.019,0.854,-0.619
-0.145,1.013,-0.795
-0.159,1.020,-0.813
-0.255,1.034,-0.782
-0.223,1.074,-0.816
-0.068,0.939,-0.760
-0.186,1.104,-0.870
-0.136,1.048,-0.802
0.037,0.863,-0.530
0.007,0.912,-0.680
0.029,0.922,-0.669
-0.018,0.908,-0.723
0.059,0.812,-0.552
0.039,0.704,-0.479
0.048,0.897,-0.628
0.188,0.714,-0.444
0.120,0.689,-0.447
0.003,0.912,-0.689
-0.046,0.959,-0.665
-0.184,1.121,-0.758
-0.163,1.078,-0.751
-0.212,1.201,-0.904
-0.138,1.128,-0.797
-0.071,1.046,-0.682
0.056,0.899,-0.490
-0.105,1.129,-0.798
-0.016,1.012,-0.598
-0.201,1.177,-0.806
-0.228,1.201,-0.787
-0.130,1.080,-0.697
0.002,0.945,-0.768
0.051,0.968,-0.663
0.106,0.863,-0.615
0.259,0.604,-0.333
0.059,0.750,-0.439
0.064,0.794,-0.439
0.010,0.931,-0.613
-0.014,0.819,-0.554
0.085,0.798,-0.493
0.074,0.745,-0.398
0.113,0.738,-0.319
0.120,0.793,-0.507
-0.065,0.987,-0.658
-0.106,0.992,-0.732
-0.110,1.084,-0.773
-0.022,0.984,-0.652
-0.162,1.059,-0.665
-0.120,1.014,-0.674
-0.308,1.213,-0.917
-0.253,1.191,-0.845
-0.117,1.101,-0.744
-0.119,1.072,-0.739
-0.165,1.087,-0.704
-0.223,1.116,-0.771
-0.280,1.196,-0.929
-0.212,1.191,-0.830
-0.294,1.265,-0.820
-0.149,1.040,-0.616
-0.227,1.091,-0.776
-0.142,1.008,-0.732
-0.049,0.903,-0.687
0.005,0.798,-0.538
-0.063,0.804,-0.633
-0.004,0.790,-0.469
0.032,0.778,-0.513
-0.018,0.801,-0.480
0.061,0.749,-0.458
-0.059,0.924,-0.710
-0.083,1.005,-0.753
-0.117,1.029,-0.730
-0.073,0.979,-0.720
-0.112,0.991,-0.643
-0.095,1.032,-0.745
-0.002,0.909,-0.674
-0.120,1.050,-0.849
0.003,0.898,-0.629
0.119,0.711,-0.318
0.068,0.762,-0.491
0.062,0.820,-0.679
-0.002,0.892,-0.730
-0.064,0.885,-0.713
-0.100,0.901,-0.666
-0.005,0.814,-0.502
-0.091,0.947,-0.693
-0.155,0.993,-0.724
-0.037,0.946,-0.652
-0.118,1.013,-0.757
-0.024,1.006,-0.831
0.010,0.929,-0.775
0.044,0.903,-0.715
-0.072,1.060,-0.810
0.056,0.878,-0.494
0.060,0.852,-0.639
0.100,0.822,-0.660
0.000,0.957,-0.874
0.044,0.867,-0.689
-0.027,0.863,-0.591
0.022,0.885,-0.657
0.005,0.940,-0.670
0.054,0.787,-0.537
0.232,0.650,-0.446
0.163,0.774,-0.621
-0.008,0.976,-0.829
-0.038,0.955,-0.848
-0.025,0.868,-0.703
-0.060,0.956,-0.687
-0.063,0.980,-0.771
-0.020,0.928,-0.604
-0.033,0.981,-0.657
-0.031,0.981,-0.729
0.091,0.823,-0.639
0.076,0.813,-0.619
0.121,0.759,-0.483
-0.017,0.994,-0.692
-0.022,1.001,-0.733
-0.121,1.093,-0.862
-0.088,1.040,-0.754
-0.015,0.958,-0.698
-0.028,0.951,-0.683
-0.076,1.037,-0.837
-0.119,1.088,-0.963
-0.200,1.133,-0.967
0.010,0.906,-0.625
0.031,0.835,-0.579
-0.003,0.891,-0.504
0.084,0.923,-0.536
0.058,0.896,-0.548
0.033,0.936,-0.602
-0.044,0.985,-0.669
-0.080,0.954,-0.548
-0.044,0.945,-0.604
0.039,0.802,-0.562
0.069,0.773,-0.474
0.087,0.817,-0.509
0.111,0.775,-0.482
0.025,0.805,-0.552
0.158,0.731,-0.447
0.053,0.814,-0.599
0.202,0.690,-0.461
-0.002,0.883,-0.611
-0.022,0.914,-0.540
-0.077,0.960,-0.611
-0.032,1.006,-0.653
-0.184,1.214,-0.991
-0.080,0.962,-0.696
-0.032,0.871,-0.538
-0.057,0.964,-0.633
-0.069,0.920,-0.611
0.086,0.767,-0.609
0.107,0.814,-0.587
0.166,0.745,-0.464
0.020,0.852,-0.677
0.082,0.786,-0.575
0.121,0.757,-0.530
0.035,0.898,-0.771
0.046,0.874,-0.692
-0.081,1.035,-0.864
0.011,0.891,-0.655
0.091,0.723,-0.441
-0.104,1.000,-0.845
-0.029,0.847,-0.573
-0.061,0.933,-0.692
-0.086,1.008,-0.762
-0.023,0.902,-0.593
-0.111,1.030,-0.658
-0.272,1.207,-0.921
-0.137,1.039,-0.853
-0.107,1.064,-0.813
-0.110,1.015,-0.819
-0.047,0.987,-0.700
-0.008,0.939,-0.747
-0.100,1.051,-0.673
-0.062,1.030,-0.653
0.058,0.839,-0.554
0.092,0.827,-0.539
0.033,0.857,-0.598
-0.123,0.933,-0.648
-0.119,1.038,-0.737
-0.126,1.080,-0.756
-0.035,1.024,-0.806
-0.026,0.943,-0.767
0.005,0.904,-0.784
0.010,0.973,-0.826
0.008,0.875,-0.649
0.063,0.804,-0.602
-0.076,1.037,-0.767
0.035,0.884,-0.662
0.077,0.846,-0.652
-0.110,0.995,-0.678
0.004,0.885,-0.511
-0.013,0.808,-0.544
0.113,0.637,-0.355
0.097,0.636,-0.435
-0.024,0.765,-0.494
0.011,0.787,-0.525
0.043,0.716,-0.491
0.035,0.767,-0.443
-0.077,0.922,-0.658
-0.226,1.142,-0.885
-0.115,1.026,-0.852
-0.098,0.943,-0.677
-0.242,1.194,-0.936
-0.114,1.010,-0.706
-0.225,1.132,-0.830
-0.079,0.998,-0.747
-0.019,0.859,-0.716
-0.022,0.837,-0.702
-0.027,0.785,-0.697
-0.042,0.870,-0.715
0.013,0.820,-0.541
0.028,0.771,-0.515
0.043,0.808,-0.578
0.058,0.760,-0.409
-0.011,0.829,-0.558
0.019,0.737,-0.394
0.101,0.631,-0.402
0.027,0.717,-0.467
0.033,0.830,-0.556
0.018,0.900,-0.655
-0.062,1.001,-0.904
-0.054,0.938,-0.759
-0.073,0.973,-0.719
0.014,0.909,-0.625
-0.040,0.917,-0.559
-0.160,1.047,-0.632
-0.095,1.020,-0.710
-0.156,1.004,-0.590
-0.122,0.967,-0.623
-0.131,1.014,-0.705
-0.180,1.125,-0.898
-0.140,1.133,-0.804
-0.158,1.196,-0.939
-0.147,1.085,-0.731
-0.164,1.105,-0.735
-0.038,0.976,-0.632
-0.139,1.130,-0.808
-0.017,1.023,-0.777
-0.013,0.963,-0.710
0.084,0.814,-0.540
0.032,0.890,-0.577
0.178,0.721,-0.377
-0.030,1.010,-0.664
-0.026,0.944,-0.686
-0.010,0.872,-0.617
-0.031,0.947,-0.698
-0.026,0.832,-0.650
0.057,0.800,-0.657
0.040,0.779,-0.577
0.088,0.793,-0.636
0.008,0.829,-0.595
0.067,0.816,-0.528
0.129,0.808,-0.524
0.066,0.851,-0.576
0.138,0.720,-0.416
0.045,0.844,-0.506
0.078,0.829,-0.561
0.017,0.843,-0.547
-0.071,0.990,-0.712
0.018,0.915,-0.641
0.158,0.849,-0.587
-0.028,0.993,-0.665
-0.053,0.977,-0.628
-0.124,1.052,-0.750
-0.099,0.973,-0.633
-0.076,0.995,-0.726
0.026,0.797,-0.492
0.012,0.873,-0.601
0.006,0.815,-0.491
0.018,0.871,-0.552
-0.056,0.964,-0.652
-0.129,1.028,-0.684
0.034,0.905,-0.582
-0.049,1.002,-0.654
-0.088,1.020,-0.731
0.059,0.896,-0.712
-0.009,0.949,-0.786
0.077,0.892,-0.567
0.111,0.848,-0.516
0.007,0.961,-0.718
0.011,0.830,-0.652
0.083,0.783,-0.589
0.025,0.735,-0.526
-0.030,0.809,-0.668
0.078,0.726,-0.522
0.029,0.762,-0.543
0.112,0.641,-0.339
0.050,0.703,-0.471
0.125,0.663,-0.462
0.125,0.704,-0.549
0.018,0.858,-0.654
0.025,0.914,-0.564
0.052,0.868,-0.531
0.119,0.841,-0.522
-0.013,0.894,-0.589
-0.028,0.887,-0.469
0.102,0.765,-0.339
0.032,0.798,-0.405
0.093,0.840,-0.510
-0.126,1.096,-0.842
-0.122,1.021,-0.732
-0.148,1.084,-0.777
-0.148,1.082,-0.753
-0.050,0.995,-0.697
-0.130,1.152,-0.872
0.020,0.945,-0.665
-0.007,0.933,-0.643
-0.129,1.051,-0.862
-0.145,1.158,-0.928
-0.061,1.023,-0.778
-0.257,1.256,-0.989
-0.142,1.166,-0.805
-0.236,1.335,-1.045
-0.147,1.155,-0.872
0.003,1.012,-0.820
-0.066,1.113,-0.879
-0.019,1.041,-0.790
-0.061,1.078,-0.898
-0.086,1.070,-0.747
-0.183,1.203,-0.966
0.016,0.918,-0.706
0.076,0.702,-0.434
-0.045,0.898,-0.629
0.124,0.659,-0.298
0.029,0.842,-0.474
0.091,0.821,-0.545
0.108,0.824,-0.678
0.130,0.820,-0.672
0.135,0.710,-0.566
-0.030,0.864,-0.752
0.016,0.899,-0.712
-0.039,0.890,-0.622
0.080,0.786,-0.521
-0.050,0.962,-0.677
-0.179,1.015,-0.712
-0.174,0.981,-0.664
-0.202,1.061,-0.756
-0.179,1.104,-0.771
-0.171,1.030,-0.766
-0.066,0.915,-0.536
-0.203,1.010,-0.623
-0.299,1.224,-1.013
-0.182,1.148,-0.918
-0.143,1.069,-0.877
-0.168,1.118,-0.899
-0.147,1.118,-0.788
-0.074,0.947,-0.683
-0.196,1.056,-0.688
-0.084,0.948,-0.646
-0.115,0.989,-0.624
-0.008,0.886,-0.594
-0.087,0.990,-0.753
0.075,0.891,-0.639
-0.052,1.021,-0.708
-0.022,0.997,-0.770
0.116,0.803,-0.528
-0.077,1.058,-0.764
-0.171,1.070,-0.780
-0.067,0.985,-0.673
-0.130,1.133,-0.792
-0.096,1.046,-0.740
-0.143,1.044,-0.809
0.081,0.804,-0.514
0.151,0.703,-0.554
0.147,0.651,-0.461
0.068,0.703,-0.507
-0.001,0.844,-0.577
-0.073,0.978,-0.726
-0.213,1.007,-0.692
-0.226,1.024,-0.565
-0.201,1.039,-0.622
-0.092,0.917,-0.617
-0.095,1.050,-0.717
-0.142,1.051,-0.759
-0.077,1.054,-0.810
0.097,0.828,-0.523
0.093,0.826,-0.442
0.017,0.960,-0.525
-0.188,1.129,-0.644
-0.148,1.176,-0.828
-0.103,1.084,-0.798
-0.022,0.918,-0.643
0.005,0.863,-0.523
0.011,0.869,-0.507
0.070,0.671,-0.420
0.017,0.720,-0.486
-0.046,0.878,-0.655
0.012,0.872,-0.535
-0.160,1.073,-0.719
-0.145,0.971,-0.731
-0.060,0.885,-0.639
-0.185,1.017,-0.753
-0.178,1.022,-0.751
-0.062,0.978,-0.630
0.096,0.727,-0.422
0.020,0.815,-0.566
-0.001,0.836,-0.394
0.100,0.775,-0.529
-0.010,0.899,-0.775
-0.047,0.928,-0.672
-0.149,1.112,-0.871
-0.120,1.051,-0.739
-0.033,0.994,-0.560
-0.082,1.114,-0.759
0.042,0.921,-0.630
0.016,0.966,-0.766
0.035,0.916,-0.724
0.095,0.881,-0.720
-0.122,1.102,-0.897
0.024,0.944,-0.615
-0.103,1.118,-0.922
-0.075,0.991,-0.796
-0.160,1.157,-1.006
-0.037,0.919,-0.797
0.113,0.706,-0.498
0.055,0.818,-0.585
-0.072,0.991,-0.769
-0.110,1.103,-0.895
-0.045,1.006,-0.772
0.058,0.904,-0.564
-0.015,1.052,-0.818
-0.004,0.935,-0.713
-0.009,0.907,-0.611
-0.072,0.975,-0.710
-0.125,0.986,-0.651
-0.023,0.886,-0.636
-0.113,0.940,-0.734
-0.020,0.937,-0.748
0.009,0.933,-0.650
0.044,0.889,-0.568
0.152,0.710,-0.432
-0.099,0.966,-0.749
-0.021,0.936,-0.814
-0.126,1.044,-0.766
-0.047,0.963,-0.681
0.079,0.770,-0.417
-0.041,0.784,-0.446
-0.176,1.001,-0.755
-0.145,0.948,-0.727
0.004,0.830,-0.631
-0.037,0.874,-0.635
0.002,0.841,-0.718
-0.031,0.999,-0.911
-0.039,1.046,-0.758
0.052,1.024,-0.799
-0.027,0.997,-0.707
0.047,0.947,-0.660
0.061,0.939,-0.654
0.126,0.910,-0.717
0.142,0.880,-0.665
0.121,0.874,-0.694
0.101,0.848,-0.535
-0.007,1.004,-0.686
0.025,0.973,-0.709
-0.077,0.980,-0.713
-0.112,1.102,-0.864
-0.024,0.935,-0.692
0.089,0.851,-0.562
0.151,0.745,-0.503
-0.002,0.970,-0.778
-0.043,0.956,-0.788
-0.028,0.970,-0.787
-0.026,0.994,-0.801
-0.156,1.110,-0.845
0.023,0.901,-0.632
0.076,0.809,-0.621
0.104,0.645,-0.356
-0.041,0.901,-0.626
0.035,0.864,-0.603
0.167,0.692,-0.485
0.083,0.835,-0.624
0.168,0.798,-0.625
0.135,0.703,-0.455
0.204,0.700,-0.525
-0.053,0.996,-0.751
0.041,0.867,-0.639
-0.017,0.957,-0.698
0.110,0.821,-0.593
-0.065,1.070,-0.812
0.015,0.946,-0.695
0.033,0.915,-0.666
-0.020,0.948,-0.699
0.091,0.835,-0.538
0.067,0.982,-0.627
0.080,0.850,-0.533
-0.106,1.100,-0.864
-0.062,0.998,-0.738
0.044,0.884,-0.669
0.123,0.753,-0.551
0.281,0.629,-0.513
0.075,0.828,-0.648
0.011,0.873,-0.677
0.078,0.835,-0.682
-0.069,1.026,-0.883
-0.050,1.028,-0.846
-0.037,0.953,-0.807
0.037,0.906,-0.692
0.118,0.744,-0.490
0.097,0.846,-0.518
-0.039,0.934,-0.635
-0.043,0.923,-0.638
0.050,0.792,-0.460
-0.010,1.020,-0.835
0.094,0.837,-0.524
0.084,0.938,-0.642
0.084,0.917,-0.662
0.069,0.904,-0.618
0.048,0.954,-0.703
0.126,0.899,-0.544
0.075,0.899,-0.636
0.158,0.707,-0.512
0.154,0.707,-0.514
-0.011,0.828,-0.642
0.099,0.680,-0.503
-0.024,0.892,-0.662
0.148,0.708,-0.453
0.133,0.666,-0.297
-0.013,0.826,-0.428
0.074,0.766,-0.454
0.095,0.760,-0.441
-0.083,0.929,-0.695
0.059,0.777,-0.475
-0.025,0.839,-0.572
0.107,0.774,-0.469
0.111,0.803,-0.631
0.095,0.863,-0.581
-0.004,0.968,-0.627
0.019,0.947,-0.696
0.009,0.974,-0.763
0.025,0.999,-0.745
-0.019,1.061,-0.819
0.094,0.902,-0.657
0.150,0.819,-0.492
0.214,0.710,-0.386
0.138,0.672,-0.461
0.019,0.867,-0.584
0.085,0.723,-0.497
0.004,0.833,-0.729
0.055,0.763,-0.563
0.168,0.703,-0.426
0.044,0.871,-0.546
-0.033,0.956,-0.742
0.015,0.922,-0.747
-0.008,0.974,-0.734
-0.058,0.958,-0.753
0.079,0.894,-0.817
0.029,0.860,-0.750
-0.027,0.923,-0.761
-0.075,0.964,-0.770
-0.109,1.017,-0.679
-0.057,1.056,-0.678
-0.026,0.949,-0.587
-0.145,1.066,-0.833
-0.021,0.832,-0.536
-0.235,1.114,-0.853
-0.086,0.948,-0.706
-0.006,0.876,-0.597
-0.040,0.858,-0.501
-0.058,0.940,-0.681
0.087,0.750,-0.494
0.072,0.869,-0.650
0.083,0.806,-0.515
-0.001,0.907,-0.628
-0.002,0.942,-0.750
0.067,0.868,-0.588
0.091,0.861,-0.598
0.108,0.701,-0.307
-0.029,0.908,-0.565
-0.185,1.108,-0.759
-0.163,1.158,-0.924
-0.105,1.050,-0.962
-0.044,1.025,-0.775
-0.033,1.049,-0.727
0.045,0.986,-0.702
-0.027,1.064,-0.770
-0.030,0.992,-0.802
-0.121,1.061,-0.881
-0.004,0.993,-0.936
-0.067,0.998,-0.828
-0.086,1.074,-0.830
-0.020,0.920,-0.657
0.042,0.866,-0.634
-0.031,0.973,-0.754
-0.013,0.957,-0.721
-0.092,1.102,-0.900
0.095,0.826,-0.537
0.223,0.764,-0.609
0.211,0.692,-0.477
0.212,0.695,-0.509
0.075,0.732,-0.501
-0.027,0.904,-0.702
-0.086,1.015,-0.826
-0.049,0.986,-0.791
0.024,0.927,-0.697
0.018,0.921,-0.654
0.089,0.893,-0.704
0.062,0.853,-0.727
0.160,0.720,-0.546
0.127,0.839,-0.627
0.074,0.809,-0.695
-0.055,0.908,-0.808
0.020,0.844,-0.608
0.023,0.872,-0.590
0.192,0.712,-0.475
0.098,0.775,-0.610
0.024,0.886,-0.600
0.037,0.854,-0.582
-0.025,0.939,-0.662
-0.067,0.926,-0.673
-0.151,0.954,-0.593
-0.155,0.944,-0.619
-0.138,0.966,-0.756
0.133,0.771,-0.633
0.059,0.892,-0.760
0.097,0.832,-0.585
0.122,0.781,-0.485
0.105,0.778,-0.606
-0.085,0.949,-0.622
0.068,0.826,-0.445
-0.069,1.035,-0.676
-0.133,1.055,-0.712
-0.077,0.964,-0.585
0.100,0.742,-0.460
0.050,0.803,-0.618
0.079,0.792,-0.660
0.038,0.815,-0.650
0.055,0.775,-0.546
0.149,0.658,-0.524
0.267,0.564,-0.432
0.096,0.639,-0.392
0.095,0.668,-0.432
0.117,0.707,-0.517
0.193,0.613,-0.414
0.109,0.770,-0.515
0.181,0.708,-0.375
0.202,0.684,-0.349
0.129,0.765,-0.435
0.079,0.836,-0.455
0.010,0.851,-0.569
-0.035,0.836,-0.674
-0.069,0.867,-0.605
-0.153,0.993,-0.692
-0.107,0.957,-0.626
-0.021,0.944,-0.652
-0.012,0.902,-0.551
0.054,0.778,-0.495
-0.079,0.955,-0.668
-0.015,0.901,-0.584
-0.063,0.983,-0.646
0.035,0.836,-0.560
0.002,0.859,-0.686
-0.012,0.900,-0.663
-0.139,1.034,-0.759
-0.126,1.007,-0.705
-0.077,1.023,-0.709
-0.013,1.027,-0.736
0.198,0.711,-0.427
0.106,0.800,-0.462
0.007,0.791,-0.522
-0.084,0.842,-0.538
-0.029,0.843,-0.453
-0.080,0.994,-0.700
-0.012,0.918,-0.543
-0.131,1.049,-0.706
-0.032,0.873,-0.570
-0.030,0.907,-0.554
0.007,0.884,-0.634
-0.176,0.995,-0.655
-0.013,0.987,-0.669
-0.132,1.077,-0.679
-0.133,1.062,-0.666
-0.063,0.989,-0.645
-0.204,1.079,-0.692
-0.136,1.027,-0.737
-0.037,0.930,-0.657
-0.005,0.955,-0.608
-0.090,1.100,-0.780
-0.158,1.148,-0.859
-0.054,0.954,-0.590
-0.207,1.117,-0.730
-0.323,1.255,-0.990
-0.180,1.083,-0.799
-0.080,0.976,-0.649
0.060,0.858,-0.608
-0.068,0.985,-0.692
-0.266,1.126,-0.859
-0.214,1.069,-0.781
-0.117,0.998,-0.649
-0.085,1.001,-0.825
-0.157,1.116,-0.887
0.002,0.904,-0.638
-0.148,1.092,-0.808
-0.067,0.959,-0.643
-0.037,0.959,-0.698
-0.021,0.912,-0.785
0.008,0.975,-0.704
-0.070,1.030,-0.683
0.004,0.972,-0.662
0.036,0.951,-0.591
0.057,0.938,-0.651
0.061,0.837,-0.564
0.059,0.778,-0.508
0.010,0.847,-0.501
-0.134,0.998,-0.661
-0.155,1.053,-0.662
-0.192,1.162,-0.750
-0.281,1.221,-0.866
-0.175,1.079,-0.657
-0.245,1.162,-0.738
-0.292,1.269,-0.845
-0.170,1.122,-0.836
-0.073,1.025,-0.738
-0.018,1.061,-0.891
0.008,0.958,-0.651
-0.008,0.927,-0.603
-0.051,0.861,-0.610
0.010,0.830,-0.543
0.143,0.662,-0.403
-0.046,0.830,-0.572
-0.182,1.080,-0.822
0.016,0.937,-0.648
0.046,0.864,-0.511
0.018,0.941,-0.576
-0.020,0.916,-0.574
-0.046,0.977,-0.613
-0.181,1.106,-0.798
-0.145,1.039,-0.800
-0.189,1.120,-0.806
-0.080,0.970,-0.743
-0.041,0.940,-0.706
0.030,0.893,-0.664
0.049,0.828,-0.500
-0.006,0.873,-0.553
-0.090,1.001,-0.714
-0.102,0.970,-0.642
-0.083,1.015,-0.717
-0.038,0.999,-0.713
-0.128,1.050,-0.809
-0.206,1.152,-0.915
-0.103,1.091,-0.866
0.077,0.963,-0.726
0.055,0.911,-0.696
0.101,0.881,-0.632
0.023,0.815,-0.571
0.104,0.736,-0.532
0.047,0.849,-0.574
0.032,0.931,-0.647
-0.031,0.915,-0.570
-0.044,0.915,-0.626
-0.007,0.923,-0.520
-0.010,0.958,-0.672
-0.136,1.026,-0.774
-0.095,0.989,-0.687
0.019,0.948,-0.647
0.179,0.688,-0.378
0.128,0.770,-0.505
-0.007,0.978,-0.752
0.001,0.949,-0.811
-0.109,0.954,-0.741
-0.050,0.920,-0.624
-0.045,0.929,-0.682
0.036,0.890,-0.717
0.010,0.832,-0.564
-0.123,0.996,-0.709
-0.204,1.141,-0.792
-0.175,1.067,-0.796
-0.253,1.223,-0.920
-0.070,1.062,-0.784
-0.002,0.991,-0.706
-0.052,0.904,-0.716
0.049,0.842,-0.599
0.021,0.953,-0.793
0.002,0.926,-0.659
-0.041,0.897,-0.603
-0.028,0.912,-0.733
0.045,0.816,-0.643
0.063,0.813,-0.624
0.034,0.726,-0.502
-0.107,0.959,-0.735
0.059,0.724,-0.450
-0.137,0.948,-0.651
-0.090,0.944,-0.629
-0.113,0.994,-0.705
0.017,0.818,-0.466
0.014,0.925,-0.613
-0.158,1.125,-0.907
-0.112,1.017,-0.685
-0.051,0.983,-0.645
-0.118,1.102,-0.812
-0.093,1.035,-0.731
-0.180,1.123,-0.887
-0.033,0.940,-0.667
-0.003,0.876,-0.522
0.072,0.727,-0.431
0.014,0.829,-0.548
-0.021,0.896,-0.604
0.001,0.884,-0.591
0.071,0.848,-0.487
-0.007,0.908,-0.638
0.026,0.894,-0.841
0.104,0.868,-0.719
0.105,0.889,-0.611
0.052,0.867,-0.561
0.076,0.821,-0.607
0.097,0.665,-0.490
0.131,0.621,-0.362
0.011,0.833,-0.625
-0.056,0.976,-0.704
-0.176,1.109,-0.799
-0.054,0.955,-0.640
-0.031,0.975,-0.589
-0.142,1.117,-0.709
0.012,0.898,-0.604
-0.110,1.074,-0.811
0.035,0.887,-0.585
0.133,0.771,-0.470
0.139,0.820,-0.675
0.117,0.778,-0.592
-0.066,1.015,-0.654
-0.057,0.998,-0.678
0.072,0.836,-0.447
-0.008,0.963,-0.686
-0.119,1.044,-0.676
-0.161,1.049,-0.792
-0.183,1.081,-0.784
-0.233,1.139,-0.830
-0.229,1.198,-0.859
-0.127,0.995,-0.711
-0.211,1.097,-0.878
-0.168,1.087,-0.884
-0.058,1.007,-0.734
-0.106,1.038,-0.726
0.057,0.879,-0.546
0.054,0.851,-0.651
-0.116,0.920,-0.724
0.068,0.902,-0.684
-0.106,0.993,-0.742
-0.041,0.885,-0.624
-0.031,0.965,-0.690
0.025,0.910,-0.678
0.046,0.837,-0.593
0.030,0.877,-0.644
-0.021,0.962,-0.747
0.064,0.848,-0.654
-0.026,0.994,-0.753
-0.071,1.046,-0.750
-0.104,1.088,-0.862
0.034,0.833,-0.484
-0.009,0.919,-0.714
-0.060,1.028,-0.835
-0.093,1.027,-0.723
-0.031,0.922,-0.616
-0.037,0.957,-0.807
-0.045,0.973,-0.782
-0.102,0.989,-0.825
0.070,0.907,-0.604
0.173,0.732,-0.472
0.111,0.844,-0.681
0.102,0.736,-0.613
0.095,0.770,-0.624
0.072,0.686,-0.398
0.129,0.662,-0.432
0.086,0.761,-0.390
0.044,0.822,-0.595
0.126,0.741,-0.457
0.049,0.779,-0.557
0.076,0.756,-0.538
0.097,0.743,-0.535
0.192,0.603,-0.359
0.225,0.632,-0.377
0.201,0.713,-0.404
0.090,0.892,-0.649
0.026,0.872,-0.672
0.011,0.921,-0.695
0.061,0.819,-0.664
0.054,0.877,-0.714
0.149,0.783,-0.702
0.145,0.777,-0.566
0.087,0.776,-0.612
0.062,0.838,-0.626
0.087,0.768,-0.494
-0.131,1.042,-0.691
-0.107,0.958,-0.608
-0.006,0.879,-0.528
0.022,0.910,-0.572
-0.037,0.906,-0.480
-0.009,0.899,-0.447
-0.077,0.940,-0.576
-0.200,1.073,-0.683
-0.336,1.247,-0.977
-0.230,1.069,-0.887
-0.137,0.991,-0.769
-0.132,0.966,-0.776
0.039,0.927,-0.681
-0.180,1.199,-0.884
-0.084,1.040,-0.675
-0.131,1.079,-0.713
-0.097,1.004,-0.720
-0.015,0.820,-0.619
0.031,0.836,-0.560
0.128,0.746,-0.483
0.180,0.740,-0.430
0.172,0.751,-0.520
0.101,0.736,-0.439
-0.137,1.164,-0.922
-0.156,1.111,-0.826
-0.017,0.990,-0.819
0.053,0.872,-0.596
0.009,0.864,-0.628
0.045,0.860,-0.679
-0.012,0.918,-0.693
-0.130,0.995,-0.798
-0.157,1.036,-0.784
0.061,0.802,-0.560
-0.031,0.979,-0.623
-0.280,1.226,-0.812
-0.140,1.067,-0.711
-0.166,1.053,-0.671
-0.043,0.997,-0.681
-0.270,1.148,-0.740
-0.091,1.044,-0.689
-0.123,1.129,-0.936
-0.115,1.070,-0.793
0.003,0.907,-0.574
-0.006,0.899,-0.619
0.025,0.949,-0.704
-0.053,1.046,-0.791
-0.190,1.155,-0.903
-0.115,1.108,-0.681
-0.216,1.159,-0.915
0.052,0.867,-0.611
0.113,0.852,-0.577
0.118,0.819,-0.550
0.082,0.872,-0.526
0.084,0.797,-0.513
0.066,0.779,-0.416
0.009,0.954,-0.673
-0.079,0.868,-0.522
0.008,0.943,-0.606
0.095,0.829,-0.498
0.059,0.903,-0.584
-0.020,0.919,-0.583
-0.124,0.971,-0.688
0.016,0.891,-0.611
-0.020,0.978,-0.734
0.027,0.926,-0.652
-0.081,1.067,-0.773
-0.145,1.111,-0.836
-0.101,1.026,-0.717
0.058,0.878,-0.558
-0.091,0.985,-0.634
-0.106,0.929,-0.636
-0.042,0.818,-0.546
-0.056,0.886,-0.568
-0.016,0.816,-0.370
-0.111,0.979,-0.666
-0.202,1.117,-0.842
-0.137,1.066,-0.826
-0.186,1.096,-0.756
-0.037,0.882,-0.521
-0.054,0.868,-0.540
0.119,0.734,-0.483
0.053,0.824,-0.476
0.030,0.833,-0.423
0.043,0.885,-0.464
-0.005,0.916,-0.577
-0.036,0.919,-0.534
0.044,0.819,-0.502
-0.116,1.020,-0.670
-0.055,0.867,-0.446
-0.056,1.026,-0.746
-0.024,1.010,-0.798
0.048,0.927,-0.693
-0.019,0.948,-0.733
-0.097,0.979,-0.726
-0.089,0.999,-0.699
-0.141,1.115,-0.924
-0.143,1.084,-0.857
-0.015,0.964,-0.735
0.014,0.846,-0.681
-0.028,0.910,-0.789
-0.043,0.875,-0.632
-0.033,0.876,-0.707
-0.054,0.939,-0.764
-0.102,1.014,-0.805
-0.122,0.992,-0.721
-0.071,0.916,-0.785
0.032,0.822,-0.638
0.050,0.866,-0.556
0.056,0.788,-0.452
0.108,0.771,-0.529
0.091,0.824,-0.498
0.101,0.790,-0.508
0.154,0.738,-0.395
-0.050,0.970,-0.664
0.050,0.863,-0.597
0.082,0.795,-0.567
0.073,0.801,-0.521
0.076,0.741,-0.380
0.084,0.742,-0.367
0.114,0.815,-0.533
0.052,0.903,-0.600
0.053,0.825,-0.540
0.047,0.862,-0.522
-0.014,0.913,-0.600
-0.006,0.810,-0.606
-0.044,0.945,-0.728
-0.003,0.880,-0.645
-0.110,1.047,-0.800
-0.032,0.877,-0.551
-0.023,0.887,-0.566
0.166,0.722,-0.447
0.063,0.793,-0.611
0.030,0.817,-0.502
-0.016,0.781,-0.410
-0.080,0.961,-0.702
-0.036,0.814,-0.521
-0.117,0.992,-0.608
-0.202,1.113,-0.806
-0.096,1.075,-0.812
-0.028,1.015,-0.618
-0.006,0.968,-0.672
-0.003,0.921,-0.635
-0.017,0.961,-0.703
-0.016,0.914,-0.593
0.005,0.784,-0.503
-0.013,0.895,-0.746
-0.080,0.938,-0.752
-0.035,0.956,-0.727
-0.118,1.037,-0.766
-0.094,1.037,-0.714
-0.089,0.921,-0.595
0.070,0.815,-0.496
0.071,0.742,-0.594
0.103,0.712,-0.433
0.018,0.836,-0.588
-0.186,1.146,-0.828
-0.171,1.064,-0.739
-0.096,0.865,-0.567
-0.068,0.889,-0.567
0.028,0.779,-0.423
-0.008,0.805,-0.418
-0.028,0.775,-0.580
-0.045,0.826,-0.594
-0.066,0.835,-0.643
-0.017,0.828,-0.654
0.099,0.736,-0.627
0.096,0.762,-0.682
0.097,0.755,-0.585
0.024,0.915,-0.770
0.018,0.963,-0.904
0.012,0.929,-0.784
0.019,0.842,-0.685
-0.010,0.902,-0.660
-0.003,0.836,-0.528
0.054,0.843,-0.612
0.039,0.810,-0.506
-0.055,0.828,-0.568
-0.132,0.915,-0.716
-0.150,0.872,-0.622
-0.007,0.865,-0.602
-0.118,1.021,-0.708
-0.181,1.056,-0.694
-0.154,1.051,-0.683
-0.077,1.024,-0.775
-0.007,0.902,-0.663
0.088,0.789,-0.576
-0.026,0.880,-0.598
0.037,0.792,-0.411
0.107,0.741,-0.319
-0.018,0.879,-0.507
-0.057,0.917,-0.643
0.042,0.827,-0.621
-0.053,0.955,-0.733
0.021,0.903,-0.748
0.049,0.833,-0.632
0.058,0.798,-0.489
0.006,0.775,-0.439
-0.041,0.816,-0.474
0.066,0.675,-0.302
0.079,0.709,-0.419
-0.043,0.867,-0.571
0.046,0.822,-0.589
0.000,0.888,-0.682
-0.011,0.967,-0.783
-0.175,1.122,-0.960
0.007,0.888,-0.595
0.148,0.704,-0.427
0.148,0.820,-0.510
0.071,0.850,-0.549
-0.036,0.951,-0.690
-0.132,1.084,-0.817
0.060,0.900,-0.687
-0.087,1.008,-0.935
-0.026,0.963,-0.859
-0.038,1.077,-0.845
-0.009,0.948,-0.665
0.004,0.925,-0.640
0.087,0.887,-0.587
-0.039,0.993,-0.775
0.068,0.907,-0.660
0.152,0.774,-0.511
0.055,0.835,-0.590
0.063,0.851,-0.519
0.082,0.799,-0.432
-0.038,0.848,-0.562
-0.038,0.887,-0.523
0.010,0.866,-0.539
0.022,0.891,-0.596
0.076,0.787,-0.499
-0.028,0.881,-0.674
-0.145,1.006,-0.854
-0.156,0.991,-0.737
-0.010,0.780,-0.513
0.048,0.838,-0.603
-0.007,0.900,-0.683
0.047,0.924,-0.718
-0.119,1.038,-0.982
-0.062,0.949,-0.764
0.174,0.656,-0.594
0.136,0.741,-0.555
0.024,0.743,-0.514
-0.005,0.783,-0.470
-0.010,0.817,-0.573
0.075,0.662,-0.303
0.001,0.809,-0.448
-0.006,0.890,-0.620
0.058,0.901,-0.634
0.065,0.827,-0.471
0.094,0.873,-0.641
0.051,0.873,-0.625
0.031,0.817,-0.591
-0.043,0.962,-0.820
-0.170,1.164,-0.909
-0.157,1.156,-0.888
-0.131,1.155,-0.775
-0.180,1.141,-0.786
-0.020,0.900,-0.569
0.023,0.887,-0.575
-0.001,0.860,-0.583
0.060,0.770,-0.457
0.026,0.741,-0.517
0.033,0.769,-0.471
-0.050,0.960,-0.696
0.075,0.761,-0.403
-0.052,0.894,-0.569
-0.183,1.020,-0.779
-0.002,0.892,-0.605
0.036,0.899,-0.665
-0.003,0.831,-0.594
0.138,0.708,-0.586
0.078,0.785,-0.475
0.141,0.745,-0.435
0.015,0.944,-0.663
-0.111,1.141,-0.953
-0.080,1.033,-0.793
-0.005,0.919,-0.663
-0.069,0.968,-0.703
-0.004,0.946,-0.642
-0.096,1.011,-0.766
-0.094,0.965,-0.652
-0.098,1.009,-0.762
-0.150,1.095,-0.861
-0.133,1.073,-0.729
-0.178,1.068,-0.776
-0.129,1.070,-0.714
-0.109,1.015,-0.596
-0.028,0.869,-0.452
0.045,0.841,-0.511
0.065,0.860,-0.499
0.033,0.921,-0.665
0.178,0.759,-0.617
0.077,0.842,-0.619
0.070,0.816,-0.478
-0.028,0.999,-0.733
0.205,0.662,-0.411
0.153,0.749,-0.403
-0.023,0.976,-0.573
-0.067,1.006,-0.699
-0.093,1.079,-0.724
-0.142,1.165,-0.914
-0.113,1.128,-0.701
0.008,0.975,-0.576
-0.010,0.868,-0.516
0.082,0.783,-0.478
-0.026,0.954,-0.717
-0.030,0.953,-0.959
0.049,0.821,-0.620
0.140,0.693,-0.395
0.150,0.677,-0.395
0.169,0.740,-0.451
0.079,0.653,-0.269
-0.049,0.864,-0.637
-0.152,0.967,-0.671
-0.053,0.953,-0.666
-0.229,1.083,-0.796
-0.144,1.051,-0.803
-0.106,1.107,-0.808
-0.168,1.175,-0.876
-0.114,1.062,-0.718
-0.110,1.077,-0.747
-0.119,1.109,-0.731
-0.096,0.996,-0.582
-0.207,1.174,-0.843
-0.025,1.014,-0.670
-0.136,1.235,-0.952
0.008,1.037,-0.815
-0.012,0.996,-0.789
0.022,0.807,-0.571
0.111,0.662,-0.278
0.057,0.748,-0.298
0.076,0.742,-0.420
0.140,0.682,-0.441
0.055,0.817,-0.628
0.121,0.736,-0.597
0.048,0.866,-0.577
-0.077,0.987,-0.736
-0.009,0.886,-0.659
-0.114,1.023,-0.850
-0.017,0.917,-0.737
-0.118,1.053,-0.858
0.068,0.935,-0.701
0.150,0.839,-0.544
0.241,0.631,-0.250
0.121,0.759,-0.511
0.136,0.712,-0.344
0.026,0.876,-0.526
0.118,0.772,-0.466
0.019,0.918,-0.692
-0.010,0.946,-0.713
-0.125,1.047,-0.724
0.060,0.808,-0.545
0.016,0.892,-0.656
0.059,0.750,-0.473
0.116,0.738,-0.400
-0.031,0.903,-0.588
0.077,0.853,-0.564
0.081,0.842,-0.537
0.037,0.797,-0.623
-0.059,0.849,-0.604
-0.059,0.952,-0.705
-0.003,0.925,-0.627
-0.077,1.058,-0.765
-0.041,1.088,-0.840
-0.055,1.014,-0.727
0.030,0.912,-0.644
-0.036,0.974,-0.657
-0.079,0.953,-0.684
-0.057,1.045,-0.759
-0.007,1.041,-0.805
0.033,0.969,-0.835
-0.014,1.000,-0.800
0.044,0.856,-0.669
0.078,0.736,-0.445
0.065,0.781,-0.471
0.071,0.838,-0.513
0.123,0.671,-0.346
0.076,0.778,-0.457
0.072,0.813,-0.486
0.020,0.895,-0.657
-0.060,0.988,-0.684
-0.110,1.097,-0.907
-0.211,1.250,-1.062
-0.223,1.219,-0.876
-0.118,1.074,-0.785
-0.183,1.236,-0.880
-0.045,1.084,-0.711
-0.229,1.281,-1.053
-0.073,1.070,-0.822
-0.035,1.079,-0.757
-0.069,1.023,-0.681
-0.004,1.009,-0.703
0.011,0.859,-0.564
-0.084,0.964,-0.671
-0.008,0.926,-0.722
0.021,0.877,-0.641
-0.074,1.070,-0.782
0.032,0.979,-0.681
-0.029,1.107,-0.830
-0.029,1.059,-0.840
-0.092,1.031,-0.805
-0.187,1.104,-0.774
-0.058,0.983,-0.697
-0.142,1.022,-0.822
-0.162,1.091,-0.910
-0.108,1.079,-0.859
-0.018,0.992,-0.696
-0.042,0.978,-0.838
0.019,0.902,-0.762
-0.065,0.967,-0.733
-0.047,0.999,-0.671
-0.232,1.201,-0.957
-0.222,1.132,-0.854
-0.173,1.111,-0.826
-0.230,1.119,-0.817
-0.215,1.084,-0.783
-0.162,1.060,-0.680
-0.050,0.960,-0.612
-0.022,0.949,-0.683
0.064,0.812,-0.636
-0.026,0.910,-0.634
-0.058,0.917,-0.646
-0.032,0.958,-0.672
-0.074,0.950,-0.672
-0.239,1.057,-0.744
-0.029,0.776,-0.521
0.038,0.722,-0.368
-0.058,0.847,-0.509
-0.089,0.999,-0.715
-0.096,0.983,-0.651
-0.194,1.068,-0.772
-0.104,1.006,-0.799
0.016,0.883,-0.614
-0.120,1.102,-0.819
-0.070,1.045,-0.793
-0.099,1.057,-0.762
0.015,0.946,-0.796
0.070,0.905,-0.675
0.063,0.875,-0.570
0.005,0.919,-0.684
0.133,0.865,-0.652
0.103,0.981,-0.741
0.028,1.083,-0.754
-0.010,1.155,-0.866
-0.113,1.183,-0.878
-0.063,1.117,-0.776
-0.043,1.042,-0.662
-0.025,1.053,-0.774
-0.160,1.204,-0.876
-0.017,0.993,-0.687
-0.126,1.176,-0.968
0.091,0.882,-0.622
-0.071,0.951,-0.668
0.100,0.791,-0.579
0.183,0.686,-0.470
-0.011,0.817,-0.668
-0.067,0.878,-0.758
0.125,0.724,-0.560
0.022,0.906,-0.632
0.060,0.773,-0.435
0.017,0.883,-0.592
0.057,0.772,-0.540
-0.139,1.089,-0.901
-0.017,0.979,-0.752
0.017,0.917,-0.638
-0.044,0.986,-0.818
-0.019,0.980,-0.781
-0.135,1.142,-0.846
-0.087,1.050,-0.646
-0.216,1.205,-0.913
-0.168,1.166,-0.834
0.019,0.990,-0.627
-0.031,0.925,-0.554
-0.009,0.931,-0.630
0.010,0.871,-0.619
0.156,0.753,-0.469
0.090,0.788,-0.461
0.004,0.879,-0.654
-0.037,0.893,-0.736
-0.068,0.946,-0.683
0.019,0.784,-0.653
0.113,0.678,-0.498
-0.045,0.877,-0.639
-0.037,0.870,-0.477
0.008,0.843,-0.559
-0.110,0.968,-0.742
-0.004,0.912,-0.593
-0.047,0.942,-0.664
-0.000,0.938,-0.740
-0.109,1.042,-0.874
-0.092,1.017,-0.803
-0.021,0.869,-0.618
0.041,0.848,-0.503
-0.077,0.989,-0.640
-0.034,0.971,-0.603
0.033,0.813,-0.532
-0.030,0.890,-0.659
-0.068,0.832,-0.439
0.111,0.703,-0.340
0.096,0.796,-0.495
0.030,0.927,-0.700
-0.061,1.014,-0.785
-0.015,0.896,-0.642
0.064,0.862,-0.697
0.088,0.854,-0.726
0.055,0.829,-0.722
-0.001,0.952,-0.722
0.007,0.965,-0.761
0.033,0.838,-0.654
-0.053,0.827,-0.611
0.074,0.765,-0.548
0.161,0.635,-0.494
0.096,0.779,-0.608
0.084,0.827,-0.492
0.033,0.778,-0.364
-0.071,0.994,-0.624
0.019,0.877,-0.683
-0.047,0.977,-0.771
0.051,0.825,-0.566
-0.009,0.929,-0.702
0.090,0.845,-0.539
0.092,0.891,-0.588
0.133,0.806,-0.467
-0.036,0.978,-0.590
0.070,0.847,-0.568
-0.002,0.951,-0.680
-0.162,1.087,-0.830
-0.157,1.083,-0.810
-0.016,0.972,-0.701
0.004,0.945,-0.700
0.004,0.993,-0.742
-0.058,1.042,-0.815
0.013,0.990,-0.719
-0.108,1.083,-0.806
-0.285,1.298,-1.047
-0.256,1.174,-0.915
-0.077,1.007,-0.678
-0.017,0.905,-0.633
-0.047,0.911,-0.642
-0.112,0.877,-0.577
-0.020,0.855,-0.560
-0.092,0.913,-0.622
0.028,0.787,-0.545
0.027,0.774,-0.537
0.137,0.685,-0.435
0.112,0.728,-0.552
0.138,0.716,-0.512
0.234,0.593,-0.429
0.137,0.669,-0.472
-0.023,0.893,-0.741
-0.097,0.933,-0.672
0.156,0.751,-0.424
0.121,0.728,-0.421
-0.034,0.806,-0.494
-0.033,0.811,-0.523
-0.005,0.777,-0.448
-0.034,0.907,-0.579
-0.097,0.960,-0.592
-0.213,1.078,-0.764
0.052,0.770,-0.484
-0.000,0.865,-0.494
-0.036,0.923,-0.626
-0.042,0.972,-0.785
-0.045,0.927,-0.686
-0.001,0.867,-0.488
0.095,0.732,-0.413
0.028,0.834,-0.621
0.056,0.824,-0.570
0.063,0.785,-0.437
-0.047,0.879,-0.448
-0.016,0.819,-0.431
-0.053,0.897,-0.628
-0.057,0.914,-0.716
-0.028,0.884,-0.620
0.000,0.901,-0.560
-0.022,1.021,-0.821
0.020,1.016,-0.754
0.105,0.856,-0.730
0.089,0.787,-0.705
0.127,0.816,-0.613
0.170,0.796,-0.629
0.159,0.784,-0.678
0.158,0.728,-0.606
-0.013,0.944,-0.747
0.044,0.901,-0.769
0.012,0.959,-0.803
0.142,0.858,-0.684
0.133,0.797,-0.565
0.127,0.814,-0.563
0.022,0.969,-0.804
-0.042,1.015,-0.826
-0.028,1.023,-0.764
0.069,0.955,-0.738
0.075,0.935,-0.697
0.102,0.884,-0.651
0.076,0.897,-0.690
0.106,0.828,-0.605
0.103,0.848,-0.645
0.123,0.676,-0.417
0.023,0.921,-0.727
0.017,0.889,-0.777
-0.053,0.854,-0.575
-0.017,0.876,-0.566
-0.060,0.911,-0.613
0.085,0.794,-0.471
-0.088,0.955,-0.618
0.120,0.755,-0.431
0.123,0.687,-0.387
0.036,0.892,-0.603
-0.160,1.101,-0.838
-0.352,1.297,-1.045
-0.130,1.091,-0.763
-0.150,1.096,-0.776
-0.155,0.985,-0.694
-0.035,0.811,-0.462
-0.067,0.929,-0.626
-0.072,0.989,-0.617
-0.063,0.974,-0.761
-0.066,0.918,-0.730
0.146,0.690,-0.462
0.046,0.831,-0.622
0.210,0.656,-0.448
-0.047,0.995,-0.691
-0.092,1.065,-0.822
-0.033,1.040,-0.863
-0.175,1.117,-1.050
-0.132,1.084,-0.794
-0.093,1.067,-0.830
-0.053,1.067,-0.781
0.049,0.954,-0.782
0.115,0.923,-0.664
0.188,0.782,-0.575
0.168,0.882,-0.671
0.135,0.811,-0.592
0.056,0.900,-0.596
0.084,0.932,-0.695
0.034,0.950,-0.677
-0.021,0.942,-0.626
-0.124,1.051,-0.818
-0.145,1.026,-0.758
-0.004,0.914,-0.610
-0.117,0.991,-0.665
-0.041,1.054,-0.788
-0.013,0.986,-0.654
0.071,0.777,-0.451
0.026,0.926,-0.569
-0.013,0.832,-0.604
0.025,0.685,-0.420
-0.028,0.862,-0.524
-0.074,0.864,-0.630
-0.083,0.879,-0.601
-0.001,0.763,-0.468
0.030,0.810,-0.625
-0.012,0.814,-0.565
-0.016,0.909,-0.613
-0.058,0.965,-0.670
-0.054,1.000,-0.721
0.018,0.826,-0.494
0.062,0.774,-0.581
0.038,0.797,-0.618
0.131,0.727,-0.532
0.164,0.717,-0.502
0.193,0.733,-0.422
0.087,0.816,-0.455
0.026,0.910,-0.589
-0.003,0.994,-0.694
-0.128,1.074,-0.800
-0.061,1.007,-0.738
-0.085,0.965,-0.567
-0.123,0.942,-0.518
-0.116,0.923,-0.608
-0.172,0.941,-0.684
-0.191,0.978,-0.667
-0.002,0.775,-0.432
-0.060,0.874,-0.582
0.006,0.743,-0.471
0.027,0.765,-0.502
-0.120,1.023,-0.744
-0.066,0.859,-0.552
-0.009,0.902,-0.597
0.058,0.775,-0.578
0.058,0.818,-0.565
0.149,0.747,-0.425
0.069,0.848,-0.457
0.046,0.946,-0.654
-0.016,0.909,-0.704
0.008,0.764,-0.512
0.059,0.644,-0.383
0.067,0.633,-0.477
-0.065,0.898,-0.661
0.101,0.755,-0.627
0.052,0.745,-0.498
0.036,0.799,-0.548
-0.077,0.932,-0.648
-0.111,0.916,-0.585
-0.089,1.007,-0.728
-0.073,0.946,-0.656
0.108,0.796,-0.568
0.009,0.942,-0.651
0.032,0.861,-0.536
-0.080,1.009,-0.653
-0.143,1.048,-0.755
-0.085,0.919,-0.590
-0.046,0.880,-0.603
-0.004,0.795,-0.576
0.028,0.821,-0.668
-0.014,0.870,-0.683
-0.044,0.849,-0.601
0.073,0.815,-0.503
-0.167,1.029,-0.671
0.043,0.907,-0.644
-0.132,1.073,-0.783
-0.053,0.975,-0.680
0.021,0.962,-0.728
-0.142,1.163,-0.882
-0.208,1.311,-1.005
-0.075,1.155,-0.876
-0.202,1.224,-0.981
-0.272,1.268,-1.078
-0.133,1.181,-0.979
0.028,0.992,-0.878
-0.020,0.932,-0.754
0.003,0.901,-0.615
0.037,0.750,-0.503
-0.060,0.936,-0.670
0.086,0.754,-0.489
-0.023,0.925,-0.619
-0.057,0.901,-0.583
-0.209,1.099,-0.774
-0.101,0.987,-0.612
-0.055,0.945,-0.663
-0.076,1.001,-0.728
-0.013,0.870,-0.643
-0.134,0.983,-0.736
0.047,0.761,-0.508
0.097,0.778,-0.678
0.151,0.646,-0.453
0.097,0.708,-0.351
-0.054,0.912,-0.675
0.004,0.788,-0.625
0.070,0.711,-0.512
0.128,0.691,-0.475
0.025,0.754,-0.487
-0.060,0.863,-0.519
-0.132,0.983,-0.662
-0.047,0.866,-0.573
-0.033,0.892,-0.615
-0.170,0.936,-0.590
-0.063,0.934,-0.670
0.083,0.761,-0.561
-0.020,0.857,-0.604
-0.019,0.955,-0.749
0.014,0.871,-0.716
0.121,0.756,-0.391
-0.032,0.929,-0.496
-0.101,1.022,-0.733
0.002,0.904,-0.770
0.016,0.849,-0.606
-0.109,0.990,-0.724
-0.039,0.980,-0.695
0.056,0.891,-0.597
0.121,0.799,-0.581
0.061,0.844,-0.463
-0.023,0.933,-0.477
-0.139,1.038,-0.563
-0.072,1.076,-0.601
-0.081,1.031,-0.541
-0.116,1.048,-0.689
-0.083,0.953,-0.684
-0.058,0.945,-0.657
0.017,0.886,-0.615
0.108,0.717,-0.410
-0.058,0.960,-0.679
0.185,0.656,-0.284
0.097,0.789,-0.353
0.135,0.807,-0.531
0.067,0.813,-0.429
-0.008,0.864,-0.441
-0.113,0.998,-0.661
0.153,0.665,-0.372
-0.061,0.835,-0.532
-0.069,0.800,-0.449
0.056,0.726,-0.420
0.099,0.796,-0.466
-0.028,1.019,-0.630
-0.010,0.932,-0.590
-0.146,1.101,-0.837
-0.076,0.981,-0.626
-0.185,1.039,-0.683
-0.127,0.959,-0.627
-0.071,0.978,-0.641
0.117,0.702,-0.450
-0.017,0.892,-0.724
0.066,0.835,-0.623
0.086,0.693,-0.476
0.035,0.833,-0.599
0.063,0.860,-0.696
-0.057,0.936,-0.690
-0.007,0.865,-0.632
-0.023,0.910,-0.617
0.003,0.850,-0.528
-0.011,0.886,-0.587
0.001,0.932,-0.669
-0.111,1.047,-0.687
0.011,0.878,-0.479
0.037,0.827,-0.501
-0.062,0.925,-0.640
-0.222,1.139,-0.936
0.005,0.938,-0.721
-0.068,1.069,-0.822
-0.047,1.007,-0.771
-0.012,0.956,-0.665
-0.057,1.058,-0.767
-0.062,0.932,-0.557
-0.096,1.004,-0.737
-0.086,1.023,-0.830
0.024,0.852,-0.646
0.010,0.864,-0.698
0.070,0.843,-0.706
0.094,0.824,-0.671
0.081,0.845,-0.628
0.167,0.792,-0.558
0.164,0.732,-0.390
0.106,0.828,-0.543
0.096,0.825,-0.602
0.075,0.803,-0.525
-0.078,0.920,-0.673
-0.049,0.892,-0.745
-0.068,0.905,-0.713
-0.074,0.935,-0.595
-0.239,1.151,-0.972
-0.134,1.082,-0.887
-0.004,1.049,-0.819
-0.048,1.025,-0.662
-0.161,1.100,-0.683
-0.106,1.090,-0.754
-0.074,1.009,-0.710
-0.058,0.992,-0.719
0.075,0.748,-0.470
-0.030,0.894,-0.571
-0.016,0.931,-0.602
0.069,0.873,-0.418
0.064,0.957,-0.635
0.038,0.932,-0.569
0.079,0.938,-0.533
0.052,0.929,-0.614
0.032,0.897,-0.604
-0.001,0.981,-0.647
-0.150,1.133,-0.798
-0.145,1.078,-0.639
-0.308,1.220,-0.785
-0.237,1.221,-0.825
-0.173,1.096,-0.739
0.016,0.934,-0.757
-0.005,0.978,-0.746
-0.114,1.080,-0.797
0.038,0.847,-0.618
-0.024,0.946,-0.649
-0.106,1.045,-0.746
-0.147,1.105,-0.754
-0.096,1.034,-0.811
-0.204,1.190,-0.871
-0.050,0.966,-0.595
-0.033,0.965,-0.697
-0.019,0.965,-0.771
-0.159,1.166,-0.898
-0.152,1.224,-0.954
0.008,1.002,-0.552
0.070,0.947,-0.613
0.014,0.981,-0.763
0.177,0.737,-0.483
0.068,0.909,-0.710
0.069,0.836,-0.650
-0.032,0.796,-0.468
0.010,0.797,-0.553
-0.012,0.808,-0.504
0.039,0.811,-0.472
0.052,0.788,-0.453
0.081,0.778,-0.451
0.002,0.896,-0.529
-0.190,1.148,-0.779
-0.207,1.198,-0.817
-0.144,1.198,-0.825
-0.078,1.173,-0.901
-0.055,1.162,-0.883
-0.070,1.109,-0.758
0.029,0.966,-0.669
-0.090,1.099,-0.883
-0.011,1.036,-0.853
0.002,0.949,-0.801
0.005,0.837,-0.749
0.049,0.809,-0.631
0.121,0.790,-0.569
0.041,0.802,-0.539
-0.108,1.016,-0.699
-0.172,1.042,-0.700
-0.045,1.020,-0.791
0.084,0.860,-0.735
0.238,0.673,-0.612
0.003,0.896,-0.814
-0.096,0.986,-0.782
0.108,0.868,-0.868
0.120,0.763,-0.696
0.106,0.872,-0.822
0.084,0.811,-0.730
0.163,0.754,-0.587
0.111,0.798,-0.543
0.122,0.788,-0.433
0.080,0.820,-0.530
0.151,0.765,-0.462
0.048,0.883,-0.561
-0.057,1.026,-0.649
0.034,0.897,-0.524
-0.063,1.015,-0.684
-0.060,0.949,-0.641
-0.026,0.919,-0.655
-0.142,1.003,-0.708
0.031,0.826,-0.598
0.031,0.871,-0.671
0.101,0.867,-0.589
-0.027,1.062,-0.884
-0.174,1.147,-0.932
-0.125,1.010,-0.672
-0.182,1.120,-0.846
-0.068,1.092,-0.819
-0.102,1.038,-0.764
-0.097,1.047,-0.744
-0.068,0.995,-0.714
-0.123,1.016,-0.713
-0.167,1.083,-0.790
0.019,0.914,-0.682
-0.027,0.913,-0.771
0.012,0.961,-0.889
0.073,0.917,-0.816
0.086,0.924,-0.805
-0.057,1.060,-0.853
0.080,0.791,-0.663
0.018,0.896,-0.723
0.048,0.883,-0.725
0.013,0.915,-0.723
-0.100,1.007,-0.722
-0.113,0.994,-0.721
-0.027,0.889,-0.607
-0.065,0.986,-0.651
-0.148,1.060,-0.687
-0.142,1.078,-0.699
0.035,0.900,-0.596
0.105,0.871,-0.691
-0.020,1.058,-0.826
-0.069,1.014,-0.721
-0.020,0.986,-0.672
0.081,0.907,-0.576
0.051,0.870,-0.595
0.084,0.754,-0.511
0.073,0.813,-0.548
0.021,0.869,-0.713
0.033,0.780,-0.512
-0.027,0.895,-0.639
0.008,0.781,-0.492
0.065,0.763,-0.404
0.073,0.769,-0.538
-0.091,0.952,-0.644
-0.137,0.973,-0.675
-0.094,0.913,-0.525
-0.061,0.921,-0.573
0.118,0.746,-0.483
0.138,0.668,-0.409
0.024,0.852,-0.538
0.026,0.829,-0.656
0.107,0.738,-0.550
-0.015,0.887,-0.580
-0.128,0.982,-0.590
-0.093,0.936,-0.514
-0.036,0.858,-0.519
0.065,0.815,-0.479
-0.075,0.973,-0.617
-0.084,1.072,-0.801
-0.137,1.124,-0.749
-0.003,0.967,-0.596
-0.014,1.048,-0.792
0.014,0.969,-0.629
0.027,0.978,-0.632
0.039,0.963,-0.697
0.038,0.938,-0.706
-0.015,1.029,-0.745
-0.093,1.060,-0.796
-0.047,0.929,-0.629
0.053,0.699,-0.323
0.247,0.522,-0.302
0.143,0.653,-0.458
-0.027,0.878,-0.555
0.175,0.625,-0.325
-0.006,0.866,-0.642
-0.145,1.018,-0.673
-0.050,0.929,-0.664
0.044,0.938,-0.743
0.033,0.862,-0.663
0.010,0.826,-0.675
0.027,0.831,-0.615
-0.062,0.865,-0.571
0.163,0.602,-0.299
0.065,0.851,-0.577
0.010,0.850,-0.599
0.064,0.747,-0.469
0.133,0.656,-0.397
0.139,0.749,-0.471
0.237,0.623,-0.471
0.096,0.810,-0.527
0.205,0.711,-0.476
0.113,0.856,-0.638
0.037,0.815,-0.529
0.023,0.831,-0.604
-0.006,0.919,-0.700
0.121,0.845,-0.583
0.073,0.867,-0.518
0.005,1.012,-0.801
-0.086,1.037,-0.803
0.077,0.723,-0.514
0.117,0.724,-0.642
0.021,0.816,-0.676
0.098,0.814,-0.586
0.099,0.864,-0.532
0.063,0.927,-0.681
-0.193,1.118,-0.802
-0.170,1.076,-0.769
-0.128,1.044,-0.675
-0.099,1.035,-0.607
-0.162,1.134,-0.654
-0.252,1.142,-0.616
-0.095,0.964,-0.451
0.046,0.813,-0.480
0.039,0.880,-0.656
0.034,0.840,-0.625
0.043,0.813,-0.502
-0.049,0.984,-0.874
-0.039,0.994,-0.780
-0.039,0.960,-0.717
-0.024,1.016,-0.729
-0.006,0.988,-0.629
-0.198,1.138,-0.749
-0.187,1.138,-0.763
-0.021,0.971,-0.615
-0.008,0.977,-0.677
-0.056,0.965,-0.682
0.020,0.944,-0.706
-0.012,0.971,-0.609
-0.016,1.075,-0.735
0.018,0.992,-0.651
0.011,1.041,-0.733
-0.133,1.173,-0.915
0.032,0.952,-0.754
0.090,0.895,-0.683
0.080,0.844,-0.645
0.083,0.777,-0.561
0.094,0.746,-0.541
0.102,0.759,-0.622
0.236,0.704,-0.631
0.178,0.803,-0.689
0.113,0.855,-0.782
0.006,0.944,-0.721
0.004,1.004,-0.861
-0.044,1.136,-0.930
-0.063,1.146,-0.959
0.017,0.969,-0.763
-0.134,1.082,-0.816
-0.186,1.211,-1.011
-0.015,0.955,-0.630
0.081,0.974,-0.741
0.079,0.986,-0.677
0.022,0.974,-0.662
-0.012,0.990,-0.650
0.010,0.938,-0.661
0.018,0.821,-0.669
0.024,0.908,-0.728
-0.011,0.882,-0.605
0.027,0.850,-0.632
0.045,0.830,-0.690
0.078,0.803,-0.558
-0.105,0.913,-0.560
0.040,0.838,-0.571
0.056,0.741,-0.521
0.018,0.768,-0.601
-0.029,0.817,-0.553
0.146,0.686,-0.363
0.134,0.724,-0.527
0.186,0.733,-0.541
0.194,0.717,-0.503
0.192,0.703,-0.518
0.221,0.693,-0.374
0.094,0.762,-0.402
0.049,0.847,-0.449
0.103,0.752,-0.427
0.037,0.744,-0.511
-0.028,0.843,-0.628
-0.048,0.901,-0.593
0.033,0.843,-0.584
-0.017,0.912,-0.643
0.004,0.824,-0.583
0.066,0.734,-0.380
0.002,0.821,-0.578
-0.020,0.759,-0.506
-0.047,0.890,-0.676
-0.020,0.843,-0.627
0.022,0.872,-0.647
0.055,0.886,-0.653
0.025,0.890,-0.706
0.054,0.932,-0.743
-0.036,0.961,-0.722
-0.106,1.018,-0.739
-0.062,1.006,-0.872
0.025,0.928,-0.744
-0.025,0.954,-0.701
-0.060,1.042,-0.819
0.040,0.894,-0.599
0.001,0.965,-0.679
0.142,0.818,-0.621
0.210,0.735,-0.431
-0.049,0.972,-0.686
0.004,0.910,-0.648
0.009,0.870,-0.673
-0.073,1.048,-0.873
-0.075,1.047,-0.877
-0.050,0.959,-0.777
0.037,0.876,-0.778
-0.048,0.857,-0.718
-0.031,0.949,-0.781
-0.140,1.097,-0.743
-0.141,1.053,-0.641
-0.126,1.096,-0.711
-0.120,1.112,-0.739
-0.218,1.242,-0.922
-0.149,1.117,-0.840
-0.159,1.154,-0.876
-0.124,1.106,-0.790
-0.021,0.925,-0.650
0.078,0.876,-0.550
-0.065,1.096,-0.976
0.035,0.889,-0.660
-0.036,0.910,-0.624
-0.120,0.978,-0.639
-0.134,0.997,-0.628
-0.026,0.937,-0.632
0.052,0.781,-0.477
-0.009,0.857,-0.586
0.010,0.820,-0.549
0.029,0.868,-0.652
0.149,0.684,-0.355
0.217,0.599,-0.214
0.158,0.703,-0.504
0.009,0.783,-0.492
-0.006,0.864,-0.642
-0.032,0.956,-0.719
0.019,0.903,-0.577
-0.042,0.851,-0.494
0.031,0.805,-0.543
0.020,0.853,-0.568
0.013,0.946,-0.671
0.011,0.928,-0.701
-0.046,1.078,-0.923
0.075,0.921,-0.769
0.092,0.915,-0.685
0.116,0.887,-0.702
0.035,0.926,-0.644
0.056,0.995,-0.721
0.019,1.063,-0.741
0.090,0.953,-0.704
0.163,0.868,-0.606
-0.021,1.033,-0.840
-0.087,1.103,-0.843
-0.137,1.186,-0.948
-0.099,1.100,-0.847
-0.072,1.044,-0.717
0.009,0.957,-0.644
-0.022,0.929,-0.673
0.108,0.764,-0.534
0.089,0.847,-0.561
0.125,0.695,-0.471
0.064,0.732,-0.570
0.100,0.760,-0.529
-0.029,0.853,-0.656
-0.012,0.841,-0.649
0.065,0.815,-0.630
0.029,0.838,-0.694
0.046,0.842,-0.679
0.066,0.947,-0.870
0.043,0.956,-0.782
0.076,0.889,-0.618
0.048,0.867,-0.642
-0.017,0.863,-0.641
0.054,0.803,-0.474
0.133,0.672,-0.445
-0.089,1.018,-0.755
-0.044,0.853,-0.698
-0.068,0.929,-0.716
-0.132,1.009,-0.818
-0.149,1.020,-0.784
-0.038,0.940,-0.686
-0.127,1.003,-0.636
-0.220,1.218,-0.949
0.049,0.903,-0.607
0.007,0.887,-0.680
0.071,0.754,-0.454
0.092,0.798,-0.548
0.132,0.730,-0.466
0.002,0.921,-0.652
-0.002,0.908,-0.636
0.040,0.834,-0.557
-0.019,0.963,-0.677
0.000,0.970,-0.743
-0.026,0.947,-0.685
0.120,0.886,-0.706
0.181,0.774,-0.523
0.157,0.750,-0.518
0.027,0.899,-0.596
-0.013,0.981,-0.730
0.114,0.788,-0.504
0.112,0.834,-0.563
0.106,0.744,-0.397
-0.142,1.053,-0.755
-0.036,0.877,-0.599
-0.125,1.074,-0.782
-0.010,0.925,-0.570
-0.130,1.122,-0.736
-0.060,1.014,-0.653
0.023,0.877,-0.648
0.078,0.850,-0.437
0.035,0.819,-0.590
0.210,0.693,-0.413
0.137,0.634,-0.318
0.152,0.590,-0.305
0.038,0.733,-0.456
-0.070,0.898,-0.592
-0.014,0.880,-0.546
-0.046,0.941,-0.733
-0.133,1.019,-0.767
-0.086,0.989,-0.667
0.076,0.841,-0.579
-0.001,1.002,-0.802
0.096,0.858,-0.583
0.135,0.788,-0.428
-0.002,0.953,-0.690
-0.060,1.018,-0.762
0.124,0.744,-0.376
0.159,0.724,-0.347
0.089,0.816,-0.487
0.135,0.757,-0.529
0.167,0.719,-0.529
0.279,0.611,-0.549
0.341,0.527,-0.522
0.209,0.685,-0.589
0.102,0.820,-0.690
-0.036,0.968,-0.761
0.127,0.766,-0.609
0.043,0.835,-0.564
0.023,0.781,-0.535
0.048,0.723,-0.513
0.061,0.810,-0.604
0.080,0.837,-0.483
0.103,0.851,-0.581
0.050,0.878,-0.676
-0.026,0.875,-0.569
0.153,0.737,-0.463
-0.059,1.005,-0.737
-0.035,1.003,-0.748
-0.211,1.136,-0.816
-0.313,1.307,-0.977
-0.459,1.401,-1.046
-0.275,1.244,-1.012
-0.056,1.073,-0.822
-0.009,1.001,-0.754
-0.143,1.078,-0.844
-0.216,1.201,-1.002
-0.160,1.083,-0.793
-0.036,1.019,-0.754
-0.010,1.028,-0.743
-0.068,1.039,-0.875
-0.014,0.997,-0.767
0.026,0.873,-0.677
0.046,0.787,-0.591
0.023,0.913,-0.795
0.024,0.856,-0.714
0.043,0.874,-0.640
0.103,0.753,-0.564
0.085,0.926,-0.698
0.039,0.958,-0.769
-0.030,1.027,-0.784
-0.113,1.070,-0.805
-0.230,1.129,-0.849
-0.171,1.106,-0.803
-0.115,1.041,-0.767
-0.062,1.034,-0.794
-0.177,1.133,-0.905
0.044,0.898,-0.729
0.136,0.834,-0.648
0.081,0.887,-0.626
0.075,0.894,-0.611
0.035,0.906,-0.675
0.083,0.857,-0.463
0.008,0.952,-0.542
0.104,0.865,-0.479
0.019,0.823,-0.564
-0.015,0.860,-0.496
0.012,0.850,-0.543
-0.038,1.021,-0.758
-0.147,1.081,-0.682
-0.035,0.945,-0.630
0.029,0.926,-0.589
0.056,0.893,-0.626
-0.004,0.963,-0.658
-0.106,1.023,-0.667
-0.104,0.954,-0.579
0.024,0.888,-0.634
0.050,0.865,-0.556
-0.009,0.933,-0.579
-0.049,0.941,-0.491
-0.097,0.938,-0.597
0.007,0.750,-0.372
-0.083,0.851,-0.521
0.066,0.781,-0.500
0.189,0.690,-0.424
0.023,0.912,-0.749
-0.067,0.978,-0.793
-0.072,0.949,-0.716
0.057,0.854,-0.564
0.135,0.774,-0.530
0.173,0.738,-0.562
0.036,0.811,-0.629
-0.081,0.995,-0.806
0.069,0.942,-0.725
0.055,0.979,-0.680
0.093,0.893,-0.721
0.112,0.905,-0.718
0.033,0.910,-0.620
0.224,0.748,-0.622
0.096,0.876,-0.710
0.116,0.854,-0.700
0.039,0.841,-0.740
-0.058,1.027,-0.845
-0.016,0.947,-0.701
-0.003,0.918,-0.696
0.014,0.841,-0.523
0.060,0.842,-0.454
-0.042,0.913,-0.577
0.068,0.791,-0.563
-0.065,0.966,-0.814
-0.002,0.873,-0.685
0.014,0.913,-0.649
-0.160,1.124,-0.849
-0.027,0.936,-0.672
-0.139,1.052,-0.779
0.093,0.778,-0.446
0.064,0.884,-0.523
0.046,0.927,-0.653
0.092,0.875,-0.549
-0.004,1.025,-0.673
-0.199,1.159,-0.729
-0.082,0.979,-0.607
0.042,0.850,-0.480
0.044,0.786,-0.464
-0.086,1.046,-0.826
0.005,0.918,-0.633
-0.014,0.855,-0.428
-0.102,0.904,-0.563
-0.081,0.822,-0.363
-0.021,0.880,-0.603
-0.072,0.983,-0.820
-0.132,1.036,-0.848
-0.009,0.867,-0.576
0.013,0.917,-0.604
-0.034,0.905,-0.596
-0.047,0.911,-0.632
-0.059,0.960,-0.739
0.101,0.882,-0.668
0.151,0.772,-0.572
0.093,0.874,-0.535
-0.034,1.041,-0.725
-0.000,0.981,-0.660
-0.089,1.155,-0.822
-0.015,1.068,-0.824
-0.084,1.096,-0.972
-0.027,0.954,-0.746
0.035,0.897,-0.659
-0.006,0.848,-0.619
-0.017,0.845,-0.683
-0.089,0.858,-0.550
-0.141,0.968,-0.686
-0.028,0.859,-0.679
0.076,0.703,-0.430
-0.004,0.844,-0.586
0.108,0.686,-0.376
0.099,0.734,-0.419
-0.056,0.847,-0.480
0.062,0.824,-0.540
-0.001,0.883,-0.773
0.024,0.817,-0.617
0.147,0.787,-0.560
0.057,0.976,-0.837
-0.001,0.996,-0.903
0.021,1.001,-0.867
-0.188,1.239,-1.035
-0.004,1.018,-0.684
0.070,0.916,-0.656
-0.053,0.997,-0.688
-0.096,1.020,-0.722
-0.101,1.000,-0.614
0.094,0.816,-0.467
0.172,0.668,-0.377
0.161,0.660,-0.281
-0.051,0.869,-0.567
-0.017,0.882,-0.567
-0.060,0.960,-0.671
-0.018,0.896,-0.624
0.058,0.909,-0.600
0.147,0.805,-0.520
0.154,0.760,-0.560
0.069,0.789,-0.587
0.058,0.825,-0.626
0.068,0.792,-0.591
0.149,0.685,-0.451
0.230,0.610,-0.293
0.178,0.627,-0.499
0.132,0.692,-0.540
0.048,0.656,-0.422
0.105,0.626,-0.363
-0.033,0.756,-0.540
-0.037,0.866,-0.674
-0.183,1.044,-0.709
-0.098,0.968,-0.707
0.059,0.735,-0.438
-0.004,0.785,-0.559
0.088,0.821,-0.564
0.099,0.844,-0.685
0.018,0.856,-0.569
-0.036,0.937,-0.710
-0.006,0.868,-0.560
-0.091,0.958,-0.605
-0.116,1.058,-0.788
-0.041,0.965,-0.753
-0.036,0.979,-0.751
-0.126,1.043,-0.753
-0.108,0.969,-0.714
-0.041,0.953,-0.746
0.080,0.851,-0.626
0.018,0.997,-0.676
0.010,0.961,-0.647
-0.087,1.037,-0.922
-0.050,0.979,-0.813
0.021,0.953,-0.821
0.093,0.891,-0.814
0.144,0.886,-0.633
0.205,0.624,-0.314
0.244,0.590,-0.373
0.074,0.812,-0.644
0.141,0.734,-0.583
0.102,0.744,-0.599
0.074,0.791,-0.516
0.031,0.839,-0.675
0.001,1.022,-0.929
0.052,1.013,-0.846
-0.020,1.113,-0.945
-0.024,1.058,-0.916
0.133,0.875,-0.704
0.249,0.718,-0.513
0.211,0.772,-0.638
0.113,0.865,-0.629
-0.055,0.944,-0.705
0.003,0.936,-0.766
-0.032,0.914,-0.739
-0.145,1.071,-0.805
0.043,0.950,-0.630
-0.036,0.962,-0.552
0.050,0.908,-0.606
0.183,0.706,-0.411
0.175,0.643,-0.353
0.080,0.769,-0.537
0.019,0.833,-0.566
0.067,0.730,-0.510
0.106,0.653,-0.348
0.054,0.723,-0.438
0.113,0.712,-0.428
0.057,0.837,-0.498
0.060,0.853,-0.566
-0.072,0.995,-0.744
-0.029,0.879,-0.537
-0.191,1.028,-0.683
-0.055,0.813,-0.545
0.134,0.633,-0.386
0.017,0.786,-0.601
0.007,0.872,-0.746
-0.082,0.921,-0.786
-0.099,0.976,-0.793
-0.097,0.900,-0.576
-0.107,1.023,-0.671
-0.149,1.086,-0.761
-0.040,0.948,-0.634
-0.179,1.104,-0.859
-0.009,0.968,-0.765
0.141,0.871,-0.781
0.109,0.861,-0.699
0.020,0.977,-0.839
0.173,0.771,-0.523
0.141,0.827,-0.595
0.135,0.800,-0.518
0.264,0.539,-0.208
0.236,0.589,-0.320
0.140,0.706,-0.364
0.157,0.541,-0.204
0.148,0.520,-0.336
-0.024,0.758,-0.516
0.078,0.678,-0.464
-0.132,0.986,-0.765
-0.106,0.958,-0.640
-0.163,0.989,-0.631
-0.009,0.749,-0.429
0.141,0.687,-0.359
0.100,0.799,-0.528
0.123,0.786,-0.510
0.122,0.758,-0.558
0.068,0.729,-0.554
-0.015,0.903,-0.607
-0.062,0.940,-0.599
-0.033,0.843,-0.511
0.081,0.751,-0.439
0.001,0.885,-0.611
0.059,0.870,-0.697
0.101,0.780,-0.579
0.207,0.680,-0.457
0.248,0.611,-0.396
0.271,0.542,-0.491
0.176,0.655,-0.577
0.024,0.848,-0.740
0.095,0.833,-0.631
0.025,0.869,-0.715
0.064,0.781,-0.635
0.028,0.866,-0.661
-0.076,0.909,-0.667
0.030,0.776,-0.531
0.002,0.890,-0.705
-0.030,0.857,-0.649
-0.001,0.867,-0.657
0.100,0.784,-0.588
-0.017,0.896,-0.739
0.087,0.802,-0.466
0.078,0.847,-0.587
0.107,0.752,-0.438
0.072,0.772,-0.566
0.039,0.779,-0.525
0.148,0.740,-0.545
0.061,0.840,-0.626
0.049,0.854,-0.614
0.005,0.859,-0.630
0.185,0.718,-0.479
0.224,0.691,-0.460
0.046,0.894,-0.728
-0.089,1.003,-0.788
-0.132,1.094,-0.889
-0.183,1.120,-0.736
-0.028,0.940,-0.579
0.019,0.951,-0.623
-0.107,1.027,-0.689
-0.081,1.001,-0.751
0.093,0.744,-0.617
0.043,0.828,-0.744
-0.067,0.936,-0.780
-0.098,0.876,-0.624
-0.059,0.892,-0.612
0.019,0.870,-0.566
0.192,0.637,-0.371
0.176,0.682,-0.428
0.220,0.735,-0.665
0.168,0.763,-0.525
0.147,0.739,-0.704
0.217,0.683,-0.469
0.166,0.813,-0.638
0.136,0.836,-0.598
-0.065,1.030,-0.735
-0.099,1.054,-0.717
-0.087,1.028,-0.656
-0.024,0.948,-0.564
-0.230,1.141,-0.867
-0.111,1.010,-0.685
0.042,0.864,-0.680
0.132,0.751,-0.470
0.071,0.814,-0.524
-0.205,1.102,-0.805
-0.106,1.056,-0.753
-0.359,1.321,-1.005
-0.135,1.052,-0.728
-0.084,1.014,-0.771
0.003,0.946,-0.690
-0.069,1.009,-0.758
-0.106,0.973,-0.678
-0.054,0.916,-0.681
0.046,0.822,-0.532
-0.007,0.863,-0.564
0.159,0.712,-0.383
0.060,0.800,-0.566
0.081,0.776,-0.566
0.065,0.821,-0.610
0.061,0.926,-0.783
-0.098,0.983,-0.720
-0.122,1.021,-0.687
-0.036,0.886,-0.682
0.097,0.841,-0.493
0.045,0.862,-0.623
0.029,0.893,-0.718
-0.107,1.069,-0.874
0.049,0.836,-0.580
0.044,0.814,-0.549
-0.020,0.901,-0.566
-0.154,1.022,-0.632
-0.057,0.915,-0.682
-0.042,0.900,-0.627
-0.014,0.874,-0.654
-0.009,0.879,-0.570
0.026,0.839,-0.599
0.035,0.832,-0.555
0.020,0.815,-0.570
-0.066,0.951,-0.688
0.061,0.851,-0.556
0.095,0.781,-0.451
-0.010,0.868,-0.630
0.028,0.807,-0.565
-0.101,0.926,-0.733
0.152,0.748,-0.520
0.093,0.776,-0.465
0.122,0.707,-0.442
0.115,0.736,-0.542
-0.049,0.937,-0.743
-0.015,0.951,-0.700
-0.010,0.819,-0.546
0.167,0.693,-0.361
0.161,0.779,-0.382
0.109,0.857,-0.524
-0.102,1.131,-0.888
-0.141,1.170,-0.836
-0.089,1.097,-0.756
-0.089,1.099,-0.802
-0.171,1.158,-0.779
-0.285,1.237,-0.746
-0.296,1.191,-0.787
-0.146,1.013,-0.639
-0.090,0.965,-0.642
-0.229,1.103,-0.875
-0.274,1.172,-0.947
-0.236,1.038,-0.711
-0.358,1.211,-1.021
-0.140,0.986,-0.838
-0.095,0.980,-0.744
-0.044,0.967,-0.755
0.012,0.882,-0.720
-0.053,0.969,-0.782
-0.063,1.063,-0.900
0.004,0.924,-0.727
-0.067,0.987,-0.658
0.052,0.953,-0.590
0.091,0.792,-0.562
0.081,0.792,-0.518
0.208,0.632,-0.315
0.104,0.710,-0.362
0.033,0.831,-0.411
-0.009,0.947,-0.649
-0.005,0.917,-0.623
0.039,0.859,-0.653
0.047,0.806,-0.575
0.079,0.781,-0.523
0.097,0.849,-0.596
-0.007,0.957,-0.705
0.008,0.915,-0.670
-0.012,0.975,-0.739
-0.004,0.932,-0.737
-0.032,0.936,-0.658
-0.003,0.923,-0.723
0.048,0.785,-0.613
-0.000,0.834,-0.594
0.011,0.835,-0.520
-0.057,0.976,-0.618
-0.055,0.997,-0.660
0.116,0.822,-0.593
0.218,0.743,-0.483
-0.074,1.082,-0.971
0.009,0.889,-0.637
0.135,0.769,-0.576
0.028,0.879,-0.673
-0.055,1.075,-0.947
-0.069,1.067,-0.901
-0.072,1.000,-0.680
-0.072,0.985,-0.661
-0.017,0.922,-0.598
-0.052,0.977,-0.591
0.063,0.883,-0.568
-0.040,0.946,-0.623
0.026,0.880,-0.551
0.093,0.849,-0.625
0.111,0.773,-0.507
0.180,0.839,-0.631
0.182,0.869,-0.695
0.201,0.735,-0.534
0.146,0.764,-0.534
0.150,0.792,-0.629
0.083,0.786,-0.520
0.086,0.681,-0.412
0.149,0.755,-0.570
0.063,0.824,-0.617
0.029,0.931,-0.683
-0.013,1.030,-0.697
-0.109,1.076,-0.831
-0.027,1.020,-0.870
0.084,0.907,-0.690
0.100,0.815,-0.580
0.078,0.876,-0.617
0.083,0.859,-0.644
0.040,0.985,-0.766
0.055,0.967,-0.804
-0.101,1.031,-0.711
0.057,0.792,-0.452
-0.086,1.069,-0.718
-0.171,1.094,-0.776
-0.070,0.944,-0.626
-0.073,1.018,-0.715
-0.096,1.037,-0.783
-0.075,1.117,-0.849
0.018,0.994,-0.626
-0.101,1.112,-0.712
-0.068,1.012,-0.658
-0.051,0.999,-0.736
-0.085,1.004,-0.811
-0.107,1.038,-0.765
0.012,0.956,-0.778
0.026,0.882,-0.796
0.097,0.869,-0.687
0.155,0.759,-0.464
0.212,0.686,-0.431
-0.017,0.857,-0.635
-0.047,0.912,-0.639
0.016,0.920,-0.628
-0.004,0.998,-0.700
0.054,0.949,-0.684
0.107,0.901,-0.634
0.148,0.842,-0.509
0.113,0.873,-0.554
0.045,0.878,-0.585
-0.152,1.096,-0.824
-0.219,1.145,-0.862
-0.186,1.084,-0.828
-0.144,0.996,-0.692
0.067,0.765,-0.505
0.022,0.837,-0.618
0.098,0.751,-0.518
0.035,0.859,-0.654
-0.090,0.897,-0.626
-0.106,0.975,-0.689
-0.018,0.907,-0.625
-0.005,0.916,-0.657
0.059,0.728,-0.528
0.062,0.810,-0.537
0.104,0.782,-0.495
0.100,0.763,-0.518
0.172,0.745,-0.517
0.127,0.786,-0.536
0.113,0.832,-0.651
-0.037,1.052,-0.831
-0.070,1.099,-0.840
-0.085,1.035,-0.868
0.068,0.874,-0.615
0.073,0.803,-0.530
0.050,0.771,-0.534
0.060,0.812,-0.450
-0.014,0.813,-0.491
0.261,0.496,-0.194
0.181,0.640,-0.371
0.186,0.704,-0.483
0.219,0.755,-0.455
0.205,0.768,-0.562
0.245,0.697,-0.495
0.098,0.808,-0.500
0.134,0.759,-0.499
0.022,0.853,-0.582
0.061,0.874,-0.575
-0.009,0.935,-0.653
-0.112,1.053,-0.904
-0.092,1.021,-0.841
-0.038,0.916,-0.634
-0.053,0.890,-0.571
-0.108,0.933,-0.576
0.037,0.781,-0.493
0.042,0.845,-0.555
-0.099,0.961,-0.680
-0.205,1.172,-0.917
-0.042,0.970,-0.627
-0.043,1.007,-0.661
0.051,0.832,-0.536
0.116,0.749,-0.471
0.211,0.665,-0.358
0.034,0.940,-0.800
-0.006,1.043,-0.868
-0.024,1.010,-0.730
-0.018,1.029,-0.734
0.056,0.964,-0.676
0.017,0.920,-0.624
-0.069,1.053,-0.730
-0.001,0.864,-0.457
-0.031,0.962,-0.658
-0.036,0.967,-0.751
0.024,0.827,-0.541
0.008,0.830,-0.548
-0.007,0.878,-0.514
0.050,0.746,-0.358
0.110,0.790,-0.451
0.071,0.805,-0.529
-0.062,0.960,-0.677
-0.059,1.057,-0.711
0.031,0.982,-0.705
0.040,0.972,-0.682
0.167,0.862,-0.597
0.153,0.833,-0.539
0.027,0.933,-0.535
0.084,0.867,-0.524
0.018,0.906,-0.551
0.007,0.941,-0.712
0.072,0.775,-0.631
0.070,0.818,-0.638
0.050,0.728,-0.497
0.100,0.786,-0.631
0.042,0.799,-0.527
0.045,0.817,-0.488
-0.220,1.075,-0.724
-0.145,1.031,-0.678
-0.009,0.894,-0.491
0.104,0.716,-0.442
-0.017,0.838,-0.643
-0.118,0.895,-0.752
-0.072,0.848,-0.641
-0.100,0.938,-0.795
-0.061,0.898,-0.754
-0.015,0.876,-0.692
0.016,0.876,-0.644
0.063,0.852,-0.575
-0.052,0.960,-0.719
0.061,0.792,-0.656
0.189,0.734,-0.572
0.083,0.779,-0.591
0.130,0.745,-0.560
-0.055,0.881,-0.656
-0.035,0.888,-0.607
-0.045,0.939,-0.748
0.040,0.892,-0.774
0.087,0.862,-0.684
0.074,0.810,-0.613
0.087,0.861,-0.717
0.045,0.867,-0.641
-0.003,0.895,-0.730
0.067,0.840,-0.684
0.191,0.712,-0.444
0.070,0.817,-0.624
0.032,0.820,-0.554
-0.044,0.919,-0.709
-0.134,0.896,-0.583
-0.047,0.791,-0.455
0.017,0.820,-0.662
0.036,0.858,-0.657
-0.053,0.949,-0.675
-0.079,0.946,-0.691
-0.107,0.974,-0.743
0.017,0.851,-0.586
-0.020,0.984,-0.646
-0.049,1.040,-0.796
-0.032,1.077,-0.830
0.038,1.016,-0.667
-0.132,1.161,-0.733
-0.166,1.191,-0.836
-0.065,1.054,-0.607
-0.087,1.028,-0.645
-0.180,1.095,-0.725
-0.241,1.137,-0.879
-0.076,0.980,-0.717
-0.007,0.929,-0.688
0.018,0.897,-0.654
-0.074,0.929,-0.660
-0.195,1.082,-0.748
0.021,0.791,-0.534
0.058,0.769,-0.500
-0.041,0.791,-0.545
0.128,0.653,-0.378
0.091,0.745,-0.412
0.114,0.710,-0.358
0.029,0.882,-0.502
0.083,0.832,-0.391
0.137,0.854,-0.564
0.048,0.904,-0.587
0.040,0.926,-0.786
-0.123,1.035,-0.846
-0.132,1.022,-0.810
-0.191,1.106,-0.799
-0.311,1.284,-1.046
-0.198,1.216,-0.871
-0.130,1.173,-0.914
-0.110,1.091,-0.845
-0.032,0.950,-0.669
0.006,0.898,-0.620
0.142,0.825,-0.543
0.081,0.890,-0.651
-0.033,1.031,-0.836
0.004,0.964,-0.725
0.034,0.949,-0.623
-0.011,0.972,-0.672
0.015,1.006,-0.831
-0.072,1.106,-0.893
-0.025,1.020,-0.836
-0.007,1.062,-0.841
-0.022,1.022,-0.873
-0.067,1.046,-0.747
-0.080,1.133,-0.870
0.001,0.983,-0.757
0.094,0.934,-0.717
-0.013,0.918,-0.631
-0.056,0.950,-0.773
-0.135,1.026,-0.776
-0.081,0.971,-0.682
-0.175,1.131,-0.866
-0.121,1.164,-0.878
-0.099,1.085,-0.768
-0.151,1.120,-0.872
0.072,0.877,-0.591
0.130,0.840,-0.601
0.013,0.905,-0.731
0.027,0.817,-0.584
-0.033,0.891,-0.664
-0.107,0.970,-0.636
-0.134,0.945,-0.640
-0.099,0.972,-0.718
