0.333,0.333,0.333
0.013,-0.048,0.278
-0.126,-0.177,0.106
-0.058,-0.103,0.194
-0.346,-0.400,-0.050
-0.344,-0.433,-0.045
-0.750,-0.764,-0.435
0.324,0.167,0.567
0.224,0.107,0.462
0.198,0.123,0.461
0.208,0.144,0.506
0.238,0.223,0.545
0.216,0.235,0.513
0.187,0.124,0.437
0.082,0.047,0.374
-0.263,-0.327,0.051
-0.723,-0.814,-0.500
-0.253,-0.294,0.021
-0.305,-0.390,-0.017
-0.007,-0.115,0.234
-0.202,-0.293,0.006
-0.254,-0.327,0.008
-0.295,-0.337,-0.073
0.288,0.196,0.505
0.655,0.611,0.869
0.704,0.592,0.944
0.701,0.705,0.965
0.724,0.708,1.019
0.801,0.797,1.073
0.708,0.741,1.074
0.307,0.305,0.584
0.453,0.430,0.751
0.322,0.290,0.587
0.199,0.143,0.507
0.207,0.160,0.531
-0.324,-0.301,-0.070
-0.330,-0.307,-0.078
-0.209,-0.308,0.088
-0.097,-0.098,0.241
-0.587,-0.648,-0.310
-0.521,-0.539,-0.295
0.043,0.003,0.326
-0.255,-0.261,0.041
-0.238,-0.248,0.016
-0.423,-0.443,-0.129
-0.020,-0.040,0.268
0.087,0.024,0.397
0.045,-0.070,0.237
-0.202,-0.162,0.124
-0.158,-0.231,0.053
-0.461,-0.471,-0.156
-0.694,-0.699,-0.357
-1.083,-1.145,-0.888
-1.278,-1.308,-0.974
-1.207,-1.175,-0.909
-1.434,-1.510,-1.191
-1.552,-1.597,-1.286
-1.623,-1.612,-1.319
-1.144,-1.183,-0.863
-1.102,-1.107,-0.852
-0.574,-0.645,-0.338
-0.893,-0.896,-0.662
-1.090,-1.121,-0.836
-1.221,-1.245,-0.966
-1.121,-1.055,-0.788
-0.761,-0.825,-0.498
-0.866,-0.858,-0.570
-0.764,-0.812,-0.492
-0.544,-0.584,-0.281
-0.231,-0.314,0.027
-0.811,-0.926,-0.623
-0.512,-0.615,-0.296
-0.370,-0.473,-0.147
-0.093,-0.149,0.180
0.062,0.028,0.337
-0.586,-0.654,-0.280
-1.108,-1.183,-0.848
-1.192,-1.142,-0.860
-0.754,-0.734,-0.439
-1.079,-1.108,-0.736
-0.621,-0.605,-0.332
-0.970,-1.004,-0.689
-1.182,-1.253,-0.953
-1.163,-1.199,-0.943
-0.383,-0.467,-0.113
-0.479,-0.564,-0.221
-0.625,-0.642,-0.353
-0.736,-0.783,-0.481
-0.264,-0.299,-0.041
-0.445,-0.562,-0.209
0.039,-0.016,0.319
0.406,0.407,0.666
0.364,0.337,0.670
0.271,0.223,0.576
0.012,-0.026,0.234
0.051,-0.017,0.325
0.110,0.116,0.366
0.285,0.223,0.524
0.283,0.287,0.530
-0.371,-0.349,-0.091
-0.072,-0.048,0.239
-0.086,-0.081,0.230
-0.322,-0.288,-0.007
0.223,0.211,0.554
0.498,0.395,0.705
0.144,0.155,0.458
-0.104,-0.116,0.126
-0.338,-0.337,-0.038
-0.511,-0.522,-0.219
-0.611,-0.638,-0.284
-0.503,-0.550,-0.255
-0.237,-0.310,0.042
-0.187,-0.244,0.094
-0.241,-0.191,0.117
-0.291,-0.177,0.100
0.314,0.262,0.618
0.123,0.027,0.391
-0.277,-0.269,-0.007
-0.292,-0.319,-0.005
-0.082,-0.147,0.135
-0.222,-0.264,0.067
-0.319,-0.327,-0.081
-0.288,-0.287,-0.025
-0.387,-0.359,-0.097
-0.626,-0.666,-0.382
-0.376,-0.371,-0.090
-0.599,-0.562,-0.298
-0.303,-0.227,0.010
-0.404,-0.409,-0.060
-0.466,-0.427,-0.166
-0.369,-0.353,-0.087
-0.258,-0.253,0.031
-0.827,-0.799,-0.541
-0.734,-0.718,-0.440
-0.701,-0.602,-0.339
-0.753,-0.755,-0.480
-0.828,-0.833,-0.578
-0.611,-0.656,-0.365
-0.678,-0.701,-0.413
-0.073,-0.118,0.184
-0.020,0.010,0.265
0.446,0.394,0.668
0.055,0.019,0.314
-0.099,-0.140,0.132
0.213,0.163,0.502
-0.095,-0.134,0.227
0.143,0.149,0.396
0.565,0.542,0.865
0.529,0.474,0.795
0.256,0.230,0.502
0.246,0.205,0.477
0.286,0.289,0.496
0.460,0.433,0.736
0.274,0.303,0.598
0.759,0.718,1.055
0.851,0.847,1.135
0.754,0.675,0.955
0.375,0.328,0.641
0.471,0.437,0.764
0.405,0.308,0.671
0.668,0.646,0.955
0.672,0.594,0.976
0.338,0.345,0.606
-0.157,-0.222,0.079
-0.351,-0.434,-0.128
-0.332,-0.374,-0.114
-0.703,-0.752,-0.409
-0.739,-0.786,-0.531
-1.010,-1.032,-0.698
-0.929,-0.880,-0.647
-1.081,-1.180,-0.801
-0.973,-1.110,-0.756
-0.861,-0.909,-0.580
-0.946,-0.991,-0.691
-0.719,-0.818,-0.481
-0.904,-0.894,-0.571
0.200,0.174,0.476
0.360,0.292,0.611
0.101,0.115,0.454
0.007,-0.081,0.236
-0.186,-0.252,0.128
-0.290,-0.337,-0.011
-0.303,-0.341,-0.026
-0.261,-0.284,0.004
-0.755,-0.803,-0.482
-0.491,-0.545,-0.263
-0.879,-0.927,-0.602
-0.956,-1.067,-0.748
-0.376,-0.434,-0.107
-0.884,-0.921,-0.606
-0.919,-1.052,-0.694
-1.189,-1.163,-0.879
-0.980,-0.964,-0.753
-1.208,-1.278,-0.921
-1.066,-1.090,-0.802
-0.586,-0.611,-0.276
-0.889,-0.925,-0.626
-0.934,-0.962,-0.652
-0.949,-0.973,-0.718
-1.298,-1.278,-1.023
-0.855,-0.901,-0.536
-0.765,-0.828,-0.443
-0.682,-0.670,-0.407
-0.768,-0.834,-0.518
-0.989,-1.110,-0.739
-0.556,-0.548,-0.336
-0.768,-0.756,-0.450
-0.468,-0.490,-0.164
-0.157,-0.236,0.089
0.082,0.033,0.320
0.168,0.067,0.467
0.262,0.226,0.530
0.284,0.303,0.611
0.519,0.489,0.768
0.419,0.434,0.748
0.299,0.270,0.558
0.244,0.187,0.505
0.160,0.162,0.437
-0.176,-0.214,0.049
0.053,-0.009,0.310
-0.219,-0.238,0.050
-0.186,-0.235,0.054
-0.574,-0.572,-0.349
-0.531,-0.547,-0.207
-0.517,-0.539,-0.198
-0.785,-0.817,-0.493
-0.996,-1.042,-0.729
-1.177,-1.193,-0.913
-1.295,-1.239,-1.050
-1.332,-1.334,-1.043
-1.713,-1.658,-1.379
-1.596,-1.625,-1.275
-1.068,-1.072,-0.759
-1.065,-1.087,-0.837
-1.011,-0.989,-0.748
-0.975,-0.939,-0.699
-0.743,-0.767,-0.479
-0.606,-0.585,-0.249
-0.986,-1.052,-0.708
-0.945,-0.897,-0.626
-0.381,-0.326,-0.105
-0.649,-0.677,-0.386
-0.597,-0.644,-0.323
-0.600,-0.578,-0.307
-0.224,-0.195,0.063
-0.680,-0.754,-0.475
-0.481,-0.461,-0.233
-0.399,-0.440,-0.146
-0.277,-0.209,0.024
-0.508,-0.514,-0.219
-0.475,-0.507,-0.187
-0.555,-0.610,-0.260
-0.719,-0.770,-0.399
-0.457,-0.458,-0.197
-0.209,-0.220,0.103
0.100,0.087,0.461
0.530,0.550,0.821
1.224,1.163,1.481
0.754,0.719,1.021
0.775,0.665,1.055
0.722,0.724,0.983
1.007,1.064,1.335
1.143,1.196,1.455
0.678,0.692,1.007
0.537,0.499,0.763
0.370,0.309,0.636
0.445,0.434,0.689
0.480,0.516,0.785
0.375,0.391,0.680
0.483,0.494,0.744
-0.063,-0.033,0.201
0.117,0.068,0.392
-0.062,-0.086,0.242
0.232,0.167,0.474
-0.509,-0.562,-0.261
-0.705,-0.747,-0.412
-0.546,-0.574,-0.227
-0.461,-0.439,-0.170
-0.773,-0.753,-0.472
-0.731,-0.715,-0.474
-0.186,-0.178,0.087
0.196,0.231,0.505
0.038,0.092,0.351
-0.168,-0.195,0.088
0.211,0.102,0.466
0.117,0.107,0.398
0.129,0.103,0.382
0.251,0.287,0.547
0.464,0.440,0.735
0.085,0.046,0.297
0.085,0.137,0.410
0.633,0.602,0.858
0.854,0.842,1.155
0.477,0.428,0.689
0.358,0.404,0.682
0.863,0.848,1.094
0.798,0.813,1.076
0.864,0.834,1.160
0.886,0.880,1.167
0.207,0.159,0.488
-0.148,-0.164,0.154
-0.528,-0.553,-0.265
-0.617,-0.560,-0.275
-0.801,-0.744,-0.489
-0.265,-0.220,0.067
-0.218,-0.187,0.053
-0.728,-0.686,-0.462
-1.294,-1.193,-0.888
-0.927,-0.952,-0.717
-0.581,-0.554,-0.342
-0.648,-0.620,-0.293
-0.299,-0.313,-0.045
-0.289,-0.301,-0.018
-0.123,-0.208,0.096
-0.284,-0.229,-0.005
-0.279,-0.262,0.002
-0.746,-0.748,-0.478
-0.585,-0.592,-0.302
-0.600,-0.621,-0.337
-0.555,-0.551,-0.254
-0.713,-0.749,-0.470
-0.626,-0.615,-0.295
-0.945,-0.896,-0.610
-1.010,-0.958,-0.674
-0.876,-0.952,-0.628
-0.964,-0.916,-0.683
-0.864,-0.852,-0.565
-0.640,-0.593,-0.326
-0.473,-0.493,-0.185
-0.654,-0.679,-0.368
-0.669,-0.684,-0.365
-0.726,-0.793,-0.480
-0.567,-0.600,-0.318
-0.429,-0.501,-0.196
-0.689,-0.753,-0.475
-0.810,-0.811,-0.507
-1.100,-1.110,-0.795
-0.716,-0.720,-0.442
-0.783,-0.865,-0.552
-0.562,-0.619,-0.272
-0.348,-0.333,-0.070
-0.408,-0.488,-0.241
0.031,-0.043,0.229
0.233,0.184,0.501
0.583,0.558,0.810
0.437,0.452,0.747
0.475,0.486,0.799
0.391,0.290,0.654
0.328,0.270,0.601
0.506,0.472,0.749
0.091,0.126,0.363
-0.027,-0.037,0.294
0.167,0.112,0.426
0.230,0.236,0.569
0.036,0.015,0.337
-0.039,0.007,0.284
0.052,0.042,0.338
0.035,0.039,0.371
0.109,0.034,0.365
0.275,0.244,0.508
-0.086,-0.140,0.158
-0.149,-0.178,0.134
-0.181,-0.203,0.150
-0.346,-0.353,-0.047
-0.643,-0.625,-0.371
-0.535,-0.540,-0.253
-0.473,-0.477,-0.195
-0.122,-0.110,0.194
-0.213,-0.273,0.066
-0.072,-0.020,0.163
-0.175,-0.115,0.126
-0.476,-0.545,-0.253
-0.513,-0.506,-0.228
-0.111,-0.068,0.182
0.357,0.314,0.564
-0.157,-0.177,0.135
-0.144,-0.164,0.173
-0.272,-0.181,0.015
-0.114,-0.110,0.136
-0.192,-0.231,0.038
-0.185,-0.292,0.073
-0.223,-0.287,0.006
-0.213,-0.164,0.083
0.406,0.374,0.708
-0.043,-0.041,0.252
0.042,0.005,0.348
0.320,0.270,0.572
0.310,0.293,0.631
-0.147,-0.108,0.151
-0.205,-0.198,0.136
-0.115,-0.118,0.175
-0.364,-0.319,-0.020
-0.280,-0.275,-0.012
0.113,0.143,0.405
0.160,0.173,0.468
-0.330,-0.367,-0.103
-0.623,-0.622,-0.351
-0.182,-0.242,0.040
-0.550,-0.581,-0.234
-0.387,-0.364,-0.052
-0.422,-0.359,-0.081
-0.581,-0.564,-0.318
-0.439,-0.471,-0.158
-0.425,-0.401,-0.126
-0.295,-0.268,-0.004
-0.212,-0.210,-0.003
-0.617,-0.642,-0.328
-0.561,-0.559,-0.253
-0.003,0.013,0.304
0.160,0.178,0.458
-0.627,-0.655,-0.399
-1.144,-1.167,-0.906
-0.685,-0.703,-0.416
-0.336,-0.407,-0.112
-0.287,-0.315,0.019
0.044,0.054,0.342
0.083,0.189,0.404
0.068,0.112,0.379
1.039,1.010,1.308
0.491,0.508,0.774
0.305,0.305,0.615
0.065,0.050,0.317
-0.137,-0.208,0.154
-0.168,-0.093,0.207
-0.698,-0.719,-0.369
-0.568,-0.573,-0.312
-1.376,-1.322,-1.033
-1.028,-1.045,-0.775
-0.884,-0.874,-0.593
-0.924,-0.897,-0.588
-0.762,-0.740,-0.457
-0.933,-0.991,-0.645
-0.358,-0.341,-0.097
-0.309,-0.228,0.038
-0.072,-0.082,0.243
-0.244,-0.285,0.010
0.304,0.236,0.583
0.193,0.164,0.480
0.153,0.135,0.431
0.021,0.033,0.284
0.492,0.484,0.746
0.611,0.629,0.903
0.153,0.147,0.460
0.054,0.066,0.371
0.198,0.154,0.500
-0.407,-0.392,-0.091
-0.239,-0.183,0.017
0.111,0.143,0.381
-0.200,-0.211,0.080
-0.566,-0.582,-0.245
-0.560,-0.522,-0.296
-0.500,-0.593,-0.259
-0.215,-0.155,0.078
-0.419,-0.412,-0.170
-0.625,-0.622,-0.348
-0.535,-0.569,-0.275
-0.156,-0.161,0.109
-0.103,-0.056,0.163
0.204,0.127,0.463
0.294,0.288,0.597
0.229,0.144,0.452
-0.017,0.016,0.265
0.112,0.131,0.407
0.126,0.171,0.431
0.239,0.184,0.486
0.009,-0.023,0.304
-0.174,-0.225,0.047
0.340,0.273,0.624
0.417,0.353,0.667
0.191,0.169,0.461
0.070,0.012,0.363
0.044,-0.043,0.313
0.261,0.235,0.530
0.215,0.218,0.500
0.576,0.532,0.818
0.870,0.867,1.120
0.928,0.880,1.194
0.332,0.318,0.663
0.154,0.246,0.459
0.436,0.462,0.738
0.200,0.144,0.473
0.356,0.347,0.617
0.301,0.229,0.612
0.995,0.936,1.264
0.982,0.992,1.296
0.833,0.900,1.235
0.712,0.720,0.995
0.550,0.599,0.911
0.067,0.064,0.355
-0.038,-0.031,0.237
-0.243,-0.289,0.038
0.100,0.046,0.360
0.139,0.061,0.375
0.298,0.247,0.551
0.701,0.704,0.966
0.748,0.754,1.041
0.562,0.613,0.880
0.888,0.876,1.179
0.698,0.641,0.981
0.821,0.872,1.196
0.865,0.950,1.176
1.011,1.032,1.282
0.823,0.740,1.118
0.672,0.705,0.999
0.705,0.703,1.000
0.844,0.899,1.170
0.064,0.138,0.406
-0.057,-0.041,0.248
-0.010,-0.049,0.255
0.578,0.559,0.873
0.631,0.622,0.919
0.242,0.229,0.526
-0.338,-0.349,-0.021
-0.090,-0.047,0.226
-0.275,-0.338,-0.029
-0.496,-0.470,-0.184
-0.384,-0.449,-0.138
0.369,0.331,0.642
0.338,0.261,0.597
0.166,0.144,0.432
-0.156,-0.177,0.098
-0.070,-0.114,0.188
0.471,0.463,0.735
1.098,1.042,1.320
0.651,0.682,0.958
0.182,0.162,0.376
0.291,0.316,0.547
0.405,0.414,0.693
0.130,0.065,0.407
0.678,0.709,0.993
0.684,0.629,0.935
0.839,0.770,1.053
0.790,0.747,1.043
0.517,0.499,0.789
0.815,0.746,1.038
0.813,0.793,1.068
0.871,0.863,1.176
0.539,0.491,0.823
0.588,0.559,0.872
0.218,0.225,0.553
-0.259,-0.258,0.035
-0.555,-0.618,-0.317
-0.524,-0.577,-0.223
0.131,0.037,0.421
0.298,0.243,0.554
-0.011,-0.003,0.286
-0.056,-0.133,0.185
0.138,0.049,0.325
0.097,0.026,0.342
0.021,0.038,0.314
-0.165,-0.233,0.150
0.114,0.088,0.444
0.462,0.490,0.738
0.747,0.662,0.949
1.047,1.027,1.355
0.749,0.711,1.014
0.354,0.294,0.565
0.240,0.148,0.496
0.151,0.115,0.443
0.845,0.819,1.220
0.746,0.726,1.012
0.738,0.749,1.041
0.647,0.710,0.936
0.499,0.421,0.771
0.261,0.217,0.570
0.080,0.025,0.364
-0.236,-0.268,0.050
-0.228,-0.220,0.044
0.134,0.077,0.388
0.293,0.228,0.549
0.233,0.238,0.521
0.404,0.348,0.655
-0.192,-0.199,0.096
0.210,0.237,0.542
0.254,0.200,0.526
0.028,0.021,0.369
0.317,0.309,0.630
0.246,0.197,0.528
-0.099,-0.131,0.191
0.036,-0.114,0.298
0.160,0.164,0.403
0.693,0.689,1.017
0.724,0.703,1.058
0.520,0.497,0.798
0.579,0.591,0.854
-0.208,-0.122,0.192
-0.149,-0.178,0.122
-0.414,-0.420,-0.111
-0.715,-0.742,-0.458
-0.717,-0.774,-0.435
-0.741,-0.747,-0.480
-0.747,-0.795,-0.460
-0.975,-0.981,-0.710
-0.731,-0.798,-0.490
-0.625,-0.666,-0.311
-0.180,-0.247,0.090
-0.341,-0.418,-0.105
-0.400,-0.398,-0.141
-0.597,-0.644,-0.376
-0.678,-0.709,-0.405
-0.366,-0.391,-0.071
0.042,-0.009,0.272
0.126,0.171,0.428
0.324,0.289,0.646
0.166,0.070,0.394
0.502,0.482,0.760
0.156,0.100,0.496
0.033,0.081,0.362
0.056,0.021,0.292
-0.864,-0.919,-0.607
-1.227,-1.286,-0.987
-1.212,-1.192,-0.898
-1.162,-1.225,-0.915
-0.988,-1.077,-0.784
-1.103,-1.167,-0.806
-0.652,-0.779,-0.423
-1.136,-1.153,-0.841
-1.101,-1.151,-0.838
-1.061,-1.141,-0.873
-1.044,-1.055,-0.763
-0.788,-0.797,-0.515
-1.114,-1.221,-0.863
-1.198,-1.202,-0.936
-1.495,-1.606,-1.228
-1.658,-1.700,-1.350
-1.541,-1.558,-1.232
-1.784,-1.835,-1.543
-1.101,-1.166,-0.865
-1.163,-1.214,-0.889
-1.150,-1.130,-0.810
-0.645,-0.649,-0.333
-0.360,-0.363,-0.093
-0.378,-0.461,-0.122
0.009,-0.080,0.267
0.354,0.286,0.575
0.485,0.467,0.717
0.512,0.454,0.808
0.418,0.311,0.670
0.543,0.480,0.818
0.462,0.442,0.729
0.603,0.618,0.894
0.293,0.340,0.567
0.779,0.774,1.059
0.986,0.925,1.281
0.581,0.473,0.811
0.558,0.478,0.812
0.531,0.453,0.823
0.071,0.059,0.377
-0.279,-0.323,-0.019
-0.344,-0.469,-0.089
-0.472,-0.535,-0.240
-0.499,-0.571,-0.227
-0.268,-0.278,-0.006
-0.579,-0.598,-0.314
-0.616,-0.625,-0.300
-0.697,-0.735,-0.416
-0.763,-0.790,-0.488
-0.590,-0.668,-0.348
-0.462,-0.524,-0.182
-1.187,-1.228,-0.846
-0.846,-0.925,-0.646
-1.056,-1.137,-0.781
-0.389,-0.354,-0.077
-0.110,-0.163,0.087
0.321,0.305,0.614
0.379,0.289,0.598
0.114,0.041,0.346
0.002,0.001,0.275
-0.305,-0.358,-0.029
-0.906,-0.906,-0.592
-0.788,-0.784,-0.513
-0.667,-0.695,-0.408
-0.558,-0.534,-0.234
-0.630,-0.696,-0.369
-1.018,-1.104,-0.792
-0.529,-0.563,-0.248
-1.099,-1.113,-0.817
-1.157,-1.197,-0.868
-1.363,-1.383,-1.037
-1.565,-1.553,-1.304
-1.576,-1.654,-1.357
-1.658,-1.694,-1.382
-1.404,-1.420,-1.074
-1.639,-1.681,-1.384
-1.807,-1.768,-1.534
-1.758,-1.756,-1.435
-1.594,-1.657,-1.347
-1.302,-1.386,-1.054
-1.209,-1.254,-0.989
-0.900,-0.975,-0.646
-1.168,-1.168,-0.886
-1.518,-1.559,-1.261
-1.369,-1.451,-1.128
-0.922,-0.886,-0.610
-0.793,-0.777,-0.483
-0.253,-0.335,0.046
-0.506,-0.486,-0.184
-0.426,-0.447,-0.159
-0.117,-0.162,0.151
-0.121,-0.172,0.163
0.081,0.025,0.423
-0.374,-0.401,-0.084
-0.815,-0.797,-0.535
-0.456,-0.446,-0.151
-0.388,-0.324,-0.105
-0.214,-0.239,0.099
-0.517,-0.473,-0.195
-0.807,-0.820,-0.582
-0.739,-0.765,-0.464
-0.421,-0.394,-0.111
0.362,0.296,0.603
0.593,0.572,0.888
1.017,0.962,1.307
0.485,0.461,0.807
0.601,0.551,0.855
0.128,0.200,0.440
0.653,0.605,0.928
0.538,0.528,0.789
0.678,0.665,0.965
0.282,0.221,0.599
0.295,0.224,0.626
0.448,0.479,0.737
0.498,0.471,0.745
0.635,0.534,0.857
0.834,0.765,1.093
0.238,0.187,0.487
-0.156,-0.209,0.161
0.006,-0.064,0.190
0.268,0.278,0.554
0.295,0.297,0.534
0.746,0.776,1.010
0.816,0.839,1.087
0.496,0.527,0.813
0.963,0.965,1.246
0.821,0.828,1.130
0.687,0.608,0.911
0.235,0.236,0.560
-0.218,-0.178,0.061
0.142,0.112,0.402
0.074,0.063,0.351
-0.581,-0.638,-0.290
-0.700,-0.718,-0.449
-0.415,-0.404,-0.084
-0.494,-0.463,-0.237
-0.517,-0.539,-0.193
-0.968,-1.034,-0.699
-1.134,-1.177,-0.874
-0.888,-0.877,-0.628
-0.793,-0.818,-0.480
-0.459,-0.540,-0.210
-0.398,-0.416,-0.142
-0.736,-0.754,-0.424
-1.070,-1.082,-0.739
-1.133,-1.119,-0.814
-1.232,-1.198,-0.921
-1.315,-1.314,-1.016
-1.719,-1.730,-1.436
-0.751,-0.806,-0.556
-0.844,-0.865,-0.592
-0.630,-0.645,-0.382
-1.334,-1.337,-1.001
-1.521,-1.572,-1.316
-1.140,-1.144,-0.810
-0.633,-0.600,-0.272
-0.638,-0.659,-0.332
-0.630,-0.666,-0.349
-0.797,-0.863,-0.571
-1.026,-1.077,-0.743
-0.701,-0.714,-0.388
-0.450,-0.452,-0.150
-0.341,-0.310,-0.012
-0.277,-0.237,0.012
-0.102,-0.090,0.203
0.139,0.121,0.401
0.031,-0.001,0.311
-0.136,-0.188,0.140
-0.741,-0.776,-0.483
-0.761,-0.798,-0.472
-0.700,-0.738,-0.411
-0.419,-0.379,-0.154
-0.541,-0.588,-0.242
-0.165,-0.216,0.121
-0.154,-0.192,0.087
0.340,0.326,0.577
0.302,0.291,0.515
0.105,0.107,0.364
0.278,0.313,0.559
0.359,0.368,0.632
0.590,0.572,0.828
0.540,0.554,0.828
0.472,0.437,0.747
0.563,0.588,0.898
0.248,0.287,0.575
0.806,0.799,1.065
1.011,0.948,1.265
0.727,0.710,0.997
1.035,1.013,1.272
0.781,0.761,1.075
1.293,1.266,1.568
1.209,1.171,1.495
0.929,0.894,1.212
0.914,0.872,1.175
0.628,0.603,0.930
0.345,0.341,0.633
0.473,0.404,0.752
0.621,0.569,0.897
0.612,0.605,0.913
0.255,0.247,0.528
-0.209,-0.149,0.110
-0.029,-0.054,0.263
0.505,0.493,0.780
0.237,0.239,0.513
0.322,0.314,0.609
0.306,0.273,0.634
0.048,0.043,0.361
0.206,0.217,0.522
-0.190,-0.137,0.112
0.118,0.096,0.399
0.216,0.227,0.442
0.404,0.366,0.689
0.996,1.020,1.299
1.157,1.197,1.431
1.250,1.237,1.489
1.011,0.948,1.275
0.916,0.938,1.224
0.768,0.841,1.106
0.300,0.282,0.548
0.215,0.188,0.465
-0.068,-0.065,0.220
-0.006,-0.072,0.184
-0.288,-0.286,-0.052
0.116,0.150,0.392
0.101,0.167,0.439
0.144,0.167,0.416
0.381,0.413,0.696
0.414,0.419,0.666
0.697,0.701,1.024
0.323,0.293,0.559
-0.093,-0.128,0.161
0.330,0.305,0.558
-0.215,-0.212,0.077
-0.396,-0.346,-0.078
-0.173,-0.227,0.067
-0.078,-0.069,0.240
0.401,0.392,0.739
0.349,0.327,0.628
-0.052,-0.023,0.259
-0.545,-0.571,-0.248
-0.885,-0.903,-0.608
-0.621,-0.579,-0.325
-0.523,-0.522,-0.267
-0.363,-0.359,-0.038
-0.189,-0.126,0.142
-0.019,0.042,0.277
-0.270,-0.264,0.023
-0.468,-0.453,-0.202
-0.298,-0.318,-0.022
-0.441,-0.444,-0.137
-0.481,-0.452,-0.202
-0.576,-0.462,-0.162
-0.679,-0.632,-0.347
-0.549,-0.511,-0.225
-0.211,-0.157,0.089
0.172,0.176,0.485
0.029,0.009,0.331
0.440,0.461,0.769
0.137,0.115,0.389
-0.209,-0.168,0.076
-0.168,-0.199,0.049
0.093,0.093,0.364
-0.442,-0.469,-0.147
-0.342,-0.387,-0.104
0.222,0.211,0.445
0.137,0.132,0.399
0.099,0.109,0.406
0.243,0.206,0.571
0.193,0.222,0.488
0.188,0.211,0.501
0.106,0.067,0.328
-0.334,-0.379,-0.104
-0.856,-0.850,-0.548
-0.821,-0.845,-0.537
-0.639,-0.653,-0.414
-0.495,-0.523,-0.184
-1.127,-1.155,-0.875
-0.838,-0.806,-0.482
-1.071,-1.030,-0.759
-0.446,-0.400,-0.127
-0.877,-0.935,-0.551
-0.873,-0.846,-0.536
0.317,0.304,0.590
0.511,0.557,0.811
0.628,0.599,0.855
0.606,0.529,0.840
0.571,0.513,0.847
0.948,0.918,1.247
0.776,0.781,1.121
0.487,0.502,0.737
0.454,0.470,0.708
0.056,0.012,0.356
0.312,0.277,0.583
0.249,0.294,0.514
0.438,0.362,0.593
0.130,0.053,0.348
-0.025,-0.014,0.250
0.186,0.183,0.505
0.190,0.099,0.434
0.292,0.333,0.603
0.290,0.265,0.480
-0.202,-0.206,0.138
0.144,0.106,0.437
0.251,0.308,0.582
0.140,0.089,0.405
-0.409,-0.421,-0.154
0.229,0.280,0.541
0.119,0.115,0.382
0.382,0.345,0.601
0.380,0.280,0.642
-0.078,-0.065,0.222
-0.299,-0.258,-0.011
-0.235,-0.220,0.045
0.421,0.317,0.654
0.223,0.181,0.542
0.300,0.243,0.576
0.511,0.422,0.768
0.096,0.003,0.396
0.320,0.236,0.581
0.286,0.309,0.562
0.085,0.105,0.398
-0.341,-0.341,-0.084
0.050,0.032,0.333
0.553,0.512,0.764
0.511,0.436,0.775
1.136,1.115,1.372
0.257,0.327,0.543
0.119,0.155,0.446
0.586,0.519,0.860
0.062,0.061,0.384
-0.050,0.032,0.241
-0.277,-0.245,0.059
0.114,0.076,0.389
0.344,0.310,0.607
0.500,0.440,0.755
0.392,0.397,0.688
0.653,0.670,0.917
0.625,0.643,0.910
0.422,0.451,0.731
0.605,0.614,0.878
0.549,0.475,0.816
0.468,0.524,0.791
0.365,0.352,0.662
0.163,0.226,0.515
0.446,0.407,0.677
0.321,0.259,0.543
0.564,0.598,0.847
-0.025,-0.003,0.265
-0.361,-0.354,-0.072
-0.008,-0.015,0.291
-0.137,-0.078,0.266
-0.350,-0.368,-0.112
0.328,0.245,0.541
0.018,0.001,0.322
0.176,0.132,0.442
-0.115,-0.122,0.146
-0.425,-0.452,-0.104
-0.390,-0.399,-0.189
0.033,0.018,0.377
-0.238,-0.242,0.092
-0.265,-0.311,0.032
-0.366,-0.370,-0.090
0.082,0.077,0.344
0.043,0.069,0.382
0.152,0.179,0.427
0.699,0.663,0.998
0.717,0.726,1.012
0.909,0.880,1.191
0.680,0.607,0.952
0.561,0.483,0.835
0.705,0.695,1.005
0.528,0.490,0.802
0.521,0.519,0.815
0.631,0.637,0.973
1.142,1.162,1.470
0.752,0.719,1.042
0.142,0.167,0.426
-0.134,-0.173,0.145
-0.044,-0.124,0.186
-0.036,-0.057,0.257
0.008,0.013,0.277
-0.370,-0.386,-0.050
-0.541,-0.575,-0.308
-0.531,-0.569,-0.286
-0.267,-0.328,-0.018
-0.149,-0.208,0.148
0.396,0.322,0.612
0.532,0.595,0.820
0.278,0.333,0.599
0.052,0.126,0.374
0.182,0.164,0.512
0.168,0.164,0.478
0.148,0.172,0.459
-0.210,-0.239,0.035
-0.640,-0.662,-0.341
-0.353,-0.325,-0.041
-0.516,-0.496,-0.210
-0.091,-0.133,0.163
-0.194,-0.187,0.114
-0.213,-0.171,0.086
-0.135,-0.147,0.177
-0.237,-0.245,0.081
-0.194,-0.220,0.054
-0.655,-0.713,-0.364
-0.546,-0.498,-0.260
-0.716,-0.726,-0.431
-0.566,-0.554,-0.288
-0.695,-0.698,-0.419
-0.696,-0.682,-0.366
-0.762,-0.756,-0.482
-0.929,-0.945,-0.637
-0.321,-0.271,0.021
-0.329,-0.279,0.026
-0.535,-0.481,-0.260
-0.931,-0.929,-0.698
-0.810,-0.838,-0.534
-0.790,-0.791,-0.429
-1.204,-1.231,-0.925
-1.056,-1.106,-0.783
-0.738,-0.829,-0.503
-0.818,-0.850,-0.538
-0.416,-0.402,-0.156
-0.308,-0.382,-0.044
-0.309,-0.350,-0.031
0.039,-0.036,0.246
-0.146,-0.152,0.131
-0.021,-0.044,0.206
0.075,0.111,0.360
0.404,0.368,0.630
0.082,0.015,0.341
-0.349,-0.393,-0.040
-0.609,-0.599,-0.360
-0.234,-0.255,0.037
-0.278,-0.318,0.053
0.108,0.068,0.396
0.176,0.180,0.476
0.073,0.081,0.403
0.650,0.602,0.902
0.136,0.096,0.403
0.344,0.294,0.595
-0.119,-0.145,0.167
-0.377,-0.397,-0.098
0.248,0.223,0.555
0.410,0.376,0.727
0.721,0.740,1.056
0.459,0.416,0.735
0.585,0.570,0.860
0.563,0.601,0.841
0.475,0.427,0.711
0.223,0.216,0.473
0.337,0.258,0.563
0.435,0.387,0.678
0.662,0.650,0.912
0.189,0.196,0.446
0.295,0.280,0.586
0.007,0.041,0.328
-0.558,-0.624,-0.309
-0.435,-0.371,-0.086
-0.556,-0.532,-0.281
-0.748,-0.761,-0.428
-0.728,-0.726,-0.458
-0.641,-0.666,-0.295
-1.010,-0.977,-0.711
-0.788,-0.802,-0.499
-0.326,-0.379,-0.097
0.319,0.277,0.539
0.262,0.268,0.532
0.510,0.507,0.754
0.001,-0.056,0.253
0.016,-0.037,0.325
0.278,0.255,0.603
-0.091,-0.022,0.243
-0.211,-0.260,0.068
0.163,0.137,0.383
-0.192,-0.236,0.098
-0.135,-0.140,0.115
-0.654,-0.619,-0.280
-0.438,-0.458,-0.127
0.106,0.126,0.416
0.139,0.213,0.416
-0.471,-0.444,-0.222
-0.287,-0.283,-0.039
-0.628,-0.632,-0.406
-0.284,-0.321,-0.020
-0.442,-0.436,-0.124
-0.378,-0.356,-0.055
-0.208,-0.192,0.091
-0.599,-0.586,-0.283
-0.605,-0.584,-0.277
-0.742,-0.776,-0.480
-0.783,-0.748,-0.532
-1.058,-1.087,-0.796
-0.620,-0.641,-0.348
-0.670,-0.688,-0.383
-0.761,-0.747,-0.472
-0.656,-0.643,-0.331
-0.519,-0.449,-0.207
-0.129,-0.187,0.135
0.188,0.123,0.395
0.352,0.385,0.681
0.154,0.155,0.447
-0.475,-0.410,-0.118
-0.248,-0.298,-0.014
-0.401,-0.333,-0.131
-0.185,-0.226,0.036
-0.592,-0.583,-0.307
-0.504,-0.558,-0.277
-0.358,-0.412,-0.164
0.239,0.273,0.522
0.357,0.321,0.654
0.032,0.055,0.377
-0.119,-0.098,0.210
0.249,0.266,0.492
-0.013,-0.017,0.211
-0.602,-0.501,-0.294
-0.850,-0.814,-0.530
-0.495,-0.478,-0.227
-0.583,-0.521,-0.245
-0.711,-0.624,-0.467
-0.632,-0.673,-0.368
-0.681,-0.684,-0.382
-0.942,-0.962,-0.654
-1.064,-1.105,-0.863
-0.836,-0.831,-0.543
-0.707,-0.689,-0.426
-0.906,-0.900,-0.666
-0.855,-0.835,-0.517
-0.665,-0.632,-0.374
-0.690,-0.710,-0.398
-1.044,-0.982,-0.689
-0.682,-0.660,-0.387
-0.665,-0.578,-0.346
-0.871,-0.877,-0.577
-0.904,-0.900,-0.608
-0.676,-0.705,-0.382
-0.596,-0.661,-0.308
-0.595,-0.622,-0.277
-0.683,-0.599,-0.315
-0.780,-0.833,-0.528
-0.675,-0.698,-0.503
-0.970,-0.944,-0.748
-0.601,-0.582,-0.303
-0.650,-0.636,-0.390
-0.330,-0.381,-0.083
-0.580,-0.562,-0.312
-0.607,-0.590,-0.336
-0.984,-0.931,-0.638
-1.355,-1.277,-0.960
-1.010,-1.018,-0.686
-1.264,-1.250,-0.978
-1.259,-1.271,-0.952
-1.278,-1.336,-1.035
-1.306,-1.305,-1.028
-0.954,-0.991,-0.682
-0.674,-0.638,-0.408
-0.669,-0.643,-0.382
-0.679,-0.718,-0.450
-0.338,-0.331,-0.071
-1.032,-1.071,-0.768
-0.865,-0.872,-0.551
-1.167,-1.087,-0.802
-1.214,-1.227,-0.900
-1.053,-1.106,-0.778
-0.683,-0.657,-0.378
-0.487,-0.432,-0.201
-0.777,-0.760,-0.477
-0.574,-0.541,-0.285
-0.342,-0.370,-0.054
-0.600,-0.614,-0.307
-0.379,-0.357,-0.086
-0.145,-0.111,0.149
-0.166,-0.215,0.105
0.142,0.157,0.426
-0.086,-0.123,0.118
0.496,0.504,0.738
0.584,0.562,0.834
0.834,0.802,1.027
0.276,0.242,0.510
0.036,0.116,0.325
0.022,0.105,0.315
-0.235,-0.215,0.036
-0.407,-0.364,-0.109
-0.816,-0.793,-0.535
-0.236,-0.208,0.081
-0.115,-0.092,0.141
0.102,0.143,0.417
0.172,0.229,0.453
-0.187,-0.149,0.118
-0.248,-0.293,-0.047
-0.149,-0.168,0.068
-0.681,-0.617,-0.453
-0.942,-0.920,-0.649
-0.154,-0.168,0.166
-0.546,-0.541,-0.288
-0.318,-0.339,-0.075
-0.424,-0.478,-0.116
-0.551,-0.588,-0.271
-0.746,-0.759,-0.488
-0.790,-0.818,-0.483
-0.711,-0.736,-0.468
-0.716,-0.741,-0.444
-0.966,-1.005,-0.678
-0.880,-0.839,-0.585
-0.815,-0.894,-0.570
-0.289,-0.325,-0.078
-0.791,-0.813,-0.470
-0.492,-0.468,-0.245
-0.882,-0.940,-0.569
-0.568,-0.501,-0.283
-0.394,-0.379,-0.116
-0.652,-0.601,-0.355
-0.688,-0.654,-0.374
-1.096,-1.142,-0.829
-1.406,-1.399,-1.050
-1.360,-1.380,-1.115
-1.467,-1.476,-1.179
-1.368,-1.289,-1.036
-1.251,-1.233,-0.987
-0.886,-0.932,-0.660
-0.906,-0.942,-0.646
-0.775,-0.755,-0.495
-1.196,-1.168,-0.886
-1.000,-1.020,-0.733
-0.330,-0.338,-0.079
-0.420,-0.408,-0.139
-0.357,-0.356,-0.083
-0.590,-0.568,-0.297
-0.424,-0.326,-0.110
-0.352,-0.313,-0.018
-0.531,-0.548,-0.285
0.124,0.160,0.455
0.520,0.505,0.777
0.445,0.468,0.718
0.448,0.475,0.770
0.111,0.106,0.413
0.188,0.157,0.462
-0.623,-0.635,-0.387
-0.810,-0.779,-0.500
-0.908,-0.894,-0.615
-0.641,-0.714,-0.427
-0.644,-0.674,-0.378
-0.332,-0.307,-0.105
-0.752,-0.774,-0.493
-0.604,-0.588,-0.376
-0.533,-0.562,-0.310
0.200,0.233,0.507
0.037,-0.000,0.242
-0.118,-0.138,0.093
-0.086,-0.027,0.195
0.249,0.324,0.530
0.121,0.096,0.367
-0.067,-0.035,0.210
0.265,0.257,0.574
0.373,0.357,0.637
0.125,0.164,0.437
0.228,0.287,0.542
0.337,0.359,0.613
0.158,0.211,0.427
0.618,0.604,0.922
0.229,0.192,0.492
0.286,0.276,0.588
0.209,0.160,0.472
-0.132,-0.149,0.221
0.140,0.155,0.415
0.372,0.377,0.652
0.284,0.271,0.556
-0.141,-0.099,0.155
-0.426,-0.430,-0.183
0.429,0.411,0.699
0.527,0.532,0.804
0.507,0.556,0.781
-0.015,-0.029,0.290
0.118,0.087,0.383
0.197,0.211,0.429
-0.069,0.024,0.233
0.057,0.040,0.265
-0.261,-0.276,0.018
0.001,-0.031,0.319
-0.119,-0.082,0.136
0.093,0.194,0.416
0.729,0.778,1.036
0.766,0.818,1.070
0.734,0.739,0.998
1.384,1.408,1.662
1.258,1.273,1.564
0.916,0.984,1.178
0.647,0.652,0.922
0.376,0.306,0.618
0.223,0.223,0.505
0.338,0.352,0.611
-0.171,-0.228,0.053
-0.260,-0.294,0.021
-0.267,-0.293,0.020
-0.059,-0.095,0.213
-0.106,-0.101,0.158
0.239,0.220,0.476
-0.182,-0.189,0.042
-0.173,-0.176,0.135
0.204,0.205,0.553
0.528,0.485,0.786
0.357,0.395,0.637
0.806,0.777,1.056
0.831,0.793,1.103
0.872,0.873,1.121
0.292,0.315,0.642
-0.303,-0.314,0.000
-0.305,-0.312,-0.082
-0.655,-0.654,-0.415
-0.464,-0.480,-0.206
-0.366,-0.376,-0.096
-0.110,-0.137,0.167
-0.428,-0.408,-0.183
-0.625,-0.675,-0.373
-0.334,-0.405,-0.119
-0.131,-0.142,0.173
-0.391,-0.369,-0.051
-0.025,-0.095,0.203
-0.229,-0.189,0.136
-0.589,-0.616,-0.302
-0.883,-0.909,-0.591
-0.778,-0.748,-0.467
-0.979,-0.996,-0.678
-1.345,-1.311,-1.070
-1.090,-1.145,-0.898
-0.877,-0.913,-0.642
-0.895,-0.940,-0.635
-0.687,-0.658,-0.385
-1.108,-1.117,-0.894
-0.999,-0.911,-0.645
-0.701,-0.711,-0.420
-0.409,-0.404,-0.074
-0.632,-0.664,-0.358
-0.556,-0.532,-0.212
-0.498,-0.486,-0.182
-0.792,-0.794,-0.516
-0.528,-0.551,-0.220
-0.696,-0.773,-0.413
-0.675,-0.704,-0.440
-0.794,-0.886,-0.572
-0.449,-0.518,-0.170
-0.116,-0.170,0.149
-0.019,0.039,0.232
0.064,0.064,0.365
-0.020,-0.030,0.249
-0.346,-0.292,-0.014
0.093,0.097,0.354
0.186,0.242,0.441
0.198,0.212,0.504
0.279,0.265,0.582
0.196,0.149,0.477
-0.016,-0.071,0.249
0.529,0.513,0.835
0.224,0.190,0.511
-0.334,-0.323,-0.044
-0.115,-0.118,0.184
-0.413,-0.470,-0.204
0.060,0.056,0.334
0.052,0.054,0.386
-0.067,-0.083,0.171
0.557,0.512,0.839
0.849,0.849,1.116
0.886,0.918,1.172
1.181,1.127,1.431
0.854,0.921,1.133
0.809,0.765,1.069
0.117,0.123,0.353
-0.678,-0.738,-0.410
-0.501,-0.502,-0.183
-0.539,-0.576,-0.288
-0.861,-0.850,-0.560
-0.431,-0.448,-0.140
-0.220,-0.245,0.068
-0.032,-0.069,0.223
-0.359,-0.333,-0.050
0.212,0.184,0.480
-0.131,-0.090,0.201
-0.063,-0.047,0.254
-0.442,-0.441,-0.155
-0.011,-0.038,0.274
0.126,0.059,0.394
0.180,0.201,0.512
0.579,0.571,0.866
0.659,0.646,0.960
0.425,0.434,0.717
0.633,0.616,0.912
0.808,0.741,1.001
0.695,0.648,0.943
0.807,0.791,1.041
0.706,0.724,0.990
0.527,0.531,0.772
0.602,0.618,0.895
0.848,0.857,1.182
0.799,0.811,1.043
0.772,0.747,1.042
0.894,0.848,1.140
0.871,0.839,1.140
1.076,1.099,1.328
1.016,1.017,1.293
0.853,0.887,1.158
0.419,0.453,0.700
0.592,0.618,0.861
0.302,0.332,0.607
0.718,0.692,0.978
0.484,0.457,0.784
0.159,0.241,0.492
-0.023,-0.035,0.241
-0.282,-0.334,-0.035
-0.466,-0.374,-0.229
-0.581,-0.588,-0.278
-0.913,-0.899,-0.674
-1.023,-0.903,-0.666
-1.618,-1.641,-1.303
-1.341,-1.364,-1.049
-1.362,-1.399,-1.080
-0.883,-0.870,-0.624
-1.069,-1.093,-0.774
-0.919,-0.993,-0.639
-0.796,-0.875,-0.517
-0.888,-0.886,-0.605
-0.694,-0.706,-0.438
-0.567,-0.543,-0.249
-0.746,-0.756,-0.491
-0.491,-0.563,-0.238
-0.499,-0.540,-0.336
-0.472,-0.494,-0.228
-0.616,-0.671,-0.358
-0.291,-0.307,-0.025
-0.035,-0.026,0.248
0.183,0.225,0.523
0.507,0.452,0.800
0.058,0.035,0.317
-0.775,-0.703,-0.446
0.140,0.106,0.358
0.514,0.491,0.806
0.306,0.296,0.557
0.475,0.427,0.764
0.306,0.313,0.612
0.078,0.065,0.330
0.104,0.119,0.405
0.456,0.467,0.763
1.292,1.295,1.597
1.202,1.279,1.546
0.922,0.939,1.197
0.779,0.816,1.144
0.453,0.480,0.727
0.229,0.217,0.502
0.178,0.150,0.420
0.089,0.100,0.386
0.318,0.272,0.618
0.045,0.021,0.399
0.117,0.135,0.378
0.294,0.308,0.623
0.276,0.266,0.573
0.332,0.303,0.642
0.605,0.568,0.886
0.634,0.604,0.973
0.891,0.929,1.163
0.610,0.604,0.849
0.437,0.442,0.681
0.078,0.087,0.353
0.391,0.406,0.713
0.654,0.634,0.933
0.442,0.466,0.725
0.993,0.966,1.242
1.173,1.122,1.414
0.907,0.855,1.199
0.862,0.899,1.179
0.902,0.938,1.180
1.072,1.076,1.366
0.512,0.555,0.812
0.390,0.406,0.693
0.139,0.131,0.467
-0.036,-0.025,0.247
-0.022,0.052,0.264
-0.385,-0.333,-0.066
-0.331,-0.369,-0.033
-0.776,-0.738,-0.496
-1.232,-1.204,-0.904
-1.234,-1.278,-0.882
-1.004,-1.051,-0.728
-0.796,-0.770,-0.501
-0.050,-0.063,0.218
-0.423,-0.456,-0.146
0.092,0.175,0.377
0.012,-0.110,0.209
0.548,0.548,0.780
0.965,1.003,1.253
0.916,0.939,1.149
0.827,0.751,0.966
1.089,1.033,1.364
1.509,1.477,1.773
1.811,1.736,2.071
1.124,1.095,1.477
0.984,0.903,1.246
1.332,1.280,1.619
0.918,0.886,1.142
0.665,0.669,0.932
0.836,0.804,1.095
0.817,0.803,1.096
0.465,0.462,0.747
-0.409,-0.359,-0.122
-0.245,-0.247,0.022
-0.177,-0.198,0.074
-0.082,-0.105,0.190
-0.255,-0.240,0.036
-0.195,-0.236,0.054
-0.240,-0.226,0.049
-0.433,-0.464,-0.154
-0.476,-0.452,-0.202
-0.425,-0.429,-0.158
-0.609,-0.644,-0.343
-0.562,-0.610,-0.221
0.149,0.119,0.424
0.378,0.319,0.593
0.674,0.602,0.909
0.273,0.279,0.486
0.058,0.129,0.419
0.462,0.426,0.702
0.478,0.467,0.792
-0.185,-0.169,0.064
-0.203,-0.149,0.149
-0.861,-0.860,-0.591
-1.074,-1.150,-0.834
-1.309,-1.380,-1.088
-1.132,-1.157,-0.857
-0.900,-0.989,-0.604
-1.429,-1.432,-1.138
-1.283,-1.290,-0.989
-1.483,-1.415,-1.222
-1.488,-1.511,-1.284
-1.161,-1.139,-0.871
-1.099,-1.036,-0.834
-0.756,-0.781,-0.527
-0.997,-1.048,-0.789
-0.398,-0.430,-0.107
-0.517,-0.491,-0.242
-0.518,-0.490,-0.195
-0.752,-0.722,-0.464
-0.158,-0.119,0.098
-0.563,-0.531,-0.270
-0.406,-0.388,-0.100
-0.340,-0.347,-0.061
0.003,0.065,0.322
0.210,0.195,0.492
0.319,0.363,0.677
-0.132,-0.096,0.193
-0.053,-0.055,0.181
-0.140,-0.169,0.119
-0.173,-0.116,0.160
-0.318,-0.335,-0.029
-0.387,-0.414,-0.100
-0.422,-0.406,-0.106
-0.593,-0.619,-0.367
-0.168,-0.157,0.098
-0.288,-0.235,-0.025
-0.368,-0.333,-0.082
-0.282,-0.293,0.021
-0.325,-0.367,-0.018
-0.220,-0.318,-0.009
-0.095,-0.050,0.202
-0.226,-0.229,0.026
-0.252,-0.258,0.044
-0.343,-0.262,-0.012
-0.542,-0.524,-0.240
-0.402,-0.387,-0.074
-0.472,-0.482,-0.174
-0.312,-0.286,-0.046
-0.492,-0.553,-0.277
-0.644,-0.598,-0.307
-0.766,-0.860,-0.484
-0.998,-1.023,-0.746
-0.250,-0.255,-0.017
0.057,0.119,0.287
0.425,0.463,0.667
0.105,0.085,0.407
0.276,0.264,0.549
0.093,0.101,0.440
0.240,0.306,0.576
0.105,0.113,0.374
0.192,0.177,0.490
-0.035,-0.068,0.287
0.009,-0.034,0.292
-0.096,-0.111,0.230
0.200,0.165,0.529
0.495,0.504,0.768
0.291,0.292,0.576
0.819,0.829,1.101
0.813,0.832,1.108
0.298,0.250,0.556
0.004,-0.070,0.282
-0.227,-0.261,0.055
-0.609,-0.599,-0.339
-0.762,-0.816,-0.534
-0.675,-0.674,-0.356
-0.315,-0.315,-0.066
-0.042,-0.014,0.204
-0.078,-0.030,0.216
-0.043,-0.057,0.171
-0.070,-0.154,0.215
-0.227,-0.255,0.068
-0.229,-0.235,0.037
-0.299,-0.292,-0.031
0.093,0.102,0.454
0.198,0.270,0.505
-0.019,-0.006,0.256
-0.370,-0.375,-0.028
-0.290,-0.300,0.009
-0.214,-0.227,0.110
-0.206,-0.206,0.017
-0.329,-0.373,-0.066
-0.418,-0.431,-0.152
-0.502,-0.497,-0.172
-0.853,-0.804,-0.503
-0.551,-0.573,-0.344
-0.670,-0.682,-0.418
-0.088,-0.108,0.188
0.099,-0.008,0.327
-0.068,-0.052,0.243
0.165,0.162,0.481
0.595,0.592,0.901
0.575,0.598,0.855
0.665,0.729,0.981
0.931,0.869,1.214
0.685,0.617,0.923
0.688,0.766,0.994
0.404,0.403,0.683
-0.141,-0.135,0.143
-0.244,-0.179,0.084
-0.089,-0.022,0.216
0.007,0.017,0.269
0.432,0.366,0.718
0.307,0.226,0.559
-0.244,-0.383,-0.018
-0.549,-0.503,-0.225
0.053,0.014,0.273
-0.540,-0.546,-0.246
-0.172,-0.150,0.141
-0.399,-0.454,-0.154
-0.675,-0.646,-0.407
-0.269,-0.371,-0.027
-0.575,-0.570,-0.272
-0.616,-0.630,-0.340
-0.172,-0.127,0.162
-0.304,-0.297,0.008
-0.138,-0.140,0.144
-0.996,-0.978,-0.632
-0.532,-0.501,-0.183
-0.495,-0.504,-0.196
-0.512,-0.484,-0.142
0.020,-0.045,0.260
-0.352,-0.348,-0.047
-0.469,-0.460,-0.168
-0.412,-0.474,-0.135
-0.603,-0.578,-0.295
-0.187,-0.131,0.099
0.562,0.557,0.878
0.544,0.526,0.783
0.750,0.720,1.017
0.812,0.831,1.073
0.438,0.449,0.698
0.347,0.312,0.609
-0.022,-0.010,0.328
0.091,0.067,0.375
0.352,0.292,0.615
0.422,0.323,0.612
0.748,0.769,1.008
1.128,1.147,1.427
0.760,0.796,1.022
0.770,0.790,1.020
0.966,0.972,1.261
0.774,0.791,1.048
0.520,0.502,0.807
0.229,0.230,0.556
0.076,0.023,0.356
0.319,0.325,0.597
0.770,0.802,1.038
0.695,0.679,1.059
0.770,0.694,1.024
0.852,0.875,1.102
0.415,0.404,0.696
0.930,0.885,1.135
1.005,0.921,1.255
1.062,1.119,1.387
1.009,1.066,1.313
0.767,0.745,1.083
1.042,1.004,1.350
0.913,0.865,1.125
0.550,0.483,0.837
0.176,0.195,0.487
0.005,0.040,0.305
0.367,0.346,0.597
-0.021,-0.038,0.251
0.273,0.206,0.518
0.003,-0.097,0.255
-0.547,-0.517,-0.282
-0.343,-0.363,-0.061
-0.112,-0.195,0.103
-0.514,-0.533,-0.259
-0.462,-0.459,-0.189
-0.594,-0.628,-0.360
-0.377,-0.427,-0.115
-0.012,-0.043,0.262
-0.025,-0.032,0.305
0.135,0.052,0.401
-0.076,-0.071,0.260
0.046,-0.007,0.298
-0.186,-0.281,0.041
0.229,0.149,0.434
0.094,0.074,0.335
0.306,0.289,0.586
0.626,0.618,0.885
-0.066,-0.036,0.228
-0.521,-0.552,-0.238
-0.268,-0.364,-0.036
-0.494,-0.531,-0.246
-0.123,-0.084,0.161
-0.228,-0.279,0.036
-0.581,-0.593,-0.304
-0.538,-0.512,-0.219
-1.009,-1.024,-0.675
-1.027,-1.039,-0.759
-0.612,-0.594,-0.335
-0.273,-0.285,-0.027
-0.250,-0.233,0.071
-0.075,-0.129,0.219
-0.231,-0.270,0.044
-0.492,-0.489,-0.212
-0.900,-0.907,-0.561
-0.762,-0.773,-0.478
-0.429,-0.380,-0.127
-0.293,-0.321,-0.028
-0.260,-0.301,0.032
0.297,0.293,0.580
-0.047,-0.090,0.246
0.111,0.049,0.385
-0.067,-0.052,0.264
-0.079,-0.087,0.212
-0.209,-0.181,0.075
-0.079,-0.139,0.211
-0.590,-0.650,-0.294
-0.578,-0.632,-0.304
-0.133,-0.101,0.108
-0.114,-0.154,0.125
-0.194,-0.195,0.050
0.126,0.185,0.422
0.315,0.326,0.581
0.487,0.436,0.732
0.114,0.078,0.402
-0.096,-0.099,0.193
-0.161,-0.136,0.080
-0.301,-0.382,-0.068
-0.264,-0.281,-0.018
-0.187,-0.191,0.095
0.079,0.091,0.408
-0.074,-0.083,0.159
0.043,0.026,0.302
-0.150,-0.119,0.190
0.040,0.020,0.325
-0.026,0.023,0.223
0.463,0.501,0.792
0.817,0.840,1.077
0.560,0.619,0.884
0.598,0.602,0.838
0.436,0.413,0.661
0.516,0.540,0.833
0.332,0.333,0.586
0.443,0.474,0.770
0.377,0.421,0.721
0.571,0.628,0.834
0.651,0.687,0.968
0.767,0.823,1.070
1.036,0.989,1.302
0.343,0.329,0.628
0.498,0.515,0.798
0.155,0.103,0.419
0.267,0.250,0.518
0.117,0.127,0.379
0.274,0.227,0.547
-0.021,-0.023,0.224
-0.448,-0.384,-0.166
-0.339,-0.290,-0.033
-0.727,-0.757,-0.421
-0.422,-0.372,-0.087
-0.035,0.001,0.229
0.056,-0.013,0.262
-0.115,0.003,0.251
0.017,-0.034,0.260
-0.350,-0.340,-0.038
-0.425,-0.403,-0.112
-0.274,-0.255,0.037
-0.414,-0.344,-0.088
-0.535,-0.537,-0.219
-0.297,-0.297,0.035
-0.574,-0.589,-0.345
-0.881,-1.005,-0.643
-0.908,-0.914,-0.637
-1.367,-1.361,-1.075
-1.723,-1.644,-1.381
-1.489,-1.446,-1.147
-1.147,-1.064,-0.820
-0.718,-0.699,-0.398
-0.924,-0.919,-0.626
-0.801,-0.816,-0.588
-1.017,-0.984,-0.718
-0.999,-0.950,-0.695
-1.116,-1.148,-0.863
-0.507,-0.538,-0.256
-0.317,-0.258,-0.035
-0.222,-0.212,0.118
-0.251,-0.210,0.080
-0.745,-0.685,-0.439
-0.791,-0.812,-0.566
-0.845,-0.835,-0.504
-0.564,-0.546,-0.294
-0.586,-0.526,-0.296
-0.445,-0.441,-0.201
-0.487,-0.551,-0.200
-0.487,-0.493,-0.205
-0.425,-0.299,-0.123
-0.813,-0.748,-0.517
-0.467,-0.457,-0.185
-0.473,-0.490,-0.119
-0.378,-0.333,-0.097
-0.477,-0.508,-0.185
-0.608,-0.578,-0.337
-0.286,-0.236,0.018
-0.026,0.030,0.264
0.288,0.257,0.539
0.294,0.283,0.575
0.277,0.338,0.577
0.428,0.378,0.760
0.787,0.767,1.126
0.391,0.415,0.720
0.637,0.585,0.954
0.730,0.733,0.999
0.754,0.747,0.976
0.471,0.495,0.834
0.872,0.880,1.191
0.158,0.194,0.456
0.208,0.316,0.522
0.288,0.325,0.581
0.526,0.556,0.834
0.489,0.567,0.808
0.610,0.645,0.896
0.681,0.700,1.035
1.102,1.153,1.409
0.704,0.681,0.963
0.199,0.275,0.570
0.496,0.458,0.734
-0.135,-0.136,0.157
0.276,0.332,0.568
0.283,0.241,0.523
0.207,0.282,0.497
-0.082,-0.063,0.227
-0.029,0.030,0.268
0.294,0.304,0.578
0.006,0.067,0.354
-0.314,-0.312,-0.021
-0.418,-0.367,-0.136
-0.150,-0.091,0.189
-0.389,-0.420,-0.128
-0.289,-0.327,-0.030
-0.159,-0.189,0.037
-0.393,-0.270,-0.081
0.154,0.118,0.396
0.265,0.271,0.523
-0.473,-0.551,-0.208
-0.568,-0.535,-0.249
-0.656,-0.609,-0.353
-0.507,-0.439,-0.192
-0.828,-0.911,-0.572
-0.896,-0.840,-0.565
-0.640,-0.642,-0.324
-0.497,-0.444,-0.288
-0.418,-0.500,-0.205
-0.583,-0.615,-0.329
-0.650,-0.617,-0.345
-0.543,-0.569,-0.258
0.011,-0.056,0.254
0.161,0.080,0.400
-0.088,-0.041,0.257
-0.690,-0.728,-0.383
-0.777,-0.716,-0.423
-0.560,-0.518,-0.240
-0.237,-0.195,0.046
-0.026,0.039,0.220
-0.335,-0.308,-0.047
-0.056,-0.012,0.234
-0.163,-0.168,0.129
-0.070,-0.038,0.233
-0.238,-0.209,0.050
-0.464,-0.523,-0.233
-0.555,-0.541,-0.231
-0.199,-0.200,0.091
0.233,0.203,0.487
0.175,0.107,0.403
-0.112,-0.129,0.126
-0.049,-0.039,0.216
-0.383,-0.404,-0.140
0.036,-0.016,0.288
-0.239,-0.357,0.016
-0.336,-0.302,-0.058
-0.459,-0.407,-0.151
-0.986,-0.954,-0.755
-1.663,-1.583,-1.324
-1.529,-1.548,-1.214
-1.712,-1.747,-1.503
-1.563,-1.611,-1.298
-1.458,-1.439,-1.214
-1.000,-0.961,-0.662
-1.193,-1.160,-0.916
-0.838,-0.915,-0.612
-1.122,-1.116,-0.807
-0.981,-0.948,-0.660
-0.811,-0.730,-0.455
-0.367,-0.343,-0.063
0.235,0.256,0.563
0.209,0.240,0.515
0.138,0.232,0.452
-0.097,-0.003,0.235
0.131,0.160,0.412
0.431,0.395,0.727
0.553,0.541,0.843
0.593,0.518,0.791
-0.223,-0.199,0.061
0.060,0.003,0.291
-0.118,-0.150,0.179
-0.312,-0.317,-0.036
-0.675,-0.593,-0.402
-0.524,-0.467,-0.182
-0.404,-0.376,-0.116
-0.389,-0.399,-0.139
-0.329,-0.376,-0.098
-0.313,-0.253,-0.007
-0.835,-0.820,-0.539
-0.848,-0.787,-0.561
-0.691,-0.685,-0.421
-0.197,-0.150,0.197
-0.048,0.012,0.265
-0.035,-0.051,0.199
-0.532,-0.524,-0.273
-0.539,-0.499,-0.210
-0.586,-0.598,-0.340
-0.996,-1.032,-0.672
-1.055,-1.074,-0.797
-1.385,-1.371,-1.074
-1.691,-1.673,-1.431
-1.975,-2.007,-1.735
-1.351,-1.310,-1.058
-1.763,-1.735,-1.546
-1.679,-1.635,-1.364
-1.409,-1.425,-1.150
-1.189,-1.173,-0.893
-1.027,-1.004,-0.689
-0.847,-0.847,-0.495
-0.280,-0.274,0.037
-0.538,-0.452,-0.170
-0.362,-0.419,-0.095
-0.459,-0.421,-0.197
-0.376,-0.376,-0.123
-0.182,-0.201,0.111
-0.777,-0.725,-0.482
-0.306,-0.309,-0.076
-0.178,-0.208,0.031
0.227,0.232,0.535
0.315,0.325,0.634
0.331,0.302,0.583
0.845,0.903,1.140
0.408,0.422,0.694
-0.018,0.005,0.282
-0.031,0.028,0.294
-0.512,-0.431,-0.259
-0.538,-0.539,-0.299
-0.361,-0.363,-0.093
-0.661,-0.630,-0.349
-0.593,-0.585,-0.382
-0.706,-0.650,-0.420
-0.670,-0.666,-0.382
-1.100,-1.195,-0.890
-0.627,-0.616,-0.380
-0.613,-0.619,-0.366
-1.162,-1.119,-0.889
-0.780,-0.823,-0.522
-0.731,-0.743,-0.469
-0.454,-0.472,-0.187
-0.302,-0.313,0.003
-0.128,-0.143,0.164
-0.470,-0.394,-0.121
-0.820,-0.887,-0.604
-1.127,-1.114,-0.833
-1.001,-1.013,-0.764
-1.178,-1.236,-0.956
-1.107,-1.100,-0.788
-1.258,-1.265,-1.016
-0.730,-0.754,-0.490
-1.284,-1.259,-1.018
-1.015,-1.034,-0.786
-0.552,-0.587,-0.312
-0.643,-0.688,-0.399
-0.982,-0.868,-0.644
-0.850,-0.812,-0.579
-0.840,-0.832,-0.522
-0.765,-0.863,-0.522
-0.287,-0.324,-0.012
0.014,0.040,0.314
0.437,0.414,0.699
0.650,0.660,0.913
0.749,0.738,0.968
1.375,1.366,1.680
1.151,1.190,1.500
0.907,0.937,1.232
0.747,0.758,1.018
0.660,0.580,0.929
0.165,0.166,0.437
0.001,-0.076,0.203
0.258,0.239,0.508
0.149,0.168,0.364
0.451,0.422,0.712
0.472,0.500,0.817
0.218,0.228,0.472
0.547,0.523,0.812
0.704,0.731,1.019
0.794,0.707,1.007
0.847,0.841,1.118
0.325,0.356,0.678
0.232,0.207,0.527
0.125,0.088,0.390
-0.119,-0.124,0.219
-0.126,-0.139,0.126
0.018,0.049,0.286
-0.610,-0.615,-0.377
-0.619,-0.649,-0.349
-1.122,-1.112,-0.864
-0.747,-0.796,-0.434
-1.033,-1.002,-0.759
-0.607,-0.542,-0.257
-0.063,-0.100,0.115
-0.091,-0.105,0.182
-0.167,-0.148,0.137
-0.213,-0.202,0.046
-0.503,-0.502,-0.236
-0.271,-0.304,-0.041
-0.790,-0.831,-0.617
-0.602,-0.682,-0.371
-0.597,-0.610,-0.315
-0.620,-0.604,-0.313
-0.179,-0.141,0.127
0.082,0.063,0.381
-0.060,-0.012,0.215
0.118,0.068,0.372
0.073,0.105,0.427
-0.164,-0.161,0.124
0.453,0.444,0.695
0.777,0.794,1.121
0.897,0.913,1.164
0.861,0.847,1.140
0.060,0.168,0.348
-0.015,0.007,0.244
-0.253,-0.249,0.019
-0.435,-0.434,-0.169
-0.074,-0.028,0.204
-0.002,-0.021,0.253
-0.635,-0.597,-0.356
-0.519,-0.542,-0.283
-0.233,-0.305,-0.053
0.433,0.371,0.654
0.452,0.397,0.683
0.591,0.593,0.912
0.750,0.766,1.059
0.722,0.724,1.021
0.940,0.885,1.201
0.809,0.746,1.029
0.738,0.629,0.980
0.713,0.671,1.001
0.535,0.560,0.919
0.655,0.730,1.031
0.251,0.293,0.563
-0.079,-0.068,0.254
-0.180,-0.128,0.109
-0.114,-0.144,0.086
-0.043,-0.009,0.233
0.088,0.084,0.336
-0.482,-0.502,-0.217
-0.791,-0.728,-0.527
-0.345,-0.343,-0.064
-0.499,-0.483,-0.194
-0.694,-0.713,-0.452
-0.946,-0.956,-0.668
-1.516,-1.541,-1.229
-0.800,-0.781,-0.529
-0.658,-0.657,-0.320
-0.431,-0.453,-0.166
-0.152,-0.107,0.156
0.185,0.233,0.484
-0.117,-0.133,0.124
0.104,0.137,0.409
0.390,0.371,0.663
0.878,0.826,1.071
0.835,0.806,1.112
0.832,0.804,1.073
1.238,1.192,1.463
1.148,1.193,1.460
1.607,1.612,1.885
1.450,1.426,1.753
1.313,1.267,1.623
1.025,1.042,1.319
0.694,0.695,0.926
0.081,0.113,0.405
-0.225,-0.162,0.084
-0.008,0.035,0.273
0.130,0.087,0.373
-0.629,-0.613,-0.292
-0.835,-0.809,-0.521
-1.101,-1.071,-0.831
-1.213,-1.168,-0.899
-0.866,-0.886,-0.569
-0.313,-0.322,-0.060
-0.057,-0.054,0.232
-0.165,-0.144,0.108
0.235,0.219,0.477
0.391,0.389,0.648
0.696,0.684,0.995
0.607,0.617,0.898
0.502,0.538,0.755
0.235,0.211,0.510
-0.093,-0.114,0.224
0.484,0.466,0.740
0.313,0.376,0.654
0.426,0.400,0.728
0.374,0.363,0.651
0.592,0.540,0.887
0.398,0.409,0.650
0.554,0.581,0.803
0.299,0.282,0.622
0.440,0.462,0.688
0.820,0.792,1.058
0.866,0.828,1.113
0.557,0.489,0.808
0.401,0.280,0.624
0.623,0.611,0.847
0.888,0.842,1.154
0.838,0.762,1.145
0.851,0.855,1.136
0.045,0.060,0.347
0.028,0.034,0.358
-0.680,-0.706,-0.391
-0.481,-0.443,-0.170
-0.065,-0.069,0.170
-0.056,-0.098,0.182
-0.135,-0.122,0.156
-0.438,-0.420,-0.135
-0.094,-0.130,0.205
0.320,0.374,0.624
0.184,0.124,0.491
0.186,0.167,0.467
-0.225,-0.185,0.141
-0.186,-0.203,0.108
-0.198,-0.229,0.084
-0.246,-0.161,0.038
-0.515,-0.468,-0.224
-0.254,-0.222,0.011
-0.376,-0.421,-0.057
-0.652,-0.686,-0.364
-0.596,-0.509,-0.259
-0.503,-0.581,-0.276
-0.549,-0.493,-0.210
-0.451,-0.442,-0.150
-0.601,-0.623,-0.317
-0.682,-0.743,-0.452
-0.393,-0.410,-0.108
-0.097,-0.175,0.114
0.048,0.000,0.325
-0.174,-0.190,0.066
0.128,0.151,0.489
0.003,0.040,0.306
-0.015,-0.007,0.262
0.212,0.196,0.445
0.667,0.666,0.911
0.784,0.723,1.038
0.521,0.531,0.873
0.787,0.788,1.055
0.742,0.640,0.911
1.163,1.065,1.371
1.316,1.383,1.642
1.558,1.602,1.880
1.556,1.579,1.893
1.422,1.403,1.698
1.642,1.643,1.897
1.581,1.555,1.819
1.251,1.253,1.536
1.022,1.008,1.342
0.729,0.683,1.053
0.500,0.492,0.763
0.406,0.366,0.663
0.244,0.240,0.553
-0.534,-0.516,-0.217
-0.915,-0.963,-0.673
-0.249,-0.326,0.067
-0.090,-0.099,0.171
-0.431,-0.472,-0.164
-0.054,-0.100,0.263
-0.543,-0.508,-0.238
-0.066,-0.055,0.211
0.339,0.338,0.629
0.587,0.571,0.900
-0.015,0.053,0.344
0.275,0.281,0.577
0.361,0.291,0.606
0.415,0.408,0.672
0.478,0.484,0.769
-0.255,-0.252,0.010
0.022,0.034,0.317
0.056,0.072,0.353
-0.202,-0.190,0.172
-0.046,-0.028,0.270
0.208,0.132,0.463
0.630,0.576,0.904
0.369,0.336,0.721
0.404,0.396,0.642
1.020,1.064,1.307
0.904,0.925,1.196
1.058,1.013,1.308
0.832,0.806,1.081
0.723,0.734,1.029
0.278,0.308,0.610
-0.465,-0.453,-0.142
-0.352,-0.302,-0.015
-0.565,-0.504,-0.234
-0.496,-0.501,-0.213
-0.379,-0.407,-0.147
0.156,0.179,0.497
0.172,0.206,0.497
0.621,0.672,0.903
0.617,0.622,0.910
0.696,0.690,0.972
0.614,0.675,0.970
0.668,0.739,1.008
0.465,0.532,0.834
0.564,0.610,0.857
0.426,0.390,0.702
-0.042,-0.027,0.212
-0.064,-0.004,0.279
-0.137,-0.112,0.127
-0.387,-0.405,-0.104
-0.500,-0.499,-0.244
-0.664,-0.711,-0.356
-0.460,-0.496,-0.201
-0.520,-0.494,-0.177
-0.411,-0.363,-0.083
0.028,0.016,0.300
-0.198,-0.241,0.029
-0.249,-0.286,0.044
-0.622,-0.607,-0.326
-0.742,-0.805,-0.516
-0.627,-0.590,-0.351
-0.381,-0.402,-0.110
-0.404,-0.320,-0.106
-0.273,-0.315,-0.025
-0.185,-0.164,0.116
-0.867,-0.884,-0.596
-0.575,-0.631,-0.267
-0.267,-0.294,0.017
0.066,0.069,0.335
0.351,0.341,0.579
0.070,0.065,0.313
-0.369,-0.367,-0.123
-0.344,-0.326,-0.035
-0.157,-0.140,0.133
-0.150,-0.161,0.164
0.129,0.125,0.426
0.207,0.188,0.457
0.022,-0.018,0.256
0.080,0.124,0.369
0.433,0.405,0.721
0.575,0.557,0.866
0.926,0.897,1.198
0.906,0.941,1.198
0.575,0.552,0.844
0.567,0.574,0.843
0.701,0.629,0.960
0.645,0.611,0.890
0.392,0.392,0.631
0.435,0.348,0.711
0.402,0.441,0.712
0.060,0.010,0.300
0.194,0.199,0.495
0.273,0.204,0.563
0.033,0.036,0.330
0.051,0.104,0.353
-0.212,-0.225,0.091
-0.470,-0.496,-0.194
-0.805,-0.793,-0.514
-0.669,-0.706,-0.408
-0.123,-0.200,0.122
0.198,0.198,0.450
0.236,0.170,0.474
0.255,0.227,0.535
-0.223,-0.205,0.058
-0.505,-0.409,-0.184
-0.201,-0.219,0.039
-0.281,-0.332,-0.022
-0.196,-0.236,0.019
-0.351,-0.289,-0.034
-0.109,-0.110,0.212
0.060,0.108,0.353
0.301,0.287,0.616
0.198,0.267,0.486
0.496,0.568,0.825
0.626,0.605,0.901
0.106,0.112,0.401
0.278,0.241,0.486
0.414,0.484,0.709
0.858,0.902,1.114
1.285,1.367,1.594
1.331,1.330,1.623
0.841,0.897,1.174
0.582,0.564,0.867
0.014,0.061,0.329
-0.458,-0.385,-0.118
-0.621,-0.573,-0.313
-0.664,-0.683,-0.338
-0.832,-0.809,-0.547
-0.157,-0.060,0.162
-0.186,-0.181,0.026
-0.431,-0.428,-0.135
-0.714,-0.659,-0.454
-0.552,-0.561,-0.287
-0.745,-0.692,-0.407
-1.199,-1.197,-0.950
-0.579,-0.589,-0.357
-0.991,-0.968,-0.714
-0.761,-0.739,-0.511
-0.497,-0.482,-0.234
-0.673,-0.734,-0.397
-0.496,-0.446,-0.176
-0.725,-0.727,-0.481
-0.972,-0.952,-0.672
-1.277,-1.304,-0.972
-1.272,-1.336,-1.008
-1.320,-1.314,-1.040
-1.616,-1.605,-1.326
-1.245,-1.216,-0.944
-0.872,-0.816,-0.558
-0.440,-0.401,-0.213
-0.114,-0.092,0.178
-0.213,-0.170,0.084
-0.238,-0.202,0.095
-0.449,-0.429,-0.188
-0.264,-0.189,0.030
-0.551,-0.454,-0.235
-0.971,-0.970,-0.707
-1.117,-1.103,-0.828
-1.105,-1.045,-0.848
-0.629,-0.643,-0.384
-0.497,-0.488,-0.212
-0.475,-0.446,-0.142
-0.617,-0.588,-0.258
-0.759,-0.763,-0.491
-0.859,-0.837,-0.602
-0.752,-0.736,-0.478
-1.136,-1.068,-0.849
-1.328,-1.361,-1.077
-1.278,-1.277,-0.978
-1.072,-1.091,-0.811
-1.143,-1.076,-0.793
-1.609,-1.515,-1.253
-1.037,-1.043,-0.735
-0.964,-0.983,-0.692
-0.965,-0.963,-0.695
-0.514,-0.494,-0.255
-0.832,-0.872,-0.526
-1.009,-0.972,-0.642
-0.943,-0.970,-0.695
-0.931,-0.929,-0.622
-0.935,-1.004,-0.657
-1.161,-1.151,-0.853
-1.039,-0.984,-0.734
-1.029,-1.079,-0.758
-0.935,-0.947,-0.652
-0.725,-0.686,-0.480
-0.317,-0.312,-0.018
-0.362,-0.402,-0.104
-0.745,-0.728,-0.422
-0.805,-0.793,-0.481
-0.860,-0.895,-0.529
-0.594,-0.658,-0.402
-0.447,-0.471,-0.210
-0.439,-0.428,-0.159
-0.308,-0.294,0.020
-0.354,-0.426,-0.045
-0.416,-0.487,-0.249
-0.084,-0.138,0.166
-0.630,-0.677,-0.403
-0.301,-0.348,0.025
-0.644,-0.701,-0.346
-1.173,-1.149,-0.845
-0.811,-0.800,-0.477
-1.033,-0.995,-0.752
-1.196,-1.272,-0.939
-1.153,-1.177,-0.916
-1.151,-1.177,-0.858
-1.293,-1.368,-1.042
-1.222,-1.165,-0.908
-1.635,-1.591,-1.355
-1.801,-1.770,-1.466
-1.427,-1.488,-1.193
-1.132,-1.180,-0.804
-1.190,-1.236,-0.941
-1.208,-1.260,-1.018
-1.670,-1.640,-1.353
-1.387,-1.411,-1.091
-1.328,-1.353,-1.080
-0.887,-0.926,-0.615
-0.433,-0.484,-0.217
-0.066,-0.155,0.202
0.220,0.214,0.434
-0.247,-0.255,-0.004
-0.217,-0.241,0.015
-0.180,-0.243,0.061
-0.441,-0.493,-0.123
-0.192,-0.198,0.039
-0.184,-0.141,0.112
-0.215,-0.233,0.015
-0.332,-0.321,-0.058
-0.358,-0.374,-0.115
-0.302,-0.315,-0.013
-0.678,-0.685,-0.395
-0.673,-0.658,-0.337
-0.527,-0.582,-0.241
-0.486,-0.475,-0.207
-0.229,-0.249,0.041
-0.200,-0.129,0.205
-0.534,-0.574,-0.238
-0.536,-0.614,-0.220
-0.719,-0.696,-0.379
-0.517,-0.474,-0.219
-0.699,-0.731,-0.387
-0.224,-0.290,0.027
-0.020,0.030,0.234
-0.288,-0.303,0.059
-0.545,-0.568,-0.221
-0.501,-0.534,-0.159
-0.447,-0.511,-0.256
-0.758,-0.719,-0.462
-0.701,-0.675,-0.454
-1.018,-1.046,-0.759
-1.189,-1.244,-0.925
-0.553,-0.579,-0.319
-0.720,-0.750,-0.438
-0.256,-0.321,-0.025
-0.738,-0.701,-0.415
-0.322,-0.316,-0.068
0.187,0.164,0.434
0.147,0.159,0.389
0.186,0.118,0.439
-0.222,-0.218,0.060
-0.506,-0.493,-0.194
-0.551,-0.497,-0.191
-0.210,-0.226,0.051
-0.311,-0.407,-0.037
-0.049,-0.035,0.322
-0.160,-0.237,0.101
-0.101,-0.091,0.211
0.047,0.008,0.279
0.387,0.410,0.698
0.410,0.360,0.690
0.806,0.820,1.066
0.531,0.526,0.802
0.215,0.296,0.591
0.149,0.131,0.356
-0.037,-0.098,0.229
-0.075,-0.076,0.210
0.239,0.194,0.516
0.212,0.184,0.533
-0.408,-0.350,-0.087
-0.353,-0.321,-0.026
-0.295,-0.283,0.005
-0.377,-0.319,-0.039
-0.409,-0.474,-0.177
-0.627,-0.565,-0.335
-0.587,-0.487,-0.227
-0.651,-0.663,-0.325
-0.869,-0.836,-0.583
-0.671,-0.693,-0.395
-0.513,-0.548,-0.233
-0.998,-1.010,-0.714
-1.029,-1.013,-0.721
-0.827,-0.821,-0.535
-0.604,-0.602,-0.277
-0.437,-0.448,-0.172
-0.740,-0.709,-0.465
-0.677,-0.706,-0.382
-0.985,-1.007,-0.695
-0.651,-0.661,-0.347
-0.170,-0.183,0.138
-0.481,-0.530,-0.217
-0.221,-0.236,0.083
-0.520,-0.542,-0.242
-0.269,-0.240,0.042
0.206,0.212,0.508
0.052,0.100,0.393
0.126,0.055,0.428
-0.142,-0.121,0.168
-0.906,-0.885,-0.689
-1.111,-1.141,-0.828
-0.395,-0.349,-0.104
-0.130,-0.031,0.234
-0.079,0.018,0.261
0.526,0.533,0.813
0.395,0.441,0.699
0.252,0.261,0.546
0.553,0.515,0.778
0.473,0.478,0.747
-0.015,-0.031,0.274
-0.479,-0.412,-0.105
-0.213,-0.195,0.092
-0.269,-0.234,0.068
