0.083,0.083,0.083,0.083,0.083,0.083,0.083,0.083,0.083,0.083,0.083,0.083
0.024,0.038,-0.117,-0.204,-0.217,-0.139,-0.573,0.249,-0.242,-0.080,-0.378,0.051
0.127,0.208,0.227,0.050,-0.166,0.033,-0.257,0.448,-0.142,0.114,-0.200,0.263
0.187,0.347,0.173,0.303,0.150,0.246,-0.303,0.522,-0.149,0.131,-0.142,0.311
0.353,0.358,0.300,0.419,0.310,0.260,-0.071,0.552,0.095,0.191,-0.099,0.393
0.237,0.396,0.317,0.253,0.157,0.157,-0.148,0.412,-0.092,0.198,-0.126,0.259
-0.064,0.041,0.053,0.056,-0.135,-0.035,-0.490,0.238,-0.259,0.026,-0.327,0.231
-0.080,-0.002,-0.079,-0.158,-0.306,-0.198,-0.564,0.143,-0.358,-0.291,-0.564,0.021
-0.040,-0.142,-0.165,-0.091,-0.235,-0.118,-0.710,0.092,-0.277,-0.331,-0.461,-0.063
0.014,-0.026,-0.119,-0.031,-0.313,-0.016,-0.541,0.213,-0.242,-0.125,-0.362,-0.016
-0.102,-0.135,-0.023,-0.079,-0.226,-0.057,-0.664,0.106,-0.222,-0.245,-0.448,0.047
-0.142,-0.229,-0.232,-0.269,-0.518,-0.216,-0.818,-0.072,-0.480,-0.472,-0.632,-0.106
-0.266,-0.116,-0.225,-0.257,-0.498,-0.223,-0.610,-0.008,-0.470,-0.563,-0.848,-0.213
-0.077,-0.236,-0.228,-0.164,-0.508,-0.275,-0.495,0.073,-0.289,-0.263,-0.646,-0.130
-0.317,-0.218,-0.232,-0.270,-0.437,-0.399,-0.693,0.016,-0.441,-0.414,-0.796,-0.201
-0.345,-0.390,-0.332,-0.281,-0.483,-0.504,-0.605,0.083,-0.341,-0.484,-0.878,-0.262
0.024,0.009,0.034,-0.158,-0.197,-0.046,-0.553,0.191,-0.128,-0.226,-0.366,0.126
0.076,0.112,0.179,0.088,0.045,0.106,-0.252,0.376,-0.134,-0.019,-0.211,0.053
0.183,0.351,0.290,0.237,0.008,0.114,-0.238,0.456,0.087,0.225,-0.256,0.203
0.433,0.288,0.377,0.401,0.193,0.324,-0.146,0.644,0.211,0.130,0.051,0.370
0.392,0.444,0.442,0.477,0.092,0.304,-0.028,0.734,0.087,0.303,0.041,0.592
0.166,0.093,0.224,0.105,-0.027,0.065,-0.238,0.279,-0.144,-0.057,-0.287,0.259
0.294,0.182,0.344,0.286,0.033,0.240,-0.218,0.608,0.175,0.095,-0.185,0.394
0.405,0.272,0.351,0.388,0.045,0.280,-0.117,0.600,0.089,0.183,-0.105,0.469
0.253,0.222,0.147,0.161,-0.126,0.123,-0.180,0.340,-0.168,-0.028,-0.183,0.161
0.603,0.465,0.366,0.489,0.135,0.463,0.127,0.785,0.240,0.224,0.233,0.586
0.356,0.219,0.225,0.350,-0.071,0.224,-0.286,0.501,-0.048,0.291,-0.112,0.334
0.405,0.347,0.342,0.354,0.180,0.390,-0.008,0.592,0.042,0.187,-0.055,0.404
0.404,0.294,0.314,0.405,0.114,0.417,-0.163,0.645,-0.049,0.130,-0.080,0.293
0.476,0.475,0.426,0.479,0.172,0.415,-0.095,0.647,0.147,0.238,-0.104,0.457
0.201,0.172,0.101,0.162,-0.089,0.115,-0.182,0.278,-0.313,0.064,-0.355,0.171
0.266,0.289,0.116,0.253,-0.062,0.118,-0.275,0.389,-0.008,0.045,-0.214,0.095
0.417,0.284,0.288,0.317,-0.118,0.147,-0.312,0.477,0.079,0.174,-0.139,0.228
0.052,0.082,0.074,0.072,-0.226,0.148,-0.311,0.291,-0.103,-0.151,-0.448,0.140
0.093,0.067,0.087,0.047,0.009,0.072,-0.415,0.389,-0.088,-0.027,-0.230,0.099
-0.001,0.095,0.046,-0.035,-0.127,-0.007,-0.689,0.271,-0.129,-0.138,-0.466,-0.059
-0.058,0.108,-0.050,0.062,-0.220,-0.088,-0.617,0.291,-0.169,-0.108,-0.365,-0.003
-0.048,0.037,-0.034,-0.028,-0.434,-0.020,-0.505,0.306,-0.123,-0.251,-0.411,-0.029
0.274,0.130,0.246,0.232,-0.105,0.165,-0.390,0.453,-0.006,-0.044,-0.131,0.348
0.072,-0.088,0.026,0.041,-0.197,0.119,-0.574,0.294,-0.109,-0.104,-0.210,0.041
0.292,0.195,0.183,0.143,-0.128,0.027,-0.448,0.389,-0.090,-0.119,-0.293,0.249
0.169,0.010,0.135,0.024,-0.119,0.016,-0.225,0.185,-0.139,-0.067,-0.339,0.181
0.271,0.230,0.284,0.200,0.044,0.129,-0.232,0.503,0.112,0.105,-0.156,0.239
0.460,0.451,0.386,0.482,0.206,0.341,0.105,0.678,0.219,0.225,0.050,0.315
0.585,0.557,0.442,0.646,0.430,0.540,0.088,0.827,0.377,0.439,0.162,0.497
0.637,0.655,0.536,0.715,0.384,0.525,0.084,0.819,0.393,0.306,0.188,0.601
0.486,0.532,0.429,0.557,0.301,0.555,-0.039,0.692,0.269,0.310,0.170,0.484
0.247,0.331,0.203,0.255,-0.156,0.165,-0.392,0.360,-0.060,0.062,-0.245,0.109
0.356,0.407,0.291,0.411,-0.046,0.392,-0.259,0.495,0.057,0.244,0.015,0.315
0.321,0.361,0.337,0.346,0.045,0.367,-0.144,0.532,0.190,0.062,0.003,0.423
0.268,0.264,0.260,0.241,-0.043,0.045,-0.331,0.447,0.009,0.081,-0.075,0.210
0.164,0.188,0.136,0.239,-0.070,0.095,-0.369,0.303,0.022,0.041,-0.316,0.137
0.460,0.285,0.333,0.350,-0.083,0.120,-0.144,0.586,0.041,0.173,-0.219,0.214
0.316,0.115,0.241,0.231,0.061,0.080,-0.392,0.454,0.014,0.079,-0.167,0.264
0.324,0.217,0.237,0.161,-0.050,0.186,-0.090,0.483,0.147,0.080,-0.050,0.397
-0.080,-0.033,-0.001,0.030,-0.200,-0.128,-0.522,0.179,-0.173,-0.211,-0.231,0.077
-0.074,-0.178,-0.124,-0.079,-0.409,-0.115,-0.741,-0.064,-0.476,-0.245,-0.386,0.000
0.189,0.023,0.023,0.024,-0.170,-0.015,-0.458,0.348,-0.082,0.043,-0.355,0.210
-0.230,-0.149,-0.086,-0.185,-0.399,-0.240,-0.646,0.028,-0.405,-0.227,-0.667,-0.094
-0.087,-0.247,-0.210,-0.161,-0.404,-0.269,-0.646,0.060,-0.448,-0.265,-0.606,-0.087
-0.178,-0.100,-0.131,-0.054,-0.268,-0.143,-0.678,0.081,-0.296,-0.142,-0.315,0.092
-0.146,-0.216,-0.120,-0.179,-0.340,-0.274,-0.646,0.076,-0.334,-0.318,-0.627,-0.032
-0.353,-0.414,-0.419,-0.464,-0.696,-0.532,-1.108,-0.288,-0.541,-0.612,-0.928,-0.390
-0.510,-0.455,-0.361,-0.484,-0.676,-0.468,-1.040,-0.330,-0.644,-0.531,-0.833,-0.533
-0.147,-0.109,-0.189,-0.147,-0.326,-0.141,-0.615,-0.014,-0.368,-0.190,-0.419,-0.055
-0.157,-0.118,-0.145,-0.146,-0.338,-0.176,-0.597,0.058,-0.465,-0.291,-0.413,0.007
-0.271,-0.181,-0.189,-0.266,-0.546,-0.264,-0.703,0.001,-0.371,-0.441,-0.762,-0.209
-0.112,-0.218,-0.125,-0.114,-0.459,-0.159,-0.736,0.121,-0.315,-0.297,-0.553,-0.235
-0.303,-0.275,-0.279,-0.193,-0.631,-0.462,-0.853,-0.126,-0.515,-0.425,-0.739,-0.427
-0.456,-0.506,-0.447,-0.479,-0.690,-0.461,-0.901,-0.224,-0.556,-0.630,-0.906,-0.366
-0.443,-0.479,-0.524,-0.474,-0.761,-0.438,-1.005,-0.232,-0.775,-0.676,-1.008,-0.499
-0.229,-0.381,-0.336,-0.329,-0.637,-0.399,-0.915,-0.100,-0.525,-0.481,-0.779,-0.418
-0.229,-0.270,-0.392,-0.318,-0.634,-0.328,-0.856,-0.163,-0.597,-0.584,-0.660,-0.366
-0.243,-0.314,-0.337,-0.302,-0.537,-0.354,-0.763,-0.124,-0.553,-0.395,-0.629,-0.319
-0.431,-0.341,-0.273,-0.306,-0.592,-0.509,-0.793,-0.140,-0.696,-0.442,-0.645,-0.198
-0.523,-0.698,-0.595,-0.550,-0.941,-0.661,-1.028,-0.271,-0.957,-0.781,-0.992,-0.530
-0.480,-0.280,-0.518,-0.310,-0.756,-0.523,-0.923,-0.165,-0.634,-0.515,-0.817,-0.380
-0.493,-0.341,-0.311,-0.222,-0.595,-0.349,-0.875,-0.232,-0.466,-0.432,-0.815,-0.285
-0.245,-0.476,-0.397,-0.397,-0.562,-0.422,-0.811,-0.243,-0.648,-0.514,-0.701,-0.364
-0.349,-0.559,-0.410,-0.357,-0.635,-0.496,-0.916,-0.153,-0.654,-0.479,-0.847,-0.398
-0.467,-0.596,-0.484,-0.535,-0.829,-0.586,-1.012,-0.363,-0.808,-0.696,-0.815,-0.540
-0.507,-0.626,-0.569,-0.447,-0.652,-0.480,-1.076,-0.235,-0.723,-0.638,-0.839,-0.515
-0.950,-1.025,-1.044,-0.905,-1.223,-0.935,-1.425,-0.687,-1.268,-1.097,-1.309,-0.972
-0.954,-1.043,-1.045,-0.912,-1.246,-1.081,-1.522,-0.733,-1.155,-1.253,-1.383,-0.900
-0.781,-0.914,-0.917,-0.885,-1.119,-0.751,-1.428,-0.642,-1.145,-1.117,-1.354,-0.878
-0.618,-0.654,-0.673,-0.563,-0.926,-0.665,-1.173,-0.491,-0.862,-0.856,-1.024,-0.635
-0.680,-0.503,-0.524,-0.465,-0.864,-0.641,-1.025,-0.279,-0.821,-0.658,-0.991,-0.425
-0.234,-0.203,-0.207,-0.151,-0.515,-0.247,-0.729,0.098,-0.436,-0.276,-0.597,-0.195
-0.162,-0.150,-0.157,-0.210,-0.337,-0.199,-0.744,0.077,-0.281,-0.183,-0.380,-0.088
-0.360,-0.032,-0.242,-0.105,-0.372,-0.034,-0.551,0.200,-0.295,-0.275,-0.395,0.043
-0.116,-0.152,-0.207,-0.147,-0.460,0.047,-0.539,0.205,-0.365,-0.334,-0.560,-0.065
0.022,-0.125,-0.031,0.088,-0.332,-0.064,-0.313,0.145,-0.291,-0.158,-0.507,-0.063
0.165,0.126,0.099,0.101,-0.204,-0.006,-0.383,0.337,-0.154,0.016,-0.449,0.057
0.046,-0.058,-0.077,-0.043,-0.323,-0.067,-0.449,0.230,-0.368,-0.131,-0.537,-0.051
0.105,-0.143,-0.015,-0.048,-0.248,-0.181,-0.576,0.202,-0.305,-0.264,-0.506,0.017
-0.134,-0.028,-0.100,-0.111,-0.335,-0.132,-0.640,0.292,-0.341,-0.241,-0.461,-0.047
-0.244,-0.324,-0.233,-0.280,-0.393,-0.378,-0.678,0.153,-0.351,-0.380,-0.637,-0.265
-0.269,-0.209,-0.241,-0.344,-0.529,-0.280,-0.678,0.041,-0.362,-0.505,-0.566,-0.143
-0.097,0.054,-0.038,-0.159,-0.262,-0.145,-0.370,0.113,-0.090,-0.198,-0.402,-0.055
-0.215,-0.363,-0.231,-0.352,-0.450,-0.333,-0.732,-0.100,-0.490,-0.345,-0.695,-0.304
-0.391,-0.459,-0.407,-0.416,-0.610,-0.611,-0.916,-0.175,-0.607,-0.637,-0.700,-0.454
-0.241,-0.470,-0.372,-0.375,-0.731,-0.317,-0.807,-0.137,-0.623,-0.705,-0.726,-0.440
-0.659,-0.678,-0.633,-0.449,-0.805,-0.714,-1.041,-0.461,-0.881,-0.648,-1.011,-0.576
-0.149,-0.126,-0.168,-0.200,-0.496,-0.206,-0.841,0.071,-0.443,-0.409,-0.695,-0.175
0.007,-0.003,0.005,-0.028,-0.194,-0.127,-0.553,0.125,-0.200,-0.115,-0.436,0.008
-0.154,-0.141,-0.207,-0.152,-0.289,-0.179,-0.627,-0.073,-0.461,-0.342,-0.642,-0.124
-0.267,-0.352,-0.376,-0.320,-0.494,-0.270,-0.842,-0.204,-0.573,-0.565,-0.863,-0.257
-0.492,-0.775,-0.570,-0.486,-0.776,-0.571,-1.104,-0.413,-0.834,-0.666,-0.984,-0.510
-0.204,-0.365,-0.412,-0.303,-0.576,-0.391,-0.810,-0.070,-0.553,-0.528,-0.734,-0.328
-0.458,-0.520,-0.418,-0.457,-0.622,-0.562,-0.887,-0.245,-0.713,-0.731,-0.711,-0.373
-0.461,-0.461,-0.437,-0.389,-0.617,-0.516,-0.807,-0.217,-0.565,-0.547,-0.746,-0.360
-0.249,-0.299,-0.363,-0.183,-0.585,-0.394,-0.639,-0.028,-0.657,-0.518,-0.564,-0.252
-0.072,-0.084,-0.048,-0.155,-0.318,-0.160,-0.538,0.066,-0.397,-0.330,-0.591,-0.005
0.043,-0.201,0.072,-0.009,-0.228,-0.096,-0.470,0.173,-0.228,-0.309,-0.457,0.028
0.124,0.071,0.079,0.089,-0.166,0.080,-0.419,0.317,-0.161,-0.218,-0.294,0.073
0.109,0.012,-0.002,-0.015,-0.221,-0.019,-0.371,0.280,-0.244,-0.184,-0.339,0.055
0.244,0.304,0.376,0.255,0.071,0.375,-0.127,0.619,0.192,0.111,0.039,0.242
0.469,0.462,0.559,0.472,0.315,0.434,0.103,0.789,0.298,0.317,0.106,0.381
0.756,0.695,0.732,0.643,0.388,0.573,0.294,0.886,0.271,0.425,0.320,0.692
0.837,0.680,0.845,0.844,0.642,0.711,0.336,0.950,0.459,0.611,0.359,0.989
0.467,0.510,0.592,0.539,0.205,0.405,-0.051,0.572,0.160,0.366,0.263,0.518
0.212,0.344,0.528,0.435,0.158,0.509,-0.174,0.662,0.195,0.156,0.019,0.358
0.193,0.001,0.236,0.206,-0.077,0.277,-0.361,0.472,-0.096,-0.050,-0.166,0.192
0.383,0.434,0.338,0.336,0.070,0.310,-0.036,0.587,0.241,0.286,0.073,0.276
0.580,0.565,0.384,0.424,0.284,0.369,-0.001,0.672,0.147,0.266,0.175,0.405
0.635,0.589,0.495,0.476,0.155,0.417,-0.126,0.646,0.172,0.508,0.127,0.464
0.590,0.533,0.604,0.613,0.325,0.452,0.079,0.725,0.235,0.504,0.293,0.546
0.300,0.266,0.271,0.359,0.029,0.320,-0.223,0.419,0.014,0.160,0.002,0.338
0.186,-0.042,0.130,-0.009,-0.095,-0.049,-0.462,0.294,-0.009,-0.050,-0.403,0.031
0.072,0.046,-0.057,0.111,-0.204,-0.013,-0.494,0.234,-0.152,-0.092,-0.290,-0.009
-0.096,-0.015,-0.123,-0.140,-0.339,-0.240,-0.541,0.003,-0.484,-0.194,-0.479,-0.170
-0.293,-0.249,-0.374,-0.293,-0.598,-0.539,-0.904,-0.200,-0.606,-0.414,-0.787,-0.236
-0.216,-0.341,-0.264,-0.248,-0.343,-0.317,-0.700,-0.145,-0.442,-0.494,-0.560,-0.189
-0.231,-0.224,-0.263,-0.158,-0.433,-0.181,-0.689,0.012,-0.395,-0.315,-0.422,-0.167
-0.209,-0.316,-0.104,-0.131,-0.355,-0.193,-0.622,0.053,-0.483,-0.346,-0.701,-0.064
-0.358,-0.412,-0.411,-0.431,-0.662,-0.473,-0.791,-0.210,-0.593,-0.649,-0.827,-0.371
-0.045,0.082,-0.153,-0.072,-0.263,-0.015,-0.618,0.148,-0.230,-0.193,-0.464,-0.059
0.351,0.197,0.208,0.210,-0.058,0.026,-0.540,0.465,0.119,-0.030,-0.213,0.163
0.227,0.225,0.253,0.292,0.025,0.102,-0.308,0.514,0.140,-0.015,-0.139,0.251
0.219,0.105,0.093,0.186,-0.085,0.314,-0.192,0.305,0.043,-0.007,-0.318,0.058
0.040,-0.064,-0.046,-0.082,-0.317,-0.144,-0.488,0.080,-0.271,-0.222,-0.509,-0.069
-0.014,-0.035,-0.004,-0.164,-0.331,-0.290,-0.401,0.148,-0.251,-0.357,-0.484,0.003
0.138,0.048,0.053,0.025,-0.195,0.001,-0.476,0.244,-0.249,-0.055,-0.361,0.184
0.093,-0.093,0.152,-0.153,-0.168,-0.051,-0.507,0.314,-0.306,-0.145,-0.377,0.075
0.079,0.111,0.156,0.102,-0.054,0.093,-0.379,0.322,-0.128,-0.028,-0.248,0.234
0.181,0.139,0.100,0.037,0.008,0.264,-0.262,0.333,0.006,0.150,-0.329,0.072
0.326,0.382,0.331,0.293,0.096,0.368,-0.168,0.550,0.118,0.144,-0.057,0.392
0.477,0.497,0.481,0.334,0.170,0.397,-0.182,0.689,0.137,0.198,0.032,0.345
0.312,0.342,0.374,0.224,0.095,0.235,-0.253,0.472,0.058,0.144,-0.144,0.428
0.158,0.230,0.189,0.066,-0.048,0.170,-0.193,0.337,-0.064,-0.030,-0.138,0.340
0.502,0.388,0.348,0.320,0.234,0.368,-0.117,0.649,0.171,0.133,-0.015,0.390
0.493,0.414,0.399,0.473,0.401,0.350,0.024,0.695,0.150,0.399,0.114,0.473
0.578,0.377,0.540,0.478,0.309,0.483,0.006,0.788,0.267,0.423,0.021,0.486
0.426,0.515,0.533,0.527,0.290,0.409,0.170,0.690,0.308,0.377,0.085,0.458
0.592,0.574,0.580,0.726,0.311,0.576,0.158,0.857,0.403,0.418,0.318,0.635
0.523,0.379,0.452,0.505,0.197,0.663,-0.008,0.672,0.194,0.320,-0.007,0.518
0.261,0.238,0.229,0.315,-0.079,0.157,-0.302,0.515,-0.008,0.109,-0.174,0.395
0.115,-0.018,0.063,0.089,-0.264,0.135,-0.336,0.411,-0.065,-0.002,-0.391,0.184
0.452,0.395,0.376,0.478,0.079,0.488,-0.095,0.649,0.332,0.198,0.051,0.413
0.636,0.477,0.579,0.676,0.471,0.595,0.137,0.805,0.485,0.345,0.243,0.567
0.739,0.525,0.682,0.577,0.531,0.695,0.324,0.928,0.529,0.583,0.280,0.615
0.588,0.357,0.533,0.472,0.370,0.406,0.099,0.822,0.256,0.356,0.308,0.526
0.553,0.473,0.563,0.539,0.282,0.389,0.113,0.753,0.289,0.426,0.349,0.681
0.536,0.425,0.361,0.430,0.221,0.451,0.044,0.723,0.092,0.389,0.085,0.446
0.458,0.492,0.397,0.314,0.189,0.423,-0.177,0.660,0.295,0.327,-0.093,0.449
0.287,0.351,0.375,0.374,0.114,0.406,-0.281,0.624,0.205,0.284,-0.117,0.577
0.287,0.238,0.183,0.261,0.046,0.203,-0.243,0.478,-0.017,0.212,-0.233,0.271
0.187,0.195,0.131,0.147,-0.099,0.025,-0.338,0.371,-0.118,0.037,-0.335,0.289
0.147,0.240,0.199,0.224,0.007,0.186,-0.216,0.512,0.019,0.135,-0.169,0.437
0.242,0.196,0.344,0.308,0.165,0.311,-0.116,0.446,0.042,0.133,-0.019,0.355
0.032,0.027,-0.023,0.219,-0.117,0.075,-0.230,0.272,-0.108,-0.094,-0.309,0.132
-0.053,-0.016,0.075,-0.019,-0.207,-0.075,-0.342,0.272,-0.207,-0.166,-0.267,-0.048
0.141,0.251,0.155,0.268,0.123,0.217,-0.260,0.352,0.150,-0.055,-0.137,0.162
0.282,0.281,0.208,0.260,0.026,0.154,-0.253,0.547,0.131,0.063,-0.102,0.282
0.408,0.462,0.378,0.436,0.107,0.314,-0.014,0.680,0.302,0.269,-0.017,0.527
0.324,0.346,0.316,0.273,0.132,0.349,-0.079,0.517,0.151,0.201,-0.156,0.393
0.395,0.401,0.338,0.237,0.243,0.300,-0.082,0.637,0.236,0.082,-0.156,0.253
0.148,0.330,0.148,0.250,-0.144,0.212,-0.166,0.328,-0.085,-0.047,-0.276,0.080
0.440,0.391,0.394,0.400,0.216,0.340,0.012,0.605,0.230,0.247,0.049,0.289
0.357,0.354,0.323,0.270,0.097,0.291,-0.173,0.552,0.121,0.096,-0.093,0.360
0.444,0.320,0.274,0.108,0.194,0.319,-0.183,0.587,0.048,0.172,-0.138,0.432
0.361,0.259,0.261,0.139,-0.004,0.115,-0.160,0.514,0.051,0.117,-0.202,0.364
0.594,0.351,0.442,0.399,0.196,0.484,-0.071,0.746,0.107,0.299,-0.059,0.373
0.290,0.474,0.434,0.516,0.275,0.283,-0.002,0.769,0.179,0.248,0.055,0.478
0.310,0.276,0.301,0.406,0.267,0.353,-0.129,0.458,0.041,0.145,-0.135,0.489
0.490,0.334,0.466,0.474,0.348,0.566,0.042,0.654,0.154,0.268,0.097,0.520
0.386,0.285,0.349,0.316,0.228,0.261,0.019,0.607,0.152,0.237,0.039,0.481
0.361,0.255,0.142,0.221,0.126,0.191,-0.168,0.456,0.044,0.187,-0.150,0.329
0.478,0.448,0.313,0.344,0.359,0.364,-0.093,0.671,0.156,0.224,-0.169,0.315
0.404,0.456,0.360,0.463,0.165,0.395,-0.239,0.576,0.094,0.159,0.016,0.311
0.392,0.468,0.400,0.358,0.115,0.373,-0.049,0.602,0.065,0.232,0.050,0.464
0.597,0.515,0.477,0.556,0.339,0.502,0.027,0.777,0.250,0.383,0.176,0.649
0.440,0.508,0.392,0.583,0.248,0.537,0.040,0.679,0.180,0.298,0.332,0.638
0.757,0.636,0.585,0.577,0.385,0.615,0.123,0.791,0.362,0.291,0.125,0.616
0.248,0.198,0.174,0.233,0.001,0.339,-0.193,0.444,-0.123,0.112,-0.271,0.206
0.009,0.091,0.085,0.131,-0.217,0.033,-0.452,0.331,-0.282,-0.098,-0.325,0.062
0.166,0.139,0.178,0.187,-0.104,0.282,-0.322,0.395,0.056,0.091,-0.198,0.195
0.169,0.145,0.228,0.294,-0.008,0.309,-0.296,0.443,-0.019,0.147,-0.351,0.312
0.339,0.134,0.335,0.281,0.049,0.151,-0.183,0.485,0.003,0.138,-0.193,0.315
0.544,0.404,0.572,0.510,0.241,0.465,0.186,0.704,0.367,0.287,0.181,0.482
0.484,0.408,0.415,0.441,0.221,0.326,0.062,0.578,0.111,0.348,0.143,0.461
0.254,0.300,0.293,0.244,-0.016,0.285,-0.316,0.443,0.111,0.050,0.036,0.328
0.422,0.153,0.380,0.328,0.074,0.195,-0.321,0.386,0.067,0.125,-0.076,0.369
0.402,0.573,0.394,0.437,0.276,0.376,0.043,0.656,0.101,0.307,0.015,0.486
0.576,0.455,0.573,0.542,0.237,0.351,0.110,0.818,0.284,0.300,0.083,0.586
0.310,0.289,0.331,0.300,0.155,0.189,-0.247,0.573,0.003,0.103,-0.212,0.343
0.293,0.347,0.343,0.293,0.084,0.212,-0.266,0.586,0.082,0.183,-0.249,0.236
0.257,0.137,0.198,0.219,0.066,0.105,-0.426,0.404,0.036,0.172,-0.051,0.191
0.059,0.282,0.120,0.207,-0.060,0.072,-0.447,0.341,-0.048,-0.035,-0.234,0.198
0.219,0.287,0.257,0.193,0.041,0.255,-0.264,0.372,0.057,0.110,-0.225,0.163
0.335,0.361,0.360,0.291,0.228,0.254,-0.249,0.525,0.129,0.307,-0.001,0.249
0.233,0.151,0.139,0.224,0.136,0.274,-0.426,0.612,0.115,0.018,-0.063,0.259
0.268,0.152,0.243,0.236,0.116,0.174,-0.132,0.478,0.123,0.137,-0.010,0.148
0.206,0.225,0.270,0.295,0.118,0.220,-0.144,0.448,0.055,0.005,-0.149,0.250
0.197,0.157,0.176,0.281,-0.085,0.117,-0.202,0.353,-0.185,-0.020,-0.240,0.103
0.294,0.087,0.143,0.195,-0.069,0.053,-0.273,0.273,0.014,-0.039,-0.091,0.190
0.161,-0.079,-0.155,-0.021,-0.204,-0.268,-0.471,0.187,-0.142,-0.190,-0.382,-0.027
-0.148,-0.178,-0.282,-0.165,-0.355,-0.175,-0.663,0.130,-0.518,-0.317,-0.636,-0.151
-0.357,-0.341,-0.251,-0.195,-0.401,-0.369,-0.778,-0.049,-0.538,-0.470,-0.587,-0.279
-0.328,-0.352,-0.415,-0.246,-0.629,-0.430,-0.927,-0.201,-0.538,-0.496,-0.779,-0.316
-0.504,-0.509,-0.450,-0.378,-0.694,-0.557,-1.017,-0.333,-0.648,-0.649,-0.808,-0.541
-0.115,-0.249,-0.191,-0.121,-0.403,-0.303,-0.669,0.047,-0.454,-0.293,-0.689,-0.241
-0.348,-0.173,-0.126,-0.294,-0.386,-0.247,-0.767,-0.025,-0.528,-0.475,-0.822,-0.235
-0.079,-0.220,0.000,-0.140,-0.282,0.021,-0.520,0.211,-0.311,-0.155,-0.481,-0.023
0.155,0.231,0.094,0.214,-0.072,0.221,-0.484,0.572,-0.134,0.017,-0.141,0.302
0.400,0.488,0.359,0.410,0.235,0.460,-0.053,0.691,0.199,0.365,0.136,0.418
0.417,0.452,0.414,0.226,0.251,0.506,-0.067,0.802,0.316,0.258,0.070,0.370
0.353,0.490,0.470,0.455,0.388,0.465,0.128,0.674,0.257,0.341,0.006,0.541
0.441,0.324,0.259,0.237,0.188,0.215,-0.208,0.620,0.139,0.033,0.011,0.330
0.275,0.307,0.400,0.236,0.099,0.121,-0.202,0.622,-0.090,0.187,-0.012,0.402
0.245,0.193,0.154,0.304,0.024,0.260,-0.171,0.364,-0.109,0.012,-0.149,0.390
0.258,0.095,0.124,0.323,-0.092,0.185,-0.349,0.340,-0.035,0.090,-0.139,0.250
0.176,0.127,0.012,0.211,-0.149,0.144,-0.379,0.323,0.013,-0.099,-0.274,0.132
0.686,0.530,0.534,0.612,0.354,0.467,-0.006,0.879,0.439,0.366,0.188,0.548
0.396,0.373,0.432,0.533,0.405,0.515,-0.010,0.678,0.203,0.340,0.072,0.426
0.380,0.412,0.451,0.451,0.282,0.431,-0.132,0.768,0.312,0.286,0.113,0.598
0.391,0.305,0.303,0.498,0.196,0.335,-0.211,0.645,0.241,0.193,-0.059,0.380
0.515,0.493,0.469,0.482,0.356,0.440,-0.047,0.692,0.304,0.350,0.170,0.565
0.750,0.628,0.632,0.703,0.352,0.567,0.212,0.869,0.375,0.458,0.402,0.754
0.637,0.549,0.486,0.546,0.221,0.619,0.118,0.736,0.303,0.285,0.092,0.561
0.450,0.472,0.432,0.457,0.029,0.423,0.050,0.685,0.215,0.233,0.137,0.516
0.221,0.241,0.221,0.216,-0.060,0.060,-0.121,0.477,-0.056,0.100,-0.259,0.272
0.126,0.117,0.251,0.246,-0.021,-0.058,-0.160,0.396,0.057,0.026,-0.171,0.236
0.174,0.131,0.252,0.079,-0.088,0.027,-0.143,0.464,0.020,-0.066,-0.254,0.197
0.215,0.117,0.224,0.204,0.052,0.248,-0.333,0.282,-0.281,-0.008,-0.113,0.247
0.122,0.114,0.026,-0.012,-0.144,-0.011,-0.563,0.286,-0.166,-0.130,-0.366,0.121
-0.032,-0.052,0.008,-0.159,-0.304,-0.100,-0.556,0.075,-0.316,-0.161,-0.595,-0.087
0.056,0.052,0.040,-0.024,-0.291,-0.086,-0.376,0.221,-0.370,-0.167,-0.306,-0.022
0.162,0.064,0.068,0.125,-0.242,0.101,-0.415,0.249,-0.301,0.024,-0.332,0.038
0.068,0.130,0.094,0.176,-0.048,0.158,-0.353,0.376,-0.218,-0.090,-0.275,0.123
-0.070,-0.076,0.029,-0.022,-0.262,-0.029,-0.553,0.093,-0.342,-0.218,-0.455,-0.058
-0.034,0.046,0.061,0.008,-0.303,0.142,-0.528,0.173,-0.238,-0.312,-0.474,0.080
0.050,-0.008,-0.087,0.091,-0.051,-0.070,-0.377,0.447,-0.257,-0.123,-0.373,-0.006
0.081,0.127,-0.054,-0.170,-0.193,0.097,-0.491,0.210,-0.259,-0.086,-0.438,0.083
0.119,-0.015,0.002,-0.061,-0.261,-0.020,-0.483,0.292,-0.141,-0.059,-0.421,0.093
-0.178,-0.172,-0.205,-0.208,-0.298,-0.127,-0.749,-0.023,-0.367,-0.212,-0.588,-0.188
-0.221,-0.138,-0.277,-0.311,-0.431,-0.272,-0.811,-0.196,-0.659,-0.342,-0.764,-0.323
-0.102,-0.279,-0.231,-0.275,-0.448,-0.353,-0.709,0.000,-0.496,-0.375,-0.755,-0.148
-0.017,0.030,-0.040,-0.034,-0.319,-0.095,-0.475,0.169,-0.247,-0.196,-0.432,-0.001
-0.019,-0.132,-0.083,-0.083,-0.305,-0.148,-0.565,0.143,-0.335,-0.244,-0.394,-0.027
0.117,0.178,0.085,0.238,0.005,-0.000,-0.351,0.410,0.049,0.090,-0.275,0.203
0.264,0.343,0.149,0.182,-0.075,0.193,-0.288,0.543,0.074,0.020,-0.174,0.448
0.239,0.370,0.283,0.294,0.118,0.192,-0.083,0.551,0.157,0.198,-0.124,0.497
0.488,0.461,0.356,0.245,0.208,0.210,-0.080,0.615,0.187,0.206,0.024,0.332
0.489,0.502,0.458,0.442,0.286,0.461,-0.085,0.794,0.369,0.261,0.147,0.496
0.362,0.502,0.405,0.449,0.191,0.432,-0.015,0.603,0.154,0.308,0.009,0.482
0.644,0.668,0.572,0.559,0.339,0.631,-0.053,0.820,0.444,0.379,0.148,0.683
0.639,0.539,0.726,0.646,0.352,0.662,0.266,0.847,0.337,0.557,0.288,0.803
0.443,0.400,0.433,0.421,0.086,0.422,-0.039,0.764,0.221,0.315,0.167,0.520
0.422,0.507,0.357,0.487,0.257,0.317,0.158,0.691,0.406,0.412,0.065,0.449
0.460,0.283,0.301,0.284,0.185,0.191,-0.176,0.522,-0.025,0.018,-0.075,0.331
0.118,0.083,0.134,0.077,-0.055,0.107,-0.388,0.443,-0.101,0.008,-0.312,0.011
0.253,0.204,0.134,0.094,-0.159,0.175,-0.505,0.397,-0.072,-0.036,-0.197,0.162
0.420,0.183,0.252,0.201,-0.064,0.243,-0.288,0.467,-0.045,0.174,-0.185,0.233
0.214,0.226,0.199,0.186,-0.130,0.197,-0.296,0.537,0.015,0.024,-0.356,0.285
0.444,0.494,0.379,0.428,0.195,0.379,-0.055,0.718,0.196,0.394,-0.155,0.288
0.358,0.213,0.291,0.349,-0.008,0.185,-0.184,0.490,0.095,0.099,-0.050,0.290
0.120,0.063,0.101,0.121,-0.157,0.117,-0.285,0.086,-0.075,-0.072,-0.269,0.174
0.075,0.169,0.120,0.003,-0.235,-0.046,-0.285,0.233,-0.142,-0.005,-0.270,0.120
0.456,0.213,0.179,0.246,0.045,0.182,-0.188,0.444,0.021,0.134,-0.065,0.312
0.572,0.449,0.421,0.444,0.138,0.340,-0.091,0.604,0.251,0.289,0.070,0.313
0.502,0.491,0.504,0.538,0.314,0.571,-0.028,0.687,0.383,0.287,0.146,0.417
0.318,0.223,0.310,0.304,0.147,0.315,-0.235,0.657,0.123,0.125,0.014,0.489
0.435,0.476,0.385,0.593,0.193,0.590,0.048,0.833,0.323,0.403,0.034,0.573
0.542,0.505,0.463,0.484,0.223,0.344,-0.148,0.692,0.223,0.301,0.024,0.409
0.361,0.169,0.313,0.399,0.096,0.335,-0.045,0.490,0.071,0.245,-0.044,0.374
0.430,0.493,0.510,0.521,0.209,0.506,-0.065,0.695,0.284,0.294,0.215,0.546
0.518,0.443,0.428,0.490,0.268,0.405,0.036,0.746,0.254,0.197,0.057,0.481
0.699,0.634,0.589,0.637,0.385,0.703,0.237,0.858,0.227,0.497,0.180,0.686
0.474,0.521,0.523,0.576,0.397,0.543,0.005,0.871,0.240,0.436,0.091,0.611
0.434,0.533,0.460,0.519,0.223,0.476,-0.012,0.760,0.260,0.369,0.032,0.476
0.589,0.704,0.519,0.701,0.314,0.587,0.089,0.751,0.345,0.368,0.396,0.616
0.619,0.653,0.437,0.439,0.345,0.604,0.042,0.810,0.347,0.371,0.157,0.631
0.677,0.658,0.500,0.571,0.367,0.597,0.039,0.895,0.539,0.511,0.111,0.773
0.549,0.482,0.552,0.513,0.276,0.695,0.113,0.770,0.344,0.525,0.163,0.800
0.295,0.256,0.228,0.320,-0.048,0.299,-0.164,0.615,0.203,0.075,-0.200,0.283
0.383,0.319,0.258,0.313,0.041,0.355,-0.205,0.543,0.083,0.182,-0.216,0.426
0.664,0.473,0.424,0.457,0.242,0.381,-0.006,0.713,0.373,0.415,0.093,0.521
0.815,0.655,0.673,0.691,0.460,0.630,0.217,1.090,0.625,0.548,0.306,0.818
0.680,0.619,0.616,0.618,0.425,0.538,0.110,0.917,0.344,0.473,0.117,0.798
0.237,0.266,0.110,0.218,0.114,0.153,-0.312,0.389,-0.052,0.024,-0.245,0.228
0.490,0.465,0.260,0.401,0.302,0.424,-0.052,0.626,0.144,0.337,-0.096,0.370
0.071,0.197,0.096,0.268,-0.092,0.221,-0.249,0.552,0.020,0.127,-0.330,0.220
0.171,0.169,0.132,0.302,0.123,0.319,-0.141,0.595,-0.086,0.089,-0.093,0.355
0.240,0.296,0.271,0.282,0.110,0.243,-0.188,0.607,0.025,0.082,-0.098,0.277
0.497,0.380,0.307,0.236,-0.005,0.201,-0.133,0.624,-0.023,0.024,0.002,0.339
0.304,0.416,0.546,0.499,0.299,0.314,0.047,0.805,0.280,0.401,0.140,0.445
0.502,0.464,0.443,0.207,0.195,0.345,-0.107,0.593,0.099,0.360,-0.061,0.466
0.215,0.314,0.252,0.303,-0.069,0.227,-0.469,0.498,-0.022,-0.043,-0.066,0.190
0.311,0.302,0.362,0.326,0.204,0.338,-0.201,0.666,0.125,0.069,-0.095,0.335
0.383,0.359,0.209,0.191,-0.049,0.052,-0.242,0.459,0.073,0.093,-0.098,0.236
0.385,0.276,0.206,0.410,0.085,0.298,-0.152,0.514,0.019,0.297,-0.106,0.413
0.216,0.156,0.137,0.301,0.063,0.075,-0.269,0.376,-0.037,-0.031,-0.262,0.117
0.275,0.076,0.075,0.094,-0.052,0.150,-0.666,0.349,-0.070,-0.129,-0.273,-0.015
0.042,0.162,0.092,0.132,-0.158,0.122,-0.486,0.385,-0.055,0.033,-0.258,0.202
0.082,0.278,0.229,0.252,-0.077,0.194,-0.412,0.406,0.090,-0.081,-0.307,0.095
0.376,0.380,0.477,0.359,0.073,0.279,-0.213,0.521,0.157,0.148,0.001,0.374
0.250,0.591,0.473,0.407,0.304,0.434,-0.192,0.583,0.181,0.244,-0.015,0.351
0.408,0.304,0.329,0.282,0.191,0.463,-0.153,0.535,0.142,0.325,-0.026,0.314
0.046,0.006,0.107,-0.046,-0.271,-0.123,-0.460,0.284,-0.220,-0.003,-0.439,-0.083
-0.126,-0.118,-0.167,-0.176,-0.419,-0.195,-0.755,0.037,-0.413,-0.308,-0.510,-0.241
0.040,-0.044,-0.024,-0.054,-0.167,-0.011,-0.375,0.238,-0.149,-0.113,-0.293,0.072
0.154,0.072,0.112,0.021,-0.005,0.151,-0.329,0.343,-0.033,-0.114,-0.070,0.198
0.228,0.129,0.140,0.142,-0.035,0.144,-0.372,0.393,-0.192,-0.008,-0.218,0.192
0.131,0.189,0.008,-0.012,-0.025,0.269,-0.280,0.357,-0.187,-0.022,-0.195,0.015
0.074,0.071,-0.078,0.049,-0.209,0.058,-0.503,0.185,-0.209,-0.128,-0.233,0.038
-0.169,-0.290,-0.288,-0.175,-0.439,-0.204,-0.640,-0.053,-0.515,-0.397,-0.545,-0.135
-0.310,-0.353,-0.336,-0.221,-0.542,-0.441,-0.834,-0.069,-0.564,-0.400,-0.665,-0.198
-0.226,-0.350,-0.342,-0.267,-0.508,-0.100,-0.945,-0.125,-0.496,-0.612,-0.760,-0.452
-0.346,-0.179,-0.258,-0.323,-0.495,-0.262,-0.747,-0.070,-0.398,-0.408,-0.560,-0.256
-0.271,-0.309,-0.316,-0.188,-0.450,-0.184,-0.664,-0.056,-0.464,-0.485,-0.651,-0.164
-0.183,-0.204,-0.301,-0.307,-0.602,-0.375,-0.719,-0.111,-0.605,-0.341,-0.509,-0.144
-0.049,-0.055,-0.063,-0.121,-0.286,-0.117,-0.736,0.204,-0.157,-0.261,-0.426,-0.052
0.038,0.206,-0.050,0.043,-0.277,0.036,-0.568,0.323,-0.273,-0.166,-0.313,0.071
0.156,0.101,0.166,0.168,-0.013,0.060,-0.282,0.356,-0.228,-0.225,-0.444,0.256
0.305,0.318,0.304,0.295,0.090,0.304,-0.178,0.535,0.040,0.107,-0.174,0.355
0.350,0.235,0.358,0.288,-0.105,0.243,-0.284,0.512,0.075,0.166,-0.055,0.394
0.367,0.408,0.476,0.496,0.167,0.341,-0.018,0.827,0.262,0.155,-0.036,0.458
0.389,0.136,0.260,0.021,0.021,0.077,-0.325,0.485,0.114,0.225,-0.244,0.155
0.266,0.175,0.125,0.155,-0.081,0.010,-0.265,0.446,0.006,0.080,-0.013,0.209
0.297,0.217,0.269,0.329,0.147,0.310,-0.153,0.591,-0.007,0.098,-0.097,0.265
0.092,0.057,0.023,0.007,-0.316,0.031,-0.532,0.316,-0.310,-0.244,-0.291,0.070
-0.012,-0.027,0.060,0.120,-0.163,-0.029,-0.341,0.356,-0.181,-0.030,-0.256,0.134
0.291,0.271,0.290,0.280,-0.054,0.124,-0.050,0.614,0.173,0.135,-0.158,0.236
0.232,0.360,0.229,0.239,-0.009,0.122,-0.090,0.598,0.134,0.164,0.003,0.252
0.255,0.193,0.179,0.020,0.017,0.223,-0.284,0.413,-0.028,-0.110,-0.256,0.186
0.112,0.006,-0.014,0.125,-0.116,0.087,-0.476,0.407,-0.031,-0.023,-0.545,0.117
0.015,-0.041,-0.129,-0.005,-0.211,-0.186,-0.629,0.275,-0.189,-0.212,-0.546,-0.031
-0.041,-0.248,-0.017,-0.101,-0.189,-0.018,-0.376,0.145,-0.237,-0.140,-0.549,-0.092
-0.213,-0.253,-0.174,-0.223,-0.358,-0.213,-0.627,-0.093,-0.397,-0.355,-0.593,-0.187
-0.145,-0.373,-0.276,-0.198,-0.443,-0.289,-0.621,-0.046,-0.338,-0.565,-0.466,-0.333
-0.165,-0.146,-0.278,-0.254,-0.514,-0.281,-0.625,-0.193,-0.383,-0.423,-0.640,-0.195
-0.215,-0.301,-0.270,-0.290,-0.546,-0.238,-0.721,-0.092,-0.487,-0.555,-0.735,-0.295
-0.095,-0.104,0.015,-0.035,-0.325,-0.176,-0.554,0.207,-0.194,-0.370,-0.339,-0.080
-0.063,-0.120,-0.079,-0.117,-0.241,-0.197,-0.674,0.129,-0.176,-0.402,-0.420,-0.045
-0.176,-0.219,-0.252,-0.162,-0.441,-0.153,-0.695,0.057,-0.378,-0.355,-0.688,-0.260
-0.191,-0.320,-0.397,-0.325,-0.512,-0.398,-1.000,-0.086,-0.584,-0.553,-0.678,-0.328
-0.348,-0.476,-0.562,-0.498,-0.807,-0.616,-0.923,-0.315,-0.675,-0.689,-0.930,-0.488
-0.493,-0.497,-0.510,-0.512,-0.799,-0.664,-0.994,-0.255,-0.749,-0.755,-0.897,-0.473
-0.709,-0.564,-0.726,-0.620,-0.855,-0.778,-1.081,-0.464,-0.820,-0.863,-1.069,-0.685
-0.690,-0.565,-0.564,-0.517,-0.764,-0.445,-0.841,-0.292,-0.795,-0.622,-0.907,-0.557
-0.158,-0.201,-0.196,-0.212,-0.447,-0.286,-0.561,0.054,-0.518,-0.376,-0.711,-0.152
-0.349,-0.414,-0.343,-0.310,-0.566,-0.437,-0.893,-0.156,-0.518,-0.580,-0.566,-0.323
-0.321,-0.289,-0.457,-0.400,-0.516,-0.288,-0.774,-0.077,-0.458,-0.462,-0.794,-0.380
-0.145,-0.403,-0.359,-0.425,-0.521,-0.236,-0.645,-0.130,-0.577,-0.530,-0.853,-0.270
-0.258,-0.121,-0.096,-0.243,-0.488,-0.222,-0.554,0.079,-0.328,-0.320,-0.582,-0.165
-0.069,-0.177,-0.106,-0.302,-0.558,-0.122,-0.762,0.104,-0.286,-0.507,-0.722,-0.116
-0.081,-0.258,-0.324,-0.244,-0.483,-0.184,-0.683,-0.020,-0.402,-0.423,-0.660,-0.228
-0.027,-0.149,-0.052,-0.063,-0.376,-0.031,-0.617,0.127,-0.259,-0.193,-0.587,-0.103
-0.234,-0.226,-0.269,-0.289,-0.590,-0.249,-0.632,0.036,-0.446,-0.388,-0.597,-0.148
-0.067,-0.182,-0.181,-0.099,-0.389,-0.213,-0.599,0.077,-0.291,-0.311,-0.399,-0.220
-0.083,-0.194,-0.285,-0.181,-0.426,-0.174,-0.564,-0.018,-0.190,-0.211,-0.412,-0.053
-0.214,-0.153,-0.163,-0.213,-0.375,-0.134,-0.513,0.110,-0.334,-0.268,-0.511,0.021
0.036,-0.187,-0.124,-0.156,-0.500,-0.307,-0.562,0.177,-0.364,-0.128,-0.508,-0.042
-0.042,0.009,0.009,-0.045,-0.308,-0.198,-0.626,0.224,-0.300,-0.099,-0.437,0.009
0.141,0.196,0.053,0.124,-0.048,0.057,-0.445,0.396,-0.048,-0.133,-0.425,0.081
-0.044,-0.156,-0.002,-0.134,-0.119,-0.009,-0.537,0.156,-0.146,-0.258,-0.305,0.068
0.013,0.149,0.060,0.121,0.069,0.316,-0.503,0.448,-0.089,-0.034,-0.353,0.146
0.370,0.171,0.284,0.224,0.080,0.197,-0.319,0.529,-0.091,0.129,-0.173,0.149
0.149,0.185,0.227,0.223,0.037,0.215,-0.355,0.462,-0.110,0.032,-0.296,0.138
0.108,0.064,-0.049,0.157,-0.027,0.054,-0.445,0.262,-0.120,-0.048,-0.360,-0.023
0.084,0.045,0.076,-0.019,-0.099,0.108,-0.430,0.264,-0.069,-0.009,-0.444,-0.029
-0.076,-0.192,-0.172,-0.169,-0.247,-0.152,-0.636,0.244,-0.091,-0.200,-0.501,-0.087
-0.078,-0.164,-0.118,-0.147,-0.329,-0.206,-0.570,0.154,-0.223,-0.406,-0.525,-0.061
0.073,-0.140,-0.180,-0.183,-0.412,-0.265,-0.573,0.070,-0.292,-0.226,-0.590,-0.052
-0.202,-0.345,-0.326,-0.301,-0.517,-0.205,-0.822,-0.050,-0.428,-0.376,-0.763,-0.300
-0.204,-0.267,-0.253,-0.264,-0.446,-0.233,-0.633,-0.085,-0.510,-0.401,-0.659,-0.243
-0.071,-0.288,-0.171,-0.206,-0.412,-0.289,-0.715,0.014,-0.477,-0.240,-0.428,-0.022
-0.055,-0.098,-0.063,-0.020,-0.310,0.078,-0.459,0.282,-0.294,-0.054,-0.322,-0.026
0.168,0.110,0.148,0.145,-0.068,0.136,-0.363,0.432,-0.154,-0.101,-0.309,0.152
0.275,0.375,0.253,0.217,-0.047,0.234,-0.196,0.397,-0.039,0.094,-0.228,0.270
0.284,0.239,0.414,0.256,0.074,0.378,0.017,0.510,0.219,0.229,-0.057,0.410
0.401,0.521,0.503,0.425,0.228,0.284,-0.084,0.573,0.250,0.253,0.037,0.547
0.731,0.477,0.594,0.557,0.312,0.466,0.157,0.767,0.300,0.420,0.198,0.527
0.570,0.624,0.511,0.700,0.264,0.464,0.025,0.813,0.300,0.410,0.302,0.478
0.285,0.140,0.292,0.250,0.206,0.271,-0.135,0.519,-0.097,0.216,0.030,0.320
0.463,0.428,0.386,0.439,0.135,0.388,-0.064,0.739,0.200,0.337,0.084,0.466
0.351,0.498,0.413,0.390,0.316,0.398,-0.054,0.736,0.252,0.260,0.143,0.530
0.457,0.615,0.571,0.547,0.437,0.580,0.197,0.866,0.410,0.385,0.230,0.395
0.494,0.419,0.443,0.376,0.262,0.436,-0.107,0.629,0.243,0.258,0.057,0.341
0.685,0.473,0.572,0.373,0.268,0.524,0.007,0.738,0.293,0.368,0.028,0.528
0.348,0.462,0.428,0.302,0.152,0.367,-0.196,0.627,0.234,0.290,-0.182,0.405
0.276,0.244,0.257,0.193,0.049,0.261,-0.265,0.532,0.007,0.034,-0.265,0.210
0.212,0.179,0.227,0.163,0.193,0.266,-0.083,0.503,-0.013,-0.064,-0.249,0.221
0.044,0.179,-0.024,0.078,-0.200,0.091,-0.396,0.295,-0.160,-0.108,-0.329,0.071
-0.001,-0.036,0.080,0.021,-0.171,-0.074,-0.482,0.241,-0.233,-0.223,-0.362,0.068
-0.055,0.002,-0.114,-0.148,-0.302,-0.031,-0.571,0.174,-0.292,-0.224,-0.564,-0.097
0.201,0.188,-0.065,-0.005,-0.287,0.024,-0.324,0.240,-0.135,-0.146,-0.410,0.054
0.292,0.221,0.149,0.235,0.055,0.304,-0.302,0.523,-0.041,0.100,-0.196,0.430
0.314,0.412,0.299,0.365,0.054,0.332,-0.348,0.581,-0.024,0.205,-0.153,0.435
0.076,0.194,0.113,0.122,-0.115,-0.126,-0.297,0.275,-0.141,-0.003,-0.406,0.150
0.122,-0.006,0.054,0.023,-0.178,-0.184,-0.328,0.257,-0.337,-0.169,-0.286,0.172
0.055,0.027,-0.019,-0.052,-0.216,-0.134,-0.636,0.299,-0.258,-0.249,-0.277,0.126
-0.240,-0.197,-0.113,-0.245,-0.305,-0.160,-0.484,0.183,-0.393,-0.203,-0.466,-0.026
-0.086,-0.163,-0.049,-0.123,-0.253,-0.156,-0.581,0.210,-0.202,-0.221,-0.448,-0.028
0.173,0.084,0.215,0.290,0.066,0.342,-0.324,0.401,-0.060,0.103,-0.123,0.283
0.520,0.252,0.294,0.330,0.218,0.288,-0.228,0.520,0.082,0.174,-0.065,0.382
0.326,0.246,0.206,0.147,0.045,0.238,-0.363,0.526,0.125,0.226,-0.134,0.248
0.372,0.397,0.276,0.364,0.189,0.416,-0.142,0.672,0.131,0.067,0.110,0.350
0.412,0.381,0.285,0.349,0.054,0.302,0.014,0.663,0.196,0.188,-0.145,0.323
0.222,0.253,0.156,0.298,0.003,0.288,-0.202,0.437,0.083,0.132,-0.227,0.172
0.096,0.088,0.085,0.124,-0.029,0.031,-0.349,0.208,-0.157,0.067,-0.162,0.119
0.182,0.194,0.138,0.257,0.037,0.161,-0.211,0.386,0.015,-0.060,-0.216,0.210
0.385,0.481,0.362,0.553,0.326,0.485,0.033,0.630,0.158,0.257,0.102,0.393
0.339,0.338,0.429,0.408,0.184,0.347,-0.107,0.648,-0.004,0.225,-0.066,0.376
0.406,0.480,0.472,0.374,0.234,0.446,-0.076,0.650,0.412,0.339,0.031,0.361
0.321,0.167,0.298,0.308,0.055,0.194,-0.177,0.462,0.207,0.161,-0.185,0.208
0.422,0.251,0.426,0.373,0.088,0.251,-0.103,0.634,0.157,0.199,-0.013,0.400
0.238,0.344,0.270,0.265,-0.045,0.201,-0.151,0.602,0.132,-0.174,-0.223,0.336
0.053,-0.069,-0.021,-0.078,-0.293,-0.008,-0.416,0.238,-0.274,-0.303,-0.456,0.134
0.064,0.004,-0.027,0.105,-0.164,-0.038,-0.497,0.083,-0.211,-0.165,-0.348,0.025
-0.048,-0.020,0.127,0.023,-0.125,0.003,-0.503,0.271,-0.287,-0.112,-0.409,-0.033
-0.067,-0.082,-0.092,0.010,-0.370,-0.206,-0.453,0.125,-0.519,-0.277,-0.318,-0.023
-0.051,0.020,-0.057,-0.014,-0.242,-0.047,-0.479,0.216,-0.369,-0.230,-0.509,-0.032
0.110,0.199,0.029,0.098,-0.033,-0.039,-0.294,0.327,-0.175,-0.157,-0.438,0.135
0.144,0.133,0.075,0.072,-0.150,-0.146,-0.269,0.349,-0.079,0.062,-0.449,0.049
0.292,0.307,0.347,0.288,0.030,0.258,-0.185,0.491,0.024,0.130,-0.120,0.227
0.364,0.291,0.276,0.261,0.087,0.364,-0.240,0.565,0.069,0.293,-0.011,0.338
0.221,0.252,0.159,0.180,-0.017,0.144,-0.310,0.414,0.109,0.153,-0.161,0.336
0.102,0.024,0.111,0.196,-0.198,0.005,-0.574,0.287,-0.020,-0.192,-0.348,0.019
-0.018,-0.019,-0.171,0.010,-0.360,-0.113,-0.594,0.189,-0.322,-0.131,-0.338,-0.042
0.135,0.138,0.024,0.108,-0.306,0.038,-0.389,0.281,-0.172,-0.083,-0.236,0.128
0.326,0.193,0.180,0.272,0.013,0.209,-0.205,0.507,0.094,0.125,-0.011,0.261
0.094,0.011,0.075,0.076,-0.021,-0.059,-0.419,0.295,-0.187,-0.147,-0.327,0.123
0.114,0.023,0.045,0.143,-0.235,0.036,-0.416,0.300,-0.129,-0.004,-0.251,0.147
0.042,-0.113,0.136,0.040,-0.193,0.112,-0.540,0.202,-0.028,-0.119,-0.342,0.125
0.299,0.250,0.248,0.149,-0.099,0.178,-0.158,0.340,-0.023,-0.050,-0.193,0.106
0.643,0.616,0.706,0.701,0.421,0.663,0.197,0.829,0.487,0.327,0.204,0.681
0.570,0.453,0.575,0.560,0.327,0.463,0.123,0.586,0.280,0.446,0.098,0.653
0.604,0.364,0.310,0.555,0.175,0.427,-0.018,0.755,0.267,0.291,-0.037,0.477
0.117,0.197,0.167,0.257,-0.158,0.133,-0.213,0.450,0.086,0.041,-0.176,0.327
-0.058,0.003,0.002,-0.048,-0.348,-0.244,-0.740,-0.018,-0.243,-0.304,-0.508,-0.043
-0.118,-0.148,-0.027,0.014,-0.336,-0.116,-0.649,0.201,-0.256,-0.259,-0.478,-0.107
0.148,-0.035,0.055,-0.040,-0.186,-0.093,-0.393,0.212,-0.204,-0.157,-0.452,0.007
0.156,0.023,0.038,0.045,-0.088,0.066,-0.142,0.281,-0.035,0.001,-0.291,0.182
0.607,0.618,0.447,0.513,0.242,0.460,0.048,0.807,0.241,0.226,0.043,0.458
0.465,0.392,0.378,0.377,0.130,0.303,-0.183,0.546,0.208,0.182,-0.023,0.303
0.290,0.318,0.332,0.377,0.186,0.149,-0.300,0.559,0.179,-0.031,-0.074,0.474
-0.038,0.019,-0.015,-0.096,-0.295,-0.132,-0.571,0.185,-0.227,-0.075,-0.298,0.033
-0.058,-0.152,-0.130,-0.099,-0.223,-0.158,-0.427,0.261,-0.289,-0.424,-0.508,-0.221
0.064,-0.086,-0.071,-0.120,-0.276,-0.174,-0.601,0.103,-0.340,-0.227,-0.449,-0.113
-0.029,-0.185,-0.059,-0.111,-0.204,0.014,-0.580,0.106,-0.335,-0.214,-0.421,-0.057
0.180,0.045,0.188,0.138,-0.093,0.113,-0.275,0.392,-0.117,-0.055,-0.184,0.260
0.082,0.135,0.061,0.021,-0.165,0.003,-0.512,0.209,-0.172,-0.122,-0.231,0.050
0.190,0.239,0.267,0.183,0.054,0.259,-0.219,0.601,0.070,0.043,0.128,0.232
0.356,0.110,0.270,0.268,0.035,0.297,-0.241,0.375,-0.053,0.116,-0.026,0.118
-0.108,-0.006,-0.000,0.030,-0.258,-0.074,-0.538,0.266,-0.328,-0.239,-0.428,-0.012
-0.287,-0.338,-0.250,-0.292,-0.658,-0.341,-0.696,-0.040,-0.530,-0.454,-0.664,-0.229
-0.550,-0.492,-0.521,-0.503,-0.904,-0.550,-1.117,-0.314,-0.649,-0.664,-0.801,-0.423
-0.322,-0.138,-0.329,-0.297,-0.548,-0.331,-0.700,-0.012,-0.468,-0.414,-0.703,-0.177
-0.194,-0.166,-0.312,-0.356,-0.508,-0.320,-0.710,-0.192,-0.525,-0.459,-0.693,-0.204
-0.099,-0.212,-0.183,-0.117,-0.378,-0.073,-0.615,0.068,-0.383,-0.344,-0.442,-0.207
0.083,-0.016,0.036,-0.002,-0.182,-0.020,-0.381,0.259,-0.165,-0.126,-0.360,0.005
0.250,0.052,0.181,0.080,-0.098,0.100,-0.193,0.377,-0.049,-0.045,-0.224,0.148
0.129,-0.059,0.028,0.083,-0.169,0.083,-0.403,0.182,-0.240,-0.131,-0.452,0.101
0.152,-0.072,0.053,0.094,-0.124,0.050,-0.294,0.261,-0.094,-0.099,-0.339,0.157
0.293,0.230,0.223,0.147,0.008,0.210,-0.197,0.445,0.156,0.123,-0.221,0.234
0.458,0.233,0.404,0.238,0.281,0.339,-0.066,0.548,0.277,0.349,-0.081,0.353
0.479,0.431,0.569,0.342,0.208,0.383,-0.022,0.572,0.186,0.269,0.171,0.551
0.092,0.166,0.250,0.116,-0.065,0.202,-0.227,0.293,-0.041,-0.045,-0.125,0.271
0.432,0.410,0.455,0.360,0.194,0.371,-0.087,0.596,0.169,0.153,0.021,0.498
0.276,0.156,0.315,0.147,0.077,0.149,-0.270,0.488,0.004,0.121,-0.133,0.257
0.471,0.389,0.366,0.247,0.097,0.357,-0.145,0.696,0.173,0.258,0.099,0.382
0.229,0.363,0.183,0.180,-0.163,0.084,-0.191,0.601,0.053,0.070,-0.068,0.263
0.051,0.100,0.007,0.043,-0.335,-0.125,-0.517,0.327,-0.097,-0.147,-0.187,0.128
0.088,0.017,0.082,0.061,-0.086,-0.084,-0.614,0.190,-0.064,-0.107,-0.286,0.220
0.053,0.148,0.223,0.155,-0.091,0.039,-0.375,0.430,-0.064,0.115,-0.158,0.222
0.218,0.430,0.375,0.314,0.161,0.201,-0.095,0.519,0.008,0.061,-0.069,0.286
0.424,0.377,0.404,0.508,0.317,0.466,-0.077,0.623,0.178,0.240,-0.005,0.494
0.120,0.082,0.129,0.097,-0.159,0.017,-0.371,0.300,-0.116,0.007,-0.156,0.153
0.228,0.117,-0.001,0.179,-0.109,0.069,-0.368,0.330,-0.132,-0.042,-0.389,0.067
0.036,-0.216,-0.161,0.027,-0.278,-0.159,-0.582,0.116,-0.232,-0.080,-0.496,-0.062
0.089,-0.176,0.045,-0.003,-0.187,-0.064,-0.463,0.174,-0.209,-0.043,-0.270,0.090
0.013,-0.089,-0.076,-0.046,-0.314,-0.126,-0.470,0.203,-0.219,-0.242,-0.454,0.021
0.016,0.085,0.072,-0.065,-0.161,-0.079,-0.357,0.333,-0.266,-0.090,-0.224,0.176
0.010,-0.129,-0.003,-0.114,-0.237,-0.161,-0.648,0.130,-0.236,-0.335,-0.577,-0.021
-0.298,-0.407,-0.469,-0.237,-0.627,-0.432,-1.026,-0.102,-0.694,-0.575,-0.708,-0.377
-0.507,-0.412,-0.537,-0.406,-0.772,-0.451,-0.925,-0.231,-0.610,-0.647,-0.872,-0.333
-0.395,-0.245,-0.401,-0.355,-0.582,-0.375,-0.860,-0.158,-0.567,-0.480,-0.710,-0.377
-0.399,-0.428,-0.440,-0.405,-0.516,-0.405,-0.799,-0.068,-0.637,-0.526,-0.718,-0.217
-0.553,-0.648,-0.745,-0.615,-0.707,-0.593,-0.904,-0.312,-0.684,-0.852,-1.050,-0.512
-0.251,-0.238,-0.347,-0.232,-0.399,-0.202,-0.561,0.014,-0.309,-0.238,-0.572,-0.152
-0.470,-0.413,-0.483,-0.442,-0.742,-0.655,-0.934,-0.334,-0.793,-0.656,-0.838,-0.407
-0.560,-0.430,-0.599,-0.539,-0.896,-0.691,-1.043,-0.312,-0.770,-0.676,-0.934,-0.599
-0.449,-0.496,-0.585,-0.481,-0.787,-0.506,-1.030,-0.203,-0.819,-0.808,-0.921,-0.640
-0.775,-0.724,-0.613,-0.599,-0.849,-0.567,-1.104,-0.323,-0.726,-0.781,-1.082,-0.552
-0.682,-0.836,-0.816,-0.749,-1.061,-0.769,-1.257,-0.522,-0.889,-0.814,-1.201,-0.693
-0.690,-0.737,-0.994,-0.732,-0.992,-0.902,-1.199,-0.585,-0.958,-1.112,-1.059,-0.918
-0.645,-0.682,-0.724,-0.621,-0.912,-0.758,-1.057,-0.407,-0.793,-0.923,-1.045,-0.709
-0.779,-0.737,-0.778,-0.605,-1.013,-0.768,-1.129,-0.436,-0.900,-0.800,-1.029,-0.810
-0.643,-0.701,-0.764,-0.627,-0.839,-0.734,-1.234,-0.474,-0.907,-0.912,-0.921,-0.663
-0.460,-0.458,-0.463,-0.397,-0.482,-0.338,-0.822,-0.212,-0.628,-0.725,-0.748,-0.367
-0.163,-0.117,-0.251,-0.177,-0.354,-0.387,-0.704,0.061,-0.428,-0.467,-0.517,-0.184
-0.262,-0.353,-0.262,-0.235,-0.501,-0.303,-0.568,0.015,-0.538,-0.479,-0.593,-0.198
-0.208,-0.164,-0.098,-0.045,-0.349,-0.099,-0.528,0.063,-0.351,-0.263,-0.444,-0.060
-0.075,-0.090,-0.133,-0.184,-0.305,-0.161,-0.574,0.146,-0.295,-0.285,-0.480,-0.087
0.287,0.243,0.291,0.330,0.228,0.349,-0.181,0.552,0.127,0.201,0.009,0.350
0.251,0.305,0.187,0.178,0.040,0.253,-0.342,0.339,0.051,0.070,-0.230,0.125
0.182,-0.014,-0.059,0.056,-0.160,0.124,-0.510,0.246,-0.185,-0.179,-0.381,0.135
0.043,-0.021,-0.035,-0.072,-0.184,0.033,-0.393,0.188,-0.277,-0.240,-0.517,0.072
0.035,0.184,0.036,-0.047,-0.169,0.053,-0.351,0.160,-0.218,-0.124,-0.377,0.079
0.156,-0.011,-0.014,-0.073,-0.124,0.033,-0.483,0.361,-0.258,-0.252,-0.241,0.105
-0.065,-0.124,-0.071,-0.105,-0.351,-0.121,-0.603,0.137,-0.393,-0.360,-0.626,-0.084
0.194,0.158,0.147,0.064,-0.207,0.203,-0.327,0.433,-0.036,-0.118,-0.482,0.142
0.236,0.275,0.243,0.152,0.080,0.151,-0.206,0.407,-0.147,0.119,-0.281,0.291
0.373,0.427,0.466,0.431,0.309,0.489,0.104,0.708,0.329,0.322,0.135,0.430
0.266,0.329,0.236,0.255,0.008,0.320,-0.131,0.543,0.123,0.249,-0.073,0.336
0.159,0.243,0.264,0.260,0.083,0.153,-0.268,0.406,0.026,0.124,-0.064,0.258
-0.011,0.027,0.038,0.030,-0.051,0.137,-0.394,0.126,-0.076,-0.149,-0.162,0.175
0.229,0.266,0.111,0.212,-0.036,0.356,-0.229,0.459,-0.049,0.065,-0.159,0.333
0.400,0.434,0.286,0.279,0.139,0.420,-0.174,0.604,0.107,0.177,-0.039,0.327
0.431,0.500,0.340,0.395,0.159,0.479,-0.249,0.563,0.275,0.166,-0.038,0.364
0.441,0.506,0.373,0.404,0.296,0.456,-0.124,0.508,0.228,0.206,0.096,0.451
0.494,0.375,0.417,0.320,0.154,0.298,-0.134,0.344,0.025,0.138,-0.197,0.332
0.028,0.011,0.139,0.150,-0.226,0.009,-0.440,0.186,-0.044,-0.064,-0.352,0.016
-0.232,-0.156,-0.161,-0.144,-0.410,-0.370,-0.713,-0.011,-0.368,-0.416,-0.640,-0.207
-0.065,-0.076,-0.047,0.008,-0.295,-0.140,-0.521,0.142,-0.256,-0.240,-0.561,0.001
-0.156,-0.224,-0.105,-0.187,-0.503,-0.096,-0.477,0.036,-0.395,-0.331,-0.528,0.049
-0.313,-0.238,-0.317,-0.214,-0.504,-0.296,-0.694,-0.062,-0.460,-0.383,-0.741,-0.199
-0.144,-0.133,-0.158,-0.165,-0.435,-0.078,-0.618,-0.007,-0.427,-0.304,-0.740,-0.083
-0.125,-0.117,-0.016,-0.035,-0.324,-0.134,-0.631,-0.035,-0.333,-0.384,-0.592,-0.135
-0.340,-0.304,-0.339,-0.345,-0.500,-0.368,-0.695,-0.174,-0.445,-0.402,-0.610,-0.285
-0.343,-0.337,-0.343,-0.330,-0.658,-0.370,-0.764,-0.149,-0.493,-0.351,-0.745,-0.355
-0.216,-0.122,-0.221,-0.116,-0.419,-0.361,-0.563,0.183,-0.534,-0.297,-0.684,-0.121
-0.045,-0.143,0.025,-0.013,-0.316,0.023,-0.513,0.340,-0.309,-0.065,-0.504,0.094
0.211,0.201,0.160,0.304,-0.050,0.205,-0.369,0.417,-0.006,0.142,-0.213,0.434
0.299,0.213,0.181,0.251,-0.152,0.142,-0.071,0.453,-0.064,0.186,-0.172,0.225
0.061,-0.057,-0.153,-0.024,-0.270,-0.114,-0.463,0.174,-0.291,-0.035,-0.241,-0.026
0.283,0.131,0.083,0.159,-0.081,0.101,-0.394,0.309,-0.072,-0.108,-0.226,0.179
0.282,0.160,0.117,0.295,-0.163,0.198,-0.330,0.404,-0.055,0.094,-0.180,0.226
0.483,0.283,0.262,0.375,0.031,0.358,-0.098,0.657,0.074,0.225,-0.090,0.360
0.480,0.173,0.384,0.465,0.074,0.374,-0.116,0.580,0.115,0.247,-0.123,0.310
0.333,0.184,0.274,0.427,0.168,0.185,-0.195,0.502,0.033,0.111,-0.297,0.428
0.545,0.507,0.558,0.685,0.478,0.684,0.051,0.740,0.396,0.322,0.151,0.603
0.670,0.712,0.779,0.724,0.451,0.661,0.030,0.908,0.492,0.504,0.329,0.667
0.594,0.576,0.659,0.736,0.401,0.742,0.099,0.884,0.423,0.453,0.395,0.691
0.827,0.594,0.666,0.662,0.313,0.661,0.040,0.825,0.543,0.406,0.284,0.729
0.579,0.632,0.565,0.540,0.410,0.537,0.134,0.859,0.360,0.252,0.187,0.685
0.660,0.433,0.493,0.585,0.263,0.549,0.137,0.766,0.311,0.515,0.146,0.722
0.428,0.399,0.351,0.470,0.203,0.412,0.145,0.751,0.181,0.204,-0.266,0.407
0.723,0.563,0.616,0.618,0.491,0.674,0.301,0.832,0.384,0.454,0.089,0.637
0.692,0.793,0.648,0.650,0.464,0.717,0.279,0.918,0.518,0.625,0.236,0.742
0.686,0.613,0.632,0.626,0.328,0.593,0.161,0.851,0.329,0.381,0.340,0.647
0.497,0.471,0.405,0.344,0.107,0.395,-0.054,0.754,0.146,0.208,0.128,0.386
0.304,0.252,0.269,0.062,-0.049,0.160,-0.204,0.569,0.053,-0.023,0.032,0.186
0.318,0.307,0.416,0.257,0.097,0.314,-0.019,0.594,0.195,0.239,0.116,0.433
0.179,0.290,0.345,0.242,0.252,0.152,-0.133,0.461,0.028,0.158,-0.055,0.315
0.317,0.289,0.216,0.122,-0.002,0.207,-0.156,0.444,-0.021,0.113,-0.189,0.340
0.436,0.313,0.321,0.288,0.103,0.300,-0.050,0.567,0.147,0.228,-0.108,0.427
0.272,0.231,0.096,0.023,-0.146,0.137,-0.423,0.269,-0.158,0.081,-0.118,0.074
0.122,-0.021,0.013,0.121,-0.233,-0.018,-0.570,0.170,-0.133,-0.065,-0.351,-0.040
0.251,0.115,0.048,0.129,-0.218,0.174,-0.350,0.319,-0.020,-0.114,-0.314,0.265
0.284,0.202,0.072,0.213,-0.053,0.082,-0.136,0.459,0.038,0.025,-0.092,0.273
0.120,0.134,0.122,0.108,-0.137,0.002,-0.418,0.354,-0.168,-0.071,-0.337,0.144
0.253,0.190,0.260,0.093,0.029,0.223,-0.280,0.487,0.040,-0.031,-0.145,0.322
0.091,0.079,0.027,-0.088,-0.172,0.034,-0.607,0.238,-0.162,-0.249,-0.290,-0.077
0.261,0.112,0.201,0.011,0.073,0.237,-0.298,0.360,-0.094,0.094,-0.184,0.083
0.431,0.346,0.352,0.397,0.238,0.323,-0.141,0.736,0.169,0.359,0.069,0.356
0.480,0.497,0.345,0.455,0.329,0.550,0.010,0.677,0.248,0.467,0.136,0.493
0.664,0.438,0.575,0.408,0.307,0.442,-0.058,0.704,0.179,0.229,0.031,0.614
0.734,0.636,0.552,0.502,0.345,0.459,0.118,0.842,0.415,0.391,0.194,0.455
0.575,0.723,0.724,0.729,0.449,0.670,0.137,0.887,0.497,0.607,0.347,0.802
0.570,0.779,0.737,0.782,0.477,0.741,0.213,1.144,0.434,0.761,0.512,0.797
0.683,0.577,0.644,0.594,0.364,0.547,-0.092,0.854,0.391,0.515,0.191,0.666
0.561,0.617,0.502,0.565,0.123,0.502,0.149,0.814,0.383,0.379,0.313,0.497
0.578,0.890,0.631,0.686,0.434,0.668,0.250,0.960,0.479,0.505,0.396,0.661
0.858,0.781,0.717,0.779,0.536,0.710,0.302,1.110,0.483,0.511,0.422,0.818
0.490,0.345,0.332,0.439,0.208,0.424,-0.066,0.698,0.095,0.199,-0.048,0.421
0.467,0.388,0.375,0.393,0.119,0.393,-0.100,0.574,0.049,0.322,0.001,0.431
0.533,0.464,0.452,0.441,0.188,0.437,-0.075,0.746,0.210,0.265,0.108,0.555
0.468,0.329,0.389,0.358,-0.005,0.443,-0.090,0.586,0.118,0.033,0.053,0.506
0.468,0.462,0.360,0.443,0.299,0.491,0.004,0.596,0.311,0.350,-0.046,0.500
0.498,0.419,0.374,0.448,0.252,0.366,0.021,0.611,0.206,0.250,0.147,0.464
0.665,0.663,0.531,0.613,0.369,0.533,0.062,0.757,0.530,0.420,0.148,0.581
0.579,0.388,0.419,0.487,0.392,0.346,-0.004,0.751,0.327,0.366,0.145,0.512
0.498,0.355,0.338,0.292,0.089,0.354,-0.112,0.678,0.153,0.091,0.017,0.387
0.452,0.354,0.383,0.421,0.245,0.402,-0.278,0.612,0.158,0.273,0.048,0.381
0.332,0.298,0.295,0.392,0.102,0.372,-0.198,0.635,0.237,0.241,0.033,0.351
0.435,0.344,0.402,0.337,0.035,0.193,-0.277,0.561,0.056,0.191,0.062,0.383
0.549,0.524,0.505,0.430,0.148,0.331,-0.082,0.676,0.147,0.364,0.143,0.487
0.445,0.344,0.358,0.442,0.264,0.331,-0.077,0.518,0.184,0.242,0.012,0.437
0.601,0.825,0.625,0.693,0.375,0.658,0.129,0.810,0.494,0.565,0.226,0.586
0.330,0.490,0.472,0.499,0.311,0.434,0.016,0.644,0.135,0.320,0.114,0.466
0.277,0.221,0.361,0.219,0.175,0.470,-0.068,0.515,0.071,0.320,0.102,0.467
0.487,0.442,0.491,0.462,0.237,0.368,-0.020,0.539,0.210,0.195,0.071,0.418
-0.003,-0.030,0.075,0.025,-0.301,0.105,-0.412,0.329,-0.148,-0.009,-0.485,0.073
0.202,0.148,0.098,0.154,-0.220,0.113,-0.270,0.361,-0.041,-0.000,-0.308,0.230
0.447,0.397,0.272,0.320,0.077,0.325,-0.088,0.554,0.125,0.174,-0.113,0.412
0.090,-0.020,0.111,0.035,-0.174,-0.084,-0.554,0.268,-0.117,-0.193,-0.298,0.046
0.040,-0.093,0.069,-0.021,-0.168,0.011,-0.507,0.234,-0.148,-0.233,-0.476,-0.016
-0.070,0.068,-0.031,0.033,-0.216,0.007,-0.520,0.245,-0.141,-0.046,-0.347,-0.019
-0.154,-0.059,-0.133,-0.234,-0.343,-0.028,-0.691,0.116,-0.359,-0.197,-0.643,-0.125
0.147,-0.054,0.138,0.088,-0.301,-0.081,-0.361,0.364,-0.113,-0.066,-0.296,0.144
0.044,0.038,-0.026,0.135,-0.051,0.072,-0.201,0.282,-0.179,-0.124,-0.361,0.075
0.211,0.110,0.264,0.248,-0.014,0.246,-0.275,0.344,-0.116,-0.088,-0.295,0.285
0.313,0.319,0.392,0.227,0.162,0.284,-0.015,0.481,0.240,0.008,0.036,0.407
0.480,0.443,0.517,0.415,0.151,0.460,0.097,0.599,0.260,0.163,-0.017,0.548
0.194,0.007,0.165,0.177,0.018,0.162,-0.329,0.350,-0.049,0.059,-0.343,0.194
0.314,0.257,0.242,0.323,0.050,0.161,-0.163,0.500,0.099,0.106,-0.069,0.220
-0.003,0.010,0.007,0.071,-0.138,-0.059,-0.378,0.217,-0.278,-0.120,-0.499,-0.086
-0.030,-0.102,0.136,0.026,-0.146,-0.012,-0.488,0.217,-0.406,0.022,-0.313,0.083
0.268,0.244,0.267,0.272,0.149,0.392,-0.124,0.588,0.074,0.172,-0.055,0.299
0.393,0.339,0.281,0.305,0.311,0.480,-0.231,0.548,0.143,0.192,-0.036,0.266
0.333,0.536,0.319,0.351,0.262,0.315,-0.139,0.532,0.194,0.246,-0.010,0.375
0.290,0.386,0.269,0.220,0.063,0.243,-0.110,0.391,0.081,0.126,-0.032,0.144
0.354,0.233,0.226,0.224,0.073,0.307,-0.345,0.503,0.070,0.009,0.039,0.241
0.440,0.417,0.431,0.467,0.191,0.426,-0.093,0.796,0.256,0.135,0.038,0.530
0.393,0.245,0.304,0.353,-0.017,0.404,-0.123,0.585,0.139,0.106,-0.202,0.248
0.221,0.212,0.245,0.276,0.012,0.220,-0.321,0.511,0.010,-0.029,-0.219,0.208
0.018,0.106,0.047,0.069,-0.052,0.245,-0.450,0.250,-0.049,0.014,-0.309,0.061
0.085,0.132,0.143,0.080,-0.113,0.241,-0.372,0.382,-0.076,0.007,-0.116,0.141
0.625,0.280,0.353,0.354,0.125,0.469,-0.020,0.655,0.159,0.209,-0.135,0.425
0.433,0.456,0.419,0.326,0.148,0.365,-0.026,0.687,0.106,0.319,-0.077,0.435
0.603,0.518,0.521,0.563,0.314,0.503,0.051,0.789,0.227,0.228,-0.019,0.544
0.436,0.424,0.392,0.400,0.217,0.311,-0.122,0.644,0.037,0.132,0.026,0.396
0.420,0.200,0.258,0.400,0.123,0.331,-0.071,0.633,0.161,0.270,-0.189,0.308
0.294,0.019,0.144,0.090,-0.043,0.188,-0.347,0.434,-0.047,0.072,-0.306,0.210
0.087,0.240,0.165,0.273,-0.029,0.086,-0.179,0.425,-0.047,0.144,-0.208,0.250
0.108,0.167,0.232,0.187,-0.043,0.074,-0.218,0.369,-0.017,0.075,-0.338,0.134
0.236,0.266,0.251,0.218,-0.017,0.118,-0.211,0.316,0.057,0.102,-0.189,0.134
0.260,0.241,0.333,0.279,0.062,0.216,-0.139,0.546,0.095,0.023,-0.152,0.214
0.192,0.120,0.240,0.183,0.089,0.269,-0.320,0.596,0.181,0.102,-0.070,0.095
0.377,0.286,0.268,0.243,0.171,0.374,-0.146,0.607,0.202,0.131,-0.194,0.215
0.138,0.103,0.024,0.047,-0.194,0.179,-0.490,0.364,-0.170,-0.096,-0.246,0.121
0.122,0.213,0.080,0.013,-0.072,0.040,-0.332,0.370,-0.183,0.128,-0.065,0.237
0.286,0.448,0.242,0.274,-0.013,0.158,-0.225,0.525,0.187,0.085,-0.039,0.310
0.624,0.577,0.523,0.460,0.259,0.547,0.127,0.816,0.409,0.338,0.162,0.465
0.615,0.460,0.617,0.623,0.221,0.509,0.108,0.825,0.467,0.384,0.121,0.606
0.515,0.405,0.353,0.384,0.212,0.331,-0.115,0.472,0.026,0.164,0.118,0.416
0.522,0.369,0.503,0.461,0.171,0.462,0.122,0.679,0.198,0.274,0.016,0.464
0.206,0.239,0.211,0.327,-0.078,0.179,-0.323,0.398,-0.030,0.022,-0.257,0.348
-0.055,-0.014,-0.077,0.053,-0.419,-0.069,-0.538,0.260,-0.193,-0.267,-0.369,-0.022
0.001,0.066,0.141,0.054,-0.183,0.018,-0.487,0.258,-0.025,-0.068,-0.300,0.186
-0.129,0.016,0.006,0.078,-0.232,-0.042,-0.501,0.165,-0.240,-0.178,-0.274,-0.018
0.114,0.130,0.009,0.192,-0.132,0.094,-0.317,0.312,-0.303,-0.104,-0.253,0.085
0.321,0.237,0.256,0.149,-0.003,0.196,-0.395,0.390,-0.033,0.051,-0.131,0.243
0.357,0.400,0.379,0.346,0.158,0.269,-0.304,0.599,0.149,0.261,-0.089,0.292
0.420,0.257,0.232,0.188,-0.005,0.340,-0.154,0.459,0.168,0.137,-0.154,0.377
0.519,0.245,0.424,0.383,0.202,0.180,-0.022,0.609,0.171,0.182,-0.023,0.392
0.367,0.231,0.313,0.289,0.035,0.011,-0.096,0.569,0.159,0.098,-0.042,0.346
0.099,0.037,-0.021,0.105,0.002,0.075,-0.221,0.346,-0.116,-0.099,-0.264,0.179
0.168,0.016,-0.053,0.015,-0.250,0.087,-0.527,0.358,-0.161,-0.195,-0.314,0.092
0.280,0.261,0.259,0.282,0.069,0.216,-0.162,0.556,0.108,0.097,-0.014,0.330
0.138,0.260,0.225,0.223,-0.104,0.105,-0.264,0.509,0.022,-0.042,-0.152,0.227
0.250,0.193,0.224,0.140,-0.057,0.122,-0.249,0.427,0.042,0.110,-0.243,0.150
0.053,0.072,-0.135,-0.092,-0.450,-0.127,-0.489,0.240,-0.102,-0.223,-0.428,0.055
-0.212,-0.216,-0.092,-0.276,-0.355,-0.168,-0.793,0.078,-0.381,-0.316,-0.428,-0.083
-0.190,-0.063,-0.029,-0.163,-0.225,-0.051,-0.647,0.220,-0.397,-0.220,-0.427,0.001
-0.151,-0.207,-0.173,-0.133,-0.346,-0.157,-0.657,0.110,-0.357,-0.225,-0.450,-0.073
0.056,0.127,-0.040,-0.141,-0.193,0.120,-0.399,0.222,-0.274,-0.098,-0.337,0.037
0.421,0.368,0.346,0.280,0.212,0.311,-0.071,0.722,0.105,0.262,-0.216,0.436
0.173,0.108,0.094,-0.024,-0.168,-0.097,-0.485,0.377,-0.258,-0.180,-0.302,0.142
-0.184,-0.282,-0.189,-0.203,-0.360,-0.163,-0.707,0.002,-0.559,-0.267,-0.604,-0.035
-0.119,-0.098,0.002,-0.145,-0.150,-0.173,-0.520,0.151,-0.324,-0.154,-0.313,-0.097
-0.050,0.064,-0.003,0.097,-0.087,-0.052,-0.477,0.321,-0.202,-0.049,-0.371,0.107
0.006,-0.114,0.149,0.033,-0.259,-0.065,-0.491,0.280,-0.214,-0.094,-0.262,-0.004
-0.145,-0.006,0.037,0.016,-0.078,0.002,-0.388,0.288,-0.180,-0.128,-0.337,0.158
0.292,0.271,0.274,0.254,0.069,0.150,-0.268,0.401,0.046,0.011,-0.059,0.291
0.321,0.248,0.267,0.185,0.008,0.289,-0.212,0.536,0.058,-0.044,-0.209,0.320
0.485,0.236,0.246,0.313,0.055,0.121,-0.131,0.519,0.044,0.178,-0.124,0.379
0.296,0.259,0.211,0.338,-0.083,0.178,-0.256,0.464,-0.162,0.017,-0.101,0.323
0.199,0.079,0.106,0.129,-0.247,0.293,-0.543,0.378,-0.084,-0.109,-0.351,0.114
0.063,0.229,0.123,0.296,-0.128,0.130,-0.369,0.418,-0.001,0.029,-0.286,0.233
0.220,-0.012,0.129,-0.013,-0.163,0.128,-0.453,0.240,-0.166,-0.057,-0.390,0.066
0.131,0.165,0.053,0.071,-0.156,0.106,-0.465,0.305,-0.114,0.002,-0.152,0.081
0.153,0.282,0.220,0.071,-0.069,0.108,-0.254,0.467,-0.118,0.019,-0.136,0.100
0.221,0.167,0.134,0.180,-0.098,0.112,-0.376,0.397,-0.107,-0.058,-0.297,0.117
0.158,0.212,0.159,0.163,0.030,0.284,-0.188,0.414,-0.108,0.003,-0.258,0.200
0.267,0.150,0.252,0.142,0.032,0.213,-0.302,0.381,-0.058,0.102,-0.197,0.321
0.518,0.541,0.495,0.472,0.266,0.537,-0.141,0.835,0.378,0.393,-0.005,0.712
0.523,0.459,0.381,0.554,0.347,0.575,-0.017,0.812,0.324,0.306,0.251,0.396
0.676,0.535,0.550,0.607,0.368,0.544,0.027,0.713,0.230,0.394,0.182,0.714
0.805,0.742,0.774,0.780,0.679,0.768,0.369,1.055,0.525,0.665,0.369,1.004
0.566,0.419,0.215,0.202,0.178,0.406,0.013,0.610,0.309,0.231,0.167,0.272
0.437,0.520,0.447,0.380,0.272,0.270,0.007,0.667,0.236,0.375,0.129,0.551
0.298,0.195,0.356,0.368,0.086,0.333,-0.216,0.642,0.128,0.164,0.028,0.384
0.474,0.462,0.507,0.488,0.100,0.298,0.040,0.753,0.300,0.328,0.206,0.454
0.738,0.503,0.549,0.536,0.261,0.587,0.140,0.829,0.416,0.479,0.131,0.664
0.663,0.554,0.565,0.619,0.324,0.701,0.208,0.793,0.358,0.429,0.255,0.664
0.937,0.835,0.926,0.894,0.614,0.701,0.365,1.097,0.635,0.705,0.466,0.865
0.868,0.680,0.770,0.733,0.586,0.553,0.375,1.014,0.476,0.622,0.310,0.830
0.548,0.540,0.535,0.463,0.221,0.463,0.058,0.809,0.306,0.265,0.021,0.522
0.586,0.609,0.529,0.685,0.329,0.540,0.014,0.844,0.311,0.429,0.351,0.579
0.653,0.645,0.593,0.796,0.442,0.587,0.231,0.912,0.578,0.577,0.303,0.670
0.283,0.347,0.384,0.362,0.125,0.395,-0.071,0.700,0.177,0.215,-0.080,0.366
0.182,0.216,0.124,0.210,-0.047,0.232,-0.394,0.329,-0.157,0.030,-0.263,0.128
0.033,-0.001,-0.006,0.036,-0.184,-0.006,-0.595,0.258,-0.216,-0.071,-0.271,0.080
-0.160,-0.138,-0.185,-0.083,-0.371,-0.173,-0.592,0.096,-0.289,-0.235,-0.308,-0.140
0.035,-0.090,-0.084,-0.103,-0.428,-0.089,-0.746,0.007,-0.303,-0.314,-0.472,-0.097
0.085,-0.054,-0.028,-0.143,-0.316,-0.080,-0.611,0.187,-0.266,-0.215,-0.437,-0.101
0.099,0.147,0.210,0.119,-0.092,0.161,-0.360,0.377,-0.006,-0.126,-0.404,0.195
0.238,0.126,0.084,0.091,-0.107,-0.003,-0.241,0.211,-0.009,0.046,-0.356,0.069
0.227,0.345,0.209,0.179,-0.067,0.258,-0.206,0.463,0.075,0.045,-0.326,0.227
0.089,0.214,0.059,0.246,-0.008,0.157,-0.323,0.337,-0.076,0.081,-0.112,0.009
0.100,0.139,0.168,0.213,-0.048,0.067,-0.292,0.310,-0.052,-0.036,-0.280,0.073
0.169,0.328,0.115,0.315,-0.031,0.199,-0.203,0.428,-0.038,0.120,-0.174,0.242
0.262,0.131,0.195,0.236,0.034,0.161,-0.258,0.432,0.129,0.211,-0.231,0.219
0.196,0.259,0.156,0.112,-0.080,0.066,-0.386,0.449,-0.100,-0.111,-0.266,0.211
0.399,0.311,0.155,0.355,0.293,0.200,-0.179,0.602,0.092,0.290,-0.019,0.553
0.477,0.250,0.302,0.382,0.102,0.366,0.022,0.691,0.230,0.177,0.081,0.489
0.377,0.238,0.408,0.360,0.072,0.217,-0.087,0.589,0.102,0.167,-0.082,0.228
0.419,0.312,0.327,0.292,0.115,0.175,-0.299,0.529,-0.036,0.072,0.114,0.258
0.405,0.232,0.303,0.337,0.078,0.397,-0.100,0.511,0.039,0.108,-0.083,0.433
0.358,0.132,0.179,0.159,-0.148,0.072,-0.359,0.285,0.017,-0.058,-0.281,0.300
0.193,0.058,0.061,0.051,-0.150,0.041,-0.144,0.256,-0.202,-0.026,-0.274,0.188
