0.083,0.083,0.083,0.083,0.083,0.083,0.083,0.083,0.083,0.083,0.083,0.083
0.203,0.217,0.012,-0.045,0.112,0.091,-0.387,0.326,0.002,0.177,-0.306,0.016
0.161,0.034,0.056,-0.063,-0.232,-0.028,-0.315,0.148,-0.188,-0.174,-0.196,0.033
0.137,-0.048,-0.023,0.029,-0.237,-0.086,-0.549,0.191,-0.091,-0.056,-0.368,0.113
-0.098,-0.269,-0.124,-0.275,-0.491,-0.175,-0.687,-0.038,-0.377,-0.246,-0.543,-0.302
-0.059,-0.202,-0.148,-0.151,-0.417,-0.170,-0.691,0.098,-0.476,-0.386,-0.649,-0.217
-0.194,-0.196,-0.313,-0.380,-0.482,-0.329,-0.672,-0.066,-0.505,-0.499,-0.689,-0.287
0.094,-0.079,0.031,0.059,-0.287,-0.038,-0.420,0.053,-0.251,-0.064,-0.366,-0.020
0.389,0.247,0.321,0.293,0.061,0.224,-0.042,0.551,0.162,0.213,-0.034,0.410
0.429,0.248,0.386,0.336,0.079,0.280,-0.235,0.562,0.047,0.292,-0.012,0.377
0.455,0.331,0.250,0.435,0.150,0.173,0.002,0.479,0.096,0.181,0.043,0.400
0.273,0.189,0.148,0.101,0.010,0.173,-0.186,0.332,-0.069,0.044,-0.178,0.261
0.345,0.195,0.204,0.234,-0.060,0.156,-0.210,0.404,-0.061,0.148,-0.070,0.212
0.298,0.229,0.112,0.125,-0.071,0.089,-0.266,0.420,-0.107,0.102,-0.134,0.232
0.160,0.220,0.108,0.153,-0.118,0.119,-0.433,0.359,0.002,-0.003,-0.137,0.175
0.003,0.095,0.078,-0.054,-0.048,0.117,-0.449,0.416,-0.215,-0.151,-0.167,0.205
-0.305,-0.296,-0.189,-0.448,-0.392,-0.363,-0.741,-0.118,-0.591,-0.532,-0.694,-0.280
-0.361,-0.462,-0.470,-0.451,-0.565,-0.644,-0.904,-0.303,-0.688,-0.617,-0.822,-0.356
-0.398,-0.357,-0.436,-0.339,-0.783,-0.428,-0.822,-0.328,-0.743,-0.476,-0.824,-0.342
-0.523,-0.638,-0.776,-0.620,-0.866,-0.679,-1.153,-0.376,-0.836,-0.675,-1.026,-0.582
-0.370,-0.543,-0.454,-0.504,-0.669,-0.393,-1.063,-0.173,-0.688,-0.548,-0.801,-0.421
-0.393,-0.441,-0.340,-0.406,-0.631,-0.426,-0.885,-0.167,-0.608,-0.515,-0.819,-0.311
-0.630,-0.610,-0.464,-0.400,-0.811,-0.601,-0.871,-0.224,-0.912,-0.692,-0.971,-0.520
-0.831,-0.663,-0.631,-0.684,-0.927,-0.599,-1.365,-0.428,-0.907,-0.893,-1.090,-0.707
-0.891,-0.875,-0.953,-0.824,-1.054,-0.947,-1.431,-0.640,-1.012,-1.054,-1.428,-0.953
-0.515,-0.641,-0.530,-0.563,-0.719,-0.453,-0.918,-0.341,-0.752,-0.648,-0.911,-0.529
-0.420,-0.522,-0.444,-0.450,-0.607,-0.537,-0.947,-0.112,-0.579,-0.468,-0.765,-0.384
-0.294,-0.201,-0.286,-0.180,-0.340,-0.170,-0.758,0.001,-0.333,-0.419,-0.679,-0.091
-0.412,-0.343,-0.421,-0.354,-0.632,-0.389,-0.916,-0.176,-0.584,-0.628,-0.867,-0.400
-0.173,-0.259,-0.322,-0.292,-0.641,-0.447,-0.676,0.074,-0.492,-0.449,-0.720,-0.206
-0.202,-0.161,-0.187,-0.206,-0.451,-0.417,-0.650,0.005,-0.501,-0.380,-0.632,-0.183
-0.113,-0.206,-0.118,-0.153,-0.476,-0.185,-0.607,0.093,-0.460,-0.437,-0.660,-0.182
0.019,-0.123,0.065,0.009,-0.316,-0.039,-0.473,0.058,-0.320,-0.195,-0.558,-0.067
-0.016,-0.070,-0.120,-0.083,-0.389,-0.121,-0.614,0.054,-0.136,-0.242,-0.530,-0.050
0.076,0.058,-0.042,0.064,-0.161,-0.057,-0.415,0.348,-0.250,-0.115,-0.288,-0.020
0.090,0.002,-0.059,-0.001,-0.269,0.021,-0.512,0.352,-0.152,-0.041,-0.386,0.068
0.161,0.279,0.194,0.271,0.014,0.192,-0.194,0.481,-0.195,0.285,-0.183,0.308
0.319,0.397,0.250,0.228,0.050,0.213,-0.202,0.421,0.087,0.320,0.007,0.366
0.120,0.359,0.117,0.181,-0.011,0.204,-0.189,0.461,-0.006,0.250,-0.093,0.415
0.501,0.266,0.159,0.105,-0.022,0.237,-0.266,0.496,-0.050,0.163,-0.107,0.327
0.220,0.166,0.054,0.200,-0.105,0.002,-0.370,0.333,0.021,-0.155,-0.256,0.148
-0.070,0.031,0.102,0.060,-0.182,0.021,-0.617,0.196,-0.065,-0.246,-0.461,0.144
0.131,0.170,0.094,0.191,0.007,0.190,-0.365,0.416,0.101,-0.027,-0.334,0.209
0.263,0.356,0.388,0.260,0.088,0.256,-0.107,0.697,0.062,0.165,-0.040,0.475
0.152,0.265,0.398,0.155,0.027,0.098,-0.264,0.423,-0.032,0.221,-0.248,0.366
0.086,0.302,0.282,0.215,0.054,0.152,-0.225,0.408,-0.124,0.081,-0.179,0.301
0.094,-0.010,-0.008,0.038,-0.229,0.056,-0.448,0.257,-0.152,-0.148,-0.401,0.057
0.238,0.313,0.211,0.267,0.137,0.225,-0.190,0.477,-0.014,0.131,-0.042,0.264
0.158,0.063,0.105,0.204,0.101,0.217,-0.228,0.402,-0.142,0.176,-0.100,0.072
0.209,0.220,0.110,0.171,-0.110,0.127,-0.254,0.343,0.002,0.020,-0.282,0.176
0.034,0.072,0.145,0.144,-0.144,0.136,-0.269,0.365,-0.032,-0.141,-0.359,0.132
0.116,-0.039,-0.078,0.033,-0.158,0.064,-0.470,0.203,-0.128,-0.190,-0.388,-0.035
-0.292,-0.438,-0.335,-0.413,-0.695,-0.521,-0.702,-0.151,-0.570,-0.648,-0.760,-0.338
-0.380,-0.345,-0.496,-0.405,-0.706,-0.401,-0.962,-0.210,-0.616,-0.606,-0.773,-0.432
-0.574,-0.462,-0.495,-0.542,-0.689,-0.596,-1.015,-0.428,-0.723,-0.648,-0.872,-0.550
-0.606,-0.589,-0.636,-0.559,-0.727,-0.559,-1.169,-0.404,-0.787,-0.746,-0.883,-0.463
-0.446,-0.280,-0.464,-0.373,-0.607,-0.419,-0.898,-0.202,-0.616,-0.572,-0.683,-0.374
-0.296,-0.203,-0.348,-0.338,-0.499,-0.327,-0.759,-0.025,-0.564,-0.498,-0.747,-0.228
-0.274,-0.376,-0.297,-0.392,-0.514,-0.390,-0.778,-0.050,-0.585,-0.459,-0.726,-0.240
-0.542,-0.268,-0.468,-0.437,-0.506,-0.414,-0.860,-0.183,-0.560,-0.647,-0.746,-0.308
-0.521,-0.637,-0.768,-0.582,-0.892,-0.745,-0.970,-0.393,-0.921,-0.778,-0.952,-0.484
-0.580,-0.843,-0.763,-0.686,-0.927,-0.697,-1.140,-0.457,-0.940,-0.895,-0.979,-0.676
-0.388,-0.238,-0.588,-0.410,-0.593,-0.419,-0.938,-0.231,-0.733,-0.607,-0.795,-0.343
-0.451,-0.341,-0.555,-0.440,-0.680,-0.555,-0.908,-0.217,-0.557,-0.691,-0.860,-0.431
-0.761,-0.549,-0.604,-0.629,-0.840,-0.754,-1.158,-0.429,-0.807,-0.745,-0.972,-0.435
-0.782,-0.799,-0.811,-0.787,-1.141,-0.815,-1.193,-0.564,-0.948,-0.959,-1.212,-0.588
-0.583,-0.830,-0.664,-0.628,-1.026,-0.769,-1.135,-0.419,-0.887,-0.719,-1.077,-0.673
-0.239,-0.458,-0.481,-0.390,-0.688,-0.607,-0.832,-0.261,-0.758,-0.511,-0.814,-0.502
-0.208,-0.242,-0.208,-0.326,-0.531,-0.319,-0.656,-0.062,-0.469,-0.384,-0.750,-0.440
-0.107,-0.260,-0.092,-0.193,-0.374,-0.190,-0.760,0.056,-0.476,-0.443,-0.649,-0.130
-0.111,-0.074,-0.214,-0.080,-0.447,-0.030,-0.473,0.193,-0.394,-0.285,-0.484,-0.215
0.013,-0.005,0.094,0.140,-0.157,0.036,-0.304,0.352,-0.262,-0.114,-0.260,0.074
-0.015,-0.153,-0.084,-0.075,-0.197,-0.129,-0.421,0.203,-0.303,-0.159,-0.622,-0.082
-0.098,-0.177,-0.173,-0.101,-0.269,-0.116,-0.539,0.054,-0.269,-0.399,-0.683,-0.240
0.054,-0.013,-0.044,-0.025,-0.150,0.038,-0.518,0.214,-0.184,-0.185,-0.430,0.045
0.037,-0.197,-0.094,-0.087,-0.249,0.021,-0.398,0.193,-0.347,-0.034,-0.463,-0.018
0.011,-0.073,-0.061,-0.070,-0.299,-0.080,-0.621,0.200,-0.267,-0.264,-0.432,0.003
0.246,0.082,0.191,0.082,-0.147,0.103,-0.471,0.296,-0.082,0.049,-0.296,0.033
0.229,0.268,0.152,0.099,-0.006,0.061,-0.348,0.320,-0.075,0.016,-0.233,0.122
-0.179,-0.210,-0.200,-0.232,-0.277,-0.228,-0.640,-0.093,-0.472,-0.226,-0.644,-0.293
0.050,-0.112,-0.058,-0.139,-0.281,-0.190,-0.494,0.145,-0.395,-0.286,-0.352,-0.056
0.032,-0.104,0.052,-0.020,-0.159,0.046,-0.349,0.159,-0.081,-0.236,-0.165,0.050
0.250,0.284,0.103,0.284,0.002,0.117,-0.256,0.499,-0.006,-0.067,-0.070,0.210
0.209,0.313,0.257,0.254,-0.044,0.174,-0.090,0.542,0.070,0.046,0.026,0.332
0.521,0.418,0.335,0.450,0.097,0.395,-0.205,0.659,0.152,0.090,-0.013,0.515
0.385,0.277,0.324,0.402,0.210,0.326,-0.022,0.657,0.155,0.270,0.099,0.395
0.404,0.470,0.440,0.404,0.170,0.383,0.006,0.603,0.141,0.255,-0.111,0.440
0.635,0.553,0.548,0.586,0.303,0.371,0.098,0.756,0.264,0.312,0.313,0.538
0.762,0.593,0.609,0.585,0.403,0.575,0.266,0.765,0.384,0.415,0.266,0.639
0.612,0.607,0.462,0.346,0.194,0.364,-0.059,0.706,0.218,0.168,0.088,0.429
0.574,0.417,0.383,0.453,0.262,0.428,-0.072,0.655,0.295,0.232,0.055,0.401
0.572,0.440,0.477,0.582,0.154,0.490,0.123,0.811,0.280,0.286,0.101,0.658
0.364,0.257,0.257,0.305,0.088,0.346,0.004,0.559,0.072,0.006,-0.109,0.323
0.142,0.237,0.143,0.206,0.085,0.162,-0.237,0.423,0.078,-0.086,-0.231,0.291
0.060,0.189,0.158,0.031,0.033,0.113,-0.387,0.344,-0.045,-0.074,-0.316,0.197
-0.034,-0.128,-0.090,-0.071,-0.330,-0.093,-0.578,0.158,-0.321,-0.188,-0.671,-0.013
0.002,-0.122,-0.102,-0.032,-0.401,-0.224,-0.453,0.115,-0.374,-0.179,-0.375,-0.072
-0.252,-0.229,-0.284,-0.204,-0.550,-0.316,-0.732,-0.018,-0.603,-0.488,-0.701,-0.310
-0.187,-0.118,-0.222,-0.120,-0.500,-0.276,-0.573,0.019,-0.479,-0.311,-0.405,-0.292
-0.010,-0.070,-0.066,-0.185,-0.348,0.037,-0.635,0.065,-0.366,-0.081,-0.427,-0.070
-0.155,-0.280,-0.242,-0.265,-0.622,-0.184,-0.768,-0.034,-0.343,-0.328,-0.801,-0.131
-0.392,-0.402,-0.465,-0.352,-0.642,-0.442,-0.946,-0.230,-0.646,-0.522,-0.923,-0.379
-0.426,-0.503,-0.506,-0.437,-0.625,-0.595,-1.089,-0.304,-0.645,-0.649,-0.869,-0.428
-0.167,-0.279,-0.084,-0.153,-0.333,-0.137,-0.741,0.032,-0.399,-0.305,-0.693,-0.060
-0.053,-0.220,-0.021,-0.223,-0.230,-0.057,-0.463,0.157,-0.345,-0.173,-0.565,-0.089
-0.013,-0.084,0.025,-0.114,-0.315,-0.209,-0.593,0.104,-0.411,-0.248,-0.581,0.059
-0.112,-0.200,-0.234,-0.245,-0.477,-0.419,-0.823,0.050,-0.514,-0.331,-0.693,-0.175
-0.080,-0.092,-0.120,-0.210,-0.456,-0.181,-0.746,0.035,-0.435,-0.426,-0.641,-0.192
-0.123,-0.180,-0.017,-0.158,-0.285,-0.189,-0.673,0.028,-0.358,-0.329,-0.407,-0.129
-0.035,-0.006,0.045,0.045,-0.064,0.006,-0.490,0.317,-0.221,-0.105,-0.467,-0.147
0.193,0.075,0.207,0.053,-0.088,0.000,-0.412,0.324,-0.095,-0.118,-0.294,0.109
0.126,0.023,0.056,0.066,-0.104,0.018,-0.482,0.341,-0.231,-0.145,-0.346,0.151
0.014,-0.077,-0.116,-0.017,-0.280,-0.121,-0.555,0.127,-0.291,-0.252,-0.421,-0.069
0.036,-0.237,-0.096,-0.120,-0.352,-0.312,-0.578,0.012,-0.372,-0.316,-0.639,-0.110
-0.134,-0.253,-0.078,-0.047,-0.399,-0.067,-0.687,0.072,-0.367,-0.234,-0.481,-0.142
0.173,-0.041,0.055,0.084,-0.187,0.091,-0.367,0.313,-0.207,-0.042,-0.396,0.121
-0.123,-0.326,-0.408,-0.160,-0.373,-0.235,-0.723,-0.021,-0.467,-0.445,-0.601,-0.180
-0.133,-0.324,-0.262,-0.216,-0.448,-0.340,-0.829,-0.090,-0.508,-0.356,-0.724,-0.193
-0.494,-0.394,-0.429,-0.459,-0.690,-0.462,-0.874,-0.222,-0.598,-0.664,-0.833,-0.373
-0.594,-0.483,-0.573,-0.620,-0.849,-0.705,-1.117,-0.509,-0.892,-0.844,-1.025,-0.684
-0.478,-0.460,-0.482,-0.455,-0.759,-0.546,-0.917,-0.269,-0.832,-0.475,-0.983,-0.423
-0.402,-0.633,-0.530,-0.546,-0.830,-0.487,-1.074,-0.326,-0.743,-0.636,-0.996,-0.509
-0.419,-0.514,-0.512,-0.604,-0.837,-0.539,-1.099,-0.274,-0.629,-0.538,-0.946,-0.440
-0.380,-0.438,-0.432,-0.402,-0.677,-0.459,-0.863,-0.137,-0.627,-0.614,-0.780,-0.469
-0.587,-0.520,-0.488,-0.485,-0.697,-0.522,-0.991,-0.324,-0.713,-0.569,-0.935,-0.384
-0.307,-0.324,-0.365,-0.382,-0.695,-0.408,-1.015,-0.193,-0.555,-0.373,-0.638,-0.461
0.189,0.006,-0.007,0.104,-0.149,-0.038,-0.449,0.238,-0.266,-0.049,-0.313,0.043
0.274,0.237,0.261,0.375,0.166,0.218,-0.236,0.460,0.061,0.084,-0.072,0.235
0.504,0.454,0.542,0.534,0.419,0.499,-0.081,0.805,0.367,0.392,0.215,0.473
0.208,0.147,0.127,0.223,0.076,0.103,-0.326,0.396,0.007,0.064,-0.236,0.282
0.249,0.125,0.080,0.204,-0.173,0.179,-0.382,0.403,0.037,0.149,-0.151,0.268
0.233,0.158,0.183,0.310,0.136,0.181,-0.291,0.569,0.105,0.058,-0.255,0.236
0.344,0.323,0.313,0.384,0.045,0.378,-0.116,0.455,-0.137,0.302,-0.156,0.298
0.432,0.314,0.289,0.300,0.046,0.254,-0.247,0.492,0.021,0.236,0.026,0.378
0.092,0.141,0.074,0.019,-0.114,0.063,-0.431,0.252,-0.227,-0.160,-0.139,0.021
0.199,0.214,0.167,0.267,0.015,0.194,-0.296,0.406,0.011,0.076,-0.075,0.220
0.232,0.223,0.160,0.229,-0.067,0.025,-0.297,0.408,-0.068,0.006,-0.389,0.215
-0.338,-0.311,-0.396,-0.488,-0.710,-0.457,-0.950,-0.239,-0.646,-0.603,-0.815,-0.430
-0.539,-0.598,-0.551,-0.499,-0.802,-0.572,-0.977,-0.275,-0.818,-0.685,-0.966,-0.497
-0.346,-0.511,-0.378,-0.372,-0.637,-0.438,-0.789,-0.090,-0.757,-0.546,-0.754,-0.446
-0.271,-0.357,-0.269,-0.280,-0.476,-0.284,-0.866,-0.017,-0.447,-0.517,-0.688,-0.419
-0.303,-0.416,-0.564,-0.388,-0.614,-0.470,-0.872,-0.360,-0.671,-0.687,-0.864,-0.482
-0.282,-0.443,-0.466,-0.394,-0.638,-0.310,-0.796,-0.045,-0.698,-0.624,-0.835,-0.341
0.004,0.013,-0.106,-0.041,-0.205,0.003,-0.392,0.139,-0.454,-0.230,-0.547,0.046
0.011,-0.185,-0.185,-0.123,-0.233,-0.107,-0.570,0.083,-0.505,-0.278,-0.501,-0.037
0.071,-0.068,-0.200,-0.099,-0.289,-0.052,-0.716,0.080,-0.364,-0.337,-0.560,-0.044
0.103,-0.034,-0.111,-0.016,-0.282,-0.069,-0.660,0.295,-0.473,-0.300,-0.438,0.028
0.293,0.042,0.124,0.153,-0.054,0.193,-0.224,0.525,-0.072,-0.076,-0.250,0.288
0.432,0.228,0.290,0.267,-0.006,0.227,-0.196,0.575,0.019,0.089,-0.213,0.285
0.236,0.170,0.163,0.123,-0.045,0.189,-0.330,0.412,-0.058,-0.004,-0.154,0.219
0.404,0.542,0.235,0.306,0.132,0.339,-0.193,0.600,0.256,0.147,0.063,0.374
0.076,0.101,0.039,0.143,-0.088,0.166,-0.485,0.298,0.029,0.018,-0.274,0.125
0.384,0.508,0.442,0.509,0.233,0.458,-0.129,0.807,0.352,0.383,-0.071,0.405
0.493,0.530,0.378,0.377,0.177,0.420,-0.082,0.757,0.317,0.431,-0.174,0.321
0.525,0.460,0.408,0.372,0.167,0.414,-0.037,0.739,0.221,0.297,0.020,0.377
0.436,0.358,0.349,0.289,0.201,0.334,-0.115,0.574,-0.014,0.178,-0.055,0.405
0.284,0.322,0.389,0.285,0.035,0.344,-0.133,0.643,0.163,0.048,0.024,0.442
0.438,0.569,0.493,0.490,0.194,0.398,-0.007,0.750,0.151,0.248,0.097,0.515
0.566,0.591,0.492,0.529,0.276,0.393,0.021,0.676,0.366,0.403,-0.030,0.563
0.325,0.261,0.209,0.288,-0.013,0.167,-0.067,0.593,0.096,0.153,-0.266,0.460
0.208,0.256,0.243,0.253,-0.076,0.145,-0.255,0.373,-0.056,0.102,-0.451,0.240
0.099,-0.055,0.061,0.000,-0.255,0.049,-0.494,0.343,-0.367,0.006,-0.374,0.144
0.168,0.217,0.100,0.184,-0.143,0.217,-0.308,0.517,0.018,0.013,-0.292,0.266
0.273,0.167,0.189,0.244,-0.092,0.129,-0.258,0.511,-0.030,0.032,-0.184,0.324
0.284,0.286,0.070,0.138,-0.062,0.028,-0.312,0.494,-0.081,-0.069,-0.428,0.362
0.001,0.091,0.050,0.030,-0.231,0.005,-0.432,0.385,-0.261,-0.102,-0.336,0.085
0.130,0.126,-0.004,0.056,-0.063,-0.097,-0.423,0.382,-0.074,-0.048,-0.241,0.069
0.082,0.058,0.055,0.111,-0.040,0.083,-0.303,0.296,-0.220,0.044,-0.290,0.290
0.086,0.050,0.187,0.203,-0.036,0.087,-0.473,0.334,-0.118,-0.098,-0.363,0.121
0.171,0.105,0.087,0.098,-0.151,0.115,-0.435,0.329,-0.289,-0.014,-0.360,0.030
0.102,0.095,0.169,0.171,-0.097,0.120,-0.359,0.353,-0.119,-0.019,-0.282,0.190
0.033,-0.023,-0.039,0.055,-0.216,-0.035,-0.541,0.263,-0.273,-0.249,-0.308,0.090
-0.133,-0.127,-0.128,-0.037,-0.378,-0.015,-0.645,0.209,-0.404,-0.304,-0.397,0.009
-0.191,-0.146,-0.130,-0.146,-0.444,-0.166,-0.717,0.063,-0.370,-0.303,-0.541,0.030
-0.107,-0.103,-0.037,-0.102,-0.343,-0.113,-0.495,0.170,-0.337,-0.188,-0.592,-0.016
0.076,0.030,-0.012,-0.022,-0.291,0.093,-0.441,0.175,-0.315,-0.236,-0.631,-0.140
-0.166,-0.258,-0.171,-0.095,-0.398,-0.101,-0.652,0.090,-0.383,-0.429,-0.609,-0.182
-0.020,-0.017,-0.088,0.005,-0.241,-0.090,-0.611,0.154,-0.319,-0.258,-0.374,-0.109
-0.095,-0.037,-0.086,-0.188,-0.329,-0.231,-0.529,0.072,-0.361,-0.191,-0.567,-0.072
0.265,0.022,0.182,0.087,-0.064,0.015,-0.315,0.331,-0.165,-0.128,-0.207,0.072
0.337,0.262,0.471,0.339,0.034,0.137,-0.024,0.574,0.167,0.202,-0.083,0.341
0.134,0.111,0.149,0.074,-0.271,-0.075,-0.224,0.278,-0.186,-0.143,-0.229,0.133
0.221,0.228,0.256,0.227,-0.112,0.224,-0.291,0.502,0.040,-0.027,-0.159,0.370
0.323,0.325,0.298,0.273,-0.191,0.122,-0.256,0.532,-0.081,0.027,-0.154,0.147
0.100,0.031,-0.014,0.041,-0.276,0.019,-0.376,0.300,-0.199,-0.265,-0.330,0.074
0.020,-0.029,0.024,-0.045,-0.394,0.001,-0.531,0.172,-0.182,-0.284,-0.319,0.049
-0.447,-0.374,-0.319,-0.408,-0.499,-0.357,-0.777,-0.132,-0.540,-0.680,-0.724,-0.320
-0.454,-0.575,-0.574,-0.530,-0.649,-0.532,-0.940,-0.247,-0.662,-0.664,-0.837,-0.460
-0.153,-0.208,-0.099,-0.083,-0.345,-0.272,-0.852,0.142,-0.258,-0.308,-0.582,-0.186
0.024,0.001,0.003,0.085,-0.329,-0.252,-0.603,0.207,-0.373,-0.254,-0.476,0.093
0.207,0.202,0.139,0.058,-0.023,0.002,-0.321,0.308,-0.031,-0.102,-0.269,0.233
0.295,0.189,0.208,0.220,-0.006,0.213,-0.160,0.372,-0.112,0.109,-0.140,0.315
0.376,0.356,0.302,0.394,0.075,0.208,-0.276,0.500,0.071,0.236,-0.187,0.244
0.172,0.088,0.193,0.125,-0.256,-0.033,-0.384,0.329,-0.206,-0.039,-0.434,0.079
0.088,0.108,0.247,0.259,-0.165,0.098,-0.260,0.565,0.039,0.145,-0.145,0.211
0.320,0.444,0.405,0.459,0.184,0.161,-0.214,0.615,0.099,0.228,-0.024,0.423
0.439,0.457,0.500,0.514,0.170,0.368,0.009,0.833,0.273,0.454,0.162,0.646
0.743,0.641,0.700,0.625,0.338,0.649,0.121,0.903,0.377,0.484,0.309,0.679
0.484,0.447,0.453,0.416,0.196,0.420,-0.142,0.623,0.101,0.302,-0.094,0.497
0.458,0.228,0.267,0.465,0.043,0.398,-0.234,0.546,0.114,0.195,-0.075,0.393
0.378,0.225,0.350,0.423,0.082,0.336,-0.148,0.706,0.188,0.187,-0.090,0.420
0.008,0.190,0.071,0.117,-0.148,0.147,-0.349,0.469,-0.244,-0.054,-0.282,0.046
-0.045,0.118,-0.066,-0.078,-0.326,0.051,-0.490,0.258,-0.286,-0.183,-0.572,-0.049
-0.190,-0.229,-0.305,-0.260,-0.414,-0.262,-0.663,0.018,-0.514,-0.419,-0.722,-0.229
-0.183,-0.369,-0.241,-0.342,-0.622,-0.214,-0.744,-0.077,-0.638,-0.497,-0.654,-0.221
0.041,-0.022,-0.111,-0.030,-0.338,-0.030,-0.485,0.068,-0.376,-0.230,-0.522,-0.060
0.042,0.067,0.156,0.115,-0.147,0.217,-0.586,0.170,-0.064,-0.044,-0.253,0.083
0.348,0.382,0.329,0.362,0.051,0.285,0.001,0.561,0.071,0.123,-0.260,0.295
0.445,0.500,0.450,0.608,0.245,0.367,0.062,0.674,0.236,0.194,-0.045,0.377
0.584,0.387,0.387,0.431,0.256,0.399,0.053,0.703,0.220,0.292,0.166,0.492
0.500,0.499,0.429,0.554,0.267,0.576,0.075,0.710,0.180,0.282,0.053,0.522
0.291,0.488,0.409,0.407,0.050,0.334,-0.183,0.597,0.036,0.091,0.008,0.289
0.484,0.498,0.443,0.461,0.337,0.519,-0.090,0.683,0.221,0.265,0.178,0.456
0.670,0.615,0.647,0.676,0.503,0.739,0.240,0.948,0.521,0.541,0.334,0.784
0.300,0.369,0.345,0.331,0.153,0.464,-0.105,0.740,0.104,0.105,-0.061,0.508
0.496,0.573,0.611,0.607,0.460,0.533,0.109,0.951,0.367,0.471,0.152,0.527
0.538,0.677,0.649,0.685,0.410,0.711,0.363,0.887,0.402,0.475,0.197,0.780
0.772,0.738,0.623,0.848,0.581,0.670,0.378,0.910,0.632,0.506,0.413,0.691
0.407,0.269,0.150,0.177,-0.022,0.137,-0.256,0.373,0.071,0.163,-0.137,0.265
0.214,0.278,0.117,0.218,-0.030,0.143,-0.306,0.516,0.080,0.010,-0.195,0.187
-0.005,-0.049,0.030,0.154,-0.075,0.029,-0.449,0.388,-0.155,-0.013,-0.242,0.113
0.047,0.062,-0.011,0.052,-0.150,0.098,-0.357,0.170,-0.265,0.040,-0.335,-0.000
0.015,0.001,-0.060,0.110,-0.266,-0.059,-0.585,0.182,-0.283,-0.188,-0.416,-0.065
-0.008,0.026,-0.106,0.046,-0.329,-0.005,-0.486,0.165,-0.230,-0.182,-0.525,-0.108
-0.087,-0.084,-0.156,-0.169,-0.330,-0.132,-0.617,0.177,-0.458,-0.346,-0.533,-0.134
-0.234,-0.140,-0.248,-0.236,-0.568,-0.436,-0.721,-0.023,-0.525,-0.254,-0.645,-0.177
-0.097,-0.162,-0.128,-0.059,-0.406,-0.109,-0.649,0.085,-0.302,-0.161,-0.498,-0.074
0.115,0.127,0.091,0.190,-0.046,0.171,-0.373,0.379,-0.117,0.044,-0.259,0.127
0.196,0.382,0.294,0.291,0.137,0.099,-0.358,0.526,-0.053,0.129,-0.061,0.361
0.327,0.379,0.293,0.367,0.083,0.418,-0.148,0.684,0.064,0.162,0.019,0.425
0.510,0.477,0.484,0.496,0.197,0.409,-0.004,0.685,0.292,0.258,0.114,0.456
0.351,0.331,0.373,0.324,0.023,0.224,-0.075,0.578,0.175,0.182,-0.019,0.463
0.338,0.251,0.300,0.382,0.171,0.217,-0.133,0.596,0.116,0.251,-0.140,0.568
0.486,0.339,0.236,0.312,0.058,0.285,-0.134,0.564,0.088,0.237,-0.185,0.339
0.331,0.311,0.215,0.259,-0.024,0.323,-0.351,0.456,-0.005,0.064,-0.007,0.231
0.107,0.081,0.137,0.109,-0.157,-0.117,-0.484,0.244,-0.146,-0.237,-0.268,0.152
0.024,0.203,0.128,0.213,-0.043,0.251,-0.343,0.422,0.020,-0.121,-0.252,0.148
0.281,0.351,0.429,0.426,0.165,0.360,-0.131,0.532,0.055,0.193,0.058,0.383
0.411,0.221,0.277,0.356,0.019,0.177,-0.081,0.584,0.126,0.121,-0.081,0.312
0.076,0.082,0.009,0.173,-0.218,0.138,-0.265,0.212,-0.092,-0.117,-0.341,0.211
0.368,0.364,0.189,0.350,-0.089,0.113,-0.269,0.461,-0.004,0.227,-0.025,0.314
0.415,0.384,0.327,0.370,0.176,0.383,-0.176,0.604,0.169,0.196,0.069,0.356
0.505,0.401,0.342,0.338,0.115,0.408,-0.125,0.541,0.178,0.094,-0.050,0.352
0.134,0.112,-0.053,0.070,-0.216,0.094,-0.490,0.247,-0.092,-0.029,-0.226,0.008
0.134,0.032,-0.062,0.037,-0.291,0.102,-0.487,0.339,-0.129,-0.184,-0.511,0.035
-0.236,-0.174,-0.101,-0.124,-0.330,-0.203,-0.590,0.134,-0.360,-0.258,-0.572,-0.053
-0.229,-0.377,-0.205,-0.219,-0.549,-0.310,-0.749,0.004,-0.467,-0.265,-0.697,-0.251
-0.237,-0.267,-0.300,-0.180,-0.527,-0.251,-0.688,-0.046,-0.410,-0.419,-0.616,-0.165
-0.008,0.060,-0.229,0.038,-0.314,-0.105,-0.552,0.103,-0.352,-0.362,-0.474,-0.042
-0.218,-0.223,-0.260,-0.305,-0.558,-0.305,-0.760,-0.108,-0.530,-0.459,-0.594,-0.166
0.136,0.062,-0.000,0.096,-0.319,-0.001,-0.538,0.252,-0.142,-0.159,-0.318,-0.016
0.117,0.111,0.051,0.044,-0.049,0.203,-0.412,0.291,-0.138,-0.026,-0.393,0.242
0.065,-0.078,-0.023,-0.025,-0.232,0.003,-0.444,0.264,-0.227,0.122,-0.413,0.109
0.158,0.142,0.090,0.222,-0.054,0.057,-0.258,0.389,-0.003,-0.062,-0.386,0.055
0.326,0.071,0.184,0.148,-0.081,0.213,-0.268,0.289,0.107,0.042,-0.097,0.205
0.422,0.350,0.270,0.509,0.057,0.332,-0.108,0.558,0.117,0.061,-0.024,0.349
0.536,0.303,0.383,0.549,0.158,0.319,-0.030,0.645,0.263,0.240,-0.081,0.373
0.576,0.426,0.456,0.589,0.207,0.573,0.074,0.702,0.407,0.382,0.064,0.605
0.417,0.344,0.202,0.322,-0.025,0.221,-0.072,0.457,0.107,0.220,-0.021,0.204
0.021,-0.081,-0.075,-0.207,-0.332,-0.149,-0.572,0.086,-0.371,-0.143,-0.523,-0.055
0.011,-0.023,0.028,-0.050,-0.255,-0.019,-0.431,0.218,-0.283,-0.076,-0.358,0.055
0.056,-0.119,-0.003,-0.025,-0.388,-0.076,-0.545,0.238,-0.262,-0.101,-0.338,-0.065
0.184,0.097,0.192,0.069,-0.206,0.122,-0.253,0.376,-0.011,0.012,-0.157,0.085
0.077,0.173,0.136,0.068,-0.150,0.098,-0.270,0.441,-0.066,-0.049,-0.295,0.193
-0.084,-0.244,-0.203,-0.222,-0.559,-0.305,-0.940,-0.035,-0.509,-0.373,-0.634,-0.121
-0.195,-0.150,-0.260,-0.180,-0.335,-0.187,-0.678,0.004,-0.407,-0.302,-0.549,-0.218
0.203,0.129,0.072,0.121,-0.211,0.045,-0.369,0.182,-0.100,0.006,-0.346,0.219
-0.003,0.211,0.098,0.173,-0.124,-0.056,-0.277,0.277,-0.125,-0.130,-0.373,0.105
-0.206,-0.064,-0.029,-0.075,-0.429,-0.126,-0.622,0.072,-0.336,-0.262,-0.489,-0.032
-0.120,-0.269,-0.175,-0.249,-0.344,-0.286,-0.765,-0.058,-0.296,-0.198,-0.559,-0.118
-0.536,-0.364,-0.363,-0.384,-0.466,-0.381,-0.878,-0.166,-0.624,-0.522,-0.796,-0.315
-0.283,-0.220,-0.267,-0.287,-0.434,-0.281,-0.733,-0.028,-0.529,-0.512,-0.578,-0.162
-0.017,0.014,-0.099,-0.000,-0.016,0.001,-0.425,0.268,-0.143,-0.006,-0.396,0.036
-0.221,-0.274,-0.300,-0.401,-0.477,-0.272,-0.802,-0.017,-0.526,-0.391,-0.748,-0.272
-0.230,-0.290,-0.277,-0.219,-0.390,-0.325,-0.712,-0.055,-0.486,-0.482,-0.596,-0.100
-0.391,-0.456,-0.471,-0.488,-0.580,-0.447,-0.883,-0.249,-0.727,-0.601,-0.825,-0.298
-0.734,-0.721,-0.625,-0.731,-0.879,-0.660,-0.947,-0.524,-0.892,-0.735,-1.066,-0.777
-0.486,-0.507,-0.549,-0.485,-0.778,-0.436,-0.949,-0.307,-0.864,-0.600,-0.873,-0.439
-0.527,-0.620,-0.592,-0.580,-0.921,-0.596,-1.217,-0.446,-0.783,-0.795,-0.884,-0.540
-0.424,-0.406,-0.455,-0.416,-0.808,-0.470,-0.677,-0.239,-0.659,-0.583,-0.919,-0.370
-0.393,-0.557,-0.480,-0.382,-0.732,-0.420,-0.931,-0.193,-0.646,-0.647,-0.852,-0.386
-0.179,-0.255,-0.342,-0.270,-0.562,-0.263,-0.865,-0.018,-0.567,-0.542,-0.755,-0.448
-0.120,-0.281,-0.177,-0.239,-0.492,-0.039,-0.840,0.040,-0.560,-0.491,-0.575,-0.121
-0.367,-0.315,-0.352,-0.451,-0.612,-0.402,-0.746,0.041,-0.390,-0.493,-0.632,-0.251
-0.115,-0.254,-0.222,-0.164,-0.436,-0.200,-0.650,0.002,-0.466,-0.477,-0.429,-0.053
-0.079,-0.060,-0.169,-0.230,-0.472,-0.218,-0.690,0.105,-0.447,-0.411,-0.477,-0.098
-0.006,-0.061,0.047,0.082,-0.199,-0.023,-0.702,0.227,-0.327,-0.065,-0.498,0.012
-0.082,-0.143,-0.133,-0.028,-0.479,-0.077,-0.621,0.082,-0.327,-0.223,-0.467,-0.079
0.103,0.022,0.068,0.101,-0.233,-0.013,-0.464,0.192,-0.253,-0.221,-0.288,0.086
-0.020,-0.263,-0.093,-0.167,-0.349,-0.200,-0.623,0.104,-0.305,-0.403,-0.519,-0.068
-0.224,-0.229,-0.097,-0.078,-0.391,-0.179,-0.596,-0.015,-0.309,-0.293,-0.534,-0.259
-0.071,-0.115,-0.040,-0.110,-0.379,-0.104,-0.491,0.276,-0.289,-0.376,-0.433,-0.011
-0.341,-0.302,-0.146,-0.198,-0.339,-0.217,-0.762,0.030,-0.422,-0.422,-0.685,-0.214
-0.093,-0.157,-0.130,-0.111,-0.342,-0.218,-0.803,0.056,-0.242,-0.303,-0.569,-0.078
-0.145,-0.158,-0.125,-0.050,-0.359,-0.196,-0.627,0.025,-0.305,-0.369,-0.519,-0.077
0.021,-0.044,-0.086,-0.030,-0.223,-0.057,-0.559,0.093,-0.275,-0.245,-0.495,-0.061
0.136,-0.009,-0.039,0.002,-0.225,0.071,-0.609,0.284,-0.076,-0.282,-0.500,0.065
-0.001,0.121,0.084,0.053,-0.141,0.031,-0.403,0.365,0.018,-0.127,-0.352,0.134
0.271,0.201,0.055,0.229,-0.030,0.094,-0.251,0.494,0.049,0.050,-0.155,0.137
0.000,-0.043,-0.019,0.026,-0.259,-0.097,-0.545,0.246,-0.231,-0.103,-0.516,-0.048
-0.022,-0.270,-0.071,-0.152,-0.410,-0.140,-0.635,0.023,-0.437,-0.251,-0.547,-0.052
-0.096,-0.053,-0.006,-0.030,-0.176,-0.000,-0.465,0.185,-0.248,-0.271,-0.439,0.114
-0.200,-0.368,-0.318,-0.293,-0.481,-0.398,-0.708,-0.073,-0.494,-0.621,-0.740,-0.242
-0.177,-0.240,-0.080,0.008,-0.328,-0.132,-0.595,0.148,-0.244,-0.339,-0.468,0.024
0.040,0.053,-0.081,-0.006,-0.354,-0.140,-0.465,0.190,-0.205,-0.231,-0.287,0.074
-0.019,-0.136,-0.073,-0.196,-0.382,-0.070,-0.513,0.020,-0.296,-0.414,-0.303,0.079
-0.169,-0.230,-0.265,-0.381,-0.537,-0.283,-0.646,0.001,-0.541,-0.567,-0.664,-0.247
-0.239,-0.352,-0.282,-0.376,-0.616,-0.392,-0.733,-0.147,-0.564,-0.405,-0.848,-0.337
-0.119,-0.317,-0.230,-0.237,-0.498,-0.202,-0.824,-0.121,-0.563,-0.459,-0.519,-0.285
-0.142,0.111,-0.157,-0.074,-0.176,-0.039,-0.576,0.130,-0.246,-0.343,-0.484,0.007
0.086,-0.031,0.023,0.060,-0.194,0.008,-0.361,0.277,-0.115,-0.023,-0.408,0.060
0.181,0.257,0.128,0.146,-0.171,0.060,-0.394,0.341,-0.123,-0.033,-0.436,0.121
0.226,0.230,0.147,0.110,-0.022,0.082,-0.455,0.341,0.069,0.054,-0.371,0.242
0.380,0.286,0.174,0.216,-0.043,0.274,-0.219,0.566,0.023,0.069,-0.146,0.370
0.305,0.292,0.424,0.427,0.181,0.184,-0.288,0.586,0.190,0.159,-0.099,0.435
0.156,0.129,-0.010,0.004,-0.034,-0.005,-0.418,0.225,-0.191,-0.147,-0.281,-0.061
0.128,0.002,0.204,0.092,-0.060,0.025,-0.384,0.392,-0.001,-0.140,-0.302,0.085
-0.224,-0.169,-0.213,-0.158,-0.374,-0.183,-0.604,0.124,-0.471,-0.417,-0.562,-0.219
0.027,0.030,0.163,-0.042,-0.238,-0.069,-0.448,0.154,-0.170,-0.114,-0.336,0.029
0.068,0.142,-0.002,-0.018,-0.243,-0.107,-0.465,0.295,-0.212,-0.298,-0.410,-0.019
0.176,0.161,0.104,0.216,-0.061,0.228,-0.315,0.424,-0.004,-0.159,-0.215,0.161
0.044,-0.160,0.003,0.032,-0.185,-0.132,-0.588,0.160,-0.210,-0.145,-0.359,-0.048
-0.092,-0.182,-0.232,-0.082,-0.392,-0.082,-0.490,0.040,-0.405,-0.250,-0.539,-0.236
-0.031,-0.040,-0.037,-0.070,-0.417,-0.098,-0.574,0.114,-0.308,-0.270,-0.529,-0.216
-0.075,-0.054,-0.125,-0.105,-0.317,-0.161,-0.507,0.067,-0.417,-0.142,-0.504,-0.071
0.223,0.174,0.140,0.142,-0.134,0.269,-0.168,0.378,-0.065,0.127,-0.259,0.276
0.056,0.031,-0.028,-0.008,-0.317,-0.125,-0.705,0.049,-0.327,-0.267,-0.486,0.017
-0.189,-0.186,-0.164,-0.244,-0.478,-0.281,-0.662,0.003,-0.459,-0.335,-0.597,-0.069
-0.195,-0.118,-0.141,-0.249,-0.348,-0.208,-0.657,0.061,-0.388,-0.199,-0.524,-0.239
-0.119,-0.071,-0.102,-0.038,-0.281,-0.134,-0.587,0.184,-0.258,-0.203,-0.412,-0.022
0.114,-0.143,-0.124,0.001,-0.269,0.036,-0.620,0.196,-0.335,-0.135,-0.365,-0.028
0.032,-0.011,-0.181,-0.049,-0.263,-0.079,-0.477,0.274,-0.418,-0.124,-0.330,-0.035
0.010,-0.232,-0.025,-0.162,-0.205,-0.064,-0.531,0.244,-0.335,-0.068,-0.373,-0.072
0.140,-0.166,0.033,0.085,-0.279,-0.058,-0.614,0.238,-0.191,-0.079,-0.358,0.042
0.238,0.034,0.003,0.226,-0.029,0.195,-0.299,0.383,-0.130,-0.013,-0.252,0.087
0.323,0.242,0.242,0.378,0.147,0.420,-0.233,0.475,-0.041,0.137,-0.065,0.388
0.256,0.105,0.031,0.267,-0.015,0.104,-0.367,0.299,-0.116,-0.095,-0.202,0.164
0.088,0.118,0.043,0.136,-0.103,0.007,-0.298,0.235,-0.197,-0.044,-0.299,0.167
0.289,0.083,0.075,0.190,-0.006,0.205,-0.291,0.391,-0.098,-0.133,0.029,0.189
0.046,-0.129,-0.030,0.025,-0.111,0.084,-0.457,0.162,-0.389,-0.250,-0.319,0.085
0.242,0.122,0.121,0.171,-0.049,0.159,-0.338,0.387,-0.046,0.078,-0.299,0.172
0.227,0.111,-0.029,0.177,-0.028,0.035,-0.456,0.363,-0.078,-0.042,-0.461,0.065
0.159,0.271,0.084,0.091,-0.103,0.074,-0.384,0.322,-0.182,0.049,-0.284,0.105
0.294,0.201,0.122,0.174,0.012,-0.019,-0.477,0.432,-0.143,0.092,-0.180,0.117
0.384,0.245,0.341,0.292,0.129,0.254,-0.069,0.463,0.070,0.197,-0.061,0.228
-0.089,-0.019,0.203,0.011,-0.072,0.007,-0.300,0.276,-0.258,-0.023,-0.385,-0.065
0.274,0.289,0.243,0.198,-0.023,0.128,-0.414,0.444,-0.022,0.025,-0.172,0.129
0.315,0.176,0.165,0.288,0.029,0.261,-0.157,0.464,0.057,0.031,-0.004,0.194
0.264,0.295,0.253,0.219,0.124,0.279,-0.074,0.531,-0.050,0.188,0.020,0.335
0.398,0.395,0.490,0.478,0.169,0.421,-0.043,0.696,0.127,0.202,0.004,0.383
0.363,0.452,0.369,0.368,0.111,0.301,-0.182,0.566,0.134,0.154,0.034,0.404
0.306,0.263,0.374,0.374,0.114,0.375,-0.037,0.586,0.058,0.291,-0.114,0.257
0.258,0.354,0.262,0.294,0.082,0.129,-0.198,0.539,0.012,0.168,-0.168,0.362
0.153,0.104,0.075,0.054,-0.048,0.082,-0.424,0.348,-0.044,-0.247,-0.185,0.130
0.153,0.042,0.069,-0.045,-0.172,-0.165,-0.527,0.280,-0.225,-0.268,-0.243,0.086
-0.002,0.188,0.052,0.058,-0.155,-0.050,-0.433,0.155,-0.139,-0.239,-0.436,0.043
0.125,0.122,0.063,0.092,-0.077,-0.025,-0.428,0.249,-0.113,-0.047,-0.349,0.113
-0.072,-0.161,-0.079,-0.114,-0.287,-0.276,-0.615,0.029,-0.357,-0.281,-0.438,-0.028
0.023,0.081,-0.055,-0.069,-0.292,-0.089,-0.439,0.188,-0.216,-0.230,-0.269,0.047
-0.047,-0.075,0.074,-0.014,-0.241,0.102,-0.422,0.105,-0.093,-0.172,-0.380,0.088
0.325,0.242,0.180,0.253,-0.075,0.237,-0.262,0.459,0.059,0.061,-0.069,0.270
0.253,0.263,0.239,0.306,-0.114,0.190,-0.258,0.371,0.019,-0.054,-0.247,0.236
0.174,0.186,0.170,0.126,-0.103,0.144,-0.462,0.337,-0.199,0.002,-0.232,0.156
0.041,0.079,-0.030,0.023,-0.187,0.056,-0.644,0.264,-0.283,-0.179,-0.355,0.066
-0.308,-0.319,-0.360,-0.314,-0.508,-0.243,-0.786,-0.123,-0.572,-0.485,-0.699,-0.206
-0.258,-0.557,-0.515,-0.352,-0.658,-0.448,-0.900,-0.073,-0.786,-0.513,-0.773,-0.444
-0.374,-0.535,-0.529,-0.467,-0.750,-0.360,-0.993,-0.238,-0.750,-0.671,-0.910,-0.419
-0.346,-0.275,-0.273,-0.222,-0.446,-0.262,-0.728,0.042,-0.521,-0.451,-0.604,-0.304
-0.118,-0.173,-0.091,-0.056,-0.343,-0.204,-0.637,0.098,-0.413,-0.386,-0.523,-0.116
-0.085,-0.212,-0.231,-0.173,-0.388,-0.162,-0.795,0.048,-0.459,-0.499,-0.459,-0.186
-0.277,-0.371,-0.299,-0.343,-0.529,-0.326,-0.847,-0.077,-0.599,-0.486,-0.668,-0.277
-0.282,-0.345,-0.437,-0.277,-0.608,-0.342,-0.942,-0.133,-0.718,-0.538,-0.752,-0.319
-0.451,-0.481,-0.437,-0.368,-0.705,-0.564,-1.101,-0.314,-0.620,-0.473,-0.872,-0.326
-0.470,-0.219,-0.331,-0.258,-0.510,-0.355,-0.829,-0.243,-0.537,-0.445,-0.799,-0.188
-0.103,-0.249,-0.146,-0.203,-0.372,-0.226,-0.763,-0.107,-0.536,-0.388,-0.666,-0.235
-0.153,-0.140,-0.068,-0.205,-0.294,-0.058,-0.558,-0.015,-0.493,-0.290,-0.554,-0.094
0.056,0.040,-0.025,-0.019,-0.233,-0.089,-0.382,0.225,-0.194,0.048,-0.377,0.045
0.203,0.142,-0.027,0.115,-0.073,0.145,-0.381,0.341,-0.156,-0.093,-0.350,0.098
0.235,0.174,0.102,0.196,-0.096,0.129,-0.419,0.362,-0.137,-0.121,-0.255,0.080
-0.018,-0.106,-0.094,0.049,-0.355,-0.260,-0.609,0.182,-0.361,-0.267,-0.492,-0.193
-0.175,-0.166,-0.197,-0.122,-0.291,-0.066,-0.621,0.087,-0.372,-0.292,-0.543,0.007
-0.183,-0.283,-0.082,-0.151,-0.445,-0.303,-0.683,0.132,-0.391,-0.284,-0.577,-0.021
0.194,0.210,0.232,0.129,0.026,0.051,-0.253,0.369,-0.117,-0.009,-0.278,0.059
0.090,-0.025,-0.075,-0.044,-0.030,-0.021,-0.450,0.265,-0.259,-0.043,-0.472,0.068
0.085,0.031,0.058,0.079,-0.108,0.036,-0.353,0.336,-0.104,0.019,-0.075,0.217
0.118,0.149,0.076,-0.033,-0.173,-0.141,-0.414,0.178,-0.249,-0.160,-0.302,0.049
0.124,0.294,0.162,0.247,-0.252,0.102,-0.224,0.392,-0.040,0.078,-0.224,0.236
0.100,0.081,-0.005,0.078,-0.101,0.064,-0.425,0.338,-0.235,-0.145,-0.331,0.119
0.233,0.214,0.263,0.138,0.038,0.090,-0.313,0.376,0.075,0.033,-0.181,0.280
0.224,0.083,0.173,-0.041,-0.005,0.113,-0.411,0.421,-0.151,0.050,-0.224,0.199
0.281,0.255,0.144,0.115,-0.106,0.121,-0.385,0.420,-0.018,0.060,-0.231,0.184
0.043,-0.033,-0.130,-0.091,-0.187,-0.057,-0.391,0.258,-0.308,-0.134,-0.417,-0.034
0.263,0.165,0.154,0.151,0.050,0.082,-0.465,0.326,-0.182,-0.014,-0.325,0.157
0.229,0.051,0.170,0.218,0.003,0.017,-0.426,0.366,-0.072,-0.150,-0.390,0.107
0.166,0.012,0.064,0.100,-0.143,0.106,-0.383,0.382,-0.169,0.003,-0.224,0.263
0.433,0.450,0.257,0.339,0.088,0.279,0.007,0.513,-0.033,0.190,-0.177,0.284
0.229,0.380,0.288,0.181,0.044,0.340,-0.070,0.547,0.057,0.112,-0.142,0.459
0.190,0.252,0.232,0.212,0.150,0.259,-0.223,0.471,0.097,0.071,-0.234,0.432
0.283,0.288,0.309,0.350,0.096,0.332,-0.098,0.560,0.238,0.059,-0.150,0.313
0.475,0.541,0.420,0.485,0.223,0.294,-0.027,0.650,0.239,0.202,-0.054,0.361
0.599,0.630,0.515,0.433,0.329,0.501,0.102,0.756,0.398,0.402,0.165,0.460
0.294,0.248,0.351,0.234,0.281,0.282,0.049,0.512,0.131,0.266,-0.056,0.229
0.736,0.498,0.537,0.458,0.348,0.507,0.086,0.759,0.365,0.453,0.060,0.507
0.690,0.645,0.603,0.475,0.425,0.686,0.160,0.783,0.398,0.389,0.105,0.570
0.609,0.477,0.624,0.504,0.323,0.596,0.127,0.764,0.341,0.406,0.161,0.484
0.475,0.288,0.421,0.432,0.151,0.392,-0.114,0.584,0.199,0.195,0.029,0.542
0.492,0.378,0.505,0.514,0.188,0.237,-0.101,0.628,0.215,0.254,-0.048,0.514
0.163,0.152,0.315,0.193,0.036,0.037,-0.270,0.418,0.000,0.050,-0.144,0.098
0.216,0.171,0.046,0.052,-0.110,-0.001,-0.392,0.314,-0.206,0.012,-0.287,0.122
0.060,0.031,0.150,0.127,-0.150,0.093,-0.378,0.360,-0.068,-0.023,-0.408,0.106
-0.035,-0.308,-0.151,-0.101,-0.456,-0.200,-0.532,0.056,-0.621,-0.339,-0.569,-0.102
-0.231,-0.208,-0.196,-0.267,-0.438,-0.355,-0.839,-0.065,-0.366,-0.332,-0.611,-0.182
-0.138,-0.333,-0.307,-0.202,-0.526,-0.400,-0.666,-0.020,-0.471,-0.460,-0.482,-0.228
0.012,-0.006,0.066,-0.013,-0.210,-0.167,-0.591,0.118,-0.323,-0.382,-0.484,-0.069
-0.137,-0.130,-0.143,-0.118,-0.386,-0.079,-0.634,0.097,-0.385,-0.305,-0.482,-0.077
0.056,-0.137,-0.115,-0.023,-0.303,-0.208,-0.618,0.050,-0.406,-0.220,-0.521,-0.077
-0.012,0.046,-0.002,0.081,-0.159,0.067,-0.443,0.264,-0.206,0.051,-0.341,-0.013
-0.166,-0.122,-0.196,-0.113,-0.409,-0.128,-0.583,0.124,-0.277,-0.313,-0.484,-0.059
0.024,-0.091,-0.064,-0.052,-0.338,-0.114,-0.701,0.069,-0.293,-0.402,-0.504,-0.128
-0.127,-0.025,-0.191,-0.067,-0.310,-0.205,-0.592,0.154,-0.305,-0.302,-0.444,0.023
-0.078,-0.161,-0.155,-0.018,-0.303,-0.176,-0.480,0.092,-0.371,-0.200,-0.378,-0.052
-0.064,-0.258,-0.155,-0.281,-0.413,-0.165,-0.707,0.059,-0.467,-0.218,-0.428,-0.115
-0.255,-0.244,-0.215,-0.333,-0.433,-0.255,-0.732,-0.026,-0.453,-0.287,-0.650,-0.248
-0.103,-0.272,-0.307,-0.217,-0.425,-0.273,-0.703,-0.084,-0.386,-0.430,-0.542,-0.159
-0.287,-0.366,-0.473,-0.358,-0.574,-0.422,-0.836,-0.177,-0.685,-0.494,-0.713,-0.346
-0.343,-0.368,-0.362,-0.277,-0.499,-0.379,-0.875,-0.097,-0.603,-0.537,-0.775,-0.260
-0.320,-0.349,-0.375,-0.507,-0.615,-0.472,-0.972,-0.202,-0.638,-0.645,-0.831,-0.410
-0.322,-0.283,-0.299,-0.226,-0.467,-0.124,-0.651,0.037,-0.436,-0.371,-0.706,-0.141
-0.218,-0.190,-0.242,-0.166,-0.482,-0.184,-0.643,0.027,-0.612,-0.412,-0.601,-0.196
-0.040,-0.179,-0.200,-0.149,-0.357,-0.272,-0.570,0.149,-0.388,-0.250,-0.326,-0.002
0.042,0.049,0.068,0.096,-0.279,0.007,-0.426,0.319,-0.218,-0.069,-0.170,0.152
0.033,-0.054,-0.198,-0.076,-0.347,-0.046,-0.443,0.221,-0.324,-0.179,-0.404,0.069
0.096,-0.057,-0.027,0.041,-0.295,-0.009,-0.385,0.249,-0.209,-0.137,-0.320,0.185
-0.241,-0.251,-0.258,-0.248,-0.449,-0.187,-0.576,-0.065,-0.319,-0.342,-0.683,-0.316
-0.409,-0.301,-0.367,-0.265,-0.623,-0.362,-0.695,-0.151,-0.606,-0.389,-0.817,-0.303
-0.401,-0.489,-0.431,-0.516,-0.804,-0.483,-0.914,-0.314,-0.702,-0.581,-0.863,-0.438
-0.320,-0.177,-0.316,-0.206,-0.544,-0.404,-0.860,-0.014,-0.603,-0.536,-0.664,-0.272
-0.148,-0.274,-0.124,-0.102,-0.414,-0.253,-0.647,0.109,-0.347,-0.238,-0.618,-0.179
-0.129,-0.145,-0.163,-0.235,-0.375,-0.251,-0.773,0.094,-0.412,-0.447,-0.642,-0.235
-0.037,-0.070,-0.126,-0.026,-0.227,-0.162,-0.447,0.139,-0.391,-0.208,-0.602,-0.057
0.061,-0.014,0.003,0.018,-0.330,-0.157,-0.542,0.299,-0.433,-0.180,-0.505,0.132
0.157,0.139,0.123,0.205,-0.118,0.013,-0.426,0.289,-0.130,0.036,-0.298,0.249
0.117,0.142,-0.058,0.048,-0.327,0.023,-0.536,0.255,-0.205,-0.026,-0.360,0.083
0.005,0.018,-0.015,0.052,-0.218,0.060,-0.580,0.228,-0.252,0.048,-0.374,0.150
0.108,0.022,0.014,0.073,-0.174,0.006,-0.429,0.230,-0.103,-0.100,-0.448,0.023
0.067,0.077,-0.028,0.061,-0.284,-0.025,-0.399,0.152,-0.161,-0.158,-0.395,-0.035
-0.140,-0.169,-0.263,-0.217,-0.404,-0.126,-0.569,-0.015,-0.382,-0.269,-0.372,-0.211
-0.188,-0.261,-0.194,-0.185,-0.410,-0.209,-0.851,-0.007,-0.442,-0.278,-0.477,-0.096
-0.319,-0.266,-0.259,-0.129,-0.405,-0.170,-0.560,-0.098,-0.650,-0.437,-0.528,-0.083
-0.262,-0.309,-0.337,-0.311,-0.564,-0.353,-0.691,0.031,-0.539,-0.454,-0.581,-0.208
-0.173,-0.083,-0.185,-0.253,-0.334,-0.193,-0.568,-0.017,-0.446,-0.285,-0.479,-0.159
-0.237,-0.199,-0.334,-0.240,-0.554,-0.208,-0.769,-0.119,-0.469,-0.488,-0.714,-0.225
-0.092,-0.228,-0.073,-0.228,-0.375,-0.296,-0.773,0.012,-0.460,-0.378,-0.679,-0.087
-0.213,-0.493,-0.200,-0.274,-0.635,-0.419,-0.843,0.011,-0.433,-0.447,-0.680,-0.356
-0.044,0.112,0.183,0.089,-0.285,-0.005,-0.570,0.262,-0.037,-0.011,-0.441,0.020
0.052,0.137,0.240,0.104,-0.179,0.085,-0.432,0.350,-0.090,-0.096,-0.263,0.140
0.163,0.204,0.147,0.125,-0.105,0.163,-0.322,0.339,-0.090,-0.112,-0.287,0.178
0.032,0.038,-0.220,-0.049,-0.172,-0.150,-0.435,0.172,-0.289,-0.124,-0.603,-0.012
0.014,-0.153,-0.246,-0.110,-0.287,-0.021,-0.628,0.042,-0.373,-0.140,-0.552,-0.220
0.006,-0.244,-0.256,-0.123,-0.380,-0.108,-0.744,0.079,-0.503,-0.345,-0.523,-0.184
-0.169,-0.262,-0.218,-0.161,-0.542,-0.320,-0.654,0.070,-0.392,-0.543,-0.616,-0.146
-0.436,-0.473,-0.544,-0.427,-0.597,-0.407,-0.899,-0.222,-0.680,-0.575,-0.925,-0.362
-0.053,-0.152,-0.181,-0.151,-0.321,-0.257,-0.605,0.027,-0.629,-0.209,-0.528,-0.153
-0.208,-0.243,-0.230,-0.253,-0.405,-0.223,-0.586,-0.107,-0.527,-0.452,-0.603,-0.285
-0.231,-0.172,-0.099,-0.253,-0.295,-0.226,-0.667,-0.007,-0.552,-0.409,-0.455,-0.069
-0.326,-0.220,-0.302,-0.407,-0.510,-0.260,-0.646,-0.028,-0.532,-0.485,-0.823,-0.291
-0.327,-0.478,-0.404,-0.354,-0.569,-0.555,-0.998,-0.281,-0.669,-0.750,-0.946,-0.401
-0.166,-0.219,-0.357,-0.272,-0.667,-0.351,-0.765,-0.123,-0.564,-0.503,-0.670,-0.287
-0.118,-0.040,-0.114,-0.040,-0.364,-0.207,-0.675,0.085,-0.355,-0.468,-0.454,-0.108
0.013,0.060,0.021,0.053,-0.230,-0.108,-0.515,0.232,-0.280,-0.223,-0.487,0.041
0.079,0.008,0.196,0.071,-0.039,0.088,-0.368,0.163,-0.336,-0.194,-0.463,0.095
-0.065,0.084,-0.010,0.022,-0.204,-0.082,-0.415,0.131,-0.323,-0.136,-0.612,-0.023
-0.151,-0.149,-0.175,-0.066,-0.355,-0.285,-0.610,0.180,-0.290,-0.220,-0.579,-0.117
-0.070,-0.173,-0.244,-0.156,-0.363,-0.157,-0.782,0.068,-0.285,-0.261,-0.639,-0.119
-0.173,-0.193,-0.155,-0.201,-0.494,-0.239,-0.554,0.096,-0.403,-0.510,-0.589,-0.281
0.040,-0.130,-0.113,-0.010,-0.404,-0.210,-0.570,0.189,-0.272,-0.267,-0.490,-0.096
-0.063,-0.055,-0.113,-0.202,-0.231,-0.093,-0.566,0.058,-0.333,-0.180,-0.451,-0.068
-0.039,0.019,-0.061,-0.191,-0.194,-0.108,-0.640,0.030,-0.399,-0.206,-0.461,0.012
-0.111,-0.047,-0.118,-0.150,-0.369,-0.182,-0.604,0.102,-0.364,-0.491,-0.485,-0.071
-0.139,-0.103,-0.081,-0.015,-0.200,-0.096,-0.414,0.057,-0.289,-0.364,-0.467,0.072
0.184,0.100,0.153,0.125,-0.081,0.131,-0.258,0.298,-0.161,-0.146,-0.243,0.268
0.169,0.016,0.171,0.205,0.007,0.181,-0.387,0.431,-0.125,-0.118,-0.212,0.192
0.308,0.363,0.257,0.295,0.055,0.205,-0.219,0.604,0.106,0.049,-0.161,0.362
0.454,0.275,0.559,0.398,0.102,0.557,-0.025,0.699,0.253,0.287,0.098,0.579
0.674,0.656,0.698,0.672,0.445,0.591,0.087,0.841,0.449,0.462,0.244,0.675
0.451,0.284,0.370,0.373,0.047,0.304,-0.140,0.604,0.074,0.159,-0.059,0.404
0.464,0.533,0.463,0.451,0.277,0.384,-0.016,0.741,0.184,0.400,0.112,0.440
0.541,0.311,0.370,0.308,0.128,0.366,-0.020,0.649,0.111,0.082,0.005,0.426
0.464,0.519,0.350,0.421,0.297,0.470,-0.057,0.599,0.229,0.361,-0.048,0.454
0.345,0.218,0.285,0.329,-0.006,0.357,-0.178,0.499,0.196,0.136,-0.097,0.326
0.412,0.281,0.156,0.343,0.075,0.423,-0.047,0.509,0.105,0.098,-0.111,0.372
0.079,0.133,0.150,0.211,-0.068,0.208,-0.139,0.261,-0.109,-0.028,-0.199,0.278
0.211,0.226,0.208,0.294,0.157,0.278,-0.106,0.583,0.103,0.027,-0.159,0.249
0.448,0.454,0.420,0.402,0.267,0.410,0.021,0.671,0.265,0.295,-0.007,0.560
0.563,0.469,0.439,0.576,0.302,0.520,-0.017,0.669,0.288,0.401,0.134,0.472
0.348,0.451,0.305,0.371,0.214,0.409,0.021,0.733,0.298,0.282,0.004,0.319
0.508,0.429,0.501,0.384,0.146,0.536,0.071,0.788,0.095,0.222,-0.007,0.443
0.238,0.106,0.229,0.211,-0.029,0.373,-0.099,0.512,0.000,-0.011,-0.080,0.166
0.416,0.400,0.382,0.251,0.112,0.276,-0.185,0.559,0.112,0.119,0.003,0.257
0.271,0.321,0.272,0.210,0.000,0.112,-0.177,0.471,-0.037,0.065,-0.119,0.222
0.011,0.239,0.066,0.076,-0.179,0.070,-0.089,0.422,-0.039,0.006,-0.368,0.226
0.291,0.360,0.330,0.225,-0.026,0.221,-0.046,0.455,0.088,0.149,-0.333,0.384
0.340,0.165,0.252,0.319,0.027,0.169,-0.024,0.573,0.127,0.156,-0.138,0.326
0.288,0.198,0.190,0.252,0.144,0.317,-0.237,0.531,0.092,0.229,-0.229,0.372
0.369,0.282,0.270,0.170,0.045,0.157,-0.233,0.419,0.117,0.015,-0.088,0.351
0.004,-0.033,-0.049,-0.052,-0.201,-0.058,-0.503,0.113,-0.264,-0.290,-0.405,0.082
-0.053,-0.061,-0.042,0.048,-0.265,-0.205,-0.450,0.295,-0.219,-0.291,-0.267,0.017
-0.197,-0.279,-0.242,-0.227,-0.404,-0.195,-0.523,-0.013,-0.536,-0.362,-0.516,-0.209
-0.292,-0.397,-0.316,-0.395,-0.603,-0.376,-0.871,-0.153,-0.612,-0.518,-0.873,-0.400
-0.025,-0.052,-0.159,-0.083,-0.285,-0.063,-0.552,0.110,-0.432,-0.170,-0.514,-0.085
0.105,0.080,0.059,0.107,-0.170,-0.040,-0.356,0.293,-0.195,0.009,-0.398,0.145
0.192,-0.114,0.077,0.047,-0.225,-0.108,-0.378,0.372,-0.207,-0.104,-0.338,0.019
0.148,0.036,0.189,0.098,-0.344,0.081,-0.436,0.308,-0.234,-0.203,-0.366,-0.073
-0.014,0.030,0.046,-0.068,-0.379,-0.061,-0.520,0.271,-0.351,-0.232,-0.398,-0.041
-0.012,0.144,0.051,0.011,-0.095,0.016,-0.483,0.245,-0.266,-0.149,-0.304,0.047
0.046,-0.027,-0.048,0.081,-0.149,0.021,-0.575,0.145,-0.175,-0.181,-0.368,0.141
0.209,0.182,0.162,0.107,-0.101,0.096,-0.243,0.441,-0.100,-0.067,-0.232,0.089
-0.012,-0.265,-0.204,-0.191,-0.485,-0.188,-0.643,0.057,-0.327,-0.349,-0.439,-0.174
0.031,-0.033,-0.029,-0.069,-0.283,-0.147,-0.544,0.133,-0.192,-0.186,-0.499,-0.060
-0.092,-0.086,-0.163,-0.099,-0.319,-0.235,-0.482,0.097,-0.324,-0.283,-0.540,-0.167
0.028,0.081,-0.001,0.008,-0.236,-0.207,-0.539,0.265,-0.202,-0.111,-0.347,-0.117
0.291,0.137,0.044,0.202,0.044,0.101,-0.240,0.389,-0.185,0.027,-0.190,0.145
0.262,0.281,0.230,0.210,0.052,0.125,-0.270,0.565,-0.091,0.090,-0.145,0.203
0.126,0.070,0.032,0.040,-0.215,0.003,-0.510,0.246,-0.186,-0.135,-0.325,0.073
-0.032,-0.256,-0.173,-0.092,-0.452,-0.171,-0.621,-0.022,-0.397,-0.351,-0.448,-0.201
-0.170,-0.184,-0.022,-0.108,-0.358,-0.106,-0.611,0.101,-0.222,-0.242,-0.317,-0.219
-0.031,0.051,-0.053,-0.037,-0.219,-0.058,-0.498,0.095,-0.300,-0.198,-0.409,-0.008
-0.057,-0.129,0.010,-0.044,-0.291,-0.081,-0.557,0.110,-0.434,-0.253,-0.480,-0.163
0.078,-0.260,-0.000,0.040,-0.309,-0.031,-0.590,0.153,-0.339,-0.124,-0.404,-0.058
0.002,-0.089,0.108,0.087,-0.228,0.221,-0.413,0.317,-0.176,-0.070,-0.299,0.075
0.145,0.011,0.125,-0.010,-0.201,0.098,-0.268,0.256,-0.192,-0.048,-0.295,0.111
-0.092,-0.124,-0.025,-0.179,-0.324,-0.157,-0.532,0.160,-0.209,-0.168,-0.374,-0.106
0.013,-0.083,0.021,-0.061,-0.134,-0.057,-0.421,0.198,-0.135,-0.005,-0.271,-0.016
0.037,0.212,0.130,0.028,0.093,0.039,-0.344,0.317,0.067,-0.011,-0.199,0.284
0.077,0.296,0.181,0.076,-0.008,0.053,-0.186,0.345,-0.112,0.025,-0.295,0.237
0.217,0.151,0.224,0.097,0.034,0.068,-0.213,0.385,0.063,-0.074,-0.378,0.226
0.351,0.329,0.320,0.370,0.191,0.271,-0.165,0.514,0.082,0.039,-0.020,0.238
0.421,0.341,0.416,0.404,-0.007,0.294,-0.171,0.686,0.244,0.359,-0.009,0.415
0.405,0.348,0.438,0.456,0.144,0.429,0.067,0.690,0.335,0.200,0.167,0.656
0.629,0.729,0.523,0.512,0.238,0.576,0.074,0.752,0.319,0.433,0.189,0.601
0.436,0.402,0.342,0.365,0.238,0.263,-0.101,0.641,0.135,0.097,0.084,0.609
0.612,0.368,0.487,0.415,0.266,0.463,0.119,0.701,0.405,0.284,0.109,0.572
0.334,0.195,0.273,0.237,0.178,0.127,-0.099,0.538,0.145,0.099,0.039,0.329
0.564,0.429,0.360,0.453,0.303,0.463,0.004,0.716,0.155,0.211,0.261,0.425
0.453,0.395,0.410,0.484,0.306,0.326,-0.065,0.653,0.175,0.352,0.097,0.518
0.403,0.370,0.368,0.418,0.154,0.253,-0.246,0.500,0.087,0.244,0.057,0.423
0.129,0.066,0.179,0.131,-0.117,0.015,-0.320,0.306,-0.015,-0.056,-0.246,0.002
0.373,0.136,0.396,0.374,0.152,0.260,-0.170,0.514,0.102,0.145,0.122,0.349
0.229,0.335,0.310,0.431,0.095,0.450,-0.120,0.509,0.198,0.156,-0.020,0.239
0.294,0.177,0.352,0.340,0.033,0.197,-0.032,0.546,0.079,0.196,-0.017,0.225
0.508,0.523,0.505,0.472,0.192,0.408,0.210,0.662,0.175,0.407,0.073,0.443
0.309,0.475,0.361,0.505,0.343,0.303,0.017,0.584,0.271,0.268,-0.042,0.331
0.354,0.489,0.382,0.433,0.343,0.338,0.128,0.601,0.189,0.274,-0.081,0.471
0.175,0.349,0.248,0.142,0.107,0.167,-0.147,0.459,0.001,0.136,-0.055,0.288
0.471,0.396,0.487,0.461,0.226,0.299,-0.201,0.668,0.288,0.425,0.055,0.431
0.238,0.381,0.272,0.389,0.071,0.272,-0.351,0.640,-0.040,0.142,-0.142,0.410
0.376,0.429,0.294,0.344,0.109,0.294,-0.151,0.582,0.224,0.168,-0.105,0.394
0.297,0.367,0.229,0.330,0.127,0.295,-0.311,0.558,0.041,0.136,-0.242,0.305
0.202,0.271,0.213,0.344,-0.010,0.166,-0.426,0.458,0.021,0.024,-0.196,0.286
0.268,0.363,0.202,0.296,0.009,0.378,-0.133,0.494,-0.060,0.129,-0.141,0.180
0.102,0.057,0.009,0.085,-0.223,0.090,-0.449,0.318,-0.287,-0.007,-0.251,0.174
0.207,0.253,0.196,0.117,-0.160,0.092,-0.390,0.415,-0.232,-0.041,-0.232,0.120
-0.020,0.145,0.090,0.098,-0.103,0.243,-0.540,0.323,0.031,-0.047,-0.231,0.327
0.338,0.203,0.304,0.271,0.080,0.237,-0.222,0.450,0.058,0.097,-0.118,0.329
0.461,0.335,0.215,0.082,-0.077,0.158,-0.282,0.309,-0.044,-0.067,-0.294,0.208
0.158,0.266,0.074,0.023,-0.067,0.182,-0.304,0.309,0.041,-0.067,-0.373,0.100
0.545,0.392,0.388,0.300,0.098,0.484,0.090,0.628,0.245,0.267,0.097,0.472
0.396,0.305,0.304,0.420,0.001,0.358,-0.198,0.521,0.149,0.224,-0.042,0.454
0.279,0.336,0.398,0.306,0.194,0.365,-0.206,0.553,0.257,0.190,0.044,0.412
0.444,0.512,0.329,0.393,0.121,0.395,-0.066,0.558,0.175,0.083,-0.055,0.337
0.344,0.259,0.368,0.413,0.053,0.260,-0.061,0.620,0.230,0.155,0.074,0.309
0.415,0.367,0.273,0.374,-0.063,0.193,0.009,0.621,0.089,0.067,-0.107,0.293
0.537,0.567,0.492,0.491,0.214,0.414,-0.069,0.599,0.113,0.178,0.061,0.467
0.205,0.169,0.266,0.231,-0.056,0.131,-0.249,0.376,-0.011,0.038,-0.273,0.144
0.156,0.078,0.027,0.015,-0.155,0.083,-0.377,0.275,-0.167,-0.163,-0.318,0.111
0.077,-0.027,-0.003,-0.025,-0.172,-0.042,-0.454,0.295,-0.136,-0.196,-0.388,0.114
-0.064,0.017,0.067,-0.111,-0.160,0.025,-0.551,0.187,-0.149,-0.032,-0.487,0.138
-0.089,-0.095,0.018,-0.108,-0.273,-0.041,-0.573,0.203,-0.239,-0.104,-0.422,0.086
0.002,-0.089,-0.144,-0.127,-0.332,-0.208,-0.482,0.162,-0.379,-0.264,-0.543,0.019
0.125,-0.006,0.134,0.078,-0.140,0.165,-0.410,0.304,-0.119,0.051,-0.347,0.181
0.193,0.111,0.159,0.096,-0.163,0.001,-0.434,0.313,-0.187,-0.016,-0.223,0.096
0.095,0.057,0.133,0.145,-0.405,0.031,-0.371,0.294,-0.289,-0.031,-0.260,0.122
0.022,-0.191,0.021,-0.151,-0.313,-0.002,-0.375,0.186,-0.456,-0.207,-0.571,-0.085
-0.024,-0.045,-0.058,0.029,-0.279,0.005,-0.426,0.222,-0.326,-0.198,-0.343,-0.011
0.060,0.072,0.058,0.074,-0.255,0.050,-0.273,0.325,-0.157,0.071,-0.329,0.115
-0.004,0.038,-0.029,0.049,-0.327,-0.043,-0.388,0.328,-0.130,-0.061,-0.309,-0.083
-0.026,-0.065,0.004,0.063,-0.218,0.018,-0.507,0.170,-0.138,0.011,-0.376,-0.004
-0.042,0.018,0.012,-0.023,-0.170,0.059,-0.342,0.222,-0.114,-0.110,-0.205,0.043
0.018,0.120,0.075,0.149,-0.123,-0.010,-0.427,0.363,-0.255,-0.051,-0.340,0.058
0.117,-0.004,-0.039,-0.015,-0.319,-0.074,-0.679,0.211,-0.250,-0.095,-0.377,0.101
0.065,0.095,0.059,0.023,-0.084,-0.106,-0.529,0.318,-0.134,-0.185,-0.179,0.111
0.156,0.174,-0.003,0.062,-0.228,0.028,-0.445,0.194,-0.173,-0.141,-0.268,0.075
0.132,0.059,0.103,0.166,-0.159,0.055,-0.382,0.246,-0.086,-0.028,-0.212,0.051
-0.065,-0.076,0.026,0.114,-0.167,-0.067,-0.312,0.253,-0.120,-0.083,-0.436,0.121
0.341,0.265,0.172,0.360,0.060,0.133,-0.077,0.495,0.050,0.211,-0.146,0.296
0.112,-0.055,-0.037,0.008,-0.207,-0.099,-0.359,0.172,0.022,-0.137,-0.392,-0.025
0.450,0.375,0.335,0.315,0.265,0.518,-0.130,0.615,0.161,0.082,0.029,0.212
0.536,0.373,0.487,0.425,0.226,0.389,-0.025,0.551,0.231,0.304,0.134,0.366
0.276,0.292,0.430,0.286,0.139,0.364,-0.033,0.569,0.211,0.248,-0.051,0.360
0.598,0.495,0.575,0.533,0.282,0.414,0.017,0.648,0.337,0.296,0.045,0.524
0.630,0.634,0.623,0.723,0.424,0.575,0.187,0.814,0.343,0.426,0.259,0.774
0.445,0.431,0.412,0.485,0.312,0.428,0.130,0.646,0.189,0.334,0.190,0.551
0.222,0.259,0.258,0.258,0.034,0.246,-0.122,0.579,0.113,0.013,-0.230,0.246
0.267,0.325,0.221,0.159,-0.011,0.343,-0.176,0.386,0.055,0.098,-0.178,0.157
0.304,0.322,0.354,0.344,-0.003,0.242,-0.113,0.566,0.124,0.151,-0.021,0.432
0.281,0.237,0.260,0.162,0.168,0.244,-0.223,0.571,0.085,0.212,-0.052,0.352
0.542,0.524,0.553,0.579,0.435,0.588,0.070,0.853,0.430,0.458,0.240,0.572
0.604,0.720,0.678,0.791,0.540,0.603,0.273,0.908,0.468,0.502,0.360,0.650
0.279,0.291,0.323,0.357,0.122,0.337,0.003,0.540,0.064,0.081,0.070,0.438
0.482,0.361,0.392,0.372,0.185,0.383,0.020,0.615,0.160,0.273,0.148,0.331
0.374,0.513,0.351,0.391,0.210,0.440,0.054,0.569,0.099,0.090,0.151,0.434
0.497,0.441,0.516,0.535,0.223,0.377,0.116,0.582,0.264,0.308,0.064,0.513
0.408,0.361,0.506,0.408,0.066,0.534,0.016,0.503,0.331,0.337,0.158,0.351
0.694,0.793,0.573,0.628,0.404,0.665,0.201,0.871,0.468,0.663,0.457,0.724
0.586,0.507,0.576,0.622,0.375,0.709,0.123,0.921,0.420,0.490,0.155,0.642
0.592,0.623,0.541,0.584,0.302,0.597,0.112,0.701,0.324,0.404,0.213,0.583
0.433,0.259,0.311,0.329,0.094,0.280,-0.087,0.408,0.050,0.016,-0.038,0.283
0.102,-0.065,0.138,0.166,-0.150,0.110,-0.299,0.282,-0.011,0.007,-0.230,0.195
0.050,-0.044,0.052,0.066,-0.075,-0.126,-0.497,0.189,-0.282,-0.105,-0.248,0.024
-0.087,-0.063,-0.113,-0.064,-0.350,-0.078,-0.531,0.175,-0.264,-0.346,-0.318,-0.045
-0.266,-0.142,-0.129,0.022,-0.222,-0.133,-0.526,0.136,-0.406,-0.441,-0.552,-0.006
0.086,0.016,-0.061,0.047,-0.313,0.039,-0.401,0.185,-0.226,-0.205,-0.322,0.053
0.160,0.185,0.175,0.301,-0.019,0.249,-0.317,0.328,-0.062,0.065,-0.166,0.237
-0.041,0.083,-0.021,0.029,-0.120,-0.014,-0.508,0.270,-0.299,-0.162,-0.248,0.061
-0.037,0.005,-0.033,0.028,-0.158,-0.091,-0.458,0.327,-0.189,-0.070,-0.370,-0.051
-0.043,-0.161,-0.145,0.003,-0.332,-0.209,-0.556,0.182,-0.283,-0.297,-0.437,-0.060
-0.044,-0.100,-0.149,-0.101,-0.391,-0.227,-0.428,0.098,-0.423,-0.077,-0.581,-0.057
0.061,0.072,0.046,-0.018,-0.290,-0.082,-0.533,0.151,-0.268,-0.018,-0.458,0.052
0.119,0.140,0.062,0.164,-0.009,0.102,-0.481,0.273,-0.210,-0.241,-0.326,0.220
0.160,-0.024,0.120,-0.028,-0.077,-0.034,-0.479,0.330,-0.059,-0.082,-0.315,0.216
0.206,0.158,0.062,0.200,-0.019,0.113,-0.311,0.409,0.012,-0.030,-0.366,0.200
0.165,0.159,0.072,0.259,-0.085,-0.010,-0.408,0.326,-0.100,-0.074,-0.316,0.133
0.105,0.160,0.160,0.255,-0.088,0.128,-0.403,0.322,-0.132,-0.017,-0.152,0.062
0.103,0.004,0.091,0.145,-0.099,0.131,-0.468,0.209,-0.078,-0.103,-0.300,0.218
0.087,0.129,0.084,0.167,-0.102,0.154,-0.331,0.310,-0.160,-0.146,-0.219,0.231
-0.091,0.027,-0.177,-0.136,-0.419,-0.032,-0.478,0.073,-0.309,-0.257,-0.474,-0.040
-0.112,0.040,0.024,0.007,-0.253,-0.012,-0.480,0.337,-0.197,-0.091,-0.139,0.068
-0.152,-0.135,-0.158,-0.042,-0.404,-0.233,-0.706,-0.000,-0.342,-0.281,-0.445,-0.053
0.048,0.076,0.054,0.107,-0.161,0.132,-0.348,0.278,-0.067,-0.088,-0.318,0.033
0.211,-0.053,0.117,0.107,-0.220,0.024,-0.441,0.392,-0.161,-0.062,-0.312,0.176
0.229,0.020,0.065,0.176,-0.050,-0.018,-0.325,0.439,-0.079,0.036,-0.195,0.136
0.301,0.219,0.229,0.273,0.018,0.301,-0.223,0.564,0.004,-0.052,-0.043,0.355
0.434,0.549,0.347,0.523,0.264,0.421,-0.121,0.612,0.176,0.192,0.042,0.446
0.440,0.463,0.368,0.466,0.223,0.252,-0.086,0.578,0.080,0.091,0.141,0.513
0.305,0.394,0.305,0.322,0.057,0.490,-0.037,0.549,-0.035,0.153,0.023,0.322
0.338,0.338,0.475,0.403,-0.004,0.193,-0.084,0.554,0.167,0.180,-0.032,0.379
0.600,0.594,0.581,0.495,0.367,0.525,-0.037,0.768,0.480,0.415,0.322,0.619
0.358,0.332,0.360,0.237,0.248,0.285,-0.153,0.538,0.051,0.186,0.004,0.357
0.274,0.262,0.244,0.118,0.110,0.285,-0.232,0.461,0.008,0.021,-0.209,0.353
0.403,0.272,0.373,0.448,0.121,0.567,-0.093,0.606,0.160,0.274,-0.137,0.370
