0.040,0.040,0.040,0.040,0.040,0.040,0.040,0.040,0.040,0.040,0.040,0.040,0.040,0.040,0.040,0.040,0.040,0.040,0.040,0.040,0.040,0.040,0.040,0.040,0.040
0.117,-0.013,0.400,0.637,-0.130,0.255,-0.080,0.590,0.015,-0.157,-0.045,0.035,0.052,0.351,-0.117,0.028,-0.234,0.003,-0.027,0.229,0.148,0.042,-0.188,0.560,-0.029
0.340,0.191,0.509,0.780,0.018,0.359,-0.048,0.744,0.131,0.205,-0.174,0.163,0.199,0.595,-0.020,-0.066,-0.016,0.170,0.004,0.312,0.099,0.274,-0.218,0.744,-0.155
0.288,0.158,0.656,0.706,0.067,0.383,-0.061,0.729,-0.045,0.249,0.018,0.055,0.056,0.677,0.015,-0.304,-0.102,0.212,-0.244,0.413,-0.010,0.293,-0.189,0.722,-0.053
0.340,0.148,0.480,0.678,0.206,0.485,-0.192,0.826,0.138,0.156,0.026,0.197,0.267,0.558,-0.024,-0.233,-0.122,0.287,0.012,0.469,0.096,0.089,-0.081,0.687,0.043
0.437,0.066,0.458,0.799,0.285,0.369,0.072,0.727,-0.032,-0.081,0.033,0.087,0.058,0.541,-0.105,-0.230,0.090,0.237,-0.124,0.352,0.056,0.197,0.068,0.652,0.012
0.052,0.087,0.367,0.497,-0.266,0.015,-0.434,0.409,-0.349,-0.333,-0.417,-0.098,-0.181,0.327,-0.361,-0.401,-0.292,0.076,-0.555,0.012,-0.122,-0.031,-0.500,0.394,-0.177
0.159,0.118,0.312,0.614,-0.051,0.171,-0.218,0.550,-0.040,-0.220,-0.341,-0.114,-0.130,0.541,-0.275,-0.383,-0.142,0.242,0.004,0.320,-0.029,0.210,-0.303,0.625,-0.280
0.115,-0.129,0.298,0.431,-0.085,0.155,-0.327,0.332,-0.115,-0.373,-0.298,-0.044,-0.251,0.329,-0.215,-0.406,-0.416,0.044,-0.305,0.281,-0.093,0.021,-0.464,0.668,-0.087
0.258,0.112,0.443,0.580,-0.367,0.160,-0.212,0.626,-0.164,0.036,0.010,-0.024,-0.064,0.440,-0.373,-0.401,-0.269,0.098,-0.130,0.388,0.129,0.095,-0.563,0.677,-0.177
0.064,-0.081,0.388,0.521,-0.181,0.116,-0.240,0.330,-0.206,-0.164,-0.530,-0.058,-0.116,0.366,-0.488,-0.183,-0.200,0.029,-0.468,0.145,-0.042,0.010,-0.373,0.439,-0.041
-0.024,-0.114,0.308,0.344,-0.096,0.082,-0.563,0.507,-0.450,-0.322,-0.469,-0.186,-0.091,0.198,-0.438,-0.182,-0.293,0.063,-0.435,0.231,-0.238,-0.117,-0.577,0.505,-0.011
0.133,0.015,0.343,0.351,-0.181,0.165,-0.261,0.542,-0.127,-0.174,-0.208,-0.130,0.121,0.518,-0.307,-0.168,-0.206,0.138,-0.196,0.062,-0.198,0.048,-0.596,0.518,-0.103
0.050,-0.076,0.394,0.367,-0.055,0.163,-0.270,0.494,-0.288,0.007,-0.506,-0.045,-0.120,0.447,-0.336,-0.296,-0.060,-0.010,-0.106,0.125,-0.076,-0.008,-0.375,0.357,-0.009
0.256,0.342,0.485,0.458,0.130,0.286,-0.230,0.696,-0.078,0.120,-0.080,0.306,0.177,0.443,-0.232,-0.167,-0.025,0.149,-0.080,0.324,0.217,0.261,-0.265,0.817,0.002
0.231,0.077,0.594,0.563,0.115,0.358,-0.201,0.674,-0.047,0.139,-0.038,-0.013,0.117,0.538,-0.143,-0.273,-0.236,0.173,0.015,0.373,0.027,0.259,-0.227,0.746,0.078
0.059,-0.053,0.338,0.443,-0.103,0.021,-0.434,0.458,-0.461,-0.330,-0.313,-0.157,0.053,0.327,-0.398,-0.446,-0.411,-0.015,-0.264,0.060,-0.042,0.038,-0.410,0.513,-0.257
0.231,0.156,0.409,0.362,-0.201,0.234,-0.097,0.601,-0.199,-0.058,-0.049,0.063,0.066,0.497,-0.377,-0.262,-0.259,0.206,-0.356,0.320,0.095,-0.023,-0.390,0.416,-0.281
0.213,-0.081,0.603,0.534,0.114,0.258,-0.227,0.620,-0.309,-0.341,-0.055,-0.106,-0.073,0.429,-0.204,-0.498,-0.415,0.074,-0.364,0.310,-0.008,0.004,-0.237,0.342,-0.133
0.310,0.086,0.559,0.671,0.151,0.461,-0.288,0.618,-0.073,-0.067,-0.111,0.129,0.166,0.479,-0.079,-0.185,-0.214,-0.015,-0.273,0.405,-0.180,0.099,-0.048,0.578,-0.012
0.223,0.118,0.546,0.480,0.021,0.263,-0.375,0.558,-0.029,-0.098,-0.097,0.036,-0.129,0.442,-0.236,-0.432,-0.401,0.080,-0.471,0.191,-0.147,0.094,-0.285,0.499,-0.137
0.070,0.035,0.379,0.352,0.003,0.009,-0.341,0.415,-0.066,-0.055,-0.191,0.027,-0.126,0.352,-0.214,-0.235,-0.177,-0.067,-0.418,0.209,0.118,0.101,-0.521,0.642,-0.195
0.099,0.137,0.363,0.391,-0.039,0.028,-0.503,0.429,-0.144,-0.234,-0.219,0.048,-0.120,0.250,-0.316,-0.382,-0.366,-0.005,-0.387,0.252,0.030,0.008,-0.337,0.588,-0.291
0.101,0.102,0.222,0.460,-0.201,0.109,-0.276,0.546,-0.033,-0.263,-0.289,-0.022,0.144,0.562,-0.385,-0.369,-0.142,0.204,-0.235,0.240,0.069,0.023,-0.175,0.683,-0.112
0.129,0.112,0.399,0.567,0.049,0.212,-0.321,0.609,-0.082,-0.063,0.057,-0.004,0.041,0.382,-0.185,-0.338,-0.231,0.167,-0.434,0.132,-0.036,0.116,-0.166,0.535,0.019
0.044,-0.269,0.245,0.365,-0.143,0.191,-0.474,0.321,-0.267,-0.351,-0.249,0.000,-0.178,0.202,-0.352,-0.474,-0.361,-0.136,-0.355,0.240,-0.189,0.153,-0.442,0.476,-0.277
-0.010,-0.070,0.169,0.145,-0.299,0.068,-0.490,0.438,-0.215,-0.352,-0.274,-0.313,-0.189,0.167,-0.437,-0.549,-0.467,-0.137,-0.713,-0.054,-0.138,0.013,-0.490,0.375,-0.323
0.028,-0.183,0.290,0.391,-0.028,0.196,-0.119,0.542,-0.130,-0.348,-0.292,-0.042,-0.056,0.323,-0.372,-0.510,-0.398,0.051,-0.348,0.116,-0.153,0.070,-0.388,0.489,-0.196
-0.108,-0.046,0.268,0.356,-0.055,0.137,-0.205,0.407,-0.160,-0.178,-0.068,-0.072,-0.093,0.332,-0.420,-0.473,-0.353,-0.029,-0.484,0.028,-0.243,0.043,-0.245,0.416,-0.116
-0.181,-0.259,0.226,0.267,-0.210,-0.065,-0.450,0.337,-0.392,-0.383,-0.211,-0.225,-0.100,0.222,-0.537,-0.442,-0.367,-0.261,-0.450,-0.046,-0.170,-0.129,-0.456,0.293,-0.139
-0.396,-0.325,0.200,0.282,-0.080,-0.007,-0.498,0.381,-0.419,-0.263,-0.285,-0.350,-0.192,0.095,-0.622,-0.492,-0.399,-0.300,-0.347,0.020,-0.212,-0.259,-0.475,0.200,-0.410
0.011,-0.122,0.159,0.414,0.112,0.080,-0.489,0.422,-0.299,-0.052,-0.287,-0.273,-0.041,0.361,-0.514,-0.460,-0.463,-0.038,-0.270,0.101,-0.176,-0.043,-0.438,0.387,-0.345
-0.065,0.072,0.210,0.449,-0.127,0.070,-0.168,0.484,-0.338,-0.166,-0.408,-0.241,-0.055,0.441,-0.428,-0.560,-0.442,-0.082,-0.222,0.092,-0.088,-0.085,-0.329,0.448,-0.489
0.110,-0.228,0.225,0.248,-0.078,-0.044,-0.422,0.263,-0.463,-0.313,-0.296,-0.228,-0.123,0.216,-0.498,-0.551,-0.435,-0.166,-0.299,0.072,-0.027,0.031,-0.511,0.356,-0.602
0.023,-0.034,0.225,0.332,-0.228,0.029,-0.572,0.270,-0.406,-0.205,-0.555,-0.412,-0.364,0.275,-0.424,-0.673,-0.457,-0.164,-0.507,0.129,-0.040,-0.077,-0.603,0.344,-0.563
0.136,0.026,0.386,0.367,-0.068,0.313,-0.516,0.436,-0.218,-0.198,-0.199,-0.036,-0.010,0.351,-0.181,-0.590,-0.280,0.039,-0.209,0.086,0.065,0.178,-0.270,0.510,-0.434
0.125,0.045,0.411,0.572,-0.052,0.298,-0.501,0.469,0.006,-0.164,-0.116,-0.103,-0.128,0.468,-0.159,-0.330,-0.162,0.125,-0.102,0.273,0.070,0.151,-0.227,0.627,-0.215
0.112,-0.262,0.392,0.363,-0.099,0.224,-0.274,0.570,-0.024,-0.230,-0.263,0.057,0.085,0.470,-0.069,-0.457,-0.162,-0.057,-0.107,0.322,-0.059,0.165,-0.417,0.614,-0.118
0.272,0.073,0.401,0.414,0.132,0.234,-0.044,0.598,-0.114,-0.194,-0.275,0.177,0.274,0.514,-0.080,-0.224,-0.278,0.019,-0.072,0.336,0.161,0.264,-0.198,0.783,-0.014
0.137,0.014,0.487,0.429,0.011,0.073,-0.181,0.511,-0.022,-0.052,-0.047,-0.091,0.046,0.521,-0.066,-0.077,-0.328,0.225,-0.138,0.316,-0.089,0.085,-0.098,0.754,-0.160
0.416,0.229,0.739,0.590,0.255,0.405,0.049,0.736,0.086,0.108,0.147,0.128,0.094,0.826,-0.058,-0.103,0.021,0.292,-0.004,0.408,0.188,0.278,0.050,0.781,0.088
0.357,0.218,0.757,0.729,0.410,0.347,-0.036,0.733,0.356,0.147,0.162,0.189,0.227,0.827,-0.081,-0.154,-0.083,0.385,0.061,0.470,0.117,0.393,0.039,0.896,0.219
0.500,0.419,0.707,0.762,0.388,0.450,-0.053,0.780,0.116,0.109,0.168,0.021,0.300,0.865,-0.114,0.133,-0.031,0.221,0.070,0.426,0.259,0.238,0.055,0.780,0.258
0.209,0.222,0.413,0.553,0.156,0.255,0.108,0.573,-0.039,0.064,0.088,0.140,0.237,0.566,-0.027,-0.115,-0.292,0.338,-0.318,0.426,0.018,0.050,-0.089,0.744,-0.185
0.327,0.135,0.573,0.491,0.270,0.221,0.110,0.692,0.125,0.051,0.021,0.249,0.153,0.647,-0.018,-0.329,-0.195,0.277,-0.131,0.369,0.088,0.234,-0.325,0.731,-0.056
0.347,0.365,0.630,0.594,0.077,0.471,0.080,0.895,0.170,-0.032,-0.003,0.290,0.147,0.666,0.004,-0.266,0.062,0.344,-0.099,0.474,0.158,0.274,-0.023,0.648,0.037
0.188,0.130,0.521,0.626,0.099,0.424,-0.184,0.679,0.040,-0.123,-0.049,0.206,0.166,0.412,-0.347,-0.157,-0.101,0.105,0.026,0.425,0.116,0.321,-0.215,0.663,-0.088
0.573,0.266,0.671,0.711,0.214,0.607,0.104,0.782,0.324,0.209,0.134,0.442,0.192,0.750,0.114,-0.027,0.025,0.265,0.038,0.409,0.217,0.316,0.075,0.957,0.182
0.392,0.053,0.574,0.680,0.096,0.439,0.004,0.664,0.034,0.097,-0.067,0.238,0.116,0.565,-0.127,-0.288,-0.253,0.299,0.051,0.314,0.077,0.219,-0.146,0.799,0.107
0.286,0.178,0.516,0.392,0.035,0.285,-0.200,0.482,-0.051,-0.045,-0.167,-0.132,0.188,0.710,-0.393,-0.309,-0.222,0.210,-0.214,0.139,-0.002,0.097,-0.350,0.711,-0.096
0.180,-0.012,0.506,0.460,-0.006,0.089,-0.176,0.547,-0.119,-0.130,-0.131,-0.182,0.103,0.494,-0.263,-0.468,-0.107,0.052,-0.300,0.352,0.016,0.103,-0.513,0.518,-0.296
0.003,-0.181,0.289,0.147,-0.277,0.001,-0.422,0.202,-0.267,-0.084,-0.437,-0.373,-0.273,0.229,-0.530,-0.690,-0.434,-0.314,-0.568,-0.029,-0.278,-0.010,-0.794,0.074,-0.442
0.013,-0.203,0.198,0.219,-0.258,0.021,-0.321,0.321,-0.441,-0.146,-0.355,-0.184,-0.327,0.350,-0.492,-0.685,-0.392,-0.130,-0.416,0.127,-0.039,0.109,-0.618,0.318,-0.238
0.000,-0.112,0.353,0.327,-0.280,-0.007,-0.446,0.315,-0.417,-0.311,-0.346,-0.167,-0.181,0.276,-0.318,-0.427,-0.365,-0.006,-0.481,-0.053,-0.061,-0.089,-0.697,0.369,-0.167
-0.080,-0.237,0.295,0.332,-0.205,-0.018,-0.549,0.164,-0.261,-0.241,-0.543,-0.262,-0.272,0.209,-0.472,-0.802,-0.320,-0.170,-0.494,-0.016,-0.146,-0.289,-0.829,0.319,-0.169
-0.007,-0.113,0.140,0.228,-0.197,-0.192,-0.535,0.307,-0.426,-0.191,-0.516,-0.341,-0.259,0.178,-0.383,-0.637,-0.607,-0.291,-0.389,0.072,-0.315,-0.112,-0.645,0.363,-0.371
-0.475,-0.282,-0.029,0.108,-0.423,-0.130,-0.654,0.220,-0.691,-0.515,-0.544,-0.456,-0.400,-0.020,-0.642,-0.820,-0.687,-0.519,-0.490,-0.071,-0.165,-0.368,-0.800,0.056,-0.664
-0.059,-0.097,0.256,0.248,-0.256,0.018,-0.375,0.394,-0.317,-0.345,-0.429,-0.091,-0.239,0.258,-0.443,-0.622,-0.194,-0.250,-0.421,0.207,-0.284,-0.183,-0.428,0.389,-0.217
0.018,0.028,0.403,0.350,-0.083,0.110,-0.161,0.483,-0.082,-0.416,-0.356,-0.081,-0.219,0.359,-0.311,-0.651,-0.292,-0.003,-0.247,0.092,-0.028,-0.003,-0.520,0.395,-0.176
0.143,-0.049,0.241,0.440,0.100,0.130,-0.186,0.396,-0.095,-0.228,-0.316,-0.241,-0.216,0.374,-0.352,-0.388,-0.391,0.094,-0.161,0.078,0.002,-0.049,-0.550,0.362,-0.160
0.181,0.106,0.529,0.509,0.070,0.358,-0.225,0.570,-0.014,-0.151,-0.152,0.022,0.035,0.565,-0.212,-0.180,-0.332,0.080,-0.128,0.294,0.022,0.184,-0.270,0.625,-0.186
0.128,0.168,0.354,0.483,0.023,0.094,-0.399,0.418,-0.131,-0.200,-0.110,0.048,0.071,0.434,-0.172,-0.510,-0.377,-0.102,-0.498,0.270,-0.069,0.029,-0.413,0.465,-0.015
0.138,0.031,0.560,0.313,-0.042,0.034,-0.582,0.536,-0.131,-0.142,-0.335,0.028,0.070,0.445,-0.381,-0.625,-0.612,-0.097,-0.169,0.213,-0.037,0.113,-0.462,0.570,-0.146
-0.147,-0.035,0.316,0.317,-0.213,-0.101,-0.685,0.395,-0.385,-0.143,-0.347,-0.010,-0.077,0.150,-0.541,-0.693,-0.499,-0.037,-0.524,0.219,-0.222,-0.006,-0.518,0.390,-0.331
0.022,-0.041,0.412,0.221,-0.226,-0.123,-0.647,0.352,-0.322,-0.185,-0.464,-0.001,-0.224,0.167,-0.559,-0.708,-0.365,-0.181,-0.278,0.208,-0.171,0.023,-0.225,0.428,-0.369
-0.058,-0.204,0.224,0.267,-0.223,-0.213,-0.494,0.344,-0.340,-0.437,-0.293,-0.122,-0.161,0.257,-0.470,-0.612,-0.609,-0.181,-0.348,0.064,-0.148,-0.166,-0.423,0.306,-0.336
0.078,-0.223,0.305,0.263,-0.054,-0.072,-0.520,0.318,-0.304,-0.189,-0.422,0.011,-0.231,0.406,-0.470,-0.507,-0.430,-0.147,-0.190,0.131,-0.008,-0.209,-0.303,0.345,-0.346
0.116,0.065,0.240,0.405,-0.072,0.051,-0.429,0.436,-0.230,-0.102,-0.482,0.185,-0.177,0.430,-0.354,-0.466,-0.547,0.022,-0.256,0.192,-0.121,-0.063,-0.517,0.533,-0.171
0.242,0.235,0.596,0.667,0.073,0.320,-0.304,0.660,0.001,0.148,-0.250,0.283,0.185,0.567,-0.367,-0.169,-0.091,0.137,-0.274,0.443,0.140,0.148,-0.334,0.697,0.034
0.330,0.215,0.503,0.799,0.033,0.577,0.135,0.792,0.096,0.125,0.172,0.264,0.276,0.772,-0.027,-0.155,-0.087,0.257,0.107,0.496,0.217,0.395,-0.063,0.802,0.204
0.454,0.430,0.675,0.811,0.020,0.581,0.213,0.894,0.127,0.214,0.212,0.290,0.388,0.604,-0.204,-0.185,0.042,0.223,-0.064,0.406,0.401,0.331,-0.017,0.725,0.087
0.410,0.294,0.670,0.606,0.176,0.470,-0.179,0.752,0.119,0.002,0.030,0.172,0.437,0.530,-0.266,-0.147,-0.047,0.236,0.087,0.388,0.215,0.148,-0.210,0.717,-0.167
0.392,0.305,0.448,0.556,0.140,0.374,-0.121,0.748,-0.006,0.048,-0.116,0.276,0.223,0.594,-0.069,-0.159,0.112,0.237,-0.018,0.378,-0.142,0.167,-0.182,0.779,-0.101
0.092,0.087,0.608,0.547,0.134,0.409,0.003,0.699,0.003,0.031,-0.182,0.263,0.212,0.617,-0.232,-0.415,0.099,0.115,-0.095,0.313,0.251,0.204,-0.182,0.741,-0.044
0.274,0.260,0.885,0.757,0.217,0.445,0.032,0.904,0.326,-0.086,0.180,0.156,0.520,0.850,0.038,0.082,0.150,0.363,0.178,0.395,0.326,0.304,-0.031,0.777,0.001
0.410,0.243,0.645,0.649,0.082,0.327,-0.127,0.644,0.173,0.334,0.018,0.206,0.186,0.732,-0.127,-0.230,0.090,0.372,0.137,0.491,0.316,0.136,-0.041,0.673,-0.016
0.385,0.267,0.533,0.666,0.270,0.421,0.100,0.785,0.002,0.183,0.111,0.103,0.368,0.843,0.147,-0.032,0.095,0.500,0.069,0.406,0.384,0.420,-0.067,0.815,-0.010
0.151,0.218,0.524,0.582,0.182,0.409,-0.166,0.655,0.088,0.019,0.020,0.006,0.170,0.477,0.036,-0.227,-0.031,0.197,0.012,0.309,0.055,0.206,-0.140,0.745,0.152
0.308,0.159,0.622,0.524,0.154,0.362,-0.017,0.680,0.109,0.054,-0.007,0.241,0.202,0.582,0.043,-0.063,0.020,0.280,-0.031,0.417,0.028,0.186,-0.243,0.722,-0.019
0.346,0.181,0.803,0.676,0.288,0.362,-0.108,0.572,0.061,0.119,-0.059,0.314,0.182,0.627,0.054,-0.016,0.010,0.078,0.105,0.492,0.138,0.205,-0.362,0.759,-0.004
0.384,0.238,0.774,0.879,0.387,0.627,-0.105,0.849,0.237,0.373,0.238,0.315,0.322,0.811,0.128,-0.196,-0.022,0.234,0.271,0.500,0.298,0.308,-0.038,0.789,0.001
0.214,0.359,0.720,0.824,0.154,0.573,-0.036,0.803,0.181,0.333,0.130,0.386,0.347,0.638,0.126,-0.196,0.027,0.302,-0.062,0.509,0.232,0.335,-0.050,0.840,-0.067
0.381,0.297,0.801,0.898,0.303,0.539,-0.220,0.752,0.304,0.399,-0.192,0.250,0.356,0.552,0.118,-0.087,-0.230,0.319,0.056,0.564,0.282,0.522,-0.065,0.919,0.036
0.310,0.273,0.643,0.631,0.169,0.173,-0.068,0.709,0.226,0.008,-0.286,0.044,0.165,0.699,0.079,-0.235,-0.161,0.241,0.091,0.428,0.129,0.413,-0.113,0.615,-0.105
0.371,0.127,0.560,0.681,0.126,0.363,-0.227,0.673,0.208,-0.088,-0.028,0.099,0.174,0.586,-0.075,-0.255,-0.223,0.139,0.140,0.389,0.283,0.438,0.030,0.679,0.074
0.247,0.200,0.531,0.545,-0.156,0.327,-0.181,0.683,-0.019,-0.141,-0.109,0.086,-0.037,0.486,-0.130,-0.362,-0.073,0.106,-0.019,0.331,0.225,0.212,-0.185,0.666,-0.177
0.226,-0.012,0.313,0.508,-0.193,0.295,-0.130,0.645,-0.240,-0.146,-0.175,0.123,-0.062,0.455,-0.232,-0.354,0.011,0.105,-0.003,0.142,0.293,0.025,-0.182,0.510,-0.287
0.255,0.147,0.417,0.552,-0.077,0.328,-0.306,0.703,-0.087,0.103,0.039,0.362,-0.023,0.631,-0.020,-0.260,0.117,0.159,-0.012,0.372,0.164,0.425,-0.392,0.698,-0.021
0.307,-0.065,0.479,0.418,0.071,0.331,-0.145,0.590,-0.115,-0.070,-0.110,0.219,0.064,0.511,-0.112,-0.251,-0.007,0.132,-0.293,0.289,0.258,0.056,-0.491,0.755,-0.204
0.465,-0.028,0.478,0.684,-0.013,0.220,0.047,0.625,-0.020,0.017,-0.143,-0.005,0.118,0.449,-0.289,-0.433,-0.089,0.087,-0.128,0.313,0.225,0.040,-0.309,0.585,0.040
0.277,0.180,0.611,0.587,-0.008,0.230,-0.090,0.643,0.018,0.049,-0.080,-0.136,0.107,0.571,-0.309,-0.224,-0.536,0.394,-0.104,0.445,0.107,0.152,-0.278,0.789,-0.049
0.127,0.163,0.527,0.425,-0.157,0.138,-0.263,0.556,-0.027,-0.002,-0.294,-0.057,0.053,0.427,-0.428,-0.211,-0.345,0.090,-0.256,0.378,0.091,0.008,-0.609,0.639,-0.076
0.188,0.072,0.510,0.504,-0.058,0.219,-0.093,0.471,-0.042,-0.146,-0.403,-0.117,-0.098,0.570,-0.085,-0.219,-0.463,0.280,-0.290,0.362,0.167,0.179,-0.365,0.728,-0.102
0.188,-0.066,0.287,0.416,-0.186,0.154,-0.177,0.378,-0.034,-0.198,-0.334,-0.059,0.034,0.504,-0.251,-0.342,-0.391,0.108,-0.409,0.220,-0.065,0.096,-0.450,0.505,-0.304
0.009,-0.129,0.260,0.411,-0.133,0.258,-0.220,0.271,-0.140,-0.044,-0.186,-0.108,0.111,0.412,-0.362,-0.261,-0.567,-0.065,-0.379,0.140,-0.021,-0.116,-0.423,0.558,-0.433
-0.011,-0.136,0.180,0.289,-0.129,0.129,-0.509,0.335,-0.341,-0.255,-0.150,-0.175,-0.017,0.224,-0.411,-0.534,-0.736,-0.058,-0.452,0.153,-0.099,-0.168,-0.434,0.466,-0.431
-0.114,-0.230,0.047,0.272,-0.389,-0.111,-0.463,0.270,-0.323,-0.418,-0.502,-0.191,-0.197,0.180,-0.555,-0.660,-0.576,-0.127,-0.492,0.042,-0.070,-0.231,-0.381,0.326,-0.468
-0.212,-0.336,0.048,0.229,-0.350,-0.099,-0.594,0.237,-0.477,-0.548,-0.680,-0.280,-0.297,0.166,-0.599,-0.624,-0.458,-0.296,-0.315,0.103,-0.299,-0.023,-0.552,0.247,-0.534
-0.266,-0.590,-0.055,0.072,-0.516,-0.299,-0.608,0.106,-0.518,-0.705,-0.700,-0.404,-0.439,0.092,-0.505,-0.704,-0.656,-0.318,-0.711,-0.117,-0.589,-0.295,-0.793,-0.001,-0.532
-0.114,-0.345,0.192,0.154,-0.505,-0.283,-0.481,0.204,-0.271,-0.385,-0.585,-0.294,-0.435,-0.017,-0.474,-0.578,-0.618,-0.211,-0.632,-0.064,-0.328,-0.252,-0.719,0.245,-0.705
-0.117,-0.431,0.104,0.165,-0.368,-0.083,-0.675,0.346,-0.131,-0.326,-0.429,-0.281,-0.458,0.055,-0.700,-0.745,-0.531,-0.185,-0.620,-0.147,-0.310,-0.032,-0.609,0.188,-0.463
-0.142,-0.338,0.056,0.045,-0.594,-0.124,-0.714,0.129,-0.419,-0.610,-0.557,-0.270,-0.462,-0.064,-0.776,-0.771,-0.848,-0.477,-0.512,-0.524,-0.363,-0.327,-0.840,0.049,-0.501
0.065,-0.102,0.323,0.282,-0.258,0.114,-0.395,0.392,-0.282,-0.355,-0.405,-0.034,-0.240,0.184,-0.436,-0.592,-0.623,-0.282,-0.402,-0.076,-0.156,-0.155,-0.547,0.442,-0.398
0.285,-0.022,0.634,0.498,-0.178,0.200,-0.032,0.669,-0.128,-0.102,-0.147,0.171,-0.084,0.511,-0.335,-0.125,-0.373,0.157,-0.162,0.285,-0.061,-0.004,-0.399,0.505,-0.192
0.275,0.206,0.582,0.666,0.221,0.584,0.012,0.768,0.108,0.011,0.109,0.220,0.075,0.499,0.006,-0.193,-0.111,0.318,-0.168,0.457,0.165,0.113,-0.079,0.787,-0.089
0.379,0.303,0.734,0.795,0.296,0.494,0.154,0.742,0.135,0.255,0.165,0.097,0.127,0.716,-0.121,-0.038,-0.091,0.212,-0.027,0.543,0.211,0.070,0.067,0.841,0.001
0.240,0.100,0.525,0.665,0.210,0.292,-0.008,0.584,0.076,-0.122,-0.002,-0.064,0.077,0.467,-0.087,-0.260,-0.265,0.128,0.073,0.369,0.072,0.018,-0.261,0.686,-0.099
0.536,0.233,0.610,0.842,0.370,0.442,0.031,0.817,0.471,0.089,0.210,0.281,0.204,0.743,0.111,-0.053,-0.165,0.333,0.013,0.622,0.240,0.339,-0.236,0.898,0.080
0.551,0.282,0.742,0.815,0.185,0.541,-0.029,0.816,0.267,0.043,0.217,0.366,0.318,0.801,0.017,-0.103,-0.117,0.444,-0.044,0.545,0.214,0.353,-0.225,0.868,0.008
0.437,0.325,0.713,0.844,0.332,0.353,0.027,0.747,0.143,0.211,0.148,0.367,0.417,0.705,-0.137,0.105,-0.050,0.337,-0.067,0.535,0.322,0.480,-0.083,0.885,0.138
0.727,0.381,0.819,0.909,0.289,0.604,0.064,0.722,0.351,0.095,0.267,0.327,0.423,0.763,-0.152,-0.055,-0.131,0.415,-0.065,0.743,0.171,0.434,-0.036,0.861,0.108
0.412,-0.007,0.417,0.660,0.063,0.389,-0.196,0.567,-0.058,-0.138,-0.052,0.072,0.116,0.410,-0.324,-0.460,-0.013,0.177,0.005,0.287,0.159,0.288,-0.402,0.529,-0.022
0.287,-0.134,0.463,0.611,0.086,0.167,-0.362,0.579,-0.118,-0.092,-0.095,-0.013,0.061,0.490,-0.248,-0.506,-0.044,0.052,-0.210,0.083,-0.007,0.159,-0.129,0.556,-0.133
0.242,0.048,0.487,0.455,-0.011,0.144,-0.254,0.499,-0.006,0.179,0.017,0.180,0.040,0.456,-0.165,-0.096,-0.139,0.074,-0.156,0.303,0.076,0.194,-0.196,0.576,-0.166
0.072,0.042,0.540,0.515,0.042,0.367,-0.200,0.420,-0.201,0.122,-0.004,0.065,0.023,0.415,-0.147,-0.104,-0.245,0.148,-0.110,0.285,0.111,0.057,-0.309,0.618,-0.092
0.321,0.229,0.631,0.661,0.102,0.258,-0.063,0.657,-0.177,0.198,0.127,0.175,0.319,0.604,-0.095,-0.224,-0.053,0.447,0.170,0.334,0.101,0.113,-0.062,0.847,0.123
0.710,0.355,0.766,0.717,0.255,0.605,-0.061,0.779,0.201,0.252,0.087,0.417,0.462,0.659,0.128,-0.048,-0.089,0.453,0.117,0.592,0.339,0.400,0.101,0.865,0.277
0.556,0.344,0.533,0.698,0.352,0.332,-0.138,0.739,0.292,0.277,-0.135,0.265,0.210,0.538,-0.056,-0.123,-0.063,0.055,0.059,0.450,0.154,0.179,-0.178,0.902,0.119
0.470,0.352,0.657,0.838,0.633,0.609,0.026,0.912,0.338,0.419,0.164,0.425,0.404,0.670,0.104,-0.056,-0.086,0.409,0.079,0.705,0.343,0.477,0.016,0.949,0.008
0.516,0.575,0.647,0.999,0.364,0.593,0.069,1.049,0.268,0.352,0.205,0.357,0.378,0.713,0.161,0.100,0.130,0.440,0.050,0.721,0.503,0.582,0.077,0.995,0.014
0.414,0.330,0.632,0.785,0.343,0.440,0.049,0.735,0.070,0.198,0.173,0.193,0.255,0.693,0.093,0.067,0.045,0.258,-0.028,0.325,0.164,0.441,-0.226,0.893,0.049
0.402,0.174,0.539,0.731,0.254,0.306,-0.215,0.698,0.135,0.128,0.030,0.273,0.310,0.649,0.062,-0.018,-0.047,0.282,0.053,0.304,0.210,0.244,-0.099,0.825,-0.017
0.316,0.068,0.530,0.659,0.170,0.068,-0.267,0.602,-0.124,-0.064,-0.224,0.207,0.216,0.545,-0.196,-0.037,-0.227,0.205,-0.144,0.381,-0.027,0.274,-0.310,0.622,-0.174
0.444,-0.020,0.547,0.331,0.137,0.152,-0.323,0.557,0.031,0.029,-0.335,0.186,0.209,0.634,-0.285,-0.268,-0.336,0.137,-0.176,0.432,-0.120,0.153,-0.285,0.586,-0.109
0.313,-0.034,0.389,0.438,0.022,0.270,-0.283,0.626,-0.102,-0.037,-0.173,-0.025,0.314,0.500,-0.453,-0.410,-0.339,0.142,-0.271,0.237,-0.005,0.218,-0.136,0.680,-0.090
0.128,-0.231,0.331,0.341,-0.224,-0.028,-0.531,0.401,-0.099,-0.248,-0.315,-0.184,0.037,0.225,-0.432,-0.758,-0.392,-0.010,-0.452,0.079,-0.131,-0.077,-0.340,0.429,-0.153
-0.024,-0.398,0.170,0.279,-0.238,-0.079,-0.476,0.354,-0.265,-0.192,-0.241,-0.040,0.012,0.026,-0.389,-0.826,-0.549,-0.209,-0.560,0.040,-0.299,-0.244,-0.453,0.327,-0.161
-0.017,-0.164,0.223,0.336,0.007,-0.143,-0.373,0.311,-0.157,-0.399,-0.312,-0.292,-0.100,0.278,-0.247,-0.475,-0.493,-0.106,-0.449,0.158,-0.276,-0.067,-0.424,0.401,-0.175
-0.192,-0.343,0.306,0.310,-0.305,-0.252,-0.407,0.228,-0.409,-0.462,-0.408,-0.459,-0.461,0.246,-0.385,-0.722,-0.645,-0.370,-0.693,0.022,-0.302,-0.259,-0.708,0.267,-0.454
-0.378,-0.457,0.024,0.064,-0.175,-0.198,-0.581,0.171,-0.546,-0.457,-0.722,-0.431,-0.263,0.209,-0.616,-0.730,-0.657,-0.350,-0.560,-0.112,-0.351,-0.401,-0.777,0.182,-0.580
-0.091,-0.157,0.347,0.299,-0.182,-0.032,-0.554,0.371,-0.168,-0.045,-0.450,-0.266,-0.141,0.332,-0.370,-0.541,-0.320,-0.050,-0.492,0.068,-0.445,-0.094,-0.717,0.377,-0.443
-0.078,-0.130,0.238,0.163,-0.246,-0.093,-0.774,0.223,-0.243,-0.222,-0.468,-0.263,-0.245,0.225,-0.490,-0.588,-0.578,-0.176,-0.597,0.008,-0.247,-0.307,-0.589,0.336,-0.376
-0.181,-0.061,0.212,0.312,-0.128,0.063,-0.622,0.316,-0.184,-0.090,-0.514,-0.173,-0.236,0.190,-0.438,-0.475,-0.373,-0.262,-0.528,0.264,-0.126,-0.040,-0.653,0.429,-0.341
-0.021,-0.270,0.319,0.248,-0.040,-0.063,-0.587,0.280,-0.316,-0.095,-0.342,-0.094,-0.081,0.318,-0.421,-0.401,-0.353,-0.142,-0.508,0.206,-0.262,-0.004,-0.561,0.421,-0.093
0.073,0.036,0.483,0.446,0.055,0.350,-0.206,0.599,-0.044,0.067,-0.116,-0.055,0.176,0.423,-0.105,-0.171,-0.220,0.078,-0.323,0.449,-0.015,0.203,-0.309,0.597,0.007
0.277,0.146,0.544,0.627,0.087,0.235,-0.259,0.628,0.031,-0.189,-0.092,0.080,0.039,0.549,-0.206,-0.167,-0.328,0.029,-0.081,0.414,-0.024,0.312,-0.334,0.609,-0.153
0.022,-0.237,0.573,0.384,-0.004,0.089,-0.335,0.488,-0.116,-0.368,-0.349,0.027,-0.091,0.403,-0.507,-0.568,-0.401,0.032,-0.245,0.141,-0.158,0.047,-0.445,0.501,-0.364
0.298,0.147,0.664,0.642,0.085,0.295,-0.116,0.708,0.224,-0.028,-0.229,0.287,0.194,0.640,0.007,-0.064,-0.122,0.328,-0.108,0.520,0.104,0.156,-0.217,0.642,-0.092
0.294,0.192,0.599,0.721,-0.226,0.279,-0.078,0.669,0.079,0.088,-0.257,0.158,0.005,0.590,-0.273,-0.094,-0.157,0.257,-0.088,0.352,0.143,0.136,-0.440,0.723,-0.199
0.461,0.165,0.619,0.607,0.144,0.400,-0.125,0.745,0.296,-0.005,0.029,0.317,0.155,0.725,-0.102,-0.087,-0.021,0.283,-0.073,0.501,0.454,0.295,-0.300,0.807,-0.218
0.206,0.178,0.619,0.685,0.252,0.188,-0.031,0.705,0.164,-0.007,0.053,0.324,0.073,0.501,-0.155,-0.045,-0.147,0.242,0.094,0.446,0.288,0.298,-0.318,0.749,-0.024
0.154,0.217,0.642,0.473,0.145,0.243,-0.286,0.624,-0.051,0.078,-0.028,0.233,0.195,0.572,-0.092,-0.159,-0.012,0.270,0.051,0.243,0.134,0.162,-0.246,0.721,-0.025
-0.033,-0.118,0.358,0.518,0.249,0.099,-0.437,0.383,-0.017,-0.135,-0.179,0.167,0.061,0.281,-0.303,-0.543,-0.238,0.101,-0.280,0.103,-0.026,0.126,-0.380,0.519,-0.191
0.245,0.067,0.584,0.572,0.181,0.281,-0.165,0.633,-0.103,0.115,-0.203,0.200,0.076,0.688,-0.181,-0.235,-0.265,0.036,-0.260,0.414,0.098,0.072,-0.259,0.624,-0.054
0.094,-0.000,0.556,0.392,0.214,0.373,-0.433,0.539,-0.121,-0.023,-0.141,0.101,0.021,0.450,0.011,-0.298,-0.294,0.012,-0.339,0.198,0.005,0.134,-0.363,0.491,-0.225
0.203,0.061,0.450,0.475,0.049,0.218,-0.476,0.612,-0.096,-0.232,-0.307,0.211,0.084,0.542,0.037,-0.340,-0.182,0.065,-0.195,0.297,0.057,0.107,-0.610,0.542,0.023
0.053,-0.044,0.304,0.461,-0.083,0.151,-0.425,0.446,-0.374,-0.231,-0.298,-0.149,-0.057,0.325,-0.132,-0.220,-0.491,-0.149,-0.581,0.258,-0.029,0.021,-0.363,0.512,-0.248
-0.156,-0.076,0.171,0.318,0.051,0.058,-0.367,0.227,-0.011,-0.338,-0.587,-0.108,-0.151,0.186,-0.326,-0.506,-0.312,-0.180,-0.626,0.044,-0.157,-0.037,-0.343,0.402,-0.473
0.004,-0.114,0.348,0.369,-0.125,0.050,-0.317,0.253,-0.152,-0.099,-0.281,0.086,-0.028,0.194,-0.317,-0.556,-0.373,0.011,-0.420,-0.007,-0.060,0.121,-0.271,0.285,-0.524
-0.065,-0.125,0.234,0.387,-0.108,0.103,-0.107,0.405,-0.250,-0.347,-0.335,-0.157,-0.141,0.173,-0.455,-0.367,-0.588,-0.226,-0.520,0.060,-0.192,-0.066,-0.416,0.326,-0.667
-0.005,0.072,0.383,0.565,0.011,0.208,-0.066,0.451,-0.214,-0.146,-0.250,0.100,0.111,0.499,-0.150,-0.453,-0.311,0.170,-0.233,0.206,0.052,0.013,-0.342,0.605,-0.299
0.312,0.083,0.402,0.493,0.060,0.321,-0.022,0.639,-0.162,-0.054,-0.338,0.180,0.244,0.565,-0.275,-0.140,-0.340,0.249,-0.158,0.184,0.019,0.005,-0.176,0.542,-0.204
0.182,0.266,0.416,0.667,0.317,0.380,0.181,0.586,-0.022,0.162,0.083,0.157,0.134,0.532,0.053,-0.070,-0.201,0.326,-0.068,0.334,0.209,0.208,-0.246,0.774,-0.190
0.333,0.376,0.695,0.807,0.503,0.522,0.356,0.662,0.264,0.365,0.001,0.255,0.332,0.823,0.171,0.217,0.087,0.415,0.139,0.573,0.345,0.577,-0.034,0.875,0.140
0.547,0.280,0.725,0.745,0.335,0.518,0.202,0.770,0.191,0.206,0.055,0.279,0.285,0.720,0.149,0.263,0.083,0.345,0.187,0.529,0.382,0.429,-0.026,0.898,0.138
0.480,0.234,0.788,0.860,0.337,0.534,0.131,0.748,0.342,0.174,-0.036,0.324,0.364,0.696,0.212,0.099,0.224,0.402,0.203,0.664,0.389,0.320,0.121,0.969,-0.004
0.539,0.212,0.741,0.860,0.244,0.500,0.132,0.755,0.374,0.190,0.049,0.402,0.384,0.951,0.070,0.142,0.039,0.469,0.120,0.770,0.317,0.450,0.122,0.931,0.074
0.447,0.267,0.806,0.873,0.387,0.602,0.240,0.800,0.194,0.123,0.118,0.413,0.447,0.821,0.054,0.100,0.117,0.481,0.035,0.707,0.380,0.248,0.208,1.036,0.073
0.499,0.463,0.758,0.914,0.366,0.553,0.248,0.736,0.235,0.298,0.087,0.427,0.483,0.829,-0.083,0.145,0.285,0.438,-0.003,0.616,0.323,0.396,-0.018,0.984,0.278
0.456,0.410,1.018,0.809,0.332,0.672,0.315,0.962,0.411,0.512,0.254,0.491,0.516,0.872,0.167,0.225,0.259,0.550,0.189,0.687,0.379,0.559,0.141,0.974,0.234
0.515,0.110,0.825,0.701,0.188,0.379,0.144,0.724,0.142,0.266,0.050,0.283,0.353,0.635,0.123,0.148,0.110,0.346,-0.018,0.486,0.173,0.339,-0.052,0.673,0.065
0.531,0.417,0.838,0.878,0.303,0.516,0.268,0.848,0.243,0.275,0.123,0.512,0.322,0.743,0.237,0.222,0.075,0.552,0.480,0.603,0.337,0.329,0.339,0.995,0.002
0.218,0.099,0.604,0.649,0.124,0.353,0.097,0.649,-0.019,0.027,-0.226,0.361,0.276,0.554,-0.132,-0.232,-0.264,0.261,0.098,0.451,0.131,0.205,0.022,0.754,-0.151
0.296,0.213,0.699,0.620,0.151,0.231,0.265,0.721,-0.086,0.098,0.010,0.323,0.277,0.616,-0.032,-0.048,-0.188,0.070,-0.115,0.397,0.251,0.195,-0.253,0.692,0.004
0.243,0.012,0.506,0.476,0.242,0.272,-0.030,0.617,-0.142,0.081,-0.168,0.079,-0.017,0.463,-0.270,-0.315,-0.291,0.056,-0.239,0.373,0.146,-0.014,-0.182,0.674,-0.220
0.186,0.023,0.500,0.438,0.309,-0.050,-0.393,0.606,-0.024,-0.069,-0.240,0.055,-0.022,0.563,-0.323,-0.631,-0.121,0.095,-0.217,0.147,0.157,0.256,-0.184,0.608,-0.190
0.398,0.317,0.682,0.552,0.352,0.128,-0.159,0.591,0.126,-0.010,-0.112,0.258,0.230,0.534,-0.010,-0.088,-0.172,0.172,-0.376,0.426,0.284,0.353,0.095,0.752,-0.097
0.330,0.097,0.691,0.582,0.202,0.264,-0.129,0.602,0.074,0.054,0.227,0.120,0.282,0.683,0.001,-0.087,-0.085,0.081,-0.289,0.381,0.333,0.202,-0.107,0.716,0.142
0.338,-0.149,0.685,0.505,0.010,0.303,-0.331,0.515,-0.231,0.105,0.005,0.156,0.042,0.615,-0.001,-0.143,-0.106,0.143,-0.478,0.234,0.211,0.114,-0.019,0.549,0.022
0.231,-0.245,0.674,0.545,-0.033,0.301,-0.290,0.623,-0.160,0.112,-0.303,0.232,0.043,0.618,-0.003,-0.279,-0.149,0.205,-0.173,0.235,0.072,-0.017,-0.123,0.626,-0.109
0.319,-0.013,0.596,0.462,0.128,0.322,-0.221,0.601,-0.102,0.107,-0.129,0.314,0.311,0.645,-0.151,0.010,0.056,0.283,0.113,0.214,0.183,0.050,-0.193,0.664,0.075
0.311,0.049,0.536,0.596,0.245,0.322,-0.047,0.565,-0.038,0.130,-0.102,0.165,0.176,0.611,-0.290,-0.126,-0.080,0.220,-0.055,0.230,0.270,0.229,-0.261,0.608,0.040
0.149,0.031,0.596,0.414,0.007,0.125,-0.240,0.566,-0.224,-0.019,-0.242,0.118,0.096,0.663,-0.264,-0.230,-0.318,0.287,-0.493,0.355,0.207,0.048,-0.309,0.566,-0.194
0.260,-0.014,0.600,0.375,0.032,0.240,-0.148,0.615,-0.071,0.003,-0.132,-0.099,0.055,0.515,-0.241,-0.190,-0.214,0.139,-0.143,0.304,0.124,-0.092,-0.252,0.536,0.003
0.115,0.048,0.548,0.298,-0.120,0.206,-0.433,0.466,-0.254,0.077,-0.209,-0.142,-0.057,0.308,-0.343,-0.877,-0.316,0.041,-0.039,0.136,-0.220,-0.004,-0.337,0.485,-0.100
0.103,-0.072,0.450,0.298,-0.023,0.072,-0.478,0.559,-0.177,-0.137,-0.286,0.027,0.016,0.213,-0.288,-0.375,-0.340,0.110,-0.361,0.128,-0.098,0.106,-0.589,0.527,-0.104
0.162,-0.007,0.363,0.400,0.001,0.172,-0.270,0.582,-0.094,-0.002,-0.378,0.083,0.025,0.284,-0.220,-0.225,-0.240,0.119,-0.143,0.282,-0.104,0.098,-0.304,0.396,-0.110
0.284,0.045,0.431,0.493,-0.077,0.371,-0.162,0.816,-0.018,-0.024,-0.254,0.174,0.119,0.484,-0.166,-0.380,-0.179,0.146,-0.081,0.128,-0.129,0.148,-0.263,0.511,-0.178
0.341,-0.103,0.419,0.568,-0.037,0.364,-0.064,0.794,0.047,-0.013,-0.122,-0.153,0.048,0.465,-0.285,-0.496,0.030,0.068,-0.099,0.269,-0.075,0.224,-0.667,0.369,-0.079
0.200,-0.025,0.697,0.726,0.337,0.396,0.026,0.724,-0.033,-0.006,-0.092,0.084,0.057,0.514,-0.394,-0.215,-0.345,0.113,-0.257,0.290,-0.048,0.302,-0.414,0.472,-0.104
0.609,0.065,0.895,0.874,0.372,0.585,0.088,0.820,0.102,0.334,0.312,0.404,0.247,0.690,-0.018,-0.064,-0.244,0.310,0.175,0.587,0.215,0.414,-0.052,0.813,0.194
0.527,0.179,0.805,0.833,0.405,0.556,-0.030,0.877,0.231,0.334,0.299,0.441,0.297,0.739,0.009,0.183,0.114,0.528,0.261,0.552,0.243,0.514,-0.059,0.895,0.067
0.488,0.316,0.776,0.838,0.501,0.616,-0.010,1.078,0.428,0.323,0.405,0.254,0.127,0.687,-0.023,0.191,-0.069,0.484,0.080,0.669,0.460,0.511,0.088,0.974,0.087
0.469,0.219,0.774,0.972,0.455,0.575,0.183,1.000,0.378,0.169,0.341,0.226,0.266,0.604,0.028,0.078,0.045,0.439,0.057,0.553,0.215,0.516,-0.113,0.946,0.198
0.374,0.254,0.791,0.875,0.448,0.402,0.090,0.886,0.096,-0.002,0.075,0.410,0.186,0.736,0.027,0.170,-0.021,0.461,0.126,0.497,0.222,0.217,0.056,0.925,0.340
0.480,0.364,0.737,0.826,0.481,0.449,0.122,0.820,0.127,0.161,0.045,0.417,0.246,0.752,-0.000,-0.148,-0.050,0.392,-0.137,0.601,0.422,0.280,0.276,0.989,0.275
0.628,0.534,0.846,0.981,0.581,0.637,0.139,0.961,0.297,0.244,0.227,0.425,0.459,0.627,0.170,0.243,-0.098,0.577,0.048,0.691,0.329,0.483,0.121,1.079,0.194
0.495,0.413,1.031,0.877,0.472,0.567,0.176,0.963,0.344,0.352,0.318,0.345,0.508,0.724,0.432,0.299,0.323,0.634,0.275,0.692,0.635,0.548,0.036,1.009,0.264
0.672,0.544,1.034,0.877,0.529,0.721,0.152,1.031,0.466,0.465,0.321,0.517,0.427,0.969,0.315,0.211,0.315,0.666,0.296,0.790,0.588,0.659,-0.113,1.159,0.286
0.598,0.405,0.991,0.823,0.451,0.587,-0.009,0.935,0.362,0.278,0.174,0.496,0.318,0.835,0.109,-0.013,0.160,0.461,0.162,0.677,0.406,0.533,-0.155,0.981,0.311
0.495,0.478,0.907,0.876,0.500,0.676,0.345,0.875,0.369,0.386,0.193,0.376,0.497,0.886,0.037,-0.030,0.169,0.539,0.094,0.660,0.454,0.449,0.090,0.931,0.297
0.551,0.211,0.708,0.655,0.416,0.510,0.112,0.783,0.324,0.078,-0.013,0.181,0.360,0.617,-0.020,0.145,-0.033,0.154,-0.069,0.584,0.329,0.343,-0.164,0.795,0.045
0.528,0.418,0.773,0.842,0.431,0.570,-0.001,0.947,0.182,0.078,0.133,0.295,0.410,0.624,0.088,-0.032,-0.055,0.309,0.209,0.489,0.322,0.397,-0.023,0.934,0.321
0.503,0.251,0.521,0.667,0.234,0.420,-0.240,0.804,0.206,0.046,0.006,0.313,0.303,0.763,0.120,0.007,0.062,0.461,0.085,0.340,0.368,0.330,-0.009,0.798,0.167
0.642,0.210,0.667,0.745,0.309,0.293,-0.046,0.781,0.333,0.065,0.131,0.454,0.271,0.785,0.115,0.085,-0.090,0.433,-0.055,0.373,0.292,0.275,0.012,0.819,0.221
0.371,0.337,0.774,0.767,0.496,0.338,0.007,0.805,0.296,0.164,0.058,0.318,0.228,0.780,0.136,-0.027,-0.105,0.408,0.018,0.567,0.366,0.409,0.037,0.870,0.326
0.595,0.556,0.943,0.941,0.542,0.624,0.160,0.980,0.457,0.487,0.334,0.536,0.560,0.776,0.294,0.258,0.189,0.635,0.279,0.720,0.442,0.553,0.044,1.019,0.391
0.557,0.336,0.761,0.732,0.451,0.404,0.042,0.906,0.269,0.226,0.017,0.303,0.363,0.654,0.005,0.052,-0.061,0.452,-0.157,0.418,0.235,0.256,-0.049,0.902,0.384
0.084,0.112,0.657,0.551,0.358,0.328,-0.175,0.663,0.094,-0.063,-0.180,0.174,-0.019,0.406,-0.080,-0.029,-0.238,0.295,-0.310,0.307,0.006,0.280,-0.229,0.804,-0.060
0.013,-0.032,0.672,0.382,0.222,0.397,-0.338,0.521,-0.042,-0.056,-0.352,0.042,-0.140,0.362,-0.165,-0.248,-0.398,0.066,-0.287,0.127,-0.092,0.104,-0.356,0.586,-0.302
0.195,0.082,0.454,0.506,0.011,0.289,-0.314,0.432,-0.033,-0.124,-0.084,0.143,0.089,0.525,-0.065,-0.373,-0.415,0.041,-0.293,0.176,-0.286,0.251,-0.370,0.636,-0.156
0.131,0.066,0.453,0.386,0.156,0.131,-0.400,0.369,-0.128,-0.032,-0.071,0.041,0.096,0.365,-0.220,-0.215,-0.367,0.026,-0.368,0.125,-0.277,0.081,-0.460,0.433,-0.240
0.129,0.005,0.302,0.437,0.078,0.064,-0.457,0.254,-0.289,-0.231,-0.268,-0.075,0.088,0.311,-0.374,-0.150,-0.403,-0.160,-0.572,0.060,-0.199,-0.112,-0.405,0.245,-0.272
0.041,0.000,0.439,0.542,0.232,0.157,-0.429,0.501,-0.035,-0.220,-0.142,-0.077,0.036,0.468,-0.320,-0.153,-0.380,0.013,-0.284,0.248,0.021,0.175,-0.358,0.471,-0.171
0.223,-0.057,0.537,0.429,0.085,0.366,-0.266,0.469,-0.113,-0.166,-0.257,0.066,-0.006,0.528,-0.126,-0.230,-0.248,0.076,-0.301,0.252,-0.007,0.177,-0.460,0.478,-0.179
0.329,-0.228,0.514,0.625,0.171,0.348,-0.322,0.511,-0.058,-0.157,-0.104,0.188,-0.102,0.585,-0.333,-0.194,-0.266,0.084,-0.205,0.356,-0.057,0.120,-0.203,0.791,-0.022
0.152,-0.212,0.254,0.556,-0.048,0.197,-0.280,0.465,-0.003,-0.068,-0.160,0.083,-0.257,0.530,-0.489,-0.408,-0.230,-0.081,-0.280,0.219,-0.088,0.131,-0.205,0.616,-0.241
0.190,-0.083,0.355,0.419,-0.049,0.139,-0.439,0.494,-0.151,-0.204,-0.394,0.048,-0.143,0.460,-0.376,-0.128,-0.344,-0.059,-0.366,0.185,-0.027,0.105,-0.204,0.506,-0.358
-0.038,-0.321,0.204,0.296,-0.168,0.028,-0.494,0.315,-0.266,-0.469,-0.531,-0.072,-0.242,0.147,-0.502,-0.506,-0.556,-0.169,-0.377,0.180,-0.304,0.011,-0.563,0.286,-0.394
-0.064,-0.208,0.410,0.422,-0.064,0.006,-0.574,0.358,-0.083,-0.232,-0.308,0.031,-0.248,0.262,-0.446,-0.344,-0.383,-0.071,-0.422,0.109,-0.127,0.006,-0.447,0.447,-0.508
0.044,0.027,0.454,0.427,-0.020,0.027,-0.427,0.396,-0.162,-0.171,-0.426,-0.111,-0.150,0.306,-0.335,-0.579,-0.493,0.034,-0.189,0.203,-0.166,-0.129,-0.439,0.502,-0.395
-0.135,-0.142,0.176,0.326,-0.034,0.131,-0.406,0.310,-0.346,-0.224,-0.423,-0.114,-0.299,0.378,-0.453,-0.511,-0.676,-0.103,-0.548,-0.010,-0.236,-0.087,-0.520,0.373,-0.414
-0.062,-0.157,0.339,0.381,-0.013,0.116,-0.237,0.409,-0.218,-0.368,-0.254,0.028,-0.081,0.368,-0.501,-0.548,-0.445,-0.111,-0.290,0.136,-0.005,-0.113,-0.413,0.489,-0.393
-0.371,-0.352,0.093,0.339,-0.170,0.001,-0.485,0.397,-0.338,-0.507,-0.381,-0.161,-0.347,0.175,-0.461,-0.531,-0.879,-0.307,-0.630,-0.071,-0.187,-0.149,-0.585,0.274,-0.492
-0.319,-0.296,0.081,0.225,-0.343,-0.023,-0.610,0.114,-0.466,-0.420,-0.592,-0.333,-0.345,0.155,-0.605,-0.427,-0.828,-0.219,-0.604,-0.095,-0.234,-0.299,-0.481,0.235,-0.666
-0.360,-0.401,0.259,0.215,-0.125,0.075,-0.444,0.198,-0.421,-0.333,-0.724,-0.302,-0.324,0.103,-0.473,-0.591,-0.704,-0.326,-0.634,0.055,-0.381,-0.262,-0.447,0.290,-0.659
-0.351,-0.355,0.253,0.213,-0.077,0.007,-0.604,0.228,-0.253,-0.188,-0.464,-0.123,-0.221,0.162,-0.433,-0.633,-0.679,-0.184,-0.508,0.107,-0.240,-0.009,-0.392,0.316,-0.354
-0.145,-0.247,0.360,0.262,-0.254,-0.106,-0.639,0.302,-0.467,-0.159,-0.380,-0.067,-0.298,0.212,-0.558,-0.571,-0.592,-0.361,-0.571,0.151,-0.257,-0.172,-0.529,0.256,-0.289
-0.116,-0.266,0.291,0.313,-0.343,-0.054,-0.541,0.271,-0.490,-0.347,-0.411,-0.155,-0.266,0.222,-0.655,-0.714,-0.538,-0.241,-0.519,0.169,-0.247,-0.236,-0.390,0.262,-0.461
0.037,-0.229,0.371,0.303,-0.066,0.087,-0.378,0.422,-0.100,-0.104,-0.202,-0.157,-0.153,0.305,-0.463,-0.444,-0.596,-0.039,-0.344,0.243,-0.034,-0.110,-0.500,0.184,-0.262
0.001,-0.279,0.244,0.323,-0.093,0.091,-0.323,0.439,-0.220,-0.232,-0.266,-0.187,-0.163,0.381,-0.384,-0.252,-0.609,-0.166,-0.471,0.079,-0.396,0.145,-0.369,0.253,-0.274
0.025,-0.166,0.248,0.234,-0.150,0.220,-0.452,0.370,-0.326,-0.337,-0.165,-0.145,-0.192,0.258,-0.486,-0.263,-0.504,-0.098,-0.526,0.033,-0.213,-0.051,-0.508,0.327,-0.372
-0.094,-0.257,0.255,0.160,-0.266,0.133,-0.656,0.334,-0.222,-0.368,-0.369,-0.045,-0.286,0.147,-0.290,-0.632,-0.354,-0.190,-0.323,0.077,-0.222,-0.086,-0.452,0.269,-0.460
-0.257,-0.313,0.055,0.232,-0.221,-0.056,-0.639,0.249,-0.459,-0.694,-0.624,-0.281,-0.301,0.107,-0.425,-0.572,-0.523,-0.343,-0.387,-0.042,-0.299,-0.161,-0.581,0.215,-0.479
-0.415,-0.268,0.123,0.218,-0.080,-0.224,-0.757,0.122,-0.451,-0.306,-0.664,-0.450,-0.286,0.065,-0.622,-0.663,-0.379,-0.109,-0.613,-0.151,-0.268,-0.339,-0.530,0.294,-0.526
-0.308,-0.388,-0.049,0.109,-0.359,-0.223,-0.884,-0.075,-0.573,-0.543,-0.800,-0.508,-0.429,-0.228,-0.628,-0.789,-0.773,-0.290,-0.613,-0.212,-0.464,-0.400,-0.759,0.052,-0.756
-0.362,-0.367,0.060,0.208,-0.253,-0.124,-0.558,-0.048,-0.347,-0.539,-0.751,-0.417,-0.433,0.080,-0.487,-0.603,-0.526,-0.176,-0.517,-0.297,-0.542,-0.311,-0.663,0.100,-0.456
0.173,-0.170,0.375,0.397,0.078,0.374,-0.209,0.480,-0.337,-0.015,-0.109,-0.033,0.073,0.548,-0.391,-0.475,-0.228,0.133,-0.242,-0.008,-0.029,-0.029,-0.328,0.493,-0.246
0.122,-0.010,0.398,0.636,-0.116,0.221,-0.265,0.489,-0.157,-0.165,-0.001,-0.097,0.067,0.521,-0.282,-0.286,-0.219,0.072,-0.198,0.129,-0.095,-0.023,-0.228,0.508,-0.155
0.085,-0.163,0.267,0.408,0.005,0.059,-0.287,0.485,-0.239,-0.133,-0.280,-0.188,-0.107,0.382,-0.314,-0.364,-0.393,0.178,-0.215,0.096,-0.223,0.024,-0.303,0.571,-0.412
0.139,0.023,0.312,0.543,0.029,0.105,-0.093,0.570,-0.264,-0.433,-0.084,0.008,-0.092,0.326,-0.277,-0.286,-0.242,0.301,-0.406,0.182,-0.031,0.007,-0.071,0.488,-0.351
0.221,0.227,0.340,0.646,0.044,0.272,-0.244,0.581,-0.131,-0.072,-0.160,0.084,-0.045,0.301,-0.118,-0.418,-0.228,0.168,-0.182,0.198,0.162,0.037,-0.149,0.498,-0.227
0.494,0.494,0.784,0.868,0.464,0.431,-0.037,0.864,0.071,0.276,0.305,0.251,0.357,0.851,0.109,0.090,-0.011,0.384,-0.008,0.496,0.222,0.450,-0.213,0.727,-0.055
0.277,0.172,0.721,0.607,0.270,0.483,-0.048,0.723,-0.014,-0.014,0.161,0.286,0.087,0.760,0.151,0.015,-0.098,0.437,-0.204,0.496,0.151,0.432,-0.354,0.689,0.107
0.456,0.417,0.933,0.913,0.328,0.622,0.094,0.921,0.196,0.112,0.225,0.640,0.278,0.755,0.081,0.085,-0.011,0.433,-0.073,0.558,0.122,0.410,-0.016,0.751,0.285
0.469,0.538,1.017,1.015,0.435,0.711,0.004,1.059,0.425,0.317,0.226,0.556,0.482,0.770,0.365,0.286,0.154,0.643,0.176,0.767,0.330,0.586,0.190,0.972,0.331
0.565,0.495,0.761,0.956,0.512,0.673,0.275,0.815,0.291,0.392,-0.040,0.369,0.426,0.778,0.268,0.115,0.247,0.522,-0.070,0.612,0.565,0.541,-0.007,0.933,0.188
0.325,0.298,0.633,0.789,0.437,0.726,0.110,0.699,0.182,0.351,-0.062,0.354,0.236,0.767,0.080,0.092,0.199,0.206,-0.133,0.574,0.400,0.397,-0.065,0.785,-0.060
0.599,0.360,0.734,0.921,0.545,0.834,0.038,0.845,0.253,0.410,0.210,0.485,0.314,0.822,0.308,0.305,0.241,0.181,0.041,0.710,0.476,0.348,0.008,0.931,0.326
0.557,0.401,0.710,0.972,0.460,0.624,-0.029,0.746,0.289,0.417,0.118,0.243,0.178,0.689,0.103,0.075,0.135,0.256,0.038,0.511,0.287,0.268,-0.070,0.966,0.161
0.426,0.302,0.867,0.895,0.436,0.426,-0.149,0.807,0.227,0.150,0.172,0.356,0.205,0.719,0.043,-0.012,0.010,0.363,-0.017,0.503,0.297,0.296,-0.195,0.934,-0.043
0.331,0.224,0.559,0.834,0.501,0.371,-0.087,0.721,0.124,0.064,0.030,0.072,0.224,0.613,0.028,-0.138,0.029,0.004,-0.297,0.484,0.115,0.294,-0.058,0.787,-0.153
0.043,0.159,0.546,0.568,0.052,0.046,-0.111,0.598,0.129,-0.165,0.013,0.017,0.060,0.594,-0.298,-0.408,-0.106,0.177,-0.220,0.194,-0.043,0.318,-0.361,0.649,-0.357
0.284,0.286,0.593,0.671,0.083,0.308,-0.176,0.543,-0.010,0.151,0.048,0.114,0.258,0.672,-0.057,-0.289,-0.495,0.251,-0.353,0.168,0.036,0.335,-0.251,0.732,-0.215
0.110,-0.013,0.404,0.442,-0.295,0.083,-0.559,0.439,-0.101,-0.026,-0.117,0.004,0.038,0.471,-0.310,-0.449,-0.383,-0.156,-0.282,0.007,-0.106,0.043,-0.353,0.437,-0.352
0.355,0.246,0.611,0.706,0.127,0.466,-0.248,0.778,0.048,0.076,0.146,0.142,0.182,0.679,0.049,-0.100,0.068,0.017,-0.096,0.278,0.286,0.173,-0.141,0.762,0.041
0.537,0.249,0.874,0.769,0.234,0.399,-0.085,0.697,0.117,0.126,-0.031,0.488,0.397,0.838,0.176,0.137,0.213,0.135,0.012,0.365,0.224,0.302,-0.038,0.822,0.225
0.459,0.215,0.833,0.881,0.192,0.542,-0.099,0.834,0.082,0.255,-0.059,0.294,0.288,0.655,0.094,-0.071,0.057,0.216,-0.184,0.450,0.213,0.410,0.093,0.705,0.063
0.175,-0.118,0.370,0.621,-0.056,0.268,-0.216,0.508,-0.323,-0.197,-0.269,0.146,-0.114,0.377,-0.158,-0.361,-0.373,0.088,-0.425,0.060,-0.122,0.066,-0.292,0.388,-0.056
0.093,-0.089,0.321,0.274,-0.046,0.084,-0.310,0.434,-0.402,-0.244,-0.434,-0.089,-0.383,0.424,-0.310,-0.458,-0.548,-0.091,-0.799,0.010,-0.282,-0.052,-0.434,0.293,-0.155
-0.038,-0.188,0.141,0.144,-0.114,-0.094,-0.284,0.342,-0.452,-0.133,-0.520,-0.182,-0.320,0.274,-0.399,-0.456,-0.265,-0.191,-0.758,-0.103,-0.281,-0.104,-0.567,0.227,-0.211
-0.119,-0.303,0.249,0.140,-0.141,-0.000,-0.514,0.281,-0.370,-0.215,-0.551,-0.182,-0.291,0.129,-0.423,-0.635,-0.309,-0.044,-0.572,-0.067,-0.370,-0.234,-0.669,0.346,-0.305
-0.045,-0.279,0.277,0.402,-0.085,0.055,-0.324,0.381,-0.400,-0.127,-0.274,-0.110,-0.220,0.296,-0.401,-0.678,-0.352,0.027,-0.463,-0.136,-0.208,-0.167,-0.437,0.555,-0.401
-0.009,-0.174,0.320,0.430,-0.015,0.099,-0.367,0.598,-0.248,-0.093,-0.208,-0.087,-0.163,0.320,-0.228,-0.388,-0.285,0.006,-0.248,0.168,-0.106,0.061,-0.451,0.585,-0.362
0.036,-0.094,0.302,0.418,-0.055,0.099,-0.412,0.481,0.038,-0.252,-0.434,-0.219,-0.213,0.377,-0.364,-0.414,-0.563,-0.060,-0.294,0.038,-0.150,-0.042,-0.269,0.548,-0.263
-0.093,-0.217,0.141,0.502,-0.111,0.199,-0.459,0.487,-0.175,-0.167,-0.168,-0.107,-0.074,0.459,-0.177,-0.326,-0.293,-0.092,-0.350,0.092,-0.267,-0.176,-0.304,0.534,-0.486
-0.198,-0.195,0.248,0.248,-0.277,0.003,-0.568,0.307,-0.416,-0.433,-0.361,-0.268,-0.157,0.243,-0.524,-0.678,-0.370,-0.179,-0.389,0.035,-0.372,-0.168,-0.470,0.339,-0.526
-0.233,-0.320,0.157,0.274,-0.492,-0.105,-0.502,0.355,-0.306,-0.498,-0.545,-0.121,-0.351,0.106,-0.329,-0.535,-0.454,0.013,-0.538,-0.108,-0.276,-0.213,-0.443,0.276,-0.566
-0.215,-0.291,0.200,0.223,-0.186,0.070,-0.508,0.218,-0.355,-0.357,-0.507,-0.103,-0.255,0.118,-0.389,-0.478,-0.536,-0.154,-0.671,-0.031,-0.448,-0.250,-0.515,0.373,-0.576
-0.054,-0.232,0.305,0.471,0.075,0.103,-0.448,0.275,-0.269,-0.174,-0.366,0.106,0.116,0.309,-0.426,-0.177,-0.285,-0.074,-0.302,-0.056,-0.257,0.060,-0.425,0.474,-0.440
0.222,-0.018,0.429,0.501,0.108,0.252,-0.514,0.517,-0.115,0.036,-0.308,0.160,0.063,0.440,-0.348,0.088,-0.173,-0.017,-0.413,0.154,0.014,0.075,-0.420,0.541,-0.141
0.134,-0.123,0.374,0.448,0.032,0.114,-0.298,0.443,-0.332,-0.152,-0.299,-0.012,-0.060,0.367,-0.318,-0.380,-0.080,0.063,-0.411,0.258,-0.012,-0.129,-0.229,0.576,-0.216
0.162,-0.136,0.331,0.319,0.041,0.160,-0.383,0.498,-0.137,-0.117,-0.318,0.062,-0.082,0.392,-0.369,-0.174,-0.302,0.008,-0.346,0.185,-0.121,-0.002,-0.330,0.504,-0.314
0.041,-0.207,0.243,0.330,0.008,0.187,-0.310,0.341,-0.268,-0.140,-0.263,-0.060,-0.134,0.323,-0.353,-0.103,-0.558,-0.017,-0.379,0.128,0.021,-0.219,-0.335,0.475,-0.465
0.390,-0.038,0.502,0.523,0.077,0.371,-0.194,0.682,-0.033,-0.098,-0.071,0.340,0.085,0.564,-0.204,-0.069,-0.493,0.192,-0.199,0.288,0.264,0.053,-0.238,0.702,-0.221
0.414,0.180,0.570,0.597,0.142,0.566,-0.099,0.770,0.281,0.103,0.069,0.198,0.324,0.673,-0.100,0.046,-0.026,0.405,0.155,0.568,0.378,0.212,-0.107,0.779,0.091
0.160,0.149,0.531,0.613,0.176,0.445,-0.146,0.551,-0.014,0.032,-0.120,0.083,0.090,0.447,-0.179,-0.283,-0.154,0.094,-0.095,0.479,0.099,0.100,-0.399,0.576,-0.011
0.166,0.147,0.517,0.667,0.098,0.405,-0.049,0.584,-0.264,-0.146,-0.056,0.057,0.263,0.381,0.099,-0.195,-0.221,0.007,-0.057,0.381,-0.028,0.138,-0.169,0.683,-0.151
0.087,0.026,0.465,0.562,0.128,0.416,-0.015,0.600,-0.166,0.013,-0.131,0.213,0.147,0.516,-0.089,-0.183,-0.074,0.128,-0.047,0.474,0.118,0.028,-0.107,0.672,-0.171
0.181,-0.071,0.673,0.604,0.275,0.435,0.062,0.709,0.176,0.121,0.037,0.239,0.237,0.818,-0.124,0.115,-0.088,0.099,0.017,0.456,0.202,0.183,-0.003,0.715,0.153
0.242,-0.004,0.697,0.714,0.368,0.162,0.036,0.752,0.106,-0.120,0.021,0.246,0.126,0.643,0.005,0.042,-0.135,0.270,0.060,0.483,0.168,0.267,-0.101,0.631,0.105
-0.061,-0.032,0.477,0.605,0.210,0.399,0.061,0.702,0.115,-0.146,0.056,0.128,0.075,0.431,-0.263,-0.038,-0.238,0.165,-0.181,0.180,0.179,0.123,-0.360,0.514,-0.123
0.145,-0.059,0.499,0.648,0.225,0.475,-0.118,0.732,0.094,-0.042,-0.063,0.298,0.095,0.450,-0.251,-0.216,-0.246,0.153,-0.174,0.169,0.104,0.164,-0.078,0.553,-0.051
0.212,-0.051,0.381,0.572,-0.034,0.371,-0.028,0.631,-0.036,-0.291,-0.121,0.239,0.063,0.586,-0.182,-0.383,-0.141,0.075,-0.187,0.312,0.041,0.160,-0.138,0.601,0.049
0.348,0.105,0.640,0.568,0.288,0.357,-0.059,0.833,0.062,-0.191,-0.051,0.145,0.100,0.516,-0.175,-0.227,-0.052,-0.021,-0.016,0.340,0.300,0.270,-0.019,0.825,-0.075
0.314,0.143,0.560,0.739,0.184,0.388,-0.223,0.816,0.108,0.022,-0.413,0.320,0.114,0.541,-0.115,-0.260,-0.151,0.067,0.137,0.405,0.279,0.246,-0.049,0.685,-0.107
0.443,-0.039,0.542,0.467,0.037,0.349,-0.175,0.725,-0.017,-0.182,-0.383,0.295,0.164,0.476,-0.159,-0.156,-0.124,0.066,0.084,0.383,0.248,0.156,-0.184,0.592,-0.068
0.576,0.066,0.622,0.586,0.236,0.417,-0.130,0.791,0.112,-0.128,-0.174,0.252,0.115,0.477,-0.074,-0.183,0.007,0.259,0.109,0.355,0.064,0.091,-0.074,0.754,-0.088
0.296,0.168,0.678,0.684,0.153,0.289,-0.179,0.573,0.068,0.054,-0.065,0.222,0.106,0.478,-0.135,-0.117,-0.280,0.271,-0.095,0.294,-0.033,0.178,-0.243,0.679,-0.014
0.427,0.142,0.732,0.613,0.015,0.282,-0.078,0.805,0.151,0.008,-0.070,0.385,0.247,0.555,-0.072,-0.005,-0.209,0.291,-0.138,0.364,0.170,0.256,-0.183,0.818,0.124
0.421,-0.001,0.816,0.745,0.102,0.289,-0.059,0.857,0.122,0.098,-0.011,0.277,0.092,0.642,-0.035,-0.166,-0.101,0.270,-0.315,0.425,0.243,0.290,-0.232,0.774,-0.100
0.299,0.078,0.658,0.828,0.383,0.414,0.033,0.759,0.132,0.177,0.075,0.254,0.188,0.674,0.064,-0.034,0.012,0.349,-0.148,0.496,0.186,0.310,-0.095,0.762,-0.070
0.213,0.251,0.626,0.724,0.266,0.345,0.084,0.726,0.090,0.081,0.098,0.215,0.033,0.559,-0.044,-0.191,-0.173,0.274,-0.203,0.328,0.108,0.299,-0.152,0.694,0.005
0.377,0.321,0.708,0.736,0.348,0.616,-0.005,0.819,-0.012,0.034,0.274,0.350,0.216,0.856,-0.027,0.049,-0.016,0.355,0.026,0.474,0.189,0.487,-0.096,0.901,0.163
0.340,0.294,0.543,0.622,0.103,0.516,-0.334,0.607,-0.216,-0.128,0.055,0.050,-0.032,0.718,-0.158,-0.317,-0.202,0.091,-0.170,0.356,0.092,0.412,-0.327,0.693,-0.066
0.329,0.261,0.596,0.717,0.023,0.439,-0.298,0.761,-0.135,0.011,0.011,0.088,-0.068,0.655,-0.124,-0.233,-0.002,0.133,-0.154,0.279,0.171,0.197,-0.105,0.706,-0.096
0.193,-0.114,0.624,0.492,0.084,0.239,-0.157,0.645,-0.125,-0.026,-0.208,0.147,-0.006,0.443,-0.143,-0.201,-0.152,-0.010,-0.291,0.264,-0.011,0.142,-0.205,0.664,-0.067
0.113,-0.025,0.607,0.521,0.234,0.251,-0.131,0.601,-0.038,-0.062,-0.125,0.143,-0.025,0.561,-0.374,-0.308,-0.055,0.012,-0.204,0.257,-0.059,0.188,-0.238,0.598,-0.010
0.079,-0.225,0.431,0.576,-0.032,0.125,-0.325,0.558,-0.275,-0.295,-0.260,-0.094,-0.011,0.259,-0.285,-0.390,-0.386,-0.090,-0.309,0.172,-0.191,0.042,-0.424,0.402,-0.235
0.028,-0.164,0.319,0.420,-0.308,0.141,-0.366,0.352,-0.383,-0.183,-0.255,-0.178,-0.029,0.237,-0.546,-0.444,-0.395,0.049,-0.436,0.022,-0.010,-0.068,-0.316,0.423,-0.408
-0.228,-0.256,0.427,0.300,-0.135,0.172,-0.439,0.365,-0.538,-0.209,-0.296,-0.307,-0.191,0.131,-0.391,-0.299,-0.466,-0.218,-0.406,0.091,-0.053,-0.025,-0.236,0.392,-0.479
-0.146,-0.309,0.325,0.290,-0.377,0.124,-0.366,0.253,-0.335,-0.164,-0.457,-0.267,-0.358,0.133,-0.275,-0.440,-0.551,-0.252,-0.404,-0.039,-0.327,-0.155,-0.576,0.350,-0.528
-0.261,-0.247,0.296,0.277,-0.340,0.068,-0.412,0.302,-0.452,-0.214,-0.504,-0.301,-0.379,0.198,-0.242,-0.583,-0.437,-0.298,-0.322,-0.027,-0.250,-0.135,-0.471,0.404,-0.578
-0.326,-0.130,0.199,0.196,-0.210,-0.037,-0.553,0.397,-0.214,-0.212,-0.562,-0.244,-0.326,0.177,-0.439,-0.611,-0.466,-0.144,-0.432,-0.028,-0.322,-0.290,-0.532,0.323,-0.390
-0.473,-0.313,0.151,0.231,-0.205,-0.099,-0.460,0.205,-0.404,-0.273,-0.562,-0.141,-0.482,0.036,-0.402,-0.653,-0.800,-0.184,-0.678,-0.133,-0.284,-0.439,-0.560,0.215,-0.522
-0.169,-0.268,0.184,0.061,-0.315,-0.041,-0.484,0.407,-0.342,-0.313,-0.448,-0.278,-0.474,0.211,-0.357,-0.698,-0.548,-0.232,-0.389,-0.058,-0.322,-0.347,-0.471,0.201,-0.487
-0.093,-0.271,0.166,0.126,-0.357,-0.124,-0.522,0.326,-0.569,-0.377,-0.327,-0.273,-0.339,0.281,-0.535,-0.453,-0.525,-0.280,-0.432,-0.056,-0.190,-0.329,-0.590,0.116,-0.424
-0.076,-0.333,0.215,0.134,-0.355,0.023,-0.591,0.386,-0.491,-0.304,-0.236,-0.399,-0.564,0.289,-0.514,-0.424,-0.466,-0.187,-0.516,-0.182,-0.241,-0.295,-0.569,0.160,-0.354
-0.177,-0.259,0.176,0.172,-0.406,0.030,-0.480,0.329,-0.388,-0.551,-0.388,-0.285,-0.230,0.347,-0.381,-0.433,-0.364,-0.113,-0.655,0.054,-0.180,-0.358,-0.673,0.193,-0.326
-0.254,-0.393,0.233,0.122,-0.337,-0.046,-0.505,0.256,-0.482,-0.436,-0.323,-0.169,-0.364,0.167,-0.435,-0.568,-0.445,-0.164,-0.646,0.083,-0.279,-0.311,-0.844,0.159,-0.477
-0.231,-0.480,0.176,0.132,-0.409,-0.010,-0.599,0.205,-0.534,-0.438,-0.448,-0.060,-0.442,0.141,-0.374,-0.601,-0.500,-0.252,-0.595,0.013,-0.337,-0.306,-0.555,0.229,-0.563
0.061,-0.266,0.147,0.307,-0.247,0.119,-0.387,0.418,-0.462,-0.372,-0.482,-0.106,-0.315,0.271,-0.156,-0.433,-0.439,0.018,-0.324,0.084,-0.185,-0.172,-0.626,0.382,-0.484
-0.095,-0.374,0.182,0.379,-0.121,0.125,-0.544,0.496,-0.345,-0.267,-0.563,-0.003,-0.268,0.133,-0.341,-0.400,-0.425,-0.102,-0.568,-0.101,-0.127,-0.118,-0.344,0.243,-0.402
-0.035,-0.300,0.227,0.302,-0.126,0.014,-0.495,0.419,-0.388,-0.313,-0.664,-0.148,-0.306,0.217,-0.485,-0.526,-0.602,-0.058,-0.500,-0.039,-0.183,-0.199,-0.453,0.207,-0.309
0.022,-0.333,0.388,0.465,-0.167,0.200,-0.378,0.511,-0.378,-0.192,-0.338,-0.034,-0.104,0.321,-0.442,-0.501,-0.504,-0.118,-0.166,0.176,-0.164,-0.042,-0.499,0.353,-0.446
-0.023,-0.360,0.292,0.329,-0.203,0.243,-0.461,0.373,-0.371,-0.306,-0.481,-0.309,-0.166,0.178,-0.259,-0.605,-0.604,-0.160,-0.378,0.101,-0.351,-0.162,-0.605,0.252,-0.514
-0.169,-0.236,0.169,0.261,-0.229,0.006,-0.448,0.277,-0.363,-0.404,-0.466,-0.299,-0.228,0.310,-0.283,-0.458,-0.514,-0.305,-0.449,-0.051,-0.160,-0.058,-0.691,0.373,-0.308
-0.155,-0.283,0.226,0.282,-0.174,-0.038,-0.444,0.329,-0.415,-0.348,-0.540,-0.370,-0.506,0.253,-0.579,-0.492,-0.453,-0.330,-0.499,0.094,-0.242,-0.185,-0.503,0.354,-0.350
0.047,-0.264,0.224,0.460,-0.250,0.054,-0.584,0.450,-0.268,-0.349,-0.460,-0.203,-0.231,0.262,-0.434,-0.340,-0.562,-0.189,-0.406,0.140,-0.221,-0.159,-0.394,0.484,-0.199
-0.082,-0.413,0.144,0.428,-0.087,-0.042,-0.498,0.435,-0.307,-0.484,-0.488,-0.033,-0.332,0.269,-0.383,-0.588,-0.588,-0.327,-0.525,0.173,-0.182,-0.137,-0.532,0.248,-0.294
0.012,-0.295,0.144,0.368,-0.114,0.094,-0.302,0.601,-0.096,-0.401,-0.420,-0.080,-0.134,0.342,-0.355,-0.324,-0.413,-0.148,-0.449,0.046,-0.126,-0.020,-0.609,0.391,-0.250
0.006,-0.118,0.290,0.316,-0.035,0.249,-0.208,0.485,-0.117,-0.332,-0.536,-0.111,-0.367,0.296,-0.324,-0.070,-0.499,-0.128,-0.467,0.309,-0.000,-0.079,-0.436,0.530,-0.204
0.098,-0.176,0.292,0.421,-0.035,0.349,-0.133,0.562,-0.098,-0.147,-0.292,-0.159,-0.446,0.302,-0.251,-0.163,-0.367,-0.098,-0.406,0.180,-0.114,0.087,-0.552,0.412,-0.041
0.107,-0.152,0.460,0.619,0.102,0.346,-0.081,0.637,-0.180,0.000,-0.210,-0.000,-0.054,0.326,-0.166,-0.454,-0.217,-0.021,-0.226,0.376,-0.018,0.004,-0.381,0.513,0.045
0.090,-0.231,0.318,0.479,0.040,0.187,-0.284,0.568,-0.252,-0.090,-0.325,0.077,-0.118,0.377,-0.336,-0.449,-0.162,-0.032,-0.448,0.275,-0.277,-0.053,-0.497,0.506,-0.051
0.200,-0.008,0.429,0.369,0.118,0.329,-0.274,0.667,-0.213,-0.009,-0.221,0.034,-0.124,0.378,-0.266,-0.455,-0.482,-0.080,-0.373,0.323,-0.059,0.052,-0.291,0.565,-0.145
0.106,0.076,0.426,0.322,-0.213,0.050,-0.480,0.456,-0.133,-0.297,-0.281,-0.171,-0.150,0.385,-0.407,-0.538,-0.391,-0.174,-0.418,0.252,-0.150,-0.106,-0.218,0.438,-0.227
-0.070,-0.188,0.387,0.311,-0.142,0.026,-0.536,0.302,-0.156,-0.505,-0.496,-0.467,-0.214,0.292,-0.578,-0.636,-0.330,-0.198,-0.655,0.175,-0.257,-0.234,-0.579,0.323,-0.274
0.260,-0.050,0.427,0.488,0.032,0.303,-0.509,0.479,-0.099,-0.205,-0.397,-0.142,-0.111,0.355,-0.235,-0.279,-0.207,0.084,-0.252,0.216,-0.080,-0.081,-0.409,0.401,-0.046
-0.010,-0.292,0.399,0.450,-0.004,0.210,-0.526,0.399,-0.030,-0.161,-0.419,-0.239,-0.170,0.374,-0.381,-0.415,-0.243,-0.022,-0.322,0.156,0.011,-0.081,-0.323,0.503,-0.218
0.009,-0.086,0.424,0.407,0.174,0.418,-0.320,0.396,-0.075,-0.111,-0.184,-0.035,-0.178,0.261,-0.200,-0.270,-0.228,-0.059,-0.224,0.352,0.115,0.011,-0.397,0.638,-0.200
0.026,-0.090,0.453,0.421,0.176,0.381,-0.543,0.558,-0.178,-0.169,-0.358,-0.061,-0.012,0.219,-0.122,-0.334,-0.238,0.007,-0.155,0.175,0.089,0.029,-0.306,0.567,-0.217
0.103,0.002,0.563,0.543,0.151,0.505,-0.374,0.612,-0.250,-0.100,-0.051,0.058,0.013,0.504,-0.043,-0.465,-0.187,0.137,-0.042,0.305,0.166,0.120,-0.124,0.596,-0.197
0.006,-0.295,0.402,0.416,0.045,0.351,-0.493,0.470,-0.137,-0.329,-0.215,-0.059,-0.153,0.433,-0.262,-0.246,-0.131,0.074,-0.339,0.195,-0.030,0.061,-0.322,0.558,-0.140
0.138,-0.052,0.520,0.336,0.017,0.315,0.071,0.526,-0.027,-0.353,-0.223,0.072,-0.041,0.529,-0.252,-0.355,-0.311,0.123,-0.215,0.338,0.009,0.082,-0.141,0.622,0.034
0.088,-0.160,0.351,0.505,0.029,0.233,-0.147,0.580,-0.175,-0.147,-0.326,0.002,-0.068,0.560,-0.301,-0.230,-0.332,0.048,-0.161,0.359,0.090,0.155,-0.302,0.537,-0.170
0.250,-0.049,0.488,0.504,0.063,0.259,-0.328,0.672,-0.095,-0.121,-0.168,0.100,-0.052,0.505,-0.182,-0.190,-0.256,0.215,-0.196,0.422,0.025,0.275,-0.174,0.744,-0.198
0.480,0.362,0.714,0.734,0.224,0.659,0.045,0.751,0.096,0.315,0.017,0.389,0.328,0.682,0.086,-0.082,0.035,0.404,0.177,0.489,0.187,0.442,0.144,1.078,0.019
0.280,0.270,0.595,0.648,0.114,0.580,0.008,0.679,0.013,0.424,0.113,0.278,0.274,0.551,-0.022,-0.200,0.018,0.246,0.033,0.452,0.075,0.258,-0.204,0.891,-0.031
0.450,0.284,0.576,0.876,0.219,0.716,-0.060,0.966,0.227,0.373,0.253,0.188,0.365,0.836,-0.003,-0.070,-0.018,0.418,0.022,0.669,0.407,0.448,0.140,0.877,-0.003
0.405,0.062,0.876,0.872,0.442,0.475,0.012,0.951,0.016,-0.020,0.059,0.218,0.275,0.749,0.163,-0.034,0.142,0.301,-0.007,0.591,0.284,0.326,-0.068,0.841,-0.036
0.300,0.070,0.699,0.791,0.151,0.329,-0.289,0.698,-0.015,0.033,-0.210,0.180,0.101,0.658,-0.004,-0.371,-0.262,0.326,0.054,0.549,0.177,0.168,-0.035,0.787,-0.161
0.100,-0.241,0.571,0.632,0.115,0.252,-0.093,0.614,-0.117,-0.123,-0.336,0.166,-0.098,0.584,-0.022,-0.303,-0.103,0.328,-0.204,0.468,0.085,0.219,-0.387,0.574,-0.112
-0.027,-0.044,0.622,0.519,0.015,0.308,-0.147,0.635,-0.228,0.040,-0.204,-0.017,-0.014,0.471,-0.250,-0.273,-0.087,0.158,-0.305,0.212,0.153,0.106,-0.193,0.642,-0.222
-0.050,-0.150,0.367,0.426,0.046,0.196,-0.098,0.472,-0.164,0.050,-0.203,-0.084,-0.254,0.512,-0.236,-0.209,-0.200,0.113,-0.117,0.221,-0.039,-0.047,-0.368,0.570,-0.384
0.125,0.045,0.262,0.523,0.044,0.254,-0.003,0.597,-0.205,-0.086,-0.166,-0.029,0.021,0.584,-0.406,-0.277,-0.311,0.121,-0.244,0.155,-0.052,0.059,-0.206,0.603,-0.216
0.202,0.017,0.398,0.462,0.232,0.159,-0.313,0.636,-0.083,-0.218,-0.099,0.081,0.117,0.585,-0.238,-0.239,-0.377,0.101,-0.253,0.269,0.170,0.073,-0.354,0.566,-0.347
0.175,-0.039,0.317,0.347,-0.061,0.125,-0.238,0.467,-0.190,-0.176,-0.046,-0.175,-0.251,0.481,-0.527,-0.234,-0.429,0.033,-0.346,0.262,0.086,-0.041,-0.607,0.426,-0.111
0.043,-0.174,0.354,0.224,-0.082,0.148,-0.280,0.402,-0.264,-0.181,-0.372,0.082,-0.197,0.208,-0.430,-0.352,-0.525,0.095,-0.438,0.117,-0.054,-0.076,-0.474,0.447,-0.219
-0.023,-0.190,0.293,0.304,-0.148,-0.081,-0.491,0.419,-0.258,-0.201,-0.248,-0.085,-0.277,0.145,-0.520,-0.215,-0.474,-0.021,-0.405,0.126,-0.211,-0.193,-0.457,0.494,-0.259
0.078,-0.207,0.435,0.353,-0.025,0.030,-0.499,0.403,-0.074,-0.168,-0.169,-0.051,-0.113,0.400,-0.447,-0.235,-0.295,-0.189,-0.343,0.174,-0.103,-0.081,-0.573,0.426,-0.208
0.002,-0.083,0.325,0.273,-0.117,-0.096,-0.301,0.416,-0.237,-0.078,-0.258,0.041,-0.097,0.298,-0.548,-0.214,-0.322,-0.042,-0.274,0.089,-0.052,-0.081,-0.586,0.549,-0.273
0.098,0.038,0.406,0.403,0.070,0.182,-0.239,0.422,0.002,-0.180,-0.195,0.177,-0.081,0.484,-0.174,-0.182,-0.310,0.216,-0.167,0.323,0.035,-0.127,-0.406,0.536,-0.063
0.135,-0.033,0.632,0.562,0.091,0.204,-0.147,0.603,0.054,0.129,0.014,0.133,0.106,0.557,0.040,-0.169,-0.052,0.271,-0.114,0.236,0.000,0.095,-0.457,0.611,-0.154
0.206,0.015,0.534,0.564,0.124,0.363,-0.101,0.599,-0.042,-0.051,-0.018,0.064,0.095,0.555,-0.109,-0.197,-0.127,0.108,0.077,0.169,0.088,0.233,-0.307,0.745,-0.074
0.061,-0.059,0.420,0.396,0.112,0.300,-0.374,0.590,-0.186,-0.136,-0.330,0.120,-0.085,0.341,-0.155,-0.331,-0.226,0.128,-0.052,0.056,0.002,0.124,-0.367,0.581,-0.139
0.141,-0.091,0.526,0.611,0.246,0.303,-0.198,0.727,0.067,0.003,-0.309,0.044,0.150,0.477,0.008,-0.191,0.019,0.250,-0.108,0.164,-0.010,0.181,-0.050,0.713,-0.028
0.044,-0.159,0.208,0.341,-0.023,0.090,-0.424,0.457,-0.212,-0.209,-0.191,-0.009,-0.150,0.420,-0.292,-0.315,-0.448,0.013,-0.225,0.077,-0.251,0.087,-0.387,0.549,-0.185
0.071,-0.037,0.192,0.489,0.101,0.190,-0.269,0.511,0.073,-0.127,-0.101,0.058,-0.039,0.510,-0.039,-0.135,-0.183,0.328,-0.116,0.257,-0.038,0.129,-0.262,0.549,-0.011
0.124,-0.052,0.294,0.460,-0.022,0.138,-0.280,0.581,-0.302,-0.296,-0.180,0.051,-0.091,0.412,-0.165,-0.318,-0.308,0.049,-0.177,0.161,-0.070,0.067,-0.288,0.510,-0.076
-0.090,-0.161,0.182,0.342,-0.187,0.095,-0.460,0.404,-0.294,-0.365,-0.315,-0.133,-0.193,0.283,-0.643,-0.408,-0.338,0.062,-0.398,0.060,-0.152,0.074,-0.404,0.433,-0.126
0.085,-0.033,0.386,0.479,0.009,0.241,-0.387,0.579,0.006,-0.107,-0.232,0.136,0.013,0.480,-0.223,-0.539,-0.279,0.147,-0.485,0.247,-0.022,0.310,-0.367,0.631,-0.085
-0.038,-0.170,0.278,0.385,-0.171,0.034,-0.403,0.498,-0.233,-0.211,-0.289,0.013,-0.176,0.507,-0.413,-0.538,-0.400,-0.022,-0.596,0.049,-0.189,0.047,-0.533,0.493,-0.274
0.208,0.142,0.482,0.598,0.026,0.403,-0.171,0.607,0.109,-0.134,0.040,-0.193,-0.086,0.534,-0.198,-0.360,-0.317,0.220,-0.317,0.219,-0.042,0.062,-0.235,0.687,-0.325
0.350,0.255,0.468,0.678,0.248,0.554,-0.270,0.833,0.093,0.034,0.151,0.120,0.048,0.720,-0.055,-0.253,-0.130,0.286,-0.052,0.367,0.056,0.141,0.114,0.789,-0.046
0.413,0.126,0.482,0.611,0.185,0.375,-0.097,0.687,0.068,-0.127,0.223,0.100,0.061,0.684,-0.119,-0.311,-0.180,0.237,-0.039,0.346,0.054,0.085,0.010,0.702,-0.091
0.250,0.224,0.544,0.570,0.205,0.213,-0.170,0.713,0.124,-0.126,0.033,0.288,0.129,0.550,-0.324,-0.368,-0.099,0.188,-0.129,0.286,0.107,0.187,-0.131,0.679,-0.225
-0.112,-0.152,0.242,0.161,-0.156,0.010,-0.627,0.417,-0.237,-0.379,-0.386,-0.059,-0.159,0.119,-0.554,-0.440,-0.540,-0.130,-0.260,0.023,0.016,-0.265,-0.555,0.409,-0.325
-0.026,-0.118,0.194,0.186,-0.110,0.092,-0.463,0.473,-0.354,-0.262,-0.170,-0.147,-0.110,0.208,-0.423,-0.358,-0.430,-0.054,-0.408,0.211,-0.096,-0.160,-0.492,0.385,-0.316
0.165,0.010,0.397,0.603,0.091,0.259,-0.495,0.682,-0.042,-0.039,0.020,0.118,-0.084,0.493,-0.378,-0.128,-0.153,0.295,-0.328,0.315,0.144,-0.120,-0.285,0.505,-0.151
0.194,0.025,0.365,0.506,0.081,-0.014,-0.531,0.627,-0.080,-0.102,-0.033,0.028,-0.026,0.452,-0.178,-0.232,-0.300,0.053,-0.242,0.238,0.090,-0.013,-0.187,0.567,-0.288
0.274,0.017,0.502,0.525,0.165,0.184,-0.343,0.639,-0.023,-0.080,-0.047,0.183,0.211,0.496,-0.212,-0.312,-0.131,0.206,-0.273,0.226,0.034,0.130,-0.188,0.663,-0.228
0.128,-0.108,0.232,0.363,-0.128,0.229,-0.176,0.579,-0.173,-0.116,-0.250,-0.011,-0.110,0.402,-0.163,-0.159,-0.262,0.109,-0.291,-0.050,-0.074,-0.119,-0.320,0.584,-0.187
0.132,-0.185,0.227,0.389,-0.160,0.172,-0.270,0.533,-0.375,-0.019,-0.113,-0.070,-0.093,0.213,-0.434,-0.327,-0.338,-0.150,-0.290,0.172,0.074,-0.185,-0.296,0.415,-0.234
0.138,-0.048,0.414,0.457,0.031,0.243,-0.361,0.510,-0.180,-0.089,-0.080,0.035,-0.076,0.329,-0.239,-0.324,-0.273,-0.070,-0.080,0.318,0.125,0.050,-0.171,0.524,-0.273
0.355,-0.057,0.465,0.520,0.039,0.395,-0.285,0.447,-0.065,-0.115,-0.090,0.028,-0.069,0.275,-0.271,-0.273,-0.133,0.026,-0.136,0.499,-0.089,0.052,-0.174,0.559,-0.333
0.337,0.074,0.478,0.502,0.000,0.343,-0.043,0.660,0.085,0.022,-0.044,-0.013,-0.074,0.541,-0.421,-0.193,-0.244,0.213,-0.147,0.597,0.212,0.104,-0.267,0.567,-0.143
0.093,-0.078,0.388,0.517,0.078,0.309,-0.152,0.594,-0.119,-0.206,-0.182,-0.053,-0.150,0.402,-0.168,-0.316,-0.223,0.137,-0.114,0.366,0.017,0.063,-0.329,0.554,-0.045
-0.018,-0.336,0.236,0.488,-0.045,0.186,-0.257,0.412,-0.329,-0.206,-0.262,-0.078,-0.214,0.326,-0.011,-0.375,-0.203,-0.063,-0.338,0.320,-0.215,0.009,-0.411,0.391,-0.214
0.173,-0.204,0.334,0.479,0.012,0.261,-0.380,0.468,-0.346,-0.121,-0.020,-0.052,-0.103,0.395,0.065,-0.233,-0.093,0.118,-0.177,0.208,-0.026,-0.005,-0.252,0.545,-0.123
0.088,-0.113,0.306,0.466,0.080,0.003,-0.281,0.473,-0.511,-0.336,-0.156,-0.018,-0.028,0.413,-0.157,-0.220,-0.094,0.137,-0.121,0.169,-0.162,-0.004,-0.499,0.504,-0.414
0.300,0.094,0.502,0.547,0.092,0.386,-0.098,0.685,-0.200,-0.117,-0.039,0.176,-0.013,0.631,0.135,-0.149,0.039,0.250,0.117,0.459,0.191,0.172,-0.134,0.706,-0.071
0.288,0.193,0.703,0.600,0.199,0.387,-0.097,0.834,-0.178,-0.143,0.050,0.329,0.078,0.732,-0.023,-0.071,0.015,0.171,0.078,0.376,0.125,0.305,-0.173,0.701,-0.031
0.170,0.016,0.501,0.447,0.105,0.237,-0.266,0.553,-0.300,-0.206,-0.024,0.073,-0.044,0.681,-0.201,-0.222,-0.353,-0.009,-0.310,0.190,-0.055,0.104,-0.519,0.712,-0.185
0.184,0.081,0.495,0.561,0.112,0.150,-0.221,0.532,-0.009,-0.068,-0.057,0.309,0.174,0.776,-0.138,-0.054,-0.103,0.222,-0.122,0.419,0.095,0.197,-0.338,0.632,-0.037
0.110,0.107,0.570,0.474,0.088,0.466,-0.287,0.620,0.009,-0.070,-0.089,0.040,0.031,0.698,-0.102,0.076,-0.370,0.172,-0.046,0.306,0.133,0.132,-0.307,0.657,-0.086
0.061,0.101,0.523,0.474,0.147,0.261,-0.136,0.575,-0.008,-0.065,-0.039,0.110,0.088,0.473,-0.140,-0.103,-0.300,0.078,-0.117,0.293,-0.076,0.071,-0.412,0.592,-0.080
0.263,0.128,0.463,0.518,-0.084,0.193,-0.232,0.524,0.060,-0.058,-0.164,0.153,0.099,0.495,0.008,-0.126,-0.390,0.165,-0.116,0.352,0.153,0.184,-0.256,0.656,-0.043
0.351,-0.129,0.495,0.514,-0.035,0.142,-0.062,0.675,0.075,-0.008,-0.018,0.161,0.103,0.613,-0.087,-0.198,-0.171,0.209,-0.090,0.456,0.305,0.093,-0.011,0.615,-0.226
0.350,-0.043,0.630,0.769,-0.138,0.235,-0.171,0.718,0.087,0.106,0.030,0.221,0.065,0.598,0.180,-0.022,-0.186,0.228,0.007,0.396,0.376,0.321,-0.105,0.805,-0.032
0.194,0.037,0.591,0.696,-0.054,0.406,-0.050,0.697,0.076,0.084,0.070,0.070,-0.130,0.766,0.212,0.044,-0.261,0.227,-0.264,0.436,0.155,0.114,-0.126,0.727,-0.166
0.247,-0.020,0.703,0.594,0.144,0.530,-0.006,0.686,0.091,0.069,0.214,0.378,-0.059,0.669,-0.102,-0.283,-0.174,0.092,-0.073,0.407,0.201,0.227,-0.015,0.837,-0.042
0.371,0.152,0.756,0.560,0.168,0.566,-0.154,0.801,0.062,-0.023,0.053,0.141,0.031,0.759,-0.055,0.043,-0.042,0.184,-0.045,0.569,0.209,0.127,-0.070,0.667,0.149
0.225,-0.024,0.576,0.448,0.296,0.184,-0.262,0.634,-0.081,-0.001,-0.057,-0.007,0.015,0.560,-0.094,0.090,-0.423,0.043,-0.163,0.505,0.068,0.154,-0.077,0.566,-0.102
0.340,0.011,0.645,0.523,0.265,0.423,0.147,0.782,-0.054,-0.004,-0.091,0.228,0.277,0.736,0.036,-0.114,-0.145,0.471,0.032,0.509,0.438,0.279,-0.031,0.717,0.083
0.389,-0.026,0.394,0.591,0.230,0.368,-0.055,0.698,-0.052,0.042,-0.036,0.147,0.181,0.495,-0.025,-0.173,-0.120,0.416,-0.033,0.475,0.183,0.355,-0.232,0.653,0.031
0.313,0.188,0.516,0.566,0.115,0.227,-0.132,0.716,-0.198,0.031,-0.105,0.151,0.268,0.481,-0.270,-0.271,-0.196,0.396,0.084,0.377,0.025,0.152,-0.234,0.599,0.010
0.024,0.059,0.328,0.492,0.023,0.305,-0.109,0.491,-0.175,-0.097,-0.276,0.051,-0.021,0.394,-0.323,-0.417,-0.175,0.165,-0.248,0.228,-0.089,0.073,-0.684,0.532,-0.163
0.216,-0.051,0.491,0.409,0.008,0.129,-0.160,0.414,-0.218,-0.223,-0.256,-0.057,-0.183,0.410,-0.475,-0.415,-0.345,0.092,-0.381,0.225,-0.070,0.174,-0.555,0.474,-0.310
0.036,0.018,0.413,0.453,0.039,0.036,-0.144,0.572,-0.077,-0.152,-0.091,-0.029,-0.020,0.411,-0.186,-0.300,-0.234,0.160,-0.331,0.321,-0.050,0.222,-0.511,0.557,-0.228
0.140,0.066,0.383,0.530,0.069,0.271,-0.214,0.610,0.092,-0.076,0.001,0.007,-0.015,0.518,-0.293,-0.289,-0.282,0.079,-0.263,0.480,0.091,0.329,-0.407,0.634,-0.210
0.308,0.124,0.599,0.685,0.190,0.499,-0.018,0.790,-0.011,-0.089,0.007,0.311,0.143,0.660,0.043,-0.145,-0.161,0.357,-0.095,0.499,0.234,0.374,-0.115,0.779,-0.065
0.143,-0.036,0.596,0.698,0.182,0.536,-0.032,0.787,0.199,0.049,0.116,0.334,0.119,0.613,-0.086,-0.052,-0.245,0.393,-0.247,0.502,0.209,0.239,-0.180,0.762,-0.093
0.302,0.130,0.625,0.868,0.112,0.513,0.003,0.898,0.170,0.116,0.337,0.362,0.273,0.787,-0.032,-0.092,-0.183,0.349,-0.084,0.693,0.202,0.383,0.065,0.778,-0.027
0.028,-0.056,0.435,0.500,-0.118,0.194,-0.393,0.535,-0.033,-0.090,-0.087,0.091,0.053,0.397,-0.454,-0.262,-0.312,0.092,-0.380,0.415,-0.050,0.146,-0.352,0.449,-0.283
0.169,-0.009,0.447,0.535,0.109,0.301,-0.255,0.591,-0.099,-0.020,-0.072,0.052,0.228,0.429,-0.163,-0.279,-0.166,0.145,-0.303,0.458,0.217,0.149,-0.241,0.609,-0.213
0.175,0.206,0.528,0.550,-0.047,0.502,-0.271,0.726,0.023,0.163,-0.057,0.220,0.160,0.433,-0.098,-0.155,-0.147,0.162,-0.264,0.496,0.299,0.327,-0.101,0.688,-0.041
0.337,0.228,0.556,0.453,-0.048,0.476,-0.019,0.685,0.014,0.209,-0.033,0.009,0.097,0.581,-0.087,-0.079,-0.130,0.306,-0.341,0.339,0.213,0.327,-0.281,0.613,0.021
0.267,0.187,0.561,0.496,0.101,0.285,-0.023,0.668,0.165,0.075,-0.126,-0.011,0.202,0.610,-0.106,-0.082,-0.203,0.306,-0.146,0.334,0.153,0.400,-0.254,0.701,0.094
0.286,0.226,0.521,0.520,0.323,0.430,-0.055,0.678,0.180,-0.091,0.093,0.028,0.334,0.605,-0.029,-0.294,-0.308,0.363,-0.340,0.384,0.099,0.411,-0.217,0.548,-0.007
0.314,0.125,0.351,0.402,0.133,0.315,-0.134,0.544,-0.061,-0.244,-0.077,-0.116,0.041,0.511,-0.258,-0.273,-0.184,0.216,-0.134,0.192,0.068,0.312,-0.220,0.446,-0.000
0.285,0.104,0.451,0.520,0.148,0.230,-0.324,0.560,-0.064,0.039,-0.183,0.098,-0.058,0.541,-0.097,-0.345,-0.044,0.135,-0.056,0.281,0.029,0.196,-0.299,0.516,-0.029
0.089,-0.018,0.247,0.493,0.023,0.246,-0.246,0.602,-0.158,-0.250,-0.323,-0.046,-0.115,0.411,-0.059,-0.383,-0.354,0.098,-0.204,0.416,-0.018,0.233,-0.439,0.594,0.069
0.043,-0.066,0.395,0.544,0.073,0.134,-0.110,0.499,-0.122,-0.197,0.024,0.132,0.053,0.476,-0.017,-0.275,-0.365,0.318,0.009,0.511,0.056,0.115,-0.410,0.681,-0.003
0.142,-0.011,0.536,0.356,0.153,0.273,-0.240,0.614,-0.018,-0.131,-0.056,0.101,-0.049,0.544,-0.175,-0.382,-0.404,0.172,0.029,0.444,0.143,0.046,-0.285,0.656,-0.232
0.051,0.017,0.396,0.231,-0.041,0.259,-0.372,0.465,-0.323,-0.163,-0.293,-0.007,0.066,0.427,-0.318,-0.266,-0.551,0.048,-0.184,0.302,-0.096,0.024,-0.221,0.502,-0.418
0.023,0.117,0.491,0.449,0.122,0.492,-0.248,0.662,-0.102,-0.030,-0.090,0.064,-0.006,0.584,-0.351,-0.270,-0.412,0.113,-0.060,0.238,-0.016,0.087,-0.352,0.478,-0.308
0.065,-0.013,0.502,0.407,0.048,0.319,-0.377,0.747,0.085,0.098,-0.010,0.068,0.077,0.649,-0.224,-0.067,-0.358,0.305,-0.023,0.327,-0.036,-0.001,-0.152,0.558,-0.295
0.087,0.016,0.379,0.351,-0.010,0.191,-0.385,0.501,0.019,-0.220,-0.206,-0.088,-0.171,0.580,-0.294,-0.344,-0.459,0.171,-0.065,0.332,-0.057,-0.049,-0.369,0.539,-0.215
0.205,-0.021,0.354,0.440,0.034,0.355,-0.375,0.662,-0.063,-0.188,-0.045,-0.212,-0.048,0.493,-0.193,-0.333,-0.412,-0.008,-0.081,0.248,-0.085,-0.013,-0.167,0.584,0.092
0.343,-0.017,0.690,0.640,0.252,0.470,-0.115,0.853,-0.203,-0.096,0.031,0.130,0.202,0.585,-0.273,-0.050,-0.295,0.159,-0.085,0.345,0.263,0.190,-0.131,0.714,0.238
0.382,0.036,0.694,0.610,0.326,0.507,0.038,0.832,0.048,0.240,0.151,0.391,0.480,0.675,0.109,0.042,-0.026,0.443,0.162,0.536,0.357,0.434,0.019,0.974,0.253
0.233,-0.042,0.572,0.414,0.138,0.442,-0.115,0.738,-0.154,0.088,0.066,0.213,0.204,0.424,-0.163,-0.031,-0.140,0.297,-0.129,0.321,0.310,0.281,-0.041,0.722,-0.028
0.229,0.121,0.594,0.613,0.238,0.440,-0.138,0.818,0.100,0.220,0.102,0.367,0.467,0.719,-0.139,-0.178,-0.105,0.473,-0.087,0.408,0.257,0.469,-0.047,0.705,0.167
0.398,0.237,0.515,0.657,0.251,0.532,-0.044,0.809,0.091,0.215,0.111,0.187,0.407,0.796,-0.095,0.043,0.090,0.315,-0.239,0.346,0.063,0.333,-0.261,0.791,0.028
0.366,0.189,0.631,0.646,0.329,0.568,0.007,0.668,-0.047,0.061,0.028,0.241,0.288,0.578,0.024,-0.118,0.018,0.310,0.084,0.431,0.019,0.276,-0.266,0.713,0.113
0.344,0.126,0.543,0.609,0.267,0.564,0.028,0.831,0.012,0.070,-0.081,0.197,0.183,0.653,-0.037,0.071,0.174,0.177,0.051,0.531,0.126,0.179,-0.133,0.891,0.125
0.334,0.092,0.642,0.485,0.284,0.401,-0.005,0.761,0.091,0.177,0.020,0.032,0.147,0.610,-0.115,-0.024,-0.034,0.295,0.168,0.555,0.194,0.463,-0.101,0.837,-0.129
0.605,0.154,0.828,0.750,0.515,0.514,0.155,0.985,0.227,0.220,0.084,0.120,0.447,0.767,-0.026,-0.009,0.055,0.255,0.202,0.602,0.355,0.346,-0.132,1.002,0.191
0.534,0.233,0.716,0.755,0.278,0.344,0.112,0.761,0.209,0.125,-0.099,0.001,0.179,0.635,0.174,-0.106,-0.009,0.099,-0.026,0.362,0.211,0.347,-0.202,0.881,0.003
0.566,0.438,0.698,0.742,0.478,0.576,0.146,0.885,0.456,0.364,0.054,0.297,0.324,0.763,0.002,-0.145,0.151,0.318,0.274,0.425,0.493,0.436,0.259,0.957,0.024
0.395,0.173,0.584,0.643,0.188,0.524,-0.118,0.784,0.236,0.260,0.115,0.134,0.151,0.645,0.016,-0.488,0.108,0.317,-0.226,0.510,0.305,0.242,-0.085,0.923,0.219
0.370,0.096,0.486,0.536,0.008,0.291,-0.277,0.674,-0.057,0.024,0.117,-0.013,0.061,0.549,-0.027,-0.353,-0.091,0.216,0.058,0.370,0.260,0.085,-0.051,0.649,-0.014
0.402,-0.007,0.767,0.683,-0.025,0.455,-0.081,0.758,0.265,0.076,0.212,0.230,0.150,0.689,0.086,-0.231,-0.072,0.344,0.231,0.420,0.307,0.272,0.067,0.820,0.138
0.246,-0.076,0.545,0.642,0.009,0.486,-0.202,0.610,0.048,-0.044,-0.452,0.148,0.043,0.446,-0.067,-0.189,-0.322,0.211,-0.016,0.294,0.216,0.108,-0.390,0.667,-0.018
-0.069,-0.053,0.450,0.536,-0.167,0.467,-0.231,0.547,0.028,-0.076,-0.334,0.256,-0.094,0.442,-0.236,-0.198,-0.186,-0.058,-0.098,0.370,0.090,0.126,-0.529,0.711,-0.117
0.118,-0.019,0.393,0.613,-0.193,0.438,-0.332,0.646,-0.003,-0.009,-0.204,-0.089,-0.050,0.442,-0.216,-0.328,-0.361,0.087,-0.113,0.475,0.078,0.048,-0.293,0.574,-0.017
0.013,-0.198,0.365,0.507,-0.078,0.135,-0.376,0.524,-0.275,-0.004,-0.273,-0.122,-0.076,0.286,-0.225,-0.397,-0.388,0.110,-0.446,0.302,0.112,0.148,-0.365,0.408,-0.266
0.033,0.048,0.271,0.514,0.020,0.331,-0.381,0.496,-0.347,-0.162,-0.312,-0.152,-0.111,0.373,-0.217,-0.425,-0.428,0.213,-0.461,0.160,0.121,0.043,-0.379,0.611,-0.061
-0.076,-0.086,0.226,0.357,-0.118,0.104,-0.332,0.334,-0.394,-0.293,-0.337,-0.100,-0.249,0.283,-0.550,-0.556,-0.514,0.034,-0.324,0.060,-0.178,0.123,-0.689,0.479,-0.348
-0.003,0.001,0.182,0.477,-0.071,0.224,-0.241,0.486,-0.265,-0.311,-0.325,-0.137,-0.134,0.394,-0.340,-0.408,-0.439,0.264,-0.154,0.107,-0.130,0.016,-0.411,0.569,-0.221
-0.039,-0.112,0.164,0.311,-0.446,0.067,-0.349,0.356,-0.182,-0.378,-0.425,-0.166,-0.209,0.363,-0.401,-0.420,-0.413,0.059,-0.320,0.115,-0.180,-0.106,-0.719,0.448,-0.448
-0.129,-0.128,0.095,0.153,-0.193,0.067,-0.460,0.478,-0.283,-0.219,-0.350,-0.195,-0.135,0.241,-0.378,-0.391,-0.530,-0.050,-0.306,-0.007,-0.111,-0.062,-0.564,0.453,-0.470
-0.201,-0.056,0.248,0.144,-0.232,0.098,-0.540,0.502,-0.255,-0.271,-0.297,-0.337,-0.168,0.259,-0.327,-0.368,-0.399,-0.005,-0.472,0.225,-0.280,-0.112,-0.239,0.438,-0.228
-0.166,-0.232,0.186,0.167,0.063,0.066,-0.414,0.507,-0.215,-0.187,-0.108,0.010,-0.361,0.291,-0.530,-0.432,-0.457,-0.158,-0.449,0.171,-0.231,-0.124,-0.245,0.512,-0.219
-0.192,-0.371,0.277,0.230,-0.063,-0.021,-0.363,0.435,-0.295,-0.295,-0.346,-0.119,-0.301,0.288,-0.369,-0.380,-0.591,-0.171,-0.321,0.087,-0.190,-0.203,-0.359,0.567,-0.164
-0.093,-0.359,0.254,0.217,-0.084,0.109,-0.346,0.364,-0.249,-0.559,-0.310,-0.042,-0.222,0.370,-0.340,-0.348,-0.598,-0.198,-0.631,0.208,-0.185,-0.154,-0.422,0.502,-0.469
0.015,-0.123,0.378,0.374,0.045,0.185,-0.239,0.498,-0.247,-0.343,-0.212,-0.116,-0.162,0.254,-0.426,-0.492,-0.575,-0.032,-0.352,0.084,-0.150,-0.209,-0.245,0.402,-0.214
-0.043,-0.054,0.297,0.367,-0.104,0.021,-0.282,0.390,-0.328,-0.401,-0.188,-0.044,-0.269,0.297,-0.494,-0.474,-0.548,-0.065,-0.435,-0.032,-0.108,-0.159,-0.266,0.488,-0.338
-0.073,-0.087,0.272,0.375,-0.113,0.088,-0.669,0.386,-0.365,-0.460,-0.283,-0.118,-0.240,0.254,-0.414,-0.605,-0.500,-0.049,-0.289,0.048,0.020,-0.192,-0.573,0.462,-0.397
-0.249,-0.232,0.240,0.192,-0.244,0.106,-0.506,0.231,-0.286,-0.389,-0.316,-0.268,-0.265,0.167,-0.646,-0.569,-0.485,0.069,-0.420,-0.151,-0.414,-0.141,-0.551,0.336,-0.452
-0.124,-0.234,0.319,0.143,-0.185,0.047,-0.484,0.173,-0.352,-0.328,-0.345,-0.239,-0.334,0.239,-0.655,-0.544,-0.401,-0.138,-0.364,-0.173,-0.214,-0.045,-0.744,0.316,-0.595
-0.282,-0.451,-0.047,0.034,-0.396,-0.166,-0.759,0.069,-0.501,-0.489,-0.597,-0.494,-0.503,-0.110,-0.829,-0.938,-0.720,-0.472,-0.660,-0.275,-0.432,-0.408,-1.008,0.036,-0.776
-0.255,-0.522,-0.011,0.010,-0.460,-0.257,-0.702,0.086,-0.318,-0.505,-0.760,-0.592,-0.566,-0.087,-0.704,-0.773,-0.832,-0.399,-0.738,-0.206,-0.341,-0.356,-1.049,0.057,-0.558
-0.293,-0.549,0.073,0.028,-0.429,-0.241,-0.545,0.164,-0.446,-0.568,-0.636,-0.213,-0.506,0.020,-0.663,-0.834,-0.601,-0.243,-0.458,-0.228,-0.186,-0.274,-0.703,0.231,-0.522
-0.044,-0.278,0.286,0.245,-0.165,0.100,-0.305,0.306,-0.262,-0.393,-0.489,-0.129,-0.463,0.244,-0.518,-0.515,-0.454,-0.180,-0.223,0.025,-0.007,-0.294,-0.533,0.342,-0.356
0.079,-0.356,0.422,0.338,-0.082,0.041,-0.439,0.325,-0.314,-0.144,-0.417,-0.053,-0.363,0.133,-0.597,-0.402,-0.467,-0.189,-0.352,0.088,-0.187,-0.157,-0.553,0.322,-0.386
0.167,-0.328,0.489,0.380,-0.175,0.077,-0.525,0.454,-0.193,-0.015,-0.210,-0.085,-0.092,0.290,-0.496,-0.305,-0.164,-0.022,-0.477,0.102,-0.113,0.015,-0.484,0.570,-0.441
0.027,-0.380,0.326,0.204,-0.174,0.044,-0.227,0.329,-0.369,-0.023,-0.334,-0.185,-0.116,0.280,-0.498,-0.346,-0.273,-0.070,-0.307,-0.079,-0.071,-0.116,-0.620,0.435,-0.470
-0.183,-0.481,0.186,0.111,-0.369,-0.272,-0.372,0.149,-0.392,-0.400,-0.391,-0.501,-0.368,0.151,-0.658,-0.622,-0.567,0.051,-0.333,-0.168,-0.209,-0.179,-0.606,0.225,-0.551
0.060,-0.123,0.464,0.425,-0.169,0.114,-0.148,0.361,-0.203,-0.206,-0.438,-0.244,-0.184,0.395,-0.563,-0.396,-0.370,0.072,-0.295,0.192,0.042,0.025,-0.376,0.499,-0.241
0.012,0.012,0.480,0.377,-0.173,0.226,-0.355,0.454,-0.200,-0.339,-0.171,0.048,-0.114,0.264,-0.394,-0.351,-0.414,-0.021,-0.211,0.274,-0.099,-0.130,-0.420,0.432,-0.442
0.224,-0.005,0.490,0.453,-0.093,0.328,-0.285,0.616,-0.229,-0.316,-0.035,0.023,0.011,0.381,-0.256,-0.250,-0.217,0.160,-0.090,0.366,0.017,0.105,-0.165,0.518,-0.228
0.216,-0.124,0.423,0.471,0.177,0.320,-0.261,0.620,-0.256,-0.177,-0.161,0.108,0.001,0.519,-0.415,-0.361,-0.222,0.034,-0.149,0.349,0.094,0.014,-0.377,0.488,-0.140
0.194,-0.085,0.433,0.530,0.108,0.241,0.021,0.586,-0.117,-0.228,-0.156,0.106,-0.045,0.412,-0.257,-0.207,-0.149,0.061,-0.044,0.428,0.147,0.196,-0.298,0.529,-0.065
0.183,0.133,0.412,0.592,0.167,0.277,-0.191,0.577,0.092,0.059,-0.113,0.321,-0.137,0.554,-0.182,-0.252,-0.290,0.191,-0.079,0.458,0.194,0.295,-0.361,0.740,-0.045
0.356,0.135,0.501,0.627,0.256,0.546,-0.129,0.632,0.032,0.118,-0.218,0.274,0.110,0.712,-0.107,-0.157,-0.224,0.172,0.091,0.431,0.235,0.259,-0.242,0.901,0.052
0.312,0.325,0.646,0.724,0.289,0.625,-0.098,0.827,0.075,0.093,-0.089,0.337,0.395,0.563,-0.030,-0.071,-0.042,0.196,-0.153,0.458,0.206,0.246,-0.176,0.824,0.172
0.346,0.118,0.462,0.604,0.344,0.503,0.075,0.923,0.055,-0.091,-0.044,0.318,0.510,0.479,0.039,-0.172,-0.190,0.354,-0.021,0.444,0.285,0.115,-0.237,0.792,0.024
0.316,0.183,0.692,0.828,0.148,0.470,0.049,0.885,0.181,-0.129,0.031,0.332,0.301,0.524,0.046,-0.115,-0.067,0.350,-0.041,0.433,0.216,0.165,-0.195,0.729,-0.092
0.317,0.045,0.777,0.726,0.189,0.455,0.066,0.894,0.093,0.056,-0.038,0.437,0.259,0.562,0.136,-0.012,-0.191,0.376,-0.034,0.451,0.330,0.252,-0.130,0.919,-0.099
0.355,0.175,0.908,0.694,0.305,0.526,0.154,0.942,0.299,0.101,-0.010,0.444,0.180,0.607,0.103,0.265,0.265,0.505,0.224,0.392,0.369,0.525,-0.252,0.973,-0.036
0.289,0.220,0.720,0.656,0.363,0.630,0.190,0.858,0.182,-0.023,0.007,0.197,0.230,0.731,0.151,0.101,0.048,0.551,0.143,0.366,0.359,0.463,-0.270,0.894,0.269
0.544,0.273,0.677,0.655,0.372,0.611,0.359,0.923,0.233,0.040,0.296,0.362,0.452,0.715,0.156,0.077,0.040,0.493,0.133,0.649,0.407,0.621,-0.045,0.816,0.098
0.764,0.396,0.933,0.718,0.551,0.597,0.310,1.186,0.462,0.149,0.442,0.643,0.578,0.883,0.043,0.155,0.167,0.525,0.269,0.761,0.639,0.615,0.241,1.059,0.135
0.318,0.201,0.577,0.533,0.402,0.269,-0.044,0.720,0.125,-0.029,-0.023,0.154,0.032,0.629,-0.306,-0.068,-0.287,0.156,0.120,0.387,0.256,0.164,-0.132,0.816,0.101
0.409,0.288,0.510,0.605,0.196,0.421,-0.056,0.832,0.167,0.043,0.211,0.235,0.156,0.549,-0.144,-0.058,-0.167,0.407,0.062,0.390,0.363,0.232,-0.185,0.843,0.073
0.203,0.169,0.547,0.654,0.178,0.396,-0.261,0.728,0.113,-0.112,0.113,0.237,0.217,0.469,-0.035,-0.104,0.034,0.301,0.129,0.468,0.411,0.163,-0.462,0.652,0.097
0.379,0.260,0.693,0.717,0.126,0.449,-0.134,0.847,-0.114,-0.145,0.174,0.135,0.362,0.610,-0.337,-0.038,-0.092,0.244,0.234,0.434,0.387,0.118,-0.253,0.697,0.067
0.278,0.176,0.460,0.553,-0.021,0.262,-0.310,0.645,-0.181,-0.108,-0.036,0.043,0.038,0.436,-0.270,-0.125,-0.166,0.093,0.017,0.352,0.229,0.014,-0.284,0.530,-0.157
0.203,0.266,0.617,0.514,0.040,0.268,-0.211,0.491,-0.045,-0.055,-0.078,0.029,0.019,0.536,-0.179,-0.163,-0.382,-0.083,-0.172,0.447,0.105,0.036,-0.323,0.732,-0.030
0.239,0.130,0.456,0.381,0.047,0.269,-0.142,0.511,0.086,-0.051,-0.113,0.073,-0.011,0.598,-0.166,-0.110,-0.224,0.068,0.132,0.364,-0.002,0.090,-0.422,0.701,0.006
0.250,0.109,0.460,0.438,0.005,0.293,-0.220,0.533,0.059,-0.183,-0.116,0.289,0.117,0.535,-0.257,-0.142,-0.278,-0.083,-0.141,0.450,0.082,0.212,-0.205,0.794,0.067
0.334,0.160,0.581,0.695,0.067,0.408,-0.006,0.608,0.070,-0.026,0.206,0.290,0.186,0.738,0.022,0.102,-0.020,0.328,-0.132,0.575,0.242,0.350,-0.107,0.835,0.121
0.391,0.192,0.665,0.782,0.283,0.583,0.120,0.717,0.073,0.054,0.231,0.187,0.337,0.845,-0.158,0.198,0.059,0.294,0.033,0.508,0.332,0.242,-0.050,0.962,0.128
0.420,0.310,0.767,0.737,0.234,0.495,0.200,0.758,0.069,0.196,0.084,0.353,0.216,0.789,-0.011,-0.101,-0.113,0.224,-0.020,0.461,0.242,0.408,0.053,0.989,-0.005
0.196,0.071,0.532,0.457,0.122,0.223,-0.159,0.620,-0.035,0.044,-0.093,0.083,-0.015,0.533,-0.401,-0.217,-0.187,0.222,-0.079,0.201,-0.185,0.063,-0.029,0.726,-0.150
0.264,0.222,0.604,0.622,0.228,0.370,-0.015,0.680,0.220,0.148,0.322,0.260,0.013,0.541,-0.255,-0.135,-0.041,0.286,-0.027,0.477,0.059,0.306,0.052,0.767,0.059
0.312,0.089,0.432,0.680,0.181,0.417,-0.104,0.547,0.289,0.149,0.198,0.191,0.206,0.667,0.010,-0.297,-0.096,0.316,0.002,0.514,0.344,0.339,0.061,0.839,0.031
0.109,0.219,0.364,0.679,0.215,0.373,-0.276,0.594,0.018,-0.163,0.009,0.171,0.130,0.629,-0.079,-0.178,-0.059,0.298,-0.028,0.153,0.070,0.201,-0.075,0.641,-0.104
0.265,0.133,0.587,0.645,0.232,0.376,-0.292,0.646,-0.128,-0.099,0.077,0.143,0.136,0.521,-0.259,-0.139,-0.276,0.199,-0.280,0.327,0.203,0.206,-0.145,0.659,-0.136
0.055,-0.040,0.375,0.461,0.037,0.191,-0.261,0.516,-0.206,-0.235,-0.193,0.108,0.186,0.356,-0.194,-0.341,-0.366,0.085,-0.092,0.308,0.120,0.077,-0.412,0.471,-0.446
0.148,-0.100,0.374,0.364,0.077,0.186,-0.326,0.541,-0.073,-0.244,-0.241,0.164,-0.090,0.369,-0.481,-0.227,-0.380,-0.021,-0.138,0.228,-0.012,0.041,-0.384,0.597,-0.157
0.104,-0.021,0.359,0.475,0.165,0.158,-0.458,0.710,-0.121,-0.057,-0.179,0.095,-0.137,0.406,-0.105,-0.186,-0.294,-0.073,-0.146,0.406,-0.030,0.201,-0.494,0.694,0.071
0.152,-0.042,0.470,0.539,0.142,0.386,-0.358,0.747,0.011,-0.074,0.012,0.053,0.139,0.513,-0.137,-0.110,-0.270,-0.004,-0.211,0.408,0.059,0.194,-0.372,0.711,0.012
0.277,0.049,0.494,0.646,0.210,0.453,-0.168,0.646,0.134,0.028,-0.037,0.056,0.163,0.607,-0.118,-0.168,-0.168,0.033,-0.071,0.401,0.205,0.434,-0.104,0.742,0.150
0.110,-0.165,0.392,0.296,-0.036,0.153,-0.384,0.500,-0.279,-0.150,-0.259,-0.042,-0.004,0.482,-0.312,-0.312,-0.184,-0.117,-0.202,0.329,0.120,-0.110,-0.300,0.530,-0.150
-0.134,-0.222,0.286,0.341,-0.217,0.065,-0.573,0.513,-0.389,-0.296,-0.383,-0.144,-0.174,0.201,-0.488,-0.401,-0.229,-0.131,-0.473,0.355,-0.012,-0.031,-0.393,0.353,-0.375
-0.307,-0.314,0.098,0.059,-0.419,-0.074,-0.498,0.235,-0.523,-0.392,-0.510,-0.319,-0.297,0.184,-0.788,-0.650,-0.520,-0.237,-0.386,-0.051,-0.399,-0.167,-0.494,0.171,-0.451
-0.226,-0.201,-0.053,0.123,-0.347,-0.066,-0.797,0.305,-0.322,-0.273,-0.457,-0.365,-0.376,0.099,-0.686,-0.451,-0.496,-0.179,-0.488,0.037,-0.505,-0.064,-0.756,0.278,-0.394
-0.540,-0.493,-0.084,-0.079,-0.731,-0.283,-0.985,0.011,-0.652,-0.696,-0.680,-0.708,-0.546,-0.151,-0.928,-0.997,-0.764,-0.589,-0.858,-0.103,-0.555,-0.521,-0.808,-0.085,-0.569
-0.377,-0.286,0.230,0.091,-0.283,-0.053,-0.562,0.299,-0.381,-0.486,-0.536,-0.590,-0.273,0.113,-0.697,-0.794,-0.727,-0.182,-0.538,0.107,-0.326,-0.301,-0.899,0.292,-0.386
-0.317,-0.248,0.174,0.158,-0.290,0.053,-0.528,0.253,-0.344,-0.314,-0.556,-0.470,-0.311,0.215,-0.448,-0.515,-0.589,-0.250,-0.627,-0.016,-0.368,-0.194,-0.712,0.327,-0.304
-0.151,-0.121,0.211,0.191,-0.275,-0.031,-0.591,0.303,-0.289,-0.384,-0.613,-0.168,-0.165,0.230,-0.262,-0.563,-0.640,-0.058,-0.362,-0.046,-0.130,-0.131,-0.702,0.146,-0.424
-0.034,-0.053,0.341,0.171,-0.038,0.120,-0.538,0.526,-0.116,-0.246,-0.379,-0.179,-0.058,0.367,-0.172,-0.487,-0.335,-0.146,-0.408,0.061,0.056,0.050,-0.276,0.437,-0.051
-0.117,-0.200,0.355,0.246,-0.302,0.124,-0.583,0.510,-0.337,-0.401,-0.377,-0.181,-0.135,0.292,-0.282,-0.326,-0.628,-0.209,-0.338,0.090,-0.143,-0.045,-0.414,0.511,-0.099
-0.000,-0.129,0.341,0.349,0.017,0.307,-0.292,0.496,-0.170,-0.222,-0.277,-0.169,-0.071,0.294,-0.322,-0.321,-0.460,-0.025,-0.224,0.254,-0.083,0.036,-0.173,0.563,-0.174
0.083,-0.116,0.376,0.363,0.039,0.289,-0.151,0.609,-0.179,-0.125,-0.171,-0.039,0.040,0.279,-0.313,-0.229,-0.458,0.233,-0.308,0.296,0.147,0.125,-0.298,0.457,-0.043
0.375,0.308,0.687,0.627,0.077,0.533,-0.097,0.922,0.007,0.197,-0.015,0.232,0.237,0.622,-0.164,0.049,-0.161,0.370,-0.044,0.475,0.218,0.334,-0.045,0.752,0.101
0.373,0.307,0.629,0.631,-0.007,0.471,0.098,0.837,-0.048,0.159,-0.046,0.233,0.232,0.645,-0.206,-0.088,-0.119,0.200,-0.125,0.522,0.219,0.339,-0.185,0.777,0.177
0.187,0.124,0.562,0.667,0.056,0.461,0.152,0.862,0.102,0.028,-0.002,0.191,0.175,0.531,-0.360,-0.208,0.044,0.156,0.092,0.469,0.354,0.152,-0.238,0.730,0.054
0.268,0.127,0.591,0.555,0.043,0.437,-0.036,0.758,-0.029,-0.023,0.104,0.163,0.194,0.462,-0.137,-0.102,-0.261,0.204,-0.050,0.443,0.158,0.082,-0.225,0.607,-0.004
0.121,0.032,0.714,0.458,-0.001,0.469,-0.139,0.626,0.068,-0.212,0.066,0.063,0.269,0.622,-0.145,-0.177,-0.275,0.148,-0.009,0.270,0.198,0.141,-0.152,0.684,0.089
0.085,-0.082,0.475,0.308,0.033,0.299,-0.189,0.460,-0.033,-0.326,-0.006,0.005,0.022,0.430,-0.178,-0.184,-0.190,0.060,-0.129,0.364,0.069,0.115,-0.456,0.619,0.108
0.222,0.147,0.518,0.396,0.126,0.305,-0.256,0.556,0.002,-0.262,-0.004,0.154,0.101,0.537,-0.201,0.037,-0.128,0.128,-0.039,0.322,0.181,0.047,-0.262,0.730,-0.040
0.221,0.001,0.529,0.405,-0.016,0.160,-0.332,0.564,-0.087,-0.207,-0.070,0.071,-0.004,0.505,-0.095,-0.066,-0.265,0.070,-0.150,0.401,0.041,-0.125,-0.130,0.600,0.088
0.204,0.135,0.575,0.521,0.090,0.287,-0.146,0.739,-0.186,0.086,-0.233,0.158,0.123,0.599,-0.011,0.088,-0.202,0.138,0.176,0.336,0.098,-0.025,-0.147,0.700,0.125
0.193,0.285,0.733,0.494,-0.010,0.369,-0.189,0.762,-0.046,0.128,-0.051,0.236,0.069,0.593,0.094,-0.274,-0.246,0.195,-0.105,0.328,0.123,0.152,-0.185,0.693,0.044
0.078,0.021,0.482,0.432,-0.095,0.147,-0.270,0.574,-0.157,-0.135,-0.124,0.056,-0.099,0.457,-0.144,-0.226,-0.220,0.152,-0.139,0.302,-0.138,0.068,-0.235,0.592,-0.150
0.021,0.003,0.333,0.366,-0.178,0.111,-0.398,0.491,-0.244,-0.162,-0.220,-0.079,-0.201,0.304,-0.417,-0.481,-0.475,0.049,-0.324,0.286,-0.025,0.052,-0.462,0.520,-0.288
0.152,0.032,0.238,0.320,-0.254,0.136,-0.355,0.476,-0.196,-0.301,-0.241,-0.117,-0.099,0.323,-0.550,-0.607,-0.270,0.015,-0.356,0.176,-0.023,0.051,-0.534,0.433,-0.376
0.013,-0.159,0.307,0.339,-0.351,-0.018,-0.536,0.427,-0.302,-0.389,-0.139,-0.018,-0.279,0.154,-0.528,-0.544,-0.436,-0.084,-0.485,0.143,-0.057,0.154,-0.480,0.440,-0.249
0.166,-0.077,0.264,0.403,-0.121,0.240,-0.446,0.540,-0.141,-0.260,0.025,0.120,-0.046,0.304,-0.518,-0.517,-0.298,-0.110,-0.114,0.160,0.097,0.113,-0.169,0.552,-0.185
0.267,-0.058,0.349,0.535,0.051,0.444,-0.294,0.677,0.054,0.123,-0.072,0.198,-0.134,0.559,-0.232,-0.294,-0.460,-0.068,-0.128,0.316,0.197,0.246,-0.203,0.772,-0.004
0.358,0.173,0.566,0.545,-0.023,0.197,-0.024,0.661,0.082,-0.006,-0.118,0.325,0.042,0.590,-0.207,-0.184,-0.359,0.094,-0.206,0.390,0.066,0.143,-0.217,0.759,0.005
0.344,0.335,0.623,0.577,0.090,0.293,-0.058,0.760,0.066,0.178,-0.052,0.379,0.146,0.630,-0.031,-0.103,-0.332,0.145,0.140,0.537,0.144,0.324,-0.176,0.766,0.100
0.191,0.253,0.606,0.507,0.181,0.207,-0.184,0.593,0.013,0.035,-0.013,-0.052,0.083,0.552,-0.164,-0.324,-0.207,0.132,0.005,0.363,0.025,0.314,-0.114,0.784,-0.004
-0.027,0.077,0.478,0.516,0.103,0.235,-0.216,0.746,-0.102,-0.146,-0.162,0.018,-0.103,0.446,-0.210,-0.080,-0.231,0.105,-0.047,0.216,0.216,0.262,-0.247,0.728,-0.198
0.230,0.102,0.487,0.587,-0.001,0.463,-0.264,0.688,-0.093,-0.106,-0.155,0.026,0.004,0.622,-0.154,-0.370,-0.158,0.170,-0.047,0.306,0.253,0.420,-0.221,0.813,-0.077
0.065,0.144,0.603,0.529,-0.121,0.344,-0.375,0.611,0.072,-0.130,-0.228,0.027,0.043,0.567,-0.132,-0.220,-0.365,-0.042,-0.155,0.220,0.067,0.307,-0.057,0.644,-0.026
0.071,0.295,0.696,0.648,0.182,0.426,-0.417,0.723,0.218,-0.236,0.016,0.388,0.298,0.663,-0.247,-0.117,-0.296,0.166,0.079,0.468,0.264,0.200,-0.189,0.745,-0.127
0.081,0.202,0.719,0.673,0.088,0.322,-0.263,0.747,0.028,-0.207,-0.265,0.285,0.118,0.651,-0.293,-0.064,-0.092,0.088,0.082,0.346,0.095,0.263,-0.364,0.630,-0.142
-0.049,-0.203,0.466,0.405,-0.067,0.106,-0.231,0.479,-0.260,-0.345,-0.393,0.051,-0.146,0.397,-0.361,-0.238,-0.352,0.007,-0.303,0.190,-0.195,0.146,-0.503,0.307,-0.277
0.045,-0.411,0.209,0.230,-0.224,0.102,-0.593,0.418,-0.177,-0.300,-0.358,-0.180,-0.158,0.223,-0.497,-0.552,-0.411,-0.184,-0.588,0.080,-0.340,-0.008,-0.357,0.378,-0.314
-0.050,-0.242,0.191,0.340,-0.207,0.033,-0.514,0.415,-0.361,-0.294,-0.394,-0.285,-0.295,0.237,-0.581,-0.508,-0.557,-0.164,-0.293,0.189,-0.326,0.020,-0.681,0.369,-0.229
-0.109,-0.334,0.266,0.162,-0.325,0.045,-0.648,0.214,-0.340,-0.411,-0.430,-0.411,-0.354,0.127,-0.615,-0.419,-0.817,-0.307,-0.364,0.153,-0.354,-0.000,-0.903,0.340,-0.291
-0.126,-0.451,0.256,0.100,-0.392,-0.226,-0.642,0.257,-0.503,-0.384,-0.546,-0.323,-0.388,0.148,-0.629,-0.593,-0.479,-0.383,-0.284,0.027,-0.324,-0.272,-0.833,0.245,-0.431
0.071,-0.363,0.270,0.158,-0.323,-0.032,-0.612,0.280,-0.277,-0.318,-0.580,-0.368,-0.276,0.263,-0.421,-0.393,-0.612,-0.246,-0.485,0.076,-0.271,-0.185,-0.681,0.224,-0.412
0.058,-0.158,0.355,0.157,-0.384,0.196,-0.547,0.446,-0.298,-0.189,-0.465,-0.194,-0.151,0.322,-0.237,-0.533,-0.543,-0.006,-0.501,0.157,-0.157,-0.056,-0.580,0.467,-0.372
-0.097,-0.155,0.277,0.283,-0.366,0.212,-0.526,0.422,-0.171,-0.233,-0.450,-0.100,-0.042,0.355,-0.346,-0.521,-0.385,0.042,-0.674,0.174,0.014,-0.103,-0.484,0.565,-0.298
0.054,0.102,0.416,0.397,0.129,0.265,-0.348,0.522,-0.129,-0.110,-0.208,0.079,0.092,0.506,-0.172,-0.259,-0.275,0.051,-0.280,0.404,0.055,-0.044,-0.424,0.639,-0.184
-0.162,-0.118,0.322,0.310,0.140,0.214,-0.341,0.404,-0.054,-0.142,-0.118,0.138,-0.129,0.354,-0.178,-0.381,-0.467,-0.202,-0.360,0.253,-0.069,-0.191,-0.517,0.380,-0.399
-0.092,-0.121,0.251,0.313,0.058,0.147,-0.344,0.429,-0.175,-0.161,-0.174,0.066,-0.232,0.391,-0.205,-0.367,-0.395,-0.172,-0.536,0.143,-0.134,-0.156,-0.381,0.538,-0.284
-0.007,0.047,0.296,0.429,0.148,0.228,-0.153,0.468,-0.247,-0.148,-0.168,-0.182,-0.100,0.496,-0.297,-0.073,-0.528,-0.074,-0.285,0.326,-0.092,0.109,-0.537,0.543,-0.362
0.282,0.006,0.452,0.625,0.223,0.353,-0.046,0.753,-0.105,0.067,0.084,0.130,0.174,0.576,-0.072,-0.085,-0.389,0.281,-0.206,0.501,0.009,0.257,-0.120,0.654,-0.125
-0.111,-0.036,0.280,0.414,0.132,0.164,-0.509,0.474,-0.099,-0.022,-0.267,-0.013,-0.100,0.488,-0.275,-0.279,-0.446,-0.053,-0.342,0.259,-0.184,0.092,-0.296,0.376,-0.282
-0.162,-0.115,0.141,0.395,-0.172,0.057,-0.447,0.263,-0.150,-0.288,-0.533,-0.154,-0.288,0.373,-0.382,-0.531,-0.604,-0.206,-0.452,0.070,0.010,-0.210,-0.279,0.314,-0.516
-0.207,-0.064,0.384,0.300,-0.204,0.153,-0.390,0.437,-0.027,-0.373,-0.376,-0.100,-0.073,0.537,-0.401,-0.506,-0.524,-0.097,-0.422,0.116,0.046,-0.088,-0.234,0.461,-0.339
-0.149,-0.177,0.408,0.314,0.035,0.231,-0.375,0.453,-0.056,-0.360,-0.165,-0.162,-0.155,0.468,-0.537,-0.474,-0.409,-0.085,-0.281,0.223,0.128,0.190,-0.237,0.564,-0.081
-0.279,-0.240,0.278,0.391,-0.087,0.149,-0.386,0.412,-0.249,-0.217,-0.283,-0.170,-0.316,0.361,-0.561,-0.575,-0.338,-0.071,-0.424,0.255,-0.137,0.211,-0.227,0.540,-0.166
-0.174,-0.191,0.327,0.418,-0.003,0.070,-0.356,0.420,-0.275,-0.256,-0.155,-0.081,-0.253,0.343,-0.198,-0.428,-0.344,0.037,-0.192,0.253,0.009,0.076,-0.202,0.479,-0.179
-0.000,-0.188,0.376,0.383,-0.019,0.121,-0.466,0.460,-0.177,-0.297,-0.190,-0.047,-0.118,0.353,-0.271,-0.364,-0.436,0.095,-0.117,0.242,-0.153,0.099,-0.435,0.521,-0.073
-0.036,-0.083,0.488,0.371,-0.001,0.125,-0.306,0.577,-0.206,-0.405,-0.325,-0.030,-0.127,0.365,-0.260,-0.160,-0.344,-0.083,-0.397,0.244,-0.153,-0.016,-0.452,0.579,-0.131
-0.024,0.058,0.487,0.420,0.079,0.106,-0.298,0.654,-0.149,-0.292,-0.289,0.029,0.040,0.566,-0.400,-0.281,-0.294,-0.082,-0.276,0.208,-0.128,0.119,-0.233,0.649,-0.230
0.088,0.019,0.573,0.491,0.195,0.315,-0.172,0.620,0.082,0.052,-0.055,0.072,0.062,0.661,-0.416,-0.290,-0.192,-0.055,-0.114,0.255,-0.224,0.153,-0.223,0.538,-0.216
0.186,0.159,0.600,0.545,0.315,0.335,-0.052,0.545,0.002,-0.064,-0.071,0.036,-0.043,0.626,-0.272,-0.214,-0.219,0.052,-0.124,0.274,0.087,0.185,-0.285,0.713,-0.323
0.289,0.147,0.569,0.475,0.334,0.443,-0.198,0.583,-0.006,-0.118,-0.123,-0.051,0.018,0.634,-0.332,-0.238,-0.298,0.347,0.154,0.332,0.048,0.439,-0.126,0.712,-0.020
0.038,0.048,0.396,0.320,0.058,0.256,-0.529,0.386,-0.258,-0.265,-0.296,-0.164,-0.096,0.365,-0.513,-0.423,-0.530,0.120,-0.303,0.168,-0.131,0.106,-0.395,0.498,-0.262
0.065,-0.009,0.366,0.331,-0.011,0.360,-0.670,0.435,-0.174,-0.398,-0.500,0.017,0.084,0.387,-0.434,-0.306,-0.067,0.200,-0.225,0.207,-0.217,0.037,-0.438,0.539,-0.006
0.140,0.119,0.496,0.563,-0.114,0.400,-0.433,0.466,0.040,0.005,-0.195,-0.048,-0.020,0.621,-0.238,-0.466,-0.057,0.286,-0.240,0.245,0.008,0.201,-0.361,0.710,-0.090
0.181,0.042,0.543,0.447,-0.107,0.186,-0.328,0.631,0.012,-0.154,-0.249,0.070,-0.001,0.423,-0.211,-0.275,-0.216,0.133,-0.233,0.295,-0.097,0.147,-0.313,0.531,-0.120
0.048,-0.134,0.636,0.396,-0.070,0.323,-0.247,0.631,-0.006,-0.034,-0.286,0.201,0.049,0.450,-0.231,-0.376,-0.165,0.124,-0.084,0.158,0.055,0.109,-0.232,0.473,-0.426
0.072,-0.012,0.525,0.337,-0.033,0.221,-0.330,0.669,-0.070,-0.056,-0.262,0.030,-0.002,0.393,-0.278,-0.451,-0.046,0.158,-0.170,0.280,-0.010,0.148,-0.465,0.565,-0.417
-0.038,-0.008,0.246,0.256,0.058,0.137,-0.418,0.613,-0.134,-0.320,-0.395,-0.180,-0.042,0.319,-0.317,-0.156,-0.225,-0.007,-0.093,0.225,0.014,0.108,-0.335,0.475,-0.426
-0.003,-0.162,0.214,0.207,-0.092,0.100,-0.384,0.642,-0.183,-0.143,-0.340,0.148,-0.115,0.375,-0.255,-0.397,-0.479,0.011,-0.265,0.185,-0.204,-0.010,-0.221,0.553,-0.281
-0.081,-0.407,0.174,0.221,-0.173,-0.043,-0.614,0.414,-0.306,-0.533,-0.375,-0.043,-0.102,0.136,-0.263,-0.379,-0.552,-0.168,-0.359,0.176,-0.149,-0.240,-0.297,0.385,-0.522
-0.172,-0.414,0.095,0.149,-0.404,-0.060,-0.660,0.203,-0.469,-0.621,-0.544,-0.045,-0.341,-0.056,-0.683,-0.842,-0.694,-0.227,-0.428,0.158,-0.257,-0.218,-0.627,0.200,-0.655
-0.451,-0.445,0.013,-0.060,-0.481,-0.308,-0.880,0.096,-0.519,-0.693,-0.750,-0.253,-0.474,-0.123,-0.821,-0.812,-0.809,-0.345,-0.696,-0.329,-0.488,-0.320,-0.670,0.039,-0.773
-0.269,-0.630,-0.033,-0.065,-0.529,-0.119,-0.666,0.089,-0.640,-0.650,-0.743,-0.338,-0.391,-0.059,-0.767,-0.706,-0.766,-0.438,-0.646,-0.155,-0.460,-0.381,-0.773,0.033,-0.806
-0.172,-0.395,0.099,0.184,-0.526,0.013,-0.559,0.282,-0.367,-0.322,-0.582,-0.191,-0.359,0.121,-0.420,-0.681,-0.588,-0.277,-0.294,0.124,-0.419,-0.140,-0.645,0.246,-0.605
-0.209,-0.597,0.192,0.136,-0.531,-0.019,-0.456,0.214,-0.463,-0.262,-0.513,-0.189,-0.353,0.093,-0.605,-0.469,-0.649,-0.387,-0.487,-0.032,-0.415,-0.332,-0.591,0.146,-0.516
-0.220,-0.266,0.091,0.228,-0.504,0.102,-0.315,0.225,-0.578,-0.263,-0.532,-0.252,-0.311,0.098,-0.495,-0.732,-0.494,-0.229,-0.525,-0.007,-0.370,-0.162,-0.603,0.169,-0.366
-0.102,-0.392,0.083,0.116,-0.495,-0.013,-0.468,0.145,-0.418,-0.334,-0.653,-0.336,-0.382,0.231,-0.435,-0.670,-0.536,-0.196,-0.372,-0.077,-0.534,-0.367,-0.451,0.165,-0.311
-0.227,-0.565,-0.126,0.023,-0.336,0.155,-0.458,0.177,-0.513,-0.300,-0.689,-0.336,-0.477,0.077,-0.463,-0.573,-0.510,-0.219,-0.433,-0.024,-0.380,-0.347,-0.633,0.136,-0.419
-0.218,-0.292,0.102,0.166,-0.359,0.200,-0.373,0.351,-0.455,-0.392,-0.749,-0.092,-0.266,0.377,-0.569,-0.550,-0.367,-0.281,-0.375,-0.042,-0.323,-0.219,-0.409,0.353,-0.522
-0.248,-0.464,-0.159,-0.055,-0.413,-0.127,-0.750,0.135,-0.486,-0.511,-0.992,-0.351,-0.443,0.037,-0.634,-0.795,-0.352,-0.432,-0.558,-0.214,-0.404,-0.319,-0.462,0.318,-0.785
-0.165,-0.375,0.093,0.070,-0.364,-0.187,-0.644,0.205,-0.486,-0.587,-0.741,-0.280,-0.315,0.106,-0.400,-0.593,-0.533,-0.313,-0.566,-0.209,-0.560,-0.233,-0.424,0.171,-0.792
-0.299,-0.492,-0.061,0.089,-0.446,-0.274,-0.513,0.312,-0.590,-0.530,-0.521,-0.467,-0.441,0.087,-0.699,-0.720,-0.667,-0.599,-0.659,-0.234,-0.443,-0.255,-0.597,0.024,-0.795
-0.201,-0.491,0.188,0.179,-0.366,-0.152,-0.514,0.295,-0.507,-0.383,-0.517,-0.354,-0.400,0.221,-0.427,-0.692,-0.748,-0.358,-0.649,-0.011,-0.375,-0.147,-0.402,0.184,-0.753
-0.385,-0.613,-0.020,-0.061,-0.537,-0.179,-0.765,0.103,-0.531,-0.556,-0.704,-0.478,-0.636,-0.065,-0.771,-0.874,-0.821,-0.483,-0.680,-0.296,-0.454,-0.389,-0.612,0.070,-0.826
-0.554,-0.615,-0.236,-0.151,-0.683,-0.182,-0.870,-0.058,-0.723,-0.576,-0.918,-0.495,-0.831,-0.229,-0.813,-0.928,-0.997,-0.517,-0.886,-0.383,-0.673,-0.532,-0.867,-0.078,-0.754
-0.344,-0.471,-0.134,-0.043,-0.368,-0.208,-0.850,0.064,-0.790,-0.637,-0.821,-0.497,-0.732,-0.160,-0.674,-0.887,-1.014,-0.474,-0.769,-0.297,-0.592,-0.528,-0.718,0.034,-0.723
-0.365,-0.492,-0.078,-0.059,-0.466,-0.250,-0.905,0.102,-0.637,-0.696,-0.874,-0.423,-0.528,-0.204,-0.688,-0.759,-0.971,-0.423,-0.708,-0.158,-0.570,-0.513,-0.999,-0.027,-0.829
-0.312,-0.467,0.075,-0.147,-0.369,-0.209,-0.913,0.059,-0.606,-0.751,-0.716,-0.550,-0.645,-0.116,-0.887,-0.793,-1.095,-0.490,-0.529,-0.219,-0.515,-0.369,-0.760,0.109,-0.639
-0.230,-0.371,0.159,0.054,-0.367,-0.100,-0.587,0.163,-0.487,-0.572,-0.628,-0.330,-0.382,0.127,-0.514,-0.602,-0.845,-0.168,-0.265,-0.001,-0.472,-0.179,-0.658,0.387,-0.416
-0.492,-0.483,-0.245,-0.057,-0.669,-0.370,-0.794,-0.158,-0.635,-0.662,-0.709,-0.648,-0.488,-0.103,-0.677,-0.966,-0.846,-0.492,-0.835,-0.235,-0.708,-0.424,-0.977,0.061,-0.556
-0.362,-0.474,0.055,0.093,-0.472,-0.186,-0.654,0.018,-0.695,-0.362,-0.412,-0.557,-0.430,0.009,-0.701,-0.758,-0.806,-0.390,-0.684,-0.163,-0.572,-0.402,-0.911,0.136,-0.411
-0.374,-0.510,0.013,0.060,-0.512,-0.252,-0.720,0.049,-0.684,-0.263,-0.423,-0.468,-0.346,0.002,-0.769,-0.598,-0.599,-0.332,-0.550,-0.216,-0.384,-0.397,-0.717,0.123,-0.473
-0.166,-0.335,0.401,0.287,-0.271,0.123,-0.647,0.336,-0.239,-0.048,-0.335,-0.197,-0.180,0.203,-0.435,-0.265,-0.402,-0.127,-0.395,-0.116,-0.138,-0.104,-0.413,0.349,-0.222
-0.066,-0.190,0.471,0.350,-0.211,0.010,-0.700,0.252,-0.191,-0.256,-0.400,0.004,-0.226,0.021,-0.139,-0.400,-0.481,-0.270,-0.419,0.093,-0.442,-0.151,-0.486,0.463,-0.375
-0.182,-0.209,0.358,0.218,-0.192,0.085,-0.621,0.365,-0.184,-0.305,-0.508,-0.012,-0.117,0.103,-0.269,-0.469,-0.443,-0.082,-0.517,0.031,-0.181,0.062,-0.461,0.447,-0.372
-0.348,-0.216,0.164,0.176,-0.104,-0.134,-0.689,0.217,-0.481,-0.487,-0.543,-0.186,-0.198,-0.058,-0.515,-0.590,-0.628,-0.186,-0.557,-0.164,-0.424,-0.185,-0.585,0.293,-0.744
-0.249,-0.248,0.146,0.089,-0.439,-0.182,-0.648,0.198,-0.325,-0.577,-0.589,-0.293,-0.297,-0.011,-0.500,-0.721,-0.682,-0.213,-0.604,-0.191,-0.334,-0.253,-0.502,0.249,-0.544
-0.165,-0.364,0.218,0.121,-0.277,0.017,-0.750,0.295,-0.309,-0.473,-0.556,-0.378,-0.325,0.123,-0.516,-0.586,-0.505,-0.187,-0.719,-0.197,-0.393,-0.214,-0.658,0.291,-0.495
-0.085,-0.278,0.248,0.174,-0.246,0.007,-0.703,0.361,-0.183,-0.254,-0.315,-0.258,-0.095,0.207,-0.741,-0.688,-0.560,-0.066,-0.315,0.076,-0.233,-0.149,-0.523,0.403,-0.393
0.084,-0.094,0.330,0.218,-0.233,0.091,-0.391,0.488,-0.173,-0.394,-0.410,-0.073,-0.009,0.503,-0.524,-0.266,-0.384,0.074,-0.292,0.086,-0.097,0.092,-0.306,0.485,-0.543
-0.247,-0.267,0.269,0.149,-0.169,-0.017,-0.573,0.498,-0.242,-0.345,-0.366,-0.255,-0.084,0.353,-0.675,-0.438,-0.636,-0.067,-0.246,-0.103,-0.341,-0.029,-0.317,0.376,-0.406
-0.103,-0.165,0.392,0.117,-0.225,0.095,-0.511,0.433,-0.259,-0.359,-0.327,-0.161,-0.216,0.312,-0.618,-0.697,-0.470,0.042,-0.323,0.094,-0.432,-0.034,-0.328,0.279,-0.484
-0.102,-0.038,0.539,0.439,-0.027,0.168,-0.326,0.557,-0.227,-0.162,-0.202,-0.084,-0.072,0.457,-0.463,-0.326,-0.320,0.023,-0.079,0.156,-0.175,0.026,-0.277,0.581,-0.388
-0.028,0.041,0.676,0.553,0.048,0.396,-0.332,0.609,-0.129,-0.150,0.024,-0.087,0.103,0.556,-0.290,0.013,-0.185,0.249,-0.186,0.294,0.100,0.158,-0.235,0.690,-0.048
-0.066,0.036,0.459,0.491,-0.105,0.338,-0.130,0.437,-0.124,0.062,-0.225,0.058,0.012,0.432,-0.110,0.008,-0.336,-0.035,-0.108,0.394,0.026,0.064,-0.121,0.634,-0.275
-0.076,-0.047,0.443,0.518,-0.169,0.296,-0.155,0.520,-0.021,0.157,-0.133,0.022,0.043,0.418,-0.195,-0.284,-0.440,-0.124,-0.193,0.268,0.132,0.066,-0.193,0.671,-0.230
0.056,0.104,0.527,0.536,-0.122,0.315,-0.238,0.646,0.013,-0.046,-0.286,-0.006,0.092,0.368,-0.276,-0.163,-0.404,0.064,-0.056,0.229,0.053,0.031,-0.259,0.609,-0.243
0.004,0.083,0.557,0.411,0.054,0.542,-0.303,0.711,0.049,-0.095,-0.183,0.032,0.195,0.593,-0.153,-0.274,-0.130,0.304,-0.109,0.252,0.119,0.113,-0.083,0.719,0.024
0.181,0.290,0.628,0.592,0.081,0.459,-0.277,0.764,0.063,0.019,-0.206,0.118,0.267,0.659,-0.169,-0.251,0.014,0.254,-0.137,0.386,0.092,0.386,0.064,0.759,-0.013
0.162,0.332,0.447,0.434,-0.119,0.176,-0.190,0.588,-0.161,-0.148,-0.211,-0.082,0.271,0.454,-0.038,-0.036,-0.068,0.131,-0.281,0.338,0.018,0.098,-0.274,0.580,-0.042
0.041,-0.042,0.389,0.407,-0.357,0.238,-0.172,0.496,-0.121,-0.087,-0.331,0.003,0.009,0.328,0.008,-0.296,-0.286,-0.051,-0.294,0.279,-0.072,-0.112,-0.216,0.582,0.072
0.048,-0.198,0.579,0.456,-0.106,0.369,-0.156,0.555,-0.176,-0.051,-0.287,-0.055,-0.080,0.378,-0.340,-0.351,-0.198,-0.095,-0.480,0.310,-0.143,0.091,-0.203,0.543,0.032
0.155,0.075,0.631,0.482,0.081,0.318,-0.170,0.496,-0.275,-0.104,-0.342,-0.011,-0.041,0.421,-0.224,-0.435,-0.185,-0.050,-0.377,0.188,-0.102,0.246,-0.206,0.588,-0.093
-0.004,-0.065,0.414,0.465,-0.156,0.220,-0.406,0.430,-0.142,-0.138,-0.462,-0.002,-0.086,0.298,-0.415,-0.544,-0.133,-0.035,-0.296,0.242,-0.097,0.118,-0.401,0.538,-0.129
0.173,0.157,0.534,0.575,0.012,0.349,-0.211,0.617,-0.181,-0.064,-0.133,0.202,0.012,0.462,-0.241,-0.333,0.017,0.064,-0.173,0.353,0.049,0.246,-0.346,0.772,-0.134
0.117,0.074,0.501,0.582,0.132,0.531,-0.092,0.624,-0.099,-0.072,-0.087,0.164,0.119,0.628,-0.328,-0.259,-0.156,0.061,-0.243,0.257,-0.006,0.256,-0.062,0.734,-0.057
0.189,0.370,0.529,0.650,0.015,0.628,-0.241,0.663,0.102,0.058,-0.127,0.201,0.152,0.635,-0.179,-0.094,-0.080,0.216,-0.251,0.321,0.091,0.297,-0.139,0.836,-0.051
0.198,0.207,0.411,0.423,0.008,0.431,-0.216,0.595,-0.011,0.101,-0.383,0.230,0.100,0.440,-0.151,-0.124,-0.035,0.026,-0.088,0.172,0.033,0.253,-0.162,0.741,-0.053
-0.043,-0.070,0.181,0.273,-0.141,0.218,-0.354,0.556,-0.077,-0.184,-0.318,0.090,0.112,0.494,-0.147,-0.448,-0.195,0.024,-0.348,0.090,-0.227,0.144,-0.224,0.506,-0.122
-0.090,-0.164,0.212,0.245,-0.106,0.182,-0.402,0.594,-0.197,-0.067,-0.407,-0.164,-0.016,0.384,-0.435,-0.355,-0.324,-0.029,-0.259,0.253,-0.318,0.090,-0.094,0.469,-0.310
0.232,-0.175,0.349,0.470,0.008,0.256,-0.284,0.534,0.037,-0.050,-0.212,-0.009,0.196,0.575,-0.253,-0.365,-0.101,0.121,-0.248,0.295,-0.040,0.127,-0.084,0.655,-0.164
0.237,-0.015,0.476,0.472,-0.010,0.268,-0.370,0.598,0.031,-0.150,-0.163,0.153,0.113,0.528,-0.366,-0.177,-0.149,0.087,-0.008,0.318,0.176,0.189,-0.149,0.592,0.104
0.287,0.120,0.564,0.536,0.053,0.283,-0.519,0.616,-0.038,-0.087,-0.056,0.216,0.106,0.454,-0.412,-0.103,-0.214,0.222,-0.030,0.478,0.102,0.157,0.030,0.597,0.060
0.068,-0.068,0.430,0.448,-0.164,0.209,-0.575,0.553,-0.038,-0.288,-0.180,-0.052,-0.021,0.422,-0.342,-0.151,-0.305,0.040,-0.181,0.193,-0.067,-0.007,-0.105,0.446,0.077
0.304,0.057,0.548,0.457,0.137,0.319,-0.232,0.633,-0.021,-0.261,-0.075,0.052,-0.033,0.485,-0.251,-0.139,-0.131,0.161,-0.233,0.378,0.122,0.235,-0.208,0.670,0.091
0.190,0.127,0.693,0.612,0.072,0.374,-0.071,0.693,0.179,-0.158,-0.124,0.216,0.140,0.574,-0.217,-0.169,0.128,0.068,-0.092,0.293,0.097,0.267,-0.007,0.792,-0.072
0.221,0.212,0.616,0.568,0.005,0.507,-0.337,0.639,0.016,-0.122,-0.154,0.203,0.243,0.652,-0.130,-0.334,-0.108,0.177,-0.177,0.358,-0.057,0.178,-0.104,0.643,0.124
