0.040,0.040,0.040,0.040,0.040,0.040,0.040,0.040,0.040,0.040,0.040,0.040,0.040,0.040,0.040,0.040,0.040,0.040,0.040,0.040,0.040,0.040,0.040,0.040,0.040
0.035,0.048,0.537,0.374,0.069,0.364,-0.350,0.518,-0.074,-0.194,-0.166,0.016,0.048,0.450,-0.223,-0.270,-0.201,0.102,-0.251,0.307,0.152,-0.037,-0.242,0.527,-0.145
0.342,-0.000,0.630,0.650,0.330,0.447,-0.057,0.690,0.038,-0.188,-0.139,0.248,0.174,0.592,-0.095,-0.126,0.053,0.185,-0.308,0.496,0.202,0.073,-0.278,0.810,-0.146
0.073,-0.097,0.483,0.529,-0.007,0.154,-0.181,0.670,-0.042,-0.221,-0.092,0.123,0.043,0.415,-0.154,-0.411,-0.131,0.249,-0.257,0.269,0.082,-0.004,-0.415,0.508,-0.319
0.055,-0.035,0.316,0.527,-0.206,0.187,-0.296,0.413,-0.133,-0.394,-0.204,-0.096,0.090,0.348,-0.389,-0.338,-0.140,0.034,-0.340,0.225,0.130,0.084,-0.441,0.366,-0.412
0.125,-0.257,0.302,0.307,-0.240,0.163,-0.249,0.430,-0.256,-0.144,-0.315,-0.177,-0.196,0.431,-0.285,-0.533,-0.419,-0.010,-0.293,0.105,-0.087,-0.184,-0.632,0.355,-0.454
-0.091,-0.115,0.262,0.398,-0.191,0.092,-0.216,0.295,-0.086,-0.175,-0.345,-0.162,-0.290,0.313,-0.497,-0.579,-0.271,-0.154,-0.300,0.132,0.172,-0.001,-0.494,0.533,-0.380
-0.131,-0.329,0.278,0.216,-0.161,0.098,-0.465,0.362,-0.212,-0.400,-0.417,-0.186,-0.392,0.348,-0.646,-0.576,-0.349,-0.065,-0.359,-0.055,0.036,0.045,-0.517,0.539,-0.304
-0.161,-0.156,0.304,0.443,-0.311,0.106,-0.119,0.363,-0.152,-0.395,-0.407,-0.194,-0.340,0.333,-0.604,-0.240,-0.473,-0.068,-0.467,0.181,-0.022,-0.200,-0.568,0.438,-0.479
0.168,-0.024,0.335,0.516,-0.200,0.245,-0.100,0.746,0.091,-0.199,-0.284,-0.012,-0.147,0.427,-0.399,-0.202,-0.225,-0.064,-0.207,0.293,-0.003,0.064,-0.331,0.585,-0.266
-0.070,-0.285,0.310,0.443,-0.111,0.257,-0.271,0.331,-0.231,-0.040,-0.381,-0.125,-0.110,0.220,-0.490,-0.344,0.114,-0.046,-0.149,0.248,0.022,0.088,-0.437,0.474,-0.312
-0.049,-0.134,0.338,0.304,-0.153,0.214,-0.379,0.469,-0.029,-0.412,-0.349,-0.102,-0.001,0.320,-0.406,-0.373,-0.079,0.034,-0.371,-0.042,-0.105,-0.067,-0.497,0.527,-0.238
-0.041,0.053,0.523,0.625,-0.007,0.311,-0.378,0.614,0.054,-0.133,-0.414,0.188,0.300,0.500,-0.330,-0.427,0.017,0.386,-0.087,0.453,-0.003,0.092,-0.179,0.622,-0.366
0.179,0.060,0.683,0.868,0.150,0.569,0.038,0.764,0.193,0.004,0.021,0.333,0.362,0.719,0.055,-0.122,0.031,0.430,0.078,0.615,0.250,0.372,-0.119,0.742,0.009
-0.057,0.059,0.574,0.528,0.057,0.434,-0.038,0.708,-0.149,0.039,-0.081,0.164,0.055,0.645,-0.047,-0.108,0.161,0.314,-0.303,0.279,0.128,0.136,-0.352,0.656,-0.172
0.058,0.063,0.606,0.436,0.224,0.411,-0.218,0.747,0.099,0.058,-0.003,0.364,0.306,0.762,0.012,-0.309,0.141,0.329,-0.240,0.244,0.289,0.161,-0.169,0.803,0.192
0.310,0.237,0.565,0.642,0.113,0.406,-0.093,0.795,-0.047,-0.091,-0.294,-0.044,0.328,0.596,0.045,-0.212,-0.040,0.262,-0.243,0.377,0.108,0.308,-0.120,0.642,-0.083
0.206,0.093,0.657,0.542,0.184,0.601,0.002,0.784,-0.006,-0.002,0.019,0.288,0.206,0.624,-0.188,-0.117,-0.028,0.199,-0.246,0.496,0.117,0.361,-0.044,0.633,-0.252
0.244,-0.112,0.616,0.465,-0.028,0.333,-0.123,0.756,-0.007,-0.208,-0.213,0.096,0.282,0.571,-0.235,-0.027,0.017,0.082,-0.151,0.442,0.054,0.137,-0.206,0.629,-0.191
0.021,-0.032,0.459,0.264,-0.008,0.403,-0.328,0.546,-0.265,-0.337,-0.417,-0.206,-0.011,0.319,-0.371,-0.455,-0.576,0.129,-0.410,0.194,-0.001,-0.049,-0.254,0.334,-0.212
-0.208,-0.291,0.251,0.257,-0.111,0.239,-0.254,0.591,-0.388,-0.339,-0.210,-0.011,-0.251,0.314,-0.379,-0.390,-0.431,0.273,-0.385,0.269,0.071,-0.094,-0.409,0.465,-0.177
0.038,-0.185,0.357,0.421,-0.117,0.399,-0.182,0.513,0.039,-0.046,-0.127,0.054,-0.262,0.540,-0.289,-0.163,-0.370,0.056,-0.311,0.286,-0.118,-0.180,-0.409,0.526,-0.184
0.108,-0.223,0.429,0.412,0.133,0.272,-0.251,0.486,0.049,-0.078,-0.288,-0.011,-0.158,0.489,-0.261,-0.165,-0.382,0.106,-0.183,0.187,-0.209,-0.096,-0.181,0.573,-0.285
0.010,-0.078,0.431,0.428,0.031,0.120,-0.211,0.562,0.098,-0.297,-0.400,-0.149,-0.096,0.460,-0.271,-0.176,-0.135,-0.028,-0.357,0.143,-0.094,-0.091,-0.262,0.531,-0.475
-0.281,-0.131,0.501,0.474,-0.077,0.247,-0.326,0.510,-0.244,-0.285,-0.299,-0.123,-0.093,0.505,-0.307,-0.341,-0.106,0.153,-0.333,-0.004,-0.124,-0.026,-0.453,0.535,-0.197
-0.132,-0.081,0.325,0.282,-0.179,0.089,-0.542,0.374,-0.359,-0.515,-0.454,-0.302,-0.212,0.160,-0.431,-0.583,-0.142,-0.074,-0.534,-0.053,-0.120,-0.064,-0.355,0.318,-0.263
0.010,-0.009,0.285,0.496,0.007,0.217,-0.232,0.646,-0.064,0.028,-0.214,-0.035,-0.244,0.373,-0.232,-0.418,-0.299,-0.085,-0.067,0.307,0.123,-0.229,-0.314,0.479,-0.307
-0.087,-0.340,0.159,0.324,-0.355,0.145,-0.325,0.401,-0.275,-0.458,-0.368,-0.386,-0.375,0.200,-0.399,-0.347,-0.394,-0.227,-0.261,-0.055,-0.282,-0.304,-0.410,0.339,-0.307
-0.114,-0.312,0.272,0.357,-0.243,0.255,-0.626,0.417,-0.156,-0.449,-0.462,-0.001,-0.393,0.255,-0.337,-0.543,-0.367,-0.016,-0.227,0.225,-0.208,-0.250,-0.427,0.415,-0.451
-0.052,-0.108,0.309,0.346,-0.173,0.264,-0.402,0.397,-0.214,-0.348,-0.245,-0.157,-0.139,0.377,-0.342,-0.414,-0.455,0.087,-0.151,0.271,0.032,-0.182,-0.688,0.535,-0.372
0.150,-0.151,0.236,0.312,-0.285,0.092,-0.374,0.548,-0.199,-0.112,-0.189,-0.143,-0.316,0.231,-0.591,-0.067,-0.297,0.080,-0.362,0.474,0.006,-0.061,-0.304,0.501,-0.354
0.402,0.051,0.525,0.435,0.120,0.259,-0.168,0.454,-0.081,-0.067,-0.073,0.149,0.044,0.498,-0.115,-0.127,-0.089,0.131,-0.303,0.327,-0.033,0.136,-0.328,0.525,-0.023
0.267,0.162,0.422,0.538,0.350,0.510,-0.131,0.649,0.008,-0.133,-0.057,0.109,0.358,0.451,-0.235,-0.089,-0.148,0.352,-0.183,0.234,0.101,0.257,-0.333,0.760,0.125
0.045,0.005,0.415,0.430,0.050,0.261,-0.527,0.752,0.018,-0.315,-0.131,0.038,0.227,0.474,-0.268,-0.142,-0.327,0.209,-0.370,0.332,-0.007,0.128,-0.499,0.751,-0.105
0.177,0.029,0.513,0.476,0.062,0.288,-0.281,0.559,0.033,-0.139,0.003,0.015,-0.042,0.463,0.014,-0.268,-0.112,0.131,-0.302,0.261,-0.087,0.190,-0.376,0.595,-0.319
-0.160,-0.054,0.458,0.187,0.061,0.453,-0.147,0.560,0.093,-0.298,-0.122,-0.089,-0.145,0.437,-0.287,-0.083,-0.147,0.209,-0.381,0.083,0.111,0.002,-0.381,0.532,-0.439
-0.005,-0.072,0.468,0.441,-0.136,0.323,-0.206,0.596,0.067,-0.046,-0.164,-0.244,-0.090,0.447,-0.258,-0.259,0.113,-0.089,-0.145,0.222,-0.152,0.163,-0.172,0.377,-0.211
0.071,-0.003,0.405,0.360,0.086,0.528,-0.230,0.488,0.032,-0.156,-0.269,0.077,0.087,0.343,-0.073,-0.302,0.037,-0.098,-0.253,0.399,0.041,0.285,-0.375,0.607,-0.134
0.175,0.095,0.610,0.402,0.151,0.214,-0.195,0.701,-0.122,-0.205,-0.062,0.147,0.024,0.484,-0.066,-0.241,-0.077,0.186,-0.110,0.288,0.099,0.199,-0.265,0.578,-0.117
0.251,0.012,0.726,0.543,-0.051,0.396,-0.192,0.611,0.002,0.046,-0.416,0.095,0.096,0.610,-0.123,-0.066,0.101,0.192,-0.273,0.289,-0.030,0.237,-0.221,0.619,-0.127
0.135,0.082,0.499,0.339,0.100,0.183,-0.215,0.631,0.165,-0.073,-0.411,0.310,0.007,0.529,-0.323,-0.146,0.057,0.212,-0.066,0.355,0.114,0.107,-0.226,0.649,-0.180
0.164,0.129,0.476,0.651,0.052,0.193,-0.399,0.477,-0.154,-0.084,-0.130,0.047,0.154,0.572,0.060,-0.181,-0.068,0.293,-0.090,0.202,-0.041,0.354,-0.206,0.523,-0.248
0.023,-0.128,0.471,0.371,-0.168,0.464,-0.146,0.701,-0.246,-0.149,-0.172,0.024,-0.060,0.425,-0.257,-0.532,-0.239,0.067,-0.161,0.165,0.098,0.187,-0.270,0.421,-0.578
-0.085,-0.006,0.430,0.421,0.054,0.357,-0.431,0.353,-0.355,-0.093,-0.118,0.019,-0.087,0.420,-0.323,-0.758,-0.285,0.045,-0.186,0.067,-0.072,-0.203,-0.173,0.689,-0.194
-0.131,-0.217,0.229,0.350,-0.319,0.182,-0.318,0.261,-0.204,-0.307,-0.289,0.057,-0.234,0.297,-0.245,-0.580,-0.334,-0.033,-0.231,0.031,-0.042,-0.047,-0.280,0.513,-0.501
-0.213,-0.256,-0.084,0.291,-0.252,0.011,-0.425,0.250,-0.408,-0.434,-0.255,-0.249,-0.199,0.166,-0.570,-0.438,-0.360,-0.121,-0.513,-0.149,-0.153,-0.170,-0.638,0.328,-0.462
-0.153,-0.319,0.469,0.367,-0.224,0.085,-0.391,0.335,-0.524,-0.602,-0.422,-0.176,-0.242,0.205,-0.465,-0.592,-0.378,-0.119,-0.510,0.156,-0.158,-0.049,-0.385,0.356,-0.607
-0.160,-0.313,0.127,0.276,-0.165,-0.001,-0.536,0.309,-0.431,-0.297,-0.553,-0.244,-0.234,0.219,-0.553,-0.348,-0.389,-0.067,-0.366,0.020,-0.198,-0.028,-0.494,0.340,-0.327
-0.181,-0.137,0.312,0.193,-0.076,0.002,-0.458,0.398,-0.485,-0.165,-0.606,-0.073,-0.119,0.149,-0.525,-0.487,-0.407,-0.259,-0.601,0.064,-0.453,-0.103,-0.675,0.362,-0.411
-0.020,-0.138,0.316,0.268,0.110,0.179,-0.212,0.324,-0.336,-0.316,-0.399,-0.137,-0.123,0.160,-0.568,-0.404,-0.418,0.035,-0.496,0.143,-0.076,0.099,-0.547,0.409,-0.362
0.049,-0.251,0.312,0.329,-0.135,0.223,-0.329,0.332,-0.284,-0.290,-0.258,-0.162,-0.225,0.363,-0.597,-0.368,-0.299,0.040,-0.323,0.260,-0.034,-0.264,-0.502,0.676,-0.660
-0.039,-0.357,0.201,0.343,-0.160,0.284,-0.311,0.468,-0.304,-0.376,-0.395,-0.398,-0.541,0.341,-0.491,-0.339,-0.451,-0.117,-0.423,0.162,-0.361,-0.016,-0.496,0.275,-0.406
0.148,-0.089,0.365,0.440,-0.207,0.348,-0.406,0.515,-0.007,-0.254,-0.190,-0.104,-0.223,0.374,-0.202,-0.255,-0.456,0.140,-0.233,0.179,-0.000,0.054,-0.576,0.446,-0.376
0.271,-0.003,0.492,0.455,0.283,0.298,-0.205,0.522,-0.106,-0.142,-0.186,0.013,-0.009,0.573,-0.223,-0.067,-0.103,0.354,0.011,0.419,0.021,0.245,-0.296,0.812,-0.381
0.304,-0.021,0.590,0.457,0.154,0.334,-0.211,0.550,0.118,-0.153,-0.168,-0.069,-0.126,0.497,-0.197,-0.110,-0.143,0.293,-0.140,0.381,-0.048,-0.034,-0.243,0.721,-0.344
0.204,-0.024,0.337,0.342,-0.034,0.423,-0.195,0.594,0.002,-0.028,-0.363,-0.032,0.071,0.475,-0.264,-0.434,-0.178,0.253,-0.163,0.385,-0.036,0.002,-0.093,0.668,-0.152
0.256,0.160,0.506,0.314,0.224,0.419,-0.073,0.570,0.060,0.138,-0.051,-0.096,0.171,0.570,-0.370,-0.209,0.028,0.118,-0.245,0.464,0.221,-0.003,-0.266,0.530,-0.187
0.329,0.020,0.567,0.439,0.193,0.321,-0.248,0.663,-0.013,-0.146,-0.220,-0.009,0.022,0.413,-0.514,-0.155,-0.196,0.110,-0.141,0.421,-0.062,0.051,-0.580,0.458,-0.289
0.237,0.000,0.481,0.633,0.073,0.330,-0.062,0.503,-0.284,-0.129,-0.223,-0.230,0.146,0.564,-0.465,-0.287,-0.052,0.188,-0.213,0.175,-0.086,0.060,-0.359,0.518,-0.239
0.276,0.095,0.455,0.378,0.377,0.240,-0.219,0.603,-0.154,-0.015,-0.000,-0.256,-0.017,0.602,-0.509,-0.346,-0.271,0.120,-0.184,0.309,0.184,-0.036,-0.220,0.554,-0.296
0.352,0.199,0.481,0.413,0.034,0.298,-0.112,0.792,-0.029,-0.085,-0.258,0.202,0.041,0.472,-0.504,-0.187,0.120,0.291,-0.095,0.298,-0.190,0.101,-0.084,0.638,-0.248
0.427,-0.026,0.500,0.527,-0.063,0.568,-0.081,0.692,0.191,-0.031,-0.116,0.242,0.022,0.603,-0.081,-0.170,-0.095,0.238,-0.200,0.444,0.005,0.066,-0.268,0.640,-0.170
0.441,0.093,0.762,0.729,0.158,0.596,-0.032,0.967,0.205,0.225,0.165,0.311,0.437,0.648,-0.152,0.026,0.092,0.452,-0.232,0.535,0.316,0.381,0.158,0.845,-0.078
0.179,-0.075,0.580,0.537,0.095,0.474,-0.178,0.644,0.174,0.129,0.007,0.081,0.273,0.619,-0.300,-0.125,0.056,0.302,-0.236,0.389,0.016,0.090,-0.063,0.683,-0.289
0.097,-0.080,0.503,0.415,-0.078,0.232,-0.273,0.524,0.128,-0.103,-0.409,-0.007,0.086,0.389,-0.219,-0.112,-0.014,0.138,-0.440,0.123,0.173,-0.001,-0.192,0.475,-0.209
0.026,-0.247,0.406,0.444,-0.073,0.361,-0.329,0.584,-0.169,-0.012,-0.343,0.057,0.076,0.424,-0.287,-0.231,-0.143,0.142,-0.175,0.040,-0.224,0.063,-0.305,0.500,-0.438
0.062,-0.011,0.414,0.404,-0.098,0.238,-0.225,0.517,0.110,-0.260,-0.210,-0.035,-0.047,0.549,-0.341,-0.201,-0.380,0.020,-0.356,0.160,-0.188,-0.043,-0.329,0.522,-0.220
0.157,-0.189,0.483,0.410,-0.287,0.353,-0.179,0.610,-0.128,-0.152,-0.163,0.204,-0.206,0.307,-0.219,-0.208,-0.174,0.146,-0.169,0.270,-0.058,0.013,-0.499,0.646,-0.152
0.309,-0.053,0.494,0.597,-0.106,0.549,-0.201,0.732,0.047,-0.101,0.091,0.277,0.236,0.693,-0.052,-0.513,-0.065,0.046,-0.011,0.332,0.094,0.061,-0.281,0.593,0.057
0.339,0.204,0.582,0.677,-0.162,0.336,-0.078,0.712,0.179,-0.121,-0.188,0.164,0.211,0.484,-0.152,-0.273,0.046,0.138,-0.208,0.442,0.109,0.122,-0.147,0.610,0.079
0.206,-0.019,0.447,0.605,0.035,0.323,-0.338,0.469,-0.077,-0.188,-0.210,-0.046,0.114,0.433,-0.155,0.038,-0.050,0.095,-0.223,0.106,-0.023,-0.034,-0.305,0.670,-0.052
0.280,0.193,0.534,0.632,0.055,0.395,-0.232,0.698,-0.041,-0.282,-0.122,0.223,0.135,0.602,-0.319,-0.171,-0.190,0.257,-0.200,0.178,0.076,0.075,-0.226,0.675,-0.163
0.418,0.286,0.612,0.767,0.235,0.550,-0.166,0.684,0.192,-0.007,0.094,0.386,0.011,0.454,-0.056,0.034,-0.114,0.502,0.012,0.352,0.313,0.035,-0.080,0.717,-0.057
0.260,0.090,0.657,0.627,-0.048,0.376,-0.139,0.692,0.059,0.100,-0.114,0.094,0.041,0.572,-0.013,0.031,0.000,0.314,0.031,0.331,0.006,0.084,-0.086,0.627,-0.128
0.190,0.135,0.587,0.407,0.081,0.334,0.008,0.577,-0.112,-0.043,-0.194,0.046,0.131,0.607,-0.015,-0.374,-0.262,0.402,-0.137,0.317,0.160,0.227,-0.171,0.727,-0.078
-0.110,-0.087,0.240,0.447,-0.169,0.341,-0.158,0.464,-0.115,-0.196,-0.130,-0.105,-0.082,0.330,-0.109,-0.431,-0.319,0.085,-0.163,0.168,-0.006,0.033,-0.426,0.578,-0.205
-0.037,0.059,0.473,0.465,0.032,0.335,-0.266,0.626,0.119,-0.199,0.116,-0.010,0.166,0.434,-0.230,-0.361,-0.271,0.171,-0.103,0.364,0.050,0.107,-0.280,0.636,-0.095
0.107,-0.038,0.445,0.420,0.193,0.169,-0.232,0.602,-0.054,-0.142,-0.249,0.058,0.114,0.484,-0.208,-0.516,-0.022,-0.007,-0.301,0.357,-0.108,0.140,-0.242,0.448,-0.373
-0.200,-0.407,0.239,0.171,-0.303,0.021,-0.444,0.129,-0.322,-0.230,-0.342,-0.228,-0.170,0.262,-0.462,-0.527,-0.525,-0.133,-0.632,-0.041,-0.256,-0.137,-0.523,0.142,-0.720
-0.230,-0.313,0.192,0.157,-0.413,-0.102,-0.600,0.262,-0.397,-0.523,-0.406,-0.314,-0.250,0.082,-0.401,-0.802,-0.574,-0.023,-0.520,-0.175,-0.090,-0.202,-0.533,0.328,-0.494
0.032,-0.233,0.276,0.405,0.082,0.019,-0.427,0.404,-0.269,-0.404,-0.221,-0.152,-0.133,0.332,-0.362,-0.450,-0.458,0.112,-0.154,0.093,-0.059,-0.128,-0.450,0.569,-0.296
-0.051,-0.125,0.406,0.447,-0.101,-0.010,-0.203,0.466,-0.379,-0.038,-0.201,-0.008,-0.220,0.374,-0.317,-0.131,-0.420,0.068,-0.360,0.219,0.171,-0.043,-0.254,0.624,-0.353
-0.164,0.094,0.264,0.470,-0.104,0.158,-0.476,0.515,-0.251,-0.051,-0.287,-0.158,-0.116,0.504,-0.304,-0.102,-0.549,0.158,-0.462,0.243,-0.017,-0.054,-0.385,0.483,-0.218
0.011,0.106,0.302,0.429,-0.180,0.225,-0.297,0.488,-0.195,-0.132,-0.350,-0.191,-0.047,0.406,-0.300,-0.234,-0.411,-0.010,-0.579,0.290,0.014,-0.062,-0.376,0.441,-0.254
0.237,0.092,0.569,0.604,0.010,0.030,-0.013,0.639,0.065,-0.030,-0.163,0.155,0.180,0.580,-0.093,-0.099,-0.220,0.191,-0.263,0.277,-0.184,0.082,-0.078,0.610,-0.208
0.237,-0.050,0.519,0.503,0.060,0.294,-0.208,0.603,0.012,-0.173,-0.258,0.184,0.081,0.450,-0.277,-0.131,-0.099,0.342,-0.218,0.291,0.037,0.158,-0.184,0.547,-0.304
0.239,0.058,0.407,0.488,-0.043,0.303,-0.041,0.555,-0.027,-0.132,-0.110,0.010,0.021,0.463,-0.184,-0.060,-0.161,0.040,-0.115,0.252,-0.059,0.214,-0.014,0.573,-0.092
0.175,0.070,0.476,0.582,0.075,0.501,-0.398,0.611,0.024,-0.020,-0.148,0.158,0.231,0.548,-0.201,-0.221,-0.128,0.080,-0.144,0.262,0.212,0.219,-0.128,0.607,-0.104
0.376,-0.020,0.685,0.655,0.137,0.415,-0.113,0.703,-0.053,-0.103,-0.021,0.355,0.141,0.569,-0.024,-0.023,0.111,0.344,-0.116,0.440,0.337,0.396,-0.021,0.707,-0.156
0.352,0.113,0.612,0.674,0.137,0.451,-0.122,0.775,0.048,-0.243,-0.054,0.214,0.337,0.580,-0.090,-0.093,-0.017,0.217,-0.211,0.494,0.077,0.369,-0.251,0.792,-0.138
0.416,0.178,0.620,0.602,0.116,0.375,-0.129,0.855,0.249,-0.118,0.012,0.068,0.323,0.622,0.171,0.161,-0.013,0.555,-0.063,0.443,0.617,0.408,-0.101,0.742,-0.167
0.262,0.278,0.703,0.594,0.175,0.437,-0.172,0.845,0.026,0.086,0.217,0.314,0.303,0.794,-0.024,0.184,0.017,0.484,0.119,0.575,0.283,0.148,-0.014,0.894,0.086
0.396,0.333,0.641,0.871,0.342,0.777,0.063,0.905,0.256,0.126,0.255,0.455,0.332,0.979,0.260,0.148,0.110,0.603,0.248,0.453,0.343,0.426,0.080,0.987,0.059
0.445,0.313,0.792,0.774,0.262,0.740,-0.099,0.848,0.407,0.205,0.221,0.421,0.300,0.871,0.006,0.033,0.213,0.557,0.141,0.504,0.360,0.408,0.058,0.885,0.122
0.520,0.326,0.491,0.669,0.057,0.476,-0.164,0.916,0.576,-0.010,0.061,0.307,0.188,0.765,-0.050,0.017,0.005,0.512,-0.070,0.608,0.382,0.417,0.205,0.875,0.152
0.529,0.355,0.881,0.760,0.349,0.643,0.212,1.068,0.595,0.141,0.067,0.476,0.474,0.894,0.210,0.200,0.019,0.353,0.154,0.708,0.309,0.379,-0.145,1.048,0.079
0.582,0.284,0.827,0.804,0.430,0.688,0.162,0.941,0.406,0.423,0.132,0.305,0.534,0.721,0.128,0.080,0.369,0.446,0.048,0.659,0.453,0.770,-0.094,0.980,0.222
0.264,0.177,0.643,0.830,0.323,0.596,-0.110,0.782,0.154,0.218,0.033,0.242,0.227,0.605,0.024,0.092,0.107,0.333,0.071,0.518,0.293,0.416,0.138,0.829,0.013
0.155,0.067,0.588,0.692,0.404,0.260,-0.228,0.638,0.068,-0.070,-0.098,0.128,0.203,0.787,0.082,-0.148,-0.046,0.263,0.024,0.144,0.087,0.265,-0.292,0.662,-0.230
0.377,0.126,0.727,0.783,0.034,0.608,0.014,0.713,0.174,0.191,0.290,0.441,0.245,0.853,-0.061,-0.066,-0.158,0.318,-0.068,0.352,0.341,0.294,-0.142,0.925,-0.009
0.223,0.126,0.612,0.600,0.024,0.604,0.010,0.713,0.104,-0.034,0.019,0.373,0.322,0.653,-0.141,-0.060,-0.142,0.268,-0.135,0.352,0.349,0.211,-0.205,0.908,-0.148
0.307,0.053,0.419,0.543,-0.040,0.533,-0.114,0.583,0.182,-0.001,0.110,0.092,0.253,0.532,-0.386,-0.170,-0.299,0.386,0.033,0.386,0.184,0.128,-0.289,0.648,-0.087
0.010,-0.137,0.244,0.299,-0.097,0.118,-0.281,0.490,-0.081,-0.275,-0.225,-0.130,-0.006,0.325,-0.244,-0.283,-0.233,-0.006,-0.417,0.081,0.024,-0.130,-0.448,0.549,-0.441
0.127,0.013,0.372,0.588,-0.017,0.333,-0.250,0.563,-0.081,-0.209,-0.443,-0.220,0.030,0.298,-0.202,-0.209,-0.162,0.166,-0.491,0.162,-0.050,-0.119,-0.358,0.562,-0.444
0.109,0.001,0.377,0.394,0.132,0.280,-0.327,0.583,0.080,-0.189,-0.433,0.057,-0.007,0.373,-0.346,-0.207,-0.192,0.272,-0.294,0.080,0.038,-0.083,-0.425,0.567,-0.275
-0.042,-0.211,0.168,0.277,-0.067,0.067,-0.513,0.479,-0.085,-0.339,-0.330,0.092,-0.213,0.448,-0.106,-0.396,-0.247,0.023,-0.191,0.201,-0.265,-0.052,-0.635,0.505,-0.410
-0.107,-0.250,0.262,0.309,-0.305,0.127,-0.427,0.280,-0.279,-0.248,-0.148,-0.468,-0.156,0.316,-0.320,-0.383,-0.185,-0.248,-0.363,0.244,-0.158,-0.010,-0.486,0.431,-0.379
-0.161,0.043,0.408,0.286,0.213,0.260,-0.464,0.503,-0.144,-0.369,-0.304,0.134,-0.086,0.369,-0.324,-0.461,-0.085,0.095,-0.526,0.266,0.070,-0.107,-0.275,0.357,-0.230
-0.064,-0.024,0.175,0.363,-0.267,0.251,-0.556,0.465,-0.266,-0.041,-0.437,-0.242,-0.089,0.465,-0.240,-0.294,-0.189,0.041,-0.347,0.269,0.017,-0.218,-0.258,0.483,-0.221
-0.067,-0.118,0.316,0.270,0.043,0.083,-0.458,0.455,-0.203,-0.268,-0.324,-0.156,-0.329,0.212,-0.419,-0.239,-0.008,0.011,-0.489,0.214,0.124,-0.069,-0.300,0.323,-0.522
0.015,-0.044,0.350,0.256,-0.152,0.224,-0.520,0.438,0.092,0.019,-0.431,-0.298,-0.085,0.391,-0.432,-0.415,-0.360,0.243,-0.341,0.300,0.000,-0.104,-0.411,0.472,-0.389
-0.285,-0.262,-0.069,0.221,-0.356,0.044,-0.800,0.184,-0.350,-0.560,-0.561,-0.318,-0.380,-0.080,-0.871,-0.657,-0.625,-0.234,-0.459,-0.021,-0.294,-0.179,-0.789,0.288,-0.347
-0.293,-0.363,0.174,0.423,-0.129,0.111,-0.498,0.336,-0.357,-0.348,-0.232,-0.264,-0.235,0.150,-0.308,-0.472,-0.358,-0.090,-0.396,0.068,-0.268,-0.168,-0.539,0.340,-0.678
-0.068,-0.151,0.333,0.422,-0.157,-0.064,-0.380,0.482,-0.364,-0.214,-0.303,-0.247,-0.295,0.240,-0.542,-0.516,-0.179,-0.101,-0.266,0.221,-0.042,0.112,-0.321,0.415,-0.425
-0.023,-0.478,0.218,0.216,-0.309,0.020,-0.662,0.423,-0.272,-0.312,-0.299,-0.270,-0.400,0.191,-0.148,-0.514,-0.429,0.001,-0.467,0.086,-0.278,-0.006,-0.518,0.341,-0.499
-0.021,-0.285,0.317,0.311,-0.280,0.137,-0.483,0.416,-0.351,-0.234,-0.536,-0.088,-0.154,0.239,-0.432,-0.330,-0.393,-0.058,-0.336,0.075,-0.278,-0.067,-0.407,0.441,-0.425
-0.004,-0.299,0.271,0.206,-0.105,0.105,-0.548,0.543,-0.292,-0.458,-0.440,-0.169,-0.179,0.319,-0.204,-0.463,-0.628,0.015,-0.355,0.127,-0.090,-0.168,-0.469,0.406,-0.301
0.044,-0.205,0.374,0.641,-0.073,0.418,-0.532,0.533,-0.045,-0.248,-0.302,-0.026,0.225,0.216,-0.187,-0.177,-0.286,0.335,-0.207,0.344,-0.022,0.006,-0.395,0.497,-0.245
0.106,-0.036,0.692,0.711,0.107,0.433,-0.038,0.702,-0.039,0.029,-0.134,0.243,0.125,0.624,-0.239,-0.188,-0.177,0.335,-0.008,0.388,0.079,0.222,-0.236,0.646,-0.162
0.194,-0.060,0.393,0.390,0.084,0.354,-0.196,0.704,-0.056,0.075,-0.149,0.072,0.034,0.533,-0.396,-0.200,-0.263,0.092,-0.241,0.363,0.235,0.000,-0.360,0.619,-0.234
0.201,-0.023,0.529,0.519,-0.043,0.214,-0.098,0.648,-0.094,0.039,-0.138,-0.046,0.057,0.627,-0.174,-0.258,0.002,0.112,-0.080,0.455,0.002,0.093,-0.231,0.803,-0.076
0.075,-0.029,0.669,0.623,0.198,0.269,-0.143,0.697,0.179,0.045,0.015,0.141,0.146,0.568,-0.243,-0.171,-0.111,0.028,-0.216,0.242,-0.024,0.296,-0.261,0.491,-0.235
0.243,0.060,0.862,0.743,0.019,0.545,-0.016,0.939,0.085,0.263,0.227,0.255,0.132,0.719,0.077,-0.006,-0.110,0.260,0.109,0.591,0.217,0.334,-0.253,0.764,0.012
0.311,0.129,0.800,0.763,0.304,0.716,0.094,0.891,0.227,0.147,0.060,0.307,0.336,0.837,0.140,0.250,-0.123,0.348,0.003,0.526,0.275,0.314,-0.156,0.960,0.097
0.650,0.171,0.873,0.933,0.359,0.705,0.078,0.901,0.366,0.223,0.237,0.356,0.235,0.844,0.195,0.111,0.178,0.393,-0.007,0.651,0.223,0.588,-0.180,0.915,0.372
0.566,0.303,0.939,0.878,0.233,0.710,0.123,0.951,0.341,0.237,0.188,0.385,0.341,0.794,-0.065,0.115,0.048,0.352,0.060,0.570,0.279,0.445,0.083,0.975,0.138
0.427,0.363,0.678,0.758,0.115,0.544,0.160,0.855,0.047,0.027,0.099,0.318,0.278,0.901,0.003,-0.236,-0.236,0.371,-0.120,0.463,0.191,0.230,-0.017,0.940,0.012
0.429,0.324,0.720,0.750,0.053,0.373,-0.057,0.726,0.125,-0.035,0.144,0.307,0.169,0.690,0.085,0.154,-0.154,0.343,0.171,0.499,0.126,0.271,-0.013,0.866,0.195
0.355,0.130,0.639,0.708,0.098,0.584,0.020,0.649,0.083,0.157,0.064,0.215,0.098,0.614,0.035,-0.064,0.049,0.235,-0.091,0.408,0.056,0.320,-0.240,0.801,0.201
0.302,0.140,0.598,0.681,0.219,0.374,-0.107,0.814,0.083,0.032,-0.080,0.066,0.021,0.661,-0.117,-0.236,-0.211,0.444,-0.211,0.381,0.020,0.266,-0.187,0.588,-0.196
0.499,0.068,0.670,0.624,0.116,0.529,-0.029,0.855,0.122,-0.052,0.095,0.288,0.355,0.589,-0.250,-0.044,0.131,0.498,-0.174,0.512,0.245,0.427,-0.203,0.713,-0.034
0.224,0.220,0.504,0.608,0.091,0.515,-0.060,0.778,0.179,0.022,-0.091,0.335,0.300,0.595,-0.112,-0.055,-0.019,0.223,-0.042,0.500,0.190,0.434,-0.190,0.612,0.023
0.193,0.267,0.633,0.724,0.359,0.685,-0.259,0.868,0.239,0.416,0.071,0.209,0.448,0.810,0.102,-0.060,-0.061,0.284,-0.075,0.539,0.281,0.468,-0.012,0.714,-0.065
0.337,0.065,0.587,0.680,0.313,0.498,-0.355,0.918,0.100,0.283,0.175,0.475,0.362,0.714,0.098,-0.147,0.120,0.251,0.283,0.631,0.450,0.296,-0.139,0.866,0.032
0.090,0.094,0.486,0.596,0.040,0.419,-0.197,0.795,0.138,0.121,0.086,0.175,0.259,0.690,-0.263,-0.217,0.005,0.124,0.016,0.335,0.225,0.142,-0.073,0.823,-0.089
0.179,0.183,0.620,0.716,0.072,0.376,-0.133,0.680,-0.019,-0.159,-0.122,0.021,0.231,0.726,-0.033,-0.402,0.088,0.530,-0.061,0.477,0.156,0.210,-0.297,0.536,-0.034
0.336,-0.101,0.529,0.641,0.131,0.210,-0.322,0.601,-0.141,-0.023,-0.230,0.221,-0.001,0.469,0.034,-0.195,-0.075,0.064,-0.173,0.233,0.119,0.091,-0.493,0.634,-0.165
-0.051,-0.263,0.382,0.428,0.033,0.113,-0.311,0.496,-0.203,-0.202,-0.193,-0.024,0.050,0.288,-0.374,-0.481,-0.461,-0.021,-0.284,0.176,-0.131,-0.026,-0.558,0.420,-0.362
-0.016,-0.196,0.379,0.440,-0.072,0.433,-0.565,0.432,-0.060,-0.277,-0.132,-0.028,-0.067,0.329,-0.603,-0.301,-0.249,-0.065,-0.272,0.028,-0.003,0.149,-0.388,0.443,-0.155
0.064,0.036,0.364,0.529,0.009,0.438,-0.076,0.635,-0.180,-0.084,-0.067,0.014,0.165,0.478,-0.148,-0.319,-0.126,0.316,-0.214,0.207,0.109,0.075,-0.193,0.627,-0.060
0.284,0.089,0.641,0.572,0.051,0.440,-0.098,0.755,-0.061,-0.034,-0.061,-0.027,0.263,0.543,-0.154,-0.452,-0.023,0.149,-0.010,0.437,0.236,0.157,-0.255,0.717,0.032
0.476,0.298,0.812,0.779,0.327,0.546,-0.101,0.791,0.148,0.119,0.163,0.282,0.154,0.817,0.066,0.054,0.095,0.443,-0.024,0.501,0.181,0.448,0.033,0.844,0.136
0.280,-0.141,0.469,0.526,0.177,0.294,-0.073,0.569,-0.001,-0.163,-0.075,0.176,-0.058,0.461,-0.081,-0.057,-0.096,0.270,-0.186,0.409,0.094,0.112,-0.285,0.556,-0.272
0.030,-0.090,0.501,0.527,-0.040,0.334,-0.226,0.691,0.188,-0.124,0.009,0.098,0.041,0.486,-0.096,-0.201,-0.270,0.129,-0.317,0.439,-0.043,0.159,-0.266,0.678,0.069
0.296,-0.156,0.397,0.596,-0.255,0.291,-0.099,0.729,-0.129,-0.172,-0.271,0.049,0.031,0.481,-0.232,-0.131,-0.074,0.147,-0.322,0.326,-0.181,-0.021,-0.355,0.677,-0.372
0.168,-0.130,0.578,0.523,-0.129,0.309,-0.204,0.590,-0.083,-0.051,-0.308,0.044,0.018,0.359,-0.248,-0.412,-0.200,0.205,-0.125,0.379,0.247,0.068,-0.483,0.532,-0.388
0.269,-0.070,0.402,0.580,0.074,0.296,-0.130,0.617,-0.050,0.033,-0.196,0.191,0.067,0.532,-0.031,-0.433,-0.226,0.253,-0.244,0.388,0.267,0.143,-0.292,0.638,-0.119
0.272,0.042,0.580,0.617,0.142,0.451,-0.162,0.614,-0.074,-0.031,-0.276,0.078,0.118,0.594,0.027,-0.453,-0.130,0.279,-0.120,0.296,0.164,0.128,-0.063,0.521,-0.108
-0.087,0.049,0.569,0.529,0.120,0.348,-0.317,0.524,-0.113,-0.106,-0.192,-0.033,0.076,0.357,-0.170,-0.415,-0.166,0.115,-0.381,0.071,0.082,-0.012,-0.081,0.451,-0.205
-0.152,-0.275,0.423,0.456,-0.193,0.300,-0.618,0.390,-0.243,-0.256,-0.244,0.112,-0.056,0.243,-0.159,-0.423,-0.144,0.137,-0.314,0.179,0.103,0.068,-0.494,0.582,-0.270
-0.099,-0.362,0.233,0.253,-0.209,0.093,-0.830,0.349,-0.440,-0.273,-0.271,-0.191,-0.207,0.329,-0.508,-0.263,-0.529,-0.001,-0.418,0.204,-0.002,-0.030,-0.482,0.472,-0.450
-0.001,-0.411,0.199,0.281,-0.214,0.323,-0.770,0.294,-0.194,-0.387,-0.326,-0.195,-0.410,0.167,-0.537,-0.584,-0.558,-0.088,-0.478,0.024,-0.004,-0.160,-0.613,0.340,-0.362
-0.255,-0.349,0.284,0.117,-0.251,0.185,-0.289,0.221,-0.388,-0.654,-0.519,-0.402,-0.121,0.051,-0.448,-0.508,-0.736,0.035,-0.372,0.180,-0.173,-0.313,-0.528,0.383,-0.471
-0.268,-0.611,0.019,0.109,-0.421,-0.086,-0.797,0.371,-0.660,-0.605,-0.607,-0.192,-0.188,0.025,-0.617,-0.719,-0.698,-0.169,-0.812,-0.011,-0.381,-0.319,-0.703,0.185,-0.633
0.037,-0.347,0.135,0.382,-0.354,0.226,-0.547,0.493,-0.197,-0.388,-0.385,-0.148,-0.080,0.234,-0.297,-0.513,-0.174,0.022,-0.516,0.138,-0.174,-0.141,-0.446,0.359,-0.401
-0.105,-0.308,0.251,0.415,-0.259,0.250,-0.606,0.399,-0.322,-0.472,-0.374,0.015,-0.095,0.252,-0.349,-0.733,-0.190,-0.024,-0.421,0.187,-0.196,-0.042,-0.565,0.443,-0.303
0.136,-0.240,0.336,0.429,-0.071,0.282,-0.367,0.456,-0.287,-0.172,-0.496,-0.278,-0.062,0.375,-0.261,-0.512,-0.318,-0.037,-0.242,0.158,0.002,0.034,-0.232,0.620,-0.236
0.130,-0.172,0.246,0.382,-0.229,0.172,-0.473,0.435,-0.246,-0.383,-0.420,-0.183,-0.233,0.335,-0.363,-0.436,-0.630,0.087,-0.377,0.181,-0.166,0.080,-0.378,0.376,-0.514
-0.085,-0.282,0.248,0.290,-0.415,-0.149,-0.678,0.317,-0.244,-0.437,-0.414,-0.248,-0.253,0.083,-0.399,-0.469,-0.485,0.044,-0.299,-0.199,-0.197,-0.188,-0.533,0.450,-0.544
-0.373,-0.457,0.100,0.060,-0.373,-0.021,-0.673,0.183,-0.525,-0.495,-0.675,-0.478,-0.429,0.045,-0.575,-0.421,-0.626,-0.139,-0.638,-0.278,-0.445,-0.380,-0.801,0.162,-0.708
-0.378,-0.408,0.148,0.075,-0.331,-0.121,-0.691,0.121,-0.475,-0.437,-0.545,-0.445,-0.095,0.206,-0.542,-0.396,-0.695,-0.105,-0.647,-0.276,-0.238,-0.350,-0.667,0.130,-0.753
-0.353,-0.426,-0.064,0.054,-0.437,-0.110,-0.782,0.102,-0.599,-0.520,-0.599,-0.474,-0.292,-0.288,-0.562,-0.578,-0.770,-0.447,-0.418,-0.092,-0.423,-0.532,-0.599,0.029,-0.903
-0.310,-0.296,0.101,0.307,-0.250,-0.195,-0.491,0.126,-0.505,-0.770,-0.444,-0.482,-0.442,0.035,-0.504,-0.600,-0.547,-0.452,-0.531,-0.111,-0.217,-0.247,-0.641,0.153,-0.547
-0.506,-0.497,-0.184,-0.140,-0.379,-0.207,-0.934,-0.007,-0.538,-0.834,-0.819,-0.490,-0.400,-0.018,-0.442,-0.875,-0.638,-0.376,-0.813,-0.137,-0.404,-0.354,-0.810,0.028,-0.616
-0.346,-0.489,-0.034,0.231,-0.304,-0.115,-0.691,0.154,-0.433,-0.541,-0.422,-0.227,-0.357,-0.071,-0.521,-0.732,-0.569,-0.248,-0.476,-0.069,-0.366,-0.318,-0.705,0.341,-0.647
-0.116,-0.378,0.131,0.250,-0.453,0.162,-0.729,0.327,-0.151,-0.500,-0.371,-0.231,-0.305,0.149,-0.581,-0.594,-0.641,-0.248,-0.401,0.155,-0.290,-0.126,-0.695,0.310,-0.558
-0.226,-0.326,0.348,0.236,-0.099,0.276,-0.483,0.382,-0.250,-0.227,-0.307,-0.176,0.135,0.250,-0.479,-0.399,-0.385,0.070,-0.344,0.116,0.103,-0.083,-0.297,0.518,-0.437
0.192,-0.327,0.432,0.534,0.126,0.165,-0.215,0.507,-0.035,0.034,-0.289,-0.038,0.062,0.512,-0.260,-0.253,-0.109,0.087,-0.175,0.445,0.081,-0.127,-0.382,0.587,-0.292
0.025,-0.221,0.365,0.281,-0.096,0.351,-0.295,0.645,-0.048,-0.192,-0.069,0.030,0.081,0.319,-0.273,-0.302,-0.045,0.045,-0.139,0.381,0.063,0.135,-0.237,0.571,-0.201
-0.098,-0.075,0.532,0.522,0.053,0.332,-0.181,0.544,0.057,-0.160,-0.332,-0.118,0.099,0.442,-0.130,-0.491,-0.080,0.319,-0.263,0.249,0.037,0.180,-0.349,0.565,-0.291
0.248,-0.115,0.703,0.535,0.127,0.404,-0.023,0.627,0.101,-0.046,0.098,0.234,0.212,0.697,-0.282,-0.118,0.262,0.163,-0.164,0.715,0.291,0.221,-0.306,0.815,-0.129
0.288,0.049,0.513,0.491,-0.014,0.409,-0.130,0.548,0.021,-0.275,0.049,0.253,0.022,0.513,-0.226,0.068,-0.081,0.109,-0.200,0.388,0.038,0.277,0.002,0.599,-0.052
0.129,-0.074,0.428,0.406,-0.124,0.227,-0.339,0.664,0.018,-0.139,-0.147,0.055,0.122,0.516,-0.320,-0.256,-0.217,0.094,-0.257,0.191,0.115,-0.041,-0.221,0.624,-0.167
0.157,-0.111,0.356,0.384,0.234,0.139,-0.407,0.719,0.072,-0.204,-0.073,0.021,0.137,0.603,-0.173,-0.207,-0.133,0.051,0.020,0.330,0.078,0.012,-0.328,0.523,-0.235
0.138,-0.089,0.320,0.184,-0.064,0.225,-0.122,0.600,-0.196,-0.119,-0.333,-0.075,-0.166,0.258,-0.333,-0.240,-0.320,0.211,-0.389,0.243,0.029,-0.035,-0.487,0.455,-0.378
0.070,0.046,0.345,0.387,-0.015,0.319,-0.056,0.659,-0.344,-0.154,-0.453,0.147,0.135,0.518,-0.266,-0.191,-0.203,0.146,-0.115,0.194,-0.047,0.157,-0.347,0.651,-0.139
-0.025,0.096,0.509,0.465,0.139,0.370,-0.185,0.509,-0.101,-0.222,-0.387,0.059,0.068,0.537,-0.263,-0.095,-0.074,0.096,-0.043,0.254,0.052,0.063,-0.382,0.481,-0.123
0.068,-0.043,0.295,0.326,0.183,0.215,-0.298,0.549,0.061,-0.320,-0.104,0.070,-0.277,0.464,0.041,-0.311,0.186,0.043,-0.372,0.067,-0.124,0.115,-0.447,0.522,-0.447
0.207,0.129,0.430,0.392,0.106,0.357,-0.353,0.723,0.055,-0.132,0.142,0.181,0.003,0.532,-0.119,-0.176,-0.108,0.197,-0.218,0.204,0.056,0.193,-0.236,0.795,-0.373
-0.052,-0.023,0.306,0.296,0.067,0.413,-0.287,0.529,-0.031,-0.442,-0.347,0.091,0.031,0.369,-0.281,-0.125,-0.141,0.058,-0.292,0.173,-0.177,0.176,-0.289,0.531,-0.220
-0.085,-0.331,0.367,0.110,0.022,0.077,-0.326,0.363,-0.157,-0.395,-0.386,-0.055,-0.291,0.366,-0.622,-0.416,-0.172,0.098,-0.490,0.269,-0.097,-0.032,-0.300,0.271,-0.482
0.021,-0.089,0.416,0.499,-0.084,0.162,-0.275,0.615,0.030,-0.263,-0.032,-0.116,-0.182,0.589,-0.299,-0.184,-0.222,0.318,-0.298,0.309,-0.088,0.004,-0.140,0.521,-0.185
0.064,-0.187,0.269,0.367,-0.224,0.101,-0.458,0.600,-0.046,-0.404,-0.048,-0.102,-0.169,0.331,-0.411,-0.367,-0.159,0.081,-0.329,0.202,-0.169,-0.052,-0.369,0.518,-0.078
0.024,-0.078,0.325,0.407,-0.062,0.270,-0.463,0.642,-0.175,-0.187,-0.358,-0.223,-0.066,0.466,-0.171,-0.366,-0.129,0.175,-0.288,0.410,-0.193,0.057,-0.419,0.559,-0.171
-0.126,-0.251,0.277,0.105,-0.354,0.154,-0.367,0.496,-0.251,-0.165,-0.683,-0.282,-0.329,0.233,-0.357,-0.322,-0.332,-0.044,-0.466,0.135,-0.209,0.121,-0.608,0.409,-0.479
-0.164,-0.252,0.221,0.103,-0.196,0.078,-0.361,0.412,-0.242,-0.334,-0.442,-0.164,-0.153,0.168,-0.289,-0.323,-0.624,-0.006,-0.439,0.264,-0.022,-0.077,-0.586,0.416,-0.555
-0.247,-0.268,0.162,0.126,-0.285,0.170,-0.429,0.349,-0.150,-0.395,-0.447,-0.178,-0.110,0.213,-0.532,-0.405,-0.606,-0.223,-0.372,0.029,-0.221,-0.140,-0.658,0.371,-0.422
-0.060,-0.094,0.244,0.270,-0.123,0.107,-0.112,0.359,-0.008,-0.300,-0.221,-0.240,-0.194,0.276,-0.551,-0.138,-0.492,-0.093,-0.293,0.121,-0.141,-0.160,-0.568,0.396,-0.221
0.018,-0.071,0.313,0.390,-0.089,0.270,-0.280,0.489,-0.005,-0.330,-0.101,0.115,-0.028,0.413,-0.398,-0.448,-0.395,0.080,-0.117,0.237,-0.011,-0.073,-0.355,0.548,-0.252
-0.128,-0.232,0.396,0.365,-0.240,0.167,-0.351,0.437,-0.162,-0.165,-0.266,-0.039,-0.189,0.265,-0.492,-0.600,-0.241,-0.007,-0.495,-0.007,-0.207,-0.057,-0.593,0.440,-0.337
-0.016,-0.158,0.368,0.383,0.031,0.235,-0.395,0.530,-0.255,-0.311,-0.122,-0.057,-0.083,0.347,-0.141,-0.657,-0.346,0.147,-0.392,0.238,0.069,0.150,-0.428,0.468,-0.451
-0.121,-0.344,0.038,0.243,-0.373,-0.079,-0.453,0.237,-0.088,-0.551,-0.547,-0.144,-0.320,0.170,-0.363,-0.403,-0.441,-0.070,-0.504,-0.018,-0.221,-0.204,-0.508,0.270,-0.559
-0.090,-0.086,0.282,0.229,-0.086,0.319,-0.575,0.366,-0.150,-0.414,-0.556,-0.083,-0.029,0.199,-0.444,-0.284,-0.641,0.012,-0.518,0.247,-0.170,-0.183,-0.416,0.348,-0.477
-0.294,-0.258,0.099,0.183,-0.547,0.035,-0.452,0.296,-0.315,-0.520,-0.400,-0.257,-0.182,0.237,-0.618,-0.318,-0.362,-0.148,-0.499,-0.013,-0.107,-0.216,-0.473,0.276,-0.347
-0.001,-0.295,0.282,0.236,-0.416,-0.069,-0.276,0.442,-0.317,-0.172,-0.427,-0.311,-0.150,0.073,-0.513,-0.330,-0.310,-0.066,-0.442,0.184,-0.151,-0.054,-0.397,0.234,-0.422
-0.252,-0.325,0.305,0.216,-0.154,0.127,-0.423,0.442,-0.456,-0.283,-0.441,-0.172,-0.099,0.303,-0.563,-0.332,-0.452,-0.149,-0.482,0.093,-0.298,-0.154,-0.641,0.420,-0.303
-0.001,-0.259,0.364,0.268,-0.143,0.065,-0.467,0.446,-0.071,-0.254,-0.482,-0.219,0.016,0.266,-0.199,-0.552,-0.507,-0.010,-0.541,0.011,-0.193,0.024,-0.421,0.441,-0.254
-0.055,-0.362,0.277,0.205,-0.196,0.054,-0.490,0.338,-0.149,-0.357,-0.473,-0.309,-0.186,0.308,-0.316,-0.312,-0.677,-0.069,-0.562,0.152,-0.283,-0.133,-0.663,0.193,-0.401
-0.120,-0.197,0.169,0.150,-0.269,0.079,-0.523,0.236,-0.218,-0.351,-0.530,-0.308,-0.028,0.215,-0.499,-0.376,-0.393,-0.250,-0.532,0.172,-0.266,-0.052,-0.542,0.309,-0.407
-0.249,-0.317,0.189,0.126,-0.458,0.039,-0.487,0.295,-0.447,-0.309,-0.420,-0.438,-0.223,0.169,-0.504,-0.639,-0.483,-0.140,-0.294,-0.065,-0.121,-0.115,-0.578,0.396,-0.504
-0.309,-0.165,0.218,0.161,-0.332,-0.036,-0.452,0.465,-0.232,-0.164,-0.593,-0.443,-0.139,0.259,-0.485,-0.763,-0.545,-0.042,-0.292,0.164,-0.266,-0.026,-0.722,0.414,-0.478
-0.127,-0.180,0.080,0.097,-0.425,0.082,-0.508,0.313,-0.383,-0.429,-0.576,-0.180,-0.236,0.194,-0.469,-0.801,-0.354,-0.215,-0.382,0.131,-0.137,-0.244,-0.725,0.320,-0.391
-0.113,-0.288,0.165,0.171,-0.314,-0.025,-0.674,0.200,-0.278,-0.520,-0.495,-0.278,-0.164,0.088,-0.878,-0.638,-0.421,-0.287,-0.603,0.073,-0.458,-0.257,-0.734,0.348,-0.415
-0.102,-0.302,0.193,0.181,-0.303,-0.093,-0.522,0.197,-0.264,-0.413,-0.454,-0.153,-0.173,0.217,-0.519,-0.270,-0.349,-0.214,-0.598,0.072,-0.406,-0.198,-0.566,0.285,-0.480
-0.043,-0.216,0.202,0.230,-0.092,0.096,-0.335,0.238,-0.295,-0.185,-0.404,-0.092,-0.015,0.451,-0.744,-0.342,-0.433,-0.139,-0.422,0.135,-0.180,-0.092,-0.365,0.346,-0.198
0.078,-0.086,0.282,0.433,0.059,0.241,-0.138,0.545,0.094,-0.269,-0.307,-0.039,0.133,0.234,-0.455,-0.343,-0.400,0.078,-0.240,0.176,0.022,0.143,-0.380,0.517,-0.177
-0.082,-0.178,0.302,0.464,-0.051,0.194,-0.225,0.445,-0.015,-0.246,-0.301,0.005,-0.046,0.354,-0.231,-0.433,-0.455,0.165,-0.238,0.280,-0.067,0.036,-0.477,0.419,-0.379
-0.157,-0.411,0.147,0.243,-0.237,0.090,-0.407,0.387,-0.369,-0.326,-0.362,-0.386,-0.375,0.286,-0.488,-0.486,-0.624,-0.238,-0.649,0.218,-0.195,-0.071,-0.601,0.420,-0.458
0.169,-0.066,0.315,0.375,-0.401,0.266,-0.473,0.345,-0.244,-0.309,-0.224,-0.150,-0.091,0.373,-0.482,-0.422,-0.174,0.224,-0.348,0.332,0.031,0.080,-0.367,0.395,-0.298
0.017,0.024,0.393,0.423,-0.267,0.269,-0.422,0.470,-0.063,-0.342,-0.345,-0.108,-0.001,0.356,-0.248,-0.511,-0.303,0.030,-0.470,0.156,-0.100,-0.035,-0.427,0.564,-0.409
-0.061,-0.017,0.351,0.325,-0.235,0.266,-0.336,0.560,-0.076,-0.306,-0.325,-0.097,-0.218,0.402,-0.398,-0.343,-0.425,0.065,-0.317,0.411,-0.105,-0.020,-0.472,0.433,-0.454
0.009,0.100,0.483,0.480,0.198,0.328,-0.160,0.763,0.010,-0.095,-0.059,0.224,0.070,0.373,-0.043,-0.069,-0.019,0.264,-0.203,0.241,0.230,0.097,-0.338,0.570,-0.081
-0.039,-0.219,0.397,0.315,-0.056,0.163,-0.345,0.583,-0.247,-0.138,-0.328,-0.040,0.053,0.425,-0.052,-0.285,-0.198,0.061,-0.198,0.375,-0.113,0.050,-0.485,0.526,-0.206
-0.057,-0.221,0.279,0.404,-0.179,-0.064,-0.259,0.475,-0.334,-0.409,-0.652,-0.130,-0.081,0.192,-0.443,-0.415,-0.179,-0.013,-0.303,0.240,-0.223,-0.136,-0.415,0.578,-0.454
0.035,-0.273,0.335,0.365,-0.098,0.142,-0.196,0.480,0.047,-0.221,-0.470,-0.141,-0.175,0.531,-0.218,-0.504,-0.152,0.095,-0.116,0.183,0.059,-0.051,-0.530,0.620,-0.448
0.154,-0.075,0.499,0.437,0.088,0.477,0.055,0.610,-0.100,-0.107,-0.177,0.009,0.119,0.598,-0.128,-0.230,-0.252,0.314,-0.083,0.268,0.132,0.389,-0.346,0.699,-0.319
0.151,0.020,0.578,0.728,0.370,0.405,-0.163,0.739,0.013,0.026,0.015,0.128,0.244,0.694,-0.085,-0.195,-0.158,0.264,-0.235,0.354,0.269,0.377,-0.188,0.772,-0.362
0.225,-0.006,0.665,0.631,0.224,0.373,0.004,0.607,0.063,0.040,0.065,-0.124,0.287,0.633,0.030,-0.062,-0.155,0.272,-0.206,0.717,0.113,0.193,-0.130,0.640,-0.140
0.137,-0.058,0.475,0.658,0.320,0.685,-0.067,0.682,-0.117,0.071,-0.083,0.055,0.272,0.517,-0.206,-0.204,-0.171,0.143,-0.041,0.365,0.166,0.207,-0.226,0.632,-0.236
0.112,-0.338,0.379,0.505,0.115,0.305,-0.204,0.681,-0.006,-0.019,0.051,0.096,0.035,0.444,-0.265,-0.173,-0.212,-0.025,-0.093,0.258,0.073,0.128,-0.462,0.598,-0.364
-0.031,-0.083,0.270,0.438,-0.206,0.275,-0.281,0.513,-0.116,0.003,-0.127,-0.169,-0.093,0.280,-0.240,-0.208,-0.162,-0.054,-0.123,0.244,-0.165,-0.003,-0.409,0.540,-0.248
-0.071,-0.128,0.280,0.328,-0.219,0.144,-0.417,0.438,-0.203,-0.133,-0.443,-0.227,-0.191,0.334,-0.230,-0.493,-0.262,-0.039,-0.318,0.131,-0.137,-0.015,-0.311,0.366,-0.314
-0.155,-0.378,0.198,0.213,-0.169,0.184,-0.546,0.443,-0.404,-0.415,-0.616,-0.215,-0.347,0.195,-0.406,-0.569,-0.326,-0.360,-0.509,-0.009,-0.226,-0.126,-0.542,0.251,-0.516
-0.042,-0.272,0.305,0.380,-0.180,0.026,-0.559,0.330,-0.079,-0.222,-0.186,-0.118,-0.262,0.243,-0.409,-0.455,-0.297,-0.202,-0.452,0.108,-0.174,-0.046,-0.489,0.346,-0.408
0.047,-0.215,0.467,0.305,-0.070,0.078,-0.484,0.445,-0.183,-0.280,-0.337,-0.112,0.037,0.341,-0.493,-0.365,-0.314,0.006,-0.574,0.087,0.048,-0.206,-0.363,0.472,-0.402
0.131,0.037,0.475,0.550,0.022,0.087,-0.299,0.534,-0.031,0.023,0.062,0.009,-0.054,0.311,-0.299,-0.538,-0.271,0.168,-0.463,0.184,0.170,-0.056,-0.264,0.435,-0.438
0.097,-0.099,0.320,0.399,-0.281,0.366,-0.465,0.429,-0.143,-0.272,-0.410,-0.197,-0.215,0.309,-0.398,-0.414,-0.421,-0.150,-0.535,0.080,-0.156,-0.251,-0.380,0.316,-0.468
-0.188,-0.188,0.413,0.372,-0.232,0.284,-0.334,0.642,-0.051,-0.269,-0.140,-0.094,0.013,0.383,-0.468,-0.241,-0.241,-0.140,-0.312,0.333,-0.023,-0.066,-0.489,0.424,-0.261
0.183,0.005,0.412,0.633,0.034,0.405,-0.063,0.598,-0.075,-0.090,-0.248,-0.001,-0.208,0.571,-0.224,-0.462,-0.218,0.216,-0.195,0.356,0.283,-0.014,-0.284,0.512,-0.160
0.282,-0.179,0.490,0.489,-0.001,0.378,-0.141,0.636,-0.054,-0.177,-0.155,-0.025,-0.075,0.397,-0.240,-0.531,-0.117,0.264,-0.210,0.275,0.111,-0.019,-0.355,0.501,-0.388
0.167,0.074,0.566,0.532,0.282,0.427,-0.144,0.660,0.133,-0.071,-0.160,0.284,0.123,0.511,-0.335,-0.111,-0.129,0.246,-0.222,0.323,0.256,0.290,-0.068,0.469,-0.192
0.202,0.116,0.521,0.568,0.312,0.360,0.047,0.685,0.269,-0.040,0.128,0.145,-0.050,0.609,-0.238,-0.141,-0.170,0.247,-0.186,0.260,0.174,0.312,-0.182,0.618,-0.133
0.424,0.229,0.557,0.527,0.245,0.631,-0.143,0.883,0.160,-0.112,-0.050,0.195,0.111,0.750,-0.258,-0.123,-0.051,0.420,-0.138,0.341,0.340,0.301,-0.150,0.671,0.029
0.466,0.296,0.679,0.614,0.439,0.636,-0.124,0.833,0.121,0.108,0.115,0.228,0.157,0.690,0.014,0.054,0.045,0.148,-0.059,0.479,0.289,0.226,-0.029,0.727,-0.044
0.232,0.133,0.380,0.532,0.025,0.341,-0.151,0.665,0.084,-0.145,-0.297,0.032,0.149,0.586,-0.324,-0.397,-0.030,0.168,-0.034,0.441,-0.217,-0.017,-0.241,0.626,-0.164
0.390,0.169,0.681,0.851,0.190,0.416,-0.208,0.761,0.122,0.106,-0.012,0.145,-0.145,0.571,0.001,-0.135,-0.031,0.073,-0.180,0.455,0.005,0.265,-0.407,0.640,-0.088
0.452,0.102,0.619,0.734,0.192,0.433,0.180,0.816,0.291,0.159,0.030,0.331,0.369,0.681,-0.002,-0.070,0.095,0.073,0.142,0.600,0.147,0.465,0.065,0.982,0.076
0.662,0.372,0.885,0.936,0.290,0.706,0.203,0.980,0.626,0.397,0.371,0.447,0.520,0.885,0.381,0.239,0.429,0.593,0.107,0.590,0.462,0.528,0.133,1.072,0.242
0.455,0.197,0.873,0.716,0.393,0.861,0.145,0.907,0.517,0.226,0.443,0.543,0.346,0.947,-0.040,0.062,-0.025,0.346,-0.027,0.609,0.376,0.639,-0.100,0.968,0.354
0.476,0.424,0.566,0.935,0.452,0.777,0.327,0.912,0.648,0.276,0.390,0.371,0.250,0.736,0.290,-0.207,0.383,0.659,-0.048,0.618,0.487,0.700,-0.007,0.990,0.147
0.396,0.153,0.694,0.956,0.280,0.448,0.012,0.963,0.272,0.072,0.200,0.204,0.297,0.712,0.166,0.064,0.065,0.505,0.012,0.455,0.264,0.479,0.012,0.837,0.059
0.122,0.107,0.482,0.562,0.246,0.324,-0.221,0.706,0.137,-0.024,-0.087,0.198,0.073,0.562,0.018,-0.331,-0.062,0.249,-0.068,0.540,0.252,0.198,-0.307,0.762,0.009
0.120,-0.169,0.359,0.290,0.002,0.274,-0.309,0.590,0.093,-0.059,-0.209,-0.063,-0.016,0.381,-0.044,-0.232,-0.204,0.048,-0.647,0.385,0.176,0.144,-0.314,0.513,-0.456
-0.207,-0.074,0.306,0.182,-0.274,0.105,-0.469,0.430,-0.158,-0.392,-0.473,-0.121,-0.003,0.204,-0.160,-0.325,-0.323,0.005,-0.629,-0.026,-0.147,-0.246,-0.518,0.523,-0.484
-0.202,-0.293,0.346,0.180,-0.409,0.084,-0.630,0.294,-0.390,-0.533,-0.361,-0.222,-0.202,0.084,-0.417,-0.591,-0.343,-0.288,-0.652,0.031,-0.363,-0.309,-0.487,0.161,-0.666
-0.343,-0.324,0.307,0.222,-0.417,0.009,-0.674,0.233,-0.346,-0.492,-0.330,-0.231,-0.347,0.265,-0.599,-0.676,-0.408,-0.028,-0.532,-0.049,-0.313,-0.218,-0.445,0.393,-0.766
-0.299,-0.558,0.074,0.046,-0.501,-0.107,-0.632,0.147,-0.272,-0.608,-0.561,-0.436,-0.623,0.142,-0.833,-0.607,-0.808,-0.053,-0.797,-0.265,-0.320,-0.372,-0.593,0.272,-0.512
-0.285,-0.252,0.215,0.119,-0.349,0.076,-0.555,0.317,-0.424,-0.471,-0.567,-0.327,-0.192,-0.067,-0.610,-0.565,-0.619,-0.390,-0.705,0.102,-0.312,-0.287,-0.749,0.231,-0.626
-0.181,-0.177,0.193,0.302,-0.167,0.102,-0.557,0.384,-0.169,-0.326,-0.404,-0.115,-0.118,0.181,-0.264,-0.538,-0.363,-0.234,-0.637,-0.033,-0.213,-0.288,-0.495,0.236,-0.608
-0.228,-0.334,0.168,0.161,-0.295,0.081,-0.704,0.353,-0.394,-0.532,-0.419,-0.258,-0.435,0.042,-0.367,-0.586,-0.589,-0.268,-0.681,-0.053,-0.316,-0.220,-0.502,0.354,-0.485
-0.136,-0.421,0.243,0.141,-0.265,-0.086,-0.710,0.364,-0.350,-0.556,-0.438,-0.359,-0.303,0.139,-0.424,-0.439,-0.643,0.027,-0.466,-0.053,-0.343,-0.321,-0.580,0.218,-0.665
-0.003,-0.160,0.276,0.312,-0.218,-0.052,-0.421,0.425,-0.266,-0.332,-0.280,-0.078,-0.278,0.368,-0.364,-0.511,-0.483,0.071,-0.333,0.005,-0.324,-0.138,-0.442,0.407,-0.373
-0.025,-0.126,0.238,0.413,-0.313,0.125,-0.465,0.434,-0.209,-0.321,-0.370,-0.098,-0.016,0.312,-0.356,-0.446,-0.367,-0.036,-0.391,0.023,-0.106,0.008,-0.573,0.509,-0.385
0.081,-0.015,0.217,0.328,-0.066,0.169,-0.405,0.549,-0.152,-0.393,-0.219,-0.221,-0.115,0.309,-0.336,-0.305,-0.221,0.191,-0.285,0.119,-0.107,-0.172,-0.299,0.496,-0.350
0.015,-0.124,0.391,0.475,-0.087,0.186,-0.033,0.464,-0.144,-0.335,-0.066,-0.154,0.051,0.292,-0.182,-0.453,-0.237,0.124,-0.343,0.281,0.079,0.032,-0.243,0.437,-0.221
0.309,-0.087,0.635,0.468,0.068,0.362,-0.040,0.737,-0.217,0.013,-0.059,0.182,0.243,0.596,0.013,-0.208,-0.174,0.108,-0.075,0.264,0.229,0.186,-0.243,0.784,-0.141
0.271,-0.170,0.519,0.584,0.202,0.379,-0.051,0.746,-0.225,-0.089,-0.157,0.106,0.217,0.629,0.060,-0.424,-0.193,0.279,-0.180,0.345,0.308,0.072,-0.386,0.703,-0.125
0.321,0.092,0.477,0.612,0.225,0.475,-0.167,0.784,-0.078,0.082,-0.036,0.116,0.227,0.678,0.087,-0.145,0.073,0.329,-0.035,0.581,0.225,0.353,-0.059,0.785,0.006
0.249,-0.024,0.438,0.438,0.027,0.154,-0.354,0.727,-0.157,-0.145,-0.115,0.095,0.155,0.462,0.019,-0.439,0.002,0.187,-0.105,0.495,0.098,0.054,-0.185,0.777,-0.148
0.139,-0.038,0.410,0.395,-0.098,0.358,-0.287,0.600,-0.248,-0.168,0.059,0.055,-0.142,0.499,-0.227,-0.274,0.006,0.053,-0.210,0.457,0.069,-0.090,-0.240,0.495,-0.238
0.189,0.176,0.368,0.483,-0.160,0.161,-0.205,0.571,-0.051,-0.015,-0.015,0.040,-0.058,0.497,-0.149,-0.036,-0.204,0.068,-0.331,0.349,0.180,0.089,-0.117,0.691,-0.139
0.125,0.105,0.484,0.385,0.015,0.353,-0.202,0.460,-0.068,-0.067,-0.198,0.042,-0.144,0.493,-0.141,-0.240,-0.427,0.119,-0.335,0.348,-0.155,0.025,-0.307,0.685,-0.128
0.030,-0.239,0.188,0.344,-0.174,0.200,-0.360,0.356,-0.366,-0.343,-0.337,-0.067,-0.181,0.244,-0.299,-0.195,-0.373,0.078,-0.560,0.195,-0.000,-0.179,-0.383,0.394,-0.297
0.040,-0.208,0.192,0.379,-0.188,0.290,-0.291,0.475,-0.397,-0.255,-0.331,0.018,-0.034,0.313,-0.169,-0.389,-0.346,0.127,-0.179,0.050,-0.067,-0.131,-0.191,0.420,-0.623
0.217,-0.145,0.482,0.599,0.088,0.519,-0.308,0.680,0.003,-0.302,-0.062,0.052,0.007,0.703,-0.015,-0.377,0.013,0.306,-0.112,0.217,-0.103,0.096,-0.148,0.693,-0.411
0.238,0.073,0.437,0.554,-0.017,0.362,-0.251,0.582,-0.110,-0.154,-0.217,-0.007,-0.118,0.572,-0.109,-0.332,-0.159,0.063,-0.276,0.363,0.023,0.186,-0.309,0.492,-0.161
0.405,0.145,0.625,0.481,0.076,0.378,-0.428,0.645,-0.096,-0.256,-0.013,0.234,0.033,0.518,-0.121,-0.289,-0.218,0.276,-0.016,0.330,0.199,0.102,-0.268,0.704,-0.356
0.197,0.023,0.421,0.488,0.087,0.434,-0.338,0.591,-0.070,-0.148,-0.152,-0.023,0.152,0.508,-0.382,-0.313,-0.039,0.070,-0.299,0.361,0.096,0.010,-0.372,0.591,-0.149
0.156,0.004,0.473,0.459,-0.096,0.262,-0.418,0.545,-0.064,-0.356,0.002,-0.048,-0.066,0.356,-0.500,-0.517,-0.320,0.211,-0.199,0.288,-0.052,0.059,-0.408,0.321,-0.221
0.217,-0.113,0.431,0.522,0.111,0.295,-0.350,0.630,-0.080,-0.140,-0.112,0.069,0.120,0.438,-0.296,-0.036,-0.390,0.165,-0.197,0.350,-0.066,0.287,-0.314,0.645,-0.236
0.031,-0.078,0.489,0.620,-0.183,0.276,-0.104,0.672,-0.192,-0.299,-0.163,-0.031,-0.098,0.355,-0.309,-0.373,-0.203,0.129,0.024,0.446,0.061,0.140,-0.380,0.508,-0.250
0.109,-0.188,0.493,0.646,-0.024,0.535,0.069,0.619,-0.027,-0.168,-0.065,0.223,0.099,0.659,-0.158,-0.234,-0.182,0.249,0.078,0.254,0.219,0.324,-0.406,0.731,-0.075
0.112,-0.072,0.380,0.335,-0.381,0.179,-0.245,0.449,-0.020,-0.169,-0.386,0.101,-0.127,0.438,-0.437,-0.310,-0.347,0.203,-0.291,0.229,0.059,-0.192,-0.457,0.627,-0.224
0.109,-0.146,0.416,0.455,-0.167,0.303,-0.506,0.628,-0.091,-0.151,-0.005,0.130,-0.025,0.469,-0.221,-0.486,-0.159,0.025,-0.120,0.109,0.116,-0.012,-0.315,0.307,-0.406
0.187,-0.122,0.609,0.503,-0.070,0.146,-0.363,0.590,-0.189,0.103,-0.104,-0.064,0.001,0.485,-0.315,-0.148,-0.197,0.005,-0.314,0.244,0.039,-0.015,-0.231,0.453,-0.217
0.104,-0.042,0.665,0.444,0.081,0.235,-0.306,0.629,0.017,-0.004,-0.071,0.033,-0.062,0.450,-0.242,-0.377,-0.216,0.219,-0.428,0.378,0.100,0.125,-0.280,0.622,-0.227
-0.023,-0.027,0.348,0.416,-0.175,0.257,-0.486,0.476,-0.167,-0.084,-0.348,-0.420,-0.091,0.402,-0.417,-0.383,-0.554,0.115,-0.293,0.147,-0.076,-0.016,-0.547,0.384,-0.312
0.071,0.061,0.358,0.383,-0.017,0.524,-0.374,0.361,0.008,-0.284,-0.112,-0.168,-0.109,0.455,-0.469,-0.257,-0.179,0.103,-0.278,0.348,-0.009,0.116,-0.319,0.483,-0.197
0.061,-0.091,0.400,0.387,-0.057,0.464,-0.479,0.443,-0.153,-0.604,-0.252,-0.099,0.146,0.413,-0.420,-0.378,-0.507,-0.118,-0.233,0.237,-0.130,0.036,-0.374,0.513,-0.108
0.051,-0.048,0.380,0.445,-0.073,0.192,-0.335,0.492,-0.105,-0.473,-0.238,-0.172,-0.089,0.363,-0.423,-0.429,-0.557,-0.044,-0.320,0.197,-0.223,0.154,-0.375,0.543,-0.332
0.034,-0.026,0.341,0.211,-0.226,0.156,-0.556,0.321,-0.234,-0.397,-0.204,-0.150,-0.260,0.318,-0.568,-0.290,-0.529,0.053,-0.466,0.103,-0.083,-0.172,-0.541,0.502,-0.430
-0.243,-0.357,0.216,0.186,-0.342,-0.057,-0.523,0.327,-0.539,-0.429,-0.577,-0.199,-0.418,0.236,-0.725,-0.715,-0.646,-0.110,-0.420,0.038,-0.367,-0.282,-0.635,0.223,-0.638
-0.173,-0.495,0.217,0.189,-0.325,0.009,-0.259,0.236,-0.346,-0.447,-0.520,-0.130,-0.243,0.226,-0.682,-0.657,-0.775,-0.153,-0.429,0.001,-0.231,-0.252,-0.755,0.327,-0.449
-0.319,-0.408,0.120,0.158,-0.296,-0.041,-0.244,0.281,-0.270,-0.335,-0.364,-0.186,-0.520,0.118,-0.649,-0.464,-0.580,0.009,-0.626,0.011,-0.394,-0.160,-0.986,0.097,-0.464
-0.208,-0.555,0.158,0.165,-0.374,-0.136,-0.597,0.172,-0.471,-0.625,-0.447,-0.178,-0.317,-0.028,-0.624,-0.568,-0.569,-0.089,-0.723,-0.098,-0.506,-0.200,-0.680,0.337,-0.691
-0.061,-0.430,0.123,0.182,-0.240,0.183,-0.593,0.218,-0.196,-0.417,-0.532,-0.122,-0.437,0.149,-0.485,-0.473,-0.464,-0.226,-0.611,-0.111,-0.345,-0.307,-0.380,0.268,-0.682
0.014,-0.332,0.140,0.368,-0.286,0.000,-0.170,0.264,-0.328,-0.091,-0.768,-0.180,-0.158,0.203,-0.339,-0.583,-0.601,0.017,-0.543,0.158,-0.223,-0.273,-0.515,0.201,-0.515
-0.003,-0.053,0.343,0.579,-0.322,0.128,-0.077,0.624,-0.173,0.068,-0.206,-0.094,-0.053,0.344,-0.245,-0.249,-0.391,0.252,-0.265,0.229,-0.158,-0.049,-0.394,0.410,-0.218
0.179,-0.025,0.470,0.559,-0.073,0.348,-0.131,0.542,-0.089,0.106,-0.131,-0.226,0.178,0.694,-0.140,-0.229,-0.311,0.563,-0.279,0.494,-0.101,0.126,-0.341,0.774,-0.193
0.046,-0.037,0.481,0.442,0.075,0.273,-0.388,0.575,-0.128,-0.182,-0.189,0.004,-0.034,0.567,-0.321,-0.168,-0.280,0.257,-0.260,0.135,-0.272,0.131,-0.326,0.629,-0.407
-0.039,-0.302,0.284,0.251,0.064,0.107,-0.553,0.427,-0.346,-0.123,-0.237,-0.130,-0.280,0.276,-0.391,-0.334,-0.463,0.125,-0.200,0.100,-0.214,-0.082,-0.359,0.304,-0.360
-0.164,-0.262,0.113,0.160,-0.165,0.103,-0.430,0.281,-0.442,-0.325,-0.261,-0.068,-0.070,0.240,-0.464,-0.533,-0.483,-0.114,-0.507,0.013,-0.142,-0.287,-0.593,0.424,-0.462
-0.312,-0.511,0.031,0.043,-0.213,-0.022,-0.359,0.230,-0.565,-0.450,-0.439,-0.219,-0.449,0.134,-0.466,-0.569,-0.644,-0.171,-0.640,-0.063,-0.162,-0.329,-0.599,0.150,-0.263
-0.369,-0.833,0.032,-0.077,-0.485,-0.127,-0.639,0.071,-0.640,-0.666,-0.831,-0.464,-0.401,-0.024,-0.782,-0.635,-0.827,-0.279,-0.691,-0.280,-0.776,-0.419,-0.873,0.145,-0.847
-0.346,-0.607,0.102,0.014,-0.455,-0.167,-0.754,0.167,-0.573,-0.756,-0.651,-0.377,-0.527,-0.060,-0.576,-0.727,-0.641,-0.276,-0.834,-0.126,-0.480,-0.224,-0.850,0.237,-0.712
-0.394,-0.489,0.060,0.045,-0.440,-0.125,-0.561,0.166,-0.535,-0.605,-0.581,-0.358,-0.564,0.039,-0.540,-0.834,-0.829,-0.463,-0.686,-0.263,-0.393,-0.290,-0.887,0.182,-0.559
-0.148,-0.333,0.126,-0.021,-0.235,-0.130,-0.743,0.114,-0.486,-0.546,-0.442,-0.431,-0.599,0.108,-0.693,-0.780,-0.521,-0.397,-0.877,-0.173,-0.598,-0.526,-0.977,0.012,-0.637
-0.124,-0.077,0.232,0.015,-0.416,-0.039,-0.739,0.025,-0.302,-0.559,-0.677,-0.364,-0.399,0.181,-0.669,-0.628,-0.279,-0.124,-0.715,0.001,-0.421,-0.248,-0.754,0.353,-0.473
-0.225,-0.269,0.077,-0.039,-0.461,-0.317,-0.487,0.029,-0.484,-0.478,-0.527,-0.442,-0.380,0.144,-0.539,-0.767,-0.721,-0.236,-0.657,-0.222,-0.440,-0.328,-0.717,0.260,-0.609
-0.078,-0.206,0.185,0.104,-0.322,0.039,-0.525,0.292,-0.287,-0.348,-0.376,-0.245,-0.267,0.186,-0.481,-0.779,-0.297,-0.252,-0.319,-0.050,-0.135,-0.215,-0.676,0.320,-0.556
0.024,-0.157,0.466,0.424,0.018,0.322,-0.342,0.366,-0.233,-0.276,-0.196,-0.242,-0.262,0.408,-0.189,-0.305,-0.285,0.083,-0.456,0.155,-0.076,-0.009,-0.485,0.358,-0.261
0.205,0.179,0.684,0.671,0.090,0.602,-0.108,0.726,0.237,0.284,-0.040,0.139,0.287,0.693,0.029,-0.379,-0.143,0.307,-0.289,0.363,0.381,0.445,-0.114,0.905,0.012
0.159,0.164,0.625,0.567,0.213,0.328,0.066,0.680,0.091,0.203,-0.121,-0.036,0.352,0.530,0.027,-0.080,-0.118,0.418,-0.165,0.329,0.160,0.385,-0.174,0.673,0.031
0.155,-0.043,0.422,0.456,0.227,0.399,-0.215,0.614,0.140,-0.247,0.004,-0.008,0.058,0.293,-0.021,-0.256,-0.288,0.166,-0.081,0.372,0.166,0.118,-0.414,0.594,-0.089
0.012,0.134,0.554,0.563,0.114,0.410,-0.029,0.718,0.158,0.068,-0.042,0.242,0.293,0.605,0.037,-0.207,0.086,0.238,0.164,0.615,0.283,0.292,-0.203,0.925,-0.069
0.140,0.117,0.712,0.638,0.083,0.368,0.005,0.662,0.082,-0.121,-0.105,0.183,0.136,0.595,0.081,-0.062,-0.132,0.161,-0.168,0.397,0.162,0.163,-0.339,0.677,-0.155
0.086,0.101,0.602,0.447,-0.365,0.317,-0.149,0.570,0.026,-0.067,-0.141,0.102,0.079,0.499,-0.188,-0.435,-0.196,0.292,-0.196,0.381,0.268,0.131,-0.228,0.649,-0.126
0.076,0.190,0.641,0.466,0.184,0.380,-0.072,0.563,0.001,-0.083,-0.028,0.211,0.130,0.544,-0.286,-0.596,-0.259,0.276,-0.021,0.301,0.092,0.080,-0.151,0.684,-0.024
0.301,0.032,0.709,0.720,0.178,0.463,-0.007,0.682,-0.075,0.034,0.137,0.101,0.031,0.478,-0.153,-0.193,-0.194,0.255,-0.208,0.447,0.170,0.198,-0.160,0.875,0.092
0.181,-0.146,0.570,0.496,0.135,0.282,-0.279,0.571,-0.126,-0.268,-0.025,-0.138,0.004,0.399,-0.131,-0.279,-0.056,0.238,-0.327,0.222,0.085,0.099,-0.312,0.465,-0.201
0.059,-0.006,0.425,0.352,-0.067,0.276,-0.361,0.479,0.016,-0.144,-0.260,-0.120,-0.029,0.450,-0.346,-0.265,-0.290,0.204,-0.244,0.074,-0.012,0.111,-0.178,0.472,-0.310
-0.069,-0.148,0.223,0.358,-0.207,0.087,-0.243,0.368,-0.136,-0.269,-0.267,0.035,-0.167,0.334,-0.421,-0.442,-0.390,0.021,-0.453,0.302,-0.011,-0.070,-0.267,0.359,-0.375
0.025,-0.076,0.413,0.313,-0.010,0.114,-0.364,0.404,0.019,-0.115,-0.211,0.224,-0.002,0.372,-0.332,-0.321,-0.284,0.159,-0.364,0.192,-0.415,-0.020,-0.331,0.443,-0.244
-0.030,-0.051,0.267,0.472,-0.040,0.230,-0.180,0.527,-0.203,-0.396,-0.275,-0.046,-0.025,0.320,-0.523,-0.244,-0.198,0.004,-0.505,0.221,-0.202,0.009,-0.390,0.496,-0.240
-0.051,-0.183,0.306,0.399,-0.114,0.349,-0.312,0.414,-0.091,-0.290,-0.327,-0.024,0.066,0.404,-0.399,-0.360,-0.054,0.132,-0.343,0.218,-0.110,-0.017,-0.362,0.598,-0.166
0.168,-0.057,0.328,0.517,0.029,0.324,-0.064,0.499,-0.055,0.014,-0.165,-0.013,-0.177,0.420,-0.123,-0.403,-0.416,0.271,-0.268,0.264,0.004,0.065,-0.373,0.645,-0.136
-0.096,-0.242,0.420,0.326,0.107,0.102,-0.572,0.421,-0.344,-0.251,-0.404,-0.327,-0.137,0.368,-0.383,-0.477,-0.339,0.012,-0.596,0.075,-0.199,-0.066,-0.318,0.489,-0.468
-0.050,-0.303,0.402,0.255,-0.267,0.114,-0.486,0.452,-0.482,-0.364,-0.389,-0.207,-0.488,0.195,-0.292,-0.173,-0.341,-0.137,-0.367,0.039,-0.223,-0.170,-0.417,0.319,-0.490
0.095,-0.240,0.630,0.566,-0.016,0.321,-0.247,0.506,-0.155,-0.031,-0.056,0.067,-0.196,0.521,-0.105,-0.356,-0.284,0.031,-0.251,0.228,0.077,0.018,-0.235,0.607,-0.495
0.106,-0.002,0.574,0.634,0.089,0.238,-0.196,0.597,0.026,-0.121,0.029,0.055,0.139,0.716,-0.226,-0.207,0.104,0.240,-0.124,0.424,0.100,0.222,-0.218,0.712,-0.169
-0.043,0.077,0.523,0.478,-0.026,0.142,-0.126,0.651,-0.244,-0.289,-0.168,0.115,-0.159,0.564,-0.574,-0.340,-0.018,0.015,-0.156,0.316,0.038,0.067,-0.301,0.627,-0.137
0.140,-0.003,0.559,0.462,0.085,0.327,-0.174,0.401,0.020,-0.332,-0.396,0.027,-0.031,0.401,-0.386,-0.286,-0.249,0.030,-0.260,0.271,-0.045,0.147,-0.335,0.468,-0.250
-0.037,0.037,0.249,0.363,-0.021,0.219,-0.187,0.421,-0.281,-0.124,-0.280,-0.025,0.038,0.279,-0.398,-0.423,-0.306,-0.217,-0.413,0.165,0.046,0.011,-0.410,0.416,-0.291
0.141,-0.060,0.320,0.413,0.069,0.148,-0.281,0.516,-0.187,-0.070,-0.336,-0.195,-0.171,0.320,-0.369,-0.355,-0.224,0.065,-0.227,0.250,-0.002,0.169,-0.186,0.409,-0.487
0.053,-0.038,0.501,0.491,0.068,0.330,-0.190,0.724,0.063,0.000,-0.244,-0.090,0.080,0.507,-0.475,-0.343,-0.046,0.290,-0.087,0.209,-0.021,0.166,-0.489,0.552,-0.173
-0.020,-0.176,0.408,0.399,-0.216,0.252,-0.420,0.602,0.107,-0.357,-0.251,-0.085,-0.060,0.370,-0.239,-0.366,-0.073,0.118,-0.242,0.141,-0.212,-0.033,-0.325,0.471,-0.469
-0.178,0.078,0.289,0.515,-0.173,0.170,-0.286,0.500,-0.110,-0.227,-0.120,0.089,-0.112,0.351,-0.149,-0.546,-0.210,0.048,-0.186,0.396,-0.035,0.009,-0.179,0.586,-0.073
-0.132,0.052,0.332,0.193,-0.082,0.266,-0.508,0.431,-0.130,-0.372,-0.384,-0.213,-0.228,0.296,-0.299,-0.441,-0.204,-0.024,-0.370,0.238,-0.065,-0.083,-0.443,0.452,-0.295
0.079,-0.125,0.311,0.484,-0.167,0.117,-0.419,0.333,-0.060,-0.066,-0.354,-0.120,-0.135,0.360,-0.347,-0.511,-0.280,-0.039,-0.345,0.232,-0.164,-0.198,-0.365,0.518,-0.386
-0.141,-0.100,0.439,0.435,-0.205,0.145,-0.331,0.403,0.093,-0.356,-0.210,-0.134,-0.172,0.442,-0.271,-0.474,-0.511,-0.114,-0.320,0.226,-0.001,-0.100,-0.419,0.569,-0.299
0.120,-0.181,0.107,0.472,-0.041,0.200,-0.501,0.569,-0.147,-0.275,-0.192,-0.131,-0.207,0.231,-0.183,-0.267,-0.396,0.082,-0.422,0.340,0.021,-0.121,-0.366,0.457,-0.250
0.116,0.017,0.353,0.641,0.074,0.410,-0.055,0.621,-0.094,-0.174,-0.081,-0.052,-0.072,0.568,-0.231,-0.168,-0.142,0.039,-0.201,0.567,0.036,0.106,-0.292,0.487,-0.149
-0.237,0.093,0.364,0.398,-0.036,0.353,-0.324,0.541,-0.046,-0.182,-0.388,-0.235,-0.037,0.577,-0.243,-0.251,-0.367,0.117,-0.273,0.391,-0.061,0.153,-0.345,0.507,-0.150
0.074,0.003,0.366,0.396,0.030,0.336,-0.268,0.488,-0.035,-0.264,-0.377,0.018,0.184,0.390,-0.194,-0.302,-0.172,0.196,-0.165,0.314,0.152,0.260,-0.287,0.560,-0.162
0.183,-0.033,0.516,0.519,-0.056,0.384,-0.202,0.669,0.039,-0.171,-0.134,0.000,-0.121,0.450,-0.152,-0.321,-0.083,0.230,-0.240,0.318,-0.076,0.160,-0.240,0.544,-0.179
0.385,-0.003,0.641,0.834,0.288,0.540,0.079,0.781,0.204,0.138,0.029,0.149,0.185,0.725,0.005,-0.237,-0.055,0.456,0.128,0.452,0.285,0.390,0.090,0.850,-0.073
0.160,-0.132,0.491,0.467,0.075,0.316,-0.114,0.652,-0.071,-0.213,-0.361,0.011,-0.055,0.430,-0.053,-0.344,0.151,0.190,0.027,0.176,-0.100,-0.033,-0.275,0.473,-0.265
0.210,0.254,0.444,0.640,0.011,0.529,-0.019,0.771,0.087,-0.206,-0.228,0.118,0.220,0.548,-0.041,-0.353,-0.027,0.112,0.048,0.273,0.042,0.225,-0.206,0.711,-0.190
0.177,0.036,0.309,0.539,-0.086,0.269,-0.131,0.452,-0.070,-0.169,-0.146,-0.017,-0.202,0.507,-0.331,-0.611,-0.287,0.039,-0.234,0.366,-0.032,0.114,-0.333,0.265,-0.310
0.104,-0.109,0.332,0.431,0.007,0.271,-0.071,0.546,-0.038,-0.239,-0.374,-0.064,-0.066,0.391,-0.313,-0.197,-0.087,0.001,-0.260,0.449,0.214,0.119,-0.405,0.362,-0.398
0.105,-0.037,0.253,0.502,-0.082,0.197,-0.111,0.399,-0.198,-0.087,-0.161,-0.104,0.021,0.455,-0.347,-0.498,-0.229,0.165,-0.126,0.096,0.049,0.053,-0.447,0.527,-0.334
0.113,-0.020,0.446,0.460,-0.024,0.311,-0.296,0.570,-0.276,-0.067,-0.243,-0.230,0.055,0.360,-0.139,-0.356,-0.421,0.012,-0.251,0.112,0.215,0.198,-0.503,0.610,-0.281
0.122,-0.135,0.371,0.470,0.130,0.308,-0.213,0.522,-0.135,0.008,-0.208,-0.030,0.049,0.382,-0.124,-0.446,-0.264,0.102,-0.495,0.276,0.021,0.014,-0.221,0.616,-0.308
0.194,-0.027,0.129,0.492,-0.065,0.437,-0.079,0.349,-0.037,-0.199,-0.211,-0.045,-0.063,0.307,-0.292,-0.152,-0.300,0.209,-0.742,0.235,-0.061,-0.114,-0.315,0.480,-0.119
-0.095,-0.352,0.155,0.183,-0.387,0.108,-0.316,0.296,-0.316,-0.692,-0.650,-0.226,-0.140,0.221,-0.190,-0.416,-0.615,-0.132,-0.617,0.073,-0.261,-0.203,-0.676,0.267,-0.387
-0.357,-0.308,0.166,0.409,-0.192,0.306,-0.356,0.419,-0.159,-0.362,-0.366,-0.274,-0.169,0.380,-0.314,-0.414,-0.363,0.148,-0.649,0.050,-0.097,-0.095,-0.433,0.335,-0.270
-0.181,-0.208,0.158,0.330,-0.369,0.201,-0.376,0.330,-0.265,-0.418,-0.491,-0.250,-0.091,0.223,-0.488,-0.541,-0.519,-0.006,-0.540,-0.130,-0.305,-0.130,-0.419,0.283,-0.373
0.035,-0.006,0.382,0.332,-0.315,0.242,-0.321,0.388,-0.144,-0.336,-0.168,-0.156,-0.073,0.267,-0.355,-0.591,-0.306,0.093,-0.431,0.225,-0.035,-0.133,-0.538,0.448,-0.367
0.096,-0.144,0.505,0.478,-0.173,0.495,-0.142,0.653,-0.036,-0.285,-0.359,-0.080,0.071,0.402,-0.123,-0.176,-0.287,0.011,-0.430,0.264,-0.068,-0.088,-0.263,0.535,-0.308
0.221,0.144,0.541,0.697,0.140,0.732,-0.185,0.848,0.081,-0.089,-0.051,0.189,0.259,0.557,-0.013,-0.112,0.048,0.603,-0.030,0.387,0.032,0.421,-0.075,0.898,0.045
0.305,0.091,0.437,0.480,-0.135,0.406,-0.217,0.817,0.100,0.027,-0.076,0.327,0.074,0.460,-0.148,-0.202,-0.012,0.426,0.112,0.538,0.264,0.353,-0.141,0.876,-0.021
0.057,-0.069,0.444,0.306,-0.014,0.255,-0.443,0.490,0.128,-0.095,-0.235,0.037,0.078,0.479,-0.507,-0.464,-0.271,0.155,-0.080,0.242,0.095,0.144,-0.787,0.643,-0.387
0.144,-0.018,0.530,0.500,0.106,0.403,-0.291,0.652,0.191,-0.061,-0.190,0.008,-0.139,0.477,-0.191,-0.198,-0.362,0.169,-0.192,0.382,0.040,0.220,-0.291,0.618,-0.280
0.161,-0.059,0.426,0.604,0.094,0.335,-0.243,0.691,0.206,0.102,-0.003,0.027,0.005,0.657,-0.044,-0.174,0.024,0.263,-0.094,0.343,0.084,0.294,-0.060,0.774,0.005
0.396,0.206,0.728,0.692,0.273,0.621,-0.183,0.781,0.176,0.148,-0.099,0.065,0.065,0.581,0.004,0.112,0.118,0.224,-0.023,0.500,0.375,0.403,-0.260,0.939,0.214
0.389,0.295,0.751,0.743,0.109,0.483,0.102,0.732,-0.080,-0.200,-0.042,0.373,0.313,0.663,0.175,0.110,0.207,0.271,-0.027,0.616,0.207,0.458,-0.082,0.852,-0.054
0.151,0.036,0.715,0.620,-0.011,0.327,-0.090,0.793,0.260,-0.258,-0.423,0.172,0.222,0.605,-0.197,0.064,0.149,0.151,0.092,0.328,-0.063,0.231,-0.241,0.625,0.017
0.358,0.028,0.618,0.770,-0.112,0.277,-0.038,0.706,0.260,-0.010,-0.281,0.085,0.171,0.671,-0.045,-0.109,-0.356,0.243,-0.019,0.446,0.108,0.408,-0.207,0.650,0.027
-0.055,-0.338,0.363,0.402,-0.101,0.270,-0.332,0.495,-0.106,-0.191,-0.274,-0.042,0.007,0.487,-0.342,-0.185,-0.412,0.081,-0.204,0.449,0.067,0.024,-0.476,0.556,-0.119
0.312,0.098,0.543,0.621,-0.047,0.450,-0.397,0.568,0.012,-0.213,-0.408,-0.033,-0.043,0.455,-0.334,-0.137,-0.169,0.209,-0.042,0.347,0.015,0.165,-0.352,0.430,-0.183
0.017,-0.097,0.333,0.322,-0.201,0.117,-0.404,0.472,-0.033,-0.227,-0.042,-0.185,-0.141,0.294,-0.272,-0.240,-0.453,-0.001,-0.399,0.179,-0.123,0.041,-0.560,0.325,-0.340
0.232,0.049,0.578,0.592,0.034,0.543,-0.088,0.679,0.095,0.045,-0.009,0.070,0.081,0.709,0.045,-0.079,-0.101,0.368,0.120,0.343,0.308,0.237,-0.092,0.672,0.071
0.367,0.152,0.546,0.625,0.079,0.565,0.013,0.794,0.177,0.127,0.100,0.228,0.150,0.693,-0.024,-0.118,-0.034,0.137,-0.085,0.422,0.198,0.316,0.035,0.637,0.032
0.439,0.257,0.728,0.676,0.028,0.656,0.022,0.923,0.395,0.118,-0.024,0.285,0.392,0.718,-0.130,0.083,0.057,0.401,0.084,0.641,0.489,0.285,-0.184,0.850,0.015
0.119,0.187,0.442,0.504,-0.088,0.322,-0.017,0.602,-0.115,-0.015,-0.062,0.249,0.193,0.452,-0.286,-0.221,-0.256,0.389,-0.163,0.408,-0.002,0.249,-0.412,0.576,-0.316
0.271,0.292,0.761,0.704,0.311,0.546,0.186,0.699,-0.129,0.120,-0.082,0.065,0.407,0.677,-0.087,-0.216,-0.344,0.443,0.035,0.350,0.171,0.133,-0.375,0.650,-0.065
-0.016,0.058,0.664,0.387,0.106,0.325,0.001,0.589,0.007,0.127,-0.005,0.178,0.034,0.632,-0.142,0.165,-0.345,0.176,0.028,0.257,0.284,0.296,-0.375,0.553,-0.207
-0.201,0.136,0.488,0.444,-0.014,0.411,-0.247,0.476,-0.148,-0.117,0.006,-0.147,-0.017,0.582,-0.190,-0.449,-0.236,-0.086,-0.276,0.278,0.011,-0.015,-0.161,0.463,-0.244
-0.156,-0.193,0.285,0.202,-0.176,0.023,-0.389,0.490,-0.331,-0.323,-0.287,-0.256,-0.146,0.191,-0.365,-0.427,-0.527,-0.124,-0.562,0.102,-0.111,-0.232,-0.741,0.287,-0.572
0.079,-0.017,0.182,0.357,-0.106,0.292,-0.417,0.556,-0.082,-0.135,-0.216,0.106,-0.041,0.342,-0.094,-0.370,-0.364,0.137,-0.135,0.330,0.067,-0.044,-0.443,0.495,-0.310
0.043,-0.125,0.285,0.522,-0.001,0.355,-0.202,0.556,-0.016,-0.021,0.010,0.048,0.089,0.476,-0.208,-0.037,-0.283,0.503,-0.079,0.410,0.036,0.298,-0.251,0.589,-0.331
0.149,0.179,0.556,0.636,0.185,0.474,-0.046,0.547,0.055,-0.006,0.166,0.083,0.157,0.488,-0.369,-0.090,-0.197,0.361,-0.081,0.317,0.164,0.289,-0.143,0.589,-0.170
0.259,0.014,0.527,0.568,-0.001,0.439,0.081,0.719,0.126,-0.031,-0.111,0.090,0.047,0.580,-0.131,-0.329,-0.321,0.146,-0.057,0.322,0.028,0.269,-0.310,0.783,-0.129
0.031,-0.021,0.495,0.565,-0.088,0.372,-0.407,0.616,0.111,0.038,-0.387,0.013,-0.008,0.517,-0.285,-0.404,-0.130,0.235,-0.281,0.304,-0.157,0.231,-0.316,0.639,-0.151
-0.149,-0.247,0.445,0.388,-0.098,0.125,-0.445,0.398,0.092,0.211,-0.270,-0.093,-0.185,0.516,-0.192,-0.409,-0.386,-0.012,-0.573,0.241,-0.262,-0.067,-0.373,0.570,-0.187
-0.097,-0.274,0.365,0.204,-0.309,0.144,-0.484,0.365,-0.138,-0.190,-0.381,-0.201,-0.072,0.315,-0.588,-0.320,-0.516,0.103,-0.398,0.079,-0.288,0.005,-0.552,0.314,-0.289
-0.237,-0.326,0.255,0.193,-0.101,0.161,-0.420,0.361,-0.491,-0.387,-0.326,-0.105,-0.302,0.370,-0.508,-0.552,-0.382,-0.268,-0.405,0.085,-0.214,-0.197,-0.585,0.319,-0.238
-0.056,-0.251,0.335,0.317,-0.044,0.063,-0.345,0.569,-0.315,-0.284,-0.390,-0.056,-0.266,0.329,-0.337,-0.635,-0.290,0.087,-0.374,0.271,0.005,-0.067,-0.291,0.300,-0.242
0.145,-0.081,0.522,0.447,-0.008,0.181,-0.352,0.571,-0.109,-0.128,-0.363,-0.222,-0.089,0.366,-0.334,-0.191,-0.261,0.136,-0.143,0.438,0.047,-0.027,-0.424,0.457,-0.172
-0.341,-0.312,0.211,0.146,-0.217,0.029,-0.531,0.172,-0.124,-0.318,-0.693,-0.004,-0.208,0.124,-0.568,-0.573,-0.520,-0.335,-0.429,0.101,-0.318,-0.285,-0.645,0.211,-0.457
-0.357,-0.318,0.011,0.014,-0.277,0.014,-0.539,0.179,-0.266,-0.551,-0.463,-0.217,-0.327,0.117,-0.528,-0.555,-0.615,-0.245,-0.479,0.029,-0.398,-0.245,-0.907,0.167,-0.452
-0.088,-0.069,0.385,0.277,-0.154,0.006,-0.425,0.431,-0.335,-0.441,-0.477,-0.133,-0.275,0.302,-0.560,-0.467,-0.157,0.059,-0.527,-0.102,-0.229,-0.202,-0.526,0.452,-0.161
-0.030,-0.134,0.318,0.362,-0.174,0.198,-0.414,0.505,-0.061,-0.217,-0.259,-0.102,-0.160,0.393,-0.405,-0.329,-0.466,0.162,-0.294,0.035,-0.021,-0.182,-0.719,0.509,-0.260
-0.180,-0.100,0.295,0.488,-0.268,0.146,-0.572,0.407,-0.147,-0.314,-0.422,-0.256,-0.257,0.316,-0.329,-0.267,-0.494,-0.029,-0.407,0.141,-0.085,-0.073,-0.609,0.486,-0.364
-0.090,0.020,0.425,0.477,-0.052,0.194,-0.173,0.614,0.067,-0.155,-0.204,-0.094,0.122,0.521,-0.139,-0.399,-0.220,0.211,-0.258,0.270,0.198,0.285,-0.428,0.698,-0.131
0.154,0.370,0.561,0.591,0.125,0.422,-0.031,0.647,-0.120,-0.121,-0.134,0.043,0.102,0.529,-0.115,-0.119,-0.058,0.126,-0.279,0.201,-0.014,0.098,-0.171,0.746,-0.181
0.094,0.025,0.472,0.425,0.166,0.245,-0.318,0.518,-0.179,-0.289,-0.228,0.004,-0.007,0.518,-0.176,-0.203,-0.327,0.157,-0.067,0.378,0.206,-0.075,-0.433,0.638,-0.177
0.353,0.183,0.530,0.631,-0.006,0.654,-0.004,0.686,0.128,0.029,0.037,0.202,0.158,0.654,0.133,0.048,-0.123,0.185,-0.152,0.442,0.321,0.120,-0.150,0.789,0.036
0.202,0.138,0.489,0.399,-0.168,0.451,-0.390,0.631,0.091,-0.237,-0.269,-0.021,-0.104,0.540,-0.272,-0.243,-0.009,0.067,-0.381,0.155,0.011,0.325,-0.515,0.473,-0.091
0.041,-0.174,0.354,0.198,-0.117,0.449,-0.609,0.359,-0.191,-0.498,-0.349,0.030,-0.152,0.383,-0.241,-0.380,-0.237,-0.013,-0.575,0.208,0.010,0.093,-0.565,0.458,-0.387
-0.167,-0.476,0.052,0.127,-0.382,0.100,-0.752,0.418,-0.343,-0.516,-0.591,-0.362,-0.304,0.286,-0.504,-0.536,-0.538,-0.282,-0.463,-0.112,-0.223,-0.374,-0.648,0.312,-0.498
-0.363,-0.558,0.056,-0.011,-0.374,-0.335,-0.623,0.095,-0.296,-0.430,-0.609,-0.444,-0.297,0.039,-0.602,-0.789,-0.633,-0.197,-0.440,0.010,-0.353,-0.391,-0.810,0.186,-0.463
-0.248,-0.523,-0.099,-0.016,-0.463,-0.182,-0.654,0.177,-0.370,-0.570,-0.388,-0.468,-0.556,-0.012,-0.777,-0.618,-0.688,-0.058,-0.691,-0.052,-0.145,-0.326,-0.759,0.171,-0.610
-0.515,-0.649,-0.159,-0.062,-0.407,-0.248,-0.639,-0.010,-0.579,-0.605,-0.644,-0.442,-0.593,0.071,-0.605,-0.891,-0.705,-0.523,-0.673,-0.310,-0.472,-0.574,-1.002,-0.011,-0.715
-0.250,-0.512,-0.005,0.062,-0.325,-0.202,-0.720,0.079,-0.374,-0.509,-0.822,-0.459,-0.360,0.036,-0.704,-0.659,-0.452,-0.107,-0.686,-0.366,-0.325,-0.339,-0.703,0.190,-0.608
-0.058,-0.363,0.140,0.089,-0.292,-0.079,-0.552,0.124,-0.393,-0.634,-0.404,-0.130,-0.373,0.027,-0.742,-0.604,-0.551,-0.228,-0.539,0.010,-0.272,-0.210,-0.856,0.353,-0.522
-0.065,-0.273,0.144,0.060,-0.309,-0.078,-0.629,0.120,-0.477,-0.607,-0.778,-0.187,-0.453,0.245,-0.731,-0.623,-0.816,-0.168,-0.560,-0.094,-0.389,-0.345,-0.546,0.164,-0.456
-0.247,-0.222,0.184,0.073,-0.372,0.048,-0.654,0.213,-0.556,-0.531,-0.519,-0.550,-0.335,0.189,-0.593,-0.488,-0.556,-0.208,-0.641,-0.003,-0.243,-0.106,-0.634,0.130,-0.331
-0.274,-0.430,0.323,0.190,-0.101,-0.014,-0.400,0.254,-0.100,-0.419,-0.248,-0.120,-0.115,0.126,-0.412,-0.397,-0.574,-0.115,-0.545,0.040,-0.097,-0.247,-0.492,0.258,-0.301
-0.298,-0.228,0.187,0.346,-0.321,-0.012,-0.394,0.246,-0.214,-0.419,-0.247,-0.470,-0.182,0.243,-0.436,-0.650,-0.256,-0.013,-0.407,0.216,-0.065,-0.044,-0.526,0.254,-0.325
-0.098,-0.278,0.344,0.278,-0.107,0.060,-0.332,0.372,-0.406,-0.272,-0.324,-0.021,-0.038,0.209,-0.211,-0.326,-0.253,0.137,-0.618,0.243,-0.249,0.044,-0.206,0.489,-0.337
0.096,-0.297,0.509,0.501,-0.045,0.332,-0.046,0.615,0.117,0.026,-0.175,0.054,0.050,0.381,-0.173,-0.182,-0.029,0.253,-0.267,0.342,0.015,0.190,-0.267,0.539,-0.018
0.010,-0.023,0.354,0.604,-0.035,0.260,-0.001,0.438,-0.002,-0.282,-0.420,0.039,0.136,0.434,-0.371,-0.134,-0.336,0.190,-0.225,0.115,0.074,0.154,-0.252,0.463,-0.243
0.008,0.035,0.378,0.434,0.063,0.376,-0.017,0.199,-0.260,-0.045,-0.099,-0.052,-0.074,0.403,-0.367,-0.180,-0.259,0.177,-0.361,0.305,0.089,0.109,-0.386,0.487,-0.315
0.167,0.021,0.473,0.371,-0.063,0.390,-0.142,0.530,0.040,-0.289,-0.203,0.041,0.128,0.568,-0.072,-0.267,-0.349,0.080,-0.066,0.243,0.024,-0.038,-0.314,0.522,-0.106
0.071,0.047,0.286,0.366,0.086,0.178,-0.418,0.513,0.017,-0.230,-0.307,-0.047,0.083,0.548,-0.482,-0.590,-0.258,0.178,-0.366,0.449,0.097,0.010,-0.407,0.497,0.043
0.016,-0.080,0.221,0.302,-0.431,0.207,-0.286,0.476,-0.128,-0.174,-0.399,-0.246,-0.158,0.224,-0.349,-0.315,-0.241,0.047,-0.390,0.075,-0.060,-0.031,-0.527,0.404,-0.290
0.030,-0.285,0.288,0.191,-0.431,0.086,-0.412,0.289,-0.181,-0.320,-0.547,-0.342,-0.349,0.091,-0.455,-0.415,-0.380,-0.025,-0.596,0.093,-0.241,-0.188,-0.608,0.268,-0.413
-0.091,-0.361,0.247,0.070,-0.424,0.047,-0.495,0.329,-0.427,-0.384,-0.533,-0.316,-0.261,0.140,-0.505,-0.889,-0.319,-0.259,-0.615,-0.026,-0.149,-0.203,-0.432,0.225,-0.413
-0.292,-0.331,0.065,0.200,-0.431,0.025,-0.586,0.263,-0.325,-0.340,-0.442,-0.430,-0.469,0.021,-0.482,-0.468,-0.310,-0.319,-0.696,0.104,-0.166,-0.323,-0.587,0.117,-0.450
-0.285,-0.577,0.015,0.144,-0.343,-0.158,-0.571,0.133,-0.684,-0.465,-0.526,-0.137,-0.480,0.170,-0.527,-0.612,-0.509,-0.277,-0.509,-0.109,-0.333,-0.448,-0.593,0.189,-0.429
-0.571,-0.453,-0.051,0.167,-0.504,0.068,-0.762,0.203,-0.561,-0.662,-0.775,-0.371,-0.397,0.095,-0.561,-0.740,-0.575,0.069,-0.579,-0.155,-0.344,-0.252,-0.614,0.127,-0.835
-0.264,-0.383,0.059,0.028,-0.263,-0.118,-0.728,0.031,-0.475,-0.416,-0.794,-0.272,-0.454,0.216,-0.635,-0.752,-0.734,-0.153,-0.840,-0.259,-0.286,-0.319,-0.756,0.147,-0.720
-0.365,-0.504,0.028,-0.036,-0.486,-0.100,-0.699,0.019,-0.484,-0.581,-0.780,-0.475,-0.397,0.212,-0.586,-0.775,-0.619,-0.295,-0.809,-0.261,-0.455,-0.376,-0.935,0.287,-0.455
-0.456,-0.674,-0.060,-0.195,-0.725,-0.177,-0.889,0.062,-0.611,-0.621,-0.662,-0.530,-0.582,-0.136,-0.836,-1.012,-0.851,-0.502,-0.912,-0.330,-0.627,-0.474,-1.056,-0.045,-0.696
-0.351,-0.404,0.100,0.013,-0.370,-0.129,-0.704,0.128,-0.582,-0.687,-0.594,-0.432,-0.241,-0.086,-0.663,-0.634,-0.488,-0.251,-0.687,-0.225,-0.510,-0.321,-0.946,0.156,-0.421
-0.292,-0.238,0.120,0.305,-0.359,0.071,-0.366,0.080,-0.147,-0.432,-0.484,-0.401,-0.425,0.221,-0.714,-0.535,-0.511,-0.385,-0.733,-0.015,-0.260,-0.181,-0.631,0.266,-0.321
-0.087,-0.351,0.068,0.200,-0.457,0.059,-0.538,0.256,-0.207,-0.442,-0.439,-0.200,-0.427,0.162,-0.495,-0.406,-0.449,-0.272,-0.467,0.041,-0.092,-0.211,-0.622,0.313,-0.453
-0.114,-0.162,0.264,0.025,-0.444,-0.070,-0.396,0.331,-0.188,-0.322,-0.477,-0.532,-0.232,0.210,-0.455,-0.628,-0.569,-0.007,-0.410,0.032,-0.198,-0.010,-0.375,0.408,-0.289
-0.209,-0.129,0.230,0.377,-0.269,0.131,-0.343,0.377,-0.355,-0.524,-0.317,-0.123,0.010,0.196,-0.667,-0.161,-0.354,0.110,-0.383,0.101,-0.026,-0.141,-0.495,0.378,-0.424
0.078,-0.242,0.177,0.258,-0.102,0.171,-0.326,0.483,-0.245,-0.205,-0.367,0.078,0.019,0.442,-0.588,-0.358,-0.355,0.277,-0.239,0.048,-0.131,-0.088,-0.398,0.474,-0.246
-0.136,-0.284,0.189,0.252,-0.163,0.141,-0.381,0.425,-0.174,-0.689,-0.465,-0.254,-0.224,0.134,-0.629,-0.219,-0.601,-0.007,-0.540,0.012,-0.067,-0.249,-0.597,0.301,-0.557
0.073,-0.133,0.311,0.538,0.080,0.150,-0.210,0.533,0.012,-0.278,-0.408,-0.181,-0.024,0.242,-0.427,-0.306,-0.430,0.068,-0.213,0.223,0.094,-0.108,-0.430,0.577,-0.290
-0.056,-0.248,0.420,0.580,0.032,0.292,-0.373,0.553,-0.071,-0.263,-0.082,0.064,0.060,0.205,-0.325,-0.281,-0.329,0.174,-0.178,0.209,0.008,-0.123,-0.105,0.623,-0.433
0.091,-0.221,0.424,0.471,0.146,0.306,-0.198,0.489,-0.033,0.030,-0.131,-0.076,-0.135,0.368,-0.299,-0.316,-0.434,0.164,-0.277,0.191,-0.148,0.160,-0.386,0.542,-0.326
0.423,-0.125,0.509,0.667,0.164,0.420,0.156,0.629,0.047,0.184,0.025,0.174,0.127,0.843,0.071,-0.244,0.175,0.432,-0.267,0.292,0.093,0.290,-0.119,0.703,-0.250
0.177,-0.194,0.566,0.390,0.069,0.187,-0.409,0.572,-0.220,-0.094,-0.396,0.117,-0.010,0.477,-0.201,-0.128,-0.298,0.109,-0.240,0.095,-0.030,0.096,-0.472,0.487,-0.316
-0.122,-0.319,0.240,0.310,-0.123,-0.101,-0.360,0.423,-0.270,-0.188,-0.525,-0.038,-0.218,0.345,-0.519,-0.264,-0.471,-0.147,-0.339,-0.024,-0.011,-0.142,-0.526,0.456,-0.593
-0.033,-0.298,0.343,0.344,-0.120,0.088,-0.383,0.499,-0.360,-0.559,-0.490,-0.121,-0.333,0.146,-0.667,-0.360,-0.373,-0.114,-0.665,0.120,-0.249,-0.170,-0.627,0.356,-0.697
0.192,-0.163,0.223,0.165,-0.250,0.119,-0.245,0.381,-0.100,-0.422,-0.289,-0.171,-0.171,0.129,-0.564,-0.651,-0.288,-0.082,-0.262,0.085,-0.094,0.008,-0.587,0.485,-0.483
0.135,-0.151,0.515,0.287,0.076,0.201,-0.177,0.301,-0.146,-0.317,-0.137,0.139,-0.156,0.225,-0.353,-0.521,-0.307,0.021,-0.170,0.116,-0.054,0.093,-0.498,0.506,-0.202
0.011,-0.109,0.428,0.422,-0.046,0.252,-0.203,0.428,0.094,-0.434,-0.160,0.144,-0.177,0.431,-0.209,-0.240,-0.218,0.206,-0.222,0.320,-0.026,0.140,-0.346,0.536,-0.331
0.155,-0.155,0.405,0.424,0.016,0.308,-0.018,0.631,-0.000,-0.249,-0.216,0.063,-0.029,0.335,-0.271,-0.330,-0.093,0.180,-0.114,0.310,-0.123,0.005,-0.374,0.627,-0.079
0.098,-0.081,0.676,0.440,0.024,0.218,-0.326,0.702,-0.036,-0.023,-0.152,0.243,-0.002,0.662,-0.129,-0.305,-0.124,0.221,-0.039,0.345,0.041,0.125,-0.283,0.724,-0.046
0.037,-0.107,0.388,0.517,-0.094,0.277,-0.162,0.579,-0.289,-0.107,-0.112,-0.072,-0.252,0.455,-0.335,-0.564,-0.241,0.136,-0.326,0.221,0.171,0.099,-0.328,0.609,-0.255
0.205,0.023,0.467,0.470,-0.174,0.353,-0.245,0.495,-0.126,0.023,-0.123,0.077,-0.034,0.546,-0.067,-0.208,-0.166,0.218,-0.196,0.424,0.281,0.320,-0.237,0.594,0.078
0.027,-0.006,0.547,0.509,-0.082,0.202,-0.164,0.408,0.179,-0.072,-0.105,0.159,0.104,0.471,-0.123,-0.380,-0.123,0.132,-0.055,0.251,-0.169,0.004,-0.263,0.661,-0.073
-0.140,-0.280,0.370,0.276,-0.106,0.290,-0.361,0.395,-0.268,-0.350,-0.411,-0.216,0.018,0.395,-0.138,-0.525,-0.368,0.087,-0.445,0.240,-0.281,0.022,-0.500,0.426,-0.355
0.023,-0.115,0.337,0.352,-0.189,0.165,-0.186,0.507,-0.135,-0.254,-0.216,-0.025,0.021,0.534,-0.365,-0.375,-0.399,0.176,-0.277,0.211,-0.070,-0.022,-0.259,0.332,-0.312
0.088,0.038,0.407,0.248,-0.143,0.065,-0.356,0.528,-0.294,-0.094,-0.097,-0.093,-0.242,0.368,-0.260,-0.290,-0.367,0.157,-0.263,0.151,-0.082,0.185,-0.350,0.473,-0.250
-0.068,-0.222,0.376,0.439,-0.193,0.048,-0.259,0.398,-0.299,-0.470,-0.238,-0.095,-0.233,0.320,-0.440,-0.255,-0.243,-0.016,-0.375,0.056,-0.027,-0.046,-0.486,0.491,-0.307
-0.134,-0.340,0.229,0.149,-0.289,-0.045,-0.391,0.188,-0.270,-0.440,-0.342,-0.205,-0.028,0.212,-0.609,-0.351,-0.540,0.044,-0.438,0.006,-0.387,-0.298,-0.599,0.279,-0.380
-0.047,-0.375,-0.035,0.194,-0.345,-0.183,-0.505,0.199,-0.338,-0.367,-0.489,-0.342,-0.354,0.104,-0.516,-0.428,-0.383,-0.028,-0.296,-0.029,-0.176,-0.234,-0.737,0.214,-0.429
-0.061,-0.502,0.167,0.224,-0.335,-0.059,-0.517,0.260,-0.212,-0.340,-0.459,-0.306,-0.265,0.182,-0.289,-0.295,-0.483,0.010,-0.464,-0.064,-0.234,-0.071,-0.693,0.196,-0.749
-0.150,-0.137,0.009,0.219,-0.393,0.089,-0.389,0.337,-0.139,-0.324,-0.279,-0.407,-0.263,0.170,-0.344,-0.410,-0.528,0.100,-0.302,0.024,-0.208,-0.413,-0.543,0.168,-0.589
0.070,0.023,0.334,0.413,-0.036,0.240,-0.357,0.492,0.028,-0.090,-0.135,-0.034,-0.046,0.558,-0.049,-0.496,-0.135,0.131,-0.205,0.341,-0.041,0.034,-0.202,0.539,-0.056
0.211,-0.085,0.365,0.522,0.135,0.442,-0.226,0.637,0.044,0.016,0.074,0.064,0.171,0.533,-0.190,-0.209,-0.295,0.214,-0.213,0.316,-0.109,0.039,-0.294,0.680,-0.165
0.046,-0.008,0.639,0.663,-0.069,0.417,-0.396,0.614,-0.085,-0.132,-0.025,-0.282,0.005,0.580,0.027,-0.401,-0.125,0.240,-0.421,0.320,0.044,-0.064,-0.205,0.680,-0.143
-0.006,-0.056,0.537,0.521,-0.234,0.387,-0.416,0.528,-0.091,-0.164,-0.263,-0.037,0.031,0.401,-0.346,-0.484,-0.086,0.025,-0.388,0.210,0.119,-0.017,-0.299,0.555,-0.044
0.274,0.142,0.589,0.629,0.230,0.351,-0.166,0.594,0.148,-0.039,0.022,-0.125,0.034,0.703,-0.148,-0.150,-0.049,0.002,0.054,0.324,0.151,0.151,-0.027,0.693,-0.030
0.368,0.044,0.607,0.571,0.193,0.326,0.003,0.586,-0.001,-0.108,-0.153,0.300,0.053,0.627,-0.125,-0.202,0.004,0.317,-0.008,0.361,0.078,0.094,-0.009,0.617,-0.116
0.154,0.074,0.484,0.471,0.025,0.372,-0.339,0.512,0.111,-0.364,-0.176,-0.153,0.050,0.560,0.001,0.034,-0.142,0.161,-0.220,0.333,0.069,-0.074,-0.173,0.680,-0.179
0.315,0.191,0.569,0.668,0.166,0.635,0.005,0.729,0.289,-0.174,-0.075,0.198,0.132,0.592,-0.040,0.192,-0.084,0.259,-0.032,0.472,0.328,0.064,0.052,0.848,-0.001
0.319,0.213,0.490,0.727,0.258,0.622,-0.135,0.892,0.268,-0.080,0.028,0.268,0.279,0.656,-0.038,-0.098,-0.061,0.396,-0.036,0.360,0.371,0.306,-0.063,0.813,0.055
0.362,0.196,0.675,0.765,0.195,0.665,-0.149,0.992,0.328,0.157,0.278,0.320,0.247,0.745,-0.130,0.108,0.297,0.480,-0.070,0.537,0.299,0.480,-0.007,0.967,0.137
0.426,0.186,0.755,0.667,0.236,0.581,-0.084,0.767,0.151,0.051,0.274,0.297,0.331,0.798,-0.115,0.079,0.142,0.252,-0.070,0.406,0.209,0.192,0.001,0.940,0.089
0.604,0.441,0.907,1.005,0.422,0.801,-0.198,1.114,0.216,0.324,0.234,0.358,0.442,0.931,0.267,0.171,0.329,0.472,0.192,0.693,0.643,0.359,0.156,1.129,-0.006
0.223,0.151,0.596,0.742,0.102,0.604,0.099,0.902,0.400,0.117,-0.048,0.131,0.408,0.767,-0.041,0.011,0.032,0.436,0.143,0.566,0.449,0.363,-0.016,1.055,0.044
0.242,0.006,0.651,0.627,0.314,0.632,-0.248,0.701,-0.102,-0.073,-0.088,-0.103,0.021,0.652,-0.120,-0.245,-0.100,0.298,-0.102,0.409,0.131,0.082,0.045,0.724,-0.017
0.253,0.022,0.572,0.691,0.238,0.567,-0.343,0.908,0.069,-0.055,-0.082,0.132,0.040,0.876,0.251,-0.100,0.014,0.397,-0.001,0.511,0.359,0.315,-0.053,0.841,0.001
0.298,0.126,0.606,0.587,0.157,0.531,-0.314,0.653,-0.065,-0.149,-0.220,0.133,0.295,0.433,-0.187,-0.258,-0.375,0.222,-0.091,0.482,0.123,0.289,-0.189,0.700,-0.045
0.314,0.120,0.740,0.755,0.110,0.550,-0.010,0.797,0.230,-0.055,0.142,0.437,0.252,0.751,0.101,-0.040,0.250,0.291,0.050,0.647,0.106,0.235,-0.036,0.895,-0.011
0.195,-0.068,0.518,0.436,0.012,0.465,-0.196,0.689,0.105,0.012,-0.110,0.173,0.091,0.466,-0.095,-0.253,0.098,0.121,-0.096,0.397,-0.011,0.285,-0.238,0.655,-0.064
0.021,0.041,0.522,0.569,-0.261,0.310,-0.270,0.623,0.084,-0.171,-0.127,0.083,0.080,0.460,-0.214,-0.260,-0.065,0.206,-0.296,0.326,0.062,0.177,-0.334,0.419,-0.094
0.072,0.016,0.709,0.460,0.029,0.490,-0.255,0.571,0.034,-0.057,-0.121,0.131,0.079,0.364,-0.185,-0.227,-0.198,0.045,-0.161,0.173,0.305,-0.039,-0.096,0.717,-0.010
0.226,-0.102,0.652,0.694,-0.106,0.354,-0.151,0.579,-0.143,0.041,-0.031,-0.113,0.170,0.498,-0.070,-0.190,-0.142,0.100,-0.317,0.093,0.031,0.157,-0.087,0.627,-0.093
0.147,0.082,0.573,0.631,0.123,0.513,-0.035,0.769,-0.087,0.032,-0.199,0.005,0.155,0.430,-0.174,-0.252,-0.083,0.229,-0.107,0.374,0.238,0.252,-0.352,0.736,0.040
0.131,0.018,0.477,0.478,0.053,0.334,-0.367,0.492,0.049,-0.068,-0.251,0.176,0.045,0.515,-0.172,-0.518,-0.047,0.221,-0.179,0.118,-0.010,0.058,-0.442,0.565,-0.234
0.330,0.220,0.532,0.583,0.026,0.233,-0.255,0.656,0.132,-0.190,-0.200,0.132,0.191,0.466,-0.048,-0.420,-0.137,0.171,-0.177,0.175,-0.010,-0.030,-0.454,0.655,-0.087
0.230,0.235,0.541,0.676,-0.012,0.402,-0.158,0.748,0.109,-0.120,-0.087,0.048,0.306,0.487,-0.144,-0.061,-0.148,0.029,-0.313,0.368,-0.072,0.065,-0.283,0.590,-0.093
0.127,0.129,0.479,0.566,0.193,0.639,-0.061,0.726,0.110,-0.026,0.011,0.036,0.099,0.619,-0.098,-0.275,-0.250,0.108,-0.086,0.446,-0.064,0.238,-0.160,0.693,-0.056
0.212,-0.021,0.659,0.549,0.135,0.269,-0.202,0.679,-0.109,-0.074,-0.008,0.175,-0.046,0.662,-0.202,-0.220,-0.321,0.187,-0.163,0.354,0.026,0.312,-0.384,0.697,-0.157
0.127,-0.121,0.386,0.459,-0.326,0.223,-0.256,0.622,-0.139,-0.432,-0.238,0.100,-0.033,0.400,-0.185,-0.316,-0.318,0.186,-0.173,0.115,-0.250,-0.009,-0.264,0.663,-0.288
0.243,-0.063,0.318,0.374,-0.048,0.608,-0.182,0.647,-0.090,-0.282,-0.075,0.053,0.167,0.574,0.020,-0.322,-0.038,0.161,-0.136,0.455,0.091,0.213,-0.291,0.687,-0.089
0.124,-0.338,0.297,0.318,0.009,0.221,-0.272,0.501,-0.166,-0.219,-0.052,-0.186,-0.139,0.461,-0.249,-0.645,-0.179,0.044,-0.431,0.211,-0.053,-0.069,-0.547,0.522,-0.285
-0.110,-0.093,0.347,0.496,-0.101,0.354,-0.367,0.474,-0.255,-0.378,-0.269,0.009,0.019,0.398,-0.319,-0.188,-0.243,-0.002,-0.299,0.265,-0.137,-0.143,-0.277,0.579,-0.272
-0.068,-0.137,0.153,0.421,-0.299,0.050,-0.587,0.324,-0.354,-0.445,-0.732,-0.180,-0.320,0.307,-0.569,-0.401,-0.529,0.001,-0.440,0.055,-0.238,-0.225,-0.480,0.363,-0.516
0.058,-0.315,0.204,0.122,-0.026,0.141,-0.432,0.371,-0.281,-0.372,-0.158,-0.141,-0.228,0.313,-0.671,-0.609,-0.525,0.138,-0.537,-0.031,-0.187,-0.101,-0.378,0.328,-0.350
-0.055,-0.233,0.025,0.244,-0.109,0.202,-0.411,0.338,-0.211,-0.379,-0.354,-0.167,-0.104,0.158,-0.612,-0.423,-0.460,0.142,-0.330,-0.012,-0.193,-0.206,-0.449,0.348,-0.398
-0.009,-0.339,0.186,0.178,-0.106,0.110,-0.384,0.298,-0.152,-0.386,-0.480,-0.288,-0.195,0.188,-0.197,-0.432,-0.497,-0.146,-0.368,-0.020,-0.350,-0.138,-0.489,0.247,-0.633
0.086,-0.239,0.253,0.520,-0.168,0.161,-0.456,0.367,-0.142,-0.123,-0.460,-0.231,-0.127,0.058,-0.239,-0.376,-0.378,-0.054,-0.275,0.325,-0.060,-0.129,-0.481,0.394,-0.321
0.139,0.015,0.437,0.665,0.021,0.281,-0.240,0.446,-0.009,-0.007,-0.104,-0.116,-0.082,0.366,-0.309,-0.323,-0.264,0.051,-0.157,0.366,0.078,0.118,-0.126,0.653,-0.144
0.185,-0.109,0.515,0.514,-0.055,0.221,-0.296,0.468,-0.174,-0.064,-0.215,-0.043,-0.019,0.414,-0.018,-0.408,-0.174,-0.075,-0.109,0.376,0.148,0.003,-0.278,0.665,-0.195
0.220,-0.029,0.406,0.582,0.109,0.625,-0.007,0.529,0.029,-0.020,-0.133,0.121,-0.050,0.407,-0.253,-0.142,-0.087,-0.138,-0.086,0.428,0.207,0.322,-0.221,0.682,-0.141
0.507,0.256,0.663,0.778,0.281,0.761,0.125,0.990,0.370,0.290,-0.106,0.159,0.301,0.709,-0.104,0.017,0.016,0.380,0.068,0.721,0.213,0.476,0.188,1.116,0.033
0.339,0.145,0.481,0.800,0.131,0.454,-0.318,0.815,0.150,0.010,-0.149,0.275,0.241,0.695,0.002,0.085,-0.131,0.260,-0.080,0.600,0.155,0.231,0.006,0.797,-0.035
0.370,0.040,0.504,0.523,0.027,0.408,-0.250,0.526,0.001,-0.253,-0.046,0.066,-0.035,0.454,-0.140,-0.297,-0.206,0.228,-0.126,0.308,0.012,0.321,-0.342,0.630,-0.079
0.169,-0.124,0.334,0.382,-0.160,0.232,-0.358,0.383,-0.006,-0.389,-0.136,-0.219,-0.140,0.435,-0.108,-0.029,-0.432,-0.094,-0.147,0.213,-0.180,0.160,-0.421,0.431,-0.213
0.153,-0.096,0.393,0.532,0.320,0.302,-0.242,0.591,-0.069,-0.202,-0.107,0.112,-0.108,0.457,-0.221,-0.013,-0.372,0.115,-0.183,0.326,-0.048,0.072,-0.326,0.643,-0.041
0.140,-0.334,0.375,0.429,0.097,0.081,-0.162,0.372,0.036,-0.218,-0.073,-0.064,-0.006,0.407,-0.268,-0.240,-0.195,0.199,-0.351,0.203,-0.090,0.128,-0.253,0.704,-0.205
0.024,-0.231,0.395,0.326,-0.050,0.124,-0.402,0.387,0.087,-0.373,-0.302,-0.110,-0.011,0.253,-0.212,-0.241,-0.313,0.105,-0.397,0.090,-0.088,-0.033,-0.672,0.318,-0.287
-0.092,-0.182,0.295,0.236,-0.127,0.115,-0.619,0.273,-0.227,-0.184,-0.505,-0.139,-0.076,0.237,-0.407,-0.627,-0.340,-0.022,-0.347,0.145,-0.060,-0.110,-0.568,0.348,-0.447
-0.041,-0.160,0.349,0.234,-0.162,-0.035,-0.350,0.380,-0.053,-0.182,-0.335,-0.097,-0.161,0.324,-0.528,-0.475,-0.356,-0.107,-0.387,0.068,-0.227,-0.128,-0.463,0.396,-0.219
-0.069,-0.235,0.354,0.353,-0.220,0.048,-0.363,0.496,-0.018,-0.205,-0.366,-0.134,-0.139,0.376,-0.344,-0.454,-0.231,0.034,-0.407,0.021,-0.162,-0.147,-0.311,0.383,-0.470
-0.032,-0.127,0.315,0.223,-0.451,0.086,-0.050,0.487,-0.137,-0.252,-0.306,-0.070,-0.026,0.300,-0.602,-0.474,-0.450,0.078,-0.470,0.286,-0.113,-0.160,-0.382,0.325,-0.480
-0.006,-0.126,0.335,0.159,-0.078,0.221,-0.524,0.332,-0.343,0.073,-0.310,-0.164,-0.226,0.279,-0.200,-0.545,-0.476,0.055,-0.442,0.232,-0.263,-0.060,-0.484,0.344,-0.476
-0.033,-0.067,0.351,0.295,-0.164,0.217,-0.493,0.469,-0.270,-0.133,-0.242,-0.133,-0.304,0.454,-0.368,-0.605,-0.427,-0.175,-0.282,0.368,-0.090,-0.072,-0.326,0.572,-0.539
-0.088,-0.012,0.296,0.407,-0.276,0.345,-0.267,0.436,-0.409,-0.493,-0.400,-0.083,-0.031,0.304,-0.284,-0.455,-0.448,0.031,-0.344,0.196,-0.103,-0.080,-0.482,0.425,-0.556
-0.029,-0.074,0.393,0.554,-0.107,0.284,-0.058,0.519,-0.094,-0.290,-0.317,-0.239,0.074,0.585,-0.199,-0.509,-0.354,0.228,-0.197,0.252,-0.051,0.011,-0.384,0.513,-0.344
0.040,-0.061,0.214,0.360,0.096,0.218,-0.105,0.561,-0.111,-0.330,-0.083,-0.150,0.014,0.525,-0.168,-0.259,-0.439,0.034,-0.100,0.258,0.025,0.293,-0.323,0.524,-0.198
-0.000,-0.111,0.251,0.321,-0.134,0.316,-0.330,0.532,-0.043,-0.279,-0.200,-0.024,-0.143,0.384,-0.506,-0.248,-0.307,0.097,-0.422,0.127,-0.060,0.015,-0.431,0.463,-0.585
0.009,-0.069,0.281,0.299,0.049,0.324,-0.375,0.497,-0.282,-0.286,-0.203,-0.091,-0.208,0.392,-0.632,-0.463,-0.237,0.151,-0.339,0.146,-0.122,-0.004,-0.567,0.509,-0.387
-0.153,-0.104,0.213,0.132,-0.119,-0.005,-0.585,0.282,-0.271,-0.188,-0.306,-0.124,-0.210,0.351,-0.431,-0.677,-0.390,0.016,-0.567,0.102,-0.302,-0.147,-0.716,0.373,-0.588
-0.226,-0.377,0.024,0.017,-0.104,-0.152,-0.608,0.183,-0.359,-0.380,-0.371,-0.368,-0.326,0.127,-0.512,-0.610,-0.414,-0.171,-0.549,-0.041,-0.436,-0.201,-0.846,0.167,-0.523
-0.364,-0.383,0.041,-0.056,-0.301,-0.187,-0.751,0.112,-0.611,-0.453,-0.721,-0.335,-0.416,0.120,-0.726,-0.757,-0.243,-0.327,-0.692,-0.073,-0.558,-0.301,-0.725,0.041,-0.766
-0.365,-0.428,0.073,0.027,-0.442,0.079,-0.782,0.308,-0.558,-0.365,-0.423,-0.349,-0.328,-0.018,-0.596,-0.623,-0.595,-0.311,-0.551,0.004,-0.260,-0.316,-0.656,0.118,-0.640
-0.369,-0.286,0.143,0.057,-0.241,0.147,-0.561,0.247,-0.329,-0.121,-0.362,-0.260,-0.296,0.214,-0.459,-0.442,-0.425,-0.142,-0.466,-0.006,-0.117,-0.240,-0.545,0.233,-0.650
-0.238,-0.268,0.051,0.071,-0.223,0.110,-0.500,0.236,-0.153,-0.434,-0.359,-0.136,-0.255,0.269,-0.386,-0.534,-0.601,-0.206,-0.382,0.030,-0.139,-0.225,-0.524,0.264,-0.487
-0.032,-0.191,0.297,0.203,-0.034,0.048,-0.353,0.501,-0.176,-0.219,-0.280,-0.062,-0.457,0.162,-0.100,-0.355,-0.600,-0.182,-0.479,-0.080,0.022,-0.191,-0.461,0.301,-0.310
-0.104,-0.399,0.004,0.072,-0.402,-0.152,-0.540,0.264,-0.233,-0.467,-0.553,-0.136,-0.397,0.179,-0.558,-0.385,-0.592,-0.274,-0.576,-0.010,-0.249,-0.255,-0.852,0.335,-0.568
-0.130,-0.316,0.023,0.303,-0.165,0.133,-0.477,0.460,-0.286,-0.250,-0.388,-0.079,-0.030,0.161,-0.427,-0.522,-0.443,0.027,-0.451,-0.065,-0.172,-0.074,-0.640,0.444,-0.449
0.162,-0.243,0.067,0.244,-0.330,0.078,-0.570,0.243,-0.197,-0.133,-0.357,-0.316,-0.214,0.200,-0.519,-0.415,-0.329,0.021,-0.606,0.044,-0.225,-0.015,-0.497,0.453,-0.356
0.058,-0.033,0.342,0.285,-0.084,0.018,-0.496,0.528,-0.117,-0.196,-0.104,-0.218,0.001,0.489,-0.310,-0.254,-0.373,-0.025,-0.483,0.244,-0.223,-0.030,-0.449,0.430,-0.234
0.167,-0.028,0.614,0.391,-0.050,0.324,-0.253,0.436,0.035,-0.290,-0.327,-0.133,0.027,0.356,-0.393,-0.157,-0.361,0.117,-0.430,0.207,-0.040,0.034,-0.426,0.455,-0.336
0.155,-0.112,0.465,0.394,0.045,0.142,-0.186,0.473,-0.166,-0.132,-0.317,-0.064,-0.046,0.426,-0.405,-0.362,-0.089,-0.124,-0.477,0.066,0.037,0.042,-0.663,0.436,-0.338
0.034,-0.064,0.563,0.505,0.001,0.493,-0.195,0.651,0.021,0.047,-0.034,0.050,0.181,0.500,-0.512,-0.207,-0.175,0.237,-0.258,0.434,0.161,0.093,-0.257,0.474,-0.434
0.130,-0.023,0.451,0.669,0.131,0.406,-0.194,0.759,-0.024,-0.049,0.029,0.050,-0.031,0.644,-0.253,0.032,-0.221,0.270,0.007,0.422,0.208,0.123,-0.222,0.776,-0.120
0.304,-0.037,0.607,0.481,0.055,0.405,-0.136,0.616,0.054,-0.124,0.004,0.228,-0.020,0.629,-0.191,-0.045,-0.237,0.289,-0.165,0.348,0.255,0.053,-0.267,0.781,-0.131
0.292,0.201,0.937,0.922,0.428,0.642,0.084,0.974,0.189,0.203,0.230,0.474,0.401,0.868,0.096,0.159,0.325,0.486,0.142,0.668,0.418,0.446,-0.140,0.968,0.158
0.407,0.026,0.752,0.945,0.388,0.739,0.087,0.930,0.242,0.176,0.101,0.330,0.435,0.936,-0.018,0.308,0.228,0.455,-0.026,0.499,0.312,0.409,0.097,0.997,0.209
0.314,0.042,0.608,0.633,0.196,0.578,-0.087,0.931,0.182,0.067,0.075,-0.156,0.183,0.580,-0.094,0.231,-0.001,0.364,0.105,0.530,0.269,0.152,0.038,0.804,-0.101
0.285,0.030,0.608,0.616,0.214,0.505,-0.176,0.781,0.022,-0.085,0.142,0.104,0.281,0.554,-0.279,-0.192,-0.204,0.171,0.028,0.435,0.333,0.150,0.026,0.678,-0.142
0.468,0.032,0.721,0.602,0.454,0.388,-0.097,0.653,0.243,0.021,0.125,0.183,0.190,0.551,0.165,-0.042,-0.290,0.364,-0.156,0.387,0.269,0.327,0.095,0.865,-0.042
0.486,0.223,0.716,0.732,0.371,0.478,0.070,0.798,0.117,0.080,0.077,0.149,0.186,0.756,0.054,-0.015,-0.279,0.482,0.078,0.662,0.290,0.289,0.193,0.840,0.106
0.317,0.157,0.822,0.609,0.128,0.598,-0.078,0.615,0.065,-0.024,0.036,0.104,0.113,0.641,-0.240,-0.133,-0.129,0.049,0.026,0.357,0.251,0.120,-0.280,0.731,-0.012
0.167,0.004,0.604,0.531,0.039,0.397,-0.207,0.747,0.062,-0.143,0.163,0.072,0.189,0.632,-0.297,-0.203,-0.132,0.179,-0.078,0.495,-0.067,0.123,-0.306,0.620,-0.247
-0.012,-0.234,0.180,0.394,-0.117,0.419,-0.102,0.438,-0.138,-0.240,-0.164,-0.178,-0.221,0.345,-0.332,-0.534,-0.006,0.014,-0.279,0.193,-0.138,-0.127,-0.434,0.455,-0.456
0.049,-0.322,0.154,0.347,-0.042,0.254,-0.401,0.177,0.023,-0.360,-0.449,-0.269,-0.300,0.233,-0.443,-0.571,-0.201,-0.234,-0.303,-0.020,-0.313,-0.191,-0.494,0.494,-0.380
0.132,-0.127,0.281,0.302,-0.112,0.188,-0.206,0.505,-0.010,-0.230,-0.106,-0.037,0.031,0.247,-0.449,-0.318,-0.140,0.052,-0.409,0.159,-0.067,0.048,-0.433,0.529,-0.259
0.175,-0.111,0.320,0.449,0.016,0.229,-0.418,0.403,-0.136,-0.223,0.097,0.019,0.018,0.449,-0.208,-0.185,-0.161,0.125,-0.093,0.283,-0.056,0.108,-0.238,0.390,-0.138
0.181,-0.062,0.323,0.350,-0.070,0.274,-0.159,0.494,-0.108,-0.007,-0.290,-0.230,-0.098,0.395,-0.391,-0.422,-0.146,-0.132,-0.256,0.129,0.051,0.118,-0.406,0.506,-0.044
0.060,0.047,0.522,0.337,0.066,0.438,-0.265,0.624,-0.019,-0.052,-0.112,-0.090,-0.045,0.470,-0.394,-0.216,-0.174,0.083,-0.219,0.135,0.200,0.044,-0.160,0.664,-0.250
0.056,-0.034,0.373,0.490,0.044,0.384,-0.147,0.606,0.047,-0.127,0.015,0.116,-0.141,0.489,-0.155,-0.213,0.089,0.007,-0.404,0.344,0.052,0.191,-0.291,0.615,-0.242
0.090,0.053,0.477,0.479,0.148,0.178,-0.363,0.756,-0.035,-0.259,0.181,-0.043,0.132,0.498,-0.187,-0.148,-0.395,0.210,-0.354,0.383,0.126,0.176,-0.270,0.578,-0.042
0.081,-0.123,0.475,0.475,-0.072,0.296,-0.182,0.546,0.064,-0.260,-0.247,0.068,-0.067,0.477,-0.202,-0.256,-0.292,0.114,-0.470,0.061,0.082,-0.048,-0.466,0.535,-0.128
-0.064,-0.112,0.221,0.351,-0.417,0.264,-0.214,0.540,-0.179,-0.275,-0.310,-0.258,-0.262,0.343,-0.569,-0.357,-0.229,-0.064,-0.338,0.063,-0.214,-0.234,-0.496,0.451,-0.287
-0.099,-0.209,0.255,0.297,-0.236,0.071,-0.316,0.417,-0.261,-0.344,-0.318,-0.293,-0.059,0.301,-0.378,-0.219,-0.357,-0.136,-0.545,0.123,-0.092,-0.196,-0.476,0.319,-0.409
0.105,-0.091,0.386,0.437,-0.050,0.158,-0.378,0.466,-0.148,-0.387,-0.213,-0.045,0.139,0.507,-0.342,-0.230,-0.134,0.123,-0.160,0.128,-0.015,0.060,-0.272,0.497,-0.238
0.043,-0.257,0.306,0.309,0.103,0.239,-0.312,0.507,0.014,-0.143,-0.113,0.102,-0.026,0.479,-0.227,-0.024,-0.158,0.088,-0.224,0.205,0.155,-0.119,-0.282,0.514,0.078
0.021,-0.194,0.279,0.354,-0.194,0.159,-0.392,0.519,-0.139,-0.112,-0.119,-0.075,-0.077,0.360,-0.271,-0.446,-0.212,0.218,-0.633,0.188,0.116,-0.023,-0.493,0.455,-0.184
-0.108,-0.353,0.080,0.063,-0.468,0.125,-0.461,0.436,-0.166,-0.271,-0.570,-0.090,-0.188,0.097,-0.501,-0.542,-0.485,-0.065,-0.434,0.173,-0.166,0.001,-0.416,0.303,-0.355
0.021,-0.013,0.297,0.481,-0.106,0.436,-0.076,0.582,-0.084,-0.106,-0.304,-0.016,-0.021,0.300,-0.449,-0.287,-0.059,0.082,-0.103,0.142,0.200,0.128,-0.253,0.460,-0.300
0.199,-0.051,0.627,0.435,0.058,0.375,-0.431,0.670,0.005,0.015,-0.133,0.201,0.124,0.660,-0.278,-0.349,0.034,0.015,-0.048,0.374,-0.057,0.362,-0.314,0.768,0.082
0.200,-0.051,0.523,0.307,0.043,0.371,-0.386,0.509,-0.079,-0.155,-0.523,-0.157,0.009,0.512,-0.399,-0.344,-0.134,-0.021,-0.363,0.459,-0.159,0.236,-0.171,0.654,-0.113
0.301,-0.039,0.464,0.473,0.034,0.362,-0.285,0.575,-0.121,-0.081,-0.189,-0.051,-0.080,0.515,-0.366,-0.301,-0.114,0.209,-0.206,0.319,-0.059,0.081,-0.176,0.518,-0.394
0.206,-0.193,0.229,0.193,0.105,0.078,-0.448,0.352,-0.265,-0.141,-0.226,-0.333,-0.196,0.404,-0.425,-0.317,-0.249,-0.032,-0.233,0.183,-0.150,0.073,-0.387,0.365,-0.276
0.018,-0.249,0.380,0.393,-0.116,0.208,-0.390,0.314,-0.083,-0.260,-0.395,-0.175,0.059,0.396,-0.134,-0.199,-0.231,0.009,-0.129,0.050,-0.121,-0.090,-0.599,0.476,-0.288
0.214,-0.234,0.435,0.578,0.093,0.385,-0.082,0.475,-0.063,-0.088,-0.039,-0.189,0.127,0.411,-0.011,-0.170,-0.377,0.086,-0.200,0.190,0.073,0.255,-0.200,0.557,-0.183
-0.217,-0.201,0.150,0.109,-0.183,0.231,-0.253,0.380,-0.098,-0.197,-0.173,-0.251,-0.217,0.222,-0.135,-0.449,-0.571,-0.085,-0.265,0.075,-0.222,-0.131,-0.637,0.429,-0.255
-0.094,-0.306,0.281,0.269,-0.060,0.067,-0.532,0.312,-0.335,-0.296,-0.303,-0.108,-0.125,0.235,-0.007,-0.346,-0.374,-0.074,-0.382,0.131,-0.195,-0.254,-0.214,0.480,-0.379
0.095,-0.028,0.563,0.394,0.164,0.359,-0.491,0.603,-0.105,-0.054,-0.002,0.108,0.079,0.750,-0.006,-0.310,-0.191,0.202,-0.197,0.363,0.003,0.186,-0.307,0.582,-0.175
0.142,-0.162,0.619,0.269,0.138,0.338,-0.358,0.696,-0.183,0.015,-0.200,0.032,0.046,0.598,-0.169,-0.239,-0.040,0.022,-0.178,0.363,0.032,0.046,-0.395,0.625,-0.251
0.085,-0.160,0.509,0.433,-0.123,0.292,-0.208,0.614,0.101,-0.092,-0.284,0.102,0.066,0.344,-0.290,-0.216,-0.090,0.126,-0.444,0.259,0.036,0.108,-0.434,0.501,-0.245
0.033,0.017,0.478,0.275,0.131,0.307,-0.195,0.546,0.038,-0.036,-0.043,0.011,-0.036,0.489,-0.220,-0.243,-0.335,0.075,-0.247,0.225,0.143,-0.072,-0.407,0.579,-0.051
0.057,-0.144,0.512,0.269,-0.055,0.181,-0.467,0.448,-0.150,-0.239,-0.123,0.032,-0.200,0.464,-0.457,-0.532,-0.162,0.196,-0.427,0.197,-0.062,-0.021,-0.408,0.532,-0.221
0.356,-0.025,0.372,0.410,0.100,0.298,-0.367,0.517,-0.056,-0.098,0.053,0.049,-0.165,0.487,-0.288,-0.420,-0.164,0.222,-0.085,0.354,0.014,0.214,-0.331,0.475,-0.263
0.215,0.090,0.433,0.411,-0.205,0.453,-0.114,0.622,-0.041,-0.198,-0.230,-0.218,-0.026,0.351,-0.352,-0.271,-0.229,0.133,-0.268,0.373,0.145,0.042,-0.286,0.438,-0.119
0.346,0.130,0.549,0.650,-0.016,0.552,-0.246,0.583,0.144,-0.128,-0.003,0.070,0.015,0.466,-0.221,-0.166,-0.139,0.140,-0.015,0.434,0.145,-0.057,-0.282,0.618,-0.050
0.679,0.329,0.667,0.753,0.352,0.609,-0.066,0.884,0.117,0.141,-0.017,0.420,0.155,0.850,-0.111,0.166,-0.018,0.385,0.329,0.536,0.248,0.342,0.079,0.790,-0.036
0.587,0.174,0.797,0.755,0.262,0.724,-0.083,0.867,0.212,0.120,0.248,0.381,0.512,0.883,0.146,0.268,0.044,0.503,0.222,0.786,0.431,0.402,-0.094,0.954,0.047
0.659,0.213,0.858,0.842,0.392,0.694,0.053,0.836,0.526,0.224,0.015,0.214,0.303,0.967,0.198,0.105,0.232,0.558,0.328,0.774,0.507,0.391,0.096,0.941,0.001
0.512,0.152,0.790,0.766,0.375,0.627,-0.065,0.639,0.187,-0.113,-0.053,0.355,0.262,0.779,0.028,0.118,0.238,0.350,0.050,0.570,0.266,0.364,0.025,0.844,-0.054
0.178,-0.198,0.342,0.472,-0.042,0.383,-0.293,0.426,-0.233,-0.180,-0.308,0.102,0.081,0.343,-0.214,-0.257,-0.050,0.145,-0.234,0.354,-0.024,0.136,-0.497,0.591,-0.263
0.141,-0.096,0.435,0.481,-0.041,0.212,-0.108,0.628,-0.098,0.004,0.011,0.261,-0.036,0.432,-0.355,-0.381,-0.333,0.014,-0.249,0.363,0.005,0.222,-0.405,0.658,-0.260
0.331,-0.012,0.635,0.527,0.056,0.525,-0.376,0.758,0.166,0.002,-0.188,0.316,0.156,0.590,-0.036,-0.219,-0.105,0.179,0.007,0.347,0.169,0.365,-0.210,0.750,-0.214
0.204,0.044,0.640,0.588,0.126,0.382,-0.065,0.734,0.066,0.090,0.128,0.159,-0.027,0.579,-0.193,-0.070,-0.203,0.310,-0.006,0.274,0.319,0.235,-0.152,0.777,-0.181
0.143,0.078,0.545,0.524,0.235,0.411,-0.300,0.727,-0.002,-0.003,0.060,0.113,0.037,0.539,-0.052,-0.201,-0.074,0.363,-0.076,0.393,0.233,0.163,-0.199,0.572,-0.207
0.381,0.254,0.703,0.652,0.362,0.747,-0.073,1.001,0.230,0.063,0.151,0.231,0.080,0.755,0.129,0.208,-0.001,0.423,0.048,0.430,0.219,0.285,-0.011,0.668,0.052
0.681,0.482,0.789,0.825,0.598,0.748,-0.094,1.009,0.275,0.314,0.237,0.500,0.432,0.845,-0.000,0.008,0.213,0.431,0.081,0.683,0.547,0.440,0.316,0.979,0.329
0.531,0.549,0.790,0.807,0.228,0.664,0.240,0.988,0.272,0.099,0.215,0.358,0.380,0.940,0.100,0.150,0.085,0.391,0.173,0.904,0.413,0.294,0.037,0.823,0.247
0.459,0.303,0.575,0.694,0.057,0.522,0.023,0.762,0.123,0.171,0.255,0.264,0.381,0.702,0.024,-0.036,-0.014,0.521,0.232,0.564,0.348,0.413,-0.050,0.664,0.182
0.509,0.288,0.714,0.934,0.285,0.639,-0.033,0.771,0.311,0.283,0.062,0.284,0.296,0.823,0.041,-0.152,0.182,0.387,0.072,0.580,0.277,0.440,0.032,0.858,0.243
0.569,0.428,0.875,1.036,0.332,0.665,0.074,1.037,0.152,0.138,0.179,0.413,0.451,0.994,0.245,0.152,0.131,0.592,0.131,0.717,0.249,0.309,0.254,0.902,0.002
0.602,0.486,0.781,0.926,0.392,0.734,-0.070,0.959,0.288,0.089,0.289,0.392,0.537,1.000,0.422,0.162,0.207,0.560,0.154,0.796,0.565,0.431,-0.078,0.898,0.330
0.348,0.364,0.815,0.743,0.218,0.545,-0.068,0.837,0.285,0.064,0.119,0.259,0.413,0.776,0.265,0.239,0.053,0.439,0.194,0.700,0.379,0.450,-0.033,0.917,0.215
0.364,0.149,0.634,0.627,0.142,0.413,-0.101,0.775,0.240,0.031,0.073,0.122,0.264,0.570,0.005,-0.161,-0.062,0.374,-0.227,0.387,0.081,0.218,-0.222,0.738,0.021
0.002,0.179,0.410,0.549,0.111,0.406,-0.144,0.673,0.073,-0.098,-0.320,-0.035,0.113,0.405,-0.093,-0.390,-0.066,0.227,-0.417,0.370,0.021,0.167,-0.230,0.638,-0.303
0.133,-0.120,0.322,0.492,0.202,0.402,-0.150,0.538,0.014,-0.161,-0.306,0.101,0.016,0.477,-0.173,-0.283,-0.165,0.059,-0.100,0.425,0.071,0.194,-0.430,0.638,-0.321
0.110,-0.068,0.353,0.423,-0.009,0.269,-0.190,0.599,0.018,-0.263,-0.321,0.022,-0.087,0.351,-0.340,-0.217,0.014,0.215,-0.040,0.233,-0.198,0.266,-0.229,0.661,-0.078
0.407,0.312,0.821,0.772,0.395,0.559,-0.019,0.906,0.239,-0.071,-0.029,0.355,0.250,0.859,0.059,-0.081,0.068,0.335,0.131,0.436,0.320,0.258,0.040,0.804,0.264
0.423,0.126,0.713,0.711,0.175,0.467,-0.154,0.704,0.170,-0.052,0.031,0.348,0.234,0.574,-0.093,0.153,-0.063,0.410,0.060,0.568,0.301,0.177,0.070,0.842,0.239
0.332,0.002,0.688,0.788,0.170,0.515,-0.137,0.810,0.140,0.141,-0.087,0.119,0.136,0.576,0.107,-0.144,-0.146,0.429,0.350,0.535,0.197,0.169,-0.064,0.854,0.018
0.197,0.099,0.722,0.669,0.044,0.291,-0.045,0.790,0.066,-0.216,-0.203,0.135,0.193,0.618,0.014,-0.114,0.110,0.319,-0.215,0.330,0.051,0.203,-0.303,0.834,-0.001
0.146,0.179,0.602,0.612,-0.077,0.445,-0.149,0.668,0.028,-0.103,-0.174,-0.033,0.040,0.607,-0.058,-0.153,-0.062,0.225,0.002,0.516,0.031,0.252,-0.281,0.763,-0.213
0.360,0.208,0.786,0.727,0.318,0.402,-0.020,0.905,0.251,0.052,0.056,0.207,0.307,0.735,0.228,-0.265,0.092,0.376,-0.031,0.658,0.143,0.352,0.040,0.919,0.030
0.361,0.189,0.763,0.791,0.044,0.524,-0.037,0.850,0.356,-0.111,-0.111,0.336,-0.033,0.673,-0.056,-0.012,0.185,0.326,-0.070,0.443,0.205,0.326,-0.276,0.735,0.095
0.222,0.056,0.529,0.631,0.148,0.521,-0.051,0.694,0.189,-0.029,-0.166,0.337,-0.121,0.604,-0.007,-0.297,-0.243,0.223,-0.252,0.322,0.165,-0.011,-0.461,0.696,-0.103
0.326,-0.056,0.589,0.510,0.141,0.535,-0.089,0.761,0.165,0.008,-0.181,0.143,-0.017,0.535,-0.082,-0.136,-0.183,0.317,-0.147,0.389,-0.005,0.037,-0.103,0.658,-0.031
0.265,0.114,0.625,0.644,0.048,0.532,-0.349,0.673,0.264,-0.089,-0.033,0.168,0.210,0.526,-0.114,-0.127,-0.091,0.208,-0.128,0.331,0.178,0.216,-0.439,0.693,-0.100
0.145,-0.087,0.651,0.447,-0.038,0.336,-0.469,0.515,0.033,-0.241,-0.244,0.138,0.106,0.555,-0.213,-0.149,-0.310,0.175,-0.060,0.337,0.105,-0.034,-0.459,0.658,-0.111
0.074,-0.106,0.616,0.637,-0.048,0.457,-0.313,0.579,-0.134,0.073,-0.149,0.258,0.205,0.672,-0.233,0.004,-0.174,0.228,-0.228,0.415,0.007,0.081,-0.123,0.514,-0.386
0.125,-0.103,0.303,0.569,-0.070,0.383,0.066,0.648,-0.154,-0.099,0.031,0.071,-0.173,0.577,-0.409,-0.351,-0.171,0.132,-0.345,0.319,-0.041,0.088,-0.237,0.466,-0.402
0.134,0.016,0.485,0.549,0.109,0.501,0.113,0.608,0.076,-0.036,-0.084,0.017,0.097,0.378,-0.154,-0.262,-0.072,0.163,-0.148,0.477,0.099,0.182,-0.115,0.519,-0.099
0.189,-0.149,0.342,0.346,-0.055,0.272,-0.187,0.473,-0.006,0.012,-0.327,-0.047,0.012,0.472,-0.229,-0.392,-0.265,0.248,-0.355,0.391,0.154,-0.006,-0.531,0.619,-0.226
0.230,-0.080,0.356,0.369,-0.141,0.283,-0.163,0.434,-0.105,-0.250,-0.345,0.056,-0.156,0.321,-0.425,-0.305,-0.323,0.056,-0.410,0.111,-0.074,-0.040,-0.518,0.452,-0.310
0.231,0.048,0.509,0.589,0.024,0.318,-0.252,0.580,-0.062,-0.210,-0.410,-0.024,0.019,0.450,-0.091,-0.157,-0.315,0.050,-0.219,0.016,0.006,0.010,-0.284,0.441,-0.348
0.089,0.072,0.433,0.463,-0.052,0.506,-0.128,0.619,0.007,-0.116,-0.266,0.013,0.126,0.292,0.089,-0.014,-0.212,0.205,-0.239,0.240,0.034,0.144,-0.378,0.742,-0.336
0.002,-0.165,0.358,0.350,-0.218,0.407,-0.458,0.512,-0.047,-0.268,-0.286,-0.069,-0.284,0.407,-0.363,-0.435,-0.185,-0.110,-0.238,0.272,-0.090,-0.071,-0.288,0.421,-0.379
0.438,-0.029,0.515,0.541,0.006,0.491,-0.237,0.570,-0.094,-0.159,-0.174,0.074,-0.081,0.616,-0.097,0.026,-0.041,-0.036,-0.520,0.382,-0.004,0.026,-0.237,0.395,-0.003
0.473,0.276,0.501,0.469,0.264,0.578,-0.303,0.668,0.084,-0.101,0.086,0.303,0.197,0.577,0.022,-0.148,0.225,0.247,-0.294,0.747,0.411,0.106,-0.092,0.675,0.173
0.201,0.280,0.759,0.581,-0.113,0.522,-0.159,0.780,0.369,-0.196,-0.149,0.402,0.385,0.620,0.245,-0.110,0.052,0.407,0.043,0.439,0.172,0.354,-0.215,0.693,0.116
0.342,0.248,0.804,0.621,0.400,0.760,0.140,0.809,0.245,-0.116,0.132,0.276,0.255,0.714,0.095,-0.205,0.157,0.426,-0.001,0.586,0.098,0.418,0.034,0.823,0.078
0.436,0.346,0.729,0.627,0.422,0.768,-0.015,0.820,0.320,0.065,0.249,0.401,0.223,0.778,0.095,-0.155,0.158,0.356,0.212,0.640,0.270,0.489,-0.037,0.823,0.082
0.707,0.661,0.932,1.070,0.640,0.883,0.171,1.114,0.614,0.225,0.594,0.687,0.632,0.913,0.359,0.182,0.361,0.630,0.432,0.930,0.468,0.615,0.383,1.116,0.167
0.630,0.581,0.832,1.015,0.329,0.844,0.159,1.162,0.504,0.382,0.535,0.540,0.637,0.947,0.271,0.152,0.300,0.456,0.313,0.853,0.337,0.531,-0.019,1.019,0.176
0.377,0.169,0.578,0.748,0.285,0.787,-0.074,0.898,0.146,0.026,0.186,0.316,0.441,0.669,0.105,0.015,0.170,0.546,0.237,0.688,0.329,0.208,-0.068,0.968,-0.085
0.423,0.243,0.874,0.754,0.227,0.708,0.037,0.960,-0.029,0.146,0.120,0.304,0.377,0.780,0.074,-0.084,0.031,0.331,0.191,0.567,0.301,0.409,-0.001,0.980,0.092
0.230,-0.064,0.861,0.595,0.120,0.566,-0.111,0.716,0.098,0.051,-0.087,0.108,0.155,0.692,-0.092,-0.233,-0.159,0.250,-0.082,0.316,0.240,0.244,-0.178,0.867,-0.115
0.299,0.012,0.660,0.559,0.065,0.662,0.018,0.679,0.198,0.072,-0.027,0.006,0.153,0.667,-0.082,0.158,0.062,0.254,0.080,0.399,0.366,0.252,-0.308,0.781,0.080
0.442,0.157,0.707,0.700,0.417,0.475,0.007,0.761,-0.095,-0.119,0.130,0.284,0.181,0.768,0.128,0.198,-0.096,0.650,0.092,0.577,0.208,0.262,-0.083,0.686,0.167
0.406,0.163,0.672,0.532,0.096,0.375,-0.122,0.611,0.024,0.078,0.064,0.192,0.313,0.684,0.256,-0.027,0.029,0.400,-0.206,0.499,0.336,0.367,0.047,0.665,0.022
